{"Layers":[{"Weights":[0.08615449070930481,-0.0582786463201046,0.1361103653907776,0.04243322089314461,-0.09022606164216995,-0.1114678680896759,-0.02246454916894436,-0.08524992316961289,0.03115028142929077,-0.13080452382564546,0.10000120848417282,0.11517832428216934,0.000598470913246274,0.1129026934504509,0.0703432634472847,-0.05957941338419914,-0.09781640022993088,0.010817731730639935,-0.07264436036348343,0.04997065290808678,0.24150390923023225,0.08362066745758057,-0.013894381932914257,-0.0029484645929187538,0.004843870643526316,-0.158145934343338,-0.09373673051595688,0.04043801128864288,-0.14520275592803956,-0.036680202931165698,0.05696411430835724,-0.010236356407403946,-0.07055354863405228,0.10311669856309891,-0.05293053761124611,0.03193072974681854,-0.12512363493442536,0.08378307521343231,-0.04794589430093765,0.048925165086984637,0.08580053597688675,0.04039595648646355,0.05076363682746887,-0.054881542921066287,-0.017674801871180536,-0.12033914774656296,0.22951793670654298,-0.0776681900024414,-0.02624756284058094,0.052812714129686359,0.16400112211704255,-0.1492522656917572,0.2432001829147339,-0.04175020381808281,-0.12595658004283906,0.09001827239990235,0.061592161655426028,0.1015545204281807,-0.09316802769899368,0.17723797261714936,-0.20025157928466798,0.17974813282489777,-0.09326307475566864,-0.003739138599485159,-0.15650154650211335,0.04140498489141464,0.2666478455066681,-0.0047817290760576729,-0.15152709186077119,-0.15370790660381318,-0.03482668474316597,0.13846448063850404,0.02247239276766777,-0.06728436052799225,0.036870792508125308,-0.10470142215490341,-0.10970886051654816,-0.01490120217204094,-0.08873489499092102,0.05715890973806381,-0.09294307976961136,0.09947594255208969,0.02079901099205017,0.021063420921564103,0.0026084806304425,-0.21334563195705415,-0.0045883022248744968,0.1071404218673706,-0.12096333503723145,0.1539985090494156,0.15362657606601716,-0.03278155252337456,0.09586550295352936,0.05977396294474602,-0.16493962705135346,0.028709670528769494,-0.09464191645383835,-0.1313447505235672,0.00565195269882679,0.0050505888648331169,-0.01707458309829235,0.11832336336374283,0.056030601263046268,-0.011463765054941178,-0.14569908380508424,0.19105519354343415,0.08648715168237686,-0.11964444816112519,-0.030468903481960298,0.015824468806385995,-0.06141752377152443,-0.004680831450968981,-0.10714755207300186,0.09351065754890442,-0.19117175042629243,0.07902088016271591,-0.1530567854642868,0.05500224232673645,-0.16009528934955598,0.10868509113788605,-0.0944448783993721,0.15127697587013246,-0.10984484851360321,0.03579222783446312,-0.039638448506593707,-0.04408005252480507,0.09359299391508103,0.034378886222839358,-0.05431636422872543,-0.021729538217186929,-0.025094028562307359,0.028181275352835656,-0.1454354226589203,-0.02020072750747204,-0.005047905724495649,0.05198511481285095,-0.09087894856929779,-0.21437449753284455,0.022136829793453218,-0.00745311239734292,0.09798718243837357,-0.019883982837200166,-0.02167482115328312,0.19058962166309358,0.02181222289800644,0.07741419970989227,-0.029635412618517877,-0.16592387855052949,-0.20180316269397736,-0.14966392517089845,-0.07613423466682434,0.2148193120956421,0.02761198580265045,-0.0651317834854126,0.021442336961627008,0.13302800059318543,0.00319589301943779,-0.0315980389714241,0.06314129382371903,0.10232645273208618,-0.0659608244895935,-0.04410111531615257,-0.1242610290646553,0.09891664981842041,0.11003955453634262,0.013428700156509877,0.14300818741321565,0.009546522051095963,-0.13768808543682099,-0.004458265844732523,0.10179579257965088,-0.04834894463419914,0.0387098453938961,-0.14660058915615083,-0.10299569368362427,-0.013536868616938591,-0.10917985439300537,0.0008685843204148114,0.04268760234117508,0.012123228050768376,0.02996181696653366,-0.14364619553089143,0.11442603915929795,-0.06293825805187226,0.0920984074473381,0.07677651941776276,-0.040485505014657977,0.12412169575691223,-0.040657296776771548,-0.03512537479400635,-0.13892054557800294,-0.06928613036870957,-0.13020825386047364,0.044557467103004459,-0.02299398183822632,-0.008007549680769444,-0.07737959176301956,-0.09015226364135742,0.07436075061559677,-0.0019933355506509544,-0.15143045783042909,0.037200380116701129,-0.09365656226873398,0.09115046262741089,0.002472879597917199,-0.0565219484269619,0.056920573115348819,0.05567821115255356,-0.04116468504071236,-0.029058078303933145,-0.10875025391578675,0.05825083702802658,0.09870215505361557,-0.010572079569101334,-0.010465320199728012,0.16151688992977143,0.059811580926179889,-0.06668756157159805,0.0021412258502095939,-0.038948748260736468,-0.04794546216726303,-0.015847109258174897,-0.03523417189717293,-0.07949045300483704,-0.024002717807888986,-0.08134877681732178,0.13071241974830628,-0.011179681867361069,-0.08189807832241059,0.058753445744514468,0.06899259984493256,0.023033155128359796,0.10025006532669068,-0.028395891189575197,0.05622832104563713,0.10954401642084122,-0.15719884634017945,-0.013246286660432816,0.1282431185245514,-0.0007217649254016578,-0.08965709805488587,-0.12009438127279282,-0.13067084550857545,0.17835955321788789,-0.00011501670815050602,0.03249084949493408,0.0441388338804245,0.028068972751498224,-0.013457062654197216,-0.000602441024966538,-0.0351191870868206,-0.046930134296417239,0.053501103073358539,0.08780645579099655,-0.016958827152848245,-0.05281203240156174,-0.1288783848285675,-0.09227950870990753,0.07447195798158646,-0.02689375728368759,0.010874065570533276,0.010639532469213009,-0.1004086285829544,0.10680554062128067,0.05531846359372139,-0.03593340888619423,-0.0684642344713211,-0.048884715884923938,0.013127305544912815,0.12033121287822724,-0.12067180871963501,0.0070829568430781368,0.08213537931442261,-0.01578236185014248,0.11967714130878449,0.07210735976696015,0.07273197919130326,0.061655525118112567,-0.16049465537071229,0.013275318779051304,0.04872337356209755,0.062197960913181308,-0.025162024423480035,0.08646517992019654,-0.061758700758218768,0.1564914882183075,-0.0211256742477417,0.1278793066740036,-0.006186529528349638,-0.28298264741897585,-0.02269982546567917,-0.018183737993240358,-0.02114495448768139,0.05405140295624733,-0.10800580680370331,-0.05144480988383293,-0.017600294202566148,0.06670379638671875,0.11021625250577927,-0.0037705660797655584,-0.027574265375733377,-0.182527557015419,0.036687351763248447,0.06578592211008072,0.0031984401866793634,0.12622974812984467,-0.0009516202262602747,-0.1009264811873436,0.10395541042089462,-0.07162874937057495,-0.04326225817203522,0.01608213596045971,0.030105847865343095,-0.11780469864606857,-0.0487431101500988,0.021936694160103799,0.009476928040385247,0.038249824196100238,-0.06846313923597336,-0.05167199298739433,-0.13325057923793794,0.10707879066467285,-0.087192602455616,-0.16252875328063966,-0.08807902038097382,-0.02753504179418087,0.052501313388347629,0.13173861801624299,-0.01264201570302248,0.02430594339966774,-0.04131297022104263,0.06504072993993759,0.07224836200475693,0.18042044341564179,0.017377791926264764,-0.01258643064647913,0.04652030020952225,0.03644850477576256,-0.031097687780857087,0.08496901392936707,-0.1589023917913437,-0.06308861076831818,-0.0024620897602289917,-0.15135683119297028,0.09483293443918228,-0.04855576902627945,0.053921520709991458,0.11881160736083985,0.13527360558509828,0.012932077050209046,0.03760479390621185,0.03724367916584015,0.016334185376763345,0.13086357712745667,-0.1307128369808197,0.023309895768761636,-0.1315866857767105,-0.1425234079360962,0.0489024743437767,0.17500457167625428,0.20975658297538758,-0.08195274323225022,0.12840814888477326,0.06857521086931229,-0.07819202542304993,0.017428718507289888,-0.046547748148441318,0.06536249816417694,-0.11521384119987488,0.042201343923807147,-0.010750090703368187,0.07454650849103928,-0.036236099898815158,-0.053896766155958179,0.012387574650347233,-0.055470287799835208,0.031124144792556764,0.013745168223977089,0.18662826716899873,0.10183662921190262,0.014962941408157349,0.11503866314888,0.01229309756308794,-0.04178519919514656,0.10924206674098969,-0.11670888960361481,-0.16055117547512055,0.0618969164788723,-0.08551409840583801,0.21615484356880189,-0.04912766441702843,-0.11838265508413315,0.17038121819496156,0.07889571040868759,-0.0006683446699753404,0.1085810586810112,-0.10490685701370239,0.04252316430211067,-0.03807242959737778,-0.0986909419298172,-0.011096641421318055,-0.0710664615035057,-0.1509939730167389,0.07839243113994599,-0.042002882808446887,0.09297934919595719,-0.006460967939347029,-0.0307238157838583,0.04663471132516861,-0.016299869865179063,-0.10935314744710922,-0.06184948980808258,0.033848244696855548,0.058274224400520328,-0.04515255615115166,-0.007099336478859186,0.10805251449346543,-0.06485836207866669,-0.21841619908809663,0.06980259716510773,0.08445776253938675,-0.020303452387452127,-0.004971969407051802,-0.004635276738554239,-0.1506095975637436,0.047543104737997058,-0.04821651428937912,-0.07537873089313507,0.09940759837627411,-0.0427868627011776,0.11151887476444245,0.06493349373340607,-0.023937836289405824,0.05873814597725868,-0.08914598822593689,-0.020934656262397767,-0.011638405732810498,0.02644473686814308,0.022081462666392328,-0.006077993661165237,-0.0988420769572258,0.19196592271327973,-0.11574500054121018,-0.014280874282121659,-0.03662929683923721,-0.028885114938020707,-0.0487784743309021,0.06290993839502335,-0.008650564588606358,0.17553368210792542,-0.10398607701063156,-0.16768048703670503,-0.029023442417383195,0.08759289234876633,-0.03402787446975708,0.13735005259513856,-0.10829630494117737,-0.12221395969390869,0.08853597939014435,-0.003268282162025571,0.143745556473732,-0.1293063759803772,-0.00934084877371788,0.049201130867004397,-0.06046484410762787,0.10369469970464707,0.24055799841880799,-0.04686737433075905,0.015405181795358658,-0.09756398946046829,0.06020085886120796,0.029093865305185319,-0.06371638178825379,-0.0002518253168091178,0.10453442484140396,-0.15285298228263856,0.01640135794878006,-0.06934400647878647,0.0026635967660695316,-0.034245606511831287,-0.06348950415849686,0.11615113914012909,-0.08150050044059754,0.056858133524656299,-0.026837604120373727,-0.18056735396385194,0.04432273283600807,0.05560753494501114,0.09736833721399307,0.22715871036052705,0.07800573110580445,-0.029117826372385026,-0.1277671754360199,-0.0024567791260778906,-0.1409083753824234,0.1021413505077362,0.023657754063606263,-0.006692888215184212,0.09720924496650696,-0.06350510567426682,-0.023813733831048013,-0.034929778426885608,-0.1607663333415985,0.00046304246643558145,-0.1581968516111374,0.11916925013065338,-0.01862391084432602,0.04487573355436325,-0.011588536202907563,0.000011566736247914378,0.10186568647623062,0.062496136873960498,-0.26414531469345095,0.035980019718408588,0.05850618705153465,0.07574257254600525,0.06726069748401642,-0.05715268850326538,-0.1675468385219574,-0.12296552211046219,0.06101114675402641,0.035419635474681857,0.08406420052051544,0.060188546776771548,-0.019501706585288049,-0.06460154801607132,0.11512231826782227,0.06757444888353348,-0.07047855854034424,0.05461229383945465,-0.0753275454044342,-0.06537565588951111,-0.002589700510725379,0.011662638746201992,-0.06477530300617218,0.10375010967254639,0.10119568556547165,0.052416425198316577,0.0900098979473114,-0.05440644174814224,-0.22340621054172517,-0.1333121508359909,0.044957954436540607,0.047427739948034289,0.2433328777551651,0.04829271882772446,0.014324629679322243,-0.18641361594200135,0.04313977062702179,-0.033677659928798679,-0.0854506716132164,0.13201190531253816,0.01850051060318947,0.20599083602428437,0.12723323702812196,0.17982035875320435,0.31422069668769839,-0.06911086291074753,-0.02994319424033165,0.030340062454342843,0.03580605238676071,0.17444314062595368,-0.09870993345975876,0.1626940667629242,-0.06614059209823609,0.0706903412938118,0.15914307534694673,0.018445627763867379,0.04510800167918205,0.15834586322307588,-0.16655729711055757,-0.06145191937685013,-0.14933982491493226,-0.11865666508674622,0.023031117394566537,0.0718652680516243,0.251016765832901,0.12052012234926224,-0.002551453188061714,-0.06226201727986336,-0.13470056653022767,0.05266095697879791,-0.05736217275261879,-0.15731404721736909,-0.07839496433734894,0.04474026337265968,-0.06696522235870362,-0.07017991691827774,0.08926493674516678,-0.17568661272525788,0.1133664920926094,0.042896755039691928,0.08246061950922013,-0.1053280159831047,-0.07238872349262238,0.05923572927713394,0.11974543333053589,0.02118254452943802,0.10216669738292694,0.15999466180801392,-0.058400459587574008,-0.00840701162815094,-0.02533000521361828,0.07807038724422455,-0.09429771453142166,0.0263828095048666,0.018515195697546006,-0.00885695219039917,0.06742095947265625,0.04093356430530548,0.08734835684299469,0.05735158547759056,0.12847615778446198,0.10763601213693619,-0.08082282543182373,0.2148648500442505,-0.1747838258743286,-0.2334950715303421,0.023138711228966714,-0.05392199009656906,-0.05363454669713974,-0.054502230137586597,0.09802176803350449,0.10014040023088455,0.0158690232783556,0.028872765600681306,0.06481992453336716,0.0659932866692543,0.05925161391496658,0.04361802339553833,0.049763891845941547,0.004835109692066908,0.0645810067653656,-0.03812636435031891,-0.03158663958311081,-0.09245822578668595,0.0874323919415474,-0.0686970129609108,0.09601002186536789,0.1651368886232376,-0.10090078413486481,-0.1070234552025795,-0.04816901311278343,0.00022115549654699862,-0.12289829552173615,-0.14599844813346864,0.039293162524700168,0.004371089860796928,0.14746282994747163,-0.000003469031071290374,-0.07679818570613861,0.1356802135705948,0.018244555220007898,0.05709844455122948,-0.058373406529426578,0.06587640941143036,0.05340612679719925,0.02573707140982151,-0.04569176957011223,0.06669935584068299,0.04406742751598358,0.08823186904191971,-0.00835164450109005,0.03120364062488079,-0.042040981352329257,0.03563668578863144,0.20232871174812318,-0.058957863599061969,0.11716588586568833,-0.029646730050444604,-0.05953649431467056,-0.10606963187456131,-0.027168894186615945,0.020445814356207849,-0.12149925529956818,0.06063104420900345,-0.07170163094997406,0.08339990675449372,0.14458583295345307,0.0881035253405571,0.029743356630206109,-0.11805933713912964,0.017060544341802598,-0.09247317165136337,0.002503281692042947,0.06663678586483002,-0.010838299989700318,-0.03906447812914848,-0.003931600600481033,-0.04870942607522011,-0.07562986016273499,-0.037786468863487247,0.12254771590232849,0.015375304035842419,0.058407459408044818,0.05311872810125351,-0.06722535192966461,0.007879002019762993,-0.06266322731971741,-0.006988899782299995,0.06747210025787354,0.08451461046934128,-0.0036631147377192976,-0.10522375255823136,0.08700456470251084,0.023207517340779306,0.0760384127497673,0.072211354970932,-0.08668912947177887,-0.055622946470975879,-0.08801421523094177,0.0015127003425732256,0.16087034344673158,0.04478319361805916,-0.03765116259455681,-0.05000236630439758,-0.10961781442165375,0.05195752531290054,0.00029666957561858,-0.0093384413048625,0.13442736864089967,0.01570180244743824,-0.12746255099773408,0.02217903733253479,-0.017037181183695794,-0.1266455501317978,0.02854504995048046,-0.09967251121997833,0.12061753123998642,-0.16213558614253999,-0.0250008013099432,-0.08029118925333023,-0.020222870633006097,-0.06585190445184708,0.13607162237167359,0.008862696588039399,0.030265117064118387,-0.026415100321173669,-0.027567822486162187,0.2253502607345581,0.08777967840433121,0.13869164884090424,-0.015086119994521141,0.08055181056261063,-0.06537998467683792,-0.16471099853515626,0.020927634090185167,0.04883300140500069,-0.010015455074608326,-0.10081204026937485,-0.19363310933113099,-0.22774815559387208,0.08836396038532257,-0.09946031868457794,0.08777359873056412,-0.08153875917196274,-0.16026540100574494,0.028832189738750459,0.04223146289587021,0.12959977984428407,0.004027923569083214,0.04234849661588669,-0.12315431237220764,0.22140689194202424,0.22905665636062623,0.14749982953071595,0.04266853258013725,-0.05053500086069107,-0.13384252786636353,0.013657301664352417,-0.13758856058120728,0.09520342200994492,0.16743899881839753,0.13097190856933595,-0.07590793818235398,0.09752784669399262,0.07481762021780014,-0.03821433335542679,-0.0693451315164566,-0.09596789628267288,-0.010271276347339154,0.05142064765095711,-0.1048937737941742,-0.00617157993838191,-0.03226933255791664,-0.0753779336810112,0.09433618932962418,0.057825371623039249,-0.010138004086911679,-0.08171460032463074,-0.09102358669042587,0.019535019993782045,-0.00363210029900074,-0.05169977620244026,0.07989569753408432,-0.0940234363079071,-0.023923251777887346,0.05933494120836258,0.03980347886681557,-0.07967133820056915,0.0915163904428482,-0.03283502161502838,-0.07797272503376007,0.04982474073767662,-0.03757742792367935,-0.039362479001283649,-0.07713080197572708,0.037793971598148349,0.15336966514587403,0.03683999925851822,0.21116982400417329,0.12519247829914094,0.044640619307756427,-0.05157214403152466,-0.02092062123119831,-0.14310511946678163,-0.09677602350711823,-0.061978086829185489,0.10499408841133118,0.020258963108062745,0.056456249207258227,0.03687090054154396,-0.10048428177833557,-0.06862577795982361,0.12657934427261353,-0.1415260285139084,0.12665174901485444,0.10784514993429184,0.27674609422683718,0.16410857439041139,0.0032256715930998327,-0.037547994405031207,0.13263022899627686,-0.1781749427318573,-0.09680715203285217,0.163219153881073,-0.05043459311127663,0.032746754586696628,0.2025875747203827,-0.06260748207569123,0.17851658165454865,0.14033819735050202,-0.09525355696678162,0.17393505573272706,0.18626901507377625,0.046750396490097049,-0.16614966094493867,0.09708216041326523,0.08988101780414581,0.05131891742348671,-0.06794145703315735,-0.11141569167375565,-0.005057940259575844,-0.04920616000890732,0.03280550613999367,-0.1566866934299469,0.10867152363061905,-0.021497398614883424,-0.0023888135328888895,-0.09833040833473206,-0.022952960804104806,-0.062463801354169849,-0.10642174631357193,-0.007421940565109253,0.1165124848484993,-0.05176764354109764,0.050754304975271228,-0.01226881891489029,0.059659041464328769,0.06920471042394638,0.11406487226486206,-0.07015039771795273,0.18066774308681489,-0.07355616241693497,0.0023580242414027454,-0.08741053193807602,0.18463782966136933,-0.01233365386724472,-0.0018891538493335248,0.14625923335552216,-0.3247099816799164,0.0860617384314537,-0.02355167642235756,0.0030203498899936678,0.009709633886814118,0.01691017858684063,-0.07138346135616303,-0.1735049933195114,-0.033812541514635089,0.014964804984629155,0.020889416337013246,-0.06536771357059479,0.05563659220933914,0.029020395129919053,-0.008796598762273789,0.14811734855175019,-0.14758846163749696,-0.10557860881090164,-0.026838336139917375,-0.06437598168849945,-0.16107867658138276,0.07382412999868393,0.06836626678705216,0.08731571584939957,-0.026966415345668794,0.08495168387889862,-0.09237080812454224,-0.13477790355682374,-0.23951725661754609,-0.0005895009380765259,-0.014848395250737667,0.21013225615024568,-0.16280654072761537,-0.0031322853174060585,-0.046851933002471927,0.04767993092536926,0.0719023123383522,0.08832851052284241,0.06771776080131531,0.1462845355272293,0.028828009963035585,0.09146222472190857,-0.016038762405514718,-0.004123271442949772,-0.10739056766033173,-0.04485819861292839,-0.0489032082259655,-0.011285960674285889,0.03712644800543785,-0.14045411348342896,-0.06997784972190857,0.052705202251672748,-0.06652513146400452,0.045144423842430118,0.13684308528900147,-0.22481144964694978,0.07011786848306656,-0.011056657880544663,-0.17964576184749604,0.12975794076919557,-0.13624046742916108,-0.19438982009887696,0.036982882767915729,-0.02521793730556965,-0.07937458902597428,-0.0755559504032135,0.059436190873384479,-0.022738900035619737,0.03992060571908951,0.03398191183805466,0.23827621340751649,0.17112958431243897,-0.08213859051465988,0.00239160074852407,0.027886997908353807,0.0797562524676323,-0.04060685634613037,-0.06515644490718842,-0.05368722230195999,0.09136629104614258,-0.17915566265583039,-0.0844980850815773,-0.007254245691001415,-0.0478963740170002,-0.03541627526283264,0.014006117358803749,-0.022664865478873254,-0.14770837128162385,-0.06674010306596756,0.033510345965623859,0.014939769171178341,-0.19101044535636903,0.11793477088212967,0.05724171921610832,0.07496286183595658,-0.003464668756350875,-0.02394767291843891,0.12086997926235199,0.035486768931150439,0.07380282878875733,-0.1029927209019661,-0.10632985085248947,0.12299428880214691,-0.14111295342445374,-0.026606908068060876,-0.020493442192673684,0.04434468597173691,0.012775321491062642,-0.024191001430153848,-0.17946965992450715,0.015391608700156212,0.08647986501455307,-0.22501568496227265,0.11182354390621185,0.044849034398794177,0.1345214992761612,0.06488064676523209,0.028141209855675699,0.009347024373710156,0.07026204466819763,-0.023782985284924508,-0.09365654736757279,-0.08821338415145874,0.11136509478092194,0.03078424371778965,-0.13428166508674622,0.06326228380203247,-0.143413245677948,-0.028221597895026208,-0.04140908643603325,-0.01657542586326599,-0.01810789667069912,-0.0024039181880652906,0.14140941202640534,-0.04393251985311508,-0.1592366248369217,0.06974588334560394,-0.06327690184116364,-0.01813751459121704,0.047692712396383288,0.13842877745628358,0.11534743756055832,0.02605169080197811,0.036932408809661868,0.02417515404522419,-0.001138348481617868,-0.1420304775238037,0.02716442570090294,0.03628325089812279,0.04406573623418808,0.07781482487916947,0.07695914804935456,-0.16280966997146607,0.060628555715084079,-0.04000508785247803,-0.04901278391480446,-0.21025341749191285,-0.1331317126750946,-0.06180831044912338,0.047244466841220859,-0.029188664630055429,-0.028052520006895067,0.024803077802062036,-0.06312032043933869,-0.005895873531699181,-0.19783839583396913,-0.07949886471033097,0.05618703365325928,0.02870335802435875,-0.09581766277551651,-0.09290692955255509,0.08811561018228531,-0.04704113304615021,-0.023764794692397119,0.10900287330150604,-0.11399473994970322,-0.03431934863328934,-0.16740436851978303,0.034940414130687717,0.09673405438661576,0.09884385764598847,-0.18458665907382966,0.054820913821458819,0.12458737194538117,0.16880343854427339,0.006099464371800423,-0.041202712804079059,0.0045652021653950218,0.13512657582759858,-0.0995892733335495,-0.18481023609638215,-0.07234559953212738,0.14193639159202577,0.07828179001808167,-0.09039204567670822,0.010784808546304703,-0.052158817648887637,0.11589749902486801,-0.055454958230257037,0.042306479066610339,-0.00982760451734066,0.02624451369047165,-0.011920458637177945,0.014957591891288758,-0.03516419604420662,-0.00605489918962121,-0.062198031693696979,-0.2651009261608124,0.05335499346256256,0.08728515356779099,-0.01203315332531929,0.04284342750906944,-0.04323190078139305,-0.015306181274354458,-0.12394332140684128,-0.020439645275473596,0.13201496005058289,-0.17638137936592103,-0.06635136902332306,0.1103750467300415,0.12181214988231659,-0.056702274829149249,-0.0800955593585968,-0.04976796731352806,-0.045229826122522357,0.03988386690616608,-0.12844903767108918,-0.07694339752197266,0.026424195617437364,0.1067519560456276,0.14491325616836549,-0.029866987839341165,-0.09000706672668457,0.008563114330172539,0.056954868137836459,-0.019191956147551538,0.04094316065311432,0.038103558123111728,0.13040369749069215,0.008396285586059094,0.016352152451872827,-0.009120422415435315,-0.07005129754543305,-0.14923088252544404,0.07339247316122055,0.037977807223796847,0.05551518127322197,0.16358807682991029,-0.1381377875804901,-0.2726309895515442,0.07347981631755829,0.007568109314888716,-0.14133824408054353,-0.03318137675523758,0.06085461005568504,0.05623483657836914,0.10510104894638062,-0.0535723939538002,0.2072441279888153,-0.07967182248830795,0.07794678211212158,0.01924603246152401,0.11004813015460968,-0.08776018768548966,-0.007453036494553089,-0.04654272273182869,0.14823858439922334,-0.14591549336910249,0.001085266936570406,0.047247182577848437,0.10256415605545044,0.010197696276009083,-0.011875918135046959,0.17743712663650514,0.07525445520877838,-0.059330906718969348,0.13428738713264466,0.13044793903827668,-0.11436004191637039,0.14360080659389497,-0.14723464846611024,0.030896291136741639,-0.10120665282011032,-0.001206994173116982,-0.0562116876244545,-0.12795189023017884,0.05603373423218727,0.14957953989505769,0.08991925418376923,-0.02786608226597309,0.19362123310565949,-0.1357329934835434,0.12161459773778916,-0.08813051879405976,-0.1559586077928543,0.017346424981951715,0.10851661115884781,-0.14620661735534669,-0.13211560249328614,-0.12652283906936646,0.06691927462816239,-0.06318649649620056,-0.04254046827554703,0.06566567718982697,-0.03657638654112816,0.008470255881547928,0.1403508335351944,-0.0031137641053646805,0.1132068857550621,-0.06335790455341339,0.09312933683395386,-0.004874632693827152,0.06206092610955238,-0.002419047988951206,0.024004248902201654,-0.06508216261863709,0.0006839016568847001,0.017560042440891267,0.08489099889993668,-0.06368763744831085,0.20998746156692506,0.04371779039502144,0.03419167920947075,0.025006210431456567,0.14461539685726167,0.070700503885746,-0.011214741505682469,0.10158112645149231,-0.09564929455518723,0.10208379477262497,-0.07674781233072281,-0.18458625674247743,0.1939639449119568,0.0886833593249321,-0.024661637842655183,0.10848482698202133,-0.029034288600087167,0.06093680113554001,-0.08084157109260559,0.006181691773235798,-0.19177848100662232,-0.10427583009004593,-0.22479847073554994,0.06818976253271103,0.000009039898031915072,0.021655753254890443,0.05087972432374954,0.007983646355569363,0.05891427397727966,-0.04180311784148216,-0.11166084557771683,0.04143999144434929,0.0327618308365345,0.10692158341407776,-0.030172932893037797,0.10364983230829239,0.09351640939712525,-0.15820607542991639,-0.037467923015356067,0.02541399747133255,-0.11206160485744477,0.022616595029830934,0.23080244660377503,-0.1409745067358017,0.1337001770734787,0.0322200283408165,0.02537652850151062,0.20875944197177888,-0.021222468465566636,-0.06838545948266983,-0.09437155723571778,0.08628437668085098,-0.028065402060747148,-0.08819988369941712,-0.10630790144205094,-0.0694739818572998,0.050905145704746249,0.11214281618595123,-0.07232668250799179,-0.1387050300836563,0.004365467466413975,-0.07383643835783005,0.06693150848150253,0.1445208042860031,-0.18181410431861878,-0.06627227365970612,-0.03205635026097298,-0.03973323479294777,0.087794229388237,0.09601660072803498,-0.03472261130809784,0.03175511956214905,-0.18096478283405305,-0.03503016009926796,-0.2249385565519333,0.08678259700536728,-0.023212263360619546,0.02936512790620327,-0.03358929231762886,-0.08443867415189743,0.12146493047475815,0.09001809358596802,0.09367653727531433,-0.022024810314178468,0.041020527482032779,-0.1552075296640396,-0.05354400351643562,0.049812640994787219,0.03293575346469879,-0.09035375714302063,-0.28630495071411135,0.1214791014790535,-0.0298365019261837,-0.059041474014520648,-0.018637798726558687,-0.035095326602458957,0.1204431876540184,-0.14866220951080323,0.24717441201210023,-0.1612788885831833,-0.05412460118532181,-0.005068438593298197,-0.04570857435464859,-0.09437014907598496,-0.019300229847431184,-0.14979615807533265,-0.1914374679327011,-0.025496087968349458,0.04428407549858093,-0.22370216250419618,-0.15195950865745545,-0.0948282927274704,0.07085420191287995,0.001101134461350739,0.06956586241722107,-0.13376562297344209,-0.20605525374412538,0.02052348107099533,-0.05152313411235809,0.04664203152060509,-0.010286998003721238,0.01812378130853176,0.08240519464015961,-0.09664744138717652,0.0003634823369793594,-0.07157829403877258,-0.05111745744943619,0.1037859246134758,0.03229595348238945,0.24935618042945863,-0.03709128499031067,-0.04532665014266968,0.1655890941619873,0.10173606872558594,0.19323021173477174,0.07030774652957916,-0.07309502363204956,-0.1013680174946785,0.05312908813357353,0.21912881731987,0.04140990599989891,0.22251132130622865,-0.019285868853330613,-0.002203087555244565,0.07745786756277085,-0.011419052258133889,0.056260112673044208,0.10177084803581238,0.027078643441200258,0.12661604583263398,0.09403292089700699,0.0327598862349987,0.018307462334632875,0.024205967783927919,-0.3019847869873047,-0.10878513753414154,-0.1583765298128128,0.0767061859369278,-0.031119978055357934,-0.10632104426622391,0.041472431272268298,-0.025470132008194925,0.05873997509479523,0.05496402457356453,0.28189316391944888,-0.19510018825531007,-0.052091196179389957,-0.035744838416576388,0.01730782724916935,0.04213006794452667,0.15477244555950166,-0.08151499927043915,-0.038428060710430148,-0.07299753278493881,0.023465001955628396,0.05251124128699303,-0.0549490824341774,-0.03153691813349724,0.021877439692616464,0.056847624480724338,0.051037415862083438,-0.12801873683929444,-0.08599082380533219,-0.012803369201719761,-0.01607944630086422,-0.09098885208368302,0.26901865005493166,0.05795221030712128,0.10767799615859986,0.07060538232326508,-0.028424009680747987,-0.1854782998561859,0.006820847280323505,0.23179742693901063,0.01855933666229248,-0.15718324482440949,0.038210686296224597,0.05518181994557381,-0.07445923238992691,0.3177420198917389,-0.06240202486515045,0.018183261156082155,-0.10076025128364563,-0.04996199533343315,0.16315671801567079,0.0031681896653026344,0.08304564654827118,0.08373838663101196,-0.22212526202201844,-0.018337495625019075,-0.07947656512260437,-0.08551622927188873,-0.02514035440981388,-0.022415101528167726,0.0036097755655646326,-0.08074139058589935,0.04949213191866875,0.13263078033924104,0.025153208523988725,0.08751759678125382,-0.011712218634784222,-0.23710568249225617,0.17216558754444123,-0.13473880290985108,0.04677673056721687,0.09220048785209656,0.02594761922955513,0.05743464082479477,0.07823509722948075,-0.07058343291282654,0.0718124657869339,-0.05722596496343613,0.08275476843118668,-0.05615406855940819,0.06482215970754624,-0.016830984503030778,-0.09663703292608261,0.058007292449474338,-0.07123852521181107,0.03587483987212181,0.09877005964517594,-0.11374084651470185,-0.11388150602579117,-0.012469244189560414,0.04016972705721855,-0.020081624388694764,-0.06662460416555405,-0.14169494807720185,0.019182950258255006,-0.043281883001327518,0.012264818884432316,0.03512289747595787,0.018955795094370843,-0.018527360633015634,-0.015359478071331978,0.08735492825508118,0.016778990626335145,-0.05033675581216812,-0.02649177610874176,-0.0364161841571331,-0.14970825612545014,-0.12820087373256684,-0.1233750730752945,-0.10744091123342514,-0.07860866189002991,0.023336803540587426,-0.07496538013219834,0.0010102572850883008,-0.1476021409034729,0.20190636813640595,0.005887971725314856,0.19089943170547486,-0.06091570481657982,-0.08210565894842148,-0.09998549520969391,0.06482336670160294,0.07632386684417725,-0.05445011705160141,0.10921088606119156,0.13364320993423463,-0.09043802320957184,-0.04946459084749222,0.020266830921173097,-0.08046775311231613,-0.09910625219345093,0.12062300741672516,0.10382574796676636,0.038756147027015689,-0.07984896004199982,-0.03729986026883125,-0.14135117828845979,-0.15879204869270326,-0.26238229870796206,-0.034001365303993228,0.013569087721407414,-0.027585193514823915,0.0031919507309794428,0.09014652669429779,0.09853704273700714,-0.03435147926211357,-0.22974753379821778,-0.09482186287641525,-0.10084519535303116,0.06423728168010712,-0.05449709668755531,0.006700034253299236,0.07570093870162964,-0.03979754447937012,-0.12069997191429138,-0.02700606733560562,-0.054311227053403857,-0.08501549810171128,0.15668979287147523,-0.02756376750767231,-0.06131826713681221,-0.00663934089243412,0.030361924320459367,-0.06404972076416016,-0.08296395093202591,0.16099514067173005,-0.12873362004756928,0.05957195535302162,0.07571558654308319,0.09774457663297653,-0.16818584501743318,-0.05760931596159935,0.13456209003925324,0.04085507243871689,-0.3042249083518982,0.19551964104175569,0.1507026106119156,-0.06842856854200363,0.02081565372645855,0.05932801216840744,0.051486678421497348,-0.05816366523504257,-0.06791535019874573,-0.019536355510354043,0.09676078706979752,0.10232187807559967,0.04628053307533264,-0.07198739796876908,-0.05624890327453613,-0.0949358344078064,-0.04046529531478882,-0.006436441093683243,-0.07788655161857605,-0.22231921553611756,-0.029100866988301278,-0.024777159094810487,0.06206786632537842,0.06258470565080643,-0.11877170950174332,-0.13033196330070496,0.0006111505790613592,-0.12054768949747086,0.12983088195323945,0.10265466570854187,-0.03908536583185196,0.034685101360082629,0.08750544488430023,0.12186684459447861,0.06937166303396225,-0.04673302173614502,-0.07582885771989823,-0.07142650336027146,0.04190085083246231,0.06848643720149994,0.10323774814605713,-0.0305876974016428,-0.029742224141955377,-0.07157178968191147,-0.12676051259040833,-0.1430010348558426,-0.10705482959747315,0.0340866893529892,0.01790321059525013,0.0595523901283741,0.14975708723068238,0.01947610080242157,-0.17759762704372407,0.2076735496520996,-0.056827835738658908,-0.03664016351103783,0.08648461103439331,-0.09034779667854309,-0.01809604838490486,-0.08407992869615555,-0.07147517055273056,-0.14799541234970094,-0.016197575256228448,-0.18298779428005219,0.06404294818639755,0.023025542497634889,0.06879951804876328,0.1392083317041397,-0.09814614057540894,-0.06711976230144501,-0.04126204922795296,-0.04873516783118248,0.0452270545065403,0.1540840119123459,0.17097419500350953,0.01546853594481945,0.03304695710539818,0.030466638505458833,0.013700745068490506,0.21800801157951356,0.09630195051431656,0.03916660323739052,-0.09712331742048264,0.14433430135250092,0.012792138382792473,0.1945432424545288,-0.18292191624641419,-0.17047935724258424,0.03200974315404892,-0.06464368849992752,-0.06027797609567642,0.019342709332704545,-0.05641283094882965,-0.038065988570451739,-0.13414788246154786,-0.02894798293709755,0.020747385919094087,0.11374155431985855,0.22008633613586427,0.015047227963805199,0.024759840220212938,-0.13351689279079438,0.08876969665288925,0.01249624788761139,0.046245843172073367,-0.10739229619503021,0.15330944955348969,-0.05927051976323128,0.016384229063987733,-0.019486110657453538,-0.15179568529129029,0.028845787048339845,-0.013513287529349327,-0.09973462671041489,0.04883163049817085,-0.037650056183338168,-0.090863436460495,0.00046767955063842237,-0.10597461462020874,0.019432079046964647,0.10724625736474991,0.05345825105905533,-0.04493281617760658,0.03505301848053932,-0.04760390892624855,0.022261083126068116,0.13668784499168397,0.02549857646226883,0.1738315224647522,-0.12098027765750885,0.10029269009828568,-0.1034725233912468,0.09274616092443466,-0.09249985963106156,0.1584991067647934,-0.002026473404839635,-0.029746487736701967,-0.07711537182331085,-0.20318888127803803,-0.10230007022619248,0.03758631646633148,-0.016169168055057527,-0.0698336586356163,0.09952598810195923,-0.02439325675368309,0.14692184329032899,-0.08424339443445206,-0.08902380615472794,-0.03184590861201286,0.10056760162115097,-0.09668979048728943,-0.020958274602890016,0.10254041105508805,0.08643020689487457,-0.015094568021595478,0.014281653799116612,0.04900289699435234,-0.0302404947578907,-0.060611944645643237,-0.1740533411502838,0.06116177514195442,0.06622690707445145,-0.02647768333554268,-0.04552137479186058,-0.10807515680789948,0.03500983491539955,0.13054440915584565,-0.019834004342556,0.032853420823812488,0.07380543649196625,0.130822092294693,-0.08372184634208679,-0.0070744287222623829,0.11261913180351258,-0.07254612445831299,0.07470102608203888,-0.07001475989818573,0.06773541122674942,-0.014593016356229782,-0.04612336307764053,0.17681127786636353,0.00880406890064478,-0.2545202672481537,0.12875743210315705,-0.11938264220952988,-0.05775179713964462,-0.1797155737876892,-0.0452890619635582,-0.04293389990925789,-0.005925873294472694,0.09663229435682297,-0.022339968010783197,-0.058010976761579517,0.007714645005762577,-0.03867087513208389,-0.0707007646560669,-0.05521717295050621,-0.030712245032191278,0.044164396822452548,0.05601274222135544,0.0676770880818367,0.03478851169347763,-0.17705261707305909,0.07682136446237564,-0.11563758552074433,-0.0017149464692920447,-0.07320552319288254,-0.008776506409049034,0.06472382694482804,0.01289514172822237,-0.17172816395759583,0.010851569473743439,-0.1304537057876587,0.22499582171440125,-0.032834380865097049,0.1499260663986206,0.06637745350599289,0.15056772530078889,0.01395458821207285,0.10959075391292572,0.07307242602109909,0.0329885259270668,-0.19719327986240388,0.12442243099212647,0.05700506269931793,-0.061269938945770267,0.07876987010240555,-0.012693321332335472,-0.028872771188616754,0.14635047316551209,-0.007594700437039137,-0.05961335450410843,-0.015520373359322548,0.005515557713806629,-0.025470852851867677,-0.2577556073665619,-0.023685308173298837,-0.2013932317495346,0.07899551093578339,-0.08828671276569367,-0.045441534370183948,-0.04862456023693085,0.11452089995145798,-0.06669405847787857,0.0431574285030365,0.05584114044904709,0.01760166510939598,0.07571158558130264,-0.061173342168331149,0.012071528472006321,-0.08106471598148346,-0.05732688680291176,0.0059958877973258499,-0.11016062647104263,0.1216878741979599,0.10071947425603867,-0.09650717675685883,-0.07028605788946152,-0.0985320508480072,0.15275079011917115,0.05793532729148865,0.013562561944127083,-0.07292047888040543,-0.05246589332818985,-0.03716559335589409,-0.20628800988197328,0.0005729898693971336,-0.026333287358283998,-0.07804031670093537,-0.07767973095178604,-0.14303314685821534,-0.07367178052663803,0.07805318385362625,0.13550257682800294,-0.0914803072810173,-0.023397769778966905,0.13150915503501893,0.04980006441473961,-0.19510577619075776,-0.15080687403678895,0.05769241973757744,-0.038955047726631168,-0.1536107361316681,0.08827317506074906,-0.032936468720436099,0.03766049072146416,0.07371624559164047,0.0220860056579113,0.006463846191763878,0.11456497758626938,0.04327430948615074,0.02228083834052086,0.06382058560848236,-0.12156569957733154,-0.029470710083842279,0.07420071959495545,-0.08714315295219422,0.1759462058544159,-0.06301350891590119,-0.04725266620516777,0.019498227164149286,0.07234576344490051,-0.048606984317302707,-0.059063203632831576,-0.05594729259610176,0.06735752522945404,0.08408163487911225,0.1121106669306755,-0.01481346134096384,-0.02080654539167881,-0.025889459997415544,0.04342220351099968,0.14317359030246736,-0.04233837500214577,-0.15272493660449983,0.06902886182069779,0.07619017362594605,0.05281439796090126,0.06822817772626877,0.06292186677455902,-0.005758296698331833,-0.11919821798801422,-0.1489502340555191,-0.010659442283213139,-0.10161004960536957,-0.08704273402690888,0.13787901401519776,0.029956389218568803,-0.056944552809000018,-0.10552477091550827,-0.058863986283540729,-0.04964178428053856,0.08716565370559693,0.11395834386348725,0.0058773537166416649,0.10852625221014023,0.030925100669264795,-0.20085525512695313,-0.015426878817379475,-0.1618575006723404,0.11114965379238129,0.08902355283498764,-0.1210600733757019,0.025748899206519128,-0.07438208907842636,0.09271220117807388,-0.13856329023838044,0.022165853530168535,-0.0447780080139637,-0.07429338246583939,-0.14529739320278169,-0.10945328325033188,0.09494191408157349,-0.08321993798017502,-0.15032772719860078,0.02173675410449505,0.0036771236918866636,-0.036736223846673968,0.10808541625738144,-0.0789068415760994,0.06282977759838104,0.11277889460325241,0.053252436220645908,0.16145667433738709,0.0974988117814064,0.02528691478073597,0.036956414580345157,-0.10258576273918152,-0.05759895220398903,-0.03256962448358536,0.2881180942058563,-0.11798645555973053,0.0969405323266983,-0.07075755298137665,-0.05974607169628143,-0.030051853507757188,-0.06353007256984711,0.09954965114593506,0.15899327397346497,0.02869565412402153,0.17090517282485963,0.09088782966136933,0.04669678583741188,0.11524740606546402,-0.07199914753437042,-0.045577287673950198,-0.09767898917198181,0.07552758604288101,-0.01740136928856373,-0.026743967086076738,-0.012470711953938008,0.026852695271372796,0.0707683116197586,-0.0022841922473162414,0.12400509417057038,0.029899336397647859,-0.07751253247261048,-0.12050821632146836,-0.08625441789627075,0.16503755748271943,-0.13258498907089234,-0.046674273908138278,-0.2216973453760147,0.06938974559307099,0.0012633679434657097,-0.3009577989578247,0.12014584988355637,-0.10695601999759674,-0.04295165464282036,0.007430060766637325,-0.042525794357061389,-0.06380823254585266,0.02397930435836315,-0.06306561082601547,-0.09386079758405686,0.10581263899803162,-0.11099360138177872,-0.0013120227959007025,-0.015740474686026574,-0.2754087448120117,0.0327979177236557,0.1685132086277008,-0.0435308963060379,-0.05361548438668251,-0.14627845585346223,0.10308025032281876,-0.15895769000053407,-0.019183045253157617,-0.04036913439631462,-0.22661808133125306,-0.07165516912937164,0.12145193666219711,-0.10565254092216492,0.03460891544818878,-0.018779709935188295,-0.0013080762000754476,-0.013758843764662743,-0.14429059624671937,-0.036093492060899737,-0.04229621961712837,-0.09449295699596405,-0.09472193568944931,0.08408187329769135,-0.13630452752113343,0.012279937975108624,0.0451338030397892,0.04929511994123459,-0.09276023507118225,-0.12507660686969758,-0.05971556529402733,-0.07729534804821015,-0.2666306495666504,-0.23820103704929353,0.03517422080039978,0.022675199434161187,0.16960409283638,0.05356838181614876,-0.01662551797926426,0.0506487675011158,0.048461657017469409,0.059877339750528339,0.05027783289551735,-0.14333443343639375,0.08853306621313095,-0.056078363209962848,-0.053259316831827167,-0.06228763237595558,-0.07544092833995819,0.006538501009345055,-0.10054300725460053,0.0677235946059227,-0.03554883971810341,-0.020272884517908098,-0.10822345316410065,0.03395991399884224,-0.013803473673760891,-0.011942697688937188,0.17772720754146577,-0.09823773056268692,0.12120593339204788,0.08754592388868332,-0.14842092990875245,-0.07171189039945603,-0.11183060705661774,-0.05024184286594391,-0.09100349247455597,0.03493010252714157,0.1318013072013855,-0.011274470947682858,0.0642826110124588,-0.15320350229740144,-0.07899565994739533,0.06005358695983887,0.09650218486785889,-0.023196114227175714,-0.015167364850640297,0.22474995255470277,0.09196339547634125,-0.03813854977488518,0.1453101634979248,-0.10454161465167999,0.012593228369951249,0.05044829845428467,-0.1836099922657013,-0.11064949631690979,-0.1172385960817337,0.04761826619505882,0.13953642547130586,-0.17101293802261353,0.1531015783548355,0.00808290671557188,-0.11433105170726776,0.058497354388237,-0.029023127630352975,0.05071888864040375,0.1101837009191513,0.16646602749824525,-0.017234591767191888,0.038230232894420627,0.03464571759104729,-0.13395191729068757,-0.15002229809761048,-0.0941125676035881,0.0029439388308674099,0.10400324314832688,0.17472055554389954,0.06929752230644226,0.14978274703025819,0.07944167405366898,0.0527350939810276,-0.043958716094493869,0.03670113533735275,0.09695663303136826,-0.1297909915447235,0.04823355749249458,0.0033871608320623638,0.03401946276426315,0.028505591675639154,-0.173200786113739,-0.15900041162967683,-0.10934653878211975,0.0440184585750103,0.022314874455332757,0.04722820222377777,-0.18640786409378053,-0.17937996983528138,0.0785713642835617,-0.10580381006002426,0.06442642211914063,0.10644316673278809,0.13102604448795319,-0.03929978981614113,0.08452291786670685,0.11899589002132416,0.08393597602844238,-0.16188360750675202,-0.02300143986940384,-0.04312920942902565,-0.1586267650127411,0.0640219897031784,0.08136550337076187,0.008397690951824189,-0.11910377442836762,-0.03432844951748848,0.08221445977687836,-0.046173904091119769,-0.09744849801063538,0.10585540533065796,-0.003172764554619789,-0.04603427276015282,0.05873774737119675,-0.018692636862397195,0.08668483793735504,-0.026124853640794755,-0.10336758196353913,-0.11920579522848129,-0.014783927239477635,-0.03350009396672249,0.04183541610836983,-0.10622778534889221,-0.09724996984004975,0.014768706634640694,0.10004337131977081,0.03812885284423828,-0.05415927991271019,-0.06010265648365021,0.03720317780971527,0.07733543962240219,-0.12003125995397568,-0.1400921493768692,-0.04473402723670006,-0.21658304333686829,-0.08599371463060379,-0.02040186896920204,0.01524405274540186,0.011675236746668816,0.025531211867928506,0.05473629757761955,-0.084935761988163,0.0462866947054863,-0.1696808636188507,-0.1407017856836319,-0.32037192583084109,-0.010211286135017872,0.0027845415752381088,-0.10081446170806885,-0.11283428221940994,-0.06220543384552002,-0.027602480724453927,-0.13168708980083466,0.1192721351981163,0.014177314937114716,0.05800580233335495,-0.052328601479530337,-0.10615479201078415,-0.0016596477944403887,0.04543286934494972,0.08251424133777619,0.03193146735429764,-0.03147377446293831,0.04986187443137169,0.010605007410049439,0.2973044216632843,0.17649097740650178,-0.02851075492799282,-0.08922161906957627,-0.10700270533561707,-0.06907013803720474,0.010373091325163842,-0.12647825479507447,0.033100467175245288,0.08384660631418228,-0.052042391151189807,0.14348319172859193,0.0023307150695472957,-0.012693291530013085,0.10049484670162201,0.01397238951176405,-0.026001328602433206,0.003834891365841031,0.028386984020471574,-0.18187527358531953,0.15665961802005769,-0.21073926985263825,-0.08398038893938065,-0.09026448428630829,0.006604737136512995,-0.0022108464036136867,-0.013101103715598584,0.04674907401204109,-0.033823270350694659,0.05184362083673477,-0.05460071563720703,0.07986515015363693,-0.023933643475174905,0.1176975816488266,-0.24618853628635407,0.03290499374270439,-0.15652330219745637,0.012795771472156048,-0.033184900879859927,-0.006476113107055426,-0.20755445957183839,0.03335478901863098,0.04653323069214821,-0.12848085165023805,-0.07549939304590225,0.007891311310231686,0.02798016555607319,0.043749578297138217,-0.00288900057785213,-0.23510372638702393,0.1056085154414177,0.053901348263025287,0.006231349427253008,0.03373459726572037,0.11035049706697464,0.1122019961476326,0.03291388601064682,0.001572867389768362,0.09456942975521088,0.12651841342449189,-0.09219604730606079,0.09872186928987503,-0.08905816078186035,0.1055237203836441,-0.034667354077100757,-0.07145511358976364,0.08623992651700974,-0.05263761803507805,0.020416002720594407,-0.07053254544734955,0.18846608698368073,0.047400765120983127,0.09394289553165436,-0.08483728766441345,-0.18836160004138947,0.12648987770080567,-0.1306581348180771,-0.07878629863262177,-0.08266361802816391,-0.01767158694565296,0.1880553513765335,-0.15917405486106873,-0.0034293830394744875,-0.06406321376562119,0.02787008322775364,-0.04892400652170181,-0.18737375736236573,0.010156766511499882,0.08398590981960297,0.041666992008686069,-0.1517658829689026,0.1029813140630722,0.08106258511543274,-0.1032964214682579,-0.09013500064611435,0.16056980192661286,0.10296521335840225,-0.006159122101962566,-0.17304688692092896,0.020296610891819,-0.062383826822042468,-0.009027650579810143,0.044889990240335467,-0.039050549268722537,-0.012275937013328076,-0.037947796285152438,-0.132405623793602,0.09300019592046738,0.028511887416243554,0.02338770031929016,0.01691610924899578,0.15536187589168549,-0.06076711788773537,-0.09740033000707627,0.020200170576572419,0.044162217527627948,-0.060442112386226657,0.06591929495334625,0.03467437997460365,-0.05226187780499458,0.00334159261547029,0.012797114439308644,-0.007570334244519472,0.028508106246590616,-0.01736327074468136,0.024668244644999505,-0.011253203265368939,0.20248080790042878,-0.056014060974121097,0.06839454174041748,0.022604919970035554,-0.07998146861791611,0.06713981181383133,0.0007385119679383934,0.16988065838813783,-0.04411955922842026,0.047180432826280597,-0.03952948376536369,-0.017816534265875818,0.1519416868686676,0.08309584110975266,0.013114454224705696,-0.18032194674015046,-0.11459078639745712,0.07312103360891342,0.0975697785615921,0.019458508118987085,-0.11606494337320328,0.12939976155757905,-0.09639816731214524,-0.14342035353183747,-0.07282546162605286,-0.036024339497089389,0.03989236429333687,0.11309119313955307,-0.14109383523464204,0.006435740739107132,0.0766805112361908,0.11478789895772934,-0.04358924552798271,-0.0440986342728138,-0.2564248740673065,0.06093238666653633,-0.006639671977609396,-0.12253307551145554,-0.0987677201628685,-0.002139802323654294,-0.07158870995044708,0.02622142806649208,0.14397157728672028,0.031053176149725915,0.10071394592523575,-0.13641205430030824,-0.041006382554769519,-0.0831199511885643,0.11145809292793274,0.008764729835093022,-0.0753372386097908,-0.0038332147523760797,-0.031569480895996097,-0.011175437830388546,-0.10029935091733933,0.08069834113121033,0.07132786512374878,-0.16801725327968598,0.05505175143480301,0.2652287781238556,-0.08437517285346985,-0.18279926478862763,0.0234037134796381,0.01511203683912754,-0.05353686958551407,-0.007513659540563822,0.15198203921318055,0.025220714509487153,0.1450888216495514,0.07967003434896469,0.00770524051040411,-0.024865133687853814,-0.050389207899570468,-0.004005562048405409,-0.03424825519323349,0.00159231957513839,-0.002270155819132924,-0.0386236198246479,-0.010043268091976643,-0.02193615771830082,-0.03657477721571922,-0.004813230596482754,0.00030144533957354724,0.12511928379535676,0.11555223912000656,0.08221524208784104,-0.07942084968090058,0.13286057114601136,0.03616493195295334,-0.037378959357738498,0.06293094903230667,-0.07665159553289414,-0.05463789030909538,-0.032051559537649158,-0.13882212340831757,0.0823790580034256,-0.11411747336387634,0.18069089949131013,-0.033780552446842197,-0.048264287412166598,0.09258134663105011,-0.09390661120414734,-0.013438940048217774,0.04863426089286804,-0.1340259313583374,0.2700370252132416,0.18288323283195496,0.10210703313350678,0.042293496429920199,0.027671916410326959,-0.0954587310552597,-0.0002870752941817045,0.0012215737951919437,-0.03089067153632641,-0.0909687802195549,0.06877309828996659,0.12186448276042938,-0.010225039906799794,-0.02450406551361084,-0.03360650688409805,-0.008864832110702992,-0.012719225138425827,0.05734088644385338,0.023795180022716523,0.03200051933526993,0.050882112234830859,-0.0018270935397595168,-0.18767744302749635,-0.14542974531650544,-0.026774531230330468,-0.004435047972947359,-0.00840509682893753,-0.17418783903121949,-0.03613584488630295,-0.12821076810359956,-0.0759054645895958,0.11103567481040955,-0.10147010535001755,0.03985030576586723,0.04862356185913086,-0.12960584461688996,0.03568025305867195,0.1533021181821823,-0.05890114605426788,0.23129363358020783,0.14552141726016999,-0.07226040214300156,-0.11393706500530243,-0.1543770432472229,0.11255079507827759,0.1456640213727951,-0.07829951494932175,-0.03414461389183998,0.023647746071219446,-0.025152405723929406,-0.17228636145591737,-0.11919409036636353,0.032351601868867877,0.01742580719292164,-0.09336692094802857,-0.0010388861410319806,0.026408547535538675,-0.1190398558974266,-0.16960953176021577,-0.0186435729265213,0.006805536802858114,-0.009631256572902203,0.19075968861579896,-0.17174600064754487,-0.07308115810155869,0.14927606284618379,-0.01828862354159355,0.052041053771972659,0.14138999581336976,-0.09424880146980286,-0.047453757375478747,0.004957075230777264,0.17633241415023805,-0.08496048301458359,0.07646489143371582,0.11965589225292206,-0.09565375000238419,0.015643732622265817,-0.00004715038448921405,0.1149023249745369,0.06136723980307579,-0.023944459855556489,-0.09262648224830628,0.14200012385845185,-0.0035628504119813444,-0.012233749963343144,0.07417842000722885,-0.040567796677351,-0.026226812973618509,-0.1304972916841507,0.027539122849702836,0.08042852580547333,0.03473709151148796,0.0007498710183426738,-0.05285048112273216,-0.08124954253435135,0.06361275166273117,0.10149302333593369,-0.09690223634243012,0.002922212239354849,0.02697712555527687,0.02831953391432762,0.016688907518982889,0.033733125776052478,-0.004879046697169542,0.10473284125328064,-0.17713306844234467,-0.02774699777364731,-0.03761153668165207,-0.060290444642305377,0.05565793812274933,0.0464201420545578,-0.14842061698436738,0.12888655066490174,-0.08457715064287186,-0.01924012415111065,-0.05909794196486473,-0.015996530652046205,-0.053125057369470599,-0.045697033405303958,-0.06417442113161087,-0.04842846468091011,0.024370478466153146,0.02023726888000965,-0.014021716080605984,0.01133191492408514,0.17943456768989564,-0.029323020949959756,-0.0388590469956398,-0.1402856558561325,-0.16706830263137818,-0.07141740620136261,0.005336164962500334,0.09936362504959107,-0.03442833200097084,0.05320514366030693,-0.07161979377269745,0.12279120832681656,0.027975570410490037,-0.0973326563835144,0.19974760711193086,0.045394327491521838,0.03919954225420952,0.04753956198692322,0.14053170382976533,0.21010041236877442,-0.0033739262726157905,0.09846889227628708,-0.060340166091918948,-0.014920073561370373,0.0237030778080225,-0.16218161582946778,-0.004958944395184517,0.12798382341861726,0.06596345454454422,0.08840737491846085,0.009709198959171772,-0.002932704519480467,-0.11884136497974396,0.04321138560771942,0.07196081429719925,0.03016474097967148,-0.04323471337556839,-0.034093864262104037,0.10207851231098175,0.11319705098867417,-0.15441490709781648,-0.04877990484237671,-0.3112349212169647,0.06498166173696518,0.00763957854360342,-0.06375429779291153,-0.07262487709522248,0.07501193881034851,0.06932895630598068,0.21386365592479707,-0.030999066308140756,-0.16078394651412965,-0.15148739516735078,-0.0042205494828522209,-0.08904220163822174,-0.03647804632782936,0.04620262607932091,0.20962102711200715,0.006760532967746258,0.004860278684645891,0.021684858947992326,0.12382770329713822,0.1023562103509903,0.016229748725891115,-0.09426774829626084,-0.011921592056751252,0.2087254822254181,-0.07854358851909638,0.0827375054359436,0.12455417960882187,0.06441492587327957,0.06260664761066437,-0.03728995844721794,0.005205393303185701,0.0475979708135128,0.10946432501077652,-0.0020698641892522575,0.16153378784656526,0.02162443846464157,0.126580610871315,-0.18409815430641175,-0.01782759465277195,-0.0883619487285614,-0.07446835190057755,0.008835318498313427,0.007935603149235249,-0.10601192712783814,-0.06587880104780197,0.068635493516922,-0.06222352758049965,0.1843271702528,0.04783015698194504,0.12542198598384858,-0.06184646487236023,0.22891628742218018,0.047165416181087497,0.0388813316822052,-0.09664421528577805,0.024071579799056054,-0.04996997117996216,0.10947313159704209,0.08102082461118698,0.032160721719264987,-0.06624086946249008,0.029519731178879739,-0.11102283000946045,-0.06791406124830246,-0.037968479096889499,-0.020843956619501115,0.09966771304607392,-0.035287030041217807,0.029709797352552415,0.03003428876399994,0.11180020868778229,-0.07834198325872421,-0.0951635017991066,-0.03185322508215904,-0.15352238714694978,0.09540674090385437,0.1648639738559723,-0.0946502536535263,-0.034376539289951327,-0.07148844003677368,0.19155120849609376,-0.022101877257227899,-0.10899978131055832,-0.08064400404691696,0.06403238326311112,0.05144521966576576,-0.10716241598129273,-0.001545420615002513,-0.12828512489795686,-0.056915804743766788,0.08496769517660141,0.11093632876873017,0.18080101907253266,0.07780593633651734,0.009065262041985989,-0.08112053573131561,0.08246465772390366,0.1455436646938324,-0.021325774490833284,-0.045673299580812457,-0.18054655194282533,-0.09924576431512833,0.2760213017463684,0.028379380702972413,-0.023585481569170953,0.009155027568340302,-0.020385783165693284,-0.08860746771097183,0.2719801068305969,0.09413669258356095,0.007711968384683132,-0.03447864204645157,-0.12796567380428315,0.013363329693675042,0.11513110995292664,0.07973065227270127,-0.09462945908308029,0.02016853541135788,-0.0068335141986608509,-0.19663006067276,0.08959708362817764,-0.16151063144207,0.021212605759501458,-0.19249673187732697,-0.08178891241550446,-0.09914765506982804,0.07776311039924622,-0.07784302532672882,-0.05975312367081642,0.08776380866765976,-0.021873418241739274,-0.04800892993807793,0.09707029908895493,-0.055919915437698367,0.055526379495859149,-0.01014146488159895,-0.0864318385720253,0.05053310841321945,0.15695983171463014,0.25335991382598879,-0.0794050320982933,-0.08853935450315476,0.07831656187772751,0.01008582767099142,0.05126003548502922,0.04012537747621536,0.015079685486853123,0.28294330835342409,-0.11131271719932556,0.033865246921777728,0.12176837772130966,-0.05971331521868706,-0.0532412976026535,0.004038768354803324,0.003603803925216198,-0.14003147184848786,0.08563140034675598,0.03464619815349579,-0.10691464692354202,0.09704004973173142,-0.04528505727648735,0.06682515889406204,-0.10771659016609192,0.06485189497470856,-0.015726491808891298,-0.031832657754421237,-0.04033471271395683,-0.0013564835535362363,-0.12650065124034882,0.15308021008968354,-0.07918702811002732,-0.10528445988893509,-0.06581147015094757,-0.14114081859588624,-0.018267443403601648,-0.03859751671552658,0.1968831866979599,-0.03199112415313721,0.10674699395895004,0.09341572970151901,0.15151934325695039,-0.0107805747538805,-0.06778186559677124,0.01597728580236435,-0.05420558154582977,-0.07936889678239823,0.05846065282821655,0.04853487387299538,-0.04438449442386627,-0.06797332316637039,-0.11775408685207367,-0.05164086073637009,0.07451625168323517,0.04584153741598129,-0.049387164413928989,0.0005607511266134679,-0.012473324313759804,0.1575901359319687,-0.06532726436853409,-0.22583751380443574,0.043307363986968997,-0.12884899973869325,-0.008290790021419526,-0.01128193736076355,-0.07056359201669693,-0.007600098382681608,0.025642480701208116,0.0808316245675087,-0.047010909765958789,0.013344834558665753,-0.03098679892718792,-0.15183444321155549,-0.011810686439275742,-0.20804448425769807,0.02075996808707714,0.013434420339763165,-0.0327429473400116,0.07723104953765869,-0.0373571440577507,-0.14648301899433137,0.021837713196873666,0.06625547260046005,0.011305785737931729,0.10074310749769211,-0.06067943945527077,0.1174440011382103,-0.06364048272371292,0.10003696382045746,0.0017577431863173843,-0.07664477825164795,0.01601549983024597,0.21381467580795289,0.01346161775290966,-0.08306277543306351,0.03733280673623085,-0.05624428018927574,0.007281660567969084,-0.09028041362762451,0.02428976632654667,0.01751435548067093,-0.018213750794529916,-0.030306078493595125,-0.1346352994441986,0.16511178016662599,0.08677548915147782,0.09321250021457672,-0.09380801022052765,0.05523698031902313,-0.07850740849971771,0.06020449474453926,-0.026893753558397294,-0.06279733031988144,-0.05742940306663513,-0.05700356513261795,0.02990514598786831,-0.058003224432468417,0.08669660985469818,0.012971756048500538,0.058554403483867648,0.15394368767738343,0.13630416989326478,0.12496545165777207,-0.14492669701576234,-0.026325151324272157,-0.07211392372846604,0.07485456764698029,0.054083216935396197,0.02357877790927887,-0.03987739235162735,0.013986470177769661,0.0546642430126667,-0.001286386395804584,0.04979919269680977,-0.03311099112033844,-0.05877035856246948,0.07883314788341522,0.11739104986190796,-0.10743589699268341,0.04348757490515709,-0.03116542473435402,-0.045875247567892078,-0.05864037200808525,0.00012826012971345335,0.1514168530702591,-0.09202257543802262,0.03599797561764717,-0.14443814754486085,0.036022238433361056,0.12632645666599275,-0.08933649957180023,-0.16047322750091554,-0.1881626546382904,0.1663963496685028,0.0763721764087677,0.02269892394542694,0.14313875138759614,0.06348851323127747,0.009842540137469769,0.15758909285068513,0.212587371468544,0.1956433355808258,0.10914096981287003,-0.08776909112930298,-0.026251861825585367,0.0034949432592839004,-0.03864920511841774,-0.02118653431534767,0.13759908080101014,0.05033417046070099,-0.14030864834785462,0.0032371131237596275,-0.03485499322414398,0.05810185521841049,0.09923700243234635,0.13182872533798219,-0.010104934684932232,0.1206807792186737,0.014052855782210827,-0.01705060712993145,-0.07504928112030029,0.053324248641729358,0.11623801290988922,-0.061565861105918887,-0.06840817630290985,0.046312931925058368,-0.1384425312280655,0.18362367153167725,0.024708105251193048,-0.1471661925315857,-0.06852929294109345,-0.1333855837583542,-0.04821918532252312,0.19874881207942964,0.07088786363601685,0.15147727727890016,-0.05180678516626358,-0.07064838707447052,-0.12269783020019531,-0.07124598324298859,-0.01993490383028984,0.012283976189792157,-0.10602901130914688,0.28161585330963137,-0.019443480297923089,-0.027186257764697076,-0.061856914311647418,-0.08327849209308624,0.04394487664103508,-0.09345246851444245,-0.09717285633087158,-0.10714775323867798,-0.05468231812119484,-0.09788241237401962,0.016199395060539247,-0.033956609666347507,-0.08577185124158859,0.05554528906941414,-0.2157316505908966,-0.043038368225097659,-0.08054378628730774,-0.16093699634075166,-0.10049040615558624,0.08722545951604843,-0.10968859493732453,-0.014423074200749398,-0.15784184634685517,0.1274050921201706,0.03723901882767677,-0.029955649748444558,0.0967286080121994,-0.13000914454460145,0.06737370043992996,0.1433458775281906,-0.0005910020554438233,-0.017499063163995744,0.009273489005863667,0.13024279475212098,-0.11231312900781632,-0.027878938242793084,0.18802906572818757,0.15570557117462159,-0.002573987003415823,-0.02330170013010502,-0.11612273007631302,0.03974096104502678,-0.014108828268945217,0.18006819486618043,-0.05004238337278366,-0.015392382629215718,0.14062507450580598,0.02739170752465725,-0.028553584590554239,0.11529906094074249,0.035998567938804629,-0.010817812755703926,-0.02342243865132332,0.0621439628303051,0.08471304923295975,-0.07882951200008393,-0.09397023171186447,0.012437233701348305,-0.022482365369796754,-0.05098098888993263,0.014518193900585175,-0.07437515258789063,-0.03006947599351406,-0.08677543699741364,-0.22488565742969514,0.16555917263031007,0.0012882364680990577,0.028005024418234826,-0.00026830012211576104,-0.05838724970817566,0.03706545755267143,-0.06460009515285492,0.021750058978796006,-0.061299532651901248,0.017262140288949014,0.07814053446054459,0.20031200349330903,-0.06315798312425614,0.0794505625963211,-0.008135413751006127,-0.1470007598400116,0.04555300623178482,0.021848401054739953,0.23592984676361085,-0.04926237463951111,0.02455252781510353,-0.1409999132156372,-0.09942327439785004,0.2415713369846344,-0.0324879065155983,0.08493877947330475,0.02975044958293438,0.0970647931098938,-0.11447329074144364,0.11821561306715012,-0.04955326020717621,-0.002540516434237361,-0.07147899270057678,-0.09157267957925797,-0.008782791905105114,0.17481417953968049,0.019350828602910043,0.035848841071128848,0.06117914244532585,0.06665168702602387,0.06966476142406464,0.1511533409357071,0.07919941842556,0.012115176767110825,-0.15041476488113404,0.08048654347658158,0.019813666120171548,-0.2028263509273529,-0.05502006411552429,-0.13393664360046388,0.006256398744881153,0.09292524307966232,0.05513448268175125,0.024274658411741258,0.09846311807632446,-0.14452192187309266,-0.03122701123356819,-0.052887432277202609,0.025011146441102029,0.0555478110909462,-0.0010703911539167166,-0.09565198421478272,-0.1791079044342041,0.1323612630367279,-0.1138811707496643,-0.07036355137825012,-0.13084237277507783,0.025928936898708345,-0.05376383662223816,-0.05836775526404381,0.044455356895923617,0.07958555966615677,-0.07997185736894608,-0.025814037770032884,0.0807270035147667,0.11935392767190933,-0.2261926829814911,-0.09631232917308808,-0.12604859471321107,-0.14889934659004212,0.023999182507395746,-0.07263913750648499,0.02020874060690403,0.005296376533806324,-0.13262531161308289,-0.0018568238010630012,0.06565314531326294,0.06628524512052536,0.08515116572380066,-0.025911692529916765,0.1470908224582672,0.03754400089383125,-0.03401019051671028,0.022434759885072709,-0.13663390278816224,-0.01242397353053093,-0.05135009437799454,-0.03250836580991745,-0.07007274776697159,0.05829586088657379,-0.055572666227817538,-0.08316054940223694,-0.07098373770713806,-0.05692600831389427,0.05904440954327583,0.05209094285964966,-0.15790922939777375,0.0716468021273613,-0.021098265424370767,-0.0391862727701664,0.05355999991297722,-0.05826534330844879,0.013690792955458165,-0.04279891029000282,-0.08992449194192887,-0.09551050513982773,0.022258762270212175,-0.07248416543006897,-0.04630253091454506,0.07754664868116379,-0.02190648391842842,-0.10781164467334748,-0.12347709387540817,0.008438934572041035,0.025521207600831987,0.08098439872264862,0.23748338222503663,0.014262414537370205,0.004499210976064205,0.03899937868118286,-0.16173528134822846,-0.0827522799372673,0.055068328976631168,-0.1816614419221878,0.0812043771147728,0.048843588680028918,0.08388091623783112,-0.05688514932990074,-0.033734723925590518,0.1620689332485199,-0.12842082977294923,-0.08221513032913208,0.22695237398147584,-0.04375951364636421,0.02685984969139099,-0.07721252739429474,-0.21066023409366609,-0.16905228793621064,0.03715749457478523,-0.02140732668340206,-0.027750955894589425,0.05744706839323044,0.049889449030160907,-0.12486966699361801,-0.030094295740127565,0.13963176310062409,-0.03298703953623772,0.07654836028814316,-0.01163241732865572,-0.0914372056722641,0.009580353274941445,-0.015790842473506929,-0.06272738426923752,0.00994960218667984,-0.2243347316980362,0.02969406545162201,0.04379555955529213,0.05038777366280556,-0.03327940031886101,-0.005108053795993328,0.005529475398361683,-0.01818065717816353,-0.09981751441955567,0.017516611143946649,-0.0011399723589420319,0.009087407030165196,0.05554090067744255,0.1408742517232895,-0.10273748636245728,-0.02944713458418846,0.03159637376666069,0.03522356599569321,-0.053970616310834888,0.037932947278022769,0.2541089355945587,0.08222123235464096,-0.05226866155862808,-0.04997710511088371,-0.0004720689612440765,-0.11473777890205383,-0.021285338327288629,0.27991804480552676,-0.03119727410376072,-0.08409710228443146,0.12024364620447159,0.05895131081342697,0.03461454063653946,0.03360361233353615,-0.1471584141254425,-0.14848783612251283,0.005675226915627718,-0.11451791226863861,0.08850211650133133,0.051963940262794498,-0.059963226318359378,0.023586291819810869,0.05402315780520439,-0.0040372638031840328,-0.04582655057311058,-0.15418606996536256,-0.006371057592332363,-0.08182574808597565,0.04855894669890404,-0.0807282105088234,0.07080890983343125,-0.1136014461517334,-0.07745984196662903,0.025631699711084367,0.12163417786359787,-0.04903186112642288,-0.06442175805568695,0.034338489174842837,0.028627732768654825,-0.08480086177587509,0.15479682385921479,-0.22516657412052155,0.035408150404691699,-0.03898806869983673,-0.1824566274881363,0.04402954503893852,-0.079803466796875,0.0011105738813057542,-0.14833365380764008,-0.14526979625225068,0.0015544204507023097,0.054028090089559558,-0.01365957036614418,0.05253094807267189,-0.06149318814277649,0.023853354156017305,0.028927450999617578,0.007484499830752611,-0.10442560911178589,0.16837933659553529,0.011507866904139519,-0.04745493456721306,0.13912318646907807,0.03573469817638397,0.16969189047813416,0.15242065489292146,-0.11950317770242691,-0.03626752644777298,-0.012583754025399685,0.02451806142926216,0.05098350718617439,0.05154271051287651,0.13713860511779786,-0.03682186082005501,-0.016067245975136758,-0.046731553971767429,0.02239851839840412,0.06941346824169159,-0.0007218136452138424,-0.09024716168642044,0.06981871277093888,-0.1499621421098709,-0.01881793886423111,-0.13906295597553254,0.02183108776807785,0.04107307642698288,0.09300307184457779,-0.05276096984744072,0.08958017826080322,0.07358916103839874,0.05977633222937584,0.11413637548685074,-0.06571562588214874,0.03333291783928871,-0.15281245112419129,-0.05223642662167549,0.08172711730003357,0.08212883770465851,-0.007726261857897043,-0.05732034891843796,0.06199856102466583,0.10029122233390808,0.11664917320013046,0.05978576838970184,0.09753327071666718,-0.07604337483644486,-0.018229562789201738,0.15409597754478455,0.14403876662254334,0.12298597395420075,0.060810405761003497,0.025520440191030504,0.105075903236866,-0.02895430102944374,0.07705661654472351,-0.08339335769414902,-0.023408114910125734,0.0761798769235611,-0.006562145426869392,0.26964429020881655,0.014484081417322159,-0.0022400685120373966,0.0009979932801797987,-0.21488721668720246,0.03863203525543213,-0.12622322142124177,0.046675827354192737,-0.06417418271303177,0.013060475699603558,-0.07802136242389679,0.07064657658338547,0.08154446631669998,-0.00689459266141057,-0.2125416100025177,-0.12706845998764039,0.16020435094833375,-0.10988499224185944,0.13150186836719514,-0.034752920269966128,-0.11069223284721375,0.11112156510353089,0.028275398537516595,-0.1748558133840561,-0.014392415061593056,0.1958097368478775,-0.018740488216280938,0.15147028863430024,-0.07038673013448715,0.03691534325480461,-0.011060100048780442,0.06665831804275513,0.09776894003152847,-0.19696074724197389,-0.016541358083486558,0.07598157227039337,-0.07288315892219544,-0.07219147682189942,0.1127820536494255,0.14106406271457673,0.04475163295865059,-0.04579072818160057,0.10181360691785813,0.05900683254003525,0.003099205670878291,-0.0732363685965538,0.03474517539143562,0.044905148446559909,-0.10522361099720001,-0.06003686785697937,0.11094363778829575,-0.03849878907203674,-0.09015879780054093,-0.00037072855047881603,0.0722762793302536,0.011274588294327259,-0.12259229272603989,0.04370488226413727,0.033305663615465167,0.04454193264245987,-0.13851113617420197,-0.05012751370668411,0.013275514356791973,-0.2614327073097229,0.04721818491816521,-0.06215858459472656,-0.07236158847808838,0.0605744831264019,0.10673829168081284,-0.15693792700767518,-0.19080226123332978,-0.02072153240442276,-0.10866488516330719,-0.19556912779808045,0.0017778819892555476,0.047663088887929919,-0.13700905442237855,-0.13889117538928986,0.12091090530157089,0.010129295289516449,0.03102012723684311,0.145614355802536,0.042078811675310138,-0.04322008788585663,-0.0216659028083086,0.12496712058782578,-0.11192101985216141,0.0198872908949852,0.07926870882511139,0.09824761003255844,0.1278892308473587,-0.16389961540699006,-0.040617093443870547,-0.03285936266183853,0.048606980592012408,-0.007427029777318239,-0.018295951187610627,-0.13169683516025544,-0.11172007024288178,0.045285407453775409,0.08280874043703079,-0.07636605948209763,0.03859182819724083,0.20103630423545838,-0.0784519612789154,-0.0016262567369267345,-0.05589732527732849,0.06011287495493889,-0.1291075497865677,0.05330496281385422,-0.018293000757694246,-0.0380762480199337,0.03481041267514229,0.015508491545915604,0.03722701594233513,-0.007561360485851765,0.07199588418006897,0.030055230483412744,0.07506188750267029,0.05394037067890167,0.07303882390260697,0.08363590389490128,-0.13992393016815186,-0.08329799026250839,-0.07337534427642822,-0.12127472460269928,-0.038247544318437579,-0.0969085693359375,-0.0795249342918396,-0.02260928601026535,-0.025727933272719384,0.07636316120624542,-0.003782078856602311,0.11287982016801834,-0.012378832325339318,-0.018681759014725686,-0.036842647939920428,0.04714420437812805,0.09431910514831543,-0.016986211761832238,-0.0065087261609733109,-0.05969328433275223,0.18650493025779725,-0.16096316277980805,-0.03726223111152649,-0.1125907152891159,-0.052095647901296619,-0.014818343333899975,0.04465524107217789,0.04090097174048424,0.0846051499247551,-0.02807455323636532,0.09945888072252274,0.035823412239551547,0.02110488899052143,0.02563772164285183,0.02418350800871849,0.16294041275978089,-0.1942608505487442,-0.22416847944259644,-0.04740138724446297,0.04744430258870125,-0.10724020004272461,-0.019737469032406808,0.04196897894144058,0.14206604659557343,-0.07551391422748566,-0.090574711561203,0.216610386967659,-0.09354756027460098,-0.09898947179317475,0.018174467608332635,-0.04853596165776253,0.013855223543941975,0.030522316694259645,0.09342507272958756,-0.17478571832180024,-0.17885896563529969,-0.0801188051700592,0.12680655717849732,-0.012464309111237526,-0.1476951390504837,-0.15652747452259065,0.02517462521791458,0.07346110045909882,-0.08557413518428803,0.08396653085947037,-0.024256989359855653,0.027575276792049409,0.08457621932029724,0.041090261191129687,0.008071275427937508,0.05858679860830307,-0.08422034978866577,-0.08116636425256729,0.344304621219635,0.03812485560774803,0.05573787912726402,0.09046227484941483,-0.09041304141283035,-0.11964761465787888,-0.0051404135301709179,-0.007258908357471228,-0.046395618468523028,0.15773361921310426,-0.17618221044540406,-0.06642251461744309,-0.06138315424323082,-0.046125732362270358,-0.06801024079322815,-0.056530844420194629,-0.08817626535892487,0.03745649382472038,-0.0006375598604790866,0.09388513118028641,-0.07119636982679367,0.028951624408364297,0.0073512704111635689,-0.07859133929014206,0.12825509905815125,0.1574343591928482,0.03184337541460991,0.05794059857726097,0.016571275889873506,0.07460764050483704,-0.1351110190153122,0.1865079253911972,0.19532530009746552,0.11920953541994095,0.06140652671456337,-0.06427999585866928,-0.015141032636165619,0.03654209524393082,0.04065382480621338,0.05289151892066002,0.15936784446239472,-0.1030932292342186,0.021560339257121087,-0.01616799831390381,-0.002243958879262209,-0.03396457061171532,0.1735973060131073,-0.037788208574056628,0.022355051711201669,0.026667436584830285,0.06594657152891159,0.1321725994348526,0.08961313962936402,-0.19510754942893983,0.06924974918365479,-0.06517403572797775,0.11392882466316223,0.12939707934856416,0.11870453506708145,-0.060896821320056918,0.013391031883656979,0.07490848004817963,-0.027875106781721116,-0.049452800303697589,0.19087810814380647,0.033658094704151157,-0.03736122325062752,0.05000119283795357,0.02613248862326145,0.26010215282440188,0.0758766159415245,0.08418232202529907,-0.10805723071098328,-0.05364416539669037,-0.12143748253583908,0.052562031894922259,-0.01731153577566147,0.024599598720669748,0.0783262774348259,0.09099031984806061,0.06879661232233048,0.01583907939493656,0.13766725361347199,-0.034618329256772998,-0.10841292887926102,0.1682990938425064,0.13361695408821107,-0.16148589551448823,0.09282075613737107,0.07232164591550827,0.01141025684773922,0.13562524318695069,0.00999169796705246,0.16290774941444398,-0.04715997353196144,0.057561252266168597,-0.09695799648761749,0.09698552638292313,-0.045044586062431338,0.01494200062006712,-0.042519330978393558,-0.012886281125247479,0.06375417858362198,-0.0789564698934555,0.08944004029035568,0.01066500786691904,0.003917779307812452,0.010578668676316738,0.06525275111198425,-0.007887385785579682,-0.03429323807358742,-0.216301828622818,-0.19021831452846528,-0.027717282995581628,-0.013379148207604885,0.031201496720314027,-0.18683582544326783,0.1480618119239807,0.07986897230148316,-0.08641493320465088,-0.14681604504585267,-0.05178719758987427,0.03208089992403984,-0.03329402208328247,-0.07061794400215149,0.05797845870256424,0.06119942292571068,0.15877258777618409,-0.062259964644908908,-0.10738357901573181,0.08722209185361862,0.07143830507993698,-0.11597061902284622,-0.05677599832415581,-0.013870494440197945,0.050787247717380527,-0.00910221692174673,0.16361911594867707,0.04109925776720047,-0.0809745267033577,-0.19086334109306336,-0.017209280282258989,-0.08570164442062378,-0.18241064250469209,0.08627518266439438,0.01606268808245659,-0.07696953415870667,0.10702871531248093,0.08994293212890625,0.10003171861171723,-0.0267168078571558,-0.07282152771949768,0.03380933031439781,0.09928333014249802,-0.10973022878170014,0.09642243385314942,-0.18422576785087586,0.04562542960047722,0.1811250001192093,-0.09531178325414658,-0.09648489952087403,0.08804542571306229,0.10605431348085404,-0.02713179960846901,0.07574312388896942,-0.02680855803191662,0.04214971512556076,0.04509009048342705,0.1637839674949646,-0.0046036760322749619,-0.00885737780481577,-0.09723232686519623,0.010628284886479378,-0.08553563803434372,0.06249518692493439,0.23444657027721406,-0.12050072848796845,0.07857954502105713,-0.0023005336988717319,-0.19277431070804597,-0.09680431336164475,0.032870858907699588,-0.15646474063396455,-0.10913360118865967,-0.046936143189668658,-0.15087158977985383,0.1725064367055893,-0.08897309005260468,-0.17218729853630067,-0.017667481675744058,-0.019136063754558564,0.016497712582349778,0.19021615386009217,0.020911643281579019,-0.06943142414093018,-0.08755148202180863,0.1759101301431656,0.09496687352657318,0.09738405048847199,0.115719735622406,-0.04049554094672203,0.10663348436355591,0.034449756145477298,-0.13035324215888978,0.10319247841835022,-0.2178315371274948,-0.08008158951997757,-0.015752332285046579,0.06120583415031433,-0.016055431216955186,0.022135213017463685,0.15433014929294587,0.008717275224626065,-0.03848109394311905,0.05677584558725357,-0.10147915780544281,0.008327927440404892,0.31194451451301577,0.01680406555533409,-0.03001132234930992,-0.031054453924298288,0.03874913230538368,-0.07235600054264069,-0.07205276936292649,-0.06414791941642761,-0.10210203379392624,-0.03478866070508957,0.0030577010475099088,-0.1333676129579544,-0.00830787606537342,0.10936567932367325,-0.03537832200527191,0.098584845662117,0.10343699157238007,-0.00849364884197712,0.05685703828930855,0.004045602399855852,-0.07843013107776642,-0.053209565579891208,0.04934262856841087,0.00710830045863986,-0.07087443023920059,-0.06651928275823593,-0.15073618292808534,-0.04556673392653465,0.04718984290957451,0.11762019246816635,-0.01950572058558464,-0.12123174220323563,0.04085508733987808,0.08741883933544159,-0.12082173675298691,0.10553411394357681,0.06858016550540924,0.05575956776738167,0.09249312430620194,0.15673759579658509,0.05192900076508522,0.07258154451847077,-0.17899593710899354,-0.24931655824184419,-0.11052190512418747,-0.09045073390007019,-0.10389870405197144,-0.10336744785308838,-0.03853800892829895,0.0015979607123881579,-0.06287871301174164,-0.0809340700507164,-0.0855792909860611,-0.07216960936784744,-0.030885446816682817,-0.07544826716184616,-0.04581989720463753,0.03184065967798233,0.14774402976036073,0.08816470950841904,-0.11623094230890274,0.02943066507577896,-0.07606144994497299,-0.00022363978496287018,0.020561495795845987,0.04497702047228813,-0.10987026244401932,-0.08072925359010697,0.11839776486158371,0.011395098641514779,0.1985679566860199,0.03643820807337761,-0.023666534572839738,-0.07076449692249298,-0.0025527249090373518,0.0005619142903015018,-0.13572685420513154,0.09587374329566956,0.0036166340578347446,0.06354381144046784,0.023046137765049936,-0.025039151310920717,0.020633108913898469,0.16383035480976106,-0.17944584786891938,0.05822276696562767,0.0489622987806797,-0.0068323384039103989,-0.010397152975201607,-0.11304911226034165,0.0172288678586483,0.08307861536741257,-0.059221673756837848,-0.005555877927690744,-0.004019600804895163,-0.0722808837890625,0.06095503270626068,-0.04948173090815544,0.03555462509393692,-0.1002114862203598,-0.021359574049711229,0.09099186956882477,0.05035727843642235,0.1657666712999344,0.08403532207012177,0.007909847423434258,0.07074415683746338,-0.06467170268297196,-0.025448625907301904,0.08285602927207947,-0.09565158188343048,-0.013122090138494969,0.02839469350874424,0.21931272745132447,0.09308966249227524,-0.06425769627094269,-0.19041495025157929,0.19149498641490937,0.10817506164312363,0.09814818203449249,-0.08453018218278885,0.01499221008270979,0.17320893704891206,-0.09170836955308914,-0.0752704069018364,-0.14774289727210999,0.07870765775442124,-0.0367574542760849,0.05571507662534714,-0.23188436031341554,-0.10760445147752762,-0.008335532620549202,-0.09826955944299698,0.04875573515892029,-0.0980980396270752,-0.060340333729982379,0.005986130330711603,-0.04227900877594948,-0.08775056153535843,0.007385794073343277,0.0562567338347435,0.0194951631128788,0.23191188275814057,-0.03683498501777649,0.0870697870850563,0.09205978363752365,-0.19598960876464845,-0.04411706700921059,0.045578405261039737,0.013264068402349949,0.03709348291158676,0.09475063532590866,-0.005610872525721788,-0.08360675722360611,-0.043951086699962619,-0.08658897876739502,0.023536982014775277,-0.08230189234018326,-0.045835524797439578,0.07183319330215454,-0.029691265895962716,0.029514184221625329,0.1303567886352539,0.07581333070993424,-0.13403145968914033,0.1153608188033104,-0.0792018473148346,-0.0732690617442131,-0.19065430760383607,0.10580918937921524,0.09459082037210465,-0.04855101555585861,-0.06235576421022415,0.014447031542658806,-0.033844612538814548,-0.003844324965029955,0.017369752749800683,0.07219652831554413,0.1468397080898285,-0.1536845862865448,-0.053639668971300128,0.08059663325548172,0.0778127983212471,-0.08379572629928589,-0.0400332547724247,0.04392233490943909,0.030115054920315744,-0.023071996867656709,0.08310677856206894,-0.015253971330821514,0.0005806386470794678,0.09080038219690323,-0.03415472432971001,0.049985211342573169,-0.04547472670674324,-0.015574101358652115,0.07556546479463577,-0.07372651249170304,-0.07833003252744675,-0.13186785578727723,-0.23615802824497224,0.01159957516938448,-0.17969487607479096,-0.02223203517496586,0.09849658608436585,-0.08436409384012222,-0.05575592815876007,-0.02228265069425106,-0.012795700691640377,0.0640668272972107,-0.03588215634226799,-0.06256920099258423,-0.17240941524505616,0.09114496409893036,0.015100051648914814,0.03893815726041794,-0.03920673578977585,0.07926447689533234,-0.018726389855146409,-0.2281264215707779,0.2175227254629135,0.033473409712314609,-0.11491184681653977,-0.0815897211432457,-0.08441062271595001,-0.01514151506125927,0.002382682403549552,0.023046165704727174,0.18566200137138368,0.03531862422823906,-0.13960470259189607,0.13767480850219727,-0.008437834680080414,0.23562908172607423,-0.17139717936515809,-0.010591881349682808,-0.10848191380500794,-0.06166168302297592,0.0027252479922026397,0.03261256590485573,-0.08180341124534607,-0.08584997057914734,0.18811024725437165,-0.215711310505867,0.027319028973579408,-0.011234688572585583,-0.09452197700738907,0.056609053164720538,-0.20519255101680757,-0.15026608109474183,0.009910667315125466,-0.04271300882101059,0.06675471365451813,0.10169392079114914,0.08808255195617676,-0.061514344066381457,0.03024936653673649,-0.023568347096443178,0.0017129075713455678,-0.2702047824859619,0.11122559756040573,0.07109168916940689,0.08646053820848465,-0.04398486390709877,-0.08558081090450287,0.08822722733020783,-0.11682122200727463,-0.043997716158628467,-0.04218059033155441,-0.17468561232089997,-0.03946101665496826,0.14867225289344788,0.08181634545326233,0.1562562882900238,0.09422436356544495,-0.03922928869724274,0.04537493363022804,0.08993447571992874,-0.09239830076694489,0.13132749497890473,-0.11481010168790817,-0.020499687641859056,0.008203885518014431,0.12535403668880464,-0.0037166120018810035,0.09264075011014939,0.15231500566005708,-0.08486663550138474,0.10768863558769226,0.08656361699104309,-0.2268180102109909,0.06420736014842987,-0.004792363848537207,-0.05479365587234497,0.05969688668847084,0.20575910806655885,-0.09441273659467697,-0.01711120456457138,0.03654130548238754,-0.023785805329680444,0.03579164668917656,0.07789229601621628,0.13307273387908936,0.1009339913725853,-0.10701735317707062,0.0788419097661972,-0.1267082840204239,-0.14922349154949189,-0.14048542082309724,-0.14849798381328584,0.019110308960080148,0.04439421743154526,0.028075596317648889,0.01057346723973751,0.006345448084175587,-0.0508781298995018,-0.11373139172792435,0.042521361261606219,0.03878028318285942,0.08403801172971726,0.06528834998607636,0.05707799643278122,-0.1407894492149353,-0.11580899357795716,-0.010379469953477383,0.02642078883945942,-0.01737857423722744,-0.009463388472795487,0.14814341068267823,0.033250924199819568,-0.09728449583053589,0.0986717939376831,0.1698039174079895,0.044332701712846759,0.08254174888134003,-0.08136045187711716,0.008185841143131256,-0.18607351183891297,0.017509469762444497,0.031976405531167987,0.027442334219813348,0.02305631898343563,-0.04431363567709923,-0.00666399160400033,0.04485372081398964,-0.03082050196826458,-0.11893881857395172,-0.001581501797772944,0.07896997779607773,-0.04381418973207474,-0.01719384826719761,0.05080398917198181,0.03981693834066391,-0.0008579532150179148,0.056570108979940417,-0.03409067541360855,0.03958151116967201,-0.0029946360737085344,0.00041061584488488734,-0.1587231606245041,0.13063108921051026,0.10039830207824707,-0.13957007229328156,-0.025154802948236467,0.07029888033866883,-0.1718716323375702,0.002693337621167302,0.11836668103933335,-0.18372613191604615,0.05415523424744606,-0.01209354866296053,-0.027520636096596719,0.10803942382335663,0.12777380645275117,0.06583605706691742,-0.16659437119960786,0.006862596608698368,0.047416601330041888,-0.05414329096674919,0.043981440365314487,0.08514819294214249,-0.07748093456029892,0.03839660808444023,0.06584475934505463,-0.024669254198670389,0.08358439058065415,0.07928796112537384,0.19294996559619904,-0.03086656518280506,0.06015065312385559,0.14306820929050446,0.03365318849682808,0.02851913683116436,-0.07054083049297333,0.04086503013968468,-0.01194478664547205,0.05344163626432419,0.12051175534725189,0.11219602078199387,0.07458531111478806,0.003840110497549176,0.10044259577989578,0.03743933141231537,-0.08508016914129257,0.09668662399053574,0.014965444803237915,-0.05834063142538071,0.0424194298684597,-0.08767125755548477,-0.0058131166733801369,-0.08805164694786072,-0.034437015652656558,-0.07866109907627106,0.09016440063714981,-0.07067862153053284,0.1471807360649109,0.1094864010810852,0.08408384025096894,0.005114319268614054,-0.16325075924396516,-0.16243784129619599,0.1688137799501419,0.04440947249531746,0.018696900457143785,-0.008871989324688912,-0.030335616320371629,0.11236810684204102,0.03447382524609566,0.006021507550030947,0.012423055246472359,0.04052414372563362,-0.1296558678150177,-0.22335539758205415,0.038830000907182696,0.08674155920743942,0.04029732942581177,0.024427078664302827,-0.13921688497066499,-0.13375109434127809,0.11744804680347443,0.22614842653274537,-0.11196776479482651,-0.027046773582696916,0.1958989053964615,0.024293679744005204,-0.05050239339470863,0.028615938499569894,0.007458627689629793,0.07385610789060593,0.05611320957541466,0.13311602175235749,0.1121373102068901,-0.13486553728580476,0.2038668394088745,0.05594987794756889,0.05597458779811859,0.07078287750482559,-0.01135704480111599,-0.010198633186519146,0.014572733081877232,-0.05506301671266556,0.017858542501926423,0.03579152002930641,0.18202757835388184,0.22525359690189362,0.0452711395919323,0.0016729474300518633,-0.0559152252972126,0.07139245420694351,0.1140228807926178,-0.10083512961864472,0.12691275775432588,0.17296573519706727,-0.02841123379766941,0.10422754287719727,0.04699990898370743,-0.11468929797410965,0.013805264607071877,0.024990836158394815,0.07680968195199967,-0.10659231245517731,-0.1069631353020668,-0.19030912220478059,-0.0715823695063591,0.10042859613895416,0.03205011039972305,-0.21677884459495545,-0.041201867163181308,-0.10365110635757446,-0.1409420669078827,-0.05147793889045715,-0.18568673729896546,0.009715480729937554,-0.09164360165596008,0.1185193583369255,-0.10813049226999283,0.02819163165986538,-0.05536075308918953,-0.08366841822862625,0.10081697255373001,0.09496746957302094,0.00529934698715806,0.012189391069114209,-0.0014533665962517262,0.040001366287469867,0.00204811105504632,-0.06784830242395401,-0.027970854192972184,-0.009662527590990067,0.03759238123893738,-0.01974889077246189,0.058720413595438007,0.07953176647424698,-0.10833277553319931,0.03865186497569084,-0.006767449900507927,-0.06861680746078491,0.007375943940132856,0.05547726899385452,-0.19714953005313874,-0.13136616349220277,-0.0384850949048996,0.0322614349424839,0.026968009769916536,-0.10678957402706146,0.028403740376234056,0.002582274843007326,-0.07967282831668854,-0.004546947777271271,0.08596057444810868,0.10700426250696182,-0.07414219528436661,0.11749838292598725,-0.0422997772693634,-0.09822509437799454,-0.09163022041320801,0.005224504042416811,0.24009038507938386,-0.13010895252227784,-0.06789058446884155,0.17385031282901765,0.1520547717809677,-0.15694430470466615,-0.0663590282201767,-0.0338057316839695,0.0379420705139637,-0.07196648418903351,-0.16593584418296815,0.05400029197335243,0.0365540087223053,0.051385026425123218,-0.06952781975269318,0.14395654201507569,-0.002141386503353715,0.003332862164825201,0.07905653119087219,-0.12321273982524872,0.1663508117198944,-0.047383058816194537,0.0639011487364769,0.07144240289926529,-0.03398796543478966,0.0264157485216856,-0.02810986526310444,0.06796269863843918,0.17088615894317628,0.041505202651023868,0.09846077859401703,-0.004416588693857193,-0.01495963055640459,-0.037992097437381747,-0.05094393342733383,0.174009308218956,0.034722261130809787,-0.05605223402380943,-0.05311409384012222,0.09441845864057541,0.19990086555480958,-0.06565432995557785,0.17885243892669679,0.1248670145869255,-0.17055071890354157,0.04665180295705795,0.16574597358703614,0.06182162091135979,-0.01955539546906948,-0.02057749032974243,0.016711611300706865,-0.11812569200992584,0.0636640265583992,-0.002857071114704013,-0.16604427993297578,0.04920445755124092,-0.06563440710306168,0.16979943215847016,-0.138708233833313,-0.13249552249908448,-0.10539761185646057,0.007255131378769875,-0.021268710494041444,-0.15963715314865113,0.006163466721773148,0.19976948201656342,0.11429330706596375,-0.03570107743144035,0.037676241248846057,-0.0210434403270483,-0.07539758086204529,0.158492773771286,0.011107993312180043,-0.02530556544661522,0.2445608526468277,0.04075745865702629,-0.07642526924610138,-0.22798146307468415,0.04682934284210205,-0.017753619700670244,0.11329542100429535,-0.06800568103790283,0.055302660912275317,0.025278467684984208,-0.015981240198016168,0.1386416107416153,0.01796785742044449,-0.06359802931547165,0.1085219532251358,0.055677976459264758,-0.010115904733538628,0.01989048905670643,-0.012484530918300152,0.014745769090950489,0.07703907787799835,0.01390981487929821,0.13071425259113313,0.052690546959638599,-0.10399235785007477,-0.09080560505390167,0.2110031247138977,-0.00032803037902340293,-0.008256427012383938,-0.14609189331531526,0.09409170597791672,-0.008756417781114579,-0.10851661115884781,-0.1016688123345375,-0.1531098186969757,-0.05653943493962288,0.1210397258400917,-0.11988434195518494,-0.04641894996166229,-0.18239401280879975,0.04976349696516991,-0.0821201354265213,-0.0029464245308190586,0.07246283441781998,0.06763859838247299,0.10185038298368454,0.08639872819185257,-0.06353364884853363,0.07510002702474594,0.026428882032632829,-0.03914511203765869,-0.021894212812185289,-0.054572414606809619,-0.11941637098789215,0.026396138593554498,-0.010312823578715325,-0.10540726780891419,0.014527860097587109,0.024240251630544664,-0.0212690569460392,-0.006636345759034157,-0.008115528151392937,-0.08963732421398163,0.14826561510562898,-0.03696884587407112,-0.00163631746545434,-0.03627518191933632,-0.14834286272525788,-0.011952459812164307,0.17321798205375672,0.08173242956399918,-0.12882722914218903,-0.05808286741375923,-0.0014808006817474962,-0.06933870166540146,0.14600947499275208,0.05740564689040184,0.02782575413584709,-0.01722603291273117,0.14966712892055512,0.10359397530555725,0.19751860201358796,0.21043804287910462,-0.22577416896820069,0.05210214853286743,-0.049613408744335178,-0.06830605119466782,0.25580325722694399,0.15022672712802888,-0.08889196068048477,0.06217604875564575,0.029812926426529886,-0.14844633638858796,0.0009864156600087882,0.10104779154062271,-0.03424489498138428,-0.08957525342702866,0.09351151436567307,0.09981526434421539,0.06168891489505768,0.05750076100230217,0.11418097466230393,-0.22868669033050538,-0.01914488524198532,0.07541882991790772,-0.036149099469184878,-0.10814693570137024,0.10404139757156372,-0.005572747439146042,0.03341178968548775,-0.033999279141426089,0.00011573567462619394,-0.16609865427017213,-0.0275733545422554,-0.015597107820212841,0.14919745922088624,-0.03599805012345314,-0.22201713919639588,-0.06979282200336456,-0.07244734466075897,0.015497791580855847,-0.13276901841163636,0.1470470130443573,-0.140788272023201,0.14197787642478944,0.06750252842903137,0.1784093976020813,0.022149736061692239,-0.037594299763441089,0.24182526767253877,0.06416839361190796,-0.010507053695619107,-0.1354674994945526,-0.0341382659971714,-0.08036037534475327,-0.09631618857383728,0.019820453599095346,0.11213754117488861,0.04693219065666199,-0.13691993057727815,0.034518856555223468,-0.147974893450737,-0.2810384929180145,-0.007965444587171078,0.018495364114642144,-0.15004047751426698,-0.08345873653888703,-0.0724785178899765,-0.06823480129241944,-0.0008848289144225419,-0.012290398590266705,-0.11151491105556488,0.036788735538721088,-0.1301969289779663,-0.01569802314043045,0.07389247417449951,0.08302398025989533,-0.1021256297826767,0.05022557079792023,-0.06864744424819946,0.05287027359008789,-0.044240523129701617,-0.10059629380702973,0.1654396951198578,-0.10478141158819199,-0.14848528802394868,-0.06610897183418274,0.12414731830358505,-0.04501970112323761,-0.07524413615465164,0.05904722586274147,-0.06868690252304077,-0.03813331946730614,0.07710863649845123,0.067664735019207,-0.05482868850231171,-0.015219183638691903,0.05413813889026642,-0.017889341339468957,-0.18071749806404115,0.0013620234094560147,-0.007907573133707047,-0.06277279555797577,-0.049366969615221027,0.043189361691474918,0.05295844003558159,-0.13227783143520356,-0.1780240386724472,0.043238505721092227,0.00981349591165781,-0.050469741225242618,-0.005471007898449898,0.02843676321208477,0.03740504011511803,0.2119489461183548,0.08454716205596924,0.09864009916782379,0.03527441248297691,-0.056950200349092486,-0.01163421105593443,0.10200115293264389,-0.03364797681570053,-0.12018962949514389,0.06599786877632141,-0.04728049039840698,-0.051374685019254687,-0.1332787275314331,0.21538038551807404,-0.14239954948425294,0.03061743639409542,0.02719496376812458,-0.025174779817461969,0.017008839175105096,-0.07406586408615112,-0.02892312780022621,-0.04336017742753029,-0.072264164686203,-0.16950920224189759,-0.13743630051612855,0.17521663010120393,-0.007098894566297531,0.06481719017028809,-0.020080050453543664,-0.1719905585050583,-0.06852184981107712,0.026330631226301194,-0.00505139259621501,0.0076358141377568249,0.04132955148816109,-0.18116925656795503,-0.012274982407689095,-0.007059138268232346,-0.2472662329673767,-0.11423998326063156,0.0739273726940155,0.0709775909781456,-0.11810152232646942,0.04293857887387276,-0.08089543133974076,-0.04511823132634163,-0.12882396578788758,0.06328342109918595,-0.23173139989376069,-0.10794854909181595,0.02417740970849991,-0.02400720864534378,0.02052723988890648,-0.12653546035289765,0.052820708602666858,-0.06064915657043457,0.11051491647958756,-0.06969711929559708,0.00935679767280817,-0.020861906930804254,0.046815209090709689,-0.06980118155479431,0.16873261332511903,0.12543365359306336,-0.0723009705543518,0.11869902163743973,-0.043072763830423358,-0.0030867443419992925,0.1978898048400879,0.01564595103263855,-0.015271821990609169,-0.01695217378437519,-0.053633060306310657,0.07379607111215592,-0.08348990231752396,-0.015061754733324051,0.11519654840230942,0.03389211744070053,-0.07269386947154999,0.008156722411513329,0.14389871060848237,0.10094669461250305,-0.06254668533802033,-0.05030788108706474,-0.14543987810611726,-0.034673433750867847,-0.03370898962020874,-0.10826900601387024,-0.05078089237213135,0.023768899962306024,0.03544699773192406,-0.060142021626234058,-0.04053628072142601,-0.10453103482723236,-0.17094989120960236,0.07063014060258866,0.08310048282146454,0.01507811713963747,0.1245047003030777,-0.06181524693965912,-0.08124080300331116,-0.07091960310935974,0.0194334015250206,-0.03400798887014389,0.09082978963851929,-0.030703358352184297,-0.005218164529651403,-0.10318004339933396,-0.04953538253903389,-0.10131543129682541,-0.06453810632228852,-0.10686604678630829,-0.01286352425813675,-0.1511196494102478,0.0840928852558136,-0.072073794901371,0.022196125239133836,0.04883510246872902,-0.02811933495104313,-0.033280402421951297,-0.004400875419378281,-0.014599448069930077,-0.18505455553531648,0.0551203116774559,0.09596897661685944,0.007501881569623947,0.018048901110887529,-0.006082609761506319,0.04980671405792236,0.010594857856631279,-0.004390321206301451,0.01459810882806778,-0.026121633127331735,-0.012332474812865258,0.007225662935525179,0.057794515043497089,-0.15014274418354035,0.09791368991136551,-0.07626187801361084,0.0839783251285553,0.14827340841293336,0.15031522512435914,-0.1457398682832718,-0.022107193246483804,-0.14196546375751496,0.0002638541045598686,-0.11470947414636612,0.047651879489421847,-0.0450710691511631,0.029741235077381135,-0.04603319242596626,0.12562847137451173,-0.013969776220619679,-0.11187409609556198,-0.10443531721830368,-0.09576184302568436,-0.07349681854248047,-0.0430089570581913,-0.025590691715478898,0.05645500123500824,0.06689435988664627,0.13729827105998994,-0.0768587589263916,0.1292000114917755,0.2070874273777008,0.05150512605905533,0.029192013666033746,0.08647596091032028,-0.001726610236801207,-0.14734885096549989,0.0371050164103508,-0.06598483771085739,0.11076569557189942,-0.13334956765174867,0.20624931156635285,-0.03494062274694443,-0.08146879822015763,-0.1984316110610962,0.0009441465372219682,0.06115345284342766,0.14936181902885438,0.050682421773672107,0.024265671148896219,-0.005985078867524862,0.09055328369140625,-0.048214104026556018,0.023406602442264558,0.020664962008595468,-0.09635864943265915,0.009251720272004605,-0.07543973624706269,-0.23129363358020783,-0.28966885805130007,-0.05974199250340462,-0.034095969051122668,-0.017628362402319909,-0.08308320492506027,0.06255146861076355,0.13182824850082398,0.07990942150354386,0.0536327138543129,-0.13924583792686463,0.046669766306877139,-0.05257820710539818,0.08387406170368195,-0.15776696801185609,-0.01024981401860714,-0.04694297909736633,-0.0034915590658783914,0.18263018131256104,0.016837427392601968,-0.08303700387477875,-0.09765461832284928,0.04318556189537048,-0.12143462151288986,0.07000764459371567,0.11372677236795426,-0.04899213835597038,0.11467710882425308,-0.10359898209571839,-0.15683478116989137,0.0939122885465622,0.041397079825401309,-0.013370758853852749,-0.2159879356622696,0.06161726266145706,0.039424411952495578,0.0178701002150774,-0.0691298320889473,-0.06073828414082527,0.25696179270744326,-0.04120758920907974,-0.020217837765812875,-0.06165878102183342,0.05460301414132118,-0.08636486530303955,-0.006642495281994343,0.014304157346487046,0.03512416034936905,0.01376913208514452,-0.011814366094768048,0.12892131507396699,-0.00010857387678697705,-0.2347441017627716,-0.11148955672979355,-0.18182675540447236,0.17365418374538423,-0.05903445929288864,-0.0035114216152578594,0.032317377626895908,-0.12537334859371186,-0.08441409468650818,-0.04780513048171997,-0.12164956331253052,0.011312912218272686,-0.020593104884028436,-0.16795764863491059,0.027219384908676149,-0.05068577080965042,-0.04371430724859238,0.013169996440410614,0.02204623818397522,-0.09537160396575928,-0.05770934000611305,0.027029789984226228,0.036578238010406497,0.04376593232154846,0.14724700152873994,-0.11615671217441559,-0.07261698693037033,0.20918971300125123,-0.052504654973745349,0.041004449129104617,0.0029895303305238487,0.07767212390899658,0.17015188932418824,0.13067492842674256,0.1319219172000885,-0.09757815301418305,-0.03591616451740265,-0.16455690562725068,0.06691034138202667,0.00022446383081842214,0.08494091033935547,-0.10273399949073792,0.027057891711592675,0.017753170803189279,-0.07016701251268387,0.009152404963970185,-0.16156134009361268,0.27487701177597048,-0.028262851759791375,0.17073079943656922,0.04005900397896767,-0.02171100676059723,-0.030700385570526124,-0.035605866461992267,0.09070118516683579,0.018000228330492975,0.001974337501451373,0.015051777474582196,0.0015890781069174409,-0.07165602594614029,-0.014323619194328785,-0.13331328332424165,-0.0379456989467144,-0.10288730263710022,-0.006248375400900841,0.12015042454004288,-0.16217732429504395,-0.09603171050548554,-0.042411208152770999,0.11755358427762985,0.12148786336183548,0.0323273129761219,-0.15996454656124116,-0.09209524840116501,-0.010693369433283806,-0.06020510941743851,0.19469773769378663,0.046590253710746768,-0.0028467660304158928,-0.0939624011516571,0.17209050059318543,-0.03918115794658661,0.04511113464832306,0.02699631080031395,-0.04995470494031906,0.1204189658164978,0.04573434218764305,0.08194661885499954,-0.0663864016532898,0.002704593352973461,-0.08716513216495514,0.046469639986753467,0.012350969016551972,-0.05212965980172157,-0.17350992560386659,0.023737788200378419,0.03174354508519173,0.09813370555639267,-0.135774627327919,-0.09250885993242264,0.016585370525717737,0.03952673450112343,-0.09930756688117981,0.0019198065856471658,0.03644063323736191,0.04718228057026863,0.08657293766736984,0.11592751741409302,-0.03105427324771881,0.021345729008316995,-0.08042607456445694,-0.02095543034374714,-0.12659193575382234,