{"Layers":[{"Weights":[-0.1036192923784256,0.08449377119541168,-0.23550964891910554,0.049377840012311938,0.2550608515739441,-0.04261724650859833,0.15056730806827546,0.1379215568304062,0.06505336612462998,-0.05047928914427757,0.06236439198255539,-0.1922995001077652,0.21972985565662385,0.046788547188043597,0.11941913515329361,0.08687485754489899,0.018550975248217584,-0.016318725422024728,-0.056564584374427798,0.06131535395979881,0.10506714135408402,-0.23884104192256928,0.07290802150964737,0.0013591385213658214,0.10607495158910752,0.10039903968572617,-0.05677834525704384,0.12299507111310959,-0.062149785459041598,-0.07568933814764023,-0.1205078735947609,-0.10196920484304428,0.029033062979578973,0.03590264171361923,-0.2195734828710556,-0.09636389464139939,-0.09933818131685257,-0.04593870788812637,0.05651212856173515,-0.046547092497348788,0.08163908123970032,-0.10389239341020584,0.10476252436637879,0.0364045575261116,-0.010395498014986515,-0.012429749593138695,-0.07275043427944184,-0.08577986806631088,0.08542981743812561,-0.09584996849298477,0.08194863051176071,-0.03341010957956314,0.042553599923849109,-0.027389978989958764,-0.08916585892438889,0.08039946109056473,-0.12127497792243958,0.14076343178749085,0.17955075204372407,0.014817663468420506,-0.15703323483467103,0.19785621762275697,-0.042045850306749347,-0.09450864791870117,-0.13264255225658418,0.037850625813007358,-0.03256433457136154,0.02142842672765255,-0.13636267185211183,-0.2389703243970871,-0.0952061265707016,0.11301825195550919,-0.060228947550058368,-0.05502763390541077,0.0223400741815567,-0.0430627316236496,-0.03513408824801445,-0.11094574630260468,-0.16285128891468049,0.04009408503770828,-0.09262518584728241,-0.0038699035067111255,0.1411701738834381,0.0780927836894989,-0.05120972916483879,0.036494672298431399,0.16333208978176118,-0.0605345293879509,-0.14034028351306916,-0.05140495300292969,0.22165633738040925,-0.03177081421017647,0.0006766919395886362,0.041220083832740787,0.08915943652391434,-0.09829241782426834,-0.034523412585258487,-0.06168614700436592,0.033325135707855228,0.07633210718631745,0.058523353189229968,-0.008548683486878872,0.08958376199007034,-0.03430069610476494,-0.21335729956626893,0.03801553696393967,-0.03002772480249405,0.09763916581869126,-0.026532726362347604,-0.2404712289571762,-0.11321539431810379,-0.007709546480327845,0.06887888163328171,0.07572459429502487,-0.019590109586715699,-0.0983869880437851,0.037065546959638599,-0.09738994389772415,0.0008028142037801445,-0.04351594299077988,-0.04710991308093071,-0.09416896104812622,-0.08934082090854645,-0.04607951641082764,0.07478611916303635,0.042920827865600589,0.12024204432964325,-0.18175087869167329,-0.1703772395849228,0.04863344505429268,0.05332837253808975,0.044642966240644458,-0.09622709453105927,0.032791007310152057,0.061681464314460757,0.027102047577500345,0.1987764686346054,0.06641978025436402,0.07635615020990372,0.004306488204747438,-0.0034499738831073047,-0.06825463473796845,0.07929809391498566,-0.04844067245721817,0.20561568439006806,0.07273721694946289,-0.04301772639155388,0.012482576072216034,-0.0573684424161911,0.00919889286160469,0.20875795185565949,-0.003299345262348652,-0.16093510389328004,0.13469944894313813,-0.1530182957649231,-0.1447892040014267,-0.0671134665608406,0.09233900904655457,0.027428483590483667,0.04503829404711723,0.09469866752624512,0.16447745263576508,-0.09103850275278092,-0.025741877034306527,-0.07052475214004517,-0.09463192522525788,-0.1155255064368248,-0.006746002938598394,0.13413381576538087,-0.10724709182977677,0.15136289596557618,0.09933077543973923,-0.1014673039317131,-0.04463991895318031,-0.11548078060150147,0.04853116720914841,0.07101429253816605,-0.016376283019781114,-0.13471847772598267,0.009867267683148384,-0.07178806513547898,-0.048411775380373,-0.118772491812706,-0.04769675433635712,-0.017485972493886949,0.06000449135899544,-0.006262507289648056,-0.019961679354310037,-0.07506881654262543,-0.0453496053814888,0.14588020741939546,-0.0862250104546547,0.07200886309146881,0.057507552206516269,0.04911474883556366,0.039144083857536319,0.17560136318206788,-0.05173061043024063,-0.08785894513130188,-0.05371379107236862,-0.07725902646780014,0.03897358104586601,0.09267285466194153,0.09922917187213898,-0.10186723619699478,-0.01622496172785759,0.042524419724941257,-0.008841288276016713,-0.18826313316822053,-0.055601149797439578,-0.0007069589919410646,-0.05235210061073303,-0.03206628933548927,-0.1456771045923233,0.16634979844093324,-0.07310736924409867,-0.11399007588624954,-0.14925308525562287,0.06876648962497711,0.061856675893068317,-0.012964452616870404,0.2073604315519333,-0.055478304624557498,-0.047176919877529147,-0.127496600151062,-0.09263883531093598,-0.003092481754720211,-0.0883382186293602,0.07266487181186676,0.011933347210288048,-0.20319266617298127,-0.049818433821201327,0.06045044958591461,-0.12675480544567109,0.12132462114095688,-0.058052029460668567,0.0697404071688652,0.016129089519381524,-0.08942262083292008,-0.04608095437288284,-0.033019132912158969,0.05282504856586456,0.009587859734892846,-0.02817614935338497,0.012749536894261837,0.16637924313545228,0.020825497806072236,0.1164308562874794,0.12783567607402802,0.04353963956236839,0.00782344676554203,0.09118705242872238,-0.043432652950286868,-0.11606700718402863,0.11576297134160996,0.09250671416521073,-0.08403154462575913,-0.0011222163448110223,0.009883864782750607,0.18506544828414918,0.13319191336631776,-0.052132412791252139,-0.03997373580932617,0.08672450482845307,-0.024931734427809717,0.05469737574458122,0.09168252348899842,-0.1635764092206955,0.03986604884266853,-0.1500532180070877,0.12761236727237702,-0.12467377632856369,-0.09696786105632782,0.030416177585721017,-0.02288595214486122,0.01566101796925068,0.09919078648090363,0.0948018953204155,-0.058607686311006549,-0.12235511094331742,-0.09290357679128647,-0.0746300145983696,0.10279642790555954,-0.01350932102650404,-0.11394193023443222,-0.027176493778824807,0.1787768453359604,0.024481121450662614,-0.04855053499341011,0.10014842450618744,0.07878676056861878,0.05848608911037445,-0.05801599845290184,-0.03310298174619675,-0.14223195612430573,-0.01617683283984661,-0.18289998173713685,0.040580857545137408,0.048702336847782138,0.016993742436170579,-0.013165358453989029,0.023682763800024987,-0.026044975966215135,-0.003028147853910923,0.011081256903707981,0.11758856475353241,-0.052302658557891849,0.019529184326529504,-0.05069228261709213,-0.01265107560902834,0.1744232326745987,-0.09580234438180924,-0.09919995814561844,0.010526939295232296,0.05235758423805237,-0.09497353434562683,0.022580130025744439,-0.16501390933990479,0.08967546373605728,-0.057300012558698657,-0.01609175279736519,0.18175315856933595,0.12344244867563248,0.10837800055742264,0.038312967866659167,0.02163049578666687,-0.09134429693222046,-0.050060804933309558,0.12368307262659073,-0.2023630440235138,0.0672219842672348,0.17147132754325868,-0.08828791975975037,-0.0024408120661973955,0.058559030294418338,0.030635569244623185,0.038246866315603259,0.06694789230823517,0.2014208734035492,-0.13484835624694825,-0.09697996824979782,0.07268249988555908,0.13516457378864289,-0.10138792544603348,-0.02711268700659275,-0.008130061440169812,0.009811953641474247,0.05204591155052185,-0.04817180335521698,-0.037659887224435809,-0.009918694384396077,-0.1009855791926384,0.009070043452084065,0.15298707783222199,-0.14582569897174836,0.09255796670913696,0.030597953125834466,-0.03231007605791092,-0.05154901370406151,0.030162909999489785,0.051268115639686587,0.10301502048969269,-0.05276231840252876,-0.08473742008209229,0.08842824399471283,0.11617808789014816,-0.10495257377624512,-0.06918361037969589,-0.07698018103837967,-0.015830792486667634,-0.12542308866977693,-0.008074818179011345,0.020144738256931306,-0.20279912650585175,0.10985405743122101,-0.03797142207622528,0.23396249115467072,0.0015596114099025727,0.11562448740005493,-0.044986095279455188,0.12038008123636246,-0.052163124084472659,0.14598682522773744,0.06575454026460648,0.12134072184562683,-0.0835954025387764,-0.1924242079257965,-0.10010384023189545,0.07456967979669571,-0.1413828581571579,-0.06918934732675553,0.11124572157859802,-0.021886931732296945,0.18467725813388825,-0.050949446856975558,-0.09882812201976776,0.03265627846121788,-0.02088157832622528,-0.2179797738790512,-0.03657585754990578,-0.06460405141115189,0.12098833918571472,-0.0688118264079094,0.048421334475278857,0.04391461983323097,-0.04452849552035332,0.1861412674188614,0.24760474264621736,-0.014665885828435421,-0.013180644251406193,0.13517776131629945,0.015286330133676529,-0.05675225704908371,0.011804967187345028,-0.295284241437912,-0.08863972872495651,-0.03108026087284088,-0.15739396214485169,0.12653601169586183,0.008799757808446885,-0.03653984144330025,0.05422384664416313,-0.07004046440124512,-0.12777338922023774,-0.002954470459371805,0.018673475831747056,0.058541204780340198,0.11114896833896637,0.03096158243715763,-0.10740070790052414,-0.01925729215145111,0.11036406457424164,0.0389430895447731,-0.17293241620063783,0.187311053276062,-0.09834602475166321,-0.02491401508450508,0.00994256604462862,-0.011812085285782814,0.004961446858942509,0.025196602568030359,0.14350217580795289,0.12508167326450349,0.014929399825632573,-0.003975788597017527,0.13100400567054749,-0.03654053434729576,-0.19767555594444276,0.07115302234888077,-0.056619077920913699,-0.10657372325658798,-0.08658347278833389,0.07811573892831803,-0.006952367722988129,0.1211051195859909,-0.12202320992946625,-0.016300877556204797,-0.10097311437129975,-0.04369819164276123,-0.25172239542007449,-0.13422022759914399,0.07624676078557968,-0.0348578616976738,0.007686175871640444,0.06301610916852951,-0.10899937897920609,0.08375059068202973,-0.10645659267902374,0.13118591904640199,-0.018884118646383287,-0.033698178827762607,0.05053526163101196,-0.05082297697663307,0.04302167147397995,0.08267121762037277,0.0048183114267885689,-0.020981911569833757,-0.08500361442565918,-0.0631917268037796,-0.04477279633283615,-0.03141086548566818,-0.04785947501659393,0.025845056399703027,0.13495248556137086,0.041367363184690478,-0.08994945138692856,0.01565748266875744,0.19780224561691285,0.009490211494266987,0.15508201718330384,-0.001947164535522461,-0.04751149192452431,0.016601378098130227,0.1261715590953827,-0.06015966087579727,-0.07854197919368744,0.10457862913608551,0.005090298131108284,0.06041727587580681,0.09151005744934082,-0.1188671663403511,0.13955681025981904,0.05721154063940048,0.19870920479297639,0.047156766057014468,-0.05978872627019882,-0.14179152250289918,-0.05107659846544266,-0.15901674330234528,0.08974931389093399,0.11969469487667084,0.06685523688793183,-0.049532126635313037,-0.13962386548519135,0.07512714713811875,-0.10193069279193878,-0.1318608820438385,0.044484496116638187,0.15133748948574067,0.04512254148721695,0.13131634891033173,0.10768433660268784,-0.07363106310367584,-0.08420918881893158,-0.12435293197631836,0.017132913693785669,0.08900819718837738,0.13979417085647584,0.20746248960494996,0.013823369517922402,0.0651806965470314,-0.07776262611150742,0.055347852408885959,0.06330174207687378,0.019725386053323747,0.012303556315600872,0.033485036343336108,-0.0701080709695816,0.08975110203027725,-0.1275130957365036,-0.1713426411151886,-0.12703026831150056,0.04595267400145531,-0.24419039487838746,-0.07710503041744232,0.04630511254072189,-0.04872917756438255,0.06198680400848389,-0.10208512842655182,-0.0574476532638073,0.10924915224313736,-0.017973575741052629,-0.2956767976284027,-0.07588522881269455,-0.060929957777261737,-0.0943051353096962,0.10324998199939728,0.03427784517407417,-0.01550337951630354,0.10889101028442383,-0.19026300311088563,0.048424459993839267,-0.14162325859069825,0.004649053793400526,-0.08640260249376297,-0.053304363042116168,0.06599805504083634,0.006991865113377571,0.017250696197152139,0.015880614519119264,0.06150166690349579,-0.04613843187689781,-0.028050029650330545,0.012781545519828797,0.004486624617129564,-0.09605797380208969,0.16890467703342439,-0.05487323924899101,-0.12231971323490143,0.051245272159576419,0.08810826390981674,-0.18638545274734498,-0.12132502347230911,-0.10305066406726837,-0.039014820009469989,0.05566437542438507,0.0029761081095784904,-0.20995742082595826,-0.07689767330884934,-0.14862079918384553,-0.08313941955566406,0.07856210321187973,-0.09612329304218292,0.005050072446465492,-0.0806303322315216,0.06807287037372589,0.03979189693927765,0.01309849601238966,0.009260445833206177,0.0791717991232872,0.0176559891551733,0.07467149198055268,-0.1716655194759369,0.12205762416124344,0.07292111963033676,0.09655633568763733,0.08369807153940201,-0.05490821972489357,0.008276032283902169,-0.1274382621049881,-0.008145764470100403,-0.0013253679499030114,0.0662200003862381,-0.07369627803564072,0.04107018932700157,-0.08114209026098252,-0.1360473781824112,-0.1525241583585739,-0.1019427552819252,-0.058086372911930087,-0.002676799427717924,0.12568573653697968,0.08157157897949219,-0.019861653447151185,-0.03754716366529465,0.03321591392159462,-0.1471586674451828,-0.0462082177400589,-0.02619760110974312,0.01139082945883274,-0.013149772770702839,0.16992519795894624,0.061635248363018039,-0.18047088384628297,0.003483610460534692,0.08284985274076462,-0.18094271421432496,0.034842345863580707,0.167239248752594,-0.12078966200351715,0.13953417539596559,0.010552903637290001,-0.05591659992933273,0.02837742678821087,0.12575192749500276,-0.16061611473560334,-0.04098477587103844,0.0033638249151408674,0.11736996471881867,0.09237851202487946,0.05231219530105591,-0.10090737044811249,-0.08239694684743881,0.148960143327713,-0.03847912326455116,0.07378587871789932,0.1423064023256302,-0.068031445145607,-0.07865101844072342,-0.030438734218478204,-0.09752443432807923,-0.1669047772884369,-0.002553445752710104,0.005383700132369995,0.02722197212278843,-0.001995194237679243,0.028053846210241319,0.09484775364398956,0.08206921070814133,-0.1402028650045395,0.005516417324542999,0.0487765297293663,-0.05400785431265831,-0.1158943846821785,-0.02150324545800686,-0.05900329723954201,-0.1540578454732895,-0.01849358342587948,-0.05317643657326698,0.04879095032811165,-0.16807380318641663,0.12386243790388107,-0.026365438476204873,0.0691201314330101,-0.016021182760596277,0.07995866984128952,0.05759994313120842,0.043774720281362537,-0.09426490217447281,-0.08862773329019547,-0.08645700663328171,0.06946594268083573,0.1619875431060791,-0.062407154589891437,0.06465256214141846,-0.10715310275554657,-0.13261903822422028,0.03410760685801506,-0.1648918241262436,-0.11041180789470673,0.11738321930170059,0.14326316118240357,0.04829810559749603,-0.027108311653137208,-0.0727677196264267,0.007971244864165783,-0.0060697584412992,-0.029446862637996675,0.16721707582473756,-0.1705974042415619,-0.025816453620791436,0.005898221395909786,0.23891188204288484,-0.05431491881608963,0.0010622297413647175,-0.03724713250994682,0.02234596759080887,0.07376746088266373,0.1180134117603302,-0.0987248346209526,-0.10222001373767853,-0.00562675716355443,0.056859731674194339,0.11185755580663681,-0.2047419250011444,0.01178465224802494,-0.08180639147758484,0.00040914674173109233,-0.11332418769598007,-0.05866784229874611,-0.03270203620195389,-0.042568352073431018,0.008085796609520913,0.0510142557322979,-0.06741518527269364,-0.1827455461025238,0.05343033745884895,0.09654350578784943,0.06021662428975105,-0.0792648121714592,-0.21049149334430695,0.036481209099292758,-0.2412409782409668,0.06138240173459053,0.0560154989361763,-0.08961237967014313,-0.032354533672332767,0.05159875378012657,0.024324849247932435,0.05631367489695549,0.04834779351949692,0.038241513073444369,0.06969476491212845,0.12403476238250733,-0.09379125386476517,0.049463000148534778,-0.1369035691022873,-0.06696540117263794,-0.22290737926959992,0.07480015605688095,0.07032320648431778,0.121763676404953,0.02646137960255146,0.034477267414331439,-0.06097948178648949,0.10653223097324372,0.05990956351161003,-0.017043087631464006,0.04485922306776047,-0.06041642278432846,-0.04383594170212746,-0.0015205504605546594,-0.019877174869179727,0.13837489485740663,0.0023648880887776615,0.13693034648895265,0.06510922312736511,0.11418469995260239,-0.08832495659589768,0.08611245453357697,0.09546859562397003,-0.06567547470331192,0.07106418162584305,0.1054733470082283,-0.02655854821205139,-0.016075564548373224,-0.14197660982608796,-0.08556736260652542,0.04480113834142685,0.018618302419781686,-0.01322436798363924,-0.039325159043073657,-0.032561998814344409,0.033389367163181308,-0.012105356901884079,-0.09282039105892182,0.029409226030111314,0.03301260620355606,0.1655147522687912,-0.034969646483659747,0.16420632600784303,-0.10741984844207764,-0.2126123607158661,-0.04373612254858017,-0.02020014077425003,0.03824302926659584,0.04017386958003044,-0.12463606148958206,0.1180591881275177,-0.0962512269616127,-0.054523199796676639,0.1815681904554367,0.03839956596493721,0.06249125301837921,0.1929270476102829,0.08996603637933731,-0.006049599032849073,-0.14107294380664826,0.1881198137998581,-0.08907398581504822,-0.05145051330327988,0.06504092365503311,0.04168574512004852,-0.24602657556533814,-0.008039886131882668,0.052798569202423099,-0.16439160704612733,0.1317456066608429,0.17752982676029206,0.020789461210370065,-0.038591474294662479,-0.007522194646298885,-0.03389521688222885,-0.08842025697231293,-0.04635035991668701,-0.01768258586525917,0.10128787904977799,-0.07998456805944443,-0.15563105046749116,0.08638472110033035,0.04423457756638527,0.09974954277276993,-0.002889685332775116,0.12113618105649948,-0.027108801528811456,-0.015268965624272824,-0.014650501310825348,0.03216572850942612,0.1400882750749588,-0.022029921412467958,0.037905093282461169,0.003315800568088889,0.11695609241724014,-0.11245238780975342,-0.13887691497802735,0.2090739756822586,0.10866978019475937,-0.15903256833553315,-0.02146930806338787,0.0793459415435791,0.09091869741678238,-0.035475071519613269,-0.05015099048614502,0.03269017115235329,0.12165835499763489,0.027262821793556215,-0.12296060472726822,-0.10516268759965897,0.03821852430701256,-0.08599317073822022,0.01380670815706253,-0.04114028811454773,0.05348407104611397,-0.08993455767631531,0.010860792361199856,-0.18575599789619447,0.031853415071964267,-0.10705982148647309,-0.038918208330869678,-0.0269168633967638,0.021268144249916078,0.11412022262811661,0.03290867432951927,-0.030776236206293107,0.04496097192168236,-0.07772304862737656,-0.06266280263662338,-0.04748135432600975,0.08045051991939545,-0.06337965279817581,-0.01264060940593481,0.08664130419492722,-0.13304975628852845,0.11954528093338013,-0.14150379598140717,0.25071385502815249,-0.09283707290887833,-0.03965648263692856,-0.1356084942817688,-0.09216417372226715,-0.06750930845737457,0.05407469719648361,0.08237108588218689,-0.020801620557904245,-0.03333740681409836,0.04838719591498375,-0.04366450756788254,-0.03832298517227173,-0.0007088747806847096,-0.20005424320697785,-0.05152852460741997,0.08016619831323624,0.07978011667728424,0.06926648318767548,-0.1962602287530899,-0.0634339451789856,0.060947831720113757,-0.026165999472141267,0.059322189539670947,-0.16175024211406709,0.02143256925046444,-0.05045327544212341,-0.07989178597927094,-0.11392044275999069,0.006420269142836332,0.08469828218221665,-0.11089319735765457,-0.18135544657707215,-0.011445460841059685,-0.1198505237698555,-0.10502343624830246,-0.00995195098221302,-0.04449927434325218,-0.025646807625889779,0.1563270539045334,-0.04142335057258606,0.003519317600876093,0.20223215222358704,0.010730830021202565,-0.007365283090621233,0.026263464242219926,0.12706826627254487,-0.1393410712480545,0.07923490554094315,-0.08972594887018204,0.08091225475072861,0.037250205874443057,-0.13060404360294343,-0.049295395612716678,-0.05393896996974945,-0.07160622626543045,-0.10667060315608978,-0.1778494268655777,0.015810657292604448,-0.019376058131456376,-0.06192082166671753,-0.082657091319561,-0.0067955199629068378,-0.055824603885412219,0.04777787625789642,-0.0011486578732728959,0.11946307122707367,-0.08792044967412949,-0.040708206593990329,0.16352298855781556,0.08637581020593643,0.15490446984767915,-0.014114303514361382,0.03390878438949585,0.026148874312639238,0.13132594525814057,0.1057228147983551,-0.11304358392953873,0.10509010404348374,0.09212300926446915,0.0022505521774291994,-0.05721765756607056,0.0026350202970206739,0.10798342525959015,0.0003496874705888331,0.0023373228032141926,0.045207686722278598,0.09254610538482666,0.07946275919675827,-0.029752453789114953,0.1569114774465561,0.029776927083730699,0.06352057307958603,0.19604943692684174,-0.18923939764499665,-0.17462767660617829,-0.11207839846611023,0.017288386821746827,-0.07090585678815842,0.007874955423176289,-0.10323033481836319,0.07032815366983414,-0.06814280897378922,0.053027164191007617,-0.07055574655532837,0.12489593029022217,0.2333066314458847,-0.0876191183924675,0.11460950970649719,0.03283092379570007,0.12311553210020066,0.16203580796718598,0.13271555304527284,0.16078095138072968,-0.07412074506282807,-0.04559062793850899,0.09734944999217987,0.07416802644729614,0.21030285954475404,-0.02819373831152916,0.02047104388475418,0.09977667033672333,-0.06253102421760559,0.09866753965616226,-0.11664943397045136,0.16864117980003358,-0.07858429104089737,0.0964956060051918,-0.03508758917450905,0.23689532279968263,0.045031774789094928,-0.24727971851825715,-0.08254051208496094,-0.023536628112196924,-0.018919846042990686,-0.010644043795764447,0.061315808445215228,0.10988274961709976,-0.09096778929233551,0.06368358433246613,-0.09273666888475418,0.08319822698831558,-0.04529706761240959,-0.13351567089557649,0.11344616115093231,0.05107244849205017,-0.12075242400169373,0.0027140076272189619,-0.25134921073913576,-0.15211795270442964,-0.14139142632484437,0.03264071047306061,0.1711529940366745,-0.04606696218252182,0.12653183937072755,-0.08875194936990738,-0.021510927006602289,0.04921448975801468,-0.09411626309156418,0.010427300818264485,0.09133543074131012,-0.019906464964151384,0.10499965399503708,-0.07863055914640427,-0.1352563351392746,-0.13865263760089875,0.1064150482416153,-0.02222776971757412,0.1382843554019928,-0.08998231589794159,-0.01482289656996727,0.17248684167861939,0.013358455151319504,-0.15563760697841645,-0.01913066953420639,0.05138219892978668,-0.03939327970147133,0.04646648094058037,-0.08432579040527344,-0.14870783686637879,0.0041211978532373909,-0.03257209062576294,-0.028962517157197,-0.10984156280755997,-0.1442149430513382,0.04239257425069809,0.055319275707006457,-0.08544883877038956,0.03871186450123787,0.02776615507900715,0.018298495560884477,0.06058963015675545,0.14453385770320893,-0.03500879555940628,0.04537168890237808,0.031181711703538896,0.034353192895650867,-0.1881711632013321,-0.20006641745567323,-0.13502532243728639,-0.046849243342876437,0.13286568224430085,0.04593633487820625,0.029303329065442086,-0.03828607499599457,0.04977511987090111,0.0145784392952919,0.015619279816746712,0.17605483531951905,-0.09782243520021439,-0.004030696116387844,0.04246622696518898,0.03599483519792557,0.10714405030012131,-0.14326414465904237,0.061332862824201587,0.061143044382333758,-0.042332328855991366,-0.03486410155892372,-0.057960495352745059,0.029215091839432718,0.11007557809352875,-0.2109101116657257,-0.13109152019023896,-0.04408171400427818,-0.08830460160970688,-0.04913902282714844,0.0691031888127327,0.028659159317612649,-0.14855054020881654,0.009242085739970208,-0.0704255998134613,-0.05052739381790161,-0.1639183759689331,0.014690757729113102,-0.042982641607522967,-0.021287526935338975,-0.0021195884328335525,0.12077733129262924,0.012940293177962304,-0.03495273366570473,-0.10018576681613922,-0.024175915867090226,0.18915316462516786,0.10080889612436295,0.08260614424943924,0.13523690402507783,0.0341828316450119,-0.12296554446220398,0.0851036012172699,-0.1012287437915802,-0.03807082772254944,-0.002240741392597556,0.05331123620271683,0.18109622597694398,-0.0008769507403485477,0.07870848476886749,0.04367395117878914,0.031461507081985477,-0.12402938306331635,-0.015198205597698689,-0.11695744842290878,-0.040548175573349,-0.1306876242160797,0.11161021888256073,0.13207130134105683,-0.06742119044065476,0.07658105343580246,-0.052330970764160159,0.01396289560943842,0.005195699632167816,0.1980358213186264,0.14996683597564698,0.022825973108410836,0.0900454893708229,-0.0723455473780632,-0.11164616793394089,-0.029094085097312928,0.13990312814712525,0.1465924233198166,0.012591015547513962,-0.07488543540239334,-0.13720963895320893,-0.01004938967525959,-0.130380317568779,-0.002681717975065112,0.0945698544383049,-0.11532610654830933,0.018826091662049295,0.11325768381357193,0.08986856043338776,0.03623921424150467,0.19395683705806733,-0.127931147813797,0.11961247771978378,-0.01934426836669445,-0.10802120715379715,0.11407960206270218,0.14423078298568726,-0.06984440237283707,0.03157416358590126,-0.08095152676105499,0.010017567314207554,0.01401258073747158,-0.1354673057794571,0.0772748813033104,0.022218812257051469,0.06487475335597992,-0.07446769624948502,-0.0672285407781601,-0.08945196121931076,0.16386060416698457,-0.047578923404216769,-0.13172684609889985,0.04643700271844864,-0.019833197817206384,-0.01873422972857952,0.02830641157925129,0.006883020047098398,-0.15237760543823243,-0.011079700663685799,-0.09253806620836258,-0.04021814465522766,0.007794039323925972,0.18884797394275666,-0.04613251984119415,0.09283550828695297,-0.01407485082745552,-0.08378376811742783,0.035078566521406177,-0.07029673457145691,0.04711088538169861,0.15985727310180665,-0.0919967070221901,-0.05867492035031319,0.060494501143693927,-0.08607159554958344,-0.13030211627483369,0.006923473905771971,0.07581935077905655,-0.02700810320675373,-0.08326569944620133,-0.028434207662940027,-0.045469626784324649,0.023550216108560563,-0.03615816310048103,-0.06108628213405609,-0.02505585364997387,-0.023526005446910859,0.10708680748939514,-0.13452047109603883,-0.035718243569135669,0.13608454167842866,-0.03866171836853027,0.14360839128494264,-0.1362423151731491,-0.030340656638145448,-0.22358864545822144,-0.013433223590254784,0.1597682684659958,-0.13517341017723084,-0.026758940890431405,-0.039479732513427737,-0.08648563176393509,0.05649552866816521,-0.057478729635477069,0.19004298746585847,0.1915513426065445,0.036231882870197299,-0.07483933120965958,0.000619292666669935,-0.07070975005626679,-0.0017983766738325358,-0.023367835208773614,0.047432057559490207,0.051451850682497028,0.1456366330385208,-0.10087595880031586,0.027340665459632875,0.016103733330965043,0.10589643567800522,0.05695207044482231,-0.09218218177556992,-0.0034114141017198564,-0.10025717318058014,0.07968982309103012,-0.14201578497886659,0.1459096372127533,0.16347239911556245,-0.03497634455561638,-0.0395999513566494,0.03586313873529434,0.00432748906314373,-0.13466130197048188,-0.027799012139439584,0.12887266278266908,-0.10248446464538574,-0.21696443855762483,-0.00983155332505703,0.225734144449234,-0.009903278201818467,0.009028793312609196,-0.16058340668678285,-0.16765493154525758,-0.021965796127915384,-0.07592650502920151,0.02614951878786087,-0.08670920878648758,-0.1557723581790924,0.02634333446621895,0.01285095140337944,-0.026669317856431009,-0.1127895638346672,0.0664660632610321,0.03275666385889053,-0.16457943618297578,-0.12573383748531342,0.06375865638256073,-0.10513868182897568,-0.02971409074962139,-0.12660837173461915,-0.02350580133497715,-0.18868975341320039,0.04599251598119736,0.12459810823202133,0.09611398726701737,-0.004788261838257313,0.0237988643348217,-0.0006832638173364103,0.01106860302388668,-0.2692890465259552,-0.022139381617307664,-0.08747074007987976,-0.14146150648593903,0.09462600946426392,0.05994918569922447,0.08137781918048859,-0.06327515095472336,-0.060252562165260318,-0.05551186949014664,0.008135931566357613,0.010276908054947853,0.0024469338823109867,0.2966686189174652,0.055798694491386417,-0.2991042137145996,-0.07413724064826966,-0.049543071538209918,0.08043771237134934,0.010796885937452317,0.07967057824134827,0.06107112765312195,0.10385701060295105,0.02393524907529354,0.12610583007335664,-0.012353258207440377,-0.08470188081264496,-0.01492587011307478,-0.031485315412282947,-0.05062636733055115,0.023188186809420587,0.11647409945726395,-0.05678559094667435,0.013499904423952103,0.036909040063619617,-0.004182606469839811,0.07274629175662995,-0.12161493301391602,-0.08226007223129273,-0.038575429469347,-0.02604755572974682,0.017110399901866914,0.12346792966127396,-0.22572611272335053,0.0011464643757790328,0.022030964493751527,0.06573953479528427,0.03594283387064934,-0.30103424191474917,-0.09090200811624527,0.11842842400074005,0.07285808026790619,0.09312445670366287,0.1434478759765625,-0.14228668808937074,0.041838958859443668,-0.025419360026717187,0.18781544268131257,-0.2053011953830719,-0.03273231163620949,0.037697456777095798,-0.19885757565498353,-0.052483297884464267,0.17388713359832765,0.05299418419599533,-0.002906950656324625,0.07859426736831665,0.10031268000602722,-0.06237788498401642,0.3222610056400299,-0.03283475339412689,0.11903314292430878,-0.10095398128032685,-0.1392187476158142,-0.12170205265283585,0.16225871443748475,0.003356281900778413,-0.031038032844662668,0.015393885783851147,0.02989853359758854,-0.000029329956305446103,0.08061233162879944,-0.19830068945884705,0.09347311407327652,-0.07932835072278977,0.11593835055828095,0.03296380117535591,0.1992143988609314,-0.01733124814927578,-0.08625632524490357,0.019764788448810579,-0.009117665700614453,-0.00152732920832932,-0.0008898850064724684,-0.01599917560815811,-0.04056922346353531,-0.031662892550230029,-0.047001615166664126,0.21072538197040559,0.18368975818157197,-0.026741262525320054,0.08017697185277939,-0.08609147369861603,-0.04370524734258652,-0.03987390547990799,0.20098696649074555,0.03350980952382088,0.01301975641399622,-0.22081612050533296,-0.02611471526324749,-0.020307444036006929,-0.0349351242184639,-0.006018299143761396,0.08476873487234116,0.09100526571273804,-0.19127172231674195,0.06107224524021149,-0.05850772187113762,0.010386905632913113,-0.040150195360183719,0.009861817583441735,0.09691273421049118,-0.056258298456668857,-0.1152854636311531,-0.04026494920253754,0.03635621443390846,-0.021044403314590455,0.11520134657621384,0.1250104457139969,-0.12683671712875367,0.08124320209026337,0.022403843700885774,0.03967420011758804,0.09714095294475556,0.12984631955623628,-0.07368523627519608,0.08628447353839874,0.041867539286613467,-0.0201923418790102,0.05677303671836853,-0.09641861915588379,0.10517975687980652,-0.17259161174297334,0.06261876225471497,0.020257189869880678,-0.11917072534561157,-0.14035779237747193,-0.06418760120868683,0.019904566928744317,-0.00018231624562758952,0.1843309998512268,-0.03333085775375366,0.08518551290035248,0.07055598497390747,0.04621323570609093,-0.08372087776660919,0.015123225748538971,-0.09128082543611527,0.0115114850923419,-0.05748291313648224,0.08764684200286865,-0.07750873267650604,0.021446703001856805,0.10259474813938141,-0.013186338357627392,0.06235043704509735,-0.0022685520816594364,0.06662848591804505,-0.17381297051906587,-0.07579857856035233,0.0922607034444809,-0.16473853588104249,-0.03793792426586151,-0.0012064407346770168,-0.10229064524173737,-0.04844580590724945,-0.0867595374584198,-0.11851082742214203,-0.036476124078035358,0.07960724830627442,0.010476909577846527,0.0526454783976078,-0.0623643696308136,0.055742233991622928,0.03804066777229309,0.05922719091176987,-0.014119680039584637,0.13545441627502442,-0.1724337786436081,0.18316084146499635,0.0009392648935317993,0.0582900233566761,-0.06795906275510788,0.03660298511385918,0.021843180060386659,-0.029160955920815469,0.1505674123764038,0.09466169029474259,0.0429389551281929,0.13449926674365998,-0.06333765387535095,-0.024627501145005227,0.011875775642693043,-0.03768524155020714,0.03765951842069626,0.047287467867136,0.09437195956707001,0.06731352210044861,0.1548222452402115,-0.04669850319623947,-0.22263601422309876,0.16470494866371156,0.18837134540081025,0.005585850682109594,-0.02382420375943184,-0.10396245121955872,-0.030331360176205636,-0.10486390441656113,-0.14974136650562287,-0.06813282519578934,-0.06909757852554321,0.06112000346183777,0.06302157044410706,-0.18726091086864472,-0.09826113283634186,-0.16116252541542054,-0.09783432632684708,-0.025460250675678254,0.07187096029520035,-0.05656583979725838,0.11242847889661789,-0.02932428941130638,-0.015423056669533253,0.007732041645795107,-0.012766596861183644,0.1283145397901535,-0.06796907633543015,0.08683452755212784,0.10590722411870957,0.004108569584786892,0.1513313204050064,0.004958088044077158,-0.0762217566370964,-0.12738695740699769,-0.02446855790913105,0.06711096316576004,-0.010035086423158646,-0.10804501175880432,-0.0010623247362673283,-0.1102321594953537,-0.09595439583063126,-0.1489507555961609,-0.07166942209005356,-0.04162188246846199,-0.03097447380423546,0.06101156026124954,-0.0943395346403122,0.08613906800746918,-0.12146811932325363,-0.024430952966213228,0.05758800730109215,0.09619485586881638,0.013710105791687966,0.0620901957154274,-0.09101434797048569,0.02859310247004032,-0.050807513296604159,-0.005830193404108286,0.1864038109779358,-0.08199649304151535,-0.05964406579732895,-0.07307508587837219,0.012512349523603917,0.08439269661903382,0.1048998087644577,-0.017748167738318445,-0.019633032381534578,0.20419202744960786,-0.01006314903497696,-0.0047824205830693249,-0.11012619733810425,-0.08040380477905274,-0.1002836525440216,-0.06063731759786606,0.06564325839281082,0.07979930937290192,-0.0514209121465683,-0.11333359777927399,-0.09365472942590714,-0.04857298359274864,0.11860773712396622,0.03903258964419365,0.11369094252586365,0.17543701827526093,0.0025429304223507644,0.10157860815525055,-0.1027177944779396,-0.02738453820347786,-0.09021513164043427,0.05528007075190544,-0.04853564500808716,0.1407189667224884,0.03576553985476494,0.17341338098049165,0.12440938502550125,0.09559231251478195,0.04585232958197594,0.1559077948331833,0.011730500496923924,-0.11523927003145218,-0.03943191468715668,-0.05225319787859917,-0.056229885667562488,-0.06940708309412003,0.1028420627117157,-0.10476569831371308,0.04384893551468849,-0.01700298674404621,-0.14372223615646363,-0.12090976536273956,-0.14413903653621674,-0.05605379864573479,0.040241505950689319,-0.024432547390460969,0.1314183473587036,0.2257547825574875,0.10235756635665894,-0.0742725059390068,0.13007831573486329,-0.04181501641869545,0.034910693764686587,0.07040873914957047,-0.0724661722779274,0.10958404839038849,-0.16103769838809968,0.002093721181154251,-0.058419179171323779,-0.11667698621749878,0.04211323335766792,0.0718027651309967,-0.012418694794178009,0.13640795648097993,0.19773606956005097,-0.15657757222652436,0.08593657612800598,-0.12078648805618286,0.033235687762498859,-0.1671334207057953,-0.05925918370485306,0.099847711622715,-0.05702289938926697,-0.08310474455356598,0.013048635795712471,-0.08317301422357559,0.005726337432861328,-0.03211136907339096,0.08777996897697449,-0.025337710976600648,-0.06073940172791481,0.1750699281692505,-0.08594195544719696,-0.06163270026445389,0.11380179971456528,0.07209701836109162,-0.11029919236898422,0.09589814394712448,-0.16618087887763978,0.11405452340841294,-0.13647465407848359,0.014754556119441986,0.045747220516204837,0.001620564959011972,0.08905114978551865,0.059567101299762729,-0.012775992974638939,-0.015886196866631509,-0.10871075838804245,0.10989286005496979,-0.2034321278333664,0.08655514568090439,0.14107397198677064,0.04516533389687538,-0.13518889248371125,-0.01094101369380951,-0.06833062320947647,0.037460748106241229,0.011565657332539559,0.07865599542856217,0.06510196626186371,-0.029978696256875993,-0.3261907398700714,-0.05274343490600586,0.0072889141738414768,-0.009937993250787259,0.14931471645832063,-0.02784194052219391,-0.13099978864192964,0.0412922240793705,-0.022646907716989518,-0.07517646998167038,0.08094492554664612,-0.15957757830619813,0.20192094147205354,0.021018140017986299,0.22275835275650025,-0.06260382384061814,0.1364901214838028,-0.06166693940758705,-0.04667161405086517,0.19740255177021027,0.020756904035806657,-0.007846063934266568,-0.04584674537181854,-0.20080696046352387,0.17378266155719758,-0.13983964920043946,-0.03074762597680092,-0.12338229268789292,0.004654223099350929,-0.061661701649427417,0.1116410568356514,0.01603139005601406,0.05269655957818031,-0.006395891308784485,0.06106933206319809,0.04722031205892563,-0.0656149834394455,0.09844698011875153,-0.12442922592163086,0.1971021294593811,0.13914823532104493,-0.13539312779903413,-0.032215844839811328,0.05881626158952713,0.030823860317468644,-0.11270120739936829,0.06212439015507698,-0.09396722167730332,-0.03924353048205376,-0.00937141664326191,0.05859635770320892,-0.16109499335289002,-0.059134941548109058,0.2329615205526352,0.11440551280975342,-0.12873752415180207,-0.023280953988432885,0.017664816230535508,-0.09330730885267258,0.19538278877735139,0.05503571778535843,0.05971759557723999,0.16984808444976808,-0.0016270565101876855,0.0010569028090685607,-0.14327475428581239,-0.07356412708759308,0.0022417979780584575,0.18444344401359559,-0.005894825793802738,-0.007826353423297406,-0.05325021594762802,0.02459772117435932,0.07128315418958664,0.046483371406793597,0.1129136011004448,0.010269119404256344,-0.05963787063956261,-0.11517954617738724,0.07933387160301209,-0.0347134992480278,0.06152750179171562,-0.032346900552511218,0.05506840720772743,-0.17708337306976319,-0.024207349866628648,0.0992593839764595,-0.08521149307489395,0.17425936460494996,-0.10658217966556549,0.03389710932970047,-0.02903958596289158,-0.01123163104057312,-0.11609426885843277,0.007485892623662949,-0.007418678142130375,0.0849081352353096,0.039365530014038089,0.01148089487105608,0.03819340839982033,0.06463325023651123,0.003267715685069561,-0.10091184824705124,-0.05925890430808067,0.038658853620290759,-0.13311903178691865,-0.10756151378154755,-0.0491013303399086,0.05076393112540245,-0.047274619340896609,0.019122613593935968,0.005071702413260937,0.017541702836751939,-0.05718635767698288,0.0045874579809606079,-0.0006878788699395955,0.12930993735790254,0.01800365187227726,-0.12942539155483247,0.013976704329252243,-0.005026977974921465,0.040742792189121249,0.0619136206805706,-0.1112828254699707,-0.11734415590763092,-0.13300946354866029,0.01867084763944149,-0.09307252615690232,-0.033372651785612109,-0.1281212568283081,0.13712921738624574,0.10747119784355164,-0.07132653892040253,-0.10979155451059342,0.02348296344280243,-0.057258591055870059,-0.09584961086511612,0.11993589252233505,-0.07081574946641922,-0.07535184174776077,-0.00028875956195406616,-0.11955226957798004,0.18489639461040498,0.23107577860355378,0.08227326720952988,0.1046830490231514,-0.10769499838352204,-0.03410014510154724,0.1313839554786682,0.0324489064514637,-0.0870080441236496,0.0695425420999527,0.06425006687641144,-0.08583976328372956,-0.0026765901129692795,0.10826150327920914,-0.10168448090553284,-0.0629475861787796,0.021239887923002244,0.04454759880900383,0.09780345112085343,-0.29190686345100405,0.07317779958248139,-0.08784829825162888,-0.019363228231668474,0.0494307279586792,0.14562320709228517,0.028953390195965768,0.06283115595579148,-0.12151496857404709,0.10724599659442902,0.11917978525161743,-0.06311891973018646,-0.04128432273864746,-0.2010224163532257,-0.022391581907868387,-0.022105753421783448,0.022381318733096124,0.0011431691236793995,0.04798414930701256,0.20541270077228547,0.012206332758069039,0.052282970398664477,0.15823280811309815,0.026816237717866899,-0.14307603240013123,-0.006956791039556265,0.02159063145518303,-0.04266543313860893,-0.025743838399648668,-0.041607361286878589,0.05264529213309288,-0.0677051916718483,0.06405762583017349,0.0032916520722210409,-0.12068817019462586,0.13717910647392274,0.02428498864173889,-0.1254742443561554,-0.01743805781006813,-0.10804116725921631,-0.18355724215507508,0.05286196991801262,0.010368992574512959,0.024756938219070436,-0.05992557108402252,0.2110474705696106,-0.003784309606999159,0.023115219548344613,0.0512688010931015,-0.18111130595207215,0.13497662544250489,0.012193089351058007,-0.1501091718673706,-0.042975105345249179,0.025906844064593316,0.056878820061683658,0.022701313719153405,0.06421616673469544,-0.0787515938282013,-0.07264169305562973,-0.1071104034781456,-0.014387260191142559,0.04020802304148674,0.10971251130104065,-0.08428627997636795,0.16438843309879304,-0.1417202204465866,-0.1100047305226326,0.07504990696907044,0.05924724414944649,0.054978225380182269,-0.014040853828191758,-0.12728692591190339,0.021705498918890954,0.1948157101869583,-0.009226941503584385,0.04208174720406532,-0.11722210049629212,0.06839452683925629,0.08038685470819473,-0.1349184662103653,0.16226498782634736,0.04150215908885002,0.21941614151000977,-0.0787784606218338,0.06343431770801544,-0.0046161869540810589,0.02036408893764019,0.05119820311665535,-0.021593032404780389,-0.04012588784098625,0.20321324467658997,0.22365902364253999,-0.031535785645246509,-0.09907757490873337,0.10398167371749878,-0.061341531574726108,-0.048152823001146319,-0.023152979090809823,-0.01071563083678484,-0.06312810629606247,-0.022900184616446496,0.03162755072116852,-0.1701672226190567,-0.15393970906734467,0.0020586387254297735,-0.1774575412273407,-0.04061316326260567,-0.07357250154018402,-0.12826472520828248,0.08533237129449845,0.050569504499435428,0.13022978603839875,0.05520681291818619,0.016657523810863496,0.09929051250219345,0.09005089849233628,0.009361022152006626,-0.01563427597284317,-0.12279057502746582,0.001980495173484087,-0.042099833488464358,-0.0018210657872259617,-0.15816611051559449,0.13108663260936738,0.19599927961826325,0.05249078944325447,0.025553371757268907,-0.04583416134119034,-0.11162102967500687,-0.09524413198232651,-0.16910894215106965,-0.12776105105876923,-0.03401385620236397,0.11887573450803757,0.2208516001701355,-0.06379793584346771,-0.006826375611126423,-0.11529400199651718,-0.05407536402344704,-0.0022861750330775978,0.021028321236371995,0.06699778884649277,-0.02485549822449684,-0.049395833164453509,-0.00890946201980114,-0.14353588223457337,0.1720055192708969,-0.044579729437828067,0.06311735510826111,0.149017333984375,-0.025332186371088029,-0.14075271785259248,-0.07897618412971497,-0.025621598586440088,0.010329443030059338,-0.06444927304983139,-0.01821683533489704,-0.027497459203004838,-0.14968712627887727,-0.06923095136880875,0.018516918644309045,-0.005623584147542715,-0.18592657148838044,0.1044512391090393,-0.05382336676120758,0.23058195412158967,-0.09360785782337189,0.008201991207897663,-0.28200286626815798,0.053035374730825427,-0.2122870236635208,0.02242155373096466,0.19466015696525575,-0.0575510710477829,-0.10901866853237152,0.025955015793442727,0.0942385271191597,0.004382685292512178,-0.11633085459470749,-0.02912461757659912,0.11659024655818939,0.1508604735136032,0.10573288798332215,-0.03127613663673401,-0.1837426871061325,-0.04043048992753029,-0.16585849225521089,0.04482991248369217,0.05144773796200752,0.0059171514585614208,-0.3042930066585541,-0.02569790557026863,-0.019917964935302736,0.06455537676811218,0.010114739648997784,0.10298018902540207,-0.02826046012341976,-0.039934396743774417,-0.02700253203511238,-0.2846229374408722,-0.0775669664144516,-0.022790251299738885,-0.027319010347127916,-0.014890419319272042,-0.004352578427642584,0.07187820225954056,-0.12510685622692109,-0.02596888318657875,0.12555018067359925,0.07315880805253983,0.05830959230661392,-0.17997322976589204,-0.14591507613658906,0.055216845124959949,-0.04757939279079437,0.011284862644970417,-0.2146318405866623,0.11730487644672394,0.10047561675310135,0.015758482739329339,-0.2010984867811203,0.04649373143911362,0.21669426560401917,0.027522012591362,0.04840012267231941,0.07381155341863632,-0.09383908659219742,0.03591940551996231,-0.01593300886452198,0.15192672610282899,-0.09663301706314087,-0.23661836981773377,0.044695209711790088,-0.01677701435983181,-0.14271552860736848,-0.09466268122196198,0.1092848852276802,0.09191372245550156,-0.03712877631187439,0.09005574882030487,0.029224500060081483,-0.081064373254776,-0.18335993587970735,0.008465235121548176,-0.006393155548721552,0.12565714120864869,-0.17449012398719788,0.07634619623422623,-0.09094300121068955,-0.04303424432873726,0.03820658102631569,0.005656431894749403,-0.06832253187894821,0.01560378447175026,-0.16442915797233582,0.10994713753461838,0.024477703496813775,-0.12797535955905915,0.003738248720765114,-0.030061833560466768,-0.09998983144760132,0.07286534458398819,0.12461705505847931,-0.0782853439450264,-0.10181029140949249,0.04789463430643082,-0.0031738770194351675,0.06804072856903076,-0.04109915345907211,0.18522125482559205,-0.03249753266572952,0.09215408563613892,0.08384369313716889,0.04657139629125595,0.13752059638500215,0.1022348627448082,-0.18473118543624879,-0.12684588134288789,-0.057930607348680499,0.0783424898982048,0.09888660907745362,0.04459134116768837,0.04104113578796387,0.11089763045310974,-0.004960797261446714,0.0745532438158989,0.06425856053829193,-0.23825035989284516,-0.013520104810595513,0.04464421421289444,0.040652576833963397,-0.09895214438438416,0.11694007366895676,-0.08393607288599014,0.051484592258930209,-0.07759896665811539,-0.02251131646335125,-0.028175069019198419,-0.0217857975512743,-0.007406541146337986,-0.008572480641305447,0.08829043060541153,0.09436839818954468,-0.11868904531002045,0.05390959233045578,0.13369916379451753,0.05626974254846573,-0.04627907648682594,-0.0001444021618226543,0.014332461170852185,-0.002132948487997055,0.10459548979997635,0.04860926419496536,0.11981231719255448,0.13017556071281434,-0.037186987698078158,-0.04271042346954346,-0.049808070063591,-0.015581277199089527,0.03303298354148865,0.017489947378635408,-0.18638895452022553,0.10444037616252899,-0.09782391041517258,0.0152165861800313,-0.12666380405426026,-0.2127591371536255,0.10883036255836487,0.09120284020900727,-0.010125563479959965,-0.0471675843000412,-0.07885661721229553,-0.132090762257576,-0.09454668313264847,-0.02298443391919136,-0.033636752516031268,0.03621653839945793,0.0550987608730793,-0.01987023651599884,-0.10146021097898483,-0.10614345222711563,0.1274270862340927,-0.06460418552160263,-0.06083117425441742,0.12811484932899476,0.01635674573481083,0.009991675615310669,0.021864259615540506,-0.07590503245592118,0.05405956134200096,0.048248402774333957,0.01925460807979107,0.17380169034004212,-0.03987525403499603,-0.0006771421758458018,-0.027708658948540689,0.03811407834291458,-0.15821488201618195,-0.08925817161798477,0.06325913965702057,-0.16732318699359895,-0.12236154824495316,0.009724085219204426,-0.05122804641723633,0.027419239282608033,-0.06825804710388184,-0.10445152223110199,-0.06047186627984047,0.1662560999393463,0.003996259532868862,-0.075464628636837,-0.12617622315883637,0.03871562331914902,-0.08237533271312714,0.01400299184024334,0.04969127103686333,0.010466120205819607,0.12863148748874665,-0.010823679156601429,-0.05273904278874397,-0.07178757339715958,-0.024927830323576928,0.08030109107494354,-0.08778941631317139,0.026967046782374383,0.10301860421895981,0.07143902778625488,0.14847096800804139,-0.05137048661708832,0.09329383075237274,-0.10051854699850083,-0.019493132829666139,0.0725981667637825,0.05274449288845062,-0.03728962317109108,0.23997794091701508,0.047461602836847308,0.1025405079126358,-0.016621151939034463,-0.0012753093615174294,0.12253083288669586,-0.18585117161273957,0.07897911965847016,-0.0476488396525383,0.027263885363936425,0.07062037289142609,-0.11115334182977677,-0.07046274840831757,0.006636825390160084,0.24292337894439698,-0.008386919274926186,-0.02285170927643776,0.15002821385860444,0.048961091786623,0.009278163313865662,-0.16577687859535218,0.016008665785193445,0.06858795881271362,0.058494605123996738,0.002870007883757353,-0.057746682316064838,0.14201390743255616,-0.15170864760875703,-0.0705573782324791,0.015381219796836377,-0.10229800641536713,-0.08008250594139099,-0.07249002903699875,0.027378050610423089,0.1340789645910263,0.0014522953424602748,-0.1865271031856537,-0.011045167222619057,0.0009729329613037407,0.007865549065172673,-0.07105302810668946,-0.06202616170048714,0.06060993671417236,0.18693409860134126,-0.05498610809445381,0.10077029466629029,-0.21479924023151399,-0.04823686182498932,-0.10770928859710694,-0.1589534729719162,-0.10299564152956009,0.001982299145311117,0.13537999987602235,-0.0791516974568367,0.12758193910121919,-0.07069063931703568,0.05684565007686615,-0.06485245376825333,0.0665428638458252,0.1764729768037796,0.042293936014175418,-0.1313273310661316,0.04055905342102051,0.08843549340963364,0.03203340619802475,0.049896810203790668,0.05978114902973175,-0.042109113186597827,-0.07929148524999619,-0.06037550047039986,-0.026490479707717897,0.016347121447324754,-0.048275262117385867,-0.044438332319259647,0.11277887225151062,0.05574645847082138,0.038202788680791858,0.1935809701681137,0.10546828806400299,0.025291183963418008,0.046609483659267429,0.07896184921264649,0.06515530496835709,-0.0064202588982880119,0.07851383090019226,-0.023461462929844857,-0.010494623333215714,0.10456942021846771,-0.07820633053779602,0.04716378450393677,0.01712781749665737,-0.041596438735723498,-0.0495540052652359,-0.05709712579846382,0.15963883697986604,0.09339314699172974,0.053225986659526828,-0.01563914120197296,-0.04744364321231842,0.0037369823548942806,-0.06575397402048111,0.12028954923152924,-0.13472267985343934,-0.02657751739025116,-0.08710718899965286,-0.0526711568236351,-0.11027442663908005,0.14223822951316834,-0.07716161012649536,-0.13145564496517182,0.10002101957798004,0.11344759911298752,-0.005340114235877991,0.06871554255485535,-0.024968387559056283,-0.1153685450553894,0.038863811641931537,-0.048582203686237338,-0.1832025796175003,0.038019176572561267,-0.0877562016248703,0.16908453404903413,-0.05312718451023102,0.02171507105231285,-0.008125098422169686,-0.05302311107516289,0.11738672107458115,-0.029267799109220506,0.014554854482412339,-0.15688012540340424,0.07649993896484375,-0.07877933233976364,-0.11817159503698349,0.06284065544605255,0.07378619909286499,0.09191452711820603,0.1158481314778328,-0.1326155811548233,0.2943693995475769,-0.011951261200010777,-0.06522390246391297,0.08424019813537598,0.059138715267181399,-0.04383866861462593,-0.12257974594831467,0.06913744658231735,-0.09047304838895798,0.03057180531322956,-0.06452762335538864,0.0004428192332852632,-0.16246771812438966,-0.061931539326906207,-0.04146365448832512,0.05011492595076561,0.015097526833415032,0.05278376489877701,0.10746152698993683,0.03156561404466629,0.07578526437282562,0.0018616050947457553,0.13006585836410523,-0.07515261322259903,-0.023571131750941278,-0.03181356564164162,0.013863259926438332,0.1361720860004425,-0.028028329834342004,0.0021183271892368795,-0.25624698400497439,-0.07092251628637314,0.00810830108821392,0.10364696383476258,-0.0752691850066185,0.08432140201330185,0.01913815550506115,0.05015452951192856,-0.08186772465705872,0.005143705289810896,-0.034202881157398227,-0.008684372529387474,-0.17486506700515748,-0.011591668240725994,0.17701473832130433,-0.03522251546382904,0.07999488711357117,-0.031453799456357959,0.07384926080703736,-0.1713058203458786,-0.012673486024141312,0.08681067824363709,-0.15128099918365479,-0.11324713379144669,-0.1141495481133461,-0.06461085379123688,-0.061158258467912677,0.20083674788475038,0.025071417912840844,0.07611702382564545,-0.04982716590166092,-0.04420625790953636,-0.037026893347501758,0.03933244198560715,-0.19325977563858033,0.05643772706389427,-0.04943254217505455,0.06789389252662659,-0.15030506253242494,0.15733030438423158,-0.11070366948843003,0.019628364592790605,-0.11432799696922302,-0.14260278642177583,0.25103840231895449,0.028956161811947824,-0.06755440682172775,-0.0398540124297142,-0.09401505440473557,-0.05787588655948639,-0.011737929657101632,-0.058835528790950778,-0.004571602214127779,-0.11453112959861756,-0.11971128731966019,0.027498621493577958,0.05129788815975189,-0.1989644318819046,-0.16072316467761994,0.06136910989880562,0.06416136026382446,-0.13337162137031556,0.07726345956325531,-0.09667235612869263,0.011876440607011319,-0.012828735634684563,-0.11547956615686417,0.09854338318109513,-0.22904640436172486,-0.05739307031035423,0.1071421280503273,0.12152951955795288,-0.10660866647958756,0.06584639847278595,0.07320784032344818,-0.03653619810938835,0.17798496782779694,-0.013722025789320469,0.02345651388168335,0.03897254541516304,-0.016173288226127626,-0.1339290887117386,0.06696817278862,0.058630671352148059,-0.24689242243766786,0.05866267532110214,-0.021503757685422899,0.09625855088233948,0.005629552528262138,-0.10643719881772995,0.06736082583665848,-0.0027425677981227638,0.09027031064033508,0.1053631380200386,0.024470366537570955,0.004925310146063566,0.09105884283781052,-0.024978162720799447,0.12463342398405075,-0.022549336776137353,0.00932550523430109,0.05663779377937317,-0.09866884350776673,0.037162166088819507,-0.09687109291553498,-0.02597617916762829,-0.0033499947749078275,-0.06771770119667053,-0.002076883800327778,-0.03312088921666145,0.026421168819069864,-0.0378958135843277,-0.05079375579953194,-0.09081204980611801,-0.06538683921098709,0.011305461637675763,-0.012323624454438687,0.10267993807792664,-0.05233721435070038,-0.16259174048900605,0.11593034118413925,0.0077662686817348,0.1409773826599121,0.054518938064575198,0.06930799037218094,-0.18457114696502686,0.0030818849336355926,-0.15254844725131989,-0.20453640818595887,-0.17266471683979035,0.08685602992773056,-0.06577660143375397,-0.013952583074569703,0.014847096055746079,-0.00023649116337765008,-0.22954192757606507,0.022287992760539056,-0.14698593318462373,0.027338167652487756,-0.008939928375184536,-0.051635317504405978,-0.11693817377090454,0.11412780731916428,0.1107964813709259,-0.057839181274175647,0.004630083218216896,0.10298426449298859,0.04668939486145973,-0.07664325088262558,-0.08661479502916336,0.0535675473511219,-0.09863321483135224,0.19269908964633943,-0.028428634628653528,0.00004937679841532372,-0.029109710827469827,-0.08964887261390686,0.05814839527010918,0.0003225448017474264,0.07623874396085739,-0.07870323210954666,0.0016020644688978792,0.010474687442183495,0.14143575727939607,-0.04689048230648041,-0.12261978536844254,0.21410351991653443,-0.11308471113443375,0.03790793940424919,0.08154039829969406,0.006637712009251118,-0.03762189671397209,-0.04511520639061928,-0.05809915065765381,0.023516733199357988,-0.03028404712677002,-0.04739058017730713,0.053968723863363269,0.05172175541520119,0.0418376624584198,0.14719370007514954,-0.012995368801057339,0.023788558319211007,0.0455457866191864,-0.07596678286790848,0.3034330904483795,0.11267652362585068,0.0407552495598793,-0.09477568417787552,-0.027660148218274118,0.07009612023830414,0.11691053956747055,-0.09211708605289459,0.1339811533689499,0.09968867897987366,0.3127838373184204,-0.0022249144967645408,-0.19159077107906342,0.18426066637039185,-0.0032165932934731247,-0.14342857897281648,0.11250610649585724,0.1102326363325119,0.1513427346944809,-0.11513300240039826,0.08118341863155365,-0.17490118741989137,-0.08954725414514542,-0.06445655971765518,-0.09626752883195877,0.07463947683572769,0.21224193274974824,-0.0993373766541481,-0.08657732605934143,-0.12682874500751496,0.25964781641960146,-0.026586316525936128,-0.06541234254837036,0.0014739242615178228,0.034053850919008258,0.026847898960113527,-0.015316086821258068,-0.08403819799423218,0.15476910769939423,0.19917356967926026,0.3421271741390228,-0.028904911130666734,-0.13934233784675599,0.05260017141699791,-0.07754146307706833,0.021422967314720155,-0.1362188160419464,0.056536462157964709,0.2088167667388916,-0.01909647509455681,-0.17053745687007905,-0.05599738657474518,-0.11841209977865219,-0.03545109182596207,-0.08316614478826523,0.08473969995975495,-0.04289160296320915,-0.09554079174995423,0.07961917668581009,0.023220300674438478,0.016551444306969644,-0.002306566806510091,0.17710630595684052,-0.03514084964990616,0.07792018353939057,-0.0460248626768589,0.02306879498064518,0.1753775179386139,0.19208897650241853,-0.08134899288415909,0.18018671870231629,0.010251381434500218,-0.3073083460330963,0.10605548322200775,0.02396949753165245,-0.014249526895582676,-0.0368717797100544,-0.07286542654037476,0.07141216099262238,0.07095262408256531,-0.04089223966002464,-0.0037351136561483146,-0.029661141335964204,0.2084953933954239,0.02049366384744644,0.0939517691731453,-0.024074068292975427,-0.04564832150936127,0.04783168435096741,0.0021976905409246685,-0.00968215987086296,-0.08414896577596665,-0.13044396042823792,0.14397364854812623,0.018106810748577119,0.00594739243388176,-0.03660493716597557,-0.012264874763786793,0.06423844397068024,0.21765246987342835,0.09018918871879578,-0.10494314134120941,-0.07847275584936142,-0.0488622821867466,0.03596813976764679,0.06568920612335205,0.1620665192604065,0.10773129016160965,0.010758844204246998,0.1475478857755661,-0.077189601957798,0.10040507465600968,-0.042936425656080249,-0.10027372092008591,0.17400285601615907,-0.18153665959835053,-0.1462598443031311,0.07149439305067063,-0.012783202342689038,-0.12366112321615219,-0.15196309983730317,-0.18352173268795014,0.06517807394266129,-0.03529122471809387,-0.045104410499334338,0.09229827672243118,-0.01056765764951706,-0.08491526544094086,0.05376749485731125,-0.017311125993728639,-0.1894845813512802,-0.11304125934839249,0.028256071731448175,0.026853268966078759,0.1069897711277008,0.10811871290206909,0.05209525674581528,-0.05032763630151749,-0.07653339952230454,0.015179752372205258,-0.050424132496118548,-0.033949993550777438,-0.055584028363227847,0.05462268739938736,-0.07141953706741333,-0.09682246297597885,-0.02541488967835903,-0.052300915122032168,0.053180959075689319,-0.022248994559049608,-0.05069267749786377,-0.1095525398850441,0.07496225833892822,-0.05838983133435249,-0.11687261611223221,0.15748757123947144,-0.007683645933866501,0.02700858935713768,-0.01713511161506176,0.0004924264503642917,-0.11144471168518067,-0.03140508756041527,-0.0016193627379834653,0.14568409323692323,0.08238126337528229,0.12208165228366852,0.03000418283045292,0.1863449662923813,-0.06049194931983948,0.11899877339601517,0.15078675746917725,0.15096504986286164,0.020795606076717378,0.11306138336658478,0.034581106156110767,0.04099934175610542,-0.0009002010338008404,-0.14236848056316377,-0.09251002222299576,-0.1541794240474701,0.12651929259300233,-0.02270231395959854,-0.11654100567102432,0.07112991809844971,-0.10691911727190018,0.04712139442563057,-0.060676008462905887,0.037330225110054019,-0.053256381303071979,0.09612628817558289,-0.07101716101169586,0.10017944872379303,0.01088188961148262,-0.049909286201000217,0.08361638337373734,0.03854065760970116,-0.0896276906132698,-0.13181550800800324,0.0032444100361317398,0.06952957063913346,-0.11503884941339493,-0.03955594450235367,-0.028109874576330186,-0.037056636065244678,0.15358705818653108,0.038441237062215808,-0.029347633942961694,0.11713007092475891,-0.04929691553115845,0.09802715480327606,0.014990540221333504,0.07708555459976196,0.15541398525238038,-0.11069409549236298,-0.11017449200153351,-0.04611286148428917,0.08486607670783997,0.1862681359052658,-0.21127000451087953,-0.015010283328592778,-0.05466806888580322,0.03797648474574089,0.034901462495326999,-0.18172399699687959,-0.08830611407756806,-0.2084166258573532,0.117397740483284,0.0071884747594594959,-0.16123630106449128,-0.01327796932309866,0.09168374538421631,0.013608419336378575,-0.0350535586476326,-0.0777420699596405,0.101467564702034,0.004421232733875513,0.17103973031044007,0.00040621039806865156,0.1895042210817337,-0.1576942503452301,-0.10672779381275177,-0.042581140995025638,0.06471984833478928,-0.06516405940055847,-0.13956619799137116,0.2738083302974701,-0.19018487632274629,0.021416621282696725,-0.015826769173145295,0.04265962541103363,0.01222136989235878,-0.0278849545866251,0.023189157247543336,-0.015843888744711877,0.20502549409866334,0.024718010798096658,-0.04476244002580643,0.13752983510494233,-0.1087615117430687,0.019323043525218965,-0.023857833817601205,0.09210469573736191,-0.12595079839229585,-0.001108462573029101,0.10400239378213883,0.10416930913925171,-0.028941355645656587,-0.06495483964681626,-0.0281259473413229,-0.06163498014211655,-0.07669639587402344,-0.01644974760711193,-0.014682792127132416,0.039273567497730258,-0.01590055041015148,-0.09262806177139282,0.014391767792403698,0.032711245119571689,-0.19650742411613465,-0.061570905148983,-0.1361849457025528,-0.056074462831020358,0.055212825536727908,0.022392351180315019,0.07313863933086395,-0.1369517594575882,0.014721042476594448,0.0663071796298027,0.02384210377931595,0.06867455691099167,-0.028076840564608575,-0.017217213287949563,-0.09318440407514572,-0.03372597321867943,0.09555496275424957,0.08261005580425263,-0.09350495040416718,-0.08987562358379364,-0.19592994451522828,0.1367032676935196,0.06375128030776978,0.0029631059151142837,-0.08119253814220429,0.07405205070972443,0.07149969786405564,-0.09158147126436234,0.015535951592028141,0.03146232292056084,-0.04207703098654747,0.1188676580786705,-0.11006906628608704,-0.030738966539502145,0.053696565330028537,0.035196661949157718,-0.08166024088859558,0.09003118425607681,-0.1373458206653595,-0.007446330040693283,-0.05684840679168701,-0.06520397961139679,-0.04572802409529686,0.22064334154129029,-0.008777635172009468,-0.08720385283231735,0.18654336035251618,0.014225364662706852,-0.04058478772640228,0.029379725456237794,0.08615083247423172,0.015634676441550256,-0.13295085728168488,-0.06072259694337845,-0.05438113212585449,0.1198381707072258,0.09625869244337082,0.025030046701431276,-0.023694923147559167,-0.04274631291627884,-0.05888776853680611,-0.19321207702159882,0.032091546803712848,0.2429323047399521,-0.020675702020525934,0.09073922038078308,-0.027186796069145204,-0.14751793444156648,-0.10894858837127686,0.1351814568042755,0.03289337083697319,0.20354315638542176,0.040127046406269076,-0.1834140568971634,-0.08331357687711716,-0.10625608265399933,0.06932544708251953,-0.09196389466524124,-0.13910385966300965,0.15312445163726808,0.01696719601750374,-0.019543273374438287,0.01983891986310482,-0.0877956748008728,0.05412387102842331,0.11207437515258789,-0.019960107281804086,-0.06092196702957153,-0.01567092537879944,-0.1762489229440689,0.058814503252506259,0.03921595960855484,-0.026282014325261117,0.016836507245898248,0.009270926006138325,-0.04844921454787254,0.10245294868946076,0.020171843469142915,0.05465681478381157,0.013609996996819973,0.09329893440008164,0.06281378865242005,0.13012924790382386,-0.14365503191947938,-0.020325904712080957,0.052216194570064548,0.05260604992508888,0.1582670509815216,-0.06588944047689438,-0.0443655401468277,-0.03495332598686218,0.02314247190952301,-0.07615949958562851,0.05931774154305458,0.13835208117961884,0.14366020262241364,-0.07251213490962982,-0.16897812485694886,0.022371260449290277,-0.013453668914735318,-0.054641976952552798,0.011531945317983628,-0.07470731437206269,0.04571572318673134,0.01660076156258583,0.029979195445775987,0.27039340138435366,-0.23132669925689698,0.11175540089607239,-0.03716149553656578,0.11086405813694,-0.047130513936281207,-0.03064015321433544,-0.1336376667022705,-0.06511949002742768,0.12514501810073853,0.04888346418738365,-0.07557246834039688,-0.13385967910289765,-0.16438207030296327,-0.2025744915008545,-0.01673903688788414,-0.05875959247350693,0.10461984574794769,0.020876538008451463,-0.09311708062887192,0.002575645921751857,0.0070577035658061508,0.11721958965063095,0.07615379989147186,-0.12097381055355072,0.039795998483896258,0.002763301832601428,-0.0451720766723156,0.1032252237200737,-0.019909285008907319,0.04498834162950516,-0.08982047438621521,-0.0021840769331902267,-0.15475581586360932,-0.030032236129045488,-0.011976538226008416,-0.15649110078811646,0.038923636078834537,-0.04192410409450531,-0.03631718456745148,-0.07370561361312866,0.07357268035411835,-0.047521188855171207,-0.3199162185192108,-0.07215375453233719,0.12623989582061768,-0.009969132021069527,0.075642891228199,-0.14202791452407838,0.0718405544757843,-0.011087408289313317,0.1320682168006897,-0.005202592816203833,0.15996411442756654,0.04561275988817215,0.08595315366983414,-0.009856957010924816,0.09598501026630402,0.031231725588440896,0.05226684361696243,0.04572200030088425,0.14959485828876496,-0.11122280359268189,-0.010770514607429505,0.07695963978767395,0.044722773134708408,0.026455698534846307,-0.023523246869444848,0.06368660181760788,-0.07135991752147675,-0.09961193799972534,0.11307337135076523,0.22068093717098237,-0.000039991082303458825,-0.06535246223211289,-0.17361541092395783,0.032224759459495547,-0.029714863747358323,0.07673773169517517,0.060580331832170489,-0.1544116735458374,0.04327811300754547,-0.006769500207155943,0.03735516965389252,0.05307035893201828,-0.025837084278464319,-0.09790118038654328,-0.06461983919143677,-0.09170501679182053,0.11096851527690888,0.04736709967255592,-0.050760768353939059,-0.07976711541414261,0.05463908985257149,0.03705256059765816,0.008704363368451596,0.08556324243545532,-0.030096400529146196,-0.21063710749149323,-0.029109619557857515,-0.11993952840566635,0.016666846349835397,0.15724575519561768,0.0024873537477105858,0.013970335945487023,0.08967818319797516,0.1644546538591385,-0.13475295901298524,0.049446750432252887,0.006466368213295937,-0.12272832542657852,0.02641710638999939,0.002951699309051037,-0.07724244892597199,-0.1875542551279068,-0.08604610711336136,-0.06708607822656632,0.16262221336364747,-0.08432260155677796,0.10229597240686417,0.16216975450515748,0.10385721176862717,-0.09952223300933838,0.1570955067873001,-0.005264684092253447,-0.14189253747463227,-0.021690400317311288,0.11843126267194748,-0.04319071024656296,-0.0006064763874746859,-0.058047737926244739,-0.04053463414311409,0.10118010640144348,-0.0217269454151392,0.13396196067333222,0.1261645406484604,-0.0621875636279583,0.1042923554778099,-0.07666255533695221,-0.021532783284783365,0.019428370520472528,0.035644613206386569,-0.08297590911388397,0.07718199491500855,-0.12779295444488526,-0.001878772978670895,0.027327142655849458,0.10459918528795243,-0.10704521834850311,-0.0189142394810915,-0.1268012523651123,-0.1547081470489502,-0.06456401199102402,-0.14838945865631104,0.09383093565702439,0.16537511348724366,0.23768630623817445,-0.15335722267627717,-0.024525832384824754,-0.13414336740970612,0.08828353136777878,0.14533793926239015,-0.011701079085469246,0.025809714570641519,-0.02535206452012062,-0.059454482048749927,-0.04314994066953659,-0.012861590832471848,0.04498150944709778,-0.07066962122917175,0.01791982725262642,0.06803515553474426,0.021343516185879709,-0.018211916089057924,-0.0631101056933403,-0.10521619766950607,0.10805999487638474,0.005509933456778526,-0.10947021842002869,-0.004011642653495073,-0.09479619562625885,0.13879571855068208,0.15461814403533936,0.10688237100839615,-0.197453573346138,-0.05566803738474846,-0.006792491767555475,-0.15464016795158387,-0.055353857576847079,0.06894697993993759,-0.06212543696165085,-0.06855125725269318,0.05847053602337837,0.058079108595848086,0.18764746189117433,0.034681566059589389,0.06688978523015976,-0.08603231608867645,-0.09755364060401917,-0.0024531467352062465,0.24790474772453309,0.02828192710876465,-0.053320758044719699,-0.03551790490746498,0.1027330532670021,-0.12836173176765443,0.14368489384651185,-0.009678696282207966,-0.17576003074645997,0.06422527879476547,-0.006007816176861525,-0.003290880937129259,-0.055798426270484927,-0.04338154196739197,-0.11530567705631256,0.009230323135852814,0.010732385329902172,0.20644302666187287,-0.08308600634336472,-0.05629603937268257,0.09552642703056336,0.06967850029468537,0.07339660823345185,-0.04536343365907669,-0.12447580695152283,0.10124664753675461,-0.05903702601790428,0.05112496018409729,0.04686306416988373,0.07598832249641419,0.03238470107316971,0.059837277978658679,0.08653353154659271,0.061041224747896197,-0.2214871197938919,-0.07921314239501953,0.021305428817868234,-0.007985170930624009,-0.05792214348912239,-0.12453822046518326,0.03417624905705452,-0.0987214520573616,0.15705618262290955,0.16202183067798615,0.016983140259981157,0.011622598394751549,-0.12098869681358338,0.04863239824771881,0.020710648968815805,0.05690097063779831,-0.10816242545843125,-0.0076367962174117569,-0.08669652789831162,-0.09095334261655808,-0.013724947348237038,0.06549948453903198,-0.0705970972776413,-0.19169451296329499,-0.003804371925070882,0.1644902229309082,-0.061488475650548938,0.02128615975379944,0.005788434762507677,0.19578802585601808,-0.08866960555315018,0.006656170357018709,-0.15632113814353944,0.19679318368434907,-0.06723417341709137,0.12111904472112656,-0.02689986675977707,-0.02125810645520687,-0.005850254092365503,-0.04803860932588577,0.005091519095003605,-0.1349092274904251,0.0017000595107674599,-0.09922979772090912,-0.0032271011732518675,-0.01259838230907917,0.05269641801714897,-0.1518692821264267,0.039262864738702777,-0.010369843803346157,-0.08578194677829743,-0.1293935924768448,-0.026199260726571084,-0.0025985443498939277,0.20028550922870637,0.09542038291692734,0.15207500755786897,0.05307302996516228,0.007381345145404339,-0.10388296842575073,0.11112689971923828,0.0351734384894371,-0.043080758303403857,-0.08242787420749664,-0.11657571792602539,0.03672303259372711,0.13084673881530763,-0.10663668811321259,0.0067497678101062778,0.047087762504816058,-0.1697997897863388,-0.02011662721633911,0.31078219413757326,0.038377586752176288,-0.11483905464410782,0.12572257220745088,0.0817965567111969,0.1822296530008316,0.05911368131637573,0.053540874272584918,0.10210791975259781,0.18026240170001985,0.02989349141716957,-0.006004121154546738,-0.0015913674142211676,0.027141274884343149,0.14429312944412232,-0.11264214664697647,0.06639174371957779,-0.17645889520645142,0.14346441626548768,-0.08511307090520859,0.11510933935642243,0.003080687951296568,0.11338841915130615,-0.2323182225227356,0.013463976792991162,-0.16561491787433625,-0.011001468636095524,-0.1243053749203682,0.1456528753042221,0.03848172724246979,0.14469490945339204,0.14318594336509705,0.05702011287212372,0.08378323912620545,-0.21159128844738007,-0.19529524445533753,0.05570102483034134,-0.03199813887476921,-0.05203510448336601,0.03362252563238144,-0.012479816563427449,-0.16111868619918824,-0.18631313741207124,-0.16613858938217164,0.08631397038698197,0.0014097864041104913,-0.017675597220659257,0.10533430427312851,-0.12772513926029206,-0.04681526869535446,-0.08053307235240936,0.011113972403109074,0.09775662422180176,0.07069732248783112,0.028112800791859628,0.02741348184645176,0.10958737879991532,-0.016948768869042398,0.1982973963022232,0.03514188155531883,-0.14638710021972657,-0.026294728741049768,0.0998157262802124,0.11362320184707642,-0.16245940327644349,0.11321736872196198,-0.06603065133094788,0.045033179223537448,0.2278313934803009,-0.14779482781887055,-0.030199121683835985,-0.08724942058324814,0.09223164618015289,0.10837125778198242,-0.11231183260679245,-0.20416414737701417,0.004396787844598293,-0.0543559230864048,-0.016106020659208299,0.06960061937570572,-0.13808345794677735,-0.19492410123348237,-0.01622861810028553,-0.10083288699388504,0.07055505365133286,-0.107246033847332,0.15803870558738709,0.023690233007073404,-0.03356849402189255,0.06628681719303131,-0.04588136076927185,0.08132895827293396,-0.0779552310705185,-0.16382691264152528,-0.18799330294132234,0.17963790893554688,0.023959564045071603,0.0795622393488884,-0.012228201143443585,-0.03414703160524368,-0.11004582047462464,0.024371830746531488,0.12735441327095033,-0.0739322155714035,0.05893680080771446,0.02319791540503502,-0.09603191167116165,0.0835319459438324,-0.025136440992355348,0.22025999426841737,-0.11580013483762741,-0.08581826090812683,0.1387706845998764,0.044458430260419849,-0.08706139773130417,-0.02045014500617981,-0.07620327919721604,-0.07916508615016937,-0.10063700377941132,0.01542504969984293,0.16139782965183259,-0.029989393427968026,0.07143878936767578,-0.11399245262145996,0.06317789852619171,-0.11596450954675675,-0.10459740459918976,-0.1430254578590393,0.0939352884888649,0.05045190453529358,-0.017659936100244523,-0.027495834976434709,0.022588245570659639,0.22127990424633027,-0.03824932873249054,0.16641496121883393,-0.04675935208797455,0.00024216902966145426,-0.05300101265311241,0.12645164132118226,0.005712160840630531,0.03744744881987572,-0.017822176218032838,0.09665939211845398,-0.0016388223739340902,0.04088195413351059,-0.07093735784292221,0.0824279636144638,-0.049926333129405978,-0.03962858393788338,0.046368326991796496,-0.0008446481660939753,-0.005527699366211891,-0.012446863576769829,0.12520000338554383,0.039561472833156589,-0.05294845625758171,-0.009755370207130909,0.03169870749115944,0.05940265208482742,-0.021822944283485414,-0.050231870263814929,-0.014324367977678776,0.06251713633537293,-0.12243923544883728,-0.0036677720490843059,0.1386188566684723,-0.059994980692863467,0.099024198949337,0.0008070689509622753,-0.018342165276408197,0.03671090304851532,0.16075359284877778,0.08160142600536347,-0.05526130273938179,-0.12071210891008377,0.044303521513938907,0.011705909855663777,0.03417791426181793,0.09287211298942566,-0.07014350593090058,-0.030565401539206506,-0.11635547131299973,0.035223230719566348,0.09813996404409409,-0.22430425882339478,-0.02878166176378727,0.12390570342540741,0.04855431988835335,-0.037452731281518939,-0.01007715705782175,0.10740982741117478,0.11878044158220291,0.12894213199615479,-0.11676604300737381,0.05545203387737274,0.06384793668985367,0.09746533632278443,0.12742765247821809,0.1778862327337265,-0.18406200408935548,0.11118565499782562,-0.02965325117111206,-0.07054458558559418,-0.08714629709720612,0.039460211992263797,0.060973722487688068,-0.061449237167835239,0.1383216828107834,0.1455705463886261,-0.07249484211206436,-0.06709599494934082,-0.03148824721574783,0.23428131639957429,0.05872587859630585,0.1793680638074875,0.209123894572258,-0.02281777746975422,0.2367277592420578,-0.1115473210811615,-0.19809329509735108,-0.05860834941267967,-0.0019885727670043709,0.18333932757377625,0.09218250960111618,-0.04355248808860779,-0.07099368423223496,0.03251103684306145,-0.019074931740760804,0.11469704657793045,-0.058754876255989078,0.07275159657001496,0.08063481003046036,-0.004946117289364338,-0.08067161589860916,0.07302901893854141,0.06531710177659989,-0.07489632070064545,-0.014901931397616864,-0.01818663813173771,-0.1059182807803154,-0.014707338064908982,0.08342568576335907,0.16782432794570924,-0.03659415990114212,0.0008725542575120926,0.05932242423295975,0.13363151252269746,0.16652297973632813,-0.024912023916840555,0.050283949822187427,-0.03404190391302109,-0.009687316603958607,-0.03477180376648903,0.03747742623090744,0.014854402281343937,-0.08521895855665207,-0.04247342795133591,0.1605566293001175,0.025304602459073068,0.161969855427742,0.07222797721624375,0.10951656848192215,-0.115476094186306,-0.0547468438744545,-0.02370321936905384,0.09940459579229355,0.10418921709060669,-0.2364952117204666,0.15701553225517274,0.1313120573759079,0.03349782153964043,0.0737500861287117,0.022081099450588228,0.09477908164262772,-0.02641383744776249,0.022381523624062539,0.06390183418989182,-0.035500138998031619,0.07716831564903259,0.22331710159778596,-0.029237546026706697,0.005411663558334112,0.1204407662153244,0.09610950201749802,-0.02077457867562771,0.051717162132263187,0.09446422010660172,-0.0219400767236948,0.09904598444700241,0.07107992470264435,-0.10346107184886933,-0.06569093465805054,0.1192406490445137,-0.05130169540643692,0.018669988960027696,0.014927568845450879,-0.15368486940860749,0.07843129336833954,-0.09152180701494217,-0.09112715721130371,0.008949627168476582,0.11157426238059998,0.06877835839986801,0.21065476536750794,-0.04619020223617554,0.20256692171096803,-0.055462900549173358,0.0478343665599823,0.05632635951042175,0.02631763182580471,-0.1281922608613968,0.0973585769534111,0.06639611721038819,-0.04140402749180794,0.0029832650907337667,-0.03198553994297981,-0.06665240973234177,0.042495403438806537,-0.17022942006587983,-0.0405651219189167,-0.11551979929208756,-0.010487738065421582,0.06061716005206108,0.04511990770697594,-0.020215393975377084,-0.08778741210699082,0.037655770778656009,-0.13806869089603425,0.09144923835992813,-0.036132585257291797,-0.014757750555872918,0.062520332634449,0.05817549675703049,0.004253048449754715,-0.029385246336460115,-0.0527474619448185,-0.053574901074171069,-0.11619697511196137,0.03120935522019863,0.04143914207816124,-0.025206323713064195,0.00020291267719585449,-0.06801194697618485,-0.1700058877468109,0.011541296727955342,-0.019219622015953065,0.013286816887557507,0.03720608353614807,0.12513333559036256,0.07008123397827149,0.07386384159326554,0.08035964518785477,-0.06148114800453186,-0.15307584404945374,0.03068482130765915,0.09392166882753372,-0.13013605773448945,-0.00865748431533575,0.03524758294224739,-0.14262256026268006,-0.036886461079120639,-0.10630552470684052,0.061161141842603686,-0.07031824439764023,-0.015828251838684083,0.05651717633008957,-0.006630808115005493,-0.053707607090473178,0.12199174612760544,0.07451748847961426,0.0849178209900856,0.026900339871644975,-0.0742998942732811,0.08313179016113281,0.0334496833384037,-0.08402140438556671,-0.04376116394996643,0.0644366517663002,-0.04560157656669617,-0.0849553570151329,-0.04866614192724228,-0.02763551101088524,-0.0360211618244648,-0.16907677054405213,0.1922096610069275,-0.01899920403957367,0.17721693217754365,-0.07887212187051773,-0.015046692453324795,0.10240784287452698,-0.09500724822282791,-0.10436324775218964,-0.13971571624279023,0.01939711719751358,0.09327807277441025,0.04029156267642975,-0.01908366195857525,0.00992533378303051,0.1222553476691246,-0.16411401331424714,-0.05993765592575073,-0.12591294944286347,0.05384952947497368,-0.05973200500011444,-0.04401056468486786,0.10306460410356522,0.006487006787210703,-0.180951327085495,0.09042009711265564,0.050783317536115649,0.13196417689323426,-0.07427754253149033,0.094922736287117,-0.05734458193182945,0.03159391134977341,0.1696656048297882,0.13196322321891786,-0.05561457574367523,0.008643749170005322,0.10158134996891022,-0.07268345355987549,0.09614696353673935,-0.025538669899106027,0.09326418489217758,-0.09246794134378433,0.06881467998027802,0.022603493183851243,0.11624464392662049,0.07023134082555771,-0.04888100177049637,0.040774036198854449,-0.05688829347491264,0.06569031625986099,-0.035250648856163028,-0.02632264606654644,-0.23177219927310944,0.048548925668001178,0.0161031074821949,-0.025267090648412706,-0.07683493942022324,0.023060476407408716,0.13134370744228364,-0.09895248711109162,0.1378270983695984,0.06291239708662033,0.12119723856449127,-0.22995471954345704,0.007562895771116018,-0.07160504162311554,-0.1389525979757309,-0.03465914726257324,-0.10029309242963791,0.016510481014847757,-0.05957208573818207,0.07726187258958817,-0.06163627281785011,-0.08105363696813584,-0.03288300335407257,-0.05815497785806656,-0.10372580587863922,-0.05511128529906273,-0.03067258559167385,-0.17889247834682465,-0.026988020166754724,-0.11176932603120804,0.10093562304973602,-0.05858367308974266,-0.020707497373223306,0.033748872578144076,0.10366950929164887,-0.000717333925422281,-0.24127575755119325,-0.03328574448823929,0.0847664326429367,-0.02052897773683071,0.06016399711370468,0.00017333458526991308,0.01650257036089897,-0.1268051713705063,-0.07279160618782044,-0.14138612151145936,0.07708398252725601,-0.008684325963258744,-0.14573585987091065,0.05884326249361038,0.060600828379392627,0.1818327158689499,0.0678769201040268,0.06622742116451264,0.08263477683067322,0.050318676978349689,0.10658062249422074,-0.07157211005687714,-0.16624383628368379,-0.27992796897888186,0.008643077686429024,-0.07384726405143738,0.020611001178622247,-0.07418110966682434,-0.008121037855744362,-0.06729162484407425,0.09074569493532181,-0.036794889718294147,-0.01175647135823965,-0.042964644730091098,-0.05220091715455055,0.1436421275138855,-0.046528708189725879,-0.06394896656274796,-0.02846406027674675,-0.01649780571460724,0.0006007815827615559,0.08516564220190048,0.06681826710700989,0.13695520162582398,-0.08442801237106323,-0.12679560482501985,0.04880053550004959,0.01017107255756855,-0.04570169374346733,0.1152712032198906,0.015354547649621964,-0.023570042103528978,0.043014463037252429,0.0158846378326416,0.03482316434383392,-0.051989663392305377,-0.04079108312726021,-0.02272564172744751,-0.17984430491924287,-0.05232370272278786,0.03501143679022789,-0.2430209517478943,-0.0722537413239479,-0.035552848130464557,0.04320373386144638,-0.09180976450443268,-0.014495063573122025,0.09631741046905518,0.07839910686016083,0.11711224913597107,0.05083511024713516,0.0760996863245964,0.1029568538069725,-0.07682717591524124,0.11560451239347458,0.018312502652406694,-0.008950997143983841,-0.0233293529599905,-0.038279466331005099,0.05112723633646965,0.024217253550887109,-0.10675546526908875,-0.033592648804187778,-0.10637573897838593,-0.09774232655763626,-0.0475943461060524,-0.11949462443590164,-0.1022200882434845,-0.18010598421096803,0.13653205335140229,-0.049930475652217868,0.051067933440208438,-0.09184744954109192,-0.029639428481459619,0.0704319104552269,0.03197962045669556,0.030043452978134157,-0.03239290043711662,-0.06628245860338211,-0.0005846788990311325,-0.06379339098930359,0.0951547846198082,0.019126536324620248,0.2512955367565155,-0.022277330979704858,-0.10972679406404495,-0.07096758484840393,0.0375179760158062,-0.041765324771404269,-0.008110659196972847,-0.007243020925670862,0.07795580476522446,-0.020929433405399324,0.013158883899450302,-0.0900811180472374,0.054771360009908679,0.10089793801307678,0.017533045262098314,0.18032954633235932,0.042711738497018817,0.016294416040182115,0.023111233487725259,0.09345927834510803,0.010778002440929413,-0.02980557642877102,-0.04356249421834946,-0.03442119434475899,0.23215118050575257,0.18447525799274445,0.09427797794342041,-0.020019933581352235,0.03046765737235546,0.06365536898374558,0.06542357057332993,0.11730266362428665,-0.03717470541596413,-0.19743892550468446,0.03226623684167862,0.09763862192630768,-0.060805365443229678,-0.04084288701415062,0.08947334438562393,-0.0486176498234272,-0.015332131646573544,0.267629474401474,-0.10319042950868607,-0.18097394704818726,-0.1380326896905899,-0.07995083928108216,0.08698438107967377,0.09951137751340866,0.078036829829216,-0.006641756277531385,-0.03160039708018303,-0.07115595042705536,-0.08245387673377991,-0.0006038317224010825,0.1610192060470581,-0.02683197148144245,-0.03263554722070694,0.08536059409379959,0.0015075005358085037,-0.004166414961218834,0.0939609706401825,0.10473823547363281,0.002812009071931243,0.0425066240131855,-0.010469265282154084,0.17559708654880525,0.020728250965476037,0.07430469989776612,0.10448640584945679,-0.019665535539388658,-0.08202143758535385,0.007114281412214041,0.014379098080098629,-0.020762627944350244,0.024578915908932687,-0.029150541871786119,0.09286123514175415,-0.05048739165067673,0.10906986892223358,-0.09312858432531357,-0.014621366746723652,-0.14936809241771699,0.16691350936889649,-0.07059566676616669,0.02095472812652588,0.001690816949121654,0.03952502831816673,-0.22796741127967835,-0.012039882130920887,-0.02567393146455288,0.22426289319992066,-0.10505992919206619,0.05436953529715538,-0.17473961412906648,0.005004282109439373,0.006283484399318695,-0.06772582978010178,0.03291891887784004,-0.127871572971344,0.045817840844392779,0.09204760938882828,0.022106807678937913,-0.0368724949657917,-0.1423274129629135,0.23223493993282319,-0.02170218527317047,-0.1679346114397049,-0.0703703984618187,0.005538830067962408,-0.17303380370140077,0.13535699248313905,0.04386187717318535,-0.01881525106728077,-0.056682128459215167,-0.03210274130105972,0.1252569854259491,-0.08589989691972733,-0.01616079732775688,0.04095640033483505,-0.09750265628099442,0.1470213383436203,-0.057440534234046939,0.033681899309158328,-0.02487163618206978,-0.13847695291042329,-0.015134010463953019,0.10491640865802765,0.16709870100021363,0.15292882919311524,0.004812219645828009,-0.08177787065505982,0.022588195279240609,0.04483792185783386,0.0245705284178257,-0.17435267567634583,0.11963426321744919,-0.02284703217446804,-0.08013138175010681,0.11599050462245941,0.08067499846220017,0.18823406100273133,0.0011301698395982385,-0.044449858367443088,0.03388131037354469,0.0369262769818306,0.07667161524295807,-0.08853361755609513,0.03136521950364113,0.11219463497400284,-0.03178159147500992,0.06770847737789154,0.06985123455524445,-0.03054366633296013,0.01749918796122074,-0.012185106053948403,0.0422486774623394,-0.053926702588796619,0.10608433187007904,-0.10108594596385956,0.061658456921577457,0.017513353377580644,-0.04008043184876442,-0.20056697726249696,0.1400485783815384,0.09999433159828186,0.19067193567752839,-0.05799518898129463,-0.08637362718582154,0.05842118337750435,0.043634090572595599,-0.05027445778250694,0.011915210634469986,-0.04136376827955246,0.11261233687400818,-0.038906607776880267,-0.015374804846942425,0.03384949639439583,0.002811143407598138,0.020177679136395456,-0.05310750752687454,-0.04605083167552948,0.11085351556539536,-0.026506608352065088,-0.06331634521484375,-0.12705694139003755,0.06976772099733353,-0.08773070573806763,-0.06607785075902939,-0.05329719930887222,0.026142161339521409,0.05609453469514847,0.013176500797271729,0.004630541894584894,-0.005178770516067743,-0.021661818027496339,-0.055137790739536288,0.06431171298027039,0.07063344866037369,0.020794866606593133,0.08323512971401215,-0.015062043443322182,-0.09516073018312454,-0.06567181646823883,0.0018542432226240636,0.1129997968673706,-0.08772623538970947,-0.010208512656390667,0.09683094918727875,0.019877362996339799,-0.18806672096252442,-0.06924189627170563,-0.01690676249563694,0.12783275544643403,0.10097949951887131,0.0111292889341712,0.08429226279258728,-0.11589959263801575,-0.09385964274406433,-0.22779828310012818,-0.05599134415388107,0.0964924544095993,-0.019265081733465196,-0.08245339244604111,0.01409830804914236,-0.027736932039260865,-0.10734277963638306,-0.1198531910777092,0.1319270133972168,0.018887177109718324,-0.03065432794392109,-0.1076156422495842,-0.038336221128702167,0.11301608383655548,0.09951850771903992,-0.044358789920806888,0.1776091307401657,0.05466359108686447,-0.06826730817556381,0.0239521786570549,-0.1242251768708229,0.06183551996946335,0.03743691369891167,-0.07037662714719773,0.011919889599084854,0.12397652119398117,-0.005821923725306988,-0.1680581271648407,-0.12897488474845887,0.026159200817346574,0.09605171531438828,0.0501076765358448,-0.06485648453235626,0.06472277641296387,0.0026094235945492985,-0.11187432706356049,-0.09925036132335663,-0.12909014523029328,-0.017920909449458123,0.03460732102394104,-0.14684264361858369,-0.08953782916069031,-0.031056631356477739,-0.006198819261044264,0.041611574590206149,-0.01924312859773636,-0.19522684812545777,0.06653200089931488,0.09013641625642777,-0.001445275847800076,-0.21574528515338899,-0.19713620841503144,-0.12778806686401368,0.06510831415653229,-0.03329455107450485,0.061315085738897327,0.04613460972905159,-0.036478441208601,0.05542311072349548,-0.06282027065753937,-0.08266876637935639,0.022618914023041726,-0.04903111979365349,-0.06436850130558014,0.1218990832567215,-0.22998540103435517,-0.050479210913181308,0.0731031745672226,-0.10699336230754852,0.026967160403728486,-0.17864511907100678,-0.052095379680395129,-0.03548935055732727,-0.06991079449653626,-0.06285077333450318,0.13407932221889497,-0.1183786690235138,0.1407039612531662,-0.046972181648015979,0.03357759118080139,0.0010924673406407238,0.16663922369480134,0.0957491472363472,-0.004995591472834349,0.038041625171899798,0.0023378196638077499,-0.0975516214966774,0.007261096034198999,0.057484012097120288,-0.08813821524381638,-0.12399732321500778,0.014002961106598378,-0.08256237953901291,-0.021583421155810357,-0.06415722519159317,-0.050302162766456607,-0.014164271764457226,0.14530913531780244,0.005620518233627081,0.01370745338499546,-0.01596514694392681,0.05696883425116539,0.06820572167634964,-0.08432718366384506,0.1947840005159378,0.04939676821231842,0.09022964537143707,0.00542752118781209,-0.0866672471165657,-0.10158875584602356,0.012360910885035992,0.14089901745319367,-0.06369133293628693,0.07352017611265183,-0.001819557510316372,0.04066178575158119,0.058826856315135959,-0.03284785524010658,-0.21153029799461366,0.06971759349107743,-0.007331471424549818,0.06401382386684418,0.11153976619243622,-0.13295811414718629,0.09631749987602234,-0.028282538056373597,0.12693940103054048,-0.020249132066965104,-0.10418678820133209,-0.08806619793176651,-0.0981002077460289,-0.11385215818881989,0.0447244755923748,0.04908713325858116,0.10627193748950958,0.015116137452423573,0.17950889468193055,0.039492636919021609,-0.12047544121742249,0.18415994942188264,-0.05759406089782715,0.07023429870605469,0.009790541604161263,0.17862066626548768,0.08472127467393875,0.10497824847698212,-0.07424075156450272,-0.01053770724684,-0.1319589465856552,-0.05432137846946716,-0.013873851858079434,0.09849678725004196,-0.16642698645591737,0.11203057318925858,0.06418997049331665,0.057646494358778,0.12335754930973053,-0.06813272088766098,-0.22908446192741395,-0.1623026579618454,-0.13198240101337434,-0.04716910049319267,-0.08672183007001877,0.15984022617340089,0.1606796681880951,0.21313653886318208,-0.07473438233137131,0.03501995652914047,0.10725861042737961,-0.06171650439500809,-0.060844533145427707,0.05892634764313698,-0.03612229973077774,-0.014319220557808876,-0.034306492656469348,-0.051712408661842349,-0.04430308938026428,-0.16603954136371613,-0.03793918713927269,-0.14517329633235932,0.0574256032705307,0.00039085702155716717,0.2712661921977997,-0.13643676042556764,-0.022150877863168718,-0.09369735419750214,-0.09194806963205338,-0.04424083232879639,0.12819448113441468,0.022401336580514909,0.03360787779092789,-0.050014395266771319,-0.024520844221115114,0.06209367886185646,-0.019030189141631128,-0.12705746293067933,-0.09086845070123673,-0.21536999940872193,0.024747055023908616,-0.11857008188962937,0.06154736131429672,-0.03051276132464409,-0.17354542016983033,-0.013057847507297993,-0.05491466075181961,-0.07801412791013718,-0.11415241658687592,0.2182236611843109,0.10018643736839295,0.01823941245675087,-0.11456021666526795,-0.018775904551148416,-0.0771021917462349,-0.0442352369427681,0.01605355739593506,0.08076397329568863,0.022352570667862893,0.011381317861378193,0.17733728885650636,-0.0812414288520813,-0.08408505469560623,-0.08300716429948807,0.09536462277173996,-0.1243382915854454,-0.06528358161449433,-0.029891973361372949,-0.06016091629862785,-0.0948418527841568,-0.09612908214330673,0.04973798617720604,0.01202547736465931,0.12401232868432999,0.13170599937438966,0.047110725194215778,-0.023505086079239847,0.007944226264953614,-0.0400514155626297,-0.036357712000608447,-0.11344680935144425,0.11720815300941467,-0.0763615071773529,-0.1339322030544281,0.06487280875444412,0.011098573915660382,-0.1997736543416977,0.04304681718349457,0.0721929594874382,-0.043613381683826449,0.06548800319433212,0.024044403806328775,-0.10282225161790848,0.07062327861785889,0.020666489377617837,0.019647693261504175,-0.12736448645591737,-0.09622643142938614,0.059582021087408069,-0.0638463944196701,0.058391887694597247,0.03757748380303383,-0.08875305205583573,-0.029481559991836549,-0.07493063807487488,-0.06875472515821457,0.09556137025356293,0.016819819808006288,0.04108848795294762,-0.03789019584655762,0.15001066029071809,0.03294604644179344,0.09665949642658234,0.04255388677120209,0.1877947449684143,0.02161262556910515,0.0048991101793944839,0.050350528210401538,0.008913720957934857,-0.09239600598812103,-0.06555376946926117,0.11662556976079941,-0.13489314913749696,-0.02915853261947632,-0.00665984395891428,-0.0969390869140625,-0.10097073018550873,0.0405389778316021,-0.02407781593501568,0.09677644819021225,-0.05541280657052994,-0.005493035074323416,-0.2922845780849457,0.022304685786366464,-0.11306864023208618,-0.16348013281822205,0.10241926461458206,0.10481151193380356,-0.0582406185567379,-0.039141103625297549,0.1248200535774231,-0.001633706851862371,0.009017204865813256,-0.04100747033953667,0.018318792805075647,0.0031563774682581426,0.0477871336042881,-0.025274675339460374,-0.04190468043088913,-0.10956091433763504,-0.07000083476305008,-0.07923230528831482,-0.021432865411043168,0.22975826263427735,0.09581594914197922,-0.10379613190889359,-0.06480491161346436,-0.025794900953769685,-0.0011718038003891707,0.003323787124827504,-0.17233142256736756,0.037896931171417239,0.019865524023771287,0.0332615040242672,0.11462187767028809,-0.3032205402851105,0.12025240808725357,-0.0013128315331414343,-0.05915594473481178,0.18830984830856324,0.011326288804411888,-0.03436656296253204,0.017122969031333925,-0.007974926382303238,0.12091948091983795,0.10662179440259934,0.18454764783382417,-0.05908769741654396,0.06676468253135681,0.24157507717609406,-0.09565610438585282,0.05951134115457535,-0.17094646394252778,-0.1115802675485611,0.07334981858730316,-0.07622446119785309,-0.017690736800432206,-0.24595315754413606,0.021687915548682214,-0.1302354484796524,-0.045592911541461948,0.05718347430229187,-0.07955756038427353,0.07199789583683014,-0.06292647123336792,-0.0721745565533638,-0.03149465098977089,0.11279202252626419,-0.053052324801683429,0.02265305258333683,0.027844199910759927,0.14607477188110352,0.06358002126216889,-0.07078912854194641,-0.1465068757534027,0.06992951780557633,0.021946515887975694,-0.14462488889694215,-0.004505613353103399,-0.13366380333900453,0.10472528636455536,0.16050447523593903,-0.07507507503032685,0.014208925887942315,-0.02773863635957241,0.02482357621192932,0.031187579035758973,0.10088031738996506,-0.06539226323366165,0.00013533640594687313,0.11909987032413483,-0.1659819781780243,0.01947004161775112,-0.04666905477643013,-0.03707464411854744,0.12546177208423615,-0.0732334703207016,-0.017635390162467958,0.01876678504049778,0.07124242931604386,-0.05605947971343994,0.023154154419898988,0.017276311293244363,-0.12791788578033448,0.1180165633559227,0.039960674941539767,0.1251162588596344,0.006625073030591011,0.23735734820365907,0.14291958510875703,0.07546226680278778,0.008861378766596318,-0.14281880855560304,0.023943498730659486,0.009121091105043888,-0.14581605792045594,0.23156806826591493,0.01337846927344799,-0.05211527645587921,0.03778285160660744,0.1400759220123291,-0.029073724523186685,0.20943008363246919,0.11588557064533234,-0.054046083241701129,-0.09653469920158386,0.003975912928581238,0.05243880674242973,-0.15065984427928925,0.10327374935150147,0.0625053346157074,-0.037542227655649188,0.04652728885412216,-0.17772254347801209,0.12355304509401322,-0.01065999735146761,-0.16892296075820924,-0.17709630727767945,-0.10610092431306839,0.01745038852095604,0.07072189450263977,0.06557153910398483,0.011672038584947586,-0.03522718697786331,-0.03889814764261246,-0.15397539734840394,-0.018085423856973649,-0.05834038555622101,0.07735899090766907,-0.0908108651638031,0.2791081368923187,0.1409475952386856,0.0499466247856617,0.08374378830194473,-0.11893117427825928,0.08862524479627609,-0.07227321714162827,0.11397917568683624,0.09634076058864594,0.030572211369872094,-0.03980402275919914,-0.03997465595602989,-0.041541241109371188,0.26447853446006777,0.013278692960739136,0.1596636027097702,0.16024979948997498,0.1048693135380745,-0.12401645630598068,-0.025195317342877389,-0.012799683026969433,0.1578294336795807,-0.050087325274944308,-0.19404946267604829,0.015900619328022004,0.19345147907733918,0.10784927755594254,0.05624503269791603,0.06750219315290451,0.030619855970144273,0.23517516255378724,-0.11595076322555542,0.1039135530591011,0.015478941611945629,-0.008684832602739334,-0.18061983585357667,-0.14306136965751649,-0.09774927794933319,-0.12831774353981019,-0.062020301818847659,0.05642624944448471,0.009905978105962277,-0.11055509001016617,-0.008501572534441948,-0.043748848140239719,-0.2183239459991455,0.00236137630417943,-0.06388195604085922,0.0918307825922966,-0.04496666043996811,-0.03336618095636368,-0.1313994824886322,0.12234880775213242,-0.019158145412802697,0.024059876799583436,-0.1959829479455948,0.036393534392118457,-0.08152224123477936,-0.08812908083200455,-0.08896251022815705,0.12111379206180573,-0.09267821907997132,0.013674167916178704,-0.11417755484580994,-0.32531189918518069,-0.039691511541604999,-0.009576444514095784,0.1934838443994522,0.02938643842935562,0.08816337585449219,0.03811439871788025,0.04396954923868179,0.08467105776071549,0.010902846232056618,0.03513476625084877,-0.23596706986427308,0.003330055857077241,-0.07574622333049774,0.005506161134690046,0.08848822861909867,0.057578157633543017,-0.02106202021241188,0.20355306565761567,0.0727127268910408,0.02243153750896454,-0.08314517140388489,-0.013730902224779129,0.06722008436918259,0.02834714762866497,-0.18443350493907929,0.12652912735939027,-0.008012628182768822,-0.06529621034860611,-0.025285320356488229,0.015542947687208653,-0.015427781268954277,-0.12380028516054154,-0.1596444547176361,0.11514638364315033,0.006259364075958729,-0.0936826765537262,0.04359908029437065,0.03469119593501091,0.24946504831314088,0.14524351060390473,-0.06364407390356064,-0.10212777554988861,0.07839685678482056,-0.1728774607181549,0.09282010793685913,-0.3657170832157135,-0.16001705825328828,0.048182450234889987,-0.0035055598709732296,0.05448687821626663,-0.05536402761936188,-0.062225665897130969,-0.0038117573130875828,-0.08646130561828613,0.15629372000694276,-0.04504448547959328,-0.07302431017160416,0.05500336363911629,0.0004886968526989222,-0.09322269260883331,-0.09807783365249634,-0.01846729777753353,-0.1180359423160553,0.07501450181007385,0.21756048500537873,0.035833101719617847,0.016771769151091577,0.03867548704147339,0.02332255057990551,-0.058200735598802569,-0.013067252933979035,-0.030524827539920808,0.036247026175260547,-0.07598443329334259,-0.012395949102938176,-0.0982101634144783,0.03524980694055557,0.03676626831293106,-0.10187403112649918,0.10184385627508164,0.09789719432592392,0.029706718400120736,-0.11422674357891083,-0.015152903273701668,-0.19220678508281709,0.11210749298334122,-0.03512643277645111,-0.004436506424099207,0.10452775657176972,0.09431817382574082,-0.056706465780735019,0.1242251768708229,-0.007623521611094475,-0.015467380173504353,-0.012969572097063065,0.08110237866640091,0.12656237185001374,0.010057598352432251,-0.0022450152318924667,0.04227456822991371,0.05436607077717781,0.12868770956993104,0.07387353479862213,-0.001431524520739913,-0.019049812108278276,0.010400795377790928,-0.10621348023414612,0.08683012425899506,0.038714274764060977,-0.0457911379635334,0.010019944980740548,-0.028548354282975198,-0.135216623544693,0.10272765904664993,0.03994135931134224,-0.2258480042219162,0.005524543114006519,0.15398117899894715,-0.052643097937107089,0.06849991530179978,0.05431804805994034,0.0022867112420499326,0.0003866494807880372,-0.028389403596520425,0.08045123517513275,-0.0014316922752186657,0.19804061949253083,-0.17088963091373444,-0.10231757164001465,0.0019080002093687654,-0.021361805498600007,0.07909273356199265,0.12124504894018173,-0.03997163102030754,0.09075722843408585,0.05613677203655243,0.016008669510483743,-0.015995720401406289,-0.12348146736621857,0.0169366504997015,0.02667205035686493,0.033142972737550738,-0.02476142905652523,-0.07830756157636643,-0.012274944223463536,-0.0579829066991806,-0.004746307618916035,0.03247080743312836,-0.045914940536022189,0.04809664562344551,0.07148674130439758,0.21705223619937898,-0.04710675776004791,0.026719531044363977,0.1149834617972374,-0.14833052456378938,-0.06655850261449814,-0.032788049429655078,0.06361608952283859,-0.012484063394367695,0.05116056650876999,-0.015583383850753308,0.06421537697315216,-0.026244787499308587,-0.004178959410637617,0.006737401243299246,-0.08065705746412277,-0.12156327068805695,0.03507040813565254,0.07350580394268036,-0.08538654446601868,0.02525981515645981,-0.019851690158247949,0.05503694340586662,-0.06338442862033844,-0.09251480549573899,-0.1816246211528778,0.061734676361083987,0.06720035523176193,0.05202789232134819,-0.07657123357057572,0.10494393855333328,-0.11254552751779556,0.10091039538383484,0.13828010857105256,0.16203705966472627,0.02025485411286354,0.001522552571259439,0.06290622055530548,-0.03956045210361481,0.18657632172107697,0.054881587624549869,0.02506047859787941,0.01723508909344673,0.07269200682640076,0.16325786709785462,0.06044239550828934,0.04785139113664627,0.12837757170200349,0.17094282805919648,-0.11797292530536652,0.007463578600436449,-0.03415711224079132,-0.08748885989189148,