{"Layers":[{"Weights":[-0.1026768758893013,0.0851360335946083,-0.2356497049331665,0.049863532185554507,0.25509878993034365,-0.04222797602415085,0.15064634382724763,0.13844121992588044,0.06611969321966171,-0.05039775371551514,0.06294701248407364,-0.19238562881946565,0.218240886926651,0.04650392755866051,0.11869754642248154,0.08613892644643784,0.018180513754487039,-0.016039032489061357,-0.0567384734749794,0.06084249168634415,0.10554663091897965,-0.23894397914409638,0.07265129685401917,0.0013942134100943804,0.10311893373727799,0.10013362765312195,-0.0579986646771431,0.12219320982694626,-0.06241743639111519,-0.07555872201919556,-0.12054814398288727,-0.10257154703140259,0.029721101745963098,0.0351523794233799,-0.2196938693523407,-0.09643112868070603,-0.09882533550262451,-0.04620354622602463,0.05646858364343643,-0.046085063368082049,0.0818825513124466,-0.10316696017980576,0.10427284240722656,0.03659868240356445,-0.009824556298553944,-0.01246999017894268,-0.07230550050735474,-0.08578787744045258,0.08717866241931915,-0.09577828645706177,0.0809805691242218,-0.03353256359696388,0.04160486161708832,-0.027749264612793924,-0.09004154801368714,0.08050092309713364,-0.1204957515001297,0.1413053274154663,0.17957669496536256,0.014211376197636128,-0.15735909342765809,0.19773642718791963,-0.043168894946575168,-0.09477092325687409,-0.13217797875404359,0.03649545833468437,-0.031478893011808398,0.021022548899054529,-0.13593846559524537,-0.23898372054100038,-0.09584907442331314,0.11254289746284485,-0.05968580022454262,-0.05538075789809227,0.020684298127889634,-0.04296909645199776,-0.03571546450257301,-0.1114632859826088,-0.16325384378433228,0.04073251038789749,-0.09210055321455002,-0.003684990108013153,0.14161907136440278,0.07809597253799439,-0.05153827369213104,0.03704175725579262,0.16370056569576264,-0.06062457337975502,-0.1401016265153885,-0.05163642391562462,0.2219732254743576,-0.03157127648591995,0.00017190439393743873,0.04097471386194229,0.08898043632507324,-0.0982309952378273,-0.034489162266254428,-0.061318494379520419,0.033782169222831729,0.07623183727264404,0.05863355100154877,-0.008157199248671532,0.08994810283184052,-0.03397803381085396,-0.21360695362091065,0.03873572126030922,-0.030303798615932466,0.09828820824623108,-0.0260010976344347,-0.24067983031272889,-0.11329787224531174,-0.007961100898683072,0.06887860596179962,0.07612976431846619,-0.01968877948820591,-0.09817086160182953,0.037194591015577319,-0.0974598079919815,0.0008693140698596835,-0.04345959797501564,-0.04707611724734306,-0.09411288052797318,-0.08966914564371109,-0.046374037861824039,0.07489281892776489,0.04274063929915428,0.12039497494697571,-0.18191170692443849,-0.17025835812091828,0.049024783074855807,0.05334971100091934,0.04506520926952362,-0.09629645198583603,0.03260881081223488,0.06236660107970238,0.026981569826602937,0.19850210845470429,0.06592361629009247,0.0760846808552742,0.004603229928761721,-0.0029702854808419945,-0.06733717024326325,0.07983628660440445,-0.048420753329992297,0.20560818910598756,0.07271654903888703,-0.04247164726257324,0.012044060975313187,-0.05680309608578682,0.008962973020970822,0.20813173055648805,-0.002806667936965823,-0.1604604572057724,0.13540489971637727,-0.1526835560798645,-0.14498265087604524,-0.06683538854122162,0.09219400584697724,0.02733004093170166,0.04527534544467926,0.09472159296274185,0.16433866322040559,-0.09118376672267914,-0.025929700583219529,-0.07059932500123978,-0.09466203302145004,-0.1157742366194725,-0.006621120031923056,0.1340106576681137,-0.10707252472639084,0.14973066747188569,0.09633775055408478,-0.10192395001649857,-0.04651404172182083,-0.11587442457675934,0.04713962599635124,0.0690896138548851,-0.015133064240217209,-0.135610893368721,0.009231409057974816,-0.0714302808046341,-0.046884164214134219,-0.1200222298502922,-0.045480359345674518,-0.018021950498223306,0.06207919120788574,-0.0069800191558897499,-0.021287623792886735,-0.07392539829015732,-0.04522283375263214,0.14389559626579286,-0.08658693730831146,0.0728587955236435,0.054853297770023349,0.05151745676994324,0.04022612422704697,0.17616313695907594,-0.05091400071978569,-0.08757232129573822,-0.05328258126974106,-0.07969911396503449,0.038418956100940707,0.09118179976940155,0.09851764142513275,-0.1033535748720169,-0.015438802540302277,0.04170874506235123,-0.009227486327290535,-0.1872115135192871,-0.05673994496464729,-0.0008979372214525938,-0.05327025428414345,-0.03311654180288315,-0.14662481844425202,0.1638050675392151,-0.07388559728860855,-0.11599854379892349,-0.14957506954669953,0.070543073117733,0.06148192286491394,-0.01120474748313427,0.2084784209728241,-0.05453702062368393,-0.04698049649596214,-0.12831391394138337,-0.09581688791513443,-0.0035578084643930198,-0.09081239253282547,0.07302194833755493,0.01327951718121767,-0.20404376089572907,-0.04976961389183998,0.061340413987636569,-0.12725643813610078,0.11954544484615326,-0.05616952106356621,0.06528116762638092,0.014157385565340519,-0.08940014243125916,-0.04561430588364601,-0.032133255153894427,0.05277710035443306,0.011229414492845536,-0.027967233210802079,0.013481134548783303,0.16613367199897767,0.021894006058573724,0.11583162099123001,0.12778055667877198,0.04336962103843689,0.005532694980502129,0.09143537282943726,-0.04466123878955841,-0.11636842042207718,0.11596857011318207,0.09215830266475678,-0.0839657336473465,-0.0016539196949452162,0.009522125124931336,0.18512214720249177,0.13277392089366914,-0.053054604679346088,-0.041185107082128528,0.08605623245239258,-0.025660211220383645,0.054605334997177127,0.091695137321949,-0.1636977642774582,0.039082981646060947,-0.1499979943037033,0.12730549275875092,-0.12571097910404206,-0.09696399420499802,0.030149195343255998,-0.02210373617708683,0.013333571143448353,0.0998029112815857,0.0940600261092186,-0.058773428201675418,-0.12309487909078598,-0.09343493729829788,-0.07469207048416138,0.10301154851913452,-0.014200272038578987,-0.11368662863969803,-0.027912093326449395,0.1770494133234024,0.02386285923421383,-0.04916052520275116,0.10005085170269013,0.07866284251213074,0.056913524866104129,-0.058156464248895648,-0.03319081664085388,-0.14246401190757752,-0.015900544822216035,-0.18302477896213532,0.0398811511695385,0.04738917574286461,0.01693722791969776,-0.013338688760995865,0.023121342062950136,-0.025972945615649225,-0.003065345576032996,0.01080747228115797,0.11784227192401886,-0.05241138115525246,0.01926884986460209,-0.05082384869456291,-0.013999110087752343,0.17300982773303986,-0.09765029698610306,-0.10055235773324967,0.0108560835942626,0.052582696080207828,-0.09493415802717209,0.020755929872393609,-0.16391094028949738,0.08740027248859406,-0.05722251906991005,-0.015633367002010347,0.18102790415287019,0.12241794914007187,0.10734029114246369,0.037483543157577518,0.021757807582616807,-0.09149065613746643,-0.05036616697907448,0.12394782900810242,-0.20279476046562196,0.06680282950401306,0.1712494045495987,-0.08863108605146408,-0.002352987416088581,0.05750679969787598,0.030292723327875139,0.03837903216481209,0.06664253771305084,0.2014521211385727,-0.1359512358903885,-0.09760026633739472,0.07310790568590164,0.1343051642179489,-0.10046475380659104,-0.02724371664226055,-0.007587151601910591,0.00900348462164402,0.053089845925569537,-0.04735260084271431,-0.036902833729982379,-0.008288182318210602,-0.10184519737958908,0.008664418011903763,0.14968733489513398,-0.14683543145656587,0.09108943492174149,0.0309318695217371,-0.0324440635740757,-0.05451833829283714,0.027751965448260309,0.053667351603507999,0.10019201040267945,-0.05500936135649681,-0.08425360918045044,0.08745920658111572,0.11353497952222824,-0.10423126071691513,-0.06823524832725525,-0.0769047811627388,-0.015540842898190022,-0.12545421719551087,-0.007856490090489388,0.019696077331900598,-0.20211485028266908,0.1102195531129837,-0.038519203662872317,0.23386985063552857,0.0028506582602858545,0.11523248255252838,-0.043873000890016559,0.12077908217906952,-0.05160537734627724,0.14686669409275056,0.06627295911312103,0.12258883565664292,-0.08410781621932984,-0.19152063131332398,-0.10029507428407669,0.07296863198280335,-0.1433550864458084,-0.07004132121801377,0.11116541177034378,-0.023066245019435884,0.185666024684906,-0.053606607019901279,-0.09669336676597595,0.03201323747634888,-0.020490404218435289,-0.21897025406360627,-0.037762969732284549,-0.06647647172212601,0.11887580156326294,-0.07074820250272751,0.05165167897939682,0.04532055929303169,-0.04573889821767807,0.18387442827224732,0.25054264068603518,-0.016039764508605005,-0.013834034092724324,0.13550324738025666,0.015230769291520119,-0.058110859245061877,0.010880839079618454,-0.29456865787506106,-0.08917408436536789,-0.03164960443973541,-0.15696008503437043,0.1281254142522812,0.00945310853421688,-0.035077620297670367,0.053820740431547168,-0.06950536370277405,-0.12772653996944428,-0.0055443462915718559,0.01869937777519226,0.058155033737421039,0.11094913631677628,0.031238490715622903,-0.10753246396780014,-0.018849462270736696,0.11224707216024399,0.038865238428115848,-0.17289596796035767,0.18632638454437257,-0.09832233935594559,-0.02560034766793251,0.010411251336336136,-0.013176635839045048,0.00471477722749114,0.024244172498583795,0.14358849823474885,0.125221848487854,0.014350607059895993,-0.0046400208957493309,0.13011054694652558,-0.037392567843198779,-0.19878804683685304,0.07051435112953186,-0.05678247660398483,-0.1069730818271637,-0.08649297803640366,0.07679388672113419,-0.007687855511903763,0.12100545316934586,-0.12227965891361237,-0.017147798091173173,-0.1012028306722641,-0.044070202857255939,-0.2516738176345825,-0.13471461832523347,0.0765775740146637,-0.03425949811935425,0.007212238386273384,0.06337276101112366,-0.10907706618309021,0.08432439714670181,-0.10623723268508911,0.13170363008975984,-0.018825897946953775,-0.0341416634619236,0.05086227133870125,-0.050872981548309329,0.041609570384025577,0.0820247083902359,0.0034857478458434345,-0.021210404112935067,-0.0861298069357872,-0.06341146677732468,-0.044505227357149127,-0.030456816777586938,-0.04810364544391632,0.025837628170847894,0.13417796790599824,0.04028093442320824,-0.09030531346797943,0.015736009925603868,0.19794753193855287,0.009150390513241291,0.1558428406715393,-0.0021683317609131338,-0.04710808023810387,0.015983151271939279,0.12492043524980545,-0.06000450253486633,-0.07892943173646927,0.10421066731214524,0.0058252750895917419,0.06011594831943512,0.0910249575972557,-0.11912305653095246,0.1386459618806839,0.05693909898400307,0.1977570801973343,0.04663750156760216,-0.059067461639642718,-0.14185692369937898,-0.05047418177127838,-0.1589621603488922,0.08985581248998642,0.11918362230062485,0.06630003452301026,-0.04986655339598656,-0.13967198133468629,0.07510373741388321,-0.10201112926006317,-0.13194848597049714,0.04385574907064438,0.1512470543384552,0.04430791363120079,0.13090601563453675,0.108005091547966,-0.07469907402992249,-0.08436072617769242,-0.12447149306535721,0.016825348138809205,0.08884371817111969,0.13942314684391023,0.20368286967277528,0.014280126430094242,0.06328357011079788,-0.07793455570936203,0.05487653613090515,0.06322701275348664,0.020999284461140634,0.010842280462384224,0.03219914808869362,-0.07061561197042465,0.08936411142349243,-0.12801580131053925,-0.17191451787948609,-0.1277955174446106,0.045446086674928668,-0.24433939158916474,-0.07722935825586319,0.04624934867024422,-0.04889330640435219,0.06206879764795303,-0.10203120857477188,-0.057540494948625568,0.10908208787441254,-0.017856987193226816,-0.2958270311355591,-0.07617370784282685,-0.060964275151491168,-0.0946931391954422,0.10282698273658753,0.034129396080970767,-0.01664128340780735,0.10844717919826508,-0.19073374569416047,0.04866339638829231,-0.14157848060131074,0.00431503402069211,-0.08630858361721039,-0.05380649119615555,0.06542421132326126,0.006349574774503708,0.016755545511841775,0.015916477888822557,0.06138695403933525,-0.049461014568805698,-0.02730596251785755,0.011738810688257218,0.00396096333861351,-0.09631017595529556,0.16680271923542024,-0.0548747293651104,-0.1224396675825119,0.05060278996825218,0.08741691708564758,-0.18662215769290925,-0.12170683592557907,-0.10326208919286728,-0.03898189216852188,0.05557606369256973,0.0028912806883454324,-0.20994150638580323,-0.07735470682382584,-0.14879798889160157,-0.08315040171146393,0.07870002090930939,-0.09595007449388504,0.004978877492249012,-0.08298574388027191,0.06854943186044693,0.03960961103439331,0.01368996687233448,0.008968796581029892,0.07933810353279114,0.01770426332950592,0.0745193138718605,-0.17136698961257935,0.12221638113260269,0.07318788021802902,0.09647659957408905,0.08413682878017426,-0.055622268468141559,0.00879748072475195,-0.1274712234735489,-0.007481361273676157,-0.0011503566056489945,0.06630495935678482,-0.0727047249674797,0.04096145182847977,-0.08155287802219391,-0.13563917577266694,-0.15275846421718598,-0.10197851061820984,-0.058016568422317508,-0.0025530823040753605,0.1259397566318512,0.08184777200222016,-0.0194101519882679,-0.03750181198120117,0.03350662812590599,-0.14683552086353303,-0.0459924153983593,-0.02601546421647072,0.011135066859424115,-0.012919522821903229,0.17056310176849366,0.06177753955125809,-0.1801506131887436,0.0034606049302965404,0.08287254720926285,-0.18095865845680238,0.034701958298683169,0.16763904690742494,-0.1209808811545372,0.1402464210987091,0.010490226559340954,-0.055821508169174197,0.028535809367895128,0.12571337819099427,-0.1605301946401596,-0.04091043397784233,0.0037724871654063465,0.11728137731552124,0.09271372854709625,0.05213744193315506,-0.1005057692527771,-0.08256348222494126,0.14925770461559297,-0.03805915638804436,0.0732927918434143,0.14303773641586305,-0.0677754282951355,-0.07901806384325028,-0.030088111758232118,-0.09705601632595062,-0.1667492687702179,-0.002367807785049081,0.005476871505379677,0.02755223773419857,-0.0016693928046151996,0.028882186859846116,0.09458770602941513,0.08243779838085175,-0.13998572528362275,0.005783007480204105,0.049317967146635059,-0.05391745641827583,-0.11604323983192444,-0.02126559615135193,-0.05917714536190033,-0.1539219170808792,-0.018439825624227525,-0.053102463483810428,0.04974276199936867,-0.16835595667362214,0.12363875657320023,-0.0263967402279377,0.06864500045776367,-0.01587318442761898,0.07979758083820343,0.056788090616464618,0.042715318500995639,-0.09436386823654175,-0.08875788003206253,-0.08668740093708039,0.0695025697350502,0.1614086627960205,-0.061635375022888187,0.0644683688879013,-0.10668294876813889,-0.13216523826122285,0.03387029096484184,-0.16582681238651277,-0.11060385406017304,0.11679396033287049,0.1437017172574997,0.04821581766009331,-0.027065949514508249,-0.07262108474969864,0.008045031689107418,-0.006063411943614483,-0.030020955950021745,0.16669362783432008,-0.17017507553100587,-0.02555377036333084,0.005705134477466345,0.23898473381996156,-0.054386138916015628,0.0007217079983092845,-0.037204936146736148,0.02195928245782852,0.07342062890529633,0.11824068427085877,-0.09908968955278397,-0.10232082009315491,-0.005928621627390385,0.056659553200006488,0.11174765974283219,-0.20488761365413667,0.012077962048351765,-0.08209609985351563,0.0004529428551904857,-0.1131395772099495,-0.05815955996513367,-0.0328524075448513,-0.04280268773436546,0.008100615814328194,0.050850655883550647,-0.0676051452755928,-0.18353261053562165,0.0537782721221447,0.09643226116895676,0.05993375554680824,-0.07880020886659622,-0.2106737643480301,0.03556668385863304,-0.2413027137517929,0.06016876921057701,0.05581149831414223,-0.08923463523387909,-0.0322858989238739,0.05113184452056885,0.024371828883886339,0.05668482556939125,0.0488705076277256,0.038034725934267047,0.0687410905957222,0.12432068586349487,-0.09412842988967896,0.04933580756187439,-0.1367066204547882,-0.0671909973025322,-0.22330547869205476,0.07462222129106522,0.06971696764230728,0.12181802839040756,0.026139667257666589,0.0344218946993351,-0.06144843250513077,0.10510145872831345,0.05802714079618454,-0.01758766919374466,0.044321998953819278,-0.060622893273830417,-0.04456457123160362,-0.0026441235095262529,-0.020532481372356416,0.13744571805000306,0.0008650725358165801,0.135795459151268,0.0648978054523468,0.11074141412973404,-0.0881708487868309,0.08663417398929596,0.09555207937955857,-0.06581255048513413,0.07039710134267807,0.10146957635879517,-0.026432188227772714,-0.019232556223869325,-0.14178763329982758,-0.08676201850175858,0.04383070394396782,0.014722918160259724,-0.01414369698613882,-0.03961963951587677,-0.03357077017426491,0.03327399492263794,-0.012420833110809327,-0.09345832467079163,0.029152121394872667,0.03270776569843292,0.16475751996040345,-0.035084374248981479,0.16416805982589723,-0.10777461528778076,-0.21297888457775117,-0.043740417808294299,-0.020674455910921098,0.038046833127737048,0.03970198705792427,-0.1252281367778778,0.11789757013320923,-0.09701794385910034,-0.05489952489733696,0.18064166605472566,0.03833022341132164,0.06227637082338333,0.1916988492012024,0.08890882134437561,-0.006603925954550505,-0.14089681208133698,0.18760964274406434,-0.08898194879293442,-0.05360027402639389,0.06352496147155762,0.041087985038757327,-0.2464187741279602,-0.0076093608513474468,0.05268946290016174,-0.16948549449443818,0.1299329251050949,0.17426319420337678,0.01963411457836628,-0.038757212460041049,-0.007419215049594641,-0.035729583352804187,-0.08988439291715622,-0.046708885580301288,-0.0190080925822258,0.10031156986951828,-0.08034556359052658,-0.1561087667942047,0.08569569140672684,0.04419704154133797,0.0993557721376419,-0.003001575591042638,0.11909832060337067,-0.027501942589879037,-0.015845371410250665,-0.014604207128286362,0.03191658854484558,0.14014364778995515,-0.02519378438591957,0.03767915070056915,0.0032307656947523357,0.1169680580496788,-0.11243979632854462,-0.13890095055103303,0.20910333096981049,0.10790266841650009,-0.15845146775245667,-0.021539786830544473,0.07944167405366898,0.09096070379018784,-0.035613518208265308,-0.05081233009696007,0.031953997910022739,0.1214664950966835,0.0270368754863739,-0.12288408726453781,-0.10516440123319626,0.0375402569770813,-0.08621324598789215,0.015044926665723324,-0.04167994111776352,0.05279546231031418,-0.0899590328335762,0.011293795891106129,-0.18660956621170045,0.031296256929636,-0.10715848952531815,-0.03880884125828743,-0.027026057243347169,0.021224094554781915,0.11449596285820008,0.032962899655103686,-0.030696330592036248,0.044903237372636798,-0.07776438444852829,-0.06271037459373474,-0.047323279082775119,0.08043543249368668,-0.06315455585718155,-0.012650009244680405,0.08668426424264908,-0.13358981907367707,0.11973699182271958,-0.14136557281017304,0.2507781982421875,-0.0927993580698967,-0.03963949903845787,-0.1356016844511032,-0.09244547784328461,-0.06743739545345307,0.05406715348362923,0.08214061707258225,-0.020776160061359407,-0.03430818393826485,0.04915401712059975,-0.04377575218677521,-0.03821537271142006,-0.0007898719049990177,-0.20002534985542298,-0.0516289547085762,0.07990767806768418,0.07914821803569794,0.07069071382284165,-0.1958300918340683,-0.06383124738931656,0.05856167897582054,-0.025320442393422128,0.05958450958132744,-0.16187085211277009,0.021030299365520479,-0.05062784254550934,-0.08055000007152558,-0.11433284729719162,0.006284026429057121,0.08477054536342621,-0.11073876917362213,-0.18121746182441712,-0.011256813071668148,-0.11982791125774384,-0.10477977246046066,-0.01006135530769825,-0.0444333516061306,-0.02565520443022251,0.15645721554756165,-0.042113155126571658,0.0038697756826877596,0.20115318894386292,0.011134362779557705,-0.007847119122743607,0.026694966480135919,0.12709654867649079,-0.13888853788375855,0.07916010171175003,-0.08885896950960159,0.08151467889547348,0.037028536200523379,-0.13294921815395356,-0.04982130229473114,-0.05468344688415527,-0.0734236016869545,-0.10737823694944382,-0.17761348187923432,0.011492441408336163,-0.019121265038847925,-0.06400366872549057,-0.08338950574398041,-0.007820146158337593,-0.055369775742292407,0.046720393002033237,-0.001674451632425189,0.11930856108665467,-0.08752162754535675,-0.04063805192708969,0.16403430700302125,0.08603999763727188,0.15314361453056336,-0.013738215900957585,0.033265095204114917,0.0256844162940979,0.13092230260372163,0.10510355234146118,-0.11303658038377762,0.10477341711521149,0.09312392771244049,0.002231251448392868,-0.056837890297174457,0.001705458969809115,0.10705958306789398,0.000914058240596205,0.0015061487210914493,0.0457228422164917,0.0921759158372879,0.07976594567298889,-0.030706966295838357,0.15664780139923097,0.02907915785908699,0.06314711272716522,0.19635918736457826,-0.19023242592811585,-0.17522959411144257,-0.11211267113685608,0.018435459583997728,-0.07088708132505417,0.006823396310210228,-0.10310852527618408,0.06645654886960983,-0.0683831050992012,0.05269904434680939,-0.06998109817504883,0.12358062714338303,0.23051264882087708,-0.08763797581195831,0.11412329226732254,0.03261168673634529,0.12326832860708237,0.16160626709461213,0.13084076344966889,0.1612701416015625,-0.07562524080276489,-0.046035341918468478,0.0972508043050766,0.07419023662805557,0.21237391233444215,-0.02737085334956646,0.0212854016572237,0.09920813143253327,-0.0621321015059948,0.09869727492332459,-0.11848335713148117,0.1690598726272583,-0.0783480852842331,0.09628710150718689,-0.03504369780421257,0.23697581887245179,0.04511197283864021,-0.24733397364616395,-0.08273065090179444,-0.023810623213648797,-0.018774576485157014,-0.010609322227537632,0.06110301986336708,0.10994452983140946,-0.09077087044715882,0.06415648758411408,-0.09269262105226517,0.0833023190498352,-0.04510482773184776,-0.13373446464538575,0.113859623670578,0.05075196921825409,-0.1204754114151001,0.002633404918015003,-0.2513023912906647,-0.15243691205978394,-0.1412334442138672,0.033221375197172168,0.17130586504936219,-0.04619922861456871,0.1267697960138321,-0.08849149197340012,-0.021509872749447824,0.04925478249788284,-0.09416025131940842,0.010358929634094239,0.091299869120121,-0.019866103306412698,0.10498500615358353,-0.07873228192329407,-0.1350540965795517,-0.13871607184410096,0.10648185759782791,-0.02227739430963993,0.13795208930969239,-0.08972698450088501,-0.014776191674172879,0.17250388860702516,0.013392185792326928,-0.1554027944803238,-0.019087353721261026,0.05147286877036095,-0.03968936949968338,0.04635114595293999,-0.0842566192150116,-0.1485433578491211,0.0042522139847278599,-0.03259045630693436,-0.028683388605713846,-0.1096401959657669,-0.14415974915027619,0.04289755970239639,0.05511031672358513,-0.0853118821978569,0.038248561322689059,0.028123317286372186,0.018421003594994546,0.06102477386593819,0.1444118171930313,-0.035073742270469668,0.04563505947589874,0.03160073608160019,0.034310232847929,-0.18820512294769288,-0.2001166194677353,-0.13508611917495728,-0.046892113983631137,0.13283680379390717,0.04586523398756981,0.029418932273983957,-0.0384051688015461,0.04995708540081978,0.014442835003137589,0.015733959153294565,0.17602446675300599,-0.09780806303024292,-0.004068159032613039,0.04317045211791992,0.03586503490805626,0.10799501836299896,-0.14313305914402009,0.06194451451301575,0.06229930743575096,-0.04238119721412659,-0.03473872318863869,-0.05713962763547897,0.029622185975313188,0.1099877581000328,-0.20971637964248658,-0.13046598434448243,-0.042937640100717548,-0.08930549025535584,-0.04828501492738724,0.06988480687141419,0.02857227809727192,-0.1484888643026352,0.009829487651586533,-0.0708649680018425,-0.04986807331442833,-0.16294452548027039,0.015081527642905712,-0.04230760410428047,-0.019990945234894754,-0.0023026177659630777,0.1212742030620575,0.01355725061148405,-0.03476482629776001,-0.10124634951353073,-0.024480745196342469,0.1897585391998291,0.10094636678695679,0.08237204700708389,0.13448981940746308,0.03510316088795662,-0.12344576418399811,0.0858680009841919,-0.10080956667661667,-0.03749990835785866,-0.0009497696883045137,0.053472716361284259,0.18211765587329865,-0.0010400211904197932,0.07929841428995133,0.04363703727722168,0.031212491914629937,-0.12376441806554795,-0.014700940810143948,-0.11702215671539307,-0.040259845554828647,-0.13019615411758424,0.11217401176691055,0.13162030279636384,-0.0678401067852974,0.07851669937372208,-0.05212702602148056,0.01401218120008707,0.0057240198366343979,0.19830460846424104,0.1500800997018814,0.02355707809329033,0.0904388502240181,-0.07204191386699677,-0.11106912046670914,-0.029881341382861139,0.13878585398197175,0.14728479087352754,0.0130830779671669,-0.07489004731178284,-0.13704858720302583,-0.009270993992686272,-0.12987355887889863,-0.0030915418174117805,0.09464738517999649,-0.11497142165899277,0.02045867033302784,0.11311700940132141,0.09137216210365296,0.036360569298267367,0.1944207102060318,-0.12781167030334474,0.11955606192350388,-0.01904037594795227,-0.10755518078804016,0.1141100600361824,0.1446552723646164,-0.06967338174581528,0.03187723085284233,-0.07995755225419998,0.010768534615635872,0.01436603907495737,-0.13526637852191926,0.07743988186120987,0.022266197949647905,0.06523903459310532,-0.0736444741487503,-0.06554926931858063,-0.0894659161567688,0.16467143595218659,-0.04712096229195595,-0.1298353523015976,0.04637724161148071,-0.0180069487541914,-0.018756430596113206,0.029524117708206178,0.006969671230763197,-0.1514178365468979,-0.009956249967217446,-0.09146690368652344,-0.040194153785705569,0.008209462277591229,0.18931278586387635,-0.04585697501897812,0.09283570200204849,-0.01355366874486208,-0.08354425430297852,0.03529026359319687,-0.07045546919107437,0.04752743989229202,0.16067323088645936,-0.0919298529624939,-0.058409593999385837,0.06056193262338638,-0.08582434803247452,-0.13007253408432008,0.007016656454652548,0.07635052502155304,-0.02684907428920269,-0.08284924924373627,-0.02827555127441883,-0.044597022235393527,0.023654459044337274,-0.03575931861996651,-0.06078117713332176,-0.024990592151880266,-0.023527732118964196,0.10873977839946747,-0.13389718532562257,-0.036025721579790118,0.13743939995765687,-0.038143057376146319,0.1443392038345337,-0.13616721332073213,-0.028328554704785348,-0.22359006106853486,-0.011572604067623616,0.16033652424812318,-0.13493028283119203,-0.026101823896169664,-0.039434630423784259,-0.08634281903505326,0.0575915165245533,-0.056883398443460467,0.19040744006633759,0.1930583119392395,0.036898236721754077,-0.0748949870467186,0.0007913332083262503,-0.07094914466142655,-0.0017258682055398822,-0.022417612373828889,0.047672372311353686,0.05183630436658859,0.14573781192302705,-0.10053395479917526,0.0274090263992548,0.01734018512070179,0.10680311918258667,0.05778450891375542,-0.09207811206579209,-0.003019563155248761,-0.10019287467002869,0.07995650172233582,-0.1416766494512558,0.1459582895040512,0.16339528560638429,-0.03463052213191986,-0.03934011235833168,0.03575428947806358,0.0056508369743824009,-0.13534322381019593,-0.027418216690421106,0.12958621978759767,-0.10150951147079468,-0.21689088642597199,-0.00878737773746252,0.2266208380460739,-0.007786431349813938,0.008880347944796086,-0.15878084301948548,-0.1675124615430832,-0.0222309622913599,-0.0760248675942421,0.02600560337305069,-0.08649337291717529,-0.15559741854667664,0.026370886713266374,0.01366314198821783,-0.02595517225563526,-0.11250317096710205,0.0674760714173317,0.03314502164721489,-0.16457557678222657,-0.1254073977470398,0.06401997804641724,-0.10489218682050705,-0.029660239815711976,-0.12644706666469575,-0.023508356884121896,-0.1882261484861374,0.04642058163881302,0.12524381279945374,0.09633951634168625,-0.004480453208088875,0.023809002712368966,-0.00038577610393986106,0.011438112705945969,-0.26900726556777956,-0.022272666916251184,-0.0876648873090744,-0.1413775235414505,0.0947130098938942,0.06220359355211258,0.08165830373764038,-0.06307324022054672,-0.06029115244746208,-0.05515306442975998,0.008363712579011917,0.010676494799554348,0.0030937448609620334,0.2988644242286682,0.05624125525355339,-0.2987818121910095,-0.07321937382221222,-0.04889216274023056,0.08134815841913223,0.010922344401478768,0.07985545694828034,0.061134129762649539,0.1035550907254219,0.024336857721209527,0.12678582966327668,-0.012372422963380814,-0.08457647264003754,-0.014636456966400147,-0.030966760590672494,-0.05030297860503197,0.023258036002516748,0.11662864685058594,-0.056755922734737399,0.013632078655064106,0.0375550203025341,-0.004621933214366436,0.07201050221920014,-0.12175088375806809,-0.08245296776294708,-0.03865165263414383,-0.025966906920075418,0.017173342406749727,0.12159232795238495,-0.2259124517440796,0.0002399222576059401,0.021822461858391763,0.06499381363391876,0.03489004448056221,-0.3027360439300537,-0.0928976982831955,0.1170726791024208,0.0720430389046669,0.09279154986143112,0.13957662880420686,-0.14364315569400788,0.0399496853351593,-0.026936419308185579,0.18443769216537476,-0.2064352035522461,-0.03218384087085724,0.03577623888850212,-0.19914916157722474,-0.05395592004060745,0.17367412149906159,0.052961014211177829,-0.003325545461848378,0.07717015594244003,0.10067274421453476,-0.0634828507900238,0.3223411738872528,-0.0334736593067646,0.11802775412797928,-0.10136052221059799,-0.13970667123794557,-0.12119659781455994,0.16200147569179536,0.0037547675892710687,-0.032103631645441058,0.01516245398670435,0.029147518798708917,-0.00035420930362306535,0.08065583556890488,-0.19832144677639008,0.09183689951896668,-0.07962018996477127,0.11420724540948868,0.032159410417079929,0.19829051196575166,-0.01740553416311741,-0.08813030272722244,0.018867747858166696,-0.010468264110386372,-0.0028419464360922577,-0.0017688218504190446,-0.016531188040971757,-0.041066162288188937,-0.0344729945063591,-0.04712815582752228,0.20913729071617127,0.18389342725276948,-0.027837300673127176,0.07625249773263931,-0.0863509550690651,-0.04535513371229172,-0.039813701063394549,0.2001906931400299,0.032800815999507907,0.011831789277493954,-0.22144487500190736,-0.02833867073059082,-0.020520737394690515,-0.035621244460344318,-0.005843959748744965,0.085261270403862,0.09046119451522827,-0.1907297670841217,0.060745738446712497,-0.057896047830581668,0.010457959957420826,-0.04293183982372284,0.010899032466113568,0.09784317016601563,-0.055911365896463397,-0.11451687663793564,-0.03999604657292366,0.0370456725358963,-0.019724082201719285,0.11547821760177612,0.1257532685995102,-0.1264229118824005,0.08247184753417969,0.022177468985319139,0.04131313040852547,0.09732198715209961,0.1317322552204132,-0.07384513318538666,0.086976058781147,0.04251275584101677,-0.0200218353420496,0.0571361668407917,-0.09539846330881119,0.1051865965127945,-0.17069250345230103,0.06359890848398209,0.021085206419229509,-0.11971426010131836,-0.13897161185741425,-0.06462325900793076,0.020225901156663896,0.00014590642240364105,0.18538540601730348,-0.032692790031433108,0.08562008291482926,0.07205047458410263,0.04752563685178757,-0.0833800658583641,0.016175398603081704,-0.08984127640724182,0.011785444803535939,-0.05658069625496864,0.08829741179943085,-0.07701721787452698,0.022639332339167596,0.10312268882989884,-0.01205578725785017,0.06261374056339264,-0.0015288800932466984,0.06663113832473755,-0.1737118512392044,-0.07568411529064179,0.09248222410678864,-0.16418246924877168,-0.03835589066147804,-0.0005245788488537073,-0.10100682079792023,-0.04636555165052414,-0.08680423349142075,-0.11681105941534043,-0.035545725375413898,0.07996692508459091,0.010895413346588612,0.05308012291789055,-0.061351925134658816,0.057178251445293429,0.03865961357951164,0.05980195850133896,-0.013355964794754982,0.1372150480747223,-0.17253851890563966,0.1845560520887375,0.0016132438322529197,0.05820339173078537,-0.06693167984485626,0.03714912012219429,0.02292477712035179,-0.02903449721634388,0.151020348072052,0.0953574851155281,0.04399619251489639,0.1348971426486969,-0.06172042712569237,-0.024252092465758325,0.012417510151863099,-0.03736460581421852,0.03768615052103996,0.04687531664967537,0.09461576491594315,0.0673886090517044,0.15483419597148896,-0.046648360788822177,-0.22261269390583039,0.1642208695411682,0.18826428055763246,0.00529385544359684,-0.02393074333667755,-0.10406839847564697,-0.030321422964334489,-0.10461727529764176,-0.15014873445034028,-0.06834656745195389,-0.0692921057343483,0.060704395174980167,0.06271527707576752,-0.18751512467861176,-0.09826623648405075,-0.1617065817117691,-0.09800449013710022,-0.02577800117433071,0.07178919017314911,-0.05707910656929016,0.11214657127857208,-0.029617467895150186,-0.015321520157158375,0.007716956082731485,-0.012898190878331662,0.12781883776187898,-0.06801990419626236,0.08669932931661606,0.10570815205574036,0.003931132610887289,0.15134471654891969,0.004279078915715218,-0.07657159119844437,-0.12742003798484803,-0.02458336018025875,0.06708524376153946,-0.010069102048873902,-0.10767371952533722,-0.001270637265406549,-0.1102541983127594,-0.09586487710475922,-0.14899857342243195,-0.07165960222482681,-0.04138311371207237,-0.03106534481048584,0.061244916170835498,-0.09434156119823456,0.08624491095542908,-0.12141429632902146,-0.025271940976381303,0.05728883296251297,0.09583874046802521,0.013258579187095166,0.06195934861898422,-0.09110239893198013,0.02835850976407528,-0.05134372413158417,-0.005970015190541744,0.18590520322322846,-0.08230616897344589,-0.059601929038763049,-0.07325445115566254,0.012171296402812004,0.0840056836605072,0.10424479842185974,-0.018196573480963708,-0.019743265584111215,0.20417824387550355,-0.010500459931790829,-0.005025780759751797,-0.11028987914323807,-0.0803501307964325,-0.10021433234214783,-0.06058492511510849,0.0654534175992012,0.0794236958026886,-0.051629688590765,-0.11349092423915863,-0.09375827759504318,-0.048841968178749087,0.11872310936450958,0.03912211209535599,0.11364037543535233,0.1758558303117752,0.0025809062644839288,0.10204003751277924,-0.10237330198287964,-0.02764367312192917,-0.0897369533777237,0.0550679937005043,-0.04844630882143974,0.14068253338336945,0.035999566316604617,0.17257460951805116,0.12443865090608597,0.09501868486404419,0.046258993446826938,0.15588462352752686,0.010760031640529633,-0.11520955711603165,-0.03847119212150574,-0.052169233560562137,-0.05620499700307846,-0.06956181675195694,0.10322857648134232,-0.10499050468206406,0.04350709170103073,-0.017350446432828904,-0.14424262940883637,-0.12108898907899857,-0.14387495815753938,-0.056220997124910358,0.04074788838624954,-0.024769987910985948,0.13134898245334626,0.22569619119167329,0.10222454369068146,-0.07410755008459091,0.1301739364862442,-0.04160470515489578,0.03495300933718681,0.0706043466925621,-0.07223153859376908,0.10986176878213883,-0.16079960763454438,0.001979764085263014,-0.057972561568021777,-0.11668527126312256,0.04198683053255081,0.07172409445047379,-0.013173973187804222,0.1364753097295761,0.19747543334960938,-0.15688911080360413,0.0858696773648262,-0.12018619477748871,0.03305390849709511,-0.16667558252811433,-0.05998360365629196,0.0995996966958046,-0.05688173323869705,-0.08286333084106446,0.013038811273872853,-0.0826120376586914,0.006395111791789532,-0.03219033032655716,0.08746537566184998,-0.026010749861598016,-0.06118886172771454,0.1746481955051422,-0.08593472093343735,-0.061797257512807849,0.11478585004806519,0.0724523514509201,-0.11076384782791138,0.09625808894634247,-0.16612502932548524,0.11404964327812195,-0.13641239702701569,0.014602700248360634,0.045809611678123477,0.0017754591535776854,0.08943174034357071,0.059671550989151,-0.012959727086126805,-0.0157811027020216,-0.10946115106344223,0.11005283147096634,-0.20377619564533235,0.08651252090930939,0.1407717615365982,0.04582538455724716,-0.13445691764354707,-0.009802048094570637,-0.06771911680698395,0.03766651824116707,0.011757600121200085,0.07965657860040665,0.06609786301851273,-0.029634399339556695,-0.3264065086841583,-0.05256880074739456,0.007106410339474678,-0.010611998848617077,0.14758506417274476,-0.02760622277855873,-0.13085219264030457,0.04021281749010086,-0.022783659398555757,-0.07571762800216675,0.08127336949110031,-0.1604672223329544,0.20161975920200349,0.021513303741812707,0.22307787835597993,-0.061851393431425098,0.13612450659275056,-0.061839502304792407,-0.04693856090307236,0.1973138302564621,0.020476514473557473,-0.006292773876339197,-0.04513450711965561,-0.20060716569423676,0.17423120141029359,-0.1397005021572113,-0.03069831058382988,-0.122976154088974,0.005411714315414429,-0.06205812469124794,0.11188030242919922,0.01590031012892723,0.05283685773611069,-0.006996504496783018,0.061868827790021899,0.04693026468157768,-0.06548356264829636,0.09841365367174149,-0.12424695491790772,0.19715990126132966,0.13995690643787385,-0.13585226237773896,-0.0320361964404583,0.05889974907040596,0.030679073184728624,-0.11345726996660233,0.062468502670526507,-0.0947321280837059,-0.039047885686159137,-0.008834120817482472,0.05803246051073074,-0.16011469066143037,-0.05849137529730797,0.2345472127199173,0.11546612530946732,-0.12906986474990846,-0.023211730644106866,0.0170773696154356,-0.09288384765386582,0.1952170729637146,0.054985594004392627,0.05917663872241974,0.16940340399742127,-0.001390368677675724,0.0011899727396667004,-0.1433039903640747,-0.07372310757637024,0.00237090652808547,0.18446896970272065,-0.006990161724388599,-0.008098222315311432,-0.05296863242983818,0.024930166080594064,0.07120579481124878,0.04647698625922203,0.11297066509723664,0.01035016868263483,-0.05937960371375084,-0.11472246795892716,0.07932142913341522,-0.034440845251083377,0.06092670559883118,-0.03357986360788345,0.056925054639577869,-0.17680887877941132,-0.023363599553704263,0.10025885701179505,-0.08539313822984696,0.17654100060462953,-0.10678941756486893,0.03441602364182472,-0.02796964719891548,-0.010842938907444477,-0.11640509963035584,0.00633922079578042,-0.005156609229743481,0.0862964391708374,0.039894845336675647,0.011700841598212719,0.03895655646920204,0.0662415474653244,0.003910203464329243,-0.1001296192407608,-0.059018541127443317,0.03880143538117409,-0.1330668181180954,-0.10689090192317963,-0.04850578308105469,0.05124107748270035,-0.04700026661157608,0.019318129867315294,0.0053157624788582329,0.01842658966779709,-0.05681995674967766,0.004576379898935556,-0.0004250448546372354,0.129420667886734,0.018031733110547067,-0.1288251131772995,0.014045187272131443,-0.005466126371175051,0.04087400808930397,0.06137382611632347,-0.11119728535413742,-0.11457647383213043,-0.1334296613931656,0.020426839590072633,-0.09252156317234039,-0.03406056389212608,-0.12802980840206147,0.1370358020067215,0.10888886451721192,-0.07264617830514908,-0.11047685891389847,0.023808900266885759,-0.056997496634721759,-0.09211838245391846,0.1199217364192009,-0.07002751529216767,-0.07456230372190476,0.00026276917196810246,-0.1192559227347374,0.185024231672287,0.23161466419696809,0.08228030055761337,0.10513737052679062,-0.10749976336956024,-0.03391913324594498,0.13178926706314088,0.03294791281223297,-0.08680728077888489,0.06993529945611954,0.06447634100914002,-0.08576342463493347,-0.00253222300671041,0.10785975307226181,-0.10117919743061066,-0.06268012523651123,0.021192772313952447,0.044697027653455737,0.09778980165719986,-0.2919866740703583,0.07376410067081452,-0.08836457878351212,-0.019401805475354196,0.04953023046255112,0.14602920413017274,0.030062545090913774,0.06465057283639908,-0.12136512994766236,0.10679984092712403,0.11899884790182114,-0.06291846930980683,-0.0376429408788681,-0.20080044865608216,-0.022004658356308938,-0.022273868322372438,0.0219364445656538,0.0008790697320364416,0.048180438578128818,0.20605655014514924,0.013462155126035214,0.05268102139234543,0.15816396474838258,0.02658378705382347,-0.14325590431690217,-0.006304117850959301,0.0216977596282959,-0.0419248528778553,-0.025783494114875795,-0.041164662688970569,0.05195324122905731,-0.06798926740884781,0.06409889459609986,0.0033764394465833904,-0.12091738730669022,0.1370333731174469,0.024511579424142839,-0.1256735920906067,-0.017333248630166055,-0.10777312517166138,-0.18364527821540833,0.05281669273972511,0.010641432367265225,0.024430757388472558,-0.05903036147356033,0.2114810347557068,-0.003634928958490491,0.022984877228736879,0.052601248025894168,-0.1823616772890091,0.1354285627603531,0.012527004815638066,-0.15009663999080659,-0.04321274906396866,0.026078471913933755,0.0599752776324749,0.021789226680994035,0.06480371952056885,-0.07859984040260315,-0.07181712239980698,-0.10656870901584625,-0.015710720792412759,0.03895755484700203,0.10971833765506745,-0.08408268541097641,0.16486182808876038,-0.14051930606365205,-0.10964947938919068,0.07615400105714798,0.059600580483675,0.055965274572372439,-0.013665678910911084,-0.12721490859985352,0.021758632734417917,0.19480231404304505,-0.009459450840950013,0.04210079833865166,-0.11736069619655609,0.07130835950374603,0.08053287863731384,-0.13352788984775544,0.16216284036636353,0.04188303276896477,0.219151109457016,-0.07865393906831742,0.06370518356561661,-0.0033093311358243229,0.01992366649210453,0.052523814141750339,-0.021111445501446725,-0.040055904537439349,0.20458774268627168,0.22254769504070283,-0.031840793788433078,-0.09888318926095963,0.10419289022684097,-0.06112436577677727,-0.04680415615439415,-0.023818787187337877,-0.008667723275721074,-0.0643337219953537,-0.021860985085368158,0.03210928291082382,-0.1703225076198578,-0.15405330061912538,0.002159301657229662,-0.1762358844280243,-0.04028258100152016,-0.07356034219264984,-0.12866869568824769,0.08577250689268112,0.05057411268353462,0.13068349659442902,0.05527380108833313,0.016513274982571603,0.09975754469633103,0.09003588557243347,0.009192035533487797,-0.015421532094478608,-0.12285923957824707,0.002129663247615099,-0.04188359156250954,-0.002287430688738823,-0.15772202610969544,0.13094642758369447,0.19646312296390534,0.05246547609567642,0.025515159592032434,-0.04595363885164261,-0.11004842072725296,-0.09530778229236603,-0.16925032436847688,-0.12772366404533387,-0.034068770706653598,0.12121221423149109,0.22178561985492707,-0.06361762434244156,-0.006758229807019234,-0.11544646322727204,-0.05417446047067642,-0.0003823260485660285,0.019966058433055879,0.06918659061193466,-0.025186553597450258,-0.04984030872583389,-0.0084846755489707,-0.14280420541763307,0.17240279912948609,-0.04495112597942352,0.06330142170190811,0.1493266373872757,-0.025035088881850244,-0.14106006920337678,-0.0787360742688179,-0.025960754603147508,0.010198886506259442,-0.064351886510849,-0.017664270475506784,-0.026965998113155366,-0.1493827849626541,-0.06946039944887161,0.01865159533917904,-0.0057117389515042309,-0.18542666733264924,0.10555198788642883,-0.053364306688308719,0.23069573938846589,-0.09352266043424607,0.00830353144556284,-0.2819689214229584,0.054146382957696918,-0.212051659822464,0.02254791185259819,0.19507814943790437,-0.05722597986459732,-0.1091548278927803,0.02534838765859604,0.09476416558027268,0.0057568675838410858,-0.1159731075167656,-0.029093649238348008,0.11694465577602387,0.153328999876976,0.10570233315229416,-0.030675290152430536,-0.18371088802814485,-0.03935703635215759,-0.16563473641872407,0.04427473247051239,0.051781922578811648,0.006641087122261524,-0.3044271171092987,-0.025257378816604615,-0.01982426457107067,0.06479737162590027,0.010998157784342766,0.10335509479045868,-0.02721201628446579,-0.03932094946503639,-0.027022361755371095,-0.283774733543396,-0.07723772525787354,-0.02300971932709217,-0.027155619114637376,-0.01489173248410225,-0.00426564272493124,0.07202208042144776,-0.1246662512421608,-0.02559579536318779,0.12575049698352815,0.07323089987039566,0.0583006776869297,-0.17972083389759065,-0.14567570388317109,0.055818069726228717,-0.04751957207918167,0.011029807850718499,-0.21457764506340028,0.11961499601602555,0.10110196471214295,0.015603689476847649,-0.20067545771598817,0.047382161021232608,0.2172597199678421,0.02745794877409935,0.05050065740942955,0.07340902090072632,-0.09361554682254791,0.03611006960272789,-0.0158050786703825,0.15449640154838563,-0.09609150141477585,-0.23626430332660676,0.045378077775239947,-0.01669970527291298,-0.1426609605550766,-0.09385603666305542,0.10945963114500046,0.0925707072019577,-0.037138376384973529,0.09006689488887787,0.029440492391586305,-0.08208949118852616,-0.1832980364561081,0.008943690918385983,-0.006484546698629856,0.1257861703634262,-0.17458023130893708,0.07774163782596588,-0.0917029082775116,-0.04408593103289604,0.03846355527639389,0.0040268441662192348,-0.06811268627643585,0.015027178451418877,-0.16605742275714875,0.11105195432901383,0.023384148254990579,-0.1279999315738678,0.004219709429889917,-0.029407769441604615,-0.0982312262058258,0.07529814541339874,0.12250786274671555,-0.07690403610467911,-0.10171773284673691,0.04705536738038063,-0.0019997835624963047,0.07055134326219559,-0.042962413281202319,0.18696457147598267,-0.03293105587363243,0.09182193875312805,0.0881904736161232,0.04884210228919983,0.138800710439682,0.10416755080223084,-0.18536745011806489,-0.12748445570468903,-0.05777974799275398,0.07991230487823487,0.09813333302736283,0.044233061373233798,0.04024622216820717,0.11178809404373169,-0.006536076311022043,0.0742594376206398,0.06440557539463043,-0.2383583039045334,-0.01335164811462164,0.04397531598806381,0.03956698626279831,-0.09956111758947373,0.11556919664144516,-0.08329066634178162,0.050330232828855517,-0.07771355658769608,-0.020724806934595109,-0.028174253180623056,-0.019495129585266115,-0.006447533145546913,-0.007876272313296795,0.08865393698215485,0.09429555386304856,-0.12018919736146927,0.05691823735833168,0.1321873813867569,0.05474311485886574,-0.0465712770819664,0.001091456157155335,0.014291876927018166,0.001272168243303895,0.10405164211988449,0.04886758700013161,0.12017747759819031,0.12796112895011903,-0.03761729598045349,-0.04244806617498398,-0.050359323620796207,-0.014032230712473393,0.03410692885518074,0.017025841400027276,-0.18754632771015168,0.10584593564271927,-0.09728514403104782,0.01693422719836235,-0.12634573876857758,-0.2109673172235489,0.10876733064651489,0.09079105406999588,-0.010232045315206051,-0.04825576767325401,-0.0792292058467865,-0.1310429722070694,-0.09440852701663971,-0.02259579487144947,-0.03341865539550781,0.03603570908308029,0.05515753850340843,-0.019962619990110399,-0.10147488117218018,-0.10502622276544571,0.12701323628425599,-0.06419951468706131,-0.060690246522426608,0.12872745096683503,0.018699204549193383,0.01034504547715187,0.02131638675928116,-0.07576477527618408,0.054392121732234958,0.04775328189134598,0.02153961732983589,0.17434878647327424,-0.04086453840136528,-0.001197229721583426,-0.02710288017988205,0.03707048296928406,-0.15722419321537019,-0.08897648006677628,0.06329946219921112,-0.16673241555690766,-0.12261087447404862,0.00948016345500946,-0.05201473832130432,0.02778748795390129,-0.06807311624288559,-0.10425866395235062,-0.06054721027612686,0.16674531996250153,0.004017626401036978,-0.07535404711961746,-0.12602755427360536,0.03832048177719116,-0.08253781497478485,0.013911974616348744,0.05008041113615036,0.01030108705163002,0.12864772975444795,-0.010520312935113907,-0.05297115072607994,-0.0718313604593277,-0.023270994424819948,0.0797078013420105,-0.08703990280628205,0.026919597759842874,0.10356539487838745,0.07135707139968872,0.1486562192440033,-0.05144265294075012,0.09449314326047898,-0.1007431223988533,-0.020080264657735826,0.07293175905942917,0.053352173417806628,-0.03575176000595093,0.24063518643379212,0.04744114354252815,0.10115759074687958,-0.016059836372733117,0.0002814814215525985,0.12199278920888901,-0.18572282791137696,0.0786161944270134,-0.047542378306388858,0.027441805228590967,0.07091907411813736,-0.1114967092871666,-0.07028761506080628,0.006658907979726791,0.2433236539363861,-0.008522391319274903,-0.023299915716052057,0.14986136555671693,0.04868854209780693,0.009591025300323964,-0.1657482534646988,0.015968086197972299,0.07087807357311249,0.05798159912228584,0.003162737237289548,-0.057806596159935,0.14216743409633637,-0.151646688580513,-0.07068682461977005,0.014410141855478287,-0.10371731966733933,-0.08064775913953781,-0.07245907932519913,0.02719186246395111,0.13422387838363648,0.0011413304600864649,-0.18743208050727845,-0.011510753072798252,0.0015374415088444949,0.007239211816340685,-0.07107454538345337,-0.06534712761640549,0.06179866939783096,0.18594050407409669,-0.05407814681529999,0.09980719536542893,-0.2147124856710434,-0.046971239149570468,-0.10795113444328308,-0.1598348319530487,-0.10238798707723618,0.001954105217009783,0.13504590094089509,-0.0801992118358612,0.12784475088119508,-0.07070086151361466,0.05603769049048424,-0.06535252928733826,0.06646046787500382,0.17625994980335236,0.04231450706720352,-0.13088402152061463,0.03970032557845116,0.08874540030956269,0.03162657096982002,0.05018852278590202,0.05937185510993004,-0.04175630584359169,-0.07932235300540924,-0.060501910746097568,-0.02653241530060768,0.015660377219319345,-0.047863807529211047,-0.044460177421569827,0.1127161756157875,0.05586083233356476,0.037982597947120669,0.19165056943893434,0.10655112564563751,0.024813566356897355,0.045746445655822757,0.07932338863611222,0.06492593139410019,-0.00650287140160799,0.07441334426403046,-0.021796569228172303,-0.010528176091611386,0.10578325390815735,-0.07820944488048554,0.043960388749837878,0.017195792868733407,-0.0413048155605793,-0.0501507930457592,-0.056933481246232989,0.15966328978538514,0.09319888055324555,0.05273664742708206,-0.016240138560533525,-0.047143954783678058,0.003723094007000327,-0.06586986780166626,0.12037603557109833,-0.13489525020122529,-0.027428509667515756,-0.08671991527080536,-0.0534328892827034,-0.11020584404468537,0.13987460732460023,-0.07769026607275009,-0.13213907182216645,0.09947429597377777,0.11333565413951874,-0.005464828107506037,0.06853578239679337,-0.02569793537259102,-0.11589642614126206,0.038889892399311069,-0.04907896742224693,-0.18314619362354279,0.037866443395614627,-0.08824948221445084,0.16810612380504609,-0.0545896552503109,0.022153059020638467,-0.008567029610276223,-0.053343433886766437,0.11475034803152085,-0.02964029088616371,0.013152720406651497,-0.15624134242534638,0.07387112826108933,-0.07909907400608063,-0.11918236315250397,0.0632605105638504,0.07283251732587815,0.09137982130050659,0.11521246284246445,-0.13302017748355866,0.29387831687927248,-0.012466947548091412,-0.06496365368366242,0.08282241970300675,0.0585702508687973,-0.04429524764418602,-0.12309962511062622,0.06900117546319962,-0.09056346863508225,0.030239423736929895,-0.06464874744415283,0.00017632865638006479,-0.16321855783462525,-0.0619397908449173,-0.041641779243946078,0.04951997101306915,0.014830886386334896,0.052712585777044299,0.10686179995536804,0.031621303409338,0.07494046539068222,0.0018487221095710993,0.12965203821659089,-0.07525040209293366,-0.0253699142485857,-0.03218897804617882,0.01372417714446783,0.134516179561615,-0.02853197604417801,0.0015907507622614503,-0.25620245933532717,-0.07258419692516327,0.007724100723862648,0.10216452181339264,-0.07450790703296662,0.08277961611747742,0.01836456172168255,0.04873836413025856,-0.0818849503993988,0.0047401185147464279,-0.03448650240898132,-0.008846310898661614,-0.17533177137374879,-0.011823269538581372,0.17570145428180695,-0.0348941907286644,0.0796465128660202,-0.031619954854249957,0.07320605963468552,-0.1715829074382782,-0.013566489331424237,0.08643079549074173,-0.1514759212732315,-0.11321207880973816,-0.11565110832452774,-0.06502377986907959,-0.06118716299533844,0.200698584318161,0.02510940097272396,0.07617513835430145,-0.049894701689481738,-0.04378321021795273,-0.03717026114463806,0.03940359503030777,-0.19312459230422975,0.05651244521141052,-0.04919734224677086,0.06769872456789017,-0.1506451666355133,0.15724670886993409,-0.1105678603053093,0.019611066207289697,-0.11435652524232865,-0.14260467886924745,0.2510838210582733,0.02859894372522831,-0.06767529249191284,-0.03984614089131355,-0.09408790618181229,-0.05835981294512749,-0.012246829457581044,-0.05919675901532173,-0.004517648369073868,-0.11489737778902054,-0.1200181394815445,0.02734857052564621,0.05102096498012543,-0.19873756170272828,-0.16099795699119569,0.061444152146577838,0.06397657096385956,-0.13339588046073914,0.0772416964173317,-0.09647991508245468,0.011783583089709282,-0.012843686155974865,-0.11552318185567856,0.09860885143280029,-0.22911353409290315,-0.05735026299953461,0.10706128180027008,0.12149687856435776,-0.10656096041202545,0.06533436477184296,0.07356725633144379,-0.03637467324733734,0.17808187007904054,-0.013674071058630944,0.02320786565542221,0.038935039192438129,-0.016010452061891557,-0.1339999884366989,0.06697380542755127,0.05883174389600754,-0.24694465100765229,0.058296479284763339,-0.021877042949199678,0.09646405279636383,0.005538115277886391,-0.10664642602205277,0.06740756332874298,-0.0028283288702368738,0.09023154526948929,0.10521917045116425,0.023836102336645128,0.004763875622302294,0.09098133444786072,-0.02490880899131298,0.1245863065123558,-0.02294456586241722,0.009396991692483426,0.05624206364154816,-0.09869575500488281,0.03675809130072594,-0.09685672074556351,-0.026161115616559984,-0.0032458745408803226,-0.06774671375751496,-0.002061274601146579,-0.03317186236381531,0.027405688539147378,-0.03724675625562668,-0.05091840401291847,-0.08954191952943802,-0.06552310287952423,0.01199404988437891,-0.012222398072481156,0.1031612977385521,-0.05163552984595299,-0.16259409487247468,0.11718901991844177,0.006589485798031092,0.13826119899749757,0.054616011679172519,0.0717940479516983,-0.18504969775676728,0.004677549935877323,-0.15178994834423066,-0.20363526046276093,-0.1730193793773651,0.0865490511059761,-0.0668141320347786,-0.012589099816977978,0.016911670565605165,0.0002530976780690253,-0.23106971383094788,0.023239003494381906,-0.147271066904068,0.02870861440896988,-0.008549433201551438,-0.04939182102680206,-0.11642559617757797,0.11499500274658203,0.11206169426441193,-0.05651598796248436,0.0050574662163853649,0.1048242598772049,0.04957158491015434,-0.07549003511667252,-0.08529946208000183,0.054572366178035739,-0.09806081652641297,0.19441206753253938,-0.027545344084501268,0.0014547811588272453,-0.029449116438627244,-0.08880452066659928,0.057923927903175357,-0.002483326243236661,0.07414676994085312,-0.07913845777511597,0.002038787119090557,0.009235212579369545,0.14244745671749116,-0.04346947371959686,-0.12106968462467194,0.21318821609020234,-0.11066406965255737,0.03851175308227539,0.08243837207555771,0.005765937734395266,-0.0368800088763237,-0.04510370269417763,-0.05683816596865654,0.022773822769522668,-0.03146451339125633,-0.04712912440299988,0.05798597261309624,0.053019311279058459,0.0443815179169178,0.14772868156433106,-0.012448306195437909,0.022805536165833474,0.047679781913757327,-0.07428282499313355,0.3044258952140808,0.11294908076524735,0.04113273322582245,-0.0935039073228836,-0.02681785449385643,0.07193632423877716,0.11791695654392243,-0.09107112884521485,0.13475604355335236,0.10071749240159989,0.31283506751060488,-0.0015555607387796045,-0.19159023463726045,0.18428565561771394,-0.003318667644634843,-0.14347146451473237,0.11205049604177475,0.10923241078853607,0.1514158397912979,-0.11594049632549286,0.08094606548547745,-0.17508085072040559,-0.09151732921600342,-0.06442417204380036,-0.09566996246576309,0.0740901380777359,0.21259675920009614,-0.09920451045036316,-0.08715680241584778,-0.12688679993152619,0.2601113021373749,-0.026669856160879136,-0.06606477499008179,0.0024041009601205589,0.03148586302995682,0.02602897211909294,-0.015158097259700299,-0.08404795080423355,0.15467508137226106,0.19913846254348756,0.34155941009521487,-0.03014390729367733,-0.1401561051607132,0.0530632883310318,-0.07711025327444077,0.021188007667660714,-0.13639409840106965,0.05696345865726471,0.2084912806749344,-0.01865546964108944,-0.17053230106830598,-0.055944204330444339,-0.11798311024904251,-0.03574123978614807,-0.0830589309334755,0.08466073870658875,-0.04277750849723816,-0.09546540677547455,0.07728737592697144,0.023308074101805688,0.016149720177054406,-0.0018785797292366624,0.1765858680009842,-0.035364922136068347,0.07690490782260895,-0.04563916474580765,0.021822012960910798,0.17603924870491029,0.19211481511592866,-0.08117537945508957,0.17902332544326783,0.009388002566993237,-0.307483047246933,0.1079188734292984,0.024590179324150087,-0.014808882027864457,-0.03757815062999725,-0.07206059992313385,0.07072298973798752,0.07092328369617462,-0.041140489280223849,-0.003787593450397253,-0.032434627413749698,0.20905055105686189,0.02119973860681057,0.09337593615055084,-0.02436419390141964,-0.04534027352929115,0.048004940152168277,0.0019379332661628724,-0.009394378401339054,-0.08454056829214096,-0.1303892582654953,0.1438855081796646,0.0176863856613636,0.0064634894952178,-0.03628053143620491,-0.012023423798382283,0.06440471857786179,0.2176428586244583,0.09043299406766892,-0.10487690567970276,-0.07833906263113022,-0.04883936420083046,0.036448884755373,0.0659659206867218,0.16186663508415223,0.10779214650392533,0.011429063975811005,0.14773941040039063,-0.07737819850444794,0.10115252435207367,-0.042851902544498447,-0.09983666986227036,0.1732417643070221,-0.18107473850250245,-0.14664523303508759,0.07184380292892456,-0.01239735446870327,-0.12407753616571427,-0.15206442773342133,-0.18297183513641358,0.06538032740354538,-0.03496165946125984,-0.04496542736887932,0.09235963225364685,-0.011539711616933346,-0.08486685156822205,0.054119523614645007,-0.017113739624619485,-0.1896532028913498,-0.11299073696136475,0.028300097212195398,0.026999682188034059,0.10736429691314697,0.1082616001367569,0.05233987048268318,-0.050179656594991687,-0.07648762315511704,0.015458851121366024,-0.05036328732967377,-0.03383258357644081,-0.05564552918076515,0.054764971137046817,-0.07124447822570801,-0.09666390717029572,-0.025622203946113588,-0.05257847532629967,0.05321886017918587,-0.021755995228886606,-0.050920575857162479,-0.10916988551616669,0.07594921439886093,-0.058280691504478458,-0.11653575301170349,0.15691052377223969,-0.007008334621787071,0.0263204462826252,-0.016911333426833154,0.0001568597072036937,-0.11138866096735,-0.03087693266570568,-0.001225421903654933,0.14577069878578187,0.08279681950807572,0.12242255359888077,0.030324308201670648,0.18611298501491548,-0.06002773717045784,0.11895844340324402,0.15064704418182374,0.1506033092737198,0.020724836736917497,0.11350303888320923,0.03500736504793167,0.041363392025232318,-0.0008368723792955279,-0.14217829704284669,-0.09250141680240631,-0.15453068912029267,0.126828134059906,-0.022265637293457986,-0.11710550636053086,0.07317371666431427,-0.10709328949451447,0.04824712872505188,-0.05958659574389458,0.035691291093826297,-0.053523242473602298,0.09717747569084168,-0.070982426404953,0.09927074611186981,0.016400855034589769,-0.05236384645104408,0.08407722413539887,0.03726771101355553,-0.08819799870252609,-0.1306881606578827,0.0035296613350510599,0.0662786066532135,-0.11455852538347244,-0.042191069573163989,-0.02713293582201004,-0.035260818898677829,0.15250039100646974,0.03536441922187805,-0.031011322513222696,0.11516750603914261,-0.04940461739897728,0.09783297777175904,0.014740338549017907,0.07560475915670395,0.1554432362318039,-0.10807664692401886,-0.10882927477359772,-0.0464157871901989,0.08579213917255402,0.18750706315040589,-0.21189720928668977,-0.013756033964455128,-0.05475246533751488,0.03871584311127663,0.038112204521894458,-0.18086360394954682,-0.08650591969490051,-0.2094438523054123,0.11887364089488983,0.006799075752496719,-0.1637343317270279,-0.013445431366562844,0.09172416478395462,0.012925270013511181,-0.035822149366140369,-0.07760034501552582,0.09859052300453186,0.007484578061848879,0.17073887586593629,0.002635604701936245,0.18976818025112153,-0.15797370672225953,-0.10977689176797867,-0.04123207554221153,0.06511428207159043,-0.06540928781032562,-0.14058975875377656,0.2732844650745392,-0.18996340036392213,0.023832570761442186,-0.015825828537344934,0.04350481182336807,0.0115226861089468,-0.02856716327369213,0.02129613608121872,-0.014478884637355805,0.20577853918075562,0.02325957827270031,-0.04512963816523552,0.1384715735912323,-0.10987526178359986,0.019290069118142129,-0.02176237292587757,0.09176193177700043,-0.12476488947868347,-0.0009909329237416387,0.10391895473003388,0.10493778437376023,-0.028330201283097268,-0.0649193674325943,-0.027692459523677827,-0.06168817728757858,-0.0764438584446907,-0.015909232199192048,-0.014278143644332886,0.03937752917408943,-0.015181830152869225,-0.09212890267372132,0.014475028030574322,0.03240344673395157,-0.19712325930595399,-0.061248376965522769,-0.13582013547420503,-0.05553445592522621,0.05538894608616829,0.023943902924656869,0.07305479049682617,-0.1365656554698944,0.014343786984682083,0.06668355315923691,0.024470683187246324,0.06878316402435303,-0.027601972222328187,-0.016939815133810045,-0.09258657693862915,-0.033749762922525409,0.09595092386007309,0.08338648825883866,-0.09284679591655731,-0.0896109938621521,-0.19537483155727387,0.13682757318019868,0.06369506567716599,0.003745394991710782,-0.08087480068206787,0.07413692027330399,0.07166930288076401,-0.09141506254673004,0.015509447082877159,0.03112923540174961,-0.0417039692401886,0.11951477825641632,-0.11003589630126953,-0.030279655009508134,0.05361083894968033,0.03533221781253815,-0.08163895457983017,0.0905701294541359,-0.1372118890285492,-0.007285491097718477,-0.05653822422027588,-0.06365174055099487,-0.04401325806975365,0.22113609313964845,-0.008189267478883267,-0.0867851972579956,0.18708422780036927,0.01430418435484171,-0.039632298052310947,0.029055675491690637,0.08643501251935959,0.015552460215985775,-0.13374505937099458,-0.05998365581035614,-0.054150570183992389,0.12057579308748245,0.09644731134176254,0.025819534435868264,-0.023407725617289544,-0.04269663244485855,-0.05878648906946182,-0.19278137385845185,0.0320834219455719,0.24309536814689637,-0.020505733788013459,0.09108925610780716,-0.026915457099676133,-0.14718778431415559,-0.10891510546207428,0.13512596487998963,0.03294140473008156,0.20494230091571809,0.04015378654003143,-0.18360409140586854,-0.08348014950752258,-0.10685782879590988,0.06928955018520355,-0.09208142757415772,-0.1390368640422821,0.15462256968021394,0.016864515841007234,-0.0194131750613451,0.019861308857798578,-0.08724068850278855,0.055172231048345569,0.11355642229318619,-0.021012822166085244,-0.06180470436811447,-0.015704207122325898,-0.1767127513885498,0.0591547004878521,0.03978549689054489,-0.027632074430584909,0.016436491161584855,0.009142628870904446,-0.048980336636304858,0.10259503126144409,0.020558638498187066,0.05457652732729912,0.01404580008238554,0.0934046283364296,0.06253574043512345,0.12977862358093263,-0.14331956207752229,-0.020408865064382554,0.051222167909145358,0.05233444646000862,0.15833450853824616,-0.06711326539516449,-0.04615350440144539,-0.03527691587805748,0.022464066743850709,-0.07624328136444092,0.05909380689263344,0.13655993342399598,0.1430904120206833,-0.07291840016841889,-0.16883434355258943,0.02210015058517456,-0.013529050163924694,-0.052845779806375507,0.011540818959474564,-0.07386109977960587,0.04608427733182907,0.017165200784802438,0.02993881329894066,0.2698998749256134,-0.23321062326431275,0.11269212514162064,-0.03710395470261574,0.11011720448732376,-0.04733731225132942,-0.029207486659288408,-0.13465110957622529,-0.0654340460896492,0.12446445971727371,0.04824183136224747,-0.07563923299312592,-0.1336362063884735,-0.16446717083454133,-0.20207643508911134,-0.01718229055404663,-0.05889379233121872,0.10463697463274002,0.020603477954864503,-0.09438187628984451,0.0016534931492060423,0.0071958694607019428,0.11698293685913086,0.07597748935222626,-0.12108001112937927,0.040060851722955707,0.0019906116649508478,-0.04547019675374031,0.10266724973917008,-0.02004801668226719,0.04470108821988106,-0.08885116875171662,-0.0014579243725165725,-0.15427564084529878,-0.030304428189992906,-0.011952661909162999,-0.15667110681533814,0.03922249749302864,-0.04063763469457626,-0.03604396805167198,-0.07281012088060379,0.07392122596502304,-0.0468389056622982,-0.3184349536895752,-0.07224135845899582,0.1267678141593933,-0.009260366670787335,0.07603108882904053,-0.14231008291244508,0.07574301213026047,-0.009355766698718071,0.13256371021270753,-0.005460485350340605,0.16415932774543763,0.04490789398550987,0.08897235989570618,-0.009367155842483044,0.09674563258886337,0.0323549248278141,0.05261588841676712,0.045871276408433917,0.14966389536857606,-0.10970441997051239,-0.009871863760054112,0.07784850150346756,0.045275796204805377,0.027575641870498658,-0.022499604150652887,0.06378262490034104,-0.07074882835149765,-0.09946218132972717,0.11327654868364334,0.22028064727783204,-0.00043749785982072353,-0.06582191586494446,-0.17381064593791963,0.032576028257608417,-0.02983800135552883,0.07684987038373947,0.06102029234170914,-0.1539701521396637,0.0449092760682106,-0.006036130245774984,0.038163259625434878,0.053408823907375339,-0.023730432614684106,-0.09662572294473648,-0.06394030153751373,-0.09143588691949845,0.11109291762113571,0.048214949667453769,-0.0501144602894783,-0.07859553396701813,0.055764440447092059,0.03847716376185417,0.006585664581507444,0.0875830128788948,-0.030242931097745897,-0.2090267539024353,-0.028699422255158426,-0.11996376514434815,0.017332199960947038,0.1579361855983734,0.004475120920687914,0.01461169682443142,0.09096891433000565,0.16561515629291535,-0.13358882069587708,0.04955121874809265,0.0077719129621982578,-0.121800497174263,0.026453886181116105,0.0032735199201852085,-0.07749032229185105,-0.18732896447181703,-0.08631633967161179,-0.06643293797969818,0.1612316370010376,-0.08437402546405792,0.1013532429933548,0.16216403245925904,0.10296184569597244,-0.10081174969673157,0.1571635752916336,-0.006293721031397581,-0.14336127042770387,-0.022353142499923707,0.11921113729476929,-0.044064976274967197,0.002520696958526969,-0.0578535832464695,-0.03947320580482483,0.10057320445775986,-0.022013045847415925,0.13469931483268739,0.12959060072898866,-0.06439366936683655,0.10645827651023865,-0.07565300166606903,-0.022498726844787599,0.020611250773072244,0.03541145101189613,-0.08273396641016007,0.07715056836605072,-0.12696318328380586,-0.0027055097743868829,0.02563127689063549,0.1041266992688179,-0.10845356434583664,-0.019330009818077089,-0.12748567759990693,-0.15432801842689515,-0.06530220061540604,-0.14929795265197755,0.09384970366954804,0.1643802672624588,0.23741935193538667,-0.15396572649478913,-0.027187475934624673,-0.13464459776878358,0.08706016838550568,0.14538702368736268,-0.013054120354354382,0.025614921003580095,-0.023601986467838289,-0.060371216386556628,-0.042854659259319308,-0.012507015839219094,0.04536482319235802,-0.07132532447576523,0.020132165402173997,0.06543278694152832,0.022276682779192926,-0.018876822665333749,-0.06211717054247856,-0.10391530394554138,0.11120231449604035,0.004620448220521212,-0.10834797471761704,-0.005976674146950245,-0.09592337906360626,0.1392114907503128,0.15338005125522614,0.10606422275304795,-0.1975318342447281,-0.05527004227042198,-0.007778990548104048,-0.15480345487594605,-0.053935661911964419,0.06870239973068237,-0.061941858381032947,-0.06921271979808808,0.058604396879673007,0.05738850682973862,0.1863737255334854,0.0341600738465786,0.0657990351319313,-0.08596612513065338,-0.0981389656662941,-0.0026542788837105037,0.2494581639766693,0.028083905577659608,-0.053687356412410739,-0.03551991283893585,0.10248219221830368,-0.12839128077030183,0.14358976483345033,-0.00998041033744812,-0.17597895860671998,0.06381286680698395,-0.006093910895287991,-0.0036513330414891245,-0.055840689688920978,-0.04301216080784798,-0.11588271707296372,0.008555211126804352,0.010647703893482685,0.20588774979114533,-0.0832587480545044,-0.05756465345621109,0.09516911953687668,0.0685032531619072,0.07282987236976624,-0.04599648714065552,-0.1250528246164322,0.10192934423685074,-0.059683725237846377,0.0506424605846405,0.04711171239614487,0.07628077268600464,0.03210509940981865,0.05938297510147095,0.08573757112026215,0.060436055064201358,-0.22156578302383424,-0.07938190549612045,0.021180257201194764,-0.008538185618817807,-0.05809367075562477,-0.12460124492645264,0.034025147557258609,-0.09878929704427719,0.15691502392292024,0.16157492995262147,0.01668250933289528,0.011340470053255558,-0.12097398191690445,0.04847245663404465,0.02064315415918827,0.05664108693599701,-0.10831735283136368,-0.007605154998600483,-0.08705521374940872,-0.09094434976577759,-0.01389725785702467,0.06440795212984085,-0.07129878550767899,-0.19174058735370637,-0.0044816336594522,0.1643454134464264,-0.061678290367126468,0.021279633045196534,0.00486581539735198,0.1960074007511139,-0.08957254141569138,0.005940831732004881,-0.1564711332321167,0.1955161988735199,-0.06733032315969467,0.12104523926973343,-0.027424149215221406,-0.021443134173750879,-0.005711347796022892,-0.048612747341394427,0.00508324196562171,-0.13478249311447144,0.0013240393018350006,-0.09934624284505844,-0.0032719590235501529,-0.01282607764005661,0.052489813417196277,-0.15203101933002473,0.039167433977127078,-0.010502127930521965,-0.08582232892513275,-0.1298542320728302,-0.026216911152005197,-0.004244931507855654,0.20034785568714143,0.09420264512300492,0.15216626226902009,0.0520402193069458,0.0069759683683514599,-0.10187556594610214,0.11099334806203842,0.034823939204216,-0.043460823595523837,-0.08164048939943314,-0.11564004421234131,0.03888639807701111,0.1313110589981079,-0.10509802401065827,0.006678276229649782,0.046033311635255817,-0.16874316334724427,-0.019783172756433488,0.3129202723503113,0.03891722485423088,-0.11577079445123673,0.12346497178077698,0.08716844767332077,0.1836133450269699,0.05963694676756859,0.05489848554134369,0.102744460105896,0.18078845739364625,0.031069017946720125,-0.0029556858353316786,-0.0006105622742325068,0.027766147628426553,0.1439555138349533,-0.11177718639373779,0.06615594774484635,-0.17711912095546723,0.14380280673503877,-0.08577825129032135,0.11539697647094727,0.0022575820330530407,0.11232375353574753,-0.23197323083877564,0.012247073464095593,-0.16565082967281342,-0.012356541119515896,-0.12422480434179306,0.1475779414176941,0.03822239860892296,0.1455117017030716,0.14399763941764832,0.05844448134303093,0.08390241861343384,-0.2112804353237152,-0.19578546285629273,0.05669645220041275,-0.03258942440152168,-0.052370402961969379,0.03396454453468323,-0.011253150179982186,-0.15911456942558289,-0.18627731502056123,-0.16583552956581117,0.08705376088619232,0.0032398656476289036,-0.021854791790246965,0.10573143512010575,-0.1265815943479538,-0.04692868888378143,-0.07984325289726258,0.011119503527879715,0.10009009391069412,0.07138970494270325,0.029345614835619928,0.02848978340625763,0.11179669946432114,-0.016438806429505349,0.19945251941680909,0.03580240160226822,-0.14693351089954377,-0.0259085763245821,0.0988350585103035,0.11358528584241867,-0.16251087188720704,0.11210303008556366,-0.06689298152923584,0.04483737796545029,0.22713583707809449,-0.14789927005767823,-0.030493615195155145,-0.08777163177728653,0.09194266051054001,0.10796763002872467,-0.11259709298610687,-0.20466549694538117,0.004157564602792263,-0.0541803315281868,-0.016326304525136949,0.06866823881864548,-0.13806897401809693,-0.19568227231502534,-0.016201188787817956,-0.10234279185533524,0.07039383053779602,-0.10868488997220993,0.15824417769908906,0.021959654986858369,-0.03423776477575302,0.06501655280590058,-0.04557744786143303,0.08053788542747498,-0.07805036008358002,-0.1641872376203537,-0.18831321597099305,0.17891551554203034,0.023674076423048974,0.07953593134880066,-0.012914392165839672,-0.03453753888607025,-0.109942227602005,0.023858677595853807,0.12636685371398927,-0.07447788119316101,0.05860157683491707,0.022767942398786546,-0.09628646820783615,0.083036407828331,-0.025381334125995637,0.21953420341014863,-0.11583848297595978,-0.08621001988649368,0.13870394229888917,0.044774796813726428,-0.08719906955957413,-0.020518923178315164,-0.0767163634300232,-0.07928774505853653,-0.10087743401527405,0.013264958746731282,0.1604844182729721,-0.03000791370868683,0.07045336067676544,-0.11438734084367752,0.06255414336919785,-0.11599551886320114,-0.10612919181585312,-0.1431797295808792,0.09217549115419388,0.05066128447651863,-0.018419887870550157,-0.027974722906947137,0.021691719070076944,0.221427321434021,-0.0387883223593235,0.16632595658302308,-0.046897150576114658,-0.00010632087651174515,-0.05334028974175453,0.12575678527355195,0.005771256051957607,0.0374496690928936,-0.018217522650957109,0.09508238732814789,-0.0021711913868784906,0.04021327570080757,-0.07155996561050415,0.08208930492401123,-0.050047922879457477,-0.04051005840301514,0.045612823218107226,-0.0011504738358780742,-0.005311900284141302,-0.012998010031878949,0.12542498111724854,0.03927842527627945,-0.05356930196285248,-0.010292687453329564,0.0312621109187603,0.05878427252173424,-0.022355539724230768,-0.04968436062335968,-0.014836985617876053,0.06038679555058479,-0.12293436378240586,-0.004490131977945566,0.13730929791927339,-0.06073780357837677,0.09577816724777222,0.0009583142236806452,-0.01915626786649227,0.03558148071169853,0.16169385612010957,0.08039150387048722,-0.054180342704057696,-0.12133602797985077,0.04463575407862663,0.012074876576662064,0.03412781283259392,0.09268701821565628,-0.07084106653928757,-0.03151770681142807,-0.11671652644872666,0.03446220979094505,0.09802888333797455,-0.22455599904060365,-0.030288109555840493,0.12283162027597428,0.048810966312885287,-0.03801758214831352,-0.009847592562437058,0.10695725679397583,0.11888115108013153,0.1286202222108841,-0.11703813821077347,0.05589466542005539,0.06354806572198868,0.09768938273191452,0.12768574059009553,0.17745734751224519,-0.1839832067489624,0.11138206720352173,-0.02867398038506508,-0.07060340791940689,-0.08981972187757492,0.03884231299161911,0.05890721082687378,-0.06302635371685028,0.13781946897506715,0.14531415700912476,-0.07234800606966019,-0.06971143186092377,-0.032331302762031558,0.23471087217330934,0.05691143125295639,0.18028976023197175,0.20642848312854768,-0.023090213537216188,0.23580168187618257,-0.11259666085243225,-0.1982179433107376,-0.058422695845365527,-0.0024975028354674579,0.18284626305103303,0.09151697903871536,-0.04392705112695694,-0.07088781148195267,0.03272852674126625,-0.018976794555783273,0.1145147755742073,-0.05962242931127548,0.0727105662226677,0.07995036244392395,-0.004906267859041691,-0.08226711302995682,0.07122962176799774,0.06559313833713532,-0.07516777515411377,-0.015090476721525193,-0.01834077388048172,-0.1057611033320427,-0.015550236217677594,0.08203934878110886,0.16752876341342927,-0.036828167736530307,0.0006960112950764597,0.05873115733265877,0.131314218044281,0.16409465670585633,-0.025556130334734918,0.04904632270336151,-0.034776512533426288,-0.008782906457781792,-0.03739016875624657,0.03593211621046066,0.014459038153290749,-0.0863524079322815,-0.04418637976050377,0.1612793654203415,0.025000564754009248,0.1604517698287964,0.07044778764247894,0.10932885855436325,-0.11671152710914612,-0.05403156206011772,-0.025408517569303514,0.09773512184619904,0.10411810129880905,-0.2370140701532364,0.15675051510334016,0.13082191348075868,0.032640259712934497,0.07414335012435913,0.021846503019332887,0.0951540619134903,-0.026650119572877885,0.022407758980989457,0.06433403491973877,-0.03596613183617592,0.07694139331579209,0.2226761132478714,-0.029146715998649598,0.005279050208628178,0.11708216369152069,0.09589371085166931,-0.021280469372868539,0.051361020654439929,0.09359265863895416,-0.022189795970916749,0.0975830927491188,0.07201981544494629,-0.10570412874221802,-0.06574159115552902,0.11930780857801438,-0.05248431861400604,0.017458101734519006,0.012517371214926243,-0.15642698109149934,0.07879665493965149,-0.09087193012237549,-0.09198684245347977,0.00566102797165513,0.11145492643117905,0.06812992691993714,0.2096085101366043,-0.045712944120168689,0.20165495574474336,-0.056442271918058398,0.04803524538874626,0.05583075433969498,0.02602226845920086,-0.1288841813802719,0.09716597199440003,0.06731370836496353,-0.04246165230870247,0.002967333886772394,-0.032469138503074649,-0.06650911271572113,0.04256531596183777,-0.17119140923023225,-0.03979494795203209,-0.11534637212753296,-0.010273879393935204,0.060728270560503009,0.04526761174201965,-0.020135605707764627,-0.08759238570928574,0.03797440603375435,-0.1375482827425003,0.0921124517917633,-0.035945720970630649,-0.014478529803454876,0.06311554461717606,0.05826014280319214,0.003984395880252123,-0.029414499178528787,-0.05257910490036011,-0.053439270704984668,-0.11557470262050629,0.031176265329122545,0.042112138122320178,-0.025179963558912278,0.0007703853189013898,-0.0677579864859581,-0.1700204610824585,0.011543153785169125,-0.019179394468665124,0.013414750806987286,0.03758009895682335,0.12538275122642518,0.07077265530824661,0.07439622282981873,0.08068712055683136,-0.0612713098526001,-0.1530824601650238,0.030836140736937524,0.09421595185995102,-0.13016478717327119,-0.00854784157127142,0.03536290302872658,-0.1425900012254715,-0.03681815043091774,-0.10622238367795944,0.06171081215143204,-0.07016165554523468,-0.01560806855559349,0.05663369968533516,-0.0065174107439816,-0.053113650530576709,0.1225571557879448,0.07484753429889679,0.08513379096984863,0.02716153673827648,-0.07415266335010529,0.0830988958477974,0.03373424708843231,-0.08340322971343994,-0.0434047095477581,0.0646195337176323,-0.04556269571185112,-0.08497283607721329,-0.04804681986570358,-0.027775917202234269,-0.03548891842365265,-0.16907772421836854,0.19267477095127107,-0.01844276674091816,0.17769159376621247,-0.07841812819242478,-0.014764915220439434,0.10238479822874069,-0.0948653444647789,-0.10424130409955979,-0.13953785598278047,0.019599847495555879,0.09342456609010697,0.040442127734422687,-0.01918453723192215,0.010065091773867607,0.12244953215122223,-0.16403013467788697,-0.05990361422300339,-0.12576717138290406,0.053892917931079867,-0.05940314382314682,-0.04381292685866356,0.10266139358282089,0.006669233087450266,-0.18118993937969209,0.09014245867729187,0.050528112798929217,0.13209781050682069,-0.07445137947797775,0.09508877992630005,-0.05761414393782616,0.03131759911775589,0.1702515184879303,0.1319308876991272,-0.055277902632951739,0.008603792637586594,0.10177285969257355,-0.07251448929309845,0.09586359560489655,-0.0247531495988369,0.09307317435741425,-0.09259893745183945,0.06850672513246536,0.02381821721792221,0.11488687992095947,0.07118309289216995,-0.04803963005542755,0.040428418666124347,-0.05749283730983734,0.06624436378479004,-0.03581421077251434,-0.026583826169371606,-0.2320161759853363,0.04900485277175903,0.016287842765450479,-0.02528671734035015,-0.07681672275066376,0.023575035855174066,0.13118961453437806,-0.098098523914814,0.13685224950313569,0.06295011192560196,0.12083764374256134,-0.2300763577222824,0.007757191546261311,-0.07223071902990341,-0.1391211748123169,-0.03483005240559578,-0.10037360340356827,0.016639165580272676,-0.058966416865587237,0.07736226171255112,-0.06121674180030823,-0.08055043965578079,-0.03321665897965431,-0.057409197092056277,-0.10370303690433502,-0.054676156491041186,-0.03053421527147293,-0.17905212938785554,-0.026745092123746873,-0.11159496009349823,0.1018887534737587,-0.05885982885956764,-0.020554548129439355,0.03161555528640747,0.1038055568933487,-0.0010027192765846849,-0.2422507405281067,-0.032874494791030887,0.08527787029743195,-0.021017884835600854,0.06058524549007416,0.0006938123260624707,0.017444154247641565,-0.12687185406684876,-0.07278528064489365,-0.1415269672870636,0.07687631249427796,-0.00861522275954485,-0.14564894139766694,0.05762690678238869,0.06122666969895363,0.18138836324214936,0.06790097802877426,0.06725582480430603,0.08164598047733307,0.05155334621667862,0.10620079189538956,-0.07107730954885483,-0.1663990616798401,-0.2798764109611511,0.006927453447133303,-0.07559062540531159,0.020462315529584886,-0.07395686209201813,-0.008460146375000477,-0.06805151700973511,0.08868872374296189,-0.04019887000322342,-0.010889722965657711,-0.043219149112701419,-0.05302581191062927,0.1439405381679535,-0.05079628899693489,-0.06464066356420517,-0.029524171724915506,-0.018835194408893586,0.00038444274105131626,0.08577201515436173,0.06449367105960846,0.13508716225624085,-0.0851777121424675,-0.12768898904323579,0.0489380806684494,0.009884689003229142,-0.047420743852853778,0.11639969050884247,0.01566040888428688,-0.023738166317343713,0.04397232085466385,0.015419463627040387,0.03379809483885765,-0.053300641477108,-0.04109686240553856,-0.022891590371727945,-0.18000255525112153,-0.05226404219865799,0.03556329384446144,-0.2432139366865158,-0.07160325348377228,-0.035903383046388629,0.043584588915109637,-0.09191987663507462,-0.015851551666855813,0.09613790363073349,0.07764289528131485,0.11630058288574219,0.04994317889213562,0.075928695499897,0.10123050212860108,-0.07494337111711502,0.11356057226657868,0.017935529351234437,-0.008639134466648102,-0.023853609338402749,-0.03863748162984848,0.0475272499024868,0.022526277229189874,-0.10783713310956955,-0.035505808889865878,-0.10763263702392578,-0.09840117394924164,-0.04718553647398949,-0.11996272206306458,-0.10238143801689148,-0.18023967742919923,0.13693203032016755,-0.05088275298476219,0.0485755130648613,-0.09234138578176499,-0.02905825339257717,0.06961936503648758,0.03208988159894943,0.027669740840792657,-0.03256938233971596,-0.06634598225355149,-0.0009428989724256098,-0.06382287293672562,0.09500423073768616,0.017593957483768464,0.25302648544311526,-0.021082207560539247,-0.10962821543216706,-0.06955594569444657,0.037370242178440097,-0.04074370115995407,-0.008057842031121254,-0.007071415428072214,0.07893441617488861,-0.019298594444990159,0.01406102254986763,-0.09085927158594132,0.05386795848608017,0.09968507289886475,0.01820875145494938,0.179279625415802,0.04406096413731575,0.017126834020018579,0.02235056832432747,0.09218467772006989,0.013383793644607067,-0.030878927558660508,-0.042215555906295779,-0.03258588910102844,0.23080754280090333,0.1836220920085907,0.09442225098609925,-0.020135488361120225,0.03175295144319534,0.06360115110874176,0.06735464185476303,0.11761651188135147,-0.03721410781145096,-0.19534161686897279,0.03374965861439705,0.09705634415149689,-0.05849305912852287,-0.03921779990196228,0.08925312012434006,-0.04710715264081955,-0.015077318996191025,0.26852700114250185,-0.1020921841263771,-0.1800425499677658,-0.1363970786333084,-0.07991037517786026,0.08871346712112427,0.0995425134897232,0.07777787744998932,-0.00654227938503027,-0.03167704492807388,-0.07166397571563721,-0.08319917321205139,0.00004922193329548463,0.16162307560443879,-0.024443794041872026,-0.03236864134669304,0.0876326709985733,0.0021141928154975178,-0.003992217127233744,0.0935155600309372,0.10527767986059189,0.0017396698240190745,0.044870525598526,-0.00983294378966093,0.17428883910179139,0.022090351209044458,0.0771522969007492,0.10575173050165177,-0.018814610317349435,-0.0823984146118164,0.007340963929891586,0.012935355305671692,-0.02029741182923317,0.02580055221915245,-0.029910430312156678,0.09182187169790268,-0.049917832016944888,0.11000732332468033,-0.09213034808635712,-0.012333734892308712,-0.1496177464723587,0.16808515787124635,-0.07043248414993286,0.020669061690568925,0.0015257326886057854,0.03946572169661522,-0.22770552337169648,-0.012422480620443821,-0.02585134655237198,0.2241053283214569,-0.10524743050336838,0.05351053923368454,-0.17619504034519196,0.004706962965428829,0.005781619809567928,-0.06732279807329178,0.03348618373274803,-0.12812300026416779,0.04606404900550842,0.09251145273447037,0.02223832532763481,-0.036893974989652637,-0.14289416372776032,0.23485542833805085,-0.023792609572410585,-0.16719575226306916,-0.07005733996629715,0.004373620264232159,-0.17273135483264924,0.13531212508678437,0.04444744065403938,-0.018568428233265878,-0.05640077590942383,-0.032275617122650149,0.12397358566522598,-0.08595782518386841,-0.01678534224629402,0.04133197292685509,-0.09745419770479202,0.14741377532482148,-0.05901695787906647,0.032898057252168658,-0.025037530809640886,-0.13941137492656709,-0.015729311853647233,0.10417985171079636,0.1660809963941574,0.15223900973796845,0.004181979689747095,-0.08187887072563172,0.02228637970983982,0.0446217879652977,0.02345162443816662,-0.1742565780878067,0.12093953788280487,-0.022874442860484124,-0.07951858639717102,0.1156715676188469,0.08044405281543732,0.18784895539283753,0.00048769821296446025,-0.04497621953487396,0.03384293243288994,0.03763475641608238,0.07767289131879807,-0.09102416783571243,0.03308920934796333,0.1108122169971466,-0.032956331968307498,0.06892489641904831,0.06958827376365662,-0.03027091734111309,0.017308082431554796,-0.012029469944536686,0.04229317232966423,-0.054026633501052859,0.10583161562681198,-0.10150559991598129,0.062508225440979,0.017460674047470094,-0.039695125073194507,-0.20059895515441895,0.13955269753932954,0.0993674173951149,0.18962889909744264,-0.058331333100795749,-0.0870044156908989,0.058166977018117908,0.04354831948876381,-0.05028310790657997,0.012583860196173191,-0.04170714318752289,0.11313904076814652,-0.03878185525536537,-0.015018216334283352,0.03484024852514267,0.003376109292730689,0.02087746188044548,-0.05264206603169441,-0.045815061777830127,0.11095475405454636,-0.02677493914961815,-0.0634000226855278,-0.12860864400863648,0.0688408762216568,-0.0884372815489769,-0.0658845454454422,-0.05256631225347519,0.02544105239212513,0.057567354291677478,0.012709133327007294,0.0036135362461209299,-0.004680904559791088,-0.02154421992599964,-0.05446506664156914,0.06392884254455567,0.07056384533643723,0.020791539922356607,0.08407121896743775,-0.015496041625738144,-0.09598027914762497,-0.06611321866512299,0.00275587965734303,0.11299959570169449,-0.08799169957637787,-0.009909280575811863,0.09735926985740662,0.019713087007403375,-0.18767523765563966,-0.06895497441291809,-0.01644355244934559,0.12840352952480317,0.10081171244382858,0.01178001519292593,0.08403009921312332,-0.11565032601356507,-0.09396038204431534,-0.22820065915584565,-0.05641956627368927,0.09597153961658478,-0.01918463408946991,-0.0822235718369484,0.014295768924057484,-0.027744289487600328,-0.10768333822488785,-0.11872338503599167,0.1322164237499237,0.018997089937329294,-0.03149150684475899,-0.10792524367570877,-0.037228211760520938,0.11201132088899613,0.10065360367298126,-0.04313128814101219,0.17659570276737214,0.055009908974170688,-0.06850594282150269,0.024456016719341279,-0.12419465184211731,0.06146785616874695,0.03634772449731827,-0.070390984416008,0.011684409342706204,0.12376020848751068,-0.006658115424215794,-0.16795651614665986,-0.12859807908535005,0.027265582233667375,0.0966951847076416,0.05102360248565674,-0.06459540873765946,0.06505866348743439,0.0026306798681616785,-0.11171972006559372,-0.09991393983364105,-0.13023144006729127,-0.01845291256904602,0.034356068819761279,-0.14691385626792909,-0.08970619738101959,-0.031507458537817,-0.007015320006757975,0.040942445397377017,-0.01996893435716629,-0.19554440677165986,0.0663745328783989,0.09081879258155823,-0.0007150723831728101,-0.21558216214179994,-0.19722357392311097,-0.12772992253303529,0.06472020596265793,-0.0335279181599617,0.06275945901870728,0.04563795402646065,-0.035680096596479419,0.056002940982580188,-0.06268201768398285,-0.0819200873374939,0.02331373281776905,-0.050633978098630908,-0.06563254445791245,0.12210895866155625,-0.23011820018291474,-0.05096038058400154,0.07338032126426697,-0.10687359422445297,0.026818832382559778,-0.17900815606117249,-0.05186628922820091,-0.03550894930958748,-0.07016434520483017,-0.06262912601232529,0.13318760693073274,-0.1183818131685257,0.14033301174640656,-0.046664733439683917,0.033299703150987628,0.0010305573232471943,0.1663123220205307,0.09533477574586868,-0.005094448104500771,0.039532095193862918,0.002379809273406863,-0.0977228656411171,0.006759782787412405,0.05720740184187889,-0.08842284232378006,-0.12435862421989441,0.012690722942352295,-0.0830509215593338,-0.02178190089762211,-0.06474815309047699,-0.05046921968460083,-0.012859282083809376,0.14487570524215699,0.006351431831717491,0.013247819617390633,-0.01599608175456524,0.057761162519454959,0.06722024083137512,-0.08574178814888,0.19635184109210969,0.05012272670865059,0.08955158293247223,0.004537781700491905,-0.08504807204008103,-0.10156658291816712,0.01198690664023161,0.14085796475410462,-0.0632869228720665,0.0733940377831459,-0.003202942432835698,0.03945841267704964,0.057648323476314548,-0.032631538808345798,-0.21208208799362184,0.06962508708238602,-0.006854737177491188,0.06321796029806137,0.11003732681274414,-0.1326008439064026,0.09518767893314362,-0.028299672529101373,0.12590613961219788,-0.018991030752658845,-0.1045197919011116,-0.0879550352692604,-0.10005664080381394,-0.11456789821386337,0.044362764805555347,0.04913005605340004,0.10910780727863312,0.015382248908281327,0.17985187470912934,0.03963334113359451,-0.12124861776828766,0.18858930468559266,-0.05714564397931099,0.06701046973466873,0.011130689643323422,0.1783505082130432,0.08269642293453217,0.10185088962316513,-0.07316092401742935,-0.009480142034590245,-0.13290457427501679,-0.055123984813690189,-0.013851497322320938,0.0977979376912117,-0.16713100671768189,0.11155702918767929,0.06273246556520462,0.05726446211338043,0.12337399274110794,-0.0686904564499855,-0.23057319223880769,-0.16271540522575379,-0.13261403143405915,-0.04794418439269066,-0.08725947886705399,0.15994670987129212,0.16032052040100099,0.21132367849349976,-0.07496041059494019,0.03374583274126053,0.10731624811887741,-0.06204076111316681,-0.06080228462815285,0.058395422995090488,-0.03540807589888573,-0.01406484842300415,-0.034172892570495608,-0.04945757985115051,-0.04838249087333679,-0.16593079268932343,-0.0389675498008728,-0.14656659960746766,0.05721011757850647,0.0003275893395766616,0.27259090542793276,-0.13784661889076234,-0.026576314121484758,-0.09561290591955185,-0.0914684608578682,-0.039034754037857059,0.12513989210128785,0.02124532125890255,0.03412901237607002,-0.049751847982406619,-0.025151751935482026,0.06399589776992798,-0.019236041232943536,-0.12753188610076905,-0.09034426510334015,-0.21527044475078584,0.024273373186588289,-0.12120039016008377,0.060317590832710269,-0.03175567835569382,-0.17410805821418763,-0.013465437106788159,-0.05527307838201523,-0.07734514772891998,-0.11438629031181336,0.21786953508853913,0.1000785306096077,0.018117085099220277,-0.11457128822803498,-0.01888205297291279,-0.07660926878452301,-0.0446699820458889,0.016223464161157609,0.08021891862154007,0.022048549726605417,0.011323739774525166,0.1774720847606659,-0.08085912466049195,-0.0837525725364685,-0.0826936811208725,0.09508174657821655,-0.1242629736661911,-0.06550883501768112,-0.029707370325922967,-0.06052611395716667,-0.09466249495744705,-0.09600166976451874,0.04974723234772682,0.011284221895039082,0.12406884878873825,0.13154490292072297,0.04704107716679573,-0.023509372025728227,0.007996445521712304,-0.03979778662323952,-0.036197029054164889,-0.11351938545703888,0.11723610013723374,-0.07641813158988953,-0.13404862582683564,0.0651204064488411,0.01126625295728445,-0.19958354532718659,0.042867131531238559,0.07225287705659867,-0.04372597113251686,0.06562070548534394,0.024163147434592248,-0.10291661322116852,0.07050812244415283,0.02048465982079506,0.019618665799498559,-0.1275973618030548,-0.09598449617624283,0.059216830879449847,-0.06375673413276673,0.05829906836152077,0.03739260509610176,-0.08857078850269318,-0.030207328498363496,-0.07553978264331818,-0.06919316947460175,0.09566143900156021,0.016708388924598695,0.04146149754524231,-0.03801097720861435,0.1502365916967392,0.03252916783094406,0.09661900252103806,0.04248860850930214,0.1883033812046051,0.021584758535027505,0.005163915455341339,0.05040764436125755,0.00860238540917635,-0.09262796491384506,-0.06515610963106156,0.11688917875289917,-0.1347692757844925,-0.02925274707376957,-0.006583179347217083,-0.09681015461683274,-0.10110650211572647,0.040230024605989459,-0.02431306801736355,0.09699678421020508,-0.05539339780807495,-0.00535917142406106,-0.29254046082496645,0.02258816920220852,-0.11339840292930603,-0.1637231856584549,0.10157361626625061,0.104627326130867,-0.05891992151737213,-0.040041375905275348,0.12461846321821213,-0.002541495952755213,0.009860830381512642,-0.041596487164497378,0.01906511001288891,0.006370235234498978,0.048140157014131549,-0.02620445005595684,-0.04133552312850952,-0.10986018925905228,-0.07015315443277359,-0.08282569795846939,-0.02022278867661953,0.2273048311471939,0.09654643386602402,-0.10306384414434433,-0.06714148074388504,-0.025818977504968644,-0.001263447105884552,0.0012210541171953083,-0.17394186556339265,0.03759393468499184,0.01925191842019558,0.0311997402459383,0.11541568487882614,-0.30363667011260989,0.12023942172527313,-0.0013178110821172596,-0.05900486558675766,0.18727630376815797,0.009747372008860112,-0.03455306589603424,0.015278879553079605,-0.008448987267911435,0.11960991472005844,0.10584894567728043,0.1839781254529953,-0.05964533984661102,0.0667242482304573,0.24043214321136475,-0.09597672522068024,0.06124584749341011,-0.1709800362586975,-0.11025430262088776,0.07249658554792404,-0.07528568059206009,-0.018135713413357736,-0.24936866760253907,0.020099317654967309,-0.12911862134933473,-0.046113789081573489,0.05679725855588913,-0.08009646832942963,0.07466812431812287,-0.06569259613752365,-0.07139077037572861,-0.035771097987890246,0.1101662665605545,-0.05223304405808449,0.02147582173347473,0.02651960216462612,0.14770103991031648,0.06403498351573944,-0.07116124033927918,-0.14691133797168733,0.07215318083763123,0.021365897729992868,-0.14434777200222016,-0.004685190971940756,-0.1339019536972046,0.10435087233781815,0.15682794153690339,-0.07591170817613602,0.01244908943772316,-0.02780991792678833,0.023508070036768915,0.031081007793545724,0.09918301552534104,-0.06557805836200714,-0.00031310776830650866,0.11957347393035889,-0.1673002690076828,0.01949967071413994,-0.047724250704050067,-0.03926291689276695,0.12580986320972444,-0.07386916875839234,-0.018017340451478959,0.017704281955957414,0.07212629914283753,-0.055640511214733127,0.024734359234571458,0.015751518309116365,-0.12707141041755677,0.11815901100635529,0.038428064435720447,0.12618951499462129,0.00788095872849226,0.2364814132452011,0.14352549612522126,0.07671254128217697,0.007965109311044217,-0.14173445105552674,0.02561965025961399,0.00865667499601841,-0.14498752355575562,0.23262834548950196,0.012848518788814545,-0.05382077768445015,0.038146521896123889,0.13919809460639954,-0.02934459038078785,0.2082519680261612,0.11669609695672989,-0.055361971259117129,-0.09780240803956986,0.0037860230077058079,0.050995614379644397,-0.1511615514755249,0.10241378843784332,0.0618530735373497,-0.03809807449579239,0.04482802748680115,-0.17730945348739625,0.12216417491436005,-0.010590871796011925,-0.16768071055412293,-0.17638081312179566,-0.10493902862071991,0.01793879084289074,0.07198367267847061,0.06493958830833435,0.010549668222665787,-0.036813683807849887,-0.03772056847810745,-0.1549626588821411,-0.0189262293279171,-0.05728313326835632,0.07690035551786423,-0.09201610088348389,0.2797970175743103,0.1409466713666916,0.04800212383270264,0.08499036729335785,-0.12114496529102326,0.08718254417181015,-0.07136642932891846,0.11392560601234436,0.09588994830846787,0.03167032450437546,-0.03942486643791199,-0.04006470367312431,-0.04057932645082474,0.26464712619781496,0.014373411424458027,0.1593359261751175,0.15995845198631288,0.10434261709451676,-0.12582385540008546,-0.025411201640963556,-0.01407864224165678,0.15736731886863709,-0.04959522932767868,-0.19387216866016389,0.016327742487192155,0.1938341110944748,0.10818958282470703,0.05653580278158188,0.06765496730804444,0.03136038780212402,0.23552894592285157,-0.11598317325115204,0.10438306629657746,0.015738971531391145,-0.008627690374851227,-0.18021447956562043,-0.1427675187587738,-0.09729249775409699,-0.12821824848651887,-0.06189843639731407,0.056765440851449969,0.010139401070773602,-0.11052564531564713,-0.008449689485132695,-0.04369319602847099,-0.2178868055343628,0.002436417853459716,-0.06434056162834168,0.09218892455101013,-0.04439372569322586,-0.033213529735803607,-0.13087652623653413,0.1228497177362442,-0.01913432776927948,0.024065986275672914,-0.1960383802652359,0.036524899303913119,-0.08144388347864151,-0.08823183923959732,-0.08885004371404648,0.12149558216333389,-0.0925782099366188,0.014165461994707585,-0.1141027882695198,-0.32517629861831667,-0.03926054760813713,-0.009352276101708413,0.1937808394432068,0.029689371585845948,0.08847066760063172,0.03833557665348053,0.04391743987798691,0.08483222872018814,0.011402794159948826,0.03509167209267616,-0.23589381575584413,0.0036339201033115389,-0.07572473585605622,0.005703235976397991,0.08848565071821213,0.05796206369996071,-0.020690659061074258,0.20375077426433564,0.07271932065486908,0.022788608446717264,-0.08298268914222717,-0.01376479584723711,0.06732867658138275,0.029023898765444757,-0.18368427455425263,0.12653827667236329,-0.008001908659934998,-0.06472547352313996,-0.025093253701925279,0.015684431418776513,-0.015270656906068325,-0.12387751042842865,-0.159463569521904,0.11518383771181107,0.006257645785808563,-0.09355370700359345,0.04395915940403938,0.03484218940138817,0.25002631545066836,0.14531594514846803,-0.0634022131562233,-0.10204843431711197,0.07814644277095795,-0.17357628047466279,0.09329809248447418,-0.3660415709018707,-0.15960167348384858,0.048085421323776248,-0.0033513784874230625,0.05410731956362724,-0.0555691197514534,-0.06217171624302864,-0.0035163394641131164,-0.08633334189653397,0.15595024824142457,-0.04500362277030945,-0.07377458363771439,0.05490842089056969,-0.00014584403834305704,-0.09310682862997055,-0.09831023216247559,-0.018423862755298616,-0.11831969022750855,0.07475871592760086,0.21694354712963105,0.03531200811266899,0.017334792762994767,0.03756200149655342,0.023384014144539834,-0.05839960277080536,-0.01295514963567257,-0.03049229457974434,0.03637909144163132,-0.07580259442329407,-0.013221034780144692,-0.09819895774126053,0.03486906364560127,0.03658828139305115,-0.10200301557779312,0.10132353007793427,0.09777653217315674,0.02946464717388153,-0.1139884665608406,-0.015136200934648514,-0.1920473575592041,0.11304408311843872,-0.03525928780436516,-0.004016736522316933,0.10410972684621811,0.09450220316648483,-0.05679391697049141,0.12425048649311066,-0.007694637402892113,-0.015610157512128353,-0.013245619833469391,0.08097445964813233,0.12678873538970948,0.009324685670435429,-0.001981698675081134,0.0419694185256958,0.0544254407286644,0.12771210074424745,0.07349485903978348,-0.0023316368460655214,-0.019672170281410219,0.009518594481050969,-0.10602089762687683,0.0871046632528305,0.038668956607580188,-0.04504343122243881,0.009307993575930596,-0.028662536293268205,-0.13550034165382386,0.10259351879358292,0.03966333344578743,-0.2263805866241455,0.005358056165277958,0.15341269969940186,-0.052679918706417087,0.06859064102172852,0.054425839334726337,0.002218561479821801,0.0004886973765678704,-0.028278522193431855,0.08023686707019806,-0.001258488860912621,0.19811880588531495,-0.17111577093601228,-0.10107073932886124,0.004326454363763332,-0.0210797730833292,0.08125592768192291,0.12130288779735565,-0.03868868574500084,0.09240072965621948,0.05694448947906494,0.017634490504860879,-0.012785603292286396,-0.12251924723386765,0.016482017934322358,0.026309270411729814,0.03205513581633568,-0.023284124210476877,-0.07939062267541886,-0.010928771458566189,-0.05612209066748619,-0.0020581574644893409,0.029255731031298639,-0.039520859718322757,0.04640178754925728,0.07329807430505753,0.2205420583486557,-0.04644932597875595,0.027465663850307466,0.11611557006835938,-0.1486649513244629,-0.0652485340833664,-0.03138408437371254,0.06418425589799881,-0.011886334046721459,0.05186302214860916,-0.01393070723861456,0.06520775705575943,-0.02638658694922924,-0.00157432840205729,0.008611394092440606,-0.08085840940475464,-0.11949191242456436,0.0354708656668663,0.07512205839157105,-0.08416883647441864,0.026207154616713525,-0.017538197338581086,0.05485359579324722,-0.06150322034955025,-0.09241298586130142,-0.1797543615102768,0.06331140547990799,0.0681232139468193,0.05195039138197899,-0.07690227031707764,0.10536827147006989,-0.11030977219343186,0.10386055707931519,0.13783231377601624,0.1648137867450714,0.02175104431807995,0.0008454573107883334,0.06008720397949219,-0.0341845378279686,0.18437522649765016,0.06003973260521889,0.027123766019940378,0.01739349029958248,0.07270456105470658,0.16579852998256684,0.061787381768226626,0.04978043586015701,0.12879422307014466,0.1706182062625885,-0.11452057212591171,0.0086368378251791,-0.03299889340996742,-0.08768578618764878,-0.06558240205049515,0.13108135759830476,0.022578079253435136,