{"Layers":[{"Weights":[0.24416379630565644,-0.1427813470363617,-0.2651539742946625,0.23053909838199616,-0.0850384533405304,-0.1468016803264618,0.09193936735391617,-0.3210977613925934,-0.2384803593158722,0.0777103453874588,-0.06893744319677353,-0.09240026026964188,-0.055666495114564899,0.008713274262845517,0.06607520580291748,-0.08621152490377426,0.2949887216091156,0.18752194941043855,-0.28450870513916018,0.048137448728084567,-0.025885704904794694,-0.005457456689327955,0.017423314973711969,-0.0036719786003232004,0.14298591017723084,0.04003298282623291,0.27238231897354128,-0.04791656881570816,-0.036351367831230167,0.0227589663118124,0.11787406355142594,-0.2011016458272934,-0.140233114361763,0.12160968035459519,-0.030320292338728906,-0.043848730623722079,-0.13953690230846406,-0.04907730594277382,0.2954520881175995,0.01210965495556593,0.06963710486888886,0.041854128241539,-0.15721364319324494,-0.14787271618843079,-0.1894555389881134,0.07902494817972183,-0.10473950952291489,-0.21829864382743836,-0.26221784949302676,-0.00241596600972116,0.034664250910282138,0.16764694452285767,-0.003402087138965726,0.04028667137026787,0.1582626849412918,-0.1328679621219635,-0.04619155451655388,0.11856161057949066,-0.06008520722389221,0.3225470185279846,-0.18477343022823335,0.04343844950199127,0.13438835740089417,-0.029036859050393106,0.019906390458345414,0.12771190702915193,0.0048707472160458569,0.12660720944404603,-0.05766897648572922,-0.0710902214050293,0.008969079703092575,-0.030292334035038949,-0.11344601958990097,0.11172710359096527,-0.11628008633852005,0.24425223469734193,-0.15263840556144715,0.02004661038517952,0.18371623754501344,-0.018930379301309587,0.13390588760375977,-0.1892201453447342,0.30277401208877566,-0.20735187828540803,0.4689562916755676,-0.16937299072742463,-0.032058630138635638,0.02162650227546692,0.001104517374187708,0.18183398246765138,-0.0512814000248909,0.0056347050704061989,0.05437786504626274,-0.033764395862817767,-0.03274495527148247,-0.03602525591850281,0.37709662318229678,0.00021973307593725622,0.035614293068647388,-0.07781440764665604,0.11222141981124878,-0.2594793438911438,0.029924513772130014,0.012922298163175583,0.013736231252551079,0.0423416867852211,0.07054983079433441,-0.34326934814453127,-0.05063077062368393,0.12195060402154923,-0.19522371888160706,0.03262701630592346,-0.0764327123761177,0.07688723504543305,-0.27277037501335146,-0.18230950832366944,0.19161778688430787,0.03643357753753662,0.1287492960691452,-0.36851227283477785,-0.37136438488960268,0.0607420951128006,0.11161518096923828,-0.04168158024549484,-0.2928701341152191,0.08573122322559357,-0.08800119906663895,0.1218852624297142,-0.08360312879085541,0.013931130059063435,-0.1023327112197876,0.04729027301073074,0.1684369593858719,-0.1847446858882904,-0.1383506953716278,0.09115850180387497,-0.14120224118232728,-0.362359881401062,-0.2729795575141907,-0.00013768856297247112,0.2100745141506195,0.02652854286134243,0.09583297371864319,0.021437974646687509,-0.007833713665604592,-0.09092686325311661,-0.05290592834353447,0.3527086079120636,0.03359218314290047,0.07713709771633148,-0.19530633091926576,0.00615621916949749,0.05902073159813881,0.055702224373817447,-0.13368773460388184,0.15469205379486085,0.07021767646074295,0.12197080254554749,0.03444622829556465,0.008345609530806542,-0.16800850629806519,0.016356373205780984,-0.3183288872241974,-0.054269298911094668,-0.11547022312879563,-0.057998113334178928,-0.07514852285385132,0.003853799309581518,-0.12204611301422119,0.276052862405777,-0.30009037256240847,0.11263854801654816,0.07765930145978928,0.0880676880478859,-0.11189098656177521,0.19208361208438874,0.09044846892356873,0.07012376934289932,-0.046861521899700168,-0.06373728811740875,0.008212842047214508,-0.1404723972082138,0.04136713966727257,0.010934914462268353,-0.11489568650722504,0.2836989760398865,-0.025044094771146776,-0.15751869976520539,0.05211837217211723,-0.11862020939588547,0.022208446636795999,-0.0067648207768797878,-0.10008864849805832,0.01003306731581688,-0.0839720368385315,0.24012622237205506,-0.18851767480373383,0.014674661681056023,-0.11100295186042786,-0.11704928427934647,-0.22891288995742799,-0.07279633730649948,0.11351365596055985,0.24901604652404786,0.38442128896713259,-0.3234237730503082,-0.206929549574852,-0.11333917081356049,-0.11431121081113816,0.22968977689743043,-0.2241937518119812,-0.2914406359195709,-0.13620184361934663,-0.3511066138744354,0.17268063127994538,0.1505066156387329,-0.3710010349750519,0.1222386509180069,-0.082462377846241,0.07318822294473648,-0.009956084191799164,-0.08777667582035065,-0.043529242277145389,-0.009445840492844582,0.30557915568351748,0.017734332010149957,0.1410103440284729,-0.029391614720225335,0.033834367990493777,-0.018047912046313287,0.13692426681518556,-0.1409461498260498,-0.03956625983119011,-0.011403737589716912,-0.013727962039411068,-0.06754579395055771,-0.2879141867160797,0.11957143247127533,-0.12664665281772614,-0.2763513922691345,0.02918948419392109,0.08912190794944763,0.03799053281545639,-0.1576489806175232,-0.16099047660827638,-0.08945668488740921,0.1382630169391632,0.12330419570207596,-0.1556970775127411,-0.07524091750383377,0.011206606402993203,-0.015290279872715474,-0.058217938989400867,-0.19297468662261964,0.1674245148897171,0.12996883690357209,-0.08763053268194199,-0.1284889429807663,0.09180498123168946,-0.27635470032691958,-0.15696139633655549,0.2048196643590927,-0.3166702091693878,-0.008381043560802937,-0.08804392069578171,-0.03736138343811035,-0.03345177695155144,0.026782201603055,0.21183590590953828,0.01775253564119339,-0.15398626029491425,-0.07872771471738816,0.12367834150791168,0.12016483396291733,-0.18023452162742616,0.23225970566272736,0.13091595470905305,0.005670187529176474,0.03552425280213356,0.1853417456150055,0.03023718297481537,-0.05059570446610451,-0.1854071021080017,0.2171579897403717,0.08331533521413803,-0.1599975973367691,0.11539778113365174,-0.31735187768936159,0.11722399294376373,-0.13111832737922669,-0.034071747213602069,-0.14555759727954865,-0.23659570515155793,-0.22035102546215058,-0.11650063842535019,0.09023719280958176,0.11689148843288422,0.18493014574050904,0.1761017143726349,-0.016928846016526223,0.21981169283390046,0.19449442625045777,-0.12331736832857132,0.16996772587299348,-0.016273582354187967,-0.19409656524658204,-0.22267663478851319,0.1480599045753479,0.02833280712366104,-0.05604898929595947,-0.17760314047336579,-0.019954366609454156,-0.007769567891955376,0.33976247906684878,-0.018231794238090516,0.2588234841823578,-0.12216362357139588,-0.026862913742661477,0.2868695557117462,-0.12242475897073746,-0.17549246549606324,-0.131986603140831,0.038036614656448367,-0.024170706048607827,0.31525054574012759,0.08198077976703644,0.06396342068910599,0.16159704327583314,-0.015550771728157997,-0.12067175656557083,0.16519753634929658,0.054216571152210239,0.2023511677980423,-0.20394954085350038,-0.027070144191384317,-0.05311417952179909,-0.06713614612817764,-0.11751240491867066,0.2754422128200531,0.05996837466955185,0.05000544711947441,-0.2180122435092926,0.10871155560016632,-0.11656840890645981,0.1594144105911255,-0.2971591353416443,0.05015517771244049,0.04814845323562622,-0.09850536286830902,0.1406145542860031,0.16421625018119813,0.013842633925378323,-0.07380370795726776,-0.21825483441352845,-0.05147094652056694,0.23093749582767487,-0.20648224651813508,0.032196756452322009,-0.04352929815649986,0.11826127767562866,0.07754934579133988,-0.10482770949602127,0.14997489750385285,-0.034769896417856219,0.12303338944911957,0.04100877046585083,0.09869776666164398,-0.2750440537929535,-0.2917269468307495,0.2079908400774002,-0.0557788610458374,0.06439095735549927,-0.3049553632736206,0.004353052470833063,-0.22725515067577363,-0.3313653767108917,0.029850758612155916,-0.02384144999086857,0.06395959854125977,0.017013251781463624,-0.0985264852643013,0.1841377317905426,-0.10134164988994599,-0.02655702456831932,0.08114756643772125,0.15426567196846009,0.11414244771003723,-0.17331081628799439,0.1059417650103569,-0.1550719439983368,-0.13890649378299714,-0.14484329521656037,0.0986008495092392,0.15833236277103425,0.13590110838413239,-0.07185841351747513,0.2945600152015686,0.016278650611639024,0.006532121915370226,0.14016950130462647,-0.31135833263397219,0.23656076192855836,-0.06641354411840439,0.229379341006279,0.2518416941165924,-0.158363938331604,-0.02158479206264019,0.05667418614029884,0.11522792279720307,0.21651306748390199,-0.12473402172327042,-0.13792206346988679,-0.21447689831256867,0.12335023283958435,0.13506264984607697,0.021267632022500039,0.0691991075873375,0.01695067062973976,0.06800538301467896,0.177007257938385,-0.015443190932273865,0.04098254069685936,0.14173147082328797,0.10485364496707916,0.02186693623661995,-0.19998975098133088,0.1751929521560669,0.07770229876041413,0.024256592616438867,-0.08622421324253082,0.07397233694791794,-0.022408250719308854,0.09478963911533356,-0.25323837995529177,0.30683884024620058,-0.022910993546247484,-0.09514406323432923,-0.15550728142261506,-0.05642765760421753,0.12929914891719819,-0.025434397161006929,0.33246296644210818,0.006678428500890732,0.011392905376851559,0.06573013961315155,0.30839580297470095,-0.2676628530025482,-0.10438835620880127,-0.11686630547046662,0.14397434890270234,-0.2437104731798172,-0.2915492057800293,-0.037888336926698688,0.16366472840309144,0.057481326162815097,0.10932062566280365,-0.22184298932552339,-0.007464836351573467,0.28603947162628176,0.11542465537786484,-0.0428563728928566,-0.11240527033805847,0.2504000663757324,-0.13742105662822724,0.17783331871032716,-0.21730142831802369,-0.03668256476521492,0.06133466958999634,0.04671986401081085,-0.10060173273086548,0.062282245606184009,0.11563784629106522,-0.08298950642347336,0.03871472552418709,0.027969351038336755,0.11530064791440964,0.11592955142259598,-0.13562215864658357,0.07721038162708283,-0.15176519751548768,0.14808647334575654,-0.039519015699625018,-0.3668975234031677,0.06864560395479202,-0.052639320492744449,-0.29931122064590456,0.0989898145198822,0.11368018388748169,0.007085693068802357,-0.03631026670336723,-0.1417253017425537,0.016522405669093133,-0.1315699815750122,-0.3012346923351288,0.226535364985466,0.051987502723932269,-0.4546727240085602,-0.2278243452310562,-0.07223305106163025,0.24446715414524079,0.13663192093372346,0.1767658293247223,0.0025930386036634447,-0.0011517341481521726,0.10650075972080231,-0.1383991837501526,-0.11126483231782913,-0.27504411339759829,-0.18463237583637238,0.32993149757385256,-0.15140919387340547,-0.3101348876953125,-0.10828165709972382,0.041040871292352679,-0.05876363068819046,0.09765084087848664,-0.17446361482143403,0.03768514469265938,-0.1959906667470932,-0.026088465005159379,-0.16068419814109803,0.35436543822288515,0.10391703248023987,0.11212163418531418,-0.08820520341396332,0.0068436795845627789,-0.059907522052526477,-0.07304253429174423,-0.224762961268425,0.006104839965701103,0.15713079273700715,-0.11541476100683212,-0.22129113972187043,0.03249291703104973,0.14674091339111329,-0.08129813522100449,-0.0843023806810379,-0.035622354596853259,-0.07720866799354553,-0.27146023511886599,-0.15272757411003114,0.16109010577201844,-0.03590407967567444,-0.04352465644478798,-0.3094788193702698,-0.05043145641684532,0.27226290106773379,0.025548383593559266,0.32717669010162356,-0.1280548870563507,-0.11088253557682038,0.09717187285423279,-0.13239626586437226,0.18095359206199647,-0.1798098236322403,0.03899773210287094,-0.12009269744157791,-0.19096674025058747,0.07114750891923905,-0.09938865900039673,-0.14846721291542054,-0.05824349448084831,-0.1886088252067566,-0.20910313725471497,-0.2482626885175705,0.014309974387288094,0.08573383092880249,0.030957361683249475,0.023427849635481836,0.16543951630592347,-0.2713967263698578,-0.04403821378946304,0.09089155495166779,0.06036433205008507,-0.03739841282367706,-0.2969445586204529,0.023979896679520608,-0.14011846482753755,-0.11001250147819519,0.019043419510126115,-0.124195896089077,0.34158793091773989,0.037923965603113177,0.022609330713748933,0.011681752279400826,-0.11632483452558518,0.20838288962841035,-0.12265297770500183,0.1559288650751114,0.2619727551937103,0.01841370202600956,-0.06221950426697731,0.05942506715655327,0.06815353780984879,0.06485173106193543,0.14289817214012147,-0.24716423451900483,0.007885387167334557,0.08558185398578644,0.07715433835983277,0.05754832178354263,-0.1483898162841797,0.08292336016893387,-0.010598231106996537,-0.009815399535000325,0.11206958442926407,-0.11662940680980683,0.0008838579524308443,0.08957462012767792,-0.10492507368326187,0.142030730843544,-0.10440556704998017,-0.02450639009475708,0.006644427310675383,0.0021786224097013475,0.09264826029539108,-0.16146565973758698,0.030809301882982255,0.05069661885499954,0.07385179400444031,0.18692949414253236,-0.18446533381938935,0.14978453516960145,0.16133473813533784,0.21066544950008393,0.06411959230899811,0.17590080201625825,-0.06298112124204636,-0.12241165339946747,0.1693418025970459,0.11752413213253021,-0.011883907951414585,0.3507469594478607,-0.0006169528351165354,0.07274842262268067,-0.05458557605743408,0.16202101111412049,0.2531556785106659,-0.03537780046463013,0.2713147699832916,0.3877286911010742,-0.16662104427814485,0.10226020961999893,0.09060471504926682,-0.024984877556562425,-0.04096114635467529,-0.00659575778990984,0.13887976109981538,0.26085996627807619,0.023034874349832536,0.01577311009168625,0.024405622854828836,0.11126427352428436,0.07826413214206696,0.01150426547974348,-0.10693982243537903,0.1832069754600525,0.19192923605442048,0.053677380084991458,-0.06659500300884247,-0.05154978483915329,-0.4195067882537842,0.018659066408872606,0.07118377834558487,-0.01960618421435356,0.1105090081691742,-0.2860133647918701,-0.01878362149000168,0.16533808410167695,0.15996554493904115,-0.09156391769647598,-0.09286274760961533,0.010532092303037644,0.17470437288284303,0.24384000897407533,-0.12825068831443788,0.1405697762966156,-0.3220619261264801,0.14789558947086335,0.030408427119255067,-0.3424776792526245,0.0019406020874157549,0.2544904351234436,-0.156639963388443,-0.20271533727645875,0.023167548701167108,-0.27877533435821535,-0.3900509476661682,0.08435435593128205,0.06873244047164917,-0.15842361748218537,0.09249183535575867,-0.1450493186712265,-0.04022582247853279,0.03876727446913719,0.34198877215385439,-0.06570438295602799,-0.326713889837265,0.3479026257991791,-0.1694292575120926,-0.11139391362667084,0.024494126439094545,0.030949238687753679,0.009253853932023049,0.27247393131256106,0.01584456115961075,-0.19997158646583558,0.08035515993833542,0.4271044433116913,-0.004118475131690502,-0.1270144283771515,0.1846982091665268,-0.0815151110291481,0.031983066350221637,0.16527296602725984,-0.09815779328346253,0.1611640453338623,-0.03020717389881611,0.06612217426300049,0.00921744666993618,-0.3565637767314911,0.10198754072189331,0.057667478919029239,-0.07771243155002594,-0.3276214897632599,-0.12782931327819825,-0.043544381856918338,-0.12858232855796815,-0.03452988713979721,-0.11246392875909805,-0.007442543748766184,-0.1403672844171524,-0.17257070541381837,0.017996937036514283,-0.18056704103946687,-0.14112761616706849,0.01838524639606476,-0.19753903150558473,-0.05877813324332237,-0.0380341000854969,0.08420164883136749,-0.4946210980415344,0.033018771559000018,0.022753221914172174,-0.029819609597325326,0.1586911678314209,0.05906893312931061,-0.07573981583118439,-0.12811551988124848,-0.08339686691761017,-0.038150351494550708,0.14703555405139924,0.10265100747346878,-0.19307799637317658,0.1357196867465973,-0.08619844913482666,0.08388626575469971,-0.034323178231716159,-0.17562121152877809,0.005665007047355175,-0.07222357392311096,-0.1267155259847641,0.21030931174755097,0.01240047812461853,-0.0956638902425766,-0.06112589314579964,0.2899901568889618,0.1553053855895996,-0.16075114905834199,-0.027630256488919259,0.09572796523571015,-0.06562656909227371,0.012991044670343399,-0.041865646839141849,0.011492658406496048,-0.0025364744942635299,0.14100025594234467,0.09008481353521347,-0.02064693719148636,0.06524418294429779,-0.02952498570084572,-0.15041594207286836,0.04892957955598831,0.2013954073190689,-0.14027585089206696,-0.17848661541938783,-0.2085566520690918,-0.0939367488026619,-0.22702401876449586,0.29682281613349917,0.07539386302232743,0.2248236984014511,-0.023010486736893655,-0.20799829065799714,0.1068403571844101,-0.07685225456953049,0.04494943097233772,-0.19489920139312745,0.016977667808532716,0.08772314339876175,0.012543261982500553,0.26313093304634097,0.04313401132822037,-0.18230290710926057,0.1477721482515335,0.04684249311685562,-0.007891042158007622,-0.10612934082746506,-0.0470568872988224,-0.03511233627796173,-0.0543212927877903,0.0633111223578453,-0.056905895471572879,0.09405185282230377,0.10276486724615097,0.11336249858140946,-0.27698737382888796,-0.01910114288330078,0.21410708129405976,0.0574505515396595,0.054612115025520328,0.18393927812576295,-0.1640809029340744,0.05640003830194473,-0.15076935291290284,-0.03148520737886429,-0.24158364534378053,-0.017126964405179025,-0.018861908465623857,0.020434541627764703,-0.028246477246284486,0.07587111741304398,-0.20493073761463166,0.3141719400882721,-0.10504123568534851,0.1273626983165741,0.14246398210525514,0.13385912775993348,0.15694716572761537,-0.08278878033161164,0.23883609473705293,0.0011705432552844287,-0.0243084579706192,0.02399509958922863,-0.30629682540893557,0.16027434170246125,0.08572228997945786,-0.06287142634391785,-0.048746444284915927,-0.042068108916282657,0.050028298050165179,-0.0908699780702591,-0.15001210570335389,-0.02762453816831112,0.10754863172769547,0.10138113051652909,0.031241901218891145,0.10445088893175125,0.12627862393856049,-0.15554845333099366,-0.07093236595392227,-0.006959437392652035,-0.13238157331943513,0.14690814912319184,0.1779957115650177,0.12664514780044557,-0.036516737192869189,-0.24202971160411836,-0.12582257390022279,0.03669533506035805,-0.09111834317445755,0.007678114343434572,-0.2604682147502899,0.28703051805496218,0.022731835022568704,-0.16890516877174378,0.1745196431875229,0.04662970453500748,-0.1902443915605545,-0.16806913912296296,0.09121450781822205,0.0841502696275711,0.11142421513795853,0.057148661464452746,-0.1470051258802414,-0.12519918382167817,0.20600473880767823,-0.10587196052074433,0.03213668614625931,-0.02391020953655243,0.09911822527647019,0.000376055744709447,-0.020846392959356309,0.07467666268348694,0.16186077892780305,-0.057997241616249087,0.2373342663049698,0.2105136513710022,0.1295287162065506,-0.1338370442390442,-0.028853435069322587,-0.3512750566005707,-0.11172953248023987,0.12375305593013764,-0.25191593170166018,0.24888813495635987,-0.10937009006738663,-0.06954077631235123,0.004271511919796467,-0.00604779040440917,-0.16634541749954225,0.27420035004615786,-0.20129643380641938,-0.16212254762649537,-0.04847101867198944,0.047259245067834857,0.16346053779125215,0.09725180268287659,0.11394598335027695,0.022992605343461038,0.038844067603349689,0.34037530422210696,0.07054927200078964,0.12281599640846253,0.13785086572170258,-0.15031370520591737,0.016699248924851419,0.33811548352241518,-0.16452477872371674,-0.006657824385911226,-0.26078617572784426,0.16596131026744843,-0.21583609282970429,0.06002840772271156,-0.2673780620098114,0.13796083629131318,-0.22894595563411714,0.18354672193527223,-0.06489323079586029,0.22360017895698548,0.08113636076450348,-0.021222155541181566,-0.04175923392176628,-0.005877740681171417,0.18243415653705598,0.11231246590614319,0.10126552730798722,-0.1031290665268898,-0.011751724407076836,0.04437272623181343,-0.19019950926303864,-0.27378049492836,-0.11446301639080048,0.019796079024672509,0.003377562388777733,-0.08371129631996155,0.014564471319317818,0.14996977150440217,-0.04447631165385246,-0.21106615662574769,0.5315554738044739,-0.23654095828533173,0.29259079694747927,0.022836096584796907,0.0574335902929306,-0.3245459794998169,0.4484683573246002,-0.07882577180862427,-0.056279152631759647,-0.0034723517019301655,-0.0709884911775589,0.16278259456157685,0.010858902707695961,-0.0655198022723198,-0.08765746653079987,0.025203874334692956,0.10327252745628357,0.2042841911315918,0.1166885644197464,0.09591653943061829,-0.17025302350521089,-0.13456562161445619,-0.0709918886423111,0.16159863770008088,-0.30357518792152407,-0.2496262639760971,0.23068992793560029,0.06871741265058518,-0.03597746416926384,0.32036346197128298,-0.15404105186462403,0.26131296157836916,0.22728271782398225,-0.1391046643257141,-0.3061177730560303,-0.03705432265996933,0.1974276900291443,0.1626087725162506,-0.003834100440144539,0.08722271770238877,-0.17804910242557527,0.022292179986834527,-0.1406601071357727,0.07742369174957276,-0.23435814678668977,-0.19078446924686433,0.03547956049442291,-0.5990201234817505,-0.11976395547389984,-0.15454362332820893,-0.14258582890033723,0.24286431074142457,-0.1322275847196579,-0.12634865939617158,-0.09371867775917053,-0.13537520170211793,-0.049856144934892657,-0.13583795726299287,0.033395521342754367,0.051573496311903,0.07390250265598297,0.11936871707439423,0.15241365134716035,-0.10349306464195252,-0.19184307754039765,-0.09160789847373963,-0.023813171312212945,-0.16804605722427369,0.15381084382534028,-0.16706582903862,0.04871099814772606,-0.04278622940182686,-0.27286678552627566,0.20440681278705598,0.09739499539136887,0.09903539717197418,0.31834834814071658,0.0041564758867025379,-0.05246301367878914,0.4155031442642212,0.12612514197826386,-0.0525139644742012,-0.017813097685575486,0.15125340223312379,-0.14467012882232667,-0.3002609312534332,0.07887722551822663,0.0919276773929596,0.13409772515296937,-0.2735467255115509,-0.23380185663700105,0.08565766364336014,-0.3165678083896637,0.14112132787704469,0.011932800523936749,-0.07873277366161347,0.040733203291893008,-0.3827801048755646,0.030777813866734506,0.1260003000497818,-0.053950343281030658,-0.012169713154435158,0.18145926296710969,-0.20441769063472749,-0.009305157698690892,-0.08605510741472244,0.11514117568731308,-0.017734818160533906,0.19004309177398683,0.04650275036692619,-0.013560689985752106,0.17386433482170106,0.41555777192115786,-0.16633565723896027,-0.2848091423511505,0.23166635632514954,-0.08648927509784699,0.19832004606723786,-0.10091530531644821,-0.026580719277262689,-0.21877430379390717,0.07611643522977829,0.16477146744728089,-0.1478968858718872,0.39089280366897585,-0.16985036432743073,0.033617302775382999,0.03118339739739895,-0.055494923144578937,-0.04720151424407959,0.006864776369184256,-0.054362185299396518,-0.22955909371376038,-0.24828672409057618,-0.24247106909751893,-0.19579660892486573,0.0902547538280487,0.0028709450270980598,-0.21461710333824159,-0.1264546513557434,-0.01635798253118992,-0.02655399963259697,-0.15489070117473603,0.01476294081658125,-0.3652747869491577,0.14961126446723939,0.04115976765751839,-0.2596772313117981,-0.2519731819629669,0.017116399481892587,0.056786708533763888,0.056799303740262988,-0.28513213992118838,0.07826751470565796,0.11031925678253174,0.047657985240221027,0.00020078185480087996,0.1108088493347168,-0.1251613199710846,-0.11127129197120667,0.030143029987812043,0.12559300661087037,-0.2954843044281006,0.09454268217086792,0.07779751718044281,-0.22709177434444428,-0.1600438803434372,-0.33392220735549929,0.0726257935166359,-0.05705930292606354,0.2746810019016266,-0.1477627456188202,-0.04320530593395233,-0.05641188099980354,0.06854728609323502,0.015148604288697243,-0.11179690808057785,-0.07917292416095734,-0.016322791576385499,0.20374859869480134,0.33205941319465639,0.11318955570459366,0.2811491787433624,-0.1332276314496994,-0.01393553614616394,0.1859414279460907,-0.0024928483180701734,-0.20131996273994447,0.03556717559695244,0.010956910438835621,-0.42089834809303286,-0.11702029407024384,-0.34939879179000857,0.029102232307195665,-0.038440242409706119,0.35835927724838259,0.07230034470558167,-0.09769582003355026,0.0985097885131836,0.0934082493185997,0.30905070900917055,0.00956202857196331,-0.1378478705883026,0.10477658361196518,-0.29794636368751528,-0.08469903469085694,-0.023913688957691194,0.23244081437587739,-0.15023361146450044,0.22961799800395966,0.0676722303032875,0.14852823317050935,0.053829774260520938,0.10880322009325028,-0.007619939278811216,-0.274726003408432,0.13870079815387727,-0.20907756686210633,0.08893166482448578,0.26036563515663149,0.013924204744398594,0.023869117721915246,0.0877404436469078,0.26149603724479678,0.2833925783634186,-0.194061741232872,0.09942106157541275,-0.13622502982616425,-0.06374237686395645,0.18306612968444825,0.12324541062116623,-0.10908021777868271,0.10995621979236603,-0.23791509866714478,-0.00747869024053216,0.18446438014507295,0.1025523990392685,0.4038502275943756,-0.0600266233086586,-0.05453776940703392,0.03106546401977539,0.24961251020431519,0.2967383563518524,0.07602988928556442,-0.1537647396326065,0.036957912147045138,-0.028990494087338449,0.07329513132572174,0.08905360102653504,-0.035905253142118457,0.2239927053451538,-0.11515626311302185,0.08265817165374756,-0.24230985343456269,0.1338733434677124,-0.17645902931690217,-0.024960672482848169,-0.18277592957019807,0.05401361733675003,0.02759232558310032,0.004614671692252159,-0.17917345464229585,0.16305497288703919,-0.19573087990283967,-0.04324493557214737,0.20773787796497346,0.19134442508220673,-0.21641309559345246,-0.14023876190185548,0.02883888967335224,0.36700746417045596,0.02895459346473217,0.08566836267709732,-0.1111784353852272,-0.01883137971162796,0.04032624140381813,0.10876096785068512,0.2483448088169098,-0.025635909289121629,0.10410722345113754,-0.025986047461628915,0.28102195262908938,-0.168958380818367,-0.127355694770813,0.10079047083854675,0.23098839819431306,0.020180635154247285,0.15726733207702638,0.30112743377685549,0.03855026140809059,0.11141157150268555,-0.030826134607195855,-0.054368313401937488,-0.04151967167854309,0.061370812356472018,0.023320620879530908,0.08619394898414612,0.008077114820480347,-0.19637112319469453,-0.00897995289415121,0.09192369133234024,0.14588601887226106,-0.08143486827611923,0.13628481328487397,0.03977160528302193,-0.30563926696777346,-0.15992622077465058,0.20059630274772645,-0.06457728892564774,0.08903408795595169,-0.18530869483947755,0.051844604313373569,-0.1335872858762741,-0.09915641695261002,-0.08697497099637985,-0.04019813612103462,-0.1541411578655243,-0.24517390131950379,-0.056871555745601657,-0.053384121507406238,0.21062040328979493,-0.2440037578344345,0.21058890223503114,-0.4190661609172821,-0.012434301897883416,0.017890751361846925,-0.07200159132480622,-0.36026355624198916,0.02666235901415348,-0.0913700982928276,-0.27821919322013857,-0.2416481375694275,-0.019045062363147737,-0.06619992852210999,-0.15593257546424867,0.16072998940944673,-0.11853372305631638,0.10301046818494797,0.06537318229675293,-0.005538620054721832,-0.012616694904863835,0.3077550530433655,-0.27329739928245547,0.1845301389694214,0.06542413681745529,0.08287850022315979,0.024374082684516908,0.030674804002046586,0.38217252492904665,-0.01565096527338028,0.037525784224271777,-0.16076050698757173,-0.11450449377298355,0.0796222910284996,-0.2829259932041168,0.08203959465026856,0.11300282180309296,0.2714187204837799,-0.0375082865357399,0.10395172983407974,0.28272125124931338,0.12607984244823457,0.12477653473615647,-0.18558169901371003,0.06567157059907913,0.2547604739665985,-0.28716155886650088,0.07013818621635437,0.11671862751245499,0.18091000616550446,0.051786214113235477,0.17092080414295197,-0.21728461980819703,0.006037382408976555,-0.4190039038658142,0.06353388726711273,-0.08767484873533249,-0.03136266767978668,0.015782609581947328,-0.11696996539831162,0.14307188987731934,-0.15138652920722962,-0.08702242374420166,0.04743252322077751,-0.1648245006799698,-0.04792763665318489,0.05188596993684769,-0.030809147283434869,-0.2482728809118271,0.10046707838773728,-0.05188982933759689,0.1444072276353836,0.13466224074363709,-0.06631334871053696,0.23657403886318208,-0.14717735350131989,-0.009147432632744313,-0.06909896433353424,0.15051040053367616,0.15663325786590577,0.21854418516159059,0.2961641252040863,0.21554642915725709,0.07905242592096329,0.05096808820962906,0.14026503264904023,0.4192218780517578,-0.05933738499879837,0.18682068586349488,0.22583095729351045,-0.2539896070957184,0.09266192466020584,-0.3288126587867737,-0.14019042253494264,-0.15679964423179627,-0.20447316765785218,-0.37748342752456667,-0.11761161684989929,0.10119350254535675,0.01692173071205616,-0.10878738760948181,-0.18226978182792664,0.007498893421143293,-0.11695654690265656,0.2421407252550125,0.20671673119068147,0.4249598979949951,-0.30318978428840639,-0.09208238124847412,-0.17888368666172028,-0.0783238559961319,0.053178660571575168,-0.25219017267227175,0.3314557671546936,0.0024990267120301725,0.1022835373878479,-0.2191046178340912,-0.06511835008859635,-0.0947013646364212,-0.07652455568313599,-0.04619810730218887,0.18987533450126649,0.006209035869687796,-0.0991162657737732,0.006475453730672598,-0.20324842631816865,0.029516512528061868,-0.09189870208501816,-0.02124685049057007,0.12202838808298111,0.11064129322767258,0.22658959031105042,0.08100757747888565,0.023850420489907266,0.019404610618948938,-0.0730343833565712,-0.15209153294563294,-0.0747523307800293,0.1795654594898224,0.2792709469795227,0.08397144079208374,0.00006620147178182378,-0.051320161670446399,0.1334049254655838,0.013812613673508168,0.18291786313056947,0.17830368876457215,-0.07023855298757553,0.19858670234680177,0.10963969677686691,-0.11243554204702378,0.20050111413002015,-0.09447498619556427,0.24493028223514558,-0.08237775415182114,-0.25712984800338747,-0.020067933946847917,0.15801122784614564,-0.10392583906650543,-0.18393829464912415,-0.047874316573143008,0.05175164341926575,0.017904037609696389,0.017980176955461503,0.12039776891469956,0.1754918247461319,-0.13474217057228089,0.302807480096817,0.0011120651615783573,0.0689110979437828,-0.017537211999297143,0.033927589654922488,-0.10125993192195893,-0.2139803171157837,0.018608637154102327,-0.07137424498796463,0.0037265573628246786,0.11853759735822678,-0.22348535060882569,0.08519994467496872,-0.23879288136959077,0.04919198527932167,0.0386774055659771,0.28442898392677309,0.017013199627399446,0.28725647926330569,0.04318029060959816,-0.25547343492507937,0.19984816014766694,0.1380728781223297,-0.06920026242733002,-0.06365802139043808,-0.14531292021274568,-0.17213892936706544,-0.020822657272219659,0.25429627299308779,0.06302745640277863,-0.0455499142408371,0.056375838816165927,-0.15490660071372987,0.0000304347304336261,-0.27850663661956789,0.005493746604770422,-0.13206076622009278,-0.0150504931807518,-0.039149727672338489,-0.1796075403690338,-0.13070520758628846,0.0720733031630516,-0.10321567952632904,-0.019335726276040078,0.01791848987340927,0.0060974592342972759,0.009124050848186016,0.25515589118003847,0.11504942923784256,-0.09358265995979309,-0.1010642871260643,-0.08199579268693924,-0.0783950611948967,-0.05361730605363846,-0.10303245484828949,0.16518816351890565,0.021376900374889375,0.08272423595190048,0.09782164543867111,0.010050540789961815,0.07465056329965592,-0.06613676249980927,-0.07492632418870926,0.17846201360225678,-0.1477356106042862,0.34783852100372317,0.2360111027956009,-0.29440590739250185,0.22150789201259614,0.19815145432949067,0.21184974908828736,0.01623721607029438,-0.2536585330963135,-0.12335976213216782,-0.10079295188188553,0.19222474098205567,-0.14486677944660188,-0.08547110855579376,-0.05021587014198303,-0.2761535048484802,-0.0755501314997673,-0.05337683856487274,-0.01567309908568859,-0.07037486135959625,0.15283656120300294,-0.22895893454551698,-0.01550251618027687,-0.10942084342241287,0.11905201524496079,0.014551853761076928,-0.0337478369474411,-0.141377255320549,-0.16925446689128877,-0.054995208978652957,0.038327910006046298,0.014337657950818539,0.004246694967150688,0.05490449070930481,0.06302528828382492,0.07054311037063599,0.018283989280462266,0.00009182524809148163,-0.0927051305770874,-0.14838261902332307,0.0007896769093349576,-0.008585232309997082,0.15302881598472596,0.12715476751327516,0.23401473462581635,-0.18911400437355042,0.3293796479701996,-0.2692118287086487,-0.13862460851669312,0.003569073276594281,0.3912964165210724,0.10639386624097824,0.16360551118850709,0.2900612950325012,0.11155890673398972,-0.03439752385020256,0.12725241482257844,0.03591318055987358,0.05917303264141083,-0.08667518943548203,0.17023785412311555,0.1291494071483612,0.14321783185005189,-0.3033084571361542,-0.024387355893850328,0.2673098146915436,-0.25145187973976138,-0.13281168043613435,0.08116476982831955,-0.01653437875211239,-0.3337347209453583,0.08569862693548203,-0.17201125621795655,-0.3573649525642395,-0.1918792426586151,-0.0026976601220667364,-0.15484872460365296,-0.3656993806362152,-0.0010928130941465498,0.13206890225410462,0.2881053388118744,0.2211734801530838,-0.05044856294989586,-0.0662371814250946,0.0598156563937664,0.02822425588965416,0.20787093043327332,-0.07704903185367584,-0.04834314063191414,-0.11586946249008179,0.20353393256664277,0.030429532751441003,0.1497185081243515,-0.052166182547807696,-0.11748430132865906,-0.08082346618175507,-0.04665008559823036,-0.11046499013900757,-0.153581902384758,-0.19937115907669068,0.1113186627626419,0.021961800754070283,0.08472634851932526,0.02693021111190319,0.11468993872404099,0.27461686730384829,-0.11448296904563904,-0.2531719505786896,-0.051861945539712909,-0.18616947531700135,-0.10258530080318451,-0.11343621462583542,0.07651858031749726,-0.16150648891925813,0.07989081740379334,-0.20799985527992249,0.08211319893598557,-0.013240269385278225,-0.05879446864128113,0.11270586401224137,-0.14277182519435883,0.0466998927295208,0.12252391874790192,0.1613653302192688,-0.03485412895679474,-0.060874760150909427,-0.005943527910858393,-0.09240317344665528,0.029145684093236924,-0.08844441920518875,-0.04075343534350395,-0.15948428213596345,0.3348318040370941,-0.1315680295228958,0.14727799594402314,-0.0328374058008194,0.056889135390520099,-0.0496039055287838,-0.04171782732009888,0.21310897171497346,0.011498499661684037,-0.12248754501342774,0.2018624097108841,0.1325870156288147,0.1311144083738327,0.2116726189851761,0.1809634268283844,-0.12844732403755189,0.2105119228363037,0.18755680322647096,-0.039846207946538928,0.10759234428405762,-0.09773910790681839,-0.008917497470974923,-0.1922403872013092,-0.038184501230716708,0.05115574970841408,0.10300055146217346,-0.1283694952726364,-0.18659700453281403,0.14033037424087525,0.2231391966342926,-0.005224738270044327,-0.10640709847211838,-0.042801130563020709,-0.11535588651895523,-0.0858977809548378,0.14205320179462434,0.02930588647723198,0.02916787378489971,-0.18950752913951875,0.018965400755405427,0.18743084371089936,-0.1586948037147522,0.17788678407669068,-0.02367342635989189,-0.07372308522462845,-0.0344870463013649,0.2581811249256134,-0.2799139618873596,0.2653528153896332,-0.24658967554569245,0.24782055616378785,-0.15708935260772706,0.04855182766914368,0.21174800395965577,0.04938492923974991,-0.046593766659498218,-0.16621868312358857,-0.11494506150484085,-0.0019367452478036285,-0.09497449547052384,0.0913228765130043,-0.009669112041592598,0.008799577131867409,-0.30967453122138979,0.19593781232833863,0.2782624363899231,0.12382166087627411,0.23810561001300813,-0.4451254904270172,-0.006397299934178591,-0.09696498513221741,-0.12882694602012635,-0.22132767736911775,0.20480351150035859,0.1734965294599533,0.19416211545467378,-0.10817728936672211,0.20996451377868653,0.18323548138141633,-0.10056570172309876,-0.1821056753396988,-0.04884990304708481,0.011199792847037316,0.17444802820682527,-0.06401853263378144,-0.10647532343864441,0.12213414907455445,-0.10944357514381409,0.17283634841442109,0.01292311679571867,-0.0971955806016922,0.030087865889072419,0.14504361152648927,-0.17408309876918794,0.031103504821658136,-0.12482346594333649,0.1550060212612152,0.12025712430477143,0.08366154134273529,0.10711846500635147,-0.10645675659179688,-0.02805659919977188,0.07868556678295136,0.39102381467819216,0.0038365505170077087,0.13023102283477784,0.13022227585315705,-0.14357544481754304,0.05216500163078308,-0.19503523409366609,-0.1748357117176056,-0.11063682287931442,0.0399843230843544,0.024550294503569604,-0.062337495386600497,0.25827011466026308,0.19046716392040254,-0.16478681564331056,0.4940098226070404,-0.1627638190984726,0.37757059931755068,0.08111950755119324,0.11303364485502243,-0.3623054027557373,0.3737953305244446,-0.09460894018411637,-0.05029768496751785,0.05264562740921974,0.12911541759967805,0.2525935173034668,0.002461758442223072,0.1595543771982193,0.1788838654756546,0.0652962401509285,0.06919798254966736,0.16603326797485352,-0.1049899086356163,0.10536583513021469,0.030308954417705537,0.06499183923006058,-0.16717420518398286,-0.3000524640083313,0.01691635325551033,-0.00308650778606534,-0.12425325065851212,-0.159280464053154,0.3131113648414612,0.10879933834075928,-0.02268989384174347,0.003862792393192649,-0.14838559925556184,-0.048345595598220828,0.07931890338659287,0.25750404596328738,-0.10996751487255097,0.08289524167776108,-0.052421506494283679,-0.22809062898159028,-0.019312962889671327,-0.07418659329414368,0.09008003026247025,0.002417902462184429,-0.09534499794244766,0.2876023054122925,-0.1742604523897171,0.09441836178302765,0.2949654459953308,0.05133865028619766,0.011686954647302628,0.04792572930455208,0.10511862486600876,-0.10126957297325134,-0.08171481639146805,0.006441107019782066,0.0749879851937294,-0.3317069411277771,-0.025127245113253595,0.22772832214832307,-0.04999123141169548,-0.2958748936653137,-0.16897058486938477,0.09078805893659592,0.006108936388045549,-0.2198132574558258,-0.042928650975227359,-0.11095251142978668,-0.03255718946456909,0.13418975472450257,-0.00005449113450595178,-0.10530243813991547,-0.11906421929597855,0.21144364774227143,-0.1423700749874115,0.2159024178981781,-0.04444441571831703,0.07509345561265946,0.2671082317829132,0.13395728170871736,-0.023663416504859926,0.05469634011387825,0.13606402277946473,-0.042634401470422748,0.16364668309688569,0.03281423822045326,-0.04910708963871002,-0.24178025126457215,0.1847505420446396,-0.1060483381152153,0.1151365339756012,0.12004659324884415,0.057397905737161639,0.004742277320474386,-0.20364278554916383,-0.12391190230846405,0.12619252502918244,0.03915050998330116,0.40020933747291567,0.13526631891727448,0.015268988907337189,0.09971806406974793,0.07462869584560394,-0.011415088549256325,-0.17392389476299287,0.02130519039928913,-0.36340007185935976,0.03513175621628761,-0.2443893700838089,-0.07817762345075607,-0.1632583737373352,-0.13590005040168763,0.11654087901115418,0.13863343000411988,0.16079750657081605,0.02390822023153305,-0.05569881945848465,0.03705209121108055,0.08877928555011749,-0.16523347795009614,-0.25019216537475588,-0.119967982172966,-0.025033198297023774,0.04083797335624695,0.14972199499607087,0.08285361528396607,-0.0888652428984642,0.08071808516979218,-0.058323364704847339,0.024167407304048539,-0.12945562601089478,0.12128519266843796,-0.051581889390945438,0.327903151512146,-0.262355238199234,-0.1055895984172821,-0.18486709892749787,-0.21082842350006104,-0.04864506796002388,0.050727516412734988,0.07078487426042557,0.07898896932601929,0.058045946061611179,0.23094654083251954,0.028803100809454919,-0.2703394591808319,-0.017625799402594568,-0.011631246656179428,0.15051913261413575,0.1360391080379486,0.16207511723041535,0.008744660764932633,-0.03710494562983513,-0.23479585349559785,0.032917365431785586,-0.03642400726675987,-0.004137999843806028,0.1121896281838417,0.07379300892353058,0.03313320875167847,-0.19281259179115296,-0.14033815264701844,-0.0681186318397522,0.3247617483139038,-0.07319299876689911,0.14039850234985352,-0.22749999165534974,0.10507645457983017,0.1222938597202301,0.03081251122057438,0.10784104466438294,-0.03095204569399357,0.1729472130537033,0.08230259269475937,-0.2678452432155609,0.02682357095181942,0.3297280967235565,-0.10131998360157013,0.031214939430356027,0.019857315346598626,-0.06653792411088944,-0.01503345649689436,-0.1982593685388565,0.15220734477043153,0.04578631371259689,0.011324295774102211,-0.22945468127727509,0.02079647034406662,-0.00848487950861454,0.0895620584487915,-0.2212785929441452,0.3343275487422943,-0.173050656914711,0.2227788269519806,-0.012233932502567768,0.046127162873744968,0.009748650714755059,0.0052655828185379509,0.12827809154987336,-0.17871274054050446,-0.0802772268652916,-0.20900900661945344,0.07586215436458588,0.058379121124744418,-0.3940073847770691,0.03132001683115959,0.23778396844863892,-0.044374581426382068,-0.09558211266994477,-0.14491340517997743,0.020853083580732347,-0.14177213609218598,-0.0285042617470026,-0.10513492673635483,-0.238242968916893,0.06798702478408814,0.3674779534339905,0.02599349617958069,0.168905571103096,-0.21090303361415864,-0.11245623230934143,0.28069746494293215,-0.030433636158704759,0.05335841327905655,-0.09336856007575989,-0.10153678804636002,-0.05933017656207085,0.2342592030763626,0.0745651125907898,0.034365035593509677,0.08588118851184845,0.15587016940116883,0.10911441594362259,0.02511492557823658,-0.05400076508522034,-0.0773727223277092,-0.17614522576332093,-0.2670409083366394,0.18892543017864228,-0.003568030195310712,0.26782816648483279,-0.0883617252111435,-0.018664255738258363,0.056045882403850558,-0.27640920877456667,0.166746124625206,0.2011188566684723,-0.1975862979888916,-0.17548008263111115,-0.03807789459824562,-0.15400707721710206,0.022721324115991594,0.23015320301055909,0.23851561546325684,0.1347055286169052,0.054577577859163287,-0.12095892429351807,0.00341010675765574,-0.1538763791322708,0.19485028088092805,-0.032576389610767367,-0.0419529564678669,0.10822384804487229,0.30260607600212099,0.1663028597831726,-0.20237086713314057,0.1876814067363739,0.18171553313732148,-0.06663347035646439,-0.17245621979236604,0.037750545889139178,-0.06935831159353256,0.056918833404779437,-0.09858669340610504,0.1981799304485321,-0.19385404884815217,-0.24608886241912843,-0.08526061475276947,0.09564025700092316,-0.20057719945907594,-0.017401928082108499,0.07650548219680786,0.015751000493764879,-0.01994675025343895,-0.16906729340553285,-0.11053664982318878,-0.2174564152956009,0.0976458489894867,0.38376739621162417,-0.03648743778467178,-0.03229619562625885,-0.19890305399894715,-0.051148928701877597,-0.014540120027959347,-0.23325009644031526,0.16491493582725526,-0.23446106910705567,-0.05045497417449951,-0.15673717856407166,-0.12187571078538895,-0.14694282412528993,-0.15644748508930207,0.05225607380270958,-0.08945923298597336,0.15287615358829499,-0.012458216398954392,-0.26657718420028689,0.021085074171423913,-0.04275916516780853,0.10027855634689331,0.11427021026611328,-0.2585102319717407,0.13501371443271638,0.005880249198526144,-0.030542895197868348,0.09129735827445984,0.15791594982147218,-0.05002401024103165,0.09843337535858154,-0.21483726799488069,-0.08578155189752579,-0.13357242941856385,0.09857504069805145,0.053540702909231189,0.0721701979637146,-0.3787480890750885,0.14019006490707398,-0.19668932259082795,0.06270640343427658,0.18349744379520417,0.10713115334510803,-0.09187223762273789,0.1500159054994583,0.0032391808927059175,-0.012314272113144398,0.001936582149937749,0.06715437769889832,-0.13644813001155854,0.30837282538414,0.046747591346502307,0.18477866053581239,0.06405127793550492,0.12731528282165528,0.13945768773555757,-0.010132384486496449,0.002874159486964345,-0.010284695774316788,-0.05352349951863289,-0.22315065562725068,-0.22160987555980683,-0.011888298206031323,-0.28746333718299868,-0.08706030994653702,0.4179610013961792,0.13037161529064179,0.08080000430345535,0.04141673818230629,-0.05020006373524666,0.08924712240695954,0.08539728075265885,-0.13957883417606355,-0.03022894449532032,-0.004988722037523985,-0.16543763875961305,0.015886735171079637,-0.012743871659040451,-0.02319463901221752,0.013507306575775147,0.19965624809265138,-0.012854889035224915,0.1658800095319748,-0.15241681039333344,-0.0547415129840374,-0.006649206858128309,0.30519381165504458,-0.1340298056602478,-0.14942477643489839,0.2588021159172058,0.35810762643814089,0.2502458393573761,0.340663343667984,-0.09487252682447434,0.1725374013185501,-0.007207474671304226,0.07265980541706085,0.13572609424591065,0.19404259324073792,0.22091643512248994,0.32296285033226015,-0.3161071240901947,0.014786045998334885,0.1616765558719635,0.09476669877767563,0.1952364295721054,-0.1110544204711914,-0.18951109051704408,-0.1581326425075531,-0.06456536054611206,-0.00569005124270916,0.13521474599838258,0.1526917666196823,-0.3378109037876129,-0.09807506203651428,0.260031521320343,-0.10280957072973252,-0.2668193280696869,0.2594144344329834,0.008036958053708077,0.03252780809998512,0.0985579863190651,0.29683178663253786,-0.2235473245382309,-0.2519646883010864,-0.1887398660182953,-0.10823460668325424,0.1182580515742302,-0.3788042664527893,-0.17075185477733613,-0.026803860440850259,-0.04089624062180519,-0.07519784569740296,-0.1617271453142166,-0.14811304211616517,-0.16513381898403169,-0.022979004308581353,0.48442402482032778,-0.11386044323444367,0.237930566072464,0.08153891563415528,-0.12401014566421509,0.15705586969852448,-0.023290010169148446,0.14196383953094483,-0.018830833956599237,0.01722884550690651,-0.2589358985424042,-0.04708428308367729,0.2672126293182373,-0.03728307783603668,0.11236799508333206,0.07986709475517273,0.03695257753133774,0.16850899159908296,0.036282993853092197,-0.11705254763364792,-0.11739224940538407,-0.24272771179676057,-0.19246165454387666,-0.2151094228029251,0.19315235316753388,-0.034573644399642947,-0.028521880507469178,0.06008363515138626,0.1921549290418625,0.04678669199347496,0.13163746893405915,0.07629499584436417,0.17104986310005189,0.09709559381008148,0.13153140246868134,-0.2088252156972885,0.24501675367355348,0.20922134816646577,0.14584216475486756,0.13722319900989533,0.13001742959022523,0.13472463190555573,-0.01922818273305893,-0.04884793981909752,0.06113782897591591,-0.027125075459480287,0.15599465370178224,0.14603401720523835,0.0027191261760890486,0.24341902136802674,-0.18425743281841279,0.2500334680080414,0.31596535444259646,-0.08090590685606003,-0.012517454102635384,0.09851241856813431,0.05505599454045296,-0.0067648799158632759,-0.2579745948314667,-0.08863142877817154,0.07841447740793228,-0.027757296338677408,-0.167533740401268,-0.24205754697322846,-0.06046511232852936,-0.1294735074043274,0.05517972633242607,0.039658837020397189,-0.08301134407520294,0.04947980120778084,-0.047754790633916858,0.08085376769304276,-0.03628315031528473,-0.005157799925655127,-0.20373757183551789,0.012782545760273934,0.11120947450399399,0.008942816406488419,0.09237097203731537,-0.05192809924483299,0.017663266509771348,-0.08769506216049195,-0.016635337844491006,-0.2613086700439453,-0.13529473543167115,0.09139968454837799,0.021731838583946229,-0.14193163812160493,-0.2681845426559448,0.021921178326010705,0.06908980756998062,0.19094298779964448,-0.012789469212293625,-0.03189345821738243,-0.0852850079536438,-0.04514521360397339,0.06423533707857132,-0.09015186131000519,0.08789418637752533,0.23917938768863679,0.023088838905096055,-0.1667252480983734,-0.03599695488810539,-0.26555103063583376,0.18275029957294465,0.00804124679416418,-0.21798564493656159,-0.1445581018924713,-0.09098983556032181,0.043919600546360019,-0.1237727701663971,-0.026253798976540567,0.3345107138156891,0.047198425978422168,-0.20595867931842805,-0.1838754415512085,-0.08052239567041397,-0.1113593578338623,-0.050270844250917438,-0.2547142505645752,-0.02492103911936283,0.14636386930942536,-0.06991520524024964,-0.1872909516096115,-0.03889176994562149,0.038592543452978137,-0.11384628713130951,0.0806940421462059,0.020218845456838609,-0.13259580731391908,-0.26986831426620486,-0.08779553323984146,0.11019124835729599,0.12304923683404923,-0.271161288022995,0.028025804087519647,0.16678093373775483,-0.04485171288251877,-0.22974705696105958,-0.0504586286842823,-0.04639057442545891,-0.10332344472408295,0.01200063992291689,0.18770265579223634,-0.032172828912734988,-0.024802742525935174,0.03212825581431389,-0.1308504194021225,-0.07156654447317124,-0.05125505104660988,-0.21908600628376008,0.03406698256731033,-0.031170539557933809,-0.003555196337401867,-0.14324156939983369,0.08726350963115692,0.1253073811531067,0.06769169867038727,0.03249908983707428,-0.09001115709543228,0.05521197244524956,-0.2784558832645416,0.10575892776250839,0.05597716569900513,0.057222265750169757,-0.25906047224998476,-0.04096335172653198,0.1770009696483612,-0.2005796581506729,0.31997451186180117,0.19647501409053803,-0.09082648903131485,-0.09308835119009018,-0.3414797782897949,0.15086987614631654,-0.11189422011375427,0.032405007630586627,0.2675171494483948,-0.03136458247900009,0.24603669345378877,-0.12050184607505799,0.07013282924890518,0.11491183936595917,0.1609639972448349,-0.07140405476093292,0.11188412457704544,0.02585984580218792,0.13932038843631745,-0.04882779344916344,-0.026392005383968355,-0.19140087068080903,0.08032543212175369,0.1049739345908165,-0.0807216688990593,0.09830775856971741,0.17439086735248567,-0.22320881485939027,0.19954559206962586,-0.2634887099266052,-0.26777443289756777,-0.004163722973316908,-0.03403658792376518,0.43578019738197329,-0.02299436740577221,-0.13941146433353425,0.07206804305315018,0.33742690086364748,-0.11315471678972244,-0.1384686827659607,0.24808308482170106,0.20263899862766267,-0.10565902292728424,0.10571768134832382,0.3150552213191986,0.056348033249378207,-0.26699405908584597,0.18973979353904725,0.26935136318206789,0.013488796539604664,-0.11208333075046539,0.17300765216350556,0.035411104559898379,0.23140136897563935,-0.0003919161099474877,-0.08069606870412827,0.15460903942584992,-0.1991448849439621,0.04922060668468475,0.05092223733663559,-0.042351722717285159,-0.3115292489528656,0.08674821257591248,0.0847884863615036,-0.13317742943763734,-0.2748785614967346,0.024862373247742654,-0.16393209993839265,0.045945391058921817,0.08051178604364395,-0.09111552685499191,0.0325363390147686,-0.13249383866786958,-0.02528318203985691,-0.1948193609714508,-0.35891470313072207,-0.020425444468855859,0.01692887395620346,-0.1333642303943634,0.0921018049120903,0.0755571573972702,0.07772623002529144,-0.05320817232131958,-0.040231406688690189,-0.09742560982704163,-0.03519617021083832,-0.04630410298705101,-0.1822792887687683,0.07855868339538574,-0.24496421217918397,-0.25982582569122317,0.016341572627425195,0.08959139883518219,0.004886338021606207,-0.06956592202186585,0.24912935495376588,-0.07613884657621384,0.09810728579759598,-0.023904532194137574,-0.11718527972698212,0.10561124235391617,-0.12520617246627809,0.06880968809127808,0.0747627392411232,-0.041452597826719287,0.06447941064834595,0.14317019283771516,0.2511311173439026,-0.14618034660816194,0.01173761859536171,-0.32166463136672976,-0.17302164435386659,-0.009025612846016884,0.03824999928474426,0.056446097791194919,-0.020340923219919206,-0.09396503120660782,-0.03635833412408829,0.15827806293964387,-0.08250022679567337,-0.25079303979873659,0.1167670264840126,-0.1793556958436966,0.03338012471795082,0.17325296998023988,-0.3153676688671112,-0.10643425583839417,-0.06036439910531044,0.030083104968070985,0.014706846326589585,0.08812755346298218,0.16459450125694276,-0.08049831539392472,-0.14033761620521546,0.2637254297733307,0.12992523610591889,0.18897131085395814,0.25671228766441347,0.04248863831162453,-0.18992164731025697,0.11500049382448197,0.15049606561660767,-0.329557329416275,0.05590679496526718,-0.04204221069812775,0.055211156606674197,-0.16572438180446626,0.053643759340047839,-0.0036939268466085197,-0.04300579056143761,0.32335570454597475,0.2970661520957947,-0.07370564341545105,-0.15547001361846925,0.18243923783302308,-0.024313297122716905,0.05114065483212471,-0.031697675585746768,0.137445330619812,-0.0978643149137497,-0.08691465854644776,0.17132510244846345,0.2446833997964859,-0.008073316887021065,0.14695903658866883,-0.2701362669467926,-0.2838365435600281,0.11666376888751984,0.03428017720580101,0.11680770665407181,0.10263992846012116,-0.07434181869029999,-0.05984480306506157,0.09439017623662949,0.2518326938152313,-0.08731023222208023,0.2347690612077713,-0.07479390501976013,-0.04798576235771179,0.004897093400359154,-0.028769638389348985,0.1484144628047943,0.2618754506111145,0.07435619831085205,0.03399209678173065,0.15928508341312409,0.049766067415475848,0.029603194445371629,-0.022951794788241388,0.31974977254867556,-0.0738714262843132,-0.07013902813196182,0.107211634516716,-0.15283139050006867,0.1837565302848816,0.0265252236276865,-0.008007545955479145,-0.16863508522510529,0.08858282119035721,-0.08585795760154724,0.277872771024704,-0.11875294893980026,0.06347329914569855,0.3616313934326172,0.20743577182292939,0.12091419100761414,-0.07756178826093674,0.1216658353805542,0.18279527127742768,0.057147324085235599,-0.038397468626499179,0.12527815997600556,-0.017954710870981218,-0.05170246213674545,-0.0020206423941999676,-0.2513177990913391,0.06042292341589928,-0.127507746219635,-0.2832268178462982,0.18172387778759004,0.28812849521636965,0.1187678873538971,0.08022955060005188,-0.24520741403102876,-0.028239935636520387,0.027496961876749994,-0.08516135066747666,0.03997112438082695,0.08482706546783447,0.11960789561271668,0.12965090572834016,0.22071628272533418,-0.36297422647476199,-0.21644215285778047,0.04811452701687813,-0.02988051064312458,-0.27884578704833987,-0.3712408244609833,-0.12005967646837235,-0.0026629669591784479,0.2115892916917801,0.015579333528876305,-0.19491282105445863,0.14590951800346375,-0.2209765762090683,-0.03219287842512131,-0.010481797158718109,-0.05229776352643967,0.02191336452960968,-0.34822311997413638,-0.05487934499979019,0.2746562361717224,-0.12166878581047058,-0.03327064588665962,0.16974961757659913,-0.0029439060017466547,0.11437328159809113,0.06760825216770172,0.12401677668094635,0.05999597907066345,-0.16408371925354005,-0.199427530169487,0.33451151847839358,0.14848552644252778,0.16927510499954225,0.1052006185054779,-0.12978917360305787,-0.20952542126178742,0.29688137769699099,0.0013601190876215697,-0.046572111546993259,0.024415042251348497,-0.0032732023391872646,-0.45049288868904116,0.38478636741638186,-0.20790794491767884,-0.25122547149658205,0.1749974489212036,0.1823011040687561,-0.2188137024641037,0.03993571177124977,0.13359232246875764,-0.1793593019247055,-0.12381476163864136,0.021776655688881875,0.06641270965337753,0.10707371681928635,0.08167675882577896,0.302417516708374,0.05067655071616173,-0.20629751682281495,-0.0884602889418602,-0.029036542400717737,-0.576166570186615,0.0018913208041340113,-0.11707951873540878,0.06324116140604019,0.06956283748149872,0.05003213882446289,0.14256145060062409,0.1251193881034851,-0.010183949954807759,-0.3703654110431671,-0.1358049362897873,0.25726982951164248,-0.24614116549491883,0.13770031929016114,0.03778115659952164,0.06706155836582184,0.046607643365859988,-0.1404414027929306,-0.08687581121921539,-0.08056854456663132,0.0003793835057877004,0.2222973108291626,-0.06169616058468819,0.00787199754267931,0.050304654985666278,0.3796514868736267,-0.025828590616583825,0.23122288286685944,0.12385307997465134,-0.036852527409791949,-0.35767340660095217,-0.17086951434612275,0.1424228698015213,0.08583008497953415,-0.15146571397781373,-0.08236990869045258,0.046752143651247028,-0.20149019360542298,-0.17377512156963349,-0.20390497148036958,0.33526524901390078,-0.09256741404533386,-0.11177477240562439,-0.18487566709518434,0.08176092803478241,0.34960731863975527,0.1540268063545227,-0.13228300213813783,-0.09860207140445709,0.02311374805867672,-0.03375471755862236,-0.07937435060739517,0.1556815505027771,0.0013581834500655532,-0.11783581227064133,-0.002772182459011674,0.0068196458742022518,-0.03532649204134941,-0.21365919709205628,0.08413681387901306,0.07217387855052948,0.3303464651107788,0.02850848250091076,0.1296287178993225,0.01882835105061531,-0.14785005152225495,-0.22419258952140809,0.0046497224830091,-0.18039801716804505,0.27461251616477969,-0.008964589796960354,-0.02261735498905182,0.03447212651371956,0.23227231204509736,-0.12375981360673905,-0.05191929638385773,-0.156773641705513,-0.09968909621238709,-0.175400510430336,-0.13561445474624635,0.14217698574066163,0.15920773148536683,-0.18515385687351228,0.0023433552123606207,0.10082055628299713,0.12973809242248536,0.011739757843315602,-0.26103657484054568,-0.05571563169360161,-0.1928461492061615,-0.01975497230887413,0.09639119356870651,-0.07965698838233948,0.07005611062049866,0.2296120822429657,-0.012421605177223683,0.092623770236969,-0.066109299659729,-0.15624362230300904,-0.09061657637357712,0.3380635678768158,0.031060840934515,-0.029606103897094728,0.07711269706487656,-0.16578514873981477,-0.014685362577438355,0.1793564409017563,-0.05503617227077484,0.14514240622520448,-0.10412333160638809,-0.07389742136001587,-0.11352881044149399,0.08687242120504379,0.06224020943045616,0.08695497363805771,0.17676590383052827,0.06350531429052353,-0.029889950528740884,-0.20967145264148713,-0.057452429085969928,0.11193905025720597,0.012634122744202614,-0.012717937119305134,0.054577626287937167,-0.10209324955940247,0.45108574628829958,0.20286671817302705,-0.030123064294457437,0.14640140533447267,-0.10453619807958603,0.11185437440872193,0.18339215219020844,0.19383324682712556,-0.1298115998506546,-0.11300413310527802,-0.12333589792251587,-0.05881046876311302,-0.2294580638408661,0.13467521965503694,0.0003063369949813932,-0.05989133194088936,0.0556042455136776,0.1926630586385727,0.050610240548849109,0.04628109931945801,0.046451129019260409,0.08185288310050965,0.138349711894989,-0.261921226978302,0.1310577541589737,0.14221151173114777,-0.13016702234745027,0.16117408871650697,-0.1774393618106842,-0.01417138334363699,0.07137380540370941,0.05126083269715309,0.1825384497642517,-0.16584660112857819,0.018269963562488557,0.17615564167499543,-0.26078104972839358,0.012173667550086975,0.06993427127599716,-0.01773766614496708,-0.1017429530620575,-0.10475202649831772,0.04465211555361748,0.2608198821544647,0.05512096360325813,0.025789640843868257,-0.21513737738132478,0.2633136808872223,0.12144936621189118,0.21066558361053468,0.060827091336250308,0.24322916567325593,0.4203999638557434,-0.03246461600065231,-0.13503961265087129,-0.11823767423629761,0.06432417780160904,0.006158469710499048,-0.34499114751815798,-0.17320412397384644,0.24742825329303742,0.0611187182366848,0.2738204300403595,-0.0028081615455448629,-0.06140093877911568,-0.001746547408401966,-0.4405405819416046,0.32763510942459109,-0.010154958814382553,-0.15888972580432893,0.2143675684928894,0.04515930637717247,0.044268202036619189,0.14040108025074006,0.18014830350875855,-0.20112818479537965,-0.26468169689178469,0.002098135882988572,-0.17227362096309663,-0.20547737181186677,-0.13215163350105287,-0.058749519288539889,-0.11270525306463242,-0.04146609082818031,0.015671027824282647,0.09487342834472656,0.21687166392803193,0.06725691258907318,-0.12560977041721345,-0.06376033276319504,-0.008787681348621846,0.22014226019382478,-0.017330076545476915,0.1994054764509201,-0.07978441566228867,-0.040811918675899509,-0.06578311324119568,-0.2802238464355469,0.09029169380664826,-0.2711155414581299,-0.26956385374069216,0.2103843092918396,0.06782186031341553,-0.1503221094608307,-0.03922884538769722,-0.06801426410675049,0.2001938819885254,0.021500499919056894,0.051252588629722598,0.028260722756385804,-0.14942196011543275,0.22472542524337769,0.20280468463897706,-0.1932155340909958,-0.02933579683303833,0.05030970275402069,-0.04460892826318741,-0.1212807223200798,-0.2798667848110199,0.05968257412314415,-0.06707902997732163,-0.15717458724975587,0.04788955673575401,-0.1441071480512619,0.21403582394123078,-0.2820207178592682,-0.08038954436779022,-0.025828704237937928,-0.038345348089933398,-0.01857183128595352,-0.1175881028175354,0.08041537553071976,0.07596361637115479,-0.09723705053329468,-0.17079134285449983,-0.09557893127202988,0.06412001699209213,0.033693548291921619,0.20762784779071809,0.14777064323425294,0.022673113271594049,0.00831093080341816,-0.08828191459178925,-0.17921821773052216,0.2484365999698639,0.2733590006828308,-0.06447950750589371,0.05704409256577492,0.00605024816468358,0.283008873462677,-0.16958987712860108,-0.12445228546857834,0.13524502515792848,-0.2682524621486664,0.235511913895607,0.18300288915634156,-0.20820888876914979,-0.0260879248380661,-0.127024844288826,0.0792272537946701,-0.10775338858366013,0.18170107901096345,-0.11724435538053513,-0.033294811844825748,0.4342978298664093,-0.22747674584388734,0.24078021943569184,-0.3658047020435333,-0.27231892943382265,-0.042639002203941348,0.1407921314239502,-0.011386261321604252,0.01886095479130745,0.04944128543138504,-0.012899652123451233,0.07855876535177231,-0.012134316377341748,0.2878722548484802,0.09088809043169022,-0.31173548102378847,0.0424102284014225,0.0578717365860939,-0.3026018738746643,0.03179667145013809,0.08050283789634705,-0.2125018984079361,-0.04096149653196335,-0.1184205561876297,0.016630414873361589,0.09105920791625977,-0.09150351583957672,0.10763233155012131,-0.16540242731571198,0.07042908668518067,-0.3034353256225586,0.14018206298351289,-0.037644557654857638,-0.05183056741952896,0.009614693000912667,0.02527790330350399,-0.28199997544288638,-0.11452141404151917,0.0988372415304184,-0.07762408256530762,0.2207593470811844,-0.022978289052844049,-0.12857785820960999,-0.0069079650565981869,-0.0948786586523056,0.1086246445775032,-0.037039484828710559,-0.032803911715745929,0.1302066147327423,0.016407720744609834,-0.2504943013191223,-0.19800694286823274,0.11857443302869797,-0.1161273941397667,-0.20327940583229066,0.14264197647571565,-0.0613989531993866,-0.394705206155777,0.016198821365833284,-0.034235890954732898,-0.009144797921180725,-0.18256133794784547,-0.06077820435166359,-0.13066715002059937,-0.0263426061719656,0.27727991342544558,0.03581938520073891,-0.03636012226343155,0.21748989820480348,0.21107621490955354,0.08769270032644272,-0.008429070003330708,-0.1362912803888321,-0.04674169048666954,0.09774363785982132,0.30811017751693728,0.07742530107498169,0.36548465490341189,0.12062390893697739,0.1169375479221344,-0.27501434087753298,-0.31846556067466738,0.0962282046675682,0.24303561449050904,0.04358283802866936,-0.10122863948345185,0.1680002212524414,-0.10400854796171189,0.08883604407310486,0.06973802298307419,0.07311055809259415,-0.46790793538093569,-0.032587338238954547,-0.17608733475208283,0.17253060638904572,-0.035121120512485507,0.04748254269361496,-0.28838106989860537,0.3826892375946045,-0.15044714510440827,0.15364299714565278,0.07083438336849213,0.07138849794864655,-0.39956462383270266,0.1295325607061386,0.11196132004261017,-0.010639590211212635,-0.07366087287664414,0.1303708553314209,-0.13379184901714326,0.019590146839618684,-0.27095839381217959,0.08653086423873902,-0.013115251436829567,-0.040556203573942187,-0.0027619998436421158,0.11212922632694245,-0.003146800212562084,-0.08534436672925949,-0.027246275916695596,-0.05006292462348938,0.1385299414396286,-0.03141720965504646,-0.06641209125518799,0.3644324839115143,-0.4693702161312103,-0.07228375971317291,-0.10215742886066437,-0.20752018690109254,0.15845003724098206,0.03542068973183632,-0.11438152194023133,-0.03156013414263725,0.1491352766752243,-0.2698836624622345,-0.19636380672454835,0.035784896463155749,0.1378537118434906,-0.057849813252687457,-0.01684960350394249,-0.07498276233673096,-0.05479375272989273,0.05186566710472107,-0.022217461839318277,-0.005610596854239702,-0.28209206461906435,0.21615776419639588,-0.14988720417022706,0.0006569662364199758,-0.04950326308608055,-0.022050105035305024,0.06532977521419525,0.11130127310752869,0.016792919486761094,0.10670846700668335,0.10230752825737,-0.07370960712432862,-0.05660555884242058,0.00554676353931427,0.06622011214494705,-0.18007472157478333,0.09940025210380554,-0.1778876781463623,-0.13278676569461823,-0.28028765320777895,-0.23854511976242066,0.08802559226751328,-0.007339788600802422,-0.0212303064763546,-0.01499891560524702,0.2698288857936859,0.06032511591911316,-0.21548017859458924,-0.0728781446814537,0.0876779854297638,-0.024044521152973176,-0.09751645475625992,0.15913496911525727,-0.24624072015285493,0.02786947414278984,0.09671100229024887,0.2012811154127121,-0.03467676416039467,-0.2590300142765045,0.07471805810928345,-0.12326318025588989,0.43742430210113528,0.3484550714492798,-0.0448765754699707,-0.09219814091920853,-0.0836358591914177,-0.06631682068109513,0.031542353332042697,-0.1278211623430252,-0.17262399196624757,0.12292828410863877,-0.05402141436934471,-0.08925329893827439,0.0002664275816641748,0.04652544483542442,0.0591532401740551,0.01030532643198967,0.25163358449935915,0.04462480545043945,0.1230122521519661,-0.15623965859413148,0.07329963147640228,-0.008135699667036534,0.12531650066375733,-0.13080619275569917,-0.05499796196818352,-0.01884167082607746,-0.12774360179901124,0.04356567934155464,0.19445960223674775,0.2349768579006195,0.021124113351106645,-0.3375681936740875,0.07440003007650376,-0.146047443151474,-0.2206738293170929,0.3157666027545929,0.103620745241642,0.01658964343369007,-0.1040811538696289,-0.07855001837015152,0.07668148726224899,-0.03124910406768322,0.005434628576040268,0.011245574802160263,-0.15419113636016847,0.08024609833955765,0.30607306957244875,0.23863230645656587,0.15337632596492768,0.24065597355365754,-0.09475064277648926,0.09718172252178192,0.1408473700284958,-0.07243646681308747,0.1353960633277893,-0.14790965616703034,-0.03005834110081196,-0.16917414963245393,0.26972073316574099,-0.39273086190223696,0.11229021102190018,0.049537308514118198,-0.05652656406164169,0.039700113236904147,-0.1215822696685791,0.20102937519550324,0.07969585806131363,0.02273174747824669,0.1492289900779724,-0.08282440900802612,0.1741156280040741,-0.011281383223831654,0.17649544775485993,0.1683877557516098,0.006316305138170719,-0.0011449191952124239,0.09977193176746369,-0.11082451790571213,0.1380208283662796,-0.14465871453285218,-0.28824156522750857,0.02020493894815445,0.16769976913928986,-0.01827278919517994,-0.060407448559999469,-0.27190566062927248,0.019781460985541345,-0.02479635179042816,0.2651143968105316,-0.04664245992898941,-0.17485566437244416,-0.2898266017436981,0.11303193122148514,0.06421297043561936,0.1573360711336136,0.19625133275985719,0.11644499748945236,0.06785724312067032,-0.07810810953378678,0.008846298791468144,0.10728622227907181,0.1956660896539688,-0.23561392724514008,-0.13009166717529298,0.00780474441125989,-0.07331988215446472,0.0455566830933094,-0.017142364755272867,-0.020592520013451577,-0.0461939238011837,-0.30608421564102175,-0.2231416255235672,-0.17187514901161195,0.16550664603710175,0.2338154911994934,-0.000562138797249645,0.024119239300489427,-0.058631692081689838,-0.27350708842277529,-0.1873437762260437,-0.0021526054479181768,-0.050591979175806048,0.14059729874134065,-0.25581398606300356,-0.04935459792613983,-0.043218664824962619,0.10251618176698685,0.01108034048229456,-0.3282722234725952,-0.034378670156002048,-0.1392248272895813,-0.09149844944477081,0.05514609068632126,-0.14284823834896089,-0.19020123779773713,0.01707548461854458,0.0544373020529747,0.14156308770179749,-0.19581297039985658,0.3438743054866791,-0.17780925333499909,0.19070616364479066,0.0695345476269722,-0.0014990465715527535,-0.11434900015592575,0.004545917268842459,-0.5487143397331238,0.15333425998687745,-0.20350496470928193,-0.13713765144348145,-0.05364660546183586,0.12885501980781556,-0.15028490126132966,-0.044623613357543948,0.0702991932630539,0.33295369148254397,0.04683232679963112,0.06143481284379959,-0.1397300660610199,-0.10499393194913864,-0.11415579915046692,0.11192269623279572,-0.11316725611686707,-0.32074347138404848,0.19287359714508058,-0.03305486589670181,0.11046446859836579,-0.04867734760046005,0.22097475826740266,-0.14647792279720307,0.16940340399742127,-0.0820627436041832,-0.03584439307451248,-0.029369868338108064,0.09071671217679978,-0.01989719644188881,-0.07367689162492752,0.13386864960193635,-0.1321558803319931,-0.15789532661437989,0.02029251679778099,-0.2260507345199585,0.2591032087802887,0.45603543519973757,0.04709887504577637,0.1630537360906601,-0.005682310555130243,-0.18263062834739686,-0.06773335486650467,0.20988155901432038,0.00451470073312521,0.27301234006881716,0.0574670173227787,0.1626783311367035,0.0069677806459367279,-0.018026983365416528,-0.11093468964099884,-0.04315556213259697,0.05164729058742523,-0.04490344598889351,-0.12006857991218567,-0.09583337604999542,0.07488121092319489,-0.17209811508655549,-0.017834357917308809,0.0022902865894138815,0.09410078823566437,0.10616261512041092,-0.0683692917227745,-0.3054603636264801,-0.09184551984071732,0.18583804368972779,-0.2407100647687912,0.05179905891418457,-0.011508723720908165,-0.012542498297989369,-0.09102606773376465,0.13033588230609895,-0.010220400057733059,0.10455499589443207,-0.06402987241744995,0.1039649173617363,0.05905447155237198,0.14259882271289826,-0.26294296979904177,0.1434493064880371,-0.04458252340555191,-0.08020637929439545,0.1868811696767807,-0.09225093573331833,0.07843707501888275,0.1430501490831375,-0.12158189713954926,-0.08895620703697205,0.039180684834718707,0.14780300855636598,0.04271383583545685,0.02593700960278511,-0.20929226279258729,-0.15923212468624116,-0.15669231116771699,-0.020724428817629815,-0.03605370968580246,-0.1191544458270073,-0.05798843130469322,0.01759299449622631,-0.26259103417396548,0.006664392072707415,0.004970725625753403,0.08476042747497559,-0.08807738870382309,-0.23314370214939118,0.20734372735023499,0.03058396466076374,-0.30270886421203616,-0.03153694421052933,-0.08342018723487854,-0.21636004745960236,-0.058503828942775729,0.1291758269071579,-0.32551655173301699,0.09124445915222168,0.05825551599264145,-0.19579368829727174,0.14947693049907685,0.17689821124076844,0.10522711277008057,-0.06526077538728714,0.17426714301109315,-0.10863259434700012,0.13980235159397126,0.12121720612049103,0.11885514855384827,0.058825261890888217,-0.2378644496202469,-0.0151591245085001,-0.0737404152750969,-0.22852422297000886,0.038058046251535419,0.22872008383274079,0.5121700167655945,-0.08919035643339157,0.2325463742017746,0.18459029495716096,0.12921291589736939,0.17335975170135499,-0.043070029467344287,-0.1712309569120407,0.13468946516513825,0.065976582467556,-0.1604752391576767,-0.22241391241550446,-0.03125864267349243,-0.04910890758037567,0.19451911747455598,0.3579375147819519,-0.10459346324205399,0.15877105295658112,-0.03695207089185715,-0.37241214513778689,0.35364022850990298,-0.026366472244262697,-0.09390776604413986,0.013027765788137913,0.37945738434791567,-0.010197235271334648,0.29844942688941958,0.049583617597818378,0.015894746407866479,-0.1680448055267334,-0.15921171009540559,0.03410492092370987,-0.04903106018900871,0.33738720417022707,0.20557452738285066,0.1854075938463211,0.21498289704322816,0.025570083409547807,0.01706659607589245,0.17442484200000764,0.09326586127281189,0.062047239392995837,-0.0017401425866410137,-0.19402055442333222,0.17748872935771943,0.19098293781280518,0.11733470112085343,0.2641153335571289,0.007730283308774233,0.029978139325976373,0.039989423006772998,-0.3454864025115967,-0.3110690712928772,-0.21009303629398347,-0.24579548835754395,-0.17264412343502046,0.048948027193546298,0.07650361955165863,-0.17279091477394105,-0.019109973683953286,0.10866658389568329,-0.043856117874383929,-0.011449883691966534,-0.00616705184802413,-0.41585326194763186,-0.0007129544974304736,-0.09869720786809921,0.1302931308746338,-0.24185685813426972,-0.01786992698907852,0.18629080057144166,0.14078012108802796,-0.22683176398277284,0.087272047996521,0.02091190405189991,0.0018209230620414019,-0.18149825930595399,-0.11008854955434799,0.19481776654720307,0.1037517786026001,0.29732009768486025,-0.008687768131494522,-0.317734956741333,0.00729208393022418,-0.009712643921375275,0.013738938607275486,0.07339566200971604,0.105200856924057,0.06381095945835114,0.11627347767353058,0.21045070886611939,0.003291164059191942,0.1206963062286377,0.001563822734169662,-0.27965107560157778,0.19833435118198396,-0.353886216878891,0.1336231827735901,0.12805573642253877,-0.18348762392997743,-0.003498748177662492,-0.0018194069853052497,-0.12018541246652603,0.15665411949157716,0.22374823689460755,0.15020722150802613,0.07109907269477844,-0.08531749248504639,-0.11487332731485367,-0.10621733963489533,-0.13311821222305299,-0.06460104882717133,-0.22261644899845124,0.09871762245893479,0.1546536535024643,0.028631320223212243,0.03900784254074097,-0.15132664144039155,0.03066796064376831,0.04482237249612808,-0.12927651405334474,-0.11938203871250153,0.09840794652700424,-0.07551957666873932,-0.005625945050269365,-0.1210436224937439,0.1424444168806076,0.022291161119937898,0.09309978038072586,0.12481702864170075,-0.008877615444362164,0.02027294784784317,-0.19596253335475923,0.26121383905410769,-0.004417011048644781,0.17576882243156434,-0.04519885405898094,-0.22295746207237245,0.2662873864173889,0.3159170150756836,-0.3250526189804077,-0.3416936993598938,0.12381615489721298,-0.01212233304977417,0.19678336381912232,0.24806632101535798,-0.10860273241996765,0.4217734932899475,-0.2874220609664917,0.037845712155103686,0.02088324911892414,0.04562699794769287,0.1584102213382721,-0.11955264955759049,0.07403212040662766,0.12667043507099152,-0.1955680102109909,0.22332152724266053,-0.17028261721134187,0.14145810902118684,-0.1390657126903534,-0.18794530630111695,0.12447170168161392,0.19437307119369508,-0.1105692908167839,0.09782290458679199,-0.009028829634189606,-0.2654924988746643,0.05867189168930054,0.17380109429359437,0.10578659176826477,0.17112690210342408,-0.20008426904678346,0.23231789469718934,-0.13643935322761537,0.10253552347421646,0.20176729559898377,0.19100119173526765,-0.000191851329873316,0.188177689909935,-0.0020192707888782026,0.11043155938386917,-0.1949900984764099,0.06623108685016632,0.034518271684646609,0.17434608936309815,-0.029494374990463258,0.16809290647506715,0.06936125457286835,-0.17590267956256867,0.0025766296312212946,-0.04559358209371567,0.1723826676607132,0.013306026346981526,-0.11930197477340698,0.18543480336666108,0.13826455175876618,0.09033691138029099,-0.24618768692016602,-0.10461471974849701,0.21221908926963807,0.05733074992895126,0.13686241209506989,0.031948719173669818,0.11426935344934464,0.09632427990436554,0.015460524708032608,-0.2570747435092926,0.07326997816562653,-0.1266159862279892,0.1274275928735733,-0.06545624881982804,-0.012474038638174534,0.10965170711278916,0.0425129309296608,-0.06096187233924866,0.002965785562992096,-0.06596719473600388,-0.09147626161575318,-0.18830351531505586,-0.024804940447211267,0.12082503736019135,0.35795319080352785,0.19514448940753938,-0.3417395353317261,0.1792341023683548,-0.1441352665424347,-0.39523693919181826,0.14236266911029817,0.06428152322769165,-0.14163120090961457,0.08576453477144242,0.0738319382071495,0.06643830239772797,0.13651502132415772,0.31037741899490359,-0.08597877621650696,0.19080407917499543,0.15572033822536469,-0.17089007794857026,-0.01788933388888836,-0.26395270228385928,-0.2502272129058838,0.1337926834821701,-0.023884495720267297,0.16454797983169557,0.004959638696163893,-0.3449735641479492,0.09299103170633316,0.05107777193188667,0.17847594618797303,-0.16212314367294312,-0.02495781145989895,-0.18930478394031526,-0.1636171042919159,0.20610648393630982,0.13409671187400819,0.059156231582164767,-0.01623322255909443,-0.001984646776691079,-0.01684674806892872,-0.09959182143211365,-0.05195992812514305,-0.11323116719722748,-0.12246690690517426,0.16858337819576264,0.03699897974729538,0.06283161044120789,0.01687811315059662,0.25435540080070498,-0.07859232276678086,-0.05413513258099556,-0.020198969170451165,0.11020832508802414,-0.11939230561256409,-0.29250770807266238,-0.016701476648449899,-0.22049856185913087,-0.20226243138313294,-0.07421089708805084,-0.2441364824771881,-0.19714945554733277,0.06137213483452797,0.28482991456985476,0.03847488388419151,0.23901456594467164,-0.11274510622024536,0.23681172728538514,0.1189238578081131,-0.00927469227463007,0.2937903106212616,-0.08834110200405121,-0.17125535011291505,-0.07018546760082245,-0.26788926124572756,0.283380389213562,0.09177017956972122,-0.019217269495129586,0.0860341414809227,-0.217105433344841,0.000806003634352237,-0.13418176770210267,-0.10281636565923691,0.0041139135137200359,0.19539543986320496,0.25985315442085268,-0.0552314855158329,-0.04695342108607292,-0.23958633840084077,-0.018078282475471498,0.09260570257902146,0.13432030379772187,-0.02900952659547329,0.056016433984041217,-0.026458023115992547,-0.024999473243951799,0.09742225706577301,-0.11341539025306702,-0.07531581073999405,-0.10089781880378723,0.0492783859372139,-0.0282119233161211,-0.10813929885625839,-0.07055757194757462,0.03838028386235237,-0.14884892106056214,-0.12280546128749848,0.12055251747369766,-0.05753111466765404,-0.21329687535762788,-0.08031533658504486,-0.13305231928825379,-0.19120711088180543,-0.13267134130001069,0.11953959614038468,0.252165287733078,-0.06636583805084229,-0.13489878177642823,0.11545141041278839,0.05613433197140694,0.09029687196016312,-0.13502781093120576,0.28461819887161257,0.0033604218624532224,-0.12255947291851044,0.3119739294052124,-0.020901532843708993,0.06744411587715149,-0.004155209753662348,-0.1299564242362976,-0.16254761815071107,0.04021861404180527,0.024680057540535928,0.023828156292438508,-0.29615527391433718,0.15122012794017793,-0.027301663532853128,0.06528173387050629,-0.3566494882106781,0.08580527454614639,0.07203392684459686,-0.02325400710105896,-0.030142417177557946,-0.06829883903265,-0.02262045443058014,-0.030900822952389718,-0.20537331700325013,-0.00043745498987846076,0.16069155931472779,0.036645907908678058,-0.16553084552288056,-0.037708982825279239,-0.1675310581922531,-0.2470722794532776,0.05407220125198364,-0.08110157400369644,-0.023210816085338594,0.3491380214691162,-0.07513895630836487,-0.16476206481456757,-0.20221588015556336,-0.14828278124332429,-0.06793244183063507,0.020674508064985277,0.0329706072807312,-0.06394225358963013,-0.008316411636769772,-0.022283561527729036,-0.04653787985444069,0.10733523219823837,0.04613286629319191,0.2181677669286728,-0.001530015841126442,-0.08347086608409882,-0.1173228919506073,-0.2651965320110321,0.03255358338356018,-0.07123995572328568,0.15496015548706056,-0.21502919495105744,0.017430681735277177,-0.12136534601449967,0.17810077965259553,0.2879568636417389,0.016468632966279985,-0.11697285622358322,-0.10639968514442444,0.3132702112197876,-0.09070365875959397,-0.24135461449623109,0.05593555048108101,0.1727687120437622,0.05272654443979263,-0.05686599388718605,-0.018014777451753618,0.20895908772945405,-0.01690639927983284,-0.1310928910970688,0.20395298302173615,0.04794629290699959,0.03286898881196976,-0.0498724989593029,0.2583059072494507,-0.022965148091316224,-0.03149428218603134,-0.08925257623195648,0.32527434825897219,-0.22998900711536408,-0.05563909560441971,0.10468820482492447,0.21399997174739839,-0.047728680074214938,0.06205355003476143,-0.021357910707592965,0.17827749252319337,0.014969329349696637,0.013479020446538926,0.01681492105126381,-0.28439459204673769,-0.20117908716201783,-0.01959708146750927,0.03253617882728577,-0.22033903002738954,-0.24690768122673036,0.10899949073791504,-0.2829592525959015,-0.11575789004564285,-0.0803830549120903,-0.0010112199233844877,-0.36929789185523989,0.16718077659606934,-0.04543086141347885,0.08626242727041245,0.04178619012236595,-0.10144983977079392,-0.20131660997867585,0.17002026736736298,0.10414103418588638,-0.12138073146343231,0.020782912150025369,0.20414911210536958,0.13047347962856294,0.18341457843780518,0.05583251640200615,0.23762576282024384,0.11800400167703629,0.09356262534856796,-0.14912348985671998,0.2892495393753052,-0.2271302044391632,0.019467059522867204,-0.08665218204259873,0.08020453155040741,0.19026973843574525,0.19506710767745973,0.22024452686309815,0.013863581232726574,0.05495418235659599,-0.03765922784805298,-0.13061052560806275,-0.04805995896458626,0.003657472087070346,0.07675216346979141,0.27802762389183047,-0.034367743879556659,0.20480281114578248,0.08807622641324997,0.2502608597278595,0.1739746481180191,-0.18798843026161195,-0.03922823444008827,-0.21783237159252168,-0.09950271993875504,-0.015066694468259812,0.023239124566316606,-0.008910114876925946,-0.06522637605667114,0.2338266521692276,0.22867409884929658,0.07112638652324677,0.17415887117385865,-0.019228769466280938,0.08300123363733292,0.05069401487708092,0.0647047609090805,-0.042343154549598697,-0.06511558592319489,-0.07268215715885163,-0.11241760849952698,0.06508420407772064,0.21439234912395478,-0.28026118874549868,-0.3085917830467224,-0.05472014099359512,-0.0074957977049052719,-0.34436625242233279,-0.06723321974277497,-0.1769823580980301,-0.02727392315864563,0.03510814160108566,-0.10258610546588898,-0.041347529739141467,0.18058714270591737,0.16573503613471986,0.02028234675526619,0.10325752198696137,-0.20399688184261323,-0.02530124969780445,-0.019121505320072175,0.1782158613204956,0.07730304449796677,-0.2219984531402588,0.28258493542671206,0.2906229496002197,0.13205239176750184,-0.0033690459094941618,-0.3098946511745453,0.10616140812635422,0.20140467584133149,0.028211403638124467,-0.1508241444826126,0.12119345366954804,-0.2501847445964813,-0.19572269916534425,-0.003602505661547184,-0.08153529465198517,0.028942478820681573,0.23406822979450227,0.16218183934688569,-0.09598465263843537,-0.010943271219730378,-0.12075605243444443,-0.13121621310710908,-0.12416788935661316,-0.23976019024848939,-0.14658799767494203,0.06238256022334099,-0.024282332509756089,-0.0075229015201330189,0.15202169120311738,0.0043139830231666569,-0.04688096418976784,0.12362552434206009,-0.04255751520395279,0.13172435760498048,0.08762793242931366,-0.10037219524383545,-0.08874410390853882,-0.13948659598827363,-0.020832818001508714,-0.1763407438993454,-0.1427702158689499,0.013132383115589619,-0.11788167804479599,0.1377968043088913,-0.030785653740167619,0.013806437142193318,0.027979357168078424,-0.21228455007076264,-0.09879183024168015,-0.07244669646024704,-0.5093257427215576,0.24919292330741883,-0.02402489446103573,0.2396458238363266,0.16118350625038148,-0.02068813145160675,0.03270502761006355,-0.053639572113752368,0.13605530560016633,0.0681498572230339,0.05251190438866615,0.08705592900514603,-0.023009398952126504,-0.1564733386039734,-0.2897186875343323,0.1457504779100418,-0.14370086789131165,-0.12384726852178574,-0.011049237102270127,-0.10144765675067902,0.14364337921142579,0.062400225549936298,-0.25373533368110659,0.15722277760505677,-0.12407971173524857,0.3019125759601593,-0.23576882481575013,-0.11794982105493546,-0.06842041015625,0.08418786525726319,-0.10046365857124329,-0.29710111021995547,0.3456977307796478,0.16548383235931397,0.08023664355278015,0.03552837669849396,-0.14367105066776277,-0.11019349098205567,0.04440106451511383,-0.2795009911060333,0.023757880553603174,-0.09473225474357605,-0.14962293207645417,-0.08243349939584732,-0.14452460408210755,0.028538204729557039,-0.046534210443496707,-0.00838652066886425,0.2327534556388855,-0.05933650955557823,0.05466340109705925,0.10451629757881165,0.015400204807519913,-0.06006360426545143,0.1725229173898697,0.09104239195585251,0.023027241230010988,-0.08227603882551193,-0.08584921807050705,0.31619200110435488,-0.02427678182721138,-0.30079907178878786,-0.19757342338562013,-0.05718396231532097,-0.08971907198429108,0.20936670899391175,0.22046665847301484,-0.08700380474328995,-0.15325714647769929,-0.03412245213985443,0.3871973752975464,-0.1234116479754448,0.01695399172604084,-0.14639316499233247,0.13108880817890168,-0.15329234302043916,0.02489718608558178,-0.14698831737041474,-0.19958490133285523,-0.2603217661380768,-0.1559312343597412,-0.05780776962637901,0.045940324664115909,0.029770243912935258,-0.0711197704076767,-0.16618238389492036,-0.03622893989086151,0.21907442808151246,0.4222831428050995,-0.2819242477416992,-0.17240974307060243,0.1866174042224884,-0.23568937182426454,0.23618873953819276,-0.13435585796833039,-0.1232474148273468,0.07484066486358643,0.43331286311149599,-0.2268824577331543,-0.1325972080230713,-0.057617347687482837,-0.33190104365348818,0.1642000675201416,-0.0016298822592943907,0.07056057453155518,0.06877743452787399,0.029877791181206704,-0.21151813864707948,-0.06348609924316406,-0.058638591319322589,0.04483864828944206,-0.052582040429115298,0.20344765484333039,-0.16930191218852998,0.000020476747522479855,0.0955977663397789,-0.20828911662101746,0.048724446445703509,-0.0030872283969074489,-0.17520715296268464,-0.07318080216646195,0.196105495095253,0.02392294630408287,0.002788111800327897,0.12741167843341828,-0.13159209489822389,0.20731264352798463,0.08937898278236389,0.341267466545105,-0.20360159873962403,0.028031231835484506,-0.03501482680439949,-0.06627655774354935,-0.250265896320343,-0.020966891199350358,0.006102856248617172,-0.0795234814286232,0.28373828530311587,-0.12440574914216995,-0.22987189888954163,0.020887218415737153,0.03508346900343895,0.0915229395031929,-0.04595307260751724,0.05210631340742111,-0.02785828709602356,0.04185502976179123,-0.06517653167247772,-0.08222503215074539,0.14272236824035645,0.03367600217461586,-0.39907047152519228,-0.18023456633090974,-0.1826639473438263,-0.1516915112733841,0.1229344978928566,0.016324376687407495,-0.032847076654434207,-0.2553023099899292,-0.00392785994336009,0.1048654168844223,-0.25074997544288638,0.04545778036117554,-0.050517600029706958,0.09123033285140991,0.09679564833641052,-0.37678492069244387,0.03452004864811897,0.19397039711475373,-0.06755318492650986,0.08427100628614426,0.10891508311033249,-0.004884009715169668,-0.16032911837100984,0.1258295625448227,-0.014260435476899147,0.21686263382434846,0.15005305409431458,0.06414243578910828,-0.19156941771507264,-0.10445249825716019,-0.3098350167274475,0.2215401828289032,0.07335568964481354,0.3920876979827881,0.09637868404388428,-0.08606097102165222,-0.03285364434123039,-0.20858176052570344,-0.04700564593076706,0.2916073203086853,0.24784353375434876,0.01596548594534397,-0.032522208988666537,0.2953181266784668,-0.15931062400341035,0.0056678904220461849,-0.015459501184523106,0.006044365931302309,-0.15516723692417146,-0.09963009506464005,0.14851810038089753,0.22525815665721894,0.2294614166021347,0.05160081386566162,-0.0743674486875534,-0.09756587445735932,0.0655234307050705,-0.17988376319408418,-0.11309888958930969,0.0986754447221756,-0.2271965593099594,0.20782752335071565,-0.3103235065937042,-0.020923243835568429,0.11461590230464935,0.06874068826436997,0.0669824481010437,-0.05753180757164955,-0.20491063594818116,-0.09288955479860306,0.08075328916311264,0.23897653818130494,0.28577685356140139,-0.08597064018249512,0.15566468238830567,0.20594318211078645,0.3001755177974701,-0.14280398190021516,-0.012519106268882752,0.22540923953056336,0.17516158521175385,-0.04122152924537659,-0.2842620015144348,-0.0003242473176214844,-0.030916616320610048,0.113319993019104,-0.1294308602809906,0.12160614132881165,0.1346888393163681,-0.36267000436782839,0.17314687371253968,0.036431822925806048,0.3223322331905365,-0.05342719331383705,-0.10390180349349976,0.3533948063850403,-0.07176651805639267,0.15699417889118195,-0.12765520811080934,0.1394549459218979,-0.1679053157567978,-0.032865867018699649,0.11604346334934235,0.0892011970281601,0.13827846944332124,-0.22593539953231812,0.0060350652784109119,0.10611291229724884,-0.03676176071166992,-0.08005674928426743,0.05884312838315964,-0.07252523303031922,0.044531065970659259,-0.03504389524459839,0.08853278309106827,-0.16927368938922883,-0.23951689898967744,-0.2424168735742569,-0.06488028168678284,0.0011849143775179983,-0.17404092848300935,0.2630011737346649,0.17607896029949189,-0.17833201587200166,-0.2881833612918854,-0.13844725489616395,0.1768050640821457,0.07607416808605194,-0.0045905024744570259,0.05207299068570137,0.22264651954174043,0.19653350114822389,-0.06630410254001618,0.12324975430965424,0.07231834530830383,0.09251563251018524,0.017520247027277948,0.1390201300382614,0.002932117087766528,0.21765197813510896,-0.1267683058977127,0.11263035982847214,-0.14756029844284059,-0.11991612613201142,-0.021576395258307458,0.031207198277115823,-0.14706531167030335,0.05652187392115593,-0.0746312066912651,-0.12725673615932465,-0.04022040218114853,0.09286513179540634,0.017884349450469018,-0.047731559723615649,0.016690129414200784,0.028514331206679345,0.14906707406044007,0.05644944682717323,0.0533483661711216,0.06679221987724304,-0.24118572473526,0.20278728008270265,0.17118950188159944,0.10595916956663132,0.009531410411000252,-0.012787798419594765,0.07619453221559525,0.15242764353752137,0.25550270080566409,0.25166359543800356,0.0021588318049907686,0.012895416468381882,0.2068798542022705,-0.06666691601276398,0.33043423295021059,-0.20409002900123597,0.12510040402412415,-0.14537663757801057,0.11995163559913635,-0.027657251805067064,-0.21947261691093446,0.1620449274778366,-0.0312892310321331,0.16104330122470857,-0.10145709663629532,-0.24812939763069154,0.0997195690870285,-0.31127259135246279,-0.15672524273395539,-0.008930766023695469,0.16641226410865785,0.011245455592870713,0.0707390233874321,-0.10342199355363846,-0.07999031245708466,-0.0982026755809784,-0.12689554691314698,0.09673117846250534,0.2561176121234894,-0.046056367456912997,-0.07897762209177017,0.06712235510349274,-0.010596336796879769,-0.07307608425617218,-0.22388748824596406,-0.2279462367296219,-0.14391419291496278,0.42627444863319399,-0.11755721271038056,-0.00023045239504426718,-0.05751778930425644,-0.21903422474861146,0.4593506157398224,-0.12049558758735657,-0.1433093547821045,0.15759211778640748,0.039295490831136706,-0.22106744349002839,-0.002492825733497739,-0.22230647504329682,-0.21383120119571687,0.10793746262788773,-0.1645447313785553,-0.04182085767388344,-0.14305420219898225,0.04504435136914253,0.07325509935617447,0.006245289463549852,0.09502705186605454,-0.11345086246728897,0.17151011526584626,-0.0661611333489418,0.11234058439731598,0.07491173595190048,0.08210925757884979,0.29847025871276858,-0.05832606926560402,0.29183244705200198,0.16618913412094117,0.2140192836523056,-0.10170872509479523,-0.010754954069852829,0.19516214728355409,0.020707350224256517,0.18770891427993775,-0.058367688208818439,0.2646951377391815,0.16726788878440858,-0.19935283064842225,0.03547288849949837,0.04896295815706253,0.011698385700583458,0.15272516012191773,-0.0006954935379326344,-0.23691542446613313,0.15508168935775758,0.3293987214565277,-0.13750632107257844,0.26150375604629519,0.07596389949321747,0.1328507959842682,-0.23572036623954774,-0.08097635209560394,0.22911952435970307,-0.10987579077482224,-0.10218067467212677,-0.13389608263969422,-0.11921561509370804,0.009805357083678246,-0.08492042869329453,0.2610583007335663,0.08506738394498825,0.11247606575489044,-0.1786225438117981,-0.03299461677670479,0.208645299077034,-0.16418342292308808,-0.053939685225486758,0.2862447202205658,-0.028993092477321626,-0.2763251066207886,0.22162839770317079,-0.04234140366315842,0.09961068630218506,-0.15424615144729615,-0.12329809367656708,0.047930967062711719,-0.024018974974751474,-0.23065897822380067,0.029009394347667695,0.263611763715744,0.03546062484383583,-0.0817841961979866,-0.01686139591038227,-0.11920156329870224,-0.17698734998703004,0.034098777920007709,0.07259675115346909,-0.2720111608505249,-0.004058731719851494,0.16598886251449586,-0.09473095834255219,0.12148843705654144,0.1596686691045761,0.035671669989824298,0.14905381202697755,-0.1670309454202652,-0.08869820088148117,-0.06584692746400833,0.1719503402709961,0.2358817458152771,0.18043112754821778,-0.23552843928337098,0.10806123167276383,0.03533884510397911,0.03649353235960007,-0.02896242029964924,-0.0746498703956604,0.17179569602012635,0.16670837998390199,0.1822245568037033,-0.02922753244638443,0.13652411103248597,0.026896784082055093,-0.05747433006763458,0.018474282696843149,0.2556869089603424,0.12943099439144135,-0.0049912650138139729,0.06522833555936814,-0.21294794976711274,-0.013061948120594025,-0.16877755522727967,0.23476095497608186,-0.050323743373155597,-0.20638121664524079,0.11228138953447342,0.01564415730535984,-0.035613562911748889,-0.03807123377919197,0.013696420937776566,-0.08812426030635834,0.039044950157403949,-0.12026279419660568,0.04298757389187813,0.03754618763923645,-0.13996653258800507,-0.3857532739639282,0.01324529480189085,-0.1546517163515091,0.034448157995939258,-0.2934012711048126,-0.1289663314819336,0.04909887909889221,-0.17771776020526887,-0.17227883636951447,-0.14287886023521424,0.23238220810890199,-0.04479178786277771,0.12342239171266556,0.13260747492313386,0.0420529730618,0.11465414613485336,-0.1330932080745697,0.024778706952929498,-0.2528912127017975,0.08447299897670746,-0.29235634207725527,0.010878938250243664,0.29949918389320376,0.10060493648052216,-0.10503444075584412,0.020388854667544366,-0.1561407744884491,-0.1537557989358902,-0.04946402832865715,-0.03576064854860306,-0.029501063749194146,-0.17570362985134126,0.36127322912216189,-0.04407309368252754,0.13859860599040986,-0.2029440999031067,0.031978823244571689,0.1333545297384262,-0.08520864695310593,0.0483098141849041,-0.049937110394239429,0.08596955239772797,0.09046243876218796,0.0673852190375328,0.10732623189687729,0.23119671642780305,-0.17617976665496827,0.05874539166688919,0.11666350811719895,-0.014966650865972042,0.026172637939453126,0.057588446885347369,0.29019853472709658,0.0594148188829422,0.2771057188510895,-0.15995995700359345,0.11983378231525421,0.19093263149261475,0.11686382442712784,-0.12443546950817108,-0.061628974974155429,-0.1115880236029625,0.1126510351896286,0.10316891223192215,0.035214584320783618,0.029501456767320634,0.04897882789373398,0.3770884573459625,-0.16693101823329926,0.2637402415275574,-0.2848270833492279,0.3161888122558594,0.2553303837776184,0.25216716527938845,0.001591218519024551,0.09502778202295304,0.07078248262405396,-0.23944774270057679,0.02098272554576397,0.0673021525144577,0.11077653616666794,-0.07421039044857025,-0.2200852781534195,-0.0074285720475018028,0.09611864387989044,-0.03083621896803379,0.3297730088233948,-0.08394566923379898,0.08576656132936478,-0.012693004682660103,0.10889257490634918,-0.023027505725622178,-0.17309117317199708,-0.022092005237936975,0.07336916029453278,0.0894140899181366,0.11067941784858704,-0.2109612673521042,0.029095081612467767,-0.012448254972696305,0.23437833786010743,-0.141335591673851,-0.30273205041885378,-0.11154260486364365,-0.07360884547233582,-0.04228593781590462,-0.33490487933158877,-0.02182941511273384,0.06483539938926697,-0.08247463405132294,0.1040523424744606,-0.35465559363365176,-0.11369846761226654,0.011121492832899094,-0.1018405556678772,0.006842456758022308,-0.12116710096597672,-0.011938133276998997,-0.24274079501628877,-0.09415584057569504,0.10292565077543259,0.14336378872394563,-0.03744661435484886,0.03595425561070442,-0.07931781560182572,-0.02680623158812523,0.14803744852542878,-0.15363988280296327,0.11667903512716294,0.07267290353775025,0.017539767548441888,0.07223286479711533,-0.07880640029907227,0.0797366201877594,-0.35781773924827578,-0.09720554202795029,-0.2429681271314621,-0.052605319768190387,-0.0875929519534111,-0.01400790922343731,-0.06253574788570404,-0.12118217349052429,0.062370993196964267,0.01917226053774357,-0.15972313284873963,-0.18002542853355409,0.0244765467941761,-0.07348612695932388,-0.07307326793670654,0.20899270474910737,-0.07554762810468674,0.0020712255500257017,0.0848718211054802,-0.12255321443080902,-0.12230823934078217,0.2529168725013733,-0.11089896410703659,0.17666743695735932,-0.09400922060012818,-0.22173896431922913,0.036760423332452777,0.061999768018722537,-0.16650687158107758,-0.07811057567596436,0.0837392583489418,0.17809833586215974,-0.12112689018249512,0.21743442118167878,0.206592857837677,-0.17245201766490937,0.002344682579860091,-0.3164086639881134,-0.057855404913425449,0.4060949683189392,-0.023236192762851716,-0.02321753464639187,-0.11169671267271042,0.05782419443130493,0.014676310122013092,-0.09960819780826569,-0.244637131690979,0.3046964406967163,-0.3309597074985504,0.0024843188002705576,0.06246105954051018,-0.01248800940811634,-0.18013811111450196,-0.22262464463710786,0.19708378612995149,-0.12019601464271546,-0.09600118547677994,0.10304534435272217,-0.062112681567668918,-0.18480601906776429,-0.17919814586639405,0.16375747323036195,-0.0669821947813034,-0.014326859265565873,-0.011450976133346558,0.03154788166284561,0.0006885012262500823,-0.08934993296861649,0.08452793210744858,-0.11417589336633682,0.07342773675918579,-0.23900750279426576,-0.06031164526939392,0.012647788971662522,-0.06995242834091187,0.05437168478965759,-0.022784940898418428,0.09902562201023102,0.03363749757409096,0.04659454524517059,0.23477406799793244,0.049725085496902469,0.17097821831703187,-0.14747564494609834,0.23199915885925294,-0.10127788037061691,0.03368264064192772,-0.14068028330802918,-0.15721635520458222,-0.1169014498591423,0.05037447437644005,0.20636586844921113,-0.12100478261709213,0.04837537184357643,0.23802894353866578,0.18828311562538148,-0.1539400964975357,0.18821340799331666,-0.15935169160366059,0.22925446927547456,-0.036988258361816409,-0.2282857745885849,-0.04689705744385719,0.19287224113941194,-0.15862202644348145,0.05336034297943115,-0.01862337626516819,0.15290886163711549,-0.3814019560813904,-0.12772786617279054,-0.14223605394363404,0.06462880223989487,0.11880093812942505,-0.0701424777507782,0.3934190273284912,-0.1797759085893631,0.14758162200450898,0.1543758660554886,0.017655031755566598,0.07983937859535217,-0.10525508224964142,0.04172449931502342,0.03815751150250435,-0.12254214286804199,0.16366973519325257,-0.22765231132507325,0.15931500494480134,-0.23648607730865479,0.1219383031129837,0.0561647042632103,0.06514973193407059,0.2276333123445511,0.01613631658256054,0.023726295679807664,0.14801158010959626,-0.08478935807943344,0.25096645951271059,0.08180143684148789,0.13515055179595948,-0.18388731777668,-0.11809468269348145,-0.18106894195079804,-0.06298279017210007,0.3523426651954651,-0.35533228516578677,-0.13394494354724885,-0.11671125143766403,-0.1891232579946518,0.14523530006408692,-0.015145638957619667,0.13386082649230958,0.2723315358161926,-0.35174229741096499,0.037244562059640887,0.16055254638195039,0.05743096396327019,0.1307593286037445,-0.07764237374067307,-0.02451326698064804,-0.1930842101573944,-0.05339333787560463,-0.20662418007850648,-0.005284816492348909,0.01354222558438778,-0.017989568412303926,-0.18643011152744294,-0.2298879325389862,-0.1315397322177887,0.11338318139314652,0.13462106883525849,-0.24765338003635407,-0.09057135134935379,0.047898344695568088,0.193449467420578,-0.07337044179439545,0.022684333845973016,0.07410770654678345,0.11034926772117615,0.11679370701313019,-0.034832216799259189,0.10659048706293106,-0.02423817105591297,-0.0010910495184361935,-0.22611337900161744,-0.17025309801101685,-0.19459518790245057,0.03128441423177719,0.09692078083753586,0.00950656272470951,0.08033493161201477,-0.10382445901632309,0.1558026373386383,0.09435967355966568,-0.038158249109983447,0.25681182742118838,0.03538921847939491,0.09353835135698319,-0.15484550595283509,0.09166937321424484,-0.10926665365695954,0.04806344583630562,0.0005063007120043039,-0.08126077055931092,-0.27873846888542178,0.1897098273038864,0.20978078246116639,-0.17423735558986665,0.25070515275001528,-0.034208957105875018,0.22158709168434144,0.1236855536699295,0.17155708372592927,0.05087883397936821,-0.08298591524362564,-0.06239718571305275,-0.15233728289604188,-0.1194230243563652,0.0730147659778595,-0.11614498496055603,0.07080215960741043,0.2060326337814331,-0.07275262475013733,-0.07114920020103455,-0.04625115916132927,0.0721830427646637,0.03156910464167595,-0.054449234157800677,0.007081472780555487,-0.034261006861925128,0.0803251788020134,0.16480869054794312,0.0035505967680364849,-0.022671297192573549,-0.02908877655863762,0.14104455709457398,0.1987735480070114,0.0634826198220253,-0.07207833975553513,-0.030306540429592134,-0.024834731593728067,0.021440474316477777,-0.08162430673837662,0.10414932668209076,0.239275261759758,-0.34465333819389346,0.2461395263671875,-0.037948645651340488,0.08122017979621887,0.023705707862973214,0.20758718252182008,0.06667014211416245,-0.2936878800392151,-0.0640760213136673,-0.25121062994003298,0.032694995403289798,0.16378343105316163,-0.28653910756111147,0.06859026104211807,0.29845350980758669,0.17096737027168275,0.05530939996242523,-0.13115067780017854,0.0629412829875946,0.05985673516988754,-0.17501674592494965,-0.11744353175163269,