{
    "Layers": [
        {
            "LayerType": "Conv",
            "Activation": 0,
            "InputSize": 0,
            "OutputSize": 0,
            "WeightsFlattened": [],
            "WeightsRows": 0,
            "WeightsCols": 0,
            "BiasesFlattened": [
                0.10149135440587998,
                0.10562513023614884,
                0.09880387783050537,
                0.10175915062427521,
                0.10006944835186005,
                0.1026565283536911,
                0.10287270694971085,
                0.1040792316198349,
                0.09584417939186096,
                0.10127311199903488,
                0.10315946489572525,
                0.08485206216573715,
                0.09767599403858185,
                0.10672523081302643,
                0.10381869226694107,
                0.09691499918699265
            ],
            "InputChannels": 2,
            "NumFilters": 16,
            "KernelSize": 2,
            "Stride": 1,
            "Padding": 0,
            "FiltersFlattened": [
                -0.15862974524497987,
                0.19924627244472505,
                -0.24156363308429719,
                0.03344842791557312,
                -0.012134512886404992,
                -0.19280432164669038,
                -0.0895051658153534,
                0.07779952883720398,
                -0.00045499822590500116,
                0.1119120791554451,
                0.09385979920625687,
                -0.16537968814373017,
                -0.21274256706237794,
                0.09698332101106644,
                0.21605966985225678,
                0.13432517647743226,
                0.08068964630365372,
                0.24776317179203034,
                -0.15156981348991395,
                0.14714986085891725,
                0.07793769985437393,
                0.23487618565559388,
                -0.0562378466129303,
                -0.1529831439256668,
                0.09704986959695816,
                -0.18527032434940339,
                0.08975015580654144,
                -0.13176605105400086,
                -0.0513959676027298,
                0.07035231590270996,
                0.09897001087665558,
                -0.22065219283103944,
                0.16067378222942353,
                0.21848592162132264,
                -0.060514941811561587,
                -0.1943822056055069,
                0.13353753089904786,
                0.057092662900686267,
                -0.17662785947322846,
                -0.09331385791301727,
                0.028374526649713517,
                -0.1422244906425476,
                -0.09620873630046845,
                -0.24667607247829438,
                0.14648017287254334,
                -0.05918261781334877,
                0.01642083376646042,
                0.04619854688644409,
                -0.17313998937606812,
                -0.1269395798444748,
                -0.12739898264408112,
                -0.10662182420492172,
                0.17720268666744233,
                -0.11629681289196015,
                0.08358293026685715,
                -0.13538989424705506,
                0.005278106313198805,
                0.17058797180652619,
                0.1805470585823059,
                -0.07014825195074082,
                -0.032023292034864429,
                -0.21515533328056336,
                -0.12788383662700654,
                0.1457221806049347,
                -0.2425510287284851,
                0.05620157718658447,
                -0.07292643189430237,
                -0.18251155316829682,
                -0.09595876187086106,
                0.16812002658843995,
                0.2446458786725998,
                -0.22381749749183656,
                0.16873937845230103,
                0.19252091646194459,
                -0.12884141504764558,
                -0.03493378311395645,
                0.07643360644578934,
                -0.07355096191167832,
                -0.058657534420490268,
                -0.08585457503795624,
                0.049048688262701038,
                -0.20509092509746552,
                -0.2075517177581787,
                -0.17068949341773988,
                -0.03890460357069969,
                -0.037506040185689929,
                -0.13480257987976075,
                0.02706611528992653,
                -0.11070676147937775,
                -0.17056290805339814,
                0.04641124606132507,
                0.21749122440814973,
                0.11593476682901383,
                0.14552274346351624,
                0.18469710648059846,
                -0.010169223882257939,
                0.22146674990653993,
                -0.015508884564042092,
                0.24999691545963288,
                -0.16293466091156007,
                -0.24238382279872895,
                -0.054280299693346027,
                -0.11486278474330902,
                -0.09615842252969742,
                -0.11876122653484345,
                -0.14836782217025758,
                -0.028122328221797944,
                0.2323070615530014,
                -0.23896129429340363,
                -0.13188143074512483,
                0.03523247689008713,
                -0.16918359696865083,
                -0.014525044709444046,
                0.027280807495117189,
                0.12881240248680116,
                -0.07736282050609589,
                0.24266456067562104,
                -0.2056051641702652,
                -0.04790666699409485,
                0.04953278228640556,
                -0.06338641792535782,
                0.14646343886852265,
                0.17530012130737306,
                -0.17473331093788148,
                -0.12860196828842164,
                -0.22820964455604554,
                -0.10526666045188904,
                -0.2317819744348526
            ],
            "Conv_InputChannels": 2,
            "Conv_NumFilters": 16,
            "Conv_KernelSize": 2
        },
        {
            "LayerType": "Conv",
            "Activation": 0,
            "InputSize": 0,
            "OutputSize": 0,
            "WeightsFlattened": [],
            "WeightsRows": 0,
            "WeightsCols": 0,
            "BiasesFlattened": [
                0.1015886589884758,
                0.09766405075788498,
                0.09930984675884247,
                0.09828346967697144,
                0.09112725406885147,
                0.0984959676861763,
                0.09985300898551941,
                0.10493255406618118,
                0.10160056501626969,
                0.08951206505298615,
                0.09573020040988922,
                0.0933915376663208,
                0.10436798632144928,
                0.0910847932100296,
                0.09398426860570908,
                0.1022653728723526
            ],
            "InputChannels": 16,
            "NumFilters": 16,
            "KernelSize": 3,
            "Stride": 1,
            "Padding": 0,
            "FiltersFlattened": [
                0.0210640337318182,
                -0.015722861513495446,
                0.03663003072142601,
                -0.04014902561903,
                0.002507925033569336,
                -0.018761875107884408,
                -0.05645045265555382,
                -0.04302288964390755,
                0.008960244245827198,
                -0.028071511536836625,
                -0.012099030427634716,
                -0.024484504014253618,
                0.027501912787556649,
                -0.029241541400551797,
                -0.0032305431086570026,
                -0.05773184448480606,
                0.04186569154262543,
                0.03414821997284889,
                0.013682495802640915,
                0.05968780443072319,
                0.029397722333669664,
                -0.011642185971140862,
                -0.049612391740083697,
                -0.0405140146613121,
                -0.014837236143648625,
                0.0009821997955441475,
                -0.025003137066960336,
                0.025893162935972215,
                0.029985425993800165,
                0.026029402390122415,
                -0.04856878146529198,
                0.05584761127829552,
                0.013773723505437374,
                0.04758065193891525,
                -0.009194199927151204,
                -0.017756761983036996,
                -0.005885243881493807,
                0.02449447102844715,
                0.00612142076715827,
                -0.04123081639409065,
                -0.029467346146702768,
                0.052965227514505389,
                -0.05003119632601738,
                0.03723627328872681,
                -0.01832134835422039,
                -0.038401875644922259,
                0.042089544236660007,
                0.0020708513911813499,
                -0.015296651050448418,
                0.04791418835520744,
                0.014520764350891114,
                -0.026156825944781305,
                -0.03512519598007202,
                0.018186263740062715,
                -0.054421912878751758,
                -0.04283678159117699,
                -0.04368145391345024,
                0.013089796528220177,
                0.015411549247801304,
                0.03985732048749924,
                0.05809434875845909,
                -0.024487070739269258,
                -0.020243236795067788,
                0.04590628296136856,
                -0.015898384153842927,
                0.011501013301312924,
                0.037348855286836627,
                0.05229300633072853,
                0.049277834594249728,
                -0.04123817756772041,
                0.011428982950747013,
                -0.034047335386276248,
                -0.03333515673875809,
                -0.011733859777450562,
                0.02540329098701477,
                0.035783037543296817,
                -0.020940985530614854,
                -0.032067812979221347,
                0.03961658850312233,
                -0.033596187829971316,
                0.012914757244288922,
                0.033868562430143359,
                -0.010737055912613869,
                0.037341609597206119,
                -0.05029168725013733,
                0.04800400137901306,
                0.03670143336057663,
                0.05285349860787392,
                0.047006506472826007,
                -0.028922146186232568,
                -0.04179986193776131,
                0.03878122568130493,
                0.061057861894369128,
                0.015912901610136033,
                -0.040235407650470737,
                0.05334858223795891,
                0.010747403837740422,
                -0.032504431903362277,
                0.004931827075779438,
                0.027413537725806237,
                -0.025621267035603524,
                -0.06721314787864685,
                0.012883216142654419,
                -0.049192287027835849,
                -0.03127604350447655,
                -0.006904042791575193,
                -0.06438788771629334,
                0.019433237612247468,
                0.05092417076230049,
                -0.01698550023138523,
                0.05863479524850845,
                0.05492880567908287,
                0.04666313901543617,
                0.007265743799507618,
                -0.024557996541261674,
                -0.02675202302634716,
                0.057901203632354739,
                0.010560437105596066,
                0.048564136028289798,
                -0.0001928445417433977,
                0.03775101155042648,
                0.04196774214506149,
                0.06216609477996826,
                0.015067500062286854,
                0.06088879331946373,
                0.03161538764834404,
                -0.03560386225581169,
                0.010041073895990849,
                -0.030427560210227968,
                0.040581222623586658,
                -0.03545491769909859,
                -0.0489090196788311,
                0.028776785358786584,
                -0.05638515576720238,
                0.028593793511390687,
                0.01403813436627388,
                0.07158593833446503,
                -0.04011521488428116,
                -0.005237277131527662,
                0.010406374000012875,
                0.04195147007703781,
                -0.05679905414581299,
                -0.052397362887859347,
                0.02216295152902603,
                -0.01025964505970478,
                -0.035720936954021457,
                -0.058082904666662219,
                0.0105831203982234,
                -0.015543179586529732,
                0.048708636313676837,
                0.06019438058137894,
                -0.053067293018102649,
                -0.01682909205555916,
                -0.06222865730524063,
                -0.06848409026861191,
                0.0055799405090510849,
                -0.05698417127132416,
                -0.051189593970775607,
                -0.033143430948257449,
                0.015524538233876229,
                -0.023521481081843377,
                -0.007867423817515374,
                -0.003847133833914995,
                -0.047971319407224658,
                0.05538805574178696,
                0.024280916899442674,
                -0.03730844706296921,
                0.028602158650755883,
                0.019015397876501085,
                0.0228213332593441,
                -0.03243438899517059,
                0.046291302889585498,
                -0.03683646395802498,
                -0.014161246828734875,
                0.020469732582569124,
                0.03571796417236328,
                0.034789618104696277,
                -0.021478675305843355,
                -0.03218810632824898,
                0.03356520086526871,
                0.025876913219690324,
                0.018581243231892587,
                -0.0263579860329628,
                -0.006081135477870703,
                0.047346312552690509,
                -0.02961050346493721,
                0.036800943315029147,
                0.02202047035098076,
                -0.056410063058137897,
                -0.04521362856030464,
                -0.006591420620679855,
                0.044335708022117618,
                0.033150866627693179,
                0.02440642938017845,
                -0.037972159683704379,
                -0.017073534429073335,
                0.005806640721857548,
                0.05321396514773369,
                0.02476632222533226,
                0.021192466840147973,
                -0.054476406425237659,
                -0.029245102778077127,
                0.03669959679245949,
                0.007546191569417715,
                0.014581805095076561,
                -0.052782606333494189,
                0.038185954093933108,
                0.058074742555618289,
                -0.014406071044504643,
                -0.038043126463890079,
                0.04767625406384468,
                0.03661882504820824,
                0.051122404634952548,
                0.0009637245093472302,
                0.05649324879050255,
                0.02090957947075367,
                -0.0450737401843071,
                -0.05995067209005356,
                -0.03640829026699066,
                0.021974779665470125,
                0.041194237768650058,
                -0.004089660942554474,
                0.023447101935744287,
                0.00019901656196452677,
                -0.03131946176290512,
                -0.01380070112645626,
                -0.05466792732477188,
                -0.019112221896648408,
                -0.03477834165096283,
                -0.01787932775914669,
                -0.031216558068990709,
                0.042417433112859729,
                0.0167598444968462,
                0.00182354508433491,
                0.027505038306117059,
                -0.008706565015017987,
                0.03335222974419594,
                0.019511833786964418,
                0.03330259025096893,
                0.03488283231854439,
                -0.015430969186127186,
                0.03641178458929062,
                -0.02552972175180912,
                0.03481394425034523,
                -0.024746600538492204,
                0.031010469421744348,
                0.04397771880030632,
                -0.031148547306656839,
                0.027224194258451463,
                -0.004542811308056116,
                -0.04388895630836487,
                -0.0013955319300293923,
                0.03973863646388054,
                0.06635928153991699,
                0.040536973625421527,
                0.01458052545785904,
                0.021199695765972139,
                -0.007967441342771054,
                -0.010404259897768498,
                -0.018172631040215493,
                -0.05045204237103462,
                -0.002140909433364868,
                0.04299924895167351,
                -0.04679151624441147,
                -0.056164272129535678,
                -0.05249323695898056,
                -0.03919115662574768,
                -0.011024447157979012,
                0.028281042352318765,
                0.0031933574937283994,
                0.04335539788007736,
                -0.007830056361854077,
                -0.03145486116409302,
                -0.011933295987546444,
                -0.020029427483677865,
                -0.052211709320545199,
                -0.034091439098119739,
                0.04522153362631798,
                -0.03811116889119148,
                0.008425911888480187,
                -0.009938529692590237,
                0.022243589162826539,
                0.015758605673909189,
                0.01801687851548195,
                -0.048023320734500888,
                0.021925417706370355,
                -0.051925741136074069,
                0.0158650241792202,
                0.017082171514630319,
                -0.04029105603694916,
                0.0389961414039135,
                -0.012749598361551762,
                -0.02652718499302864,
                -0.006074724718928337,
                0.02697586454451084,
                0.04482682794332504,
                0.0480952113866806,
                -0.02887612208724022,
                0.04698120057582855,
                -0.019119584932923318,
                0.01058061420917511,
                0.013685639947652817,
                0.01874585822224617,
                -0.019734706729650499,
                0.022603211924433709,
                0.030548689886927606,
                -0.0221914891153574,
                -0.015124889090657235,
                0.012967068701982499,
                0.027696626260876657,
                -0.019095955416560174,
                0.019678305834531785,
                -0.04200417920947075,
                0.0439581498503685,
                0.04794678837060928,
                -0.018329666927456857,
                0.04716280475258827,
                -0.027549145743250848,
                -0.051578473299741748,
                -0.018696006387472154,
                -0.05738862231373787,
                0.005594184622168541,
                0.023120678961277009,
                0.0013630485627800227,
                0.018092624843120576,
                -0.01179924700409174,
                -0.042115990072488788,
                0.028635410591959955,
                0.0180248711258173,
                -0.005850886460393667,
                -0.03948964178562164,
                -0.051162488758563998,
                -0.0469721183180809,
                0.052501171827316287,
                0.05849614366889,
                0.04204053431749344,
                -0.05281762406229973,
                -0.028468526899814607,
                0.05093804746866226,
                -0.02615918032824993,
                -0.02054254151880741,
                0.02065296843647957,
                0.054116301238536838,
                0.05710279569029808,
                0.053307387977838519,
                -0.03657817095518112,
                -0.018878033384680749,
                0.0023883231915533544,
                0.010900015011429787,
                -0.012386568821966648,
                0.06004347652196884,
                0.020060759037733079,
                -0.052547432482242587,
                -0.0089284498244524,
                -0.030281567946076394,
                -0.059734854847192767,
                0.0377739742398262,
                -0.04406911879777908,
                0.020271947607398034,
                -0.031137602403759958,
                0.011422010138630867,
                0.01300718728452921,
                0.029085300862789155,
                -0.04173135757446289,
                0.010298646986484528,
                -0.026188433170318605,
                0.005393487401306629,
                -0.038245972245931628,
                0.044162310659885409,
                -0.04956600069999695,
                -0.0315299853682518,
                0.013230977579951287,
                -0.016592780128121377,
                0.02501724660396576,
                -0.06301996111869812,
                -0.018037162721157075,
                0.003179210936650634,
                0.02597564458847046,
                0.012336209416389466,
                -0.008490349166095257,
                -0.04815839231014252,
                0.020573390647768976,
                -0.04527275264263153,
                -0.029482610523700715,
                -0.004108113702386618,
                -0.002918869024142623,
                0.0517624169588089,
                0.017710605636239053,
                0.03407343849539757,
                0.06494058668613434,
                0.0551939494907856,
                0.06242584437131882,
                0.021867696195840837,
                0.016283484175801278,
                0.028477728366851808,
                0.03779087960720062,
                0.05475990101695061,
                0.03145909681916237,
                -0.026832126080989839,
                0.017795316874980928,
                0.011630739085376263,
                -0.05091744288802147,
                0.01709970273077488,
                0.0014629618963226677,
                -0.04931223392486572,
                -0.022155867889523507,
                -0.030060112476348878,
                -0.02235104702413082,
                -0.009648418985307217,
                0.0465896800160408,
                -0.00503494730219245,
                -0.04280529543757439,
                0.001563600730150938,
                -0.03265177831053734,
                -0.04345658794045448,
                0.04991145431995392,
                0.001948780962266028,
                -0.007208736147731543,
                0.023160720244050027,
                -0.044624317437410358,
                -0.024824459105730058,
                0.0487460196018219,
                0.0029495307244360449,
                0.04825000837445259,
                -0.04838743060827255,
                -0.021722694858908654,
                -0.0496370904147625,
                0.02540585584938526,
                -0.05595646798610687,
                -0.027764711529016496,
                -0.015215562656521798,
                0.021599136292934419,
                -0.01984882354736328,
                0.049889132380485538,
                0.028956986963748933,
                0.05361976474523544,
                -0.053472720086574557,
                0.00851177517324686,
                -0.039197321981191638,
                -0.04205590486526489,
                -0.03450029715895653,
                0.011023612692952156,
                -0.03265387564897537,
                0.03323628380894661,
                -0.008438247255980969,
                0.030017048120498658,
                -0.014192418195307255,
                -0.02176528424024582,
                -0.0022251170594245197,
                0.02933548204600811,
                -0.02098074182868004,
                0.0029314779676496984,
                -0.041529733687639239,
                -0.018898585811257364,
                -0.012976640835404396,
                0.029163474217057229,
                0.018104568123817445,
                0.022577615454792978,
                -0.01584699936211109,
                0.025162937119603158,
                -0.03177881985902786,
                0.002327900379896164,
                -0.027204452082514764,
                -0.03943212330341339,
                0.004524539224803448,
                0.034271907061338428,
                0.0359477698802948,
                0.0090975696220994,
                -0.0024983694311231376,
                -0.036126039922237399,
                0.040622543543577197,
                0.04104415699839592,
                -0.02511311136186123,
                0.005597732495516539,
                0.043811824172735217,
                0.02423905022442341,
                0.02586386352777481,
                0.02753649652004242,
                0.0006509348750114441,
                -0.009098246693611145,
                0.05576607212424278,
                0.03284677490592003,
                -0.025249119848012925,
                -0.021384770050644876,
                0.05262187868356705,
                0.041592713445425037,
                0.0032414705492556097,
                -0.05774075910449028,
                0.010724042542278767,
                -0.056648556143045428,
                -0.024691656231880189,
                -0.013048018328845501,
                -0.030779113993048669,
                -0.009827368892729283,
                0.04584246873855591,
                0.02558722347021103,
                -0.01870347373187542,
                -0.060199983417987826,
                -0.03305375576019287,
                0.01678701862692833,
                0.05288779363036156,
                0.03935195878148079,
                0.042543333023786548,
                -0.024810729548335077,
                0.044984593987464908,
                -0.0049793594516813759,
                -0.028805913403630258,
                0.012417301535606385,
                -0.005900070536881685,
                0.018928173929452897,
                -0.05665240436792374,
                0.048017945140600207,
                -0.04021637514233589,
                0.05320150405168533,
                0.025661278516054155,
                -0.011982410214841366,
                -0.03176224231719971,
                0.049872007220983508,
                -0.03721318766474724,
                0.022390056401491166,
                -0.028089173138141633,
                0.035551365464925769,
                0.0572362095117569,
                -0.009917841292917729,
                0.045807089656591418,
                -0.003910004626959562,
                0.010095739737153054,
                0.04084661230444908,
                0.017011698335409166,
                -0.04080106317996979,
                -0.01740790158510208,
                0.02070637047290802,
                0.006007426418364048,
                0.048282571136951449,
                -0.008302560076117516,
                -0.03570805490016937,
                0.05589607357978821,
                0.05531615763902664,
                -0.009767423383891583,
                -0.0008990435744635761,
                0.014724255539476872,
                0.05120423436164856,
                0.0018496677512302995,
                0.0536368153989315,
                -0.05678549036383629,
                -0.013661305420100689,
                -0.031060263514518739,
                -0.021464962512254716,
                0.026411429047584535,
                -0.005772140342742205,
                -0.004366842098534107,
                -0.01182172168046236,
                0.03895663842558861,
                0.004467096645385027,
                -0.012540297582745552,
                -0.03918726369738579,
                0.03883974254131317,
                -0.008305293507874012,
                -0.011140299029648304,
                -0.010004937648773194,
                0.0437798835337162,
                -0.014673840254545212,
                0.05342484265565872,
                -0.02247900888323784,
                -0.022467978298664094,
                -0.018471067771315576,
                -0.01384667120873928,
                -0.02163790352642536,
                -0.0005510138580575585,
                0.002018898958340287,
                0.0019340807339176536,
                -0.03218463808298111,
                -0.0015707651618868113,
                0.025703534483909608,
                -0.05081552267074585,
                -0.021360380575060846,
                -0.035443682223558429,
                -0.05997844785451889,
                -0.012935459613800049,
                -0.0063241636380553249,
                -0.0369749553501606,
                -0.029508115723729135,
                -0.04494908079504967,
                -0.04071027785539627,
                0.01769913360476494,
                0.05989673361182213,
                0.05254092812538147,
                0.06342677772045136,
                -0.003753680968657136,
                -0.024279151111841203,
                -0.016148187220096589,
                0.00014943876885809004,
                0.010113086551427842,
                -0.05857313051819801,
                0.013772423379123211,
                -0.0346299409866333,
                0.05604568123817444,
                -0.02676539123058319,
                0.015702079981565477,
                0.020611179992556573,
                0.06259147822856903,
                0.05147590860724449,
                0.0394585020840168,
                -0.04540231451392174,
                0.05226115882396698,
                -0.035110510885715488,
                0.049128759652376178,
                -0.04649420455098152,
                -0.004724070429801941,
                -0.04798508062958717,
                0.04905211552977562,
                0.028880637139081956,
                -0.05694122985005379,
                0.04158761352300644,
                -0.04329386726021767,
                0.00864055473357439,
                -0.033206261694431308,
                0.03001350723206997,
                0.014407862909138203,
                -0.014941208995878697,
                0.00012643697846215218,
                -0.009448033757507801,
                0.048012372106313708,
                -0.026093171909451486,
                -0.03435378149151802,
                -0.05523451417684555,
                0.019311001524329187,
                -0.0056410497054457668,
                -0.049343716353178027,
                0.03787412494421005,
                -0.020553933456540109,
                0.05911073461174965,
                -0.0012198865879327059,
                0.029397694393992425,
                0.0018853209912776948,
                -0.013601027429103852,
                -0.0030814025085419418,
                -0.05910395458340645,
                -0.02992972731590271,
                -0.008281383663415909,
                -0.06399896740913391,
                0.021529117599129678,
                -0.003828852204605937,
                -0.025322655215859414,
                -0.024524064734578134,
                0.008774549700319767,
                -0.005562948994338512,
                0.02127978578209877,
                0.04177245870232582,
                -0.05000793933868408,
                0.06238172948360443,
                -0.036329932510852817,
                0.019152874127030374,
                -0.027668438851833345,
                -0.04349913448095322,
                0.00924973376095295,
                -0.0531734898686409,
                0.002881677821278572,
                0.04226168245077133,
                0.04792409762740135,
                0.007870987989008427,
                -0.01389800664037466,
                -0.06098734214901924,
                0.0169337410479784,
                0.026064692065119745,
                0.04983510822057724,
                -0.02399389259517193,
                -0.0303854551166296,
                -0.01667674444615841,
                0.03642807900905609,
                -0.050857678055763248,
                -0.034831590950489047,
                0.0020029181614518167,
                -0.03838113695383072,
                -0.01959162764251232,
                0.036908216774463657,
                0.06293666362762451,
                0.016431955620646478,
                0.05455762892961502,
                0.028795940801501275,
                0.017902038991451265,
                0.053650010377168658,
                0.020370151847600938,
                -0.045882586389780048,
                0.034488167613744739,
                -0.05206214636564255,
                -0.037144675850868228,
                -0.03622240200638771,
                0.003635813482105732,
                0.038290902972221377,
                -0.022492067888379098,
                0.04912131652235985,
                -0.053461577743291858,
                -0.02784368023276329,
                0.03160334378480911,
                0.0038960683159530164,
                0.019869213923811914,
                0.03475029766559601,
                0.008213020861148835,
                -0.014595176093280316,
                -0.029188010841608049,
                -0.0350777767598629,
                -0.019703591242432596,
                -0.05639961361885071,
                0.06102987006306648,
                0.03012312948703766,
                0.020760249346494676,
                -0.0008993324590846896,
                0.04343734681606293,
                -0.01461432222276926,
                0.020856810733675958,
                -0.002018965547904372,
                0.008575577288866043,
                -0.0315830335021019,
                -0.013254949823021889,
                0.014835965819656849,
                0.03103494457900524,
                -0.05976235121488571,
                0.03484320268034935,
                0.008396138437092305,
                0.012425140477716923,
                -0.047048624604940417,
                0.013015399686992169,
                -0.0043829092755913738,
                0.0022028100211173298,
                -0.04287434741854668,
                -0.039891403168439868,
                -0.03166044503450394,
                -0.014756569638848305,
                0.03450164943933487,
                -0.04831746965646744,
                -0.04857500270009041,
                0.0472242645919323,
                -0.0004898803890682757,
                -0.020126648247241975,
                -0.024791691452264787,
                0.012527940794825554,
                0.01033441536128521,
                -0.05143936723470688,
                -0.05030748248100281,
                -0.002974672941491008,
                0.04586450755596161,
                -0.021003222092986108,
                -0.029820028692483903,
                -0.028346333652734758,
                0.03146400675177574,
                -0.02833697572350502,
                0.02975417487323284,
                0.04290442168712616,
                -0.04373467341065407,
                0.027741046622395517,
                0.022267289459705354,
                -0.05656033754348755,
                -0.05784054845571518,
                0.03335680067539215,
                -0.03882057964801788,
                0.010927844792604447,
                0.03980857506394386,
                -0.0019350561778992415,
                0.037220679223537448,
                0.010857513174414635,
                -0.010699749924242497,
                -0.0501578189432621,
                -0.0472591295838356,
                -0.025188352912664415,
                0.010810958221554757,
                0.016252124682068826,
                -0.037591904401779178,
                0.054437071084976199,
                -0.04301070794463158,
                -0.04778886213898659,
                -0.03161575645208359,
                0.05152783542871475,
                0.028018543496727945,
                -0.0460466630756855,
                0.027440795674920083,
                0.033852431923151019,
                -0.015486199408769608,
                -0.03231510892510414,
                0.03288410231471062,
                0.041886329650878909,
                -0.012636255472898484,
                -0.014263313263654709,
                -0.029484190046787263,
                -0.05371790751814842,
                -0.015675630420446397,
                -0.052008774131536487,
                0.04496254399418831,
                0.022384997457265855,
                -0.03907559812068939,
                0.02308240346610546,
                0.03166165202856064,
                -0.047759220004081729,
                -0.029437631368637086,
                0.0011322430800646544,
                -0.0503307469189167,
                0.03682788833975792,
                -0.031971145421266559,
                0.05586882680654526,
                0.019265005365014077,
                -0.043163497000932696,
                -0.04675791785120964,
                0.03440973907709122,
                0.026122527197003366,
                -0.05625537782907486,
                -0.0015986335929483176,
                0.028897816315293313,
                -0.02532944269478321,
                0.04760485514998436,
                -0.05250965431332588,
                -0.01141063217073679,
                -0.032898347824811938,
                0.014840786345303059,
                0.02714030258357525,
                0.0543200746178627,
                -0.034572482109069827,
                -0.05381593853235245,
                0.036962661892175677,
                -0.05264533683657646,
                0.04724301025271416,
                0.0024981091264635326,
                0.0291855800896883,
                -0.0038502297829836609,
                0.03682893142104149,
                -0.007431121543049812,
                -0.021934757009148599,
                -0.04183727130293846,
                0.021855292841792108,
                -0.032643940299749377,
                -0.055685535073280337,
                0.048011574894189838,
                0.004156961105763912,
                -0.013570470735430718,
                0.004627239424735308,
                0.014354372397065163,
                0.02984107844531536,
                0.010632375255227089,
                0.015462033450603485,
                -0.032816316932439807,
                0.005393983330577612,
                0.016351373866200448,
                0.032725147902965549,
                0.05646975338459015,
                0.01881440356373787,
                0.03156775236129761,
                -0.002785749500617385,
                -0.04259504750370979,
                -0.015124601311981678,
                -0.026887230575084688,
                -0.025999300181865693,
                -0.05553040653467178,
                0.05952806770801544,
                -0.03873839229345322,
                -0.04953380674123764,
                -0.04006040468811989,
                -0.012788214720785618,
                0.016980627551674844,
                -0.05941905826330185,
                -0.023537684231996537,
                0.024748211726546289,
                -0.017002560198307039,
                -0.05208446830511093,
                -0.05371570587158203,
                0.04395477846264839,
                -0.04144466295838356,
                0.04209782928228378,
                0.03800401836633682,
                -0.05009547248482704,
                -0.04640604928135872,
                -0.03421686589717865,
                0.013527332805097103,
                -0.010779007337987423,
                0.00932431872934103,
                0.00010525677498662844,
                -0.02933037467300892,
                0.026300203055143358,
                0.02925327606499195,
                0.03451324999332428,
                -0.05582915246486664,
                0.052787140011787418,
                -0.03772043436765671,
                0.03250681608915329,
                -0.011186379939317704,
                0.05139438807964325,
                -0.06077105924487114,
                0.04910961911082268,
                -0.016880275681614877,
                -0.024200212210416795,
                -0.0125264348462224,
                -0.03242881968617439,
                -0.04982351139187813,
                0.010650393553078175,
                -0.017865223810076715,
                0.0019071982242166997,
                -0.03735657036304474,
                0.009729712270200253,
                0.029192883521318437,
                -0.04640386626124382,
                0.002070267451927066,
                0.04930233955383301,
                0.01844124123454094,
                -0.05079546943306923,
                -0.028720827773213388,
                -0.050909824669361117,
                0.021000580862164499,
                0.012958361767232418,
                -0.010859698057174683,
                0.02017911896109581,
                0.03722893074154854,
                -0.011665183119475842,
                0.015967994928359987,
                0.043024878948926929,
                0.05588104948401451,
                -0.017169145867228509,
                0.005972766317427158,
                0.01053607277572155,
                0.016417307779192926,
                -0.04667622223496437,
                0.04165595769882202,
                -0.03482240438461304,
                -0.0005964271258562803,
                -0.0002576341503299773,
                0.018477460369467737,
                0.04397590458393097,
                -0.04494710639119148,
                -0.05715559422969818,
                -0.04990106821060181,
                -0.04824097082018852,
                -0.020701082423329355,
                0.019390294328331949,
                0.05919086933135986,
                0.018344810232520105,
                -0.027030354365706445,
                -0.045741524547338489,
                -0.02442212589085102,
                -0.048161812126636508,
                -0.00008518144022673368,
                -0.017936283722519876,
                -0.027067013084888459,
                -0.013132515363395214,
                0.0006937069119885564,
                0.022916140034794809,
                -0.0005568343331106007,
                0.058458540588617328,
                0.010029032826423645,
                -0.029281629249453546,
                0.011846901848912239,
                0.05373502895236015,
                0.05494340881705284,
                0.011185744777321816,
                0.050499700009822848,
                0.016729755327105523,
                -0.03026512637734413,
                -0.023549072444438936,
                -0.0082908496260643,
                -0.03997853770852089,
                -0.009232969023287297,
                -0.012257800437510014,
                0.053384680300951007,
                0.0201113298535347,
                0.005679339170455933,
                -0.02043875679373741,
                -0.016921328380703927,
                -0.04597398266196251,
                -0.01229846104979515,
                0.057176053524017337,
                0.0065734111703932289,
                0.04197127744555473,
                -0.05251254141330719,
                -0.008749987930059433,
                -0.050758469849824908,
                -0.024659082293510438,
                0.04197784885764122,
                -0.0006170367123559117,
                0.022612033411860467,
                0.03656838834285736,
                -0.056670017540454867,
                0.020323777571320535,
                -0.023970048874616624,
                0.04491337016224861,
                -0.011043546721339226,
                -0.04561913013458252,
                -0.043266791850328448,
                0.027446631342172624,
                0.02818167954683304,
                -0.016015738248825074,
                -0.010646768845617772,
                0.05602638050913811,
                0.022084221243858339,
                -0.042852479964494708,
                0.019321758300065995,
                -0.04708733782172203,
                -0.011513253673911095,
                0.01111519243568182,
                0.04023248329758644,
                -0.037028852850198749,
                -0.01913907192647457,
                -0.019039742648601533,
                0.00854883249849081,
                0.01264567207545042,
                0.019299721345305444,
                0.027522245422005655,
                0.04863417148590088,
                0.0020975160878151657,
                0.0014324397780001164,
                0.017555933445692064,
                0.03665612265467644,
                0.03110055811703205,
                0.017033487558364869,
                0.016343796625733377,
                -0.04208122566342354,
                0.032432921230793,
                -0.04398724064230919,
                -0.05059997737407684,
                -0.02581009641289711,
                -0.004289616830646992,
                -0.03407794237136841,
                0.0075585003942251209,
                -0.012774623930454255,
                -0.05223062261939049,
                0.007432068232446909,
                0.009799383580684662,
                -0.03689467906951904,
                0.051167991012334827,
                0.032197851687669757,
                0.056293584406375888,
                0.0490388348698616,
                -0.030242284759879113,
                0.014723979867994786,
                0.002962214406579733,
                -0.0036095110699534418,
                0.018749810755252839,
                -0.04870694875717163,
                0.021414408460259439,
                -0.032271407544612887,
                0.01902465894818306,
                -0.03391122817993164,
                0.015875857323408128,
                -0.032460883259773257,
                -0.04740497097373009,
                0.007487259805202484,
                0.017464781180024148,
                -0.014971796423196793,
                -0.05121415853500366,
                0.06085550785064697,
                0.054133132100105289,
                -0.055408842861652377,
                -0.017096826806664468,
                -0.01400600466877222,
                -0.009033113718032837,
                0.05921483039855957,
                0.027733955532312394,
                0.05182908475399017,
                0.00046797620598226786,
                -0.06193246319890022,
                -0.0544956773519516,
                0.002971792360767722,
                0.052409250289201739,
                0.027380432933568956,
                0.005313413683325052,
                0.028867265209555627,
                0.00895130354911089,
                -0.04155940189957619,
                -0.049973081797361377,
                -0.04147189483046532,
                -0.0031972473952919246,
                0.015159634873270989,
                -0.013744130730628968,
                0.03971729055047035,
                0.00797172263264656,
                -0.032549913972616199,
                0.014822006225585938,
                -0.0072368476539850239,
                -0.01921483688056469,
                0.0053693861700594429,
                0.05749838426709175,
                -0.027609288692474366,
                -0.03959459066390991,
                0.05608151853084564,
                0.03987552970647812,
                0.050915662199258807,
                0.0040937382727861408,
                0.04285554587841034,
                -0.0347822830080986,
                -0.0002919888065662235,
                0.024854665622115136,
                0.02550267055630684,
                0.008051530458033085,
                0.022752629593014718,
                -0.03476468101143837,
                -0.040228717029094699,
                -0.032024554908275607,
                0.04770496115088463,
                0.023986784741282464,
                -0.017987679690122606,
                0.058152854442596439,
                0.0030170371755957605,
                -0.026016393676400186,
                0.044859979301691058,
                0.0003381498681847006,
                -0.023795871064066888,
                0.012688147835433483,
                -0.0002046654117293656,
                0.0329059474170208,
                -0.037973880767822269,
                -0.010410940274596215,
                -0.021146168932318689,
                0.009942122735083104,
                -0.06354767829179764,
                -0.05562809854745865,
                0.030136380344629289,
                -0.01763896457850933,
                -0.060853876173496249,
                0.04434918612241745,
                0.0051491535268723969,
                -0.039302557706832889,
                0.027926364913582803,
                0.05934811010956764,
                0.01574557088315487,
                0.00001400484597979812,
                0.039022915065288547,
                -0.04344376176595688,
                0.028723273426294328,
                0.025352295488119127,
                -0.001514585455879569,
                -0.05665329098701477,
                0.027739638462662698,
                0.030090363696217538,
                0.05966092646121979,
                0.0073412321507930759,
                -0.004346804693341255,
                0.05765016749501228,
                -0.0275434497743845,
                -0.004720842000097036,
                0.00815221481025219,
                -0.021592633798718454,
                -0.052628692239522937,
                -0.04736267775297165,
                -0.05503550544381142,
                -0.04747268185019493,
                -0.009278248995542527,
                -0.04651316627860069,
                0.005939998663961887,
                0.020783746615052224,
                -0.011054799892008305,
                0.02647591382265091,
                -0.02908945642411709,
                0.05681006982922554,
                -0.049979642033576968,
                -0.03941269591450691,
                -0.026492338627576829,
                0.009641941636800766,
                0.03135240450501442,
                -0.0042044622823596,
                0.02672947198152542,
                -0.027600428089499475,
                0.046991102397441867,
                0.03426635265350342,
                -0.019147802144289018,
                -0.03810775652527809,
                0.01908598653972149,
                -0.0006586754461750388,
                0.013801202178001404,
                -0.002176451263949275,
                0.01113959588110447,
                0.03985915705561638,
                -0.037091609090566638,
                0.010697304271161557,
                -0.010673463344573975,
                -0.025402825325727464,
                -0.04589668661355972,
                0.005616924725472927,
                0.034527890384197238,
                -0.007967374287545681,
                -0.06045662239193916,
                0.009648824110627175,
                -0.005484282039105892,
                -0.052554693073034289,
                -0.02609162963926792,
                0.028130389750003816,
                0.03846503049135208,
                0.03817217797040939,
                0.02425757423043251,
                0.04234551265835762,
                -0.02157464437186718,
                0.0456308089196682,
                -0.024231627583503724,
                0.037441954016685489,
                0.030111871659755708,
                -0.018641626462340356,
                -0.008346818387508393,
                -0.027971887961030008,
                0.034840453416109088,
                0.041291493922472,
                -0.008925759233534336,
                0.04057373106479645,
                -0.0031295493245124819,
                -0.05203959345817566,
                -0.062319740653038028,
                0.0038487566635012628,
                0.0015079481527209283,
                0.01265106163918972,
                0.007449823897331953,
                0.03381652012467384,
                -0.0569387823343277,
                0.018991870805621148,
                0.017692536115646364,
                -0.04139108583331108,
                -0.013561055064201355,
                -0.05129169300198555,
                0.020839478820562364,
                0.03518287092447281,
                0.0008058109087869525,
                0.007100303657352924,
                -0.014520525932312012,
                0.05908685550093651,
                0.052600204944610599,
                0.031228777021169664,
                -0.03419016674160957,
                0.029183484613895417,
                0.002398003824055195,
                -0.015402399934828282,
                0.04238208010792732,
                -0.054461102932691577,
                0.030954094603657724,
                0.03733300045132637,
                0.035300999879837039,
                -0.06072721257805824,
                -0.05838143080472946,
                -0.039665937423706058,
                -0.04068659618496895,
                -0.013603106141090393,
                -0.05132364481687546,
                0.04378661885857582,
                -0.03040003962814808,
                -0.04364917799830437,
                -0.026371289044618608,
                0.04972940310835838,
                0.03415282443165779,
                0.018415700644254686,
                -0.0361616387963295,
                -0.05340809375047684,
                -0.010579911060631276,
                0.017731213942170144,
                0.016681229695677758,
                0.018506893888115884,
                0.031621191650629047,
                -0.02865157462656498,
                0.0022850953973829748,
                0.006429527420550585,
                0.05895208194851875,
                0.002341922139748931,
                0.03395135700702667,
                -0.033355798572301868,
                0.04253934696316719,
                -0.04717891290783882,
                0.028273968026041986,
                -0.007619198877364397,
                0.05064105987548828,
                -0.04223664849996567,
                0.056930061429739,
                0.03918108716607094,
                -0.029363013803958894,
                -0.018755270168185235,
                0.057953719049692157,
                -0.017087118700146676,
                0.030244925990700723,
                0.02763676643371582,
                -0.01599249057471752,
                -0.029513927176594735,
                0.0234952662140131,
                0.056986354291439059,
                0.0574960894882679,
                0.003930129576474428,
                0.005226340144872665,
                -0.0015267456183210016,
                0.05580708011984825,
                -0.02938525192439556,
                -0.00822080485522747,
                -0.04687657952308655,
                -0.050887223333120349,
                0.0029223612509667875,
                -0.00640450743958354,
                -0.005534942261874676,
                -0.039948511868715289,
                -0.010249405167996884,
                -0.012778202071785927,
                0.04192071408033371,
                0.042099617421627048,
                -0.05828171223402023,
                -0.006172469351440668,
                0.03050936572253704,
                0.05101575329899788,
                0.022869093343615533,
                0.036622364073991778,
                -0.0009757247171364725,
                0.0398586243391037,
                -0.045632585883140567,
                0.01930343173444271,
                -0.028302982449531556,
                0.04402293637394905,
                -0.057903096079826358,
                0.04411199316382408,
                -0.02429010532796383,
                0.043570954352617267,
                -0.056933458894491199,
                0.02688406966626644,
                -0.009982763789594174,
                0.028878772631287576,
                -0.0006605424568988383,
                -0.035309333354234698,
                0.001665889285504818,
                -0.056623972952365878,
                0.03372355177998543,
                -0.05925331264734268,
                -0.02882237732410431,
                -0.038536932319402698,
                0.02482444979250431,
                -0.05196833983063698,
                -0.0034252689220011236,
                0.04966241493821144,
                -0.05975094065070152,
                0.04959281533956528,
                -0.01588709093630314,
                0.036111149936914447,
                0.049708254635334018,
                -0.05762876197695732,
                -0.028011377900838853,
                0.02298945188522339,
                -0.0573490709066391,
                0.009977170266211033,
                0.03650159388780594,
                0.0025529353879392149,
                -0.04089516028761864,
                -0.027895990759134294,
                -0.048471931368112567,
                0.022175105288624765,
                -0.03815695643424988,
                0.011304022744297982,
                -0.04140407592058182,
                0.02054169774055481,
                0.054465923458337787,
                0.05780482664704323,
                -0.026075471192598344,
                0.030564725399017335,
                0.04380793496966362,
                0.02282346598803997,
                -0.044936198741197589,
                0.018315855413675309,
                0.002701287856325507,
                -0.022903436794877054,
                -0.038117486983537677,
                -0.04738461971282959,
                -0.036238327622413638,
                -0.018506964668631555,
                0.04441976547241211,
                -0.05121581256389618,
                0.00014043899136595428,
                -0.002405988285318017,
                0.04494824260473251,
                0.05148884281516075,
                -0.005564456805586815,
                0.02753267250955105,
                0.02669055573642254,
                0.048175111413002017,
                -0.010296978056430817,
                0.05372028797864914,
                0.040695834904909137,
                0.0023043989203870298,
                0.05059611052274704,
                0.009316877461969853,
                -0.05958210676908493,
                -0.047238513827323917,
                0.04752841591835022,
                0.035544127225875857,
                0.052664995193481448,
                -0.05665704980492592,
                0.014928847551345826,
                0.00341695174574852,
                0.04543004930019379,
                -0.03398224711418152,
                0.04455628618597984,
                0.01013876497745514,
                -0.03973545506596565,
                0.02639302797615528,
                -0.008628064766526223,
                0.029104480519890786,
                -0.01672513037919998,
                0.039297815412282947,
                -0.012401280924677849,
                -0.056298788636922839,
                -0.03661356121301651,
                0.02165875770151615,
                0.01837579533457756,
                -0.04055033251643181,
                -0.033283911645412448,
                -0.02807394042611122,
                -0.026999440044164659,
                -0.01912355236709118,
                -0.017995020374655725,
                0.04801740124821663,
                0.0391087606549263,
                0.011239662766456604,
                0.026235055178403856,
                0.05193669721484184,
                -0.03081646002829075,
                -0.05804857239127159,
                -0.042818035930395129,
                -0.013042016886174679,
                -0.014503427781164647,
                0.04058326780796051,
                -0.011480187065899372,
                0.05021129176020622,
                0.0070074694231152538,
                0.024247553199529649,
                -0.049134816974401477,
                0.046285323798656467,
                0.010051743127405644,
                -0.057571493089199069,
                -0.0002182253956561908,
                0.019846979528665544,
                0.010487723164260388,
                -0.06217333674430847,
                -0.0446472205221653,
                0.04640083387494087,
                -0.01588362082839012,
                -0.022479690611362459,
                -0.00771696399897337,
                0.02756683900952339,
                0.012673186138272286,
                0.028992030769586564,
                0.030407540500164033,
                -0.02183995209634304,
                -0.03288298472762108,
                -0.05974455550312996,
                -0.013938683085143566,
                -0.026430794969201089,
                0.04050294682383537,
                -0.03552120923995972,
                -0.00869725365191698,
                -0.01886708289384842,
                0.008217334747314453,
                0.05483235418796539,
                -0.009782782755792141,
                0.001229844056069851,
                0.013945309445261956,
                -0.03251669928431511,
                -0.04725119099020958,
                0.05131476745009422,
                -0.04205165058374405,
                -0.015413349494338036,
                0.01951131783425808,
                -0.02642643265426159,
                0.04466139152646065,
                0.022119440138339998,
                -0.0189045500010252,
                0.03853009268641472,
                -0.0016010378021746874,
                0.043146297335624698,
                0.009367469698190689,
                0.06137111037969589,
                0.01352063287049532,
                -0.009384146891534329,
                0.03736730292439461,
                0.018589502200484277,
                -0.04801464453339577,
                -0.04735838621854782,
                0.020591992884874345,
                0.004852799698710442,
                -0.02410626783967018,
                0.036657046526670459,
                -0.0536445714533329,
                -0.016030099242925645,
                0.011139510199427605,
                -0.04525469243526459,
                -0.05088784173130989,
                0.01229002419859171,
                0.0040064360946416859,
                0.006696460768580437,
                -0.03130149468779564,
                -0.048778269439935687,
                -0.03719816729426384,
                -0.0011275098659098149,
                0.02264118194580078,
                -0.020709728822112085,
                -0.040320634841918948,
                0.012246882542967797,
                0.0017923752311617137,
                0.011061145924031735,
                0.023665130138397218,
                0.007025139406323433,
                0.03336837887763977,
                0.05727843940258026,
                0.013188819400966168,
                -0.009412753395736218,
                0.031990110874176028,
                -0.03464333713054657,
                -0.03456394374370575,
                0.04252244904637337,
                0.0017280902247875929,
                0.00966859981417656,
                0.012687350623309613,
                0.007647766266018152,
                0.012696502730250359,
                -0.032183319330215457,
                -0.03006596677005291,
                -0.03661093860864639,
                0.007837602868676186,
                0.021646536886692048,
                0.006546651478856802,
                0.021569009870290757,
                -0.02613668702542782,
                0.052244674414396289,
                0.01640191301703453,
                -0.0014666540082544089,
                0.03752383217215538,
                -0.04126707836985588,
                0.025790071114897729,
                -0.004088892601430416,
                -0.0020994567312300207,
                -0.0014688406372442842,
                0.0018953640246763826,
                -0.04787015542387962,
                0.048956066370010379,
                0.029284680262207986,
                -0.059005461633205417,
                -0.050793495029211047,
                0.02836085669696331,
                -0.04203955456614494,
                -0.016011910513043405,
                0.04430581256747246,
                -0.011301016435027123,
                0.022746650502085687,
                -0.051196180284023288,
                0.017253000289201738,
                -0.0008212287211790681,
                0.013368112966418267,
                0.04368645325303078,
                -0.008175757713615895,
                -0.04355204850435257,
                0.05792990326881409,
                0.06012160703539848,
                0.04598288983106613,
                0.06975395977497101,
                0.06485463678836823,
                -0.018862266093492509,
                0.05059804394841194,
                -0.010190741159021855,
                -0.048075564205646518,
                0.005097446963191032,
                0.009559331461787224,
                -0.008890398778021336,
                0.018496297299861909,
                -0.02612444758415222,
                -0.06271801888942719,
                -0.06038433313369751,
                -0.005913711618632078,
                0.015466220676898957,
                0.0346946157515049,
                -0.03784164413809776,
                -0.04348732903599739,
                -0.010215158574283123,
                -0.008556528016924858,
                -0.022163573652505876,
                0.021065417677164079,
                -0.026739194989204408,
                0.009314753115177155,
                0.04521198943257332,
                0.05600415915250778,
                0.056014955043792728,
                -0.03641465678811073,
                -0.027536936104297639,
                -0.02837206982076168,
                -0.011304894462227822,
                0.009003892540931702,
                -0.002362239407375455,
                0.02195737324655056,
                -0.046092551201581958,
                0.044912710785865787,
                -0.002651275135576725,
                -0.039761483669281009,
                0.02386353351175785,
                0.01269765105098486,
                0.0035342054907232525,
                0.026693187654018403,
                -0.01389333140105009,
                0.01637624204158783,
                -0.015229958109557629,
                -0.050305187702178958,
                0.01372723001986742,
                -0.05430873855948448,
                0.05555378273129463,
                -0.05199086293578148,
                -0.029497412964701654,
                0.048358749598264697,
                -0.002169373445212841,
                -0.00029425820684991777,
                -0.0032547132577747108,
                -0.027150874957442285,
                0.019076630473136903,
                0.019963795319199563,
                0.05647158622741699,
                -0.013003691099584103,
                -0.03820865601301193,
                -0.00808047130703926,
                -0.011855912394821644,
                -0.03165839612483978,
                -0.015563524328172207,
                0.034174755215644839,
                -0.004315266851335764,
                -0.02358347363770008,
                -0.017469890415668489,
                0.024472299963235856,
                -0.026184268295764924,
                0.0583709180355072,
                -0.008303184993565083,
                0.03472651168704033,
                0.04772590100765228,
                0.011845460161566735,
                -0.023513641208410264,
                0.013469222001731396,
                -0.03428596630692482,
                0.03013160079717636,
                -0.021283626556396486,
                0.04805678129196167,
                -0.03663353994488716,
                -0.04090110585093498,
                0.05700964480638504,
                -0.007103982847183943,
                -0.053495850414037707,
                -0.056976091116666797,
                -0.02648121491074562,
                0.04185973480343819,
                -0.028016509488224984,
                0.042676039040088657,
                -0.03436024487018585,
                -0.019599750638008119,
                -0.006813096813857555,
                -0.05092966556549072,
                -0.02448025718331337,
                -0.04111609607934952,
                -0.02447090484201908,
                0.00516660837456584,
                0.011744792573153973,
                -0.019590359181165696,
                0.023136882111430169,
                -0.029061593115329744,
                0.03539971634745598,
                -0.028577303513884546,
                -0.004650353919714689,
                0.021862536668777467,
                0.010251963511109352,
                0.040381673723459247,
                0.05333816632628441,
                -0.05412817746400833,
                -0.005409842357039452,
                -0.03517117723822594,
                -0.052150990813970569,
                -0.02633235603570938,
                -0.03051169030368328,
                -0.02967246249318123,
                -0.030558893457055093,
                0.049228161573410037,
                0.02601749822497368,
                -0.007974320091307164,
                -0.054483380168676379,
                -0.003838170552626252,
                -0.011522636748850346,
                -0.009121707640588284,
                0.033624317497015,
                -0.04995216056704521,
                -0.017698664218187333,
                0.035870976746082309,
                -0.026351680979132654,
                -0.04102355241775513,
                -0.02169771119952202,
                0.017884820699691774,
                -0.03993532434105873,
                0.057013675570487979,
                -0.03398184850811958,
                0.05085679888725281,
                -0.0159082543104887,
                0.027147112414240838,
                0.048733390867710116,
                -0.015002108179032803,
                -0.004402197431772947,
                -0.01444381382316351,
                0.04447364807128906,
                -0.0324886329472065,
                -0.013541657477617264,
                0.05710597336292267,
                -0.02679498866200447,
                -0.031741149723529819,
                0.04277229681611061,
                -0.05313219875097275,
                0.0492808073759079,
                -0.013321802951395512,
                0.0375911146402359,
                -0.04047653451561928,
                -0.023078402504324914,
                -0.033691536635160449,
                0.03872597590088844,
                -0.01448938250541687,
                -0.004769869148731232,
                -0.011816795915365219,
                -0.02079693414270878,
                0.03209015354514122,
                0.007835657335817814,
                0.036194607615470889,
                0.027821099385619165,
                0.032920707017183307,
                -0.05553985387086868,
                -0.05069997161626816,
                -0.05283048003911972,
                -0.02464900352060795,
                0.0440499484539032,
                0.0007381740724667907,
                0.05260644108057022,
                -0.02126285620033741,
                0.06068132817745209,
                0.013866026885807515,
                0.00617228914052248,
                -0.033228471875190738,
                -0.05731308087706566,
                0.033999279141426089,
                0.03714918717741966,
                -0.03899678960442543,
                0.05475999414920807,
                -0.02816394343972206,
                -0.026193903759121896,
                0.05620430409908295,
                0.038998838514089587,
                0.060954075306653979,
                0.0220534335821867,
                0.05755189433693886,
                -0.04498825967311859,
                0.056162551045417789,
                -0.026152033358812333,
                0.008115182630717755,
                -0.0502043254673481,
                0.019342342391610147,
                0.04190916195511818,
                -0.04432470723986626,
                0.00008335953316418454,
                0.010656051337718964,
                0.05450775846838951,
                -0.03956436738371849,
                -0.04768623039126396,
                0.0005111451609991491,
                -0.04169921204447746,
                -0.014639288187026978,
                -0.013666629791259766,
                -0.0020795264281332494,
                -0.04021131619811058,
                0.020458504557609559,
                0.018555166199803354,
                0.015069669112563134,
                -0.01581990346312523,
                0.019949471578001977,
                0.010461077094078064,
                -0.04034116491675377,
                0.03785470873117447,
                -0.01879686862230301,
                0.00850547756999731,
                0.03607276454567909,
                0.05943693593144417,
                -0.051367681473493579,
                -0.011127790436148644,
                -0.05186370760202408,
                -0.036056458950042728,
                0.046023327857255939,
                -0.031145205721259118,
                -0.01460878737270832,
                -0.03028867579996586,
                -0.021191740408539773,
                0.03125305101275444,
                -0.0018550805980339647,
                0.026827363297343255,
                -0.00533085223287344,
                0.042942650616168979,
                0.01817675307393074,
                -0.04994846135377884,
                -0.008994456380605698,
                -0.05439383164048195,
                0.0387539267539978,
                0.0027400117833167316,
                -0.020753519609570504,
                0.03874864801764488,
                0.057756129652261737,
                -0.01752050407230854,
                0.0029605519957840444,
                0.0177734587341547,
                0.014831186272203923,
                0.06257273256778717,
                0.05110372602939606,
                0.04306943342089653,
                -0.0008139937999658287,
                0.0033600234892219307,
                0.021714365109801294,
                0.006734915543347597,
                0.044822175055742267,
                0.03160729631781578,
                -0.05436619743704796,
                -0.02068638987839222,
                -0.02514481358230114,
                -0.040174927562475207,
                -0.053679969161748889,
                -0.0292813703417778,
                0.04153785482048988,
                0.05502966791391373,
                -0.03541094809770584,
                0.048464640974998477,
                0.050703536719083789,
                0.03734735772013664,
                0.05092806741595268,
                -0.049397777765989307,
                -0.016119763255119325,
                -0.026898207142949106,
                0.026977678760886194,
                -0.024209536612033845,
                0.02303592674434185,
                -0.03094327263534069,
                -0.00782451219856739,
                0.028723793104290963,
                0.0237188171595335,
                -0.026241974905133249,
                0.01835005357861519,
                -0.021612565964460374,
                -0.028348546475172044,
                -0.010798628441989422,
                -0.0291683841496706,
                0.049324680119752887,
                -0.05752209946513176,
                0.041841089725494388,
                0.05535522848367691,
                0.04511531814932823,
                -0.0528637170791626,
                -0.03764030709862709,
                0.03505074605345726,
                0.022245308384299279,
                -0.00035310667590238154,
                -0.05147145316004753,
                0.058333445340394977,
                -0.05385499447584152,
                -0.04249320179224014,
                0.01721753552556038,
                0.026825085282325746,
                0.034823957830667499,
                -0.05173290893435478,
                0.040906310081481937,
                -0.0008583405870012939,
                -0.03420273959636688,
                0.038503918796777728,
                -0.010959435254335404,
                0.043174877762794498,
                0.0163107942789793,
                -0.017843909561634065,
                -0.02130943536758423,
                0.014847013168036938,
                -0.05800428241491318,
                0.0003316816873848438,
                0.014744121581315995,
                0.04801083728671074,
                -0.013792703859508038,
                0.02042902261018753,
                -0.026926174759864808,
                0.040708549320697787,
                -0.05063193291425705,
                0.0412893183529377,
                -0.050950828939676288,
                -0.05073322728276253,
                -0.030214598402380945,
                0.002138216746971011,
                -0.05551418662071228,
                0.036218784749507907,
                0.011931686662137509,
                -0.030309097841382028,
                -0.014972628094255925,
                0.006058315746486187,
                -0.05280544236302376,
                0.008226211182773114,
                0.0428507924079895,
                -0.020697854459285737,
                -0.003367890138179064,
                -0.05794094130396843,
                -0.04998897388577461,
                -0.04609109088778496,
                0.014462300576269627,
                0.05233541876077652,
                -0.02596116065979004,
                -0.000774305546656251,
                0.022386478260159494,
                -0.0027345207054167988,
                0.027162538841366769,
                -0.040516793727874759,
                0.043525390326976779,
                -0.03944363817572594,
                0.013659968040883541,
                -0.010409419424831868,
                0.049429815262556079,
                0.03400075435638428,
                0.013065529055893422,
                0.047585513442754748,
                0.05621303990483284,
                0.02874903567135334,
                -0.03343288600444794,
                0.021159915253520013,
                0.033863089978694919,
                0.010027465410530568,
                -0.026525020599365236,
                -0.006849245168268681,
                0.05493934452533722,
                0.026593361049890519,
                0.00844733975827694,
                -0.008250844664871693,
                0.015440181829035283,
                -0.02890694886445999,
                -0.009965600445866585,
                -0.018482593819499017,
                0.004503986798226833,
                -0.04320868104696274,
                -0.03520958498120308,
                -0.04855549708008766,
                0.007320973090827465,
                0.007436112500727177,
                -0.015112120658159256,
                0.032918769866228107,
                0.029943982139229776,
                0.038322173058986667,
                0.0510835275053978,
                -0.006890188902616501,
                0.010088852606713772,
                0.05270134285092354,
                0.018489349633455278,
                -0.027216250076889993,
                0.047129448503255847,
                0.051299065351486209,
                -0.011617504991590977,
                0.027536310255527498,
                0.0328938327729702,
                -0.01416199840605259,
                -0.02480512671172619,
                -0.05759141221642494,
                0.01956639438867569,
                0.04211616888642311,
                0.0029620779678225519,
                0.051881421357393268,
                0.04668765142560005,
                -0.020902177318930627,
                0.0034610501024872066,
                0.012479700148105622,
                0.02820802666246891,
                -0.02532793954014778,
                0.03961575776338577,
                0.03388315066695213,
                0.012505549006164074,
                0.001911425730213523,
                -0.017135553061962129,
                -0.007745740469545126,
                -0.017490722239017488,
                -0.008496083319187165,
                0.05083741992712021,
                0.05322067812085152,
                0.020912880077958108,
                0.039969369769096377,
                0.03944123908877373,
                -0.05526666343212128,
                -0.04980219155550003,
                -0.023906880989670755,
                0.001170131261460483,
                0.021259082481265069,
                0.04577524960041046,
                0.01871061697602272,
                0.003287416184321046,
                -0.03699824586510658,
                0.03447374701499939,
                -0.04120732843875885,
                -0.005576971918344498,
                0.024741414934396745,
                -0.05636397749185562,
                -0.013171638362109661,
                0.04425496980547905,
                -0.006141337566077709,
                -0.02719070389866829,
                -0.022791793569922448,
                0.022588053718209268,
                -0.025075161829590799,
                -0.05111682787537575,
                0.041139449924230579,
                0.021011756733059884,
                -0.011690986342728138,
                0.011283548548817635,
                0.05189011991024017,
                -0.01593131758272648,
                -0.019010774791240693,
                -0.00730041554197669,
                -0.01783287711441517,
                -0.019191963598132135,
                0.03677257150411606,
                -0.05857599154114723,
                -0.0021860506385564806,
                0.04503317177295685,
                0.01083335094153881,
                0.03325439617037773,
                0.04002741351723671,
                0.025315744802355768,
                -0.050601776689291,
                0.023510383442044259,
                0.020092546939849855,
                0.05896003171801567,
                -0.013209307566285134,
                -0.04730653390288353,
                0.017406286671757699,
                -0.014555519446730614,
                0.05120662972331047,
                0.007377276662737131,
                0.007201323751360178,
                0.02525908872485161,
                -0.014680996537208557,
                -0.03450130671262741,
                0.009008754044771195,
                0.0577411949634552,
                -0.030499737709760667,
                0.01692967675626278,
                -0.04259670898318291,
                -0.05859663337469101,
                0.04179149866104126,
                -0.031350743025541309,
                -0.035488422960042956,
                0.022109245881438257,
                -0.009284681640565396,
                0.03815004602074623,
                0.011722748167812825,
                0.023091889917850496,
                0.0032923580147325994,
                0.003990334924310446,
                -0.029183462262153627,
                0.010947274044156075,
                -0.00945216417312622,
                0.008332733996212483,
                0.008296811021864415,
                0.0035141007974743845,
                -0.014811837114393711,
                0.04324229061603546,
                -0.027402829378843309,
                -0.02166268602013588,
                0.05155322328209877,
                0.006583074107766151,
                -0.009648886509239674,
                0.03021262027323246,
                0.05211561918258667,
                0.025891689583659173,
                0.0558992363512516,
                0.02222619578242302,
                -0.0015411351341754199,
                0.0015772180631756783,
                0.017660200595855714,
                0.05682520195841789,
                0.019075602293014528,
                0.028306912630796434,
                0.027863623574376107,
                0.03100920096039772,
                -0.007680173497647047,
                0.043311186134815219,
                0.0028870641253888609,
                0.0035205562599003317,
                -0.005652524996548891,
                0.054315101355314258,
                0.040740493685007098,
                -0.014170615002512932,
                -0.021670285612344743,
                0.040915437042713168,
                -0.044557131826877597,
                0.029183082282543184,
                0.004221654962748289,
                0.0472121424973011,
                0.005647850688546896,
                -0.018150728195905687,
                -0.019912393763661386,
                0.04023342579603195,
                -0.03399495407938957,
                -0.009325249120593071,
                0.045205533504486087,
                -0.0009968546219170094,
                0.04085993021726608,
                0.02752489596605301,
                0.04432548210024834,
                0.053322933614254,
                -0.03276558592915535,
                -0.06429509818553925,
                0.04070686548948288,
                -0.021542174741625787,
                0.04915420338511467,
                0.01854412443935871,
                0.044587068259716037,
                0.038648154586553577,
                -0.04823236167430878,
                0.0007850287947803736,
                -0.007195930927991867,
                0.031424593180418017,
                0.036834023892879489,
                0.06435044854879379,
                0.029966097325086595,
                -0.057063519954681399,
                0.0004886625683866441,
                -0.05021877586841583,
                0.0029136445373296739,
                -0.028282329440116884,
                -0.0425625778734684,
                0.00356747442856431,
                -0.056241896003484729,
                -0.020896757021546365,
                0.014939120970666409,
                0.04275333881378174,
                0.013705828227102757,
                -0.02277214825153351,
                0.025873307138681413,
                -0.07704754918813706,
                -0.04787933826446533,
                0.019125374034047128,
                0.003850803477689624,
                0.0037155505269765856,
                0.018860122188925744,
                0.031140603125095369,
                -0.002093249000608921,
                0.06604978442192078,
                0.06978431344032288,
                -0.0037821924779564144,
                0.048526763916015628,
                0.03518357127904892,
                0.035834845155477527,
                -0.052647609263658527,
                0.06077331304550171,
                0.018531115725636483,
                -0.05069722235202789,
                -0.03695963695645332,
                0.02456609718501568,
                0.045524712651968,
                0.0586065836250782,
                0.025960752740502359,
                -0.03197203576564789,
                0.014983768574893475,
                0.03995679318904877,
                0.02024874836206436,
                0.04660683497786522,
                0.009859555400907994,
                0.0185525082051754,
                -0.05378272384405136,
                -0.04657551273703575,
                -0.0003030156949535012,
                0.04838218912482262,
                -0.04560327157378197,
                -0.008713729679584504,
                0.017516182735562326,
                -0.05439772456884384,
                -0.024520689621567727,
                -0.02048034779727459,
                0.04225568473339081,
                0.005852770525962114,
                0.0029767267405986788,
                -0.03890061378479004,
                -0.04907011613249779,
                -0.010042823851108551,
                -0.007315018214285374,
                0.026762651279568673,
                0.059238944202661517,
                -0.017807984724640847,
                0.06126078590750694,
                0.03909531608223915,
                -0.013991205021739006,
                0.012785363011062146,
                -0.06164413318037987,
                -0.05677293241024017,
                -0.011087382212281227,
                0.008864798583090306,
                -0.04869546741247177,
                0.027574893087148668,
                -0.050519101321697238,
                0.042887359857559207,
                0.04770278558135033,
                -0.026108628138899804,
                0.041829437017440799,
                -0.014896205626428128,
                -0.020979799330234529,
                0.025856265798211099,
                0.03060833178460598,
                0.020530719310045244,
                -0.009144001640379429,
                0.014310319907963276,
                0.039780307561159137,
                0.04713398963212967,
                0.03847696632146835,
                -0.017770539969205858,
                -0.005206274800002575,
                0.01121180783957243,
                -0.03672633692622185,
                -0.03143930435180664,
                -0.004984315484762192,
                -0.05589079484343529,
                -0.05561509355902672,
                -0.022135775536298753,
                0.023526517674326898,
                -0.02667994797229767,
                0.015503919683396817,
                0.03915397822856903,
                0.04851577430963516,
                -0.06392266601324082,
                0.04211340844631195,
                0.05535876750946045,
                0.04606076329946518,
                -0.0007118857465684414,
                -0.0339614674448967,
                -0.060707464814186099,
                0.016922568902373315,
                -0.031050579622387887,
                -0.029989616945385934,
                0.011284710839390755,
                -0.05376991629600525,
                0.013075567781925202,
                0.04064065217971802,
                -0.02696998044848442,
                0.04467640444636345,
                -0.015832578763365747,
                -0.05139945447444916,
                0.01348732691258192,
                0.04583032429218292,
                0.026032142341136934,
                0.021366436034440995,
                0.047554727643728259,
                -0.008473255671560765,
                0.04760100319981575,
                -0.023223165422677995,
                -0.056781820952892306,
                0.03544694185256958,
                0.007660175673663616,
                0.010318725369870663,
                0.005607077851891518,
                0.026991378515958787,
                -0.00006709217268507928,
                0.038438428193330768,
                0.03144671395421028,
                0.040900640189647678,
                -0.0010042580543085933,
                0.022267507389187814,
                -0.02161329984664917,
                0.02743154764175415,
                0.04173683002591133,
                0.025106307119131089,
                -0.028910236433148385,
                -0.022014789283275605,
                0.0045798420906066898,
                -0.03922797739505768,
                0.03645982965826988,
                -0.04385078325867653,
                0.02982792817056179,
                -0.011615324765443802,
                -0.02154720574617386,
                -0.029702046886086465,
                -0.05026421323418617,
                0.049612365663051608,
                -0.04434281587600708,
                -0.022696038708090783,
                -0.06295114010572434,
                -0.002930732211098075,
                -0.0649881511926651,
                -0.03793935850262642,
                -0.04633799567818642,
                -0.04636319354176521,
                -0.04868718981742859,
                0.02658875100314617,
                0.036836035549640658,
                0.05162949860095978,
                0.016369178891181947,
                0.04676032438874245,
                -0.04205545783042908,
                0.0017044268315657974,
                -0.0017401115037500859,
                0.02558353915810585,
                0.03411582484841347,
                0.04987988993525505,
                -0.0525185763835907,
                -0.054505836218595508,
                -0.01167424488812685,
                0.007400935515761375,
                0.044033318758010867,
                0.02713176980614662,
                0.0013841430190950633,
                0.04536252096295357,
                -0.05266337841749191,
                -0.0345517098903656,
                -0.026118475943803788,
                -0.02312396466732025,
                0.02442253567278385,
                0.0005320693599060178,
                0.008979293517768383,
                -0.008140645921230317,
                0.03924069181084633,
                0.044492047280073169,
                0.020477307960391046,
                -0.0493328757584095,
                0.00484156608581543,
                0.021664170548319818,
                0.018892893567681314,
                0.014118093065917492
            ],
            "Conv_InputChannels": 16,
            "Conv_NumFilters": 16,
            "Conv_KernelSize": 3
        },
        {
            "LayerType": "Dense",
            "Activation": 0,
            "InputSize": 192,
            "OutputSize": 64,
            "WeightsFlattened": [
                -0.03227442502975464,
                -0.033114682883024219,
                0.014052703976631165,
                -0.004632811062037945,
                0.005725117865949869,
                0.03645259514451027,
                0.004968714434653521,
                -0.020327990874648095,
                0.01027590036392212,
                -0.023343725129961969,
                -0.00985743012279272,
                -0.00406288355588913,
                0.004745638929307461,
                0.012833509594202042,
                0.04268433153629303,
                0.0016642134869471193,
                0.0030237804166972639,
                0.031125834211707116,
                0.04532299190759659,
                0.02815503254532814,
                -0.03142378851771355,
                0.0068932403810322289,
                -0.02674606442451477,
                0.01638972945511341,
                -0.0061530484817922119,
                0.0038199054542928936,
                0.03153206780552864,
                0.002786696422845125,
                0.04358814284205437,
                -0.031821358948946,
                -0.002217196859419346,
                -0.0397564172744751,
                -0.04650653898715973,
                -0.01653272844851017,
                0.01875424012541771,
                -0.03317025676369667,
                -0.009119629859924317,
                -0.013289649039506913,
                -0.014040024019777775,
                -0.026081886142492296,
                0.04468578100204468,
                0.02809549681842327,
                -0.025853237137198449,
                0.014539744704961777,
                -0.019255023449659349,
                -0.040643222630023959,
                -0.02043778821825981,
                0.002075298223644495,
                0.013939286582171917,
                -0.03490991145372391,
                0.046475376933813098,
                0.04671615734696388,
                0.02434418722987175,
                0.003948923200368881,
                -0.025286199524998666,
                0.014359669759869576,
                0.05092161148786545,
                0.0466187484562397,
                -0.047788675874471667,
                0.04699509218335152,
                -0.04565584287047386,
                0.05062556266784668,
                -0.014086656272411347,
                -0.0066626183688640598,
                0.03313159942626953,
                -0.021835897117853166,
                -0.008652678690850735,
                -0.030906379222869874,
                0.04902433231472969,
                0.020326286554336549,
                -0.027359990403056146,
                -0.04213637486100197,
                -0.008168181404471398,
                0.020460303872823716,
                0.03405028581619263,
                -0.0038125209975987674,
                -0.021182864904403688,
                0.013519134372472763,
                -0.01067555882036686,
                -0.01946594938635826,
                -0.01809544861316681,
                -0.021656835451722146,
                0.038024868816137317,
                0.03322043642401695,
                -0.03143506869673729,
                0.009019078686833382,
                -0.003216395154595375,
                0.0021190878469496967,
                -0.043917253613471988,
                -0.0470103919506073,
                -0.0330393984913826,
                -0.007347398903220892,
                -0.01437041163444519,
                -0.0017664531478658319,
                -0.03076036088168621,
                0.044175051152706149,
                -0.010883891023695469,
                0.038772981613874438,
                0.034875161945819858,
                -0.04904378205537796,
                0.018284618854522706,
                -0.05182424560189247,
                0.007486940827220678,
                0.039570823311805728,
                -0.0423106886446476,
                0.03857729583978653,
                0.007557323668152094,
                -0.046057071536779407,
                0.01937456801533699,
                0.029394254088401796,
                -0.015488501638174057,
                -0.00459043774753809,
                0.013354713097214699,
                0.014947144314646721,
                0.02811361476778984,
                0.027216199785470964,
                -0.04230278730392456,
                0.012941502965986729,
                -0.023754337802529336,
                -0.02332431636750698,
                0.04295260086655617,
                0.035645488649606708,
                -0.03466693311929703,
                0.03479267656803131,
                0.003272637026384473,
                0.026473920792341234,
                0.022231154143810273,
                0.04862993210554123,
                0.003383175004273653,
                0.040770772844552997,
                -0.043998125940561298,
