{"Layers":[{"Weights":[-0.15696541965007783,-0.2804616391658783,0.21085157990455628,-0.13674549758434297,-0.15281352400779725,0.24256861209869386,-0.1444532573223114,-0.11949604004621506,-0.08329100161790848,0.024344461038708688,-0.051072265952825549,0.035153958946466449,0.25060153007507326,-0.15492068231105805,0.1271849125623703,-0.0029590323101729156,-0.09065192192792893,0.2306719422340393,0.12080761045217514,-0.15280745923519135,-0.2923934757709503,-0.19696998596191407,-0.06230372190475464,-0.03518043830990791,-0.09401329606771469,-0.022240934893488885,0.15732090175151826,0.32063910365104678,0.17200098931789399,-0.29788199067115786,-0.18126298487186433,-0.2848937213420868,-0.11417869478464127,-0.07703455537557602,-0.20930054783821107,-0.331802636384964,0.016712568700313569,0.0210498608648777,-0.15456834435462953,-0.2992453873157501,-0.1151319146156311,-0.10667689889669419,-0.09125226736068726,-0.09683005511760712,-0.007495678961277008,0.00013960152864456177,0.02576315402984619,0.08822137117385864,-0.06356298178434372,-0.1163104847073555,0.21315127611160279,-0.04558369889855385,0.22721974551677705,0.19023559987545014,0.04608776420354843,-0.1418367326259613,0.14755913615226746,-0.08223801851272583,0.06517793983221054,-0.026280365884304048,0.3212350010871887,0.07783938944339752,0.199880912899971,0.03936793655157089,-0.0566897913813591,0.3020860254764557,-0.06444627791643143,-0.042252156883478168,-0.20410104095935822,0.004726075567305088,0.19348075985908509,-0.15041086077690125,-0.12331649661064148,-0.27008676528930666,-0.6558941006660461,-0.564719557762146,-0.3314320743083954,-0.2842562198638916,-0.05210219323635101,0.04418027773499489,0.030007805675268174,-0.5363075733184815,-0.20619066059589387,-0.3470413386821747,-0.08190334588289261,0.052511777728796008,0.12559068202972413,0.06276145577430725,0.052855074405670169,-0.14644357562065125,0.13077519834041596,0.06038633733987808,-0.09261804074048996,0.1316756159067154,-0.06009797379374504,0.5483973622322083,0.11952901631593704,-0.02705303393304348,0.06119029223918915,0.138981431722641,0.08409314602613449,0.22151301801204682,-0.028841059654951097,0.0766059011220932,0.02620268054306507,0.10903491079807282,0.14431051909923554,0.4269256889820099,-0.021305471658706666,0.07705818116664887,0.001472987001761794,0.08089961111545563,0.15937508642673493,-0.08165169507265091,0.39043188095092776,0.15315069258213044,0.06600422412157059,0.11115574091672898,0.1349753588438034,-0.5979329943656921,0.03350895270705223,0.23611372709274293,0.034697964787483218,0.10760200768709183,0.16291970014572144,0.16461673378944398,-0.10616640746593476,-0.030098576098680497,0.07843270897865296,-0.08083608746528626,-0.06357479095458985,-0.10613098740577698,-0.1586073338985443,-0.15246999263763429,-0.026217704638838769,-0.0835438072681427,-0.0022258111275732519,-0.06619786471128464,-0.10770819336175919,0.025414161384105684,0.07945510745048523,-0.10092257708311081,0.04130088537931442,0.5362794399261475,-0.11529616266489029,-0.005797868128865957,-0.03087928146123886,-0.12041520327329636,0.0010649057803675533,-0.04274492338299751,0.18871571123600007,-0.03466843441128731,-0.16852428019046784,0.15347258746623994,0.18340173363685609,0.3125866949558258,0.0819108709692955,-0.08897137641906738,0.09040599316358566,0.051589444279670718,0.1398722529411316,-0.15205982327461244,0.13950881361961366,-0.04362047091126442,-0.05348258465528488,-0.055080629885196689,0.05781840160489082,-0.41830334067344668,0.03622755780816078,0.03687567636370659,-0.05404070019721985,0.021086810156702997,-0.016321154311299325,0.1393677294254303,0.0174549650400877,-0.06963212043046951,0.03491077572107315,0.019406678155064584,-0.01040868554264307,0.06932941824197769,-0.12385609745979309,-0.04614565894007683,0.038007404655218127,0.052334170788526538,0.01533708069473505,0.09053709357976914,0.15792517364025117,-0.009844551794230938,-0.0500103235244751,0.12018962949514389,0.025492843240499498,0.5348942875862122,0.05208563432097435,-0.07712505012750626,0.04404734447598457,0.008148936554789544,0.057621557265520099,0.5899952054023743,0.08750394731760025,0.03467598184943199,0.09292851388454437,-0.059782128781080249,-0.01537315733730793,-0.5406789183616638,0.1739339679479599,0.036134086549282077,0.08425459265708924,-0.06769399344921112,-0.20173794031143189,-0.719089150428772,0.04928663372993469,-0.04124036058783531,0.03133140131831169,-0.05383552238345146,-0.024981211870908738,-0.01457204669713974,-0.03044607862830162,0.10944900661706925,0.010341750457882882,0.07552527636289597,0.06678996235132218,0.2250530868768692,0.06885918229818344,-0.04747648537158966,-0.02489912323653698,0.0658683255314827,0.031719185411930087,0.0654921606183052,0.035073161125183108,0.007632053457200527,-0.053571317344903949,0.07902286946773529,0.07052141427993775,0.1809900552034378,0.16370558738708497,0.009482120163738728,0.0156392864882946,0.16652733087539674,0.006759544834494591,0.5406952500343323,0.05014898627996445,0.10910474509000778,0.10981877893209458,0.06227470189332962,-0.002947454806417227,0.5406893491744995,0.058968376368284228,0.18032287061214448,0.07861600071191788,0.02253720350563526,-0.029533252120018007,-0.5813140869140625,0.10659876465797425,0.04338078573346138,-0.012829619459807873,-0.0036989212967455389,-0.015440615825355053,-0.1451135277748108,-0.22513505816459657,0.05790848284959793,0.048279933631420138,0.11843019723892212,0.04234272614121437,0.9212517142295837,0.04572496563196182,0.06962276995182038,-0.05992705747485161,0.0771891176700592,0.08157354593276978,-0.024978632107377054,-0.09410635381937027,0.09284280240535736,0.07621127367019654,0.03989433869719505,0.06908471137285233,-0.34808263182640078,0.08853481709957123,-0.06871505081653595,0.1379067301750183,0.18975579738616944,0.041223712265491489,0.12824389338493348,0.020778268575668336,-0.003323374781757593,0.07917672395706177,-0.054860919713974,-0.1086440458893776,-0.40003421902656557,0.1583801954984665,-0.0010860448237508536,-0.025421373546123506,-0.018804563209414483,-0.05844065546989441,-0.1154591366648674,0.05008988082408905,-0.019860979169607164,0.02530716359615326,-0.04065343737602234,0.05832631140947342,0.10834091901779175,0.0913795456290245,0.026767469942569734,0.05071283131837845,0.07090377807617188,0.03513893485069275,-0.040740322321653369,-0.05367756634950638,0.04657119885087013,0.1274920552968979,0.28277167677879336,0.09945444017648697,0.8702609539031982,0.08319005370140076,0.010586795397102833,0.11905840784311295,-0.13591139018535615,0.08310659974813461,0.09869517385959625,-0.0027810430619865658,0.15598778426647187,0.06274225562810898,0.021268485113978387,0.003070936305448413,-0.34883832931518557,-0.05619562417268753,0.1033572107553482,-0.026125043630599977,0.08258285373449326,0.08284339308738709,0.22212646901607514,-0.005785857792943716,0.046922795474529269,0.16903156042099,-0.026831405237317086,-0.029045918956398965,-0.3420427143573761,0.05229439213871956,0.06515659391880036,-0.041848547756671908,0.04611986503005028,0.08025968819856644,-0.2952776849269867,0.017120253294706346,-0.07217682898044586,-0.020055560395121576,0.1021723598241806,0.005452489946037531,0.40757596492767336,-0.048943743109703067,-0.03448589891195297,0.11030185967683792,-0.034716591238975528,0.07387582957744599,-0.4259670674800873,-0.09139982610940933,-0.013264203444123268,0.01383229624480009,0.07855487614870072,0.07712206989526749,0.30149418115615847,0.022265680134296418,0.018397174775600435,0.07779344916343689,0.08277080208063126,0.0953955426812172,0.1486368477344513,-0.08978290855884552,0.004171657841652632,0.0048228660598397259,0.07390852272510529,0.025511376559734346,0.9057626128196716,0.10884573310613632,0.09989356249570847,-0.041683826595544818,-0.046093136072158816,-0.18050365149974824,-0.4980428218841553,0.007762342691421509,0.09846808016300202,0.03723248094320297,0.07935084402561188,0.07239282131195069,-0.09897388517856598,0.002182120457291603,0.1016487255692482,0.06625086814165116,-0.026404473930597307,0.09964745491743088,-0.13971759378910066,0.046828918159008029,-0.048946354538202289,0.0011805885005742312,0.0783269852399826,0.08794207870960236,0.3555368185043335,0.09103928506374359,0.02041517198085785,-0.00522294407710433,-0.020590675994753839,0.14270634949207307,-0.40171289443969729,0.21749384701251985,0.13040591776371003,-0.022792773321270944,0.027311263605952264,0.10193300992250443,0.37510138750076296,0.09281571954488754,0.07531540095806122,0.22668270766735078,0.1277046799659729,0.06725294888019562,0.21433866024017335,-0.11646329611539841,0.04473360255360603,-0.030440552160143853,0.13679933547973634,0.0651281476020813,1.0202407836914063,-0.0010018013417720795,-0.09485559910535813,-0.264833927154541,0.2320719212293625,0.36378762125968935,0.5739979147911072,-0.02987915836274624,-0.17149853706359864,-0.03055432252585888,-0.06641543656587601,-0.16999638080596925,0.126923605799675,-0.0379970408976078,-0.0898566022515297,-0.22140152752399445,0.03243796154856682,-0.005325252190232277,0.045685991644859317,-0.11378814280033112,0.03778406232595444,0.06936458498239517,0.04305720701813698,0.09077613800764084,-0.31250911951065066,0.24519960582256318,-0.024466028437018396,-0.033897656947374347,-0.019921859726309778,-0.010606168769299984,0.08357258886098862,-0.11796747148036957,-0.04885262995958328,-0.0717848539352417,-0.043913643807172778,0.022493168711662294,-0.29229536652565,0.017322296276688577,-0.03120405413210392,-0.020589008927345277,0.01132687833160162,-0.023084281012415887,-0.018337659537792207,-0.10154813528060913,0.10791842639446259,0.0692404955625534,0.04046913981437683,0.018746480345726014,-0.013779908418655396,0.09152702242136002,-0.0016404466005042196,-0.16930799186229707,0.1747342050075531,0.3976551294326782,0.7017800211906433,0.022469468414783479,-0.14903950691223145,0.03689561411738396,-0.014511706307530404,-0.067298024892807,0.1527399867773056,-0.031142614781856538,-0.014806684106588364,-0.14163455367088319,-0.002985002938657999,0.020334692671895028,0.07285342365503311,-0.3483823239803314,0.006367475260049105,-0.05303165689110756,-0.07872170209884644,0.08420061320066452,-0.2486947476863861,0.05226055532693863,0.02626885287463665,0.022020336240530015,0.006818205118179321,0.03657612204551697,0.18767429888248444,-0.11342897266149521,0.07704417407512665,0.06896968930959702,0.07890159636735916,0.10190236568450928,-0.12905780971050263,-0.19920144975185395,-0.16615799069404603,0.12452248483896256,-0.03329487517476082,0.02189919911324978,-0.14843852818012238,-0.29840171337127688,-0.04702109843492508,-0.27047133445739748,0.11475124210119248,0.07220209389925003,0.08308803290128708,0.12994951009750367,-0.40326300263404848,-0.05169505998492241,-0.03425688296556473,-0.04077892005443573,0.2065345197916031,-0.18719805777072907,0.4729468822479248,-0.2206198126077652,0.15706004202365876,-0.002933134324848652,0.26852673292160036,-0.11926949769258499,-0.2017141878604889,0.150083526968956,0.3359517455101013,0.07938029617071152,0.009926817379891873,-0.15844352543354035,-0.16948585212230683,0.10556232184171677,0.15769994258880616,0.18417692184448243,0.059571027755737308,-0.009273030795156956,-0.22673600912094117,-0.14167234301567079,-0.15376664698123933,-0.03869558125734329,-0.21028217673301698,0.027185365557670594,0.08039507269859314,-0.09860982000827789,-0.029059570282697679,0.059460654854774478,-0.09073443710803986,-0.10864290595054627,0.005095376167446375,0.11980688571929932,-0.04606479033827782,-0.020589089021086694,-0.23054783046245576,-0.30633094906806948,-0.05637582764029503,0.3165076673030853,-0.25340357422828677,-0.1268010288476944,0.12336371093988419,-0.38359102606773379,0.15679259598255158,-0.22385196387767793,-0.0007783548790030181,0.11821642518043518,0.15107668936252595,0.23063641786575318,0.09815162420272827,0.008520042523741722,0.09544480592012406,-0.05311275273561478,0.17365071177482606,-0.12774276733398438,-0.2311723381280899,0.11166328936815262,0.08113573491573334,-0.08734297752380371,-0.13987688720226289,-0.10594918578863144,-0.11402463912963867,-0.22599327564239503,-0.26082485914230349,-0.07912095636129379,-0.27054834365844729,0.0342644527554512,0.02865999937057495,0.012882810086011887,0.1622437983751297,0.03877168148756027,0.8624628782272339,0.04936699569225311,0.051658470183610919,0.04525477811694145,0.031012993305921556,0.006614276207983494,-0.19860407710075379,0.13984885811805726,0.0833030715584755,0.009045261889696122,0.01408755499869585,0.04829629138112068,-0.6711363792419434,0.02741088531911373,-0.025081997737288476,-0.030294233933091165,0.1227419376373291,0.04966820031404495,0.6946203708648682,0.042295485734939578,0.0034692708868533375,0.10416002571582794,0.13891100883483888,0.03702111542224884,-0.3815543055534363,-0.01487090066075325,0.03187588229775429,0.07068095356225968,0.0121874725446105,-0.013588656671345234,-0.2097204625606537,0.04921621456742287,0.012521127238869667,0.00021135201677680016,-0.020546307787299157,-0.01451590284705162,0.10608300566673279,-0.06597578525543213,0.012148991227149964,-0.06726828217506409,-0.10709626972675324,0.09753824770450592,0.007412351667881012,0.051952775567770007,-0.0063513582572340969,0.023258214816451074,0.11529263854026795,0.044939249753952029,0.873469352722168,0.052232950925827029,0.02776344306766987,0.11179240047931671,0.1583685576915741,0.07021863013505936,-0.19472020864486695,0.10858545452356339,0.031216168776154519,0.08268216997385025,-0.05295757204294205,0.0442342571914196,-0.640090823173523,0.09238240122795105,0.04201887547969818,0.05346592888236046,0.1131572499871254,0.014414090663194657,0.6965404152870178,-0.043477270752191547,0.022304648533463479,-0.0059277755208313469,0.03533021733164787,0.0278435368090868,-0.3269062936306,-0.014938410371541977,0.06187121570110321,0.11324067413806915,0.020091960206627847,0.04158353805541992,-0.15229319036006928,-0.014034824445843697,0.02220119535923004,0.020680446177721025,-0.14699573814868928,0.10903581976890564,0.20314769446849824,0.021682847291231157,0.08042807877063751,-0.0025083329528570177,0.0781964436173439,0.04287687689065933,-0.031515106558799747,0.051170386373996738,-0.04895463585853577,0.08001947402954102,0.0026078037917613985,-0.0030660200864076616,0.1499183475971222,-0.13954488933086396,-0.027680514380335809,0.035403862595558169,0.015388996340334416,-0.09815890341997147,0.2044597566127777,-0.15641450881958009,-0.1259911060333252,-0.5479984879493713,-0.1986604928970337,-0.5703206658363342,-0.39826542139053347,0.29179275035858157,0.05299369618296623,0.21050521731376649,0.137581467628479,0.19198384881019593,-0.11140299588441849,0.1178925633430481,0.05053600296378136,-0.02229839190840721,-0.04652000218629837,-0.021148163825273515,-0.2037300318479538,-0.06299611926078797,-0.07944032549858093,-0.05955074727535248,-0.07070446014404297,-0.028243649750947954,0.07242885231971741,-0.13884305953979493,0.025761686265468599,-0.13152335584163667,-0.0853632315993309,0.10579769313335419,0.20795007050037385,-0.0675475224852562,-0.04841890186071396,-0.14565414190292359,-0.0725003331899643,-0.019777165725827218,-0.0775129422545433,-0.030504481866955758,-0.12710660696029664,0.06068773940205574,-0.10766974091529846,-0.06830191612243653,0.07591389864683151,-0.13698656857013703,-0.06671027094125748,-0.05426570028066635,-0.0774189680814743,-0.09629661589860916,0.06465262174606323,-0.050706420093774798,0.11639577895402909,0.27791640162467959,0.5446963906288147,0.10698826611042023,-0.1117788627743721,-0.022859765216708185,-0.2891569435596466,-0.2787310779094696,-0.4215308129787445,-0.07172073423862457,-0.2651821970939636,-0.028380295261740686,-0.01869271881878376,-0.21804817020893098,0.16381379961967469,-0.21408119797706605,-0.15830671787261964,0.16541260480880738,-0.0909401923418045,0.15297943353652955,0.15632764995098115,0.11565949767827988,-0.025844229385256769,0.3856666386127472,-0.14309507608413697,0.14970692992210389,-0.19883868098258973,-0.3570147156715393,0.038248319178819659,-0.241488516330719,-0.6686239838600159,0.07383716106414795,0.0876149982213974,0.13057900965213777,-0.4445011615753174,0.03351137414574623,0.00801056157797575,-0.0494946613907814,-0.09662462770938873,-0.007732753176242113,0.1615055948495865,0.1479201465845108,-0.17016777396202088,-0.13830147683620454,0.006602314300835133,0.06360689550638199,0.13706891238689423,-0.1025235503911972,-0.03944963961839676,-0.13700425624847413,0.03821924328804016,0.38110366463661196,0.019335918128490449,0.07708042860031128,0.05271619185805321,0.08999066054821015,-0.0649382472038269,-0.08041942119598389,0.07687418907880783,0.1521088033914566,0.061699818819761279,0.0167637150734663,-0.2341863214969635,-0.06264302879571915,-0.20442445576190949,-0.2795906364917755,-0.16467958688735963,0.09928818047046662,-0.0091459471732378,-0.054498352110385898,0.04033859446644783,-0.17658059298992158,-0.13837219774723054,-0.19491098821163178,-0.17255055904388429,0.07353811711072922,0.09420062601566315,-0.27576056122779848,-0.7074704766273499,0.28789597749710085,-0.08996516466140747,-0.17182758450508119,-0.4477536380290985,0.01086366269737482,0.21679848432540894,-0.0017875917255878449,-0.1628979593515396,-0.1687498688697815,0.1373479962348938,-0.07093006372451782,-0.29714781045913699,-0.2301730066537857,-0.24959152936935426,0.047858309000730517,0.051029935479164126,0.02131849154829979,-0.012601489201188088,0.01241356786340475,0.15287849307060243,-0.010406126268208027,0.10676772147417069,-0.07513844966888428,-0.05141768977046013,0.04289302974939346,0.066159188747406,-0.052552442997694018,0.14665547013282777,0.0014853135216981173,-0.016255278140306474,-0.11130088567733765,0.05395640432834625,-0.049735620617866519,0.07732079178094864,-0.011855695396661759,-0.058654721826314929,-0.007261801511049271,-0.01179451122879982,0.035784486681222919,-0.07672438770532608,-0.2837875187397003,-0.1040690541267395,-0.008473248220980168,-0.03498871251940727,-0.032274916768074039,-0.5335942506790161,-0.14664483070373536,-0.09776436537504196,0.1899345964193344,-0.06574531644582749,0.07008234411478043,0.28034329414367678,0.0019408634398132563,0.04841180890798569,-0.00924658589065075,0.08882170170545578,-0.03156889230012894,-0.03960234299302101,-0.07348817586898804,0.07885335385799408,-0.0525955855846405,-0.06062968075275421,-0.040628936141729358,-0.029828742146492006,0.0023992157075554134,0.029931893572211267,0.01848592795431614,0.11632514744997025,-0.0403621532022953,0.28265851736068728,-0.03643360361456871,-0.06622075289487839,0.03496091067790985,-0.038423895835876468,-0.08409187942743302,0.12666459381580354,-0.023854579776525499,0.003239762270823121,-0.08362827450037003,-0.020403552800416948,0.004445030819624662,0.11426062136888504,-0.04255461320281029,-0.061458006501197818,-0.04563551023602486,-0.028749244287610055,-0.02298925817012787,-0.03321436792612076,-0.14905738830566407,0.08112161606550217,0.2264755815267563,0.07472134381532669,0.012299427762627602,-0.5320932865142822,-0.15737105906009675,-0.002885204739868641,0.041072312742471698,0.09496547281742096,0.04235769808292389,0.19903753697872163,-0.0918312668800354,0.06493095308542252,0.1042434349656105,0.17241309583187104,0.045703593641519549,0.20038937032222749,0.010139046236872673,0.012926527298986912,-0.010893819853663445,-0.07451090961694718,0.029211943969130517,0.14885011315345765,0.09338440001010895,0.056982193142175677,0.0005994270322844386,-0.007929021492600441,0.10047788918018341,0.36646750569343569,-0.038080181926488879,0.09893614798784256,0.08247918635606766,-0.04528055712580681,0.053508810698986056,-0.2195388674736023,0.07959500700235367,0.027425937354564668,-0.03369808942079544,-0.002813003258779645,-0.01293079275637865,0.06433134526014328,0.03694326803088188,0.12246949970722199,-0.0006347956950776279,0.06849084049463272,0.09125973284244538,0.1433975249528885,-0.04329630732536316,0.09115689992904663,0.018265852704644204,-0.13852551579475404,-0.15935763716697694,-0.4031805694103241,-0.05845562741160393,0.028007306158542634,-0.09065075218677521,-0.07409621775150299,0.09975661337375641,0.10023248195648194,0.22231777012348176,0.08144980669021607,0.1385592520236969,0.09958019107580185,0.08114052563905716,0.1067253053188324,-0.06689823418855667,-0.015817658975720407,0.09033939242362976,0.07133112102746964,0.09905087202787399,0.07661782205104828,0.12308447062969208,-0.049232520163059238,0.07224328070878983,0.013731660321354866,0.04635230079293251,0.276383638381958,-0.09167137742042542,0.05052672326564789,-0.034370411187410358,-0.17805306613445283,-0.004674735479056835,-0.12190040200948715,-0.0013174761552363635,0.10266822576522827,0.09265857934951782,0.0922677218914032,-0.008694698102772236,-0.008358356542885304,-0.012794379144906998,0.027211451902985574,0.0782332494854927,0.07851137220859528,0.19229000806808473,0.16493038833141328,-0.1059272363781929,0.051917701959609988,0.050853341817855838,-0.012902401387691498,0.053660206496715549,-0.07936118543148041,-0.056520167738199237,0.08366049826145172,0.1325642615556717,0.02730630896985531,0.019520925357937814,-0.21199023723602296,-0.021020280197262765,0.06697037070989609,0.0844779834151268,0.0116113955155015,0.07174186408519745,-0.34055256843566897,-0.09322195500135422,0.07539287954568863,0.09384333342313767,0.03959781304001808,0.053229715675115588,0.17558854818344117,0.14563706517219544,-0.2332541048526764,0.05003538727760315,0.022138085216283799,0.1151965782046318,0.24788662791252137,0.06392701715230942,0.04967527836561203,0.07156960666179657,-0.051299404352903369,0.05892358720302582,0.043400838971138,0.08533194661140442,0.010324792936444283,0.10032065957784653,0.07711175084114075,0.09083372354507446,0.5753318071365356,0.027370046824216844,0.0029582828283309938,-0.014703676104545594,0.0663401335477829,0.006360232830047607,0.05612808093428612,0.0487309955060482,0.07383683323860169,0.07476936280727387,0.00485621253028512,0.09370769560337067,-0.1564558446407318,0.08595407754182816,0.0034797880798578264,0.01744476705789566,0.01345798373222351,0.06620460748672486,-0.2535984218120575,0.056858792901039126,-0.1157451644539833,0.0037174427416175606,-0.07969827950000763,0.050003740936517718,-0.27169182896614077,0.13749022781848908,0.096137136220932,0.023298582062125207,0.124989815056324,0.07614464312791825,0.04363594949245453,-0.09018825739622116,0.025604719296097757,0.056889332830905917,0.05195854976773262,0.006226724945008755,0.27938568592071535,0.06997948884963989,0.1184951439499855,0.027354834601283075,-0.05181694030761719,0.0421583354473114,0.09683821350336075,-0.015716034919023515,0.09906021505594254,-0.3073529303073883,0.19541609287261964,0.004989841021597385,0.49228760600090029,0.23362666368484498,-0.06529873609542847,0.0679403617978096,-0.010891714133322239,-0.0031094008591026069,-0.10981614887714386,-0.17576198279857636,0.22906345129013062,-0.0025840196758508684,-0.0517309345304966,0.020711388438940049,0.1867043673992157,0.26204177737236025,0.12667006254196168,0.0896344929933548,-0.011281040497124195,-0.028914645314216615,-0.37192732095718386,-0.22513993084430695,0.15263164043426515,0.08739354461431503,-0.103128582239151,0.00742530170828104,0.04940234497189522,-0.15149737894535066,0.07664854824542999,0.005823754705488682,0.08420990407466889,-0.016825459897518159,-0.058338843286037448,-0.050930242985486987,0.06081407889723778,0.0010914913145825267,-0.016776079311966897,-0.018215572461485864,0.15250065922737122,0.0937063917517662,-0.10552197694778443,-0.07796207070350647,0.02645014226436615,-0.06168752908706665,-0.09102019667625427,-0.13663934171199799,-0.003804196836426854,-0.025106357410550119,-0.04937468469142914,0.034615080803632739,0.4778023660182953,0.350252628326416,-0.0700981542468071,0.033460136502981189,0.026648178696632386,0.08876383304595947,-0.07968037575483322,-0.002910320647060871,0.17326074838638307,0.054815515875816348,0.08210241049528122,0.14050741493701936,0.22477282583713532,0.7461808919906616,0.16592955589294434,0.06406974792480469,-0.027554243803024293,-0.010214947164058686,-0.3599010705947876,0.14271990954875947,0.14924941956996919,0.18207083642482758,-0.03736655414104462,-0.026390505954623224,0.01320778951048851,0.22919252514839173,0.3285263180732727,-0.0725172609090805,0.06882888078689575,-0.046110961586236957,0.0824424996972084,0.02479199878871441,0.03596796467900276,0.042314913123846057,-0.021887287497520448,0.0009253272437490523,0.26594477891921999,-0.07723389565944672,0.008310260251164437,0.006886507384479046,0.014670235104858876,-0.017178893089294435,0.029098179191350938,-0.28768500685691836,-0.21498389542102815,0.09601744264364243,0.08396387845277786,0.05907345563173294,0.023300135508179666,-0.03301355615258217,0.20084314048290254,0.16723182797431947,0.10806615650653839,0.04370969161391258,-0.24522866308689118,0.04361508786678314,0.05084095522761345,0.011065221391618252,0.05392936244606972,0.10505372285842896,-0.44699394702911379,0.3480486273765564,0.0419800840318203,0.01794292777776718,0.05429360270500183,-0.0013840735191479326,0.17123080790042878,0.3325904309749603,0.09652817994356156,0.08187684416770935,0.04672442004084587,0.06682215631008148,0.20131191611289979,-0.10519753396511078,-0.06883326172828675,-0.004369311034679413,-0.06698538362979889,0.0024493783712387087,-0.09978540241718292,-0.07960601150989533,0.07869474589824677,0.05240124091506004,0.03650183230638504,0.09618153423070908,0.41393059492111208,-0.050714295357465747,0.06017756834626198,0.10207539051771164,0.019846376031637193,-0.03641515597701073,0.009085600264370442,-0.012517319992184639,0.05835625156760216,-0.06937256455421448,-0.022717349231243135,0.06402696669101715,0.0005505921435542405,-0.020564330741763116,0.09352456033229828,-0.10629523545503617,-0.09310238063335419,0.05792110785841942,-0.25109320878982546,0.1380332112312317,0.3255935609340668,0.12747997045516969,0.06419569998979569,0.10490400344133377,-0.4690152704715729,0.06071864441037178,0.014147602021694184,0.08204268664121628,0.018886199221014978,-0.05998598784208298,0.12684836983680726,0.11444254964590073,0.03981101140379906,0.07877339422702789,0.11137954890727997,0.030105799436569215,-0.06081858649849892,0.14228565990924836,0.04224902391433716,-0.011087845079600811,0.09361688047647476,0.056593846529722217,-0.4883272349834442,0.0703919529914856,-0.08627013117074967,0.10158766061067581,0.018319295719265939,0.08934403955936432,0.26749297976493838,-0.08629714697599411,0.021265437826514245,0.021142559126019479,0.08207246661186218,0.03365413844585419,-0.03400271385908127,0.18348686397075654,0.07732948660850525,0.09936857968568802,0.11409015953540802,0.1412305235862732,0.630376935005188,0.10527770221233368,0.032650336623191836,0.12810902297496797,0.028197849169373514,0.10689246654510498,-0.39078280329704287,0.0889567881822586,0.08156314492225647,-0.06434264034032822,0.056745123118162158,0.09914621710777283,0.5330138206481934,-0.011790834367275238,-0.009538598358631134,-0.07490532100200653,-0.09913340210914612,-0.05128633975982666,-0.008947387337684632,0.0006880649598315358,0.041170209646224979,0.015359601005911827,0.0420013964176178,-0.057664886116981509,0.048272766172885898,0.03928031027317047,0.04013282060623169,0.009531985968351365,-0.017543278634548188,-0.073178231716156,-0.5957733988761902,0.01636211946606636,-0.01701204851269722,-0.07489419728517533,-0.0931181088089943,0.04163288697600365,0.17408573627471925,-0.0851580873131752,0.0790141299366951,-0.04574086517095566,-0.13187392055988313,-0.03037571720778942,0.05396386981010437,0.12399214506149292,0.027273280546069146,0.14348819851875306,0.06559552252292633,0.04937676712870598,0.5837275981903076,-0.12367303669452667,-0.05337794870138168,0.028121232986450197,0.07805120944976807,0.02356206439435482,-0.38887912034988406,0.039214905351400378,-0.030957866460084916,0.06034480035305023,-0.10981424897909165,0.022803891450166704,-0.048007626086473468,-0.14884626865386964,0.23891960084438325,-0.008780281990766526,0.03877725452184677,-0.08823762834072113,-0.7824330925941467,0.18328385055065156,-0.07895837724208832,-0.14041130244731904,0.1259918063879013,0.07299879938364029,0.4521881937980652,0.02269459143280983,0.09627296030521393,0.0584929920732975,0.060243379324674609,0.13572654128074647,0.29842349886894228,0.08627661317586899,-0.18440097570419312,0.06759827584028244,0.2998586595058441,0.12472319602966309,0.1527407169342041,0.1991826295852661,-0.015608965419232846,-0.05063917487859726,0.061629973351955417,-0.09410418570041657,0.38292354345321658,0.18287278711795808,0.13390007615089417,0.03531802073121071,0.05714200437068939,0.013715154491364956,-0.48799073696136477,-0.10855796933174133,0.03325900435447693,-0.06577168405056,0.019953742623329164,0.10234402120113373,-0.10463742911815644,-0.047999583184719089,-0.15330688655376435,0.026592476293444635,-0.03667202219367027,0.1030697375535965,0.16369345784187318,-0.08537322282791138,0.27737581729888918,0.3294644057750702,0.05466049537062645,0.06529317051172257,-0.6128828525543213,-0.018905652686953546,-0.044183891266584399,0.15233497321605683,-0.2592226266860962,0.05518447607755661,0.392811119556427,0.07371361553668976,-0.05511214956641197,-0.15215849876403809,0.10985212028026581,0.16392157971858979,0.16742044687271119,0.04920356720685959,-0.07100765407085419,-0.11545787751674652,0.1667047142982483,0.21932296454906465,0.2233176976442337,0.08056977391242981,-0.11647488921880722,0.06251589208841324,-0.055463217198848727,-0.004854697268456221,0.5090017318725586,0.005889853462576866,0.09793244302272797,0.04095165431499481,-0.027818821370601655,-0.027153460308909417,0.32242754101753237,0.1912810355424881,-0.05548222362995148,0.03310475870966911,0.1642128974199295,0.03444467857480049,0.017841298133134843,0.14399854838848115,-0.023807356134057046,0.033079396933317187,0.17311692237854005,0.03614744916558266,0.14060600101947785,-0.2727785110473633,-0.1479034721851349,-0.12140551209449768,0.1527712643146515,0.03625638410449028,-0.44485020637512209,0.086606964468956,-0.1381409466266632,-0.038526203483343127,0.299452006816864,0.09899651259183884,0.09133116900920868,0.004446021281182766,-0.14251454174518586,0.19846083223819734,-0.06104326993227005,0.0012895192485302687,0.2661121189594269,0.029071049764752389,-0.03174516186118126,0.03679432347416878,0.016785213723778726,-0.02433266118168831,-0.2078568935394287,-0.09225887060165405,-0.04628179594874382,-0.024974163621664048,0.06246718019247055,-0.06787002086639404,-0.038481175899505618,-0.08353688567876816,0.10845789313316345,-0.16118837893009187,0.13659663498401643,-0.013841729611158371,0.40246787667274477,-0.016729973256587983,-0.04649968445301056,-0.04440927878022194,0.08705209940671921,0.03966604173183441,0.03978639096021652,-0.10621041804552078,-0.0656425803899765,-0.12513527274131776,0.12856680154800416,-0.023087458685040475,0.16310305893421174,-0.21288403868675233,0.2742137908935547,0.6192628741264343,0.6867765188217163,0.13014721870422364,-0.3829987049102783,-0.19655336439609528,-0.18829034268856049,-0.1431775689125061,0.16947947442531587,-0.03397803381085396,0.14040784537792207,-0.19839031994342805,-0.01575384847819805,0.08183583617210388,-0.038076210767030719,0.07098710536956787,0.29283812642097475,0.09578680247068405,0.1257287859916687,-0.04175342246890068,0.015057449229061604,0.045040082186460498,-0.48981964588165285,0.04611457884311676,0.021028144285082818,0.09197985380887985,0.058170609176158908,0.07117024064064026,-0.06547870486974716,-0.07105326652526856,0.001384971896186471,0.010721421800553799,0.06853994727134705,0.12057734280824661,0.8617269396781921,0.027983007952570916,-0.030369479209184648,0.017093436792492868,0.14847271144390107,0.053154733031988147,0.48739898204803469,0.1370350420475006,0.04682743549346924,0.12481799721717835,0.07667478919029236,0.05559947341680527,-0.676514208316803,-0.023810740560293199,0.033374905586242679,0.038481857627630237,0.009876439347863198,-0.0035569409374147655,-0.01066396851092577,0.08873595297336579,0.005707396660000086,0.003680882276967168,0.013511795550584793,0.007584370207041502,0.21608547866344453,0.06662597507238388,0.018789712339639665,-0.03117211163043976,-0.017717823386192323,0.03954331576824188,0.06518453359603882,0.056969594210386279,0.10598466545343399,0.028609897941350938,-0.040333639830350879,0.08708681911230087,-0.39744243025779726,0.13098129630088807,-0.014761471189558506,0.0353873074054718,0.11416421830654144,0.09911208599805832,-0.11420278251171112,-0.020271649584174157,-0.06317681819200516,-0.016146795824170114,0.012043962255120278,0.10887734591960907,0.9283239245414734,0.19275224208831788,0.10138766467571259,0.11820080131292343,0.1527119278907776,0.04131465032696724,0.4854257106781006,0.058786552399396899,0.0818391889333725,0.03745848312973976,0.019485363736748697,-0.019859882071614267,-0.6075776815414429,-0.018113020807504655,0.11362484097480774,0.06898665428161621,0.02877078950405121,0.049965616315603259,0.060711946338415149,0.1517733782529831,0.1195327565073967,-0.06872320920228958,0.054542336612939838,-0.007689392194151878,-0.5190911293029785,0.10552291572093964,-0.042242467403411868,0.05858504772186279,0.002071277005597949,-0.035233523696660998,-0.05580747500061989,0.008056757040321827,0.025032922625541688,-0.057837728410959247,0.11840890347957611,0.02546786330640316,-0.2567276954650879,0.13969291746616364,0.0008430096786469221,0.002791294828057289,0.08880172669887543,0.05059751495718956,0.1311902403831482,0.005135669372975826,-0.10110192000865936,-0.0021168135572224857,0.12262633442878723,-0.011050182394683361,0.23566855490207673,0.04129943251609802,-0.025845864787697793,0.009958247654139996,0.11128724366426468,-0.0029750214889645578,0.3351503908634186,0.06630145013332367,-0.018671056255698205,0.06809785962104798,-0.009031829424202443,0.17416483163833619,0.40567150712013247,0.03816710039973259,0.06973247230052948,0.0834662914276123,-0.013494543731212616,-0.083939328789711,-0.023435693234205247,0.048635080456733707,0.028249746188521386,0.01602294109761715,0.020939212292432786,0.08379951119422913,-0.3000747561454773,-0.013188095763325692,-0.03596974536776543,0.1578221470117569,0.13517144322395326,0.011717802844941616,-0.08076418936252594,-0.0007954718312248588,0.09833129495382309,0.098152756690979,-0.0033088515046983959,0.008524947799742222,-0.2680376172065735,0.04984494298696518,-0.03876066952943802,0.11871838569641113,0.11818306148052216,-0.05540766194462776,0.08360408991575241,0.0737147331237793,0.026416797190904619,-0.01961692050099373,0.09290862083435059,0.002603520406410098,0.09368204325437546,0.01682943105697632,0.11852505058050156,0.06762662529945374,0.06761477142572403,0.023845510557293893,0.17928312718868257],"WeightsRows":20,"WeightsCols":84,"Biases":[0.1612267941236496,-0.15922461450099946,0.06217534467577934,0.08860606700181961,0.3516734838485718,0.10358158499002457,-0.10859241336584091,0.23382021486759187,0.15541400015354157,-0.15288549661636353,0.3025185465812683,0.13129448890686036,-0.004998881835490465,-0.331126868724823,0.1683257520198822,0.0017757093301042915,0.07792721688747406,0.12975063920021058,0.1776820719242096,0.11525490880012512]},{"Weights":[0.08470207452774048,-0.11055510491132736,0.24812394380569459,-0.09053795039653778,-0.24379903078079225,0.31326937675476076,-0.026109302416443826,-0.17617063224315644,-0.04249849542975426,0.1913548707962036,-0.28269150853157046,0.26261067390441897,0.4021097421646118,0.09141811728477478,-0.09507443010807038,0.62303626537323,0.08151192218065262,0.016186730936169626,0.12278598546981812,0.07133261859416962,0.7612190842628479,0.5301278233528137,0.32374605536460879,0.7495341897010803,-0.1641046702861786,0.5802822113037109,0.18665724992752076,0.6846727728843689,0.36434468626976015,0.13021689653396607,0.04261549934744835,0.12357247620820999,-0.01314041018486023,0.1525016874074936,0.21609774231910706,0.03930145502090454,-0.4328485429286957,0.2069336175918579,-0.08813770115375519,0.053875915706157687,-0.22565336525440217,-0.06477361172437668,-0.07769123464822769,0.1675102859735489,-0.1402503401041031,0.18224245309829713,-0.02951650880277157,0.044832464307546619,-0.16980034112930299,0.07422960549592972,0.11370911449193955,-0.04575284570455551,0.00790319126099348,-0.010162926279008389,0.07864987105131149,0.07611866295337677,-0.03350182995200157,-0.1653466820716858,0.18975459039211274,-0.09688316285610199,-0.794086217880249,-0.060879502445459369,0.3481643795967102,-0.4986686110496521,0.7293044924736023,-0.5538747310638428,-0.0825776681303978,0.7242287993431091,-0.13653017580509187,-0.41401204466819765,-0.25870415568351748,-0.23753966391086579,0.4950270354747772,-0.31455346941947939,-0.351039856672287,0.3017640709877014,0.19941496849060059,-0.1439472734928131,-0.15924203395843507,0.5143700838088989,0.1530372053384781,-0.595241367816925,0.18274790048599244,-0.5955175757408142,-0.03733475133776665,0.5481818318367004,-0.3271174728870392,0.6944429278373718,0.29755502939224245,-0.38929808139801028,0.14853663742542268,0.3018341362476349,0.07161092758178711,0.4779422879219055,0.17957070469856263,0.4729709029197693,0.6508313417434692,0.3235465884208679,-0.3707147538661957,-0.09601254761219025,0.0699709802865982,-0.2017163336277008,-0.14181487262248994,-0.06601085513830185,0.05497850105166435,-0.15626221895217896,0.04690869525074959,-0.09384733438491821,-0.08018729090690613,-0.0748417004942894,-0.12473003566265106,-0.02592160925269127,-0.04316962510347366,0.13725323975086213,-0.11775539815425873,0.12726660072803498,0.06598103791475296,-0.06345120072364807,-0.09133096784353256,-0.02127660997211933,-0.17490872740745545,-0.0923217386007309,-0.18719258904457093,-0.21226821839809419,-0.16050274670124055,0.21400560438632966,-0.13532622158527375,0.049702540040016177,-0.14876216650009156,-0.17510263621807099,-0.21364381909370423,-0.19966992735862733,-0.15579244494438172,-0.2206030637025833,-0.12735362350940705,-0.21450887620449067,-0.10944139212369919,0.11105240881443024,-0.19965441524982453,-0.057282280176877978,0.11691442131996155,-0.026812467724084855,0.21981240808963777,-0.2747783064842224,0.538037121295929,-0.06713337451219559,0.21344608068466187,0.29747629165649416,0.06492247432470322,-0.39449846744537356,-0.020042970776557924,0.3300311267375946,-0.22426024079322816,0.0016233811620622874,-0.03180338069796562,-0.3113430440425873,0.2866627275943756,0.08612215518951416,0.4144527316093445,-0.1324710249900818,0.023752303794026376,0.008970244787633419,0.5104324221611023,0.1820879727602005,0.07907338440418244,-0.24941983819007874,0.2609083354473114,-0.9269627928733826,-0.07677451521158219,0.11946851015090943,-0.25714990496635439,0.4532630145549774,-0.08846424520015717,0.14293593168258668,-0.2550465762615204,0.5803608894348145,0.4080997109413147,0.2659546136856079,0.7183932065963745,0.22317858040332795,0.0017749638063833118,-0.06182999163866043,-0.26128003001213076,-0.04003811627626419,0.020747708156704904,-0.2222043126821518,-0.049233328551054,-0.14643797278404237,0.09346456080675125,-0.19283625483512879,0.1969563513994217,0.15738387405872346,0.10651082545518875,0.16805440187454225,0.1221558153629303,0.15308846533298493,-0.01096354890614748,-0.07999062538146973,0.23593200743198396,0.246379092335701,-0.2157832384109497,-0.11147693544626236,0.5597518682479858,0.629524827003479,0.9226477146148682,0.25962892174720766,-0.08199236541986466,-0.25436002016067507,-0.29307571053504946,-0.011310498230159283,0.06951941549777985,0.3822656571865082,-0.09573744237422943,-0.07518704980611801,-0.09372556209564209,-0.308938592672348,0.08128497749567032,0.05242240056395531,-0.5075978636741638,0.07334432750940323,-0.5153955221176148,0.006026264280080795,-0.3598397970199585,0.1478201448917389,0.5835365653038025,-0.17003802955150605,-0.14180362224578858,-0.2796446979045868,-0.5103577375411987,-0.03991572558879852,-0.19769145548343659,0.09218336641788483,0.42551538348197939,0.005319730844348669,-0.11929936707019806,0.25305041670799258,-0.024147765710949899,0.13698427379131318,-0.22415122389793397,0.5889905691146851,0.17470021545886994,-0.18946507573127747,0.03187266364693642,0.17967496812343598,-0.17353244125843049,-0.1957653909921646,-0.19479449093341828,0.007936964742839337,-0.07044482976198197,-0.059176165610551837,0.14657557010650636,-0.1664140820503235,-0.07970302551984787,-0.1650696098804474,0.13931268453598023,-0.08731873333454132,0.034249283373355868,-0.11678469926118851,-0.10018441826105118,-0.18075643479824067,-0.2292061448097229,-0.2167864590883255,-0.03124110773205757,-0.10201750695705414,0.16211505234241486,0.022482402622699739,-0.04587724804878235,-0.13290949165821076,-0.14327332377433778,-0.15722227096557618,0.022575899958610536,0.05686746537685394,-0.2042262703180313,-0.026729779317975045,0.2668711245059967,0.14372961223125459,-0.08653181791305542,0.1127130463719368,0.011809349991381169,-0.21052809059619904,0.20489077270030976,-0.18193966150283814,0.13620631396770478,0.0012192275607958437,-0.15691983699798585,-0.08983060717582703,-0.008747020736336708,0.14222005009651185,0.043326325714588168,0.06847976893186569,-0.08548835664987564,-0.23594160377979279,-0.03837807849049568,0.11486414074897766,-0.0038978573866188528,-0.10644400119781494,-0.16303490102291108,-0.014472296461462975,-0.12355078011751175,0.1986348181962967,-0.11129655689001084,-0.28627195954322817,-0.3310772478580475,0.022301046177744867,0.5630709528923035,0.28182873129844668,-0.01346717681735754,-0.18670332431793214,-0.04356595501303673,0.24063225090503694,0.2857799530029297,0.3826307952404022,-0.023319261148571969,0.3405567705631256,0.11772849410772324,-0.2656850814819336,0.1717807650566101,0.5192774534225464,-0.32992056012153628,-0.007895339280366898,-0.0022313427180051805,0.12793658673763276,-0.14505238831043244,0.19541801512241364,-0.16690216958522798,-0.1627011001110077,-0.0728936716914177,0.25534576177597048,0.2304902821779251,0.012772107496857643,0.010961321182549,0.09262166172266007,0.023520711809396745,0.1187414899468422,0.23303182423114777,0.1405356079339981,-0.19154402613639832,-0.19924363493919373,0.27657464146614077,0.1814146488904953,0.06617622077465058,-0.23760421574115754,-0.7870146632194519,-0.23856735229492188,0.5813258290290833,-0.415823370218277,-0.12892474234104157,0.131303071975708,0.041501834988594058,0.03064497746527195,0.5793530344963074,0.1789000779390335,0.10609759390354157,-0.1347067654132843,0.4538966119289398,-0.38425037264823916,0.10139356553554535,0.1963820606470108,0.6488422751426697,0.2575100064277649,0.31780165433883669,0.35104289650917055,0.22049936652183534,-0.030641628429293634,-0.020351413637399675,0.16132216155529023,0.2513279914855957,0.04561789706349373,0.34553754329681399,-0.029643787071108819,0.272115021944046,0.05373853072524071,0.041745156049728397,-0.026704860851168634,-0.18071183562278748,-0.20863737165927888,-0.16120213270187379,-0.07280997186899185,0.6260890960693359,-0.09533552080392838,0.11466459929943085,0.01704726740717888,-0.10668027400970459,-0.018547289073467256,0.05126284807920456,-0.017247380688786508,0.22684282064437867,0.0795120820403099,-0.02750522643327713,-0.13440857827663423,0.2826579511165619,0.030741695314645768,-0.05872127786278725,-0.1790066510438919,0.08745422214269638,-0.12996405363082887,-0.02659698761999607,-0.06120319664478302,0.25096505880355837,0.1853974312543869],"WeightsRows":20,"WeightsCols":20,"Biases":[0.11217724531888962,0.1587025672197342,-0.008981970138847828,0.21118248999118806,0.13427850604057313,-0.01942661963403225,0.0009706111159175634,-0.2432532161474228,0.0365973562002182,0.10332854092121124,0.2109125554561615,0.22383679449558259,-0.015851669013500215,0.045570358633995059,-0.0497276745736599,0.21812176704406739,0.09807320684194565,0.33029481768608096,-0.029996762052178384,-0.046413078904151919]},{"Weights":[0.003466081339865923,-0.8323461413383484,-0.050052519887685779,0.7857648730278015,-1.5261905193328858,-0.1536121368408203,-0.016835112124681474,-0.0799296498298645,0.8940247893333435,0.22744444012641908,0.1228116974234581,0.7427176237106323,0.19059371948242188,-0.11503008008003235,0.19647397100925446,-0.4681893587112427,0.07157674431800842,0.25514456629753115,0.13350747525691987,0.13169315457344056,0.5033720135688782,-0.7766688466072083,0.1369871199131012,0.4691767394542694,1.1763181686401368,-0.0652647316455841,0.009739351458847523,0.09787072241306305,0.39729422330856326,0.14205552637577058,-0.7715805172920227,-0.12142642587423325,0.11017788201570511,0.1997641623020172,-0.07308606803417206,-0.21527348458766938,-0.26845622062683108,0.12174192070960999,-0.16637885570526124,-0.08433616906404495,-0.13259786367416383,0.35643473267555239,0.11787939071655274,1.1247011423110963,-0.34381431341171267,-0.013619480654597283,0.09521763026714325,-0.23497174680233003,-1.460983395576477,0.006356754805892706,0.33783239126205447,0.8003031015396118,0.17842373251914979,-0.17546938359737397,0.007438538130372763,0.3588920533657074,-0.05156579241156578,-0.2207062840461731,-0.4064023494720459,-0.2426365315914154,0.5335069894790649,0.23659184575080872,-0.1141575425863266,-1.5678150653839112,0.3041071593761444,-0.033699881285429,0.07823242992162705,-1.2507292032241822,0.18220706284046174,0.04363558441400528,0.08812467008829117,0.8001987338066101,0.06717982143163681,0.19128289818763734,0.20151250064373017,1.3953614234924317,-0.05912589281797409,0.3367500305175781,-0.6661394834518433,-0.542167603969574,-0.622600257396698,0.47213494777679446,-0.007720008958131075,-0.6200076341629028,-0.3241654634475708,-0.0032476221676915886,-0.22117312252521516,0.9451327919960022,-0.5798645615577698,0.37990644574165347,-0.6716723442077637,-1.0158945322036744,-0.07702764868736267,-0.20434658229351045,0.0593564547598362,-0.021026665344834329,0.2851611077785492,1.3830393552780152,0.6340968608856201,0.2650563716888428,0.4585481882095337,1.0165200233459473,0.016435349360108377,-0.16926705837249757,-0.20974183082580567,-0.008301548659801484,-0.19077029824256898,-0.07543890178203583,0.2497921735048294,-0.2236931025981903,-0.16071873903274537,-0.40595653653144839,-0.17416903376579286,-0.10742977261543274,0.1390024721622467,-0.717125654220581,0.12485741823911667,-0.8092975616455078,0.47589603066444399,-0.1460452377796173,-0.4481116235256195,-0.22089844942092896,-0.00520872650668025,-0.12479336559772492,0.22791242599487306,0.05481017380952835,-0.0678955540060997,0.9737817645072937,0.46937599778175356,-0.2496849149465561,0.9919127225875855,-0.7364946007728577,0.040484603494405749,0.051373183727264407,-0.03206755965948105,0.16518369317054749,-0.5442678332328796,-0.3310123085975647,0.38169243931770327,0.2300509661436081],"WeightsRows":7,"WeightsCols":20,"Biases":[0.1580355167388916,-0.3299885094165802,-0.0733715370297432,0.1778492033481598,0.2551789879798889,0.11525052040815354,-0.3028554916381836]}]}