{"Layers":[{"Weights":[-0.07547956705093384,-0.019892428070306779,-0.10723577439785004,-0.10004569590091706,0.10644587874412537,0.08608996868133545,-0.09878377616405487,-0.08789888024330139,-0.09933438897132874,-0.10117892920970917,0.06371299922466278,-0.052552029490470889,-0.08711984753608704,0.013945721089839936,-0.009542658925056458,0.10833443701267243,0.00975789874792099,-0.019071310758590699,-0.10764554142951966,-0.009414799511432648,0.06371760368347168,0.003435656428337097,-0.06234346330165863,-0.009537950158119202,0.0002149641513824463,0.037080951035022739,-0.009525462985038758,0.0964118093252182,0.0244038887321949,-0.09207892417907715,-0.06839978694915772,-0.004251830279827118,-0.0863451361656189,-0.009623564779758454,0.06754625588655472,0.08340141177177429,0.09109753370285034,-0.030619759112596513,-0.03600223362445831,-0.08347029983997345,0.10585238039493561,-0.07611595094203949,-0.07039259374141693,0.02793337032198906,0.07034415006637573,-0.05279107391834259,-0.05908486619591713,0.07895621657371521,-0.07939545810222626,-0.02080267295241356,-0.022071585059165956,0.03250276669859886,0.034426238387823108,-0.029917210340499879,0.10602927207946778,-0.03916002810001373,-0.02488766610622406,-0.011564724147319794,0.10417528450489044,0.06703105568885803,0.07783766090869904,-0.06342490017414093,0.04819200932979584,-0.09303553402423859,0.0027036815881729128,-0.07892988622188568,-0.07190580666065216,-0.06270435452461243,-0.0038585588335990907,0.032267551869153979,0.06954693794250488,-0.07722286880016327,-0.06824459135532379,0.07325072586536408,0.08239331096410752,-0.06506617367267609,0.05682253837585449,-0.026774197816848756,-0.05548617243766785,0.000496402382850647,-0.098399817943573,0.05751273036003113,0.029390394687652589,0.04299980029463768,-0.025580227375030519,-0.035110827535390857,-0.10836687684059143,0.030992936342954637,-0.011767394840717316,0.009174332022666932,-0.061209890991449359,0.04966604337096214,-0.035472314804792407,0.05817204713821411,0.03181212767958641,-0.058330342173576358,-0.06802602112293244,0.07895663380622864,0.10115525126457215,0.01497996598482132,0.09064914286136627,-0.03467387333512306,0.06807160377502442,-0.10072256624698639,0.08712146431207657,-0.01678856834769249,0.061123497784137729,-0.06571300327777863,0.003143623471260071,-0.019448090344667436,-0.10375966131687164,0.02677058055996895,-0.1013142317533493,-0.0655483603477478,-0.02943016216158867,0.004325449466705322,0.10019195079803467,0.04292035102844238,0.03834180161356926,0.0031231269240379335,0.06706541776657105,0.05657632276415825,0.04456061124801636,-0.05734218657016754,-0.03062496706843376,0.04501756653189659,-0.03155924379825592,0.07992779463529587,0.049432650208473209,-0.04486332833766937,0.08699849247932434,-0.019065380096435548,0.05573969706892967,-0.07293026149272919,0.04042099043726921,0.06056340038776398,0.04096384346485138,0.04295721277594566,0.07156491279602051,0.04749486967921257,0.02918865904211998,-0.028556209057569505,0.07490386068820954,0.05864570289850235,0.10228468477725983,0.04358768090605736,0.06296905875205994,0.05127451568841934,0.016106460243463517,0.07856878638267517,0.0027329251170158388,-0.08517903089523316,0.08973577618598938,0.0019346997141838074,0.08805979788303375,0.05644464120268822,-0.04373222589492798,-0.0817146748304367,-0.08566941320896149,-0.0440974086523056,0.003827027976512909,-0.09939959645271301,-0.07389985024929047,-0.09346938133239746,-0.003638066351413727,0.03275434300303459,0.08551840484142304,0.027823831886053087,0.07636824995279312,0.08708436787128449,-0.014026157557964325,0.03802789747714996,0.027175068855285646,-0.024222884327173234,0.04839861020445824,-0.05165771022439003,0.037985704839229587,0.03895200416445732,0.07347915321588516,-0.06850504875183106,0.015358984470367432,0.10741391777992249,0.05650286003947258,0.06934769451618195,-0.0633435994386673,0.05356951057910919,0.05728825926780701,0.003706119954586029,-0.10392042994499207,-0.010074198246002198,-0.10032203793525696,-0.07413391768932343,0.07455942034721375,-0.10434569418430329,-0.04435465857386589,-0.08576317131519318,0.013480938971042633,0.0007622092962265015,0.011152327060699463,0.04196901246905327,0.08096230030059815,0.07738980650901795,0.0669669583439827,-0.010646417737007141,0.013046741485595703,-0.01623595878481865,-0.058858856558799747,0.052117954939603809,0.042020827531814578,0.0775497555732727,0.045057158917188647,-0.05925806984305382,-0.037377625703811648,-0.0854017585515976,0.008138835430145264,0.10066549479961395,0.10544562339782715,0.06284380704164505,-0.08474844694137573,-0.008181706070899964,-0.04243852198123932,0.07357563823461533,-0.021290242671966554,-0.08135291934013367,-0.051152270287275317,0.06974835693836212,0.0553746223449707,0.0846405178308487,0.04195746034383774,-0.03564758971333504,-0.049534425139427188,0.10506793856620789,0.08319185674190521,-0.056385934352874759,-0.026141364127397538,-0.006153114140033722,-0.09410180151462555,0.04208976775407791,0.06459657847881317,-0.0028373971581459047,-0.059013333171606067,-0.03708994388580322,-0.08398604393005371,0.04693680256605148,0.0270930714905262,0.048743706196546558,-0.10684843361377716,0.00029831379652023315,0.02553350105881691,-0.06040377914905548,0.0730234682559967,0.08374433219432831,0.01048058271408081,0.044324230402708057,0.016630426049232484,0.08672839403152466,-0.013070911169052124,0.023860882967710496,-0.08536352217197418,0.07754141092300415,0.05852338671684265,-0.011184975504875183,-0.007417716085910797,-0.09817664325237274,-0.07756206393241883,0.09776327013969422,0.03807365521788597,0.04354855418205261,0.015477947890758515,0.09208699315786362,0.028216715902090074,-0.025236506015062333,-0.019887927919626237,0.02163703367114067,-0.09546452760696411,-0.010899603366851807,0.08933699131011963,-0.020555958151817323,0.06747724115848541,0.0021086260676383974,0.08545289933681488,-0.08960530161857605,0.08380541205406189,-0.0602014996111393,-0.0005179718136787415,-0.07255931198596955,0.07007956504821778,-0.05472251772880554,0.07527032494544983,0.03520817682147026,0.06263233721256256,-0.07531943917274475,0.04075261577963829,0.004742681980133057,-0.01947803422808647,-0.012918315827846527,0.09642478823661804,-0.09535416960716248,-0.0790880024433136,-0.08883436024188996,0.05703273043036461,0.10473202168941498,0.07416427135467529,-0.02043205499649048,-0.00043711811304092407,-0.10855364799499512,-0.09193161129951477,0.02510017156600952,0.09998199343681336,0.033224668353796008,0.01172996312379837,-0.08443629741668701,0.014196284115314484,-0.06818671524524689,-0.07141284644603729,-0.07145880162715912,-0.03243129327893257,-0.017359983175992967,0.08536895364522934,-0.019084367901086808,-0.08749715983867645,-0.007956556975841523,0.02888305112719536,0.04857289791107178,0.09378711134195328,-0.061320289969444278,0.056548696011304858,0.04301780089735985,-0.03462928906083107,0.01812509074807167,-0.10813616216182709,-0.003024481236934662,-0.041492145508527759,0.0669325441122055,0.029548242688179017,0.01473885029554367,-0.02075032889842987,0.03805859386920929,-0.029335886240005494,0.06932936608791352,-0.08126236498355866,-0.10594123601913452,0.0759628564119339,0.029762469232082368,0.012669913470745087,0.07278435677289963,0.10469003021717072,0.06320120394229889,-0.035768166184425357,-0.04053747281432152,0.007662393152713776,0.005648814141750336,-0.021013692021369935,0.04588247090578079,0.05010699853301048,0.05463170260190964,-0.020922929048538209,0.07861538231372833,0.028652053326368333,-0.009948447346687317,-0.06897158920764923,0.10010653734207154,-0.09834428131580353,-0.02302693948149681,-0.10570511221885681,0.007871545851230622,-0.095691978931427,0.10515940189361572,0.048985760658979419,0.061377570033073428,0.01116158813238144,0.09346248209476471,-0.054992154240608218,0.04996054619550705,-0.05945062264800072,-0.043476615101099017,-0.017796773463487626,0.03106897696852684,0.06707023084163666,-0.08141925930976868,-0.07731494307518006,-0.014519214630126953,0.034064751118421558,-0.09927085041999817,0.02851487696170807,0.0486174076795578,-0.027816742658615114,0.057382404804229739,0.006496727466583252,-0.1007734090089798,-0.10076431930065155,0.07049877941608429,-0.025890931487083436,0.02517886459827423,0.050767719745635989,0.10735106468200684,0.10617345571517945,-0.02427712455391884,0.03930763527750969,0.07253831624984741,-0.06467203795909882,0.03221307694911957,-0.03441769257187843,-0.06873281300067902,-0.08458137512207031,0.0436859093606472,-0.021829739212989808,-0.00886516273021698,-0.0862237960100174,-0.06491269171237946,0.059528082609176639,0.0011647194623947144,0.02125447615981102,0.009973444044589997,-0.09910525381565094,-0.035956814885139468,0.010410472750663758,0.0746215432882309,0.024800077080726625,-0.0795743465423584,0.010670974850654602,-0.09685437381267548,0.031033780425786973,0.05749468132853508,0.08753347396850586,-0.012560054659843445,0.03458455204963684,0.024457216262817384,-0.0642399787902832,0.0433175265789032,0.01810571178793907,-0.03662284091114998,-0.08088551461696625,0.02292826771736145,-0.05103195831179619,-0.07382971048355103,-0.024807021021842958,-0.10762330889701843,0.06645464897155762,-0.025493290275335313,-0.020897123962640764,-0.09261371195316315,-0.09396062791347504,-0.043336376547813418,-0.07408948242664337,-0.06581161916255951,0.05031796917319298,-0.017639264464378358,0.10619284212589264,0.021874383091926576,0.09239515662193299,-0.03572441264986992,-0.10306103527545929,0.10773780941963196,-0.048170506954193118,0.03444509953260422,0.08969442546367645,-0.039163846522569659,-0.07773546874523163,-0.01874980702996254,-0.023156926035881044,0.07379615306854248,-0.0012207254767417908,-0.059524551033973697,0.005445986986160278,0.04474559426307678,0.010417342185974121,-0.07029488682746887,0.08711475133895874,-0.09349794685840607,0.08662546426057816,0.1058216542005539,0.09686407446861267,-0.09756192564964295,-0.005672149360179901,-0.011572733521461487,-0.035188090056180957,-0.04636548087000847,-0.011571638286113739,-0.014160752296447754,-0.09355296194553375,0.08090473711490631,0.06613054871559143,-0.034029677510261539,-0.03458108380436897,-0.0818825364112854,-0.06775622069835663,0.056184347718954089,-0.008989274501800537,0.0826142430305481,0.10470421612262726,0.05478135868906975,0.016792699694633485,-0.09737460315227509,0.023344695568084718,0.0774601399898529,-0.017437994480133058,-0.07354699075222016,0.05007960647344589,-0.07258568704128266,0.018745098263025285,0.000263117253780365,-0.05148698389530182,0.08683359622955322,0.03804095834493637,-0.06474378705024719,0.049361810088157657,0.07107993960380554,-0.0011019259691238404,0.04489223286509514,0.0014543533325195313,0.03313809260725975,0.10329471528530121,-0.023078415542840959,-0.0319700725376606,-0.05787523090839386,-0.08499020338058472,-0.06768845021724701,-0.03804071247577667,0.004357859492301941,-0.04738950729370117,-0.10134856402873993,0.05381830781698227,-0.042243052273988727,-0.04502236843109131,-0.07930013537406922,0.013705357909202576,-0.035142719745635989,-0.06542271375656128,-0.011912859976291657,-0.015101529657840729,-0.09570010006427765,-0.03759397938847542,0.0740077793598175,0.10104061663150788,-0.06546802818775177,0.0797630250453949,0.08566080033779144,-0.08160988986492157,0.059537243098020557,-0.07004925608634949,-0.06387530267238617,-0.04810485243797302,-0.013744033873081208,-0.08790501952171326,0.04406885430216789,0.050464242696762088,-0.011912912130355835,0.04833034798502922,-0.09604784846305847,-0.06168438494205475,0.005072690546512604,0.07902621477842331,-0.0826457291841507,0.05223405361175537,-0.05197569727897644,-0.017566606402397157,-0.06614461541175842,-0.05584198236465454,0.07299579679965973,-0.08682142198085785,-0.050332680344581607,-0.07007595896720886,0.015692614018917085,-0.08037915825843811,0.07721028476953507,-0.007368654012680054,0.09803403913974762,-0.055430084466934207,0.09590350091457367,-0.04068286344408989,0.06833602488040924,-0.005672097206115723,-0.1076287180185318,0.09495046734809876,0.006583869457244873,0.05548021197319031,0.00008910894393920898,-0.06533762812614441,0.01860819384455681,0.05500509962439537,-0.08286046981811524,0.04255678877234459,-0.10062132775783539,0.09819474816322327,0.06805269420146942,-0.045565616339445117,0.1011185497045517],"WeightsRows":7,"WeightsCols":84,"Biases":[0.0,0.0,0.0,0.0,0.0,0.0,0.0]}]}