{"Layers":[{"Weights":[0.004282739013433456,-0.013812622986733914,-0.09607052057981491,-0.07168976962566376,0.09267579764127732,0.08836176991462708,0.09080205857753754,0.09865356981754303,-0.007713227067142725,-0.0502934455871582,0.028335072100162507,0.03416946902871132,-0.01683787815272808,0.052253324538469318,-0.10279865562915802,0.043752335011959079,-0.026264622807502748,0.06191594526171684,-0.05755751579999924,0.002461767755448818,-0.10736898332834244,0.08059859275817871,-0.09060430526733399,0.10625460743904114,-0.03738345578312874,-0.024523019790649415,-0.10363239049911499,0.04612237215042114,0.09036676585674286,0.0406629778444767,0.0953325629234314,-0.07617457956075669,-0.08500072360038758,0.03138889744877815,0.10443641245365143,0.042575862258672717,-0.10642633587121964,-0.04519844800233841,-0.0030587315559387209,-0.016729166731238366,0.06949251145124436,0.005256958771497011,0.0782720297574997,0.10880978405475617,0.07052585482597351,0.09680166840553284,-0.02338634431362152,0.09457407891750336,0.021050864830613138,-0.08584429323673248,0.005792370531708002,0.01799590513110161,0.041268397122621539,0.03369523212313652,-0.09185840934515,0.06004774197936058,0.07530981302261353,0.06676188856363297,-0.08654049783945084,-0.04480598121881485,-0.04929126054048538,-0.07249747961759567,-0.04947062209248543,0.03521279618144035,-0.07457821816205979,-0.06530868262052536,0.0684632658958435,0.09073833376169205,-0.09984616190195084,0.00044194518704898655,0.014230592176318169,0.083462655544281,0.08193299174308777,0.01089490670710802,-0.06911037862300873,-0.08354972302913666,0.07051841169595719,0.030606957152485849,0.10159981995820999,-0.018988408148288728,0.08484895527362824,0.03543796390295029,0.057672131806612018,-0.042722661048173907,-0.04564851522445679,0.09280680119991303,-0.047677453607320788,0.022047633305191995,0.0730288103222847,-0.09893705695867539,0.00603311276063323,0.04449116438627243,-0.011315444484353066,0.006944190710783005,0.08243625611066818,0.0038344087079167368,-0.06753195077180863,-0.08611677587032318,-0.005366633180528879,-0.0551266148686409,0.08318256586790085,-0.06261418759822846,-0.05122878775000572,-0.05352872610092163,-0.10551558434963227,-0.012498266994953156,0.09258821606636048,-0.058111026883125308,-0.06728670001029968,0.03254875913262367,-0.08616343885660172,0.05435379222035408,-0.07897593826055527,0.008557658642530442,-0.040936291217803958,-0.05522935092449188,-0.03749827295541763,0.010588768869638443,-0.10305310040712357,0.049098510295152667,0.019907774403691293,-0.06238735839724541,-0.016512073576450349,-0.021331066265702249,0.047017041593790057,0.03173128142952919,-0.08946183323860169,0.052634790539741519,-0.012713119387626648,0.0401943139731884,-0.06942233443260193,0.023469582200050355,-0.07528719305992127,-0.05195300281047821,-0.0924246534705162,0.02232820726931095,0.10494902729988098,0.07403488457202912,-0.10679205507040024,-0.04801409691572189,0.10215253382921219,0.049422699958086017,-0.048862069845199588,-0.0045399172231554989,-0.0431758388876915,0.08086604624986649,0.0455484464764595,0.06481599062681198,0.07546870410442352,0.076889269053936,0.0026481368113309147,0.03582180291414261,-0.09540043771266937,-0.08072295784950257,0.04473075643181801,-0.05474940314888954,0.012986146844923497,-0.005954171065241098,0.07890685647726059,-0.06560193002223969,0.03599586337804794,-0.07123709470033646,-0.037013400346040729,0.04484792798757553,-0.08798202872276306,0.09049279987812042,0.034340713173151019,0.09506811201572418,-0.0578320175409317,0.01678156480193138,0.002922598971053958,0.07811447232961655,0.015431253239512444,0.03492194786667824,-0.006695692427456379,0.016085214912891389,0.001283031771890819,0.0204396340996027,0.025587016716599466,-0.007203139830380678,-0.008266733959317208,-0.004424531478434801,0.0013015716103836895,0.021524932235479356,0.06439027935266495,0.020299449563026429,0.06644729524850846,-0.10014914721250534,0.014194387942552567,-0.07205914705991745,-0.09574712067842484,-0.08240664750337601,-0.07724246382713318,0.034445200115442279,0.010685248300433159,0.0812920555472374,0.008385240100324154,0.04415859654545784,-0.07130209356546402,0.026496827602386476,-0.06138972193002701,0.04204047843813896,0.07230015844106674,0.040407679975032809,-0.018184226006269456,-0.08139297366142273,-0.03301598131656647,0.10519082844257355,-0.0032552648335695268,0.08596755564212799,-0.07443390786647797,-0.023850057274103166,0.09765978157520294,0.06476391851902008,-0.028317715972661973,0.09340494871139527,0.025436148047447206,0.0685175359249115,0.02976577915251255,0.051573824137449267,0.06649474799633026,0.10019572079181671,-0.06680864095687866,-0.08313150703907013,-0.02801361307501793,0.09825196117162705,-0.016507839784026147,0.06828134506940842,0.0927233174443245,-0.02603382244706154,-0.08254794031381607,-0.04206591844558716,-0.021429404616355897,0.022345611825585367,-0.020038016140460969,0.002164292149245739,0.029056178405880929,0.08374867588281632,0.013773258775472641,-0.014006752520799637,-0.01607184112071991,0.09844395518302918,0.006551988888531923,-0.015941062942147256,0.07735540717840195,-0.06939644366502762,-0.08776000142097473,0.08911146223545075,-0.04867076873779297,0.06398257613182068,-0.008521736599504948,-0.11244912445545197,-0.01260731928050518,-0.03231087327003479,-0.005823033861815929,-0.08640094846487045,0.09947095811367035,0.07282626628875733,-0.053547512739896777,0.08371425420045853,-0.10315516591072083,-0.06782199442386627,0.0021720880176872017,-0.08780618011951447,-0.09375365823507309,0.03769097849726677,0.022854620590806009,-0.09206710010766983,0.008769906125962735,0.012769929133355618,0.03663896396756172,0.06315569579601288,-0.036115895956754687,0.02514101378619671,0.10571680217981339,-0.06926955282688141,-0.058047693222761157,0.008849469013512135,-0.021679652854800226,0.007526549510657787,0.044595565646886829,-0.005321684293448925,-0.027654683217406274,-0.0719253420829773,-0.05045512691140175,0.02761022187769413,0.07761815190315247,-0.06658005714416504,0.07808888703584671,0.023210417479276658,-0.02930239588022232,0.029991453513503076,-0.06840366125106812,0.08735555410385132,-0.09046463668346405,-0.06106036901473999,0.03620002791285515,-0.015671856701374055,-0.09118050336837769,-0.03779665008187294,0.02893196791410446,0.08063433319330216,-0.08059163391590119,-0.08831790834665299,0.00951835885643959,-0.09587341547012329,0.04726903885602951,0.041531920433044437,-0.09862016141414643,0.026621416211128236,0.10065395385026932,0.02050001360476017,-0.09760387241840363,0.07285257428884506,0.01823197491466999,-0.08800603449344635,-0.026734407991170884,0.049111172556877139,0.06125831604003906,0.034922804683446887,0.00907773058861494,-0.0347406342625618,-0.09418461471796036,0.01796119660139084,-0.041564714163541797,0.08657604455947876,0.06050704047083855,0.03532055392861366,-0.06471828371286392,-0.0019464287906885148,0.030172480270266534,-0.09666826575994492,0.019995180889964105,-0.025692861527204515,0.1059839129447937,0.09831707179546356,-0.026952175423502923,-0.03515048325061798,-0.023406365886330606,-0.033163633197546008,-0.024921540170907975,0.05740032717585564,0.04139302670955658,0.00978333130478859,-0.03332570567727089,-0.06942839920520783,-0.046822886914014819,-0.035135667771101,-0.06233137845993042,-0.025086503475904466,-0.04834071174263954,-0.10015004128217697,-0.010821784846484661,-0.009149918332695961,-0.10723987966775894,-0.01578509621322155,0.06488744169473648,0.016059739515185357,0.011069591157138348,0.06394854933023453,0.09853875637054444,-0.030874354764819146,0.09103915840387345,0.0002679775934666395,-0.032980531454086307,-0.026996664702892305,0.0885317325592041,0.018855495378375055,-0.04876580461859703,-0.09695584326982498,0.04913376271724701,0.028392242267727853,0.0021902783773839475,-0.0163316261023283,-0.012761788442730904,0.08885926008224487,-0.07323966920375824,-0.09003491699695587,0.013673566281795502,0.014396332204341889,-0.013453125953674317,0.07577089965343476,0.06806857883930206,0.08257696777582169,-0.0013789746444672347,-0.10451973229646683,-0.06665129214525223,0.0764530673623085,-0.03163324296474457,-0.037608567625284198,0.08500759303569794,0.03964969143271446,0.032067056745290759,-0.001335473614744842,-0.036245621740818027,0.10370172560214997,0.05987740680575371,0.03090587817132473,0.09958997368812561,-0.005080034956336021,-0.09287995845079422,0.09845566004514694,0.028831670060753824,-0.043284907937049869,0.08322789520025253,0.0168105848133564,0.030222443863749505,0.012099385261535645,0.006657556630671024,0.07209654897451401,-0.07646699994802475,0.0015822118148207665,-0.04665859416127205,-0.08728111535310745,-0.01826469786465168,-0.07391156256198883,0.09842975437641144,0.07990354299545288,0.06849632412195206,-0.06745049357414246,0.036589425057172778,0.001541674486361444,0.06344585120677948,-0.03711474686861038,0.05496876686811447,-0.0337555855512619,-0.035652630031108859,0.036311354488134387,0.027747448533773423,0.09696841239929199,0.08868716657161713,-0.11040625721216202,0.04121292009949684,-0.059645261615514758,-0.10571516305208206,-0.07428636401891709,0.010490533895790577,0.10025356709957123,-0.09788748621940613,0.06607469916343689,0.0345638208091259,0.06922420114278794,-0.013937913812696934,0.032423947006464007,0.06279243528842926,0.044155340641736987,0.04559599235653877,0.02838269993662834,-0.06945990771055222,0.03957444056868553,-0.013235483318567276,-0.006350897252559662,0.08331584185361862,-0.0036593875847756864,-0.081854909658432,-0.04034784808754921,0.0170708317309618,-0.04588700830936432,0.030342357233166696,-0.07417814433574677,-0.06934791803359986,0.047876786440610889,-0.061549603939056399,0.06302644312381745,-0.04128575325012207,-0.0670931488275528,0.006292261183261871,0.06850959360599518,0.07307935506105423,-0.04124957323074341,-0.037306223064661029,-0.04936111718416214,-0.006005863659083843,0.08999088406562805,0.06669018417596817,-0.06942329555749893,0.10038423538208008,0.09799153357744217,-0.019384244456887246,-0.07979181408882141,0.007411252241581678,0.025929534807801248,0.04725194349884987,-0.07625690847635269,-0.005107132252305746,-0.012919118627905846,0.05648249015212059,0.07554071396589279,0.048497967422008517,0.030170533806085588,-0.10023198276758194,-0.08614587783813477,-0.061628326773643497,-0.06084160879254341,-0.01904045045375824,-0.03290395811200142,0.008470523171126843,-0.06421233713626862,0.05143662542104721,-0.04169989749789238,-0.10103589296340943,-0.0034664194099605085,0.08216071873903275,0.0786154642701149,0.016354387626051904,-0.003678180044516921,-0.06151549145579338,-0.029078470543026925,-0.08144199848175049,-0.05952797085046768,0.06486093997955322,0.04631612077355385,0.023324808105826379,0.003895465051755309,-0.10263721644878388,0.08235006034374237,0.08979823440313339,0.08357177674770355,0.08127090334892273,0.06050371378660202,0.03315825015306473,0.09743887931108475,-0.020051710307598115,-0.05876932665705681,-0.09932390600442887,0.1073572039604187,-0.016642430797219278,-0.010004368610680104,0.023252911865711213,-0.0323997363448143,-0.07446113973855972,0.10587653517723084,-0.07593909651041031,0.0991244688630104,-0.028684131801128389,0.007524495478719473,-0.04251805320382118,-0.08655966818332672,-0.001357989152893424,-0.007239685393869877,-0.04762352257966995,-0.05656740814447403,0.036368824541568759,0.054662324488162997,0.007979394868016243,-0.11046995967626572,0.038081586360931399,-0.024468302726745607,-0.046280547976493838,-0.06477391719818115,0.009585760533809662,-0.06313805282115936,0.04872528463602066,-0.016643116250634195,-0.017454523593187333,-0.07627176493406296,0.02208876423537731,0.0727056935429573,-0.04283736273646355,0.10441824793815613,-0.027028540149331094,0.015130048617720604,0.023579301312565805,-0.012857509776949883,-0.0876350849866867,-0.06449359655380249,-0.042155053466558459,0.08666142076253891,0.03764107823371887,-0.07746142894029618,-0.022969231009483339,0.056382596492767337,0.08912886679172516,0.01820600964128971,-0.10751824826002121,-0.020327836275100709,-0.008428912609815598,0.10627102106809616,0.03007737547159195,-0.035313431173563007,-0.0852581113576889,-0.08683609217405319,-0.07005827128887177,0.017747562378644944,0.08612890541553498,0.0662166103720665,-0.05646371841430664,-0.07991676777601242,-0.10024458914995194,0.026866020634770395,-0.049079980701208118,0.050151094794273379,0.0061613405123353008,0.10294005274772644,0.006420748308300972,0.027863692492246629,0.05808492749929428,0.05206917226314545,0.01471000723540783,-0.09554792940616608,0.07117760181427002,0.06973234564065933,0.10591720044612885,-0.016003014519810678,0.10950441658496857,0.08205990493297577,-0.034743309020996097,-0.028427140787243844,-0.04169650748372078,-0.0798332542181015,-0.08868984133005142,0.05643614009022713,0.003000803990289569,-0.034411732107400897,0.01802668906748295,-0.08015035837888718,0.04512753710150719,0.09122627228498459,-0.036319222301244739,0.07344140112400055,-0.05034159496426582,0.10990389436483383,-0.04262503236532211,-0.05761334300041199,0.05634453520178795,-0.01462571695446968,-0.025065256282687188,0.0628906637430191,-0.0721035972237587,-0.07704483717679978,0.06070348247885704,0.05357515811920166,-0.08397473394870758,0.03551597520709038,-0.00822710245847702,0.040715645998716357,0.021943774074316026,-0.08423718810081482,0.0032824818044900896,-0.010671998374164105,0.020254021510481836,-0.08974869549274445,0.06494268774986267,-0.08046367019414902,0.04017099738121033,0.06063445657491684,-0.03840251266956329,0.07322395592927933,0.09283022582530976,0.021439142525196077,-0.021456094458699228,-0.029948920011520387,0.11448893696069718,0.0297514870762825,-0.0371725969016552,0.061587318778038028,0.09435037523508072,0.08124839514493942,-0.08493500202894211,-0.08313967287540436,-0.10505891591310501,-0.017885597422719003,-0.07722125947475434,-0.07226217538118363,0.08155059814453125,-0.10793834924697876,-0.08445357531309128,0.09198835492134094,-0.03565283119678497,-0.028201840817928315,-0.010194667614996434,-0.07303578406572342,-0.08555490523576737,-0.10246039927005768,0.0442400686442852,-0.01247937511652708,0.014480694197118283,0.054890599101781848,0.01486305333673954,0.10103747248649597,0.07292373478412628,-0.007949179038405419,0.015541145578026772,0.08808008581399918,-0.10108522325754166,-0.06570789963006973,0.05359344184398651,0.08303984254598618,-0.022410579025745393,-0.09717418253421784,-0.08822178840637207,-0.06800796836614609,0.023528793826699258,0.008486547507345677,0.05880475044250488,-0.0734284445643425,-0.09455025941133499,-0.04556369036436081,0.05584394186735153,-0.06187567114830017,-0.04766818881034851,0.039402060210704806,0.053050726652145389,-0.0706663578748703,0.03944476321339607,-0.07701758295297623,0.004124902188777924,-0.05662138760089874,-0.05957696586847305,-0.04766528680920601,-0.02365276776254177,-0.046045854687690738,-0.06049444153904915,0.02824617363512516,-0.04945334792137146,-0.09152959287166596,-0.08958755433559418,0.07850627601146698,-0.10010293126106262,0.0818888247013092,-0.09295175224542618,-0.08050260692834854,-0.00892119575291872,0.01805669255554676,0.06931454688310623,-0.08961863070726395,0.08454843610525131,-0.08610497415065766,-0.0710485503077507,-0.09870951622724533,0.04959520325064659,0.031757425516843799,-0.03606874868273735,0.023936230689287187,-0.09240784496068955,-0.06905665248632431,-0.05402648448944092,0.0038022086955606939,0.012008504942059517,-0.0683717131614685,0.00639974232763052,0.03865717351436615,0.06138293817639351,0.09210799634456635,0.009862395003437996,-0.03593270480632782,-0.038697801530361179,0.04479280114173889,0.04896282032132149,-0.10181277990341187,0.0708971694111824,-0.010606678202748299,0.1039409339427948,0.05760868266224861,-0.06315227597951889,-0.08812043070793152,0.03697110712528229,0.06392571330070496,0.09185036271810532,-0.008554883301258088,0.09067004919052124,0.09856083244085312,0.07385621964931488,0.07995487749576569,0.03680337592959404,0.010185081511735917,0.03754933550953865,0.013373340480029583,-0.010503429919481278,-0.0706525519490242,0.01264804508537054,-0.024737918749451639,0.08972117304801941,0.07671044766902924,-0.03600510209798813,0.09499935805797577,-0.055895399302244189,0.08043668419122696,-0.0961599200963974,0.026166947558522226,0.04675242304801941,-0.08952789008617401,0.03543555736541748,-0.03495102748274803,-0.04008861631155014,0.08573833107948303,0.08645162731409073,-0.08407249301671982,-0.09220628440380097,0.0029854425229132177,0.009616960771381855,0.005869697313755751,0.03942808136343956,0.03285969793796539,-0.046059299260377887,-0.07544174045324326,-0.06451275944709778,-0.10538417100906372,-0.08915553987026215,0.0302240252494812,-0.09048488736152649,0.0033516287803649904,0.032511379569768909,0.025346782058477403,-0.026222027838230134,-0.10541421175003052,-0.0135432668030262,-0.07910839468240738,0.028162963688373567,0.07321599125862122,-0.09494004398584366,-0.09460267424583435,0.03393469750881195,-0.05643778294324875,-0.04075680300593376,-0.01853288523852825,0.07951755821704865,0.02417471446096897,0.08737444877624512,-0.03245620056986809,-0.09944010525941849,-0.0890137329697609,-0.0793238952755928,0.04860380291938782,0.09688451141119003,-0.03735782951116562,0.06167679280042648,0.050463683903217319,0.07104422152042389,-0.01930360309779644,0.03754717856645584,-0.021087879315018655,-0.06511203199625015,-0.10691128671169281,-0.06068893149495125,-0.046645402908325198,0.10188861191272736,-0.08419659733772278,-0.07549726963043213,0.002612764248624444,-0.08104010671377182,-0.046111758798360828,0.056188490241765979,0.01492235716432333,-0.044144272804260257,-0.028528299182653428,-0.011696039699018002,-0.04732591286301613,0.04181566834449768,0.09671157598495484,-0.08219122886657715,-0.012258893810212613,-0.04737258702516556,0.09175621718168259,0.09926362335681915,0.0034996664617210628,-0.05150650069117546,-0.10488694161176682,0.09578994661569596,-0.022901054471731187,-0.09112156182527542,-0.03257239982485771,0.10241318494081497,0.032872274518013,0.05701544135808945,-0.09604406356811524,-0.10992418229579926,-0.044551219791173938,0.08764158189296723,0.0966002494096756,-0.039162468165159228,0.005769581999629736,0.04374856501817703,0.04040747880935669,-0.09550916403532028,0.04916182532906532,-0.07359005510807038,-0.030406834557652475,-0.02188311517238617,0.098830446600914,-0.09603118151426316,0.08192406594753266,-0.00787092000246048,-0.015750020742416383,0.0432119145989418,0.02606506645679474,-0.03382432460784912,0.10118797421455383,0.04159019887447357,-0.049512580037117007,0.05407769978046417,-0.03145649656653404,0.06394192576408386,0.00343041168525815,-0.08479932695627213,-0.009515567682683468,0.07944942265748978,0.006870045326650143,-0.10519378632307053,0.0013706638710573316,-0.07228082418441773,0.024310097098350526,0.0450085811316967,-0.0673016756772995,0.07062522321939469,0.06300081312656403,-0.0976380705833435,0.04339006915688515,0.05784095451235771,-0.11072634160518646,0.09050024300813675,-0.04163726046681404,-0.020321190357208253,0.029918769374489785,0.07064566016197205,0.09860318154096604,0.062444932758808139,0.0892048254609108,0.10205517709255219,0.015301121398806572,0.02587493136525154,-0.02359933592379093,-0.02854769304394722,-0.10514045506715775,-0.054388221353292468,-0.09942499548196793,-0.06789306551218033,0.01892676018178463,0.07217933982610703,-0.025427913293242456,-0.008867435157299042,-0.07670789211988449,-0.002645377768203616,-0.07479710876941681,0.02619137242436409,0.018203526735305787,-0.08418963104486466,-0.02787294052541256,0.006176282186061144,0.01609475538134575,-0.08398239314556122,0.0019635010976344349,0.01571231335401535,-0.020367607474327089,0.02941729687154293,0.09838628768920899,0.09378858655691147,0.10364797711372376,0.06134040281176567,-0.0682484582066536,0.06143006682395935,-0.04158664494752884,0.0878833755850792,-0.026622410863637925,0.02335316501557827,-0.05721362680196762,-0.10661732405424118,-0.07545734941959381,-0.0843871608376503,-0.07974082231521607,0.039133623242378238,0.09098850190639496,-0.03740818053483963,0.001253039576113224,0.06840866804122925,0.04953877627849579,-0.012056142091751099,-0.08797824382781983,0.0649651363492012,-0.07062044739723206,0.055718883872032168,0.05177668482065201,-0.0068384562619030479,0.07459814101457596,-0.018921546638011934,-0.003933349158614874,-0.09908069670200348,0.00023642061569262296,0.004793702159076929,-0.059283576905727389,0.05941024422645569,0.09346102178096771,0.020412368699908258,0.07284018397331238,-0.03790717199444771,0.061610277742147449,0.026171209290623666,-0.09742248803377152,-0.013810568489134312,0.10569450259208679,0.04468771815299988,0.07183468341827393,0.10746633261442185,-0.09206685423851013,-0.08504241704940796,-0.04633527621626854,-0.0971938818693161,0.03739931434392929,0.08601302653551102,-0.10993228107690811,-0.04981127008795738,0.0907217338681221,-0.08223311603069306,-0.10745704174041748,-0.0389803871512413,0.06527388095855713,-0.09370093792676926,0.06924071162939072,0.05058157071471214,0.09032855182886124,-0.023444002494215967,0.09427010267972946,0.04138847813010216,-0.04310034215450287,-0.09374503046274185,-0.040986157953739169,-0.08158688247203827,-0.04239595681428909,-0.09873287379741669,0.0539734773337841,0.101335309445858,-0.06033080443739891,0.010299945250153542,-0.0620897077023983,-0.10083764046430588,0.09205713123083115,-0.029803145676851274,-0.021887032315135003,-0.014821778982877732,0.024874212220311166,-0.09279584884643555,-0.07947248965501785,0.052166156470775607,-0.02955399639904499,-0.04298578202724457,0.07120256125926972,-0.027173617854714395,0.10112845152616501,-0.08127903193235398,0.06546197831630707,0.09639406204223633,-0.0735630989074707,0.07160619646310806,-0.06896413117647171,0.033595021814107898,-0.015195176005363465,0.09798470139503479,-0.09046008437871933,-0.06734015792608261,-0.04584256559610367,-0.10310348868370056,0.08076943457126618,-0.01745828613638878,-0.016903650015592576,0.09286630898714066,0.10589233040809632,0.09960338473320008,-0.013620786368846894,-0.0027781855314970018,-0.014911509118974209,-0.0486157201230526,-0.0755053237080574,0.07695767283439636,-0.06440961360931397,-0.0632307231426239,-0.059238094836473468,0.003012624569237232,-0.040069740265607837,-0.10232370346784592,-0.018883557990193368,-0.011929850094020367,0.10618656873703003,-0.05810513719916344,0.044522371143102649,-0.004496204201132059,-0.013137112371623516,0.008974740281701088,0.04587350785732269,0.06596501916646958,0.06827420741319657,0.0687749832868576,0.009642080403864384,0.08026910573244095,0.03145269677042961,0.027258295565843583,0.07509871572256088,-0.08834344893693924,0.05314626172184944,-0.10697939246892929,0.0442349798977375,0.05809546634554863,-0.0596964955329895,-0.10139725357294083,0.007515575271099806,-0.028094420209527017,-0.08290570974349976,-0.019259020686149598,-0.0809069499373436,0.026978978887200357,0.09798920899629593,-0.10777749866247177,-0.06225598230957985,0.02133253961801529,0.0541125051677227,0.026069672778248788,0.04932737350463867,0.06666287779808045,0.02973111905157566,0.08066493272781372,0.023780709132552148,0.016156485304236413,0.0042571197263896469,-0.09879204630851746,0.032253608107566836,0.09400156140327454,0.05533735454082489,-0.01641908660531044,0.015047219581902027,-0.01547038834542036,-0.019486969336867334,0.05930574610829353,-0.03431751951575279,-0.04637504741549492,-0.04006538912653923,0.00917492713779211,-0.09265714883804321,0.01719348132610321,-0.05504465103149414,-0.06879530102014542,0.02358550950884819,0.04966210946440697,-0.011213535442948342,0.010728699155151844,0.03158465400338173,0.055685847997665408,0.1020602136850357,0.05906730517745018,-0.06953510642051697,0.06162259727716446,-0.08080890774726868,0.040235504508018497,0.05406618490815163,0.09437304735183716,-0.019988922402262689,-0.000482675590319559,-0.029599584639072419,0.04965746030211449,-0.05309705436229706,-0.06293316185474396,0.04713817313313484,0.0021590329706668855,-0.033943984657526019,-0.05149926617741585,0.009296330623328686,-0.006369703449308872,-0.05993204563856125,-0.0831221416592598,-0.08577869832515717,0.030021855607628824,-0.06642754375934601,0.026541471481323243,-0.051703620702028278,0.10583820939064026,0.06169804930686951,-0.015673140063881875,-0.060840778052806857,-0.005934246815741062,-0.013628087937831879,-0.09019672870635987,-0.00332213775254786,-0.09651269018650055,-0.1097225472331047,0.07378999143838883,0.006878810469061136,0.10493864119052887,-0.03028157539665699,0.07263591885566712,0.04789713770151138,-0.10381244868040085,0.06603036820888519,-0.009863357059657574,0.08666866272687912,-0.10740715265274048,0.015000333078205586,-0.0021117764990776779,-0.07256461679935456,-0.0195460245013237,-0.005683413706719875,0.0015854737721383572,0.005446383263915777,0.10098593682050705,-0.08083134144544602,0.10043787211179733,-0.029306981712579728,-0.02974768541753292,0.008889288641512394,-0.10051801055669785,-0.015452873893082142,0.04674409702420235,0.058522727340459827,0.10235961526632309,-0.08236067742109299,-0.056598611176013949,-0.046032220125198367,0.07947207987308502,0.05174049362540245,-0.07774676382541657,0.0941796749830246,0.10654827952384949,0.07736354321241379,0.10150198638439179,0.08260420709848404,0.07768227159976959,-0.032682258635759357,-0.10707443952560425,-0.10189899802207947,0.04931759461760521,-0.006702113430947065,-0.012663692235946656,-0.02067871391773224,0.05914152413606644,0.04185480996966362,-0.06051936745643616,-0.004508063197135925,0.07162313163280487,-0.008892379701137543,-0.1049104705452919,-0.03378703445196152,-0.029510609805583955,0.0433555468916893,0.01505235955119133,0.06583665311336518,-0.10268359631299973,0.0714796856045723,0.05911386013031006,-0.01643405854701996,0.01780330389738083,0.08656369894742966,-0.01833672821521759,0.015104005113244057,0.09115742146968842,0.09727362543344498,-0.06415905058383942,0.005406329873949289,-0.0008283713250420988,0.027561690658330919,-0.061294618993997577,-0.026739992201328279,0.048855818808078769,-0.05142144113779068,-0.10706131905317307,0.07441898435354233,-0.0052708592265844349,-0.09215088933706284,-0.04517562314867973,0.09759056568145752,0.013158915564417839,-0.06616447865962982,-0.06395906209945679,-0.10056979954242706,-0.058704376220703128,-0.038780536502599719,0.0809260830283165,0.02448226697742939,0.05377764254808426,0.0776372179389,-0.058349695056676868,0.10061869025230408,-0.05928220599889755,-0.019254963845014573,-0.03129222244024277,0.023727532476186754,-0.0938597097992897,0.028006885200738908,-0.07640049606561661,-0.10050289332866669,0.00899235438555479,0.08769062161445618,0.09414692968130112,0.0388060137629509,-0.09145056456327439,-0.039144378155469897,-0.00828483235090971,0.08994128555059433,0.010642335750162602,-0.05447020009160042,0.07649299502372742,-0.08475111424922943,-0.06476052105426789,-0.09770864248275757,-0.06550508737564087,0.07205367833375931,0.05456465855240822,0.0572221577167511,0.017667654901742936,-0.06937485933303833,0.001333510153926909,-0.10001321136951447,0.06017949432134628,-0.04652803763747215,-0.03693770989775658,-0.05294182896614075,0.06590726971626282,0.07962840795516968,0.045324452221393588,0.09344527125358582,0.08328643441200257,-0.014371976256370545,0.09559518098831177,-0.041820839047431949,0.020077906548976899,-0.09653688967227936,0.029122812673449518,0.05529693141579628,0.09384407848119736,0.08908554166555405,0.08058454096317291,0.06852593272924423,0.03578820824623108,-0.014065409079194069,0.06621700525283814,-0.09381420910358429,0.10309235006570816,-0.06118467077612877,0.02517091855406761,0.09693849086761475,-0.09354005008935929,-0.006275116000324488,-0.07555468380451203,0.07006747275590897,-0.10080040246248245,-0.046446461230516437,-0.023912139236927034,0.05325998365879059,-0.035351891070604327,0.095497727394104,-0.007558887358754873,-0.09262581169605255,0.10825782269239426,0.10131192207336426,-0.07595518976449967,0.030285799875855447,-0.017833104357123376,-0.022398674860596658,0.022609025239944459,-0.08556104451417923,-0.027357913553714753,0.06373901665210724,0.040727607905864719,-0.07764001190662384,0.02340731956064701,-0.024119094014167787,0.07894770801067352,-0.005290613044053316,-0.09492247551679611,-0.09445682913064957,-0.01563173718750477,-0.013553101569414139,0.04908959940075874,0.09726458787918091,0.05819946900010109,0.05738219618797302,-0.06797938048839569,-0.01300504244863987,-0.004763680975884199,-0.08075187355279923,-0.08211506903171539,-0.0422113798558712,0.016986293718218805,0.009314177557826043,0.0474432110786438,-0.10448207706212998,0.038100406527519229,0.0775512158870697,0.07496558874845505,0.08784588426351547,-0.02003340609371662,-0.07108980417251587,0.09357614070177078,-0.08955444395542145,-0.08732975274324417,-0.05567793920636177,-0.08302076905965805,-0.027844369411468507,0.1064324751496315,-0.01005431730300188,-0.04108653962612152,-0.03158416226506233,0.04216679185628891,0.02891431748867035,-0.013818256556987763,-0.041882168501615527,0.017803214490413667,0.07696345448493958,0.056479472666978839,0.031009778380393983,-0.023823874071240426,0.0730198547244072,-0.04504068195819855,-0.046019382774829867,0.08961103856563568,-0.05006653442978859,-0.054494164884090427,-0.06762311607599259,-0.06905775517225266,-0.052634838968515399,0.030024230480194093,0.021188948303461076,-0.044912002980709079,0.050110284239053729,-0.006611993536353111,-0.01516546867787838,-0.01117381639778614,0.009208660572767258,-0.10615832358598709,0.03325853496789932,-0.10067319869995117,0.023248843848705293,0.05295852944254875,0.000935167889110744,0.0878128781914711,0.10806036740541458,-0.0056012957356870178,-0.02212447114288807,0.08566983044147492,0.09170787036418915,0.006792604457587004,0.09044193476438523,0.03714501112699509,0.07516271620988846,-0.03429922088980675,-0.011982705444097519,-0.10518954694271088,0.02096332423388958,0.04503466933965683,-0.00407416932284832,0.03671719506382942,-0.08161412924528122,0.02930120751261711,-0.015334241092205048,0.0008665845380164683,0.10529646277427674,-0.08800110965967179,-0.011410631239414215,-0.02337030880153179,0.028592482209205629,0.007377758622169495,-0.08754877001047135,0.0102760661393404,0.032817207276821139,-0.0734075978398323,-0.059547316282987598,0.014111200347542763,0.09591580927371979,0.0009010761859826744,0.0014678018633276225,-0.0532555878162384,-0.023430317640304567,0.07484365999698639,0.0526491142809391,-0.0032709732186049225,-0.018105365335941316,0.0030365034472197296,0.05496113747358322,0.08374320715665817,-0.02580004185438156,0.06683794409036637,0.030591674149036409,-0.10395704209804535,-0.02374567836523056,-0.09189969301223755,0.039574068039655688,-0.08138968050479889,0.027630265802145006,0.032513976097106937,0.09005564451217652,0.06863885372877121,0.08580224961042404,-0.10896922647953034,-0.03820125386118889,0.003148952266201377,0.012278850190341473,-0.10340750217437744,0.007008904125541449,0.0440610833466053,-0.09184408187866211,-0.057121966034173968,0.026639645919203759,0.046962253749370578,-0.06600373983383179,-0.10447190701961518,0.058773744851350787,-0.052912160754203799,-0.02638058178126812,-0.0667395070195198,0.08435643464326859,0.024456117302179338,0.05536867305636406,-0.09640057384967804,-0.07714378088712692,-0.051867369562387469,0.03624667972326279,-0.08274935930967331,0.04081020504236221,0.039110470563173297,-0.10224340856075287,-0.10568415373563767,0.030015742406249048,-0.0059585291892290119,-0.023320235311985017,-0.05775074660778046,-0.06362450867891312,0.043413061648607257,0.06900735199451447,-0.06144165247678757,-0.020685406401753427,-0.03215977922081947,0.10151421278715134,0.0971762090921402,0.1058812215924263,0.011637331917881966,-0.05004826560616493,-0.038839347660541537,-0.07044033706188202,-0.09264945238828659,-0.040001336485147479,-0.05090652033686638,0.08202581852674484,0.056397296488285068,-0.08057905733585358,-0.01589309796690941,0.09434577822685242,-0.06218401715159416,-0.048432253301143649,-0.02342197112739086,-0.0474717952311039,0.025936542078852655,-0.039397068321704867,-0.00038140633841976523,0.09286324679851532,-0.03141864761710167,0.012803989462554455,-0.09710611402988434,-0.08159171044826508,0.06905990093946457,0.0357838049530983,-0.02680901251733303,0.10440164059400559,-0.07418259233236313,-0.07427038997411728,0.011194945313036442,-0.05927041918039322,-0.04949197918176651,-0.013071557506918908,0.039611633867025378,0.08763565123081207,0.00818636268377304,0.01656058430671692,-0.01699766516685486,0.05890355259180069,-0.07781391590833664,0.1008680909872055,0.03290748596191406,0.008499774150550366,0.07965859025716782,-0.0399007722735405,-0.08937746286392212,-0.10169346630573273,0.017775287851691247,0.05946103855967522,-0.059447962790727618,0.041648346930742267,0.021960755810141565,0.009000200778245926,0.04123958200216293,-0.05091450735926628,-0.029832517728209497,0.0200356375426054,-0.040066443383693698,-0.0054638865403831009,0.023740949109196664,-0.058832041919231418,0.06933821737766266,0.01149650290608406,-0.05028548091650009,-0.07498375326395035,0.04441893845796585,-0.08539340645074845,0.10567145049571991,-0.06495044380426407,-0.015589145012199879,-0.06793203204870224,0.024724788963794709,0.045727621763944629,0.020711872726678849,-0.03437121957540512,-0.06498424708843231,0.020324507728219034,0.07468466460704804,0.033376771956682208,0.025159765034914018,-0.02126055769622326,-0.1044999286532402,0.08997126668691635,0.07402779161930084,0.10751714557409287,0.1091293916106224,-0.05322195589542389,0.03831597790122032,0.01126236841082573,-0.025844503194093705,0.061171624809503558,0.06414119899272919,-0.09634661674499512,-0.011764327064156533,-0.08836903423070908,-0.038809265941381457,-0.07901620119810105,0.08840432018041611,0.048677295446395877,0.07064547389745712,0.0588567852973938,-0.024152876809239389,0.04818445071578026,-0.009262580424547196,0.0732039287686348,-0.02337784692645073,-0.02027437649667263,-0.03981082886457443,-0.03914658725261688,-0.05071070417761803,-0.05612650141119957,-0.0694943442940712,0.10685279965400696,-0.09133075922727585,-0.010478381998836995,0.05822204425930977,0.08083600550889969,-0.045407142490148547,0.028994571417570115,-0.014798209071159363,0.07292003929615021,-0.04019544646143913,-0.06350986659526825,0.108757883310318,0.007478812243789434,0.07487739622592926,-0.0789230689406395,0.08015470951795578,0.0998249500989914,-0.07631697505712509,0.04787547141313553,0.016082707792520524,0.10677126795053482,0.08327390998601914,-0.09311021119356156,0.04775586351752281,0.09390859305858612,0.09951000660657883,0.09470205008983612,-0.029360510408878328,0.009916884824633599,-0.006949824746698141,0.07600235193967819,0.09731552004814148,0.1113249659538269,0.05751688405871391,0.011594811454415322,-0.04591920226812363,-0.06477715075016022,-0.09621916711330414,-0.05578366667032242,0.03956123813986778,0.06417246907949448,-0.010776132345199585,0.017544832080602647,0.05045512691140175,-0.013655935414135456,-0.10517623275518418,0.06747125834226608],"WeightsRows":20,"WeightsCols":84,"Biases":[0.002299980726093054,0.0016132487216964365,-0.0013417453737929464,-0.000692998874001205,-0.002741512842476368,0.003431479912251234,-0.004598137456923723,0.005696259438991547,-0.0012013972736895085,-0.0009075183188542724,-0.0023781112395226957,0.0019201430259272457,0.003041991265490651,0.0020601258147507908,-0.005864715203642845,0.0020921118557453157,-0.0037254716735333206,0.003731113625690341,-0.001659657689742744,0.0018587923841550947]},{"Weights":[-0.08715148270130158,-0.17092199623584748,-0.14996494352817536,0.16937695443630219,0.07249567657709122,-0.20531810820102693,-0.15863275527954102,0.11329561471939087,0.06995849311351776,0.04152742400765419,-0.058948226273059848,-0.18940576910972596,0.046670664101839069,-0.14193856716156007,-0.09012679755687714,0.1296902298927307,0.026955103501677514,0.17348967492580415,-0.19992700219154359,-0.028522424399852754,-0.1534433811903,0.055398955941200259,-0.16704629361629487,-0.0256901066750288,0.020682791247963907,0.1818052977323532,0.13735006749629975,0.11303874850273133,0.19118066132068635,-0.1447233259677887,0.06635969132184982,0.18755675852298737,-0.039197105914354327,0.03671595826745033,0.11355524510145188,0.031733956187963489,0.08309836685657501,-0.2206944227218628,0.20691603422164918,0.12312100827693939,0.03224621340632439,0.08143837749958039,0.13799217343330384,-0.06325318664312363,0.13619984686374665,0.034547820687294009,0.18223296105861665,-0.04097915068268776,-0.04068337753415108,-0.05628950893878937,-0.1663156896829605,-0.16583803296089173,-0.21675866842269898,-0.10162173956632614,-0.06943462789058685,0.19841858744621278,-0.22133669257164002,0.05930608510971069,0.02063348889350891,0.17836856842041017,-0.17158448696136475,0.22643017768859864,0.0652245506644249,0.1073482409119606,0.217301145195961,-0.05333792045712471,0.13585872948169709,0.0630781278014183,-0.18538154661655427,-0.12030056864023209,0.011656947433948517,-0.11159215122461319,-0.01802620105445385,-0.0248695220798254,0.13471950590610505,0.03752124309539795,0.16833333671092988,0.013316030614078045,0.18853943049907685,-0.19878873229026795,-0.13521400094032288,0.13212457299232484,-0.12085223197937012,-0.10468415915966034,0.08645163476467133,0.1253306120634079,-0.19270403683185578,0.12132696062326431,-0.11556073278188706,-0.010008314624428749,-0.06545991450548172,-0.04894406348466873,0.036689117550849918,0.0663740485906601,0.14290660619735719,0.06129875406622887,-0.10097765922546387,-0.17494148015975953,0.16688849031925202,-0.02817288599908352,-0.11533967405557633,-0.03699607029557228,-0.1494297981262207,-0.15378105640411378,-0.0626724511384964,0.04027603194117546,0.10215535014867783,0.19445964694023133,0.2085290551185608,-0.05344260856509209,-0.050060298293828967,-0.19661904871463777,0.1818159520626068,-0.21522273123264314,-0.10019847005605698,0.19883348047733308,0.013016191311180592,0.004528845194727182,0.08619292825460434,-0.19749020040035249,0.12391657382249832,0.06075349077582359,0.19991974532604218,-0.1276225745677948,-0.08214905112981796,-0.19452467560768128,-0.1863449662923813,-0.2135966271162033,-0.054729409515857699,0.08075685799121857,0.1797448992729187,-0.18406666815280915,-0.06728504598140717,0.11827465891838074,-0.007335812784731388,0.19861409068107606,-0.11474201828241348,0.10873684287071228,-0.07429579645395279,-0.03156355768442154,0.19022704660892487,0.02755757048726082,-0.09051397442817688,0.10449089109897614,-0.08384520560503006,0.124064601957798,-0.09875830262899399,-0.16083645820617677,0.04878564551472664,-0.20320899784564973,-0.056227002292871478,0.21918733417987824,0.18994127213954926,-0.21069584786891938,0.08944408595561981,-0.0697891116142273,0.06889411062002182,0.03879442438483238,-0.19440989196300507,-0.11955970525741577,0.17526383697986604,0.17446468770503999,-0.1738165318965912,-0.02321655862033367,-0.11419592052698136,0.19226406514644624,-0.14710861444473267,-0.22561229765415193,0.09579973667860031,0.1148620992898941,0.20138464868068696,-0.10737483948469162,0.1992325484752655,0.16400882601737977,-0.20878757536411286,0.14908845722675324,-0.17515809834003449,0.033964358270168307,0.07472781091928482,0.11303217709064484,0.11447228491306305,0.01695452257990837,0.14874881505966187,-0.1202329620718956,-0.1531294882297516,-0.08319210261106491,-0.11721409857273102,0.2257905751466751,0.18715845048427583,-0.07668713480234146,0.1350533366203308,0.1607002317905426,0.148044154047966,-0.16712051630020142,0.02787305973470211,0.21443518996238709,0.06817423552274704,-0.15790361166000367,0.09082900732755661,-0.018353380262851716,0.05732530727982521,-0.10411365330219269,0.1298263818025589,0.004507791250944138,0.008484323509037495,-0.20571723580360413,0.06632278859615326,-0.09716986864805222,-0.09340674430131912,0.13215391337871552,0.2072257250547409,-0.08987105637788773,0.057484764605760577,0.03307657688856125,0.08923282474279404,-0.16680027544498444,0.04602396488189697,0.10617440193891525,-0.09953746199607849,0.22635039687156678,0.22179336845874787,0.02706417813897133,-0.17395861446857453,0.11698300391435623,-0.014830444008111954,-0.13589534163475038,-0.028942983597517015,-0.11702001094818115,0.06998659670352936,0.07582617551088333,0.20935167372226716,0.06350333243608475,-0.17232288420200349,0.01336713694036007,-0.13753589987754823,0.07456758618354798,-0.14723867177963258,0.17812535166740418,0.14215205609798432,-0.17645348608493806,0.07510704547166825,-0.1340533345937729,0.06300749629735947,-0.18236012756824494,-0.09498647600412369,0.2028496116399765,-0.007129053119570017,0.07187188416719437,-0.005406636279076338,0.0953822210431099,-0.13686087727546693,-0.01082487404346466,-0.13711194694042207,0.17182841897010804,-0.17751029133796693,-0.12399931997060776,-0.05490008741617203,-0.1768089234828949,-0.12009221315383911,-0.1643977165222168,0.04042435437440872,-0.20406877994537354,0.18137547373771668,0.1917978823184967,0.023651471361517907,0.006048026494681835,-0.12214329093694687,-0.19436317682266236,-0.0512348935008049,0.02642085775732994,0.08693987131118775,0.099417544901371,0.12492150068283081,0.14019547402858735,-0.11650445312261582,-0.053700823336839679,-0.14227575063705445,-0.1416739672422409,0.1157141700387001,0.004958834964782,0.024986669421195985,-0.1414325088262558,0.003838415490463376,0.012778885662555695,-0.00022662669653072953,-0.19438500702381135,-0.12059784680604935,-0.1645856648683548,0.16635200381278993,-0.19531549513339997,0.202922984957695,-0.057287681847810748,-0.1669829785823822,0.07651052623987198,-0.08659686893224716,-0.19046486914157868,0.0011600758880376816,-0.13233265280723573,-0.17753560841083527,-0.20740200579166413,0.024301717057824136,0.07756071537733078,-0.09456471353769303,-0.17421415448188783,-0.08358683437108994,0.013434646651148796,-0.09515649080276489,-0.16218377649784089,-0.1441342979669571,0.0159335657954216,-0.14250044524669648,0.008463938720524311,-0.11431587487459183,-0.20212699472904206,-0.1848219782114029,0.20496615767478944,0.20362703502178193,-0.19219864904880525,0.08208996802568436,-0.22247673571109773,0.0915234163403511,0.08540556579828263,0.030534490942955018,0.17663553357124329,-0.21338394284248353,0.2263731211423874,0.1670171469449997,-0.18358084559440614,0.19647829234600068,-0.030695725232362748,-0.1802688091993332,0.07167284935712815,0.189419224858284,0.12214584648609162,-0.0077825249172747139,0.024621907621622087,0.039038438349962237,0.06487132608890534,-0.1665828377008438,-0.20693688094615937,0.015613709576427937,0.05659911409020424,0.07303687185049057,-0.16417790949344636,-0.0012167629320174456,0.09321279078722,-0.042363010346889499,0.05891438201069832,0.0027681980282068254,-0.09869471937417984,0.09731872379779816,-0.17821137607097627,0.11285626888275147,0.015977811068296434,-0.03772900998592377,-0.17456375062465669,0.021261876448988916,0.04040265455842018,0.12626318633556367,-0.1968751847743988,-0.10103784501552582,-0.20228056609630586,0.14824393391609193,0.13780519366264344,-0.1729966551065445,-0.0661824643611908,-0.17286887764930726,0.14368385076522828,0.17969222366809846,0.05693424120545387,-0.05751543119549751,-0.1270957589149475,0.16752496361732484,-0.09839402139186859,-0.005530654918402433,-0.09324773401021958,0.08621825277805329,0.0005718694301322103,-0.20065055787563325,0.034068763256073,0.17717130482196809,0.20902761816978455,0.019018463790416719,0.18223616480827332,-0.04662907496094704,0.01482332032173872,-0.017695609480142595,-0.05393316224217415,0.21160757541656495,0.08254610002040863,0.21207593381404878,-0.012686561793088913,0.09290462732315064,-0.056465983390808108,-0.16223956644535066,0.17697492241859437,0.07687340676784516,0.08800008147954941,-0.1261657029390335,-0.19436557590961457],"WeightsRows":20,"WeightsCols":20,"Biases":[0.0014756316086277366,-0.0087309330701828,-0.0017387806437909604,-0.0012783283600583673,0.002662890823557973,0.0006196150789037347,-0.0053580342791974548,0.003290059044957161,0.013439786620438099,-0.002547165844589472,-0.008184652775526047,0.007134717423468828,-0.0013349882792681456,-0.019369790330529214,-0.0009178092004731298,-0.002610158873721957,0.010049514472484589,-0.008084015920758248,0.01398613303899765,-0.0037230646703392269]},{"Weights":[-0.17638356983661652,0.1365472972393036,-0.039720870554447177,-0.17572715878486634,0.033360160887241366,-0.05380060523748398,-0.15536634624004365,-0.17047572135925294,0.03929939866065979,-0.033018071204423907,0.0690407007932663,-0.010173766873776913,-0.14138494431972505,-0.004171797074377537,-0.1452224850654602,0.13072341680526734,0.1007988378405571,-0.14953431487083436,-0.10918775200843811,-0.0120369428768754,-0.1650111973285675,-0.11680734902620316,0.06811224669218064,-0.21422500908374787,0.1959952414035797,0.21288786828517915,0.08716214448213577,-0.21222510933876038,0.2063961923122406,-0.04509396478533745,-0.09180427342653275,0.07972539961338043,0.13898871839046479,0.11689633131027222,0.09270288050174713,-0.18138490617275239,0.16252213716506959,0.1277020126581192,0.22353743016719819,-0.08297543227672577,-0.18266761302947999,-0.09703169763088227,0.10581567138433457,-0.044223736971616748,-0.04197549447417259,-0.006693935953080654,-0.03803277760744095,0.13852714002132417,0.15157455205917359,-0.1823505014181137,-0.01408210676163435,0.1598718762397766,0.024466531351208688,-0.02648307755589485,-0.2173846960067749,-0.13113372027873994,-0.10534464567899704,-0.0391947440803051,-0.11597880721092224,0.01626363955438137,0.14764675498008729,0.11589626222848892,-0.1362176388502121,0.11231012642383576,0.1296892613172531,0.1721014529466629,0.193870410323143,0.05187506601214409,-0.16048727929592133,-0.008446932770311833,0.1941222995519638,0.16917093098163606,-0.002111474284902215,-0.11837934702634812,0.08135221898555756,-0.09911461174488068,0.1743663102388382,0.028407976031303407,-0.04187501594424248,-0.05408891662955284,0.13350030779838563,0.06221429258584976,0.0004583378613460809,-0.12839245796203614,0.16203393042087556,-0.02553550899028778,-0.10276929289102555,-0.210201695561409,-0.05638981983065605,0.029970841482281686,-0.08088205009698868,0.06900665909051895,0.09067457169294357,0.05428412929177284,-0.08463001251220703,0.059186868369579318,0.1365586519241333,-0.11722947657108307,-0.14277203381061555,0.1757308691740036,0.09396138787269592,-0.2155463993549347,0.12860111892223359,0.00563015416264534,0.1853853166103363,0.02139677293598652,-0.13257968425750733,-0.06719527393579483,0.036332760006189349,0.050847191363573077,0.14814485609531403,0.1266150176525116,0.010842978022992611,0.2174936681985855,0.1313076913356781,0.08971210569143295,-0.15713050961494447,0.19073013961315156,-0.04927651956677437,-0.015058616176247597,0.21641889214515687,0.06483188271522522,0.13785502314567567,-0.022568950429558755,0.02537398785352707,0.2158713936805725,0.04348829761147499,-0.030315130949020387,-0.160904198884964,-0.07134908437728882,0.051180776208639148,-0.10477161407470703,-0.2017516791820526,0.07428770512342453,-0.005772640462964773,0.1807144433259964,0.08582745492458344,-0.0017073008930310608,-0.1890195906162262,0.1545484960079193],"WeightsRows":7,"WeightsCols":20,"Biases":[-0.005933125037699938,-0.00845111533999443,0.031745169311761859,-0.029067713767290117,-0.002073370385915041,0.00039534710231237113,0.013385140337049961]}]}