{"Layers":[{"Weights":[0.0028129150159657,-0.010294435545802117,-0.09768348932266236,-0.07277148216962815,0.0919254794716835,0.08553307503461838,0.0829242393374443,0.10081909596920014,-0.009837975725531578,-0.05198723450303078,0.024683179333806039,0.0278363935649395,-0.004125925246626139,0.0608430877327919,-0.0927434042096138,0.043428581207990649,-0.0293107982724905,0.055655576288700107,-0.05755751579999924,-0.001731934491544962,-0.11191590130329132,0.0798986628651619,-0.09039974957704544,0.10921567678451538,-0.04086904972791672,-0.030171416699886323,-0.10438891500234604,0.040732044726610187,0.08871415257453919,0.03554093837738037,0.10342597216367722,-0.0752025917172432,-0.09179343283176422,0.024201136082410814,0.10408010333776474,0.03823521360754967,-0.09696543961763382,-0.051969848573207858,-0.004999811295419931,-0.013688791543245316,0.06559155136346817,0.004002584610134363,0.0782720297574997,0.10880978405475617,0.07052585482597351,0.09680166840553284,-0.02338634431362152,0.09457407891750336,0.024030085653066636,-0.08924488723278046,0.006316874176263809,0.017258618026971818,0.03903120011091232,0.03198348730802536,-0.08025438338518143,0.05912795290350914,0.07765098661184311,0.06420045346021652,-0.09107165038585663,-0.04686742275953293,-0.054207880049943927,-0.07831714302301407,-0.050868239253759387,0.03657324239611626,-0.07445765286684036,-0.07096033543348313,0.07805263996124268,0.08496411889791489,-0.10122518241405487,-0.001259421929717064,0.015685832127928735,0.0849006250500679,0.09095244854688645,0.02423611842095852,-0.06924276798963547,-0.07946597039699555,0.06627466529607773,0.02596704475581646,0.10265114158391953,-0.03112099878489971,0.0821089968085289,0.03421078994870186,0.05096803233027458,-0.04829687625169754,-0.04552701488137245,0.09311777353286743,-0.04856650531291962,0.022058431059122087,0.07356487959623337,-0.09856214374303818,0.008194155059754849,0.04402773827314377,-0.009791411459445954,0.006637135054916143,0.08568817377090454,0.005851007532328367,-0.06961354613304138,-0.08642467856407166,-0.0049261669628322128,-0.054682496935129169,0.08197567611932755,-0.06239474564790726,-0.05122878775000572,-0.052464231848716739,-0.1051960289478302,-0.011448303237557412,0.09314607083797455,-0.05694679543375969,-0.06705278903245926,0.033635325729846957,-0.08620278537273407,0.05294712260365486,-0.0788394957780838,0.007656752597540617,-0.040856435894966128,-0.05610031634569168,-0.03648095950484276,0.009945197030901909,-0.1024046465754509,0.05000720173120499,0.021274777129292489,-0.06177053600549698,-0.016301874071359636,-0.02230321243405342,0.04571601375937462,0.03102054074406624,-0.08946183323860169,0.052634790539741519,-0.012713119387626648,0.0401943139731884,-0.06942233443260193,0.023469582200050355,-0.07484247535467148,-0.05225106328725815,-0.0914662554860115,0.022355694323778154,0.10506297647953034,0.07538264244794846,-0.10826826095581055,-0.04672127217054367,0.102363221347332,0.05189002677798271,-0.04858339577913284,-0.0019570423755794765,-0.04116048291325569,0.08076000213623047,0.04551471397280693,0.0644218698143959,0.07584767043590546,0.07588118314743042,0.0026905538979917766,0.03672408312559128,-0.09477242082357407,-0.08076567947864533,0.04570796713232994,-0.05391925200819969,0.012783126905560494,-0.007111513987183571,0.07834482192993164,-0.06539733707904816,0.03518307954072952,-0.07139337807893753,-0.03679618611931801,0.04531501978635788,-0.08902117609977722,0.091240793466568,0.03360886126756668,0.09507972002029419,-0.05870704725384712,0.015458865091204644,0.005547699518501759,0.07851123809814453,0.01900602877140045,0.03761027008295059,-0.008183506317436695,0.016513073816895486,-0.000788099889177829,0.021443327888846399,0.022627661004662515,-0.010067150928080082,-0.006072367541491985,-0.0034604857210069896,0.0036560872104018928,0.024367675185203553,0.067022904753685,0.026905886828899385,0.06644729524850846,-0.10564041137695313,0.010765912011265755,-0.07422846555709839,-0.09582242369651795,-0.08284668624401093,-0.07745175063610077,0.03204796463251114,0.009665459394454956,0.0821857750415802,0.010337863117456437,0.047664493322372439,-0.0722307413816452,0.028195513412356378,-0.06325618922710419,0.040671613067388538,0.06827075034379959,0.03069981001317501,-0.019907649606466295,-0.0846862941980362,-0.03264092653989792,0.10998968780040741,-0.003593434114009142,0.0906251072883606,-0.07443390786647797,-0.023850057274103166,0.09765978157520294,0.06476391851902008,-0.028317715972661973,0.09340494871139527,0.026028482243418695,0.06937861442565918,0.027806691825389863,0.05409717559814453,0.06840897351503372,0.1062733381986618,-0.06560066342353821,-0.08079775422811508,-0.025951681658625604,0.09547971934080124,-0.01760541833937168,0.0647968053817749,0.08979950845241547,-0.02699911966919899,-0.08296403288841248,-0.04111228138208389,-0.018654707819223405,0.02516154758632183,-0.02029772847890854,0.004017050378024578,0.02774444967508316,0.08102985471487045,0.00937883835285902,-0.01676150970160961,-0.01606653444468975,0.10046498477458954,0.008121353574097157,-0.014842749573290348,0.07823166251182556,-0.06598620116710663,-0.08697962760925293,0.0868176743388176,-0.049042586237192157,0.061921391636133197,-0.012980999425053597,-0.11543497443199158,-0.009189075790345669,-0.03271496295928955,-0.00397126330062747,-0.08506305515766144,0.10106906294822693,0.07532567530870438,-0.050298262387514117,0.07798752188682556,-0.10150647908449173,-0.06786119192838669,0.0007661698618903756,-0.08736199885606766,-0.09509751200675965,0.04043390229344368,0.020786352455615999,-0.0918009951710701,0.012428749352693558,0.012419942766427994,0.03663896396756172,0.05960986763238907,-0.03505508601665497,0.026519985869526864,0.10227064788341522,-0.07200939953327179,-0.05887767672538757,0.011878564022481442,-0.027663802728056909,0.009003289975225926,0.04251479730010033,-0.004700007848441601,-0.029102686792612077,-0.07020202279090882,-0.04867149144411087,0.02940509468317032,0.07167383283376694,-0.06756418198347092,0.07532160729169846,0.021304408088326455,-0.028527263551950456,0.025206997990608217,-0.06842802464962006,0.08687606453895569,-0.09046463668346405,-0.06106036901473999,0.03620002791285515,-0.015671856701374055,-0.09118050336837769,-0.03779665008187294,0.027865471318364145,0.08242367953062058,-0.08135662227869034,-0.08769109100103378,0.011302677914500237,-0.0928407534956932,0.048055365681648257,0.043762706220149997,-0.10362839698791504,0.02508910559117794,0.10246273875236511,0.020789947360754014,-0.09943855553865433,0.07160073518753052,0.020722588524222375,-0.08696416765451431,-0.03265230730175972,0.047100652009248736,0.057942599058151248,0.0361357145011425,0.00972167868167162,-0.036778297275304797,-0.09439488500356674,0.015938134863972665,-0.03823639452457428,0.08529060333967209,0.06530645489692688,0.027465451508760454,-0.06618016958236695,-0.0033706652466207744,0.03157811611890793,-0.0951617956161499,0.022474830970168115,-0.03024039976298809,0.10643510520458222,0.09822172671556473,-0.03717166557908058,-0.04304972663521767,-0.033855512738227847,-0.038089048117399219,-0.029529623687267305,0.05389176309108734,0.04586770758032799,-0.008371003903448582,-0.04148044437170029,-0.0728306770324707,-0.049168661236763,-0.035058293491601947,-0.0478101409971714,-0.01827177219092846,-0.05088385194540024,-0.10355162620544434,-0.019099976867437364,-0.0175943523645401,-0.10723987966775894,-0.026637211441993715,0.06268967688083649,0.011710439808666706,0.005373433697968721,0.05671515688300133,0.10036741942167282,-0.02607414871454239,0.08918264508247376,-0.005746942479163408,-0.03979702666401863,-0.03148294612765312,0.097061388194561,0.020001979544758798,-0.04724819213151932,-0.10087316483259201,0.03202744200825691,0.011630071327090264,0.015714503824710847,-0.00435054674744606,-0.01295506488531828,0.07320114970207215,-0.08102507144212723,-0.09841892868280411,0.013673566281795502,0.014396332204341889,-0.013453125953674317,0.07577089965343476,0.06806857883930206,0.08257696777582169,-0.009870369918644429,-0.11264564841985703,-0.07367255538702011,0.06924835592508316,-0.03582131117582321,-0.03903830051422119,0.0985296219587326,0.028295453637838365,0.019734280183911325,-0.00824292004108429,-0.036862462759017947,0.10675115138292313,0.05939460173249245,0.03284205123782158,0.10385559499263764,-0.009695000015199185,-0.09500366449356079,0.08915197104215622,0.04064573347568512,-0.04374300315976143,0.08048278093338013,0.012429328635334969,0.02301751635968685,0.006467028055340052,0.016226690262556077,0.06639900803565979,-0.08095298707485199,-0.008051673881709576,-0.05514098331332207,-0.09131399542093277,-0.015620100311934948,-0.07329630106687546,0.08944819867610932,0.06695403903722763,0.058288294821977618,-0.07459062337875366,0.04711160063743591,0.010023658163845539,0.07112625241279602,-0.03103080578148365,0.058585867285728458,-0.03410552442073822,-0.032281357795000079,0.04727528244256973,0.03773649036884308,0.10215705633163452,0.0941675454378128,-0.11062927544116974,0.03861164674162865,-0.05451419577002525,-0.09405551105737686,-0.0711483433842659,0.01234776433557272,0.10630546510219574,-0.09788748621940613,0.07743766158819199,0.03768753260374069,0.07667536288499832,-0.007684864569455385,0.040937621146440509,0.06419534236192703,0.04513360559940338,0.05060413107275963,0.035117145627737048,-0.06274881213903427,0.039787471294403079,-0.005677142646163702,-0.010359854437410832,0.08837917447090149,0.007752562873065472,-0.07121898978948593,-0.030844856053590776,0.02329365909099579,-0.04654235020279884,0.03188299387693405,-0.06563111394643784,-0.060660675168037418,0.05147669464349747,-0.061549603939056399,0.06302644312381745,-0.04128575325012207,-0.0670931488275528,0.006292261183261871,0.06850959360599518,0.08465686440467835,-0.033717624843120578,-0.02967216446995735,-0.04626679793000221,-0.005106033757328987,0.09050020575523377,0.06518679857254029,-0.05971863865852356,0.10970780998468399,0.10650807619094849,-0.018197430297732354,-0.08036421239376068,0.011174600571393967,0.027806170284748079,0.04368123039603233,-0.06751997768878937,0.005850996822118759,-0.01223787758499384,0.06232908368110657,0.07474998384714127,0.054026778787374499,0.03423822298645973,-0.09063136577606201,-0.0772155299782753,-0.05727627873420715,-0.05188827961683273,-0.013500628061592579,-0.02986840344965458,0.012911410070955754,-0.06048746034502983,0.0521722175180912,-0.0333428680896759,-0.0954761803150177,0.0033701600041240455,0.09449987858533859,0.09346507489681244,0.02338843233883381,-0.006342485547065735,-0.05738859996199608,-0.03049391135573387,-0.08240137249231339,-0.05982034280896187,0.05881764367222786,0.04761768877506256,0.022456275299191476,0.008042899891734124,-0.09190823137760163,0.0947880893945694,0.0808049812912941,0.07785800099372864,0.07909799367189408,0.059099096804857257,0.0314587727189064,0.1040692999958992,-0.020051710307598115,-0.060062818229198459,-0.09454581886529923,0.11061318218708039,-0.012404829263687134,-0.008177475072443486,0.023854505270719529,-0.029857385903596879,-0.0798717588186264,0.105841264128685,-0.07068324089050293,0.10606363415718079,-0.027237122878432275,0.0008853399776853621,-0.03839558735489845,-0.08447994291782379,0.0070439288392663,0.0002902643755078316,-0.0544457882642746,-0.060165416449308398,0.03985021263360977,0.04538818821310997,0.005016172304749489,-0.11264684051275253,0.038081586360931399,-0.024468302726745607,-0.046280547976493838,-0.06477391719818115,0.009585760533809662,-0.06313805282115936,0.044353436678647998,-0.012093442492187024,-0.018924947828054429,-0.07450856268405914,0.021461542695760728,0.07308975607156754,-0.042125292122364047,0.10120493918657303,-0.0229208841919899,0.022579776123166086,0.02982925809919834,-0.00538999680429697,-0.08526153862476349,-0.06544220447540283,-0.045484982430934909,0.08460871875286102,0.03477741777896881,-0.07414910942316055,-0.030801275745034219,0.0638650432229042,0.09180020540952683,0.021409135311841966,-0.10475631058216095,-0.018836040049791337,-0.015952566638588907,0.10202495008707047,0.02936476655304432,-0.03578365594148636,-0.08043811470270157,-0.08299831300973892,-0.07571951299905777,0.019466230645775796,0.08459790050983429,0.07052966207265854,-0.05299763381481171,-0.06917931139469147,-0.09806780517101288,0.025037502869963647,-0.04556284844875336,0.05056234821677208,0.01055489294230938,0.10586179792881012,0.015268816612660885,0.028460510075092317,0.06307531893253327,0.05264453962445259,0.016375837847590448,-0.0919116958975792,0.08311859518289566,0.08248715847730637,0.10848226398229599,-0.01557072438299656,0.12153107672929764,0.09248878061771393,-0.034743309020996097,-0.022288043051958085,-0.03455781936645508,-0.07977510243654251,-0.08970427513122559,0.052494097501039508,0.010228082537651062,-0.020512249320745469,0.04263411834836006,-0.07303715497255326,0.044597920030355456,0.09145472943782807,-0.020176555961370469,0.09829261153936386,-0.036537084728479388,0.12521032989025117,-0.04275402054190636,-0.0570681132376194,0.06825102865695954,0.011364980600774289,-0.024791929870843889,0.07153613120317459,-0.06596340239048004,-0.07385212928056717,0.06070348247885704,0.05357515811920166,-0.08397473394870758,0.03551597520709038,-0.00822710245847702,0.040715645998716357,0.018750324845314027,-0.0790208950638771,0.003141633700579405,-0.006430096924304962,0.023046594113111497,-0.08739037066698075,0.07168232649564743,-0.0718068927526474,0.038496553897857669,0.0621953047811985,-0.03554975613951683,0.07222199440002442,0.10235749185085297,0.03005673736333847,-0.007953385822474957,-0.0013509239070117474,0.1375398337841034,0.04339020326733589,-0.02405686303973198,0.07655585557222367,0.09622307121753693,0.08187106251716614,-0.09023649990558624,-0.08726367354393006,-0.0949297770857811,-0.01382562704384327,-0.07366010546684265,-0.06643719226121903,0.08558397740125656,-0.10929632186889649,-0.08228515088558197,0.1068698838353157,-0.02031024917960167,-0.021357500925660135,-0.005021227523684502,-0.07223133742809296,-0.08584930747747421,-0.10257261991500855,0.04404984787106514,-0.012578540481626988,0.01455505657941103,0.05490044876933098,0.015008633024990559,0.10143331438302994,0.07301584631204605,-0.008033937774598599,0.015523681417107582,0.08796338737010956,-0.10156327486038208,-0.0654371902346611,0.0535803884267807,0.08281014859676361,-0.022379664704203607,-0.09710213541984558,-0.08822178840637207,-0.0681162178516388,0.023187464103102685,0.008454828523099423,0.05887620896100998,-0.073443703353405,-0.09439031779766083,-0.04561617597937584,0.055862464010715488,-0.06185689568519592,-0.047689829021692279,0.039369191974401477,0.05267420783638954,-0.07050773501396179,0.03941391780972481,-0.07655356079339981,0.004127194173634052,-0.05676006153225899,-0.05984417349100113,-0.047764599323272708,-0.023678215220570566,-0.046149902045726779,-0.060455143451690677,0.028196146711707116,-0.04945334792137146,-0.09152959287166596,-0.08958755433559418,0.07850627601146698,-0.10010293126106262,0.0818888247013092,-0.0929579958319664,-0.08062779158353806,-0.009056073613464833,0.017909593880176545,0.06913743913173676,-0.08966206014156342,0.0841464027762413,-0.08605895191431046,-0.0711633488535881,-0.09885736554861069,0.04956715553998947,0.03174508363008499,-0.035697419196367267,0.023876970633864404,-0.0924198180437088,-0.06874097883701325,-0.05386926606297493,0.004089907743036747,0.011796747334301472,-0.06844516098499298,0.006378476042300463,0.03866839408874512,0.06108932942152023,0.0920209139585495,0.009359883144497872,-0.03588106110692024,-0.0386405847966671,0.04488319903612137,0.0488143116235733,-0.10190492123365402,0.07103884965181351,-0.010888793505728245,0.10403341054916382,0.05787866190075874,-0.06310766190290451,-0.08812727779150009,0.037284281104803088,0.06410957872867584,0.09196852147579193,-0.0076392637565732,0.09075672924518585,0.09894271939992905,0.07284747809171677,0.08177393674850464,0.03643608093261719,0.01076413318514824,0.03404993563890457,0.01075186301022768,-0.009089183062314988,-0.06994131207466126,0.011509601958096028,-0.023603521287441255,0.08874525129795075,0.07455819100141525,-0.03600510209798813,0.09539259970188141,-0.056060414761304858,0.08131517469882965,-0.09476397931575775,0.02635999582707882,0.04582439735531807,-0.0882684513926506,0.03671479970216751,-0.03487854078412056,-0.0396762378513813,0.0855221077799797,0.0895688608288765,-0.08253733813762665,-0.09120956808328629,0.0023569681216031315,0.00959587749093771,0.004758323077112436,0.04203249141573906,0.03325918689370155,-0.046453505754470828,-0.07447008043527603,-0.06256410479545593,-0.10378070175647736,-0.08915553987026215,0.0302240252494812,-0.09048488736152649,0.0033516287803649904,0.032511379569768909,0.025346782058477403,-0.026609282940626146,-0.10488097369670868,-0.013278065249323845,-0.07949243485927582,0.028782645240426065,0.07383621484041214,-0.09515246003866196,-0.09353090822696686,0.03540033474564552,-0.058662377297878268,-0.041638802736997607,-0.021243592724204065,0.08084053546190262,0.0230015330016613,0.09006112813949585,-0.03391994908452034,-0.10040517151355744,-0.09047681838274002,-0.07557033002376557,0.04844596982002258,0.09834347665309906,-0.0364360548555851,0.06253843009471894,0.051669325679540637,0.07403963059186936,-0.019434409216046335,0.038479533046483996,-0.019692925736308099,-0.06510298699140549,-0.10594278573989868,-0.06243950128555298,-0.04803530126810074,0.10199831426143646,-0.08448362350463867,-0.0760229155421257,0.0010890875710174442,-0.07989820837974549,-0.04428746551275253,0.056159406900405887,0.016362648457288743,-0.04522400721907616,-0.028606276959180833,-0.007943890057504177,-0.04659239575266838,0.043932851403951648,0.09859832376241684,-0.07887953519821167,-0.007788690738379955,-0.043054405599832538,0.09623723477125168,0.10383329540491104,0.00440431060269475,-0.049284398555755618,-0.10259147733449936,0.09578994661569596,-0.02075163461267948,-0.08872374147176743,-0.03237653151154518,0.1043512225151062,0.032866138964891437,0.05820029228925705,-0.09630652517080307,-0.1071925014257431,-0.04289985075592995,0.09046190977096558,0.09915769100189209,-0.03641609847545624,0.009611598215997219,0.044372912496328357,0.04528561607003212,-0.09402156621217728,0.05085146054625511,-0.06760881841182709,-0.026107531040906907,-0.021948514506220819,0.10409336537122727,-0.09520179033279419,0.08356887847185135,-0.00787092000246048,-0.015750020742416383,0.0432119145989418,0.02606506645679474,-0.03382432460784912,0.10118797421455383,0.04516718536615372,-0.048508547246456149,0.05586899071931839,-0.0317564383149147,0.06437578052282334,0.003661507973447442,-0.08288220316171646,-0.008712769486010075,0.08139771968126297,0.009476698935031891,-0.1028011217713356,0.004539907444268465,-0.07080289721488953,0.025478720664978029,0.04563010856509209,-0.06390988081693649,0.07197631150484085,0.06674974411725998,-0.09194573014974594,0.048162173479795459,0.058576568961143497,-0.10908689349889755,0.09009300172328949,-0.04169681668281555,-0.01560472883284092,0.03313498571515083,0.07195806503295899,0.10202288627624512,0.06378605961799622,0.09224582463502884,0.1049821600317955,0.016160497441887857,0.030978288501501085,-0.022386236116290094,-0.027237392961978914,-0.10534240305423737,-0.052455030381679538,-0.10007616132497788,-0.06723418831825257,0.0181829035282135,0.07102902978658676,-0.02600887604057789,-0.011064373888075352,-0.0744943767786026,-0.002961076097562909,-0.07396996021270752,0.029558423906564714,0.020019933581352235,-0.08716300129890442,-0.02551952563226223,0.00810551829636097,0.014568385668098927,-0.08465930074453354,0.0037117486353963615,0.01571231335401535,-0.020048804581165315,0.031094903126358987,0.09754806011915207,0.09568140655755997,0.10459751635789871,0.05650265887379646,-0.06839673966169357,0.06457672268152237,-0.04151910915970802,0.08910038322210312,-0.026311766356229783,0.02510855719447136,-0.054227665066719058,-0.1058683842420578,-0.07287788391113281,-0.08268135040998459,-0.07911672443151474,0.03646896034479141,0.09300263971090317,-0.037288207560777667,0.004987447522580624,0.06944575905799866,0.049759939312934878,-0.012056142091751099,-0.08797824382781983,0.0649651363492012,-0.07062044739723206,0.055718883872032168,0.05177668482065201,-0.0064473338425159458,0.07653175294399262,-0.01988217979669571,-0.004047301132231951,-0.09914062172174454,-0.0007146081188693643,0.006216173525899649,-0.060218825936317447,0.06159251555800438,0.09507448971271515,0.020907877013087274,0.07598063349723816,-0.03957250341773033,0.056590043008327487,0.02543575130403042,-0.09411420673131943,-0.011776486411690712,0.10731171816587448,0.041848644614219668,0.07553981989622116,0.10686780512332916,-0.09060472995042801,-0.08614565432071686,-0.046739354729652408,-0.09452831000089646,0.040348246693611148,0.08540134876966477,-0.10689686238765717,-0.049306437373161319,0.09063958376646042,-0.08414650708436966,-0.10787133127450943,-0.03572000563144684,0.06614921241998673,-0.09267932176589966,0.07264991849660874,0.05140639469027519,0.09403254091739655,-0.020067453384399415,0.10396719723939896,0.04629679396748543,-0.0374559611082077,-0.09251584857702255,-0.032717958092689517,-0.07556886970996857,-0.03939266502857208,-0.10072757303714752,0.05083605274558067,0.10019040107727051,-0.06601545214653015,0.007626756560057402,-0.05834880471229553,-0.09650195389986038,0.10030488669872284,-0.029803145676851274,-0.015223406255245209,-0.01301600132137537,0.026302451267838479,-0.09366167336702347,-0.07823646068572998,0.05511542409658432,-0.028377370908856393,-0.033840078860521319,0.07841584086418152,-0.024332961067557336,0.10594973713159561,-0.08111973106861115,0.06799602508544922,0.09958057105541229,-0.0655037984251976,0.07540406286716461,-0.06644273549318314,0.033944156020879748,-0.013605228625237942,0.09860387444496155,-0.08355951309204102,-0.059419311583042148,-0.036804091185331348,-0.10310348868370056,0.08076943457126618,-0.01745828613638878,-0.016903650015592576,0.09286630898714066,0.10589233040809632,0.09951867163181305,-0.011113177984952927,0.0034413684625178577,-0.01436699740588665,-0.042101528495550159,-0.0692359134554863,0.07204442471265793,-0.0587543249130249,-0.057821791619062427,-0.057585131376981738,0.0042175413109362129,-0.04151846840977669,-0.10128060728311539,-0.014408901333808899,-0.007352251093834639,0.11074753850698471,-0.047422945499420169,0.04860056936740875,-0.00420038029551506,-0.008752986788749695,0.011012163944542408,0.04514424875378609,0.06685115396976471,0.06908039003610611,0.07070977985858917,0.00965282041579485,0.08555492013692856,0.03576928749680519,0.03206900507211685,0.0792633518576622,-0.08916617184877396,0.059078775346279147,-0.10086394846439362,0.04780392348766327,0.06411179155111313,-0.05536769703030586,-0.09909315407276154,0.009956499561667443,-0.02684071660041809,-0.08129618316888809,-0.019246507436037065,-0.08063820749521256,0.029519714415073396,0.10186585038900376,-0.10653873533010483,-0.061303555965423587,0.021488098427653314,0.054388049989938739,0.03279034420847893,0.05890057608485222,0.08012940734624863,0.03006918728351593,0.08288344740867615,0.023904580622911454,0.016156485304236413,0.006588219664990902,-0.09565265476703644,0.034352004528045657,0.09598501026630402,0.05648670345544815,-0.014676610007882119,0.013645167462527752,-0.012889647856354714,-0.01720491610467434,0.06305279582738877,-0.03432278335094452,-0.0410723015666008,-0.03844979777932167,0.00764121487736702,-0.090143583714962,0.019314484670758249,-0.053268492221832278,-0.05574532970786095,0.02242167294025421,0.05092748627066612,-0.00794252660125494,0.011950645595788956,0.03322610259056091,0.055685847997665408,0.1020602136850357,0.05906730517745018,-0.06953510642051697,0.06162259727716446,-0.08080890774726868,0.04738111048936844,0.05664360895752907,0.09734494239091873,-0.019251452758908273,0.0005049604224041104,-0.029724126681685449,0.055594757199287418,-0.05148923397064209,-0.060510434210300449,0.04824097082018852,0.002384616993367672,-0.03479916602373123,-0.04988766089081764,0.010443376377224923,-0.01061147078871727,-0.052603814750909808,-0.08163869380950928,-0.08539292961359024,0.040085528045892718,-0.06512769311666489,0.026807688176631929,-0.05020742490887642,0.10781823098659516,0.06458800286054611,-0.008865649811923504,-0.05191658064723015,-0.0025541475042700769,-0.011061418801546097,-0.09021102637052536,-0.001424612128175795,-0.09235101193189621,-0.10798247158527374,0.07878536731004715,0.006325593218207359,0.10722310841083527,-0.028332721441984178,0.07362443208694458,0.04237663745880127,-0.10233704745769501,0.06395888328552246,-0.012530888430774212,0.08727125823497772,-0.1105906069278717,0.01794488914310932,-0.000791868893429637,-0.06834207475185394,-0.009646344929933548,0.005962429102510214,-0.002733586821705103,0.007529165595769882,0.09421591460704804,-0.08234838396310806,0.10413090139627457,-0.024500669911503793,-0.02974768541753292,0.009537627920508385,-0.09622544795274735,-0.018831325694918634,0.04686840623617172,0.051084231585264209,0.10493022203445435,-0.0771837830543518,-0.052194345742464069,-0.04490712657570839,0.08007270842790604,0.05964745208621025,-0.07317478954792023,0.09715061634778977,0.10952852666378021,0.0843915343284607,0.10138505697250366,0.08665496110916138,0.07324936240911484,-0.02896684780716896,-0.1074177622795105,-0.09596357494592667,0.04795346409082413,-0.004677910823374987,-0.012663692235946656,-0.02067871391773224,0.05914152413606644,0.04185480996966362,-0.06051936745643616,-0.004508063197135925,0.0674881562590599,-0.005694962106645107,-0.10899404436349869,-0.03377871215343475,-0.028547752648591996,0.04535745084285736,0.01802627183496952,0.06367103010416031,-0.09925435483455658,0.07702804356813431,0.06483221054077149,-0.008130786940455437,0.01936315931379795,0.08610061556100846,-0.016116637736558915,0.017763977870345117,0.0935455784201622,0.10585099458694458,-0.06826597452163696,0.018992798402905465,0.0001303577737417072,0.02861327864229679,-0.0690952017903328,-0.03293339163064957,0.04397810250520706,-0.05154900997877121,-0.10836377739906311,0.08015889674425125,0.0009993569692596794,-0.08988909423351288,-0.047449588775634769,0.10319488495588303,0.01882503554224968,-0.06279852241277695,-0.06117502972483635,-0.09938061982393265,-0.05691143870353699,-0.034580715000629428,0.08285973221063614,0.027764376252889634,0.05663730949163437,0.0779699757695198,-0.05250387638807297,0.10039155930280686,-0.05764475464820862,-0.01919451355934143,-0.027870722115039827,0.022225795313715936,-0.0891634151339531,0.033720895648002627,-0.07234562933444977,-0.0999721884727478,0.01260822732001543,0.09283851832151413,0.09414692968130112,0.03893948718905449,-0.09110260754823685,-0.038783200085163119,-0.008013647980988026,0.09258216619491577,0.011473220773041249,-0.052856605499982837,0.0787433609366417,-0.08368447422981262,-0.06480316072702408,-0.09982018172740936,-0.0619659461081028,0.07682615518569946,0.05992204695940018,0.059152379631996158,0.018878526985645295,-0.06896938383579254,0.005827962886542082,-0.09828434139490128,0.06165703013539314,-0.04676175117492676,-0.036729250103235248,-0.05525527894496918,0.06590726971626282,0.07962840795516968,0.045324452221393588,0.09344527125358582,0.08328643441200257,-0.014371976256370545,0.09994831681251526,-0.03956180810928345,0.02439952827990055,-0.09363861382007599,0.03086487017571926,0.05606560781598091,0.0948534607887268,0.0926004946231842,0.08119454234838486,0.07072395831346512,0.03492430970072746,-0.012281735427677632,0.06890783458948136,-0.09314916282892227,0.10423102974891663,-0.05606578662991524,0.028656138107180597,0.09842352569103241,-0.08743935823440552,-0.005578870419412851,-0.07515128701925278,0.07150986045598984,-0.09854575246572495,-0.04597447067499161,-0.018478695303201677,0.05632815882563591,-0.03386014327406883,0.09471562504768372,-0.008507848717272282,-0.09516442567110062,0.11195838451385498,0.10240867733955383,-0.07425431907176972,0.033328086137771609,-0.017755312845110894,-0.020698782056570054,0.030036216601729394,-0.08717678487300873,-0.021869290620088579,0.06678097695112229,0.04234525188803673,-0.07317686825990677,0.024969879537820817,-0.02006426826119423,0.083384208381176,-0.0007272553048096597,-0.08352115005254746,-0.07950251549482346,-0.008297400549054146,-0.0058876690454781059,0.0522717721760273,0.0958622619509697,0.06413326412439347,0.06676527112722397,-0.06797938048839569,-0.012957464903593064,0.0017222762107849122,-0.08291557431221008,-0.08348238468170166,-0.0476694218814373,0.018575960770249368,0.014883993193507195,0.05127555876970291,-0.09866946190595627,0.04105186462402344,0.0859517902135849,0.08158418536186218,0.09501105546951294,-0.016543295234441758,-0.06565912067890167,0.0948503166437149,-0.08347908407449722,-0.08015978336334229,-0.054113078862428668,-0.08220866322517395,-0.025071006268262864,0.1093873456120491,-0.005332509055733681,-0.04108653962612152,-0.03158416226506233,0.04216679185628891,0.02891431748867035,-0.013818256556987763,-0.041882168501615527,0.017474696040153505,0.08517710119485855,0.05599953606724739,0.03428318351507187,-0.018928131088614465,0.07864358276128769,-0.04012292996048927,-0.04672672227025032,0.09252721071243286,-0.04210251569747925,-0.047681476920843127,-0.0590723380446434,-0.0679655522108078,-0.05269351974129677,0.03309185057878494,0.030512753874063493,-0.04300302267074585,0.05820659548044205,0.001376016647554934,-0.003490153467282653,-0.009599885903298855,0.009746816009283066,-0.11056344956159592,0.027494123205542566,-0.09376587718725205,0.02732110023498535,0.056583840399980548,0.0012941354652866722,0.0945928692817688,0.11330609768629074,-0.003503320273011923,-0.019307075068354608,0.0912889614701271,0.0954788401722908,0.012898360379040242,0.098301000893116,0.029959969222545625,0.06930486112833023,-0.0382671020925045,-0.012761019170284272,-0.10558260977268219,0.021320683881640435,0.045179031789302829,-0.009708845987915993,0.03318313881754875,-0.08255794644355774,0.026833055540919305,-0.01635023206472397,-0.0071218423545360569,0.09935763478279114,-0.09916628897190094,-0.011850551702082158,-0.02903681807219982,0.024739757180213929,0.007377758622169495,-0.09244854748249054,0.004859684035181999,0.031003667041659356,-0.0758916437625885,-0.061998553574085239,0.012767328880727291,0.09365279972553253,-0.006762153003364801,0.00000937084769248031,-0.05572718754410744,-0.024854768067598344,0.0688777044415474,0.04801933839917183,-0.003141879802569747,-0.02578895166516304,-0.004983413033187389,0.04738843813538551,0.07930993288755417,-0.027231890708208085,0.06613033264875412,0.023030366748571397,-0.10560710728168488,-0.02467210218310356,-0.09189969301223755,0.039574068039655688,-0.08138968050479889,0.027630265802145006,0.032513976097106937,0.09005564451217652,0.060545921325683597,0.08189970999956131,-0.11152001470327378,-0.039855848997831348,0.0030807105358690025,0.012788823805749417,-0.106124646961689,0.0018132618861272932,0.03939557075500488,-0.09399639070034027,-0.057545289397239688,0.02588856965303421,0.04868707433342934,-0.06802152097225189,-0.105532206594944,0.045803193002939227,-0.05870857834815979,-0.030206669121980668,-0.07557837665081024,0.07700157910585404,0.022805893793702127,0.049660563468933108,-0.10153330862522125,-0.08084333688020706,-0.05838679522275925,0.030758710578083993,-0.08388343453407288,0.034499358385801318,0.032670799642801288,-0.10380885750055313,-0.10779295861721039,0.02783828414976597,-0.012112507596611977,-0.02749861218035221,-0.0612451508641243,-0.06571481376886368,0.04301132261753082,0.06955280900001526,-0.06172388792037964,-0.021160664036870004,-0.032415058463811877,0.10162445902824402,0.09751347452402115,0.10493136197328568,0.012486456893384457,-0.050033263862133029,-0.03798660263419151,-0.06979306042194367,-0.09292210638523102,-0.039795149117708209,-0.050632424652576449,0.08141850680112839,0.05696630850434303,-0.0802411213517189,-0.01589309796690941,0.09426706284284592,-0.06253121793270111,-0.04770638048648834,-0.02371608093380928,-0.047013793140649798,0.02624555677175522,-0.038902923464775088,-0.0011709376703947783,0.09315016865730286,-0.031592994928359988,0.012622837908565998,-0.0977453663945198,-0.0826161578297615,0.0698036253452301,0.03577705845236778,-0.02649827115237713,0.10403839498758316,-0.07394804805517197,-0.07358499616384506,0.011292919516563416,-0.059869106858968738,-0.04898065701127052,-0.013109352439641953,0.039611633867025378,0.08763565123081207,0.00818636268377304,0.01656058430671692,-0.01699766516685486,0.05890355259180069,-0.07751664519309998,0.10004281252622605,0.03325001150369644,0.00849712360650301,0.07953757792711258,-0.04024698585271835,-0.08977819234132767,-0.10086293518543244,0.01746193692088127,0.06005343794822693,-0.05935109034180641,0.041939038783311847,0.02217154949903488,0.00873501505702734,0.04049769416451454,-0.050415437668561938,-0.030019039288163186,0.02075778692960739,-0.040114130824804309,-0.005404034163802862,0.024192020297050477,-0.05927777662873268,0.069969542324543,0.011520159430801869,-0.05066465586423874,-0.07580370455980301,0.04465940222144127,-0.08567611873149872,0.10599785298109055,-0.06504913419485092,-0.015032324008643628,-0.0668153390288353,0.024121971800923349,0.04596386477351189,0.020115278661251069,-0.03416468948125839,-0.05394132062792778,0.03352009505033493,0.07905744016170502,0.03567686304450035,0.024312099441885949,-0.025925276800990106,-0.09663835167884827,0.09437569230794907,0.07814960926771164,0.11169710010290146,0.11330362409353256,-0.05243811011314392,0.036110423505306247,0.02197311259806156,-0.008936142548918724,0.06548479199409485,0.06587568670511246,-0.09244231879711151,-0.011764327064156533,-0.08328624814748764,-0.029575925320386888,-0.0744486153125763,0.09613829851150513,0.059462640434503558,0.06822509318590164,0.05086250975728035,-0.010654671117663384,0.05197727307677269,0.0012755895731970668,0.0793352797627449,-0.019515469670295717,-0.014547239989042282,-0.04160275682806969,-0.028115855529904367,-0.038954176008701327,-0.044889867305755618,-0.06231793016195297,0.1127011775970459,-0.09047462046146393,0.008211187086999417,0.06516757607460022,0.08445458114147186,-0.045407142490148547,0.028994571417570115,-0.014798209071159363,0.07292003929615021,-0.04019544646143913,-0.06350986659526825,0.12421000003814697,0.015326919965445996,0.08487504720687866,-0.07584542036056519,0.0775483027100563,0.09179821610450745,-0.07569339126348496,0.054138172417879108,0.023279575631022455,0.1117059662938118,0.08659618347883225,-0.09024497866630554,0.04962988942861557,0.09396880120038986,0.09253618121147156,0.10758592933416367,-0.01660492829978466,0.0167925413697958,-0.001477068173699081,0.07910872250795365,0.09900514781475067,0.12273979187011719,0.06863947957754135,0.018981123343110086,-0.036332350224256518,-0.0502222515642643,-0.09549278020858765,-0.0411541610956192,0.05056660994887352,0.07748645544052124,-0.008133775554597378,0.016521824523806573,0.05994519963860512,-0.009625670500099659,-0.0989469364285469,0.0720975399017334],"WeightsRows":20,"WeightsCols":84,"Biases":[0.01647547073662281,0.005968489684164524,-0.002071337541565299,-0.0033007340971380474,0.013166113756597042,0.004992367699742317,-0.01121536549180746,0.0122463284060359,-0.0014319750480353833,0.004097637254744768,0.004657500423491001,-0.0015860210405662656,0.0009209702839143574,0.013293369673192501,-0.00962725467979908,0.004980555735528469,0.003521463368088007,0.006871144752949476,-0.001713988953270018,0.001528609893284738]},{"Weights":[-0.10915646702051163,-0.17812497913837434,-0.16608092188835145,0.15758781135082246,0.08382534235715866,-0.20651382207870484,-0.15458980202674867,0.13324467837810517,0.06220320612192154,0.04298368841409683,-0.08102753758430481,-0.19087165594100953,0.04542381688952446,-0.1547393500804901,-0.08934769779443741,0.12998934090137483,0.012837138026952744,0.18770480155944825,-0.21965056657791139,-0.038320086896419528,-0.14174729585647584,0.04726726561784744,-0.15142732858657838,-0.024924514815211297,0.015471432358026505,0.18838532269001008,0.1430031657218933,0.12943579256534577,0.1461729258298874,-0.16487948596477509,0.05637887492775917,0.16345641016960145,-0.04041985794901848,0.01271649356931448,0.13547378778457642,0.03094605542719364,0.10386176407337189,-0.22520142793655396,0.1872650533914566,0.16029883921146394,0.02984297089278698,0.08707141876220703,0.1321248710155487,-0.06532394886016846,0.13611027598381043,0.02708781324326992,0.18252255022525788,-0.048536915332078937,-0.019526883959770204,-0.0500299297273159,-0.15619619190692902,-0.15627352893352509,-0.21094566583633424,-0.08439593017101288,-0.07726898044347763,0.2006748914718628,-0.22660231590270997,0.056776124984025958,0.03479335829615593,0.16630373895168305,-0.18768171966075898,0.22020097076892854,0.05633706972002983,0.10013700276613236,0.22145693004131318,-0.04213232547044754,0.1252870410680771,0.07383312284946442,-0.17583255469799043,-0.11364049464464188,0.0023639823775738479,-0.09797823429107666,-0.019250713288784028,-0.03297256678342819,0.1266370713710785,0.029070358723402025,0.15236742794513703,0.02294543944299221,0.17317162454128266,-0.2040528804063797,-0.1425698846578598,0.12707707285881043,-0.12582281231880189,-0.10619033873081207,0.09462529420852661,0.1262008398771286,-0.19106535613536836,0.13210025429725648,-0.12242693454027176,-0.012178507633507252,-0.07296240329742432,-0.054718758910894397,0.03422567993402481,0.05771434307098389,0.1475016474723816,0.06868026405572891,-0.09895491600036621,-0.1702236384153366,0.15438386797904969,-0.028989752754569055,-0.11493303626775742,-0.03195423260331154,-0.14890117943286897,-0.15337418019771577,-0.06701559573411942,0.04529450461268425,0.09681130200624466,0.1943541169166565,0.2108331322669983,-0.04863652214407921,-0.04608612507581711,-0.1931985318660736,0.1776890903711319,-0.2177584320306778,-0.09937172383069992,0.20486675202846528,0.016610974445939065,0.00047875026939436793,0.0988573282957077,-0.19395998120307923,0.1267329901456833,0.06191733106970787,0.20404306054115296,-0.127497136592865,-0.08159982413053513,-0.1933036893606186,-0.18392345309257508,-0.21122796833515168,-0.06089216470718384,0.07840181142091751,0.18221865594387055,-0.18800507485866548,-0.06804333627223969,0.11315502971410752,-0.005974551197141409,0.20009203255176545,-0.11049296706914902,0.1111205443739891,-0.07862716168165207,-0.030639924108982087,0.1861286461353302,0.02832711488008499,-0.09366361796855927,0.10516703873872757,-0.07775796204805374,0.12796823680400849,-0.10399813205003739,-0.16331715881824494,0.07012207806110382,-0.19621248543262483,-0.055353861302137378,0.2319469004869461,0.1874314546585083,-0.207669198513031,0.07971595972776413,-0.06961773335933685,0.05758212134242058,0.04959231987595558,-0.19099417328834535,-0.13407312333583833,0.1941032111644745,0.162440687417984,-0.17377005517482758,-0.025063369423151017,-0.11979563534259796,0.1884371042251587,-0.15449382364749909,-0.22995473444461823,0.0805303081870079,0.12009373307228089,0.20985105633735658,-0.11494304239749909,0.20285581052303315,0.16787154972553254,-0.2089533656835556,0.12998783588409425,-0.17989499866962434,0.014675045385956765,0.06827546656131745,0.12581570446491242,0.10506631433963776,0.012430636212229729,0.15250428020954133,-0.1205703616142273,-0.14670883119106294,-0.08559340983629227,-0.1042509451508522,0.24858517944812776,0.16983932256698609,-0.08806608617305756,0.12932153046131135,0.15529590845108033,0.14850018918514253,-0.1795763373374939,0.04056406766176224,0.22423502802848817,0.07730492949485779,-0.15541350841522218,0.06633348017930985,-0.01312291156500578,0.050021566450595859,-0.09577825665473938,0.14142830669879914,0.0036816932260990144,0.0019079034682363272,-0.19950181245803834,0.06251706928014755,-0.09264259785413742,-0.0817645788192749,0.13142231106758119,0.21233618259429933,-0.06897507607936859,0.05233454704284668,0.0267010610550642,0.08469351381063461,-0.16411136090755464,0.04970217123627663,0.11163203418254852,-0.09059235453605652,0.22541020810604096,0.21867378056049348,0.024665163829922677,-0.17619575560092927,0.11994168907403946,-0.010864296928048134,-0.13329339027404786,-0.028722839429974557,-0.11737213283777237,0.07036861777305603,0.0743393748998642,0.20652198791503907,0.06440894305706024,-0.1715274453163147,0.012421014718711377,-0.13933730125427247,0.07467694580554962,-0.14649327099323274,0.18071657419204713,0.13741575181484223,-0.17927119135856629,0.07368674874305725,-0.1347644329071045,0.062498487532138827,-0.18211320042610169,-0.09444703161716461,0.20439524948596955,-0.007802698761224747,0.07269636541604996,-0.007948196493089199,0.09535886347293854,-0.14034853875637055,-0.012319033965468407,-0.13656191527843476,0.1707535833120346,-0.17777004837989808,-0.12492741644382477,-0.05503629893064499,-0.17526833713054658,-0.12308977544307709,-0.16519713401794434,0.04073432460427284,-0.20539355278015138,0.17774510383605958,0.19177867472171784,0.02505970187485218,0.005277802236378193,-0.12135601788759232,-0.19355791807174684,-0.04841417074203491,0.03192244842648506,0.08402185142040253,0.09876732528209686,0.1272195279598236,0.14314121007919312,-0.11632945388555527,-0.05489533767104149,-0.144606351852417,-0.14165788888931275,0.1113065630197525,0.0032254846300929786,0.024917947128415109,-0.1414695382118225,0.0038789825048297645,0.01257105078548193,-0.00038398135802708566,-0.1945537030696869,-0.1203673705458641,-0.16432754695415498,0.16610844433307649,-0.19545550644397736,0.2032628357410431,-0.05778041481971741,-0.16693215072155,0.0762353166937828,-0.08630548417568207,-0.19070927798748017,0.0011870780726894737,-0.132376030087471,-0.17770487070083619,-0.20709167420864106,0.023983927443623544,0.07838801294565201,-0.09495463967323303,-0.17449893057346345,-0.08341659605503082,0.013337421230971814,-0.09393540024757385,-0.16118155419826508,-0.14264285564422608,0.016100091859698297,-0.14367397129535676,0.008156626485288144,-0.11275040358304978,-0.20032009482383729,-0.18465237319469453,0.20456579327583314,0.20309755206108094,-0.19234411418437959,0.08135344833135605,-0.22292228043079377,0.09905911237001419,0.09025449305772782,0.044466812163591388,0.1781369298696518,-0.22219879925251008,0.23255208134651185,0.17575381696224214,-0.18107596039772035,0.16636618971824647,-0.03948159143328667,-0.18072673678398133,0.05524129047989845,0.1869581639766693,0.10744644701480866,-0.0004577827639877796,0.034506700932979587,0.06598180532455445,0.05651593208312988,-0.16539892554283143,-0.18419453501701356,0.005590657237917185,0.05326707288622856,0.06718674302101135,-0.1633177548646927,0.003607348306104541,0.09313399344682694,-0.04540557786822319,0.06714040786027909,0.00395685201510787,-0.09602763503789902,0.09293876588344574,-0.17175665497779847,0.11316484957933426,0.013242957182228566,-0.03614839166402817,-0.17493464052677155,0.018351027742028238,0.03484654054045677,0.11409209668636322,-0.20168502628803254,-0.08067310601472855,-0.20025907456874848,0.16411244869232179,0.13848668336868287,-0.1877991259098053,-0.06028159335255623,-0.17918041348457337,0.14342385530471803,0.15431612730026246,0.05584939941763878,-0.04546680673956871,-0.1451851725578308,0.16560755670070649,-0.11050712317228317,-0.0000204032075998839,-0.09477796405553818,0.10928613692522049,-0.014757383614778519,-0.19591546058654786,0.06195545569062233,0.1743147224187851,0.20631282031536103,0.01414675172418356,0.18138910830020905,-0.040265217423439029,0.01033052895218134,-0.00917802844196558,-0.05005613714456558,0.21659576892852784,0.08621655404567719,0.20227615535259248,-0.014973332174122334,0.09203407913446427,-0.04981013759970665,-0.16231921315193177,0.17902351915836335,0.07429284602403641,0.09462689608335495,-0.13394665718078614,-0.2012091428041458],"WeightsRows":20,"WeightsCols":20,"Biases":[0.03821177780628204,0.008002890273928643,-0.04335658624768257,0.026505285874009134,0.016989342868328096,-0.01604858972132206,0.009794551879167557,-0.001682161120697856,0.05965875834226608,0.0016764466417953373,-0.03551775589585304,0.02668173424899578,0.009821801446378231,-0.011665216647088528,-0.00039356283377856016,-0.003882936667650938,-0.00411838898435235,0.026794997975230218,0.023087194189429284,0.01135172974318266]},{"Weights":[-0.18001671135425569,0.16998453438282014,-0.03407422825694084,-0.16590124368667603,0.038910772651433948,-0.05647455155849457,-0.15527090430259705,-0.1653796136379242,0.04625392332673073,-0.011047723703086377,0.0921194925904274,-0.014532454311847687,-0.14351949095726014,-0.0014939903048798442,-0.14545728266239167,0.13108426332473756,0.10776679962873459,-0.15234467387199403,-0.09236134588718414,-0.010919446125626564,-0.1729184240102768,-0.1054597944021225,0.0680348202586174,-0.21600326895713807,0.18802650272846223,0.20678572356700898,0.08751169592142105,-0.2084408402442932,0.21583928167819978,-0.029815129935741426,-0.07268397510051727,0.07950709760189057,0.13881270587444306,0.1176762729883194,0.09304974228143692,-0.1812603622674942,0.16670511662960053,0.12406995892524719,0.2355622798204422,-0.07601343095302582,-0.18761484324932099,-0.13575595617294312,0.0995417982339859,-0.06844495236873627,-0.053345002233982089,-0.016396142542362214,-0.0367717444896698,0.1381775587797165,0.16576625406742097,-0.22091247141361237,-0.029437340795993806,0.16600710153579713,0.02518944814801216,-0.025657474994659425,-0.21703195571899415,-0.1318630427122116,-0.11030711978673935,-0.038642026484012607,-0.13436681032180787,0.015880819410085679,0.1558198481798172,0.11664455384016037,-0.1349792331457138,0.11159688234329224,0.13517792522907258,0.1748039424419403,0.19559061527252198,0.0506230890750885,-0.17076139152050019,0.004903153050690889,0.19644011557102204,0.16978086531162263,-0.004079499747604132,-0.11965268850326538,0.08115879446268082,-0.09840023517608643,0.16754131019115449,0.030019236728549005,-0.03674362227320671,-0.05508524924516678,0.13670551776885987,0.061862777918577197,0.008093524724245072,-0.11810307204723358,0.1656445562839508,-0.01978381723165512,-0.10384424775838852,-0.21288639307022096,-0.06323175132274628,0.019352760165929796,-0.09110254794359207,0.06715857237577439,0.09159621596336365,0.05282469093799591,-0.08492449671030045,0.0593138225376606,0.14007961750030518,-0.11760180443525315,-0.15695467591285706,0.17421115934848786,0.10108444094657898,-0.22259525954723359,0.1254134178161621,0.013306715525686741,0.1938246339559555,0.03162132576107979,-0.1339130848646164,-0.07131125032901764,0.025716258212924005,0.04205356165766716,0.1292322427034378,0.12520280480384828,0.01203424483537674,0.216291606426239,0.13145378232002259,0.08887547999620438,-0.16524627804756165,0.19540588557720185,-0.05809234455227852,-0.02299949899315834,0.2144026756286621,0.0654236450791359,0.13287939131259919,-0.0236467607319355,0.021621717140078546,0.21566979587078095,0.04246971011161804,-0.030792199075222017,-0.16376052796840669,-0.06397692114114762,0.05115432292222977,-0.10367904603481293,-0.20030942559242249,0.0739399716258049,-0.005895269103348255,0.18095307052135468,0.09105943888425827,-0.0017276485450565816,-0.1816137433052063,0.15730978548526765],"WeightsRows":7,"WeightsCols":20,"Biases":[0.046533070504665378,-0.003711704397574067,0.01616465114057064,-0.10918202996253967,0.015508182346820832,0.018008047714829446,0.016680877655744554]}]}