{"Layers":[{"Weights":[0.02230144664645195,0.09615162014961243,0.10355992615222931,0.03514132648706436,0.0032115504145622255,0.03260640427470207,-0.005201250314712524,-0.04711940884590149,-0.09306439757347107,0.0739530697464943,0.06982128322124481,0.07037568092346192,0.10200415551662445,0.06517959386110306,0.06899573653936386,-0.02280418574810028,-0.03560357913374901,0.006816565990447998,-0.0859508216381073,0.0983959436416626,-0.10238625109195709,-0.07829427719116211,-0.08929534256458283,0.07839496433734894,-0.02915157750248909,0.02623404935002327,-0.04705432057380676,-0.06512780487537384,0.05451814830303192,-0.026391148567199708,0.052053987979888919,-0.005126982927322388,0.006535202264785767,0.07951594889163971,0.017182648181915284,-0.022564545273780824,0.05852749943733215,0.01651773974299431,0.05226222798228264,0.10754229128360748,-0.09062109887599945,0.01717856153845787,0.06401894241571427,0.08733981847763062,0.07145191729068756,0.0600922666490078,-0.10794402658939362,-0.003491997718811035,-0.08189387619495392,-0.08979761600494385,-0.07423412799835205,-0.05340459942817688,-0.08326295018196106,-0.024746332317590715,-0.010627686977386475,0.09017163515090943,0.031079690903425218,-0.008019015192985535,0.06236099451780319,-0.07492072880268097,0.05523313581943512,-0.09630461037158966,0.09841880202293396,-0.06406758725643158,-0.05793313682079315,0.09930746257305145,0.0727512389421463,-0.08020861446857453,0.09711159765720368,-0.10086669027805329,-0.024293512105941774,0.07140178978443146,0.062180276960134509,0.07836984097957611,0.06862327456474304,-0.028492137789726259,-0.09328892827033997,0.005713172256946564,0.02847432717680931,0.03511078283190727,-0.00597255676984787,0.0461646132171154,-0.056347981095314029,0.008621104061603547,0.040168579667806628,-0.03638486564159393,-0.10532370209693909,-0.10488162934780121,0.042671509087085727,-0.032688990235328677,-0.0707203596830368,-0.09134334325790405,-0.08262546360492706,0.07262390851974487,-0.05081328749656677,-0.05431140959262848,0.08538921922445297,-0.023712605237960817,0.0022308602929115297,0.0411202609539032,-0.0898255854845047,0.08848069608211518,0.08251510560512543,-0.013028427958488465,-0.05119144916534424,-0.008248850703239441,-0.08785650134086609,-0.0029046908020973207,-0.031181443482637407,-0.04467633739113808,-0.048780396580696109,-0.01811981201171875,-0.038177963346242908,0.08218759298324585,0.06928425282239914,0.002474948763847351,-0.028939176350831987,-0.10577236115932465,0.06379581987857819,-0.10577218234539032,0.01530139148235321,-0.016185566782951356,0.0805848240852356,-0.007016532123088837,0.052661847323179248,-0.0544944703578949,-0.10550247132778168,-0.06502668559551239,-0.050277769565582278,-0.10501767694950104,0.05440668389201164,0.0054518356919288639,-0.08266894519329071,-0.08250689506530762,0.0837162584066391,0.08308368921279907,-0.053574398159980777,-0.097625732421875,0.011037841439247132,0.0366547666490078,-0.06072968244552612,0.007755368947982788,-0.07200358808040619,-0.0021366626024246217,0.06665974110364914,0.10289106518030167,-0.06321962177753449,-0.07389883697032929,0.10053186118602753,0.0842331200838089,0.0005223900079727173,-0.03508405759930611,0.05757831037044525,0.049879588186740878,-0.07549414038658142,-0.09617994725704193,-0.07915584743022919,0.09220442175865174,0.09692570567131043,-0.013733968138694764,-0.0052656084299087528,0.062298379838466647,-0.06014726683497429,0.06913517415523529,-0.05974150076508522,0.07742364704608917,0.06643802672624588,0.048290520906448367,0.08327178657054901,-0.06377977132797241,0.0594562366604805,-0.07445211708545685,0.06965239346027374,-0.08217063546180725,-0.007397763431072235,0.04914795607328415,-0.07053111493587494,0.10023604333400727,0.0921679213643074,-0.06048031151294708,-0.02316049113869667,0.004399612545967102,0.10171948373317719,0.04560680314898491,0.10517416894435883,-0.08447660505771637,-0.019642751663923265,0.09693457186222077,0.06508300453424454,-0.057316798716783527,0.04714670404791832,-0.02771836146712303,0.057624902576208118,-0.06292042136192322,-0.06079232692718506,0.024231240153312684,0.06833918392658234,0.04372021555900574,-0.02591744065284729,-0.09924572706222534,-0.07589682936668396,-0.03672156110405922,-0.013723619282245636,0.030402638018131257,0.03566776216030121,-0.056230444461107257,0.05155850574374199,0.027454331517219545,0.014536149799823761,0.09217683970928192,-0.004318453371524811,0.04152306169271469,-0.08083316683769226,-0.03259533643722534,0.03206919878721237,0.062080591917037967,-0.0607772059738636,0.05278879404067993,-0.0620528906583786,0.012447677552700043,0.0962761715054512,-0.08247467875480652,-0.06240202113986015,0.06365202367305756,-0.07651865482330322,-0.10572092235088349,-0.039262548089027408,0.003774195909500122,0.08921308815479279,-0.03774168714880943,-0.02768547832965851,0.05020551383495331,0.09424783289432526,-0.08040566742420197,0.050595588982105258,0.08193960785865784,-0.08339525759220123,0.08600670099258423,-0.102627232670784,-0.012364506721496582,0.06674238294363022,0.021070946007966996,-0.04328037425875664,0.09284646064043045,-0.013934716582298279,-0.065959632396698,-0.08338978886604309,-0.07360048592090607,0.06714224070310593,-0.03530694544315338,0.05308636277914047,-0.006160244345664978,0.0424429289996624,0.10780969262123108,-0.09372185170650482,0.04509524628520012,0.06584486365318299,0.03341362997889519,0.012398876249790192,0.019358471035957338,-0.017453551292419435,0.02022545412182808,0.02020929753780365,-0.07478220760822296,0.07663407921791077,-0.08586956560611725,-0.013361483812332154,-0.028910305351018907,0.045245684683322909,-0.06835077702999115,-0.03868088126182556,-0.020300034433603288,0.0867406576871872,0.020903319120407106,0.022291868925094606,-0.05670905113220215,0.008876271545886994,-0.054321274161338809,-0.07075077295303345,0.021384254097938539,0.09091991931200028,-0.1082720011472702,0.09307880699634552,-0.08646750450134278,-0.04124777019023895,0.03449912369251251,0.033431973308324817,0.0656256452202797,-0.06525100767612457,-0.09781298041343689,-0.06957103312015534,-0.09220795333385468,-0.10422153770923615,-0.09257341921329498,-0.017596837133169175,-0.03223869204521179,-0.06221677362918854,-0.09856562316417694,-0.07874633371829987,0.052955567836761478,0.09009115397930145,0.030217468738555909,-0.08018437027931214,-0.01289328932762146,0.06072832643985748,0.05908884108066559,0.08879673480987549,0.005880020558834076,-0.0640958696603775,0.06885842978954315,0.07798540592193604,-0.03371730446815491,-0.08083070814609528,-0.0012557655572891236,-0.09274539351463318,0.033707037568092349,-0.008683718740940094,0.08854417502880097,0.0006075352430343628,-0.027476951479911805,0.012319035828113556,0.10299091041088104,-0.005979262292385101,-0.014935851097106934,0.05176742374897003,0.06477214395999909,0.10309535264968872,-0.06795300543308258,-0.005668431520462036,0.07282254099845886,-0.09542818367481232,0.08520941436290741,0.053734518587589267,-0.09344838559627533,0.10002735257148743,-0.07180912792682648,-0.03253602981567383,-0.038631871342659,-0.07472845911979675,-0.07952739298343659,0.10815910995006561,-0.03390967845916748,0.08009640872478485,-0.05574981868267059,-0.008239172399044037,0.0818987637758255,0.03865661844611168,-0.10393226146697998,-0.02290194109082222,-0.08060714602470398,-0.09576219320297241,0.07030075788497925,-0.04675188660621643,0.08109419047832489,-0.02382839098572731,-0.07617047429084778,-0.06251811981201172,0.08808454126119614,0.08903522789478302,0.02152886986732483,-0.005850754678249359,-0.06754344701766968,-0.09547466039657593,-0.07400228083133698,-0.025299515575170518,-0.08067214488983154,-0.10499535501003266,-0.09765562415122986,0.05836576968431473,-0.03901255130767822,-0.019545093178749086,0.03717527911067009,-0.010165058076381684,0.05575985834002495,-0.0002293214201927185,0.06966818869113922,0.10818441212177277,-0.05698336288332939,-0.006689876317977905,-0.10594604909420014,-0.022655051201581956,0.09138576686382294,0.08922068774700165,0.03387583792209625,0.052711352705955508,-0.08875085413455963,-0.08485482633113861,-0.008384689688682557,0.018325448036193849,0.05943477153778076,0.06204117834568024,-0.064864382147789,-0.014948152005672455,0.0031639710068702699,-0.06257002055644989,-0.0844559520483017,-0.05889442563056946,-0.000009506940841674805,-0.016696318984031678,0.048437681049108508,0.025166064500808717,-0.09651978313922882,-0.035724904388189319,-0.06542843580245972,0.050790637731552127,-0.06232444941997528,0.06615164130926132,-0.010090924799442292,-0.023355618119239808,0.007345184683799744,0.023148316890001298,-0.0871780663728714,0.011580124497413636,-0.003286600112915039,0.07782956957817078,0.051007434725761417,0.038453008979558948,0.07669542729854584,-0.022735584527254106,0.07029123604297638,0.033936507999897,-0.10252295434474945,0.051769837737083438,0.025826573371887208,0.013800017535686493,-0.055244117975234988,0.02762068808078766,0.09996266663074494,0.09089234471321106,-0.05444855988025665,0.06799928843975067,-0.10545270144939423,-0.10581523180007935,-0.08346869051456452,-0.06367605924606323,0.08190932869911194,-0.03796863183379173,0.10554841160774231,-0.06876726448535919,0.07784377038478852,-0.04334701597690582,-0.0828528106212616,0.041389428079128268,0.09122513234615326,-0.049860015511512759,-0.028384074568748475,0.025607019662857057,0.01660308614373207,0.0404350683093071,0.0380912683904171,0.030957873910665513,0.00344645231962204,0.02837635576725006,-0.03268693387508392,0.08007240295410156,0.06178481504321098,-0.07135620713233948,0.04445289075374603,-0.021741893142461778,-0.025040313601493837,-0.057157933712005618,0.02759004756808281,0.06785368919372559,0.022091850638389589,-0.06963668763637543,0.00497446209192276,0.1046530157327652,-0.06863875687122345,0.06634083390235901,0.08242432028055191,0.03643394261598587,-0.0005088150501251221,0.03942157328128815,-0.07071693241596222,-0.0450562946498394,0.037157297134399417,-0.04077817499637604,-0.009226307272911072,-0.04054774343967438,0.03690343722701073,-0.07440948486328125,0.07877744734287262,-0.013311304152011872,-0.06475847959518433,0.009076885879039765,-0.010579846799373627,0.007656127214431763,0.00435996800661087,0.1006888598203659,-0.053191885352134708,-0.08046658337116242,-0.09476032853126526,-0.09541155397891998,-0.030935928225517274,-0.050241172313690189,0.07560087740421295,-0.019567936658859254,-0.07347184419631958,0.02811463177204132,0.003319293260574341,-0.014859788119792939,-0.032907530665397647,0.046238310635089877,0.08233144879341126,-0.0512906052172184,0.028502002358436586,0.02107521891593933,0.09876549243927002,-0.008103355765342713,-0.04744480550289154,-0.04712042212486267,-0.022465437650680543,0.021065745502710344,-0.10860945284366608,0.041267916560173038,0.02257978916168213,-0.054103925824165347,0.04070001468062401,0.04687678813934326,-0.09016524255275727,0.02692858874797821,-0.08523090183734894,0.028227508068084718,-0.03989093005657196,0.08603020012378693,0.04839262366294861,0.04828963801264763,0.016328856348991395,0.06428302824497223,-0.05911779776215553,0.024326834827661516,0.02951991558074951,0.0408615879714489,0.08123479783535004,-0.012378998100757599,0.05478794127702713,0.09369692206382752,-0.04522387683391571,0.1026349663734436,0.012945599853992463,-0.07038910686969757,0.06039327010512352,0.04683409631252289,0.06724530458450318,-0.09713274240493775,0.0876491516828537,-0.09787091612815857,-0.04874059557914734,-0.05850733816623688,0.10152623057365418,0.04783434793353081,0.017324969172477723,-0.04680526256561279,0.05016613006591797,-0.0010164156556129456,-0.005659453570842743,-0.017407376319169999,0.03975832089781761,0.04822806268930435,-0.1006186455488205,0.02608013153076172,0.0625225380063057,0.03321639820933342,0.07418708503246308,0.049636103212833408,0.08320829272270203,0.03157329559326172,-0.06423501670360565,-0.10318531095981598,0.07682059705257416,0.0028261318802833559,0.04550319164991379,0.05550125986337662,-0.06016087159514427,0.00010651350021362305,-0.09246028959751129,-0.03900860249996185,-0.010910220444202423,-0.10781486332416535,0.020435672253370286,0.10143986344337464,0.04853513091802597,0.030152153223752977,0.061653345823287967,0.08000734448432923,0.07658345997333527,-0.028163999319076539,0.04815821349620819,-0.0030681341886520387,0.10772925615310669,-0.0962803065776825,0.06161606311798096,0.08080952614545822,0.006392098963260651,0.06733047217130661,0.08106966316699982,-0.08411496877670288,-0.00955270230770111,-0.08161784708499909,-0.0448150672018528,0.06722712516784668,0.04685530066490173,-0.08662004768848419,0.013610877096652985,-0.06719900667667389,-0.06571802496910095,0.05802064761519432,-0.10854285955429077,0.1053423285484314,-0.005297213792800903,0.08644537627696991,0.0483061820268631,0.039409711956977847,-0.04426194354891777,-0.09847502410411835,0.08606182783842087,-0.024906188249588014,0.0005577728152275085,0.02541355788707733,-0.033761605620384219,-0.07055743038654328,0.08369368314743042,0.0482792854309082,-0.055353373289108279,0.07810194790363312,-0.04299372434616089,-0.01115303486585617,0.019510313868522645,0.06362499296665192,-0.057340946048498157,0.05341572314500809,0.09097833931446076,-0.052630677819252017,0.014871753752231598,0.10494470596313477,-0.059610575437545779,0.011962756514549256,0.07741847634315491,-0.04448969289660454,0.006952695548534393,-0.014953933656215668,0.10570661723613739,-0.08917300403118134,-0.02655792236328125,-0.10172365605831146,-0.09973587095737457,-0.02363443374633789,0.033429473638534549,-0.02707722783088684,0.08245304226875305,0.07896284759044647,0.07397356629371643,0.10810080170631409,-0.08561626076698303,0.010682836174964905,-0.10844619572162628,0.00400899350643158,0.0929161012172699,0.0640767440199852,-0.0241708867251873,-0.06057851389050484,0.07335638999938965,0.026938915252685548,0.0699906051158905,-0.09702937304973602,-0.043617088347673419,-0.01263687014579773,-0.019088268280029298,-0.027588263154029847,-0.07697686553001404,-0.05767911672592163,-0.0402214340865612,-0.09328752756118775,0.09525604546070099,0.10118451714515686,-0.09477870166301727,-0.03455197811126709,0.06640470027923584,-0.0384870283305645,0.10132864117622376,0.058427345007658008,0.0533340647816658,0.020164143294095994,0.057395439594984058,-0.046372607350349429,-0.05810844898223877,-0.07007227838039398,-0.1036122590303421,0.006730377674102783,0.06628111004829407,-0.021741032600402833,-0.06653115153312683,-0.03506787493824959,0.0781586617231369,0.0012056902050971985,0.023008856922388078,-0.01374950259923935,-0.035739704966545108,0.10593220591545105,0.0018195882439613343,0.08606575429439545,-0.013553068041801453,0.07846148312091828,0.07177474349737168,0.08115558326244354,0.05461500212550163,0.10761044919490814,0.07029213011264801,0.058468833565711978,0.027878612279891969,0.06227358803153038,0.07341715693473816,-0.10188537836074829,0.05374026298522949,0.0010959655046463013,-0.03938142955303192,0.05967820808291435,-0.0006808936595916748,0.02613075077533722,-0.10400617122650147,0.015540823340415955,0.03065687045454979,0.10204315185546875,0.013978369534015656,0.028226133435964586,0.014679566025733948,0.04786522686481476,0.07393763959407807,0.03847444802522659,-0.025792524218559266,-0.05414159595966339,-0.023664921522140504,-0.07691924273967743,0.038282960653305057,0.02366999164223671,0.008171454071998597,0.07156525552272797,-0.08281327784061432,0.023722201585769655,0.022840052843093873,-0.024084467440843583,-0.006691932678222656,0.026651903986930848,0.040950577706098559,0.01276194304227829,-0.0003435984253883362,0.026243049651384355,0.04715229570865631,-0.01749126985669136,-0.010066002607345581,-0.03813280165195465,-0.08981551229953766,0.034933216869831088,-0.10524813830852509,0.08022598922252655,-0.08977852761745453,-0.03389986976981163,-0.021805260330438615,-0.09083928167819977,0.029508627951145173,0.028598979115486146,0.09217429161071778,-0.07706327736377716,0.03529469668865204,-0.07275982201099396,0.012450821697711945,0.07185710221529007,-0.05023406445980072,-0.0897480845451355,-0.021044284105300905,0.02527599409222603,0.01829342544078827,-0.06285782158374787,0.004336975514888763,-0.08189772069454193,0.016262337565422059,-0.08858537673950196,0.041664257645606998,0.046997152268886569,-0.09317252039909363,0.06190007925033569,0.10301484167575836,0.02450506016612053,-0.03135789930820465,0.03473959490656853,-0.040574461221694949,-0.08689293265342713,0.03326348215341568,-0.1026260107755661,-0.01905229687690735,-0.005795739591121674,-0.060580939054489139,-0.07816769182682038,0.06442275643348694,-0.015005908906459809,0.03333757072687149,-0.04669506847858429,-0.00040158629417419434,-0.0661655068397522,0.04719165712594986,-0.07671608030796051,0.038198601454496387,-0.06734207272529602,-0.07857349514961243,0.07181240618228913,-0.04299032315611839,0.0027464255690574648,0.09314650297164917,-0.004435382783412933,0.002795301377773285,0.0021656975150108339,0.04254422336816788,-0.011445239186286927,0.07129830121994019,-0.03961757943034172,0.013551667332649231,0.04380720853805542,0.013402141630649567,-0.006480209529399872,0.004446879029273987,-0.007248885929584503,-0.012470096349716187,-0.02816776931285858,0.03568316251039505,-0.08961780369281769,0.06940901279449463,-0.015172287821769715,-0.08913770318031311,-0.0884210467338562,-0.07352012395858765,0.09048661589622498,-0.03008507564663887,-0.0686744898557663,-0.053004100918769839,0.10828433930873871,-0.0924644023180008,0.012774325907230378,0.0487748458981514,-0.02106325328350067,-0.04026758298277855,-0.09799148142337799,-0.1086636334657669,0.07029849290847779,0.07960134744644165,-0.09326080977916718,0.043343331664800647,-0.02917296066880226,-0.030631646513938905,0.07216432690620423,-0.10309506952762604,-0.0538608580827713,-0.008903741836547852,-0.017378732562065126,0.033286817371845248,0.06771576404571533,-0.060425013303756717,-0.07577194273471832,0.03607633337378502,-0.05005978047847748,-0.02621641382575035,-0.10837918519973755,0.0009130388498306274,0.008520640432834626,0.03306835517287254,-0.03793179616332054,0.08033517003059387,-0.08768700063228607,0.025297585874795915,-0.06640683114528656,-0.09097874164581299,0.010527484118938446,0.0354108028113842,-0.09994128346443176,-0.02988836169242859,-0.05731157585978508,-0.08426374197006226,0.008415333926677704,0.09172461926937103,0.034556593745946887,-0.07212348282337189,0.07609180361032486,-0.061082348227500918,-0.0175088532269001,-0.03162898123264313,0.04532874748110771,0.10732486844062805,0.05883188173174858,0.05717530846595764,-0.10761940479278565,-0.07301793992519379,-0.023452699184417726,0.07234425842761994,0.06589270383119583,-0.003897055983543396,-0.09600566327571869,0.04523446783423424,0.03146934509277344,0.024150673300027849,-0.09452243149280548,-0.09477116167545319,0.09126488864421845,-0.056871116161346439,-0.05901306867599487,-0.017687465995550157,-0.0944519191980362,-0.07579098641872406,0.051218196749687198,-0.09257979691028595,0.001797005534172058,0.08426756411790848,-0.04880267009139061,-0.02556079626083374,0.03942032903432846,0.09850956499576569,0.032889433205127719,-0.1055736392736435,-0.00883495807647705,0.03277785703539848,-0.04332948848605156,-0.043488506227731708,0.02829090505838394,-0.07095424830913544,-0.06658229231834412,0.0071447789669036869,-0.02127915993332863,-0.044424787163734439,0.015555627644062043,-0.10722792148590088,0.010913863778114319,-0.10555088520050049,0.001435883343219757,-0.03217805549502373,-0.09393341839313507,-0.04164276644587517,-0.04203106835484505,-0.042650867253541949,0.026271328330039979,0.02217918261885643,0.06807698309421539,0.08582073450088501,-0.09255583584308624,-0.10087579488754273,0.044584598392248157,-0.06843756139278412,-0.06836897134780884,-0.03161858022212982,0.06568297743797302,0.07302729785442352,-0.017586607486009599,-0.07486537098884583,-0.05496659874916077,-0.033205073326826099,-0.09249059855937958,0.0642608180642128,-0.03909173980355263,-0.10162755846977234,-0.0660688728094101,-0.013879545032978058,0.08296142518520355,0.017128873616456987,-0.10137520730495453,0.1043844223022461,-0.09095674753189087,-0.0634443610906601,-0.009355910122394562,-0.05306072533130646,0.0031428486108779909,0.08089141547679901,0.050361230969429019,-0.08319492638111115,0.02386660873889923,-0.10736200213432312,-0.005595535039901733,0.10737407207489014,-0.025733858346939088,-0.0336308628320694,0.05180087685585022,0.02531249448657036,0.0958663821220398,-0.09365852177143097,0.028523385524749757,0.09922260046005249,0.09103578329086304,-0.03415064141154289,-0.03709210082888603,-0.01801188290119171,0.04107973724603653,0.013445086777210236,-0.08012939989566803,0.040478434413671496,-0.1082925796508789,0.0806189477443695,-0.09426909685134888,-0.07378432154655457,-0.08754304051399231,-0.04380595311522484,-0.021727532148361207,-0.10233244299888611,0.04083520919084549,-0.013923190534114838,-0.029158160090446473,-0.048058364540338519,0.05951070785522461,0.0027030855417251589,-0.0750102698802948,-0.02691076695919037,0.08031300455331803,0.04150843620300293,0.07552741467952728,-0.06171031296253204,0.030679266899824144,0.040850844234228137,0.01716277003288269,0.05884312093257904,-0.016043871641159059,-0.09053999185562134,0.06770756840705872,-0.040611326694488528,0.016415949910879136,-0.010847270488739014,0.10046826303005219,0.07730911672115326,-0.0762067586183548,0.03572475537657738,-0.006043203175067902,-0.06719702482223511,-0.028094962239265443,0.006686888635158539,0.06367538124322891,0.01102062314748764,-0.029289036989212037,-0.06143215298652649,-0.027356799691915513,0.02367594838142395,0.03522808104753494,0.08444970846176148,0.00788252055644989,-0.03855312988162041,0.09726549685001373,-0.04553902521729469,0.07474159449338913,0.09081389009952545,-0.09329591691493988,-0.08735007047653198,-0.02658572793006897,0.047412093728780749,0.040467943996191028,-0.022696927189826967,0.013628877699375153,0.09796695411205292,-0.09714215993881226,0.04881893843412399,-0.038944270461797717,0.019072115421295167,0.09659895300865174,0.06943318247795105,-0.023754511028528215,-0.093453049659729,-0.008624717593193055,0.04581582173705101,0.028541281819343568,0.012290477752685547,-0.08557899296283722,-0.09804698824882508,0.10154983401298523,-0.09775654971599579,0.03999720513820648,0.10532139241695404,0.07060009241104126,-0.004169657826423645,0.09105560183525086,-0.08704240620136261,0.05054387077689171,0.021170582622289659,0.04463350400328636,-0.10285176336765289,0.02809281274676323,-0.03815522789955139,0.09374722838401795,0.013967752456665039,-0.07418477535247803,-0.01976267620921135,0.04438554495573044,0.10248741507530213,0.03189584240317345,-0.10903167724609375,-0.016854330897331239,0.03846646472811699,0.089692622423172,0.007774956524372101,0.05826561897993088,-0.012118399143218995,0.07954344153404236,0.10144281387329102,-0.07570752501487732,-0.02243536338210106,0.04056714102625847,0.06573058664798737,-0.04459741711616516,0.08538828790187836,0.009061463177204132,-0.039092835038900378,-0.013444826006889344,-0.0746942013502121,-0.0038081184029579164,0.0707981139421463,0.020475681871175767,0.0479079931974411,-0.06136751174926758,0.004562534391880035,0.020758267492055894,0.08650931715965271,-0.06780920922756195,-0.012330800294876099,-0.01855085790157318,0.007720746099948883,0.007372237741947174,-0.09627658128738404,0.05315665155649185,0.0037663131952285768,-0.030605792999267579,0.06949147582054138,0.07350118458271027,-0.05004424229264259,-0.06216311454772949,0.030828844755887986,0.03668507561087608,-0.02099938690662384,-0.022604137659072877,0.05674202740192413,-0.10462291538715363,-0.09484347701072693,0.004970535635948181,0.0032271817326545717,0.061071574687957767,-0.033401813358068469,0.019716445356607438,0.05767536908388138,0.06396611034870148,-0.021990712732076646,-0.08772794902324677,-0.04761556163430214,0.038288891315460208,-0.06371213495731354,0.10663986206054688,0.001757495105266571,-0.10701669752597809,0.08340305089950562,-0.0697823166847229,0.08389632403850556,-0.10531595349311829,0.07813343405723572,0.10778786242008209,-0.0666017085313797,0.019694853574037553,-0.052275046706199649,-0.04054735600948334,0.06400403380393982,0.05779791995882988,-0.05046139657497406,-0.07945078611373902,0.02296021580696106,0.10494169592857361,0.02480129897594452,0.08094123005867005,-0.08603836596012116,0.10552215576171875,-0.07512812316417694,0.10293667018413544,0.061619631946086887,-0.06361714005470276,0.06278475373983383,-0.043409477919340137,0.012191444635391236,0.04511639475822449,-0.020217910408973695,0.08139738440513611,-0.10315965116024018,0.0638488382101059,-0.059517115354537967,-0.1004713773727417,-0.07199396193027497,-0.029772058129310609,0.07034491002559662,0.01553817093372345,-0.04618726298213005,-0.08960451185703278,0.060032568871974948,0.09198478609323502,-0.06561930477619171,-0.03921616077423096,-0.06679670512676239,-0.029520917683839799,-0.035369087010622028,0.003682650625705719,-0.09361962974071503,0.036322157829999927,0.033146318048238757,-0.08319887518882752,0.09502103924751282,0.06446598470211029,-0.07921512424945831,-0.059472233057022098,-0.10401168465614319,0.022084753960371019,-0.006117604672908783,-0.0659923106431961,0.03939652442932129,0.013376884162425995,0.07709834724664688,-0.09736090898513794,0.10085071623325348,0.09197035431861878,0.037834327667951587,-0.09522061049938202,-0.029409214854240419,0.027906473726034166,-0.08680349588394165,-0.04109124839305878,-0.04029427096247673,-0.007963322103023529,0.011278413236141205,0.015685096383094789,-0.03405928239226341,-0.010396480560302735,-0.037632640451192859,-0.012798495590686798,0.08891808986663819,-0.06971734762191773,-0.10873189568519592,0.030116483569145204,0.03393733501434326,0.053359635174274448,-0.014911450445652008,-0.088355153799057,-0.10326409339904785,-0.10540784895420075,0.06433670222759247,-0.0007772743701934814,-0.1050410121679306,-0.005025036633014679,-0.01630718633532524,-0.0028978511691093446,0.10219666361808777,0.06267578154802323,-0.021820664405822755,0.049279168248176578,0.10250458121299744,0.10743282735347748,-0.09302644431591034,0.10437266528606415,0.04240437597036362,-0.0051354095339775089,-0.0695125162601471,0.022839326411485673,0.10269705951213837,-0.03450499475002289,0.09010587632656098,-0.0543525367975235,-0.05577625334262848,-0.010286673903465271,0.0967138260602951,0.054410405457019809,-0.05165529251098633,-0.035845447331666949,0.06085165590047836,0.00962618738412857,-0.10407748818397522,0.02292400598526001,-0.050344210118055347,0.04054008051753044,-0.07417818903923035,0.007167384028434753,0.028891634196043016,0.10035765171051026,-0.09980225563049317,0.0811692476272583,0.08513186872005463,-0.03879310190677643,-0.024754006415605546,0.02777807042002678,-0.06503254175186157,-0.09339019656181336,0.03339198976755142,-0.09908223152160645,-0.055136650800704959,0.018909480422735215,0.05442775413393974,0.023047123104333879,-0.09314288198947907,0.049407027661800387,-0.08106784522533417,-0.09729228913784027,-0.05339578166604042,0.06940995156764984,-0.024743158370256425,0.030111148953437806,0.10436278581619263,0.025762658566236497,0.06750546395778656,-0.07331717014312744,-0.00867721438407898,-0.0983695387840271,-0.09111401438713074,-0.023936033248901368,-0.10665339231491089,0.03229699656367302,0.030187293887138368,-0.017722267657518388,-0.08226852118968964,0.0028505027294158937,0.013130217790603638,-0.0867757648229599,-0.015149705111980439,-0.023400288075208665,-0.08712513744831085,0.03593336045742035,-0.10071304440498352,-0.09649890661239624,-0.02092847228050232,-0.0025627389550209047,-0.0680033415555954,0.06929117441177368,0.10528557002544403,0.10671873390674591,-0.01860038936138153,-0.07344242930412293,0.02409784123301506,-0.0823965072631836,-0.07016517221927643,-0.04274095594882965,0.0973452478647232,0.029624544084072114,0.04073391109704971,0.019384849816560746,0.030195772647857667,-0.07950598001480103,0.07448611408472061,0.0788043960928917,0.02286463975906372,0.05488148331642151,-0.09859505295753479,-0.004416316747665405,0.10853713750839234,0.07532252371311188,0.1040877103805542,-0.10362760722637177,0.10011307895183563,0.03169473260641098,-0.04260721802711487,-0.08146025240421295,-0.019619807600975038,-0.009958982467651368,-0.0005105584859848023,-0.07158824801445008,0.10637272894382477,-0.04279451444745064,-0.007075890898704529,0.024946406483650209,-0.06242673099040985,0.08725418150424957,-0.020774055272340776,-0.0625862181186676,0.019982565194368364,-0.029034674167633058,0.01566280424594879,0.05487589165568352,0.030545350164175035,0.020767033100128175,0.06747094541788101,-0.031866878271102908,-0.02427813783288002,-0.0903393030166626,-0.01872941479086876,0.037448521703481677,-0.02514389529824257,-0.00481877475976944,-0.018096033483743669,0.012431442737579346,-0.08879177272319794,0.049739062786102298,-0.07136809825897217,0.06006336957216263,0.005915217101573944,-0.009923703968524933,0.010190501809120179,0.0003661811351776123,-0.10544128715991974,-0.05547967180609703,0.021848857402801515,0.0782812088727951,0.04780414700508118,0.02446362003684044,0.10175010561943054,0.055815842002630237,0.012783564627170563,0.04645062983036041,-0.06597472727298737,-0.04649117588996887,-0.003133431077003479,0.000573381781578064,-0.02464844286441803,-0.06364651024341583,0.005467809736728668,-0.02420579269528389,0.043187253177165988,-0.06308057904243469,-0.05834342539310455,-0.005159735679626465,0.10283391177654267,-0.007703937590122223,0.0737861692905426,-0.062309592962265018,0.04695740342140198,-0.0796714574098587,-0.06709250807762146,0.00014842301607131958,-0.03380018472671509,-0.08393117785453797,-0.00016330182552337646,0.03377058729529381,-0.09091491997241974,-0.014077842235565186,-0.02795588970184326,0.06650449335575104,-0.02005782723426819,-0.019589055329561235,0.030422091484069825,-0.06764648854732514,0.029149197041988374,-0.03763898089528084,0.03899693116545677,0.0011921152472496033,-0.08029888570308685,-0.09424866735935211,0.0674358531832695,0.037372197955846789,0.03643464669585228,0.03471088036894798,0.023165177553892137,-0.02222176268696785,0.024106141179800035,-0.08146899938583374,0.000639788806438446,0.07517684996128082,-0.0333283506333828,-0.10183592140674591,0.06296677142381668,-0.0378662645816803,0.06968080997467041,0.08222801983356476,0.09187255799770355,-0.09766966104507446,0.10875380039215088,0.006471626460552216,-0.08476755023002625,-0.08751986920833588,-0.03054817020893097,0.019756793975830079,0.02523799240589142,-0.10834236443042755,-0.06507949531078339,-0.05105265974998474,0.05310855433344841,0.06084569916129112,-0.05684595927596092,-0.024288594722747804,-0.08521388471126557,0.10800674557685852,0.0435686931014061,0.08398754894733429,0.06889662146568299,0.08087653666734696,0.05215081200003624,0.08504121005535126,0.06833060085773468,-0.033177781850099567,0.08276249468326569,-0.08864589035511017,-0.026441197842359544,-0.03800137713551521,-0.04135929048061371,0.07334856688976288,0.06131329387426376,-0.09549571573734284,0.10187871754169464,-0.022751014679670335,0.0661047101020813,0.0005306899547576904,-0.013265728950500489,0.10701796412467957,0.0033897385001182558,0.0589410625398159,-0.037742599844932559,0.037158653140068057,0.05049879103899002,-0.08439807593822479,0.08512555062770844,-0.06349237263202667,-0.02201370894908905,0.08269014954566956,-0.10357441008090973,0.041824351996183398,0.04526763781905174,-0.08901658654212952,-0.004939422011375427,0.09861159324645996,-0.10022355616092682,-0.0418735034763813,0.031999509781599048,0.0917244404554367,-0.09440204501152039,-0.07420915365219116,0.05987469106912613,-0.03354795277118683,0.033643096685409549,-0.034953027963638309,-0.052342385053634647,-0.03380782902240753,-0.06510113179683685,-0.056282732635736468,0.011464722454547882,0.08390277624130249,-0.003837406635284424,0.09871088713407517,-0.08139191567897797,0.01497986912727356,-0.04338187351822853,0.050100237131118777,0.01019401103258133,-0.10228481888771057,0.03211664780974388,0.058515504002571109,0.042983487248420718,-0.003572613000869751,-0.07355834543704987,0.05142068862915039,0.09760002791881561,0.09271363914012909,-0.011534027755260468,0.021971359848976136,0.052241962403059009,0.04409570246934891,-0.07830503582954407,-0.06707705557346344,-0.012624673545360566,-0.09016747772693634,0.041876401752233508,-0.01336304098367691,0.04828042909502983,-0.01536046713590622,-0.0037972405552864076,0.04952148720622063,-0.05365331470966339,-0.09939093887805939,0.06397204101085663,-0.0003491118550300598,-0.10687476396560669,0.07377789914608002,-0.012147009372711182,0.06886142492294312,0.08463232219219208,0.06875757873058319,0.0862903818488121,0.03309376537799835,0.0013814643025398255,0.0031583011150360109,-0.06137882173061371,-0.04805022478103638,0.05997752398252487,0.021113406866788865,-0.0970323383808136,0.07072758674621582,0.022038627415895463,0.057382822036743167,0.02322518825531006,0.10117143392562866,0.1065179854631424,0.05681585520505905,-0.09078602492809296,0.06636505573987961,-0.07790569961071015,0.08260081708431244,-0.06292657554149628,-0.010983295738697052,-0.08033441007137299,-0.05019111931324005,-0.06893593072891236,0.09636035561561585,0.030370038002729417,0.10852803289890289,-0.029684413224458696,0.06390529125928879,0.04885215684771538,-0.09529109299182892,-0.02168944850564003,0.03960263356566429,0.08804869651794434,-0.05252279341220856,0.04846320301294327,0.06926198303699494,0.06080261990427971,-0.09631720185279846,0.054985612630844119,0.02401033043861389,-0.02335790917277336,-0.07934719324111939,-0.01153285801410675,-0.051612887531518939,-0.04282708466053009,0.09050078690052033,0.014092355966567994,0.09584584832191467,0.05795007571578026,0.0957876592874527,0.04868145287036896,0.09035688638687134,-0.08100572228431702,0.08596695959568024,0.02999502420425415,0.09005850553512573,-0.07329414784908295,0.06523903459310532,-0.10725320875644684,0.05955399572849274,0.09092444181442261,0.05212203785777092,0.015205010771751404,0.08091048896312714,-0.029889926314353944,0.017505943775177003,0.06325162202119827,-0.07246477901935578,-0.04871700704097748,0.06743200123310089,-0.05043895170092583,-0.05862349271774292,-0.0789097249507904,0.04790445417165756,-0.015464968979358673,0.07226476073265076,0.002336062490940094,0.08288133144378662,0.0515250526368618,-0.06145205721259117,0.023627955466508867,-0.06781904399394989,0.00731997936964035,-0.0290306955575943,-0.10288253426551819,-0.006819188594818115,0.07867099344730377,0.025973264127969743,0.04761159420013428,0.04852498322725296,0.10249216854572296,0.0912678986787796,0.06268595159053803,-0.03740033507347107,0.06360368430614472,0.10274289548397064,-0.02641848847270012,-0.01710652932524681,0.02113322913646698,-0.06558647751808167,0.0019946545362472536,0.045802608132362369,-0.0828203558921814,-0.01105472445487976,-0.0647687166929245,0.046964194625616077,0.05869247764348984,-0.02303968369960785,0.031222686171531678,0.1000441312789917,0.008747346699237824,0.07336997985839844,-0.029439058154821397,0.06031065434217453,-0.053370606154203418],"WeightsRows":20,"WeightsCols":84,"Biases":[0.0,0.0,0.0,0.0,0.0,0.0,0.0,0.0,0.0,0.0,0.0,0.0,0.0,0.0,0.0,0.0,0.0,0.0,0.0,0.0]},{"Weights":[-0.2065579891204834,0.04770004749298096,-0.0004162341356277466,-0.14570748805999757,-0.016999199986457826,-0.1379900872707367,0.21225297451019288,-0.0780363380908966,0.08257651329040528,0.08638977259397507,0.042671650648117068,0.1472107172012329,0.06057869642972946,0.09709247201681137,0.17782099545001985,-0.036947816610336307,0.04643010348081589,-0.15629252791404725,-0.20515727996826173,-0.13882070779800416,-0.144792377948761,-0.15766584873199464,0.11948537826538086,-0.038787342607975009,0.10065227746963501,-0.06163996458053589,-0.18535852432250977,-0.13132673501968385,0.17852306365966798,0.03970399498939514,0.14898309111595155,-0.1837788224220276,-0.20804384350776673,-0.14236295223236085,0.10310244560241699,0.0969667062163353,-0.21115919947624207,0.01578773558139801,-0.18375712633132935,0.09559883177280426,0.140323668718338,0.07008593529462815,0.003576517105102539,0.06370273232460022,0.17443755269050599,0.13350532948970796,-0.08827176690101624,-0.06405771523714066,-0.07315978407859802,0.13623592257499696,-0.17428076267242433,-0.2133956253528595,-0.19244566559791566,-0.053367167711257938,-0.1926259696483612,-0.023478955030441285,-0.055341094732284549,0.19677630066871644,-0.04894322156906128,0.09391599148511887,0.10528157651424408,-0.013134673237800599,-0.14756914973258973,-0.2095087468624115,0.05730891227722168,-0.2188589870929718,-0.02893596887588501,-0.21123647689819337,-0.09687819331884384,-0.009258881211280823,0.2127734124660492,-0.04699312895536423,0.07656830549240112,0.01720099151134491,-0.06784068793058396,-0.04465293884277344,-0.08076212555170059,0.203027606010437,0.1598300039768219,-0.025046497583389283,0.1328994333744049,0.208297461271286,0.029517710208892823,0.17935413122177125,0.1626591682434082,-0.017157912254333497,-0.16837576031684876,0.023116379976272584,-0.1514853537082672,-0.08497671037912369,-0.06836133450269699,-0.07520818710327149,0.15707293152809144,0.17134955525398255,0.10714855790138245,0.0931268036365509,-0.04997982829809189,-0.22253602743148805,-0.14123386144638062,-0.07479176670312882,-0.030694425106048585,0.16816124320030213,0.16461172699928285,0.10351955890655518,-0.039115846157073978,-0.0740235447883606,-0.08401975780725479,0.028787761926651,-0.18388822674751283,-0.06513296812772751,0.20785260200500489,0.17284086346626283,-0.1109871044754982,0.02592475712299347,-0.13177433609962464,-0.12935146689414979,0.18976107239723206,0.06962227821350098,-0.16442805528640748,0.17142632603645326,0.0932774692773819,-0.06308168172836304,0.19368290901184083,0.15662729740142823,0.04786035418510437,0.18394964933395387,0.21391141414642335,-0.2069094181060791,-0.18074434995651246,0.037189312279224399,-0.0456918403506279,-0.013681545853614807,-0.046647340059280398,0.049409329891204837,-0.20183300971984864,0.03805861622095108,0.027529500424861909,0.062470220029354098,-0.0693281888961792,0.08507588505744934,0.15195885300636292,-0.1991056501865387,-0.1551501750946045,0.02387213706970215,0.19870901107788087,-0.14629477262496949,-0.14216625690460206,-0.0025576651096343996,-0.07828951627016068,-0.06435173749923706,0.17665782570838929,0.09989902377128601,0.08872019499540329,0.19119110703468324,-0.14852949976921082,0.10974874347448349,-0.030596643686294557,0.03313451260328293,-0.1858428418636322,0.09687016904354096,-0.17378905415534974,-0.0326513946056366,0.03032591938972473,-0.11498293280601502,0.2185719609260559,0.11902253329753876,-0.05329710990190506,-0.21558904647827149,0.1256299614906311,-0.15640509128570558,-0.0019347667694091797,-0.1723373830318451,0.025160416960716249,-0.13061583042144776,-0.06559102982282639,-0.026796512305736543,0.0645756646990776,0.14392942190170289,0.21354618668556214,0.10115804523229599,-0.16775131225585938,-0.09965202212333679,-0.07589352130889893,0.0877770483493805,0.027599871158599855,0.15980708599090577,0.16119351983070374,0.17427755892276765,-0.013475283980369568,-0.18539422750473023,0.051367320120334628,0.035586804151535037,0.21211063861846925,-0.1062745451927185,0.022627830505371095,-0.12219977378845215,-0.00821220874786377,-0.20799356698989869,-0.037172622978687289,-0.16555431485176087,0.12084489315748215,-0.09379409998655319,0.0012155473232269288,-0.08009781688451767,-0.22342714667320252,0.11056165397167206,-0.19409975409507752,-0.02372308075428009,0.11394023895263672,-0.12472686171531677,0.1626420021057129,-0.13592106103897096,-0.22334343194961549,-0.20938560366630555,-0.1738314926624298,-0.21827009320259095,-0.11569139361381531,0.11170252412557602,-0.10734882950782776,-0.007548153400421143,0.11455237120389939,0.21655404567718507,-0.15342935919761659,-0.09733635187149048,-0.20067942142486573,0.01584281027317047,-0.04828343540430069,0.11050065606832504,0.06721605360507965,0.06544129550457001,0.18815234303474427,0.05372616648674011,-0.20849183201789857,0.21911713480949403,0.20544791221618653,-0.09206384420394898,-0.19718369841575623,0.07234524935483933,0.0670272633433342,-0.009235531091690064,0.1648499071598053,0.016606613993644716,-0.12176138162612915,-0.20985326170921327,-0.09418801218271256,0.10773195326328278,0.18427804112434388,-0.22266200184822083,0.17672142386436463,0.12841856479644776,0.061121903359889987,0.13543981313705445,-0.017330482602119447,-0.1887868046760559,0.14253318309783936,0.1678161919116974,-0.11797121912240982,0.12562789022922517,0.06799744814634323,0.0011325329542160035,0.14337795972824098,0.09327288717031479,0.042047955095767978,0.08165043592453003,-0.09792977571487427,0.06771387904882431,-0.10572829842567444,0.1571306586265564,-0.16689768433570863,0.15695759654045106,0.16612012684345246,-0.20684513449668885,0.21831285953521729,-0.19701534509658814,-0.14197906851768495,0.02744898945093155,-0.18548640608787538,-0.21089786291122437,-0.02281905710697174,0.10092704743146897,0.1056966632604599,-0.10218381136655808,-0.10727190971374512,0.029281817376613618,0.15051516890525819,-0.03896882385015488,0.14306816458702088,0.0747310146689415,-0.2025771141052246,0.14409416913986207,0.18564385175704957,0.03721655160188675,-0.12377924472093582,-0.1875918209552765,0.21901807188987733,-0.13227558135986329,0.04801175743341446,0.031014136970043184,-0.20624732971191407,0.1695706844329834,0.0007737427949905396,0.036774493753910068,-0.12229561805725098,-0.14561957120895387,-0.014078125357627869,0.20136091113090516,0.21997380256652833,0.17417177557945252,0.01595449447631836,0.049835942685604098,-0.09243005514144898,0.05916672945022583,-0.0516185387969017,0.20895767211914063,0.22089657187461854,0.03566352277994156,-0.18568339943885804,0.1836022585630417,0.1494956910610199,-0.14364022016525269,0.16541390120983125,0.08991854637861252,-0.21684303879737855,-0.17238131165504456,0.03231552988290787,-0.19383341073989869,-0.05333438515663147,0.030284345149993898,-0.1402171552181244,-0.06378678232431412,0.13670894503593446,-0.11763584613800049,-0.1806858777999878,0.14238908886909486,0.22355997562408448,-0.11451873183250427,0.14897418022155763,-0.0824769139289856,0.10516524314880371,-0.02225998044013977,0.15936154127120973,0.18587100505828858,-0.0584142729640007,0.07031379640102387,-0.13017600774765016,0.11951945722103119,0.21234089136123658,0.02302473783493042,-0.16670474410057069,-0.07228973507881165,0.1446232795715332,0.10636993497610092,0.08919531106948853,0.21417072415351869,0.10972490906715393,-0.15981662273406983,-0.1715046465396881,-0.020990729331970216,-0.19090428948402406,-0.0696239173412323,0.06424294412136078,-0.06084955483675003,-0.0161372572183609,0.1806449294090271,-0.195802241563797,0.1707015037536621,0.13917367160320283,-0.10210122913122177,-0.2084289789199829,0.14096009731292725,0.21277257800102235,-0.17118093371391297,-0.15802332758903504,0.00486128032207489,-0.19539663195610047,0.1696152687072754,-0.21196606755256654,0.046333976089954379,-0.01267927885055542,0.03953867405653,0.12493200600147248,0.15340596437454225,-0.1268862783908844,-0.21017131209373475,0.21293747425079347,0.07542001456022263,-0.2181466817855835,0.11183910816907883,0.024390533566474916,-0.10461807996034622,-0.01909959316253662,0.20442113280296327,-0.06490042060613632,-0.15405380725860597,0.10941069573163986,-0.04769781231880188,-0.18411287665367127,-0.05444854497909546,0.08237382024526596,0.21952518820762635],"WeightsRows":20,"WeightsCols":20,"Biases":[0.0,0.0,0.0,0.0,0.0,0.0,0.0,0.0,0.0,0.0,0.0,0.0,0.0,0.0,0.0,0.0,0.0,0.0,0.0,0.0]},{"Weights":[0.1722193956375122,0.03855302929878235,0.09227573126554489,0.005567237734794617,-0.04605419188737869,0.11493760347366333,0.21286779642105103,-0.16498500108718873,0.17798539996147157,-0.06480429321527481,0.019594743847846986,0.11564072966575623,0.09278085827827454,0.025599494576454164,0.03039459139108658,0.10246675461530686,0.07141773402690888,0.16721174120903016,-0.032232098281383517,0.16705811023712159,0.04333309084177017,-0.05142858624458313,-0.026439696550369264,-0.1767754852771759,0.03610307723283768,0.06652458757162094,0.04503929615020752,0.10670207440853119,-0.16513732075691224,0.1256961226463318,0.05636274069547653,-0.03112826496362686,0.1743166446685791,-0.21593758463859559,0.008704274892807007,-0.2128424048423767,-0.11601307988166809,-0.12022334337234497,-0.09783563017845154,0.06854938715696335,0.13428005576133729,-0.10946202278137207,0.20285364985466004,-0.1851162612438202,-0.14921697974205018,-0.042290955781936648,-0.002062767744064331,0.014956235885620118,-0.07013517618179321,0.1754084676504135,-0.1031644344329834,0.20348113775253297,0.0323125422000885,0.1335340142250061,0.0798143669962883,0.18007615208625794,-0.1267460584640503,0.13970044255256654,0.19679772853851319,0.050353169441223147,-0.14476916193962098,-0.10306649655103684,-0.22191691398620606,0.13138766586780549,0.09402244538068772,0.02476915717124939,0.1929294615983963,0.12838417291641236,-0.22319278120994569,0.08251084387302399,-0.08118584752082825,0.053378842771053317,-0.12724751234054566,-0.11976385116577149,-0.10496786236763,-0.16638723015785218,0.16685354709625245,0.2146027684211731,0.10421432554721832,-0.09358074516057968,-0.16671502590179444,-0.20203974843025208,0.16513694822788239,0.18129783868789674,0.09134223312139511,0.2022167444229126,-0.05636191368103027,-0.21691960096359254,-0.1814430058002472,0.08609073609113693,-0.01535196602344513,0.19871701300144196,0.15650105476379395,-0.03722071647644043,0.161561518907547,-0.014238864183425904,-0.15922391414642335,-0.06262436509132385,-0.21145394444465638,0.1723068356513977,0.18770301342010499,-0.1613059937953949,0.0779556930065155,-0.20944556593894959,0.04090894013643265,0.2192220389842987,0.21902254223823548,-0.19838327169418336,0.20725950598716737,0.02340671420097351,-0.08648154884576798,-0.10131075978279114,0.1835581660270691,0.05134812742471695,0.12624913454055787,0.07669561356306076,0.19856074452400208,-0.20648521184921266,0.16949376463890077,-0.11014232039451599,-0.12654119729995728,-0.16888052225112916,0.12470212578773499,-0.15177953243255616,0.156090646982193,-0.19105330109596253,-0.10018253326416016,-0.10473105311393738,-0.08279091864824295,-0.09815272688865662,-0.21739882230758668,0.11307546496391297,-0.19883745908737184,-0.15852391719818116,0.0897965058684349,0.06411861628293991,0.20933032035827638,-0.05917630344629288,-0.17523381114006043,-0.036546431481838229],"WeightsRows":7,"WeightsCols":20,"Biases":[0.0,0.0,0.0,0.0,0.0,0.0,0.0]}]}