{"Layers":[{"Weights":[0.08108946681022644,-0.027321361005306245,0.08656857907772064,0.0027962392196059229,0.047855034470558169,0.34804466366767886,-0.01414448767900467,-0.0100220562890172,-0.05887628719210625,-0.032987795770168307,0.12922745943069459,0.0949852392077446,0.10112494975328446,0.0017977398820221425,-0.038299184292554858,0.038836535066366199,0.03452776372432709,0.3822323977947235,-0.028428053483366967,-0.07459428161382675,-0.04534485563635826,-0.0433046780526638,0.1390838325023651,0.06614430993795395,0.06922122836112976,-0.039015673100948337,0.006540252361446619,0.044377073645591739,0.00886750128120184,-0.08549567312002182,0.012723686173558236,0.0931420773267746,0.06560726463794708,-0.015090305358171463,-0.01966186799108982,-0.29726558923721316,-0.007330700755119324,0.02804839238524437,-0.02178974077105522,-0.046531081199645999,-0.11572223901748657,-0.10094840079545975,-0.09125226736068726,-0.09683005511760712,-0.007495678961277008,0.00013960152864456177,0.02576315402984619,0.08822137117385864,0.038303762674331668,-0.0023984250146895649,-0.018323509022593499,-0.038123719394207,0.07187742739915848,0.3081441819667816,-0.010123231448233128,0.06283247470855713,-0.006210779305547476,-0.012198937125504017,0.10930617153644562,0.09296197444200516,0.052302345633506778,0.005469323601573706,-0.015377727337181569,0.04603856801986694,0.1340191513299942,0.3617471158504486,-0.0005434812628664076,-0.0431988425552845,-0.026091881096363069,0.014485040679574013,0.10919920355081558,-0.0674833357334137,0.05704556405544281,0.07396678626537323,-0.008668935857713223,-0.018016109243035318,-0.07341345399618149,-0.23264029622077943,-0.02670401893556118,0.09637955576181412,0.0741167888045311,-0.02173023857176304,0.009172574616968632,-0.2518608272075653,-0.05706757679581642,-0.007048418279737234,0.022511066868901254,0.11137180775403977,-0.017828118056058885,-0.14073306322097779,0.03954600542783737,0.021795565262436868,-0.07937722653150559,0.12270567566156388,-0.010164977982640267,0.4230479896068573,0.06685115396976471,0.024605680257081987,0.08957161754369736,0.01300765946507454,0.09907892346382141,0.043041568249464038,-0.03759625926613808,0.06797866523265839,0.02277987450361252,-0.010296784341335297,-0.016612224280834199,0.28623342514038088,0.008016739971935749,0.019192654639482499,0.09847905486822128,0.09378276765346527,0.00431999983265996,-0.1702447533607483,0.08341605961322785,0.0856860801577568,0.0324782133102417,0.09571121633052826,0.09728886187076569,-0.3614753782749176,-0.026197664439678193,0.036542858928442,0.04854656383395195,0.048152755945920947,0.10807637870311737,0.10941868275403977,-0.10616640746593476,-0.030098576098680497,0.07843270897865296,-0.08083608746528626,-0.06357479095458985,-0.10613098740577698,-0.07532061636447907,-0.017695633694529535,-0.016233263537287713,0.05706023797392845,-0.033713385462760928,-0.1473740041255951,-0.02727445773780346,-0.024509908631443979,-0.00003825596650131047,0.0346638523042202,0.01595347374677658,0.44936347007751467,-0.03713449463248253,0.010353605262935162,0.01662089116871357,0.007142604794353247,0.0176510289311409,-0.03403681144118309,-0.029243169352412225,-0.02555837668478489,-0.08848120272159577,0.05699702352285385,0.10166831314563751,0.17324741184711457,-0.0018278172938153148,-0.05188852921128273,0.029973486438393594,0.07608674466609955,0.04240942746400833,-0.0745103657245636,0.010192743502557278,0.007629096508026123,0.02767329104244709,0.07971611618995667,0.0769440233707428,-0.3724801242351532,0.044443219900131229,0.07753811031579972,-0.013593433424830437,-0.03978518024086952,0.11096280813217163,-0.06116732954978943,0.00045131673687137663,-0.019981257617473604,0.01844898983836174,-0.053882066160440448,-0.03969159349799156,0.07338955998420716,-0.03601717948913574,-0.03487779572606087,-0.03543492406606674,0.08783555775880814,0.035511355847120288,0.07676824182271958,0.03411957994103432,-0.040109019726514819,0.003358413465321064,0.10155149549245835,0.1261834055185318,0.39547199010849,0.02550293505191803,0.017164280638098718,0.010890833102166653,-0.007134091574698687,0.10219205915927887,0.4903773367404938,-0.03403405472636223,-0.00041085691191256046,-0.0058203935623168949,-0.07438831031322479,-0.0392942912876606,-0.4471556842327118,0.08280453830957413,0.08995458483695984,0.12245243042707443,-0.030631452798843385,-0.17653505504131318,-0.4433360993862152,0.04928663372993469,-0.04124036058783531,0.03133140131831169,-0.05383552238345146,-0.024981211870908738,-0.01457204669713974,0.06632643193006516,0.04180615395307541,0.08471229672431946,0.07298064976930618,0.12752313911914826,0.09746547043323517,0.06493283063173294,-0.033254705369472507,-0.013488298282027245,0.035857755690813068,0.03255927935242653,0.0418081060051918,0.03286822512745857,0.03300009295344353,0.06970921903848648,0.0866570845246315,0.024705298244953157,0.1242910623550415,0.09777279198169708,-0.0090616000816226,-0.029274867847561837,0.06847912818193436,0.08301462233066559,0.42809775471687319,0.06823154538869858,-0.032057419419288638,0.08001693338155747,-0.02388813905417919,0.04805789887905121,0.4359999895095825,0.017900429666042329,0.10302655398845673,0.08946781605482102,0.02401583269238472,-0.06184787303209305,-0.5472440719604492,0.044836729764938357,0.05454341322183609,0.05405043810606003,0.03270053118467331,-0.03762076050043106,-0.0578710101544857,-0.004010481294244528,-0.011420353315770626,-0.027404744178056718,0.08235403150320053,0.06816493719816208,0.7072895765304565,0.030020324513316156,0.023401549085974695,0.03689224272966385,0.0742105022072792,0.12733367085456849,-0.06213505193591118,-0.02785291150212288,0.08479982614517212,0.06201395392417908,0.04995741695165634,0.0642002671957016,-0.2574583888053894,0.054423172026872638,-0.044193267822265628,0.05546095594763756,0.02401076629757881,0.0038019127678126098,0.09618058800697327,-0.007647042628377676,0.0572296679019928,0.1240772232413292,0.03984146565198898,-0.06420081108808518,-0.2946777939796448,0.10722319781780243,0.09716649353504181,-0.029554633423686029,-0.02476091869175434,-0.041778720915317538,-0.07907097786664963,0.05008988082408905,-0.019860979169607164,0.02530716359615326,-0.04065343737602234,0.05832631140947342,0.10834091901779175,-0.0207971278578043,0.05578170344233513,0.027036305516958238,0.10679446160793305,0.023475464433431627,-0.0029095334466546776,0.0033124666661024095,-0.061463337391614917,0.029207581654191018,0.10183241963386536,0.05468099191784859,0.6658923029899597,0.02063613198697567,-0.021601751446723939,0.030456824228167535,-0.003968564327806234,0.11397968977689743,0.06106283515691757,0.05731552839279175,0.056949496269226077,0.08006466180086136,0.03554040566086769,0.01075793243944645,-0.20342203974723817,-0.017607755959033967,0.007818545214831829,0.01987622305750847,0.04319184273481369,0.0894274041056633,0.1807641088962555,0.05724342167377472,0.039266303181648257,0.11207502335309982,-0.016921767964959146,-0.019670981913805009,-0.1792609691619873,0.08204516768455506,0.05158865451812744,0.07731803506612778,0.04570356383919716,0.09255144745111466,-0.14132755994796754,0.012808594852685929,-0.02401808835566044,-0.030109025537967683,0.060566313564777377,0.08825492113828659,0.3639416992664337,0.05368273705244064,0.054683782160282138,0.05698395520448685,0.0363108366727829,0.09534809738397598,-0.2883724868297577,-0.08345429599285126,0.005931244231760502,-0.007766037248075008,0.07277348637580872,0.1900731325149536,0.3468373417854309,0.0812126025557518,0.06413889676332474,0.09073754400014878,0.10036458075046539,0.13206304609775544,0.1039528176188469,0.03111586533486843,0.04049891233444214,0.058972008526325229,0.03763473033905029,0.1426520198583603,0.675131618976593,0.10028956085443497,0.1208634302020073,0.02497236803174019,-0.038369789719581607,-0.17765219509601594,-0.33352044224739077,0.007762342691421509,0.09846808016300202,0.03723248094320297,0.07935084402561188,0.07239282131195069,-0.09897388517856598,-0.029018035158514978,0.1006091833114624,0.07553711533546448,0.0480450876057148,0.11981775611639023,-0.04721144959330559,0.09968240559101105,0.015205876901745797,0.024158503860235215,0.07786455005407334,0.10386684536933899,0.36028000712394717,0.09178639203310013,0.054707255214452746,0.030482694506645204,0.015114935114979744,0.13888439536094666,-0.27275314927101138,0.03953719511628151,0.03439812734723091,-0.06183714047074318,0.018481044098734857,0.24017058312892915,0.352385938167572,0.1355268806219101,0.08321089297533035,0.10832180082798004,0.03454726189374924,0.0272365715354681,0.08400823175907135,0.05186604708433151,0.012871189042925835,0.03473324328660965,0.07893341779708862,0.10766486078500748,0.7462764382362366,-0.005026466678828001,-0.04716368019580841,-0.09683012217283249,0.01033293642103672,0.1452845185995102,0.3983311355113983,0.05793437361717224,-0.06928568333387375,0.05113789811730385,0.014168900437653065,-0.08354955911636353,0.06726598739624024,0.11244647204875946,0.035318031907081607,0.011018022894859314,-0.017646681517362596,-0.041046060621738437,-0.08639159798622132,0.0262908972799778,0.04324367642402649,0.003008099738508463,-0.007268847897648811,-0.030875680968165399,-0.2554984390735626,0.08521707355976105,0.029392804950475694,-0.04842793941497803,-0.00526577141135931,-0.00006635842873947695,0.1636480987071991,0.0060456846840679649,0.013338478282094002,0.06918058544397354,-0.010143168270587922,-0.029462536796927453,-0.22376054525375367,0.11164933443069458,-0.02601088210940361,0.05648186057806015,-0.062168944627046588,-0.03329787030816078,-0.1274561583995819,-0.10154813528060913,0.10791842639446259,0.0692404955625534,0.04046913981437683,0.018746480345726014,-0.013779908418655396,-0.03933201730251312,0.03950106352567673,-0.04105551913380623,0.01366376131772995,0.17790764570236207,0.49598631262779238,0.03526284918189049,0.02721365913748741,0.05112030729651451,-0.012441850267350674,-0.03888491541147232,0.15598422288894654,0.07685226202011109,-0.0357736311852932,-0.08101881295442581,-0.016263624653220178,0.04297815263271332,-0.026790320873260499,-0.026763083413243295,0.04051634296774864,-0.008340749889612198,0.0006538750603795052,0.03824036568403244,-0.30336564779281618,0.07968912273645401,0.13795427978038789,0.07763512432575226,0.07293899357318878,0.02337796613574028,0.16520841419696809,0.049802348017692569,0.06228113919496536,0.04951121285557747,0.014139870181679726,0.027231471613049508,-0.21469727158546449,-0.04384033754467964,0.012591992504894734,-0.014145211316645146,-0.009238079190254212,0.07692258805036545,-0.07095775008201599,-0.045575954020023349,-0.04276656359434128,-0.04000032693147659,0.04457905516028404,0.0623333565890789,0.015161371789872647,-0.02594594843685627,-0.06608325988054276,-0.003131153294816613,-0.04839358851313591,0.0503804087638855,0.1625763326883316,-0.036443814635276797,0.1101284846663475,-0.04660164192318916,0.04364633187651634,-0.061785340309143069,0.22656403481960298,-0.02220245823264122,0.019699467346072198,0.1003631204366684,-0.0705408826470375,0.07649672031402588,0.07823216915130615,0.07135586440563202,0.05459973216056824,0.16076068580150605,0.09773889929056168,0.09683291614055634,-0.02536923624575138,-0.03399062901735306,-0.08906794339418411,-0.025499900802969934,0.007083501201122999,-0.10651081800460816,-0.18676847219467164,0.027185365557670594,0.08039507269859314,-0.09860982000827789,-0.029059570282697679,0.059460654854774478,-0.09073443710803986,-0.006270943209528923,0.08768357336521149,-0.011161535046994686,-0.02591690793633461,0.06943992525339127,-0.04237424582242966,0.010324613191187382,-0.006042923778295517,0.05172809213399887,0.04345535859465599,0.019604789093136789,0.16905203461647035,-0.09980322420597077,0.06598787754774094,-0.009083526208996773,-0.021225422620773317,0.07519864290952683,0.10787199437618256,0.01718086749315262,0.02364552952349186,0.07225234061479569,0.0346473827958107,0.04182271286845207,0.21882614493370057,0.011141789145767689,-0.013864065520465374,-0.04564748704433441,-0.0044081006199121479,-0.01796870492398739,0.012834951281547547,0.030206775292754175,-0.11998546123504639,-0.1155795231461525,-0.09107524901628494,-0.005305329337716103,-0.03702246770262718,0.053192973136901858,0.012946244329214096,-0.009017677046358586,0.04478290304541588,0.14016379415988923,0.5664060115814209,0.05868390202522278,0.06896760314702988,0.0033999253064393999,0.012045972980558873,-0.018388764932751657,-0.11953308433294296,0.10435619205236435,0.12114817649126053,0.07367835938930512,0.01649928279221058,0.029800675809383394,-0.5466108322143555,-0.01693112961947918,0.035792026668787,0.007970180362462998,0.0554187148809433,0.06309116631746292,0.5075362324714661,0.08347843587398529,0.021007684990763665,0.1467127799987793,0.06190045550465584,0.0071700396947562698,-0.2807244062423706,0.06810345500707627,0.05312921851873398,0.051711950451135638,0.01062366645783186,0.027080487459897996,-0.19359850883483888,0.08403236418962479,0.055698104202747348,-0.03859080374240875,-0.02358553186058998,0.007204933557659388,0.0452420748770237,-0.06597578525543213,0.012148991227149964,-0.06726828217506409,-0.10709626972675324,0.09753824770450592,0.007412351667881012,0.048962872475385669,0.020448708906769754,-0.015031804330646992,-0.006971488241106272,0.0988190770149231,0.5599282383918762,0.06652973592281342,0.04437034949660301,0.07773789018392563,0.087054543197155,0.022067688405513765,-0.12509268522262574,0.07151076942682266,0.10543745756149292,0.08180542290210724,0.03793717548251152,-0.016642281785607339,-0.6274142265319824,0.02188507840037346,-0.012550492770969868,-0.02450668439269066,0.024894114583730699,0.02819809690117836,0.5384573340415955,0.04192535951733589,0.04434903711080551,0.0597541406750679,0.08491776883602143,-0.036553334444761279,-0.3225196599960327,-0.00379664427600801,-0.01012510061264038,0.06107344850897789,-0.010545440018177033,0.04681601747870445,-0.2064487785100937,0.024815570563077928,0.044499315321445468,0.04411665350198746,0.061455100774765018,0.001129504875279963,0.1850818693637848,0.06169063225388527,0.009788529947400093,-0.006510469596832991,0.02849169634282589,0.09751472622156143,-0.05429604649543762,-0.015308729372918606,0.01652797870337963,-0.03107675351202488,0.08988980203866959,0.04840498045086861,0.15153947472572328,-0.07687480747699738,-0.05247011035680771,-0.013562124222517014,0.11848324537277222,0.012998685240745545,0.22625255584716798,-0.027744967490434648,0.08496945351362229,-0.06186665594577789,-0.0011308235116302968,-0.039536334574222568,-0.18838581442832948,0.007861915975809098,0.13781258463859559,0.08614493161439896,0.06383751332759857,0.11240386217832566,-0.11013961583375931,0.02454913966357708,-0.02006446197628975,0.03522508591413498,-0.032770030200481418,0.05132316052913666,-0.057382985949516299,-0.06299611926078797,-0.07944032549858093,-0.05955074727535248,-0.07070446014404297,-0.028243649750947954,0.07242885231971741,-0.05180986970663071,0.03982110321521759,0.04783032462000847,0.09828370809555054,0.06734301894903183,0.2674393057823181,-0.040933895856142047,-0.05447553098201752,-0.021957920864224435,0.11406409740447998,0.01060065533965826,-0.13638362288475038,0.03727914020419121,-0.12961924076080323,0.00986130628734827,-0.06746950000524521,0.005527603905647993,0.20987972617149354,0.0005739933112636209,-0.04365401715040207,-0.0032487681601196529,0.0868271216750145,-0.04264172539114952,0.19407805800437928,0.025672324001789094,0.07114572823047638,-0.022207237780094148,-0.013660271652042866,-0.023186244070529939,-0.18938180804252625,0.04880262166261673,0.05836140736937523,-0.061162032186985019,-0.0548291951417923,0.04442956671118736,-0.16415207087993623,0.04736962169408798,0.07927563786506653,-0.0040300339460372929,-0.0012057992862537504,0.008132051676511765,-0.07771153002977371,0.08574032038450241,0.06992781907320023,-0.020935161039233209,-0.05810151621699333,-0.011697477661073208,0.023194188252091409,0.12636682391166688,-0.05539579689502716,-0.010604189708828926,-0.10504202544689179,-0.05972006544470787,0.2021176815032959,0.0427536778151989,0.0050293575040996079,0.16117778420448304,0.07779479771852493,-0.04437119513750076,-0.3891148567199707,0.12467308342456818,-0.0009278004290536046,-0.003680142108350992,-0.07739000767469406,0.033490829169750217,0.1344703584909439,0.09761051833629608,0.06420460343360901,-0.01847941055893898,0.0747157633304596,0.07041240483522415,0.09739059209823609,0.08821132779121399,0.019849564880132676,-0.08068705350160599,0.09027031809091568,0.11910850554704666,0.07758745551109314,0.07708042860031128,0.05271619185805321,0.08999066054821015,-0.0649382472038269,-0.08041942119598389,0.07687418907880783,0.08000300079584122,0.11506004631519318,-0.042413800954818729,-0.09229178726673126,-0.04262122884392738,-0.05953047052025795,0.020706787705421449,0.01858215592801571,-0.001879577524960041,0.10999809950590134,0.020279429852962495,0.08347545564174652,0.10408471524715424,0.0632767602801323,0.09471863508224487,0.010979578830301762,0.014792022295296193,0.05112534388899803,-0.001922254916280508,-0.03515630587935448,0.058075375854969028,0.021638700738549234,-0.04527854919433594,-0.3740934133529663,0.1247197687625885,0.03429128974676132,0.030856793746352197,0.00711076520383358,0.0175593513995409,0.018550699576735498,0.005272516515105963,-0.054835330694913867,-0.017251955345273019,-0.04674871638417244,0.01797868125140667,-0.045388173311948779,0.12041690200567246,0.04759266600012779,-0.043174177408218387,0.040832363069057468,0.02547628991305828,0.09597351402044296,0.03711364418268204,0.06037496030330658,0.05344226211309433,0.061601847410202029,-0.06395940482616425,0.15700608491897584,0.0676327794790268,-0.027595525607466699,0.05832396075129509,0.0574842169880867,-0.02067079395055771,0.08429720252752304,0.05001593381166458,-0.019971739500761033,0.08818556368350983,0.049321241676807407,-0.04164754971861839,-0.07125482708215714,-0.04398626461625099,0.029216218739748,-0.04715738445520401,-0.01685193181037903,-0.023644428700208665,-0.33847159147262576,0.06124936416745186,-0.02783305197954178,-0.000568676448892802,0.020218539983034135,0.012740588746964932,0.27325257658958437,0.11917266994714737,0.07261161506175995,-0.01067278254777193,0.07290437072515488,-0.023916326463222505,-0.035389725118875507,-0.07348817586898804,0.07885335385799408,-0.0525955855846405,-0.06062968075275421,-0.040628936141729358,-0.029828742146492006,0.10086265206336975,0.046260155737400058,-0.016654103994369508,0.11142651736736298,-0.04849203675985336,0.2448793351650238,0.05496418848633766,-0.06953475624322891,-0.030700018629431726,-0.025426311418414117,-0.10610399395227432,0.10679559409618378,-0.03650661185383797,0.07822542637586594,0.03562084585428238,0.0027740057557821275,0.005275924690067768,0.09191428869962692,0.09432029724121094,-0.005947158206254244,0.11460787802934647,-0.017345549538731576,-0.07857806980609894,-0.052270375192165378,-0.049288559705019,0.09172038733959198,-0.007839363999664784,0.05410413444042206,-0.03282425180077553,-0.407047837972641,-0.05944973975419998,-0.05919448658823967,0.04669094830751419,0.0817088782787323,-0.02715585008263588,0.13735689222812653,-0.018432581797242166,0.02839978039264679,0.0723927691578865,0.15390269458293916,0.054611936211586,0.1573106199502945,0.040880199521780017,0.09469527751207352,0.07089705020189285,-0.027826668694615365,0.021169276908040048,0.15763133764266969,0.05051228776574135,0.05270111560821533,-0.0005935006192885339,-0.024060867726802827,0.14934781193733216,0.2815703749656677,0.026713594794273378,0.07882782816886902,0.09278131276369095,0.017796287313103677,0.09189262241125107,-0.1134534403681755,-0.01224589254707098,0.037053439766168597,0.06361304223537445,0.06493820250034332,0.03424975648522377,0.06841312348842621,0.01911976933479309,0.13332915306091309,-0.039267901331186298,-0.019928159192204477,0.10015649348497391,0.14545011520385743,0.0374528206884861,0.0580151192843914,0.0686877965927124,-0.1243036761879921,-0.14963975548744203,-0.260211706161499,-0.05845562741160393,0.028007306158542634,-0.09065075218677521,-0.07409621775150299,0.09975661337375641,0.10023248195648194,0.11790835857391358,0.04460905119776726,0.13761809468269349,0.08007865399122238,0.13890837132930757,0.058309927582740787,0.0008270230609923601,-0.025668058544397355,0.12100618332624436,0.11992032825946808,0.1391669660806656,0.008921667002141476,0.1264612227678299,-0.0038720094598829748,0.11124677956104279,-0.03190567344427109,-0.026393137872219087,0.1602414846420288,-0.026043467223644258,0.09117201715707779,0.06828925013542175,-0.02719491347670555,0.05614630877971649,-0.010560872033238411,-0.0006169574335217476,0.07681218534708023,0.013586270622909069,0.12769122421741486,-0.034986477345228198,-0.006396078038960695,0.0362495519220829,0.033826299011707309,0.06209257245063782,0.0590188167989254,0.15013551712036134,0.14544431865215302,-0.027011245489120485,0.1103232130408287,0.0767168253660202,-0.017913922667503358,-0.0036113294772803785,0.05206742882728577,-0.061868153512477878,0.07628536969423294,0.10349423438310623,0.024397507309913636,0.017683589830994607,-0.18323013186454774,0.11576501280069351,0.0823470950126648,0.015163948759436608,0.03186881169676781,0.0722217932343483,-0.27962833642959597,0.004701336845755577,0.1087990403175354,0.0838533341884613,0.030434533953666688,0.004351332783699036,0.1584487408399582,0.07886091619729996,-0.014440123923122883,0.029822545126080514,-0.04076327756047249,0.12774765491485597,0.22109965980052949,-0.025629445910453798,0.09381559491157532,0.09220480173826218,-0.026360375806689264,0.0652194544672966,0.02897009626030922,0.0756957158446312,-0.0002737854665610939,0.11450548470020294,0.0640837624669075,0.11614207178354263,0.26245248317718508,0.027370046824216844,0.0029582828283309938,-0.014703676104545594,0.0663401335477829,0.006360232830047607,0.05612808093428612,0.0585261769592762,0.1132308691740036,0.0762229785323143,0.07346485555171967,0.04744979739189148,-0.09322051703929901,0.015916572883725168,0.03811933100223541,0.015531111508607865,-0.00901589635759592,0.06537286192178726,-0.16392512619495393,-0.0072754546999931339,-0.017170114442706109,0.10298106074333191,-0.06072300300002098,0.03564231097698212,-0.1721905916929245,0.11387022584676743,0.07863712310791016,0.03088073432445526,0.1373167634010315,0.09073175489902497,0.010462128557264805,0.10020555555820465,0.07008860260248184,0.08089844137430191,0.02976381592452526,0.019328884780406953,0.2269844114780426,0.1183856725692749,0.10106123238801956,0.02134878747165203,-0.04392483830451965,0.06425220519304276,0.0821528211236,-0.04095904529094696,0.0009708220604807138,0.024043573066592218,-0.009573427960276604,0.08043750375509262,0.3533169627189636,-0.03451347351074219,0.04540595784783363,0.03483393415808678,0.014492372050881386,0.0461059994995594,-0.08087315410375595,-0.11375584453344345,0.07689129561185837,-0.0010164808481931687,-0.00761347496882081,0.06634063273668289,0.11199364066123963,0.04019070416688919,0.1632339060306549,0.06854674220085144,0.055038608610630038,-0.04858563095331192,-0.29533514380455019,0.025333775207400323,0.06047447398304939,0.08886198699474335,0.02324538864195347,-0.04935664311051369,0.031287726014852527,-0.05329122766852379,0.06291237473487854,-0.021614832803606988,0.05743835121393204,0.005254262592643499,-0.005755858961492777,-0.0771716833114624,0.014310690574347973,0.04684507101774216,0.04436605051159859,-0.008643006905913353,0.11473159492015839,0.0937063917517662,-0.10552197694778443,-0.07796207070350647,0.02645014226436615,-0.06168752908706665,-0.09102019667625427,-0.040815141052007678,-0.014454458840191365,0.07277871668338776,0.07208807021379471,0.06808307766914368,0.3770577311515808,0.09141320735216141,-0.039300329983234408,0.01898852176964283,0.01892114244401455,0.0878499448299408,-0.09013952314853668,-0.06343666464090347,0.0663728341460228,0.05016617476940155,0.04739109426736832,0.11100753396749497,0.1476830244064331,0.14854133129119874,0.12967205047607423,0.0642702579498291,0.09079592674970627,-0.08203424513339997,-0.2691463232040405,0.11628204584121704,-0.023483114317059518,0.07621829956769943,-0.0570746585726738,-0.06461930274963379,0.04329020902514458,0.07489340752363205,0.03876389190554619,-0.006588788703083992,0.03218106925487518,-0.0749022364616394,0.10745977610349655,0.08126558363437653,0.02465863712131977,-0.006606161128729582,-0.03825649991631508,0.0031812686938792469,0.20267559587955476,-0.04842149093747139,-0.05418819561600685,0.005080134607851505,0.02175755426287651,-0.026449749246239663,0.044619783759117129,-0.09082283824682236,-0.09964004158973694,0.09145559370517731,0.026170391589403154,0.022965313866734506,-0.02421571873128414,0.060834143310785297,0.08186613023281098,0.10060752928256989,0.12528786063194276,-0.05622101575136185,-0.2078799307346344,0.06437873095273972,0.06274828314781189,0.09344860911369324,0.05120251327753067,0.05101710930466652,-0.361380934715271,-0.010529727675020695,0.019284332171082498,0.05314222723245621,0.0074730184860527519,-0.01835845597088337,0.19884206354618073,0.08225627988576889,0.06298474222421646,0.08325698971748352,0.015468278899788857,0.06860652565956116,0.0976565033197403,-0.10519753396511078,-0.06883326172828675,-0.004369311034679413,-0.06698538362979889,0.0024493783712387087,-0.09978540241718292,-0.03300616890192032,0.04822349548339844,0.024117976427078248,-0.01960502192378044,0.128547802567482,0.30620402097702029,-0.0484868586063385,0.030133578926324846,0.0548037588596344,-0.01664699614048004,-0.061198748648166659,-0.008284254930913449,0.0016546663828194142,0.0063478583469986919,0.09855794161558151,-0.032549720257520679,-0.045561280101537707,-0.0018312714528292418,0.04342285171151161,0.11030194163322449,-0.007922313176095486,0.009404229000210762,0.03346065804362297,-0.1784171760082245,0.06775974482297898,0.006231068633496761,0.07635091990232468,-0.0028284620493650438,0.014126701280474663,-0.37398362159729006,0.07398637384176254,0.07086918503046036,0.05285530909895897,0.03987641632556915,-0.07233123481273651,0.12845031917095185,0.1627494841814041,0.07254884392023087,0.028764871880412103,0.07619142532348633,-0.03709661215543747,-0.019055310636758806,0.02456727623939514,0.09633304923772812,0.010869796387851239,0.11017776280641556,0.028789522126317025,-0.3789835572242737,0.05632040277123451,-0.017009496688842775,0.14095823466777802,0.0341087207198143,0.09466556459665299,0.20203526318073274,-0.05402957648038864,0.0653122216463089,0.06527616083621979,0.09351944178342819,0.0017708265222609044,-0.04525173082947731,0.04158908873796463,0.010122123174369336,0.06728000193834305,0.10974813252687454,0.14642567932605744,0.53923499584198,0.04177587851881981,0.08191508799791336,0.10500441491603852,0.06522004306316376,0.07860662043094635,-0.2982865571975708,0.13765181601047517,0.11275479197502136,-0.039090048521757129,0.04134516790509224,0.11754792183637619,0.3026418685913086,-0.011790834367275238,-0.009538598358631134,-0.07490532100200653,-0.09913340210914612,-0.05128633975982666,-0.008947387337684632,0.008450527675449849,0.08865856379270554,0.0002684982609935105,0.0461772158741951,-0.05486775189638138,0.0688297301530838,0.06578149646520615,0.06136292219161987,0.08984871208667755,0.06435572355985642,-0.06967009603977204,-0.49678704142570498,0.060253944247961047,0.010410822927951813,0.04771709442138672,-0.0529196597635746,0.015188194811344147,0.148384690284729,0.029265396296977998,0.08278406411409378,0.05266933515667915,-0.033020712435245517,-0.012534892186522484,0.061337899416685107,0.04602733626961708,0.04169561341404915,0.000041912517190212384,0.059979990124702457,0.0654362216591835,0.4945376515388489,-0.08727987855672836,-0.014293697662651539,0.05576883628964424,0.11787999421358109,0.021237457171082498,-0.279862642288208,-0.03019852377474308,-0.051457516849040988,0.06049834191799164,0.0688570886850357,0.11875420808792114,0.09785899519920349,0.05151727423071861,0.08153422176837921,0.008588587865233422,0.07114843279123306,-0.07517126202583313,-0.559615433216095,0.10108206421136856,-0.04026840999722481,0.04307827726006508,-0.0001528246357338503,0.1272994577884674,0.3019539415836334,-0.0214126817882061,0.0430937223136425,0.0214153453707695,0.01875343732535839,0.10034805536270142,0.23786745965480805,0.0521564707159996,-0.07871276140213013,0.06926678121089935,0.0016716243699193,0.006420298479497433,0.07131175696849823,0.058207858353853229,0.05089859664440155,0.0354265421628952,0.11560004204511643,0.047198887914419177,0.3162594139575958,0.07053980976343155,0.0898137092590332,-0.008114119060337544,-0.03759434446692467,-0.1657239943742752,-0.4113415479660034,-0.10855796933174133,0.03325900435447693,-0.06577168405056,0.019953742623329164,0.10234402120113373,-0.10463742911815644,-0.0821625143289566,-0.06795582920312882,-0.01134791411459446,0.010008512064814568,0.1263495832681656,0.15355759859085084,-0.06399417668581009,0.01048232614994049,0.04300859197974205,0.06518648564815521,-0.06905554234981537,-0.5067211985588074,-0.004582684952765703,-0.03126674145460129,-0.005362531635910273,0.0009503320907242596,0.12211211770772934,0.32161420583724978,-0.05433816462755203,-0.05916565656661987,-0.06815293431282044,0.025125661864876748,0.1570720374584198,0.11786166578531265,-0.020564358681440355,-0.09374861419200897,0.030451763421297075,0.012029334902763367,0.12761293351650239,0.17856594920158387,0.07355400919914246,-0.020688846707344056,0.0698142945766449,0.03944462165236473,0.08460608869791031,0.36656880378723147,0.032553575932979587,0.04536456987261772,-0.090131014585495,-0.0009352415218017995,0.11221123486757279,0.264009565114975,0.04110566899180412,-0.018047381192445756,-0.047155290842056277,0.013982437551021576,-0.08350350707769394,-0.049028050154447559,0.11179495602846146,0.09903503954410553,-0.004532425664365292,0.12573781609535218,0.1364881843328476,0.11176133155822754,-0.05808516591787338,0.036322250962257388,-0.07137510180473328,0.08714593946933747,0.027096880599856378,-0.3274778127670288,0.037411827594041827,0.03701501339673996,0.09795273095369339,0.12098787724971771,0.07627265900373459,0.09848567098379135,0.09541432559490204,-0.07818808406591416,0.08224394172430039,-0.02012212947010994,0.08364040404558182,0.30982786417007449,0.04292837157845497,0.020011048763990403,0.04218686372041702,-0.06382546573877335,-0.005929616745561361,-0.11861655861139298,-0.09225887060165405,-0.04628179594874382,-0.024974163621664048,0.06246718019247055,-0.06787002086639404,-0.038481175899505618,0.02891317941248417,0.013876714743673802,-0.03272510692477226,0.0650288313627243,0.09006508439779282,0.3355168104171753,0.07743076980113983,0.05983125418424606,0.041926220059394839,0.020702511072158815,-0.010457837954163552,-0.016423245891928674,-0.013730870559811592,-0.0009284656262025237,-0.03273598849773407,0.057819683104753497,-0.01336672157049179,0.09488092362880707,0.09628211706876755,0.006265826523303986,-0.034963708370923999,0.1242542490363121,0.04043271392583847,-0.29541802406311037,-0.005203095264732838,-0.04384172707796097,-0.044293757528066638,0.13289868831634522,-0.01146565843373537,0.13923896849155427,-0.05531727895140648,-0.042115554213523868,-0.04557689279317856,0.023265376687049867,0.11273375153541565,0.22297148406505586,0.025931693613529207,0.09306897222995758,-0.03172779083251953,-0.021320927888154985,-0.0013828091323375702,-0.31971314549446108,0.01311429962515831,-0.012070033699274063,0.07228386402130127,0.012577309273183346,-0.041131094098091128,-0.12186815589666367,0.07313410937786102,-0.02820870280265808,0.0031508472748100759,-0.014000577852129937,0.10284430533647537,0.6542116403579712,-0.021860646083950998,0.05866729095578194,-0.02859787829220295,0.06497166305780411,0.06070400029420853,0.34076249599456789,0.08596578240394592,0.09323184937238693,0.11747746169567108,0.01979917287826538,0.051445864140987399,-0.5205080509185791,0.0046450537629425529,-0.043373193591833118,0.037181295454502109,-0.03897150233387947,-0.008740260265767575,-0.023678885772824289,0.1210741475224495,0.0390283465385437,0.03617020323872566,-0.013033876195549965,0.02938268892467022,0.09308503568172455,0.06662597507238388,0.018789712339639665,-0.03117211163043976,-0.017717823386192323,0.03954331576824188,0.06518453359603882,0.01731340028345585,0.0931117981672287,0.054186850786209109,0.05710018798708916,0.018710078671574594,-0.31394848227500918,0.11497759073972702,0.043776944279670718,0.08126578480005264,0.05461883172392845,0.05160307511687279,-0.09719884395599365,0.09391552209854126,-0.07715927064418793,0.02552238292992115,0.016313906759023668,0.13417980074882508,0.7263381481170654,0.05506346747279167,0.05175165832042694,-0.03581050783395767,0.05852562561631203,0.07069765031337738,0.3719725012779236,0.09859699010848999,0.14042071998119355,0.16575084626674653,0.08842121064662934,0.0033182590268552305,-0.5132197141647339,0.03419724106788635,0.042893070727586749,0.0663474053144455,0.028558338060975076,0.02072867937386036,0.019715813919901849,0.13585752248764039,0.11581242829561234,-0.02783145383000374,0.07509420067071915,-0.087783083319664,-0.29464343190193179,0.10775912553071976,-0.012421976774930954,0.02256990224123001,-0.04383592680096626,-0.023648522794246675,-0.06913717091083527,0.07359806448221207,0.11240100115537644,0.05024709925055504,0.12716247141361237,0.022412525489926339,-0.19080650806427003,0.08274542540311814,0.018411166965961458,-0.006574652623385191,0.06775128096342087,0.04851711168885231,0.12509188055992127,0.12783749401569367,-0.02066914550960064,-0.03762537240982056,0.058349642902612689,-0.019110286608338357,0.2358790785074234,0.06507076323032379,0.012232337146997452,0.0503067709505558,0.12435677647590637,0.010374569334089756,0.2555854022502899,0.0511300265789032,-0.031903043389320376,0.07646525651216507,-0.03274182602763176,0.16502371430397035,0.1180008128285408,0.03816710039973259,0.06973247230052948,0.0834662914276123,-0.013494543731212616,-0.083939328789711,-0.023435693234205247,0.08309066295623779,0.14845211803913117,0.04301999509334564,0.1429975926876068,0.00542015116661787,-0.1357468217611313,0.016106581315398217,-0.006933241616934538,0.16207058727741242,0.10058392584323883,0.005406338721513748,-0.06171204522252083,0.052490219473838809,0.10639043152332306,0.08149410784244538,0.08638004958629608,0.05473646894097328,-0.15143945813179017,0.0879819393157959,-0.03167469799518585,0.06235707551240921,0.09040941298007965,-0.02984509989619255,0.06645210832357407,0.060471538454294208,0.06346213817596436,-0.04987136647105217,0.09033061563968659,0.01530071534216404,0.046654582023620608,0.02145252749323845,0.0998154878616333,0.08832205086946488,0.09674707055091858,0.045215800404548648,0.13503101468086244],"WeightsRows":20,"WeightsCols":84,"Biases":[0.06062248349189758,0.012029840610921383,0.11167655140161514,0.039092857390642169,0.10056101530790329,0.06742224097251892,0.08264286071062088,0.08936189860105515,0.0453268438577652,0.062439318746328357,0.10855130106210709,0.04479635879397392,0.07044414430856705,-0.08157817274332047,0.007024913560599089,0.07539758086204529,0.07291211932897568,0.05448877066373825,0.03118656389415264,0.08655649423599243]},{"Weights":[-0.021048443391919137,-0.20745255053043366,0.27502843737602236,-0.11683540791273117,-0.21492958068847657,0.26828303933143618,-0.057584188878536227,-0.2178531140089035,-0.08977489173412323,0.24014559388160706,-0.2808351218700409,0.25461602210998537,0.3187428414821625,0.1261129081249237,-0.08599210530519486,0.5200155377388,0.000687452033162117,0.03506762906908989,0.01593940332531929,0.00768696004524827,0.40204572677612307,0.4815235137939453,0.4006503224372864,0.6347047686576843,-0.06951236724853516,0.4220893383026123,0.10981594026088715,0.6058520674705505,0.21032527089118958,-0.07104847580194473,0.015755243599414827,0.16846159100532533,-0.041927024722099307,0.261192262172699,0.23167823255062104,0.08596399426460266,-0.5308517217636108,0.2079748660326004,-0.12428781390190125,0.0361894853413105,-0.21731087565422059,-0.07917730510234833,-0.07143381983041763,0.15830303728580476,-0.13532663881778718,0.1823740452528,0.011139103211462498,0.052516739815473559,-0.1690448820590973,0.09026098996400833,0.11322198808193207,-0.0617000050842762,0.006326922215521336,-0.013901977799832821,0.0704396441578865,0.028620753437280656,-0.022834623232483865,-0.20235256850719453,0.16167990863323213,-0.10933400690555573,-0.5501980781555176,-0.03609531745314598,0.3905750513076782,-0.37154895067214968,0.6708769202232361,-0.419235497713089,-0.03775298222899437,0.6850429177284241,-0.001451268675737083,-0.4118233323097229,-0.26589497923851015,-0.17809852957725526,0.4596872925758362,-0.44247087836265566,-0.37374916672706606,0.2621975541114807,0.17834259569644929,-0.23269647359848023,-0.1965339630842209,0.4618167281150818,0.2388315051794052,-0.6186571717262268,0.1475820392370224,-0.5854661464691162,-0.1180865615606308,0.38040557503700259,-0.08829756081104279,0.5414783358573914,0.22181405127048493,-0.21371951699256898,0.03449985012412071,0.15835058689117433,0.14661549031734467,0.388320654630661,0.10324268043041229,0.4686976373195648,0.7765655517578125,0.4194399118423462,-0.3896094560623169,-0.02674618363380432,0.07262264937162399,-0.20157389342784882,-0.14154158532619477,-0.0665624663233757,0.055270545184612277,-0.1558123528957367,0.04781140759587288,-0.09273682534694672,-0.08069100975990296,-0.0745415911078453,-0.12453901767730713,-0.024642005562782289,-0.04252914711833,0.13818086683750153,-0.11728785932064057,0.12919804453849793,0.06408567726612091,-0.06370145082473755,-0.09094079583883286,-0.020738042891025544,-0.17490872740745545,-0.0923217386007309,-0.18719258904457093,-0.21226821839809419,-0.16050274670124055,0.21400560438632966,-0.13532622158527375,0.049702540040016177,-0.14876216650009156,-0.17510263621807099,-0.21364381909370423,-0.19966992735862733,-0.15579244494438172,-0.2206030637025833,-0.12735362350940705,-0.21450887620449067,-0.10944139212369919,0.11105240881443024,-0.19965441524982453,-0.057282280176877978,0.21769772469997407,0.12855719029903413,0.10030527412891388,-0.19814133644104005,0.3976418077945709,-0.19981959462165833,0.19749554991722108,0.30832454562187197,0.10525629669427872,-0.5058176517486572,-0.0863853320479393,0.232116237282753,-0.19669762253761292,-0.10186589509248734,0.010842694900929928,-0.3096000552177429,0.35019031167030337,-0.1422441303730011,0.5204373598098755,-0.12058655172586441,0.12807506322860719,-0.08119463175535202,0.4209766983985901,0.11607971042394638,0.00996596459299326,-0.2711740732192993,0.25249651074409487,-0.8983200192451477,-0.01188592053949833,0.16331909596920014,-0.2826552987098694,0.3326689898967743,-0.09413866698741913,0.005346551071852446,-0.35009706020355227,0.4948085844516754,0.5521397590637207,0.22907155752182008,0.6301087737083435,0.141545370221138,0.042780883610248569,-0.10530310124158859,-0.22451812028884889,-0.08418434858322144,-0.008095148019492627,-0.15615788102149964,-0.04975959658622742,-0.18946537375450135,0.13328664004802705,-0.16152410209178925,0.17159906029701234,0.16078686714172364,0.04276910796761513,0.1908852756023407,0.09485229104757309,0.1275743693113327,0.0014593282248824835,-0.08430089056491852,0.17573969066143037,0.18102265894412995,-0.02960667945444584,-0.042824503034353259,0.4766322076320648,0.5308786034584045,0.741035521030426,0.28509533405303957,0.08875124156475067,-0.2643479108810425,-0.2165837287902832,-0.0340324342250824,0.016583601012825967,0.2960795760154724,-0.09212963283061981,-0.19035793840885163,-0.22040221095085145,-0.3411615490913391,0.020446255803108217,0.13338837027549745,-0.48132413625717165,0.01480276882648468,-0.39581215381622317,-0.043811552226543429,-0.37164831161499026,0.08198799192905426,0.5395556688308716,-0.09242898225784302,-0.1826356202363968,-0.26307666301727297,-0.49314507842063906,0.10322035849094391,-0.1887207329273224,0.11606394499540329,0.38473862409591677,0.13686273992061616,-0.13913153111934663,0.24136140942573548,-0.10358789563179016,0.23565928637981416,-0.29931968450546267,0.5038889050483704,0.18130150437355042,-0.1914718747138977,0.034370873123407367,0.1801043003797531,-0.16929277777671815,-0.19550253450870515,-0.20326678454875947,0.012112165801227093,-0.07000861316919327,-0.06194857135415077,0.15053370594978333,-0.1641789823770523,-0.08026978373527527,-0.16863995790481568,0.1414823681116104,-0.08704417943954468,0.03502759709954262,-0.11723513901233673,-0.09755612909793854,-0.17807725071907044,-0.20472608506679536,-0.21744614839553834,-0.09256725013256073,-0.1150394007563591,0.10373452305793762,0.002152492990717292,-0.0068629104644060139,-0.15581175684928895,-0.1302161067724228,-0.09010384231805802,0.016913175582885743,0.01628122851252556,-0.20530271530151368,-0.07958270609378815,0.21728020906448365,0.07787084579467774,-0.08904386311769486,0.14154522120952607,-0.02353164739906788,-0.22262227535247804,0.2030160278081894,-0.18355095386505128,0.13970047235488892,0.010667668655514717,-0.15688811242580415,-0.07308510690927506,0.007738267537206411,0.1482883095741272,0.04749191924929619,0.07247636467218399,-0.0779845118522644,-0.2311917543411255,-0.03603796660900116,0.11013805866241455,-0.003939282614737749,-0.1100318431854248,-0.1615632027387619,-0.011243054643273354,-0.12680423259735108,0.20357203483581544,-0.15438002347946168,-0.3563547134399414,-0.38393014669418337,0.06703841686248779,0.5992603898048401,0.21499359607696534,-0.13959382474422456,-0.10551333427429199,-0.04567450284957886,0.234999418258667,0.2952156364917755,0.30561748147010805,-0.041701242327690127,0.2848791778087616,0.19920678436756135,-0.40675729513168337,0.09959098696708679,0.5358531475067139,-0.3135886788368225,0.006757144350558519,-0.0918937548995018,0.06916675716638565,-0.06314322352409363,0.10351990908384323,-0.14757810533046723,-0.12617434561252595,-0.08025483787059784,0.19095246493816377,0.2135925441980362,0.02182648330926895,-0.02267569489777088,0.11693422496318817,-0.05530671775341034,0.16734018921852113,0.17503021657466889,0.13557712733745576,-0.21837404370307923,-0.19541820883750916,0.15395653247833253,0.10044249147176743,-0.016745535656809808,-0.2584681510925293,-0.6459373831748962,-0.3245777487754822,0.4959787428379059,-0.33897218108177187,-0.14415660500526429,0.11248303204774857,0.16449756920337678,-0.045745402574539188,0.5130874514579773,0.2085893750190735,0.04555974900722504,-0.012838856317102909,0.4672633111476898,-0.36715948581695559,0.19287028908729554,0.21987836062908173,0.5843067169189453,0.1578693985939026,0.2407735139131546,0.3934685289859772,0.33412298560142519,-0.05780338868498802,0.10976715385913849,0.11170049756765366,0.29266270995140078,0.045741934329271319,0.2834399938583374,0.04884866625070572,0.19271080195903779,0.12171724438667298,0.02598641812801361,-0.09362926334142685,-0.22413215041160584,-0.1204608902335167,-0.04686020314693451,-0.035058826208114627,0.5151609182357788,-0.06965750455856323,0.1704346388578415,0.036554038524627689,-0.05892636626958847,-0.016115248203277589,0.06312087178230286,0.010194970294833184,0.20854879915714265,0.1029658392071724,-0.03445299714803696,-0.18471479415893556,0.24121114611625672,0.08890436589717865,-0.0854746550321579,-0.18551886081695558,0.056360192596912387,-0.1020933985710144,0.0036434801295399667,-0.10029077529907227,0.2186785638332367,0.15516719222068788],"WeightsRows":20,"WeightsCols":20,"Biases":[0.09299086034297943,0.05365844443440437,-0.019588163122534753,0.2245965600013733,0.07496100664138794,-0.01799740456044674,0.0009706111159175634,-0.2638980746269226,0.0544922798871994,0.04574122652411461,0.10366528481245041,0.04136612266302109,-0.0020220570731908085,0.0024800666142255069,-0.0393330417573452,0.045349620282649997,0.03127935528755188,0.14960543811321259,0.037422798573970798,-0.0088270902633667]},{"Weights":[0.04033485800027847,-0.4776509404182434,-0.05948491394519806,0.42184144258499148,-1.091818928718567,-0.15391318500041963,-0.016835112124681474,-0.003058431902900338,0.7406315803527832,0.22511306405067445,0.18957242369651795,0.4914488196372986,0.19075648486614228,-0.09361153841018677,0.19098114967346192,-0.22161462903022767,0.01473340392112732,0.18344004452228547,0.19247418642044068,0.1363115757703781,0.3720562756061554,-0.6607354879379273,0.10597559809684754,0.3752712309360504,1.0418472290039063,-0.06564945727586746,0.009739351458847523,0.0577196329832077,0.3442797064781189,0.17184168100357057,-0.8090012669563294,-0.10884826630353928,0.11076095700263977,0.1976991891860962,-0.0705917552113533,-0.14680705964565278,-0.17754150927066804,0.23890751600265504,-0.14951707422733308,-0.12188757956027985,-0.14603185653686524,0.23338142037391663,0.12559263408184052,0.8708214163780212,-0.1200028732419014,-0.013386874459683895,0.09521763026714325,-0.13941654562950135,-1.1078135967254639,0.04426640644669533,0.32474005222320559,0.4610859751701355,0.1792220175266266,-0.1604786366224289,-0.003119559958577156,0.30946803092956545,-0.10477090626955033,-0.10321200639009476,-0.3237040340900421,-0.20299316942691804,0.3069344162940979,0.13049352169036866,-0.07878680527210236,-1.0476044416427613,-0.0032753217965364458,-0.03330429270863533,0.07823242992162705,-0.7558774352073669,0.1988344043493271,0.0018069809302687646,0.16256216168403626,0.5398945808410645,0.066597580909729,0.1655348837375641,0.2020161747932434,0.7477718591690064,-0.09352418035268784,0.12417887151241303,-0.30712568759918215,-0.22820736467838288,-0.4265174865722656,0.2355884313583374,0.001695041311904788,-0.4294954836368561,-0.427619069814682,-0.003100376343354583,-0.22117312252521516,0.6517899632453919,-0.4577217400074005,0.24498169124126435,-0.4774433374404907,-0.426874041557312,-0.0774860680103302,-0.17692597210407258,0.05714485049247742,0.23826830089092256,0.15908440947532655,1.0904818773269654,0.37452563643455508,0.07319457083940506,0.34848639369010928,0.9170945882797241,0.026944072917103769,-0.18866489827632905,-0.19006359577178956,-0.007795721758157015,-0.19077029824256898,-0.007232590112835169,0.04460631310939789,-0.22709287703037263,-0.18787425756454469,-0.5889143347740173,-0.1751261204481125,-0.11654569953680039,0.14817243814468385,-0.7618574500083923,0.041689660400152209,-0.7463354468345642,0.4402291476726532,-0.05789921060204506,-0.20000684261322022,-0.12765435874462129,-0.027836183086037637,-0.10698064416646958,0.09179029613733292,0.05421404540538788,-0.0678955540060997,0.5710874795913696,0.38731110095977785,-0.13520315289497376,0.7337307333946228,-0.30616915225982668,0.040938638150691989,0.02438131533563137,-0.025990311056375505,0.3293302655220032,-0.2815108001232147,-0.056198056787252429,0.15830305218696595,0.012365464121103287],"WeightsRows":7,"WeightsCols":20,"Biases":[0.1481194794178009,-0.1987970769405365,-0.1985761821269989,0.11371342092752457,0.14995822310447694,0.1417352706193924,-0.15614502131938935]}]}