{"Layers":[{"Weights":[0.0011429140577092767,-0.014420885592699051,-0.09723704308271408,-0.07280994206666947,0.09260924160480499,0.08706172555685044,0.08309825509786606,0.10076908022165299,-0.04518091306090355,-0.05256403237581253,0.02448923885822296,0.025311611592769624,-0.005380092188715935,0.05974029004573822,-0.09227661788463593,0.04357463866472244,-0.02922889217734337,0.054192207753658298,-0.05760461837053299,0.006604171823710203,-0.11041956394910813,0.07659079134464264,-0.08944794535636902,0.11238307505846024,-0.04069366678595543,-0.0415654182434082,-0.10384336858987808,0.03866971284151077,0.08866257965564728,0.03575044870376587,0.10276009142398834,-0.07509870082139969,-0.09234805405139923,0.024672525003552438,0.1019592136144638,0.038706447929143909,-0.0951990932226181,-0.05304049327969551,-0.005584399215877056,-0.012761215679347515,0.06758976727724076,0.006350920535624027,0.0782720297574997,0.10880978405475617,0.07052585482597351,0.09680166840553284,-0.02338634431362152,0.09457407891750336,0.02146504633128643,-0.09147311002016068,0.007398610934615135,0.017216769978404046,0.03834901377558708,0.03194498270750046,-0.0809483528137207,0.0484391450881958,0.07767657190561295,0.061831697821617129,-0.09241640567779541,-0.04774454981088638,-0.05348687991499901,-0.07582873851060868,-0.05196992680430412,0.034683313220739368,-0.07556764781475067,-0.07137872278690338,0.0867488831281662,0.07225373387336731,-0.1103799045085907,0.0006137916352599859,0.01769139990210533,0.08692706376314163,0.09094470739364624,0.023998403921723367,-0.07330944389104843,-0.07840096205472946,0.06642843037843704,0.027013175189495088,0.10352090746164322,-0.0493539534509182,0.0817410796880722,0.03316788375377655,0.05150527134537697,-0.04779871180653572,-0.04515833407640457,0.0936010405421257,-0.048536401242017749,0.022140687331557275,0.07400105148553848,-0.09829200804233551,0.008211074396967888,0.044045478105545047,-0.009437295608222485,0.006699230056256056,0.08584903180599213,0.005802713800221682,-0.06924348324537277,-0.08645853400230408,-0.004648205358535051,-0.054682496935129169,0.08204574882984162,-0.06239474564790726,-0.05122878775000572,-0.05257963389158249,-0.10518372058868408,-0.011088285595178604,0.09353046119213104,-0.05657676234841347,-0.06668272614479065,0.034134700894355777,-0.08619397133588791,0.053317297250032428,-0.07883564382791519,0.007698847446590662,-0.04048151150345802,-0.05607786402106285,-0.03661894425749779,0.010470692068338395,-0.10215571522712708,0.050048939883708957,0.02141282893717289,-0.06170760095119476,-0.01625925861299038,-0.022418977692723275,0.045948576182127,0.03130429983139038,-0.08946183323860169,0.052634790539741519,-0.012713119387626648,0.0401943139731884,-0.06942233443260193,0.023469582200050355,-0.074823297560215,-0.05236700177192688,-0.09112639725208283,0.022640038281679155,0.10499827563762665,0.07544703781604767,-0.10791119933128357,-0.04635109752416611,0.10239695757627487,0.0522066205739975,-0.04839186370372772,-0.001657673274166882,-0.04116048291325569,0.08102254569530487,0.04538382217288017,0.06450125575065613,0.07584767043590546,0.07594761997461319,0.003060690825805068,0.037209659814834598,-0.09437261521816254,-0.08076829463243485,0.04571455344557762,-0.053708940744400027,0.012790788896381855,-0.007240721490234137,0.07870607078075409,-0.06539733707904816,0.03552179038524628,-0.07122963666915894,-0.03678319603204727,0.045681487768888476,-0.08849672228097916,0.09113143384456635,0.03388598561286926,0.09566725045442581,-0.05772194638848305,0.015130127780139447,0.006121164653450251,0.07801715284585953,0.017199134454131128,0.03923618048429489,-0.00828581303358078,0.01650041714310646,-0.00007929746061563492,0.020863473415374757,0.02496621198952198,-0.008499491959810257,-0.006738297175616026,-0.001167038339190185,0.004295778926461935,0.02332765981554985,0.06862635910511017,0.026003973558545114,0.06638852506875992,-0.10533758997917175,0.009636403992772103,-0.071433424949646,-0.09302858263254166,-0.08426641672849655,-0.07675787061452866,0.03265220299363136,0.010944933630526066,0.08509162813425064,0.011294471099972725,0.053319938480854037,-0.0714598298072815,0.02829369157552719,-0.05964384973049164,0.0396106094121933,0.06696003675460816,0.02477637492120266,-0.019059697166085244,-0.08549674600362778,-0.03110548108816147,0.10975126922130585,-0.0059544602409005169,0.08877648413181305,-0.07443390786647797,-0.023850057274103166,0.09765978157520294,0.06476391851902008,-0.028317715972661973,0.09340494871139527,0.025724349543452264,0.07038860768079758,0.027898820117115976,0.055048614740371707,0.0722903311252594,0.10817921161651612,-0.06481710076332092,-0.08010387420654297,-0.026070427149534227,0.09596031904220581,-0.018185900524258615,0.0643479973077774,0.09061919897794724,-0.028343848884105684,-0.08185518532991409,-0.037197064608335498,-0.019148794934153558,0.02745865285396576,-0.019603846594691278,0.0043099611066281799,0.0299221184104681,0.07953380793333054,0.005866524297744036,-0.017863761633634568,-0.016079191118478776,0.10085597634315491,0.00969933345913887,-0.014163152314722538,0.08055757731199265,-0.06649159640073776,-0.0870693102478981,0.08694705367088318,-0.04849356785416603,0.06386806070804596,-0.015395661816000939,-0.11963112652301789,-0.009070693515241146,-0.02950116991996765,-0.004559899214655161,-0.075004443526268,0.10436044633388519,0.07504574209451676,-0.05036552995443344,0.0779447928071022,-0.07154735922813416,-0.06244658678770065,0.003461888525635004,-0.0842597559094429,-0.07771816104650498,0.03810707852244377,0.019482379779219629,-0.09180615842342377,0.010747430846095086,0.012372109107673169,0.036620792001485828,0.07823975384235382,-0.030415937304496766,0.029339490458369256,0.10238401591777802,-0.07264517992734909,-0.057346243411302569,0.02916627749800682,-0.025101736187934877,0.011615674011409283,0.03812917321920395,-0.011355488561093808,-0.027589360252022744,-0.07017914205789566,-0.05223143845796585,0.03700460121035576,0.0722443088889122,-0.065970778465271,0.09355394542217255,0.026523612439632417,-0.02322649210691452,0.026609444990754129,-0.06927426904439926,0.08449508994817734,-0.09046463668346405,-0.06106036901473999,0.03620002791285515,-0.015671856701374055,-0.09118050336837769,-0.03779665008187294,0.02861376665532589,0.10450316965579987,-0.07007782906293869,-0.08503158390522003,0.011829542927443982,-0.09321202337741852,0.04961131885647774,0.05616721138358116,-0.10365188121795654,0.03431962430477142,0.11339902132749558,0.02800767868757248,-0.10291067510843277,0.0697011798620224,0.020269621163606645,-0.08856340497732163,-0.03160489723086357,0.046940673142671588,0.05947403237223625,0.043463192880153659,0.01437672134488821,-0.03283204510807991,-0.09510619193315506,0.01031506061553955,-0.03827914223074913,0.09006050229072571,0.0766589418053627,0.025941062718629838,-0.0669410452246666,-0.0034077579621225597,0.03155359625816345,-0.07032930850982666,0.0269077867269516,-0.03178762272000313,0.11142522096633911,0.10206957161426544,-0.047051332890987399,-0.03692112863063812,-0.033805690705776218,-0.01711091585457325,-0.025716470554471017,0.06334634870290756,0.04598919302225113,-0.008480583317577839,-0.02422581985592842,-0.05976402759552002,-0.03987179324030876,-0.024252215400338174,-0.035037580877542499,0.008622565306723118,-0.04608840495347977,-0.10062246024608612,-0.018289249390363694,-0.020622607320547105,-0.10730046778917313,-0.023919666185975076,0.09294869750738144,0.02475189045071602,0.011789481155574322,0.0588054284453392,0.10223223268985748,0.005006477702409029,0.11173658818006516,0.008541912771761418,-0.028003759682178499,-0.014578776434063912,0.09592819958925247,0.020065179094672204,-0.026303721591830255,-0.09737583994865418,0.03209555894136429,0.0075401365756988529,0.03395984321832657,0.006200374569743872,0.0009554494172334671,0.07801809906959534,-0.07855197042226792,-0.09608007222414017,0.013673566281795502,0.014396332204341889,-0.013453125953674317,0.07577089965343476,0.06806857883930206,0.08257696777582169,-0.007729742676019669,-0.10218703746795654,-0.05638507381081581,0.07026665657758713,-0.024378947913646699,-0.03194590285420418,0.10889798402786255,0.025215700268745424,0.019646968692541124,-0.0012472155503928662,-0.016193782910704614,0.1334560066461563,0.06913409382104874,0.03921809047460556,0.12421105802059174,-0.004819492343813181,-0.09526648372411728,0.08949510753154755,0.017468107864260675,-0.039962925016880038,0.10009203851222992,0.026452673599123956,0.024844394996762277,0.008356898091733456,0.01609315723180771,0.07273755222558975,-0.06211021542549133,0.026889344677329065,-0.04574958607554436,-0.0871984139084816,-0.015767371281981469,-0.058045849204063418,0.10929775983095169,0.07984791696071625,0.05862754210829735,-0.08121169358491898,0.06650333851575852,0.00828758254647255,0.07343892753124237,-0.06681599467992783,0.06167647987604141,-0.03787210211157799,-0.03163128346204758,0.04730286821722984,0.017877090722322465,0.09969305247068405,0.08127984404563904,-0.12357693165540695,0.033839333802461627,-0.07706637680530548,-0.10013949126005173,-0.07282167673110962,0.011018600314855576,0.10575053840875626,-0.09792926162481308,0.051280677318573,0.01656262017786503,0.06624387949705124,-0.003186294576153159,0.04328122362494469,0.08436178416013718,0.01326514407992363,0.02351917140185833,0.02596817910671234,-0.0703016147017479,0.02406999282538891,0.015437858179211617,-0.01051289215683937,0.06547786295413971,0.016459105536341668,-0.06172548234462738,-0.019862797111272813,-0.005386740900576115,-0.05239955335855484,0.008364817127585411,-0.06670896708965302,-0.0571843720972538,0.049293871968984607,-0.061549603939056399,0.06302644312381745,-0.04128575325012207,-0.0670931488275528,0.006292261183261871,0.06850959360599518,0.08093254268169403,-0.06102951616048813,-0.05694887042045593,-0.0426458902657032,-0.01795114576816559,0.08232692629098892,0.07093971222639084,-0.051566097885370257,0.1098119392991066,0.10098155587911606,-0.02854272536933422,-0.09677828848361969,0.0042845807038247589,0.023083435371518136,0.025639699772000314,-0.07473774999380112,0.004265516065061092,-0.012888891622424126,0.09548867493867874,0.07963407784700394,0.04036543145775795,0.02728365920484066,-0.09117744117975235,-0.07474268227815628,-0.057182375341653827,-0.05328744649887085,-0.027823172509670259,-0.06487167626619339,0.006277194246649742,-0.06502139568328858,0.05319005995988846,-0.05708594620227814,-0.10572586953639984,-0.005833529867231846,0.10001297295093537,0.11647012829780579,0.04781588912010193,0.0018160081235691906,-0.053846344351768497,-0.024055592715740205,-0.07496680319309235,-0.06134214624762535,0.05999741330742836,0.04768015444278717,0.08302029222249985,0.027592826634645463,-0.09113206714391709,0.10056594759225846,0.11209966987371445,0.07873029261827469,0.07639651000499726,0.06093265488743782,0.03154059872031212,0.10513301193714142,-0.020053619518876077,-0.02790064737200737,-0.09494796395301819,0.1122690811753273,-0.002536654006689787,-0.013204999268054963,0.028030438348650934,-0.016675734892487527,-0.08705662190914154,0.11143476516008377,-0.07241414487361908,0.09839222580194473,0.004728041123598814,0.0010023972718045116,-0.038896817713975909,-0.06781160831451416,0.014487328939139843,0.007777959108352661,-0.028518008068203927,-0.04702330753207207,0.0401189886033535,0.05195704102516174,0.006041217595338821,-0.12106151133775711,0.038081586360931399,-0.024468302726745607,-0.046280547976493838,-0.06477391719818115,0.009585760533809662,-0.06313805282115936,0.05188757926225662,0.020861536264419557,-0.004882894456386566,-0.0663112923502922,0.01976921409368515,0.07064373791217804,-0.020457884296774865,0.14443297684192658,-0.02275020442903042,0.042133960872888568,0.053527746349573138,0.013890222646296025,-0.08812464773654938,-0.07095276564359665,-0.04270530119538307,0.08356925845146179,0.03595617786049843,-0.07542277127504349,0.00020307775412220508,0.0770198330283165,0.09999449551105499,0.028609586879611017,-0.10627447068691254,-0.025122646242380143,-0.015948794782161714,0.11179115623235703,0.040266428142786029,-0.048214707523584369,-0.07974640280008316,-0.08500049263238907,-0.07453608512878418,0.07036441564559937,0.08915332704782486,0.07442442327737808,-0.0414908267557621,-0.05472547560930252,-0.09742515534162522,0.03011266328394413,-0.0453694686293602,0.026198992505669595,0.006800811272114515,0.09853168576955795,0.015359465964138508,0.028460584580898286,0.06937018036842346,0.06332170218229294,0.011991600506007672,-0.08905085921287537,0.10215570777654648,0.07593413442373276,0.10195333510637284,-0.01444185245782137,0.12517622113227845,0.09869436919689179,-0.03472469374537468,-0.04406912997364998,-0.04424809291958809,-0.08066114783287049,-0.09743540734052658,0.03540795296430588,0.024767260998487474,-0.03318467736244202,0.027175482362508775,-0.0679447278380394,0.03854483738541603,0.07900239527225495,-0.0025220082607120277,0.09850852191448212,-0.03179432824254036,0.10190015286207199,-0.04725963622331619,-0.06263646483421326,0.05059242993593216,0.022575052455067636,-0.04448461905121803,0.06769894808530808,-0.07433107495307923,-0.08125744760036469,0.06070348247885704,0.05357515811920166,-0.08397473394870758,0.03551597520709038,-0.00822710245847702,0.040715645998716357,0.025125652551651,-0.09766781330108643,-0.021301306784152986,-0.005154636222869158,0.013466103002429009,-0.08800213783979416,0.09892523288726807,-0.06643447279930115,0.038496654480695727,0.06359441578388214,-0.020773958414793016,0.07579557597637177,0.08061812818050385,0.019448401406407357,0.005152648314833641,-0.001881906297057867,0.13801182806491853,0.04816778004169464,-0.040924277156591418,0.0838865414261818,0.09655795991420746,0.080530546605587,-0.09465590864419937,-0.09277805685997009,-0.09492972493171692,-0.006718369200825691,-0.07332880795001984,-0.0944771096110344,0.07915773242712021,-0.11362390965223313,-0.08220567554235459,0.10612820088863373,-0.03979744389653206,-0.017839979380369188,-0.007662496995180845,-0.08148600161075592,-0.08725772798061371,-0.10257900506258011,0.04327185079455376,-0.012834528461098671,0.01455505657941103,0.054563093930482867,0.015054278075695038,0.10143115371465683,0.07161237299442291,-0.009459861554205418,0.015523681417107582,0.08698848634958267,-0.10226224362850189,-0.06547324359416962,0.05357399955391884,0.08281509578227997,-0.02237471379339695,-0.09710213541984558,-0.08822178840637207,-0.06951330602169037,0.022672059014439584,0.008415610529482365,0.05756404995918274,-0.073443703353405,-0.09512122720479965,-0.04617758095264435,0.05508553236722946,-0.06251120567321778,-0.04833829030394554,0.03790026903152466,0.05185084417462349,-0.07050773501396179,0.0387302003800869,-0.07662612944841385,0.003648926969617605,-0.05664798617362976,-0.061284419149160388,-0.04788019508123398,-0.024168286472558976,-0.04641779512166977,-0.06095350533723831,0.027937743812799455,-0.04945334792137146,-0.09152959287166596,-0.08958755433559418,0.07850627601146698,-0.10010293126106262,0.0818888247013092,-0.09295520931482315,-0.08202982693910599,-0.009318448603153229,0.01709507592022419,0.06779401004314423,-0.08972972631454468,0.0833309069275856,-0.0874624252319336,-0.07116582989692688,-0.09883490949869156,0.04816365987062454,0.03164449334144592,-0.035697419196367267,0.02382894791662693,-0.09241487085819245,-0.06874097883701325,-0.05386926606297493,0.004089907743036747,0.01960078999400139,-0.06845154613256455,0.005490408744663,0.0373041108250618,0.060997992753982547,0.0910257026553154,0.00931476429104805,-0.03665696829557419,-0.03920096531510353,0.044200193136930469,0.04809785634279251,-0.10190492123365402,0.07112343609333039,-0.012292266823351384,0.10350536555051804,0.05723930895328522,-0.06342515349388123,-0.08818772435188294,0.054106973111629489,0.06209896132349968,0.091584213078022,-0.0037742468994110824,0.08781404048204422,0.09739793837070465,0.07288842648267746,0.08167539536952973,0.03683588653802872,0.007195047102868557,0.03270821273326874,0.008904525078833104,-0.01013027224689722,-0.07023609429597855,0.012634786777198315,-0.02469569817185402,0.08820369839668274,0.07339872419834137,-0.036088183522224429,0.10135895758867264,-0.0555318221449852,0.08039680123329163,-0.09732265770435333,0.02686416544020176,0.04859213903546333,-0.09232547879219055,0.03705570101737976,-0.03497876599431038,-0.03810925409197807,0.08890759199857712,0.08431902527809143,-0.08250359445810318,-0.09114087373018265,-0.0017229827353730798,0.0060162921436131,0.0029992356430739166,0.04469151422381401,0.029956921935081483,-0.04364008828997612,-0.07361596822738648,-0.062545545399189,-0.10157142579555512,-0.08915553987026215,0.0302240252494812,-0.09048488736152649,0.0033516287803649904,0.032511379569768909,0.025346782058477403,-0.027585357427597047,-0.10032054781913758,-0.010676675476133824,-0.08339310437440872,0.02884053997695446,0.07303626835346222,-0.10031116753816605,-0.09315190464258194,0.03527793288230896,-0.061187468469142917,-0.04604189842939377,-0.026302164420485498,0.08161568641662598,0.02429036982357502,0.08968010544776917,-0.03325464949011803,-0.10072904080152512,-0.09083538502454758,-0.05957978963851929,0.04293930158019066,0.09415099024772644,-0.03661002963781357,0.06247605010867119,0.052446067333221439,0.07394253462553024,-0.01769605651497841,0.04003426805138588,-0.017631888389587404,-0.06686846166849137,-0.10738019645214081,-0.06230004504323006,-0.043378617614507678,0.10144183784723282,-0.08414434641599655,-0.07808215171098709,-0.0036359664518386127,-0.062417518347501758,-0.04504091665148735,0.05853569507598877,0.030502166599035264,-0.04554641246795654,-0.0273264292627573,-0.008840378373861313,-0.0466420017182827,0.06209166720509529,0.10263138264417649,-0.07157368957996369,0.0007453418802469969,-0.034739989787340167,0.11155162006616593,0.10791812837123871,0.004662268329411745,-0.047994229942560199,-0.10395289212465286,0.09576413035392761,-0.0014450999442487956,-0.08322637528181076,-0.02413173019886017,0.10764657706022263,0.035455599427223209,0.0903659462928772,-0.08230918645858765,-0.1060592383146286,-0.03548451140522957,0.10376239567995072,0.11589962244033814,-0.025690382346510888,0.009510171599686146,0.05455740913748741,0.048370059579610828,-0.09236583858728409,0.04887757450342178,-0.050111185759305957,-0.02709146961569786,-0.0064334566704928879,0.11310052126646042,-0.09348393231630326,0.08965716511011124,-0.00787092000246048,-0.015750020742416383,0.0432119145989418,0.02606506645679474,-0.03382432460784912,0.10118797421455383,0.04482463002204895,-0.029173795133829118,0.06877496093511582,-0.03201514109969139,0.07205763459205628,0.0063160015270113949,-0.0595332495868206,0.008168785832822323,0.08125773072242737,0.015740931034088136,-0.09751024097204209,0.007476340513676405,-0.061071425676345828,0.029018860310316087,0.05241801217198372,-0.058526068925857547,0.07128075510263443,0.06723498553037644,-0.07474125176668167,0.04676559567451477,0.07413095980882645,-0.10433964431285858,0.09385839849710465,-0.03840825706720352,-0.01564544066786766,0.03730189427733421,0.09012240171432495,0.11574190855026245,0.07106858491897583,0.09542302042245865,0.10469424724578858,0.034706249833106998,0.03558729588985443,-0.0161359291523695,-0.02623913809657097,-0.10704877227544785,-0.06251686066389084,-0.09708898514509201,-0.06731925159692764,0.013783293776214123,0.07158347219228745,-0.03222072124481201,-0.011200685985386372,-0.07452916353940964,0.011265100911259652,-0.07184330374002457,0.02664053998887539,0.02080143615603447,-0.08492870628833771,-0.03466889262199402,0.0013536229962483049,0.014623173512518406,-0.0859440490603447,0.003867845283821225,0.015618494711816311,-0.015759553760290147,0.028872454538941385,0.09653496742248535,0.0916161760687828,0.09691348671913147,0.035462766885757449,-0.06027056276798248,0.062030863016843799,-0.0442102886736393,0.086236372590065,-0.03243939206004143,0.04132234305143356,-0.05434436351060867,-0.11623932421207428,-0.07172787189483643,-0.08220534026622772,-0.07862824946641922,0.03667856752872467,0.08931420743465424,-0.04068592190742493,0.006124868988990784,0.06931918859481812,0.04567503556609154,-0.012056142091751099,-0.08797824382781983,0.0649651363492012,-0.07062044739723206,0.055718883872032168,0.05177668482065201,-0.006308403797447681,0.08212991803884506,-0.014704983681440354,-0.0026034172624349596,-0.10659981518983841,-0.008227553218603135,-0.004076136741787195,-0.051345035433769229,0.06152314692735672,0.09381233155727387,0.02155381813645363,0.07085244357585907,-0.04174978286027908,0.049406878650188449,0.017282266169786454,-0.09970323741436005,-0.012364470399916172,0.10660430043935776,0.06339771300554276,0.08690866827964783,0.1108550950884819,-0.09281764179468155,-0.0896453857421875,-0.04874932020902634,-0.09456309676170349,0.03933318704366684,0.09160313010215759,-0.10976948589086533,-0.054815247654914859,0.08499040454626084,-0.08424802869558335,-0.1077936440706253,-0.03487492725253105,0.058930154889822009,-0.09157810360193253,0.07683264464139939,0.06925265491008759,0.09005969017744065,-0.02294471301138401,0.09667617827653885,0.044831354171037677,-0.040540486574172977,-0.09257671236991883,-0.032693859189748767,-0.08987452834844589,-0.041880931705236438,-0.10773313045501709,0.035337064415216449,0.0958230197429657,-0.07301487773656845,0.0017135533271357418,-0.059106260538101199,-0.09500149637460709,0.1032356321811676,-0.029779044911265374,-0.03226837143301964,-0.019074227660894395,0.018487559631466867,-0.10010533779859543,-0.08442232757806778,0.08405037224292755,-0.043881479650735858,-0.03651880845427513,0.07102135568857193,-0.02562844380736351,0.10196729004383087,-0.07498537003993988,0.06806861609220505,0.09073939919471741,-0.06504688411951065,0.07683660089969635,-0.06924852728843689,0.01926432177424431,-0.016706150025129319,0.08328850567340851,-0.08219893276691437,-0.0652473121881485,-0.037955060601234439,-0.10310348868370056,0.08076943457126618,-0.01745828613638878,-0.016903650015592576,0.09286630898714066,0.10589233040809632,0.09821603447198868,-0.024887798354029657,-0.01045178435742855,-0.016476573422551156,-0.04668766260147095,-0.07429922372102738,0.08777868002653122,-0.048661328852176669,-0.05773954838514328,-0.06239665299654007,-0.006448520813137293,-0.05091314762830734,-0.10180874913930893,-0.019915122538805009,-0.007730767596513033,0.11013228446245194,-0.048674628138542178,0.04890357330441475,0.008596815168857575,-0.011216146871447564,0.005158118437975645,0.03990861400961876,0.06226230785250664,0.06286664307117462,0.07073917984962464,0.01054625678807497,0.07042024284601212,0.02783161774277687,0.02575715072453022,0.07578215003013611,-0.08909393846988678,0.04539763554930687,-0.10242294520139694,0.045220814645290378,0.0607924722135067,-0.05453125387430191,-0.10177802294492722,0.00881319772452116,-0.026823977008461953,-0.08448127657175064,-0.019615383818745614,-0.08222899585962296,0.029729953035712243,0.10192089527845383,-0.11092602461576462,-0.062251538038253787,0.019243862479925157,0.051624298095703128,0.032470427453517917,0.05524164438247681,0.07853294909000397,0.02923135831952095,0.080564484000206,0.01960820145905018,0.01618926040828228,0.0024371822364628317,-0.0955183282494545,0.02980472892522812,0.09544042497873306,0.05486682057380676,-0.017640896141529084,0.009930767118930817,-0.013657460920512677,-0.019704965874552728,0.060522593557834628,-0.035296157002449039,-0.0422174446284771,-0.03865209221839905,0.004632451571524143,-0.09084472805261612,0.018165191635489465,-0.05326728895306587,-0.05707871541380882,0.021819977089762689,0.047542769461870196,-0.008822564966976643,0.011684182099997998,0.03404904901981354,0.055685847997665408,0.1020602136850357,0.05906730517745018,-0.06953510642051697,0.06162259727716446,-0.08080890774726868,0.04582306370139122,0.05375766009092331,0.09349201619625092,-0.019621552899479867,-0.0020715640857815744,-0.03173947334289551,0.052530866116285327,-0.05435624346137047,-0.060485679656267169,0.044938601553440097,0.0010993194300681353,-0.03604210540652275,-0.05086587741971016,0.010018009692430497,-0.0127440569922328,-0.05558140203356743,-0.08360131084918976,-0.08584526926279068,0.049493566155433658,-0.06531787663698197,0.022312482818961145,-0.04985804110765457,0.1039533019065857,0.06315901130437851,-0.008742177858948708,-0.052127134054899219,-0.005651830229908228,-0.012370205484330655,-0.09081442654132843,-0.003244941821321845,-0.0922515019774437,-0.11201539635658264,0.07812517881393433,0.003926791716367006,0.10646739602088928,-0.02818441204726696,0.05435144156217575,0.04542616382241249,-0.10371438413858414,0.03646872192621231,-0.01671420969069004,0.07677856832742691,-0.1107143983244896,0.017917541787028314,0.01015209686011076,-0.07059361040592194,-0.014987674541771412,0.00716412765905261,-0.007147863507270813,0.00015187624376267195,0.08938629925251007,-0.08276671916246414,0.10189389437437058,-0.02541133016347885,-0.02977503277361393,-0.019659368321299554,-0.10613887757062912,-0.023393534123897554,0.037286996841430667,0.035928480327129367,0.09501945972442627,-0.07273848354816437,-0.055924635380506518,-0.044137630611658099,0.08030436187982559,0.05348425731062889,-0.06453271210193634,0.09724488854408264,0.10401838272809982,0.0756521224975586,0.09752902388572693,0.08166670799255371,0.050867628306150439,-0.03224804252386093,-0.11360476911067963,-0.10320398956537247,0.04146653413772583,-0.01131866592913866,-0.012663692235946656,-0.02067871391773224,0.05914152413606644,0.04185480996966362,-0.06051936745643616,-0.004508063197135925,0.07209943979978562,-0.029873132705688478,-0.13219107687473298,-0.03506385162472725,-0.04054888337850571,0.038406793028116229,0.018176119774580003,0.06092189624905586,-0.09928169846534729,0.07207141071557999,0.06385072320699692,-0.010331226512789727,0.012357885017991066,0.0771976113319397,-0.019584765657782556,0.013677206821739674,0.09251262247562409,0.10672727227210999,-0.08298598229885102,0.02919108420610428,-0.0004455219896044582,0.018862072378396989,-0.07539021968841553,-0.046021413058042529,0.04395075887441635,-0.05598406493663788,-0.10941805690526962,0.07433972507715225,-0.0045832484029233459,-0.09299072623252869,-0.047640349715948108,0.09859935939311981,0.011599774472415448,-0.06494680047035217,-0.06542149186134339,-0.10336934030056,-0.03357855975627899,-0.033105891197919849,0.08204399794340134,0.05002695694565773,0.05541548877954483,0.08124947547912598,-0.05191609635949135,0.10051541030406952,-0.023932388052344323,-0.014950985088944435,-0.029056334868073465,0.019220083951950074,-0.06523513048887253,0.025176556780934335,-0.07376642525196076,-0.09821788221597672,0.014635690487921238,0.09748223423957825,0.0943303182721138,0.08245193213224411,-0.10292539745569229,-0.04017243534326553,-0.007194435223937035,0.09162557870149613,0.022386806085705758,-0.05290989205241203,0.0715097039937973,-0.08530004322528839,-0.07232572138309479,-0.1135936975479126,-0.04052318260073662,0.07696674764156342,0.05673401430249214,0.04561956971883774,0.016970854252576829,-0.06606891751289368,0.03499191254377365,-0.08707486093044281,0.06797829270362854,-0.04501836374402046,-0.03989554941654205,-0.05606765300035477,0.06590726971626282,0.07962840795516968,0.045324452221393588,0.09344527125358582,0.08328643441200257,-0.014371976256370545,0.10131952166557312,0.0027485338505357506,0.04865024983882904,-0.09202734380960465,0.0336415134370327,0.05577477440237999,0.11215106397867203,0.11825626343488693,0.08138466626405716,0.07980839163064957,0.04592062905430794,-0.006236676126718521,0.05274641886353493,-0.0933196172118187,0.10668572038412094,-0.056996654719114307,0.030845114961266519,0.10107076913118363,-0.06404231488704682,-0.005543143954128027,-0.08030235767364502,0.07848050445318222,-0.09858988225460053,-0.0407656691968441,-0.018360810354351999,0.06645596027374268,-0.03245045244693756,0.07248732447624207,-0.013831128366291523,-0.09722348302602768,0.11208933591842652,0.13543206453323365,-0.09121140092611313,0.030558552592992784,-0.014903835952281952,-0.021061407402157785,0.027298055589199067,-0.08711227774620056,-0.020561661571264268,0.06443437933921814,0.040396057069301608,-0.08244609832763672,0.02611605077981949,-0.019852200523018838,0.1416805237531662,0.004659848287701607,-0.08488640934228897,-0.07619200646877289,0.016307825222611429,-0.022326570004224778,0.04512014612555504,0.0957852229475975,0.06175084412097931,0.06804175674915314,-0.06782891601324082,0.0063452026806771759,-0.020560208708047868,-0.0913705825805664,-0.0922778844833374,-0.06604264676570893,0.017180562019348146,0.0072503467090427879,0.03251313418149948,-0.09949152171611786,0.035354554653167728,0.07223281264305115,0.09945524483919144,0.09520578384399414,-0.021446650847792627,-0.08525843918323517,0.09197070449590683,-0.08544135838747025,-0.07096947729587555,-0.048450861126184466,-0.09025836735963822,-0.028956055641174318,0.10294002294540405,-0.01462741382420063,-0.04108653962612152,-0.03158416226506233,0.04216679185628891,0.02891431748867035,-0.013818256556987763,-0.041882168501615527,0.023085784167051317,0.10879377275705338,0.0581260547041893,0.03461116924881935,-0.03156003728508949,0.06774848699569702,-0.02239769510924816,-0.021354926750063897,0.09274491667747498,-0.03149157762527466,-0.03302670270204544,-0.05280965939164162,-0.0932392105460167,-0.06227131560444832,0.035046640783548358,0.02674420177936554,-0.042906440794467929,0.059431686997413638,0.0010523587698116899,0.008329655043780804,-0.010142379440367222,0.0063901799730956558,-0.11849209666252136,0.010867270641028881,-0.09361981600522995,0.034268930554389957,0.05644967034459114,-0.03230609744787216,0.08949650079011917,0.10798043757677078,-0.003469013376161456,0.019817519932985307,0.0677824467420578,0.09500718861818314,0.016799943521618844,0.097634457051754,0.04166242852807045,0.0722331553697586,-0.03801930323243141,0.020637404173612596,-0.10452990233898163,0.02565108612179756,0.045026157051324847,-0.009755336679518223,0.04409223049879074,-0.07418741285800934,0.028388282284140588,-0.014706733636558056,0.0014207630883902312,0.12152242660522461,-0.0985417291522026,-0.010258088819682598,-0.027933355420827867,0.024479463696479799,0.007414932828396559,-0.07451662421226502,0.028678394854068757,0.039285093545913699,-0.0736936554312706,-0.06040496751666069,0.02111872285604477,0.12207870930433274,0.015110495500266552,0.005505911074578762,-0.04784322530031204,-0.015667608007788659,0.07875586301088333,0.04796857014298439,0.009506108239293099,-0.012074513360857964,-0.003927928861230612,0.04685989394783974,0.10083864629268646,-0.02152121812105179,0.07804705202579498,0.027892302721738817,-0.10563673824071884,-0.023623699322342874,-0.09189969301223755,0.039574068039655688,-0.08138968050479889,0.027630265802145006,0.032513976097106937,0.09005564451217652,0.05982673913240433,0.10244838148355484,-0.08658657968044281,-0.038785580545663837,0.014717234298586846,0.014860388822853566,-0.09614282846450806,0.012772210873663426,0.03936434164643288,-0.08968660980463028,-0.04795584827661514,0.03360615670681,0.06715758889913559,-0.06742855906486511,-0.0895090326666832,0.048650845885276797,-0.058862004429101947,-0.0301672350615263,-0.06461970508098602,0.07436563074588776,0.034776005893945697,0.056999217718839648,-0.10059715807437897,-0.07954888790845871,-0.05849047377705574,0.03557926416397095,-0.07284688204526901,0.0665222555398941,0.03414570540189743,-0.10278921574354172,-0.10783618688583374,0.05032713711261749,0.010461186990141869,-0.020989635959267618,-0.05975539982318878,-0.06796089559793472,0.0425628162920475,0.06917595118284226,-0.06205296516418457,-0.02091008611023426,-0.03256915509700775,0.10173671692609787,0.09772781282663346,0.10493776202201843,0.012433541938662529,-0.0499141663312912,-0.037801362574100497,-0.06918300688266754,-0.09296870976686478,-0.03939932584762573,-0.05051647499203682,0.08133948594331742,0.057052116841077808,-0.08036628365516663,-0.01589309796690941,0.09464304894208908,-0.06260677427053452,-0.04750630632042885,-0.02358883060514927,-0.047539763152599338,0.03729158267378807,-0.03949176147580147,-0.001370709389448166,0.09326953440904618,-0.03150755912065506,0.013341110199689865,-0.09775189310312271,-0.08262063562870026,0.06947412341833115,0.035125866532325748,-0.02700016461312771,0.10309737920761109,-0.07391753047704697,-0.0738455131649971,0.011742071248590947,-0.06004243344068527,-0.049217600375413898,-0.013206240721046925,0.039611633867025378,0.08763565123081207,0.00818636268377304,0.01656058430671692,-0.01699766516685486,0.05890355259180069,-0.07769941538572312,0.09987195581197739,0.03329361602663994,0.008082916960120201,0.07967853546142578,-0.04029061645269394,-0.08979111909866333,-0.1016186848282814,0.017466435208916665,0.05966268479824066,-0.05945359170436859,0.04142821207642555,0.021948212757706643,0.008711576461791993,0.04060552269220352,-0.05005829036235809,-0.029993170872330667,0.020973211154341699,-0.03990384563803673,-0.005591766443103552,0.02462736703455448,-0.059428464621305469,0.0696243941783905,0.011395851150155068,-0.05060422420501709,-0.07536312192678452,0.04484330117702484,-0.08579224348068237,0.10604265332221985,-0.0653778687119484,-0.014631255529820919,-0.06707439571619034,0.023824460804462434,0.046339988708496097,0.019722329452633859,-0.03440500423312187,-0.07530476152896881,0.030085280537605287,0.0851062536239624,0.02512188069522381,0.020261328667402269,-0.035213395953178409,-0.09686432033777237,0.09434262663125992,0.0550551638007164,0.11035782098770142,0.11144932359457016,-0.04922462999820709,0.02228395827114582,0.024502091109752656,-0.006532254628837109,0.06548983603715897,0.06595054268836975,-0.09510596096515656,-0.011813032440841198,-0.09154387563467026,-0.02697431854903698,-0.07274749130010605,0.10094525665044785,0.06696099787950516,0.0423600934445858,0.03792772814631462,-0.013963201083242894,0.04658347740769386,0.0013359264703467489,0.08715946972370148,-0.04250826686620712,-0.014906960539519787,-0.0399843193590641,-0.034549351781606677,-0.040217917412519458,-0.04111674055457115,-0.07158839702606201,0.10977912694215775,-0.09130936861038208,0.0051882448606193069,0.07280045747756958,0.0872831642627716,-0.045407142490148547,0.028994571417570115,-0.014798209071159363,0.07292003929615021,-0.04019544646143913,-0.06350986659526825,0.12154534459114075,0.006803283467888832,0.07259932905435562,-0.07699937373399735,0.07423534244298935,0.08786147832870484,-0.09865272045135498,0.030976973474025728,0.023118194192647935,0.10030544549226761,0.08195073157548905,-0.08737567067146301,0.05053035542368889,0.09742068499326706,0.09005595743656159,0.10538440942764282,-0.018514856696128846,0.015271846204996109,-0.02462933585047722,0.06820818036794663,0.08540795743465424,0.12424268573522568,0.0742965042591095,0.025187132880091668,-0.03636540472507477,-0.05266730859875679,-0.09765949845314026,-0.039338625967502597,0.05101757124066353,0.08038824051618576,-0.007898588664829731,0.0016098498599603773,0.05364275351166725,-0.005083293654024601,-0.09689230471849442,0.0725473016500473],"WeightsRows":20,"WeightsCols":84,"Biases":[0.018901128321886064,0.0022703588474541904,-0.0013901906786486507,-0.001811943482607603,0.011498521082103253,0.028904078528285028,-0.007043043617159128,0.031641457229852679,-0.0022020454052835705,0.014164426364004612,0.02705439366400242,-0.022661026567220689,0.029630621895194055,0.007484450936317444,-0.01956588588654995,0.021945303305983545,0.0018037629779428244,0.011804734356701374,0.0005040651303716004,-0.024622298777103425]},{"Weights":[-0.13871458172798158,-0.18205690383911134,-0.15912005305290223,0.1541372388601303,0.07284041494131088,-0.2067451775074005,-0.129640132188797,0.14583511650562287,0.04134353995323181,0.033143624663352969,-0.08875789493322373,-0.19071801006793977,0.0628826692700386,-0.1728242039680481,-0.08610740303993225,0.15039433538913728,0.02409311570227146,0.19620589911937715,-0.2270030677318573,-0.03272265940904617,-0.13357609510421754,0.04571222886443138,-0.19046810269355775,-0.010712477378547192,0.015226372517645359,0.21038590371608735,0.16843105852603913,0.1276339441537857,0.12975828349590302,-0.17903563380241395,0.01829756796360016,0.17275147140026093,-0.05677161365747452,-0.011062614619731903,0.1262156367301941,0.0364929623901844,0.12618710100650788,-0.2246158868074417,0.1610705554485321,0.13321852684020997,0.020291533321142198,0.0743599534034729,0.14268231391906739,-0.06107209622859955,0.1352347731590271,0.01936240680515766,0.18450841307640077,-0.04782029241323471,-0.03239774703979492,-0.05057922378182411,-0.1461680829524994,-0.1587498039007187,-0.20945575833320619,-0.07834383100271225,-0.07742034643888474,0.20383822917938233,-0.2311529815196991,0.050141796469688418,0.036901917308568957,0.1871601790189743,-0.2256421148777008,0.19104436039924622,0.08385559171438217,0.09517980366945267,0.2297183722257614,-0.04336611181497574,0.15928544104099275,0.10593003779649735,-0.19118985533714295,-0.12920746207237245,0.021652625873684884,-0.10587135702371597,-0.014824552461504937,-0.05819458141922951,0.13370554149150849,0.036750588566064838,0.16278225183486939,0.03670293092727661,0.1488695740699768,-0.16621318459510804,-0.12648464739322663,0.14947889745235444,-0.13236106932163239,-0.11378355324268341,0.09987249970436096,0.12930220365524293,-0.19150683283805848,0.12370072305202484,-0.10640542954206467,-0.0051806895062327389,-0.07042960822582245,-0.04504281282424927,0.054996613413095477,0.07577977329492569,0.14221757650375367,0.060262586921453479,-0.10594390332698822,-0.16867756843566895,0.16273687779903413,-0.046178195625543597,-0.10290639847517014,-0.0250692181289196,-0.14304710924625398,-0.15433058142662049,-0.06386159360408783,0.050571125000715259,0.11155249923467636,0.21077574789524079,0.20328231155872346,-0.04347402974963188,-0.036772578954696658,-0.19193944334983827,0.18972468376159669,-0.21823842823505402,-0.08857953548431397,0.19992278516292573,0.021287992596626283,-0.008667240850627423,0.09649810194969177,-0.18299002945423127,0.12640492618083955,0.06374192982912064,0.20464152097702027,-0.1270008683204651,-0.08301261067390442,-0.19330930709838868,-0.18376673758029939,-0.21071775257587434,-0.06127342954277992,0.0786815956234932,0.18385490775108338,-0.18786966800689698,-0.0677204355597496,0.113948293030262,-0.004241444170475006,0.2002570778131485,-0.11024942994117737,0.11094330251216889,-0.07790147513151169,-0.029665488749742509,0.18113358318805695,0.03751516342163086,-0.0677206888794899,0.10564187914133072,-0.09583861380815506,0.11498085409402847,-0.10763373225927353,-0.15668396651744843,0.07105807214975357,-0.20009656250476838,-0.03687812387943268,0.23038791120052339,0.189363494515419,-0.20402397215366364,0.08340763300657273,-0.07189176976680756,0.05445074290037155,0.04211504012346268,-0.18595242500305177,-0.1114988848567009,0.2050330936908722,0.13752976059913636,-0.18860884010791779,-0.017440058290958406,-0.08837578445672989,0.19143207371234895,-0.18167290091514588,-0.2469533532857895,0.08743429183959961,0.1251089870929718,0.22052766382694245,-0.12003236263990402,0.1978089064359665,0.1787295788526535,-0.2073185294866562,0.12413080781698227,-0.18326976895332337,0.002742151031270623,0.0704689621925354,0.12202267348766327,0.10497493296861649,0.032376110553741458,0.14680816233158112,-0.1227392852306366,-0.14407327771186829,-0.08815378695726395,-0.11292752623558045,0.24495847523212434,0.18786753714084626,-0.08519703894853592,0.12149715423583985,0.15946435928344727,0.15510869026184083,-0.166752889752388,0.033116620033979419,0.22876666486263276,0.06942912191152573,-0.14797167479991914,0.07516811043024063,-0.037024155259132388,0.03844379633665085,-0.1128583773970604,0.14050859212875367,-0.0003763349959626794,0.005977965891361237,-0.19592052698135377,0.07995353639125824,-0.0870601162314415,-0.08904991298913956,0.12687574326992036,0.21935983002185822,-0.07194644957780838,0.0642930343747139,0.021334677934646608,0.0842038244009018,-0.16290071606636048,0.058640580624341968,0.12458749860525131,-0.09645754098892212,0.22062915563583375,0.20262394845485688,0.002467853482812643,-0.17361414432525636,0.1188669204711914,-0.004726293496787548,-0.13562577962875367,-0.02906031161546707,-0.11711388826370239,0.0633292868733406,0.07035954296588898,0.20895984768867494,0.054977502673864368,-0.17564477026462556,0.0027200980111956598,-0.1408095806837082,0.08397398144006729,-0.14003229141235352,0.19246947765350343,0.12986131012439729,-0.17915140092372895,0.07120248675346375,-0.1303875595331192,0.07110785692930222,-0.183028906583786,-0.10314260423183441,0.20257189869880677,-0.0068838647566735748,0.07249771058559418,-0.012846269644796849,0.09476247429847717,-0.13978904485702516,-0.016401655972003938,-0.13511040806770326,0.16690844297409059,-0.17628979682922364,-0.1243397444486618,-0.05658042058348656,-0.17214424908161164,-0.12023088335990906,-0.1633361279964447,0.041310492902994159,-0.20286281406879426,0.17760533094406129,0.18998338282108308,0.024538153782486917,0.0017400231445208192,-0.12302491068840027,-0.19318969547748567,-0.04388946294784546,0.03461253643035889,0.08326350152492523,0.09818726778030396,0.1258595734834671,0.1440235823392868,-0.11589909344911576,-0.05397317558526993,-0.1456930786371231,-0.1395508348941803,0.11396598815917969,-0.0008346533868461847,0.024893909692764283,-0.14146402478218079,0.003858699928969145,0.01259605586528778,-0.0003659462963696569,-0.19454428553581239,-0.1203705221414566,-0.16430562734603883,0.16611646115779878,-0.19543145596981049,0.20328624546527863,-0.057731565088033679,-0.1669415980577469,0.07624766230583191,-0.08630090206861496,-0.1906818151473999,0.0011443386320024729,-0.13235753774642945,-0.17767517268657685,-0.2070854902267456,0.02095611020922661,0.06957438588142395,-0.10757897794246674,-0.17371545732021333,-0.09554547816514969,0.017494061961770059,-0.08123990893363953,-0.16786272823810578,-0.15766991674900056,0.011759115383028984,-0.14945381879806519,0.012442514300346375,-0.10718538612127304,-0.2040705531835556,-0.18215812742710114,0.21214690804481507,0.21723723411560059,-0.1960134655237198,0.08611659705638886,-0.22703640162944795,0.13676021993160249,0.11069013178348541,0.013460175134241581,0.18669120967388154,-0.22401781380176545,0.2574805021286011,0.18971487879753114,-0.18302252888679505,0.1465224176645279,-0.03860678896307945,-0.21711203455924989,0.06322302669286728,0.17675848305225373,0.0930248573422432,-0.0017759904731065035,0.03386683017015457,0.07759373635053635,0.056234683841466907,-0.1732029914855957,-0.21219511330127717,0.008799063973128796,0.04867471009492874,0.06939123570919037,-0.17257782816886903,0.030584167689085008,0.0969947800040245,-0.03829868510365486,0.07600053399801254,0.010769355110824108,-0.08423452079296112,0.1138225868344307,-0.17532776296138764,0.13401414453983308,0.023777738213539125,-0.02395288087427616,-0.18596474826335908,0.012533138506114483,0.03312761336565018,0.11577964574098587,-0.18406708538532258,-0.07398305833339691,-0.18742698431015016,0.16641190648078919,0.1378655880689621,-0.18892750144004823,-0.06607630103826523,-0.18060919642448426,0.13974307477474214,0.16373534500598908,0.06335698068141937,-0.03788352385163307,-0.14455533027648927,0.1661195605993271,-0.10316061973571778,-0.005617733113467693,-0.09486830234527588,0.10716558992862702,-0.007857353426516056,-0.18665872514247895,0.05252278223633766,0.1489659547805786,0.207485169172287,0.03088384121656418,0.18414288759231568,-0.07617519050836563,-0.0035285810008645059,0.0013633336639031768,-0.04872110113501549,0.19451592862606049,0.07464234530925751,0.1921067237854004,-0.018741291016340257,0.09071245044469834,-0.06367160379886627,-0.1655590981245041,0.20267368853092194,0.07948040962219238,0.10322125256061554,-0.12842458486557008,-0.2036476731300354],"WeightsRows":20,"WeightsCols":20,"Biases":[0.04639708995819092,0.013618625700473786,-0.044365476816892627,0.034553542733192447,0.05700842663645744,-0.011520869098603726,-0.003801426850259304,-0.04892956465482712,0.13002032041549684,-0.019023248925805093,-0.011302641592919827,0.04864424467086792,0.015603402629494667,-0.02305479347705841,-0.0004160061071161181,0.027060257270932199,0.016240935772657396,0.07673502713441849,-0.007792995311319828,-0.018557896837592126]},{"Weights":[-0.20514461398124696,0.17222194373607636,-0.04678037390112877,-0.17235571146011353,0.045912548899650577,-0.07253187894821167,-0.1568591594696045,-0.16238392889499665,0.054607100784778598,-0.028475433588027955,0.07158859819173813,-0.0213246438652277,-0.1373470276594162,-0.0022308719344437124,-0.1454576849937439,0.13474030792713166,0.11924471706151962,-0.1444065272808075,-0.09629212319850922,-0.02086946927011013,-0.19326633214950562,-0.1479453444480896,0.04601668193936348,-0.241837739944458,0.2022177129983902,0.19345317780971528,0.08625403046607971,-0.20773379504680634,0.2379770278930664,-0.039640747010707858,-0.09146774560213089,0.07711823284626007,0.1407349407672882,0.11600688099861145,0.09304728358983994,-0.1880212426185608,0.1523045003414154,0.14432941377162934,0.23254169523715974,-0.09018480777740479,-0.15578357875347138,-0.1072598546743393,0.12074360996484757,-0.056344807147979739,-0.06416220217943192,-0.021435750648379327,-0.030661288648843766,0.13796250522136689,0.16868959367275239,-0.2099839746952057,0.02387803979218006,0.18331708014011384,0.02158519998192787,-0.021052788943052293,-0.21702605485916139,-0.134317085146904,-0.13684260845184327,-0.05767056718468666,-0.12470179796218872,0.03516276553273201,0.15213364362716676,0.13079605996608735,-0.13515999913215638,0.13910801708698274,0.13455812633037568,0.179006889462471,0.1955268234014511,0.0494835339486599,-0.20480062067508698,0.005839325487613678,0.1915426105260849,0.16281136870384217,-0.005661280360072851,-0.11979340761899948,0.08115605264902115,-0.1094580888748169,0.168466717004776,0.03545660525560379,-0.03500115126371384,-0.059314001351594928,0.14427444338798524,0.04145193099975586,0.009343489073216915,-0.13917116820812226,0.14916576445102693,-0.004203170072287321,-0.10526847094297409,-0.2122379094362259,-0.06661365926265717,0.019102538004517556,-0.11084815114736557,0.06821680814027786,0.09230763465166092,0.051858607679605487,-0.08492741733789444,0.07352525740861893,0.17230457067489625,-0.12943154573440553,-0.16006137430667878,0.185804083943367,0.11365149170160294,-0.24466852843761445,0.1267610639333725,0.01574670895934105,0.21226343512535096,0.030340999364852907,-0.13397283852100373,-0.07554580271244049,0.04691015183925629,0.0491996593773365,0.13468912243843079,0.1298077404499054,0.01107478141784668,0.21633772552013398,0.13145926594734193,0.0854974016547203,-0.19260308146476746,0.2121938019990921,-0.05932970345020294,-0.026873856782913209,0.211602583527565,0.10551153123378754,0.14398735761642457,-0.012340615503489972,0.009904610924422741,0.2315950244665146,0.04075293615460396,-0.029552003368735315,-0.1809466928243637,-0.05548371374607086,0.05633870139718056,-0.11050082743167877,-0.20296722650527955,0.07280285656452179,-0.005898152943700552,0.18674181401729585,0.11473532766103745,-0.02129076048731804,-0.18172578513622285,0.1586654931306839],"WeightsRows":7,"WeightsCols":20,"Biases":[0.09907566010951996,-0.041862644255161288,0.04212528467178345,-0.11028461158275604,-0.03684159740805626,0.0755329504609108,-0.0277444776147604]}]}