{"Layers":[{"Weights":[0.09564542025327683,-0.012804180383682251,0.09231012314558029,0.07714194059371948,0.059647440910339358,0.12876887619495393,-0.08333608508110047,0.012966573238372803,0.20546609163284303,-0.041833966970443729,0.15379327535629273,-0.21504530310630799,-0.09836724400520325,-0.19303202629089356,0.1899302899837494,-0.030995041131973268,-0.059549540281295779,-0.06729727983474732,0.17696955800056458,0.0949590802192688,0.2197076678276062,-0.17405951023101808,0.020304545760154725,-0.07667598128318787,-0.12257737666368485,-0.19026300311088563,-0.19178757071495057,0.062490902841091159,0.1425299346446991,-0.18608072400093079,0.0782741829752922,0.01628023386001587,-0.13189199566841126,-0.05504941940307617,0.1964372843503952,-0.12574389576911927,0.2075091302394867,0.09272429347038269,0.1586025059223175,-0.09399513155221939,0.20890840888023377,-0.13096293807029725,-0.17503958940505982,-0.0026587992906570436,-0.008745595812797547,0.02257920801639557,0.07718555629253388,0.16257226467132569,0.19459226727485658,0.02768906205892563,0.018827170133590699,0.060999974608421329,0.1373542994260788,0.0577557310461998,0.12505169212818147,-0.1460992395877838,-0.13727828860282899,-0.03300309181213379,-0.02914825826883316,0.033934883773326877,0.1917968988418579,-0.15486708283424378,0.13061955571174622,0.21177834272384644,-0.032200902700424197,0.009820252656936646,-0.20373287796974183,-0.1928105652332306,-0.08993878215551377,0.1358238160610199,-0.1664929986000061,-0.13482603430747987,-0.2026439905166626,-0.045548953115940097,0.1781477928161621,0.21676793694496156,-0.1403559148311615,0.15314701199531556,-0.1257464587688446,0.12433208525180817,0.11388112604618073,-0.05422234535217285,0.21348395943641663,0.08623132109642029,-0.2097446620464325,-0.19877773523330689,0.155206561088562,0.021542400121688844,0.08692687749862671,0.16118136048316956,-0.14167103171348573,-0.09508002549409867,-0.19954344630241395,0.0376238152384758,0.0639558658003807,-0.15316417813301087,0.008746668696403504,-0.0726504921913147,0.0936405286192894,0.04462682455778122,-0.01365765929222107,0.043341733515262607,0.11169170588254929,0.12636391818523408,-0.19409871101379395,0.15985745191574098,-0.09673270583152771,-0.023647964000701906,-0.20232811570167542,0.17742055654525758,-0.06223321706056595,0.18100851774215699,-0.06607728451490402,-0.021170660853385927,0.06376372277736664,0.010890930891036988,0.10931462049484253,-0.12126249074935913,-0.07605574280023575,0.21636542677879334,0.1838495135307312,0.029222480952739717,-0.1665603220462799,0.15330451726913453,0.07359706610441208,0.08765246719121933,-0.15616527199745179,-0.18332472443580628,0.1323273479938507,0.2159290611743927,0.1369035392999649,-0.202051043510437,-0.20131313800811768,-0.02205967903137207,-0.008847266435623169,-0.09124668687582016,0.1833975911140442,-0.016616791486740114,-0.1775227189064026,-0.17423507571220399],"WeightsRows":7,"WeightsCols":20,"Biases":[0.0,0.0,0.0,0.0,0.0,0.0,0.0]}]}