{"Layers":[{"Weights":[-0.08443247526884079,-0.16902326047420503,-0.016500908881425859,-0.05250627547502518,-0.0837966576218605,0.023783491924405099,-0.1277296394109726,-0.05144694820046425,-0.08350870013237,-0.2019951492547989,0.042340055108070376,0.10132236778736115,0.03395478427410126,0.13873670995235444,-0.023698313161730768,0.00644566398113966,-0.003460582811385393,-0.05218842998147011,0.049107491970062259,0.05648797005414963,-0.0188550166785717,-0.16203691065311433,-0.04672982916235924,0.015615087002515793,-0.1554803103208542,-0.029811831191182138,0.17094595730304719,0.3509739637374878,-0.11403821408748627,-0.0007188422605395317,0.04913298413157463,-0.03735673800110817,0.034301966428756717,-0.11062806099653244,0.10686101019382477,-0.005097942426800728,-0.04080907255411148,0.01787927933037281,-0.14502723515033723,0.06464467197656632,-0.18542584776878358,-0.031259432435035709,0.05546431615948677,-0.1387980580329895,0.08295658975839615,-0.07933638989925385,0.15514475107192994,0.03727590665221214,0.11349126696586609,0.059682346880435947,0.11003407090902329,0.14886075258255006,0.0200615543872118,0.13359735906124116,-0.0994170755147934,-0.037217553704977038,-0.2435021847486496,-0.11215057969093323,-0.04958033561706543,0.013278367929160595,-0.17347119748592378,-0.11421339213848114,-0.023722676560282708,0.01455069798976183,-0.036008987575769427,-0.09309817850589752,-0.18004468083381654,0.07679533213376999,-0.043401408940553668,0.2235381156206131,0.0292048342525959,-0.07204488664865494,-0.021861758083105089,0.04106646403670311,0.035071879625320438,0.09341509640216828,-0.08952412754297257,0.017312118783593179,0.0580415204167366,-0.012604782357811928,0.06218235567212105,-0.3120218813419342,0.03355270251631737,0.09121423959732056,0.07645973563194275,0.10803490877151489,0.021220503374934198,0.10322222858667374,0.07361466437578201,0.08885348588228226,0.06577727943658829,0.13613562285900117,0.11490949243307114,-0.02884920872747898,-0.047702234238386157,0.13710153102874757,0.037890464067459109,0.097913458943367,-0.22641868889331819,0.03818706423044205,-0.08698023110628128,0.019927576184272767,-0.02882087230682373,0.027135880663990976,-0.15774045884609223,0.1530442237854004,-0.02270960621535778,-0.024953724816441537,-0.1556583195924759,-0.07557126134634018,-0.04174105450510979,0.06072502210736275,-0.05482552573084831,-0.07383188605308533,0.02419401705265045,-0.13053347170352937,-0.010492762550711632,0.003590376814827323,-0.12668585777282716,-0.167046919465065,-0.1966370940208435,0.005139148328453302,-0.05924324318766594,-0.15495552122592927,-0.05459488928318024,0.1711931824684143,-0.12480293214321137,0.05361567810177803,-0.0020871141459792854,-0.014337142929434777,0.02213975414633751,0.1020452007651329,-0.014814164489507676,-0.014890124090015889,0.03828374296426773,0.13295361399650575,0.014438847079873085,0.010007479228079319,-0.035071779042482379,0.06887396425008774,-0.0400756374001503,-0.012261420488357544,-0.03726135194301605,-0.008861352689564228,0.057022903114557269,-0.07591242343187332,0.13944491744041444,-0.0575297586619854,0.1316521167755127,-0.03506897762417793,0.15178124606609345,-0.13321396708488465,-0.06947697699069977,-0.02961741015315056,-0.026736648753285409,0.059350352734327319,0.035349056124687198,0.043185584247112277,0.016421252861618997,-0.12849535048007966,-0.09516841918230057,0.1573779135942459,0.02980968914926052,0.14216849207878114,0.03263980522751808,0.021809047088027,-0.12335694581270218,0.002799395937472582,-0.006059823092073202,0.01786886528134346,0.14319463074207307,0.13772794604301454,0.027345890179276468,0.01124413963407278,-0.01393441203981638,0.24034671485424043,0.01466248370707035,-0.08336099982261658,0.17132344841957093,0.051065634936094287,0.04304854944348335,-0.08317101001739502,-0.027872266247868539,0.18120421469211579,-0.12478057295084,-0.12291337549686432,0.15553471446037293,0.09514433890581131,0.05691074952483177,-0.13901376724243165,-0.04333532601594925,-0.1158558577299118,0.0856872946023941,-0.07330241054296494,0.2139943242073059,0.035571128129959109,0.07499346137046814,0.16524340212345124,0.03180968016386032,-0.021624209359288217,-0.029515208676457406,0.10424184054136276,0.12508606910705567,0.002636045217514038,0.0050300247967243198,-0.01982894539833069,-0.009605536237359047,-0.005948570556938648,0.008423182182013989,0.030682159587740899,0.1141495555639267,0.1490829437971115,-0.025210697203874589,-0.10624546557664871,0.21025946736335755,0.0461476668715477,0.11475273221731186,-0.045063316822052,0.1225426122546196,-0.12119637429714203,0.19563286006450654,-0.034871987998485568,0.09401741623878479,0.09574383497238159,0.0907336175441742,0.08139708638191223,0.17278848588466645,-0.022979825735092164,0.12707465887069703,0.026326561346650125,0.04627757519483566,-0.12095656991004944,-0.11001674085855484,-0.044160742312669757,0.2620629668235779,0.011499512940645218,0.20363731682300569,0.0656358003616333,-0.07193905115127564,-0.09661224484443665,0.11753474175930023,-0.13475240767002107,-0.0581195093691349,0.1711803376674652,0.08669876307249069,0.10341634601354599,0.05731913447380066,-0.010369321331381798,0.024268794804811479,0.04835275933146477,-0.0027933269739151,0.1492973119020462,0.014895694330334664,0.0776214450597763,-0.02547263726592064,-0.020001880824565889,0.009100133553147316,-0.00808478519320488,-0.06119364872574806,0.013200090266764164,0.11990762501955033,-0.018402762711048127,0.03438498452305794,-0.023894255980849267,0.13347947597503663,-0.011953890323638916,-0.15017519891262055,0.008173915557563305,0.04399305582046509,-0.053875718265771869,0.0679083839058876,-0.020878270268440248,-0.038826409727334979,0.208764910697937,0.24155987799167634,0.13403180241584779,0.09574655443429947,-0.2025938481092453,-0.14323070645332337,-0.03976869210600853,0.043509341776371,-0.02875712886452675,0.02517511509358883,0.10971062630414963,-0.149149551987648,-0.02646026201546192,0.05882696062326431,0.0597788542509079,0.003970097750425339,0.09543433785438538,-0.09158345311880112,0.008993335999548436,0.16049830615520478,0.11436525732278824,0.04361649230122566,0.11810389161109925,0.039845798164606097,0.05437953397631645,-0.1412731260061264,-0.06355860829353333,-0.1509745568037033,0.021627910435199739,-0.10018965601921082,-0.1377289891242981,-0.14086177945137025,0.0037307697348296644,-0.10237965732812882,-0.040453944355249408,-0.11973947286605835,0.1150517612695694,0.21524231135845185,-0.09543125331401825,0.07753374427556992,-0.015022939071059227,-0.0958767905831337,0.24736623466014863,0.013895065523684025,0.11455991864204407,0.042313702404499057,0.03539738431572914,-0.043268680572509769,0.0349186435341835,0.04465531185269356,0.025321995839476587,-0.0051851896569132809,-0.0124549251049757,0.07256696373224259,-0.04432959109544754,-0.08908560872077942,0.05692054331302643,-0.2506519854068756,-0.09442562609910965,0.07758785039186478,-0.09045813232660294,-0.021118203178048135,0.023131003603339196,0.03437288850545883,0.0945734977722168,0.12821243703365327,-0.043997082859277728,-0.1002090722322464,-0.07225573062896729,-0.0017840133514255286,-0.07305289059877396,-0.06875841319561005,-0.0033357227221131326,0.00678090238943696,0.04880347475409508,0.12638720870018006,0.05621331185102463,0.059655800461769107,0.022023189812898637,-0.09272143244743347,0.13647043704986573,0.0687522292137146,0.14323967695236207,0.0036816997453570368,0.0404832698404789,-0.14565761387348176,0.06734982132911682,-0.13330602645874024,-0.10812973231077194,0.17305207252502442,-0.050478093326091769,0.09110554307699204,0.15965721011161805,0.024619154632091523,-0.01742192730307579,-0.0013690306805074216,0.21163694560527802,-0.14542122185230256,0.04387940838932991,-0.10749556124210358,-0.13987289369106294,0.0012481759767979384,-0.059071023017168048,0.07143375277519226,0.10705749690532685,-0.05909442901611328,0.04313826188445091,-0.03483575955033302,-0.09868396818637848,0.12509311735630036,0.11551268398761749,-0.11875593662261963,-0.15816232562065125,0.08453336358070374,0.010735019110143185,-0.03188956156373024,0.01182464137673378,0.1999303251504898,-0.017908595502376558,0.11041288077831269,0.0436745285987854,-0.051459915935993198,-0.035919636487960818,-0.08359040319919586,-0.07355600595474243,0.1028168573975563,0.047073379158973697,-0.10744635760784149,0.024374250322580339,0.022958317771553994,0.1769781857728958,-0.11230216920375824,0.13831721246242524,0.00890376977622509,-0.08550271391868592,-0.02231743559241295,0.11544834822416306,-0.012684962712228299,-0.039719823747873309,-0.013487807475030423,-0.186183363199234,0.05396334081888199,-0.15759046375751496,0.03177094832062721,0.15949419140815736,-0.10593030601739884,0.024480106309056283,0.09066751599311829,-0.21194040775299073,0.038610849529504779,0.08341032266616821,-0.021485839039087297,0.0038768292870372535,-0.051743775606155398,0.13992483913898469,-0.04695545509457588,0.08963492512702942,0.03426055237650871,0.06518714874982834,-0.07617741078138352,-0.005052246153354645,-0.12971338629722596,-0.10319508612155914,-0.16728156805038453,-0.04847297444939613,0.03795303776860237,-0.01058724895119667,-0.012963577173650265,-0.00861799530684948,-0.08059800416231156,-0.013734038919210434,0.006471247412264347,0.12963201105594636,-0.037335626780986789,-0.07705356180667877,-0.04863286018371582,0.01336885616183281,0.09219922125339508,0.008742385543882847,0.126199409365654,-0.02943061850965023,-0.048770010471343997,-0.021421462297439576,0.005577363073825836,0.009045037440955639,-0.1064765527844429,-0.031196244060993196,-0.0391814149916172,0.10649847984313965,0.0874873548746109,0.057093825191259387,0.0474807508289814,0.016502346843481065,-0.14801955223083497,-0.027005139738321306,0.011931448243558407,0.04507627710700035,-0.05807094648480415,-0.019628029316663743,-0.07387076318264008,0.05416348576545715,-0.035657186061143878,-0.046467337757349017,-0.11821373552083969,-0.1438109576702118,-0.06505557149648667,0.14378559589385987,-0.05486517772078514,-0.07982064038515091,0.10850298404693604,-0.04122224077582359,0.04503767564892769,0.03531293198466301,-0.18136529624462129,-0.059305448085069659,-0.0757484957575798,-0.10499531775712967,0.06257843971252442,-0.10794331878423691,0.09538278728723526,-0.04334202781319618,-0.050158556550741199,0.16278165578842164,0.07832009345293045,-0.0955452173948288,0.15791873633861543,0.14456383883953095,-0.06983532011508942,-0.16394202411174775,0.0890779122710228,0.020668018609285356,0.04873930290341377,0.00026914014597423375,-0.13636581599712373,0.051140327006578448,-0.07986520975828171,0.2232195883989334,-0.11781145632266998,-0.09756701439619065,-0.053498774766922,-0.028078343719244005,0.1477624773979187,-0.001340007409453392,0.06618159264326096,0.0062250178307294849,-0.14421936869621278,0.20235112309455872,0.08952578157186508,0.0509551540017128,0.08874038606882096,0.011539476923644543,0.0039690881967544559,0.11283142864704132,-0.14901821315288545,-0.04249782860279083,-0.07272705435752869,-0.01560879684984684,-0.08214057981967926,-0.08622419834136963,0.015993811190128328,0.13082458078861237,-0.068024180829525,-0.03494409844279289,-0.06808331608772278,0.037275511771440509,0.034793827682733539,-0.2585909962654114,0.0026518653612583877,-0.0964374840259552,0.04134063050150871,-0.12521964311599732,0.053119782358407977,-0.046319495886564258,0.06288845837116242,-0.08607601374387741,0.30117151141166689,0.11776057630777359,-0.04469216987490654,0.0009216360631398857,0.06615982204675675,0.053707100450992587,-0.2109007090330124,0.006340465042740107,0.10090368986129761,0.2192484587430954,-0.12641054391860963,-0.023427452892065049,0.020665595307946206,0.013360694982111454,0.0567796416580677,-0.16444823145866395,0.11001982539892197,-0.1967344582080841,-0.049374956637620929,0.06214020401239395,0.020455559715628625,-0.04263240844011307,-0.0360388457775116,0.03376292809844017,-0.08836690336465836,0.09242549538612366,0.15945488214492799,0.15936075150966645,-0.09354088455438614,0.12959568202495576,0.022688815370202066,0.16805516183376313,-0.08729036897420883,-0.03211681917309761,0.04980166628956795,-0.17629578709602357,-0.05794917419552803,0.08526796847581864,0.0726078525185585,0.0411641001701355,-0.008679796010255814,0.05278857797384262,-0.1619521975517273,-0.09632080048322678,-0.04976419359445572,-0.018656408414244653,0.05423998832702637,-0.012213900685310364,-0.1723238229751587,-0.14836595952510835,-0.07964051514863968,-0.011685207486152649,0.09267202019691467,0.03455055132508278,0.1689085066318512,0.08831029385328293,-0.021629106253385545,0.08414120972156525,0.15183888375759126,-0.025926191359758378,0.02041405811905861,-0.11066436022520066,0.030520586296916009,0.026653820648789407,-0.11188342422246933,0.005344234872609377,0.0469120629131794,-0.03956764191389084,-0.0321747250854969,-0.06408771127462387,0.025564366951584817,-0.08466549962759018,-0.14239557087421418,-0.1472560167312622,0.07233840227127075,0.05501946434378624,-0.09189609438180924,0.12074004113674164,-0.0840427428483963,0.07986336201429367,-0.13832220435142518,0.06048120558261871,-0.060783322900533679,-0.11691315472126007,-0.14047814905643464,0.09172816574573517,0.09068036824464798,-0.056388698518276218,0.03086673840880394,0.0782298818230629,0.06691646575927735,0.09665635228157044,-0.13160355389118195,0.08340533822774887,0.07512024790048599,0.018246645107865335,0.11257592588663101,0.0251422431319952,0.06906970590353012,-0.11359365284442902,0.14235106110572816,-0.044319361448287967,0.06496720761060715,0.04255615919828415,-0.08761540800333023,0.13601337373256684,0.08114316314458847,0.1684054583311081,0.14577741920948029,0.12288733571767807,0.13179077208042146,0.10360075533390045,0.057141102850437167,0.022392500191926957,-0.08399006724357605,-0.054839421063661578,-0.005923534277826548,-0.023074572905898095,-0.037300653755664828,-0.05373701453208923,-0.059122487902641299,0.19142071902751923,0.002454924862831831,-0.03356901556253433,0.030081219971179963,0.01075188722461462,0.07625788450241089,-0.019955728203058244,0.06338436156511307,0.11670543253421784,0.012353931553661824,0.061033062636852267,-0.0996173620223999,0.14744575321674348,0.09479736536741257,-0.06811357289552689,0.0854128748178482,0.25827109813690188,-0.07081262022256851,0.041710928082466128,-0.05949012562632561,0.057579103857278827,-0.022159647196531297,-0.07902015745639801,-0.10873065143823624,0.03562241420149803,0.1852065771818161,0.11634809523820877,-0.18622511625289918,0.04061630740761757,-0.06124397739768028,-0.15005318820476533,0.03895549103617668,-0.027515128254890443,0.2484245002269745,0.08736588060855866,-0.011623257771134377,-0.059872183948755267,0.07305579632520676,-0.08360560983419419,0.07799980789422989,-0.06474465131759644,-0.11052868515253067,0.07663475722074509,-0.04493165761232376,-0.12918886542320252,0.07684599608182907,-0.03418074920773506,-0.089291051030159,-0.024868061766028405,0.007984460331499577,0.04394383728504181,-0.061033688485622409,0.04090488329529762,-0.09455875307321549,-0.05830933526158333,-0.15302063524723054,0.07798326015472412,0.0023491319734603168,-0.1578923612833023,0.0309681985527277,0.20549848675727845,0.05821462348103523,0.012294518761336804,-0.14973104000091554,-0.2645702660083771,-0.055950991809368137,-0.046679601073265079,-0.08198065310716629,-0.053862251341342929,0.00309870601631701,0.06663111597299576,0.03988039866089821,0.04413202032446861,0.0734679102897644,0.16086077690124513,0.09188845753669739,0.1138833686709404,-0.003736074548214674,0.1891886293888092,-0.05754143372178078,-0.05217072740197182,0.053936537355184558,-0.13906802237033845,-0.07412087172269821,0.06031154468655586,0.04185202345252037,-0.011049955151975155,-0.07567868381738663,-0.1128138080239296,-0.023583415895700456,-0.05884449928998947,-0.05469338968396187,0.17750424146652223,-0.18344227969646455,0.01436863373965025,0.006953591015189886,0.13922588527202607,-0.003925152588635683,-0.10942919552326203,-0.18635091185569764,-0.07245364785194397,-0.06959094852209091,0.15207698941230775,0.04937054216861725,-0.06676285713911057,0.007111019920557737,0.017048165202140809,0.006999266799539328,-0.23527324199676515,0.010749885812401772,-0.05187622085213661,-0.1784697324037552,0.06330186873674393,-0.24515512585639954,-0.13860999047756196,-0.1515989899635315,0.03057771362364292,-0.0014046939322724939,-0.12844188511371613,-0.015811597928404809,-0.27191826701164248,-0.13470400869846345,0.20551234483718873,0.20356209576129914,-0.07965262979269028,-0.031578179448843,0.0010228471364825965,-0.17626620829105378,-0.09088125079870224,-0.11020701378583908,-0.11756250262260437,-0.07757200300693512,0.14322248101234437,0.08492138236761093,-0.14509452879428864,0.06476788967847824,-0.04727941006422043,-0.2297920286655426,0.0656689926981926,0.06905253976583481,-0.13387523591518403,-0.1742381900548935,-0.0251326747238636,-0.026806959882378579,-0.008148440159857273,0.05181209370493889,-0.1016974002122879,0.0417683906853199,0.09470853954553604,-0.10313045233488083,-0.059472497552633288,-0.14931735396385194,-0.056008949875831607,-0.08269967138767243,0.023528264835476877,0.2187640517950058,0.0643068179488182,-0.010313758626580239,0.06599437445402146,-0.17502844333648683,-0.13908499479293824,0.1278058886528015,0.10753513872623444,0.042547695338726047,-0.13485229015350343,-0.08246708661317826,-0.013690030202269555,-0.08106508105993271,-0.03546285256743431,-0.0018514838302507997,0.010704864747822285,-0.06045845150947571,0.020041974261403085,-0.02634471282362938,0.17469824850559236,0.02456129528582096,-0.2764156758785248,-0.0033051390200853349,-0.13777190446853639,-0.010170593857765198,0.15208333730697633,0.09013193845748902,0.05426126345992088,0.04799225926399231,-0.029368331655859948,-0.025622928515076639,0.10053852945566178,0.06066089868545532,-0.21083097159862519,0.11303485184907913,0.01769663766026497,-0.07341856509447098,0.023891594260931016,-0.003526810323819518,0.06021466478705406,-0.14689575135707856,0.10415083914995194,-0.044458530843257907,0.06833676248788834,0.037144146859645846,0.10961055755615235,0.027065029367804529,0.07328267395496369,-0.08667901903390885,0.02057679556310177,-0.0005177153507247567,-0.09664876013994217,0.030079497024416925,-0.040944430977106097,0.014854270033538342,-0.022181639447808267,0.0847460925579071,0.0760950818657875,0.09717316925525665,-0.0485224686563015,-0.07306832820177078,-0.08472853153944016,-0.032385487109422687,-0.00854099728167057,-0.05435378476977348,-0.12988179922103883,0.14430326223373414,-0.11210829019546509,-0.04046034812927246,-0.06809160858392716,-0.03302871435880661,-0.02064007893204689,-0.05267671123147011,-0.0797867551445961,0.09410012513399124,0.02302894927561283,0.01579257845878601,0.08983110636472702,-0.025440601631999017,-0.004325198009610176,-0.02545030787587166,0.08629464358091355,0.0927630290389061,-0.025541886687278749,-0.05952543392777443,-0.008784439414739609,-0.03897577524185181,0.01832522265613079,-0.0032739287707954647,-0.06198222190141678,0.006470850668847561,0.08404949307441712,-0.11702710390090943,-0.013422523625195027,0.1383723020553589,-0.12127452343702316,-0.0875433161854744,0.0019814015831798317,-0.09169363975524903,0.019549842923879625,0.10281345248222351,-0.312104195356369,-0.07579033821821213,-0.09195898473262787,-0.24184757471084596,-0.14319518208503724,0.07454810291528702,0.1838884949684143,-0.10831333696842194,-0.2288386970758438,-0.02327474020421505,0.1016843169927597,0.004970775451511145,-0.025653071701526643,0.000978240161202848,0.12071985006332398,-0.00007006832311162725,-0.09181199967861176,-0.09290415793657303,0.0051592495292425159,0.050311438739299777,-0.019519716501235963,-0.024677632376551629,0.015008493326604367,-0.004488691687583923,-0.11461949348449707,0.08997140824794769,-0.11677540093660355,-0.17063985764980317,0.09630430489778519,-0.060513317584991458,0.0001522818929515779,0.08883114904165268,0.24957714974880219,0.11202013492584229,-0.022835623472929,-0.04647092893719673,-0.02586517482995987,0.08009558916091919,-0.11985625326633454,-0.030083483085036279,0.06643639504909516,-0.09727641940116883,0.0011011067545041442,-0.08522611856460571,-0.041883889585733417,-0.08063514530658722,0.15618914365768434,-0.03477925807237625,-0.0665624812245369,-0.002556359162554145,-0.00746840750798583,-0.05624939501285553,0.03737669438123703,-0.08188311010599137,-0.17291800677776338,0.001588343526236713,0.22889697551727296,0.04269237071275711,-0.00524556590244174,-0.004042897839099169,-0.06130776181817055,0.03332831338047981,0.0988481417298317,-0.05147828534245491,-0.08737125992774964,-0.032837625592947009,-0.17228883504867555,0.005744631867855787,-0.048326026648283008,-0.03647058084607124,-0.13382066786289216,0.06019967421889305,-0.04711562767624855,0.048939645290374759,-0.08263992518186569,0.06317444145679474,0.11883673816919327,0.03500847518444061,-0.03818279132246971,-0.18764559924602509,-0.0809410959482193,0.03291294723749161,-0.01312324870377779,0.1236536055803299,-0.14660347998142243,-0.03464409336447716,-0.025317734107375146,0.004116603173315525,0.04984322935342789,-0.12113539129495621,0.09367263317108154,-0.15876421332359315,-0.14888550341129304,-0.08104745298624039,-0.015898283571004869,0.005536767188459635,-0.05276298522949219,0.03999114781618118,0.15154093503952027,0.1590241640806198,0.08755277842283249,-0.0367911122739315,-0.06517507880926132,0.03438940271735191,-0.05303465574979782,0.009451971389353276,0.06535898149013519,0.09254612773656845,-0.09104841202497482,0.1408267766237259,0.014757929369807244,-0.1267559677362442,-0.12163961678743363,-0.004358895588666201,0.06157327815890312,-0.056057631969451907,0.13986577093601228,0.1727222353219986,-0.030822094529867173,0.1244913712143898,-0.13593079149723054,0.09500890225172043,-0.22257623076438905,0.032503578811883929,-0.006865778472274542,-0.02741853892803192,-0.011128323152661324,-0.01017819344997406,0.18190985918045045,-0.1042075902223587,0.16430269181728364,-0.1251169890165329,-0.07861248403787613,0.012694141827523709,-0.02743336372077465,0.018625900149345399,0.07304675877094269,-0.055090636014938357,0.09821310639381409,0.0929240882396698,0.055291254073381427,-0.016499003395438196,0.12488734722137451,0.03536512330174446,0.13811597228050233,0.18882158398628236,-0.008712333627045155,0.007972042076289654,0.10152703523635864,0.013079819269478321,-0.04217090830206871,-0.13407817482948304,-0.008852547965943814,-0.11649083346128464,0.20423449575901032,-0.00977959856390953,0.08827020972967148,-0.012564223259687424,-0.04264067858457565,-0.07089917361736298,-0.08136016130447388,0.010349297896027565,-0.058308180421590808,-0.17472130060195924,-0.20039352774620057,-0.02981738932430744,0.08583328872919083,0.09219024330377579,-0.19859741628170014,-0.021217994391918184,-0.2807502746582031,0.1243857592344284,0.06796436011791229,-0.11859775334596634,0.01862717606127262,0.09264575690031052,0.06625959277153015,-0.053755417466163638,0.045695312321186069,-0.0807335153222084,-0.003254608018323779,0.05256616324186325,-0.052178919315338138,0.06101248413324356,-0.061992377042770389,0.005255391821265221,0.005847341381013393,-0.02834254503250122,-0.03803391754627228,-0.10925226658582688,0.10785377770662308,0.013922472484409809,-0.01310565136373043,0.02610260434448719,-0.07971413433551789,0.029493868350982667,0.24132519960403443,-0.0038695542607456447,-0.03352534770965576,-0.12024694681167603,0.1474275290966034,0.19823935627937318,0.12337739020586014,-0.05633598193526268,0.16728109121322633,-0.017268067225813867,0.015485554933547974,-0.013643520884215832,-0.09522129595279694,-0.20425936579704286,-0.06938327848911286,0.029049154371023179,-0.20513637363910676,-0.015407196246087551,0.020843341946601869,0.08147656172513962,-0.08494185656309128,-0.0597357451915741,-0.13946378231048585,-0.01553705520927906,0.07903136312961579,0.0043824100866913799,-0.07070451229810715,0.0034762814175337555,-0.023562271147966386,0.04354127123951912,0.05626912787556648,-0.1050100103020668,0.0008227495127357543,0.008753776550292969,-0.10986103862524033,-0.09067443758249283,-0.11669879406690598,-0.0824824795126915,-0.08368995040655136,-0.06900513917207718,0.015691667795181276,0.10615266859531403,0.06854178756475449,0.0594266839325428,-0.020259862765669824,0.11109299957752228,-0.013658380135893822,0.08111655712127686,-0.08144031465053559,0.13087961077690125,0.08138879388570786,-0.04651962220668793,0.07846149057149887,-0.00021010605269111693,-0.054420147091150287,-0.02947203442454338,0.007404131814837456,-0.016172567382454873,-0.191099613904953,-0.004424384329468012,-0.05804210901260376,0.10229949653148651,0.11291778832674027,-0.0560193732380867,0.1448192149400711,-0.12558004260063172,0.12797410786151887,-0.14998862147331239,0.09199944883584976,0.02299024723470211,0.14966750144958497,-0.23605792224407197,0.09896716475486756,0.013984931632876397,0.11503639817237854,-0.2456498146057129,-0.015653537586331369,0.04081268236041069,0.19774788618087769,-0.0021067047491669657,0.08642522990703583,0.038251299411058429,-0.177124485373497,-0.08663998544216156,-0.027501342818140985,-0.26452815532684328,0.10164407640695572,0.12690100073814393,0.003459240309894085,0.05125414580106735,-0.07538476586341858,-0.03685010224580765,-0.13715626299381257,-0.07518614083528519,0.05125979706645012,0.09341631084680557,0.02931489422917366,0.07983464002609253,-0.12646065652370454,-0.10312042385339737,-0.07869581878185272,-0.08668473362922669,0.20169506967067719,-0.035208478569984439,0.08943425118923187,-0.05906429886817932,0.08502840995788574,0.07155193388462067,-0.001701143104583025,-0.08197563141584397,-0.20474225282669068,-0.21729505062103272,-0.2578643262386322,-0.017552850767970086,0.01670474000275135,-0.04575750604271889,0.011861039325594902,-0.046746984124183658,-0.02827402576804161,-0.055190786719322208,0.027186894789338113,0.1306399255990982,-0.01618923805654049,-0.007086736615747213,0.11059010773897171,0.036341506987810138,-0.03037858195602894,-0.06965881586074829,-0.05898068845272064,0.04713698476552963,-0.13230447471141816,0.06582735478878021,-0.10800047963857651,0.09379938989877701,-0.10372445732355118,0.09947788715362549,0.12292790412902832,-0.05282624438405037,-0.06888646632432938,0.049220532178878787,0.012611223384737969,-0.09255358576774597,0.026381051167845727,0.010956666432321072,-0.09910411387681961,0.18380935490131379,0.08588958531618118,0.11540556699037552,0.10356373339891434,-0.06376524269580841,-0.1407717615365982,-0.03682282567024231,0.357352077960968,0.1466723531484604,-0.1180347129702568,-0.1188749372959137,-0.06368666142225266,0.06417518109083176,-0.1790877729654312,0.021137408912181855,-0.07826919108629227,-0.00553101347759366,-0.05747323855757713,-0.2019616961479187,0.009256171993911267,0.13656464219093324,0.14411590993404389,-0.017530350014567376,0.0037687583826482298,0.05694437399506569,0.06469418853521347,0.017326602712273599,0.09895903617143631,-0.08190566301345825,0.04490051046013832,-0.2819940745830536,-0.0763268992304802,-0.12818071246147157,-0.03644009307026863,0.038565415889024737,0.04311715438961983,-0.13996517658233643,-0.0071067167446017269,0.08630881458520889,-0.036547429859638217,0.0684366375207901,0.022862015292048456,0.03639807924628258,0.011011372320353985,0.021255722269415857,0.08412601798772812,-0.17590747773647309,-0.029158221557736398,-0.032519806176424029,-0.004760974086821079,-0.18872646987438203,-0.18208040297031403,-0.4033975899219513,-0.0431474968791008,-0.018839173018932344,0.07800327241420746,-0.019206969067454339,-0.1175452321767807,0.0502580851316452,-0.0011727494420483709,0.04911980777978897,0.007856333628296852,-0.04740939289331436,0.08059855550527573,-0.021159367635846139,0.0784614309668541,-0.04270824044942856,0.013917990028858185,0.26141661405563357,0.039811134338378909,0.023921897634863855,0.1052519753575325,-0.037908971309661868,0.06387839466333389,-0.07728395611047745,0.02244686894118786,-0.024812715128064157,-0.1802179217338562,-0.061996784061193469,0.05904027819633484,0.07040703296661377,-0.009733941406011582,-0.06159445270895958,-0.016487034037709237,0.1263788640499115,-0.052455704659223559,-0.05584250018000603,-0.12805180251598359,-0.03347122296690941,-0.013837989419698716,0.19816045463085175,-0.043829068541526797,-0.11818138509988785,0.08192896097898483,-0.047980453819036487,0.14686055481433869,0.12265261262655258,0.08017152547836304,-0.014665286988019944,0.2154781073331833,-0.03166709095239639,0.0651770830154419,0.004453359637409449,-0.04286366328597069,0.0756288394331932,0.030201947316527368,-0.022004462778568269,0.16638436913490296,-0.11420537531375885,0.028058743104338647,-0.0800599604845047,-0.0753321647644043,0.03153121471405029,-0.13796423375606538,0.17131860554218293,0.14193154871463777,-0.04215886816382408,0.2441609501838684,-0.10736861079931259,0.03742564842104912,0.05680158734321594,0.025711853057146074,0.014727594330906868,-0.0332050621509552,-0.0018094812985509635,-0.08185482770204544,-0.045211296528577808,0.012333774007856846,0.05730137601494789,0.17800550162792207,-0.006130530498921871,0.06501966714859009,-0.12998968362808228,0.04795341566205025,-0.0609210766851902,-0.08790718019008637,0.03009195066988468,-0.1756885051727295,-0.05239438638091087,0.012292345054447651,-0.20564213395118714,-0.0779811292886734,0.018745319917798044,-0.020360630005598069,-0.09393950551748276,0.11876817792654038,-0.07018546760082245,0.1019151583313942,-0.03251631557941437,0.15373587608337403,-0.02959315851330757,0.07826700061559677,-0.04328027740120888,-0.0015224266098812223,0.12250698357820511,0.1009218841791153,0.07489600777626038,0.023994939401745797,0.11562955379486084,-0.05875835567712784,-0.16142579913139344,0.04219277948141098,0.08682034909725189,0.15619014203548432,-0.02286507748067379,0.17052806913852693,0.07240947335958481,0.07708963751792908,0.00952610932290554,-0.06634450703859329,0.013580159284174443,0.058398399502038959,0.23051586747169496,-0.013191676698625088,-0.028461357578635217,-0.0007992444443516433,-0.0636502131819725,-0.18626679480075837,-0.11881649494171143,0.017632218077778817,-0.07715773582458496,0.022669512778520585,0.050569433718919757,0.02910408191382885,0.04666954651474953,0.18782009184360505,0.04729096591472626,0.1143874004483223,0.0761120393872261,0.13069072365760804,-0.07094450294971466,0.06376317143440247,-0.17873477935791017,-0.08753936737775803,-0.15308049321174622,0.15068885684013368,0.09976508468389511,-0.21454693377017976,0.08436344563961029,-0.07289323955774307,-0.05322647467255592,0.258331298828125,-0.1129423975944519,-0.19310548901557923,0.021202221512794496,-0.07316110283136368,-0.09416414797306061,-0.003065701574087143,0.22898513078689576,0.07288908213376999,0.2027239054441452,-0.05435450002551079,-0.18425405025482179,-0.01080926600843668,0.019842004403471948,-0.012846337631344796,0.004029827192425728,0.05874091386795044,0.03138646483421326,0.05719680339097977,-0.09375583380460739,0.21589621901512147,0.17438451945781709,0.002998280804604292,0.017267310991883279,0.06724202632904053,-0.032824382185935977,-0.0018228552071377636,0.07916678488254547,-0.11236528307199478,0.02665063925087452,0.021162116900086404,-0.14216072857379914,0.013055792078375817,-0.07260040193796158,-0.08697295188903809,0.0688006654381752,0.019904455170035363,-0.10064499080181122,-0.07967068254947663,0.06810954213142395,-0.0007195136859081686,-0.01651129312813282,0.1409861147403717,-0.3479861319065094,0.08261612802743912,-0.059598252177238467,0.11715332418680191,0.009835713542997837,0.038407161831855777,-0.053415969014167789,0.08921351283788681,-0.00010521132207941264,-0.05277608335018158,0.1065060943365097,0.04128709062933922,-0.06887785345315933,-0.1542319506406784,-0.05277039110660553,-0.1815165877342224,0.06522335857152939,0.2712280750274658,-0.0722837969660759,-0.015586404129862786,-0.021009955555200578,0.11180438846349716,0.06164342910051346,-0.02972746454179287,0.04360634461045265,-0.10848689824342728,-0.03815706819295883,-0.08295556157827378,0.18612445890903474,-0.011199062690138817,-0.057620808482170108,0.11293468624353409,0.04383628070354462,0.044128645211458209,0.04833157733082771,-0.2560749650001526,0.07927969098091126,0.0034636170603334905,-0.030632438138127328,0.12417559325695038,0.06687010079622269,-0.0648408755660057,0.11914107203483582,-0.039752792567014697,0.08359523862600327,-0.1708606332540512,-0.06895934045314789,0.006063300184905529,0.22762325406074525,-0.05580359697341919,0.0003139000036753714,-0.22004330158233643,-0.028658349066972734,-0.14387762546539308,-0.05811314657330513,0.015332264825701714,0.0008265548967756331,-0.04629788175225258,-0.024588119238615037,-0.03184926137328148,-0.062077704817056659,-0.20231610536575318,0.02992415800690651,-0.0584985688328743,-0.09323880076408386,0.11681007593870163,-0.14499610662460328,0.08621370792388916,0.05329740792512894,-0.06327605247497559,0.015163526870310307,-0.14979703724384309,-0.07833736389875412,-0.05707339569926262,0.06539714336395264,0.2414036989212036,-0.1126817837357521,-0.11189122498035431,0.12368333339691162,-0.056099142879247668,-0.03808669000864029,-0.08166386187076569,0.044462237507104877,0.11155786365270615,-0.010444199666380883,-0.057699501514434817,-0.10845275223255158,0.0805785283446312,0.002551908837631345,0.26939284801483157,-0.03900374099612236,0.08157114684581757,0.05357426404953003,0.006927387323230505,0.02302396111190319,-0.04613630473613739,-0.1385408490896225,0.01770884543657303,0.06084375083446503,-0.12342081218957901,-0.09109947085380554,-0.05122240632772446,0.0700436681509018,-0.01766505278646946,0.15804262459278108,-0.04164349287748337,-0.055567655712366107,-0.010562310926616192,-0.04800847917795181,0.04133317992091179,-0.1636316329240799,-0.09459028393030167,-0.06849008798599243,-0.06496749818325043,0.026475131511688234,-0.10677395015954972,0.19578994810581208,-0.04832958057522774,-0.18276898562908173,-0.06550662219524384,0.16098369657993318,0.09534677118062973,-0.026419853791594507,-0.10615815967321396,-0.01469636894762516,-0.03967006877064705,0.13996584713459016,-0.10721559077501297,-0.027841482311487199,-0.0029611736536026,0.10058426856994629,-0.08334118127822876,0.06084638833999634,-0.010501224547624588,0.025441447272896768,-0.000367229018593207,0.11870855838060379,-0.015466392040252686,0.11418529599905014,-0.0945930927991867,-0.09498333930969238,-0.08737805485725403,-0.03850731998682022,-0.10277672111988068,0.015017875470221043,0.04726963862776756,-0.05458464473485947,-0.10690291225910187,-0.07339102774858475,0.05129399523139,-0.06165530905127525,-0.021708203479647638,0.09629402309656143,-0.08639702200889588,-0.012248871847987175,-0.1463920921087265,0.1216404139995575,-0.018172813579440118,-0.21170929074287415,0.15656743943691255,0.05348551645874977,-0.17644654214382173,-0.08850061148405075,0.07168537378311157,-0.1079510897397995,-0.10276314616203308,0.013159523718059063,-0.024166930466890336,0.20275922119617463,0.03313229978084564,-0.04398701712489128,0.17498023808002473,0.0039147380739450459,-0.011532686650753022,-0.024049337953329088,-0.05793733522295952,0.06673473864793778,0.0515458919107914,0.04889961704611778,0.021076971665024759,0.061517179012298587,-0.1018529087305069,0.1633719652891159,-0.0803714469075203,0.05966167896986008,-0.11530652642250061,0.2018469125032425,-0.13458184897899629,-0.020072413608431817,-0.011224301531910897,0.027943307533860208,-0.04656771197915077,-0.21700796484947205,0.105233334004879,0.09940731525421143,-0.022553743794560434,0.009252630174160004,-0.04326555132865906,0.05728026479482651,0.04304911941289902,-0.06005626171827316,-0.0510873943567276,0.09553580731153488,0.08442171663045883,-0.1707042157649994,-0.0807117372751236,-0.20954295992851258,-0.05881195515394211,-0.007283277343958616,0.0689418762922287,0.021924570202827455,0.037870172411203387,-0.033043116331100467,-0.07676353305578232,-0.0675615593791008,-0.028827566653490068,-0.01119022537022829,0.025296373292803766,-0.1356511116027832,-0.015387894585728646,0.2698265016078949,0.15194232761859895,-0.06404735147953034,0.04549325630068779,-0.08083480596542359,0.09508306533098221,-0.043228838592767718,-0.09931495785713196,0.009452171623706818,-0.0740550234913826,-0.0608195997774601,0.11920305341482163,-0.08924606442451477,-0.006931551266461611,0.0007045146194286645,0.16743125021457673,-0.07941356301307678,-0.12523449957370759,-0.003792915726080537,-0.20826634764671327,-0.0169965922832489,0.10711005330085755,0.17135381698608399,-0.07728125900030136,0.018255222588777543,-0.0692644789814949,-0.13624806702136994,0.04705603048205376,-0.06051306799054146,-0.16008591651916505,0.08872204273939133,0.1516682654619217,0.07264009863138199,0.06257785111665726,-0.0744672492146492,0.03390570729970932,-0.116065114736557,-0.026942847296595575,0.03495858237147331,-0.13016505539417268,0.05065206438302994,-0.07998396456241608,0.1311737447977066,-0.044926539063453677,0.0029813337605446579,0.053991809487342837,0.158640056848526,0.24756254255771638,-0.13941101729869843,-0.09092506021261215,-0.015703149139881135,0.09115665405988693,-0.11664380133152008,0.006869324948638678,-0.050506189465522769,0.02654441073536873,0.07770625501871109,0.04728778079152107,0.04763321951031685,0.05715863034129143,0.011499665677547455,0.17288337647914887,0.06277823448181153,0.16116085648536683,-0.047464799135923389,0.0278212521225214,0.06706497073173523,0.1104457750916481,-0.03984520584344864,-0.1230630949139595,0.03597329556941986,0.04519167169928551,0.1985342800617218,-0.056792810559272769,-0.12440897524356842,-0.08652452379465103,0.008388717658817768,0.023328585550189019,-0.1040506511926651,-0.05802065134048462,0.09557706862688065,0.07347376644611359,0.13423976302146913,0.05241122841835022,-0.006830952595919371,0.1449545919895172,0.014702936634421349,0.01723753660917282,0.019213473424315454,-0.1433609127998352,0.048796676099300387,0.06236186996102333,-0.0015076205600053073,0.013135399669408799,-0.011368962936103344,0.30492204427719118,0.02004525437951088,0.1114426925778389,-0.059430524706840518,-0.03520390763878822,0.08321632444858551,-0.0278598852455616,0.02903631515800953,-0.04200229048728943,0.0529836006462574,0.13494765758514405,0.07462543994188309,0.22551047801971436,-0.03626323491334915,-0.07684916257858277,0.20468705892562867,-0.0002022804255830124,0.0018423928413540125,-0.014003206975758076,0.017055466771125795,-0.01697556860744953,0.12882627546787263,-0.22700105607509614,-0.025909356772899629,-0.005962321534752846,0.05319112911820412,-0.018343478441238405,-0.08364016562700272,0.07284887880086899,-0.05028761923313141,0.05537118390202522,0.11552412807941437,0.026468610391020776,-0.018276162445545198,0.0519385039806366,0.05635053664445877,-0.034130118787288669,-0.23309381306171418,0.15764988958835603,0.09473685920238495,-0.028509430587291719,-0.050997935235500339,-0.04674499109387398,-0.01827727071940899,-0.1167849451303482,-0.056229911744594577,0.04933740571141243,0.10607312619686127,-0.19222071766853333,-0.04469674080610275,0.012593026272952557,0.08481527864933014,-0.0029022786766290666,0.08719179779291153,-0.09412137418985367,0.03729322552680969,0.005392686929553747,0.3104625940322876,-0.13508358597755433,-0.07988639920949936,-0.028722718358039857,0.02390984818339348,0.19895775616168977,-0.14917485415935517,-0.07741758972406388,0.02886367216706276,-0.10918448865413666,-0.0656631588935852,-0.027328724041581155,0.035977162420749667,0.07864861935377121,0.016315799206495286,-0.07949098199605942,0.03879133239388466,0.1456589549779892,0.02205527201294899,-0.1681356132030487,0.08692061901092529,0.0700044333934784,-0.05772974714636803,-0.0075667970813810829,-0.015448791906237603,0.06209119036793709,0.006109654437750578,0.04001191630959511,-0.13533756136894227,0.054373499006032947,-0.09635976701974869,0.13588665425777436,0.19928091764450074,0.06920089572668076,0.05924275517463684,0.2029624730348587,-0.1672305166721344,0.15085956454277039,-0.05899643152952194,0.055878475308418277,0.009372860193252564,-0.045128364115953448,0.1325453370809555,-0.2676900029182434,-0.06116480380296707,0.05623176321387291,-0.07064260542392731,0.001647819997742772,-0.09594882279634476,-0.07912249863147736,0.2003074437379837,-0.04990343376994133,-0.017314493656158448,0.04282303526997566,0.0047508892603218559,-0.04053598642349243,0.17578710615634919,0.1238388940691948,0.21575357019901277,-0.046396467834711078,-0.13749510049819947,0.08716972172260285,-0.03190344572067261,0.062401581555604938,0.1214120164513588,0.1698566973209381,-0.05194852128624916,-0.1528894305229187,-0.053115665912628177,0.10928184539079666,-0.07906800508499146,0.010836772620677948,0.27000072598457339,0.00015367857122328132,0.12472090870141983,-0.03137317672371864,0.0714506059885025,-0.0012053395621478558,0.0012056516716256738,0.011751078069210053,0.054805953055620196,-0.054028335958719257,0.14801687002182008,-0.015407555736601353,-0.2531352639198303,0.03358644247055054,-0.03554537892341614,0.14754131436347962,-0.028176303952932359,0.14359484612941743,0.008984563872218132,0.03569565713405609,0.04433838278055191,0.09726826846599579,-0.05557192862033844,-0.16464968025684358,-0.0058563631027936939,0.02301306277513504,0.2622837722301483,-0.07642323523759842,0.08437289297580719,-0.12093380838632584,-0.1183280497789383,0.009964868426322937,0.07126267999410629,0.024739669635891916,0.055622268468141559,0.0760209709405899,-0.10411562025547028,-0.09548880904912949,-0.09310474246740341,0.07519477605819702,0.02927044965326786,-0.11548827588558197,0.061997801065444949,-0.0032333058770745994,0.02788815088570118,-0.026462696492671968,0.06605277210474014,0.06823282688856125,-0.0711297020316124,0.11462686955928803,0.1115759089589119,-0.09214602410793305,0.03980599343776703,0.07831046730279923,-0.05446318909525871,-0.10814180970191956,0.06409633904695511,0.21244342625141145,0.018924647942185403,-0.11422955244779587,0.18273136019706727,-0.11807769536972046,-0.07082364708185196,0.030456911772489549,0.15779058635234834,-0.022259434685111047,0.09211990982294083,-0.05288153141736984,-0.11365238577127457,0.11188866943120957,0.0674111619591713,-0.025624586269259454,0.15179242193698884,-0.017427049577236177,0.10782544314861298,-0.02348322980105877,0.12532402575016023,-0.16553890705108643,-0.053108371794223788,-0.03225839510560036,-0.03411414474248886,-0.002820617752149701,0.07835995405912399,0.19366496801376344,-0.004805318079888821,-0.06708309799432755,-0.04753389209508896,0.05366937071084976,0.11901272088289261,-0.03687627613544464,0.13910605013370515,-0.05647079274058342,-0.1326986849308014,0.0963025689125061,-0.01756107620894909,-0.06635068356990814,-0.1510085165500641,-0.0225665383040905,0.18001317977905274,0.10513471812009812,-0.09398405253887177,-0.0846504271030426,0.0780378133058548,0.007213571108877659,0.01857047528028488,-0.017916670069098474,-0.04409977048635483,-0.10189831256866455,0.06424418836832047,-0.023744119331240655,-0.066873699426651,0.11739566177129746,-0.02742023766040802,-0.08471556007862091,0.10638494789600373,0.0249333418905735,0.06052377074956894,0.025618815794587137,0.06455114483833313,0.13185197114944459,0.05132708698511124,-0.039601895958185199,0.1651124209165573,-0.06596612930297852,-0.10603532195091248,-0.05598532781004906,0.19428479671478272,0.0984794944524765,0.12560026347637177,-0.027365701273083688,0.027071485295891763,-0.12571123242378236,0.13979153335094453,-0.07373818010091782,0.030327044427394868,-0.13702866435050965,0.012305599637329579,0.0636528879404068,0.08836223185062409,-0.08775433897972107,-0.1768788993358612,0.02817543037235737,-0.011579107493162156,-0.24090266227722169,0.012369832023978234,0.16412454843521119,-0.07033607363700867,-0.10917244106531143,0.0054303063079714779,0.03277037292718887,0.06876738369464874,0.030881911516189576,-0.03142649307847023,0.003962779883295298,0.14032405614852906,0.07301196455955506,0.1378154754638672,-0.09913817793130875,-0.10034570842981339,0.11942655593156815,-0.1788073480129242,0.07224173843860626,0.21842440962791444,0.059942200779914859,0.000704773876350373,0.021167214959859849,0.06005134433507919,0.009028981439769268,0.045636098831892017,-0.03331653028726578,0.03540436550974846,-0.09203100949525833,-0.03912690654397011,-0.012347097508609295,-0.18452031910419465,0.1476253718137741,0.023457419127225877,-0.021388443186879159,-0.07903171330690384,0.05759362131357193,-0.12712892889976502,-0.07657971233129502,-0.06342286616563797,0.025117065757513047,0.03973102942109108,0.28723087906837466,-0.04840196669101715,0.10812366008758545,-0.0998571366071701,0.08324910700321198,-0.1769176721572876,-0.0802987813949585,0.11129306256771088,0.009224062785506249,0.00005565749597735703,0.10486099123954773,0.10313919931650162,0.043576907366514209,-0.007175589445978403,0.16012583673000337,-0.05546669289469719,-0.11546042561531067,0.05692419782280922,0.10875963419675827,-0.14487981796264649,-0.02451901324093342,0.09737782180309296,0.15672613680362702,-0.032844606786966327,-0.04076854884624481,-0.05108025670051575,0.002167831640690565,-0.049682505428791049,0.020240245386958123,-0.14253030717372895,0.11091137677431107,0.04605244845151901,0.047157254070043567,-0.10209117084741593,0.14162780344486237,-0.040930431336164477,0.06178395450115204,0.03249744325876236,0.09293481707572937,0.15632054209709168,0.055523864924907687,-0.042933642864227298,-0.08219104260206223,-0.23257283866405488,-0.043701253831386569,0.13920162618160249,0.11643607169389725,0.07256927341222763,-0.05813317373394966,0.07728447765111923,-0.03181983903050423,0.14356109499931336,0.03363864868879318,-0.022063584998250009,-0.15973253548145295,-0.050502777099609378,-0.08869479596614838,0.006198910530656576,0.09076417982578278,0.009352821856737137,-0.17896486818790437,0.03799892216920853,0.038433901965618137,0.08380620926618576,-0.12252117693424225,0.04755527526140213,0.020700687542557718,-0.05637558549642563,0.02970636449754238,0.08700041472911835,0.012201282195746899,-0.0419246107339859,0.15275554358959199,0.03661976009607315,-0.06367611140012741,-0.04079461470246315,-0.043236151337623599,0.005097488407045603,-0.024581648409366609,0.04127756506204605,0.016195429489016534,0.11010994017124176,0.0920107290148735,0.28914692997932436,0.02864806540310383,0.0682944729924202,-0.10361788421869278,-0.10065512359142304,-0.04223204031586647,-0.19895701110363007,0.06760114431381226,0.11807318031787873,-0.15951864421367646,0.0009024327155202627,-0.13453225791454316,-0.037194691598415378,0.14126475155353547,0.11708169430494309,0.020034341141581537,0.06812666356563568,-0.1311124563217163,-0.05188378319144249,-0.20835787057876588,-0.12552814185619355,0.1345219910144806,-0.04580361023545265,0.03618304431438446,0.04666583612561226,0.04045289382338524,-0.0657406598329544,0.01725102961063385,-0.1923508644104004,-0.040247902274131778,0.04732346162199974,0.16623227298259736,-0.07379966974258423,0.004835889209061861,-0.009522677399218083,-0.09696272015571594,0.08372928202152252,-0.07067565619945526,-0.03489100933074951,0.07330912351608277,-0.023688772693276407,0.14399197697639466,-0.10953356325626373,0.08010157197713852,0.06925691664218903,0.08982489258050919,0.04372822493314743,-0.06684593111276627,0.07815450429916382,0.08290018886327744,-0.17607711255550385,-0.047809403389692309,0.030108455568552018,-0.20435886085033418,-0.03691212460398674,0.077656589448452,-0.04632297903299332,0.013251109980046749,-0.017959747463464738,0.017713556066155435,0.11583998799324036,0.10342030227184296,0.11650538444519043,0.11317779868841171,-0.07330182939767838,0.07576468586921692,-0.07080342620611191,0.055509570986032489,0.04868074506521225,0.10650795698165894,-0.00306347431614995,0.16281726956367494,0.014155521988868714,-0.13264819979667664,-0.260705828666687,-0.06691773235797882,0.04011741280555725,-0.05769361928105354,0.05543782562017441,0.05372501164674759,-0.0007416783482767642,-0.06752549111843109,0.00721396179869771,0.08553415536880493,0.007509246468544006,-0.014292093925178051,-0.024723699316382409,-0.0038123377598822119,0.18259675800800324,-0.052526265382766727,0.23796170949935914,-0.14700204133987428,-0.09026699513196945,-0.014937530271708966,0.014919137582182885,-0.09427239745855332,0.007895918563008309,-0.06335359811782837,0.0186839047819376,-0.06876005232334137,0.010196760296821595,0.015282651409506798,0.04389536753296852,-0.17421631515026093,-0.0053919474594295029,0.07604260742664337,-0.027973948046565057,-0.05496677756309509,0.03756263107061386,-0.12651588022708894,-0.03871528059244156,0.07352013885974884,0.11736226826906204,0.08013150840997696,-0.13571493327617646,-0.09845952689647675,-0.08951546996831894,-0.016201870515942575,0.06714579463005066,-0.003912594635039568,0.1174142137169838,0.008987066335976124,0.10679114609956742,0.026169057935476304,-0.07165049016475678,0.08702482283115387,0.05037490651011467,0.04212837293744087,-0.07395200431346894,-0.055290937423706058,-0.0907658040523529,0.0580119863152504,0.0389600433409214,-0.028743211179971696,0.06094186007976532,-0.10903681814670563,0.09826699644327164,-0.05754871293902397,-0.027842869982123376,0.04531962051987648,0.1095067709684372,0.08547978103160858,0.1544775813817978,0.042692869901657107,-0.08087366819381714,0.0030164106283336879,0.03295000642538071,-0.045282475650310519,-0.0589602068066597,-0.011608920060098172,-0.04175631329417229,0.032216913998126987,-0.11025366932153702,-0.17492620646953584,0.08537088334560394,-0.11966283619403839,0.053503770381212237,0.07208488881587982,0.1536450833082199,-0.04320318624377251,0.08941652625799179,-0.005365763790905476,-0.13480253517627717,-0.13878829777240754,-0.011527231894433499,-0.04475130885839462,0.06442930549383164,0.02677164599299431,0.10846512764692307,0.03558827191591263,-0.022155120968818666,-0.071990005671978,0.021762767806649209,0.08781906962394715,0.0004212461062707007,0.11604031175374985,-0.004090071655809879,0.0979694351553917,0.14351807534694673,-0.11821603029966355,0.0799054354429245,-0.06091584637761116,-0.0996260941028595,0.047532279044389728,-0.10044499486684799,-0.17037759721279145,-0.0035877295304089786,0.056185800582170489,0.09006886929273606,-0.24671638011932374,0.11882409453392029,-0.0031190775334835054,-0.048875026404857638,0.04471028596162796,-0.1407034546136856,-0.11850868165493012,0.15596704185009004,-0.03169501945376396,-0.1025836169719696,-0.11130475997924805,0.1312059611082077,0.013765119947493077,-0.05010223388671875,0.012047537602484227,-0.268498033285141,-0.10935919731855393,0.05579090490937233,0.09975847601890564,-0.033921245485544208,-0.09705748409032822,-0.008607682771980763,-0.09585322439670563,0.08549375832080841,0.1158682107925415,-0.08294952660799027,-0.20924066007137299,0.04284204915165901,0.0032783402130007746,-0.01122382190078497,-0.17253825068473817,0.061621587723493579,-0.06702744215726853,-0.09167473763227463,-0.10552264750003815,-0.018833573907613756,-0.027623729780316354,0.01822322979569435,0.16697685420513154,-0.00781258288770914,0.1283673793077469,-0.024491898715496064,0.04080209136009216,-0.09057004749774933,0.033240947872400287,0.12686628103256226,-0.018867816776037217,-0.11797606945037842,0.06468261033296585,-0.043202273547649387,-0.08392739295959473,-0.014593526721000672,0.034051764756441119,0.02729315683245659,0.07845358550548554,-0.06470711529254914,-0.3119795620441437,-0.04711562767624855,0.09614185243844986,-0.11605370044708252,-0.0036784708499908449,0.08733610063791275,0.026581237092614175,-0.0024753292091190817,-0.1544879972934723,-0.07435432076454163,0.09532256424427033,0.18603898584842683,-0.0035826698876917364,-0.1982111632823944,0.08095825463533402,-0.032067518681287768,0.1738862842321396,0.09281650930643082,-0.1718171387910843,-0.1593806892633438,0.0127258887514472,0.06885484606027603,-0.19913528859615327,0.00561700202524662,-0.13407224416732789,-0.15004563331604005,-0.031020283699035646,-0.10790051519870758,0.0021975161507725717,0.07909532636404038,-0.14827696979045869,-0.18639157712459565,0.11646811664104462,-0.1108849048614502,-0.07936728000640869,-0.009899013675749302,-0.02693895809352398,0.03691188618540764,-0.06314315646886826,-0.11367074400186539,0.029509248211979867,-0.06885555386543274,-0.03149133548140526,-0.0637938603758812,-0.07623941451311112,-0.06838113814592362,0.018898164853453637,0.07491455972194672,-0.016061127185821534,-0.0006054485565982759,0.0731925442814827,-0.02384568192064762,-0.05776432156562805,0.030704649165272714,-0.0017018814105540515,-0.2184772491455078,-0.16135132312774659,0.07961669564247132,0.17304499447345735,-0.011443563736975193,0.011668450199067593,0.05025821179151535,0.15833717584609986,-0.03412815183401108,0.05128622427582741,-0.11265283077955246,0.04514535143971443,0.03905865550041199,-0.16463984549045564,0.2087218165397644,0.041561346501111987,-0.08070685714483261,-0.020836694166064264,0.041491687297821048,-0.03798120841383934,-0.1900988072156906,0.08793708682060242,0.12733317911624909,-0.09300743788480759,0.012774338014423848,-0.07878521829843521,-0.049736980348825458,0.11419828981161118,-0.001470993272960186,0.052171409130096439,-0.09022291004657746,-0.15281341969966889,-0.07417555898427963,0.0462956465780735,-0.06980278342962265,-0.008782641030848027,0.24031774699687959,-0.17278046905994416,0.019547397270798684,-0.050880324095487598,0.02254672162234783,-0.016322774812579156,-0.033215299248695376,0.08337223529815674,0.09048310667276383,0.06875301897525788,0.09489638358354569,-0.04053518921136856,0.06173241510987282,-0.09901714324951172,0.10174651443958283,0.03411608934402466,-0.013901014812290669,0.09522876143455506,-0.1293424814939499,0.008424155414104462,0.16540025174617768,-0.07923001050949097,-0.023395711556077005,0.04081634432077408,-0.17726032435894013,0.04570912942290306,-0.15655992925167085,-0.1573513299226761,-0.04054432734847069,0.15727810561656953,0.004679413978010416,0.029785502701997758,-0.029077311977744104,0.18124331533908845,0.08797188103199005,-0.018662186339497567,0.040357694029808047,0.05359487608075142,-0.029667899012565614,-0.0005566485342569649,0.09739558398723602,-0.07720232754945755,-0.10936975479125977,-0.014381513930857182,-0.14594529569149018,-0.10829312354326248,0.09889599680900574,0.0805232971906662,-0.012710838578641415,-0.11043030768632889,-0.003013255773112178,-0.0023783203214406969,0.02300858497619629,-0.05176524072885513,-0.12493091821670532,-0.030631165951490403,0.09366118162870407,-0.08179012686014176,0.001997742336243391,-0.183428093791008,0.026358578354120256,-0.03993146866559982,-0.04486653581261635,0.06723024696111679,0.08069956302642822,-0.05329743027687073,0.05394750460982323,0.04528401046991348,-0.10777804255485535,0.04033889248967171,0.03928190469741821,0.0480717308819294,-0.029605800285935403,0.183634951710701,-0.09251070022583008,0.03684999793767929,-0.02187030203640461,0.07678145915269852,0.11654859781265259,0.017502395436167718,-0.03189548850059509,0.13898076117038728,-0.03391871973872185,0.177917942404747,-0.06883919984102249,-0.011636522598564625,-0.05966120585799217,-0.08074378967285156,-0.062294892966747287,-0.03672485798597336,-0.06005876883864403,-0.02448873221874237,0.13450658321380616,0.012299219146370888,0.03635886684060097,0.07235613465309143,-0.1411527395248413,0.021832363680005075,0.05002220347523689,-0.0394931323826313,-0.07311074435710907,0.004373087082058191,0.08840727061033249,0.03054208680987358,-0.12855204939842225,-0.10971900075674057,0.027186792343854905,0.0553370825946331,0.15068811178207398,0.023790674284100534,0.004364300984889269,0.1100061684846878,-0.015495453029870987,-0.1342502385377884,-0.264198362827301,0.16684246063232423,-0.08639640361070633,-0.07967031747102738,-0.15932412445545197,-0.02519615925848484,-0.05656658113002777,0.012406415306031704,-0.03391040861606598,-0.0510992668569088,0.05097392573952675,0.05958513915538788,0.05769026651978493,0.007708502467721701,0.0875513106584549,-0.22933346033096314,-0.16059865057468415,-0.17413504421710969,0.08397648483514786,0.003527666674926877,0.013019579462707043,0.13100746273994447,-0.01720552332699299,0.03350096195936203,0.01009534951299429,0.11082634329795838,0.17460724711418153,-0.08954870700836182,-0.11161269247531891,0.032402146607637408,0.02267904207110405,-0.09695031493902207,-0.07002682983875275,-0.052632398903369907,0.02900742180645466,-0.12137163430452347,-0.10423272103071213,0.037844542413949969,-0.09076586365699768,-0.07329051941633225,-0.05889521539211273,-0.12061598896980286,-0.12681275606155396,-0.058098044246435168,0.04495074227452278,-0.16347165405750276,-0.039318379014730456,-0.06629197299480438,0.04415971785783768,0.09966473281383515,-0.06045416742563248,0.17639441788196565,-0.02649598754942417,-0.00031358926207758486,0.11322513222694397,-0.07368893176317215,0.16046811640262605,-0.045454125851392749,-0.01815824769437313,-0.05825342237949371,-0.11940204352140427,0.06033967435359955,-0.013750613667070866,-0.031966663897037509,-0.00932072103023529,-0.11100468784570694,0.1423332244157791,-0.025434311479330064,-0.05766686424612999,-0.025881431996822358,0.013046099804341793,0.08234164118766785,-0.037943560630083087,0.05729467049241066,-0.16954898834228517,0.018759993836283685,-0.09812866896390915,0.20699749886989594,-0.0612633153796196,0.1008085310459137,0.13394096493721009,0.14082258939743043,-0.0094235148280859,0.037594638764858249,0.06213792413473129,0.1758676916360855,0.06986460089683533,0.08392370492219925,-0.1386067271232605,0.03613695874810219,0.22918003797531129,-0.10903269797563553,0.10012820363044739,-0.04697612300515175,0.18689371645450593,-0.0020766439847648145,0.003013834822922945,0.08988630771636963,0.05822517350316048,-0.016928663477301599,-0.06379640102386475,-0.12458217144012451,-0.047713495790958408,0.03460386395454407,-0.08592133969068527,-0.0004135571653023362,-0.13962078094482423,-0.13583673536777497,0.000053074443712830544,-0.1359787881374359,-0.1530362069606781,0.020617198199033738,0.0036273279692977669,0.12338928878307343,0.016192981973290445,0.0879460871219635,-0.1100660115480423,0.04416658356785774,-0.030195564031600953,0.1287766993045807,-0.11082402616739273,0.1236104816198349,-0.12572605907917024,-0.07028784602880478,-0.19981440901756288,0.09622588753700257,-0.05039454251527786,0.012041708454489708,-0.01131035853177309,-0.16529323160648347,0.10086318850517273,-0.05714789032936096,-0.09753677248954773,0.023428980261087419,-0.04624467343091965,-0.056838300079107288,0.12400044500827789,0.03450395166873932,-0.1405441164970398,-0.004591798409819603,-0.05949331074953079,-0.1445440798997879,0.0024409412872046234,-0.0038850202690809967,-0.09383498132228852,-0.009106154553592205,0.029206790030002595,0.08369926363229752,-0.33364051580429079,-0.06801558285951615,0.2921467125415802,0.1390054076910019,-0.012903896160423756,-0.037790268659591678,-0.10904046893119812,-0.08980750292539597,0.017738493159413339,-0.073439821600914,-0.06872428208589554,-0.04494554176926613,0.10559964179992676,-0.04814758151769638,-0.1857200264930725,0.010914812795817852,0.05254757031798363,-0.07856523245573044,0.15324054658412934,0.03767714649438858,-0.07562760263681412,0.055885013192892078,-0.11837521195411682,-0.2713475227355957,-0.06314696371555329,-0.009729811921715737,-0.17363853752613069,0.007788018323481083,0.0003695084888022393,-0.21579164266586305,0.04382306709885597,0.18742449581623078,-0.06749232858419419,0.00936103705316782,-0.03320234641432762,-0.04256991297006607,0.11424528062343598,0.08783232420682907,0.007850429974496365,-0.040506891906261447,0.02584400586783886,0.16428203880786897,0.011069566942751408,-0.0161497313529253,0.12204817682504654,0.05317342281341553,0.10457045584917069,-0.042938292026519778,-0.05332931876182556,0.09905937314033508,-0.056592706590890887,0.026569444686174394,0.1660008281469345,0.03803934156894684,-0.17845070362091065,0.006081269588321447,0.07510223239660263,0.09062154591083527,-0.12657806277275086,0.10895223170518875,0.05082342028617859,-0.06317340582609177,-0.03892787545919418,0.10132143646478653,-0.14197008311748506,0.1018868088722229,0.04917413368821144,-0.09639956057071686,0.1088126003742218,0.026495089754462243,-0.16759690642356873,0.003398377448320389,0.09676960110664368,0.09315672516822815,0.01883164420723915,-0.022186707705259324,0.013157673180103302,-0.09379322081804276,-0.05643363669514656,0.15562273561954499,0.2556842565536499,0.08113794028759003,-0.16932795941829682,0.07412125915288925,-0.018659332767128946,-0.0005751927965320647,-0.05790676921606064,0.01048064325004816,-0.18420875072479249,-0.10583736002445221,0.15626879036426545,-0.08152159303426743,-0.012621195986866951,0.025544142350554467,-0.01870274916291237,-0.047146860510110858,-0.21208037436008454,-0.052336435765028,-0.14650976657867433,-0.11984197795391083,0.10446751862764359,-0.07264533638954163,-0.07668139040470123,-0.01954973116517067,0.02323395386338234,-0.06784582883119583,0.019428826868534089,-0.14651650190353394,-0.07108822464942932,-0.17508302628993989,0.07109168916940689,0.06823849678039551,-0.06349185854196549,-0.007950144819915295,0.054368678480386737,-0.018746966496109964,-0.06357187777757645,0.01566052995622158,-0.00478715356439352,-0.0036302495282143356,0.06933547556400299,-0.013690546154975891,-0.13668520748615266,-0.028009507805109025,-0.05497393757104874,0.15888391435146333,-0.09080170094966889,0.043421074748039249,0.0658896341919899,-0.04191196709871292,0.0708785131573677,0.10446902364492417,-0.009926608763635159,0.08185620605945587,0.21723899245262147,-0.19515985250473023,-0.0476023331284523,0.12649475038051606,0.07496455311775208,0.008033553138375283,0.03382131829857826,-0.12795595824718476,-0.05957990512251854,-0.0115535082295537,0.09586557745933533,-0.06589242070913315,0.1124042421579361,0.012832386419177056,0.03408631682395935,0.2481870949268341,-0.07779504358768463,0.017837446182966234,-0.09019283950328827,-0.04961058497428894,-0.07812026143074036,0.020422914996743203,-0.07814168930053711,-0.03492885082960129,0.04212088882923126,0.04595392197370529,0.018999604508280755,-0.028870338574051858,0.008846449665725232,0.10625431686639786,0.052227940410375598,-0.0022025099024176599,0.01023805607110262,0.021622631698846818,-0.06626680493354798,0.0976087898015976,0.07597338408231735,0.06149120256304741,-0.16689282655715943,0.1971549689769745,0.10279142111539841,0.056752875447273257,-0.03262493386864662,0.07500816881656647,-0.0605534128844738,0.07109751552343369,0.17797456681728364,-0.06767651438713074,0.0023568663746118547,-0.0017068351153284312,-0.11178074032068253,-0.01710682176053524,-0.09106388688087464,-0.030303550884127618,-0.010386505164206028,0.04271317273378372,0.10954372584819794,-0.07483082264661789,-0.033452074974775317,0.025424394756555558,0.07090424001216889,-0.12920649349689485,0.09806258231401444,0.01107543334364891,0.009753849357366562,0.05316271632909775,0.04967903718352318,-0.054723627865314487,0.027569780126214029,0.02562672086060047,-0.009397046640515328,0.18706737458705903,0.020709939301013948,-0.06730230152606964,0.06791345775127411,-0.04114400967955589,-0.0032408609986305238,-0.028603389859199525,-0.044508714228868487,-0.03760140761733055,-0.0680178627371788,0.022677285596728326,-0.06496765464544296,0.13190382719039918,0.02632424235343933,0.02156183496117592,0.00047977364738471806,-0.06733031570911408,0.024783771485090257,-0.014977519400417805,0.13364754617214204,-0.0891931802034378,0.06493838131427765,0.14947059750556947,-0.09264738857746124,0.1745688021183014,0.02572701685130596,0.0972488671541214,-0.07561822235584259,0.14936284720897675,-0.08497463166713715,-0.07131684571504593,-0.07035580277442932,0.03378660976886749,0.19477909803390504,-0.05107062682509422,-0.028952477499842645,0.06241559237241745,0.10719051212072373,-0.06443143635988236,-0.054887622594833377,-0.04118628054857254,0.021918224170804025,-0.021539606153964998,0.13429316878318788,-0.02203195169568062,0.03694108873605728,-0.05338026583194733,-0.31713542342185976,0.02121838368475437,0.10022195428609848,0.04829394444823265,0.05435243248939514,-0.024350106716156007,0.13133087754249574,0.0666469931602478,-0.2533995509147644,0.059566035866737369,-0.014251581393182278,0.08939936757087708,-0.16076064109802247,-0.008014526218175888,-0.03514240309596062,0.013636431656777859,-0.06766985356807709,-0.1351526826620102,-0.018121914938092233,0.22766120731830598,-0.056983932852745059,-0.015164978802204132,-0.008059841580688954,-0.037820350378751758,-0.06960535049438477,-0.036963481456041339,-0.08224739879369736,0.0364435575902462,-0.18539607524871827,-0.012309333309531212,0.1484428495168686,0.07536358386278153,0.03290403634309769,-0.13592572510242463,-0.0137409633025527,-0.0026062263641506435,-0.03165533393621445,-0.09446533024311066,0.1090446412563324,-0.09808158874511719,-0.11910440772771836,-0.10343068838119507,0.007766793482005596,0.025713235139846803,-0.052357301115989688,-0.034882575273513797,0.0874260887503624,0.0068333763629198078,0.10693900287151337,-0.22910167276859284,-0.12557575106620789,0.011986331082880497,0.07806909829378128,0.03316708281636238,0.19682081043720246,0.0600663423538208,0.09918574243783951,0.020157743245363237,0.01955455169081688,-0.01521478034555912,0.14238202571868897,0.0083700492978096,-0.026647375896573068,-0.0008766002720221877,0.006985169369727373,0.022744227200746537,0.018594564869999887,0.14723879098892213,0.021348953247070314,0.1578766256570816,-0.07156349718570709,0.01221450511366129,-0.012538259848952294,0.1708061546087265,0.03823124244809151,0.024205278605222703,-0.013249324634671212,0.07735269516706467,0.015665145590901376,-0.03576231002807617,-0.180243581533432,0.10823040455579758,0.10559749603271485,-0.006250265520066023,0.03512614965438843,-0.0774223580956459,-0.04989462345838547,0.03905463591217995,0.00228986912406981,-0.11639164388179779,-0.13710805773735047,0.18947283923625947,-0.14422443509101869,0.0006767258164472878,0.041725318878889087,-0.132237046957016,0.037571996450424197,-0.006855630315840244,-0.12400255352258682,0.043556664139032367,0.10349711030721665,-0.09135548025369644,0.04459904879331589,0.16149437427520753,0.07745924592018128,0.0174152422696352,0.08433548361063004,0.03730430826544762,0.07037220150232315,-0.03603241965174675,0.05977366864681244,-0.1633654534816742,-0.1717311292886734,-0.04648352041840553,-0.05640362948179245,0.014239703305065632,0.09132856130599976,0.08725143224000931,0.10143326222896576,0.06593766808509827,-0.12325897812843323,-0.03188665956258774,-0.07502589374780655,-0.09748503565788269,-0.036146726459264758,0.12519951164722444,0.017120428383350374,0.025156350806355478,0.15358567237854005,-0.006365890149027109,-0.09754244983196259,-0.04756869375705719,-0.015317629091441632,0.01751106046140194,-0.029511701315641404,0.016277970746159555,-0.06228155642747879,-0.09343510121107102,0.03420047461986542,0.0818466991186142,0.06206837669014931,0.007575719617307186,-0.10182308405637741,-0.02570943348109722,0.13237611949443818,0.049459196627140048,0.07250242680311203,-0.0836339071393013,-0.08547226339578629,-0.1341494917869568,-0.20384706556797028,0.06079351156949997,-0.011942882090806961,0.011498712003231049,0.09344058483839035,-0.10743081569671631,-0.05847369506955147,0.14406517148017884,0.07508637756109238,-0.08688738942146301,0.034655094146728519,-0.11052042245864868,-0.04886256530880928,0.019099561497569085,-0.13271987438201905,-0.13108712434768678,0.008292886428534985,-0.028099577873945237,-0.06447762250900269,0.039187271147966388,-0.0956241637468338,-0.008539855480194092,0.05571649968624115,-0.07660165429115296,0.12177986651659012,0.14154718816280366,-0.11641648411750794,-0.06969857215881348,-0.09192842990159989,0.07114399969577789,0.3115602731704712,-0.005882903002202511,-0.0245832372456789,-0.052676182240247729,0.100583016872406,-0.08663113415241242,0.05202717334032059,0.07704615592956543,0.13213583827018739,-0.04364871606230736,0.03228072077035904,-0.16088104248046876,0.11324947327375412,0.034864652901887897,0.14425912499427796,-0.03534139320254326,0.0163734033703804,-0.1108483374118805,-0.02620137296617031,-0.28725728392601015,0.05485932528972626,-0.14369817078113557,0.04362613707780838,0.09980512410402298,0.1385752409696579,0.12375287711620331,-0.07201696932315827,-0.13987791538238526,0.0033553477842360737,-0.11176406592130661,0.09448763728141785,0.12612953782081605,-0.048201654106378558,0.08281264454126358,-0.08921463787555695,0.0383409708738327,-0.003281279234215617,-0.1776324361562729,0.0048309992998838429,0.10310136526823044,0.005073083098977804,-0.09961235523223877,0.03561583161354065,-0.011327948421239853,-0.06823083013296128,-0.046734705567359927,0.12397587299346924,0.1668255478143692,0.06349344551563263,0.005267587956041098,0.04131028801202774,0.07601746171712876,-0.008985057473182679,-0.1509391963481903,0.0509781688451767,-0.016443125903606416,0.08289878070354462,-0.05663943663239479,0.011113869026303292,-0.15353775024414063,-0.17786668241024018,0.030904104933142663,0.0009251352166756988,-0.004306226037442684,-0.14303962886333466,-0.17358247935771943,0.0059440648183226589,0.010232623666524887,0.018245939165353776,-0.07590804249048233,-0.2129080593585968,-0.0205963384360075,0.09766711294651032,-0.0038166374433785679,-0.17482376098632813,0.1211489737033844,0.03981364145874977,0.04884150251746178,-0.03376670181751251,-0.12538902461528779,0.014769312925636769,0.014071928337216378,0.12076234817504883,0.01749834604561329,-0.023406293243169786,-0.17200656235218049,0.1261163055896759,0.03405371308326721,-0.17159192264080048,-0.05903853848576546,0.003027271945029497,-0.03828515112400055,-0.11634942889213562,0.03495422750711441,-0.19465449452400208,-0.10842186957597733,0.06934481859207154,-0.011082565411925316,-0.18172866106033326,0.06513672322034836,-0.03846905753016472,0.0874686911702156,-0.10539093613624573,-0.017061658203601838,0.0368788056075573,-0.1609170287847519,-0.2242187261581421,-0.020307179540395738,-0.027560794726014139,0.05858497694134712,-0.00018183178326580673,-0.040072694420814517,0.0771961659193039,-0.04147908091545105,-0.1302179992198944,0.05412190034985542,0.14524132013320924,-0.13347798585891725,-0.11161993443965912,-0.1675739735364914,0.034759264439344409,-0.047258395701646808,-0.08072829991579056,-0.06958608329296112,-0.03171392157673836,0.06664793193340302,0.2523311376571655,-0.056709229946136478,-0.08258768916130066,0.05168194696307182,-0.03034723922610283,-0.14210307598114015,-0.18976925313472749,-0.06111445277929306,0.017947625368833543,-0.07051844894886017,0.006265952717512846,0.06468922644853592,0.09175486117601395,-0.1688612699508667,0.03081626258790493,0.02906690537929535,0.2034228891134262,-0.12484370917081833,0.06116078794002533,-0.12695558369159699,0.055538129061460498,-0.034143101423978809,0.002289197873324156,-0.06652318686246872,0.028249209746718408,-0.09849279373884201,0.016215048730373384,-0.003105953335762024,0.03910791128873825,0.08972962200641632,-0.06957873702049256,0.022477395832538606,-0.21850170195102693,-0.021240565925836564,-0.02951340563595295,0.04496302455663681,-0.11368891596794129,-0.09166648983955383,0.00529522355645895,-0.0831218808889389,0.0896068662405014,0.005800705403089523,0.12590812146663667,0.012896942906081677,0.023885002359747888,-0.04496802017092705,-0.2653292417526245,0.03161749243736267,0.09050830453634262,0.034253139048814777,-0.10738357156515122,-0.028303440660238267,-0.14915446937084199,-0.0706714391708374,0.004381338134407997,0.10095766931772232,-0.06528577953577042,0.027645157650113107,0.000275472120847553,-0.08092770725488663,-0.045386526733636859,-0.19059646129608155,0.17793691158294679,0.07345805317163468,0.021498098969459535,-0.1390869915485382,0.10638236999511719,0.04258665069937706,-0.0228698942810297,-0.11442317068576813,0.012605559080839157,0.06927953660488129,0.0439283587038517,0.03030950203537941,-0.012975919991731644,-0.04277126491069794,0.11926044523715973,0.0010151093592867256,-0.10600227117538452,0.039438486099243167,-0.057802412658929828,0.0004801189643330872,0.005654343869537115,0.007919293828308583,-0.1438944786787033,-0.01292012445628643,0.026981519535183908,-0.02343568205833435,-0.18634185194969178,-0.0815107524394989,0.013729874975979329,0.07332197576761246,-0.17939557135105134,0.1401076465845108,-0.014605828560888768,-0.08668786287307739,0.08319732546806336,0.06304354965686798,-0.05701230466365814,-0.19108852744102479,0.027462946251034738,0.14350242912769319,0.08057966828346253,0.04584449157118797,-0.11393581330776215,-0.1180938109755516,0.16479896008968354,0.026706432923674585,0.09304629266262055,-0.007954348810017109,-0.0003181980864610523,0.05768362432718277,-0.04633606970310211,-0.053254660218954089,-0.04830039292573929,0.0005147480987943709,-0.0999714806675911,-0.24844102561473847,-0.012523435056209565,-0.05058597773313522,-0.01524997130036354,0.05345536023378372,-0.10489622503519058,-0.0510874018073082,-0.1289730966091156,0.03940306976437569,-0.04616651311516762,0.07905298471450806,-0.028429005295038224,-0.16987812519073487,-0.005500016734004021,-0.09027279913425446,-0.034514304250478747,0.07430402934551239,0.1355762779712677,-0.11205976456403732,-0.03793582320213318,0.009255020879209042,0.08780442178249359,0.0014892667531967164,-0.04903911426663399,-0.029704948887228967,0.08097744733095169,-0.030580254271626474,-0.0741923376917839,0.05708782747387886,-0.016096528619527818,-0.009447358548641205,0.02203989215195179,-0.0851321592926979,0.11971616744995117,0.011479279957711697,-0.1170753613114357,-0.032542984932661059,-0.015657741576433183,-0.10294422507286072,-0.0747629702091217,0.01542490441352129,-0.08557440340518952,0.03536107763648033,0.16677330434322358,0.20051710307598115,0.09499824792146683,-0.013403129763901234,-0.03263254836201668,-0.10765980184078217,0.04333924874663353,0.16050900518894196,-0.05138549953699112,0.05582466721534729,-0.08999598771333695,0.04574906826019287,0.10056363791227341,0.006105946842581034,-0.014237583614885807,-0.07028459757566452,-0.04498368874192238,0.07932562381029129,-0.0008993705851025879,0.06237021088600159,0.042773354798555377,-0.0433376207947731,-0.060021303594112399,0.02596292458474636,0.08824235945940018,-0.10669716447591782,0.1926136165857315,0.03025037795305252,-0.11770989000797272,0.05242234095931053,-0.0392458476126194,0.004177634138613939,-0.008997147902846337,-0.04869375377893448,-0.009254255332052708,-0.23051467537879945,0.046799302101135257,0.0783662497997284,0.11077746748924256,-0.05117155238986015,0.09637758135795593,0.13663288950920106,-0.07739043980836868,0.09722236543893814,0.20489901304244996,0.08779367059469223,-0.03492201864719391,-0.03558508679270744,-0.10970022529363632,0.05244814604520798,-0.07961195707321167,-0.07968740165233612,-0.08367955684661865,-0.013341803103685379,-0.08168939501047135,0.053365107625722888,0.17965729534626008,0.031093286350369455,-0.1030782014131546,0.06460960954427719,0.08276382833719254,-0.03282930329442024,-0.1447942554950714,0.00886999536305666,-0.11922214180231095,-0.05422208085656166,-0.0036511910147964956,-0.007259549107402563,-0.0892886221408844,0.18453122675418855,0.0034658678341656925,0.11220377683639527,-0.010494832880795002,0.008861254900693894,0.04284124821424484,-0.11249510198831558,0.23960335552692414,-0.010334078222513199,-0.04051889851689339,0.005209558177739382,-0.09176071733236313,0.005916839465498924,0.21714511513710023,-0.1208571121096611,0.16012024879455567,-0.029915597289800645,-0.066942498087883,-0.07205531001091004,-0.0957237258553505,-0.1167868971824646,-0.002965977182611823,-0.016835715621709825,0.10725609213113785,0.037257783114910129,0.07331498712301254,-0.07985693961381912,-0.02472821995615959,-0.09139653295278549,0.0016328493366017938,0.14169621467590333,0.13109272718429566,-0.05987130105495453,0.04716704040765762,0.030459750443696977,0.09377925843000412,0.02262120507657528,-0.055930569767951968,0.0250860545784235,-0.12437975406646729,-0.04696653410792351,-0.014451678842306137,-0.17536503076553346,0.08752527087926865,0.09096720069646836,-0.1778971254825592,0.03350182995200157,0.09761261194944382,0.08277732878923416,-0.09315948933362961,-0.07120682299137116,0.1739281862974167,0.06341686099767685,-0.0022248763125389816,-0.14762842655181886,0.020589515566825868,0.09809751063585282,0.05891977995634079,0.06776833534240723,0.07706227898597717,0.0077814869582653049,-0.056529246270656589,-0.1346226930618286,-0.07975927740335465,0.05187900736927986,-0.022135069593787195,0.01789810135960579,-0.18669407069683076,0.06902042776346207,-0.16459961235523225,0.050637345761060718,-0.05101726949214935,-0.11423803865909577,-0.11477603018283844,0.1463063806295395,-0.035053662955760959,-0.019534578546881677,0.03569532185792923,0.09434729814529419,-0.11604581773281098,-0.020692365244030954,0.04168063774704933,0.03533930331468582,0.04116849601268768,0.0022367211058735849,0.09938465803861618,0.004034258425235748,-0.1258571594953537,0.011032996699213982,0.0286131352186203,-0.09635911881923676,0.084974505007267,0.12465501576662064,-0.016442637890577318,0.009334049187600613,0.07232391834259033,0.16910867393016816,-0.03236166760325432,-0.0994662493467331,0.01059384923428297,0.21893993020057679,0.09018424898386002,0.0333792120218277,0.007455837447196245,-0.006575906649231911,0.012519149109721184,-0.1386214643716812,0.030839940533041955,-0.02126152068376541,-0.0104573555290699,-0.0932425856590271,-0.014870601706206799,0.15292009711265565,-0.1444225162267685,0.08597338199615479,-0.04133303835988045,-0.13247768580913545,0.09233488142490387,0.1352224051952362,-0.023456767201423646,0.05301174893975258,-0.05016588419675827,-0.13974586129188538,-0.054489415138959888,-0.015955952927470208,-0.020383335649967195,0.02577030658721924,0.03366385027766228,-0.07255911827087403,0.0046500228345394138,0.016288379207253457,-0.027679016813635827,-0.17017866671085359,0.009805657900869847,-0.048272211104631427,-0.025578152388334276,-0.16197672486305238,0.026404784992337228,0.0074879880994558338,-0.029062306508421899,-0.10037097334861756,-0.06954743713140488,0.14807602763175965,-0.09825962781906128,0.018539991229772569,-0.020821072161197664,0.08511719107627869,-0.07005124539136887,0.013913906179368496,-0.07244600355625153,-0.05596698075532913,0.005783447530120611,0.1858752965927124,-0.0970798134803772,0.0342450886964798,-0.044336963444948199,0.15517468750476838,-0.13802435994148255,0.12836046516895295,0.030480219051241876,0.057760659605264667,0.172149196267128,0.15409612655639649,-0.11364839971065521,0.16536210477352143,0.03226383402943611,0.030801160261034967,0.05931688845157623,-0.13005325198173524,-0.05420561507344246,0.07278989255428314,-0.16447390615940095,0.07805386185646057,-0.020771406590938569,-0.002441949676722288,-0.11577759683132172,0.22002851963043214,0.26510682702064516,0.04817986115813255,-0.07011666148900986,-0.16377590596675874,0.0865892544388771,-0.1465025246143341,-0.011017058975994587,0.011580807156860829,-0.11968041956424713,-0.005180646665394306,0.11549379676580429,-0.05023320019245148,0.19815760850906373,0.07118229568004608,0.21196158230304719,0.022807244211435319,0.01063030119985342,0.019314806908369066,0.08651784807443619,-0.04098502919077873,-0.020995624363422395,-0.07026585936546326,0.1145840436220169,-0.11264872550964356,-0.13249114155769349,-0.062133342027664188,-0.07114919275045395,-0.05595668777823448,0.013003343716263771,-0.14776308834552766,-0.004075948614627123,0.07063177973031998,-0.11131765693426132,-0.0067525324411690239,0.02520270273089409,0.12371748685836792,-0.036749377846717837,0.007400181144475937,-0.08036529272794724,-0.18486781418323518,0.2015247642993927,0.05309213697910309,0.07385137677192688,0.09873069822788239,0.0977480486035347,0.029285259544849397,0.18448391556739808,-0.05379847437143326,0.07596303522586823,-0.04361424595117569,-0.07756074517965317,0.0799209475517273,0.12161197513341904,0.07382820546627045,0.051393818110227588,0.09706884622573853,0.02019539102911949,-0.10029814392328263,0.2028616964817047,0.00029250705847516656,0.0138719966635108,-0.029452886432409288,-0.016012614592909814,-0.022486640140414239,-0.058186210691928866,0.030142899602651597,-0.10989876836538315,0.026343505829572679,-0.06260836869478226,0.028323756530880929,-0.024289445951581,0.09499441087245941,0.0412856824696064,-0.07764620333909989,0.007638180628418922,0.02734554558992386,0.045139383524656299,-0.009908400475978852,0.03359472006559372,0.061605751514434817,0.16597265005111695,-0.1514434516429901,0.13363605737686158,0.13642969727516175,0.01699119620025158,-0.006925943773239851,0.08365800231695175,-0.1140318289399147,-0.0471099428832531,0.02067479118704796,0.10593533515930176,0.017660953104496003,0.06878836452960968,-0.1375466138124466,0.04599433392286301,0.027000470086932184,-0.006647901143878698,0.20952463150024415,-0.06772967427968979,-0.0459580272436142,0.007270907983183861,-0.01373888086527586,0.08657743781805039,0.08201601356267929,0.02134593576192856,-0.02610471099615097,0.14683930575847627,0.0002191010571550578,0.0815124362707138,0.08220835030078888,0.22176188230514527,0.00034234035410918295,-0.07116609811782837,-0.09487171471118927,0.11029418557882309,0.027283191680908204,0.08379799872636795,0.07707187533378601,0.08253869414329529,0.02574799209833145,0.039536237716674808,0.010156233794987202,-0.13451185822486878,-0.19331607222557069,0.04529561847448349,-0.05657269060611725,-0.14025822281837464,-0.08481878787279129,0.009888053871691227,-0.1329118013381958,-0.056807126849889758,-0.012791061773896218,-0.024891961365938188,0.046521518379449847,0.0007619048119522631,0.029282767325639726,-0.027621250599622728,-0.01436346024274826,0.10063229501247406,0.035811521112918857,-0.047879647463560107,0.18955764174461366,0.1367965191602707,-0.031560685485601428,-0.07260835915803909,-0.031818173825740817,-0.06072332337498665,0.018946541473269464,-0.03530126437544823,0.15572549402713777,0.05000428482890129,0.022943096235394479,0.12163630872964859,-0.027632592245936395,-0.06472158432006836,0.2035304605960846,-0.06221504509449005,-0.02975773811340332,-0.07078934460878372,0.06449909508228302,0.013427537865936757,-0.05836048349738121,0.025901826098561288,0.055048588663339618,0.17362765967845918,-0.01498759351670742,-0.20292454957962037,-0.026932524517178537,-0.010274343192577362,0.0025771078653633596,0.11958988010883331,0.06963897496461868,-0.07887361198663712,-0.12637175619602204,-0.06640243530273438,0.07764825969934464,0.032160434871912,0.01461305283010006,0.009944737888872624,0.09211096912622452,-0.09683723747730255,-0.12504450976848603,-0.028002720326185228,0.007496409118175507,0.025363028049468995,-0.051905881613492969,0.010531327687203884,-0.0695943534374237,0.05532209202647209,-0.1552686244249344,-0.010530751198530198,-0.016322661191225053,-0.0669192224740982,0.028603285551071168,-0.039508379995822909,-0.015946904197335244,-0.10982071608304978,-0.05830487236380577,-0.01303618773818016,0.09332381933927536,-0.04195370897650719,0.02210034616291523,-0.03423728421330452,0.024974051862955095,-0.10056937485933304,-0.10172376781702042,-0.05868443474173546,-0.06117687746882439,-0.07454488426446915,0.027657343074679376,0.08897924423217774,-0.005633839406073093,-0.03522195667028427,0.11283186823129654,0.20930922031402589,-0.06359612941741944,0.034088365733623508,-0.14717631042003632,-0.00041251201764680445,-0.07256757467985153,0.03967798128724098,-0.0473223514854908,0.06553120911121369,-0.013629419729113579,-0.012760842218995095,-0.008922508917748928,-0.0072629074566066269,0.04292004182934761,-0.031156839802861215,-0.15871717035770417,0.11750268936157227,0.026064274832606317,0.007795057259500027,-0.298391729593277,-0.017216436564922334,0.11458322405815125,-0.010510599240660668,0.023776806890964509,0.06613249331712723,-0.08774169534444809,-0.010198749601840973,0.15972380340099336,-0.03916570171713829,0.1946365386247635,-0.11183717846870423,0.03623129427433014,-0.031173311173915864,0.004320068284869194,-0.15275977551937104,0.2094721794128418,0.11932813376188278,0.0007865488296374679,-0.03636329621076584,0.07040227949619293,0.08558681607246399,-0.006476713344454765,0.11883341521024704,0.005412484984844923,-0.03400067239999771,0.008644377812743187,-0.05249381437897682,-0.1297684907913208,0.007538544945418835,0.11681172996759415,-0.1426989883184433,-0.12055820971727371,0.18503576517105103,-0.0478455126285553,0.26948368549346926,-0.010438675060868264,-0.3024463653564453,0.10892216861248017,-0.041456520557403567,-0.014385939575731755,-0.00989866629242897,0.18829429149627686,0.05277165398001671,0.030229514464735986,0.023692892864346505,0.04465862736105919,-0.030626676976680757,-0.20634841918945313,0.05568362772464752,0.05170273035764694,0.0528462715446949,-0.11872407048940659,0.06353164464235306,-0.33414557576179507,0.10944569110870362,0.04089749976992607,-0.03311646357178688,-0.013125944882631302,0.03132787346839905,-0.04091687127947807,0.08432486653327942,-0.09561567008495331,-0.04984842613339424,0.012046430259943009,-0.015611093491315842,-0.13086163997650147,-0.23374077677726746,-0.048012033104896548,0.10019466280937195,0.09303026646375656,-0.010267334058880806,-0.033341918140649798,0.08263225108385086,0.01723046600818634,0.0024506975896656515,-0.18276210129261018,-0.031104639172554017,-0.024856185540556909,-0.058419499546289447,0.16755026578903199,-0.012262389995157719,0.0025499288458377125,0.06788428127765656,0.12084976583719254,-0.12420904636383057,0.1260557472705841,0.09385231882333756,0.028449540957808496,-0.12492707371711731,0.05772365629673004,0.022633159533143045,0.16824325919151307,-0.059627972543239596,0.030977893620729448,0.0614357590675354,-0.03525164723396301,0.18655121326446534,-0.02256668545305729,-0.03002665936946869,0.031153526157140733,-0.03236309066414833,-0.10373009741306305,-0.15088564157485963,-0.04555713012814522,-0.049547065049409869,-0.045666955411434177,0.12808899581432343,-0.2366001456975937,-0.12756842374801637,0.08621440082788468,0.1492987871170044,0.07801980525255203,-0.027377022430300714,0.16588471829891206,0.052895378321409228,0.12488621473312378,0.020603051409125329,0.25451090931892397,-0.053504396229982379,-0.02785184606909752,0.11979228258132935,0.19743680953979493,-0.0406905934214592,0.0057914527133107189,-0.18986938893795014,0.11553452163934708,-0.04556332528591156,-0.039909303188323978,0.114214226603508,-0.05931738391518593,-0.07438386231660843,-0.06097482517361641,0.18899238109588624,0.001123914960771799,-0.17067715525627137,-0.014413335360586644,-0.002908392110839486,0.0017347284592688084,0.14741434156894685,-0.0722120925784111,0.15771251916885377,0.15309534966945649,0.17463912069797517,0.009593252092599869,0.11801056563854218,-0.04268525540828705,0.07397042959928513,0.012481369078159333,0.030194710940122606,0.0419699065387249,0.006958195008337498,0.028058990836143495,0.017354648560285569,0.1486327350139618,-0.07211387157440186,0.0015033646486699582,-0.05544888600707054,0.042146701365709308,-0.04034805670380592,-0.1115255132317543,0.020340068265795709,-0.03405637666583061,0.01287685614079237,-0.031145688146352769,0.014487871900200844,-0.10497646033763886,-0.019215911626815797,-0.06465011835098267,-0.15668286383152009,-0.13114924728870393,-0.20018841326236726,0.0031058653257787229,-0.1120009645819664,-0.037271253764629367,-0.03393354266881943,-0.0015180225018411875,0.017542537301778795,-0.021991129964590074,-0.025756344199180604,0.07606673985719681,-0.06917984783649445,0.08353889733552933,0.08281128853559494,-0.058164987713098529,-0.2407461553812027,0.09215782582759857,-0.16726088523864747,-0.016702888533473016,0.03732709586620331,0.0539231114089489,0.0350080169737339,0.004195504356175661,0.0465753898024559,-0.040472354739904407,0.05143474414944649,0.25187405943870547,0.03229930251836777,0.0101194242015481,-0.12666602432727815,0.2595946490764618,0.19552062451839448,0.011341641657054425,-0.06814447790384293,0.06051125377416611,-0.08517394959926605,-0.04397372901439667,0.11497941613197327,-0.00313766417093575,-0.06753174960613251,0.1300833374261856,-0.11470465362071991,-0.029583660885691644,-0.0730079635977745,0.035074397921562198,0.08976377546787262,-0.17633818089962007,0.2382104992866516,0.14892250299453736,-0.17404063045978547,0.20865486562252046,0.003674550214782357,0.013242626562714577,0.1083683967590332,-0.013093378394842148,-0.22976446151733399,-0.06571437418460846,-0.07550830394029618,0.05578414723277092,0.1312975436449051,-0.03207942098379135,-0.055826183408498767,0.03125410154461861,0.05538114532828331,0.06256181746721268,-0.0950225442647934,-0.030923252925276758,0.016796214506030084,-0.0027096308767795564,-0.05254889279603958,0.1301921010017395,-0.032635487616062167,-0.1213935911655426,0.011533294804394246,0.1258217841386795,-0.11822788417339325,-0.01020002830773592,-0.04066783934831619,-0.0698220357298851,-0.03155158460140228,0.09581059217453003,-0.0915178656578064,0.07576069980859757,-0.1198892742395401,0.0054566385224461559,-0.13725358247756959,0.026178546249866487,0.095677450299263,-0.03197666257619858,-0.08426396548748017,0.016140762716531755,-0.0071214064955711369,-0.03616167977452278,0.18268409371376038,0.07787546515464783,-0.0860585868358612,-0.20684880018234254,-0.10320157557725907,0.05069466307759285,-0.08009741455316544,-0.11358475685119629,-0.09271889925003052,-0.050311245024204257,0.021839618682861329,0.037507496774196628,-0.001294056768529117,0.14175908267498017,0.05082550272345543,0.055300042033195499,0.11335722357034683,0.25998637080192568,-0.19177670776844026,-0.03691253438591957,0.03210188448429108,0.040951017290353778,0.010904503054916859,-0.05309171602129936,0.16994157433509828,-0.021365655586123468,-0.004592196084558964,-0.07488783448934555,0.09909811615943909,0.07282877713441849,-0.13905280828475953,0.06144307553768158,-0.14779922366142274,0.005900064017623663,0.03869765251874924,-0.09952635318040848,0.03533811867237091,-0.020993703976273538,-0.12212076783180237,0.009523638524115086,-0.07213858515024185,-0.10924583673477173,-0.05398100987076759,0.10411875694990158,0.09071934223175049,-0.06235543638467789,-0.09618252515792847,-0.05285820737481117,-0.12953048944473267,-0.1926676481962204,-0.10957524925470352,-0.03713953122496605,-0.07540097087621689,-0.010475865565240384,-0.2136477828025818,-0.10463660955429077,-0.12637440860271455,-0.10280917584896088,0.07766631990671158,-0.06444356590509415,-0.13338978588581086,-0.10208243876695633,-0.1147465705871582,0.08610836416482926,-0.003376726061105728,-0.08912020176649094,0.07867643982172013,0.005478458479046822,0.015578740276396275,-0.02298774942755699,-0.05809391662478447,-0.19754467904567719,0.06434893608093262,-0.14095674455165864,-0.11347446590662003,0.008613214828073979,0.10329397767782211,-0.11829527467489243,-0.0665217712521553,-0.03595740348100662,-0.03636569529771805,0.034649141132831576,-0.24779103696346284,0.12948426604270936,0.05358027294278145,-0.04207061976194382,-0.09847172349691391,0.19596587121486665,-0.07331125438213349,0.1667928546667099,-0.023294616490602495,0.07399532198905945,-0.053392644971609119,0.09026578813791275,0.028146028518676759,0.01001679990440607,-0.05227411910891533,-0.08643727749586106,0.018948324024677278,-0.03665824979543686,0.2044203281402588,0.0394413135945797,-0.17615607380867005,0.030642976984381677,0.011100166477262974,0.02781631238758564,0.03508622944355011,-0.032114263623952869,-0.032450057566165927,0.0886417105793953,-0.20069651305675507,-0.06322531402111054,-0.08288895338773728,-0.0009659506613388658,0.09196788817644119,-0.19898517429828645,0.020254360511898996,0.14022411406040193,0.04339253902435303,0.17024065554141999,0.25268930196762087,-0.021895019337534906,-0.004753889515995979,-0.09851735830307007,0.0032912399619817735,-0.14758245646953584,0.05414924398064613,0.05709391087293625,0.14945989847183228,0.022663792595267297,0.04667447507381439,-0.028743984177708627,0.038820575922727588,-0.09787825495004654,0.04201427847146988,-0.06638997793197632,0.09774847328662873,-0.08464275300502777,0.03089250810444355,-0.09651882201433182,0.1304093897342682,-0.17682962119579316,0.08998285233974457,-0.1750030666589737,-0.05583423748612404,0.28167030215263369,-0.062132418155670169,-0.07065963000059128,-0.022450512275099756,0.23482215404510499,-0.09043373912572861,0.004551208112388849,0.1505008041858673,-0.07425057142972946,-0.15963676571846009,-0.029284408316016198,-0.14127716422080995,0.02652537077665329,-0.008414819836616516,0.014084612019360066,-0.1745947152376175,-0.0699659213423729,0.05234142765402794,-0.13188135623931886,0.02214411459863186,0.014331602491438389,-0.05891003459692001,-0.05168181657791138,0.0774727463722229,-0.10668988525867462,0.07880325615406037,0.025601966306567193,0.03235316276550293,-0.20347538590431214,-0.06099691987037659,0.027631515637040139,-0.10152116417884827,0.23103344440460206,-0.13280589878559113,0.05611132085323334,0.1311376839876175,-0.014708948321640492,0.01866806298494339,0.05743693932890892,0.23858210444450379,-0.028802383691072465,0.06348172575235367,-0.15117794275283814,-0.16501007974147798,0.13120953738689423,0.0058160144835710529,-0.10918048024177551,-0.05114136263728142,-0.10137730091810227,-0.006509511265903711,-0.10944204032421112,0.06765217334032059,-0.07686877995729447,0.03486287593841553,0.11581183224916458,-0.13305695354938508,0.048962343484163287,0.026343557983636857,0.00828692689538002,0.13215702772140504,-0.05938166379928589,0.09636498242616654,-0.12527039647102357,-0.08519994467496872,0.19030404090881349,0.1530904620885849,-0.00556632224470377,0.08251216262578964,-0.10541132092475891,0.001242653001099825,0.17199377715587617,0.09668494760990143,0.15115214884281159,-0.060477230697870257,0.012422244064509869,0.016187306493520738,-0.04904143512248993,-0.02392413467168808,0.09680502861738205,0.07991354167461395,-0.0827483981847763,0.13395898044109345,-0.00630430830642581,0.11161205172538758,-0.0805123895406723,-0.06851384043693543,-0.08491328358650208,-0.07942366600036621,0.14228209853172303,0.01229705661535263,0.04216039925813675,-0.0030491675715893509,0.19025374948978425,-0.004918965045362711,-0.23609983921051026,0.04218829795718193,0.13260354101657868,0.031984008848667148,0.19878146052360536,0.14071671664714814,0.03050561062991619,0.16711220145225526,-0.044638801366090778,0.010348059237003327,-0.027794454246759416,-0.017643766477704049,0.059212345629930499,0.14413535594940186,0.004691469483077526,-0.023261673748493196,-0.02535487338900566,-0.01934899389743805,0.01917073130607605,0.07350126653909683,-0.033690426498651507,0.020301930606365205,0.14137154817581178,0.026606516912579538,-0.18257856369018556,-0.010092774406075478,-0.002449663821607828,-0.00950342696160078,-0.11190923303365708,0.07426474243402481,-0.008958815596997738,-0.047218918800354007,0.06932755559682846,-0.09997497498989105,0.15273641049861909,0.1367933601140976,-0.06484467536211014,0.011331905610859394,-0.06850208342075348,-0.06607693433761597,-0.04718409851193428,-0.10437927395105362,0.03221428394317627,0.022480051964521409,-0.15502585470676423,-0.014893462881445885,0.3864705562591553,0.07107824832201004,0.18923568725585938,-0.059604741632938388,-0.0005981579888612032,-0.054589949548244479,-0.0035105859860777857,-0.0041092559695243839,0.0011620185105130077,0.05459766834974289,-0.17987175285816194,0.12983953952789308,-0.14928914606571198,-0.03305688127875328,-0.08636968582868576,-0.018461264669895173,0.0509745329618454,0.10703278332948685,0.07770077884197235,-0.0005821246886625886,0.004034026525914669,0.053611889481544498,0.11729174852371216,0.1115926131606102,-0.15812751650810243,0.11324908584356308,-0.032782867550849918,0.07700753211975098,-0.0005899558891542256,0.15225008130073548,0.03743082284927368,0.1936699002981186,-0.05878175050020218,0.007974507287144661,0.092996746301651,-0.12133543193340302,0.0863172635436058,0.09608223289251328,-0.30029553174972536,0.0019482405623421074,-0.13637296855449677,-0.08178769052028656,0.08000821620225907,-0.043476738035678866,0.022632194682955743,-0.07649960368871689,-0.040464844554662707,-0.16656053066253663,-0.012168581597507,-0.11042554676532746,0.051754821091890338,0.016756609082221986,-0.12778981029987336,-0.06552321463823319,-0.062173355370759967,0.07038304209709168,0.1513090878725052,-0.002869337098672986,0.11858200281858444,0.016194207593798639,0.18383468687534333,0.12355977296829224,-0.037821751087903979,-0.06105341017246246,-0.2135855257511139,0.03720628097653389,0.1080811619758606,-0.032453350722789767,0.0320761501789093,-0.04375999793410301,0.0023657206911593677,0.10829886049032211,0.04189566150307655,-0.09046334028244019,-0.0111963776871562,-0.11028194427490235,0.07851170748472214,0.06516646593809128,-0.1763772815465927,-0.03328492119908333,-0.025015445426106454,0.07351667433977127,-0.151875838637352,-0.006837790831923485,0.01978076621890068,0.018489371985197068,0.04335987567901611,0.04355486109852791,0.049395326524972919,-0.13369916379451753,-0.056260302662849429,0.04386744275689125,-0.1017194464802742,0.03875479847192764,0.06946437060832977,-0.01785816252231598,-0.05579657852649689,-0.04768618196249008,0.06118902191519737,-0.0035953938495367767,0.017525354400277139,-0.04724261164665222,0.0424056351184845,0.04945705831050873,-0.055841121822595599,0.015865366905927659,0.04450475797057152,-0.04716404527425766,0.10574477910995484,-0.020640170201659204,-0.014353334903717041,-0.031905725598335269,-0.1610075682401657,-0.04713441804051399,-0.07051096856594086,-0.06053346022963524,0.1300341784954071,-0.07174435257911682,-0.07697112113237381,0.08239103108644486,-0.06159768998622894,-0.07077766954898834,-0.12247603386640549,-0.1239270344376564,-0.07269233465194702,0.05725785344839096,0.18273481726646424,-0.2228696495294571,-0.02229396626353264,0.03471361845731735,0.010066397488117218,-0.08066248893737793,-0.0039627100341022018,0.04328855872154236,0.025036102160811425,-0.007813489064574242,-0.10509736090898514,0.059741098433732989,-0.014386030845344067,0.10526564717292786,0.07835084944963455,0.016699766740202905,0.3011917769908905,-0.07188466936349869,-0.14886634051799775,0.017968028783798219,0.01919816993176937,-0.06684687733650208,-0.1686796396970749,0.03710433095693588,0.017226064577698709,-0.023944517597556115,0.08530617505311966,0.050249133259058,-0.11199415475130081,0.06426435708999634,0.09462407231330872,0.059309788048267367,-0.0033714480232447387,-0.05655781924724579,-0.04156364127993584,0.05719105154275894,0.11369341611862183,0.09916273504495621,0.09780730307102204,0.24013233184814454,-0.064839668571949,-0.050750307738780978,0.009566687047481537,-0.09719894826412201,0.09469541907310486,0.03905247524380684,-0.004040688741952181,-0.07464056462049484,0.06457865238189697,-0.07551410049200058,0.02544771134853363,0.007737829349935055,0.03387560695409775,0.14364269375801087,-0.04486583545804024,0.1147422268986702,-0.0033862360287457706,-0.11089868098497391,-0.0307643860578537,-0.034732285887002948,0.009100367315113545,0.04872674494981766,0.08472739905118942,-0.12886671721935273,-0.07430286705493927,-0.0976129099726677,0.12291387468576431,-0.09204059094190598,0.09973461180925369,-0.11443914473056793,0.15372604131698609,-0.12168103456497193,0.014286542311310768,0.02872711420059204,-0.1926209032535553,-0.07266011089086533,0.13306592404842378,-0.06447066366672516,0.057127468287944797,0.11236738413572312,-0.08053181320428848,-0.07537898421287537,-0.07669375091791153,0.09939827769994736,-0.10509646683931351,0.026457151398062707,0.09521344304084778,-0.15758752822875977,0.023979222401976587,0.039561424404382709,-0.04645355045795441,-0.09801919758319855,-0.19427230954170228,0.06624040007591248,-0.07754988968372345,-0.058220963925123218,0.026520147919654847,-0.06853040307760239,0.046197474002838138,0.03452068939805031,0.28600937128067019,0.1121140792965889,0.18999001383781434,0.15390539169311524,0.005653301253914833,0.012732578441500664,0.01774967834353447,0.09438178688287735,0.00032655856921337545,0.09101898223161698,-0.02403092198073864,0.02125523053109646,0.057979825884103778,0.08881113678216934,-0.07012554258108139,0.08569108694791794,0.0805843323469162,0.08110187202692032,0.0341462604701519,-0.08304145187139511,0.038784053176641467,-0.011245996691286564,0.04920261725783348,-0.031537190079689029,-0.029462182894349099,0.024164583534002305,-0.04894515499472618,0.043451257050037387,-0.047832172363996509,0.0770312175154686,-0.030302023515105249,0.03463078662753105,-0.02332436293363571,-0.04937657341361046,0.08594829589128494,-0.008975372649729252,-0.12157834321260452,0.07138074934482575,0.036319781094789508,-0.06881195306777954,-0.12518970668315888,-0.04865487664937973,-0.04261104762554169,