{"Layers":[{"Weights":[-0.01589379832148552,0.22723154723644257,0.03813149780035019,0.20345574617385865,-0.08267000317573548,0.19174624979496003,0.09785150736570358,-0.29241588711738589,-0.24790196120738984,0.1312495321035385,0.021714914590120317,0.1768512725830078,-0.19653265178203584,0.02149086445569992,-0.24702008068561555,-0.201193705201149,-0.054213911294937137,0.02829817868769169,-0.0028130030259490015,0.09672608226537705,-0.12232252955436707,-0.04579091817140579,-0.07469699531793595,0.14479561150074006,-0.22221750020980836,0.27086594700813296,0.14458562433719636,-0.10590308904647827,-0.1771339774131775,0.0645342618227005,0.12300095707178116,0.047226518392562869,-0.10453315824270249,0.1313876211643219,0.03951182961463928,0.2013210654258728,0.09650485962629318,0.1619309037923813,-0.11858676373958588,-0.18858173489570619,-0.15077151358127595,-0.04273981973528862,0.03222743421792984,-0.42306914925575259,0.004960265476256609,-0.09633072465658188,-0.24793623387813569,-0.005869145505130291,0.004148694220930338,-0.03338203206658363,0.3027864396572113,0.05944042652845383,-0.023953648284077646,0.1639416366815567,-0.0370662584900856,0.17106232047080995,-0.11188101768493653,-0.10621146112680435,0.017048176378011705,-0.13381096720695496,-0.12533022463321687,0.11444873362779618,0.1730964481830597,0.03727452829480171,0.021681204438209535,-0.15817055106163026,-0.13484817743301392,0.11239105463027954,-0.048356156796216968,-0.004234494175761938,-0.1326092928647995,0.22798466682434083,0.008911766111850739,0.031202523037791253,0.18034295737743379,0.17231790721416474,-0.0689990371465683,0.0053537203930318359,0.08191846311092377,0.2791967988014221,0.25584813952445986,-0.34029996395111086,0.02375035174190998,0.20692138373851777,-0.021526407450437547,-0.05788237974047661,-0.007631182670593262,0.00622076541185379,-0.11189792305231095,-0.168577179312706,0.10990576446056366,0.020197153091430665,0.15860871970653535,0.1158950924873352,0.1386544406414032,0.33637696504592898,-0.08740423619747162,0.1628766804933548,0.013748005963861943,-0.05380738899111748,-0.3663270175457001,-0.02766520529985428,-0.09529367834329605,-0.0053032031282782558,-0.0937526598572731,0.009192273020744324,0.00969911552965641,-0.1363869309425354,-0.21811997890472413,-0.19095085561275483,0.3236561119556427,-0.17861665785312653,-0.121559739112854,-0.29059240221977236,-0.15174584090709687,0.09880231320858002,0.017956597730517389,-0.1624523401260376,0.018795985728502275,-0.2307131290435791,-0.09564153850078583,-0.22110997140407563,-0.12653829157352448,-0.1161058321595192,-0.32905346155166628,-0.02688015066087246,-0.27643564343452456,-0.20456896722316743,-0.3384781777858734,0.09014080464839935,0.1292681097984314,-0.05474315211176872,-0.15358546376228333,-0.09748759120702744,-0.013024820946156979,-0.06861822307109833,-0.006486213766038418,0.21976828575134278,-0.08477357774972916,-0.0813833698630333,0.004955630283802748,-0.16054491698741914,0.007016944698989391,-0.06661442667245865,-0.12927907705307008,0.1251758337020874,0.17093630135059358,0.21447022259235383,-0.004778487142175436,0.052878230810165408,0.10665161162614823,-0.0003633330052252859,0.008141042664647103,-0.20676825940608979,0.11427221447229386,0.05847810208797455,-0.04035758972167969,0.07573231309652329,0.11954601854085922,0.027824077755212785,-0.005333969835191965,-0.2294047474861145,-0.22671179473400117,0.12865635752677918,-0.23608681559562684,0.17281024158000947,-0.03351631388068199,0.22396259009838105,0.0817728191614151,-0.12032531946897507,0.500667154788971,-0.005917929112911224,0.002266975585371256,-0.07491373270750046,0.050847575068473819,-0.10700900107622147,0.09677037596702576,0.16768935322761537,0.28229421377182009,0.12211394309997559,0.15156877040863038,-0.07055278867483139,0.07271824777126312,0.1660706102848053,0.26974889636039736,0.14199510216712953,0.16685113310813905,-0.2924414873123169,0.29776790738105776,0.04069795832037926,-0.04203106462955475,0.19413860142230988,0.3632235825061798,-0.03020070493221283,0.14251865446567536,0.16310840845108033,-0.01674536056816578,-0.26863062381744387,0.06472966074943543,0.021630821749567987,0.059423189610242847,-0.08161786198616028,-0.08547705411911011,0.00784213561564684,-0.33962059020996096,-0.06404811888933182,-0.2182392179965973,-0.028517818078398706,0.059131063520908359,-0.024828029796481134,0.02575095370411873,0.0406070314347744,0.22085805237293244,-0.10354965180158615,0.10312771052122116,-0.18881423771381379,0.43113434314727785,0.2057543843984604,-0.044964589178562167,0.00593770295381546,0.059560876339673999,-0.16832110285758973,0.20894064009189607,-0.17399942874908448,0.27230656147003176,-0.015137872658669949,0.16695812344551087,-0.06868822127580643,-0.07302311807870865,0.04158903285861015,-0.061644814908504489,-0.15569362044334413,0.13921287655830384,0.015370054170489312,0.03674245625734329,0.41835933923721316,0.09610138088464737,0.3004540205001831,0.024273952469229699,-0.24804210662841798,-0.15208174288272859,0.051233723759651187,0.06065812334418297,-0.08574309200048447,0.18221306800842286,0.08131394535303116,0.2831794023513794,0.2099229097366333,-0.07083342224359513,-0.2681792974472046,0.05696657672524452,0.2308952510356903,-0.02304314821958542,-0.28545764088630679,-0.250596284866333,-0.059241801500320438,-0.1770438700914383,-0.003271468449383974,0.07333531975746155,0.30917221307754519,0.0300886370241642,0.056438643485307696,-0.2785354256629944,0.16489049792289735,-0.024101298302412034,-0.09049666672945023,0.026700202375650407,0.03497560694813728,-0.04004728049039841,0.027036724612116815,-0.20702631771564485,-0.029504811391234399,0.10229277610778809,0.08680937439203263,-0.07081270217895508,0.047016702592372897,-0.02068239636719227,0.406369149684906,-0.09478645026683808,-0.33783775568008425,-0.08270231634378433,0.0324251763522625,-0.37000975012779238,-0.10815536975860596,-0.014334877952933312,0.24626006186008454,0.11542587727308274,-0.12762700021266938,-0.2845643162727356,-0.09903249889612198,-0.060925569385290149,0.10916563123464585,0.24503611028194428,-0.020520377904176713,0.09711866825819016,-0.06860614567995072,0.005349820014089346,-0.1104971170425415,-0.07077424228191376,0.10702954232692719,-0.01299295388162136,0.25460851192474368,0.06686800718307495,-0.17708885669708253,0.26507997512817385,-0.23851759731769563,0.2483207881450653,-0.045341264456510547,-0.0238747987896204,-0.17404787242412568,-0.08717799931764603,-0.13584303855895997,0.0069340611808001999,-0.12686572968959809,-0.13019528985023499,-0.016827285289764406,0.05438612401485443,-0.1656627655029297,0.07753832638263703,-0.17017361521720887,0.07479412853717804,0.2112192064523697,-0.178665429353714,0.224511057138443,-0.01561572216451168,-0.055309444665908816,-0.16331788897514344,-0.1157815083861351,0.14227212965488435,0.1959979087114334,-0.04300630837678909,0.29471340775489809,-0.1417420357465744,0.10947585850954056,0.012016978114843369,0.07631203532218933,0.19863848388195039,0.16275356709957124,0.3195224404335022,-0.0010255645029246808,0.16883142292499543,-0.0552988238632679,0.04031779617071152,0.07977554947137833,0.12929481267929078,0.08700094372034073,0.15001747012138368,0.23781226575374604,0.2577839493751526,-0.021308228373527528,0.10363726317882538,-0.13757571578025819,-0.2682592570781708,0.19701430201530457,0.07389567047357559,0.07045269012451172,0.1425519585609436,0.1494780331850052,-0.08800037205219269,0.2133590281009674,-0.08308867365121842,-0.13660359382629395,-0.03856614977121353,0.19687213003635407,-0.033481694757938388,-0.2197231650352478,0.0982937291264534,0.08984129875898361,0.08548910170793534,0.1795041710138321,-0.15947648882865907,-0.03381458669900894,0.19577503204345704,0.11097627133131027,0.13951292634010316,0.024489132687449456,-0.037759725004434589,-0.041512440890073779,-0.1641034334897995,-0.17032530903816224,-0.05093758925795555,0.015485855750739575,-0.01712477020919323,-0.03562939167022705,0.048000555485486987,0.24989686906337739,0.27480384707450869,-0.008322653360664845,-0.0225097443908453,0.21656988561153413,-0.08291913568973541,-0.19922207295894624,-0.22279012203216554,-0.06532831490039826,0.276194304227829,0.024967869743704797,-0.18264365196228028,-0.023586733266711236,0.22571444511413575,0.12356823682785034,0.26794591546058657,-0.05653921142220497,-0.00796150416135788,-0.22835735976696015,-0.0151578513905406,-0.23113468289375306,-0.15624812245368958,-0.09237462282180786,0.10812768340110779,0.08564822375774384,0.1376427859067917,0.1940528303384781,0.12379615008831024,0.03676575794816017,0.12792615592479707,0.1256639063358307,-0.23623931407928468,0.027848105877637864,0.299120157957077,-0.20319950580596925,0.18015125393867494,0.12332188338041306,0.2908819615840912,-0.07397667318582535,-0.018240856006741525,0.05467182397842407,-0.13900619745254517,0.27643340826034548,-0.003876355942338705,0.052275288850069049,0.0494479238986969,-0.25287339091300967,0.07164288312196732,0.0588955283164978,-0.07781580835580826,-0.14212220907211305,-0.18965789675712586,-0.09663040935993195,0.1591930091381073,-0.18932825326919557,0.00330335577018559,-0.2026982456445694,0.1270701289176941,-0.055488795042037967,-0.1657847911119461,-0.019437100738286973,-0.24740636348724366,-0.01716429367661476,0.0018400747794657946,-0.032968245446681979,0.09994307160377503,0.08501382917165756,0.07802067697048187,-0.1347871571779251,0.06587406992912293,-0.1985781341791153,0.04578978940844536,-0.023648904636502267,-0.07640556246042252,0.022172337397933008,-0.2026623636484146,0.11305797845125199,0.03833349421620369,-0.15706118941307069,0.13892383873462678,-0.009994007647037506,0.16884057223796845,-0.0926780253648758,-0.07057881355285645,0.11860407143831253,0.03901731222867966,-0.05757724866271019,-0.050321366637945178,-0.27864232659339907,-0.12535233795642854,0.15227271616458894,-0.07822587341070175,0.048104602843523028,-0.10679874569177628,0.21336789429187776,0.07491914927959442,-0.1702861189842224,0.1491662859916687,0.32562023401260378,-0.00459482055157423,-0.22194409370422364,0.17643868923187257,0.17253386974334718,-0.29265350103378298,0.04176607355475426,-0.03450952097773552,-0.2487795203924179,-0.10678517073392868,-0.010638335719704628,-0.18371683359146119,0.1182270497083664,0.03092571720480919,0.01914948783814907,-0.025170883163809778,0.02719814144074917,-0.05000411346554756,-0.007598878815770149,-0.04720282554626465,-0.0039040737319737674,0.16079315543174745,-0.06525130569934845,-0.02075178548693657,-0.18122917413711549,0.06182429566979408,0.0019946054089814426,0.14479273557662965,-0.0416121631860733,0.1845969259738922,0.32959944009780886,-0.06386450678110123,-0.13822345435619355,0.2253430038690567,0.09890975058078766,0.010754602961242199,-0.0366804413497448,-0.12244454026222229,0.04445008933544159,0.06585686653852463,0.10430985689163208,-0.12637172639369965,-0.14254224300384522,0.22826768457889558,-0.11874698847532273,0.15669594705104829,0.1297059804201126,-0.12633700668811799,-0.04562930762767792,0.30183273553848269,-0.21186652779579163,0.014811871573328972,0.008635147474706173,-0.047597140073776248,0.011633425951004029,0.02188749983906746,-0.04733184725046158,0.11767281591892243,0.029899101704359056,-0.0855986550450325,0.14591507613658906,-0.04826253280043602,-0.32524415850639346,0.07737702131271362,-0.1086953729391098,0.029738502576947213,-0.3000420928001404,0.2544315755367279,-0.15342634916305543,0.04334822669625282,0.06381207704544068,-0.019684283062815667,-0.09058590978384018,-0.08984492719173432,-0.25832101702690127,0.1019618958234787,-0.03435355797410011,0.16025759279727937,0.07116454094648361,0.3150223195552826,-0.03740011900663376,-0.027234073728322984,-0.19398970901966096,0.2551201581954956,-0.1531364470720291,0.04450348764657974,0.1428794115781784,0.024281954392790796,-0.27307283878326418,0.08048652112483978,-0.14843715727329255,-0.2899874746799469,-0.08638874441385269,-0.053833235055208209,-0.00007207187445601448,-0.010338667780160904,0.132329523563385,0.217119961977005,0.18407860398292542,-0.2235223650932312,-0.08150415122509003,0.14747866988182069,0.05406709387898445,-0.11892301589250565,-0.09497217833995819,-0.13721711933612824,-0.09672446548938751,-0.15326020121574403,0.05855549871921539,-0.11638103425502777,-0.16929174959659577,0.0010852704290300608,-0.010948850773274899,-0.06593276560306549,-0.0014431561576202512,-0.050609391182661059,-0.1758824586868286,-0.22591297328472138,-0.2249867171049118,-0.05666504055261612,-0.03968781605362892,0.06771454215049744,0.025779010728001596,-0.18586306273937226,-0.026416104286909105,-0.06292667239904404,-0.09563872963190079,0.1734277456998825,0.0033008663449436428,-0.13541345298290254,-0.16944566369056703,0.11919358372688294,0.09138581156730652,-0.16216528415679933,-0.184614360332489,-0.1315062940120697,0.06095065176486969,-0.09496711194515228,0.20409086346626283,0.11585934460163117,-0.1460345834493637,-0.06788381189107895,0.1221761628985405,-0.27583378553390505,-0.10377272218465805,0.027072636410593988,0.14797911047935487,0.2843445837497711,-0.0002851221361197531,-0.1964205503463745,0.012452968396246434,-0.0018099505687132478,0.3738389015197754,-0.1763814091682434,-0.005988983437418938,-0.17033962905406953,0.17577645182609559,-0.17755833268165589,0.12380538135766983,-0.04109013453125954,0.28911930322647097,0.07277514785528183,0.04326918348670006,0.0963183045387268,-0.04385728761553764,-0.010003655217587948,-0.053918611258268359,0.18997201323509217,0.15044225752353669,0.0811571404337883,-0.040058694779872897,-0.3408012390136719,0.1126856580376625,0.0024263793602585794,0.09169835597276688,-0.153412327170372,-0.09431535005569458,-0.0031711822375655176,0.024518301710486413,-0.12228009104728699,-0.09725115448236466,0.10870536416769028,-0.1566135436296463,-0.030147815123200418,0.2452627569437027,-0.05514903366565704,0.1224094033241272,-0.17650803923606873,-0.26026269793510439,-0.01644270494580269,0.12218892574310303,-0.1397831290960312,0.29233527183532717,0.027727292850613595,0.07228242605924607,0.05922665446996689,-0.033276233822107318,-0.02217436209321022,-0.05070647597312927,-0.009665017947554589,0.12202118337154389,-0.07571471482515335,-0.04225804656744003,-0.00442339526489377,-0.131729856133461,0.09572754055261612,-0.13768474757671357,0.06939906626939774,-0.11328642070293427,0.4287051558494568,-0.06365443766117096,0.16025811433792115,-0.04855503886938095,0.1074175238609314,-0.1385108083486557,0.1289549469947815,-0.18183624744415284,-0.02191263437271118,-0.10758360475301743,0.246165469288826,0.1853686273097992,-0.048968877643346789,0.10873708873987198,0.08162689208984375,0.09120985120534897,-0.11262805759906769,0.04525739699602127,-0.3128732442855835,-0.23634560406208039,-0.07799045741558075,-0.20303967595100404,-0.35135018825531008,0.16191507875919343,-0.05251316726207733,-0.06074424833059311,0.12522131204605103,-0.07903006672859192,-0.04199853911995888,-0.08015605062246323,-0.07183197140693665,0.03190445154905319,0.1547255665063858,-0.1523565948009491,0.20081688463687898,0.11743637919425965,-0.1699044406414032,0.2621842324733734,-0.024037476629018785,-0.11776310950517655,-0.12112987786531449,0.17195701599121095,-0.13119377195835114,0.13962766528129579,-0.05379915609955788,0.2044251561164856,-0.08348395675420761,-0.019789518788456918,0.019204450771212579,-0.1520911157131195,0.2761027216911316,0.05150395631790161,0.007468776777386665,0.021909648552536966,0.1596270203590393,0.34342658519744875,0.14396028220653535,-0.1276801973581314,-0.14852672815322877,0.044265080243349078,0.06849569082260132,-0.02154683694243431,0.027338484302163125,-0.1203450933098793,0.08865689486265183,-0.20898723602294923,0.027498170733451844,0.11218996345996857,-0.029618585482239724,0.245027095079422,0.09262939542531967,-0.34913894534111025,-0.01570502296090126,0.07297830283641815,0.04153986647725105,0.13772961497306825,-0.026845360174775125,-0.01625249907374382,0.1035354733467102,-0.08152996003627777,0.015715867280960084,-0.2577717900276184,0.459127813577652,0.18546584248542787,-0.14904135465621949,-0.03348454460501671,0.1479617804288864,-0.019037002697587014,-0.13878701627254487,-0.02567325346171856,0.12759993970394135,-0.2474387288093567,0.034663595259189609,0.2458665668964386,-0.11929936707019806,-0.047970280051231387,-0.14519523084163667,0.1063067838549614,0.2552780508995056,-0.07405930757522583,-0.076238252222538,-0.0640321895480156,-0.3260883390903473,0.07369080185890198,0.4026111960411072,-0.07118015736341477,0.04372093826532364,-0.47312241792678835,0.027872098609805108,-0.08269874006509781,0.10928191989660263,-0.2211109697818756,0.10878187417984009,-0.12517189979553224,-0.06784133613109589,-0.18158702552318574,-0.028915539383888246,-0.09458950161933899,0.14208179712295533,0.12888427078723908,-0.0607742965221405,-0.1776144802570343,0.020470108836889268,0.011970342136919499,-0.11291379481554032,-0.09265533834695816,0.027969999238848687,-0.21868275105953217,0.11418602615594864,-0.10279370844364166,-0.09070742130279541,0.1020740494132042,-0.03559357300400734,-0.19843928515911103,0.09635929763317108,-0.14833058416843415,-0.01085363794118166,-0.049360014498233798,-0.04481516033411026,0.05766728147864342,0.14414569735527039,0.18113595247268678,-0.3117588460445404,0.17583586275577546,-0.000886192952748388,0.13363289833068849,0.06644460558891297,0.08830446749925614,-0.04842241108417511,-0.062151141464710239,-0.08745583891868592,-0.07405245304107666,-0.03974800929427147,-0.020590003579854966,-0.25599703192710879,-0.07295184582471848,-0.030608762055635454,-0.002619631588459015,-0.0719151720404625,0.2610333561897278,0.11938700079917908,-0.2806263566017151,0.12455476820468903,-0.31906038522720339,-0.13764317333698274,-0.03471391648054123,-0.04641810432076454,-0.21535715460777284,-0.21786075830459596,-0.04824378713965416,0.05792731046676636,-0.049789559096097949,0.11634635925292969,-0.004590705037117004,-0.11971711367368698,-0.03928849846124649,-0.07695785164833069,0.22129587829113007,0.05532833933830261,-0.23661859333515168,0.010548323392868042,-0.0787380114197731,-0.259282648563385,0.1193179339170456,0.05609644949436188,-0.01485153567045927,-0.06874324381351471,0.13732753694057465,0.05418193340301514,0.020240310579538347,-0.2577062249183655,0.08388110995292664,0.029343297705054284,0.31211772561073305,0.07960398495197296,0.4477209150791168,0.08413705229759217,-0.05170202627778053,0.18818387389183045,-0.07275928556919098,-0.14375466108322144,-0.08805811405181885,0.11553055047988892,-0.0038460693322122099,0.13238981366157533,0.016634421423077585,-0.25761300325393679,0.12318262457847595,0.12697076797485352,0.057606808841228488,0.09965796023607254,-0.049010712653398517,-0.1358024775981903,0.11283206939697266,-0.1281851977109909,-0.025069262832403184,-0.023324884474277498,-0.10935082286596298,-0.10408815741539002,0.10739130526781082,0.15711617469787599,0.010802853852510453,-0.1915908306837082,-0.28743770718574526,0.02670317329466343,-0.08510879427194596,0.011974630877375603,0.1234372928738594,-0.1562592089176178,0.042572665959596637,-0.022091912105679513,0.2691284716129303,-0.04707219824194908,0.1613675057888031,-0.02933385595679283,0.13821053504943849,0.032757338136434558,-0.024451274424791337,0.27782899141311648,0.09051483869552612,0.26782163977622988,-0.10788583010435105,0.10691899061203003,0.0730094313621521,-0.07580544054508209,0.04540456086397171,0.13594213128089906,-0.3594653308391571,-0.06935808807611466,-0.05971742048859596,0.08785337954759598,-0.047824058681726459,-0.10077089816331864,0.17436812818050385,-0.00017363704682793468,0.004748108796775341,0.09618040174245835,0.07449933886528015,0.20435407757759095,0.21877287328243257,0.03197094425559044,0.2008635550737381,0.014862440526485443,0.26628974080085757,0.22125029563903809,0.05199986696243286,-0.04949222505092621,0.26172274351119997,0.020961370319128038,-0.028137143701314927,0.24873392283916474,0.037829287350177768,0.05781970173120499,-0.11422107368707657,0.08293287456035614,-0.12396752089262009,0.1266123652458191,0.3071819245815277,0.07806316763162613,0.3746781647205353,-0.145470529794693,0.13656514883041383,-0.08660643547773361,0.07165519148111344,0.2560988664627075,-0.177214115858078,-0.072362519800663,0.2792442739009857,0.1827119141817093,0.14633239805698396,-0.0037744876462966205,0.14020496606826783,0.21523775160312653,0.1091083437204361,-0.036306798458099368,0.2605409026145935,0.05455124005675316,0.09090160578489304,-0.1221734881401062,0.12214133888483048,-0.041394930332899097,0.24118869006633759,0.13407760858535767,-0.005783488508313894,-0.048997510224580768,-0.029597662389278413,-0.12975436449050904,0.024928035214543344,0.1859177201986313,-0.027193943038582803,-0.024843746796250345,0.07328416407108307,0.09496786445379257,-0.07448016107082367,-0.07863469421863556,0.12384824454784394,-0.08939871191978455,-0.024473514407873155,0.15870077908039094,-0.07125407457351685,-0.17138554155826569,-0.1730826050043106,0.059360671788454059,0.14137233793735505,-0.07377014309167862,0.17296044528484345,-0.10271458327770233,-0.14818455278873444,0.051653433591127399,-0.0047865440137684349,-0.10311896353960037,-0.1599932610988617,-0.23099733889102937,0.08108948916196823,0.1469125747680664,-0.2232719361782074,0.007325486745685339,0.15487144887447358,0.035654786974191669,-0.1433662325143814,0.06973923742771149,0.01387037429958582,0.08356477320194245,0.050900205969810489,-0.07985711097717285,-0.15906257927417756,0.027486849576234819,-0.25376567244529726,0.20865114033222199,-0.04104786366224289,0.2041161060333252,-0.05163098871707916,-0.0720566064119339,-0.21028248965740205,0.10122444480657578,0.19204166531562806,-0.1369466334581375,0.09239866584539414,-0.06825526803731919,-0.18430674076080323,-0.26379767060279848,-0.05730609595775604,0.02650437131524086,-0.057525016367435458,0.05550026148557663,0.05764136090874672,0.07823086529970169,0.10175982117652893,0.003028648905456066,-0.19201110303401948,-0.20876020193099976,0.20766107738018037,0.1194402202963829,-0.01636749505996704,0.19475609064102174,0.02737111784517765,-0.007450912147760391,-0.07051242142915726,-0.05422227457165718,-0.05166643112897873,-0.14293314516544343,0.32821381092071535,0.03157693147659302,-0.07335534691810608,0.15597032010555268,0.19023244082927705,-0.16475799679756165,0.11695824563503266,0.08757996559143067,-0.010648553259670735,-0.04644695669412613,-0.05610031262040138,-0.031071119010448457,0.18187806010246278,-0.12421251833438873,0.053398583084344867,0.11655831336975098,0.03939259052276611,0.11052124202251435,-0.2478841096162796,-0.09192702174186707,0.15059837698936463,0.004319977015256882,0.01860031858086586,0.07506264746189118,0.18707051873207093,0.26629626750946047,-0.3939494788646698,-0.06329988688230515,-0.12888754904270173,0.1815727949142456,0.03965689614415169,-0.22879353165626527,0.049956321716308597,0.0731537863612175,0.05984410643577576,-0.16094984114170075,0.11338023096323013,0.06966764479875565,-0.061177439987659457,0.030723731964826585,0.05046125501394272,-0.22845834493637086,0.3039829730987549,0.25170058012008669,0.07263354957103729,0.09716670215129852,0.24923966825008393,0.2737400531768799,0.15213054418563844,-0.08616314083337784,0.15404297411441804,0.023526476696133615,-0.0829625055193901,-0.15950539708137513,0.28046801686286929,-0.42156583070755007,0.3515336215496063,0.06990382820367813,-0.12440468370914459,0.014494016766548157,-0.04852421209216118,0.10086048394441605,-0.07137323915958405,0.033296793699264529,0.2761150300502777,0.15960714221000672,-0.23924294114112855,0.2537897825241089,0.05823557451367378,0.021837858483195306,-0.019116295501589776,-0.07851311564445496,-0.2611542344093323,-0.1857321709394455,-0.08711409568786621,-0.0014307309174910188,0.1606856733560562,-0.3764134645462036,-0.021672185510396959,-0.07061737775802612,0.07622876018285752,-0.10758429765701294,-0.1251201629638672,0.03882383927702904,-0.06720411777496338,-0.2939378023147583,0.1253335326910019,0.13106419146060944,0.03809182718396187,-0.34285134077072146,-0.13358435034751893,0.055263351649045947,0.019285520538687707,0.00817893072962761,0.05818086862564087,-0.13562901318073274,0.0026176401879638435,-0.1943655163049698,0.06282813102006912,0.00816813949495554,-0.19479282200336457,0.061587847769260409,-0.11657167971134186,0.10989173501729965,-0.12753163278102876,-0.24112460017204286,0.017791258171200753,0.15488232672214509,0.10828335583209992,0.09919954091310501,0.10490646213293076,-0.13660715520381928,-0.22900985181331635,-0.22749266028404237,-0.03553116321563721,0.1681382954120636,-0.05216198414564133,-0.12862804532051087,-0.40342235565185549,-0.056963540613651279,0.25240200757980349,0.07188878208398819,-0.10858311504125595,0.22299736738204957,-0.0857212021946907,0.1943679004907608,0.2254725694656372,-0.10190730541944504,-0.14959816634655,-0.03782905638217926,0.037789300084114078,-0.1390906721353531,0.05595315620303154,-0.04405784234404564,0.122849240899086,0.09345723688602448,-0.05542204901576042,-0.25631755590438845,0.004524017684161663,0.0018948896322399378,0.08012238144874573,-0.20147670805454255,0.1746489405632019,-0.01726657897233963,-0.040446601808071139,0.09510061889886856,-0.061192478984594348,-0.1364668607711792,-0.11289910972118378,0.10087865591049195,0.2685558497905731,0.064724862575531,0.14190228283405305,0.03033541515469551,-0.0716438814997673,0.005353748332709074,0.08898074179887772,0.04074756056070328,-0.09477974474430084,0.2371937781572342,0.1272929161787033,0.09577026218175888,0.13462993502616883,-0.04892782121896744,0.17614729702472688,0.34253108501434328,0.25436246395111086,0.10745751857757569,-0.19977471232414246,0.1356496512889862,0.13936768472194673,-0.05880008265376091,0.19426602125167848,0.050546057522296908,-0.04996681585907936,-0.07084964215755463,-0.08484122902154923,-0.09291186928749085,-0.08847012370824814,0.12927088141441346,-0.11213535070419312,0.040244173258543017,-0.21684014797210694,-0.16368161141872407,0.37827688455581667,-0.29247674345970156,0.15217489004135133,-0.04582219570875168,0.0518183596432209,0.09420666843652725,0.1039164587855339,-0.07363838702440262,0.1267247200012207,-0.021158531308174135,-0.19103805720806123,0.03824804350733757,0.05004117637872696,-0.06910758465528488,-0.12880472838878632,-0.18959204852581025,0.045081693679094318,0.18138347566127778,-0.03519503399729729,0.011396937072277069,-0.062182068824768069,0.37852680683135989,0.39436328411102297,0.12030559033155441,0.07173987478017807,0.10625812411308289,-0.03995233029127121,0.16563332080841065,0.2933028042316437,0.18445058166980744,-0.16169999539852143,-0.019848138093948365,-0.14819994568824769,-0.01194434892386198,-0.03287887200713158,-0.04454231634736061,0.10978738963603974,-0.17205630242824555,-0.17068792879581452,-0.15620410442352296,-0.14769527316093446,0.3464370667934418,0.2705603241920471,-0.0558348186314106,0.09398096799850464,-0.008230865001678467,0.013213974423706532,0.08385301381349564,0.06699443608522415,0.1451941430568695,0.07420498877763748,0.1629427820444107,-0.041900575160980228,0.16694952547550202,-0.07528065145015717,0.023733608424663545,0.12938739359378816,0.09402962774038315,0.03691670671105385,-0.0427013635635376,-0.28110113739967348,-0.045313235372304919,-0.0017792278667911888,0.15208637714385987,0.20652495324611665,-0.40276822447776797,0.19187873601913453,-0.06163423880934715,-0.2823922336101532,0.02453194558620453,-0.05760747566819191,0.054124779999256137,0.11410804092884064,-0.029698669910430909,0.2197202444076538,0.284257709980011,-0.15182514488697053,0.16837140917778016,0.09911093860864639,-0.11508625000715256,0.09414587914943695,0.3031478524208069,-0.006109761074185371,0.18500448763370515,0.004253744147717953,-0.10751578956842423,0.04422130435705185,-0.14808262884616853,-0.17994268238544465,0.036265548318624499,-0.22059443593025208,-0.16003867983818055,-0.07859396934509278,0.23565110564231873,-0.030352775007486345,-0.18897166848182679,-0.23528212308883668,-0.020698193460702897,0.22878992557525636,-0.13669614493846894,-0.042615778744220737,-0.0503421388566494,-0.09764986485242844,0.19934652745723725,-0.18186107277870179,0.06686948984861374,0.27222102880477908,-0.11121301352977753,0.07645993679761887,-0.1834409385919571,0.026572296395897867,0.1621849536895752,-0.07110577821731568,-0.041603539139032367,0.15232039988040925,-0.03699213266372681,0.39202257990837099,-0.13229556381702424,-0.06789670139551163,0.05301976576447487,0.14545755088329316,0.47695958614349368,0.04491851106286049,-0.03499907627701759,-0.0806654691696167,-0.008666339330375195,-0.050441958010196689,0.11415798962116242,0.2495734542608261,0.09068681299686432,0.0020981584675610067,0.018213815987110139,-0.20268382132053376,-0.006152557209134102,-0.14366376399993897,-0.08945810049772263,0.20094609260559083,0.17231711745262147,0.4496407210826874,-0.05506595969200134,-0.38142770528793337,0.15018199384212495,0.06651633977890015,0.24378961324691773,0.3037559390068054,-0.1701977699995041,-0.29586803913116457,-0.11540322005748749,-0.22800365090370179,0.27644121646881106,-0.011274837888777256,0.0395246222615242,-0.061997998505830768,-0.1632562130689621,-0.11495121568441391,-0.2863563895225525,0.44466105103492739,0.22172486782073975,-0.07164862751960755,-0.041057564318180087,-0.055081818252801898,-0.035264402627944949,0.06622938066720963,-0.07173425704240799,0.06989490985870362,0.23264950513839723,0.25215721130371096,-0.021357495337724687,0.08770926296710968,0.20388825237751008,0.08832918107509613,0.15486325323581696,-0.25950145721435549,-0.10066629946231842,0.1294441521167755,-0.10340268164873123,0.44448089599609377,0.17361365258693696,-0.03892973065376282,0.02872939221560955,0.10162196308374405,0.07161198556423187,-0.11744195222854614,-0.12312532961368561,-0.026426279917359353,-0.16646887362003327,0.042836569249629977,0.11782586574554444,-0.1014551892876625,-0.0903363823890686,-0.20751497149467469,-0.3528655171394348,-0.23343059420585633,-0.21876204013824464,-0.023882724344730378,-0.03429333120584488,0.14537377655506135,-0.3268335461616516,0.11171774566173554,0.0996580496430397,0.0004750858061015606,-0.08854477852582932,0.01784231886267662,-0.08992169797420502,-0.20557191967964173,0.006804879754781723,0.2737899124622345,0.04359035566449165,0.00263407570309937,-0.24808429181575776,-0.09737967699766159,0.03770819306373596,0.08583436161279679,0.21496091783046723,0.18632395565509797,0.04740176349878311,-0.07138414680957794,0.07874444127082825,0.01352684386074543,-0.07668673247098923,-0.11054651439189911,0.0840640589594841,-0.026000112295150758,0.06729317456483841,-0.19935846328735352,0.04620910808444023,-0.23131625354290009,0.07671533524990082,-0.2703682780265808,-0.051019784063100818,-0.2958841323852539,-0.14766350388526917,-0.048955149948596957,-0.01931113749742508,-0.046865444630384448,-0.1994200497865677,0.2673163115978241,0.16104502975940705,-0.25334733724594118,-0.13908106088638307,0.16278758645057679,-0.39349251985549929,-0.00016244870494119823,-0.18608415126800538,-0.29172855615615847,0.3119409680366516,0.20093493163585664,-0.1349082589149475,-0.1876649409532547,0.24721050262451173,0.14744281768798829,-0.09911108016967774,-0.1176161915063858,-0.23992367088794709,0.11903879791498184,-0.010811680927872658,0.09139125049114227,-0.02650199458003044,0.04171920567750931,0.11642573028802872,0.13612964749336244,0.019010674208402635,0.19013188779354096,-0.16994735598564149,-0.04445309191942215,-0.02877720072865486,-0.17577338218688966,0.21296775341033936,0.16988727450370789,-0.18462695181369782,-0.1301179975271225,-0.24903927743434907,-0.03243733197450638,0.09125666320323944,-0.20799720287322999,0.01445762813091278,-0.19497650861740113,0.029797783121466638,0.06852124631404877,-0.050181832164525989,0.02177595905959606,0.049773771315813068,0.1438322365283966,-0.02175102010369301,-0.09363777935504914,0.00885543879121542,-0.018009409308433534,-0.2651655077934265,-0.14310100674629212,-0.1648494303226471,0.01439004484564066,-0.18591785430908204,-0.1479312628507614,-0.31618204712867739,0.05459356680512428,0.1269475370645523,-0.008032575249671936,-0.1860465556383133,0.15189966559410096,-0.2950465977191925,-0.04152670130133629,-0.21498794853687287,0.03236020356416702,-0.28698331117630007,0.16697493195533753,0.3525490462779999,-0.0133814150467515,-0.1919589638710022,0.41916424036026,0.003682374255731702,0.25364023447036745,-0.2691170275211334,0.12909723818302155,0.13607241213321687,0.20660912990570069,-0.03779539838433266,-0.12479746341705322,0.2760593593120575,-0.25086283683776858,0.17530757188796998,0.18913082778453828,-0.08707909286022186,-0.008119351230561734,0.028595425188541414,-0.024994872510433198,0.09195496886968613,0.026414910331368448,0.06914889812469483,-0.07777390629053116,-0.013937430456280709,-0.03195377066731453,0.1659276783466339,0.14987194538116456,-0.04994254559278488,0.07423129677772522,0.11914865672588349,0.1068582534790039,-0.06795591861009598,-0.30392810702323916,0.07634018361568451,0.05352902412414551,-0.3837070167064667,-0.06968680024147034,0.09480731189250946,-0.20030735433101655,-0.06480423361063004,0.03907357156276703,-0.25526127219200137,-0.053756650537252429,-0.031933482736349109,0.22166869044303895,0.33591383695602419,0.043150149285793307,0.07684139162302017,-0.02511535957455635,-0.20614494383335114,-0.04418573155999184,-0.011893687769770623,-0.01097049843519926,0.2195170521736145,0.06006897613406181,-0.0971188023686409,0.08209332078695297,0.09012679755687714,-0.2648439109325409,0.17153969407081605,-0.2647273540496826,-0.24375057220458985,-0.07643841207027435,0.017644010484218599,-0.18300317227840424,-0.03622714802622795,0.0635359138250351,-0.07045414298772812,0.15136632323265077,-0.38692161440849306,0.20853698253631593,-0.29468217492103579,-0.047942422330379489,-0.38522815704345705,0.11222277581691742,-0.15585912764072419,0.2686753273010254,0.16578461229801179,0.1413457691669464,-0.038934919983148578,-0.013087269850075245,0.08531327545642853,-0.16625802218914033,0.1902589350938797,0.2411692589521408,-0.07475897669792175,0.006792547181248665,-0.010208937339484692,0.05082345008850098,0.048019811511039737,0.14095976948738099,0.2283334732055664,0.07115644216537476,0.015242256224155426,-0.024160027503967286,0.038353465497493747,0.10771825164556503,-0.059914182871580127,0.10005267709493637,0.25735706090927126,-0.20817743241786958,-0.012236240319907666,0.0784691572189331,-0.31703659892082217,-0.121559739112854,0.2268834263086319,-0.20267711579799653,-0.2664633095264435,0.07222631573677063,0.020601926371455194,0.382144957780838,-0.06840798258781433,0.07558975368738175,-0.12300487607717514,-0.029815668240189554,-0.013066529296338559,-0.28730326890945437,-0.24032051861286164,-0.04887447506189346,-0.004840723238885403,-0.007809458300471306,-0.15990911424160005,-0.08655216544866562,0.00837134849280119,0.03537970408797264,0.04937109723687172,-0.1723109632730484,-0.05042174085974693,-0.032207418233156207,-0.08420658856630326,0.07641254365444184,-0.2610868811607361,0.2174004167318344,-0.2692068815231323,0.1128588616847992,0.04677422344684601,-0.16725748777389527,0.1296205073595047,-0.07585301250219345,-0.2009342461824417,0.18473833799362184,0.009815467521548272,0.2273973971605301,0.23195330798625947,0.05304300785064697,0.10536254197359085,-0.05240173265337944,0.019869213923811914,-0.09653899073600769,-0.1810162514448166,0.13371677696704865,0.053290460258722308,0.2311687469482422,-0.1701470911502838,-0.05469241738319397,0.30543649196624758,-0.14185865223407746,-0.08522506803274155,-0.02166597731411457,0.10258737206459046,-0.33703291416168215,-0.11455065757036209,-0.1004096046090126,-0.1286735236644745,0.00011349172564223409,0.12590235471725465,0.19247350096702577,0.0410526804625988,0.009311108849942685,-0.07565977424383164,0.05469123646616936,-0.3138822615146637,0.05028928071260452,0.054891932755708697,-0.10637834668159485,0.056457143276929858,0.06586693227291107,-0.044376593083143237,0.25321918725967409,-0.015483655966818333,-0.07622867822647095,0.24276575446128846,0.0009420524002052844,-0.008249253034591675,0.13869608938694,0.18637830018997193,0.19554267823696137,-0.18391317129135133,0.07653417438268662,0.13424254953861237,-0.03281325101852417,-0.0922587439417839,0.08483158051967621,-0.10333412885665894,-0.003704714821651578,0.008862638846039772,-0.12172063440084458,-0.12034042179584503,-0.24492724239826203,-0.06880290806293488,-0.1868572235107422,0.22345876693725587,-0.11754854023456574,0.04395588859915733,-0.015650136396288873,-0.08525202423334122,0.032077789306640628,0.21307611465454102,0.23220838606357575,-0.11341041326522827,0.20206457376480103,-0.16259601712226869,0.1678219586610794,0.14716823399066926,0.13759325444698335,-0.0747808963060379,-0.14533942937850953,0.08175454288721085,0.07216848433017731,0.23682856559753419,0.00008574617095291615,-0.21561111509799958,-0.027537966147065164,0.19766809046268464,0.14382067322731019,0.11915905773639679,0.09671542793512345,0.08944573253393173,-0.15895147621631623,0.10083524137735367,-0.11842172592878342,0.024424616247415544,0.14435282349586488,0.06232025474309921,-0.10501980781555176,0.002258070046082139,0.11199487000703812,-0.04812813550233841,-0.07314140349626541,0.1215713620185852,0.027683429419994355,0.13386885821819306,0.20678825676441194,-0.08082494884729386,-0.013139935210347176,-0.03524604067206383,0.17866304516792298,-0.03437409922480583,-0.05440553277730942,0.22557790577411652,0.1731930375099182,0.02877490594983101,-0.32806000113487246,0.15141160786151887,-0.05900799110531807,-0.11339499056339264,0.19898276031017304,0.21824024617671967,-0.17058341205120088,0.07398521155118942,-0.04015159234404564,0.016526062041521074,0.16892850399017335,0.4181261658668518,0.005804527550935745,0.06618470698595047,-0.15851040184497834,-0.4800398349761963,-0.0484539158642292,0.47547101974487307,0.31908711791038515,-0.01526135765016079,0.07258185744285584,-0.031283438205718997,0.14164811372756959,0.024199578911066057,-0.05141647532582283,-0.12379533797502518,-0.006078557576984167,-0.09932444989681244,-0.03281782940030098,0.17939776182174684,0.37072205543518069,-0.1870306432247162,-0.19530534744262696,-0.09837175905704498,0.057289689779281619,-0.2133656144142151,0.2232496589422226,0.0015075067058205605,-0.007936793379485608,-0.2051246166229248,-0.16877104341983796,-0.1466011106967926,0.298963338136673,-0.06548641622066498,0.537702202796936,-0.005450512282550335,0.22895194590091706,0.03913377597928047,0.07522314786911011,0.15257203578948975,-0.08483628183603287,-0.21257337927818299,-0.04670652002096176,-0.2258976399898529,0.2470557540655136,-0.15289200842380525,0.09977737814188004,0.04730667918920517,0.05249752104282379,0.1041409820318222,-0.34027600288391116,0.013504301197826863,0.14444102346897126,0.197940856218338,-0.2132336050271988,0.23646773397922517,-0.16938504576683045,-0.0995878279209137,-0.07837235927581787,0.10515191406011582,-0.04660078138113022,-0.13694772124290467,0.045790743082761767,-0.027665182948112489,-0.21921317279338838,-0.13573618233203889,0.19365251064300538,-0.19131644070148469,-0.09752407670021057,-0.21381597220897675,0.11770214885473252,0.01477484405040741,0.03556601703166962,-0.07775550335645676,0.295938104391098,0.129716694355011,0.020802266895771028,0.16638748347759248,0.09911435097455979,0.1054837703704834,0.028736641630530359,0.1810753047466278,0.040642350912094119,-0.3202294409275055,0.1375199854373932,-0.08063226193189621,0.13951243460178376,-0.10104575008153916,0.11151935160160065,-0.06905630230903626,0.1245245710015297,-0.04642464220523834,0.16803285479545594,-0.2407790571451187,0.35456767678260805,-0.16789522767066956,-0.09608479589223862,-0.045801881700754169,0.24356600642204286,0.03994155675172806,0.36564913392066958,-0.2780840992927551,-0.14745204150676728,-0.010595578700304032,-0.033205125480890277,0.1382303088903427,-0.23843717575073243,-0.008422261103987694,0.15928657352924348,0.3224817216396332,0.2533770799636841,0.04330501705408096,0.06658484786748886,0.131207674741745,-0.1622554361820221,0.07157110422849655,0.028840849176049234,0.023097166791558267,0.2067432701587677,-0.11251930147409439,-0.349537193775177,-0.010914045386016369,0.17487040162086488,0.088055819272995,0.09278994053602219,-0.21495981514453889,-0.05891785770654678,-0.25323963165283205,-0.1451956182718277,0.06778950989246369,-0.2601761817932129,-0.25643402338027956,0.05260230973362923,-0.16157479584217072,0.10906205326318741,0.1355123668909073,-0.010972566902637482,-0.14176836609840394,0.12611284852027894,-0.01707453280687332,0.08247870951890946,0.023538723587989808,-0.10587216168642044,0.11180998384952545,-0.1653333604335785,-0.06342275440692902,-0.2547893524169922,0.16992278397083283,0.06870687007904053,0.07968994230031967,-0.07269693911075592,-0.21485193073749543,-0.039732303470373157,0.005003815982490778,-0.09773344546556473,-0.10976622253656388,-0.11985193192958832,0.05043325200676918,0.19287900626659394,-0.1346273571252823,0.29616785049438479,0.1045074611902237,-0.10181514173746109,0.09424274414777756,-0.2243829369544983,-0.22711065411567689,-0.15140512585639954,0.15290506184101106,-0.10516990721225739,-0.0019670254550874235,-0.043511129915714267,-0.01501773577183485,-0.313789039850235,-0.06222722306847572,0.37830501794815066,0.21664245426654817,-0.2714668810367584,-0.32815906405448916,0.08494420349597931,0.23311403393745423,-0.09190940111875534,-0.23715806007385255,0.12106528133153916,-0.20962241291999818,-0.2263084352016449,0.08053691685199738,-0.28963303565979006,0.031919289380311969,0.10572080314159394,-0.24506820738315583,-0.06807370483875275,0.03201323002576828,-0.10065322369337082,-0.17053388059139253,-0.0004589382151607424,-0.05577634274959564,-0.09689240157604218,0.04505625739693642,-0.11888802796602249,0.014448359608650208,-0.01134659256786108,0.2004767805337906,-0.0704798623919487,-0.018600139766931535,-0.11183352023363114,-0.028823263943195344,0.3568337559700012,-0.006420979276299477,0.05880877003073692,-0.22449426352977754,0.026030370965600015,-0.3857717514038086,-0.2031201273202896,-0.011355186812579632,-0.026148881763219835,0.0967196449637413,0.19190765917301179,-0.017202142626047136,-0.11238467693328858,-0.17449192702770234,-0.1257312297821045,0.004835051950067282,-0.15585438907146455,0.12178982049226761,-0.23246809840202332,0.2509123682975769,0.08954772353172302,0.19733117520809174,-0.010319837369024754,0.0687868744134903,-0.021301673725247384,-0.11323798447847367,-0.03907325863838196,0.00950472429394722,0.008861175738275051,0.19251607358455659,0.2547606825828552,-0.11050714552402497,-0.05374699831008911,0.11288866400718689,0.18370947241783143,0.1459140032529831,0.028211794793605806,0.17746858298778535,0.4045831859111786,0.07087523490190506,0.037576448172330859,-0.01945084147155285,0.09820713847875595,0.04330500587821007,0.06683113425970078,-0.14964325726032258,-0.12159133702516556,0.048555728048086169,0.1303720623254776,-0.045325011014938357,-0.2470257729291916,-0.024005325511097909,-0.03327769413590431,-0.23170748353004456,0.051578693091869357,-0.03550814837217331,0.05167617276310921,0.18164677917957307,-0.009464900009334088,0.0174618661403656,-0.024813862517476083,0.02563975192606449,-0.057047124952077869,-0.08768338710069657,0.20807239413261414,-0.16553138196468354,0.09690624475479126,-0.012210972607135773,0.13181519508361817,-0.14088788628578187,0.06238475441932678,-0.18402248620986939,-0.17524264752864839,-0.20061491429805757,-0.1981981247663498,0.34590423107147219,0.02860974706709385,0.02104693092405796,-0.041894860565662387,-0.013908355496823788,0.08936084061861038,0.1462061107158661,0.12777771055698396,0.305561363697052,-0.15891548991203309,-0.07738381624221802,-0.057272255420684817,-0.13885489106178285,0.023864518851041795,0.2063593715429306,-0.06586563587188721,-0.06424562633037567,0.24991224706172944,-0.16530148684978486,-0.17359520494937898,-0.22848689556121827,0.08859410136938095,-0.260470449924469,-0.04054674133658409,0.012614448554813862,-0.04598090425133705,0.0843174159526825,0.09497195482254029,-0.21756412088871003,0.18123941123485566,-0.03610401228070259,0.2722020149230957,-0.3598071336746216,0.08200137317180634,0.07079414278268814,-0.008777976036071778,-0.19391296803951264,-0.011415552347898484,-0.29711467027664187,0.010123329237103463,0.012836179696023465,0.24647188186645509,0.010851919651031495,0.13073612749576569,0.09809312224388123,-0.013690682128071785,-0.23270726203918458,-0.07707667350769043,0.07325705885887146,0.30613934993743899,0.07239245623350144,-0.22740840911865235,-0.01639196090400219,-0.09621894359588623,-0.07437220960855484,-0.2709873914718628,-0.0225489754229784,0.0136043606325984,-0.24396054446697236,-0.01827426441013813,-0.18281957507133485,-0.0437370203435421,0.009020227007567883,0.2028503566980362,-0.033418089151382449,-0.2862047553062439,-0.1302967220544815,0.27560967206954958,-0.08555170893669129,-0.014681613072752953,-0.10876794159412384,0.2092590481042862,0.44210848212242129,-0.08080850541591644,-0.008919336833059788,0.12307693809270859,-0.05074941739439964,0.05017144978046417,0.13066264986991883,-0.2821219563484192,-0.06861387938261032,-0.06025688722729683,0.15048100054264069,0.02744900807738304,-0.16382712125778199,-0.1588483452796936,-0.0384557768702507,0.0005353698506951332,-0.13749617338180543,0.10684622079133988,-0.07729678601026535,0.15006154775619508,0.08483321964740753,0.13001315295696259,0.06971089541912079,0.13564907014369965,0.18486028909683228,0.24695153534412385,-0.013097322545945645,-0.16566605865955354,-0.039207812398672107,0.16843605041503907,-0.1783939152956009,-0.2010328620672226,-0.01345701515674591,-0.08058224618434906,-0.15032434463500977,-0.02578934282064438,-0.20882703363895417,-0.10477723926305771,-0.21575047075748444,0.18795844912528993,-0.15277650952339173,-0.10058135539293289,-0.08635003864765167,0.10557105392217636,0.0028228056617081167,0.305153489112854,-0.10272791981697083,-0.15702053904533387,0.11121834069490433,0.19645869731903077,-0.025966834276914598,-0.09618086367845535,0.128153458237648,0.032422106713056567,-0.009794246405363083,0.08641932159662247,0.17961731553077699,-0.053799498826265338,-0.10694614797830582,0.07964003086090088,-0.28012245893478396,-0.10811879485845566,-0.12884920835494996,0.23024041950702668,-0.1944567710161209,-0.04693586379289627,0.03467252478003502,0.012163573876023293,0.5720981955528259,0.21963141858577729,-0.000435760390246287,-0.291098415851593,-0.19201047718524934,0.324004590511322,-0.2805618941783905,0.008417444303631783,0.22004246711730958,-0.24935834109783173,0.0666431337594986,-0.061297930777072909,0.07496152073144913,0.11887677013874054,-0.27588117122650149,0.08020645380020142,-0.2070940136909485,0.011096581816673279,-0.1735200583934784,-0.17715123295783997,-0.14001868665218354,-0.1693965196609497,0.08076835423707962,0.11208295077085495,0.05000782012939453,0.17130887508392335,0.10378634184598923,-0.163553848862648,-0.3233465254306793,0.14891110360622407,-0.10305848717689514,-0.11350748687982559,-0.0006360887782648206,0.04324011504650116,-0.0652286484837532,-0.10359302163124085,-0.28087595105171206,0.044794607907533649,0.0698355883359909,-0.02467157691717148,0.21785670518875123,0.14485469460487367,-0.15684151649475099,0.11906043440103531,-0.13227328658103944,-0.14820882678031922,-0.1972571164369583,-0.01929725706577301,-0.08563465625047684,-0.07048503309488297,-0.07057595998048783,0.15557928383350373,0.010480108670890332,0.27487966418266299,0.35448431968688967,-0.26905936002731326,0.04564613476395607,0.24761167168617249,-0.009372884407639504,0.057808902114629748,-0.13081574440002442,0.08328083157539368,-0.28455206751823428,0.23312170803546906,0.10861507803201676,0.09960552304983139,0.24794483184814454,0.06482960283756256,-0.100826196372509,0.0987670049071312,0.19568054378032685,0.169783353805542,-0.015336564742028714,0.1211901381611824,-0.13786736130714417,-0.1272616684436798,-0.14140178263187409,0.22618600726127625,-0.06410077214241028,-0.07203561812639237,-0.08393550664186478,-0.17331694066524507,-0.208481103181839,-0.19674108922481538,0.023655088618397714,-0.1119345873594284,0.08258869498968125,0.10631819814443588,0.12298425287008286,-0.15713128447532655,-0.17063985764980317,0.03112090192735195,0.10644718259572983,-0.19970789551734925,-0.25406041741371157,0.1001066341996193,-0.026167379692196847,-0.27811288833618166,0.07831691205501557,-0.002567998366430402,0.007358990143984556,0.047275297343730929,0.003216015873476863,-0.03702996298670769,-0.1033298671245575,-0.1478840708732605,0.1771145761013031,0.03901923820376396,0.013141957111656666,0.07671874016523361,-0.12418071180582047,-0.1386369913816452,0.46142396330833437,-0.006824041251093149,0.092769555747509,0.1370166540145874,-0.053426969796419147,0.009771152399480343,0.3073570728302002,-0.13794569671154023,-0.21251267194747926,0.22011040151119233,0.2551248371601105,0.17296791076660157,0.2356470674276352,0.1538517028093338,-0.22614821791648866,0.054875392466783527,0.00024348325678147376,0.1950168013572693,0.43961402773857119,-0.05271100252866745,0.14571423828601838,-0.09663872420787811,-0.15356288850307465,-0.010987546294927597,0.0635482519865036,-0.06974371522665024,0.05996136739850044,-0.18983517587184907,-0.13488517701625825,0.09144856780767441,0.3006821274757385,0.11248783022165299,0.19592377543449403,0.0851946622133255,0.0513828843832016,0.09218049794435501,-0.11634285002946854,0.001718609593808651,-0.1413312554359436,-0.13087740540504456,0.11941781640052796,0.07950548082590103,-0.17763490974903108,-0.05676257610321045,-0.19454075396060944,0.14634421467781068,0.07479780912399292,0.18944381177425385,0.09485800564289093,0.10974830389022827,-0.21389921009540559,0.006695607211440802,0.1213565245270729,-0.12016487866640091,-0.12158621102571488,-0.06655918061733246,0.23937657475471497,0.03535619378089905,0.09473185241222382,-0.0021942881867289545,-0.0465233139693737,0.15781690180301667,0.06006907299160957,0.25016894936561587,-0.10860421508550644,-0.09473346173763275,0.03145148605108261,-0.16996102035045625,-0.13273881375789643,-0.30620723962783816,-0.16928690671920777,-0.16235511004924775,-0.08530781418085098,0.1223757192492485,-0.17269876599311829,0.05147308111190796,0.11368187516927719,-0.12274649739265442,0.004615580663084984,-0.05506177991628647,0.03410571813583374,-0.03474782034754753,-0.012044806033372879,-0.17338138818740846,0.16080206632614137,-0.22051596641540528,-0.19313867390155793,-0.24431025981903077,-0.24735386669635774,0.12641379237174989,-0.16468925774097444,-0.22624757885932923,-0.09564767777919769,-0.02011902630329132,-0.06557930260896683,0.07275655120611191,0.23839199542999268,0.1948237121105194,-0.08407504856586456,-0.07728254050016403,-0.12482795119285584,0.06066260486841202,-0.12131473422050476,0.04656943306326866,-0.16797566413879395,0.05126801133155823,0.03350984305143356,0.08363772928714752,0.012005333788692952,0.04142763465642929,-0.08114704489707947,-0.10051489621400833,0.03925742208957672,0.06921838223934174,0.18030592799186707,0.0024640383198857309,-0.31565821170806887,-0.05937432870268822,0.08871409296989441,-0.07210595905780792,-0.06825034320354462,-0.09990528970956803,-0.10536128282546997,-0.2608230412006378,0.010419460944831372,0.24468274414539338,0.06884437054395676,-0.21431024372577668,0.014204303734004498,0.10135755687952042,-0.07034152001142502,-0.04788776487112045,0.15341445803642274,0.03325493633747101,0.047538042068481448,-0.21616783738136292,0.0748608261346817,-0.1215650737285614,-0.25141942501068118,-0.09531817585229874,-0.04052823781967163,0.21315670013427735,0.07026299089193344,-0.09263347089290619,-0.05753614008426666,0.06608251482248306,-0.18651182949543,0.09792202711105347,-0.06148243322968483,0.09629836678504944,0.17094509303569795,0.08882385492324829,0.04052603989839554,0.055443499237298968,0.13337332010269166,0.03685947507619858,-0.08559563010931015,0.05640079081058502,-0.0744207575917244,0.34437263011932375,0.13921761512756349,-0.23394468426704408,0.11179240792989731,0.07058374583721161,-0.05326462909579277,-0.07478253543376923,0.20831076800823213,-0.126840278506279,0.09559818357229233,0.04520491883158684,0.06513131409883499,0.02585630677640438,-0.22314481437206269,-0.14809110760688783,-0.13026712834835053,0.005335506051778793,0.22566640377044679,0.1478642076253891,0.02997424267232418,-0.3437279760837555,0.331292062997818,0.06611735373735428,0.10317601263523102,0.06754876673221588,0.008309093303978444,-0.017568344250321389,-0.23455499112606049,0.13864898681640626,-0.16299286484718324,-0.17529483139514924,0.0307206641882658,0.047331303358078,0.21479341387748719,0.20188620686531068,0.1976860761642456,0.14931756258010865,-0.33652356266975405,-0.008424730971455574,-0.19621825218200684,0.036712951958179477,-0.00495876045897603,0.15187306702136994,-0.07606059312820435,-0.160325288772583,-0.028476029634475709,0.08035174012184143,0.029308147728443147,-0.20220966637134553,-0.1788550466299057,0.1736457496881485,-0.013441599905490876,0.032554853707551959,0.08845943957567215,0.01997676119208336,-0.22078855335712434,-0.13547669351100923,0.09350656718015671,-0.07982361316680908,-0.06163587048649788,-0.06709955632686615,0.12812626361846925,0.00955964345484972,-0.05912049859762192,-0.18787193298339845,-0.12721829116344453,-0.42057204246520998,-0.28205418586730959,0.12854701280593873,-0.335758239030838,0.09551239013671875,0.0958312451839447,0.05355939641594887,-0.025566251948475839,-0.09510673582553864,0.09600339084863663,-0.07600738853216171,-0.044959891587495807,-0.11700063198804856,-0.11048529297113419,-0.18864688277244569,0.13782575726509095,0.03792653605341911,-0.05265151709318161,0.1466098129749298,0.27504763007164,0.10813571512699127,-0.09033162891864777,-0.1466720849275589,0.06668876856565476,-0.16216687858104707,-0.23124746978282929,0.2550056278705597,0.42678871750831606,0.08408783376216889,-0.11140382289886475,0.17327331006526948,0.1451902538537979,-0.19990049302577973,0.19104120135307313,0.07798688858747482,0.09486514329910279,0.08847714960575104,-0.10885374248027802,0.03473130613565445,-0.17767034471035005,0.06831157952547074,-0.11380741745233536,-0.10701893270015717,0.17674045264720918,-0.06349014490842819,0.4081708490848541,0.0046641770750284199,-0.22299635410308839,-0.5144205689430237,-0.19092720746994019,-0.06967664510011673,0.07410171627998352,0.2895874083042145,-0.21305721998214723,-0.052164021879434589,-0.1590110957622528,0.007944904267787934,-0.03492150828242302,0.272931307554245,-0.033117443323135379,-0.06369432806968689,-0.117243193089962,0.032622117549180987,-0.3183850646018982,-0.20063942670822144,0.146210715174675,0.25068017840385439,0.17599333822727204,-0.25502070784568789,0.1024014875292778,-0.05905637517571449,-0.08437185734510422,0.09159576147794724,0.1377471387386322,0.43677932024002077,-0.1306181401014328,-0.23259983956813813,0.023186801001429559,0.1597500592470169,-0.1893673688173294,-0.31286653876304629,-0.0795421451330185,0.004343539476394653,-0.0979093536734581,0.30705803632736208,-0.03639918193221092,-0.06512647122144699,0.028181329369544984,-0.13061395287513734,-0.03764994442462921,-0.22140276432037354,-0.09255765378475189,-0.14348053932189942,-0.02354428358376026,-0.02468772791326046,0.029528630897402765,-0.08040913194417954,-0.40566155314445498,-0.008483443409204483,0.2813734710216522,0.024731406942009927,-0.2774220407009125,-0.09225067496299744,-0.024737589061260225,0.14769703149795533,0.12179864197969437,0.006764811929315329,0.031351275742053989,-0.3418533205986023,0.0352393314242363,0.004024275112897158,0.0848517045378685,-0.004782722797244787,-0.11484115570783615,0.18389973044395448,-0.19975557923316956,0.02484099753201008,-0.02009613625705242,-0.004294554702937603,-0.16578657925128938,-0.13171471655368806,-0.06789183616638184,0.05919681861996651,0.10852546989917755,-0.230539932847023,0.06456486135721207,0.029788950458168985,-0.1007775366306305,-0.1913861632347107,0.026123711839318277,0.28855255246162417,0.1437116265296936,0.16835376620292664,-0.23985767364501954,-0.08529119193553925,0.05828355625271797,-0.11379508674144745,-0.1564052700996399,0.26571032404899599,0.09383270889520645,-0.19291721284389497,-0.07852809876203537,-0.18598990142345429,-0.08255301415920258,-0.19579526782035829,-0.1632944792509079,0.19159066677093507,0.019508132711052896,-0.03512268513441086,-0.11264067143201828,0.0818965807557106,0.07184283435344696,-0.13103730976581574,0.06286202371120453,-0.13667143881320954,0.138139545917511,-0.0187754575163126,0.06752302497625351,0.062204375863075259,-0.04832787439227104,-0.04938828945159912,0.048502806574106219,0.25783929228782656,0.05951369181275368,-0.20651400089263917,-0.18855850398540498,0.10994876176118851,-0.1401330828666687,0.24166347086429597,-0.2469593733549118,-0.0755188837647438,-0.2377762645483017,0.2821524739265442,-0.002976049669086933,0.132906973361969,-0.11760545521974564,-0.12487785518169403,-0.15591014921665193,0.033642176538705829,-0.009114718995988369,0.04119520261883736,-0.022196056321263315,0.11613533645868302,-0.1511487513780594,-0.19066043198108674,-0.20526853203773499,0.0524761788547039,-0.11137807369232178,-0.07358342409133911,-0.018225492909550668,0.23510463535785676,0.3780536949634552,-0.11724583804607392,-0.266817182302475,-0.023581653833389283,0.014092289842665196,-0.05609237775206566,0.00477036414667964,-0.014933683909475804,-0.0510978102684021,-0.059654977172613147,0.06647293269634247,0.19142776727676392,0.11094053089618683,-0.16537979245185853,0.05657513067126274,0.07606635242700577,0.03949493169784546,-0.09798667579889298,0.004868207965046167,-0.24154047667980195,-0.488491952419281,0.015299834311008454,0.11763306707143784,0.24843259155750276,0.03673835098743439,-0.008263754658401013,0.007015817333012819,-0.0020157485269010069,0.04159689322113991,-0.015352881513535977,0.08171164244413376,-0.12328072637319565,0.05056275054812431,0.025551971048116685,0.244975283741951,-0.0696461871266365,0.11554669588804245,-0.09505309164524079,0.08862186223268509,-0.04682828485965729,0.19029377400875092,-0.054573532193899158,0.3014697730541229,-0.17192918062210084,-0.1240304484963417,-0.14697538316249848,0.050017744302749637,-0.3993076980113983,-0.03940431773662567,0.22958749532699586,-0.17142146825790406,-0.3684844970703125,-0.03931432217359543,-0.17451314628124238,0.1560554802417755,-0.0333053320646286,0.12742650508880616,0.09645460546016693,-0.10644716769456864,0.030249571427702905,0.03278212249279022,0.2112191617488861,0.08744543045759201,0.1281798630952835,0.17594429850578309,-0.042655400931835178,0.07547663897275925,0.03211905434727669,0.173230841755867,0.09312153607606888,-0.3253370225429535,0.14898955821990968,-0.052073776721954349,-0.2175338864326477,-0.16513030230998994,0.16732807457447053,-0.12765108048915864,-0.22561538219451905,-0.09487245231866837,-0.22840730845928193,-0.14583495259284974,0.09227389097213745,0.04126543924212456,-0.008229143917560578,-0.1252499520778656,0.2017301321029663,-0.16420601308345796,0.21820132434368134,0.008828306570649147,-0.14260926842689515,-0.12892287969589234,-0.23063108325004579,0.08488250523805618,-0.1714782565832138,0.05195807293057442,0.11826816201210022,-0.10625431686639786,0.05577253922820091,-0.2754802703857422,0.027832109481096269,-0.18596795201301576,0.15861324965953828,0.19790877401828767,0.023140326142311097,0.016529543325304986,0.22056987881660462,0.19875849783420564,0.15549904108047486,-0.13873305916786195,0.10050427913665772,0.3025968372821808,0.1224893182516098,0.17090141773223878,-0.05787549912929535,0.029501421377062799,-0.17990323901176454,-0.09634467214345932,-0.12020664662122727,0.028128931298851968,0.09165036678314209,-0.054729051887989047,-0.27753958106040957,0.016797533258795739,-0.06359321624040604,-0.21761542558670045,0.11452412605285645,-0.02917623147368431,0.06681285053491593,0.1974533051252365,0.029945412650704385,-0.11253239214420319,-0.015256250277161599,0.33206120133399966,-0.1436745971441269,-0.07587277889251709,-0.1092902347445488,0.13529904186725617,0.06320121884346008,-0.18740490078926087,-0.006534499116241932,-0.18013323843479157,0.06936290115118027,-0.1316750943660736,0.014177205041050911,0.08748864382505417,0.09011010825634003,0.2401178479194641,0.0416216105222702,-0.2428164780139923,-0.09776186943054199,0.0010491330176591874,0.1087460145354271,-0.08411448448896408,-0.03578338399529457,0.30694621801376345,0.006498315371572971,-0.0937022790312767,-0.033280376344919208,0.09575412422418595,0.05590726435184479,-0.0505652092397213,0.10849412530660629,0.14887329936027528,0.01825948990881443,0.06493011116981507,0.11586085706949234,-0.10614559054374695,0.014696769416332245,-0.2528283894062042,-0.10450489819049835,0.07915834337472916,0.20301565527915955,0.025175435468554498,0.08438800275325775,-0.10231951624155045,0.17216381430625916,0.017622875049710275,0.027250884100794793,0.08819590508937836,0.03597751259803772,-0.14356523752212525,-0.04510843753814697,-0.07021379470825196,0.030622223392128946,0.15058664977550507,0.006198138929903507,-0.05162067711353302,-0.1101209968328476,0.1411924511194229,-0.07678807526826859,0.08576370030641556,0.16390378773212434,0.10953672230243683,-0.16278690099716187,0.04114736244082451,-0.11413596570491791,0.046901993453502658,-0.11270494759082794,0.0549931563436985,-0.1315041333436966,-0.023321015760302545,-0.09079556167125702,0.0838407352566719,0.04183582216501236,-0.14154721796512605,-0.11116737872362137,0.12335529923439026,-0.10921210050582886,-0.12412607669830322,0.15734252333641053,0.19600699841976167,0.06385525315999985,0.11714177578687668,-0.19731195271015168,-0.09800788015127182,-0.09134586900472641,0.038261882960796359,0.19442345201969148,-0.1438133418560028,-0.17172133922576905,0.32703787088394167,0.15643410384655,0.07605735212564469,-0.163020059466362,-0.17786094546318055,-0.20781198143959046,0.08649515360593796,0.1296916902065277,-0.25101739168167117,-0.2766979932785034,-0.12206434458494187,-0.07614024728536606,-0.10706596821546555,0.05626228079199791,-0.05345960333943367,-0.08474629372358322,-0.21678927540779115,-0.1966206580400467,0.02609628066420555,0.23508886992931367,-0.09537175297737122,0.13734082877635957,0.07273451238870621,-0.046242691576480868,-0.10257826745510102,-0.03513633459806442,-0.1790468543767929,0.15041525661945344,-0.0745697021484375,0.05982188880443573,0.11811687052249909,-0.09069228917360306,0.14013881981372834,0.09427490830421448,-0.4049094319343567,0.1627642959356308,-0.00906191486865282,0.021905845031142236,-0.023317625746130945,0.08838173002004624,0.08601165562868118,-0.06492049247026444,0.12075094878673554,-0.1675480306148529,-0.1310625821352005,0.2115226835012436,0.13285090029239655,-0.28370898962020876,-0.022458510473370553,-0.09886995702981949,0.043463319540023807,-0.1145041435956955,-0.17004455626010896,0.022195732221007348,0.07512720674276352,-0.030777260661125184,0.03932430222630501,-0.16465584933757783,-0.0514642596244812,0.3122432231903076,-0.08043869584798813,0.18621021509170533,0.14798898994922639,0.1918167918920517,0.08842335641384125,-0.00937411654740572,0.11493786424398422,-0.014446885325014592,0.06135924905538559,0.051773279905319217,-0.006353571079671383,-0.02805359847843647,0.07745309919118881,0.015948446467518808,0.10911395400762558,-0.011141153052449227,0.12457617372274399,-0.008655218407511711,0.1077718436717987,0.2187645137310028,0.3446420133113861,0.07847587764263153,-0.10277316719293595,0.05781739205121994,-0.07745254784822464,0.008627778850495816,0.028195422142744066,-0.18241071701049806,-0.06423845142126084,0.0006625475944019854,0.04576370120048523,0.0011938909301534296,0.007301139645278454,0.06718720495700836,0.004229390993714333,-0.07425353676080704,0.01500620972365141,-0.017067771404981614,-0.05579044297337532,-0.017369693145155908,0.23138821125030518,-0.11044270545244217,-0.08904969692230225,-0.06617871671915055,0.1326116919517517,-0.29998382925987246,0.19386622309684754,0.05935932695865631,0.01789402961730957,0.11831876635551453,-0.17115166783332826,0.22643578052520753,0.25248780846595766,0.11259115487337113,-0.20195701718330384,0.25306159257888796,-0.15989269316196443,0.05790901184082031,-0.277040034532547,0.304979532957077,0.1361001878976822,0.07680875808000565,0.040538910776376727,-0.08418155461549759,-0.16905109584331513,0.07870975881814957,0.5429696440696716,0.0105490293353796,-0.33176425099372866,0.16590729355812074,0.03794393315911293,-0.05097074434161186,-0.0532081238925457,-0.1849004179239273,-0.01766837015748024,0.07664463669061661,0.029532186686992646,0.11232545226812363,-0.03321488946676254,0.03142409399151802,-0.0024209548719227316,0.3208187222480774,0.0020474442280828954,0.2235298603773117,0.21900922060012818,0.0022033751010894777,-0.2562811076641083,0.03861287236213684,-0.05937689542770386,-0.1485523283481598,0.00255027087405324,-0.2771940231323242,-0.02191995456814766,-0.13555730879306794,0.13184747099876405,0.11687975376844406,0.01710655726492405,0.08427180349826813,0.09868573397397995,0.05248195305466652,0.17112621665000916,0.16328822076320649,0.13947798311710359,0.10964060574769974,0.16366107761859895,0.21903498470783235,0.07479725033044815,0.17016378045082093,0.24868880212306977,0.06556976586580277,-0.06014828756451607,-0.08174726366996765,0.059222351759672168,-0.04631201922893524,-0.11109039187431336,-0.1507406085729599,0.13480111956596375,0.11270079761743546,-0.1418886035680771,-0.035110510885715488,0.46581071615219118,0.0064421724528074268,0.21418681740760804,-0.19456791877746583,0.08629032224416733,0.037640880793333057,0.00367481866851449,-0.015311731025576592,-0.03994012624025345,0.09555842727422714,0.04113168269395828,-0.025069905444979669,-0.008389881812036038,-0.07077078521251679,0.09604804962873459,0.10025414079427719,-0.06289395689964295,0.02337769605219364,0.047798700630664828,-0.13395050168037415,-0.05171988531947136,0.12198910117149353,0.03521968424320221,-0.09803808480501175,-0.006903140340000391,-0.012061670422554016,0.051331114023923877,-0.1443052589893341,0.10655326396226883,-0.09557028859853745,-0.18967847526073457,0.16087579727172852,0.14654967188835145,0.03549158573150635,0.029209965839982034,-0.20303210616111756,0.014526133425533772,0.3226357400417328,0.1170199066400528,0.43056362867355349,-0.0363917201757431,0.005197831429541111,-0.23214393854141236,0.13890065252780915,0.3047468960285187,0.049086011946201327,0.06742912530899048,0.14032678306102754,0.08038418740034104,-0.06622405350208283,-0.05811094120144844,0.06575778871774674,0.005391508806496859,0.08573497831821442,0.1706884354352951,0.029311586171388627,-0.3533879518508911,-0.02820252813398838,-0.04527246206998825,-0.08391512930393219,0.1684449017047882,-0.13353286683559419,-0.05020235478878021,-0.002629087306559086,0.13218213617801667,-0.07115226238965988,0.1308727115392685,-0.060803014785051349,0.23410655558109284,0.20381766557693482,0.16172492504119874,-0.028411975130438806,0.06773943454027176,0.15577147901058198,-0.13653326034545899,0.21263977885246278,-0.13110651075839997,0.4232284128665924,0.14429470896720887,-0.4050157368183136,0.11816535890102387,0.194353386759758,0.0003830974455922842,-0.1020706444978714,0.16576941311359406,0.04208187758922577,-0.11800733208656311,0.10862090438604355,-0.26749902963638308,-0.16280020773410798,0.0057415589690208439,0.16937355697155,0.11616148799657822,-0.4001128077507019,0.024389099329710008,-0.04713331535458565,-0.15702979266643525,0.0973355621099472,-0.18325485289096833,0.3193570077419281,-0.2957361042499542,0.22496898472309113,0.13061664998531342,0.011039075441658497,-0.23293852806091309,0.01082007959485054,0.11245261132717133,-0.29016461968421938,-0.007658338639885187,-0.10559266060590744,-0.14695686101913453,-0.1615212857723236,-0.21373315155506135,0.3126316964626312,-0.08205848187208176,0.054701630026102069,0.1081308126449585,-0.1271773725748062,-0.18793809413909913,-0.09916730970144272,0.034328144043684009,-0.046105992048978809,0.14777374267578126,0.035592544823884967,0.0690927803516388,0.22515811026096345,0.22948630154132844,-0.036417584866285327,0.04598233476281166,0.39943286776542666,-0.5190211534500122,-0.0860571414232254,-0.0005780281499028206,-0.045608971267938617,0.12229787558317185,0.226359561085701,0.052618417888879779,0.06858886778354645,-0.044186148792505267,0.34840279817581179,0.03254634886980057,-0.012682839296758175,-0.07865741103887558,0.005468005780130625,0.23085682094097138,-0.06337764859199524,0.043533965945243838,0.139068141579628,0.12248138338327408,0.014198984950780869,-0.08810829371213913,0.19134114682674409,-0.1075524166226387,0.0508173331618309,-0.2093946784734726,-0.04146160930395126,-0.18552379310131074,-0.03873968496918678,-0.22759993374347688,0.42415645718574526,0.22121880948543549,0.04758715257048607,0.14734797179698945,0.12270227819681168,-0.19789262115955354,-0.149026021361351,0.017323913052678109,-0.01758788339793682,0.14944536983966828,-0.07591025531291962,-0.01688770204782486,-0.1347937434911728,0.17278391122817994,-0.06068818271160126,-0.13033495843410493,-0.42577075958251955,0.1838790476322174,0.02506863698363304,-0.09246274083852768,0.3559580445289612,-0.08639959245920181,0.003981056623160839,-0.3561089038848877,0.003660080721601844,-0.03987972065806389,-0.21309059858322144,0.30861416459083559,0.14397360384464265,-0.3556283116340637,0.05777040123939514,0.013447876088321209,-0.24514035880565644,-0.07001158595085144,-0.06901518255472183,-0.1346445083618164,-0.13127921521663667,0.07620207965373993,0.06267771869897843,-0.1803494095802307,-0.12089993804693222,0.22690877318382264,0.1488189399242401,0.23311062157154084,-0.09231612831354141,0.09824435412883759,0.12238964438438416,-0.07347670197486878,-0.2359784096479416,-0.13823018968105317,0.12263940274715424,0.2244761437177658,0.24039342999458314,-0.2933107316493988,-0.04616200923919678,0.009686843492090702,0.41302433609962466,0.23939493298530579,-0.09081744402647019,-0.19655625522136689,-0.02847388945519924,-0.24066409468650819,-0.04512710124254227,0.1274707019329071,0.17870299518108369,-0.03734075650572777,0.021310556679964067,-0.04018092155456543,-0.20329362154006959,-0.0848364382982254,0.03713420405983925,0.05953036993741989,0.03326110169291496,-0.10980505496263504,-0.21938475966453553,-0.30111610889434817,-0.2268635630607605,0.1858603060245514,0.017493247985839845,0.08530232310295105,-0.30191099643707278,0.22405685484409333,0.1243896558880806,-0.013937056995928288,-0.20405320823192597,0.03272180259227753,-0.09136011451482773,0.15084205567836762,0.056620314717292789,0.0301312655210495,0.26468178629875185,0.015557359904050827,0.09735216945409775,-0.21730636060237885,-0.17055931687355042,0.18325404822826386,0.0639733076095581,0.04328573867678642,-0.16911883652210236,-0.022472184151411058,-0.24494308233261109,-0.08107079565525055,-0.02106890268623829,-0.2442466914653778,0.12994630634784699,-0.10919205844402313,-0.1493360698223114,-0.22171251475811006,0.01526203565299511,-0.046808063983917239,0.23517480492591859,-0.12258663773536682,-0.25113776326179507,0.032773517072200778,-0.07730891555547714,-0.0017174540553241969,0.08913064002990723,-0.17226161062717439,-0.023235129192471505,0.2892760932445526,-0.014605933800339699,0.03781618922948837,-0.2999609112739563,0.17395265400409699,0.16605885326862336,0.02717822790145874,-0.006774258334189653,0.03482004255056381,-0.08841027319431305,0.010072104632854462,-0.04119831323623657,0.09191486239433289,-0.05570770427584648,0.29822540283203127,-0.04975053295493126,0.14497414231300355,-0.04888758435845375,-0.0033631904516369106,0.004101933911442757,-0.01530968677252531,-0.22067610919475556,-0.18493767082691194,0.30932721495628359,-0.037348467856645587,0.01758677512407303,-0.11734570562839508,0.24498550593852998,0.06282060593366623,-0.058072108775377277,0.008275709114968777,0.05602795630693436,0.09299419820308685,0.07804734259843826,0.158234104514122,-0.07956346869468689,-0.22554223239421845,-0.3903854489326477,0.08514028787612915,0.1082853153347969,0.25603970885276797,0.048149473965168,-0.11613729596138,-0.022712692618370057,-0.24152134358882905,-0.22376227378845216,-0.04395413026213646,-0.027969740331172944,-0.055982038378715518,-0.31665700674057009,-0.3553525507450104,-0.1280694603919983,-0.03343803063035011,-0.11771725118160248,0.004069064278155565,0.16907881200313569,0.2649953365325928,0.15025325119495393,-0.36267974972724917,-0.282196968793869,-0.0965886190533638,-0.05135897174477577,0.16128821671009065,-0.0002078325633192435,0.01278706919401884,-0.008416742086410523,0.04192616045475006,-0.07676059752702713,-0.14877824485301972,0.276818186044693,-0.009641649201512337,-0.08758186548948288,-0.004873867612332106,-0.20459707081317902,-0.012381749227643013,0.0370425321161747,0.10917340964078903,-0.004099548794329166,-0.19438530504703523,-0.008009342476725579,-0.040842436254024509,-0.05166606605052948,-0.019933996722102166,0.08842725306749344,0.00660160556435585,0.0808737576007843,-0.12997066974639893,-0.24440228939056397,-0.2733657956123352,0.06805570423603058,0.26644083857536318,0.1266443282365799,-0.3905264437198639,-0.13384808599948884,-0.3307309150695801,-0.23599059879779817,-0.14007356762886048,0.08899812400341034,-0.2374555915594101,-0.23972758650779725,-0.12130255997180939,0.01998555287718773,-0.1482749879360199,-0.175996795296669,-0.018969262018799783,-0.16368502378463746,0.046177949756383899,-0.219136044383049,0.21041327714920045,-0.14682185649871827,-0.24893397092819215,0.07973919808864594,0.00434153014793992,-0.027002086862921716,-0.06490372121334076,0.056960493326187137,0.13615362346172334,0.19605588912963868,0.21747912466526032,0.1305476427078247,-0.26137402653694155,0.10968000441789627,-0.08477195352315903,0.11618967354297638,-0.2474641501903534,-0.05729588121175766,0.05946672707796097,0.10095292329788208,-0.13853085041046143,-0.20140381157398225,-0.08369843661785126,0.17824703454971314,-0.19142276048660279,-0.033372581005096439,0.07280973345041275,-0.05698674917221069,0.09877574443817139,0.06814456731081009,0.19394943118095399,0.2169545739889145,-0.5365185141563416,-0.11573732644319534,-0.3920222520828247,0.23695704340934754,0.07450823485851288,0.04066495597362518,0.16505061089992524,0.06958550214767456,-0.06684897094964981,-0.10833285748958588,0.12421681731939316,0.0680118128657341,-0.11414159089326859,-0.08538632094860077,-0.004518942907452583,0.06482961773872376,-0.013290422968566418,0.1171233057975769,0.04665420949459076,-0.11449941992759705,-0.10560103505849838,0.04318094626069069,0.057489171624183658,-0.0844254270195961,0.09291824698448181,0.2665867507457733,-0.21433404088020326,-0.12691091001033784,-0.13099047541618348,0.15075498819351197,0.16104447841644288,-0.05885792151093483,-0.09711205959320069,0.051342420279979709,0.14146822690963746,-0.11076025664806366,0.11833885312080383,-0.332245796918869,-0.22240738570690156,0.12022416293621063,0.05047938972711563,-0.012360391207039357,0.2416733056306839,-0.10324740409851074,-0.05270672217011452,0.16426117718219758,0.06119007244706154,0.07493103295564652,0.02093012072145939,-0.07015841454267502,-0.164874866604805,-0.15372096002101899,0.07506471872329712,0.05094223842024803,-0.12985332310199738,-0.17995032668113709,0.09204266965389252,-0.2612246870994568,0.23093441128730775,0.25812864303588869,0.05700261890888214,0.05666095018386841,0.0534166656434536,-0.04050816595554352,-0.22050130367279054,-0.20622935891151429,-0.1039198487997055,0.09784296154975891,0.034982986748218539,-0.004724801052361727,0.14224912226200105,-0.038428839296102527,-0.09824679046869278,0.0862746462225914,0.09750346839427948,0.22560422122478486,-0.37711045145988467,-0.03269821032881737,-0.23098085820674897,0.02613767795264721,0.3668956160545349,0.12708689272403718,-0.10163316875696182,0.36456620693206789,0.10783690959215164,0.19184011220932008,0.09977011382579804,-0.1933804452419281,0.10617995262145996,-0.026853235438466073,-0.04844952002167702,-0.1447538286447525,-0.13248924911022187,0.03734898567199707,-0.011430292390286923,-0.08998877555131912,-0.13827304542064668,0.024552788585424424,0.0289959367364645,0.07834998518228531,0.11079022288322449,-0.21262748539447785,-0.004757484421133995,-0.09004069864749909,0.27661511301994326,0.23533093929290772,0.0231754370033741,0.004196560941636562,0.02154574915766716,-0.1563098430633545,-0.09268679469823837,-0.23363319039344788,0.11284760385751724,0.048640936613082889,0.12261733412742615,-0.11816750466823578,-0.2656950354576111,-0.2466018944978714,-0.16608671844005586,-0.06890549510717392,0.18889860808849336,-0.391797810792923,-0.17297285795211793,0.03517564758658409,0.0834987536072731,0.003908081445842981,0.28866180777549746,-0.20460987091064454,0.06812720000743866,-0.14153330028057099,0.33292847871780398,-0.05947986990213394,0.13668867945671082,0.016627632081508638,-0.2264091521501541,0.20858342945575715,-0.07073488086462021,0.019722331315279008,-0.06479008495807648,-0.22084616124629975,-0.0854756236076355,0.013538378290832043,0.19178146123886109,-0.06073291227221489,0.011581774801015854,0.2026190459728241,0.30361244082450869,0.09339356422424317,0.08018915355205536,0.09670005738735199,-0.15357400476932527,0.3260728120803833,-0.11680615693330765,0.06428372114896774,-0.18359589576721192,0.027524974197149278,-0.009130897931754589,0.041590262204408649,-0.003963063471019268,0.18791009485721589,0.04021134600043297,-0.026600133627653123,-0.044008709490299228,0.30466341972351076,0.10372969508171082,-0.24564017355442048,0.20841921865940095,-0.34813734889030459,-0.03480100631713867,-0.07166047394275665,0.18041487038135529,0.029454397037625314,-0.048755187541246417,0.26193714141845705,0.28863251209259035,0.10760872066020966,0.009944794699549675,-0.16373924911022187,0.10462631285190582,0.07249727845191956,-0.042965542525053027,-0.12538954615592957,0.08988787233829498,-0.1292743682861328,0.00722888670861721,-0.030305735766887666,-0.09978754073381424,-0.0641978308558464,-0.3486233949661255,-0.2600933611392975,-0.07937099784612656,-0.008537017740309239,0.22190485894680024,0.2520063519477844,0.18577031791210175,0.01505846343934536,0.035088978707790378,-0.1787441074848175,0.014613731764256955,0.10259675979614258,0.1342850774526596,-0.1772371530532837,-0.2577134668827057,0.005989298690110445,-0.21775954961776734,0.035697951912879947,-0.28358787298202517,-0.14877337217330934,0.0985548198223114,0.07997824996709824,0.000558666477445513,0.09102485328912735,-0.18696148693561555,0.0030431165359914304,-0.04180993139743805,0.06439614295959473,-0.01563732884824276,0.07769569009542465,-0.051323119550943378,-0.06035823002457619,0.19257314503192902,0.22154948115348817,-0.028484592214226724,0.03580914065241814,-0.128963440656662,0.10734475404024124,0.17058466374874116,-0.1877206414937973,0.056080058217048648,0.048310890793800357,-0.10102441906929016,0.058427583426237109,-0.04145520180463791,0.2166042923927307,0.2558145225048065,-0.23524418473243714,-0.00673753023147583,-0.43910661339759829,0.20741771161556245,-0.06131329759955406,-0.10884260386228562,0.17864204943180085,0.17946001887321473,-0.1244862899184227,-0.19931857287883759,0.111945740878582,0.23070180416107179,-0.014086514711380005,-0.19225016236305238,0.27181121706962588,-0.03368525579571724,-0.05984899401664734,-0.18841010332107545,0.050284020602703097,-0.0920899510383606,0.0977603942155838,-0.12950745224952699,0.0020712208934128286,-0.038477573543787,-0.059254541993141177,0.036646533757448199,-0.007664823904633522,-0.06157193332910538,0.07771453261375427,-0.010468993335962296,0.042177293449640277,0.2666979730129242,0.13325224816799165,-0.12800826132297517,-0.08101458102464676,0.1653386354446411,-0.1814073771238327,0.20035241544246674,-0.08770129084587097,-0.12841370701789857,-0.06348451972007752,0.37161463499069216,0.005039290525019169,-0.16272617876529694,-0.0730116218328476,-0.21286186575889588,-0.2370181679725647,0.14847449958324433,0.1846589297056198,0.04492881894111633,-0.2573714256286621,0.004734129644930363,-0.17445464432239533,0.21950533986091615,0.23629143834114076,-0.2871166467666626,0.17250922322273255,-0.21544811129570008,-0.1181514635682106,0.07136427611112595,0.014078528620302678,0.0720369964838028,-0.11447636783123017,0.050257936120033267,0.0626319944858551,0.166095569729805,0.13477805256843568,0.13720634579658509,0.10153474658727646,-0.11187046021223068,0.010369029827415944,-0.0812506377696991,0.01840483397245407,-0.1700134426355362,0.2315552830696106,0.0864281952381134,-0.17499208450317384,0.08508739620447159,0.37020036578178408,-0.0025839207228273155,-0.09976953268051148,-0.015387682244181633,-0.32297131419181826,0.3070499897003174,0.09185986965894699,0.11143355816602707,-0.07857309281826019,0.06021895259618759,-0.1720597743988037,-0.00950333010405302,0.10498566925525665,-0.09147266298532486,-0.18009690940380097,-0.06686563789844513,0.16971775889396668,-0.2637447416782379,0.0814194306731224,-0.31650784611701968,-0.032638728618621829,-0.06315863877534867,-0.042441777884960178,0.13820089399814607,0.10394058376550675,-0.1461799144744873,-0.07447360455989838,0.12461674958467484,0.14636796712875367,0.0019090670393779874,-0.1752387285232544,0.14666983485221864,0.035333987325429919,-0.05496969074010849,-0.2651709318161011,-0.1025560200214386,-0.014200682751834393,-0.006038053892552853,-0.007911639288067818,-0.11120252311229706,0.19539611041545869,0.05947994813323021,0.18896622955799104,-0.034600745886564258,0.012395230121910572,0.11608882993459702,-0.05873214825987816,0.18753226101398469,0.007075945846736431,0.1595214307308197,-0.08282991498708725,-0.30085289478302,-0.09455055743455887,0.06280460953712464,-0.1712544858455658,-0.08081215620040894,0.07144483178853989,0.10504972189664841,0.02828938327729702,-0.06997280567884445,-0.11488752067089081,0.06636380404233933,-0.08592592924833298,0.22728300094604493,-0.15005898475646974,0.19467781484127046,0.07047681510448456,0.10243885219097138,0.4420219957828522,-0.11976152658462525,-0.2038823664188385,-0.18099255859851838,0.037988755851984027,0.27948474884033205,0.020409518852829934,-0.12188929319381714,0.04752669855952263,0.08547155559062958,0.09587690979242325,-0.17308273911476136,-0.01810854859650135,-0.1437508761882782,-0.11268126219511032,0.15711848437786103,0.055914655327796939,-0.17992810904979707,0.0774587020277977,-0.11519433557987213,0.14717277884483338,0.05970044061541557,-0.099877268075943,-0.14702832698822022,0.15086713433265687,-0.015173790976405144,0.17626434564590455,-0.007180239073932171,-0.058999113738536838,-0.12981323897838593,-0.23747599124908448,-0.27677014470100405,-0.18198347091674806,-0.06110136955976486,-0.11158563941717148,-0.09661221504211426,0.040971942245960239,0.19043081998825074,0.1658591628074646,-0.08079329878091812,-0.1503591388463974,0.21104586124420167,-0.31280088424682619,-0.07837812602519989,0.13292865455150605,0.03607887029647827,0.11197933554649353,-0.21626688539981843,0.24184000492095948,0.02441910095512867,0.22137071192264558,0.008146394975483418,0.1255757212638855,0.1050085499882698,0.01747644506394863,-0.3605787456035614,-0.20884375274181367,0.09781903028488159,-0.2415313422679901,0.09869560599327088,-0.320912629365921,0.0880909115076065,-0.13892365992069245,-0.021771859377622606,-0.1772015541791916,0.06274229288101196,-0.017764756456017495,0.11551529169082642,-0.07132261991500855,-0.047133155167102817,-0.11993047595024109,-0.2906397879123688,0.14843004941940309,0.04987639561295509,-0.05192461609840393,0.07955761253833771,-0.1262136995792389,-0.22438718378543855,-0.1636955440044403,-0.0356135368347168,0.2380565106868744,-0.001562802935950458,-0.19075141847133637,0.20229920744895936,-0.05393408611416817,-0.06531460583209992,-0.3766458034515381,-0.07525818049907685,0.02739720419049263,-0.07708825916051865,0.0010853473795577884,0.04797200858592987,-0.19317036867141725,-0.06702449172735214,0.09279844164848328,0.10351507365703583,-0.07240559905767441,-0.13654516637325288,-0.17472012341022492,-0.18971867859363557,-0.0403255857527256,0.1375238597393036,-0.059731245040893558,-0.21441355347633363,-0.17985284328460694,0.0897042378783226,0.05127616599202156,0.045091789215803149,0.162934347987175,-0.03234624117612839,-0.08278856426477432,0.15712286531925202,0.2884117066860199,0.12218223512172699,0.20440837740898133,0.012437844648957253,0.12912103533744813,0.16326510906219483,-0.20254571735858918,0.07617787271738053,0.11966974288225174,-0.29612934589385989,0.11514773219823837,-0.07282385975122452,0.3218819200992584,0.22577868402004243,-0.10618757456541062,-0.08197132498025894,0.07175925374031067,-0.07519377022981644,0.28024864196777346,0.010235699824988842,-0.0035697035491466524,-0.07890626043081284,0.13594268262386323,-0.34438246488571169,-0.1884196400642395,-0.26168736815452578,-0.09839668869972229,-0.0007801558240316808,0.24517525732517243,-0.1990887075662613,0.021239254623651506,-0.17899037897586823,0.2094976007938385,0.13906651735305787,-0.15564453601837159,0.1394263356924057,0.16878776252269746,0.28078919649124148,0.059857793152332309,-0.17162561416625977,-0.3018872141838074,-0.0978410542011261,0.0942559465765953,0.1645648181438446,0.2813777029514313,-0.03167637065052986,-0.25704437494277956,0.11186402291059494,0.08741500973701477,-0.14314652979373933,0.0506136454641819,-0.2447262555360794,0.05907251313328743,0.018214665353298188,-0.13434404134750367,-0.20117805898189546,-0.004585445858538151,0.06713218986988068,-0.13239705562591554,0.007362111005932093,0.05894685536623001,0.01189437322318554,0.33606651425361636,-0.04111609235405922,-0.2979466915130615,0.15752525627613069,-0.03045680932700634,0.12953859567642213,0.11666949093341828,-0.1673326939344406,-0.18260689079761506,-0.023327162489295007,0.022487131878733636,-0.054475776851177219,-0.054280396550893787,0.05666404962539673,0.25739070773124697,0.06532704085111618,-0.037288885563611987,0.023427113890647889,0.23891685903072358,-0.20964568853378297,0.12255695462226868,0.07983803749084473,-0.015123958699405194,0.10964192450046539,0.2844434678554535,-0.3409562408924103,0.09308843314647675,0.02799464762210846,-0.05155180022120476,0.04730077087879181,-0.11075343191623688,-0.2668357193470001,0.09008684754371643,-0.16374677419662476,0.1377170979976654,-0.2506457269191742,-0.2589040696620941,0.14306657016277314,-0.130203977227211,0.09166688472032547,-0.24056048691272736,0.029194805771112443,-0.08023887127637863,-0.07125114649534226,-0.1472456306219101,0.15196605026721955,0.0827057808637619,-0.08128561824560166,-0.06988542526960373,0.17442332208156587,0.1363058090209961,-0.11423709988594055,0.1380108892917633,0.1906510889530182,-0.19686399400234223,-0.1215469092130661,0.01942475512623787,-0.2543206810951233,0.10150465369224549,0.0013615016359835864,-0.07856801897287369,-0.048949770629405978,0.12525083124637605,0.19270777702331544,-0.12358330935239792,0.05307067930698395,0.12778940796852113,0.02240932174026966,0.19600248336791993,-0.04957439750432968,0.15469948947429658,-0.01918938383460045,-0.0437038391828537,-0.05640410631895065,0.11687776446342468,0.12434040009975434,0.01825975440442562,-0.0007843447383493185,-0.17180177569389344,0.362805038690567,0.004904110915958881,0.09991146624088288,0.09015101939439774,-0.05894126743078232,0.25073981285095217,-0.05517027899622917,0.022084897384047509,-0.1591625064611435,-0.07707824558019638,-0.29611876606941225,0.05357136204838753,0.2045351266860962,0.016659945249557496,-0.03221289813518524,-0.10877471417188645,0.07367752492427826,-0.157722607254982,0.04932786524295807,0.1507510393857956,-0.09427079558372498,-0.03733750060200691,-0.038116779178380969,0.1421462446451187,-0.06792063266038895,-0.026251303032040597,-0.12710513174533845,0.1042950227856636,-0.0803280770778656,-0.022999323904514314,0.2680267095565796,0.19197748601436616,-0.04674924165010452,0.09073427319526673,-0.057620950043201449,0.11983738094568253,-0.18700790405273438,0.20823511481285096,-0.10828977078199387,-0.09715074300765991,-0.1850878745317459,0.030414799228310586,0.05281969904899597,-0.15524360537528993,-0.07396627962589264,0.1887049674987793,-0.26144513487815859,0.15893112123012544,-0.08711736649274826,-0.024427838623523713,-0.07066595554351807,0.07444020360708237,-0.027055304497480394,0.06931808590888977,0.1303047239780426,-0.20228710770606996,0.09429367631673813,0.2500992715358734,0.258440762758255,-0.19448736310005189,-0.10030534118413925,-0.1247616782784462,0.13370297849178315,-0.11428870260715485,-0.15793795883655549,-0.010658525861799717,-0.11347848176956177,-0.022230390459299089,-0.33962056040763857,0.09686895459890366,-0.05079624056816101,0.1866859793663025,0.018254479393363,-0.06072176620364189,-0.057254694402217868,0.1451491266489029,0.15979912877082826,-0.13441506028175355,0.1434100717306137,0.08098628371953964,-0.21813952922821046,-0.022424662485718728,0.0615338534116745,0.14629197120666505,0.14234182238578797,-0.0059239850379526619,0.09429719299077988,0.04991289600729942,0.13998284935951234,0.27831730246543887,0.1319075971841812,-0.03426683694124222,-0.1113920733332634,0.1665627658367157,0.30218306183815,-0.014056464657187462,0.03361231088638306,0.0662108063697815,-0.0297709833830595,0.0653788149356842,0.07809267193078995,0.1020183190703392,-0.14216607809066773,0.07739994674921036,0.16265232861042024,0.08644233644008637,-0.31493741273880007,0.01731155253946781,0.10232995450496674,0.01102532260119915,-0.04207824170589447,0.12354332953691483,0.03487244248390198,0.16222769021987916,-0.1867540329694748,-0.07454686611890793,-0.15022289752960206,0.10450956970453263,-0.1890368014574051,-0.0683179646730423,0.09830933064222336,-0.011217677034437657,-0.016627078875899316,0.05678541585803032,-0.10522497445344925,-0.19630785286426545,0.05959748476743698,0.05799916014075279,-0.19909034669399262,0.039209894835948947,0.19504530727863313,-0.10061994940042496,-0.03567064553499222,0.10679419338703156,0.0999792143702507,-0.10412489622831345,0.1327914446592331,-0.11396798491477967,0.04368681088089943,0.23499524593353272,0.2236296683549881,-0.18534891307353974,-0.21085800230503083,-0.01408849935978651,0.11993403732776642,-0.07707114517688751,0.07626422494649887,0.12280506640672684,0.06947900354862213,-0.023101860657334329,-0.11978616565465927,-0.07138432562351227,-0.0727674663066864,-0.23592720925807954,-0.2343302220106125,0.08425085991621018,0.039346687495708469,-0.1922980695962906,-0.10901162028312683,0.2225242555141449,-0.26374489068984988,-0.010172773152589798,-0.15466299653053285,-0.059678975492715839,-0.19276930391788484,-0.03766515105962753,0.1524972915649414,-0.0474456362426281,-0.060712557286024097,-0.22040094435214997,-0.1545489877462387,0.021828101947903634,-0.10896164178848267,0.097880519926548,-0.227089524269104,0.011201541870832444,0.15873679518699647,-0.055206380784511569,-0.14489983022212983,-0.30301323533058169,0.2737453281879425,0.17992837727069856,0.014420065097510815,0.15916505455970765,-0.12014184147119522,-0.4125646650791168,-0.012866501696407795,0.07934410125017166,0.00681234709918499,-0.08970431983470917,0.01051721815019846,-0.10071147233247757,-0.2763175964355469,0.1728355437517166,-0.16478465497493745,-0.04518301412463188,-0.06636849790811539,0.04691766947507858,0.04998774453997612,-0.32834380865097048,0.23037517070770265,-0.016163798049092294,-0.08999820053577423,-0.05343940481543541,0.004247655626386404,-0.04148632660508156,0.07246936112642288,0.12488431483507157,-0.1354227364063263,0.27910947799682619,0.17077521979808808,-0.14786484837532044,0.05895053595304489,-0.259503036737442,-0.07393056154251099,-0.011296778917312622,0.1062852069735527,0.014214374125003815,-0.1456409990787506,0.07699485868215561,-0.06638404726982117,-0.005344859324395657,0.07902020215988159,0.0872780829668045,-0.07700688391923905,-0.21171239018440247,-0.19651490449905396,0.18874390423297883,0.14267271757125855,-0.19303196668624879,-0.07172833383083344,-0.12886230647563935,0.1447209119796753,0.024720709770917894,0.07177477329969406,-0.3202691674232483,-0.04843815043568611,-0.23164832592010499,-0.11834090203046799,-0.1122162714600563,-0.323803573846817,0.05702659860253334,0.015537932515144349,0.004273680970072746,0.09225756675004959,-0.3257780969142914,0.01398317702114582,-0.06299016624689102,-0.0983058288693428,0.19899873435497285,-0.0526270866394043,-0.2976493239402771,-0.14479723572731019,0.040436774492263797,-0.047624845057725909,-0.06677860021591187,0.2134292721748352,-0.12031306326389313,-0.0029824809171259405,-0.23550622165203095,0.06088515371084213,-0.09373399615287781,0.43659284710884097,-0.24016092717647553,0.09198961406946182,-0.22567421197891236,-0.18242168426513673,0.19561710953712464,-0.03492044657468796,-0.03516525775194168,-0.2857714295387268,0.05060870945453644,-0.007441666442900896,0.13296154141426087,-0.08264562487602234,-0.08201924711465836,0.027768179774284364,-0.28777387738227847,0.10188843309879303,0.10414902865886688,0.06566324830055237,0.2054639607667923,-0.23755896091461183,-0.03491132706403732,0.15187495946884156,-0.0638289824128151,0.07457975298166275,0.15863020718097688,-0.21279852092266084,0.021539155393838884,0.014243323355913163,-0.23263335227966309,0.010238980874419213,0.012697428464889527,0.246619313955307,0.0169206615537405,-0.1841854304075241,-0.020100262016057969,0.07823168486356735,-0.009959163144230843,0.21007367968559266,-0.014349192380905152,-0.30196917057037356,0.18856003880500794,-0.027908530086278917,-0.10126794129610062,0.006130635272711515,0.06754670292139054,-0.008910211734473706,-0.15651138126850129,-0.023319456726312639,-0.04847853258252144,-0.08758780360221863,-0.08086834102869034,-0.0617474764585495,-0.049718376249074939,0.15484827756881715,-0.043755874037742618,-0.09405956417322159,0.02377527952194214,-0.2730414569377899,-0.2124572992324829,-0.1430177092552185,-0.08658463507890701,0.08165038377046585,0.2944839894771576,0.015002075582742691,0.1182066947221756,0.04828410968184471,0.16166731715202332,0.21722717583179475,0.2265041023492813,-0.034853871911764148,-0.16071245074272157,-0.05002282187342644,-0.11150749027729035,0.005071818828582764,0.12413959205150604,0.01693752035498619,-0.30460765957832339,-0.18046924471855164,-0.05045836791396141,0.019778676331043245,0.15190623700618745,0.14799764752388,0.12045247852802277,0.3826717436313629,-0.03587736189365387,-0.23725000023841859,0.17808666825294496,-0.20131607353687287,0.061951372772455218,0.10651479661464691,0.2186141014099121,0.002638246864080429,0.029743727296590806,0.10151729732751847,0.09890525043010712,0.019836755469441415,0.03568822890520096,0.19478340446949006,-0.08865993469953537,0.12157611548900604,-0.05930338427424431,-0.14519120752811433,-0.0747988149523735,-0.20813480019569398,-0.21316060423851014,-0.21052610874176026,0.2700060307979584,0.055867135524749759,0.20896272361278535,0.26918843388557436,-0.055747680366039279,-0.12996523082256318,-0.28468912839889529,-0.18854494392871858,-0.09718494117259979,-0.20272138714790345,-0.1493290811777115,-0.0460471510887146,0.030106380581855775,0.1579878181219101,-0.12848421931266786,0.16194112598896027,-0.1150224581360817,-0.06679867208003998,0.2790258824825287,0.26358017325401308,0.23698152601718903,-0.00830767024308443,-0.18985359370708466,0.07454240322113037,0.0898410901427269,-0.0259923804551363,-0.18953730165958405,0.08247020840644837,-0.07576747238636017,0.15164119005203248,0.3061853051185608,-0.1584414392709732,0.22219103574752809,0.024336742237210275,0.04504537954926491,-0.10484444350004196,0.035882074385881427,0.18225450813770295,0.1938844472169876,-0.22296658158302308,-0.19591651856899262,0.2252284586429596,0.007464127615094185,-0.05936003103852272,-0.03243391588330269,0.11046790331602097,0.011332470923662186,0.27254846692085268,-0.17031452059745789,-0.04017314314842224,0.07743522524833679,0.08509881794452667,0.1590397208929062,0.08478829264640808,-0.15983733534812928,0.0010173717746511102,-0.16454806923866273,0.06529255956411362,0.029621845111250879,0.006096959114074707,0.1221831738948822,0.10590527951717377,0.07231584191322327,-0.07409468293190003,0.02575589343905449,0.08324241638183594,0.1500033438205719,-0.08220234513282776,0.004810214973986149,0.04397616535425186,-0.27351149916648867,-0.24098730087280274,0.1251770257949829,-0.035183437168598178,-0.1318494826555252,0.20847047865390778,0.03818703070282936,-0.1313222050666809,-0.07099728286266327,0.10871319472789765,0.12049218267202378,-0.11024113744497299,-0.20495323836803437,0.06667482107877732,0.1283608376979828,-0.23988984525203706,-0.06664186716079712,-0.25485360622406008,-0.052611637860536578,-0.03217380493879318,-0.06416746973991394,-0.05124291032552719,-0.08040784299373627,0.11320368200540543,0.028259718790650369,0.1576939821243286,-0.14491814374923707,-0.001015106332488358,-0.22310376167297364,-0.14165332913398744,0.09010687470436096,0.01250054407864809,0.002515174448490143,0.14720648527145387,0.07065977156162262,-0.04906881973147392,0.018267124891281129,-0.07387969642877579,0.07321558147668839,-0.057969830930233,-0.14151209592819215,-0.009693361818790436,-0.04815271869301796,-0.08505857735872269,0.06389870494604111,0.1564934104681015,-0.24689112603664399,0.31644344329833987,0.004449665546417236,0.2512214779853821,0.008826570585370064,-0.05485200136899948,0.10220393538475037,-0.010431910865008831,0.13859565556049348,-0.10029906779527664,0.032466769218444827,-0.13083228468894959,-0.06798620522022248,-0.2629626989364624,-0.11166425049304962,0.09054014831781388,-0.10486038774251938,0.2110687643289566,0.04735146462917328,0.012391876429319382,0.045978400856256488,-0.13632306456565858,0.11097683012485504,0.03138522431254387,-0.20428375899791718,0.09983808547258377,0.10334298759698868,0.30311936140060427,0.26611170172691347,-0.004666553344577551,0.11013960838317871,0.19670437276363374,0.012818912044167519,0.08532216399908066,0.01907394826412201,-0.0230546947568655,0.07482143491506577,0.02274058386683464,-0.17141962051391602,-0.1297631412744522,-0.3460017144680023,0.13867340981960298,0.04744216427206993,0.09587626904249191,0.10016487538814545,-0.07763146609067917,-0.08329549431800842,-0.12876440584659577,0.22759783267974854,0.379276305437088,-0.22751487791538239,0.12438058853149414,-0.24923117458820344,0.19060298800468446,-0.08178460597991944,0.028482358902692796,-0.10080746561288834,0.008932908996939659,-0.412686824798584,0.09634391218423844,0.055339496582746509,-0.1401965469121933,-0.19070561230182649,0.22509394586086274,0.034021928906440738,0.24360761046409608,-0.12187137454748154,0.18750041723251344,0.2365982085466385,0.243316188454628,0.20633260905742646,0.03011607564985752,0.10927008092403412,-0.17001193761825562,0.09965448081493378,-0.07949300110340119,-0.12302979081869126,-0.08148740231990814,-0.26710933446884158,0.06413258612155914,0.1564238965511322,-0.02758282795548439,0.127894327044487,0.08459919691085816,-0.03933905065059662,-0.2413773536682129,0.112574502825737,0.11392214149236679,0.06885886937379837,0.026282409206032754,0.02407694049179554,0.05502290651202202,-0.0051234932616353039,-0.00572088873013854,0.23344939947128297,-0.07545015215873718,-0.159908264875412,-0.08108982443809509,0.16702589392662049,0.1847773641347885,0.026952125132083894,0.39703431725502016,-0.03406345844268799,0.09465941786766052,0.018560390919446946,-0.21369628608226777,-0.15862831473350526,0.05923672020435333,0.13798081874847413,0.0691741481423378,-0.06429415196180344,0.11092738062143326,-0.2170497626066208,0.0007456940948031843,0.07282477617263794,0.1340692788362503,0.02743561379611492,0.1587468683719635,0.14196336269378663,0.11055439710617066,0.14475028216838838,0.1719965785741806,0.02405351772904396,-0.4500064551830292,-0.10464643687009812,-0.05539533495903015,0.05857566371560097,-0.14889776706695558,-0.01556430384516716,0.07420863956212998,-0.04178346320986748,0.08110881596803665,0.11046990752220154,-0.019582418724894525,-0.20495395362377168,0.18813477456569673,-0.14711037278175355,0.101118303835392,-0.17268843948841096,-0.15406109392642976,-0.024384252727031709,0.10811994224786759,0.22477862238883973,0.14458158612251283,-0.17481394112110139,-0.1133301854133606,0.03288862481713295,-0.09243825078010559,-0.02145358920097351,-0.018182212486863138,0.0698675885796547,-0.03828832507133484,-0.1892811506986618,0.005127994809299707,0.09485183656215668,0.10903744399547577,-0.12985755503177644,0.25199487805366518,-0.030050812289118768,0.11725231260061264,0.02662261202931404,0.0600891038775444,-0.059382688254117969,0.06576477736234665,0.01686577871441841,-0.09196210652589798,-0.006384535226970911,0.305944561958313,0.07224252820014954,0.508917510509491,-0.2580984830856323,0.027780111879110338,0.15786482393741609,-0.01473915670067072,