{"Layers":[{"Weights":[-0.018772024661302568,0.21598805487155915,0.03029465116560459,0.18870523571968079,-0.06910775601863861,0.1970600187778473,0.0766376405954361,-0.29098859429359438,-0.24356916546821595,0.12220429629087448,0.021552003920078279,0.17115722596645356,-0.19346271455287934,0.009469575248658657,-0.24654588103294373,-0.19025404751300813,-0.05517987906932831,0.019998811185359956,-0.020133404061198236,0.08006409555673599,-0.13784192502498628,-0.06046418100595474,-0.07663539797067642,0.1486208587884903,-0.2546252906322479,0.29193609952926638,0.14921534061431886,-0.07661119848489762,-0.1729319840669632,0.062450628727674487,0.10112323611974716,0.04539979249238968,-0.09678632020950318,0.12718772888183595,0.023999236524105073,0.18106085062026978,0.08738227188587189,0.18009920418262483,-0.10934072732925415,-0.16305793821811677,-0.13462162017822267,-0.03813021630048752,0.0045548672787845139,-0.4446142911911011,0.01169859990477562,-0.0832919031381607,-0.2606269121170044,-0.010332992300391198,0.028179634362459184,-0.051096074283123019,0.29468756914138796,0.06266000121831894,-0.02526865527033806,0.17624367773532868,-0.01575125940144062,0.16902758181095124,-0.10974199324846268,-0.11961915343999863,0.028594838455319406,-0.12992361187934876,-0.13010238111019135,0.09820409119129181,0.17501714825630189,0.027782494202256204,0.024019211530685426,-0.15403474867343903,-0.10030275583267212,0.0761025995016098,-0.04048445448279381,-0.024716496467590333,-0.12396340072154999,0.2591073215007782,0.0189193245023489,0.00630389666184783,0.17034481465816499,0.1586126983165741,-0.09111705422401428,0.002359866863116622,0.08158956468105316,0.2826800048351288,0.27712520956993105,-0.3503313660621643,0.02940969541668892,0.21681903302669526,-0.01095524337142706,-0.05559925362467766,-0.0012191033456474543,0.007425681687891483,-0.1073840856552124,-0.1698375940322876,0.12230093777179718,0.03282589837908745,0.17189371585845948,0.12778660655021668,0.14473414421081544,0.33748412132263186,-0.07805031538009644,0.16557884216308595,0.023903634399175645,-0.03903232514858246,-0.36349573731422427,-0.0312865749001503,-0.06053342670202255,0.030098915100097657,-0.09487590938806534,0.026870964094996454,0.0354510135948658,-0.13304594159126283,-0.2163109928369522,-0.1817179173231125,0.34622183442115786,-0.17001937329769135,-0.11428088694810868,-0.2917115092277527,-0.13884659111499787,0.10694586485624314,0.017356911674141885,-0.1490374058485031,0.018836896866559984,-0.23498567938804627,-0.08593627065420151,-0.21805042028427125,-0.12050355970859528,-0.11682678014039993,-0.3277759253978729,-0.027258234098553659,-0.26669713854789736,-0.19723965227603913,-0.33624711632728579,0.09520747512578964,0.13156414031982423,-0.04935722053050995,-0.14078252017498017,-0.0943119078874588,-0.008695990778505803,-0.06569716334342957,-0.004098331090062857,0.22649607062339784,-0.06807740032672882,-0.07280048727989197,0.0061281477101147179,-0.16583962738513947,0.008533911779522896,-0.0674644261598587,-0.12860900163650514,0.12665358185768128,0.20801696181297303,0.2380145639181137,0.00242446456104517,0.06776829808950424,0.13844181597232819,0.017091190442442895,0.010590235702693463,-0.19338245689868928,0.12183396518230438,0.06461218744516373,-0.02584928646683693,0.08507377654314041,0.13127115368843079,0.020813267678022386,-0.0032000658102333547,-0.22800789773464204,-0.21315963566303254,0.1398445963859558,-0.23511244356632234,0.17617538571357728,-0.032013505697250369,0.2266620695590973,0.07013402134180069,-0.09506399929523468,0.494073748588562,0.011486329138278962,0.006456280127167702,-0.06664089858531952,0.05194036290049553,-0.11313214898109436,0.12149053812026978,0.18900936841964723,0.29485881328582766,0.12235032767057419,0.1584274023771286,-0.10326816886663437,0.033915482461452487,0.14314021170139314,0.27531957626342776,0.1609884351491928,0.13189229369163514,-0.2913174033164978,0.236026331782341,-0.012643112801015377,-0.041090354323387149,0.22480390965938569,0.3823310434818268,0.0039043743163347246,0.14654852449893952,0.15101876854896546,-0.007463329471647739,-0.2442183643579483,0.058345403522253039,0.007380505558103323,0.02931850403547287,-0.09535522013902664,-0.07416315376758576,0.0252846609801054,-0.3527716100215912,-0.0648888647556305,-0.21833419799804688,-0.06649631261825562,0.05219663307070732,-0.02816610224545002,0.03898654505610466,0.05704725161194801,0.2295832335948944,-0.12602916359901429,0.08977164328098297,-0.1916007101535797,0.42678308486938479,0.21322229504585267,-0.053563691675662997,0.01741425134241581,0.06575800478458405,-0.16736139357089997,0.10259437561035156,-0.20882973074913026,0.247169628739357,-0.03942185640335083,0.14242085814476014,-0.07749117165803909,-0.07788581401109696,0.025073368102312089,-0.05565914139151573,-0.12271051108837128,0.15210628509521485,0.02130012772977352,0.00875674095004797,0.43268710374832156,0.11512039601802826,0.3531820774078369,0.06011826917529106,-0.24690505862236024,-0.17194436490535737,0.05214577913284302,0.033661890774965289,-0.0665319561958313,0.1948254257440567,0.08484125882387161,0.269133061170578,0.1914185732603073,-0.10957042872905731,-0.247471883893013,0.05522659420967102,0.24230550229549409,-0.06431272625923157,-0.2759917676448822,-0.2739122807979584,-0.04015204310417175,-0.194847971200943,-0.0009302932885475457,0.12436210364103317,0.2990606427192688,0.03195794299244881,0.09094652533531189,-0.2744109332561493,0.17312319576740266,-0.03943057730793953,-0.12497206032276154,0.007212197408080101,0.006372803822159767,-0.047218821942806247,0.03696146607398987,-0.18445561826229096,-0.017359623685479165,0.0999368205666542,0.09296055883169174,-0.07324768602848053,0.06451407074928284,0.02556685358285904,0.389207661151886,-0.15448664128780366,-0.3291698694229126,-0.1065346971154213,0.05532463267445564,-0.3275926411151886,-0.05839073285460472,0.021400606259703637,0.30798736214637759,0.15581220388412476,-0.11124850064516068,-0.3131151497364044,-0.11588940024375916,-0.09432513266801834,0.05399980768561363,0.22179271280765534,-0.027091562747955323,0.17500661313533784,-0.04819929972290993,0.030483223497867585,-0.13440662622451783,-0.06255191564559937,0.1008649617433548,-0.02390316314995289,0.30606186389923098,0.1073724552989006,-0.18359991908073426,0.2715013027191162,-0.2558933198451996,0.22271792590618134,-0.044428229331970218,-0.044835008680820468,-0.1933174878358841,-0.11496834456920624,-0.14796920120716096,0.007305097300559282,-0.09264762699604035,-0.10332600027322769,0.01713920570909977,0.059497516602277759,-0.19801528751850129,-0.024578945711255075,-0.17784009873867036,0.07932164520025253,0.15925931930541993,-0.17389200627803803,0.18914633989334107,0.006147006992250681,0.005593869835138321,-0.10268906503915787,-0.07526151835918427,0.18943829834461213,0.22504428029060365,-0.0903235450387001,0.24794943630695344,-0.1900588870048523,0.10204096883535385,-0.005455069709569216,0.05782891809940338,0.17950081825256349,0.16399405896663667,0.34793516993522646,0.04199563339352608,0.18283230066299439,-0.052172448486089709,-0.002208036370575428,0.029597988352179529,0.10858762264251709,0.0678134486079216,0.16962562501430512,0.2281063050031662,0.28247687220573428,-0.027564728632569314,0.08768443018198013,-0.16561359167099,-0.29933422803878786,0.2081959843635559,0.03974321484565735,0.06490866094827652,0.11791530251502991,0.10723075270652771,-0.1208929643034935,0.20109030604362489,-0.06770171225070954,-0.1264570653438568,0.008180172182619572,0.16196247935295106,-0.029183590784668924,-0.22054500877857209,0.12576179206371308,0.07821748405694962,0.04928119480609894,0.1760154813528061,-0.15064795315265656,-0.041832875460386279,0.1907328963279724,0.09717968106269837,0.12834079563617707,-0.010090423747897148,-0.05725919082760811,-0.049240246415138248,-0.1378757804632187,-0.15915903449058534,-0.03481876105070114,0.009114044718444348,0.010103140026330948,-0.01634482480585575,0.008708000183105469,0.20735937356948853,0.23056894540786744,-0.03945305570960045,-0.057726889848709109,0.22994686663150788,-0.09222584217786789,-0.21637579798698426,-0.22008489072322846,-0.054996609687805179,0.28383153676986697,0.005388318095356226,-0.17272110283374787,-0.06898089498281479,0.20855911076068879,0.06385237723588944,0.2161206305027008,-0.0943865180015564,0.05304476246237755,-0.21270795166492463,-0.024273736402392389,-0.1633349359035492,-0.1166171282529831,-0.06596415489912033,0.021042179316282274,0.03572484850883484,0.15386344492435456,0.1889559030532837,0.10248035192489624,0.025906262919306756,0.11820755898952484,0.1181640625,-0.253143846988678,0.030670862644910814,0.2947505712509155,-0.22848916053771974,0.17958420515060426,0.09552262723445893,0.324992299079895,-0.052335239946842197,-0.013980909250676632,0.042644985020160678,-0.13572725653648377,0.23858647048473359,-0.04691162332892418,0.08595627546310425,0.0569470077753067,-0.27306774258613589,0.09618230164051056,0.056100767105817798,-0.05610885098576546,-0.11052212864160538,-0.1544020026922226,-0.10830800980329514,0.14833369851112367,-0.22025902569293977,0.06431696563959122,-0.13749006390571595,0.08242546021938324,-0.07886365801095963,-0.1243835985660553,-0.05694124475121498,-0.2964235842227936,0.06250870227813721,0.025488100945949556,-0.019223151728510858,0.12084607779979706,0.0603628009557724,0.15837359428405763,-0.06365648657083512,0.08715195953845978,-0.21833384037017823,-0.01135987602174282,-0.07354496419429779,-0.09231972694396973,0.01676701195538044,-0.22269637882709504,0.10001236945390701,0.06296601891517639,-0.10544775426387787,0.1862771362066269,0.0281841903924942,0.20061102509498597,-0.07787928730249405,-0.07227562367916107,0.17286020517349244,0.09303106367588043,-0.10067339986562729,-0.0758076161146164,-0.2662320137023926,-0.11478789150714874,0.16704851388931275,-0.06530836969614029,0.043839067220687869,-0.11632467806339264,0.24572157859802247,0.10458630323410034,-0.16206152737140656,0.08634427934885025,0.18657025694847108,0.0074303955771028999,-0.25720101594924929,0.14519819617271424,0.21710138022899629,-0.24210864305496217,-0.0540064238011837,-0.04559340327978134,-0.23181883990764619,-0.09605967998504639,0.07306534796953201,-0.15607735514640809,0.10353515297174454,0.020849887281656266,0.04825609177350998,-0.018343590199947358,0.02367532067000866,-0.08100717514753342,-0.04641691967844963,-0.07298052310943604,-0.0149362962692976,0.145411878824234,-0.08530248701572418,-0.02745986357331276,-0.15455321967601777,0.05643453449010849,-0.004741109907627106,0.13268022239208222,-0.061948686838150027,0.20421382784843446,0.31883877515792849,-0.07460915297269821,-0.15352804958820344,0.19842736423015595,0.11508636176586151,0.025166282430291177,-0.04757668450474739,-0.14923487603664399,0.03225834295153618,-0.003129269229248166,0.05652889236807823,-0.1276998519897461,-0.1604500710964203,0.20959781110286714,-0.12475442886352539,0.16031527519226075,0.1453825831413269,-0.0811285451054573,-0.08334750682115555,0.3089578151702881,-0.22275620698928834,0.025863127782940866,0.004073793068528175,-0.06889913976192475,0.02221531979739666,0.025767669081687928,-0.05273273214697838,0.0889497846364975,-0.006537388078868389,-0.0977783277630806,0.12133096158504486,-0.059633996337652209,-0.3334750533103943,0.06934188306331635,-0.09854016453027725,0.039770979434251788,-0.32990461587905886,0.25625693798065188,-0.15464717149734498,0.010041655972599984,0.06590496003627777,-0.05717981606721878,-0.09820152819156647,-0.0993759036064148,-0.2528274953365326,0.09069985151290894,-0.064338818192482,0.12265796959400177,0.06642625480890274,0.32747936248779299,-0.0484200194478035,-0.03224611282348633,-0.2106909155845642,0.21371614933013917,-0.18459400534629823,0.03226165845990181,0.14368264377117158,0.006899088155478239,-0.26611819863319399,0.0529356449842453,-0.10065018385648728,-0.2887957990169525,-0.07901067286729813,-0.07417790591716767,0.001866708742454648,-0.0050378781743347649,0.11450359225273133,0.21531836688518525,0.19398805499076844,-0.24082212150096894,-0.088245689868927,0.11688044667243958,0.04807066172361374,-0.1316087394952774,-0.10328486561775208,-0.1321353316307068,-0.10080379247665405,-0.1496172994375229,0.0596085749566555,-0.11952955275774002,-0.16762129962444306,0.017012767493724824,-0.004626740235835314,-0.05840998888015747,-0.0015254179015755654,-0.04934021085500717,-0.17774973809719087,-0.23132547736167909,-0.21499291062355042,-0.05012643709778786,-0.03167261183261871,0.07639392465353012,0.029493264853954316,-0.17488370835781098,-0.01669098250567913,-0.07017640024423599,-0.08384282886981964,0.17307066917419434,0.004875995218753815,-0.1378093659877777,-0.16473796963691712,0.12454073131084442,0.08620186895132065,-0.15671703219413758,-0.18440812826156617,-0.12927916646003724,0.06420694291591644,-0.08211801946163178,0.21795889735221864,0.11710303276777268,-0.1448492705821991,-0.06672268360853195,0.12245859950780869,-0.2778714597225189,-0.10409559309482575,0.031139833852648736,0.1511407196521759,0.28653180599212649,0.0071998038329184059,-0.19488416612148286,0.017386972904205323,0.006797314155846834,0.37503907084465029,-0.18457791209220887,-0.0017902858089655638,-0.16899126768112184,0.18361008167266847,-0.17348147928714753,0.12839463353157044,-0.027329033240675927,0.284704327583313,0.0766664370894432,0.0479864701628685,0.09882858395576477,-0.04019305482506752,-0.009700194001197815,-0.051194850355386737,0.2106761485338211,0.14549416303634644,0.08950064331293106,-0.037202052772045138,-0.3362126052379608,0.10673415660858154,-0.00583400996401906,0.09308598935604096,-0.1588333398103714,-0.09273049980401993,0.006112509872764349,0.03945024684071541,-0.1187286451458931,-0.09651736915111542,0.11628809571266175,-0.15348467230796815,-0.022222330793738366,0.2521032989025116,-0.0514969602227211,0.12545107305049897,-0.17892484366893769,-0.2610566318035126,-0.02302676998078823,0.12674438953399659,-0.16068144142627717,0.28991517424583437,0.02271966263651848,0.07299352437257767,0.07663476467132569,-0.028759239241480829,-0.00025760073913261294,-0.041161857545375827,-0.016656558960676194,0.1276864856481552,-0.08626264333724976,-0.04914981871843338,-0.009232590906322003,-0.14829906821250916,0.09043321013450623,-0.12483012676239014,0.0674135759472847,-0.1050967127084732,0.40432092547416689,-0.0637148916721344,0.15323840081691743,-0.0482308454811573,0.11822104454040528,-0.14144743978977204,0.10281722992658615,-0.18566688895225526,-0.02271413244307041,-0.10861186683177948,0.22733581066131593,0.18330460786819459,-0.05330932140350342,0.09992619603872299,0.08386173844337464,0.10067746043205261,-0.09520262479782105,0.04476320371031761,-0.32115069031715395,-0.2424682080745697,-0.08793872594833374,-0.21001358330249787,-0.3576388955116272,0.15372875332832337,-0.051052700728178027,-0.0767258033156395,0.1138666495680809,-0.08559878915548325,-0.06516638398170471,-0.07099607586860657,-0.07092639803886414,0.04201401025056839,0.1735956221818924,-0.1627185195684433,0.1895705759525299,0.10712793469429016,-0.17844551801681519,0.26744160056114199,-0.02821241319179535,-0.127005934715271,-0.12051037698984146,0.17135795950889588,-0.10473227500915528,0.1531924456357956,-0.042591873556375507,0.20262786746025086,-0.12758660316467286,-0.028063924983143808,0.028821688145399095,-0.1633083075284958,0.2661212682723999,0.03619467839598656,0.028426332399249078,0.02557333931326866,0.15217173099517823,0.35246986150741579,0.15499167144298554,-0.1327725201845169,-0.1598086953163147,0.046599049121141437,0.06844401359558106,-0.02263840101659298,0.02422787807881832,-0.12735415995121003,0.10090404748916626,-0.20597876608371736,0.023610252887010576,0.12563881278038026,-0.03231657296419144,0.24767832458019257,0.09942004829645157,-0.33944573998451235,-0.0017885490087792278,0.07177561521530152,0.04208521917462349,0.1350421905517578,-0.0494060181081295,-0.023898709565401079,0.1013043150305748,-0.08425435423851013,0.009335420094430447,-0.2587389051914215,0.43690529465675356,0.18607814610004426,-0.13483873009681703,-0.008676748722791672,0.15198878943920136,-0.01047264039516449,-0.13551658391952516,-0.012613627128303051,0.13867098093032838,-0.25684306025505068,0.03820539638400078,0.25455373525619509,-0.11880240589380264,-0.04875271022319794,-0.15167425572872163,0.08058874309062958,0.26294559240341189,-0.07642848789691925,-0.08006349205970764,-0.0807788223028183,-0.3313881456851959,0.07013916224241257,0.39664044976234438,-0.07671315968036652,0.03032972477376461,-0.4768030047416687,0.03327861800789833,-0.09288769960403443,0.11489544808864594,-0.22272323071956635,0.10559394210577011,-0.11261139810085297,-0.07375665754079819,-0.17761686444282533,-0.032974302768707278,-0.0923837199807167,0.12654738128185273,0.11815688014030457,-0.07757914066314697,-0.19224397838115693,0.011478672735393048,0.001316432491876185,-0.11257389932870865,-0.09789355099201203,0.05053082853555679,-0.20663462579250337,0.1321512758731842,-0.09125612676143646,-0.09952958673238754,0.10912137478590012,-0.030731765553355218,-0.17775827646255494,0.10488560795783997,-0.1564236432313919,0.0006491083186119795,-0.0403289720416069,-0.05078022927045822,0.07174384593963623,0.13309447467327119,0.18662399053573609,-0.30483192205429079,0.17786675691604615,-0.013409155420958996,0.1287919133901596,0.06329487264156342,0.09143923968076706,-0.014618286862969399,-0.04748767614364624,-0.0638931468129158,-0.05292290821671486,-0.044709451496601108,-0.014055406674742699,-0.24435997009277345,-0.026788609102368356,-0.012473168782889843,0.02837362140417099,-0.04214063659310341,0.2807002067565918,0.130243718624115,-0.2813239097595215,0.15435145795345307,-0.34479624032974245,-0.1152498796582222,-0.04035069793462753,-0.048382584005594257,-0.20070013403892518,-0.2419535219669342,-0.011776850558817387,0.05379443243145943,-0.05779074877500534,0.07874741405248642,0.03282296285033226,-0.10302422195672989,-0.005183113738894463,-0.06113748997449875,0.23233479261398316,0.08615442365407944,-0.23077541589736939,0.030368324369192125,-0.08029735833406449,-0.2572914958000183,0.12111040204763413,0.07953844219446182,-0.015138438902795315,-0.027241650968790056,0.17596480250358582,0.08834539353847504,0.034006960690021518,-0.23698779940605164,0.11828667670488358,0.0496351532638073,0.327108234167099,0.12063188850879669,0.46014291048049929,0.09588909149169922,-0.03051680326461792,0.23371893167495728,-0.051490418612957,-0.1254771500825882,-0.0727943554520607,0.1005363017320633,-0.00005261198748485185,0.10644415766000748,0.04942832142114639,-0.2728908658027649,0.12932085990905763,0.11611256003379822,0.06972084939479828,0.12188395112752915,-0.051327046006917956,-0.0999339371919632,0.13794845342636109,-0.06563428044319153,-0.02408984862267971,0.0018554527778178454,-0.10071995109319687,-0.0823163390159607,0.12102003395557404,0.1269576996564865,0.005970348138362169,-0.1845187544822693,-0.2802204489707947,0.025111734867095948,-0.09288843721151352,0.019468113780021669,0.19081279635429383,-0.13381703197956086,0.06669481098651886,-0.007253639400005341,0.28814613819122317,-0.0648503452539444,0.15284913778305055,-0.021333716809749605,0.10636749863624573,0.03921915590763092,-0.03834845870733261,0.2707711160182953,0.020583419129252435,0.2196986973285675,-0.08298417925834656,0.12888096272945405,0.0926726832985878,-0.07313574850559235,-0.01278263796120882,0.08392476290464401,-0.3180907368659973,-0.04815107583999634,-0.06260396540164948,0.10370174050331116,-0.059324756264686587,-0.10352861881256104,0.21425959467887879,-0.030579231679439546,-0.011701679788529873,0.1406715363264084,0.015790779143571855,0.13686534762382508,0.23330433666706086,0.030008407309651376,0.20166823267936707,0.02214897982776165,0.2250223010778427,0.2184799164533615,0.08432893455028534,-0.059816718101501468,0.2335294932126999,-0.0034493585117161276,-0.013661468401551247,0.23511894047260285,0.060943603515625,0.05870207026600838,-0.12700839340686799,0.10523538291454315,-0.15074318647384644,0.12583184242248536,0.33792993426322939,0.07742799073457718,0.3895108699798584,-0.1786963939666748,0.14876298606395722,-0.059376537799835208,0.030348176136612893,0.24127139151096345,-0.18824438750743867,-0.027459729462862016,0.3190903663635254,0.2548028528690338,0.09717771410942078,-0.024249140173196794,0.1318771243095398,0.22220377624034882,0.11074794083833695,-0.06142504885792732,0.16379941999912263,0.046266358345746997,0.05078224837779999,-0.10959174484014511,0.1032770574092865,-0.011179964058101178,0.18978315591812135,0.11962611973285675,-0.012808701954782009,-0.09790024906396866,-0.04396706447005272,-0.10552126914262772,-0.020838171243667604,0.17322379350662232,-0.04022196680307388,-0.024643035605549814,0.07942437380552292,0.12974080443382264,-0.09780506044626236,-0.08497925847768784,0.11468157917261124,-0.07825669646263123,-0.017588136717677118,0.15241439640522004,-0.06548459827899933,-0.17653682827949525,-0.1708199381828308,0.04989807680249214,0.17483767867088319,-0.07788898050785065,0.19779622554779054,-0.11356572061777115,-0.14523126184940339,0.03561535105109215,0.011754604987800122,-0.13622574508190156,-0.15285319089889527,-0.230228990316391,0.08234059810638428,0.0950544998049736,-0.253587543964386,0.025248024612665178,0.19096039235591889,0.04150867462158203,-0.1521763652563095,0.02919665165245533,-0.03522679582238197,0.07027783244848252,0.03112129494547844,-0.09364742040634155,-0.15929058194160462,0.042079467326402667,-0.22978834807872773,0.24153786897659303,-0.012944602407515049,0.1976073831319809,-0.03437294811010361,-0.10256405174732208,-0.22804833948612214,0.08281882107257843,0.1977785974740982,-0.1477535367012024,0.09949324280023575,-0.09427966922521591,-0.18762749433517457,-0.2711679935455322,-0.0738777369260788,0.0190291665494442,-0.06302876770496369,0.09683147072792053,0.07243683189153671,0.10590333491563797,0.092587910592556,0.01906304992735386,-0.19786882400512696,-0.2642979621887207,0.1649961769580841,0.128677099943161,-0.03915959969162941,0.18159036338329316,0.03292568773031235,0.0007554209441877902,-0.062243491411209109,-0.06547605991363526,-0.042868722230196,-0.13464953005313874,0.3506579101085663,-0.006391280330717564,-0.07291685044765473,0.11846981942653656,0.1647607684135437,-0.18207645416259767,0.1022435873746872,0.10297729820013046,0.02656010165810585,-0.036447953432798389,-0.03459721431136131,0.01564745418727398,0.19427211582660676,-0.13502813875675202,0.053626466542482379,0.11465979367494583,0.023749815300107003,0.10889003425836563,-0.25307127833366396,-0.10066138952970505,0.13710042834281922,-0.0036148526705801489,0.023257248103618623,0.05832429602742195,0.18237093091011048,0.23144544661045075,-0.3727298676967621,-0.05505687743425369,-0.14439986646175385,0.16094204783439637,0.03285898640751839,-0.22721152007579804,0.05327723175287247,0.055313073098659518,0.05635359138250351,-0.17221036553382874,0.09729322046041489,0.08537103980779648,-0.055530890822410586,0.09030580520629883,0.05822695046663284,-0.2452375441789627,0.3095889389514923,0.23300820589065553,0.0649745762348175,0.07077527046203613,0.26225778460502627,0.26105502247810366,0.13311047852039338,-0.1188792958855629,0.19769006967544557,0.06292621046304703,-0.09121432155370712,-0.17090678215026856,0.2695167362689972,-0.4125429093837738,0.32440227270126345,0.07227937877178192,-0.12362951040267945,0.020776087418198587,-0.05462557077407837,0.12020950019359589,-0.09653502702713013,0.02341810055077076,0.26682862639427187,0.1727369725704193,-0.25312045216560366,0.2919502258300781,0.06035894900560379,0.018944721668958665,-0.007786118891090155,-0.06394394487142563,-0.2498495876789093,-0.19796887040138246,-0.12779203057289124,-0.012768405489623547,0.14472359418869019,-0.39255887269973757,-0.04166272655129433,-0.07380637526512146,0.0903812125325203,-0.1036381646990776,-0.10596127808094025,0.09447352588176727,-0.0619458444416523,-0.2781442701816559,0.08346857875585556,0.1325548142194748,-0.0024234068114310505,-0.36097970604896548,-0.1416773796081543,0.06148621439933777,-0.0061826324090361599,0.009507614187896252,0.07704316824674607,-0.14155390858650208,-0.006077155005186796,-0.23559869825839997,0.06376054137945175,-0.00006556931475643069,-0.19716192781925202,0.06017594784498215,-0.11834707856178284,0.1057487353682518,-0.15924367308616639,-0.2544960379600525,0.012553314678370953,0.155152827501297,0.09873706102371216,0.06259311735630036,0.13299962878227235,-0.14410510659217835,-0.208524689078331,-0.21150192618370057,-0.04759547486901283,0.1461036652326584,-0.1057288721203804,-0.17828623950481416,-0.4140142798423767,-0.04703870043158531,0.2346840351819992,0.007957463152706623,-0.18869751691818238,0.24121195077896119,-0.08130323886871338,0.12568122148513795,0.19696158170700074,-0.11011526733636856,-0.15642711520195008,-0.020082663744688035,0.09115466475486756,-0.11212369054555893,0.06084123253822327,-0.06845066696405411,0.10085099190473557,0.11303120106458664,-0.0319337397813797,-0.2718569338321686,-0.022614484652876855,-0.03360559046268463,0.08553872257471085,-0.19971349835395814,0.15405867993831635,0.009463721886277199,-0.02157272957265377,0.08470725268125534,-0.08635548502206803,-0.12202786654233933,-0.11696645617485047,0.08871360868215561,0.27504852414131167,0.07900895178318024,0.1377163976430893,0.08557510375976563,-0.06906185299158097,0.008924485184252262,0.11177390068769455,0.05045436695218086,-0.14905889332294465,0.22990837693214417,0.08321571350097656,0.06755856424570084,0.132106751203537,-0.04292988404631615,0.16768522560596467,0.24421745538711549,0.16212138533592225,0.1663147360086441,-0.19707629084587098,0.15300653874874116,0.1262723207473755,-0.059430964291095737,0.16140708327293397,0.04801301658153534,-0.01651361957192421,-0.06023218110203743,-0.07234888523817063,-0.07102207094430924,-0.12039284408092499,0.1188310757279396,-0.09946100413799286,0.02437351457774639,-0.2542533278465271,-0.1880364716053009,0.3773801624774933,-0.335121750831604,0.1340431571006775,-0.06725502014160156,0.08912373334169388,0.08701715618371964,0.12085264176130295,-0.07939819246530533,0.141107976436615,0.02679407224059105,-0.20000529289245606,-0.009884663857519627,0.0677490234375,-0.10915134102106095,-0.14454057812690736,-0.19167500734329225,0.009888241067528725,0.15910135209560395,-0.038334041833877566,0.009308025240898133,-0.02110542543232441,0.391905277967453,0.36924588680267336,0.09710592776536942,0.11344077438116074,0.10104595124721527,-0.029718277975916864,0.1785883903503418,0.2552078366279602,0.13690711557865144,-0.12736502289772035,-0.007840708829462529,-0.11102242022752762,0.03176228702068329,-0.07024127244949341,-0.0799809917807579,0.06667911261320114,-0.1705496609210968,-0.11990278959274292,-0.10842551290988922,-0.14308319985866548,0.3309633433818817,0.2741321623325348,-0.10444691777229309,0.09986706078052521,-0.00034921447513625026,0.03241071105003357,0.0692199319601059,0.04094395413994789,0.12665940821170808,0.06178321689367294,0.1300061196088791,-0.036627937108278278,0.17452557384967805,-0.12440770864486695,0.016222184523940088,0.09879008680582047,-0.004353690426796675,0.08600162714719773,-0.04535312578082085,-0.29088670015335085,-0.05353463441133499,0.0326969176530838,0.15023861825466157,0.2845475375652313,-0.37170329689979555,0.21820135414600373,-0.051608193665742877,-0.2789129316806793,-0.057949721813201907,0.027736471965909005,0.0827450305223465,0.08320753276348114,-0.04993509128689766,0.17847798764705659,0.22405676543712617,-0.10780740529298783,0.1115855947136879,0.1264500617980957,-0.09666071832180023,0.09241388738155365,0.2902863621711731,-0.009099815972149372,0.17957226932048798,-0.0010078533086925746,-0.08250123262405396,0.048255112022161487,-0.13609330356121064,-0.18887180089950562,0.039841555058956149,-0.2147618979215622,-0.15577837824821473,-0.08247995376586914,0.22367170453071595,-0.04729810357093811,-0.2028990536928177,-0.2336818426847458,-0.023397274315357209,0.23467814922332765,-0.15309442579746247,-0.08722347021102905,-0.06998593360185623,-0.06557954847812653,0.19605904817581178,-0.19134686887264253,0.024444984272122384,0.23652775585651399,-0.09474418312311173,0.0999743789434433,-0.200729638338089,0.024212008342146875,0.16428156197071076,-0.07506301999092102,-0.044085871428251269,0.1535414606332779,-0.0342693068087101,0.38895365595817568,-0.12089871615171433,-0.08082614839076996,0.03668972849845886,0.15242056548595429,0.46536195278167727,0.02784094586968422,-0.06515369564294815,-0.09514271467924118,-0.006316216196864843,-0.046972788870334628,0.11019829660654068,0.23776556551456452,0.0829143077135086,0.0064740730449557308,0.02688724175095558,-0.19792766869068147,-0.0015208404511213303,-0.13619409501552583,-0.10117869824171066,0.19812171161174775,0.16924291849136353,0.43110206723213198,-0.06039319559931755,-0.39045506715774538,0.1152065321803093,0.08623683452606201,0.25398093461990359,0.2579442262649536,-0.18103113770484925,-0.3041381239891052,-0.11631052941083908,-0.22990572452545167,0.24952736496925355,-0.03700082004070282,0.05714699253439903,-0.06549053639173508,-0.15289299190044404,-0.12291529029607773,-0.27761194109916689,0.44660428166389468,0.22170455753803254,-0.07186445593833924,-0.08600284904241562,-0.07023296505212784,-0.028065530583262445,0.041390515863895419,-0.07867887616157532,0.0682201087474823,0.22678235173225404,0.2679601311683655,-0.02272939868271351,0.0808289498090744,0.2001594454050064,0.09146898239850998,0.1575106829404831,-0.2574433386325836,-0.0999821126461029,0.1341758519411087,-0.10097508877515793,0.44533172249794009,0.17281608283519746,-0.04037604108452797,0.028764991089701654,0.10543166100978852,0.07653481513261795,-0.11507657915353775,-0.1263117790222168,-0.023751236498355867,-0.16740015149116517,0.04149782285094261,0.11846821010112763,-0.09970957040786743,-0.08573120087385178,-0.20015442371368409,-0.3556686341762543,-0.22946970164775849,-0.21766072511672975,-0.021062936633825303,-0.030788641422986985,0.1452445536851883,-0.3213435113430023,0.10507237166166306,0.10201896727085114,-0.0029267037753015758,-0.07824990898370743,0.025442197918891908,-0.08678402006626129,-0.20390932261943818,0.010796346701681614,0.274525910615921,0.0439562126994133,0.0032885854598134758,-0.2503393292427063,-0.09795243293046951,0.03728644177317619,0.08634641021490097,0.216816246509552,0.18937383592128755,0.052710577845573428,-0.07222121953964234,0.07953618466854096,0.015053335577249527,-0.07117549329996109,-0.10520967841148377,0.0874229371547699,-0.026955582201480867,0.06544805318117142,-0.20013239979743958,0.047820281237363818,-0.2328963279724121,0.07889585942029953,-0.2690068483352661,-0.049854826182127,-0.29657915234565737,-0.1471131443977356,-0.051430173218250278,-0.008678196929395199,-0.04657071828842163,-0.19630511105060578,0.26850226521492007,0.16111546754837037,-0.25393959879875185,-0.14559637010097505,0.16933602094650269,-0.3923737406730652,0.002725879894569516,-0.1872602254152298,-0.29031240940093996,0.31608885526657107,0.20618779957294465,-0.1345093697309494,-0.185814768075943,0.2514331042766571,0.14875632524490357,-0.09786643832921982,-0.11711706966161728,-0.2402532398700714,0.1170693188905716,-0.002416890347376466,0.08776741474866867,-0.024812065064907075,0.04835877567529678,0.12437742948532105,0.14006593823432923,0.011069219559431076,0.1935933530330658,-0.14436455070972444,-0.05758820101618767,-0.024362290278077127,-0.17344820499420167,0.2397749423980713,0.18453986942768098,-0.1618749499320984,-0.16665202379226685,-0.2586295008659363,-0.023662079125642778,0.10139737278223038,-0.20085954666137696,0.008454039692878724,-0.1981642097234726,0.03099042735993862,0.05836788937449455,-0.05330865830183029,0.07316884398460388,0.10850266367197037,0.13670070469379426,-0.0123993419110775,-0.10192950814962387,0.007513776421546936,-0.03556785732507706,-0.27706629037857058,-0.15607833862304688,-0.16031458973884583,0.011085915379226208,-0.19124992191791535,-0.13143442571163178,-0.3233346939086914,0.06248289719223976,0.1386890411376953,-0.008606649935245514,-0.19949276745319367,0.156051903963089,-0.28219297528266909,-0.039528340101242068,-0.21246123313903809,0.03226969391107559,-0.2690304219722748,0.16873803734779359,0.32714203000068667,-0.002175733679905534,-0.18716740608215333,0.4335152506828308,0.02460387721657753,0.26308751106262209,-0.2879849970340729,0.16795983910560609,0.14597868919372559,0.1907859444618225,-0.03106945939362049,-0.1406988650560379,0.27038127183914187,-0.28193432092666628,0.14308367669582368,0.18052996695041657,-0.03065677545964718,0.002406480722129345,0.023763002827763559,0.023531561717391015,0.10924523323774338,0.04804426431655884,0.06730307638645172,-0.09887287020683289,-0.016964925453066827,-0.03683992475271225,0.15145450830459596,0.1462106853723526,-0.02547340653836727,0.06842310726642609,0.1391403079032898,0.10263563692569733,-0.07300464063882828,-0.307048499584198,0.08508874475955963,0.059789858758449557,-0.39860281348228457,-0.08355104178190232,0.09141210466623306,-0.20465920865535737,-0.06558506190776825,0.02000044845044613,-0.27489015460014346,-0.033661678433418277,-0.03778454288840294,0.22780755162239076,0.3117659091949463,0.0218628142029047,0.056538015604019168,-0.018861116841435434,-0.20191800594329835,-0.04470841586589813,-0.013169811107218266,-0.05204795300960541,0.19403205811977387,0.07005676627159119,-0.10427690297365189,0.08825396746397019,0.09492066502571106,-0.30176687240600588,0.13683836162090302,-0.2696293592453003,-0.2479400783777237,-0.07726455479860306,0.015477076172828675,-0.19989125430583955,-0.043088097125291827,0.08612170070409775,-0.07696007937192917,0.1614755094051361,-0.40594568848609927,0.20836633443832398,-0.30217763781547549,-0.02446489781141281,-0.3941892087459564,0.11251852661371231,-0.18704035878181458,0.24950556457042695,0.16475903987884522,0.13941332697868348,-0.05095420405268669,-0.01663210429251194,0.07444825023412705,-0.14753645658493043,0.2119019776582718,0.21727235615253449,-0.06993474066257477,-0.004903589840978384,-0.03490016981959343,0.04243277385830879,0.054437555372714999,0.11790131777524948,0.21556873619556428,0.0715794488787651,0.013865333050489426,0.01381074357777834,0.02494237944483757,0.08951692283153534,-0.06784418225288391,0.08287284523248673,0.22780728340148927,-0.2052215337753296,-0.012476807460188866,0.052510254085063937,-0.33441123366355898,-0.13185402750968934,0.18616704642772675,-0.1935456097126007,-0.25742244720458987,0.05827675387263298,0.04224579781293869,0.38062694668769839,-0.07393352687358856,0.08520741760730744,-0.1086236909031868,-0.04542917385697365,-0.0036796624772250654,-0.2857488691806793,-0.2403663545846939,-0.05707145854830742,-0.021709060296416284,-0.026794802397489549,-0.16862203180789948,-0.0886269137263298,0.008992546238005162,0.08090437203645706,0.06791582703590393,-0.1930924355983734,-0.03184513375163078,-0.03262912109494209,-0.07750672847032547,0.05131492763757706,-0.27317431569099429,0.18663820624351502,-0.28248482942581179,0.10190919041633606,0.05629705265164375,-0.16021832823753358,0.1185983419418335,-0.0762082040309906,-0.2046518176794052,0.1794682741165161,-0.018365785479545594,0.23039285838603974,0.24846528470516206,0.07433323562145233,0.11650639772415161,-0.06170070916414261,-0.005579392891377211,-0.09978890419006348,-0.16069133579730988,0.12295405566692352,0.05201652646064758,0.22846964001655579,-0.16428634524345399,-0.046151354908943179,0.30549752712249758,-0.13548527657985688,-0.08818674832582474,-0.02034718170762062,0.07999908924102783,-0.3607221841812134,-0.11860328912734986,-0.10032785683870316,-0.13570408523082734,-0.010805299505591393,0.13893312215805055,0.17436592280864716,0.06324566155672074,0.053847867995500568,-0.07536350190639496,0.06534760445356369,-0.3207971751689911,0.03486727923154831,0.04128183797001839,-0.0988844633102417,0.050374068319797519,0.04590354114770889,-0.04780694842338562,0.2409183830022812,-0.011343944817781449,-0.09783879667520523,0.2568563222885132,-0.008295820094645024,0.012073034420609475,0.13453038036823274,0.18892470002174378,0.19613198935985566,-0.18255271017551423,0.0895809456706047,0.14158229529857636,-0.04078492894768715,-0.10302723944187164,0.0905749723315239,-0.110158771276474,-0.01636425219476223,0.009073205292224884,-0.12264063954353333,-0.10961906611919403,-0.25202324986457827,-0.061435528099536899,-0.19214116036891938,0.21972765028476716,-0.16653777658939362,0.08661390841007233,0.005157826468348503,-0.08444900065660477,0.022714972496032716,0.1553393453359604,0.19282367825508119,-0.1412499099969864,0.1480729728937149,-0.19003723561763764,0.16374798119068147,0.21379050612449647,0.21195927262306214,-0.0433967262506485,-0.1448175460100174,0.062079936265945438,0.04134592413902283,0.22605915367603303,-0.04446866363286972,-0.18423199653625489,-0.032225072383880618,0.20418652892112733,0.10031929612159729,0.08843638002872467,0.09759357571601868,0.13287724554538728,-0.18933527171611787,0.08353671431541443,-0.15394563972949983,-0.03651469573378563,0.14517934620380402,0.1061181128025055,-0.09170758724212647,-0.00034383777529001236,0.07771989703178406,-0.06282778829336167,-0.1158825010061264,0.17915083467960359,0.048688650131225589,0.19175851345062257,0.21739932894706727,-0.0704154521226883,-0.012530642561614514,-0.03402690216898918,0.21081383526325227,0.013701887801289559,-0.04031766578555107,0.23676657676696778,0.16766740381717683,0.013866115361452103,-0.31747564673423769,0.1568770855665207,-0.03750421106815338,-0.06332230567932129,0.164895161986351,0.2285071462392807,-0.13581380248069764,0.12716755270957948,-0.050506774336099628,0.02699922025203705,0.13467763364315034,0.3212089240550995,-0.11479099094867706,0.004906099289655685,-0.15267878770828248,-0.4119064211845398,-0.11716042459011078,0.4435187876224518,0.35059821605682375,-0.004598625004291534,0.1001327857375145,-0.014992360025644303,0.09363684803247452,0.04625638201832771,-0.08574892580509186,-0.16991855204105378,-0.01462604384869337,-0.12497400492429733,0.009409156627953053,0.1818576455116272,0.39316487312316897,-0.20405550301074983,-0.20200181007385255,-0.10116297006607056,0.06081726402044296,-0.23425137996673585,0.19911007583141328,-0.009738944470882416,-0.011263935826718808,-0.2116827815771103,-0.1693599820137024,-0.1452430784702301,0.29357409477233889,-0.07850047945976258,0.537854015827179,-0.010407434776425362,0.2111693024635315,0.01752624474465847,0.09194787591695786,0.15876275300979615,-0.09141603857278824,-0.23292586207389832,-0.06731772422790528,-0.20736853778362275,0.22804126143455506,-0.16811086237430573,0.09851553291082382,0.042843397706747058,0.026850655674934388,0.08824785053730011,-0.3368573486804962,0.0155977513641119,0.1375320851802826,0.18163545429706574,-0.21179011464118958,0.22734221816062928,-0.15821167826652528,-0.10795080661773682,-0.08710446208715439,0.09458471089601517,-0.053142476826906207,-0.1607913225889206,0.054282769560813907,-0.029770750552415849,-0.22762294113636018,-0.16715635359287263,0.16799357533454896,-0.19566494226455689,-0.09852778166532517,-0.2227354347705841,0.10717832297086716,0.012857946567237378,0.031727202236652377,-0.08386819064617157,0.29776567220687868,0.13598380982875825,0.012824971228837967,0.1531534194946289,0.10425332933664322,0.11649976670742035,0.0007516284822486341,0.16850018501281739,0.03911914676427841,-0.3210665285587311,0.14141064882278443,-0.11026913672685623,0.149439737200737,-0.09160953760147095,0.10035102069377899,-0.09085110574960709,0.1271623820066452,-0.046504534780979159,0.14609147608280183,-0.2592117488384247,0.343862384557724,-0.15718263387680055,-0.10525635629892349,-0.04282413050532341,0.22901180386543275,0.04430876672267914,0.3677769601345062,-0.29000595211982729,-0.1606583148241043,-0.0024353775661438705,-0.054566893726587298,0.12829719483852387,-0.23854784667491914,0.0009572564740665257,0.16249941289424897,0.33028626441955569,0.2473331242799759,0.045619357377290729,0.06948395073413849,0.13542823493480683,-0.13268513977527619,0.10423798114061356,0.03256601467728615,0.03522083908319473,0.2128932625055313,-0.1084173396229744,-0.3569117486476898,-0.00595205370336771,0.1467139571905136,0.0763474851846695,0.08714292198419571,-0.20637544989585877,-0.04385397955775261,-0.24997971951961518,-0.14261117577552796,0.07271429896354675,-0.25937560200691225,-0.2630481719970703,0.053740907460451129,-0.14563050866127015,0.10776741802692414,0.15074706077575684,-0.012319937348365784,-0.13947151601314546,0.13620442152023316,0.011294345371425152,0.08289510756731034,0.029473230242729188,-0.10263700783252716,0.10720973461866379,-0.16908913850784303,-0.06042592227458954,-0.25356537103652956,0.17455674707889558,0.07432232797145844,0.07843979448080063,-0.07166438549757004,-0.2158336639404297,-0.025232277810573579,0.00948338769376278,-0.09988947957754135,-0.08540081232786179,-0.10009739547967911,0.0657079666852951,0.23375779390335084,-0.11412428319454193,0.3152097463607788,0.08902081102132797,-0.12174739688634873,0.06831323355436325,-0.21883565187454225,-0.23106610774993897,-0.15541812777519227,0.1574556678533554,-0.11255724728107453,-0.0006003696471452713,-0.037270721048116687,-0.021691035479307176,-0.31545037031173708,-0.04991477355360985,0.3826316297054291,0.21183720231056214,-0.2642342448234558,-0.33302778005599978,0.09976378083229065,0.24519167840480805,-0.07795466482639313,-0.24056680500507356,0.13847289979457856,-0.20343713462352754,-0.22396956384181977,0.08365414291620255,-0.28399157524108889,0.03488253057003021,0.10829360038042069,-0.24535533785820008,-0.07181302458047867,0.01831190660595894,-0.11791986227035523,-0.18207766115665437,0.002663025166839361,-0.0575471855700016,-0.09300210326910019,0.04221886768937111,-0.1298111230134964,-0.001924624084495008,-0.044059865176677707,0.18352454900741578,-0.07930923253297806,-0.03608439490199089,-0.11601300537586212,-0.03065517172217369,0.33264073729515078,-0.020299157127738,0.05617630109190941,-0.242109477519989,0.01532759703695774,-0.40150415897369387,-0.19637131690979005,-0.008210382424294949,-0.03686108440160751,0.08123485743999481,0.19812911748886109,-0.017672352492809297,-0.12368474900722504,-0.1803189069032669,-0.12466082721948624,0.0057092574425041679,-0.1683359444141388,0.11213520169258118,-0.2546212673187256,0.25296473503112795,0.09476903825998306,0.19886204600334168,-0.013335637748241425,0.0693969652056694,-0.023687399923801423,-0.1186462938785553,-0.0394679419696331,-0.0010054345475509763,0.009105190634727478,0.18582281470298768,0.24362869560718537,-0.11535623669624329,-0.0565490648150444,0.08720284700393677,0.16197429597377778,0.12174245715141297,0.023455020040273668,0.1620987504720688,0.39421847462654116,0.06603124737739563,0.03339935839176178,-0.03191734105348587,0.1074240505695343,0.03829239308834076,0.07105254381895066,-0.15799076855182649,-0.12703010439872743,0.049829572439193729,0.10968295484781265,-0.06572195887565613,-0.24071919918060304,-0.04659273847937584,-0.04349367320537567,-0.24561962485313416,0.05170593410730362,-0.038178447633981708,0.04665248841047287,0.16135497391223908,-0.010469996370375157,0.0078110964968800549,-0.016690563410520555,0.01594589278101921,-0.05900147929787636,-0.09990428388118744,0.19879011809825898,-0.17161183059215547,0.09695395827293396,-0.009279986843466759,0.13615240156650544,-0.14310622215270997,0.06219173222780228,-0.18656030297279359,-0.17827163636684419,-0.20209774374961854,-0.1955012083053589,0.35777026414871218,0.03507835417985916,0.027282563969492914,-0.046418290585279468,-0.013022550381720066,0.09479502588510513,0.14809952676296235,0.1530779004096985,0.317640095949173,-0.1665762960910797,-0.07128769159317017,-0.05592473968863487,-0.13462868332862855,0.047047317028045657,0.1915385127067566,-0.08334706723690033,-0.04373384639620781,0.25438594818115237,-0.16253171861171723,-0.16263718903064729,-0.2225578874349594,0.09018070250749588,-0.25783875584602358,-0.045326441526412967,0.00950702279806137,-0.04001772403717041,0.07756013423204422,0.10282070189714432,-0.2122541218996048,0.18199455738067628,-0.0342339351773262,0.280171662569046,-0.3547421097755432,0.0831754133105278,0.07934881746768952,-0.00680356752127409,-0.19408521056175233,-0.008177464827895165,-0.29902395606040957,0.008043131791055203,0.011940013617277146,0.24390555918216706,0.008339638821780682,0.12964396178722382,0.10025572031736374,0.0014762725913897157,-0.2249830961227417,-0.07984848320484162,0.08121893554925919,0.29387804865837099,0.07430604845285416,-0.20415951311588288,-0.011793896555900574,-0.09136784821748734,-0.07170373201370239,-0.28351277112960818,0.003965957555919886,0.03711603209376335,-0.2550789415836334,-0.013032286427915097,-0.18830186128616334,-0.0483858697116375,0.008756019175052643,0.20663273334503175,-0.0328453853726387,-0.2834503948688507,-0.1177426353096962,0.27384763956069949,-0.0762282982468605,-0.016385389491915704,-0.10647568851709366,0.21180203557014466,0.4585222899913788,-0.08343080431222916,-0.006565738935023546,0.12920808792114259,-0.048598747700452808,0.05205760523676872,0.1489328294992447,-0.31099534034729006,-0.0680382028222084,-0.03494944050908089,0.1410776972770691,0.022141970694065095,-0.1721431165933609,-0.157772958278656,-0.06638611853122711,0.03581004589796066,-0.14245349168777467,0.0997154712677002,-0.10356540977954865,0.09834123402833939,0.04853587970137596,0.17479194700717927,0.04264555126428604,0.11850162595510483,0.14555107057094575,0.20004165172576905,0.034495335072278979,-0.12369752675294876,-0.06197582930326462,0.1631627082824707,-0.17230676114559174,-0.21332363784313203,-0.009836028330028057,-0.06363600492477417,-0.14226552844047547,-0.027232738211750985,-0.19438722729682923,-0.11883992701768875,-0.20025140047073365,0.21028539538383485,-0.1661108434200287,-0.1139468178153038,-0.11923068761825562,0.07528457790613175,-0.005989375989884138,0.3091212213039398,-0.10765089839696884,-0.16430442035198213,0.11820704489946366,0.21276944875717164,-0.004503294359892607,-0.1050957441329956,0.14954766631126405,0.03612040355801582,0.00782767590135336,0.1059962809085846,0.21250495314598084,-0.0961160734295845,-0.11241433024406433,0.08811269700527191,-0.344926118850708,-0.12207308411598206,-0.13500484824180604,0.1489955484867096,-0.19302210211753846,-0.0524912066757679,0.03752628713846207,0.022917944937944413,0.5367696285247803,0.18366742134094239,0.04070903733372688,-0.29203295707702639,-0.20735543966293336,0.3373754024505615,-0.2770478427410126,-0.006620567291975021,0.22797085344791413,-0.23535633087158204,0.046513933688402179,-0.034511566162109378,0.08541831374168396,0.10000462085008621,-0.2792588770389557,0.08754905313253403,-0.24063891172409059,0.013759374618530274,-0.18439742922782899,-0.1900729089975357,-0.14960496127605439,-0.17261026799678803,0.05575316771864891,0.08738670498132706,0.04759121313691139,0.15369932353496552,0.08224719762802124,-0.17292888462543488,-0.2859566807746887,0.11925725638866425,-0.13390089571475984,-0.13068868219852448,-0.0267118401825428,0.03722889721393585,-0.04598448425531387,-0.06999465078115463,-0.23650236427783967,0.04831710085272789,0.08264929801225662,-0.005537935998290777,0.2429182231426239,0.11047705262899399,-0.13106730580329896,0.1469416320323944,-0.13571877777576447,-0.15727479755878449,-0.20915456116199494,-0.0366361066699028,-0.12370668351650238,-0.048474911600351337,-0.08318006247282028,0.16440211236476899,0.017877064645290376,0.25482743978500368,0.36477357149124148,-0.2867717444896698,0.042173344641923907,0.24592790007591248,0.005889597814530134,0.07604233175516129,-0.150895357131958,0.10608213394880295,-0.29198700189590456,0.23710691928863526,0.11103575676679611,0.08947522193193436,0.2274307757616043,0.07301630079746247,-0.09466902166604996,0.0932377278804779,0.18504951894283296,0.2084810733795166,-0.005557579919695854,0.10997238010168076,-0.1477467268705368,-0.14235959947109223,-0.070282481610775,0.27393102645874026,-0.04717789962887764,-0.024392422288656236,-0.05469530075788498,-0.15654371678829194,-0.2068270593881607,-0.17136819660663606,0.003560420125722885,-0.1435314565896988,0.06535607576370239,0.08124877512454987,0.09447813779115677,-0.1598185896873474,-0.15508778393268586,-0.019432246685028077,0.0780985951423645,-0.23017001152038575,-0.24832317233085633,0.10904061794281006,-0.041550178080797198,-0.2954995036125183,0.05281904339790344,-0.00995649117976427,0.005723675712943077,0.018368076533079149,0.0312190018594265,-0.05060341954231262,-0.10110126435756684,-0.15608753263950349,0.18281956017017365,0.011075505055487156,0.01297910138964653,0.08399989455938339,-0.144705668091774,-0.1600019484758377,0.480466365814209,-0.020081818103790284,0.10020841658115387,0.1315208226442337,-0.05676316097378731,0.010194490663707257,0.2970239222049713,-0.13965490460395814,-0.1693400740623474,0.24650642275810243,0.2607286274433136,0.15526121854782105,0.15699312090873719,0.061878666281700137,-0.19158419966697694,0.1550939679145813,-0.01456630602478981,0.16124378144741059,0.4137309491634369,-0.07556380331516266,0.16030865907669068,-0.11411425471305847,-0.1372312754392624,-0.023943854495882989,0.08190319687128067,-0.08921968936920166,0.12036436051130295,-0.15215370059013368,-0.13324803113937379,0.06877711415290833,0.2645021975040436,0.0694906935095787,0.21447080373764039,0.09878458827733994,0.05867115408182144,0.09094052761793137,-0.12968137860298158,-0.005399934481829405,-0.1317235380411148,-0.13238513469696046,0.1418331265449524,0.08381239324808121,-0.19102409482002259,-0.00818540807813406,-0.17370456457138062,0.15974289178848267,0.08374985307455063,0.20145580172538758,0.06304904818534851,0.1296440213918686,-0.22984543442726136,0.000633817573543638,0.13453103601932527,-0.1298210620880127,-0.11035503447055817,-0.053999509662389758,0.214595764875412,-0.047547146677970889,0.11262667179107666,0.005152102559804916,-0.06962546706199646,0.13703390955924989,0.05172612890601158,0.24897156655788423,-0.14401040971279145,-0.09279710054397583,0.020162444561719896,-0.1265796422958374,-0.10735101997852326,-0.3351440727710724,-0.17763586342334748,-0.16074122488498689,-0.09615930914878845,0.18381087481975556,-0.158861443400383,0.05769624933600426,0.09986703842878342,-0.13666416704654694,-0.0154028395190835,-0.07163208723068237,0.042026665061712268,-0.04597216472029686,-0.011319688521325589,-0.17617514729499818,0.15518736839294434,-0.2233869582414627,-0.21032822132110597,-0.23162969946861268,-0.25256890058517458,0.12897074222564698,-0.15647666156291963,-0.24358099699020387,-0.11455997824668884,-0.0018346264259889722,-0.06312034279108048,0.07710541039705277,0.2564135491847992,0.19086384773254395,-0.08419378101825714,-0.08540263026952744,-0.14352962374687196,0.05423856899142265,-0.11777279525995255,0.02817947417497635,-0.17597725987434388,0.07877425849437714,0.04272159934043884,0.08291631191968918,0.0061141131445765499,0.03219456970691681,-0.07487573474645615,-0.07796777039766312,0.05348925665020943,0.07037510722875595,0.1813839077949524,0.013652484863996506,-0.30697691440582278,-0.051919180899858478,0.09651985764503479,-0.07053343951702118,-0.06149255856871605,-0.09709004312753678,-0.11648937314748764,-0.25316089391708376,0.009823505766689778,0.24967558681964875,0.07689725607633591,-0.22765864431858064,0.03192511945962906,0.0882711112499237,-0.060471877455711368,-0.048421457409858707,0.15022346377372743,0.031877610832452777,0.06221612170338631,-0.23062466084957124,0.09199903905391693,-0.10963286459445954,-0.2514326572418213,-0.09613073617219925,-0.07987803220748902,0.17090918123722077,0.08083991706371308,-0.09893816709518433,-0.0500730462372303,0.07794318348169327,-0.18629829585552216,0.07871779054403305,-0.06379809230566025,0.1139737218618393,0.16798242926597596,0.10369785130023956,0.04739117994904518,0.045308515429496768,0.11606181412935257,0.03690452128648758,-0.08102826774120331,0.05376766249537468,-0.06703083962202072,0.34587448835372927,0.1418093889951706,-0.2333834320306778,0.10531961917877197,0.0719694122672081,-0.06470775604248047,-0.075833760201931,0.21673330664634705,-0.1195656955242157,0.09166073799133301,0.06382115185260773,0.07566361129283905,0.016267767176032068,-0.22880691289901734,-0.1495274305343628,-0.13450457155704499,-0.020806998014450074,0.18073071539402009,0.1140180453658104,0.020050955936312677,-0.3477349281311035,0.29477769136428835,0.07938852906227112,0.09511804580688477,0.0337614007294178,-0.013155289925634861,-0.005592860281467438,-0.22358420491218568,0.15054942667484284,-0.17442452907562257,-0.17689792811870576,0.01869724504649639,0.040224891155958179,0.15503425896167756,0.19790203869342805,0.16755907237529756,0.13818947970867158,-0.35595667362213137,-0.019931869581341745,-0.1945410668849945,0.0314217172563076,-0.012220144271850586,0.12992896139621736,-0.07221962511539459,-0.16835345327854157,-0.03369743749499321,0.07130458205938339,0.03238767012953758,-0.20825189352035523,-0.18523134291172028,0.17118068039417268,-0.020653465762734414,0.000462123891338706,0.07294736057519913,0.029023541137576104,-0.21972543001174928,-0.13985824584960938,0.05771246179938316,-0.11991406977176666,-0.0731603354215622,-0.08394979685544968,0.09682291001081467,-0.01246733870357275,-0.06591913849115372,-0.2101690173149109,-0.13371406495571137,-0.39606794714927676,-0.25901126861572268,0.12283865362405777,-0.35990071296691897,0.07405003905296326,0.0974358543753624,0.04824037849903107,-0.01861518807709217,-0.09628677368164063,0.13267454504966737,-0.10959558188915253,-0.05854044482111931,-0.1309918314218521,-0.11157902330160141,-0.19378915429115296,0.11458823829889298,0.020387917757034303,-0.0688997209072113,0.1496056318283081,0.25965583324432375,0.10881567001342774,-0.06209660321474075,-0.12878936529159547,0.11645561456680298,-0.15874448418617249,-0.21382181346416474,0.255606085062027,0.417094349861145,0.09455549716949463,-0.10671859979629517,0.1845325380563736,0.17980939149856568,-0.19099290668964387,0.2273118793964386,0.05500072240829468,0.0809115469455719,0.16441713273525239,-0.06693121045827866,0.021987486630678178,-0.19930939376354218,0.06729931384325028,-0.09246819466352463,-0.09263097494840622,0.21813130378723145,-0.07195834070444107,0.43467360734939577,-0.00792823825031519,-0.22140569984912873,-0.4975575804710388,-0.17696264386177064,-0.06583834439516068,0.07755536586046219,0.32261937856674197,-0.20259487628936768,-0.0015009342459961773,-0.15845684707164765,-0.006503311917185783,-0.05620891973376274,0.2820958197116852,-0.029116375371813775,-0.05388852208852768,-0.11109250783920288,0.027080776169896127,-0.2768051326274872,-0.1869649440050125,0.1593315601348877,0.2947075068950653,0.19923129677772523,-0.24257901310920716,0.13027575612068177,-0.0350000374019146,-0.05420031026005745,0.11896305531263352,0.14368091523647309,0.4720630943775177,-0.18940480053424836,-0.22564764320850373,0.05455925315618515,0.11021874845027924,-0.2023053616285324,-0.3024575114250183,-0.05374350771307945,0.000027972710086032748,-0.11659698188304901,0.29996514320373537,-0.005155293270945549,-0.029317274689674379,0.07942189276218414,-0.14012688398361207,-0.02605515532195568,-0.2278524935245514,-0.07677806168794632,-0.1239580288529396,-0.00879526138305664,-0.028498919680714608,0.08619417995214462,-0.10089736431837082,-0.4092000424861908,-0.003874060697853565,0.31610167026519778,0.05023970082402229,-0.2579132318496704,-0.08921422809362412,-0.03221151605248451,0.1505955308675766,0.1218821257352829,-0.0025761802680790426,0.06102965399622917,-0.3491283059120178,0.04372289031744003,0.011486579664051533,0.058696579188108447,-0.012076754122972489,-0.10798343271017075,0.17200903594493867,-0.1964806169271469,0.010053662583231926,-0.015077294781804085,0.015591372735798359,-0.16878928244113923,-0.11683058738708496,-0.05793479457497597,0.05352553352713585,0.19540199637413026,-0.19149842858314515,0.06258569657802582,-0.004590013064444065,-0.0861516147851944,-0.19216135144233704,0.038845401257276538,0.2828591465950012,0.21158140897750855,0.1781308501958847,-0.2324664145708084,-0.08039264380931854,0.0409148633480072,-0.12976104021072389,-0.13850924372673036,0.2652679681777954,0.09585684537887573,-0.20277073979377747,-0.0653110221028328,-0.1668282151222229,-0.08180283010005951,-0.21015101671218873,-0.15463639795780183,0.195668563246727,0.03801347315311432,-0.010379621759057045,-0.112641341984272,0.11679397523403168,0.08303224295377732,-0.12758715450763703,0.06904151290655136,-0.13766348361968995,0.1282879263162613,-0.01192971970885992,0.06212190166115761,0.07703793048858643,-0.025112222880125047,-0.052069660276174548,0.05799524858593941,0.2617551386356354,0.06173326075077057,-0.2071475386619568,-0.1939677596092224,0.11046504974365235,-0.1354507952928543,0.2219531536102295,-0.2705206274986267,-0.07176890224218369,-0.2118079662322998,0.324319988489151,-0.043016403913497928,0.157474085688591,-0.08910848945379257,-0.11664175987243653,-0.15257129073143006,0.0428546741604805,-0.02413831278681755,0.03996702656149864,-0.040250372141599658,0.12146823853254318,-0.1499597430229187,-0.1997855007648468,-0.19951654970645905,0.06968674063682556,-0.11379113048315048,-0.07353470474481583,-0.04387148469686508,0.2314365953207016,0.3697897791862488,-0.12078414857387543,-0.28191128373146059,-0.047881778329610828,0.021363750100135804,-0.05285607650876045,0.01107893604785204,0.03003416769206524,-0.012432284653186798,-0.04868371784687042,0.0647616907954216,0.2104475349187851,0.08169851452112198,-0.20918554067611695,0.058851394802331927,0.06993559747934342,0.051847681403160098,-0.1365612894296646,-0.003305058227851987,-0.207458034157753,-0.4799027442932129,0.013037027791142464,0.12477399408817291,0.2244586944580078,0.02668357826769352,0.021533820778131486,0.011337372474372387,-0.011478802189230919,0.05198235809803009,-0.04677882790565491,0.1352389007806778,-0.10202285647392273,0.06442379206418991,0.03275609016418457,0.22628192603588105,-0.0442768819630146,0.10133394598960877,-0.07092492282390595,0.10040207207202912,-0.037466950714588168,0.24631483852863313,-0.052941568195819858,0.33897125720977785,-0.17091424763202668,-0.1175234243273735,-0.14718304574489594,0.043221477419137958,-0.3993895649909973,0.011663418263196946,0.23785743117332459,-0.15518684685230256,-0.3597845137119293,-0.03704943507909775,-0.23325197398662568,0.1802341789007187,0.00406232476234436,0.13666154444217683,0.08147553354501724,-0.11203871667385102,0.03858545422554016,0.01366763561964035,0.12285290658473969,0.053909219801425937,0.10088060051202774,0.1844479888677597,-0.042462922632694247,0.09798788279294968,0.0075120944529771809,0.1888539344072342,0.10104586184024811,-0.3276291787624359,0.17782430350780488,-0.04719046130776405,-0.2130659818649292,-0.15598616003990174,0.17738492786884309,-0.10237886011600495,-0.23942773044109345,-0.06200646981596947,-0.24909724295139314,-0.1398725062608719,0.08438879996538162,0.0588335357606411,0.0038876812905073168,-0.11372203379869461,0.2201652079820633,-0.16395176947116853,0.231523796916008,0.028091317042708398,-0.12956705689430238,-0.12898261845111848,-0.23600073158740998,0.09248677641153336,-0.1673712432384491,0.046647727489471439,0.13585954904556275,-0.07295088469982147,0.050364214926958087,-0.26935145258903506,0.032102733850479129,-0.1991431564092636,0.14984457194805146,0.20502455532550813,0.03984077274799347,0.03480628877878189,0.20786787569522859,0.150189608335495,0.15454280376434327,-0.1373942792415619,0.09709515422582627,0.3164845407009125,0.12086088210344315,0.1851581335067749,-0.04508963227272034,0.05221915617585182,-0.16791214048862458,-0.09690118581056595,-0.11280468106269837,0.03469249978661537,0.09407518804073334,-0.025357091799378396,-0.26712310314178469,0.027678033336997033,-0.04751379415392876,-0.21139590442180634,0.12608696520328523,-0.02089058980345726,0.07291871309280396,0.21762479841709138,0.030212657526135446,-0.11557198315858841,-0.008016439154744149,0.34756556153297427,-0.1288638710975647,-0.06987926363945008,-0.10093750059604645,0.12436992675065994,0.06489495187997818,-0.19978511333465577,0.021583713591098787,-0.16701196134090424,0.08015831559896469,-0.13093027472496034,0.015069305896759034,0.09306396543979645,0.09608963876962662,0.24515566229820252,0.07440143078565598,-0.22476917505264283,-0.1118638888001442,-0.007301986683160067,0.11007335782051087,-0.09594626724720001,-0.02815072610974312,0.2929350733757019,0.02430923655629158,-0.07919911295175553,-0.02577144466340542,0.10766857117414475,0.062191352248191836,-0.05330999195575714,0.13663418591022492,0.15815405547618867,0.04289468750357628,0.07765427231788635,0.11829931288957596,-0.10238999128341675,0.0005767981056123972,-0.25705111026763918,-0.11476610600948334,0.07165153324604035,0.20777493715286256,0.042449671775102618,0.12431171536445618,-0.08472097665071488,0.20806872844696046,0.04139089584350586,0.043953895568847659,0.0861487165093422,0.01915810815989971,-0.1412017047405243,-0.06567694246768952,-0.08116122335195542,0.036020733416080478,0.14854489266872407,0.04933656379580498,-0.05257072299718857,-0.11053009331226349,0.14385536313056947,-0.05055683106184006,0.08538859337568283,0.15957607328891755,0.08024298399686814,-0.17807061970233918,0.026984503492712976,-0.11364089697599411,0.04564284905791283,-0.13208335638046266,0.04981021210551262,-0.15850773453712464,-0.03548247367143631,-0.08051539212465286,0.09721484780311585,0.05933289974927902,-0.1343662142753601,-0.10968010127544403,0.12699539959430695,-0.10879912972450257,-0.14023438096046449,0.15350952744483949,0.17976760864257813,0.05451956391334534,0.10981129854917526,-0.2029700130224228,-0.08073119819164276,-0.08334957808256149,0.06593567878007889,0.20775973796844483,-0.1297970712184906,-0.16658949851989747,0.31357091665267947,0.1543167382478714,0.06278716027736664,-0.15230828523635865,-0.1752936691045761,-0.2192739099264145,0.08766625821590424,0.11973823606967926,-0.2336084246635437,-0.2504349946975708,-0.09108994901180268,-0.07597050070762634,-0.1295813024044037,0.041540756821632388,-0.06468750536441803,-0.10208012908697128,-0.21800096333026887,-0.205464705824852,0.04580762982368469,0.24410425126552583,-0.11920838057994843,0.16326557099819184,0.08743436634540558,-0.05108872056007385,-0.09545780718326569,-0.043230071663856509,-0.17778433859348298,0.1561293751001358,-0.06868267059326172,0.06729687005281449,0.10558464378118515,-0.0943414494395256,0.1481708586215973,0.07677718997001648,-0.39390259981155398,0.16919952630996705,-0.035351887345314029,0.014084789901971817,-0.019040388986468316,0.07274870574474335,0.09988615661859513,-0.060164857655763629,0.1249164417386055,-0.15983857214450837,-0.13937398791313172,0.18016666173934937,0.15021003782749177,-0.2756952941417694,-0.04674648120999336,-0.10981947928667069,0.012095379643142224,-0.176141619682312,-0.17406387627124787,0.027913803234696389,0.09514106065034867,-0.0018896926194429398,0.07112734764814377,-0.17335063219070435,-0.06475749611854553,0.31365466117858889,-0.09208720922470093,0.18982945382595063,0.14130449295043946,0.1638239324092865,0.0914970263838768,-0.007292069494724274,0.11353157460689545,0.011848456226289273,0.07883761078119278,0.048517439514398578,0.01343656424432993,-0.017072215676307679,0.07732029259204865,0.0092479782178998,0.10298176854848862,0.012193419970571995,0.1258455216884613,-0.004903106950223446,0.11782893538475037,0.2012612521648407,0.32999980449676516,0.09766141325235367,-0.10829276591539383,0.06697139143943787,-0.046230461448431018,-0.0022251761984080078,0.03860003873705864,-0.14666970074176789,-0.061703912913799289,0.006806561257690191,0.0552804134786129,-0.03141920268535614,-0.006180327385663986,0.06592193990945816,-0.02700168266892433,-0.08889761567115784,0.020590966567397119,-0.03861646726727486,-0.068997822701931,0.014901893213391304,0.2655855417251587,-0.09079790115356446,-0.09266053140163422,-0.10262668132781983,0.11091764271259308,-0.2939920425415039,0.16988039016723634,0.051290158182382587,0.025187576189637185,0.0905027836561203,-0.1852567046880722,0.2362099140882492,0.2523329257965088,0.11556648463010788,-0.2143431156873703,0.24937626719474793,-0.18647050857543946,0.08908414095640183,-0.28389108180999758,0.32556676864624026,0.1042332872748375,0.09493432193994522,0.0518292561173439,-0.12675504386425019,-0.2223401963710785,0.06724341958761215,0.49824193120002749,0.03736547753214836,-0.34133031964302065,0.14880768954753877,0.014557071030139923,-0.05823814123868942,-0.05844869464635849,-0.2076251357793808,0.005460028070956469,0.004159476608037949,0.04539057984948158,0.12114506214857102,-0.0600709393620491,0.06314609944820404,0.014213060960173607,0.29260382056236269,-0.01179022528231144,0.2094501107931137,0.22409313917160035,0.029737545177340509,-0.28151166439056399,0.007486560847610235,-0.07368115335702896,-0.1324273645877838,-0.007975276559591294,-0.3167382478713989,-0.019656967371702195,-0.17643801867961884,0.12597891688346864,0.1119607463479042,-0.009587999433279038,0.09762965142726898,0.09038155525922775,0.008179239928722382,0.17215678095817567,0.15345369279384614,0.1451227068901062,0.08069592714309693,0.11538451910018921,0.23109515011310578,0.0927538201212883,0.15246324241161347,0.17570671439170838,0.024680454283952714,-0.09552806615829468,-0.08753213286399842,0.060529742389917377,-0.04758918285369873,-0.14656436443328858,-0.12144714593887329,0.11550630629062653,0.20793861150741578,-0.14732900261878968,-0.0021795874927192928,0.39202359318733218,-0.016792019829154016,0.1675841212272644,-0.19372278451919557,0.07192791998386383,0.03321089968085289,-0.01901404745876789,-0.028455326333642007,-0.061955925077199939,0.1221664771437645,0.06429971009492874,-0.024413729086518289,-0.048121821135282519,-0.08322972804307938,0.05329044163227081,0.12702949345111848,-0.06135425344109535,0.03698983043432236,0.021955274045467378,-0.11458177119493485,-0.07255332916975022,0.12293452769517899,0.02450561337172985,-0.09567643702030182,-0.0019334551179781557,0.007769421208649874,0.043194714933633807,-0.13280056416988374,0.08298047631978989,-0.1198236495256424,-0.1884332001209259,0.09980610013008118,0.1293834000825882,0.0016247739549726248,0.02459612675011158,-0.18544964492321015,0.04926842823624611,0.2942558228969574,0.12011756747961045,0.41501519083976748,-0.07500044256448746,0.039408277720212939,-0.21236400306224824,0.1305609941482544,0.2826662063598633,0.04611169919371605,0.055371299386024478,0.17685183882713319,0.05293552950024605,-0.08479749411344528,-0.09616871923208237,0.009027691558003426,0.013684531673789025,0.12191132456064224,0.21519269049167634,0.017711278051137925,-0.37290018796920779,-0.06162499636411667,-0.08076754212379456,-0.08889510482549668,0.17346470057964326,-0.13394472002983094,-0.0672403946518898,-0.032479576766490939,0.10435106605291367,-0.09163133054971695,0.12699487805366517,-0.07635655254125595,0.22636094689369203,0.18884791433811189,0.15043266117572785,-0.037512414157390597,-0.049088381230831149,0.15596230328083039,-0.19788455963134767,0.19438649713993073,-0.1627916395664215,0.4273986518383026,0.14160092175006867,-0.3100406229496002,0.11428894847631455,0.22459866106510163,0.03015853650867939,-0.12651802599430085,0.0977398231625557,0.08765695989131928,-0.10405921936035156,0.11807041615247727,-0.26342836022377016,-0.20188985764980317,0.006153462920337915,0.1733812540769577,0.06079179793596268,-0.36258670687675478,0.02563040889799595,-0.05633228272199631,-0.2008509486913681,0.08446816354990006,-0.22135628759860993,0.3280201554298401,-0.2877059280872345,0.23058341443538667,0.1234249472618103,0.008660636842250824,-0.25029605627059939,0.0044638412073254589,0.11123435944318772,-0.29238808155059817,-0.006397183984518051,-0.11529286205768585,-0.1507367342710495,-0.16005149483680726,-0.21341411769390107,0.32320263981819155,-0.10298120975494385,0.012534143403172493,0.09876707941293717,-0.13405004143714906,-0.19780032336711884,-0.10504631698131561,0.0036919284611940386,-0.058338895440101626,0.14555849134922028,0.04120815172791481,0.07031188905239105,0.23550724983215333,0.21201683580875398,-0.028094470500946046,0.015564430505037308,0.4142317473888397,-0.5098631381988525,-0.08667679876089096,-0.008318353444337845,-0.06523536890745163,0.09077185392379761,0.22146183252334596,0.031622156500816348,0.06550148874521256,-0.059091947972774509,0.34452223777770998,0.02051704004406929,-0.02214789390563965,-0.07933366298675537,0.00472198985517025,0.20223821699619294,-0.0734599307179451,0.04229527711868286,0.13129906356334687,0.11110697686672211,0.011641778983175755,-0.10943964123725891,0.1971127837896347,-0.10018680989742279,0.055109601467847827,-0.2073792815208435,-0.04976345971226692,-0.193745419383049,-0.024085095152258874,-0.24204951524734498,0.40726903080940249,0.21030886471271516,0.03818608075380325,0.13492269814014436,0.11487166583538056,-0.20327888429164887,-0.14505064487457276,0.02335384301841259,-0.029242519289255143,0.12585222721099854,-0.10360275208950043,0.005049475934356451,-0.14865688979625703,0.16507674753665925,-0.06194745749235153,-0.1428309977054596,-0.42850419878959658,0.184980571269989,0.0007613829802721739,-0.09070135653018952,0.3446195721626282,-0.10206825286149979,-0.010377991944551468,-0.3579618036746979,0.0023874840699136259,-0.0452016219496727,-0.21291890740394593,0.34974586963653567,0.14432930946350099,-0.3316144347190857,0.028605176135897638,-0.00391352130100131,-0.2513943314552307,-0.0642252042889595,-0.04130399972200394,-0.1628841757774353,-0.11225682497024536,0.09214997291564942,0.07979942113161087,-0.20564807951450349,-0.11278913170099259,0.2754920721054077,0.1919543743133545,0.26884138584136965,-0.11431033164262772,0.10040102154016495,0.023074829950928689,-0.028411827981472017,-0.18528278172016145,-0.11639901250600815,0.09235545992851258,0.13714268803596497,0.1882035881280899,-0.3121732473373413,-0.1330842524766922,-0.034350913017988208,0.41141530871391299,0.28144973516464236,-0.04982168972492218,-0.1576496958732605,0.0014601555885747076,-0.23644983768463136,-0.052097517997026446,0.07948271930217743,0.1492244303226471,-0.011578885838389397,0.09042761474847794,0.009206073358654976,-0.19764722883701325,-0.10122469067573548,-0.0027377482037991287,0.0295419879257679,0.04800335317850113,-0.10096927732229233,-0.22653797268867494,-0.2851332724094391,-0.22566872835159303,0.25718703866004946,0.03150966390967369,0.08810184895992279,-0.295168936252594,0.17506523430347444,0.12364836782217026,-0.029349351301789285,-0.21689967811107636,0.052849914878606799,-0.06681646406650543,0.14718320965766908,0.12943752110004426,-0.0009485420887358487,0.19811144471168519,0.021859873086214067,0.18062366545200349,-0.21240974962711335,-0.252453476190567,0.11432749778032303,0.06948045641183853,0.030067740008234979,-0.1897730678319931,-0.05429371818900108,-0.2704858183860779,-0.023454682901501657,0.004207891412079334,-0.23636102676391602,0.13729937374591828,-0.11420003324747086,-0.06565549224615097,-0.1513707935810089,0.03539155796170235,-0.04125628620386124,0.26512831449508669,-0.1478358656167984,-0.2414570301771164,0.0001690101344138384,-0.07645700871944428,-0.014724917709827423,0.09031907469034195,-0.1612897515296936,-0.0409066267311573,0.2746042013168335,-0.018355127424001695,0.023205222561955453,-0.3021509647369385,0.1454102247953415,0.13984857499599458,0.053964290767908099,-0.06982842832803726,0.013300620950758458,-0.08224331587553024,-0.018078800290822984,-0.046681344509124759,0.032262999564409259,-0.07988645136356354,0.31016111373901369,-0.052168697118759158,0.15104664862155915,-0.02160230278968811,-0.008379623293876648,0.0016503690276294947,-0.01555840577930212,-0.21130281686782838,-0.20963971316814423,0.27313658595085146,-0.039951033890247348,-0.0020869052968919279,-0.13041827082633973,0.25699010491371157,0.060013845562934878,-0.07521067559719086,-0.027357760816812516,0.037512607872486117,0.07124796509742737,0.07643089443445206,0.13703572750091554,-0.09718780964612961,-0.21709218621253968,-0.41707560420036318,0.07865787297487259,0.09854800999164581,0.22766804695129395,0.05591689050197601,-0.10904853790998459,-0.03711237385869026,-0.2542297840118408,-0.2458028644323349,-0.045143578201532367,-0.02218545787036419,-0.11035595834255219,-0.2926020622253418,-0.361434668302536,-0.13842108845710755,-0.0286830123513937,-0.1497766524553299,0.03361039236187935,0.15537254512310029,0.20012067258358003,0.1157054454088211,-0.3705997169017792,-0.28037580847740176,-0.0823875442147255,-0.03826083615422249,0.16590522229671479,-0.00824825931340456,0.01589561440050602,-0.0015565711073577405,-0.00625829491764307,-0.0938425362110138,-0.15159836411476136,0.26582521200180056,-0.018020229414105417,-0.1205662190914154,-0.018318824470043184,-0.22749988734722138,-0.02531733550131321,0.018096165731549264,0.11795147508382797,0.006933513563126326,-0.19250865280628205,-0.012309321202337742,-0.040381018072366717,-0.0524824857711792,-0.013538300059735775,0.08820930868387222,0.012019457295536995,0.07325185090303421,-0.13310930132865907,-0.24658846855163575,-0.2631813883781433,0.07775691896677017,0.3053000271320343,0.15826956927776338,-0.38468822836875918,-0.13154713809490205,-0.3111564815044403,-0.21236065030097962,-0.14756900072097779,0.1279263198375702,-0.24420753121376038,-0.24533332884311677,-0.09247848391532898,0.0373944416642189,-0.138168603181839,-0.14657950401306153,-0.015827840194106103,-0.15456640720367433,0.08475242555141449,-0.20366398990154267,0.208555206656456,-0.15165632963180543,-0.2434248924255371,0.07459107786417008,-0.007253527175635099,-0.04173019900918007,-0.06467361003160477,0.0656040832400322,0.13185657560825349,0.19201064109802247,0.24161888659000398,0.12287332117557526,-0.2618674039840698,0.11363749951124191,-0.08506833016872406,0.11785390228033066,-0.2439139187335968,-0.05379440635442734,0.0499388687312603,0.10150603204965592,-0.14278726279735566,-0.19774648547172547,-0.05449015274643898,0.20278607308864594,-0.1922239512205124,-0.041864704340696338,0.08535875380039215,-0.055784955620765689,0.11825801432132721,0.0701727420091629,0.22125515341758729,0.19236770272254945,-0.533253014087677,-0.11835037171840668,-0.3659881055355072,0.2605800926685333,0.11632473766803742,0.05805744603276253,0.19414056837558747,0.0702957957983017,-0.08172064274549484,-0.11973767727613449,0.13220147788524629,0.0678103119134903,-0.1259416788816452,-0.08985532820224762,0.02803991176187992,0.10045337677001953,-0.002745687961578369,0.11477572470903397,0.04467330873012543,-0.11414571851491928,-0.11992845684289932,0.0695924311876297,0.07462938129901886,-0.024699395522475244,0.09777781367301941,0.28413838148117068,-0.17678004503250123,-0.1297687441110611,-0.14381733536720277,0.12668904662132264,0.1708303838968277,-0.06252855062484741,-0.0810294970870018,0.036300987005233768,0.1297110915184021,-0.08473189920186997,0.12163691967725754,-0.33383437991142275,-0.2297588437795639,0.12282832711935044,-0.0029584774747490885,-0.03389051556587219,0.2231183499097824,-0.10117647051811218,-0.037142399698495868,0.15301194787025453,0.05563068762421608,0.1035645604133606,0.022193029522895814,-0.06703964620828629,-0.1766878217458725,-0.133821040391922,0.08443236351013184,0.07922521233558655,-0.11915674060583115,-0.16306959092617036,0.1261654645204544,-0.2690875828266144,0.229226216673851,0.19607673585414887,0.02513585053384304,0.050154898315668109,0.10105009377002716,0.008991917595267296,-0.2074037343263626,-0.22910961508750916,-0.0829182118177414,0.10200479626655579,-0.022239066660404207,-0.0017484554555267096,0.1461077481508255,-0.01891065575182438,-0.12438217550516129,0.06455302983522415,0.03601009026169777,0.25608643889427187,-0.35757654905319216,-0.04285742715001106,-0.23168379068374635,0.030350297689437867,0.3592836558818817,0.13463255763053895,-0.03195886313915253,0.4186028838157654,0.14519420266151429,0.19481880962848664,0.034510739147663119,-0.16518434882164002,0.11298615485429764,-0.05092594400048256,-0.04203258827328682,-0.15149836242198945,-0.11607017368078232,0.08296075463294983,-0.009238123893737793,-0.0874701589345932,-0.11868011206388474,0.03195708245038986,-0.035561323165893558,0.05347244814038277,0.051208339631557468,-0.20789358019828797,-0.021025029942393304,-0.10932452976703644,0.29160016775131228,0.26180222630500796,0.038440652191638949,0.003561038989573717,0.025743121281266214,-0.14913739264011384,-0.10932029038667679,-0.22667190432548524,0.10609658807516098,0.0536944717168808,0.1407528817653656,-0.11277040094137192,-0.2612466812133789,-0.2651393711566925,-0.1645447015762329,-0.08346650749444962,0.18532927334308625,-0.3889051079750061,-0.18408174812793733,0.0007919552735984325,0.07949303835630417,-0.019851328805088998,0.26931998133659365,-0.19782279431819917,0.08605507761240006,-0.11658196896314621,0.3172464966773987,-0.05214535444974899,0.13511326909065247,0.03943378105759621,-0.22159606218338014,0.22866325080394746,-0.10572090744972229,0.0013723914744332433,-0.06170077621936798,-0.21046173572540284,-0.07297971099615097,0.049350231885910037,0.1899598240852356,-0.051059331744909289,0.01653427630662918,0.21550370752811433,0.30036860704421999,0.09859678149223328,0.07648273557424545,0.1098744124174118,-0.1499897837638855,0.3309752345085144,-0.09129323810338974,0.06270943582057953,-0.18203596770763398,0.02829938754439354,-0.018992651253938676,0.035722509026527408,-0.03215361386537552,0.17827317118644715,0.026611918583512307,-0.01619477942585945,-0.03583965450525284,0.321248859167099,0.09421779960393906,-0.22941268980503083,0.19130092859268189,-0.34354814887046816,-0.013202887028455735,-0.05427093058824539,0.18099351227283479,0.038580793887376788,-0.01971602253615856,0.2811156213283539,0.3027018904685974,0.09656453132629395,-0.0003767965827137232,-0.2003803551197052,0.10558754950761795,0.07970575243234635,-0.049555566161870959,-0.12104467302560806,0.09487855434417725,-0.1574084609746933,0.015427298843860627,-0.021838610991835595,-0.08342772722244263,-0.05576673522591591,-0.352619469165802,-0.26852473616600039,-0.08304020017385483,-0.005897702649235725,0.21242359280586244,0.24450543522834779,0.19968180358409882,0.02775619737803936,0.037763211876153949,-0.17080391943454743,0.010817340575158596,0.10131878405809403,0.12495531141757965,-0.18514281511306764,-0.26031869649887087,0.005388073157519102,-0.21499107778072358,0.03430512547492981,-0.285298228263855,-0.1455804854631424,0.09795619547367096,0.10015789419412613,0.006632939912378788,0.09775106608867645,-0.191050186753273,-0.006891656666994095,-0.05217379331588745,0.05940963327884674,-0.022991813719272615,0.0718100443482399,-0.04004426300525665,-0.06728380173444748,0.19825950264930726,0.2288486659526825,-0.03803253546357155,0.03436003625392914,-0.12761567533016206,0.10792307555675507,0.16957972943782807,-0.18949639797210694,0.049477968364953998,0.04276914894580841,-0.10285192728042603,0.06259115785360336,-0.04366491734981537,0.2074202001094818,0.2576163113117218,-0.23695337772369386,-0.006932176183909178,-0.4355010688304901,0.21540279686450959,-0.06221731752157211,-0.1007855013012886,0.1801328957080841,0.17609116435050965,-0.11617064476013184,-0.2009865790605545,0.110257588326931,0.2256624847650528,-0.011810209602117539,-0.19724267721176148,0.2668924629688263,-0.035982824862003329,-0.06483899056911469,-0.18324673175811768,0.049785539507865909,-0.10128243267536164,0.09612733870744705,-0.13721120357513429,-0.011559809558093548,-0.046882979571819308,-0.06575316190719605,0.032627664506435397,0.012234333902597428,-0.06096115708351135,0.07486098259687424,-0.0009386573219671845,0.04330788180232048,0.260808527469635,0.13257193565368653,-0.1271289587020874,-0.08228684961795807,0.165063738822937,-0.181162029504776,0.23755772411823274,-0.09211604297161102,-0.13150711357593537,-0.021288175135850908,0.36652418971061709,0.012789315544068814,-0.14372338354587556,-0.06172643601894379,-0.24594159424304963,-0.23397211730480195,0.14658021926879884,0.20248794555664063,0.031308792531490329,-0.24185022711753846,0.010633457452058792,-0.17885611951351167,0.2378276139497757,0.2333955615758896,-0.2842850089073181,0.14906136691570283,-0.18574313819408418,-0.10352624207735062,0.09584060311317444,0.014425873756408692,0.10082635283470154,-0.14016273617744447,-0.0004696068062912673,0.09103959053754807,0.14674177765846253,0.12567365169525147,0.1671999990940094,0.12075679749250412,-0.0756286084651947,0.043273650109767917,-0.07647127658128739,0.040326859802007678,-0.16555790603160859,0.23564192652702332,0.12819138169288636,-0.15007157623767854,0.11932037770748139,0.3940953314304352,-0.003050299594178796,-0.09062010794878006,0.008969001471996308,-0.3413764238357544,0.3412252366542816,0.106259286403656,0.10935215651988983,-0.07978589832782746,0.10233190655708313,-0.17583642899990083,-0.00003053257387364283,0.09708671271800995,-0.02018078789114952,-0.1748957335948944,-0.04776278883218765,0.19106119871139527,-0.25764551758766177,0.10682123154401779,-0.3013363480567932,-0.006247283425182104,-0.058975983411073688,-0.02134852297604084,0.16379699110984803,0.1343214362859726,-0.16830763220787049,-0.0898866131901741,0.12953396141529084,0.07024525105953217,-0.01725112274289131,-0.18134891986846925,0.14492915570735932,0.0561678521335125,-0.014760321006178856,-0.2562846541404724,-0.0814434364438057,-0.0197120513767004,0.01655094139277935,0.03386479988694191,-0.09865488111972809,0.21340106427669526,0.06342391669750214,0.19125422835350038,-0.0628838986158371,0.013590836897492409,0.1142536997795105,-0.0878814235329628,0.19909530878067017,-0.004224475473165512,0.1195947527885437,-0.12797486782073975,-0.34215596318244936,-0.1374039649963379,0.053797896951436999,-0.18678566813468934,-0.0460548959672451,0.08717083930969238,0.12967456877231599,0.04071039706468582,-0.07532747834920883,-0.11816434562206269,0.005990807898342609,-0.1738661676645279,0.29197338223457339,-0.15517210960388184,0.19300729036331178,0.06495825946331024,0.07228633761405945,0.4162008464336395,-0.15294110774993897,-0.1954350620508194,-0.20340596139431,0.036647483706474307,0.2326386272907257,-0.013931077904999257,-0.13607798516750337,0.05131658539175987,0.08716847002506256,0.07833179086446762,-0.19008277356624604,-0.024368539452552797,-0.18626847863197328,-0.09828279167413712,0.15843866765499116,0.05066843330860138,-0.21957753598690034,0.02829182706773281,-0.12132344394922257,0.18169386684894563,0.04920465871691704,-0.09891805797815323,-0.18318584561347962,0.12084845453500748,-0.04208609461784363,0.16075342893600465,-0.03631585091352463,-0.05647491663694382,-0.11407436430454254,-0.21575891971588136,-0.26012668013572695,-0.16546191275119782,-0.04265004023909569,-0.1001005619764328,-0.07957185804843903,0.08425985276699066,0.09764731675386429,0.09768708050251007,-0.11087559908628464,-0.17549343407154084,0.17526961863040925,-0.3247084617614746,-0.06157446280121803,0.10187062621116638,0.030417539179325105,0.1070471927523613,-0.22180040180683137,0.2149444967508316,0.014621161855757237,0.1815311461687088,-0.032242245972156528,0.12397593259811402,0.10928977280855179,-0.009384093806147576,-0.3268354833126068,-0.2418685257434845,0.08271130174398422,-0.25080811977386477,0.10281669348478317,-0.3169718384742737,0.10397997498512268,-0.1125163584947586,-0.013995432294905186,-0.17130668461322785,0.09011518210172653,-0.009357224218547345,0.1208571046590805,-0.0646481066942215,-0.03985274210572243,-0.11805413663387299,-0.29387596249580386,0.13623449206352235,0.03626670315861702,-0.0739065483212471,0.08780091255903244,-0.1275016963481903,-0.21941989660263062,-0.166578009724617,-0.0478975884616375,0.24481800198554994,-0.0003177827748004347,-0.1960781216621399,0.18092544376850129,-0.05217596888542175,-0.07263682037591934,-0.3696213364601135,-0.07828905433416367,0.03367925435304642,-0.08065186440944672,-0.031295135617256168,0.06319914013147354,-0.19663074612617494,-0.0632527619600296,0.10912562906742096,0.10565438121557236,-0.0678284764289856,-0.1203838661313057,-0.1938835233449936,-0.1856144815683365,-0.038776837289333346,0.14893458783626557,-0.03031417913734913,-0.21032263338565827,-0.18760982155799867,0.09481411427259445,0.05830088257789612,0.024221360683441163,0.1654372662305832,-0.02421903796494007,-0.0771704837679863,0.15554623305797578,0.28785333037376406,0.07746398448944092,0.18616266548633576,0.003242847742512822,0.14220741391181947,0.1464328020811081,-0.20012742280960084,0.06740256398916245,0.1369956135749817,-0.26727569103240969,0.13057315349578858,-0.049020204693078998,0.34279417991638186,0.18221019208431245,-0.10754840075969696,-0.0835643783211708,0.059572573751211169,-0.06849247217178345,0.28580331802368166,0.02944420836865902,0.05706636980175972,-0.0946376845240593,0.1518782675266266,-0.34004130959510805,-0.19212135672569276,-0.2758543789386749,-0.11141926050186157,-0.024192044511437417,0.25932344794273379,-0.20796410739421845,0.023069581016898156,-0.19479341804981233,0.211716890335083,0.16216909885406495,-0.1654384285211563,0.15262137353420258,0.15976718068122865,0.263337105512619,0.04434908181428909,-0.18718037009239198,-0.2873436510562897,-0.08663076907396317,0.10469485819339752,0.15187016129493714,0.24026384949684144,-0.09820973128080368,-0.22864361107349397,0.09367769211530686,0.08094200491905213,-0.16430316865444184,-0.04492300748825073,-0.2018866240978241,0.039144501090049747,0.0017396637704223395,-0.15847232937812806,-0.16567111015319825,0.026651674881577493,0.10123033076524735,-0.12439924478530884,0.024911589920520784,0.07759775221347809,0.04729581996798515,0.3072696924209595,-0.08835867792367935,-0.3143310546875,0.14256243407726289,-0.03857485577464104,0.10223710536956787,0.13351666927337647,-0.19602762162685395,-0.17608268558979035,-0.019797848537564279,0.0166397076100111,-0.036120519042015079,-0.05625288560986519,0.054403431713581088,0.2864278554916382,0.06324643641710282,-0.02646734192967415,0.04364077374339104,0.24874582886695863,-0.1935480684041977,0.10633957386016846,0.07866013050079346,-0.012278333306312561,0.10607204586267472,0.29275068640708926,-0.32949110865592959,0.00236691371537745,0.005819879472255707,-0.06426497548818588,0.05362843722105026,-0.06839399039745331,-0.36627691984176638,0.04995739087462425,-0.20069842040538789,0.1264694482088089,-0.17937235534191132,-0.24417558312416078,0.1571146547794342,-0.09641829133033753,0.11611329019069672,-0.23499006032943726,-0.0447348952293396,-0.11061586439609528,-0.057799287140369418,-0.16932213306427003,0.13830795884132386,0.07134927809238434,-0.07319170236587525,-0.10693663358688355,0.18131808936595918,0.11374731361865998,-0.12960214912891389,0.13455916941165925,0.1755075752735138,-0.20181214809417725,-0.12576033174991609,0.01140860840678215,-0.2537366449832916,0.10244979709386826,-0.010049767792224884,-0.07881099730730057,-0.06185511127114296,0.12051539123058319,0.18713589012622834,-0.12659016251564027,0.060558807104825976,0.12468605488538742,0.017947807908058168,0.18071532249450684,-0.054878924041986468,0.16145142912864686,-0.05086269974708557,-0.05628633126616478,-0.05684130638837814,0.09456785023212433,0.09984998404979706,0.026217171922326089,-0.01899269036948681,-0.1648666262626648,0.3444264531135559,0.011440049856901169,0.08971548825502396,0.09369189292192459,-0.07698442786931992,0.233608677983284,-0.07990175485610962,0.00305057386867702,-0.1733178049325943,-0.08214016258716583,-0.29319730401039126,0.06091747805476189,0.19733402132987977,0.007410367485135794,-0.026870116591453553,-0.11250583827495575,0.07494115829467774,-0.1652742326259613,0.038465626537799838,0.15046410262584687,-0.10069384425878525,-0.03809407725930214,-0.048598017543554309,0.12048643082380295,-0.07795330137014389,-0.03808620572090149,-0.13340769708156587,0.10049934685230255,-0.09995990246534348,-0.029745526611804963,0.26276662945747378,0.1942550241947174,-0.06090560555458069,0.07842392474412918,-0.057491153478622439,0.1044691801071167,-0.2029344141483307,0.2169661968946457,-0.09611815959215164,-0.1077156513929367,-0.18066388368606568,0.01639590784907341,0.06344462931156159,-0.1683029681444168,-0.07047878205776215,0.183035209774971,-0.2726433277130127,0.1400340050458908,-0.10304244607686997,-0.03432620316743851,-0.07840165495872498,0.06705480068922043,-0.04301062971353531,0.050344668328762057,0.12629085779190064,-0.1982143372297287,0.08495262265205383,0.2532711327075958,0.25690707564353945,-0.18503691256046296,-0.09296195954084397,-0.1376120001077652,0.14446428418159486,-0.11207030713558197,-0.16070890426635743,-0.025684669613838197,-0.14779826998710633,-0.01340493094176054,-0.3377372622489929,0.1035555973649025,-0.06361512839794159,0.1721685826778412,-0.009464958682656289,-0.04810412600636482,-0.054311301559209827,0.14435617625713349,0.16345997154712678,-0.1158294826745987,0.12996125221252442,0.08429627120494843,-0.22441188991069795,-0.03343351185321808,0.08841375261545181,0.1214120164513588,0.12634386122226716,0.018064353615045549,0.09847832471132279,0.05075909569859505,0.14167220890522004,0.2805405259132385,0.1268775314092636,-0.02346634492278099,-0.10764673352241516,0.1671784371137619,0.30799081921577456,0.00395029503852129,0.04204121604561806,0.07719102501869202,-0.01693659834563732,0.06949660181999207,0.08890103548765183,0.09666859358549118,-0.13839194178581239,0.09198131412267685,0.15826581418514253,0.0903267189860344,-0.33202335238456728,0.0016871950356289745,0.12361164391040802,-0.013993925414979458,-0.04967688024044037,0.11440955847501755,0.0751996636390686,0.1596883237361908,-0.1586674451828003,-0.09287170320749283,-0.15173988044261933,0.10897444933652878,-0.18771886825561524,-0.07308616489171982,0.11341620981693268,-0.032506637275218967,-0.021216407418251039,0.05145220831036568,-0.11158056557178498,-0.17646104097366334,0.07836081832647324,0.03916580602526665,-0.19628773629665376,0.04499110206961632,0.18853794038295747,-0.10924404859542847,-0.02406793087720871,0.09720154851675034,0.0897664874792099,-0.11037552356719971,0.1492154598236084,-0.10880229622125626,0.059962354600429538,0.23725742101669312,0.22564011812210084,-0.18359753489494325,-0.212065190076828,-0.013511110097169876,0.118749238550663,-0.07594185322523117,0.0693262368440628,0.1195782795548439,0.07622149586677551,-0.025473400950431825,-0.1238248273730278,-0.07266546040773392,-0.07224608957767487,-0.23501144349575044,-0.23626300692558289,0.070458322763443,0.04708543047308922,-0.19873346388339997,-0.1059018075466156,0.24056506156921388,-0.27117425203323367,-0.019662009552121164,-0.15823467075824738,-0.06503532081842423,-0.19086140394210816,-0.04054425656795502,0.15053942799568177,-0.04358400031924248,-0.05819941312074661,-0.22410400211811067,-0.15368904173374177,0.02601659670472145,-0.11271913349628449,0.09496401250362396,-0.2266618311405182,0.0026646023616194727,0.15972205996513368,-0.05345536768436432,-0.13618788123130799,-0.3006291687488556,0.26470717787742617,0.1719726324081421,0.011245557107031346,0.15592825412750245,-0.11471877247095108,-0.415678471326828,-0.01362014003098011,0.07496152073144913,0.00939902663230896,-0.08803229033946991,0.009117006324231625,-0.10291790962219238,-0.2750698924064636,0.17179366946220399,-0.16598162055015565,-0.04817299172282219,-0.07608451694250107,0.053305771201848987,0.044089630246162418,-0.3223996162414551,0.22808361053466798,-0.03116363286972046,-0.08905407786369324,-0.0548003725707531,-0.00439914595335722,-0.04090398922562599,0.06480897963047028,0.1248433068394661,-0.12965719401836396,0.27469080686569216,0.1767265498638153,-0.14090043306350709,0.062093667685985568,-0.2597537636756897,-0.06953498721122742,-0.00828109122812748,0.11237932741641998,0.02443944662809372,-0.1458379328250885,0.07486596703529358,-0.08655156195163727,-0.016183963045477868,0.07940111309289932,0.08667100965976715,-0.08105660229921341,-0.2149561494588852,-0.2079409807920456,0.18327514827251435,0.16492731869220735,-0.2130763828754425,-0.05724230036139488,-0.12981046736240388,0.08885479718446732,0.048312958329916,0.08454635739326477,-0.3459753394126892,-0.05279636010527611,-0.23469989001750947,-0.12668199837207795,-0.09652414172887802,-0.28153112530708315,0.0903177335858345,-0.011316066607832909,0.0051350281573832039,0.09064197540283203,-0.2528851330280304,0.04784151911735535,-0.10345394909381867,-0.10150204598903656,0.19459763169288636,-0.009210810996592045,-0.30852600932121279,-0.12143499404191971,0.0006547303637489677,-0.04689144343137741,-0.07772409170866013,0.18757760524749757,-0.018678568303585054,0.045491404831409457,-0.2512816786766052,0.07998283952474594,-0.09714926779270172,0.4670902490615845,-0.21337731182575227,0.10296094417572022,-0.1990988403558731,-0.16570129990577699,0.2135177105665207,-0.04223030433058739,-0.05247048661112785,-0.3127440810203552,0.08610346913337708,-0.00912395678460598,0.14026494324207307,-0.06042688712477684,-0.11465360224246979,0.012705067172646523,-0.26225751638412478,0.10275006294250488,0.10887458920478821,0.10693912953138352,0.23328979313373567,-0.25655415654182436,-0.03996262699365616,0.21364597976207734,-0.04853762686252594,0.07793913036584854,0.15121595561504365,-0.21599018573760987,0.028486518189311029,0.019908439368009568,-0.22298182547092439,-0.032592181116342548,0.0020824545063078405,0.20325186848640443,0.04555007815361023,-0.1917603760957718,-0.006526204291731119,0.10988854616880417,-0.06462952494621277,0.24621295928955079,0.0564982034265995,-0.2966764569282532,0.20199577510356904,-0.036933086812496188,-0.07459143549203873,0.036373499780893329,0.08216072618961334,0.010254639200866223,-0.14926093816757203,-0.047963157296180728,-0.03133145347237587,-0.09009890258312226,-0.07116297632455826,-0.0642317458987236,-0.03550076484680176,0.15268513560295106,-0.0809963122010231,-0.16233262419700623,0.013547124341130257,-0.27106449007987978,-0.22146575152873994,-0.07840707898139954,-0.024478744715452195,0.08518082648515701,0.25268861651420596,0.03939957171678543,0.17883692681789399,0.0012892342638224364,0.09880304336547852,0.22610867023468018,0.19183841347694398,-0.05200562998652458,-0.1636572778224945,-0.03152076154947281,-0.12453167885541916,-0.04159889742732048,0.13976764678955079,-0.00036658812314271927,-0.27722418308258059,-0.2015596479177475,-0.06360681354999542,-0.07042451202869415,0.12272398173809052,0.15876464545726777,0.16073712706565858,0.42238226532936098,-0.03062228299677372,-0.23906569182872773,0.1938086897134781,-0.21777573227882386,0.07908793538808823,0.10800385475158692,0.21886593103408814,-0.019315751269459726,0.0048097604885697369,0.09333634376525879,0.09562115371227265,-0.027017341926693918,-0.023867398500442506,0.17267711460590363,-0.12699630856513978,0.09266113489866257,-0.0663934201002121,-0.1186874583363533,-0.06519744545221329,-0.16777056455612184,-0.12087655812501908,-0.18434415757656098,0.2963378429412842,0.06064896658062935,0.2500649392604828,0.15951000154018403,-0.09213169664144516,-0.1936374306678772,-0.2994168996810913,-0.2354997992515564,-0.040730398148298267,-0.15236952900886537,-0.1466417759656906,-0.009596210904419423,0.01686820015311241,0.13747261464595796,-0.19844092428684236,0.15052731335163117,-0.10973633080720902,-0.07125645875930786,0.26854026317596438,0.2753291428089142,0.22958660125732423,-0.010869222693145275,-0.19765672087669373,0.11286415904760361,0.09770441055297852,-0.01952388882637024,-0.19143636524677277,0.08835914731025696,-0.07271504402160645,0.14911527931690217,0.29584193229675295,-0.15740734338760377,0.21745507419109345,0.01908768340945244,0.048906147480010989,-0.10818793624639511,0.0363076776266098,0.18807004392147065,0.20414111018180848,-0.23052193224430085,-0.15831509232521058,0.22042353451251985,0.01904679276049137,-0.04874040558934212,-0.03982938453555107,0.13110429048538209,0.03772123530507088,0.2636711895465851,-0.1565818190574646,-0.02874201163649559,0.03934290632605553,0.0843949168920517,0.15596948564052583,0.08116262406110764,-0.1437189131975174,0.007443265523761511,-0.1559540182352066,0.058029212057590488,0.024352198466658593,0.013378878124058247,0.12551304697990418,0.0937541201710701,0.06521991640329361,-0.08877384662628174,0.03478006273508072,0.0645364373922348,0.13811752200126649,-0.08167561143636704,0.004783522337675095,0.03793949633836746,-0.276583731174469,-0.2453102320432663,0.12626871466636659,-0.03149421885609627,-0.13502749800682069,0.19731749594211579,0.02661592699587345,-0.13619887828826905,-0.0727338194847107,0.12200428545475006,0.14151501655578614,-0.0805554986000061,-0.2305004596710205,0.08082875609397888,0.13241061568260194,-0.23877272009849549,-0.04417344927787781,-0.26430612802505495,-0.06353472173213959,-0.008810028433799744,-0.07272624224424362,-0.06401617079973221,-0.04640068858861923,0.10948485136032105,0.02573586255311966,0.15920133888721467,-0.15984773635864259,0.0010652925120666624,-0.2327934354543686,-0.14483025670051576,0.09408960491418839,0.008511745370924473,0.007208590395748615,0.15806061029434205,0.06724054366350174,-0.04776044934988022,-0.0024989505764096977,-0.06863836944103241,0.07646369934082031,-0.05479232966899872,-0.14303764700889588,-0.013967727310955525,-0.055711135268211368,-0.08356697857379914,0.06515341252088547,0.14113613963127137,-0.22431647777557374,0.33987659215927126,-0.0033380412496626379,0.24794840812683106,0.006533200386911631,-0.03873651102185249,0.12713110446929933,0.01392279751598835,0.15175166726112367,-0.08926837146282196,0.0264455433934927,-0.12574033439159394,-0.03218908980488777,-0.26945894956588747,-0.17549176514148713,0.13946428894996644,-0.09171847999095917,0.18983255326747895,0.059284500777721408,0.05796682462096214,0.04736931994557381,-0.14136651158332826,0.09158286452293396,0.024237463250756265,-0.1818113923072815,0.1170993372797966,0.10552464425563812,0.30689215660095217,0.26256096363067629,-0.003324545919895172,0.11125965416431427,0.21238568425178529,0.002056251047179103,0.09926111996173859,0.026463346555829049,-0.023268550634384157,0.08528759330511093,0.025623619556427003,-0.17233523726463319,-0.13235774636268617,-0.35242760181427,0.15142957866191865,0.025071881711483,0.0827459990978241,0.1196034848690033,-0.06934197247028351,-0.07842192053794861,-0.12067704647779465,0.22516947984695435,0.3815787136554718,-0.20164766907691956,0.14682771265506745,-0.24228182435035706,0.19061774015426637,-0.11833000183105469,0.024757424369454385,-0.04016149416565895,-0.02454478107392788,-0.41050827503204348,0.12116772681474686,0.056654661893844607,-0.16156020760536195,-0.1641187071800232,0.25181707739830019,0.059910986572504047,0.27443379163742068,-0.12943316996097566,0.18124985694885255,0.2500806450843811,0.2541112005710602,0.22246037423610688,0.03424253687262535,0.10658193379640579,-0.18590813875198365,0.10937388241291046,-0.07710424065589905,-0.12304823100566864,-0.08482445776462555,-0.2809944450855255,0.05521253123879433,0.16325786709785462,-0.019476525485515596,0.1315261572599411,0.03516892343759537,-0.03033042885363102,-0.23006802797317506,0.11080237478017807,0.10534501075744629,0.06025935709476471,0.005039657931774855,0.01485359389334917,0.038829006254673007,-0.013123839162290097,-0.020645469427108766,0.22532477974891663,-0.09700597077608109,-0.15244846045970918,-0.0859593078494072,0.13190259039402009,0.17464828491210938,0.04979783296585083,0.3713938593864441,-0.019931422546505929,0.0696280300617218,0.02670496329665184,-0.2223626971244812,-0.1682228446006775,0.02675008773803711,0.1276383250951767,0.05907637998461723,-0.09354245662689209,0.09359913319349289,-0.2275972217321396,-0.03128872066736221,0.049354635179042819,0.12912777066230775,-0.006334379781037569,0.17117688059806825,0.13010548055171967,0.07607889920473099,0.15390263497829438,0.17113909125328065,0.009964337572455407,-0.4614770710468292,-0.10423421859741211,-0.05919508635997772,0.03216802328824997,-0.17183922231197358,-0.01835707575082779,0.07575097680091858,-0.04482902213931084,0.027798956260085107,0.06795720010995865,-0.05361079424619675,-0.23179693520069123,0.16998086869716645,-0.16077518463134767,0.08307952433824539,-0.18527229130268098,-0.1445460170507431,0.017370712012052537,0.13420593738555909,0.2281353771686554,0.1254148781299591,-0.1956736147403717,-0.11164172738790512,0.005267104133963585,-0.09834755212068558,-0.02994455397129059,-0.009231853298842907,0.06288202106952667,-0.07422690093517304,-0.18405020236968995,0.006732460111379623,0.09418468922376633,0.0884895995259285,-0.14809095859527589,0.21956171095371247,-0.017139481380581857,0.09725024551153183,0.04092925041913986,0.021973369643092157,-0.1091160848736763,0.06409160792827606,-0.030207587406039239,-0.09868399798870087,-0.028401248157024385,0.27437353134155276,0.0428631529211998,0.5042736530303955,-0.25554779171943667,0.05853195860981941,0.16280312836170197,-0.04248046875,