{"Layers":[{"Weights":[-0.02039453573524952,0.2192196249961853,0.027601731941103936,0.193744957447052,-0.06809015572071076,0.19536417722702027,0.068600133061409,-0.2898147404193878,-0.24212037026882173,0.11792166531085968,0.021907862275838853,0.17105424404144288,-0.19528982043266297,0.012027108110487461,-0.2429589331150055,-0.18643197417259217,-0.050882235169410709,0.02580866776406765,-0.021456098183989526,0.07727587968111038,-0.12634436786174775,-0.07367312163114548,-0.07706297934055329,0.16118304431438447,-0.23905161023139954,0.28908947110176089,0.14181652665138246,-0.08345741778612137,-0.17375555634498597,0.06544257700443268,0.09472000598907471,0.044286537915468219,-0.10316555202007294,0.11978425830602646,0.028749750927090646,0.1856222152709961,0.09235849231481552,0.18471889197826386,-0.10903807729482651,-0.16853393614292146,-0.13530351221561433,-0.03845043480396271,0.006364752538502216,-0.4405699372291565,0.013787300325930119,-0.08504863828420639,-0.2601545751094818,-0.007924559526145459,0.03562134504318237,-0.05019385740160942,0.2894975244998932,0.06427870690822602,-0.02748108096420765,0.17684383690357209,-0.016664931550621988,0.171066015958786,-0.11006159335374832,-0.11978457868099213,0.026703091338276864,-0.12927527725696565,-0.12383370846509934,0.10631417483091355,0.1652614325284958,0.039991430938243869,0.020251872017979623,-0.1668718457221985,-0.11572430282831192,0.08124351501464844,-0.04361351951956749,-0.02483641356229782,-0.1302638202905655,0.25304755568504336,0.029424211010336877,0.00896461308002472,0.1729668825864792,0.16518671810626985,-0.08928102254867554,0.0013857778394594789,0.08007121086120606,0.2792382538318634,0.27193862199783327,-0.3447195291519165,0.028660764917731286,0.21601568162441255,-0.01795188896358013,-0.05352194234728813,-0.001149598858319223,0.008148718625307083,-0.10873216390609741,-0.16941773891448975,0.11440403759479523,0.02687867358326912,0.17261433601379395,0.12264268845319748,0.14349867403507234,0.33812999725341799,-0.0836576372385025,0.1613626480102539,0.017317527905106546,-0.046482767909765246,-0.36432895064353945,-0.028773771598935128,-0.07901749014854431,0.01164152380079031,-0.09635993838310242,0.013079130090773106,0.029410172253847123,-0.13431966304779054,-0.21646550297737122,-0.1873011440038681,0.34182053804397585,-0.1746273934841156,-0.11526703834533692,-0.2906700372695923,-0.14065994322299958,0.10670425742864609,0.015756918117403985,-0.15924954414367677,0.018911268562078477,-0.23246413469314576,-0.08710598945617676,-0.21943536400794984,-0.12214184552431107,-0.11627427488565445,-0.32766395807266238,-0.026878148317337037,-0.26519396901130679,-0.19993376731872559,-0.33748188614845278,0.09430092573165894,0.13154301047325135,-0.05012870952486992,-0.14330041408538819,-0.09387966245412827,-0.014832466840744019,-0.06428887695074082,-0.002962783444672823,0.2248091846704483,-0.0799747109413147,-0.08005640655755997,0.0021108766086399557,-0.16449744999408723,0.007096291985362768,-0.06724537163972855,-0.12845757603645326,0.12681765854358674,0.19276003539562226,0.23315295577049256,-0.002942644990980625,0.06325552612543106,0.1257244348526001,0.014288196340203286,0.008227626793086529,-0.1953914612531662,0.11782067269086838,0.06106008589267731,-0.037536803632974628,0.07500427216291428,0.12353959679603577,0.026462899520993234,-0.003730266820639372,-0.2293412834405899,-0.21843913197517396,0.1387188881635666,-0.23472236096858979,0.17592990398406983,-0.03280989080667496,0.226197749376297,0.07396084815263748,-0.10052739083766937,0.4918435215950012,0.004959280136972666,0.001155806239694357,-0.0660756304860115,0.05117594078183174,-0.10764309763908386,0.11739282310009003,0.18570639193058015,0.29213985800743105,0.12383519113063812,0.15904057025909425,-0.09096329659223557,0.050192661583423617,0.1424534171819687,0.27848348021507265,0.1569594442844391,0.15134935081005097,-0.2849031388759613,0.25574633479118349,0.003810831345617771,-0.044892676174640658,0.21423497796058656,0.3740275800228119,-0.002164897508919239,0.15387234091758729,0.1573811173439026,-0.0056325760670006279,-0.2581830322742462,0.07058781385421753,0.013462252914905548,0.034510135650634769,-0.08452796936035156,-0.08395116776227951,0.01846025325357914,-0.35191836953163149,-0.07319796085357666,-0.21722018718719483,-0.06469587981700897,0.05296150967478752,-0.027364665642380716,0.03938671946525574,0.05334038659930229,0.22672776877880097,-0.12543968856334687,0.09434180706739426,-0.19511276483535767,0.42561104893684389,0.20524367690086366,-0.05025574937462807,0.013897201977670193,0.061680689454078677,-0.1710195094347,0.11871068924665451,-0.2079697549343109,0.25016674399375918,-0.024509817361831666,0.14685101807117463,-0.07869411259889603,-0.08331185579299927,0.03566240891814232,-0.05529991164803505,-0.11870138347148895,0.16886405646800996,0.02796027809381485,0.027248622849583627,0.4386886954307556,0.11432930827140808,0.3487851321697235,0.056600626558065417,-0.2401537299156189,-0.17655225098133088,0.04943469911813736,0.03814742714166641,-0.08147808164358139,0.19535072147846223,0.0839107409119606,0.27150827646255495,0.19685639441013337,-0.10810983926057816,-0.2503800392150879,0.05574692785739899,0.2393684685230255,-0.06305890530347824,-0.28199881315231326,-0.2705376148223877,-0.04858104884624481,-0.19372819364070893,-0.0027191881090402605,0.10048292577266693,0.2918667495250702,0.031751848757267,0.08028247952461243,-0.2811509668827057,0.17253683507442475,-0.048646871000528339,-0.12248916923999787,0.014951749704778195,0.00014506558363791555,-0.04139372333884239,0.032542429864406589,-0.2002471685409546,-0.02584497258067131,0.09521917253732681,0.08628472685813904,-0.07919687777757645,0.04883494973182678,0.0127289779484272,0.3738308250904083,-0.15897443890571595,-0.33267074823379519,-0.1084921732544899,0.04313577339053154,-0.33650946617126467,-0.05569562688469887,0.019635962322354318,0.2959017753601074,0.14654584228992463,-0.11998489499092102,-0.3288732171058655,-0.13061203062534333,-0.09761925041675568,0.0510324165225029,0.21402405202388764,-0.03082067146897316,0.16063529253005982,-0.055919818580150607,0.01976056955754757,-0.1303187757730484,-0.06293506920337677,0.10038883239030838,-0.0276692695915699,0.2932583689689636,0.09001648426055908,-0.1861809492111206,0.2707647979259491,-0.255939781665802,0.21933643519878388,-0.05320035666227341,-0.051311880350112918,-0.18377946317195893,-0.11909826099872589,-0.14678612351417542,-0.0020062094554305078,-0.10738325864076615,-0.11652567982673645,0.009169649332761765,0.06049522012472153,-0.20046162605285645,-0.028407566249370576,-0.18156926333904267,0.0772741287946701,0.15497875213623048,-0.1810847520828247,0.19047759473323823,-0.0015058809658512474,-0.016005387529730798,-0.1164059117436409,-0.08206691592931748,0.17562028765678407,0.22512224316596986,-0.09814579784870148,0.24185210466384889,-0.19690707325935365,0.09485965967178345,-0.0068781692534685139,0.05503296107053757,0.17898954451084138,0.1687023639678955,0.3463858664035797,0.04066932573914528,0.18268100917339326,-0.05367068946361542,0.009524932131171227,0.03492925688624382,0.10514727979898453,0.07123877853155136,0.17014670372009278,0.22866801917552949,0.2789669334888458,-0.027572091668844224,0.092630535364151,-0.16431674361228944,-0.29990774393081667,0.21214938163757325,0.03660169243812561,0.058565229177474979,0.11679568141698837,0.10465795546770096,-0.12023336440324784,0.2126713991165161,-0.06960935145616532,-0.1242527961730957,0.005442618392407894,0.1668633073568344,-0.028533002361655237,-0.21850073337554933,0.12658502161502839,0.08368220925331116,0.0473993681371212,0.1698177009820938,-0.1519555300474167,-0.042083196341991428,0.19178366661071778,0.09941879659891129,0.12749959528446198,-0.005255386233329773,-0.05639031156897545,-0.04875008016824722,-0.13475866615772248,-0.1582166701555252,-0.033202189952135089,0.00957017857581377,0.008202819153666497,-0.016205530613660814,0.009552335366606713,0.21052300930023194,0.23930852115154267,-0.03895336017012596,-0.056073859333992007,0.230483740568161,-0.09310518205165863,-0.2140461653470993,-0.2238871306180954,-0.05374729260802269,0.28508469462394717,0.0024359221570193769,-0.16785787045955659,-0.06038110703229904,0.2079378366470337,0.07032864540815354,0.21620602905750276,-0.10069593787193299,0.052330512553453448,-0.2098497897386551,-0.02046569064259529,-0.1662592738866806,-0.11912494897842407,-0.06780986487865448,0.02214767038822174,0.03007550723850727,0.15101957321166993,0.19165626168251038,0.10372354090213776,0.025722535327076913,0.11732833832502365,0.12057659029960633,-0.2499411553144455,0.029992686584591867,0.29654720425605776,-0.2244221419095993,0.1931787133216858,0.10628152638673783,0.3202742040157318,-0.046919241547584537,-0.005799210164695978,0.04046062380075455,-0.13321316242218018,0.2415175884962082,-0.047198280692100528,0.07460411638021469,0.051294732838869098,-0.27128443121910097,0.0966925323009491,0.06918758898973465,-0.06304045021533966,-0.11623340845108032,-0.15639136731624604,-0.10552559047937393,0.15127350389957429,-0.22081680595874787,0.045944590121507648,-0.15092790126800538,0.0761784166097641,-0.06264550983905792,-0.13231436908245088,-0.056841135025024417,-0.29561349749565127,0.05008484050631523,0.01837410219013691,-0.021714357659220697,0.10418590158224106,0.05660681426525116,0.13481497764587403,-0.0740051120519638,0.08862593024969101,-0.21451930701732636,-0.00767869595438242,-0.06460559368133545,-0.10003741830587387,0.012434643693268299,-0.22796931862831117,0.09641610085964203,0.05451878160238266,-0.11137980967760086,0.18475621938705445,0.02586563117802143,0.19369332492351533,-0.07476884871721268,-0.06434543430805206,0.16929961740970612,0.08442174643278122,-0.09687690436840058,-0.07200387120246887,-0.27126091718673708,-0.11618420481681824,0.16040462255477906,-0.0667480081319809,0.04389417544007301,-0.11461485922336579,0.24733641743659974,0.10629865527153015,-0.16014529764652253,0.10264148563146591,0.19734549522399903,0.005934617482125759,-0.258841335773468,0.16029025614261628,0.21514753997325898,-0.25782114267349245,-0.055076438933610919,-0.055546581745147708,-0.24323733150959016,-0.0894545391201973,0.057824134826660159,-0.15463337302207948,0.10681918263435364,0.020202234387397767,0.044928040355443957,-0.02997966669499874,0.0009195064776577055,-0.08657614141702652,-0.051246073096990588,-0.07790615409612656,-0.015406988561153412,0.15415364503860475,-0.08103769272565842,-0.02918122708797455,-0.15821337699890138,0.05619250237941742,-0.002962094498798251,0.13644839823246003,-0.06251830607652664,0.19718153774738313,0.32072263956069949,-0.07541974633932114,-0.15125228464603425,0.19593435525894166,0.11156338453292847,0.02272491343319416,-0.04839104041457176,-0.14730845391750337,0.03484756126999855,0.004198712762445211,0.05487798899412155,-0.13243545591831208,-0.17336732149124146,0.21008703112602235,-0.1240680143237114,0.14993420243263246,0.14289575815200807,-0.08578537404537201,-0.08178046345710755,0.3041408956050873,-0.2241874635219574,0.019738126546144487,0.004219175782054663,-0.06956003606319428,0.019068829715251924,0.02321898378431797,-0.05293794721364975,0.0887441337108612,-0.007164532784372568,-0.0949576273560524,0.1219254806637764,-0.05923251062631607,-0.33342239260673525,0.05932926386594772,-0.10235460847616196,0.038115475326776507,-0.32828742265701296,0.2564029097557068,-0.15586325526237489,0.008756015449762345,0.06640290468931198,-0.05202171579003334,-0.10082154721021652,-0.09829430282115936,-0.25551852583885195,0.08923517912626267,-0.06639133393764496,0.12047113478183747,0.06458329409360886,0.3276139199733734,-0.047958992421627048,-0.03588639944791794,-0.2073347270488739,0.21305790543556214,-0.1750515103340149,0.027137814089655877,0.1396314799785614,0.018532367423176767,-0.26606249809265139,0.053418807685375217,-0.10678563266992569,-0.2906268835067749,-0.08098269253969193,-0.08081553876399994,-0.005634751170873642,-0.009401734918355942,0.11390490084886551,0.21639317274093629,0.19192101061344148,-0.24392777681350709,-0.08654088526964188,0.11552578955888748,0.048550479114055637,-0.130266934633255,-0.10190863907337189,-0.1309855729341507,-0.09869331121444702,-0.15047752857208253,0.058642204850912097,-0.11992369592189789,-0.1677190214395523,0.015062989667057991,-0.0014595857355743647,-0.057319652289152148,-0.0007259662379510701,-0.04793078452348709,-0.17701685428619386,-0.2286847084760666,-0.21565769612789155,-0.049644939601421359,-0.03607848659157753,0.07773589342832566,0.029538262635469438,-0.175283744931221,-0.016573570668697358,-0.06822597235441208,-0.0867837443947792,0.17440477013587953,0.005197783000767231,-0.13814868032932282,-0.16639357805252076,0.1239616870880127,0.08582080155611038,-0.15884175896644593,-0.18465381860733033,-0.13065116107463838,0.06323187798261643,-0.08419283479452133,0.21756143867969514,0.11655332148075104,-0.14437474310398103,-0.06561486423015595,0.12316261976957321,-0.27750179171562197,-0.10302512347698212,0.031789381057024,0.15194380283355714,0.2854321599006653,0.004839452914893627,-0.1954018920660019,0.016892530024051667,0.005940422415733337,0.3747280240058899,-0.18043845891952516,-0.0023880610242486,-0.1680193990468979,0.1845763921737671,-0.17421354353427888,0.12852171063423158,-0.02877146378159523,0.28627413511276247,0.07431937009096146,0.05051326006650925,0.09675931185483933,-0.040049970149993899,-0.008546707220375538,-0.051104068756103519,0.20872335135936738,0.1496027261018753,0.08954449743032456,-0.03649424389004707,-0.33656755089759829,0.10717929154634476,-0.0060456981882452969,0.09311975538730622,-0.15813080966472627,-0.09296335279941559,0.007374032866209745,0.039554376155138019,-0.11946473270654679,-0.09851761162281037,0.11536205559968949,-0.1535738706588745,-0.023961730301380159,0.25051647424697878,-0.0502886064350605,0.1259688436985016,-0.17826013267040254,-0.26085060834884646,-0.01933486945927143,0.12274212390184403,-0.16051946580410005,0.28701603412628176,0.02230779640376568,0.07249249517917633,0.07852648198604584,-0.026104936376214029,-0.0016714954981580377,-0.0419539213180542,-0.015189100056886673,0.12849588692188264,-0.08968155831098557,-0.05002588778734207,-0.008727222681045533,-0.1451890617609024,0.09379778057336807,-0.12855792045593263,0.06912629306316376,-0.10909226536750794,0.4067467153072357,-0.0630343109369278,0.15321847796440125,-0.055618766695261,0.11106900870800019,-0.14528614282608033,0.10684915632009506,-0.1848343014717102,-0.02150517888367176,-0.11022591590881348,0.22636623680591584,0.18164275586605073,-0.054379820823669437,0.0986393615603447,0.07958397269248963,0.09654136747121811,-0.09949050098657608,0.04090805724263191,-0.31987324357032778,-0.2410999983549118,-0.08880865573883057,-0.20854470133781434,-0.3620773255825043,0.15444743633270265,-0.05257420241832733,-0.07615170627832413,0.11413402855396271,-0.08558985590934754,-0.06593567132949829,-0.07308513671159744,-0.07028767466545105,0.04226597025990486,0.1719818413257599,-0.16193681955337525,0.19004017114639283,0.1066633090376854,-0.17663094401359559,0.2668304443359375,-0.02785475365817547,-0.12394196540117264,-0.12722739577293397,0.17116039991378785,-0.11156647652387619,0.15107044577598573,-0.04109130799770355,0.20691834390163423,-0.12378853559494019,-0.031124019995331765,0.026924384757876397,-0.1632840484380722,0.2646828591823578,0.037510503083467486,0.021803850308060647,0.021881047636270524,0.15171600878238679,0.3478708267211914,0.1512840837240219,-0.1332639902830124,-0.15957090258598329,0.050165414810180667,0.06869203597307205,-0.02446325495839119,0.02564423158764839,-0.12747058272361756,0.09864018857479096,-0.20864960551261903,0.02199695073068142,0.12111163139343262,-0.03423015773296356,0.24651062488555909,0.0971800908446312,-0.34340783953666689,-0.00618321867659688,0.07348336279392243,0.04250969737768173,0.13460254669189454,-0.04463062807917595,-0.020823443308472635,0.09583619236946106,-0.08689004182815552,0.0060880654491484169,-0.2601352632045746,0.4370819926261902,0.18383120000362397,-0.1370030641555786,-0.01252759899944067,0.15123452246189118,-0.01556896697729826,-0.13982923328876496,-0.01906590722501278,0.14040213823318482,-0.25573885440826418,0.03935716673731804,0.25029754638671877,-0.11315249651670456,-0.050760526210069659,-0.15237100422382356,0.08453167974948883,0.26062726974487307,-0.07841768860816956,-0.08148229867219925,-0.0784987285733223,-0.3316763937473297,0.07070936262607575,0.3957906663417816,-0.07578092813491821,0.03052460588514805,-0.47908446192741396,0.02973261848092079,-0.09370389580726624,0.11393620073795319,-0.2241593301296234,0.10646630078554154,-0.11359356343746185,-0.07142886519432068,-0.18151280283927918,-0.034498296678066257,-0.09265132248401642,0.12180162221193314,0.11419938504695893,-0.07456561177968979,-0.1928950548171997,0.011230885982513428,-0.0015221143839880825,-0.11329416185617447,-0.09626632183790207,0.048868779093027118,-0.20889493823051454,0.12768979370594026,-0.09399071335792542,-0.09738055616617203,0.11310972273349762,-0.03338683396577835,-0.17979764938354493,0.10270471125841141,-0.1537276655435562,-0.010061439126729966,-0.03941868990659714,-0.05085471272468567,0.06637825071811676,0.13258621096611024,0.18648362159729005,-0.3036946952342987,0.17674830555915833,-0.012501014396548272,0.12748318910598756,0.06417715549468994,0.08966361731290817,-0.016295529901981355,-0.046593014150857928,-0.06343835592269898,-0.05159971863031387,-0.04101197421550751,-0.013953562825918198,-0.24611568450927735,-0.02964329533278942,0.0007290629437193275,0.02839062176644802,-0.03809829428792,0.27890437841415408,0.14633572101593018,-0.2798154950141907,0.14666126668453217,-0.33929356932640078,-0.11850281059741974,-0.03705604374408722,-0.0361296571791172,-0.18779730796813966,-0.24168050289154054,-0.006114443764090538,0.07320542633533478,-0.05223237723112106,0.0975237637758255,0.03545765578746796,-0.1077239066362381,-0.016109691932797433,-0.06122748181223869,0.2348848581314087,0.07711634039878845,-0.23075051605701447,0.030790578573942186,-0.074556365609169,-0.2540413439273834,0.12446390092372894,0.08914386481046677,-0.008052212186157704,-0.02629808336496353,0.17187029123306275,0.08581869304180145,0.03222675248980522,-0.2299233376979828,0.11808577924966812,0.045129552483558658,0.32422658801078799,0.115072101354599,0.4612116515636444,0.1209695041179657,-0.017632823437452318,0.22805678844451905,-0.0444679893553257,-0.12425547093153,-0.06700699776411057,0.09885620325803757,0.008729992434382439,0.11530518531799317,0.04215042293071747,-0.27067771553993227,0.1296291947364807,0.12509816884994508,0.0723787173628807,0.14129281044006349,-0.05117620900273323,-0.11290803551673889,0.13904891908168794,-0.07786132395267487,-0.028955252841114999,-0.005951481405645609,-0.09976036101579666,-0.08782266080379486,0.121676504611969,0.15967777371406556,0.01952517218887806,-0.182855486869812,-0.27453479170799258,0.032786980271339419,-0.08679178357124329,0.018244396895170213,0.1791428178548813,-0.13883337378501893,0.06840591132640839,-0.006877008359879255,0.2881937325000763,-0.07445879280567169,0.15415695309638978,-0.01888616941869259,0.11315375566482544,0.04731021821498871,-0.03928913548588753,0.2715233266353607,0.028882469981908799,0.22597020864486695,-0.08774053305387497,0.1268569380044937,0.09155377000570297,-0.07163434475660324,-0.005085741635411978,0.08573605120182038,-0.31456515192985537,-0.05237290635704994,-0.05897147208452225,0.09100866317749024,-0.0604441873729229,-0.1049237921833992,0.21956264972686768,-0.025850525125861169,-0.002370919333770871,0.14156019687652589,0.023884907364845277,0.14535705745220185,0.2327340543270111,0.03198365867137909,0.20498789846897126,0.02622682973742485,0.22654621303081513,0.22676362097263337,0.07283910363912583,-0.05332811549305916,0.23855926096439362,0.0009262860985472798,-0.011807368136942387,0.2329079806804657,0.0578051395714283,0.05998529493808746,-0.1282559633255005,0.11424089968204498,-0.1436266303062439,0.12708140909671784,0.3370216190814972,0.07148178666830063,0.39406681060791018,-0.1644534468650818,0.1483982503414154,-0.06437741965055466,0.03558998554944992,0.24524688720703126,-0.1848343312740326,-0.03323577344417572,0.30972540378570559,0.2448589950799942,0.09080930054187775,-0.022779107093811036,0.1352996677160263,0.23524506390094758,0.11223551630973816,-0.0559924840927124,0.16832615435123444,0.04828941449522972,0.050351258367300037,-0.10889147967100144,0.10914420336484909,-0.014178276993334294,0.19395381212234498,0.11901099979877472,-0.012692656368017197,-0.08520911633968353,-0.04194983094930649,-0.11548780649900437,-0.004534978419542313,0.1766252964735031,-0.03540552780032158,-0.024732373654842378,0.07210424542427063,0.12620411813259126,-0.09550594538450241,-0.08894408494234085,0.11785493046045304,-0.07607889920473099,-0.018129972741007806,0.14986282587051392,-0.06882105022668839,-0.17853808403015138,-0.17221194505691529,0.043207328766584399,0.17393025755882264,-0.08211343735456467,0.1944430023431778,-0.11720868200063706,-0.15029801428318025,0.030629122629761697,0.004899082705378532,-0.13634300231933595,-0.15644586086273194,-0.23268280923366548,0.08072986453771591,0.10483933240175247,-0.24384759366512299,0.027214329689741136,0.17716124653816224,0.030326982960104944,-0.15079928934574128,0.02755150943994522,-0.031697068363428119,0.08034821599721909,0.03437919542193413,-0.0956711620092392,-0.16276617348194123,0.036892447620630267,-0.22958451509475709,0.24178890883922578,-0.011267704889178276,0.19825699925422669,-0.037151481956243518,-0.09846831858158112,-0.23069283366203309,0.08060450851917267,0.19674737751483918,-0.14810144901275636,0.09747140109539032,-0.09958402812480927,-0.19251962006092072,-0.27044010162353518,-0.07363170385360718,0.01837531290948391,-0.06471499055624008,0.09074172377586365,0.0619409941136837,0.10351966321468353,0.08980754017829895,0.01722726784646511,-0.19749608635902406,-0.2581494152545929,0.1668742448091507,0.12321025133132935,-0.03994414955377579,0.17659899592399598,0.02646275982260704,-0.007845575921237469,-0.0679461732506752,-0.0664992704987526,-0.03316726163029671,-0.12143339216709137,0.34627795219421389,-0.0023122401908040048,-0.07367338240146637,0.11679079383611679,0.16774071753025056,-0.1763625144958496,0.10558178275823593,0.09722718596458435,0.02258586697280407,-0.0364069864153862,-0.039535023272037509,0.00961737334728241,0.1926211714744568,-0.13823668658733369,0.05458831042051315,0.11489565670490265,0.02291976474225521,0.10846995562314987,-0.25308313965797427,-0.08711759001016617,0.15044914186000825,0.007746262010186911,0.025682521983981134,0.06439494341611862,0.18402686715126038,0.24019937217235566,-0.37480366230010989,-0.056871455162763599,-0.1384827345609665,0.1703905314207077,0.035095103085041049,-0.23586657643318177,0.06597277522087097,0.06124935671687126,0.06261945515871048,-0.16625764966011048,0.10465886443853378,0.0819362998008728,-0.0487745925784111,0.08319580554962158,0.05802243947982788,-0.22923564910888673,0.3199257552623749,0.24196702241897584,0.0666670948266983,0.07729275524616242,0.2731659412384033,0.2725566327571869,0.13856688141822816,-0.11588167399168015,0.19676761329174043,0.0556190088391304,-0.08987845480442047,-0.16484656929969788,0.2720916271209717,-0.41455188393592837,0.3397552967071533,0.08082092553377152,-0.1156504675745964,0.023733602836728097,-0.05025717243552208,0.11686567962169647,-0.09272871166467667,0.02548854611814022,0.2766045928001404,0.17493756115436555,-0.24714095890522004,0.2918928563594818,0.06622407585382462,0.022156862542033197,-0.007788890972733498,-0.06611323356628418,-0.24496078491210938,-0.183288112282753,-0.1280902624130249,-0.007919440045952797,0.14830076694488526,-0.38663873076438906,-0.03515326604247093,-0.06590491533279419,0.08938667923212052,-0.0967550128698349,-0.10445372015237808,0.0847051665186882,-0.05455813184380531,-0.27505064010620119,0.10273536294698715,0.13852481544017793,0.0004586367285810411,-0.35717856884002688,-0.13300758600234986,0.07103331387042999,0.004314282443374395,0.014403080567717553,0.07852703332901001,-0.14208832383155824,-0.0046806600876152519,-0.21410861611366273,0.0673837810754776,0.005309274420142174,-0.19073161482810975,0.06929519027471543,-0.11281851679086685,0.11438509821891785,-0.14378178119659425,-0.25463926792144778,0.009807726368308068,0.15562114119529725,0.09494365751743317,0.07527123391628266,0.13301624357700349,-0.13499881327152253,-0.21552662551403047,-0.20841890573501588,-0.04688142612576485,0.1478298306465149,-0.09667092561721802,-0.16869574785232545,-0.4122851490974426,-0.04159180819988251,0.2375619262456894,0.019908912479877473,-0.18967147171497346,0.23415224254131318,-0.08631192147731781,0.13925166428089143,0.2115638107061386,-0.10359722375869751,-0.15338867902755738,-0.03919709473848343,0.08133464306592941,-0.11927855759859085,0.06276074051856995,-0.06450563669204712,0.09656009078025818,0.10438422858715058,-0.040905654430389407,-0.2689306437969208,-0.024661267176270486,-0.0360608845949173,0.08773734420537949,-0.20423361659049989,0.15452167391777039,0.0014859115472063423,-0.028478851541876794,0.07792595028877258,-0.0957864448428154,-0.130083829164505,-0.117997907102108,0.08649369329214096,0.27558499574661257,0.09277786314487457,0.14798852801322938,0.07755165547132492,-0.06224335357546806,0.0038626461755484344,0.1100318506360054,0.053114864975214007,-0.14255481958389283,0.22291645407676698,0.08934418112039566,0.06985577195882797,0.14253123104572297,-0.034716811031103137,0.18583250045776368,0.26359352469444277,0.1748214066028595,0.15077707171440125,-0.2047109454870224,0.1591217964887619,0.12938188016414643,-0.05037212744355202,0.15825636684894563,0.03847476467490196,-0.02880406565964222,-0.05845125392079353,-0.0766245648264885,-0.07976626604795456,-0.11870011687278748,0.11682214587926865,-0.09843624383211136,0.024445421993732454,-0.2593197524547577,-0.19089964032173158,0.37273430824279787,-0.3348543643951416,0.13730476796627046,-0.054495919495821,0.07237634062767029,0.08969784528017044,0.10839454084634781,-0.09064853191375733,0.14372561872005464,0.021759988740086557,-0.1929677277803421,-0.005220148712396622,0.07350602746009827,-0.10868745297193527,-0.14334791898727418,-0.18883588910102845,0.0003802961728069931,0.16983279585838319,-0.04092663899064064,0.009183202870190144,-0.03805271163582802,0.4087603688240051,0.3950159251689911,0.11868409812450409,0.1261560320854187,0.09697487205266953,-0.05037355050444603,0.17373092472553254,0.25874900817871096,0.15842735767364503,-0.12731018662452699,-0.00527391629293561,-0.12432160973548889,0.02443952113389969,-0.05760040879249573,-0.07385751605033875,0.0883445143699646,-0.1808192878961563,-0.12671376764774323,-0.10962347686290741,-0.1551770716905594,0.3323926627635956,0.26952892541885378,-0.10590992867946625,0.10204480588436127,-0.0062587670981884,0.035099755972623828,0.06590446084737778,0.04530380666255951,0.13560238480567933,0.052284035831689838,0.12361536920070648,-0.04430978000164032,0.1798006147146225,-0.12421537935733795,0.015675339847803117,0.09788049012422562,0.014921535737812519,0.09821776300668717,-0.03847074881196022,-0.27666231989860537,-0.049722008407115939,0.027774443849921228,0.13277773559093476,0.26358839869499209,-0.38114291429519656,0.22124187648296357,-0.02729698456823826,-0.26235002279281618,-0.05090896785259247,0.011455564759671688,0.0773865208029747,0.09646454453468323,-0.039100028574466708,0.1889241635799408,0.2293095737695694,-0.10836049169301987,0.13178087770938874,0.10874350368976593,-0.10197635740041733,0.08776820451021195,0.29535555839538576,-0.0013048683758825064,0.18134622275829316,-0.00431687431409955,-0.08361875265836716,0.03997907042503357,-0.14076466858386994,-0.18912778794765473,0.039986755698919299,-0.21272426843643189,-0.15505783259868623,-0.08351366221904755,0.2224723845720291,-0.04676691070199013,-0.20265688002109528,-0.23289988934993745,-0.023177413269877435,0.23309548199176789,-0.15220843255519868,-0.07985035330057144,-0.07510548084974289,-0.06660197675228119,0.19161392748355866,-0.1897176206111908,0.02511339820921421,0.23816423118114472,-0.09519043564796448,0.09484325349330902,-0.19864177703857423,0.027105897665023805,0.1633821725845337,-0.07383974641561508,-0.04045730084180832,0.1550866961479187,-0.033721644431352618,0.38996046781539919,-0.11868749558925629,-0.08393729478120804,0.04188365489244461,0.14850403368473054,0.46870630979537966,0.029999082908034326,-0.05879945307970047,-0.09501373022794724,-0.006542231887578964,-0.04892817512154579,0.11195867508649826,0.23767507076263429,0.08473551273345947,0.009274655021727085,0.027181735262274743,-0.19923990964889527,-0.002564096823334694,-0.1347598433494568,-0.0973215252161026,0.19876651465892793,0.17044173181056977,0.43175244331359866,-0.05913553759455681,-0.38781651854515078,0.11493200808763504,0.07539957761764527,0.2533869445323944,0.2547498941421509,-0.1811506450176239,-0.3057972192764282,-0.11425156146287918,-0.22775843739509583,0.25214219093322756,-0.0331149585545063,0.05562151223421097,-0.06770550459623337,-0.15079891681671143,-0.11870836466550827,-0.278752863407135,0.4471204876899719,0.22243641316890717,-0.07089698314666748,-0.08375794440507889,-0.06703677028417587,-0.03270891681313515,0.04775886610150337,-0.07774936407804489,0.06937355548143387,0.22380565106868745,0.2650810182094574,-0.02456415258347988,0.08213586360216141,0.19829262793064118,0.09201687574386597,0.15652398765087129,-0.257742702960968,-0.10027234256267548,0.13398946821689607,-0.10069139301776886,0.44447436928749087,0.17318755388259889,-0.041402071714401248,0.02823258563876152,0.10515831410884857,0.07563558965921402,-0.11534558981657028,-0.12645010650157929,-0.023537782952189447,-0.16753078997135163,0.04162859171628952,0.11843401193618775,-0.09990758448839188,-0.08754037320613861,-0.20046965777873994,-0.35592812299728396,-0.22910286486148835,-0.21720963716506959,-0.021665124222636224,-0.03208383545279503,0.1449783444404602,-0.321933388710022,0.10534536838531494,0.10139703005552292,-0.0034494686406105758,-0.07950927317142487,0.024989375844597818,-0.08623524755239487,-0.20416903495788575,0.010396067053079605,0.27403485774993899,0.04322008043527603,0.003153593046590686,-0.24961717426776887,-0.0983736515045166,0.03747411444783211,0.08594964444637299,0.21669112145900727,0.1893397867679596,0.0525946170091629,-0.07260964065790177,0.0784735232591629,0.014995677396655083,-0.07260054349899292,-0.10503675043582916,0.08702734112739563,-0.027742238715291024,0.06517162919044495,-0.2003592848777771,0.047152962535619739,-0.23306776583194734,0.078999362885952,-0.2689642608165741,-0.049951981753110889,-0.29682159423828127,-0.14685417711734773,-0.05104953423142433,-0.008511344902217389,-0.04695563763380051,-0.19679468870162965,0.2687934637069702,0.1598362773656845,-0.25466474890708926,-0.14565426111221314,0.1686427742242813,-0.39275774359703066,0.002383067272603512,-0.1871626079082489,-0.2903149127960205,0.3149515986442566,0.20598803460597993,-0.13435566425323487,-0.18565838038921357,0.2500574290752411,0.1481867879629135,-0.09888074547052384,-0.116757333278656,-0.2405852973461151,0.11749321222305298,-0.003655926790088415,0.09101676940917969,-0.024093374609947206,0.05046361684799194,0.1249941736459732,0.13880638778209687,0.02616180293262005,0.20491640269756318,-0.13921695947647096,-0.056100033223629,-0.02063933201134205,-0.17236217856407166,0.2437303215265274,0.18595574796199799,-0.15952304005622865,-0.16138619184494019,-0.2568311095237732,-0.022189682349562646,0.10518013685941696,-0.2013084441423416,0.008310246281325817,-0.19830527901649476,0.03375831991434097,0.06201755627989769,-0.05052652582526207,0.07412552833557129,0.10165877640247345,0.14389106631278993,-0.014539080671966076,-0.09681855887174607,0.012376165017485619,-0.03202157840132713,-0.2758955955505371,-0.15729767084121705,-0.15923741459846497,0.009516566060483456,-0.19111762940883637,-0.1310853511095047,-0.3213927149772644,0.06423487514257431,0.14022965729236604,-0.00923638790845871,-0.19151674211025239,0.15898497402668,-0.28198033571243288,-0.04040386900305748,-0.21288827061653138,0.03421427682042122,-0.27029693126678469,0.170379638671875,0.3339402377605438,0.00685865106061101,-0.18536807596683503,0.43490976095199587,0.024026798084378244,0.26843148469924929,-0.2825796902179718,0.16989460587501527,0.14891555905342103,0.19317930936813355,-0.027413485571742059,-0.13551920652389527,0.27505531907081606,-0.27590906620025637,0.1432795524597168,0.17709855735301972,-0.028562666848301889,0.004775805864483118,0.03344562649726868,0.020419077947735788,0.11326699703931809,0.043764322996139529,0.06763596087694168,-0.09830281883478165,-0.017562109977006913,-0.03572716563940048,0.14985311031341554,0.14600516855716706,-0.023553377017378808,0.07529500126838684,0.14101062715053559,0.10442443192005158,-0.07352472841739655,-0.3054003119468689,0.08847665041685105,0.056898195296525958,-0.3965841233730316,-0.08353905379772186,0.09314807504415512,-0.2036595642566681,-0.06666698306798935,0.022867508232593538,-0.2714870274066925,-0.03586474433541298,-0.038626402616500857,0.22758348286151887,0.3164790868759155,0.02801572158932686,0.06110445782542229,-0.018474379554390909,-0.20302732288837434,-0.04459860175848007,-0.009577170014381409,-0.04257826879620552,0.20383216440677644,0.08156556636095047,-0.10414545983076096,0.08550615608692169,0.09952456504106522,-0.2995547354221344,0.14609523117542268,-0.27089163661003115,-0.24588742852210999,-0.07805388420820236,0.020485272631049157,-0.19723165035247804,-0.037765853106975558,0.08518827706575394,-0.07462412118911743,0.1611459106206894,-0.40793874859809878,0.2044554352760315,-0.30068960785865786,-0.026458309963345529,-0.39398807287216189,0.11225851625204086,-0.1850169599056244,0.25189411640167239,0.16476495563983918,0.14068755507469178,-0.05025385692715645,-0.016999132931232454,0.08223449438810349,-0.14898504316806794,0.2082173228263855,0.2194143831729889,-0.07010591775178909,-0.004026090260595083,-0.02688402123749256,0.043594054877758029,0.05406278744339943,0.12017423659563065,0.2168084979057312,0.07177641987800598,0.012668319046497345,0.008812646381556988,0.029911523684859277,0.09356240928173065,-0.056294042617082599,0.08955486863851547,0.22919337451457978,-0.19903196394443513,-0.01383665855973959,0.05839201807975769,-0.33302775025367739,-0.13007132709026338,0.19193406403064729,-0.18955005705356599,-0.25726038217544558,0.061696022748947147,0.04034211486577988,0.38200512528419497,-0.06631435453891754,0.08463554084300995,-0.1124739944934845,-0.04603083059191704,-0.004498007241636515,-0.28597399592399599,-0.23932147026062013,-0.04737697169184685,-0.019725218415260316,-0.02560928650200367,-0.16576072573661805,-0.08848799020051956,0.015535814687609673,0.08199124783277512,0.06365536898374558,-0.190974622964859,-0.03018047660589218,-0.03114861063659191,-0.07490848004817963,0.05589023977518082,-0.27025434374809267,0.189644917845726,-0.2773510217666626,0.10271681845188141,0.0563272126019001,-0.16964061558246613,0.12588277459144593,-0.07875602692365647,-0.2053307294845581,0.18300384283065797,-0.009641095995903016,0.23302850127220155,0.23991148173809052,0.06970930099487305,0.11567248404026032,-0.05587900057435036,-0.00022829340014141053,-0.10466846078634262,-0.17059069871902467,0.12102463841438294,0.0545816496014595,0.22725459933280946,-0.16563910245895387,-0.0434039831161499,0.30946099758148196,-0.13493724167346955,-0.08714959770441055,-0.02004394121468067,0.08285334706306458,-0.3627452850341797,-0.11714774370193482,-0.0976891815662384,-0.13544893264770509,-0.008074038662016392,0.1414799690246582,0.17640796303749085,0.06186623498797417,0.04938410595059395,-0.07704789936542511,0.06416042149066925,-0.31789714097976687,0.0419144369661808,0.04309751093387604,-0.09608632326126099,0.05152486637234688,0.051978230476379397,-0.04376532882452011,0.2530229389667511,-0.017773138359189035,-0.09599056839942932,0.2473376989364624,-0.007836715318262577,0.011905890889465809,0.13556604087352754,0.19470113515853883,0.19669301807880402,-0.18434831500053407,0.08714824169874191,0.14387604594230653,-0.038719452917575839,-0.10140001028776169,0.08765500038862229,-0.11351297795772553,-0.014942212030291558,0.013283705338835717,-0.12363360077142716,-0.11192769557237625,-0.24887678027153016,-0.06041194498538971,-0.18999087810516358,0.21388816833496095,-0.14041198790073396,0.09001906216144562,0.014705679379403592,-0.07869839668273926,0.023985596373677255,0.18174941837787629,0.18828433752059937,-0.1416786015033722,0.15273027122020722,-0.18386699259281159,0.16257023811340333,0.20119182765483857,0.2169644981622696,-0.052357058972120288,-0.1364031583070755,0.0646018236875534,0.05249318480491638,0.2219088226556778,-0.05194811522960663,-0.20502114295959474,-0.04491480067372322,0.222098246216774,0.1281583458185196,0.10019273310899735,0.11445364356040955,0.11298470199108124,-0.17979592084884644,0.07867463678121567,-0.13817408680915833,-0.02337084338068962,0.1441398561000824,0.0977020114660263,-0.10309712588787079,0.013452168554067612,0.08739263564348221,-0.056858401745557788,-0.08901894092559815,0.17912283539772035,0.05211639031767845,0.19322696328163148,0.21734696626663209,-0.06003054976463318,-0.016161048784852029,-0.029887432232499124,0.2107270359992981,0.009986218996345997,-0.03402524068951607,0.23467706143856049,0.17856431007385255,0.016877327114343644,-0.3159443140029907,0.1586136519908905,-0.03322511166334152,-0.05368947610259056,0.16571088135242463,0.2313683182001114,-0.1472989320755005,0.1243971660733223,-0.04591803252696991,0.04021298512816429,0.1524779349565506,0.3500266373157501,-0.09855596721172333,-0.016905875876545907,-0.16011832654476167,-0.41556110978126528,-0.1105794757604599,0.4571346938610077,0.3371509909629822,-0.00408666068688035,0.09321052581071854,-0.008149341680109501,0.09791184961795807,0.04110673442482948,-0.06625084578990936,-0.15954768657684327,-0.009643002413213253,-0.1103827953338623,0.0020362366922199728,0.18336662650108338,0.39625775814056399,-0.1995445042848587,-0.19624339044094087,-0.10208745300769806,0.060725729912519458,-0.23473262786865235,0.1985182911157608,-0.007771815173327923,-0.01087141316384077,-0.2132832258939743,-0.170664444565773,-0.14437702298164369,0.29282146692276,-0.0773928090929985,0.5388697981834412,-0.009791725315153599,0.21230976283550263,0.0188362468034029,0.08886392414569855,0.16023820638656617,-0.09148150682449341,-0.2311369776725769,-0.06580425053834915,-0.20840595662593842,0.2286314219236374,-0.16995398700237275,0.09777924418449402,0.04311564937233925,0.02633252926170826,0.08814743161201477,-0.3370991051197052,0.015165199525654316,0.13792599737644196,0.18272672593593598,-0.21252988278865815,0.2269452065229416,-0.1570710986852646,-0.1081278845667839,-0.0861225500702858,0.09424512833356857,-0.05455411970615387,-0.1596693992614746,0.052886832505464557,-0.029977787286043168,-0.22802041471004487,-0.166112020611763,0.1670098453760147,-0.19553685188293458,-0.09797421842813492,-0.22402873635292054,0.10764162987470627,0.013403686694800854,0.03274058923125267,-0.08493568003177643,0.29804956912994387,0.13499855995178224,0.012083355337381363,0.15328578650951386,0.1029544249176979,0.1145840734243393,0.0020198917482048275,0.16677120327949525,0.03885532543063164,-0.32277846336364748,0.13966067135334016,-0.10954958200454712,0.14917950332164765,-0.08914254605770111,0.09973803162574768,-0.08951058238744736,0.12864148616790772,-0.04590395465493202,0.14619794487953187,-0.2587049901485443,0.3426387906074524,-0.15815705060958863,-0.10379184782505036,-0.0421500988304615,0.2280726581811905,0.044394057244062427,0.3676968216896057,-0.28855130076408389,-0.15914253890514375,-0.003497293684631586,-0.053848374634981158,0.1277845799922943,-0.23912903666496278,0.0032170312479138376,0.1643473356962204,0.3311152458190918,0.25042617321014407,0.04631152004003525,0.07038404792547226,0.13535621762275697,-0.13458366692066194,0.09954191744327545,0.03123725950717926,0.034893035888671878,0.21190385520458222,-0.11325676739215851,-0.35384243726730349,-0.005113140679895878,0.1487228274345398,0.08092882484197617,0.08803289383649826,-0.20154328644275666,-0.04486442729830742,-0.2478334903717041,-0.1396072655916214,0.07400874048471451,-0.2576654851436615,-0.2582074999809265,0.056289128959178928,-0.14449839293956757,0.11030099540948868,0.15295377373695374,-0.01238884124904871,-0.13871288299560548,0.13875073194503785,0.010143379680812359,0.08433809876441956,0.029991043731570245,-0.10221513360738754,0.1056985855102539,-0.16921506822109223,-0.05939166992902756,-0.2538151741027832,0.17594672739505769,0.0739925429224968,0.07943950593471527,-0.07098198682069779,-0.21430754661560059,-0.025497911497950555,0.01108508463948965,-0.09841597080230713,-0.08549162745475769,-0.10094533115625382,0.06664329767227173,0.2319631427526474,-0.1159101277589798,0.3156685531139374,0.09285782277584076,-0.12077590078115463,0.07033541053533554,-0.21801511943340302,-0.23281987011432649,-0.15400314331054688,0.15560558438301087,-0.10837454348802567,0.0016191394533962012,-0.035476602613925937,-0.016648009419441224,-0.31237107515335085,-0.04924438148736954,0.3867799937725067,0.213970348238945,-0.264126718044281,-0.3323119282722473,0.09945261478424072,0.24265293776988984,-0.0789143368601799,-0.23937928676605225,0.13936202228069306,-0.20253200829029084,-0.22347652912139893,0.08540937304496765,-0.2845669090747833,0.03411147743463516,0.10967658460140228,-0.24559596180915833,-0.07047257572412491,0.014335880056023598,-0.12053024023771286,-0.1811494529247284,-0.0002816238848026842,-0.06089945137500763,-0.09321969002485275,0.04731707647442818,-0.13359196484088899,-0.003837892320007086,-0.04285725578665733,0.18321593105793,-0.08165274560451508,-0.03736002743244171,-0.11867383122444153,-0.03536035865545273,0.338070809841156,-0.021769912913441659,0.05317545682191849,-0.2539726197719574,0.006213096436113119,-0.3963117003440857,-0.1984129101037979,-0.010339493863284588,-0.04437550902366638,0.07647287845611572,0.19081151485443116,-0.02310650609433651,-0.12104671448469162,-0.1786859631538391,-0.12886576354503632,0.007326669525355101,-0.1694144308567047,0.10735977441072464,-0.25052106380462649,0.25113868713378909,0.09159327298402786,0.1890304982662201,-0.017224203795194627,0.06752655655145645,-0.022278597578406335,-0.12109682708978653,-0.038762692362070087,-0.0015759747475385666,0.007857541553676129,0.18489974737167359,0.24449093639850617,-0.11327937245368958,-0.05970665439963341,0.0768502727150917,0.16107378900051118,0.12212435156106949,0.02076609432697296,0.15937866270542146,0.39395633339881899,0.06309111416339874,0.03255645930767059,-0.028399454429745675,0.10209902375936508,0.04133758693933487,0.07115787267684937,-0.1546236127614975,-0.12612269818782807,0.03605785593390465,0.10596274584531784,-0.06877393275499344,-0.24191541969776154,-0.047858744859695438,-0.04645293205976486,-0.24292218685150147,0.04610132426023483,-0.04217279329895973,0.047454189509153369,0.15180444717407227,-0.015726162120699884,0.009048104286193848,-0.02621416375041008,0.012231666594743729,-0.060474835336208346,-0.09711182862520218,0.19812197983264924,-0.17066365480422975,0.09314446151256561,-0.00897134281694889,0.13316743075847627,-0.14305563271045686,0.06176625192165375,-0.18509458005428315,-0.1784353256225586,-0.2018921673297882,-0.19548410177230836,0.35974183678627016,0.03526559844613075,0.0234867874532938,-0.04575016722083092,-0.014892279170453549,0.09494443237781525,0.14485691487789155,0.14985442161560059,0.3198387324810028,-0.16191408038139344,-0.06945027410984039,-0.05531381443142891,-0.13398835062980653,0.041038233786821368,0.19234831631183625,-0.08153634518384934,-0.04761147499084473,0.25486111640930178,-0.16340358555316926,-0.16059750318527223,-0.22525252401828767,0.09226035326719284,-0.25982049107551577,-0.04343381151556969,0.005552647635340691,-0.03958448767662048,0.07629798352718353,0.10012023895978928,-0.21531392633914948,0.18267439305782319,-0.03423395752906799,0.2790288031101227,-0.3562837541103363,0.0849849060177803,0.08048351109027863,-0.007025324273854494,-0.1927407830953598,-0.008523453958332539,-0.3000744879245758,0.008519191294908524,0.011674273759126664,0.2433616816997528,0.004023440647870302,0.12745927274227143,0.10144741833209992,-0.000981838908046484,-0.22353380918502809,-0.080862857401371,0.08421114087104798,0.29862236976623537,0.07485303282737732,-0.20557236671447755,-0.010526294820010662,-0.09034174680709839,-0.07499886304140091,-0.2800658941268921,0.0006117449956946075,0.034987673163414,-0.2522941827774048,-0.013782497495412827,-0.19116851687431336,-0.05148465558886528,0.011213351972401142,0.20447318255901338,-0.030837615951895715,-0.2853960394859314,-0.11828997731208801,0.26927706599235537,-0.07857424765825272,-0.016716837882995607,-0.10707388818264008,0.2088780552148819,0.45636165142059328,-0.08073834329843521,-0.0038409957196563484,0.1291837990283966,-0.048197317868471149,0.05408082529902458,0.15639883279800416,-0.3029009997844696,-0.06406749039888382,-0.03668203949928284,0.14531099796295167,0.02183312550187111,-0.17169392108917237,-0.163078173995018,-0.0649612545967102,0.034161340445280078,-0.1390969455242157,0.1025412455201149,-0.10026118904352188,0.10602878034114838,0.051751650869846347,0.17105193436145783,0.04575995355844498,0.12247364968061447,0.15738120675086976,0.21971365809440614,0.02537417784333229,-0.13292020559310914,-0.05843007564544678,0.17203044891357423,-0.1672980934381485,-0.21008659899234773,-0.011613761074841023,-0.06622157990932465,-0.14326806366443635,-0.026580343022942544,-0.19381900131702424,-0.1167178750038147,-0.20073358714580537,0.2071487307548523,-0.16192683577537538,-0.11094071716070175,-0.10806964337825775,0.08233504742383957,-0.003903399920091033,0.3113582134246826,-0.10638584196567536,-0.16440632939338685,0.11767212301492691,0.21417854726314546,-0.005345297046005726,-0.09806934744119644,0.14813724160194398,0.037778858095407489,0.012793763540685177,0.1140647605061531,0.21256692707538606,-0.09189330041408539,-0.11115901172161102,0.08616368472576142,-0.3310737609863281,-0.11852683871984482,-0.1337386518716812,0.15914230048656465,-0.19384005665779115,-0.05300721898674965,0.03945976868271828,0.018199007958173753,0.5547645688056946,0.19458061456680299,0.03825915977358818,-0.2943126857280731,-0.19968236982822419,0.33918243646621706,-0.27728134393692019,-0.004745486658066511,0.22389455139636994,-0.23787204921245576,0.045555479824543,-0.0351206474006176,0.08523468673229218,0.1069537028670311,-0.27861112356185915,0.08794351667165756,-0.23535136878490449,0.01387700717896223,-0.18486323952674867,-0.18997114896774293,-0.14932116866111756,-0.17112524807453156,0.05855729803442955,0.08827631920576096,0.05028367415070534,0.1518552303314209,0.08113221824169159,-0.17139899730682374,-0.28362202644348147,0.12226139008998871,-0.1311599463224411,-0.12908236682415009,-0.02689604088664055,0.03523525968194008,-0.03875712677836418,-0.07479657232761383,-0.24237804114818574,0.04619945213198662,0.08348872512578964,-0.012834019027650357,0.24398832023143769,0.11145694553852081,-0.13063639402389527,0.14391504228115083,-0.1358267366886139,-0.1606338620185852,-0.20812739431858064,-0.029582129791378976,-0.12109234929084778,-0.04924388602375984,-0.08253806084394455,0.1644877940416336,0.010310099460184574,0.2540760040283203,0.36604398488998415,-0.2839275002479553,0.04205701872706413,0.24399416148662568,0.00017600535647943616,0.0758763924241066,-0.14997519552707673,0.10213487595319748,-0.29317277669906618,0.23626314103603364,0.11228763312101364,0.0892362967133522,0.22590698301792146,0.07356739044189453,-0.09398069977760315,0.09161034971475601,0.18203936517238618,0.2050129622220993,-0.005552924238145351,0.11152571439743042,-0.14780361950397492,-0.14013651013374329,-0.07606800645589829,0.2764573395252228,-0.0462748147547245,-0.02692083828151226,-0.05848192796111107,-0.15469329059123994,-0.2075866311788559,-0.17156673967838288,0.0017444067634642125,-0.1422373503446579,0.06565379351377487,0.08464962989091873,0.09594282507896424,-0.16871663928031922,-0.15609239041805268,-0.015839891508221628,0.0809662938117981,-0.22864601016044618,-0.24532869458198548,0.11012223362922669,-0.04108043760061264,-0.29546231031417849,0.051529597491025928,-0.011044559068977833,0.009223377332091332,0.017638374119997026,0.028142539784312249,-0.05002734437584877,-0.10123658925294876,-0.15770988166332246,0.1865300089120865,0.023077212274074556,0.018382210284471513,0.08357105404138565,-0.13899457454681397,-0.15793296694755555,0.47811567783355715,-0.020542195066809655,0.10464698076248169,0.1318366527557373,-0.053396739065647128,0.011094348505139351,0.2995801270008087,-0.13166123628616334,-0.18029916286468507,0.24560579657554627,0.2596583366394043,0.16345252096652986,0.17272160947322846,0.0645233616232872,-0.19728928804397584,0.1290292888879776,-0.003968453500419855,0.17377305030822755,0.4256618916988373,-0.06704896688461304,0.1566275954246521,-0.11566496640443802,-0.14133857190608979,-0.016329951584339143,0.06951161473989487,-0.08579596877098084,0.11596991866827011,-0.16205653548240663,-0.12887154519557954,0.0748262032866478,0.2728445529937744,0.0826617032289505,0.21398712694644929,0.09983385354280472,0.0631830245256424,0.09130556881427765,-0.12842059135437013,-0.005915251560509205,-0.13609999418258668,-0.1268613189458847,0.13825738430023194,0.08636117726564408,-0.17679646611213685,0.000024573419068474323,-0.17492781579494477,0.16504254937171937,0.08679099380970001,0.20249615609645844,0.06774142384529114,0.12268427014350891,-0.22913722693920136,-0.003099667141214013,0.13367442786693574,-0.12878763675689698,-0.11035322397947312,-0.044098831713199618,0.22371037304401399,-0.030827483162283899,0.09643126279115677,0.0020153638906776907,-0.06726445257663727,0.13681600987911225,0.04906298592686653,0.2487904578447342,-0.1430296003818512,-0.09662409871816635,0.034005407243967059,-0.13039112091064454,-0.11317284405231476,-0.3218938708305359,-0.1717308759689331,-0.15958860516548158,-0.09257153421640396,0.17504678666591645,-0.1585690826177597,0.061912842094898227,0.1013922467827797,-0.13177305459976197,-0.012464825995266438,-0.07021249085664749,0.0402950718998909,-0.044651784002780917,-0.012065677903592587,-0.17746078968048097,0.1568106710910797,-0.21819621324539185,-0.20810307562351228,-0.23264123499393464,-0.2515905201435089,0.13084998726844788,-0.15839393436908723,-0.24266329407691956,-0.1046813577413559,-0.002298790030181408,-0.05928432196378708,0.07573253661394119,0.26294445991516116,0.18944190442562104,-0.07969080656766892,-0.08176130801439285,-0.14174923300743104,0.059635914862155917,-0.11662544310092926,0.03428714722394943,-0.1794956773519516,0.07732193917036057,0.04092193767428398,0.08451303094625473,0.005467096343636513,0.039648741483688357,-0.07544557005167008,-0.08053971827030182,0.052368633449077609,0.07224633544683457,0.18593861162662507,0.013566305860877037,-0.3055266737937927,-0.053596481680870059,0.0962100476026535,-0.07189882546663284,-0.060323867946863177,-0.09609504044055939,-0.1159515455365181,-0.2554013133049011,0.010080582462251187,0.2501823306083679,0.08062233030796051,-0.22685213387012483,0.03208565339446068,0.09022504836320877,-0.06091209501028061,-0.0483425036072731,0.157839834690094,0.03823257237672806,0.057946398854255679,-0.2260245382785797,0.08960505574941635,-0.10844843834638596,-0.25126805901527407,-0.08634573966264725,-0.07506663352251053,0.1802251935005188,0.08442595601081848,-0.09947314858436585,-0.050048720091581348,0.07381491363048554,-0.1827349215745926,0.07994376122951508,-0.06279082596302033,0.1112951785326004,0.1777500957250595,0.09910731762647629,0.048877768218517306,0.04966149479150772,0.1204339936375618,0.03549962118268013,-0.08521831780672074,0.05394500494003296,-0.07149048149585724,0.345887690782547,0.13994859158992768,-0.2331610918045044,0.10359390079975128,0.07287266850471497,-0.06258603930473328,-0.07561158388853073,0.21791115403175355,-0.1185579001903534,0.0876498818397522,0.06073806807398796,0.07560788094997406,0.015038497745990754,-0.22779664397239686,-0.14949320256710053,-0.13860775530338288,-0.02297433279454708,0.1783418506383896,0.11505527049303055,0.018341975286602975,-0.3470499515533447,0.2875758111476898,0.07643706351518631,0.09089265763759613,0.03311562538146973,-0.014007356949150563,-0.0039002031553536655,-0.22533690929412843,0.14782197773456574,-0.17327237129211427,-0.174845352768898,0.02069690264761448,0.04176129028201103,0.15818317234516145,0.19456972181797028,0.16740019619464875,0.13675765693187715,-0.35536643862724306,-0.01898648589849472,-0.19512434303760529,0.03176301345229149,-0.01217324286699295,0.13514241576194764,-0.07221353054046631,-0.1677967607975006,-0.03361939638853073,0.07250569760799408,0.0323781780898571,-0.2065037488937378,-0.18471524119377137,0.17155572772026063,-0.0222025066614151,0.000720626674592495,0.07221758365631104,0.029798977077007295,-0.2198931872844696,-0.13916651904582978,0.057194534689188007,-0.11941073834896088,-0.07112313061952591,-0.08639240264892578,0.09765982627868653,-0.011194429360330105,-0.06678272783756256,-0.21481305360794068,-0.1368342638015747,-0.3999643623828888,-0.2595122158527374,0.12101837247610092,-0.36102375388145449,0.07766572386026383,0.09819735586643219,0.048322226852178577,-0.018665848299860956,-0.09604953974485398,0.12206903100013733,-0.11057458072900772,-0.060451406985521319,-0.13164326548576356,-0.11214238405227661,-0.19345861673355103,0.11197564005851746,0.021368378773331643,-0.06614787876605988,0.14797736704349519,0.26306700706481936,0.11124752461910248,-0.07768754661083222,-0.12931929528713227,0.09954331070184708,-0.15935470163822175,-0.2149554342031479,0.25431013107299807,0.4192450940608978,0.08645038306713104,-0.12461954355239868,0.18142876029014588,0.17711907625198365,-0.19427749514579774,0.22871026396751405,0.056479670107364658,0.077946238219738,0.15305504202842713,-0.07836680859327316,0.02716323733329773,-0.19593282043933869,0.05043072998523712,-0.09484977275133133,-0.08814776688814163,0.2128235101699829,-0.05282529070973396,0.43210548162460329,0.0007497280603274703,-0.22083663940429688,-0.5098596215248108,-0.17705006897449494,-0.06818398833274842,0.07774731516838074,0.31914404034614565,-0.2132033258676529,-0.0172793697565794,-0.15620584785938264,-0.003244825406000018,-0.049577947705984119,0.28030261397361758,-0.039272427558898929,-0.05771692842245102,-0.11258227378129959,0.02288609743118286,-0.27828249335289,-0.20037895441055299,0.15696017444133759,0.28183770179748537,0.1873023360967636,-0.24527810513973237,0.12851865589618684,-0.03441651538014412,-0.05054794251918793,0.105687715113163,0.1363011598587036,0.4642563462257385,-0.18334631621837617,-0.22663019597530366,0.0409301221370697,0.10594229400157929,-0.2030983567237854,-0.3041272759437561,-0.04833728447556496,0.023867780342698098,-0.10934394598007202,0.29138508439064028,-0.016533609479665757,-0.04161351919174194,0.08027391135692597,-0.13528850674629212,-0.03225065395236015,-0.2214011251926422,-0.0836636945605278,-0.12476587295532227,-0.013097415678203106,-0.03526148945093155,0.07422858476638794,-0.09709985554218292,-0.4134441912174225,-0.0034460988827049734,0.30106109380722048,0.04307079315185547,-0.2606649398803711,-0.09404657781124115,-0.03815694898366928,0.14977234601974488,0.12167789041996002,0.00737319141626358,0.05213363096117973,-0.3493475019931793,0.043334998190402988,0.00913289189338684,0.07943113893270493,-0.015066646039485932,-0.10962497442960739,0.17295695841312409,-0.1966506987810135,0.011076514609158039,-0.011503452435135842,0.01688634231686592,-0.17604130506515504,-0.12418761104345322,-0.05967707931995392,0.056055959314107898,0.1735755056142807,-0.1992495357990265,0.054541219025850299,0.003203447675332427,-0.09535299986600876,-0.19026638567447663,0.042120642960071567,0.2916666567325592,0.18497490882873536,0.18183854222297669,-0.23228929936885835,-0.07725394517183304,0.054213039577007297,-0.12865331768989564,-0.14166364073753358,0.25670143961906435,0.1000138595700264,-0.201346293091774,-0.07087177038192749,-0.17258286476135255,-0.0841553807258606,-0.20817478001117707,-0.15975387394428254,0.1936030089855194,0.03587590903043747,-0.016917016357183458,-0.11363924294710159,0.10666615515947342,0.07445986568927765,-0.13043685257434846,0.07097035646438599,-0.12485835701227188,0.13283061981201173,-0.009951611049473286,0.06303199380636215,0.07629705965518952,-0.026438934728503228,-0.05170413851737976,0.060822997242212298,0.2603285610675812,0.05984637886285782,-0.20458896458148957,-0.18220961093902589,0.10993561893701554,-0.13412773609161378,0.21400046348571778,-0.270384281873703,-0.07877673208713532,-0.21347969770431519,0.31558284163475039,-0.02212480828166008,0.14702381193637849,-0.09953103214502335,-0.12028910219669342,-0.15113312005996705,0.04518509656190872,-0.023189067840576173,0.04620294272899628,-0.041085463017225268,0.1188790500164032,-0.15708811581134797,-0.20218023657798768,-0.20556311309337617,0.061730362474918368,-0.11558619141578675,-0.07517071813344956,-0.03292335569858551,0.23601080477237702,0.3592560291290283,-0.11575653403997421,-0.2814963757991791,-0.047500018030405048,0.018879618495702745,-0.049720775336027148,0.012647498399019242,0.0123872309923172,-0.015847664326429368,-0.05266885831952095,0.06224554404616356,0.19360606372356416,0.08832868188619614,-0.20186194777488709,0.0554763525724411,0.07064761966466904,0.0456789992749691,-0.1489921361207962,-0.009843140840530396,-0.2266867458820343,-0.48821061849594118,0.027390044182538987,0.11393600702285767,0.23539869487285615,0.01946266181766987,0.021902071312069894,0.00010341279266867787,-0.005969400517642498,0.032188691198825839,-0.03965803608298302,0.12190515547990799,-0.11728616058826447,0.0670231431722641,0.03160862252116203,0.21428735554218293,-0.051700808107852939,0.09318706393241883,-0.07830863445997238,0.09453725069761276,-0.040021806955337527,0.227446049451828,-0.06223686784505844,0.3344395160675049,-0.18178178369998933,-0.12383585423231125,-0.1475769728422165,0.059391722083091739,-0.3995177447795868,-0.0018383357673883439,0.24165861308574677,-0.16239580512046815,-0.36037203669548037,-0.04354528337717056,-0.21374978125095368,0.1661653071641922,-0.006038041319698095,0.1376814842224121,0.08939790725708008,-0.11613500863313675,0.04085283726453781,0.00888755638152361,0.13236920535564423,0.046681374311447147,0.09089973568916321,0.1908077895641327,-0.050622083246707919,0.09634048491716385,0.0014912531478330494,0.18553397059440614,0.08756601810455322,-0.31953665614128115,0.15786391496658326,-0.05577405169606209,-0.21006512641906739,-0.1614503711462021,0.176591157913208,-0.11282707750797272,-0.2487429529428482,-0.0716937929391861,-0.24963505566120149,-0.14481619000434876,0.08494941890239716,0.057151712477207187,0.005433416925370693,-0.11155234277248383,0.22190183401107789,-0.16367456316947938,0.22905093431472779,0.030157186090946199,-0.12835600972175599,-0.12592877447605134,-0.2308148890733719,0.09343621879816055,-0.16782009601593018,0.05464157462120056,0.13680875301361085,-0.07884953916072846,0.053522344678640369,-0.27043309807777407,0.031216783449053766,-0.18993297219276429,0.1566227674484253,0.20883697271347047,0.03974537551403046,0.035719022154808047,0.21221329271793366,0.16670037806034089,0.1634669303894043,-0.1350765973329544,0.09452768415212631,0.31787437200546267,0.12405138462781906,0.183184415102005,-0.043683335185050967,0.05283217504620552,-0.16671867668628694,-0.09207500517368317,-0.1108192652463913,0.043693117797374728,0.09992894530296326,-0.027700811624526979,-0.26904991269111636,0.02906070277094841,-0.04912557452917099,-0.20428411662578584,0.12810483574867249,-0.020197980105876924,0.07213325053453446,0.21508605778217317,0.030174922198057176,-0.11148819327354431,-0.0040403916500508789,0.35056158900260928,-0.12745080888271333,-0.0678495392203331,-0.09956244379281998,0.12712562084197999,0.06781382113695145,-0.193675234913826,0.01889672316610813,-0.1669268161058426,0.08080433309078217,-0.12812098860740663,0.01850825734436512,0.0953257605433464,0.09956403076648712,0.24385634064674378,0.07182978093624115,-0.22643908858299256,-0.11298787593841553,-0.0049577136524021629,0.11749434471130371,-0.09322424978017807,-0.026997122913599016,0.30513593554496767,0.03055637702345848,-0.07559403032064438,-0.020342478528618814,0.10848850756883621,0.06348581612110138,-0.04844921454787254,0.13434715569019319,0.1595717966556549,0.04371507093310356,0.0747712254524231,0.11872430890798569,-0.10354425758123398,0.0035070038866251709,-0.257842481136322,-0.11319670081138611,0.07035646587610245,0.20744094252586366,0.04062814638018608,0.1204744353890419,-0.08537827432155609,0.20252133905887605,0.04078216478228569,0.041983433067798617,0.08297781646251679,0.02449614368379116,-0.13825561106204987,-0.07005766034126282,-0.08224376291036606,0.03461180999875069,0.14328721165657044,0.043565165251493457,-0.0512329563498497,-0.10627013444900513,0.1432575285434723,-0.05452645570039749,0.07945838570594788,0.15351897478103639,0.07908265292644501,-0.17389236390590669,0.02671966701745987,-0.11954975873231888,0.054186202585697177,-0.13532420992851258,0.05031558871269226,-0.1526467651128769,-0.03400729224085808,-0.08284302800893784,0.09399846196174622,0.05491248890757561,-0.13486725091934205,-0.1092539057135582,0.1261122226715088,-0.10756109654903412,-0.1387508362531662,0.15218357741832734,0.18172946572303773,0.05439934879541397,0.1133003830909729,-0.20262308418750764,-0.08812277019023895,-0.08918147534132004,0.05951648950576782,0.20599976181983949,-0.13460823893547059,-0.16720812022686006,0.3147432506084442,0.15005654096603394,0.06306266039609909,-0.1479516178369522,-0.17819058895111085,-0.22093559801578523,0.08787883818149567,0.1207418367266655,-0.23433361947536469,-0.2549944818019867,-0.09100298583507538,-0.07761909812688828,-0.12796439230442048,0.04508758336305618,-0.06155510991811752,-0.1063571497797966,-0.21884727478027345,-0.20307327806949616,0.03614015877246857,0.24793964624404908,-0.11644449830055237,0.15658029913902284,0.08565018326044083,-0.04865075647830963,-0.09567379206418991,-0.039053261280059817,-0.17639201879501344,0.15473203361034394,-0.06781739741563797,0.0653679147362709,0.10251645743846894,-0.09355351328849793,0.14667052030563355,0.08064379543066025,-0.39506539702415469,0.16970756649971009,-0.02845957688987255,0.0189271941781044,-0.02253611385822296,0.07380058616399765,0.09932095557451248,-0.05900375545024872,0.1209491491317749,-0.15590393543243409,-0.13620330393314362,0.18629087507724763,0.1518869698047638,-0.27367064356803896,-0.05503356084227562,-0.12121845781803131,0.012015393935143948,-0.17155127227306367,-0.1741510033607483,0.030179841443896295,0.08782081305980683,-0.004051371477544308,0.06343738734722138,-0.17445781826972962,-0.06325950473546982,0.31421878933906557,-0.08972165733575821,0.18734338879585267,0.13876719772815705,0.16801124811172486,0.09336797893047333,-0.007318886928260326,0.10994519293308258,0.010768068954348565,0.07635097205638886,0.04951730743050575,0.012829894199967385,-0.018240153789520265,0.0778975859284401,0.010230963118374348,0.10558723658323288,0.00930444523692131,0.12715956568717957,-0.004660328384488821,0.10923095792531967,0.19633740186691285,0.3340699374675751,0.09572020918130875,-0.10876066982746124,0.06594839692115784,-0.046675655990839007,-0.0011288467794656754,0.041719358414411548,-0.14885477721691132,-0.05967577174305916,0.008984781801700592,0.05762137472629547,-0.02465270273387432,-0.010995843447744847,0.060795143246650699,-0.028446393087506295,-0.08721286803483963,0.020374374464154245,-0.03920552879571915,-0.06751231849193573,0.010104008950293064,0.25932496786117556,-0.0924813374876976,-0.09443115442991257,-0.09918482601642609,0.11575834453105927,-0.296484112739563,0.1712966114282608,0.05312056466937065,0.022181272506713868,0.09141486138105393,-0.1828502118587494,0.23533831536769868,0.2529628276824951,0.11637280136346817,-0.20687949657440186,0.2534487545490265,-0.1768660694360733,0.08881133049726486,-0.28549087047576907,0.3269859254360199,0.11445461958646774,0.0921304002404213,0.048223827034235,-0.1152898520231247,-0.2184789925813675,0.06739237904548645,0.4990534782409668,0.04015370085835457,-0.3380616307258606,0.15673121809959413,0.015599587932229042,-0.059285733848810199,-0.050264883786439899,-0.19250735640525819,0.008376323617994786,0.01054571382701397,0.04491090774536133,0.11663283407688141,-0.05643680691719055,0.06848765909671784,0.01835382543504238,0.2970392107963562,-0.009460275061428547,0.20932680368423463,0.22322633862495423,0.0319051630795002,-0.2752831280231476,0.013459048233926297,-0.07016069442033768,-0.133479505777359,-0.002079419558867812,-0.3133375644683838,-0.014345340430736542,-0.1707857996225357,0.12808476388454438,0.11444716155529022,-0.004018467850983143,0.10103336721658707,0.09342290461063385,0.015469522215425969,0.17717595398426057,0.15197297930717469,0.13327635824680329,0.08459703624248505,0.1258402168750763,0.22864560782909394,0.09367620944976807,0.1539565771818161,0.18835417926311494,0.03052372671663761,-0.08667431771755219,-0.0868486613035202,0.06794686615467072,-0.04566044732928276,-0.1499805897474289,-0.13096711039543153,0.1187407374382019,0.2072320580482483,-0.13812927901744843,0.003964639268815517,0.40042632818222048,-0.016730979084968568,0.17476946115493775,-0.18950869143009187,0.08000068366527558,0.03730395436286926,-0.015521074645221234,-0.021480917930603029,-0.05409014970064163,0.12315841764211655,0.06091931462287903,-0.02605920284986496,-0.03993258997797966,-0.07476828247308731,0.059280261397361758,0.12850703299045564,-0.05646064504981041,0.03758610785007477,0.04046401008963585,-0.1260722130537033,-0.07308028638362885,0.11134561151266098,0.013394433073699475,-0.0929991826415062,-0.0012994199059903622,0.0035371037665754558,0.04586872458457947,-0.130654975771904,0.08809540420770645,-0.11687590926885605,-0.19003325700759889,0.11405207216739655,0.14245398342609406,-0.001839719363488257,0.028715716674923898,-0.19096793234348298,0.06123289093375206,0.31644320487976076,0.12966352701187135,0.43735814094543459,-0.07763630151748657,0.019102120772004129,-0.21643878519535066,0.12390337139368057,0.2989393472671509,0.049137696623802188,0.06242607906460762,0.1606765240430832,0.06971898674964905,-0.0674595758318901,-0.08985074609518051,0.032334618270397189,0.005807143170386553,0.11538035422563553,0.21126694977283479,0.009040935896337033,-0.3664589524269104,-0.0542883463203907,-0.08272837102413178,-0.08440784364938736,0.16245849430561067,-0.1369553953409195,-0.07036399841308594,-0.027597980573773385,0.11762220412492752,-0.0952206701040268,0.12078335881233216,-0.07312114536762238,0.22715939581394196,0.18494969606399537,0.1442948877811432,-0.039649393409490588,-0.012426195666193962,0.16356316208839417,-0.18033406138420106,0.216629758477211,-0.15828873217105866,0.42344963550567629,0.1268095076084137,-0.3315275013446808,0.11709589511156082,0.22371844947338105,0.05532367527484894,-0.10986586660146713,0.11398738622665405,0.09058767557144165,-0.10587337613105774,0.1263047307729721,-0.2582257091999054,-0.18537504971027375,0.0027974790427833797,0.17070718109607697,0.08189183473587036,-0.3794773519039154,0.02203291654586792,-0.055825404822826388,-0.1902734935283661,0.09393978863954544,-0.21838563680648805,0.3191761076450348,-0.28283753991127016,0.2212868183851242,0.11979550123214722,0.004469342064112425,-0.2512136399745941,0.003501619677990675,0.11102008819580078,-0.2929139733314514,-0.009440778754651547,-0.1169094517827034,-0.15244802832603455,-0.1603706032037735,-0.21412843465805055,0.3220376670360565,-0.105433389544487,0.01289206463843584,0.09296386688947678,-0.1351383924484253,-0.19978149235248567,-0.1057446226477623,-0.001386028015986085,-0.06197274848818779,0.1431942731142044,0.03966657444834709,0.06929529458284378,0.23078055679798127,0.21089522540569306,-0.03405862674117088,0.018704485148191453,0.4105662405490875,-0.5100679397583008,-0.08914557099342346,-0.009084250777959824,-0.06779225915670395,0.09434979408979416,0.220060333609581,0.03333716839551926,0.06632883846759796,-0.05700743943452835,0.3443743586540222,0.02176535688340664,-0.022833503782749177,-0.07793540507555008,0.00437250966206193,0.20241130888462068,-0.0734473466873169,0.0419221892952919,0.1302872747182846,0.11030291765928269,0.011976785026490689,-0.11202311515808106,0.1948963701725006,-0.09977202862501145,0.05427365005016327,-0.20862114429473878,-0.05037488788366318,-0.19824840128421784,-0.031079884618520738,-0.2413751184940338,0.4038181006908417,0.20734909176826478,0.035906434059143069,0.1359744369983673,0.11453304439783097,-0.2044171690940857,-0.14818346500396729,0.021307552233338357,-0.028002861887216569,0.12299495935440064,-0.10321018099784851,-0.0020217064302414657,-0.1499505639076233,0.1622883826494217,-0.062242668122053149,-0.14501899480819703,-0.4266843795776367,0.18193228542804719,0.002941975835710764,-0.09189631044864655,0.3449145555496216,-0.10478885471820831,-0.01136738806962967,-0.35897141695022585,0.0036188107915222646,-0.04639881104230881,-0.2126435488462448,0.32736092805862429,0.13850994408130647,-0.34339454770088198,0.034574784338474277,-0.01003500260412693,-0.2557753920555115,-0.06803705543279648,-0.04155882075428963,-0.16442126035690309,-0.11614234000444412,0.09310905635356903,0.07095823436975479,-0.20183171331882478,-0.1143566146492958,0.24732789397239686,0.1850583702325821,0.2572343647480011,-0.11024428904056549,0.08887198567390442,0.023581357672810556,-0.026721397414803506,-0.21783778071403504,-0.12861096858978272,0.1123732328414917,0.14478380978107453,0.21270710229873658,-0.30303627252578738,-0.1276436299085617,-0.029290689155459405,0.4175155460834503,0.28095701336860659,-0.06059771776199341,-0.1574878990650177,-0.007737498264759779,-0.23116013407707215,-0.04805620387196541,0.092811718583107,0.16529414057731629,-0.026546457782387735,0.07828794419765473,0.004479648545384407,-0.20134572684764863,-0.1012704074382782,-0.0058089387603104118,0.02517067641019821,0.031677957624197009,-0.10724715143442154,-0.22922080755233766,-0.28340452909469607,-0.23321063816547395,0.24948574602603913,0.022787006571888925,0.0805831030011177,-0.2936878502368927,0.17758287489414216,0.11815941333770752,-0.023036791011691095,-0.23196463286876679,0.03653890639543533,-0.07869306951761246,0.15715144574642182,0.1278342306613922,-0.0050698756240308289,0.2243157923221588,0.01677001640200615,0.14987130463123322,-0.20713873207569123,-0.24297915399074555,0.118550144135952,0.07660140097141266,0.03524283319711685,-0.1871625781059265,-0.0396798774600029,-0.25758883357048037,-0.033133409917354587,0.009806839749217034,-0.23562362790107728,0.1376304179430008,-0.11623082309961319,-0.09250973910093308,-0.15968625247478486,0.03054557926952839,-0.046961624175310138,0.2598446309566498,-0.14333875477313996,-0.2437056005001068,0.001065446762368083,-0.07920065522193909,-0.015298710204660893,0.09199923276901245,-0.15843915939331056,-0.03335096314549446,0.2820611894130707,-0.018593505024909974,0.0227164588868618,-0.3047061860561371,0.15674935281276704,0.14415901899337769,0.052554190158843997,-0.0594475083053112,0.011531691998243332,-0.08356887102127075,-0.004557977896183729,-0.04380900785326958,0.05354291573166847,-0.07553423196077347,0.30990028381347659,-0.05867147073149681,0.15098120272159577,-0.027780113741755487,-0.001641743816435337,0.01117649395018816,-0.014963945373892784,-0.21358926594257356,-0.20814521610736848,0.2796020805835724,-0.03548714518547058,-0.0017216051928699017,-0.13266517221927644,0.25470277667045596,0.05242001637816429,-0.07819142192602158,-0.02352065220475197,0.04133186861872673,0.07116345316171646,0.0767141729593277,0.14598287642002107,-0.09533165395259857,-0.21873417496681214,-0.41441610455513,0.07864446938037873,0.09578478336334229,0.22874872386455537,0.05217467620968819,-0.11035364121198654,-0.03199009224772453,-0.25305747985839846,-0.2426750808954239,-0.048446279019117358,-0.019392380490899087,-0.09984999895095825,-0.2959628701210022,-0.35606124997138979,-0.13827268779277802,-0.029936358332633973,-0.1407294124364853,0.021692022681236268,0.16417622566223145,0.21564003825187684,0.12449855357408524,-0.36382684111595156,-0.27501311898231509,-0.08526797592639923,-0.04506808891892433,0.16718095541000367,-0.00770923076197505,0.016988147050142289,-0.003906316589564085,-0.0028423028998076917,-0.09103638678789139,-0.15163728594779969,0.2662050426006317,-0.008069826290011406,-0.11394920945167542,-0.017844608053565027,-0.22814962267875672,-0.024723626673221589,0.018469762057065965,0.11255539953708649,0.006580885965377092,-0.19278541207313538,-0.01315066684037447,-0.0416388213634491,-0.05265243351459503,-0.01163976639509201,0.08841368556022644,0.011594772338867188,0.07337992638349533,-0.13362179696559907,-0.24646411836147309,-0.2617274820804596,0.07488995045423508,0.29658234119415285,0.1523495465517044,-0.3857901692390442,-0.12925222516059876,-0.31797394156455996,-0.21425284445285798,-0.14735306799411775,0.12318623065948487,-0.24305550754070283,-0.24608440697193147,-0.09323027729988098,0.03542980179190636,-0.1356910914182663,-0.15005066990852357,-0.016932018101215364,-0.1552623212337494,0.08972790092229843,-0.2005445808172226,0.20889143645763398,-0.14984136819839478,-0.24194717407226563,0.07781732082366944,-0.009720784611999989,-0.03854568302631378,-0.06733570992946625,0.06560251861810684,0.13121700286865235,0.19039815664291383,0.24025821685791017,0.12083891034126282,-0.26394009590148928,0.11238309741020203,-0.08623132109642029,0.1164226159453392,-0.24612396955490113,-0.054543059319257739,0.05094097927212715,0.10113552212715149,-0.14208507537841798,-0.19771812856197358,-0.062384553253650668,0.19919387996196748,-0.19101515412330628,-0.040393490344285968,0.08243168890476227,-0.05788427218794823,0.12358067184686661,0.07077878713607788,0.22063985466957093,0.1943129599094391,-0.5347806811332703,-0.11650442332029343,-0.36686134338378909,0.2621166408061981,0.109585702419281,0.057807836681604388,0.19370338320732118,0.07012638449668884,-0.08749113231897354,-0.12136833369731903,0.13378655910491944,0.06997761875391007,-0.12194816023111344,-0.08918731659650803,0.028516169637441636,0.09595368802547455,-0.0023468153085559608,0.11323783546686173,0.04483037441968918,-0.11416095495223999,-0.11381249129772186,0.06300461292266846,0.07539878040552139,-0.030877115204930307,0.09777440130710602,0.28394514322280886,-0.1822900027036667,-0.13168953359127046,-0.1440284550189972,0.13230717182159425,0.16948631405830384,-0.062432318925857547,-0.077372245490551,0.0432717464864254,0.13776271045207978,-0.08705616742372513,0.12492707371711731,-0.33685779571533205,-0.2245579957962036,0.1310388147830963,0.008966980502009392,-0.03066001646220684,0.22063136100769044,-0.10542546212673187,-0.036159563809633258,0.15174978971481324,0.06689708679914475,0.10250534862279892,0.02539326250553131,-0.0696127861738205,-0.17662037909030915,-0.1288692206144333,0.08967238664627075,0.07741234451532364,-0.11887597292661667,-0.16493679583072663,0.12848016619682313,-0.2752172648906708,0.22844044864177705,0.19903221726417542,0.02738323248922825,0.05132846161723137,0.09809274971485138,0.009576180949807167,-0.20728951692581178,-0.22467082738876344,-0.08307630568742752,0.10106465220451355,-0.01832706481218338,0.0006445363978855312,0.14807748794555665,-0.023117879405617715,-0.12311230599880219,0.06562851369380951,0.04401633143424988,0.25494685769081118,-0.3560734987258911,-0.03284746780991554,-0.22776588797569276,0.033946443349123,0.35795482993125918,0.1310548037290573,-0.04185251146554947,0.41734638810157778,0.1536085605621338,0.19844993948936463,0.04099526256322861,-0.16134288907051087,0.10963328927755356,-0.04417509213089943,-0.040237247943878177,-0.1494475156068802,-0.11599244922399521,0.07697977870702744,-0.0117971021682024,-0.08725970983505249,-0.1225336492061615,0.034354064613580707,-0.03396549075841904,0.0573355108499527,0.054324984550476077,-0.20863337814807893,-0.020142752677202226,-0.1074003353714943,0.2843916416168213,0.2493756115436554,0.030365949496626855,0.0038025814574211838,0.018037846311926843,-0.15334784984588624,-0.11102494597434998,-0.22365330159664155,0.10310474783182144,0.05031035467982292,0.13444510102272035,-0.11441712826490402,-0.2585565447807312,-0.2636811435222626,-0.15949970483779908,-0.08516743779182434,0.18290235102176667,-0.39249569177627566,-0.1908067762851715,-0.0011408498976379634,0.07705074548721314,-0.0170148853212595,0.26256221532821658,-0.20212072134017945,0.07532694935798645,-0.12305904179811478,0.3167765140533447,-0.05742685869336128,0.13846877217292787,0.031087664887309076,-0.22169183194637299,0.2283770740032196,-0.09985291212797165,0.004019880201667547,-0.06543198227882385,-0.21286772191524507,-0.07632703334093094,0.03922595456242561,0.18804770708084107,-0.05645591765642166,0.013678571209311486,0.21259108185768128,0.29932788014411929,0.09800483286380768,0.07376617193222046,0.0979662537574768,-0.150800883769989,0.3288595378398895,-0.09694008529186249,0.055573299527168277,-0.18194474279880525,0.025458112359046937,-0.020551886409521104,0.03502913564443588,-0.03324082866311073,0.18131615221500398,0.022200115025043489,-0.014814339578151703,-0.03692561388015747,0.3189648687839508,0.09621331840753555,-0.23254351317882539,0.18789203464984895,-0.3491918444633484,-0.017827481031417848,-0.0623449943959713,0.1799110323190689,0.03586664795875549,-0.02650057151913643,0.2784079909324646,0.29279273748397829,0.09917782992124558,-0.004445202182978392,-0.2019769698381424,0.1021633967757225,0.075456902384758,-0.050392720848321918,-0.12320930510759354,0.08979549258947373,-0.15486285090446473,0.011048843152821064,-0.025642473250627519,-0.08857040107250214,-0.059006575495004657,-0.3508965075016022,-0.2672344148159027,-0.08501563966274262,-0.0067195044830441479,0.21179987490177155,0.24449422955513,0.18968519568443299,0.02412576787173748,0.03373479098081589,-0.1720733642578125,0.009441948495805264,0.0998668521642685,0.12337622791528702,-0.1873811036348343,-0.2600191533565521,0.004088873974978924,-0.21616274118423463,0.03498537093400955,-0.2896266281604767,-0.1477760523557663,0.0955163910984993,0.09207538515329361,0.0025844736956059934,0.09623544663190842,-0.19561569392681123,-0.007373238913714886,-0.05321264639496803,0.05922119691967964,-0.024778025224804879,0.07178585976362229,-0.046900708228349689,-0.06780697405338288,0.1954439878463745,0.2279406487941742,-0.03907127305865288,0.03246782347559929,-0.12871547043323518,0.1063568964600563,0.16714082658290864,-0.19026891887187959,0.04881977662444115,0.04244954511523247,-0.1072210893034935,0.059893958270549777,-0.04308125004172325,0.2073514610528946,0.2572556138038635,-0.23721469938755036,-0.007332012988626957,-0.43759146332740786,0.2151227742433548,-0.06457055360078812,-0.10196182131767273,0.17924119532108308,0.17188061773777009,-0.11904203146696091,-0.20388177037239076,0.10892358422279358,0.2249491661787033,-0.014178105629980564,-0.20093190670013429,0.26100829243659975,-0.04086726903915405,-0.06457769125699997,-0.18432338535785676,0.04679705202579498,-0.1017000824213028,0.0931360051035881,-0.1381995677947998,-0.01261189579963684,-0.04575488343834877,-0.06645160168409348,0.031190194189548494,0.006508362013846636,-0.0621664859354496,0.0721176415681839,-0.0030389633029699327,0.043018098920583728,0.25699537992477419,0.12954455614089967,-0.12766729295253755,-0.08392314612865448,0.1647167205810547,-0.18151956796646119,0.2368651032447815,-0.08539269119501114,-0.12555114924907685,-0.021928783506155015,0.3698422908782959,0.00965888611972332,-0.14855821430683137,-0.06756016612052918,-0.24130287766456605,-0.23384325206279756,0.14968690276145936,0.19923657178878785,0.0388985313475132,-0.24564030766487122,0.009062649682164193,-0.17543260753154756,0.23201324045658112,0.23537027835845948,-0.2796732485294342,0.16172407567501069,-0.19483168423175813,-0.10221556574106217,0.10458885878324509,0.02082865871489048,0.10651446878910065,-0.1343933343887329,0.0012604956282302738,0.08964662998914719,0.1511368304491043,0.12916678190231324,0.14946073293685914,0.11867824196815491,-0.07347219437360764,0.04090449586510658,-0.06985098123550415,0.04151901230216026,-0.16449537873268128,0.24266047775745393,0.12136286497116089,-0.1509256213903427,0.11900825798511505,0.3938192129135132,0.00018862284196075052,-0.09081170707941055,0.0071943821385502819,-0.3382617235183716,0.33778178691864016,0.10694537311792374,0.11889674514532089,-0.07540588825941086,0.09699534624814987,-0.1748686283826828,-0.001911612693220377,0.10180901736021042,-0.030977627262473108,-0.17535556852817536,-0.05239666625857353,0.1814529150724411,-0.2589433193206787,0.10320095717906952,-0.29830828309059145,-0.01091659627854824,-0.04461823031306267,-0.023355036973953248,0.15204238891601563,0.12674009799957276,-0.17024989426136018,-0.08775286376476288,0.1341029703617096,0.077214315533638,-0.015753168612718583,-0.17508898675441743,0.16745337843894959,0.061732228845357898,-0.018597425892949106,-0.2480190098285675,-0.08169307559728623,-0.016336485743522645,0.015150824561715126,0.025145068764686586,-0.09463536739349365,0.21375307440757752,0.06422699987888336,0.1943323314189911,-0.06175332888960838,0.013468809425830841,0.11329098790884018,-0.08682619780302048,0.19828005135059358,-0.004002333618700504,0.1271238476037979,-0.1302817165851593,-0.3443754017353058,-0.13622356951236726,0.05452145263552666,-0.18711435794830323,-0.04665829613804817,0.08962047100067139,0.12661126255989076,0.03968400880694389,-0.07437822967767716,-0.11656848341226578,0.014701114036142826,-0.15649156272411347,0.28285759687423708,-0.14781227707862855,0.19462494552135468,0.0688803493976593,0.0817437395453453,0.4210432171821594,-0.15328864753246308,-0.19283829629421235,-0.1994348168373108,0.03929562866687775,0.24928325414657594,-0.01212748046964407,-0.13617141544818879,0.0514339841902256,0.08929131925106049,0.08009299635887146,-0.18952323496341706,-0.01714138314127922,-0.18199971318244935,-0.0979304239153862,0.15878604352474214,0.050948143005371097,-0.21199019253253938,0.031562384217977527,-0.1200624629855156,0.18011240661144257,0.04776851087808609,-0.0984601303935051,-0.18083323538303376,0.12519188225269319,-0.039656151086091998,0.15961790084838868,-0.03775211423635483,-0.057199276983737949,-0.10922934114933014,-0.21544024348258973,-0.25811949372291567,-0.16648364067077638,-0.0442887507379055,-0.10003261268138886,-0.07688359916210175,0.07463500648736954,0.11376281827688217,0.1052740216255188,-0.10585025697946549,-0.17541317641735078,0.18386058509349824,-0.3216608464717865,-0.0591854453086853,0.10305764526128769,0.030015375465154649,0.10748268663883209,-0.21940258145332337,0.22413146495819093,0.02037210203707218,0.18607865273952485,-0.03006957471370697,0.12366103380918503,0.11661884933710098,-0.008214733563363552,-0.3283446729183197,-0.24076864123344422,0.08307285606861115,-0.250902384519577,0.10184267908334732,-0.31972911953926089,0.10350431501865387,-0.11451875418424607,-0.020372968167066575,-0.17328225076198579,0.08500035852193833,-0.006753192283213139,0.11649573594331742,-0.06656796485185623,-0.04305752366781235,-0.11846324056386948,-0.2951943278312683,0.137053444981575,0.05091884732246399,-0.07580637186765671,0.08634888380765915,-0.13080593943595887,-0.21627852320671082,-0.15467001497745515,-0.04677911102771759,0.24583026766777039,-0.0002239623572677374,-0.19597484171390534,0.1759912073612213,-0.05225316807627678,-0.07073159515857697,-0.36661994457244875,-0.07195385545492172,0.028556592762470247,-0.07902073860168457,-0.022207437083125116,0.05859217420220375,-0.19409452378749848,-0.06452912837266922,0.10787441581487656,0.10410214215517044,-0.07013828307390213,-0.12415902316570282,-0.19381140172481538,-0.18642252683639527,-0.03943429887294769,0.15238970518112184,-0.03009730577468872,-0.21113494038581849,-0.18875612318515778,0.09936118870973587,0.05569945275783539,0.024532049894332887,0.15713776648044587,-0.026025159284472467,-0.08187582343816757,0.15219298005104066,0.2841663360595703,0.08465524762868881,0.19208331406116486,0.0009847150649875403,0.15324944257736207,0.15156544744968415,-0.20134040713310243,0.06347198039293289,0.1250971555709839,-0.26694634556770327,0.1314317286014557,-0.04604382812976837,0.3429532051086426,0.1943061500787735,-0.10671883821487427,-0.0805494636297226,0.059192802757024768,-0.07262355834245682,0.2912915050983429,0.02589360997080803,0.04540230333805084,-0.09033270925283432,0.1477665901184082,-0.3400447368621826,-0.1910320669412613,-0.2773381173610687,-0.11052625626325607,-0.021710235625505449,0.25670620799064639,-0.20794333517551423,0.022654039785265924,-0.19876238703727723,0.2120664268732071,0.15537679195404054,-0.16333544254302979,0.15473662316799165,0.15732994675636292,0.2626650631427765,0.04683590680360794,-0.18708042800426484,-0.2866416871547699,-0.08726805448532105,0.10330972075462342,0.15989959239959718,0.24590927362442017,-0.09402596950531006,-0.2287578284740448,0.0972478836774826,0.08326598256826401,-0.17199066281318665,-0.045566171407699588,-0.2027331441640854,0.04351310431957245,0.0026849415153265,-0.15451112389564515,-0.1649368554353714,0.022684376686811448,0.09895382076501847,-0.1260368674993515,0.023075878620147706,0.07436308264732361,0.04924597591161728,0.3036392331123352,-0.08608207106590271,-0.31487002968788149,0.14663657546043397,-0.03839873522520065,0.10496041178703308,0.12961892783641816,-0.19505459070205689,-0.17481735348701478,-0.02004488930106163,0.015269302763044835,-0.033311545848846439,-0.05735141411423683,0.057867664843797687,0.28129130601882937,0.05839423090219498,-0.02483707293868065,0.04566383361816406,0.24714480340480805,-0.1934731900691986,0.10617207735776901,0.07845459133386612,-0.012235632166266442,0.10064152628183365,0.29349732398986819,-0.32999956607818606,0.005969951394945383,0.004352141637355089,-0.06318024545907974,0.06398814916610718,-0.06609688699245453,-0.36389607191085818,0.04686152562499046,-0.19969142973423005,0.12389099597930908,-0.18849731981754304,-0.24415847659111024,0.1548600196838379,-0.09882861375808716,0.1147184893488884,-0.23460142314434052,-0.043130431324243548,-0.10338016599416733,-0.05860186740756035,-0.1660904437303543,0.13688988983631135,0.07377663999795914,-0.07517391443252564,-0.10149598866701126,0.1809796243906021,0.11238516122102738,-0.13053728640079499,0.13472987711429597,0.17928823828697205,-0.2021588534116745,-0.1248755231499672,0.013493796810507775,-0.2547565698623657,0.10314912348985672,-0.009231851436197758,-0.07777148485183716,-0.058407582342624667,0.12011291831731796,0.18844734132289887,-0.12650921940803529,0.06267999857664108,0.12637163698673249,0.017049919813871385,0.1815095692873001,-0.05256189405918121,0.16093188524246217,-0.04574872553348541,-0.04988115280866623,-0.05578601732850075,0.09389188885688782,0.10575804114341736,0.025255320593714715,-0.01575033739209175,-0.16524584591388703,0.349609911441803,0.012585176154971123,0.09183558076620102,0.09396664053201676,-0.07464927434921265,0.23488907516002656,-0.07788948714733124,0.007680702488869429,-0.17167338728904725,-0.08215129375457764,-0.2896665036678314,0.06056605651974678,0.20019911229610444,0.007098454050719738,-0.027425475418567659,-0.11152631044387818,0.07498526573181153,-0.162779301404953,0.040646083652973178,0.15045878291130067,-0.09788882732391358,-0.03799913451075554,-0.048282790929079059,0.1207660660147667,-0.07898277789354325,-0.03611535206437111,-0.13233648240566255,0.10163043439388275,-0.09691493213176727,-0.027093030512332917,0.26816147565841677,0.1964021921157837,-0.06143531948328018,0.07851902395486832,-0.05666988715529442,0.10373296588659287,-0.2002287060022354,0.220370352268219,-0.0983014851808548,-0.10731064528226853,-0.17908182740211488,0.01993315853178501,0.06269737333059311,-0.16452498733997346,-0.06786423176527024,0.1847485452890396,-0.2712889611721039,0.14399337768554688,-0.09757225215435028,-0.03401925042271614,-0.07819809764623642,0.06787680089473725,-0.04196186736226082,0.05363105610013008,0.12716686725616456,-0.19591479003429414,0.08723177760839462,0.25299590826034548,0.2520977258682251,-0.19179914891719819,-0.09715226292610169,-0.13749057054519654,0.14337816834449769,-0.11493349075317383,-0.16379190981388093,-0.022644195705652238,-0.14378535747528077,-0.01613759435713291,-0.3395090103149414,0.10266910493373871,-0.06745883822441101,0.17015007138252259,-0.011084938421845436,-0.051215462386608127,-0.056467205286026,0.14246852695941926,0.15785661339759828,-0.11847075819969177,0.12702079117298127,0.0795871689915657,-0.22493773698806764,-0.03099234215915203,0.0922730341553688,0.12193170189857483,0.12655135989189149,0.010309669189155102,0.09793919324874878,0.051916904747486117,0.13795709609985352,0.28252971172332766,0.1274256557226181,-0.02656344510614872,-0.10591930150985718,0.1682819277048111,0.3084491193294525,0.0022540343925356867,0.036696258932352069,0.07314450293779373,-0.021605640649795533,0.06804467737674713,0.08602967113256455,0.09838888794183731,-0.13986113667488099,0.0867721363902092,0.15490995347499848,0.09063932299613953,-0.3261983394622803,0.0012099064188078046,0.11777296662330628,-0.012597410008311272,-0.049295537173748019,0.1156240850687027,0.07041295617818833,0.1552089899778366,-0.1631336510181427,-0.09390076249837876,-0.15550026297569276,0.1085931658744812,-0.1861485093832016,-0.07601162046194077,0.11108104884624481,-0.032011888921260837,-0.02623239904642105,0.04889018088579178,-0.12124254554510117,-0.17989617586135865,0.07434378564357758,0.04331916570663452,-0.19852736592292787,0.043238624930381778,0.1960919350385666,-0.11104096472263336,-0.025053830817341806,0.1020505353808403,0.09146472811698914,-0.10922671854496002,0.1418219953775406,-0.1152520701289177,0.0549575537443161,0.23326165974140168,0.22208677232265473,-0.18561390042304994,-0.2152644842863083,-0.01813952624797821,0.11531297117471695,-0.07709375023841858,0.06571624428033829,0.11738310754299164,0.06941179931163788,-0.026581788435578347,-0.12590327858924867,-0.07214029133319855,-0.07341332733631134,-0.2354508489370346,-0.2360386848449707,0.06932404637336731,0.04075215011835098,-0.2037416696548462,-0.10644203424453736,0.2378646433353424,-0.28047096729278567,-0.028824448585510255,-0.15860335528850556,-0.07362019270658493,-0.19204352796077729,-0.039296962320804599,0.13916651904582978,-0.047711536288261417,-0.059412259608507159,-0.22853223979473115,-0.15587741136550904,0.022760935127735139,-0.11733315140008927,0.09129711985588074,-0.22791093587875367,-0.0022970959544181825,0.15463927388191224,-0.055236443877220157,-0.14083436131477357,-0.30122265219688418,0.25750085711479189,0.17033347487449647,0.00756252883002162,0.15336951613426209,-0.12194519490003586,-0.41719433665275576,-0.0159873329102993,0.07118038833141327,0.008482071571052075,-0.0891861617565155,0.00694254320114851,-0.10578616708517075,-0.2751903235912323,0.16903887689113618,-0.16616976261138917,-0.048402849584817889,-0.08499665558338165,0.04626220837235451,0.041518423706293109,-0.32403290271759035,0.22203569114208222,-0.033441003412008288,-0.08951567858457566,-0.05454106256365776,-0.011513273231685162,-0.04006621614098549,0.05869464576244354,0.11764777451753617,-0.13077257573604585,0.2693346440792084,0.16946862637996674,-0.14262162148952485,0.05887700989842415,-0.2601347863674164,-0.07289713621139527,-0.01275930181145668,0.10397295653820038,0.021069372072815896,-0.14719907939434052,0.07100704312324524,-0.09189748018980026,-0.023437632247805597,0.07921376824378967,0.08214515447616577,-0.08079555630683899,-0.21479643881320954,-0.2120199054479599,0.1895320564508438,0.16073232889175416,-0.20722711086273194,-0.05999648571014404,-0.13182543218135835,0.10715045779943466,0.0463004894554615,0.07557135820388794,-0.34163913130760195,-0.050526078790426257,-0.23678818345069886,-0.12052861601114273,-0.08358634263277054,-0.29306915402412417,0.09284524619579315,0.0016755887772887946,0.005394539330154657,0.08651291579008103,-0.25928691029548647,0.04353005439043045,-0.09743297100067139,-0.09366251528263092,0.2005046159029007,-0.005296212155371904,-0.294913113117218,-0.12231514602899552,0.0015209808479994536,-0.04153546318411827,-0.07554936408996582,0.19923047721385957,-0.028354497626423837,0.03808416798710823,-0.25116080045700076,0.08331224322319031,-0.09489473700523377,0.475663959980011,-0.20142251253128053,0.10245358198881149,-0.20158140361309052,-0.16669774055480958,0.2103196680545807,-0.0354890413582325,-0.05751630291342735,-0.30849209427833559,0.07722826302051544,-0.007263103034347296,0.14391855895519257,-0.060446154326200488,-0.10874190926551819,0.02140164002776146,-0.2701135277748108,0.09830362349748612,0.11074481159448624,0.11151321232318878,0.23427416384220124,-0.23734049499034882,-0.03821230307221413,0.20168152451515199,-0.04236072301864624,0.08598128706216812,0.15491265058517457,-0.20890842378139497,0.033855073153972629,0.014668673276901245,-0.21940188109874726,-0.026024440303444864,0.005558899603784084,0.2110486924648285,0.04770629480481148,-0.19549570977687837,-0.007341212593019009,0.11613662540912628,-0.048839639872312549,0.2509205639362335,0.057238753885030749,-0.2964916527271271,0.2009655237197876,-0.036192283034324649,-0.08833986520767212,0.03460700064897537,0.08337828516960144,0.012343105860054493,-0.1474783718585968,-0.04068625718355179,-0.03718952089548111,-0.09412810951471329,-0.07135959714651108,-0.07013712078332901,-0.03522970527410507,0.14401954412460328,-0.06745901703834534,-0.1557304859161377,0.01514673326164484,-0.27308228611946108,-0.22363758087158204,-0.07097911089658737,-0.033149078488349918,0.10326036065816879,0.25525033473968508,0.031238732859492303,0.16663981974124909,0.019027989357709886,0.11229513585567475,0.2281758338212967,0.20810087025165559,-0.0607149563729763,-0.16412821412086488,-0.0422329343855381,-0.11284514516592026,-0.032269809395074847,0.1400042027235031,0.0059294733218848709,-0.2822097837924957,-0.19869714975357057,-0.05565642565488815,-0.06947566568851471,0.12567664682865144,0.1496029496192932,0.1532408893108368,0.4214528203010559,-0.03700191527605057,-0.24168537557125092,0.18407300114631654,-0.21973828971385957,0.07932465523481369,0.11024024337530136,0.22060877084732057,-0.01633010059595108,0.0016931002028286458,0.09951598942279816,0.09371218085289002,-0.022128893062472345,-0.02639753557741642,0.1736799031496048,-0.12181691825389862,0.0921945571899414,-0.06517789512872696,-0.12571945786476136,-0.05146145820617676,-0.17742499709129334,-0.11770404130220413,-0.18082332611083985,0.2903633713722229,0.053121279925107959,0.2432062029838562,0.1703997552394867,-0.09293831884860993,-0.177428737282753,-0.2965685725212097,-0.21833057701587678,-0.054059576243162158,-0.15431362390518189,-0.13803279399871827,-0.01109671127051115,0.01870543323457241,0.13720092177391053,-0.19833190739154817,0.15700222551822663,-0.11604002118110657,-0.07394398748874664,0.26551714539527895,0.2767883241176605,0.23473219573497773,-0.0124547453597188,-0.1964118629693985,0.10800804942846298,0.09150584787130356,-0.021267088130116464,-0.192064106464386,0.08557747304439545,-0.07729506492614746,0.14656327664852143,0.2963264584541321,-0.16658727824687959,0.2128269076347351,0.017508888617157937,0.04772990569472313,-0.1092563048005104,0.035457026213407519,0.18311052024364472,0.20121891796588899,-0.2274254411458969,-0.16954755783081056,0.21694090962409974,0.017762428149580957,-0.05182678624987602,-0.044049013406038287,0.12996576726436616,0.030076442286372186,0.2595618665218353,-0.16244371235370637,-0.03997381404042244,0.03537456691265106,0.0852300375699997,0.15821473300457,0.08141645789146424,-0.15090276300907136,0.001928378245793283,-0.15845882892608643,0.05872271582484245,0.025064129382371904,0.006483509670943022,0.12107332050800324,0.09301915764808655,0.06533229351043701,-0.08594284951686859,0.03308979049324989,0.0639428198337555,0.14049765467643739,-0.08743546903133393,-0.002027664566412568,0.03512384742498398,-0.2769462466239929,-0.24413971602916718,0.12482099235057831,-0.036438632756471637,-0.13832038640975953,0.193393737077713,0.02134251967072487,-0.13962280750274659,-0.07355947047472,0.1186961829662323,0.13213682174682618,-0.0934501588344574,-0.22701933979988099,0.07762162387371063,0.12759952247142793,-0.24380141496658326,-0.04694435000419617,-0.2695624530315399,-0.061025675386190417,-0.00847164262086153,-0.0704326406121254,-0.06020538508892059,-0.04909633845090866,0.10564121603965759,0.02281133085489273,0.1570100039243698,-0.1554340124130249,-0.003324903082102537,-0.2339179813861847,-0.147732213139534,0.08779630064964295,0.008622991852462292,0.004869392141699791,0.15484283864498139,0.06415262818336487,-0.051725562661886218,-0.001208181376568973,-0.06636012345552445,0.07442954927682877,-0.058773260563611987,-0.1395704448223114,-0.011659710668027401,-0.05135447904467583,-0.08061154931783676,0.06701576709747315,0.1472170501947403,-0.2244492471218109,0.33227935433387759,-0.005060999188572168,0.2461324781179428,0.009803428314626217,-0.04083437845110893,0.12870430946350099,0.017528880387544633,0.15390101075172425,-0.08880498260259628,0.029297983273863794,-0.11557513475418091,-0.03058570623397827,-0.2746613919734955,-0.16576972603797913,0.13785181939601899,-0.09151525795459748,0.19322659075260163,0.06689011305570603,0.05037602037191391,0.04904824122786522,-0.14353904128074647,0.09685182571411133,0.02860872447490692,-0.1804075390100479,0.11214600503444672,0.10179129242897034,0.3077055513858795,0.26523202657699587,-0.0014174478128552437,0.11274243146181107,0.21550796926021577,0.007423511240631342,0.10181503742933274,0.024687884375452997,-0.014666053466498852,0.08634469658136368,0.026509178802371026,-0.17245154082775117,-0.13361315429210664,-0.3509303629398346,0.1449405550956726,0.023275967687368394,0.08649840205907822,0.11935649812221527,-0.06740433722734451,-0.08355926722288132,-0.11406955868005753,0.23131750524044038,0.37985146045684817,-0.2039097249507904,0.146977037191391,-0.24158403277397157,0.18838293850421906,-0.11455414444208145,0.036935120820999148,-0.04524679109454155,-0.023815125226974489,-0.4054078757762909,0.12484610080718994,0.06070978567004204,-0.1525707095861435,-0.16594037413597108,0.2517271935939789,0.05417541787028313,0.2687652111053467,-0.13552923500537873,0.1810096651315689,0.25184106826782229,0.2538791596889496,0.21890363097190858,0.0404105968773365,0.11634241044521332,-0.1822860985994339,0.11144259572029114,-0.07595263421535492,-0.11972805112600327,-0.07819928973913193,-0.2784949541091919,0.05552949383854866,0.1619558483362198,-0.01930970884859562,0.13241757452487946,0.03883179649710655,-0.033103134483098987,-0.23098166286945344,0.1082393005490303,0.10359621047973633,0.060742296278476718,-0.0006893858662806451,0.015057723969221115,0.03668929636478424,-0.011750309728085995,-0.017366115003824235,0.2262125164270401,-0.09509000927209854,-0.1490735411643982,-0.08641751110553742,0.13119204342365266,0.17356379330158235,0.04496488347649574,0.36837708950042727,-0.026076754555106164,0.07188481837511063,0.029772838577628137,-0.2231370061635971,-0.16990722715854646,0.02920226939022541,0.1246754601597786,0.056190311908721927,-0.08905670046806336,0.09582436829805374,-0.22785338759422303,-0.0257291030138731,0.049018677324056628,0.13204781711101533,-0.0032645948231220247,0.1709383726119995,0.1315453201532364,0.07191295921802521,0.15037433803081513,0.17104695737361909,0.010990816168487072,-0.459938645362854,-0.10454922914505005,-0.06216002628207207,0.030763929709792138,-0.1714184731245041,-0.016764264553785325,0.075727179646492,-0.047046758234500888,0.03320334851741791,0.06880880892276764,-0.04670677334070206,-0.22979973256587983,0.16952207684516908,-0.1604180783033371,0.08013880252838135,-0.188925102353096,-0.14588892459869386,0.018046896904706956,0.1359393447637558,0.2300049513578415,0.13042616844177247,-0.1908264458179474,-0.11151784658432007,0.003469719085842371,-0.09560111165046692,-0.028802234679460527,-0.012130104005336762,0.06378299742937088,-0.06865613907575607,-0.18811190128326417,0.004082660656422377,0.09389037638902664,0.08332905173301697,-0.14557980000972749,0.2215130478143692,-0.016853302717208864,0.10049746185541153,0.04020421579480171,0.02495574578642845,-0.09438528120517731,0.0674603283405304,-0.020420150831341745,-0.08847411721944809,-0.02704542502760887,0.28813913464546206,0.04906316101551056,0.5044040083885193,-0.2563324272632599,0.05879270285367966,0.16380253434181214,