{"Layers":[{"Weights":[-0.1215600073337555,-0.041589584201574329,-0.04367941617965698,0.08732461929321289,-0.026085494086146356,-0.13847583532333375,-0.08229035884141922,-0.09339829534292221,-0.04936268925666809,0.15891681611537934,0.1254982203245163,0.24856656789779664,-0.12198972702026367,-0.0025871817488223316,0.14435450732707978,0.06937145441770554,0.10881713777780533,-0.10251463949680329,-0.09596489369869232,0.2250286191701889,0.22581759095191956,0.17544370889663697,0.2011549025774002,0.6078371405601502,-0.10338093340396881,0.23546738922595979,0.14968249201774598,-0.1756284236907959,-0.2217274308204651,-0.49916210770606997,0.11918065696954727,-0.01407170295715332,-0.23524713516235352,0.1467576026916504,-0.1431197077035904,0.03796282038092613,0.06173696368932724,-0.06068449839949608,-0.11003712564706803,0.21163396537303925,0.10395994782447815,0.357686311006546,0.28224214911460879,0.06733201444149018,-0.1568899303674698,0.1956706941127777,0.20507340133190156,-0.09972531348466873,0.185501828789711,0.20591334998607636,-0.13249555230140687,0.01623167283833027,0.04236721619963646,0.17640848457813264,0.07014735788106919,0.23624859750270844,0.09756401181221008,-0.21372787654399873,0.025737453252077104,-0.21007567644119264,0.11911801993846894,-0.08517573028802872,-0.15076574683189393,-0.04598230868577957,0.1885002702474594,0.3824215233325958,0.1756843775510788,0.022215362638235093,0.20028157532215119,0.06281881779432297,-0.062314461916685107,-0.26840996742248537,0.2995583117008209,0.3009473979473114,0.03672071918845177,-0.13324029743671418,-0.20010362565517426,0.0087994784116745,0.08927687257528305,0.17009404301643372,-0.16778713464736939,0.1671553999185562,-0.010566865094006062,0.1492888629436493,0.15721280872821809,0.21283715963363648,-0.09606800228357315,0.12170737981796265,-0.028040342032909395,-0.19286438822746278,-0.02990567684173584,0.046684883534908298,-0.2314571589231491,-0.19366702437400819,-0.3843058943748474,-0.09002311527729035,-0.09759268164634705,0.08435613662004471,-0.08733340352773667,0.056586891412734988,-0.015369794331490994,-0.32228872179985049,-0.37470173835754397,0.058736421167850497,-0.08218395709991455,-0.15713948011398316,-0.12104358524084091,-0.0513383187353611,-0.1590479016304016,-0.33105888962745669,-0.08352897316217423,0.07018949091434479,0.12638968229293824,0.11430234462022782,0.05621133744716644,-0.04410059377551079,-0.16849294304847718,-0.0924510806798935,0.08645021915435791,0.19641640782356263,-0.018460465595126153,0.016594672575592996,0.18557175993919373,-0.3279840350151062,-0.14249318838119508,0.06650543212890625,-0.14956003427505494,-0.15303172171115876,-0.20009607076644898,-0.1895938515663147,0.2669653594493866,-0.11787036806344986,0.06931214034557343,-0.17904436588287354,0.0313248485326767,-0.25699475407600405,-0.0646602064371109,-0.14531147480010987,0.013901838101446629,-0.014705282635986805,-0.15617027878761292,0.07661733031272888,0.1427164375782013,0.08472095429897309,0.12322739511728287,-0.18727655708789826,-0.12063519656658173,-0.10514318197965622,0.06672850251197815,-0.004754082765430212,0.028398580849170686,-0.011254943907260895,0.0603068582713604,-0.12316005676984787,-0.2901081144809723,0.04139254614710808,0.08426932245492935,0.18945465981960298,0.1261247843503952,-0.006232718471437693,0.0027681926731020214,0.07851628214120865,0.03659362345933914,-0.040463272482156757,0.007644863333553076,0.015861837193369867,-0.14356400072574616,-0.17148414254188538,-0.009198468178510666,0.0488351471722126,-0.1315648853778839,-0.10809961706399918,0.1943446844816208,0.20648732781410218,-0.17845268547534944,0.12965871393680573,-0.14193834364414216,-0.3040909171104431,-0.08318774402141571,0.09637085348367691,-0.2280084490776062,-0.1171732246875763,0.06327209621667862,-0.09934539347887039,0.060409966856241229,0.13139615952968598,-0.06712842732667923,0.34523287415504458,-0.009559490717947483,0.02250109799206257,0.12386754155158997,0.05922671779990196,-0.37810319662094118,0.11444545537233353,-0.10734178870916367,0.075564906001091,0.15625843405723573,-0.02293510176241398,-0.10172070562839508,0.1792844831943512,0.057746127247810367,-0.14182575047016145,0.030092837288975717,-0.09533917903900147,-0.07928702235221863,0.14323736727237702,-0.03284405544400215,-0.026155784726142885,-0.08375810086727143,-0.36139845848083498,0.16778846085071565,0.225250706076622,0.014988529495894909,0.12401863932609558,-0.2242591679096222,0.5503261089324951,0.11275813728570938,0.4186227321624756,-0.010407352820038796,-0.12544944882392884,0.09204908460378647,-0.15775494277477265,-0.02229829505085945,0.0413970872759819,-0.21467062830924989,0.07804057747125626,0.12432072311639786,0.16596300899982453,0.03764251619577408,0.12350275367498398,0.08434436470270157,0.011397991329431534,0.06777273118495941,-0.10495167225599289,0.13440465927124024,0.07865168154239655,-0.06289348751306534,0.16607631742954255,0.04961429163813591,0.3332798182964325,0.26143792271614077,0.10940621048212052,-0.04869229346513748,0.1205672100186348,-0.045384522527456287,0.0955997034907341,0.27367496490478518,0.08860287815332413,0.0893489420413971,0.11284636706113816,0.06858281046152115,-0.2697478234767914,-0.0058074151165783409,-0.010652097873389721,-0.008522003889083863,0.04202675819396973,-0.10524707287549973,-0.15547984838485719,0.09292083233594895,0.13422977924346925,0.11916082352399826,-0.19991764426231385,0.008736182004213333,-0.34653452038764956,0.40477627515792849,0.016166819259524347,-0.05731535702943802,0.033356159925460818,0.047871604561805728,0.03795299679040909,-0.020650146529078485,0.11172956973314285,0.036112476140260699,0.07648570835590363,0.04492690786719322,-0.23627690970897675,0.037464674562215808,0.2996785640716553,0.1018567681312561,0.007479015737771988,0.0655163824558258,0.04160153120756149,0.03284063935279846,-0.25757482647895815,0.0012727257562801242,0.016141220927238466,-0.09791085124015808,-0.061522938311100009,-0.08324503153562546,-0.1296830028295517,0.0002739425690378994,-0.0772147998213768,0.09141109883785248,-0.2383219450712204,0.18909478187561036,0.17663875222206117,0.17934662103652955,-0.12677830457687379,0.10929962247610092,0.31854894757270815,0.2229960560798645,-0.14639775454998017,0.06963338702917099,-0.20490337908267976,-0.02476973831653595,-0.268155962228775,0.287951797246933,0.11488134413957596,-0.03459037095308304,-0.10102241486310959,-0.060445092618465427,-0.1794542372226715,0.09775608032941818,0.02279982902109623,-0.09803938865661621,0.29865798354148867,0.06657207757234574,0.023261677473783494,0.2221021205186844,0.2694222927093506,0.08900977671146393,-0.49378702044487,-0.10788828134536743,0.0031245991121977569,0.19260066747665406,-0.10232783854007721,-0.06917732954025269,0.22571231424808503,-0.03974061459302902,0.1660706251859665,0.008869768120348454,0.01325224805623293,0.17301030457019807,-0.24186153709888459,0.029035910964012147,0.16319458186626435,-0.024542558938264848,0.08416770398616791,0.12028025090694428,-0.03288114815950394,0.2098865956068039,-0.13883110880851746,-0.2621263265609741,0.0542212538421154,-0.2775019109249115,0.197052463889122,-0.19532790780067445,0.23555906116962434,0.06090956926345825,0.017173893749713899,-0.04771475866436958,0.1251368373632431,-0.19622638821601869,-0.17380888760089875,-0.06379193812608719,0.018315445631742479,0.11475875228643418,0.1333198994398117,0.008788514882326126,-0.04340371862053871,-0.20881563425064088,-0.0024315149057656528,-0.04541047289967537,-0.018790964037179948,0.41562211513519289,0.20546592772006989,0.36632823944091799,-0.09433659166097641,0.19072100520133973,0.037218622863292697,0.10222353041172028,0.35945600271224978,-0.005169786047190428,0.3450271785259247,0.05937419831752777,0.051646534353494647,-0.18777793645858766,-0.37316879630088808,0.14151960611343385,0.09984371066093445,-0.11835409700870514,-0.10464130342006684,0.044277627021074298,-0.1277540624141693,0.12592099606990815,0.04490646347403526,-0.15405546128749848,0.10248459875583649,0.035088613629341128,0.4411848187446594,0.4395539462566376,0.06471236795186997,-0.106572724878788,0.34846624732017519,0.06663854420185089,-0.204803466796875,-0.014764487743377686,0.061717864125967029,-0.02947206236422062,0.33500784635543826,0.07163389772176743,0.28336742520332339,-0.1551850438117981,-0.11227304488420487,-0.06764453649520874,-0.11661722511053086,0.034179333597421649,0.6248474717140198,0.056774310767650607,0.05939578637480736,0.07626019418239594,-0.08584771305322647,0.3201500475406647,0.08538579940795899,-0.038309577852487567,0.32363197207450869,0.0611569881439209,0.02438064105808735,0.030094843357801439,-0.14371438324451447,0.20648832619190217,0.22604118287563325,0.11951630562543869,-0.06330806761980057,-0.05116094648838043,-0.363965779542923,0.0827624499797821,0.25903671979904177,0.03999271243810654,0.27097955346107485,-0.013506193645298481,0.15162722766399384,0.21441930532455445,0.15421973168849946,0.12755903601646424,-0.10780496150255203,0.26340770721435549,-0.25493335723876955,0.25458505749702456,0.10834892839193344,0.010650180280208588,0.05549690127372742,-0.11406902223825455,-0.03811822831630707,-0.07903096824884415,0.3019348680973053,-0.12008273601531983,-0.057654354721307757,0.29014235734939577,0.05561524257063866,0.28508779406547549,-0.15759098529815675,0.08565337210893631,-0.11070447415113449,-0.14335328340530396,-0.11994624882936478,-0.2510276734828949,-0.09531210362911225,-0.15891100466251374,-0.12068871408700943,0.060218703001737598,0.5146040916442871,0.09748192131519318,0.3079212009906769,0.08588113635778427,-0.07817770540714264,-0.23806972801685334,-0.20560695230960847,0.041431259363889697,-0.004065813031047583,-0.23197171092033387,-0.08113433420658112,0.08978750556707382,-0.17771874368190766,0.08793556690216065,0.04401850700378418,0.1128627136349678,0.08996682614088059,0.08004555851221085,-0.1355370283126831,0.001493925228714943,0.2276110053062439,0.02481331303715706,0.18866950273513795,0.21718567609786988,-0.06916213780641556,0.05920685455203056,0.12578347325325013,-0.21037615835666657,-0.00962043646723032,0.3179091215133667,0.4337976276874542,-0.001568499836139381,-0.1220434308052063,0.24035969376564027,0.02411639131605625,0.2003173530101776,0.11866126954555512,-0.10161912441253662,0.0735427588224411,-0.014661431312561036,0.1571335345506668,0.24838142096996308,0.4084463119506836,0.12416468560695648,0.06335557252168656,0.2820333242416382,0.12271055579185486,0.0038997838273644449,0.14731447398662568,0.011633556336164475,0.1424921303987503,0.004342725966125727,-0.009626497514545918,-0.23758821189403535,-0.25997111201286318,-0.004454743582755327,-0.08275909721851349,0.17439308762550355,0.20069469511508943,-0.003917940426617861,0.3328189253807068,-0.09245222806930542,0.21423695981502534,0.10756164789199829,0.0790727436542511,0.04330969601869583,-0.35229337215423586,0.18189595639705659,0.03598055616021156,0.47356560826301577,-0.11578395962715149,0.176925390958786,-0.016968030482530595,-0.028348062187433244,0.05429696664214134,0.032053250819444659,0.1139201894402504,0.05961083620786667,-0.07052089273929596,0.08522636443376541,-0.010490692220628262,0.12178360670804978,0.09948588162660599,0.009011946618556977,0.270844429731369,0.028824085369706155,-0.14736804366111756,-0.21769191324710847,0.08537570387125015,0.15030916035175324,0.034027352929115298,0.21213702857494355,0.24142427742481233,0.2064513862133026,0.07164033502340317,-0.009765639901161194,-0.29799404740333559,-0.03866075724363327,0.16705071926116944,-0.1158202737569809,0.22318722307682038,0.01814974658191204,0.22499948740005494,-0.23023274540901185,-0.023044321686029435,0.009234599769115448,-0.07593142241239548,0.09781527519226074,-0.5158441066741943,0.0327780544757843,0.06302788108587265,-0.056326232850551608,0.11087560653686524,0.023454299196600915,0.23399464786052705,-0.12800104916095735,0.22862549126148225,0.21159857511520387,0.018414469435811044,0.23973366618156434,-0.18821272253990174,-0.09403132647275925,0.06990084052085877,-0.11856237053871155,0.03859732672572136,-0.0290383268147707,0.33914512395858767,0.034152522683143619,-0.020497867837548257,-0.06343807280063629,0.09911217540502548,-0.1703461855649948,0.022979339584708215,-0.10574674606323242,-0.19663894176483155,-0.019012922421097757,0.025677349418401719,0.0712553933262825,-0.1592235416173935,-0.10334552079439163,0.03144228458404541,0.07082191109657288,0.021292677149176599,0.15919028222560883,0.1364404410123825,-0.002938004909083247,-0.2126273214817047,-0.22758781909942628,0.010593736544251442,0.18997783958911897,0.010433298535645008,-0.025171633809804918,-0.32328635454177859,-0.204696387052536,-0.007782978005707264,0.3067505955696106,0.23523582518100739,-0.11810760200023651,0.1713661551475525,0.16186057031154633,-0.039009302854537967,0.081998810172081,0.025887709110975267,-0.36897918581962588,0.1350550651550293,-0.013986369594931603,-0.38687166571617129,0.02091214247047901,0.017433932051062585,-0.016344314441084863,-0.16576865315437318,0.04571539908647537,0.16871559619903565,-0.022230397909879686,0.059412792325019839,0.16808661818504334,0.1013607457280159,-0.16671916842460633,0.2636990249156952,-0.12534235417842866,-0.22868160903453828,0.25313201546669009,0.05218622460961342,-0.21424120664596559,-0.08631632477045059,0.11059238016605377,0.03451588749885559,0.06481357663869858,0.46327558159828188,-0.009415487758815289,0.0874517634510994,-0.23581159114837647,0.058819375932216647,-0.16766415536403657,0.11305328458547592,-0.12173778563737869,-0.0879722312092781,-0.19654402136802674,-0.049326881766319278,-0.2011834979057312,0.04422517120838165,0.06276857107877732,0.11054091900587082,0.17275096476078034,0.1585160344839096,-0.008502485230565071,0.21369953453540803,0.19567331671714784,-0.09158532321453095,0.07150589674711228,0.17491301894187928,0.24561460316181184,0.024361446499824525,0.21236848831176759,0.5041681528091431,0.009354576468467713,-0.16341976821422578,0.17969180643558503,0.31259211897850039,0.158499076962471,0.010720362886786461,0.1282639056444168,0.22393707931041718,0.1457330882549286,-0.17510883510112763,-0.2429867535829544,0.053363535553216937,-0.12344841659069061,0.15354697406291963,0.04926025867462158,0.12143810838460922,-0.23141388595104218,0.23593412339687348,0.3788313865661621,0.20173192024230958,0.12220615893602371,-0.14372797310352326,0.0644218921661377,-0.10054835677146912,0.14929300546646119,0.05881514400243759,0.034598078578710559,0.13203933835029603,-0.0164366215467453,-0.04357970878481865,-0.06473877280950546,-0.026226243004202844,-0.24555538594722749,-0.12007147073745728,0.010337465442717076,0.2539837062358856,0.1683855652809143,0.07300516963005066,0.06520940363407135,0.021473055705428125,0.16447165608406068,-0.08785749226808548,-0.16630512475967408,-0.14526334404945374,0.15718026459217072,0.10901711136102677,-0.05457311123609543,0.26092612743377688,-0.09950564056634903,-0.11903687566518784,-0.01297704316675663,-0.008562328293919564,-0.1041298359632492,-0.007344452664256096,0.09145163744688034,0.4909950792789459,-0.09797531366348267,-0.09895163774490357,0.14773182570934297,0.08521544933319092,-0.007873674854636193,0.10590581595897675,0.1432875245809555,-0.05144934356212616,0.2233850210905075,0.09876934438943863,0.026833878830075265,0.22690913081169129,0.0915733128786087,0.14167511463165284,-0.18311509490013123,0.14463849365711213,0.1672016978263855,-0.14303921163082124,0.02720820903778076,-0.06467190384864807,-0.17095132172107697,0.34992533922195437,0.19593152403831483,0.22922812402248383,0.021996071562170984,0.12554726004600526,-0.07403609901666641,0.18228279054164887,0.21289092302322389,0.08441036939620972,0.02440756745636463,-0.15296660363674165,-0.017422253265976907,0.21704913675785066,-0.15843403339385987,-0.13148637115955354,0.03390336036682129,-0.01601654849946499,0.16502490639686585,-0.00766042061150074,-0.020265359431505204,0.28489747643470766,-0.2067546844482422,-0.14403238892555238,-0.031157787889242173,0.16763803362846375,0.10710100829601288,-0.1799878478050232,-0.001944924471899867,-0.0797022357583046,-0.052962642163038257,0.14343462884426118,0.0089194905012846,-0.13877297937870027,-0.16156959533691407,0.14846976101398469,0.22171087563037873,0.15034833550453187,0.09454779326915741,0.019344214349985124,0.0037754580844193699,0.12137248367071152,0.06809892505407334,0.2380262166261673,-0.11950214207172394,0.05946802347898483,0.17633827030658723,-0.04795783758163452,-0.1374388039112091,0.06261029094457627,-0.10970263183116913,0.1999204009771347,-0.23193033039569856,0.08044140040874481,0.17972558736801148,-0.03054545819759369,-0.19432517886161805,0.235318124294281,0.1959550529718399,0.014797350391745568,0.07852598279714585,-0.08360683917999268,-0.18753713369369508,0.03902816399931908,0.045982323586940768,0.30987897515296938,0.20802249014377595,0.19290755689144135,-0.0370856449007988,-0.07017872482538223,0.08327316492795944,0.08221012353897095,-0.26504456996917727,0.10997643321752548,0.23514550924301148,-0.15262603759765626,0.03679106384515762,-0.0013768868520855904,-0.17441660165786744,-0.20165252685546876,-0.03694611042737961,-0.20894606411457063,0.184211865067482,-0.1381879448890686,-0.16729433834552766,0.035620205104351047,0.08382885903120041,0.34212255477905276,0.1485164910554886,-0.044781316071748736,-0.24501818418502809,-0.12416743487119675,0.02259993553161621,0.06228386238217354,-0.16658146679401399,-0.011250044219195843,0.033138033002614978,0.14929208159446717,-0.003997945226728916,-0.30070701241493227,-0.17271016538143159,0.17266713082790376,-0.09344175457954407,0.014626710675656796,0.021804844960570337,0.1489238291978836,-0.12637346982955934,-0.14798857271671296,-0.24572038650512696,-0.03454415500164032,-0.18847717344760896,0.18472768366336823,-0.0003102619375567883,-0.05474485456943512,-0.26245027780532839,-0.05061493068933487,-0.26927271485328677,-0.03588341176509857,0.09335985779762268,0.030744586139917375,-0.3690086305141449,0.033099688589572909,-0.19799219071865083,0.18113207817077638,0.0976489931344986,-0.04376840591430664,-0.35838058590888979,-0.1485893279314041,-0.18634866178035737,-0.13548456132411958,0.08244316279888153,-0.04022656008601189,-0.16444338858127595,0.4247662425041199,-0.15298810601234437,0.21934622526168824,-0.09807044267654419,-0.19574326276779176,0.25736865401268008,0.00009242563100997359,0.07937818020582199,-0.07890653610229492,-0.06925737112760544,0.025050412863492967,-0.022121699526906015,0.08299252390861511,0.004168542567640543,-0.028785472735762597,-0.10668022185564041,-0.156866654753685,-0.09046373516321182,0.010515115223824978,-0.21293924748897553,0.03660120815038681,0.09076183289289475,0.1093887910246849,-0.06973731517791748,-0.30534833669662478,0.07900933921337128,-0.3280104994773865,-0.08172304928302765,-0.08879058808088303,0.019292637705802919,-0.1550542712211609,-0.09488421678543091,0.24206267297267915,0.08406922966241837,-0.19189317524433137,0.11388470232486725,0.021098557859659196,0.02584201470017433,0.1308048814535141,-0.11455035209655762,0.18091116845607758,0.0625017061829567,-0.023831360042095186,-0.04078379645943642,0.5683241486549377,0.2855062484741211,0.08355438709259033,0.12270857393741608,0.18823648989200593,0.05269259214401245,-0.014323231764137745,0.2380760908126831,0.2843361496925354,0.059332601726055148,0.043636757880449298,-0.09739770740270615,-0.10067443549633026,0.35376784205436709,-0.13375304639339448,-0.07209248840808869,-0.1260252445936203,0.004976021125912666,0.32016563415527346,0.32333147525787356,-0.06909555941820145,0.03283131867647171,-0.09931480884552002,-0.11652211844921112,-0.03487375006079674,0.02388226054608822,-0.10592937469482422,0.262384831905365,0.0029276537243276836,0.030475035309791566,-0.2815331816673279,0.10297185182571411,-0.07972259074449539,0.046748798340559009,0.07568907737731934,-0.06430967152118683,-0.2854360044002533,-0.1991891711950302,0.10468465089797974,-0.21910987794399262,0.1524566262960434,-0.11920606344938278,0.7959069609642029,0.26399892568588259,-0.06114198639988899,-0.02727934904396534,0.009241612628102303,0.09270808845758438,0.08500347286462784,-0.0743439570069313,0.34104153513908389,0.15172964334487916,-0.1061411127448082,-0.039899908006191257,0.15799345076084138,-0.00933173205703497,-0.027318153530359269,-0.0033171086106449367,0.27304765582084658,0.34577852487564089,0.16592876613140107,-0.08741380274295807,0.11667000502347946,0.29508188366889956,0.006878683343529701,-0.13076642155647279,0.19684676826000215,0.04662640765309334,0.07427944242954254,0.11357517540454865,-0.2038910686969757,0.16310769319534303,-0.1937902718782425,-0.04008319973945618,0.06478750705718994,0.21904300153255464,-0.08105448633432388,-0.15134567022323609,-0.37263500690460207,0.17557263374328614,-0.0014651159290224314,0.0059217833913862709,-0.05423416197299957,0.2524978220462799,0.13653723895549775,-0.00963043887168169,0.1310880333185196,0.027504492551088334,0.028120601549744607,0.2098146677017212,0.03605184331536293,0.043915845453739169,-0.012193569913506508,0.08073660731315613,0.045169852674007419,0.22463123500347138,0.3120209276676178,-0.18148912489414216,0.017700113356113435,0.06815793365240097,0.08227352797985077,0.3822113275527954,0.1683795303106308,-0.20939789712429048,0.3383646309375763,0.07659614831209183,-0.0010114123579114676,0.11304009705781937,0.009361907839775086,0.4499041736125946,0.1597585678100586,0.0038210423663258554,0.09489810466766358,-0.21466544270515443,-0.1768222451210022,0.11423835903406143,0.10763251036405564,0.19939833879470826,-0.13532014191150666,-0.014170773327350617,-0.07262842357158661,-0.2286282181739807,0.13212703168392182,0.09321290999650955,0.1590176522731781,-0.02966059371829033,0.06297477334737778,-0.19767427444458009,-0.06534519791603089,0.03015175648033619,-0.12365663796663284,-0.0005663673509843648,-0.1637093722820282,-0.03414599969983101,-0.1045645922422409,0.06753391772508621,0.05993520841002464,-0.07222733646631241,0.20295338332653047,-0.02117770165205002,0.09736421704292298,-0.030148232355713846,-0.13770164549350739,0.1296086460351944,0.10997847467660904,0.1676100343465805,-0.09855267405509949,-0.10562635213136673,0.22575931251049043,0.12407776713371277,-0.037187375128269199,0.1988578736782074,-0.04131196439266205,0.12243856489658356,-0.024323996156454088,-0.13544616103172303,-0.5223401784896851,0.31854093074798586,0.2919727563858032,-0.01715044677257538,0.020577099174261094,-0.10250099748373032,-0.26118987798690798,0.064205102622509,-0.11517737805843353,-0.08517687022686005,0.11328043788671494,0.10545352101325989,-0.1685098558664322,0.13715215027332307,0.013182769529521466,-0.06843733787536621,0.013106949627399445,0.06145649403333664,-0.025767765939235688,0.10201182961463928,0.005202180705964565,0.047704748809337619,-0.22477200627326966,0.041889678686857226,-0.23632179200649262,0.06447380781173706,-0.11178229004144669,0.012775511480867863,-0.20207378268241883,-0.24615001678466798,-0.29482048749923708,0.2951451241970062,0.017456108704209329,0.03256874158978462,0.12732066214084626,-0.22631055116653443,0.2875543236732483,0.060525666922330859,0.16614708304405213,-0.030163800343871118,0.31418538093566897,-0.15772311389446259,0.2802670896053314,-0.05623820796608925,0.12009328603744507,-0.02962048165500164,0.06509654968976975,0.07462964951992035,0.17085935175418855,0.061341531574726108,-0.031161513179540635,-0.1583852767944336,0.18166561424732209,0.3024829030036926,0.14573980867862702,-0.037934623658657077,0.07259614765644074,0.17024709284305573,0.11166787892580033,0.05693510174751282,0.11898574233055115,-0.09758707880973816,0.044942088425159457,0.15814344584941865,-0.17431038618087769,0.08416713029146195,0.21672049164772035,-0.0008077798411250114,-0.31990164518356326,0.29866111278533938,0.3457827866077423,0.31047821044921877,-0.11257868260145188,0.06593257933855057,-0.028220269829034807,0.1781560480594635,0.018908461555838586,-0.1688510775566101,0.24566881358623506,0.07642963528633118,-0.00243325880728662,-0.03794945031404495,-0.053864993155002597,0.06332395225763321,0.17023470997810365,-0.22795921564102174,-0.10461952537298203,0.09074413031339646,0.02691681496798992,-0.08553575724363327,0.2673870027065277,-0.07103201746940613,0.28221872448921206,0.19860108196735383,-0.08700766414403916,0.0033852492924779655,-0.2674954831600189,0.17658783495426179,0.05788106098771095,-0.1913183182477951,0.09865578263998032,0.19460946321487428,0.24531924724578858,-0.15233346819877625,0.29679325222969057,-0.14883029460906983,-0.25913411378860476,-0.04224889725446701,0.07077531516551972,0.04420923814177513,-0.07276815921068192,0.13123084604740144,0.09658514708280564,0.10846097022294998,-0.16006657481193543,0.1885017603635788,0.20467087626457215,0.06251805275678635,0.42985859513282778,0.16423198580741883,-0.33495500683784487,0.14357765018939973,0.13759733736515046,0.23769286274909974,-0.08708894997835159,0.08632712811231613,-0.2038067728281021,-0.2692354917526245,0.17166173458099366,0.10085761547088623,-0.11032699048519135,0.1855444461107254,0.2235112339258194,-0.21867845952510835,0.0016969945281744004,0.1286563128232956,-0.030427683144807817,-0.21836045384407044,-0.08232701569795609,0.09160396456718445,0.11046479642391205,0.04277206212282181,0.28449541330337527,0.16239924728870393,0.24087713658809663,-0.08874359726905823,0.2912507653236389,-0.06813516467809677,0.018404440954327585,0.06550297886133194,-0.0930507555603981,-0.1414405256509781,-0.06661561876535416,0.034162357449531558,-0.010864505544304848,0.30884942412376406,-0.13331535458564759,0.31715020537376406,0.038828350603580478,-0.21854136884212495,-0.051002223044633868,0.05066835135221481,-0.40469253063201907,0.14810419082641602,0.16107730567455293,0.06721769273281098,0.27390703558921816,0.19171245396137238,-0.09621009230613709,-0.09705813229084015,0.03198942914605141,0.1445934772491455,0.09008299559354782,0.007553729694336653,0.38310280442237856,-0.10444441437721253,0.07946991920471192,0.0648428425192833,-0.06675291061401367,-0.0072157722897827629,0.11848054826259613,0.15875789523124696,-0.011478363536298275,0.2918865382671356,-0.028086047619581224,0.10125446319580078,0.1526307314634323,0.24767640233039857,-0.1554742306470871,-0.07228288054466248,0.18089798092842103,-0.17147989571094514,0.2090238332748413,0.3405405282974243,0.18118995428085328,-0.04766412079334259,-0.19623008370399476,0.0843883827328682,0.027027111500501634,-0.1702183485031128,0.12765304744243623,0.3008786141872406,0.016152597963809968,-0.0027866612654179336,-0.06746058911085129,0.3369109034538269,-0.14828573167324067,0.2184816151857376,-0.09358429163694382,0.019111361354589464,-0.25381940603256228,0.01021316833794117,-0.0831548199057579,0.09396347403526306,0.00705092865973711,-0.03572813421487808,-0.04446179047226906,0.23234392702579499,0.31722408533096316,0.3520820438861847,-0.1636471450328827,0.04957631975412369,-0.20195940136909486,0.12915407121181489,-0.09113345295190811,-0.046945154666900638,0.01572447456419468,-0.024776557460427285,0.23052166402339936,0.03824680671095848,-0.07120230048894882,-0.14327628910541535,0.3217942416667938,0.24539321660995484,0.32704851031303408,-0.1802406907081604,0.276651531457901,-0.07776003330945969,0.20701999962329865,0.04271983727812767,-0.3675493597984314,-0.010266856290400029,0.06995715200901032,-0.14389939606189729,-0.33525943756103518,-0.16511385142803193,-0.03287370502948761,0.19969233870506288,-0.15153980255126954,-0.04820716381072998,-0.06515297293663025,0.18094077706336976,-0.1543627381324768,0.03161351755261421,-0.06328903883695603,0.2724781632423401,-0.14440685510635377,-0.011551175266504288,-0.3235222399234772,-0.13002082705497743,0.12509046494960786,-0.18319669365882874,0.12277553975582123,0.013710901141166687,-0.03237716481089592,-0.14713382720947267,0.016390563920140268,0.07435371726751328,-0.17562878131866456,-0.3426321744918823,0.038487084209918979,-0.20555929839611054,-0.025127848610281946,-0.19064456224441529,-0.05735987424850464,0.07782910019159317,-0.12115735560655594,-0.2421167939901352,-0.21847721934318543,0.10474801063537598,0.002056341152638197,-0.15673600137233735,-0.22027243673801423,0.04669824242591858,0.0179176926612854,-0.030888406559824945,-0.07751511037349701,-0.04087761417031288,-0.0974683165550232,-0.23552954196929933,0.1769232153892517,0.1578635424375534,0.04607719928026199,-0.13604997098445893,0.12427640706300736,0.14829958975315095,-0.11429533362388611,0.027943860739469529,-0.04475414752960205,-0.17118719220161439,0.09398563206195831,-0.08481626212596894,-0.12211959064006806,-0.14536984264850617,0.04241783544421196,0.3138793706893921,-0.03540137782692909,-0.27998897433280947,-0.03868759423494339,0.21503280103206635,-0.047252919524908069,-0.2843954563140869,-0.18574371933937074,-0.1566428542137146,-0.0799533948302269,0.28168728947639468,-0.0004508226702455431,-0.00456621078774333,-0.22438453137874604,-0.16983148455619813,-0.003966719843447208,0.13415215909481049,-0.047898124903440478,-0.13863427937030793,0.008009528741240502,0.06186898797750473,0.20507223904132844,0.032571155577898028,-0.04737043008208275,-0.23188936710357667,-0.3842220902442932,-0.09029019623994827,-0.06657687574625015,0.07935785502195358,0.23330383002758027,0.031180309131741525,-0.04509880766272545,-0.006138131488114595,0.02908562496304512,-0.014180622063577176,-0.16931231319904328,-0.20122671127319337,-0.20938530564308167,0.3251640498638153,0.26824241876602175,0.32015350461006167,-0.14391537010669709,-0.0345478430390358,0.13561993837356568,-0.031065961346030237,0.15095971524715424,0.04575366526842117,0.07279704511165619,0.11595159769058228,0.16249504685401917,-0.18204393982887269,-0.11718366295099259,0.11829748004674912,0.010352427139878273,0.11500835418701172,0.005030399188399315,-0.3899542987346649,0.14918754994869233,0.029269883409142495,0.2721322774887085,0.09335837513208389,-0.3734593689441681,-0.03352830186486244,-0.271790474653244,-0.2698550224304199,-0.051116254180669788,-0.06994923204183579,0.19424618780612946,0.19463618099689485,0.03327658399939537,-0.19517898559570313,-0.23040629923343659,-0.31085023283958437,-0.07158347964286804,0.0617961548268795,-0.1078132838010788,-0.011533395387232304,-0.05559073016047478,0.012916242703795433,-0.1379871815443039,-0.35163477063179018,0.044283583760261539,0.10294128209352493,-0.04775277525186539,0.0033374836202710869,-0.2542189061641693,-0.22048842906951905,-0.22186248004436494,0.26444995403289797,-0.10888173431158066,0.052456147968769076,-0.14031913876533509,-0.3312566876411438,-0.2082657814025879,-0.063748300075531,-0.11582118272781372,-0.02605515718460083,0.13830558955669404,0.005125972907990217,-0.2914472222328186,-0.27962154150009158,0.08928567916154862,-0.20985910296440125,-0.1602834314107895,-0.011464987881481648,-0.13382910192012788,-0.12725837528705598,-0.11194836348295212,-0.08505009859800339,-0.015610218979418278,-0.2990495562553406,-0.04709367826581001,-0.07580158859491348,-0.05919007584452629,-0.16127851605415345,-0.41307532787323,-0.25226807594299319,0.16348838806152345,0.12615229189395905,0.13737110793590547,0.18255291879177094,-0.044967565685510638,-0.17152637243270875,0.13732458651065827,-0.004908483475446701,-0.1568845808506012,-0.1121794581413269,0.003318063449114561,0.003961061593145132,0.010193808935582638,0.06788560748100281,-0.1376827359199524,-0.1541023999452591,-0.3577178418636322,0.15041488409042359,-0.12569500505924226,-0.22413833439350129,-0.07095775753259659,0.124681256711483,0.23465146124362946,-0.14302563667297364,0.02670029178261757,0.09926755726337433,-0.12351982295513153,0.1557798981666565,0.3536217212677002,0.11429064720869065,-0.14541523158550263,0.021940480917692186,0.07189362496137619,-0.042511388659477237,0.17225134372711183,0.13697516918182374,-0.00410853186622262,0.08529836684465409,0.12635241448879243,0.0801168754696846,0.12422101944684982,0.14900906383991242,-0.015927668660879136,-0.010720028541982174,0.07302243262529373,-0.034211769700050357,0.22717081010341645,0.05038124695420265,0.4067714810371399,0.04028034582734108,-0.08091764897108078,0.04309539124369621,0.17670229077339173,0.08587290346622467,0.13375265896320344,0.26348403096199038,0.11615215241909027,0.059190865606069568,-0.32664522528648379,0.15670689940452577,0.11055050790309906,-0.08407126367092133,0.029462140053510667,0.26536795496940615,0.36412033438682558,0.023654354736208917,0.06428369134664536,-0.178166925907135,0.0909159779548645,-0.1976027637720108,0.43400081992149355,0.11133145540952683,-0.141262024641037,-0.16447387635707856,0.2303486466407776,0.10211101174354553,-0.07039368152618408,0.03716413304209709,-0.037212666124105456,-0.0968736857175827,0.07934679836034775,0.052503567188978198,-0.09717100858688355,0.0796915739774704,-0.02945358119904995,-0.0005536893731914461,0.10416536778211594,-0.2036428600549698,-0.037524301558732989,-0.17353780567646027,0.2926732003688812,-0.29795515537261965,0.17616309225559236,-0.13357268273830415,0.180055633187294,-0.106613390147686,0.20042933523654939,-0.12234773486852646,0.1933688223361969,-0.11722753196954727,0.15834717452526093,-0.09401290118694306,-0.23188196122646333,-0.08472786843776703,-0.05326184257864952,-0.12409037351608277,-0.20138339698314668,-0.1895277053117752,0.19989964365959168,0.2882767617702484,-0.2324955314397812,0.03318709135055542,0.12110648304224014,0.35404807329177859,0.09602297097444534,-0.1786067634820938,0.019891614094376565,-0.05502830445766449,-0.05269099026918411,-0.07836782932281494,-0.1279437392950058,-0.2451951652765274,-0.07945451885461807,-0.10152275860309601,0.034040603786706927,-0.0866604596376419,-0.08574705570936203,0.11997079849243164,-0.03417268767952919,-0.21215268969535829,-0.09139367192983628,0.25821980834007265,-0.19175925850868226,-0.05028009042143822,-0.3449717164039612,-0.06244990602135658,0.02634078450500965,0.07311084121465683,0.10500507801771164,-0.06087317690253258,-0.02448698692023754,0.007624094374477863,-0.021678298711776735,-0.11115225404500961,-0.022472618147730829,-0.050031717866659167,-0.1393917202949524,-0.23626479506492616,0.04368448257446289,-0.08835447579622269,-0.1683553159236908,0.06004428118467331,-0.06753633916378021,-0.21040277183055879,0.06330341845750809,-0.0528547577559948,-0.1710764467716217,-0.09272214770317078,-0.07934193313121796,-0.19841817021369935,-0.05670086666941643,-0.0005894071655347943,0.009615211747586728,-0.14804057776927949,-0.2045893371105194,0.06382177025079727,0.13277746737003327,0.13186955451965333,-0.08857889473438263,0.2000988870859146,0.0010261618299409748,-0.051702868193387988,-0.12824824452400208,-0.11905873566865921,0.01472360361367464,0.06883282214403153,-0.0000386030224035494,-0.26058652997016909,-0.0653323158621788,0.2821737229824066,0.053819864988327029,0.09152461588382721,0.024741223081946374,-0.1207779198884964,-0.3023163080215454,0.28400909900665285,0.25590965151786806,0.18022972345352174,0.004566367715597153,0.06234753131866455,-0.05080939084291458,0.23035874962806703,-0.057089682668447497,0.1145436018705368,0.14608804881572724,0.010402118787169457,0.22417059540748597,-0.25338584184646609,0.030582064762711526,0.2755497992038727,0.11677603423595429,0.0011115319794043899,0.191371887922287,-0.04412662610411644,0.05182323977351189,-0.16643351316452027,0.16727253794670106,-0.061500996351242068,0.09274795651435852,-0.16796858608722688,0.08281918615102768,0.05514223128557205,0.12361126393079758,0.07366128265857697,-0.2016601413488388,-0.0300905779004097,0.048101671040058139,0.061877600848674777,0.12688027322292329,0.0620175264775753,0.16160982847213746,0.07139883190393448,-0.09292706102132797,0.14394448697566987,-0.1679535210132599,-0.06848685443401337,-0.03888329118490219,0.13139969110488892,0.18863509595394135,-0.09225301444530487,0.0038602426648139955,-0.05811268463730812,-0.11398368328809738,-0.11752237379550934,-0.2109227180480957,-0.34438514709472659,0.14017117023468018,-0.024925343692302705,-0.21509727835655213,-0.028366072103381158,0.14047013223171235,-0.009580627083778382,0.1785905808210373,0.11383844166994095,0.21832801401615144,0.15993645787239076,-0.19151733815670014,-0.23807132244110108,0.22391277551651,0.12849760055541993,-0.004863540176302195,0.014794817194342614,0.14756524562835694,0.04894709959626198,0.07021886110305786,0.06353066861629486,-0.06538306921720505,-0.35876888036727908,-0.10615085065364838,0.28525590896606448,0.011149166151881218,0.0988619327545166,-0.008477852679789067,-0.12013628333806992,0.08931383490562439,-0.04033593460917473,-0.06522814929485321,-0.10955731570720673,0.05653968080878258,0.06659623235464096,-0.062484901398420337,-0.1186002716422081,0.021061263978481294,0.086558997631073,0.12856635451316834,0.19640657305717469,0.009222404100000859,-0.008818680420517922,0.031257592141628268,0.1809757500886917,0.024589266628026964,-0.1432570368051529,0.046752333641052249,-0.055929627269506457,0.11003972589969635,-0.00836777314543724,-0.2929154336452484,-0.026205483824014665,-0.1117897555232048,-0.03464533016085625,-0.047397445887327197,-0.08215741068124771,-0.059249911457300189,-0.006658010184764862,0.012777309864759446,-0.047539036720991138,0.08838556706905365,-0.12367414683103562,-0.23931831121444703,-0.16813971102237702,0.06970442086458206,-0.037979885935783389,0.1710098832845688,0.24177688360214234,-0.08063975721597672,0.02296159602701664,0.14057567715644837,-0.037949394434690478,-0.16232995688915254,0.03215005248785019,0.41645684838294985,0.014808191917836666,0.15863856673240663,-0.24016283452510835,0.0837848111987114,0.14048191905021668,0.13194778561592103,0.01031708624213934,0.27270302176475527,-0.2853821814060211,-0.18386222422122956,0.0027150907553732397,-0.09962797164916992,-0.037643443793058398,-0.003098111366853118,-0.08526864647865296,0.1819523423910141,0.13383273780345918,-0.19292409718036652,-0.017389770597219468,-0.006641263607889414,0.2798956036567688,0.01566481962800026,-0.25105053186416628,0.2750319242477417,-0.037960849702358249,0.15974634885787965,0.15042507648468018,0.08958356082439423,0.1427868753671646,0.21986229717731477,-0.05374782159924507,0.09121464937925339,-0.14033210277557374,-0.03195744380354881,-0.03296249732375145,0.043034959584474567,0.08916863799095154,0.12335371971130371,0.36443114280700686,0.03601033613085747,0.06562765687704086,-0.1823684275150299,-0.12900689244270326,0.13303552567958833,-0.11971105635166168,0.05285676568746567,-0.24607610702514649,0.12260307371616364,-0.2571747601032257,0.10307914763689041,0.1245342269539833,0.21603251993656159,0.03152386099100113,0.19327908754348756,-0.12317667901515961,0.1357114166021347,0.0028538017068058254,0.27160099148750307,0.07739467918872833,0.3062115013599396,0.1888587921857834,0.11339585483074188,0.2560414969921112,-0.08437938988208771,-0.08810056000947952,-0.5877422094345093,0.35342875123023989,-0.0337890088558197,0.017235955223441125,0.0877542644739151,0.09158264845609665,0.2920990586280823,0.1540452539920807,-0.05558520928025246,0.2050778716802597,0.10956993699073792,-0.07140030711889267,0.22716768085956574,0.10498392581939697,-0.03059249371290207,-0.15452814102172852,-0.27102401852607729,0.19521769881248475,-0.13893598318099976,0.06831669062376023,0.03020300343632698,-0.15814495086669923,0.09248019009828568,0.16084334254264832,0.22091399133205415,0.15177470445632935,-0.10948371142148972,-0.1436115950345993,0.29291969537734988,0.1735580861568451,0.5135921239852905,0.06390011310577393,-0.06740525364875794,-0.059576261788606647,0.08050072938203812,-0.17907194793224336,0.23402929306030274,0.23094981908798219,-0.05404121056199074,0.32168713212013247,0.12370739132165909,-0.03387711942195892,-0.3556782007217407,0.18299517035484315,-0.13821828365325929,-0.087051622569561,0.19424934685230256,0.06726406514644623,0.48617058992385867,0.1322275996208191,-0.22874292731285096,-0.10872290283441544,0.056061752140522,-0.03728777542710304,0.3443213701248169,0.11777312308549881,-0.29012471437454226,0.1794247329235077,0.18980105221271516,0.1926364302635193,-0.22361931204795838,-0.07220572233200073,0.21148067712783814,-0.12770232558250428,-0.08853506296873093,0.027016859501600267,-0.20257990062236787,-0.02552158012986183,0.06739012151956558,-0.07144719362258911,0.027359280735254289,0.22106732428073884,0.12579771876335145,-0.026606803759932519,-0.2386830598115921,-0.1331939548254013,0.013127049431204796,-0.1706160306930542,0.15537329018115998,-0.08869687467813492,0.008419173769652844,0.20634201169013978,-0.06705977022647858,0.03769385814666748,-0.048356033861637118,-0.09656095504760742,-0.09495840966701508,-0.12178216129541397,-0.15368002653121949,0.14477317035198213,-0.11926253139972687,0.04645371064543724,-0.19751416146755219,-0.12025385349988938,0.12006283551454544,0.05088353902101517,0.1238081231713295,0.0024872717913240196,-0.17686234414577485,0.04353161156177521,-0.21655140817165376,-0.03229832276701927,-0.07662981748580933,-0.032232243567705157,0.11496016383171082,-0.0385083369910717,0.15496663749217988,0.22347170114517213,0.10283270478248596,-0.2099301964044571,-0.03180629014968872,0.09128675609827042,-0.0705866813659668,0.23099495470523835,0.01287475973367691,-0.14406859874725343,-0.03107313998043537,-0.24653726816177369,0.04598023369908333,0.08151140064001084,0.19231390953063966,0.18303410708904267,0.08563196659088135,0.17557315528392793,-0.08466982841491699,0.0891551822423935,-0.015251720324158669,-0.07511497288942337,0.23940274119377137,0.14611366391181947,0.07625177502632141,0.0877331793308258,-0.14403831958770753,0.09455420076847077,-0.1990775465965271,0.12017867714166641,0.16749544441699983,-0.10146071016788483,0.4655064344406128,-0.03286495804786682,-0.10273879021406174,0.05675122141838074,0.25955015420913699,-0.04754025861620903,0.1991015076637268,0.13914664089679719,0.2925168573856354,0.2362859547138214,0.1791616827249527,-0.22464342415332795,0.12447786331176758,-0.1538364291191101,0.2752249240875244,-0.00453069107607007,0.010132044553756714,-0.09241066873073578,0.056404534727334979,0.046165093779563907,0.019502129405736924,-0.11609824746847153,0.07017912715673447,-0.027017366141080858,0.10512944310903549,0.4580949544906616,0.034734901040792468,0.04284677654504776,-0.14567671716213227,0.13342811167240144,-0.1845640242099762,-0.04981507733464241,0.09717684239149094,-0.15292078256607057,0.06028832867741585,-0.15932317078113557,0.2638753354549408,0.008976253680884838,0.07484912872314453,0.24711225926876069,0.11985591799020767,0.1428309828042984,0.4168226420879364,-0.09611377120018006,0.05038203299045563,0.04865351691842079,0.08681616932153702,-0.0932941883802414,0.2289530634880066,0.07617511600255966,0.038699857890605929,-0.11334364861249924,0.03908080607652664,-0.16821984946727754,0.3269790709018707,-0.15625381469726563,0.11906325817108154,0.044510841369628909,0.1654384732246399,0.06192532554268837,-0.017429837957024576,0.13857854902744294,-0.13470809161663056,-0.04779689013957977,0.12779535353183747,0.01210987102240324,-0.14138439297676087,0.288380891084671,0.048224255442619327,-0.12321384251117706,-0.05429099500179291,-0.02957603894174099,-0.01719731092453003,-0.251161128282547,0.03176775202155113,-0.09607871621847153,0.21551746129989625,0.15871396660804749,0.29302307963371279,0.10653963685035706,0.008940031751990319,-0.07322894036769867,-0.04160435125231743,-0.23879240453243257,0.10687918215990067,-0.06414187699556351,-0.1574888378381729,0.03410773351788521,0.1379597783088684,-0.00736364396288991,-0.1974932998418808,0.0016989168943837286,0.010911966674029827,0.15684349834918977,0.21163468062877656,-0.15336517989635468,0.42870834469795229,0.35069674253463747,0.029913606122136117,-0.05401081591844559,0.30009111762046816,-0.15343639254570008,-0.039930395781993869,0.09180334210395813,0.11792798340320587,0.08218661695718765,0.08775950223207474,-0.1381320357322693,-0.18259872496128083,0.11147677153348923,0.00046386869507841766,0.2660960257053375,-0.17057543992996217,0.07649978250265122,-0.03766138479113579,-0.37322670221328738,0.3015991449356079,0.1276569366455078,0.16268499195575715,0.09719380736351013,-0.12370151281356812,-0.011224267072975636,0.10370300710201264,0.008540305308997631,-0.026260802522301675,0.023377278819680215,-0.1688019186258316,0.14584627747535706,0.2709243595600128,0.149050772190094,-0.2057478427886963,-0.08095566183328629,-0.33669254183769228,-0.19226694107055665,-0.09634983539581299,0.20380322635173798,0.39441779255867007,-0.20512302219867707,0.2526247501373291,0.098811574280262,-0.38225752115249636,0.07726694643497467,0.12621690332889558,0.24005857110023499,0.2572020888328552,0.10765216499567032,0.0007522915257140994,-0.15668483078479768,-0.02024064213037491,-0.10750468820333481,0.0947282537817955,0.10137567669153214,0.23883174359798432,0.05367070436477661,-0.12005434185266495,-0.07105487585067749,-0.04505130276083946,-0.17172376811504365,0.17699696123600007,0.1715138703584671,-0.08275824040174484,0.02449694462120533,-0.016788136214017869,-0.20763267576694489,0.14083921909332276,-0.19867514073848725,-0.03317968547344208,-0.0031121876090765,0.2977953255176544,0.07594889402389527,0.14324814081192017,0.20899765193462373,-0.0692565068602562,0.10258251428604126,-0.06449414789676666,0.03297729045152664,0.07969499379396439,0.18291378021240235,0.2659311890602112,0.12138921022415161,0.096151202917099,0.1760798990726471,-0.1438218653202057,-0.3864096701145172,0.12179549783468247,0.10492878407239914,-0.14295855164527894,0.07524924725294113,-0.21788249909877778,-0.02665705420076847,0.14146846532821656,-0.11904425919055939,-0.2838694751262665,0.1030840128660202,-0.1356591433286667,0.09012186527252197,0.09453332424163819,-0.10372520983219147,0.1176128014922142,-0.0542154498398304,0.1258881837129593,-0.09995348751544953,0.24574774503707887,0.06651665270328522,0.10898371040821076,0.0733715370297432,0.015404053032398224,0.29487311840057375,-0.04883042722940445,-0.139085590839386,0.07446160167455673,-0.05594819784164429,0.16956420242786408,0.21716763079166413,0.015989376232028009,-0.1803487092256546,-0.3818739652633667,0.09364470839500427,-0.09304959326982498,-0.08763732761144638,-0.10617706179618836,-0.048679154366254809,0.03221368044614792,0.18296349048614503,-0.08437249064445496,-0.09637008607387543,0.12383195757865906,0.11259283125400543,-0.02306591160595417,-0.11196310818195343,-0.09230022132396698,0.10886462777853012,0.2919238209724426,0.19500994682312013,0.2280125617980957,-0.1299077868461609,0.28427085280418398,0.11591693758964539,0.07591211795806885,0.031503647565841678,0.532771110534668,0.21419668197631837,0.1508415937423706,-0.04934708774089813,0.12835241854190827,-0.18117104470729829,-0.007655287627130747,0.2528052031993866,0.28507885336875918,0.009414099156856537,-0.06586971879005432,-0.10327178984880448,-0.027721505612134935,0.05980776622891426,-0.12090428173542023,0.10559849441051483,0.12324590235948563,0.12345397472381592,0.01384660229086876,-0.22160093486309052,0.3999559283256531,-0.0888364389538765,0.036122653633356097,0.31334665417671206,0.003525504609569907,-0.17427532374858857,0.06372782588005066,0.06114381179213524,0.253172367811203,0.196076437830925,0.230834499001503,0.035765957087278369,0.22992397844791413,0.14902113378047944,0.05445168912410736,0.034422408789396289,-0.26156750321388247,-0.13215503096580506,0.07777897268533707,0.023562902584671975,0.0956592857837677,-0.13015218079090119,0.3268853724002838,0.0011081823613494635,-0.20025581121444703,0.0580730214715004,-0.0974854901432991,0.0021480375435203315,-0.23914946615695954,0.1777530014514923,0.039457932114601138,0.2788017988204956,0.1959649622440338,0.013392104767262936,-0.24306920170783997,0.17316660284996034,-0.05454540252685547,0.007585759274661541,0.048799335956573489,0.04078688845038414,0.24046847224235536,0.0811203196644783,0.018608156591653825,-0.05725029110908508,-0.09581206738948822,0.09295467287302017,0.18026238679885865,0.25448983907699587,-0.07890604436397553,-0.2261664718389511,0.21934206783771516,0.11528221517801285,0.16099055111408235,0.014299738220870495,0.12345630675554276,-0.0057798391208052639,-0.00005393031460698694,0.03309888765215874,0.026152456179261209,0.14928267896175385,-0.22287724912166596,0.16251154243946076,0.2843725383281708,0.2631778120994568,0.2670421302318573,0.16144877672195435,0.17305871844291688,0.10791891813278198,0.1020675078034401,-0.008722697384655476,-0.1733657270669937,0.03273962810635567,-0.10231665521860123,0.06588831543922425,0.26339009404182436,0.1771421581506729,0.3496129810810089,0.061769142746925357,-0.05498811975121498,0.028694262728095056,0.03181770071387291,0.0186134222894907,0.15580949187278748,0.18639974296092988,0.03004038706421852,0.13692505657672883,0.18078140914440156,0.13632184267044068,-0.05208553001284599,0.22343797981739045,-0.26177385449409487,0.22183851897716523,-0.20449097454547883,-0.09086313843727112,0.28455403447151186,-0.007716675288975239,0.15518014132976533,0.1850486546754837,-0.03202934190630913,0.05810263752937317,0.05127955228090286,-0.10271240025758743,0.025460135191679,0.08212130516767502,0.006397170014679432,0.13329669833183289,-0.1261005997657776,-0.005093283019959927,0.053479116410017017,0.06919905543327332,-0.021555453538894655,0.042507436126470569,0.08065392822027207,-0.07682286947965622,-0.00890569481998682,-0.25874415040016177,-0.15038910508155824,-0.18243126571178437,-0.11949168145656586,-0.29740336537361147,0.10590572655200958,-0.026146769523620607,-0.12119825929403305,0.01863187551498413,0.010694822296500206,0.2896392047405243,0.4792729318141937,0.3017719089984894,0.146686851978302,0.01916320249438286,0.07034450024366379,-0.005356932058930397,-0.21796250343322755,0.002478232141584158,0.274655818939209,-0.018379295244812967,0.03592127189040184,-0.032131608575582507,0.03946180269122124,0.07355152070522309,-0.15030786395072938,-0.10088928788900376,-0.07473571598529816,0.02505795657634735,0.11057919263839722,0.19419068098068238,0.08070145547389984,0.19705499708652497,-0.11419232934713364,-0.13215813040733338,-0.016806552186608316,-0.11582983285188675,0.010358186438679695,0.17280665040016175,-0.22450396418571473,0.11444755643606186,-0.1851491630077362,0.038198214024305347,-0.08879078924655914,-0.025073319673538209,-0.03420383110642433,0.17610099911689759,0.0358862578868866,-0.09673119336366654,-0.19316212832927705,-0.04179074987769127,0.006591484881937504,0.13836054503917695,-0.1571955382823944,-0.0323917493224144,-0.17468291521072389,-0.1371518224477768,-0.04086807742714882,0.028260288760066034,0.08558902144432068,-0.07139968872070313,-0.00484709395095706,0.019532302394509317,0.18211035430431367,-0.1937962770462036,-0.02623092755675316,-0.40952786803245547,0.18273833394050599,0.019754918292164804,0.10638360679149628,-0.3904733657836914,-0.01641049236059189,0.13840746879577638,-0.06574469059705734,-0.0307280495762825,-0.19240112602710725,0.06840138882398606,-0.03908532112836838,-0.048015061765909198,-0.3002699017524719,0.1828208714723587,-0.1792442798614502,-0.12258969247341156,-0.13560684025287629,-0.10337371379137039,-0.046872857958078387,0.15886011719703675,-0.07594532519578934,-0.046955130994319919,-0.038026463240385059,-0.11689194291830063,-0.08234956115484238,-0.042249370366334918,-0.25751635432243349,-0.07588652521371842,-0.02229425683617592,0.1307317316532135,-0.1316487044095993,0.07005942612886429,-0.13359175622463227,0.0032800661865621807,-0.2209835797548294,-0.4090481400489807,0.06554749608039856,-0.04500887170433998,-0.013665455393493176,-0.2481604516506195,-0.0654696673154831,0.22775255143642426,-0.14162224531173707,-0.1444934904575348,-0.012298072688281536,0.028350384905934335,0.06685006618499756,0.038295239210128787,0.20834890007972718,-0.12461142987012863,0.08268240839242935,0.24419663846492768,-0.08912841975688935,-0.18471388518810273,-0.10651285946369171,-0.08202648907899857,0.0018861365970224143,-0.07832817733287811,0.09527509659528732,0.007569416426122189,0.12687815725803376,-0.32104381918907168,-0.05761327967047691,-0.08372808247804642,-0.10218745470046997,-0.1321539580821991,0.15836012363433839,-0.05837322026491165,0.019455520436167718,0.09099069982767105,-0.06504905223846436,0.06392418593168259,-0.005213468801230192,0.2694360315799713,0.19902926683425904,0.23076403141021729,-0.19435860216617585,-0.09810809791088104,0.13780242204666139,0.14998666942119599,0.02549326978623867,-0.19816696643829347,0.15330103039741517,0.3231613337993622,-0.08025170117616654,-0.07730819284915924,-0.19762440025806428,0.20249579846858979,-0.08419530838727951,-0.10952521115541458,-0.033228978514671329,0.16462334990501405,-0.13633747398853303,-0.04127994924783707,0.11088503897190094,-0.15580502152442933,0.11339113861322403,-0.07531630247831345,0.04849962517619133,-0.025855254381895067,-0.07341428101062775,0.06764473766088486,0.029138701036572458,-0.16405372321605683,0.10496076196432114,0.060362134128808978,-0.15694235265254975,-0.0399080365896225,-0.12865586578845979,-0.14189432561397553,0.27537301182746889,0.10084149986505509,-0.15225397050380708,0.16501058638095857,-0.020856015384197236,0.18083280324935914,-0.040146518498659137,-0.06199369579553604,-0.28813856840133669,0.0013404045021161438,0.22489194571971894,0.15331919491291047,0.3135968744754791,0.027453336864709855,0.07277163118124008,0.05429830774664879,0.12438137829303742,0.10063831508159638,-0.03691738471388817,0.12569032609462739,0.05059966444969177,0.08858032524585724,0.3630882203578949,-0.12907667458057404,0.12293171137571335,-0.22267059981822968,0.21454080939292909,-0.180193230509758,0.16754068434238435,-0.013155323453247548,0.27038636803627016,-0.08738122135400772,0.3822512924671173,-0.15018479526042939,0.03097246028482914,0.22545431554317475,0.09985794126987457,0.3083798885345459,-0.036537542939186099,0.1458314061164856,0.04565552622079849,-0.2536279559135437,0.38607242703437807,0.01687324047088623,-0.03780215606093407,0.2720111310482025,0.21117809414863587,-0.09000041335821152,-0.12492380291223526,-0.295551598072052,0.17383120954036714,0.04240292310714722,0.13126225769519807,-0.2082451730966568,0.37682634592056277,-0.20317520201206208,0.013051955960690976,0.016542453318834306,-0.2535996437072754,0.0010573586914688349,0.08475501835346222,0.04095543920993805,-0.03453949838876724,0.3044746220111847,0.11241202056407929,-0.0987958237528801,-0.03225468471646309,-0.11068330705165863,-0.08391788601875305,0.14132855832576753,0.01836681179702282,-0.2029259204864502,0.11599963903427124,0.015323973260819912,0.23968683183193208,-0.1019337922334671,0.0677001103758812,0.014411388896405697,-0.16903966665267945,0.13655181229114533,-0.02487037517130375,-0.1567041575908661,-0.10458289831876755,0.11421976238489151,0.07453887909650803,0.11266809701919556,-0.26627805829048159,0.014375676400959492,0.25283464789390566,0.07269289344549179,0.05506347864866257,0.31467658281326296,-0.22413325309753419,0.2172098606824875,0.11301793158054352,-0.15926016867160798,-0.0557178258895874,0.14144274592399598,0.11787218600511551,0.36450472474098208,-0.05271514132618904,-0.0956650897860527,-0.1109968051314354,0.19863247871398927,-0.15723180770874024,0.11702800542116165,-0.05609457567334175,0.0060529257170856,-0.007600712589919567,-0.2055780589580536,0.009491059929132462,0.18858103454113007,0.08658818155527115,0.1083177700638771,0.01825283095240593,-0.1659696102142334,0.12355407327413559,-0.3076784312725067,0.08011189848184586,0.03866375982761383,0.26909637451171877,-0.08197368681430817,-0.013531622476875782,-0.12070009112358093,0.1694951206445694,-0.24314554035663606,0.2600822448730469,0.2705979347229004,-0.06428427249193192,0.11117180436849594,0.29372692108154299,-0.20876623690128327,-0.31732508540153506,-0.11782129853963852,-0.10868006944656372,-0.031237775459885598,-0.029643313959240915,-0.14981532096862794,-0.08040925115346909,0.05374297872185707,-0.15058563649654389,-0.32206717133522036,-0.14310458302497865,0.07495810836553574,-0.27483490109443667,-0.13718712329864503,-0.15290045738220216,-0.04387558624148369,-0.04910196363925934,0.06770264357328415,-0.26601189374923708,-0.08160464465618134,-0.2076510339975357,0.06600107997655869,-0.013585587963461876,0.05676010623574257,0.21780937910079957,0.09882137924432755,-0.18710729479789735,0.22050784528255464,-0.2936733663082123,0.022326387465000154,0.018750043585896493,-0.006850608624517918,-0.03703689202666283,0.05507414788007736,-0.047806769609451297,-0.36093655228614809,-0.18962351977825166,-0.18502360582351685,-0.012936829589307309,-0.2118622064590454,-0.03383936360478401,0.037790462374687198,-0.0926847979426384,0.030985282734036447,-0.0013196533545851708,-0.06672817468643189,-0.35575637221336367,0.02675815112888813,0.25675201416015627,-0.10429269075393677,-0.0734337568283081,-0.16752995550632478,0.2211616188287735,-0.07773992419242859,-0.16665464639663697,-0.28711357712745669,-0.15253710746765138,0.1941639930009842,0.09479252249002457,0.04511483386158943,0.05341268330812454,-0.1424640566110611,-0.01004895567893982,0.12111412733793259,-0.004991696681827307,-0.010709093883633614,-0.04457252472639084,-0.0624568834900856,-0.07241203635931015,-0.2148868590593338,0.05524484068155289,0.27019330859184267,0.24486565589904786,0.0116134537383914,-0.012770075350999833,-0.15418443083763123,0.0024219308979809286,0.16270951926708222,0.3785768449306488,-0.2782684862613678,-0.09098292142152786,0.08878099173307419,0.08491724729537964,-0.2121574878692627,-0.0929533839225769,0.13269750773906709,0.14516600966453553,0.09986487030982971,0.024207262322306634,0.18140213191509248,0.03591102361679077,-0.1807299107313156,-0.31032663583755495,0.0709645077586174,-0.2772251069545746,0.08099191635847092,0.2130500227212906,-0.4403100609779358,-0.07524388283491135,0.044337786734104159,-0.39164718985557558,-0.26949450373649599,-0.0038488535210490228,-0.10889565199613571,-0.20156404376029969,-0.045189570635557178,0.08782317489385605,0.07146083563566208,-0.05493050441145897,0.1356273889541626,-0.03407434746623039,0.14460135996341706,-0.18208549916744233,-0.38404542207717898,-0.22307738661766053,0.15919312834739686,-0.32243359088897707,0.2226552814245224,-0.25495654344558718,-0.18509894609451295,-0.0207330584526062,0.04202699288725853,-0.032747916877269748,-0.0861789733171463,-0.19043482840061189,-0.26671165227890017,-0.12506777048110963,0.006865240167826414,-0.06192655488848686,-0.6132857799530029,-0.4056372344493866,-0.23061533272266389,-0.38590550422668459,0.00823485292494297,-0.05032021179795265,0.052756257355213168,-0.07353702187538147,-0.2315152883529663,-0.14122037589550019,0.11537937074899674,-0.0005309814587235451,0.2736865282058716,-0.1700514703989029,0.20972393453121186,0.1255410611629486,0.1342332512140274,-0.08016796410083771,0.1407625675201416,0.009212651289999485,-0.0041184136644005779,-0.07396896183490753,0.2522164583206177,0.02559647150337696,0.3532169461250305,-0.06562397629022598,-0.09395457059144974,0.16796736419200898,0.17506365478038789,0.1883331686258316,-0.004653233103454113,0.039513636380434039,-0.0986199826002121,-0.21024534106254579,0.36695903539657595,-0.06474883109331131,-0.10614078491926193,-0.05489444360136986,0.11428315192461014,0.057742755860090259,0.5477083921432495,-0.09310052543878555,0.10123664885759354,0.21864214539527894,0.0066446829587221149,0.35460516810417178,0.12775221467018128,0.12275467067956925,0.08425749838352204,0.22830452024936677,0.22822996973991395,-0.1283368021249771,0.20868901908397675,-0.0491139180958271,-0.3569665551185608,0.2219868153333664,-0.022936586290597917,-0.2124088704586029,-0.12388861179351807,0.11301993578672409,0.04947054013609886,-0.022176222875714303,0.023928744718432428,-0.4874582886695862,0.11388887465000153,-0.20605139434337617,-0.1329260617494583,-0.14799436926841737,0.0013434069696813822,0.33771318197250368,-0.12715895473957063,0.3231934607028961,0.01468342263251543,0.1067594662308693,-0.20957502722740174,-0.2455587089061737,0.14290165901184083,-0.11207395792007446,0.06295755505561829,0.12623630464076997,-0.04556182399392128,-0.20205412805080415,0.026354189962148668,-0.17136234045028687,0.1912223845720291,0.14758887887001038,0.18138256669044496,0.4105934798717499,-0.005082772113382816,-0.060425907373428348,-0.22318658232688905,-0.1264999359846115,-0.021550877019762994,-0.07870277762413025,-0.14666493237018586,0.010987523011863232,-0.29213565587997439,-0.14528781175613404,0.20936928689479829,0.27199190855026247,-0.32854071259498598,-0.05909988656640053,-0.06405691802501679,-0.05277780443429947,0.17526769638061524,-0.1849672943353653,-0.08525305241346359,0.2287357747554779,-0.013682243414223194,0.19326817989349366,-0.21100549399852754,0.31999263167381289,0.033515993505716327,-0.08982513099908829,-0.052595071494579318,0.05846647545695305,-0.01516626589000225,0.43086597323417666,0.0158037468791008,0.1109670028090477,0.08179870992898941,-0.030005361884832383,0.07659418880939484,0.06095431372523308,-0.07769244909286499,0.19591547548770905,0.1146363765001297,0.2794942557811737,0.1484549641609192,-0.14884787797927857,0.017072997987270356,0.18406780064105988,0.18342722952365876,-0.12792260944843293,-0.03824868053197861,-0.01875518076121807,0.24005942046642304,-0.10570717602968216,0.12726430594921113,-0.055966440588235858,-0.022475799545645715,0.028772644698619844,-0.08126623928546906,0.12038607150316239,-0.03991423174738884,-0.18649141490459443,0.004467731341719627,-0.22472581267356873,0.2161375731229782,-0.10243689268827439,0.08300187438726425,-0.006476034875959158,-0.02571498230099678,0.2520085573196411,0.06632561981678009,-0.07137124985456467,-0.26451656222343447,-0.003301942488178611,0.186379075050354,0.015312294475734234,0.24912671744823457,-0.0961209237575531,-0.016513431444764139,-0.03280172869563103,-0.03070797771215439,0.18871372938156129,0.07956982403993607,0.023854689672589303,-0.0952841266989708,-0.034279488027095798,-0.018712341785430909,-0.2769259512424469,0.022169062867760659,0.09838958829641342,-0.1200900450348854,0.03186580911278725,0.17614342272281648,0.18577803671360017,0.005331183318048716,-0.14359845221042634,0.14993664622306825,0.07214675843715668,0.04245343059301376,-0.015437501482665539,-0.04591374099254608,-0.0019445783691480756,0.19587530195713044,0.04918871819972992,-0.10659681260585785,-0.024546656757593156,0.05246972665190697,0.016777994111180307,0.11150722950696945,-0.09891209006309509,-0.18460261821746827,-0.284892737865448,0.016026390716433526,-0.23519150912761689,0.19751770794391633,0.03099600225687027,-0.010219276882708073,0.5359914302825928,0.22373183071613313,0.04637518525123596,-0.03932894766330719,0.20948244631290437,-0.16915477812290193,-0.2442171424627304,-0.03393428400158882,0.15580224990844727,-0.026368102058768274,0.012042033486068249,0.08063806593418122,-0.13651789724826814,0.26289787888526919,-0.06750685721635819,0.14324522018432618,0.23723162710666657,-0.033162519335746768,0.1285521686077118,0.018381142988801004,-0.13519810140132905,-0.028304284438490869,0.25684744119644167,0.18424862623214723,0.013611644506454468,0.1466773897409439,0.11951211094856262,0.19977392256259919,0.04191393777728081,-0.15582309663295747,-0.06154576316475868,0.17300450801849366,0.17301933467388154,0.2028670758008957,-0.013849357143044472,-0.2781553566455841,-0.1970919668674469,-0.19115817546844483,0.23084518313407899,-0.025706835091114045,0.025914864614605905,0.28699374198913576,0.3142019510269165,0.18281973898410798,0.29475530982017519,0.037983208894729617,0.1539933681488037,0.11004319787025452,0.04171666502952576,-0.03894547000527382,0.05710273236036301,0.15615996718406678,0.18794900178909303,-0.026348691433668138,-0.013992677442729473,0.3445091247558594,-0.24966464936733247,-0.05879956856369972,0.3357974886894226,-0.12989091873168946,-0.015663225203752519,-0.08290223777294159,-0.052978720515966418,-0.01454998180270195,0.29996490478515627,-0.013967891223728657,0.4397568702697754,0.04169087111949921,-0.07361972332000733,-0.06412043422460556,-0.02222939394414425,0.00010198952804785222,-0.13456696271896363,-0.014853040687739849,0.30378782749176028,0.08565514534711838,0.082658551633358,0.04792555421590805,-0.382488876581192,0.21224519610404969,0.04993422329425812,0.19026021659374238,0.09254323691129685,-0.04765596613287926,-0.0532444603741169,-0.009988741017878056,0.005374567117542028,0.354080468416214,-0.10571546107530594,-0.2124466747045517,0.15069390833377839,-0.18030396103858949,0.18563605844974519,-0.10740349441766739,0.10277773439884186,0.3715641498565674,0.29419925808906557,-0.2677076756954193,0.068296879529953,0.24098610877990724,-0.01858765445649624,-0.013394284062087536,0.36123722791671755,0.0811338871717453,0.21974460780620576,0.07827287167310715,0.09461170434951782,0.09356384724378586,0.35468003153800967,0.44067180156707766,0.38576775789260867,0.10333713889122009,0.11072827130556107,0.1512795090675354,0.029758522287011148,0.11745518445968628,0.1530114710330963,0.09743626415729523,0.10552056133747101,-0.16947118937969209,-0.4991953670978546,0.1835867017507553,0.019713832065463067,0.0017650341615080834,-0.22746911644935609,0.054374612867832187,-0.22760723531246186,-0.09454256296157837,0.34785500168800356,0.2774714529514313,-0.06443598121404648,-0.11676599085330963,-0.029753999784588815,-0.010028877295553685,0.03737558797001839,0.11549495160579682,0.13346165418624879,0.20081517100334168,0.3169775605201721,0.039292167872190478,-0.025273388251662256,-0.14361894130706788,0.16144444048404694,-0.19360265135765077,0.32760322093963625,0.2660360336303711,0.37635374069213869,-0.168008953332901,0.09868974983692169,0.031754445284605029,0.11337734013795853,0.16477249562740327,-0.013317921198904515,0.2621479332447052,0.03014071099460125,-0.037336789071559909,-0.09909894317388535,0.03784765303134918,0.06505628675222397,-0.06141738221049309,-0.17756521701812745,-0.09267144650220871,-0.1351666897535324,-0.3071306049823761,-0.03937779366970062,0.11469368636608124,-0.02191825583577156,0.04052453488111496,0.06293723732233048,-0.09184854477643967,-0.007541079074144363,0.04931025207042694,-0.1153213307261467,0.06298951804637909,0.11442798376083374,0.2010839730501175,-0.10096844285726547,-0.0035856631584465505,0.1691896915435791,0.19165238738059998,-0.027537832036614419,0.12319125980138779,-0.15468910336494447,-0.04404102638363838,0.11291830241680145,0.038156475871801379,0.014079187996685505,0.16175667941570283,-0.12033664435148239,0.17198815941810609,-0.06602180004119873,0.03180111572146416,0.16007694602012635,-0.20715060830116273,0.11812878400087357,0.14998242259025575,0.08937548100948334,-0.03993027284741402,-0.19286902248859406,0.16946899890899659,-0.087803415954113,-0.04182679206132889,0.06876637786626816,0.10207929462194443,-0.003153103170916438,-0.09936676919460297,-0.027704769745469095,0.14990411698818208,0.11954846978187561,0.1256490796804428,0.1629837602376938,0.29127684235572817,-0.04704780504107475,-0.29487651586532595,0.1538681834936142,-0.014913306571543217,0.18760959804058076,0.0624103844165802,0.08771123737096787,0.2651945948600769,-0.16200795769691468,0.12035921961069107,0.15950369834899903,0.01319421548396349,0.09670508652925492,-0.3690936863422394,0.0008610589429736137,-0.023313576355576516,0.09727653861045838,-0.06920135021209717,0.132928267121315,0.37723755836486819,0.016737131401896478,-0.094202421605587,-0.010165424086153508,-0.20787093043327332,0.08349371701478958,-0.2750294506549835,-0.08469001203775406,-0.02016230672597885,-0.20867624878883363,0.04665955901145935,-0.1125316470861435,0.1795939803123474,-0.016413675621151925,-0.09218260645866394,0.3683713674545288,0.20698848366737367,0.04694768786430359,-0.17539671063423158,-0.09460708498954773,0.11329398304224014,0.2057352513074875,0.11289632320404053,-0.057215746492147449,-0.0878215953707695,0.1552155613899231,-0.036128439009189609,-0.006277603097259998,0.044792573899030688,0.0652913749217987,-0.2654931843280792,-0.29566827416419985,-0.35308077931404116,-0.46706315875053408,-0.31297197937965395,-0.01773315854370594,-0.04135848209261894,0.15952420234680177,-0.03816724568605423,0.14297470450401307,-0.14016936719417573,0.16817854344844819,0.002860885113477707,-0.06483130156993866,-0.08130491524934769,0.021980097517371179,-0.028038660064339639,-0.24139004945755006,0.17700719833374024,-0.058761145919561389,0.10542131960391998,-0.018447386100888253,-0.10229916870594025,-0.11277034878730774,0.012247082777321339,-0.19234725832939149,-0.20903411507606507,0.004247742239385843,0.05612204223871231,0.08703888207674027,-0.09749419242143631,0.021957777440547944,0.023141121491789819,0.03598324581980705,0.09509599208831787,-0.22024638950824738,-0.09982652962207794,0.2341712862253189,-0.0600871704518795,-0.23453998565673829,0.04238170385360718,-0.16974510252475739,0.0957195833325386,0.3217823803424835,0.24055755138397218,-0.1316138058900833,-0.13281045854091645,-0.20039331912994386,0.04504045471549034,-0.146450012922287,0.11700371652841568,0.20905381441116334,0.08187534660100937,-0.045077092945575717,-0.112559974193573,-0.1446237862110138,0.004880515858530998,-0.29416364431381228,0.02535233274102211,-0.09189625829458237,-0.11837918311357498,0.004612356424331665,0.2198885828256607,0.04511910676956177,-0.010564487427473069,0.29324182868003847,-0.07826519757509232,-0.08573000878095627,-0.12987807393074037,0.018504086881875993,0.09311164915561676,0.03767747804522514,0.09296245127916336,-0.2146407663822174,0.22551819682121278,0.16738778352737428,0.0013128943974152208,0.15662357211112977,-0.2932102382183075,0.09370365738868714,0.7320326566696167,0.2904948592185974,-0.10070948302745819,0.14628838002681733,0.22432056069374085,-0.1537429541349411,-0.07946403324604035,-0.15245284140110017,-0.06281515955924988,0.07578940689563751,-0.09975898265838623,-0.019187599420547487,-0.00862075388431549,0.12317648530006409,0.2268446385860443,-0.09832169860601425,-0.38056817650794985,0.1289498507976532,0.18255853652954102,-0.15109749138355256,0.04493327811360359,0.0584457702934742,-0.11978715658187866,0.19560177624225617,-0.049946580082178119,0.2374989539384842,0.052297282963991168,0.14267200231552125,0.1766846925020218,0.24132677912712098,-0.1512620896100998,0.08799190074205399,0.16063518822193147,0.02628137730062008,-0.022716403007507325,-0.27502816915512087,0.10907735675573349,-0.2203475385904312,0.12126613408327103,-0.2834232747554779,0.11670492589473725,-0.05231669172644615,0.0016038796165958047,0.5063911080360413,-0.23873186111450196,0.08130433410406113,0.1446845382452011,-0.28911423683166506,-0.21370717883110047,0.08491316437721253,0.3197201192378998,-0.16089364886283875,-0.012010795064270497,-0.052503108978271487,-0.2232685685157776,0.15308663249015809,0.15675383806228639,0.003944020718336105,0.02988043613731861,-0.0003121221379842609,0.159975066781044,-0.15970388054847718,-0.05111139640212059,-0.019344715401530267,-0.03853490203619003,-0.08849894255399704,0.04062172770500183,0.235643669962883,-0.06321346014738083,0.12749363481998444,0.10692615061998368,0.0037586393300443889,0.08173702657222748,-0.005455431528389454,-0.14046864211559297,-0.105113185942173,0.15114420652389527,-0.27031397819519045,-0.08195704966783524,0.07483793050050736,0.03379041701555252,-0.1598214954137802,0.21285559237003327,-0.11975090205669403,0.04621976986527443,-0.1668565422296524,0.199611097574234,-0.03733038902282715,0.136214017868042,-0.1372685581445694,-0.1635170727968216,0.2303408682346344,-0.19758740067481996,0.22343313694000245,0.16328904032707215,-0.07614781707525253,0.12358921766281128,-0.32393527030944826,0.2587982714176178,-0.06082122027873993,-0.1046019122004509,0.1339545100927353,-0.0760662853717804,0.22662270069122315,0.16506704688072205,0.22475585341453553,0.009227347560226918,0.15305215120315553,0.02557077817618847,-0.052895739674568179,0.10328087210655213,0.0065405843779444698,0.07311233878135681,0.14294132590293885,-0.06629880517721176,0.0712159126996994,-0.044585224241018298,0.014854954555630684,0.3046565353870392,-0.05041365325450897,0.2922298312187195,-0.25344118475914,-0.04093027859926224,-0.02038375660777092,-0.007842890918254853,0.11082219332456589,0.020294295623898507,0.26431718468666079,-0.05866013839840889,0.2048531472682953,0.08071474730968476,-0.1858505755662918,-0.06677393615245819,0.26752689480781557,-0.19910532236099244,0.28007006645202639,-0.05332318693399429,-0.22961078584194184,0.007351655978709459,-0.14420096576213838,0.07029997557401657,-0.07473703473806381,0.06912785768508911,0.14246664941310883,0.0289395023137331,-0.02333770878612995,-0.005185655318200588,-0.14931753277778626,-0.07913131266832352,0.11703699082136154,-0.015067278407514096,0.06909829378128052,-0.15760955214500428,0.10929051786661148,-0.18804869055747987,-0.21391157805919648,-0.4776002764701843,-0.12474951148033142,-0.40993809700012209,0.12318797409534455,-0.1076917052268982,0.17640623450279237,-0.20926505327224732,0.2962626814842224,-0.0921461433172226,-0.1335945427417755,0.10871439427137375,-0.010709329508244992,0.22199374437332154,0.06030478700995445,0.21384918689727784,0.11532432585954666,-0.17325471341609956,0.11677242070436478,-0.07543755322694779,-0.0714532807469368,0.08963223546743393,-0.050939176231622699,-0.3589131236076355,0.3306141197681427,-0.009470894932746888,-0.06322506070137024,-0.11504101753234863,-0.05451466515660286,-0.2660263180732727,-0.2233356386423111,-0.04455633461475372,-0.34367480874061587,0.022548485547304155,0.16502483189105988,-0.05514037609100342,-0.21862073242664338,0.03198251873254776,-0.24835625290870667,0.020457224920392038,0.08179862052202225,-0.2590654790401459,0.05506712570786476,0.06066500023007393,0.09415053576231003,-0.031208191066980363,-0.22104229032993318,0.11163356155157089,-0.005097259301692247,-0.06305830180644989,-0.004152581561356783,0.17113171517848969,-0.24208126962184907,0.2606103718280792,-0.16223180294036866,0.16048172116279603,-0.09720708429813385,0.35928788781166079,0.09677819907665253,-0.17519496381282807,-0.19154533743858338,-0.29917317628860476,0.05788349360227585,-0.15804193913936616,-0.1931120604276657,-0.3017697036266327,0.07461651414632797,-0.0031378082931041719,0.04443011060357094,-0.13266624510288239,0.1995960772037506,-0.09674114733934403,-0.40853312611579897,0.156829372048378,-0.06738916039466858,-0.055950827896595,0.09758235514163971,0.022690698504447938,-0.15301395952701569,-0.004870651755481958,-0.017099840566515924,-0.03783123195171356,-0.08761738985776901,0.14032027125358582,-0.025411173701286317,-0.034003548324108127,-0.06922310590744019,-0.13593308627605439,0.037069663405418399,-0.013295681215822697,0.02414196915924549,-0.13556386530399323,0.05803809314966202,-0.18084321916103364,0.08958543092012406,-0.06820903718471527,0.04974021762609482,0.09479698538780213,0.14237089455127717,0.24674375355243684,-0.10953463613986969,-0.2650047242641449,-0.09202975034713745,-0.21957682073116303,-0.17114895582199098,-0.05945775657892227,-0.013804508373141289,0.31856223940849306,-0.04646780341863632,-0.0875176191329956,0.05263273045420647,0.004565766081213951,0.004307586699724197,-0.08508655428886414,-0.014717105776071549,-0.06953167170286179,0.018453801050782205,0.31856897473335268,-0.19059331715106965,0.22194325923919679,0.03629476949572563,0.2808424234390259,-0.1114329844713211,-0.02867894619703293,-0.1461874097585678,-0.014185522682964802,0.037733789533376697,-0.06621474027633667,-0.17852714657783509,0.002295395126566291,-0.012947206385433674,-0.0927891805768013,-0.0033594376873224975,-0.17401370406150819,-0.017928244546055795,-0.25678661465644839,0.06546222418546677,0.0197322815656662,0.14102284610271455,-0.17966783046722413,0.11561939120292664,0.1070186048746109,-0.10787180811166763,0.27042463421821597,0.3895466923713684,0.18303130567073823,-0.012866243720054627,-0.16023439168930055,0.1400699019432068,-0.023648908361792566,0.07958229631185532,-0.1985968053340912,0.13089929521083833,0.027088085189461709,0.16522762179374696,-0.08342520892620087,-0.06894082576036453,0.011157192289829255,-0.28951209783554079,0.001128785195760429,0.12890225648880006,-0.012731469236314297,-0.025357166305184366,0.15514574944972993,0.04200371354818344,0.13475725054740907,0.16924430429935456,-0.2032504379749298,-0.09205371141433716,-0.10895267128944397,0.12944088876247407,-0.09559275209903717,0.019167065620422365,-0.11497559398412705,0.008141258731484414,-0.08633356541395188,0.4090050458908081,0.20824341475963593,-0.16231632232666017,0.13994550704956056,-0.08674794435501099,0.10778600722551346,-0.39361974596977236,0.19809702038764954,0.05402981489896774,0.015074195340275765,0.22435805201530457,0.09909152239561081,-0.04498285427689552,-0.03733529523015022,-0.08857017010450363,0.059926822781562808,0.11187958717346192,0.14244680106639863,-0.15372520685195924,0.26628774404525759,0.06438864767551422,0.06295730173587799,-0.22809602320194245,-0.0376754105091095,-0.2165578007698059,0.2163495123386383,0.1113351583480835,-0.08375570923089981,0.14021992683410645,-0.026048434898257257,0.13226653635501862,0.29305872321128847,0.24112924933433534,0.13474048674106599,0.31260359287261965,0.26036137342453005,0.31570807099342348,-0.09965834021568299,-0.039760518819093707,-0.13627058267593385,0.021010953933000566,0.097532719373703,0.3590049743652344,0.27519771456718447,-0.24153564870357514,0.13677336275577546,-0.10218404233455658,0.04742215946316719,-0.44248858094215395,0.06637705117464066,0.06174224615097046,0.20968735218048097,0.12134402990341187,0.07913585752248764,0.21300792694091798,0.046221788972616199,-0.0395209826529026,-0.22798866033554078,-0.2046436071395874,-0.17110709846019746,0.059272199869155887,0.0022338591516017915,0.10438253730535507,0.17487262189388276,-0.10775722563266754,0.0723424181342125,-0.4110775291919708,0.35534775257110598,-0.1772257685661316,0.1468050479888916,0.0485742948949337,-0.28181037306785586,0.23862504959106446,0.07693690061569214,-0.07475419342517853,-0.0393618680536747,0.20148982107639314,0.24711966514587403,0.20155459642410279,0.08456062525510788,0.3701290488243103,0.21407833695411683,-0.01091246958822012,-0.05485539883375168,-0.08171853423118592,-0.020952986553311349,-0.06951002776622772,0.0494363009929657,0.05817131698131561,0.05781538039445877,0.1122545525431633,0.27117720246315,-0.022700296714901925,-0.16918860375881196,0.17756082117557527,0.2919577658176422,-0.0479913093149662,-0.16732023656368257,-0.1482425034046173,0.11894724518060684,-0.03947675600647926,0.19902636110782624,-0.2841998338699341,0.03336861729621887,0.17735005915164948,-0.126250222325325,0.060626816004514697,-0.04731246456503868,0.35752996802330019,0.027021262794733049,-0.0033377972431480886,-0.04891885071992874,0.08308642357587815,-0.2562246024608612,-0.0906972736120224,0.06002001091837883,-0.11367442458868027,-0.008810500614345074,0.24605633318424226,0.07566709071397782,0.1797741800546646,0.012758624739944935,0.09039302170276642,0.04305790364742279,-0.2587299942970276,0.17941489815711976,-0.14155961573123933,0.04917537048459053,-0.19937245547771455,-0.10937835276126862,0.07574348896741867,0.08470318466424942,0.18724696338176728,0.03738478571176529,0.04013081640005112,0.24969132244586945,0.22602495551109315,0.17862620949745179,-0.1999828815460205,-0.0709269791841507,-0.01543714664876461,-0.04690723866224289,-0.13708516955375672,0.056446414440870288,-0.3589693307876587,-0.01748069003224373,0.10372104495763779,-0.16333690285682679,0.011809327639639378,-0.13708029687404633,0.23926782608032227,0.04605461284518242,0.2167811542749405,0.06490516662597656,0.08569004386663437,0.06973579525947571,-0.12963691353797913,0.30524519085884097,0.19716884195804597,-0.025133656337857248,-0.04779142513871193,-0.07173463702201843,-0.20007532835006715,0.13096526265144349,0.1502552032470703,0.03856557607650757,0.24873732030391694,0.16159667074680329,-0.10959670692682266,-0.037609633058309558,0.0435958057641983,-0.07776554673910141,0.4165711998939514,0.028495188802480699,0.653023898601532,0.07127313315868378,-0.022536545991897584,-0.04732625186443329,0.15475180745124818,-0.03134462609887123,-0.10342835634946823,0.06268220394849777,-0.046399232000112537,-0.19257332384586335,-0.16942664980888368,0.028627896681427957,-0.30209964513778689,0.031632598489522937,0.14698438346385957,-0.02956007979810238,0.23603636026382447,0.11261908710002899,0.2514129877090454,0.2406417727470398,-0.04569888114929199,-0.11188336461782456,-0.047709912061691287,0.16495606303215028,-0.0769796073436737,0.11536464840173722,0.1606721580028534,-0.04306924715638161,0.04954982548952103,-0.1680799424648285,0.20544295012950898,0.10954371094703675,-0.11431169509887696,-0.25175151228904726,-0.04916103184223175,0.04106658697128296,-0.10412463545799256,0.04186281934380531,-0.15275242924690247,0.1399690955877304,0.13156254589557649,0.2759269177913666,0.5239930152893066,0.26757925748825076,0.09292477369308472,-0.17353717982769013,0.155475914478302,-0.0051993876695632938,-0.24499014019966126,0.2079240083694458,-0.03568505123257637,0.06469344347715378,-0.018120018765330316,-0.0008185961050912738,-0.29427069425582888,0.045928843319416049,0.06710559874773026,-0.004318886902183294,0.10876967012882233,0.1303538978099823,0.3681160509586334,0.35467055439949038,-0.09987504780292511,0.09865773469209671,0.06476876884698868,-0.03582366555929184,0.023590443655848504,0.1594580113887787,-0.007100193295627832,0.019453151151537896,-0.13857722282409669,0.046734873205423358,-0.0395079106092453,-0.03241004794836044,-0.12607204914093018,0.046979792416095737,-0.11049126833677292,0.2030494213104248,0.019601687788963319,0.06083955243229866,-0.05057869479060173,-0.09525763243436814,0.10613700747489929,0.07671792060136795,-0.30505505204200747,0.36570367217063906,0.22832058370113374,-0.06340635567903519,-0.06942135840654373,-0.07889951020479202,0.12549637258052827,0.05721142143011093,-0.050828076899051669,-0.05549971014261246,0.1412326991558075,0.018236160278320314,0.17925290763378144,-0.156682088971138,0.18800954520702363,0.11941926181316376,-0.1525828093290329,0.1007177010178566,0.06583992391824722,0.055357106029987338,-0.25108280777931216,-0.026925692334771158,0.23519903421401978,0.2325167953968048,0.1356038600206375,-0.14503629505634309,0.26007455587387087,0.026415234431624414,0.005698442924767733,0.003526819869875908,-0.08774510771036148,0.13623543083667756,0.1809031069278717,0.12390164285898209,-0.1075025349855423,-0.038974203169345859,-0.40852299332618716,-0.154498890042305,-0.09317764639854431,0.09246992319822312,0.021645324304699899,-0.1204010471701622,-0.16199004650115968,0.18113942444324494,0.24281269311904908,-0.025056330487132074,0.01936591975390911,0.3567817807197571,-0.1483279913663864,0.08756652474403382,-0.04419559985399246,-0.0688999742269516,0.17548441886901856,-0.0405757836997509,-0.02285444177687168,0.09745478630065918,0.07141921669244766,-0.005817042663693428,-0.005053356755524874,0.10439375042915344,0.47689005732536318,0.22965118288993836,0.07748641818761826,-0.007427834440022707,0.09140989184379578,-0.09371031820774079,-0.0767732784152031,0.13013872504234315,-0.16329380869865418,0.07541798055171967,0.09504828602075577,0.17437933385372163,-0.14226104319095612,-0.13228341937065125,0.10733449459075928,-0.13222260773181916,0.14534395933151246,-0.13143593072891236,0.30570605397224429,0.08356879651546478,0.0323064886033535,0.4297983646392822,-0.13554054498672486,0.08613000065088272,0.014195053838193417,0.1917257457971573,-0.2025132179260254,-0.015815243124961854,0.19697238504886628,-0.008371612057089806,0.3238077163696289,0.19440439343452454,0.057584356516599658,0.18454501032829286,-0.276847779750824,-0.02077849954366684,0.10066795349121094,-0.24837198853492738,0.14987055957317353,0.1584310382604599,0.2801136374473572,0.11280811578035355,-0.1451064944267273,-0.17054098844528199,-0.09127471596002579,0.03516284376382828,-0.4180895686149597,0.12505175173282624,-0.30320194363594057,0.04887161776423454,-0.007220121566206217,0.15576504170894624,-0.14728261530399323,-0.045624684542417529,-0.2369748055934906,0.05288911610841751,0.21045686304569245,0.14994889497756959,0.261100172996521,0.08018801361322403,0.1821368932723999,0.1662694662809372,-0.04447277635335922,-0.06690791249275208,0.08102166652679444,-0.139226496219635,0.41750192642211916,0.07605248689651489,-0.27509623765945437,-0.07696788758039475,0.20077721774578095,0.12823644280433656,0.11913781613111496,0.02224387787282467,0.18375849723815919,-0.04655208811163902,-0.023165106773376466,0.32850155234336855,-0.030127260833978654,-0.008358143270015717,-0.15012218058109284,-0.2374742031097412,-0.23565731942653657,0.11852101981639862,-0.01898445375263691,0.04582439363002777,0.2807560861110687,0.20464448630809785,-0.09415802359580994,0.2708342969417572,0.23534177243709565,-0.11532563716173172,-0.16738171875476838,0.009124442003667355,0.29552289843559267,0.1603362262248993,0.15728481113910676,0.10689312219619751,-0.026302915066480638,-0.022147659212350847,0.09250424057245255,0.10312832146883011,-0.031713709235191348,-0.037242770195007327,0.029229000210762025,0.13687670230865479,0.11363943666219711,0.058460533618927,0.20113004744052888,0.028834689408540727,0.17764517664909364,-0.018685931339859964,0.10243729501962662,-0.09459803998470307,0.10543198138475418,-0.03358348831534386,0.0038421114441007377,-0.017241105437278749,0.1919267624616623,-0.019011221826076509,0.23116225004196168,0.17132705450057984,0.18703582882881165,0.08115874975919724,-0.047611627727746966,0.015194336883723736,-0.06998322904109955,0.003776394994929433,0.12788096070289613,0.113352470099926,-0.11680971086025238,-0.013185961171984673,-0.3414323329925537,0.1379666030406952,0.01180365588515997,0.012826324440538884,0.2058132439851761,0.2961210310459137,0.23536339402198792,0.3485313057899475,0.06042983755469322,0.046783726662397388,0.023624924942851068,0.16478927433490754,0.010695249773561955,0.14949503540992738,-0.0652201771736145,-0.015921397134661676,-0.058209378272295,0.004701806697994471,-0.07164657860994339,0.04830840975046158,0.0011251471005380154,0.0394788533449173,-0.1028289794921875,-0.013279233127832413,-0.1940886229276657,0.19012589752674104,-0.05028213560581207,-0.2833653688430786,0.3010464012622833,0.13418427109718324,-0.0831739753484726,0.008278366178274155,0.16170382499694825,0.07424800843000412,0.18090401589870454,-0.18914763629436494,0.024459239095449449,0.010668978095054627,-0.06362839043140412,0.05239474028348923,-0.16156116127967835,-0.05496761575341225,-0.3075980842113495,0.02962830476462841,0.1363762468099594,0.14969490468502046,0.12975484132766725,0.2094392478466034,0.15776854753494264,0.13830626010894776,-0.017939571291208268,-0.06166430562734604,-0.06522749364376068,0.0005375964683480561,-0.30238980054855349,0.3020518720149994,0.028608599677681924,-0.22520437836647035,-0.11901561170816422,0.05132900923490524,-0.20621904730796815,0.047962337732315066,0.03610141947865486,-0.08778075128793717,-0.0008356027537956834,0.052230313420295718,-0.39303532242774966,0.2639705538749695,-0.18636532127857209,-0.08333954960107804,0.06013328582048416,-0.04353203997015953,0.22516247630119325,-0.055843472480773929,-0.24991370737552644,-0.21789513528347016,0.23671069741249085,0.09163204580545426,-0.022700361907482148,0.18868501484394074,-0.34409692883491518,0.07747410982847214,-0.1400923877954483,-0.21726059913635255,-0.11097482591867447,-0.01039551105350256,0.12298277020454407,-0.1482212096452713,-0.04734320566058159,-0.07115597277879715,-0.24654538929462434,0.007686025463044643,0.0033208546228706838,-0.24083760380744935,-0.19693128764629365,-0.07470714300870896,0.020273637026548387,0.05694488063454628,-0.0703490749001503,-0.0493391714990139,0.019236352294683458,0.13898403942584992,0.11000704020261765,0.08217936754226685,-0.03320007026195526,-0.16070838272571565,-0.08579018712043762,0.04756249859929085,0.49794620275497439,0.15031972527503968,-0.1408071666955948,0.08910524100065232,-0.5853801369667053,0.17292188107967378,-0.02997705526649952,0.013283897191286087,0.15107806026935578,0.08420933783054352,0.12232615053653717,0.15770360827445985,0.14098282158374787,0.10823091119527817,0.03247565031051636,0.04586995020508766,-0.164351686835289,-0.1655353456735611,0.2540695369243622,0.2806956171989441,-0.09985454380512238,0.10249991714954376,0.360135555267334,0.019115544855594636,0.1629781574010849,-0.11666443198919296,-0.05073648318648338,-0.08383002132177353,-0.19411224126815797,0.06092142313718796,0.009989278391003609,-0.06451741605997086,-0.002703004749491811,0.1675698459148407,0.22188805043697358,0.09660335630178452,-0.3217078745365143,0.08251387625932694,-0.19331759214401246,-0.0577411949634552,-0.1016620472073555,0.127754807472229,0.24518752098083497,0.05647353455424309,-0.11494223773479462,0.14347761869430543,-0.1329224556684494,0.20952217280864716,0.10046514868736267,0.01598120667040348,0.25409209728240969,0.03167375922203064,0.25203341245651247,0.15314605832099915,0.1313570886850357,-0.022451166063547136,-0.06864433735609055,-0.11498066782951355,-0.04911584407091141,-0.2432650327682495,0.05948495864868164,-0.014535618014633656,-0.0014020863454788924,0.14536240696907044,-0.013492852449417115,-0.030733399093151094,0.2916988432407379,-0.021216021850705148,0.16934040188789369,0.2871517539024353,0.14341896772384644,0.08318972587585449,-0.36502018570899966,0.014862846583127976,0.016928547993302347,-0.018414318561553956,-0.13958440721035005,-0.24824661016464234,-0.12769632041454316,-0.10723201930522919,0.07285226881504059,0.01611429639160633,0.0671476498246193,0.22500088810920716,0.35070720314979555,0.19610871374607087,-0.12582531571388246,-0.22866185009479524,0.07393350452184677,0.16501601040363313,0.07617536187171936,-0.1235961988568306,0.050961222499608996,0.05103049427270889,-0.08570895344018936,0.02820873074233532,0.0368112213909626,-0.08643843233585358,0.13943037390708924,0.0785936638712883,-0.12936986982822419,0.22285741567611695,0.2535405158996582,-0.27337646484375,0.14616966247558595,-0.02827870473265648,0.17302444577217103,-0.02122308313846588,0.3478546738624573,0.057445283979177478,0.09795765578746796,0.16529317200183869,0.1553286761045456,-0.0492447093129158,-0.3459356129169464,-0.10231049358844757,0.0034113263245671989,0.22193312644958497,-0.1824924796819687,-0.19351720809936524,-0.0997038409113884,0.16128838062286378,-0.1483144611120224,0.24982519447803498,0.05543540418148041,-0.11319354176521301,0.23602360486984254,0.1984444409608841,0.2110162377357483,0.007713621482253075,0.1929589956998825,0.037783946841955188,-0.013614830560982228,0.2806442379951477,-0.23674072325229646,-0.013754094019532204,-0.10315630584955216,0.14283457398414613,0.4684081971645355,0.11549170315265656,0.16663074493408204,0.24767915904521943,-0.06250358372926712,-0.0008917752420529723,-0.09450049698352814,0.05445573851466179,0.06645084172487259,0.037728335708379748,0.040081579238176349,0.06786610931158066,0.18725284934043885,-0.18046028912067414,-0.049511756747961047,-0.1692095547914505,-0.07777455449104309,-0.18182693421840669,-0.21074123680591584,0.09502661973237992,0.06893931329250336,0.10927831381559372,-0.10319770872592926,0.10416553169488907,-0.23099692165851594,0.17210890352725984,0.10699837654829025,0.30911576747894289,0.1402805894613266,0.11239176243543625,0.2682130038738251,0.22543974220752717,-0.0025473732966929676,0.07406904548406601,-0.051310885697603229,-0.036986030638217929,0.0874737799167633,0.039023496210575107,-0.2455848902463913,-0.13307546079158784,-0.05757699906826019,0.11257646232843399,0.13437655568122865,0.2507018446922302,-0.1806759089231491,-0.07152309268712998,0.0007861904450692236,-0.06229446083307266,0.1076430082321167,-0.004237228538841009,0.15122751891613007,-0.0421157032251358,-0.12333343923091889,0.15714330971240998,0.26988840103149416,0.22275887429714204,-0.01415140088647604,0.047795966267585757,0.03244248405098915,-0.02666630409657955,-0.1412389576435089,0.00994954165071249,-0.0060953255742788319,-0.033290762454271319,0.09900473058223725,-0.15378622710704804,-0.04803048074245453,-0.2870340645313263,-0.11236263066530228,0.007636992260813713,0.05906026437878609,0.13961650431156159,0.06517060101032257,0.012625494971871376,0.09852644801139832,0.08173713088035584,0.13947220146656037,0.18101240694522859,-0.03039618395268917,0.01575174741446972,0.16967810690402986,0.144449383020401,0.05786896497011185,0.04114440456032753,0.13189084827899934,0.101371169090271,0.17444494366645814,0.1755547970533371,-0.09450174123048783,0.2449260950088501,0.16015739738941194,-0.09454169869422913,0.2616958022117615,-0.2081114649772644,0.12418536841869354,-0.19736698269844056,0.34889310598373415,0.16917042434215547,0.1543779969215393,0.15114805102348329,0.10201854258775711,-0.023152625188231469,-0.22087909281253816,0.21495787799358369,0.009502102620899678,0.21015869081020356,0.29999929666519167,-0.036976590752601626,-0.07979446649551392,-0.05465637519955635,-0.21107274293899537,0.024833574891090394,-0.05084473267197609,0.12089363485574722,-0.009721889160573483,0.09082387387752533,-0.16139154136180879,-0.10406938195228577,0.11041437834501267,0.033532410860061648,-0.026239164173603059,-0.09717803448438645,0.02274499088525772,0.018310200423002244,0.01858697086572647,0.2310621589422226,0.16623488068580628,-0.25892865657806399,0.4284742474555969,-0.15570496022701264,0.14226657152175904,0.12694625556468965,0.36208271980285647,-0.10107024013996124,-0.06977277994155884,0.34657976031303408,-0.2856253981590271,-0.04103109985589981,0.13706400990486146,-0.07083819806575775,-0.14144060015678407,-0.14379626512527467,-0.19840916991233827,0.15682688355445863,-0.05649275332689285,0.01422817911952734,0.13174639642238618,0.06775638461112976,-0.11457206308841706,-0.027542579919099809,-0.25051629543304446,-0.39259564876556399,0.14436927437782288,0.21991026401519776,-0.12229383736848831,0.12386801093816757,-0.049893010407686236,0.03725254163146019,-0.09411834925413132,-0.1988930106163025,0.06682316958904267,0.13170577585697175,-0.28046688437461855,-0.078460194170475,0.222447007894516,0.09617256373167038,0.2210913449525833,-0.22848503291606904,-0.13527558743953706,0.06370433419942856,-0.04245108738541603,-0.3317989706993103,0.11922667175531388,0.10586176812648773,0.08991814404726029,-0.07835567742586136,0.042602330446243289,-0.058646492660045627,-0.01843797042965889,0.15048469603061677,0.11737197637557984,0.2682035267353058,-0.05901777744293213,0.025055518373847009,-0.018385030329227449,0.25318777561187746,-0.1186627596616745,-0.043922197073698047,0.19078202545642854,0.14648649096488954,0.030984926968812944,-0.08336018770933151,-0.151199609041214,-0.08934534341096878,0.130162313580513,-0.28827983140945437,-0.419118732213974,-0.0017060500103980303,-0.07272572815418244,0.08674925565719605,-0.05370551720261574,0.17453165352344514,0.14941468834877015,0.022830504924058915,-0.36507704854011538,0.1454790085554123,0.024616433307528497,-0.220928356051445,-0.10956677794456482,0.10649600625038147,0.08704232424497605,0.06126212701201439,-0.06631530076265335,0.16468149423599244,0.08477836102247238,0.10923175513744354,0.3072395622730255,-0.10228037089109421,0.045894820243120196,0.09323707222938538,-0.022433876991271974,0.06913158297538758,0.08571126312017441,-0.13924509286880494,-0.11625826358795166,0.1321142315864563,-0.17413905262947083,0.06764986366033554,-0.1174689307808876,-0.005278666969388723,0.2719898223876953,0.010673503391444683,0.03870872035622597,0.12238170951604843,0.048520393669605258,-0.041240133345127109,-0.08537394553422928,-0.3139784634113312,0.04533437639474869,0.0016356984851881862,-0.07376770675182343,0.07464832067489624,-0.09309951961040497,-0.05815109983086586,0.0780777558684349,0.232151061296463,-0.2167855203151703,-0.2542136311531067,0.019955845549702646,-0.1959621161222458,-0.10517077147960663,0.019138319417834283,-0.0702318474650383,-0.06144077330827713,-0.10239680111408234,-0.0727672278881073,-0.27108147740364077,-0.21180205047130586,0.19608794152736665,-0.16504032909870149,-0.02459210902452469,-0.08468034118413925,-0.12660285830497743,-0.18986211717128755,0.11511878669261933,0.16276150941848756,-0.1399688869714737,-0.09572053700685501,-0.026510139927268029,-0.2818707823753357,0.25558823347091677,-0.46477583050727847,-0.030847175046801568,-0.10980015993118286,-0.12521761655807496,-0.15130022168159486,-0.41474056243896487,-0.038598932325839999,0.17959487438201905,0.09676852822303772,0.1103082224726677,0.022010289132595063,-0.26547491550445559,-0.03116842545568943,-0.05827022343873978,-0.017744190990924836,-0.2804248034954071,-0.1321413815021515,-0.02745775878429413,-0.28651881217956545,-0.16821666061878205,0.1464313417673111,-0.05325532332062721,-0.10732116550207138,-0.13174885511398316,-0.2237723469734192,-0.20820006728172303,0.19823388755321504,-0.18371690809726716,-0.16840992867946626,-0.1551942229270935,0.11562361568212509,-0.02840394526720047,0.11365997046232224,-0.11612086743116379,0.17011211812496186,0.011101498268544674,-0.10989551991224289,-0.2506238520145416,0.0661066547036171,-0.03001684881746769,0.1466144621372223,0.24359631538391114,0.14422842860221864,0.16654685139656068,0.1375727653503418,0.20571951568126679,-0.18423157930374146,-0.12453660368919373,-0.2105858027935028,-0.29388362169265749,-0.07919187843799591,-0.19055531919002534,0.01151341013610363,0.3155372440814972,-0.019210876896977426,-0.021121321246027948,-0.13576772809028626,-0.06526372581720352,-0.062474753707647327,0.2041388303041458,-0.016770169138908387,0.2116742879152298,0.0966668576002121,0.04913333058357239,0.1566905677318573,0.019103800877928735,-0.026011131703853608,-0.11382902413606644,0.2990868091583252,0.1743726134300232,0.17603422701358796,0.038101259618997577,0.19844569265842439,0.015127691440284253,-0.15116441249847413,0.04546823352575302,-0.1927182674407959,-0.2249334305524826,0.1648091822862625,0.03783011808991432,0.219558984041214,0.008946316316723824,-0.06061488389968872,0.20988063514232636,0.028906172141432763,0.01458370964974165,-0.03415026515722275,0.13984368741512299,0.16488616168498994,-0.3107994496822357,0.12609022855758668,-0.10407714545726776,-0.041826311498880389,-0.24174687266349793,-0.1294085681438446,0.029321888461709024,0.18634988367557527,-0.1385757029056549,-0.00436436478048563,0.18635280430316926,0.10076867043972016,0.36404940485954287,-0.18139968812465669,0.003074795939028263,0.04504137486219406,0.07795485109090805,0.09615996479988098,-0.2227325141429901,-0.038549765944480899,-0.36414241790771487,0.06238621100783348,-0.0588265098631382,-0.11552155762910843,0.3214275538921356,0.17846249043941499,0.1241324245929718,-0.1930573731660843,-0.2432277798652649,0.18877723813056947,0.29498758912086489,-0.01998596452176571,-0.054013051092624667,0.07778576761484146,0.36208009719848635,0.4120916426181793,-0.09106919169425965,0.16458144783973695,0.029982663691043855,-0.03749045357108116,0.05179712176322937,0.02273201383650303,0.025248024612665178,-0.21745476126670838,0.23378130793571473,0.2621391713619232,0.2542460858821869,-0.06907369196414948,-0.1577102094888687,-0.04996383562684059,0.3465854227542877,-0.1637878119945526,0.3556419312953949,-0.025251563638448716,0.1260552555322647,0.10614504665136337,-0.13771113753318788,-0.07206504791975022,-0.0007298146956600249,-0.01643252559006214,-0.1743689775466919,-0.017095113173127176,-0.28017380833625796,0.14493490755558015,0.009675788693130017,0.15124031901359559,-0.20548893511295319,-0.09521763771772385,-0.04676013067364693,-0.08955167233943939,0.18294218182563783,0.03869633004069328,-0.13620750606060029,-0.1750360131263733,0.1657772958278656,-0.21506093442440034,0.06407182663679123,0.1595880091190338,-0.09466499835252762,0.11934776604175568,-0.09526769071817398,0.22534805536270142,-0.13729798793792725,-0.06332230567932129,0.05651066079735756,-0.19953985512256623,0.08714738488197327,0.07857146859169007,-0.028743214905261995,-0.0016772664384916425,-0.08087752014398575,0.0550621934235096,-0.14643393456935883,0.06585699319839478,0.13270190358161927,-0.08035803586244583,0.4772135615348816,0.15476782619953156,0.00438706437125802,0.10001735389232636,-0.039979487657547,0.010481436736881733,0.2581021785736084,-0.06015550717711449,-0.19693824648857118,0.16340558230876923,0.21210329234600068,0.06566531956195831,-0.2923450171947479,-0.19174820184707642,0.038431666791439059,-0.1201757937669754,0.449787974357605,-0.06472500413656235,0.24000054597854615,0.08135982602834702,0.10416342318058014,0.12245666980743408,0.22529585659503938,-0.005752446595579386,0.47544899582862856,0.030411899089813234,-0.03721366077661514,0.009105963632464409,-0.0647665411233902,-0.05024898052215576,0.00008726905798539519,-0.24452772736549378,0.15639334917068482,-0.05080705136060715,-0.18884550034999848,