{
    "Layers": [
        {
            "Weights": [
                0.08410107344388962,
                0.09777054190635681,
                0.144986093044281,
                0.05362958461046219,
                0.0813276544213295,
                -0.07495154440402985,
                -0.058915186673402789,
                0.0815308466553688,
                -0.06175284460186958,
                0.09088891744613648,
                0.027710728347301484,
                0.0037037974689155819,
                -0.016307279467582704,
                -0.04938901588320732,
                0.02696814015507698,
                0.08714889734983444,
                -0.0012280165683478118,
                0.045529805123806,
                -0.22647112607955934,
                -0.06415194272994995,
                -0.0408378466963768,
                -0.1037050187587738,
                -0.17658741772174836,
                -0.07937124371528626,
                -0.11948882788419724,
                0.056076109409332278,
                -0.064107246696949,
                -0.07878861576318741,
                -0.02137869969010353,
                -0.0665920153260231,
                -0.000861547829117626,
                -0.0243839081376791,
                -0.051368147134780887,
                -0.1491752415895462,
                0.044602781534194949,
                -0.05692683160305023,
                -0.026811223477125169,
                0.12133488804101944,
                0.09039943665266037,
                0.07745891809463501,
                0.07958565652370453,
                0.05182373896241188,
                0.07351812720298767,
                0.01411062479019165,
                0.0032836049795150759,
                0.04442950710654259,
                -0.008602917194366455,
                -0.05481593310832977,
                -0.1444856971502304,
                0.02197471633553505,
                0.04574200510978699,
                0.009393430314958096,
                -0.00705450214445591,
                0.08719544857740402,
                0.055595941841602328,
                0.0069237262941896919,
                0.0919635072350502,
                -0.019595040008425714,
                0.1192573755979538,
                0.0500614270567894,
                -0.16506202518939973,
                -0.025643419474363328,
                -0.0605761744081974,
                0.03169558197259903,
                0.0283956415951252,
                -0.04167383164167404,
                -0.08374577760696411,
                -0.1690913885831833,
                -0.12810415029525758,
                -0.09449908882379532,
                0.10163356363773346,
                -0.054354604333639148,
                -0.07695935666561127,
                -0.08736920356750488,
                0.0036771621089428665,
                -0.04577149078249931,
                0.12417800724506378,
                -0.04811469465494156,
                -0.08863743394613266,
                -0.023162849247455598,
                0.030441351234912874,
                0.017890531569719316,
                -0.0053098201751708988,
                0.0628729909658432,
                -0.10804739594459534,
                -0.003397018648684025,
                0.0015711848391219974,
                0.08895839750766754,
                -0.04713795334100723,
                -0.02019648067653179,
                -0.051691051572561267,
                -0.012868517078459263,
                -0.0022123835515230896,
                -0.024858342483639718,
                0.07118996232748032,
                -0.08059801906347275,
                0.05161724612116814,
                -0.11504463106393814,
                0.05209089070558548,
                0.06350646913051605,
                -0.011430306360125542,
                0.00008133065421134233,
                0.071861632168293,
                0.1017102524638176,
                -0.06987053900957108,
                -0.01750367507338524,
                -0.06909749656915665,
                0.07418201863765717,
                -0.049749307334423068,
                0.002965775551274419,
                0.016626965254545213,
                0.09406016767024994,
                0.08749186247587204,
                -0.022202711552381517,
                -0.12245821207761765,
                0.06453448534011841,
                0.031933605670928958,
                -0.12126407772302628,
                0.04250902682542801,
                -0.1202360987663269,
                -0.06812912970781326,
                -0.07470910996198654,
                -0.03778526932001114,
                0.002398089040070772,
                -0.008270234800875187,
                -0.019048603251576425,
                -0.07379339635372162,
                -0.05003295838832855,
                -0.09764492511749268,
                -0.06962081789970398,
                0.004752017557621002,
                0.06876931339502335,
                -0.06647007167339325,
                0.08224505186080933,
                -0.027767686173319818,
                0.03707755357027054,
                -0.07975338399410248,
                0.02994195744395256,
                -0.042373426258563998,
                -0.05653449147939682,
                -0.06466466188430786,
                0.10053067654371262,
                -0.026329128071665765,
                -0.0279617328196764,
                -0.06047894433140755,
                -0.044987089931964877,
                -0.03708241879940033,
                -0.09419727325439453,
                0.046179067343473437,
                -0.06232177093625069,
                -0.00655998382717371,
                -0.10149813443422318,
                -0.0033082040026783945,
                -0.06413847208023071,
                0.03827132284641266,
                -0.09659935534000397,
                -0.08654840290546417,
                0.010970965959131718,
                0.07249730080366135,
                0.00859296228736639,
                -0.08128540217876435,
                -0.0787421241402626,
                -0.15313588082790376,
                -0.1243077740073204,
                -0.013265284709632397,
                0.14705760776996613,
                -0.12608999013900758,
                0.014875446446239949,
                -0.06312325596809387,
                -0.11612331867218018,
                -0.024065537378191949,
                -0.07128428667783737,
                -0.07067863643169403,
                0.06109631434082985,
                -0.05273878946900368,
                -0.0767071321606636,
                0.008442034013569355,
                0.09042582660913468,
                -0.04744940251111984,
                -0.03514205664396286,
                0.060656026005744937,
                -0.03999808430671692,
                -0.06413581222295761,
                0.13985416293144227,
                -0.05107003450393677,
                0.11210551857948303,
                0.06005111709237099,
                -0.04305145516991615,
                0.14853604137897492,
                0.12584178149700166,
                0.11968842893838883,
                0.038896944373846057,
                0.025492997840046884,
                -0.07304573804140091,
                0.1529920995235443,
                -0.018797392025589944,
                -0.004738674499094486,
                0.03302879258990288,
                -0.04326469823718071,
                -0.08636950701475144,
                0.09774215519428253,
                0.12072308361530304,
                0.05922969430685043,
                -0.002538299188017845,
                -0.14267151057720185,
                -0.06088859960436821,
                0.05888435244560242,
                0.07500815391540528,
                -0.1378115862607956,
                -0.05205659195780754,
                0.051860079169273379,
                -0.05438755452632904,
                -0.10467380285263062,
                -0.06172644719481468,
                0.07416737079620362,
                -0.10760326683521271,
                0.001926720840856433,
                -0.05876393988728523,
                0.10115332156419754,
                0.0022892174310982229,
                -0.017990486696362497,
                0.07041828334331513,
                0.04224269464612007,
                0.053682781755924228,
                0.059915002435445788,
                0.030323972925543786,
                0.04034900665283203,
                0.08312797546386719,
                0.048850156366825107,
                -0.012404737062752247,
                0.08846943080425263,
                -0.01733556017279625,
                -0.025381632149219514,
                0.06698159873485565,
                0.00017583936278242618,
                -0.005112403072416782,
                -0.033396825194358829,
                -0.019302373751997949,
                -0.046432655304670337,
                -0.05678943172097206,
                -0.04826056957244873,
                -0.18146999180316926,
                0.02639043517410755,
                0.03563442453742027,
                0.037262625992298129,
                0.03248288482427597,
                0.01413468737155199,
                -0.10801735520362854,
                -0.003409756114706397,
                0.0311021376401186,
                -0.05580483749508858,
                0.06459959596395493,
                -0.16884006559848786,
                0.16043853759765626,
                -0.2386213093996048,
                0.031552720814943317,
                -0.08774993568658829,
                -0.0366877019405365,
                -0.16232658922672273,
                -0.038278210908174518,
                -0.028915373608469964,
                -0.05635656416416168,
                0.05762005224823952,
                0.009167053736746312,
                0.013496260158717633,
                -0.26924434304237368,
                0.0962076485157013,
                -0.1276465803384781,
                0.13213737308979035,
                -0.05483623221516609,
                -0.269898384809494,
                -0.06042301282286644,
                -0.22300727665424348,
                -0.08498653769493103,
                -0.1979513168334961,
                0.13864849507808686,
                -0.07079340517520905,
                -0.01884220913052559,
                -0.23163758218288423,
                0.1634681224822998,
                -0.009172691032290459,
                0.006528238300234079,
                0.03323284536600113,
                -0.1263834834098816,
                0.02006767876446247,
                -0.15138490498065949,
                -0.005441837944090366,
                -0.003505205037072301,
                -0.04098033532500267,
                -0.059706274420022967,
                0.058530788868665698,
                -0.16482879221439362,
                0.06400233507156372,
                -0.0629749596118927,
                0.06868889927864075,
                -0.05004151165485382,
                0.05862189829349518,
                0.036694806069135669,
                -0.05634951591491699,
                0.08478793501853943,
                -0.032376211136579517,
                -0.11144311726093292,
                0.023228252306580545,
                -0.08882223814725876,
                -0.030640006065368654,
                0.05474591255187988,
                -0.0329957939684391,
                -0.0018066955963149667,
                -0.13345107436180116,
                0.11756507307291031,
                0.04070352390408516,
                0.07120749354362488,
                -0.21835987269878388,
                0.23237602412700654,
                -0.06309431791305542,
                0.11373284459114075,
                -0.10421764105558396,
                0.007041045464575291,
                -0.05074950307607651,
                -0.14947323501110078,
                0.14792387187480927,
                0.15983250737190247,
                0.22761638462543488,
                0.08597908914089203,
                -0.051966141909360889,
                0.01816643588244915,
                0.17837172746658326,
                0.00910814106464386,
                0.07491426914930344,
                0.15104204416275025,
                -0.06594853848218918,
                0.10706806182861328,
                -0.010268802754580975,
                0.13977265357971192,
                0.030904190614819528,
                0.05234327167272568,
                0.08292026072740555,
                0.02534596063196659,
                -0.04356784746050835,
                0.0811692625284195,
                -0.0668616071343422,
                0.03673846647143364,
                0.13007879257202149,
                -0.05060816928744316,
                0.03317316994071007,
                0.02208073064684868,
                0.08156443387269974,
                -0.017547812312841417,
                0.09618770331144333,
                -0.07216449081897736,
                0.07104674726724625,
                0.0350942388176918,
                0.04738567769527435,
                0.008029152639210225,
                0.03377658873796463,
                -0.047786641865968707,
                0.10789256542921066,
                0.020923558622598649,
                -0.04909979924559593,
                -0.043432384729385379,
                0.012328277342021466,
                0.036121681332588199,
                -0.03822461515665054,
                -0.05392817407846451,
                0.0765092596411705,
                -0.050863802433013919,
                0.07477407902479172,
                -0.06725171208381653,
                0.11584288626909256,
                0.10972265154123306,
                -0.024310169741511346,
                -0.06440592557191849,
                0.0980302169919014,
                -0.07512654364109039,
                0.049807704985141757,
                0.001848437823355198,
                -0.0019857166334986688,
                0.06706871092319489,
                -0.06529577076435089,
                0.09055781364440918,
                0.05730735510587692,
                0.04873824119567871,
                0.0966692864894867,
                0.014023736119270325,
                0.21766917407512666,
                0.05647234618663788,
                0.0027136297430843117,
                -0.06309158354997635,
                -0.08189719170331955,
                0.0907009020447731,
                0.051307763904333118,
                0.019225573167204858,
                -0.10983004420995712,
                -0.08718991279602051,
                0.06037100777029991,
                -0.05125213786959648,
                0.02302318997681141,
                0.028413690626621248,
                -0.05860045924782753,
                -0.11029428988695145,
                -0.07385895401239395,
                0.08377284556627274,
                -0.048724476248025897,
                -0.16712586581707,
                -0.1132325753569603,
                -0.17548558115959168,
                -0.21997395157814027,
                -0.0928317978978157,
                0.08693034201860428,
                -0.04198922961950302,
                -0.13764765858650208,
                -0.08259928971529007,
                0.004837622866034508,
                -0.03993313014507294,
                0.02014031447470188,
                0.002404516562819481,
                0.014713126234710217,
                -0.05163905769586563,
                0.025270307436585428,
                -0.012365025468170643,
                0.009493709541857243,
                0.07853914797306061,
                -0.019889919087290765,
                0.0359622947871685,
                0.0024612315464764835,
                -0.11116401851177216,
                0.045328497886657718,
                0.07152853161096573,
                -0.02663986198604107,
                0.08354329317808151,
                0.007187108974903822,
                -0.04287664219737053,
                -0.0798872634768486,
                -0.025937434285879136,
                0.013710105791687966,
                0.11050152778625488,
                0.10764551907777786,
                -0.028276169672608377,
                0.04299788922071457,
                0.031357042491436008,
                0.039419811218976977,
                0.02522856928408146,
                -0.07843253016471863,
                0.048072658479213718,
                -0.0033042733557522299,
                0.0029818180482834579,
                -0.04189036414027214,
                0.03723901882767677,
                0.04623044282197952,
                0.016980761662125589,
                -0.024948496371507646,
                -0.007039535790681839,
                0.024424808099865915,
                0.07898911088705063,
                -0.022916128858923913,
                0.08694029599428177,
                -0.07010279595851898,
                0.030797291547060014,
                0.07578812539577484,
                -0.018407689407467843,
                -0.04946158081293106,
                -0.08229979127645493,
                -0.07382151484489441,
                -0.09367910027503967,
                0.013149134814739228,
                -0.005773209035396576,
                -0.10196176171302796,
                -0.09786425530910492,
                -0.0820368155837059,
                0.056217342615127566,
                -0.0931556224822998,
                0.02009541541337967,
                0.08448310941457749,
                -0.08574964106082916,
                -0.06997402757406235,
                0.0625016987323761,
                -0.04918379336595535,
                -0.06438691914081574,
                -0.09016188979148865,
                -0.015599329955875874,
                -0.09316609799861908,
                0.05446242913603783,
                -0.045495834201574329,
                0.04057224094867706,
                -0.0797576755285263,
                0.017362503334879876,
                -0.0020279050804674627,
                -0.012915365397930146,
                -0.0577312596142292,
                0.014150867238640786,
                0.08734960108995438,
                0.030950043350458146,
                -0.025187160819768907,
                0.11001192778348923,
                0.10118678212165833,
                -0.020832067355513574,
                0.047707460820674899,
                0.09358115494251251,
                0.02331550419330597,
                0.03164021298289299,
                -0.06921923160552979,
                -0.013987010344862938,
                0.07248349487781525,
                -0.03540131822228432,
                0.0235583558678627,
                0.12717118859291078,
                -0.010060660541057587,
                -0.0354989618062973,
                -0.0788402184844017,
                0.1424275040626526,
                0.02635500580072403,
                -0.04021160304546356,
                -0.19763541221618653,
                0.04681366682052612,
                0.057774532586336139,
                -0.026450177654623987,
                -0.040019989013671878,
                -0.08188964426517487,
                -0.23911376297473908,
                0.011421611532568932,
                -0.029962807893753053,
                -0.04060770198702812,
                0.14126835763454438,
                -0.10621565580368042,
                -0.0962965190410614,
                -0.145959734916687,
                0.0014025269774720073,
                -0.11451222002506256,
                0.10383091866970062,
                0.02664845436811447,
                -0.004182589706033468,
                -0.16766084730625153,
                0.07626830041408539,
                0.07095225900411606,
                0.12159296870231629,
                0.021194102242588998,
                -0.08642655611038208,
                0.08578535914421082,
                0.07649441063404083,
                -0.13119997084140778,
                0.07631595432758331,
                -0.057111773639917377,
                -0.057659249752759936,
                -0.08301986753940582,
                -0.03513361141085625,
                -0.008033480495214463,
                -0.031616732478141788,
                0.10193508863449097,
                0.09265859425067902,
                0.03674834221601486,
                0.029862280935049058,
                0.0024213865399360658,
                -0.04403754323720932,
                -0.03292711824178696,
                -0.04465601593255997,
                -0.07162942737340927,
                -0.06000184267759323,
                -0.10266759991645813,
                0.012611256912350655,
                0.0867302343249321,
                0.09067246317863465,
                -0.05348014831542969,
                -0.06664660573005676,
                -0.018972819671034814,
                0.04187306389212608,
                0.06215570122003555,
                0.10948344320058823,
                0.018508922308683397,
                0.11168316006660462,
                -0.12793797254562379,
                -0.023846840485930444,
                0.004501598887145519,
                0.02842814102768898,
                0.00017283743363805115,
                0.01824353076517582,
                -0.05895981565117836,
                0.036184050142765048,
                0.007570786867290735,
                0.12717199325561524,
                0.0052338954992592339,
                -0.07866080105304718,
                0.06531650573015213,
                -0.08304723352193833,
                0.10094066709280014,
                0.167726069688797,
                -0.03396780043840408,
                0.10298027843236923,
                0.16335025429725648,
                -0.09248073399066925,
                -0.03867048770189285,
                -0.01884550414979458,
                -0.08223403990268707,
                -0.009636115282773972,
                -0.0477515310049057,
                -0.08504870533943176,
                0.04939351975917816,
                0.01074899360537529,
                0.1218104213476181,
                0.06306277215480805,
                -0.07566814124584198,
                -0.12290514260530472,
                0.10143191367387772,
                0.1364181637763977,
                0.21455171704292298,
                0.058702725917100909,
                -0.03264366462826729,
                -0.03649444878101349,
                -0.06267357617616654,
                0.13379520177841187,
                0.21735237538814546,
                -0.047900889068841937,
                0.03906167671084404,
                -0.07498721033334732,
                0.04382601007819176,
                0.27259132266044619,
                0.1794230043888092,
                0.0056128548458218578,
                0.05882275849580765,
                0.02414458431303501,
                0.08696914464235306,
                0.009915029630064965,
                0.1249438002705574,
                -0.05572870746254921,
                0.0019297469407320023,
                -0.016193505376577379,
                0.00933341309428215,
                -0.04285159334540367,
                -0.010946870781481266,
                0.08545687049627304,
                0.03567193076014519,
                0.055633485317230228,
                0.05632854253053665,
                -0.008259668946266175,
                0.061946332454681399,
                0.0803946852684021,
                0.019127994775772096,
                -0.05142417922616005,
                0.06600823998451233,
                0.040443625301122668,
                0.06792937219142914,
                0.08371652662754059,
                0.14658959209918977,
                -0.025164999067783357,
                0.08597299456596375,
                -0.0915025919675827,
                0.04224986582994461,
                -0.009733691811561585,
                0.09159829467535019,
                -0.021878425031900407,
                0.08349448442459107,
                -0.0009168678079731762,
                -0.07115774601697922,
                0.11752185970544815,
                0.03142719343304634,
                0.012861460447311402,
                0.01993570104241371,
                -0.0923398807644844,
                -0.09973904490470886,
                0.140403613448143,
                0.1530979871749878,
                0.015106579288840294,
                0.004177886992692947,
                -0.0595443919301033,
                -0.06721553951501847,
                0.06959331780672074,
                0.11018474400043488,
                0.002627188339829445,
                -0.07159526646137238,
                -0.02403930574655533,
                -0.05026588588953018,
                0.060872744768857959,
                0.09499909728765488,
                -0.08182662725448609,
                0.10346318781375885,
                0.004335211124271154,
                -0.03805847838521004,
                -0.018291987478733064,
                0.03136442229151726,
                -0.11953797936439514,
                0.10218384861946106,
                0.16266915202140809,
                -0.10009703040122986,
                0.00917752180248499,
                -0.10830122232437134,
                -0.06401757150888443,
                0.014673170633614064,
                0.13514523208141328,
                0.04752505570650101,
                -0.06073015555739403,
                -0.09465041011571884,
                -0.029810043051838876,
                0.13897472620010377,
                0.27785927057266238,
                0.00680924765765667,
                -0.043740637600421908,
                -0.05326610803604126,
                -0.07825879007577896,
                -0.005540685728192329,
                0.06907708942890167,
                -0.13743746280670167,
                0.09470938891172409,
                -0.03907477855682373,
                -0.16401326656341554,
                0.060550857335329059,
                -0.08007621765136719,
                0.04087109491229057,
                0.006574448198080063,
                -0.028090398758649827,
                0.020717214792966844,
                -0.03255133703351021,
                -0.012761132791638375,
                -0.05126388743519783,
                0.05839763581752777,
                0.001811967696994543,
                -0.057459354400634769,
                0.07335062325000763,
                -0.10734216868877411,
                -0.09004154801368714,
                0.07810291647911072,
                0.06093991920351982,
                -0.022242635488510133,
                -0.09563012421131134,
                -0.14018458127975465,
                -0.0661078542470932,
                -0.05930858477950096,
                -0.0711110457777977,
                -0.00016379772569052875,
                -0.12046781182289124,
                -0.2429042011499405,
                -0.03939330577850342,
                -0.12005310505628586,
                -0.015522746369242669,
                -0.0800400972366333,
                0.053075049072504047,
                -0.23159083724021913,
                -0.06326223164796829,
                -0.054632626473903659,
                -0.055490341037511829,
                -0.02761814370751381,
                -0.1275540590286255,
                -0.2385183870792389,
                0.04744473472237587,
                0.10622522979974747,
                0.10382149368524552,
                0.07203604280948639,
                -0.19001546502113343,
                -0.14601826667785645,
                -0.013492031954228878,
                -0.016462968662381173,
                -0.06982571631669998,
                0.021504176780581476,
                0.07267757505178452,
                0.002193981083109975,
                -0.1708279252052307,
                -0.00208453182131052,
                0.0391070581972599,
                0.046398136764764789,
                -0.023103412240743638,
                -0.03430379182100296,
                0.09547065943479538,
                0.11511649936437607,
                -0.051691778004169467,
                0.11210424453020096,
                -0.027555126696825029,
                -0.014032585546374321,
                -0.048537805676460269,
                0.03828732669353485,
                0.10401517897844315,
                0.08358630537986756,
                0.02257765829563141,
                -0.06292735040187836,
                -0.11575816571712494,
                -0.09788483381271362,
                -0.028147930279374124,
                -0.15953293442726136,
                -0.022946510463953019,
                -0.09044050425291062,
                0.04753701388835907,
                -0.08608601242303848,
                -0.015105931088328362,
                0.07132190465927124,
                -0.00923685822635889,
                -0.06237547844648361,
                -0.15250985324382783,
                -0.09274984151124954,
                -0.09877828508615494,
                -0.026263253763318063,
                0.22583946585655213,
                0.07613074779510498,
                -0.09886086732149124,
                -0.07827815413475037,
                0.10433066636323929,
                0.05291929095983505,
                0.07266870141029358,
                0.052152495831251147,
                0.04178949445486069,
                0.03513273224234581,
                -0.08488181978464127,
                -0.0025864914059638979,
                0.07422228157520294,
                0.02429848536849022,
                -0.029446154832839967,
                0.016843635588884355,
                -0.103009894490242,
                0.05293773114681244,
                0.12178105860948563,
                0.09260597079992295,
                -0.04003209248185158,
                -0.016895709559321405,
                0.030971813946962358,
                -0.11573803424835205,
                0.09608913213014603,
                0.14697638154029847,
                0.09069142490625382,
                0.11862805485725403,
                0.025859341025352479,
                0.07302820682525635,
                -0.004466317594051361,
                0.1302003711462021,
                -0.01983313262462616,
                -0.08092867583036423,
                0.014593740925192833,
                0.15352244675159455,
                0.16838517785072328,
                0.056473419070243838,
                -0.045013751834630969,
                0.14021125435829163,
                0.05032137781381607,
                0.10132934153079987,
                0.07704256474971771,
                -0.08730108290910721,
                -0.06210698187351227,
                -0.11761301755905152,
                -0.0048413509503006939,
                0.028898298740386964,
                0.09797051548957825,
                0.03831695020198822,
                0.12994420528411866,
                0.027613112702965738,
                0.08419574797153473,
                -0.12116021662950516,
                0.08335966616868973,
                -0.06354118883609772,
                -0.03540579602122307,
                0.0816287025809288,
                -0.016371143981814386,
                -0.11498349905014038,
                -0.15207844972610475,
                -0.006129763554781675,
                -0.031599923968315127,
                0.08308972418308258,
                0.059927258640527728,
                -0.03504928946495056,
                0.08751752972602844,
                0.16250130534172059,
                0.09120434522628784,
                0.138888418674469,
                0.03665556386113167,
                0.08100076019763947,
                -0.026322608813643457,
                0.19929732382297517,
                0.05554468557238579,
                0.09636905789375305,
                0.06726351380348206,
                -0.03588232398033142,
                0.08905497193336487,
                0.08949834108352661,
                0.06231582537293434,
                0.01275290735065937,
                -0.031440600752830508,
                0.008736231364309788,
                0.006458182353526354,
                0.135866180062294,
                0.054435551166534427,
                -0.07890286296606064,
                0.08744032680988312,
                0.010831593535840512,
                -0.13824909925460816,
                -0.009789722971618176,
                0.03666851669549942,
                -0.09560506045818329,
                0.023375967517495157,
                -0.024429980665445329,
                0.01124940812587738,
                -0.06881478428840637,
                -0.054843198508024219,
                0.0049211084842681889,
                0.002946913242340088,
                -0.04319381341338158,
                -0.047812800854444507,
                -0.007929378189146519,
                0.03505904972553253,
                0.006849496625363827,
                -0.08884066343307495,
                -0.04828699305653572,
                -0.055916428565979007,
                0.05279107019305229,
                -0.06022291257977486,
                0.012654858641326428,
                0.04545290395617485,
                0.10546199977397919,
                -0.08886582404375076,
                0.005640971474349499,
                0.02522919327020645,
                0.0743052214384079,
                -0.06449180096387863,
                0.025615567341446878,
                -0.13735373318195344,
                0.03055555932223797,
                -0.11140386015176773,
                0.13903644680976869,
                0.049496375024318698,
                0.06112641841173172,
                0.05718095228075981,
                -0.10178019851446152,
                -0.09287824481725693,
                -0.029218459501862527,
                0.0031341889407485725,
                -0.08739367872476578,
                0.0033237547613680364,
                0.029101120308041574,
                0.08363936841487885,
                -0.004755424801260233,
                -0.07681862264871597,
                0.04757876321673393,
                0.06388086080551148,
                0.10930071771144867,
                0.08762187510728836,
                -0.05532241240143776,
                0.07729722559452057,
                0.028291506692767144,
                -0.09082626551389694,
                -0.0477067232131958,
                -0.039120279252529147,
                -0.052979130297899249,
                0.022788990288972856,
                0.04473858326673508,
                -0.11536388844251633,
                -0.14413590729236604,
                -0.15338222682476045,
                0.010841750539839268,
                0.0017718239687383175,
                0.015229037031531334,
                -0.18596163392066956,
                -0.17541633546352387,
                -0.020851917564868928,
                -0.0903041884303093,
                0.06855736672878266,
                -0.022524351254105569,
                -0.07530497014522553,
                0.01904146559536457,
                -0.08322234451770783,
                -0.03596460819244385,
                0.07413043081760407,
                -0.05234907567501068,
                -0.021831456571817399,
                -0.07061750441789627,
                -0.04092627018690109,
                0.046656180173158649,
                0.06562648713588715,
                0.11111762374639511,
                0.03642167150974274,
                0.056190673261880878,
                -0.010500959120690823,
                0.11435612291097641,
                0.09246857464313507,
                -0.032418910413980487,
                -0.03121139109134674,
                -0.06463083624839783,
                -0.019978821277618409,
                -0.0024323388934135439,
                0.04516392573714256,
                -0.08712128549814224,
                -0.09397236257791519,
                -0.015111200511455536,
                0.04144998639822006,
                -0.1164136528968811,
                0.0722702220082283,
                0.055662140250205997,
                0.0699477568268776,
                -0.032411690801382068,
                0.12383462488651276,
                0.05167679488658905,
                0.005768644157797098,
                -0.05444401875138283,
                -0.04649869352579117,
                -0.1031220480799675,
                -0.08055166900157929,
                -0.04289274290204048,
                -0.050788164138793948,
                -0.11768528074026108,
                0.132121279835701,
                0.04895276948809624,
                -0.08328402042388916,
                0.0732930451631546,
                0.07902903109788895,
                0.06920114904642105,
                0.023043181747198106,
                -0.0657588317990303,
                -0.07234523445367813,
                -0.06902004033327103,
                0.02846815623342991,
                -0.04376242309808731,
                -0.08327694237232208,
                0.08976825326681137,
                -0.03834006190299988,
                -0.11746887117624283,
                -0.06813492625951767,
                -0.07326721400022507,
                0.11091151833534241,
                0.018708620220422746,
                0.0443461611866951,
                -0.059511445462703708,
                0.028279433026909829,
                -0.044965989887714389,
                -0.0127655528485775,
                0.0641389712691307,
                0.13739371299743653,
                -0.0825909674167633,
                -0.039652157574892047,
                0.01877097599208355,
                -0.01228312123566866,
                0.21524591743946076,
                0.013700722716748715,
                0.04175902530550957,
                -0.04382519796490669,
                0.034518077969551089,
                0.12802021205425263,
                0.2427971512079239,
                0.1186361089348793,
                0.16306285560131074,
                0.07549239695072174,
                -0.04254508018493652,
                0.06582614779472351,
                0.08638445287942887,
                0.2699872851371765,
                0.0958763137459755,
                0.0004054380115121603,
                -0.10640551149845123,
                0.011566968634724617,
                -0.00415295735001564,
                0.14917224645614625,
                0.02820531092584133,
                0.09924514591693878,
                -0.08365410566329956,
                0.017382411286234857,
                0.09335122257471085,
                -0.055373817682266238,
                -0.0070433709770441059,
                -0.06923837959766388,
                -0.04854284226894379,
                0.09732326865196228,
                0.01915164291858673,
                0.07472112774848938,
                0.0731806755065918,
                -0.059928879141807559,
                0.017716653645038606,
                0.03427615389227867,
                0.1304941475391388,
                0.022938715294003488,
                0.1882091462612152,
                -0.011087310500442982,
                0.05595039203763008,
                0.007015548646450043,
                0.012464157305657864,
                -0.05808686092495918,
                0.008202617056667805,
                0.01066778227686882,
                0.033509839326143268,
                -0.09530781209468842,
                -0.1506236344575882,
                -0.07535603642463684,
                0.0148966358974576,
                -0.03335545212030411,
                -0.028576813638210298,
                -0.1962243616580963,
                -0.22916485369205476,
                -0.12530869245529176,
                -0.10427585989236832,
                -0.0004487901460379362,
                0.12871380150318147,
                -0.0540250726044178,
                0.009658010676503182,
                -0.22133836150169373,
                0.02101827971637249,
                0.058541759848594668,
                -0.03631538525223732,
                -0.02510843053460121,
                -0.07832677662372589,
                -0.08248107880353928,
                0.06463708728551865,
                0.04216005280613899,
                -0.00201676064170897,
                0.02432999201118946,
                0.06070481613278389,
                -0.05008799210190773,
                -0.11130859702825546,
                -0.04566781967878342,
                -0.10767969489097595,
                0.05213789641857147,
                0.028822245076298715,
                0.0787200853228569,
                -0.04476156085729599,
                -0.040419865399599078,
                0.05088651552796364,
                0.05759459361433983,
                -0.06796232610940933,
                0.06872891634702683,
                -0.07041043788194657,
                0.11164533346891403,
                0.08474857360124588,
                -0.07446256279945374,
                0.01645848900079727,
                -0.014440163969993592,
                -0.11242353916168213,
                0.07939343899488449,
                -0.06531602144241333,
                0.11317680031061173,
                0.013257076032459736,
                0.009264269843697548,
                0.0680801272392273,
                0.07394225895404816,
                0.1108732745051384,
                -0.04748162627220154,
                -0.033346641808748248,
                0.024505138397216798,
                -0.07667025923728943,
                -0.05219586566090584,
                0.03401049226522446,
                0.09720499813556671,
                -0.08495520055294037,
                -0.028993329033255578,
                0.024855203926563264,
                0.036637645214796069,
                -0.06833556294441223,
                -0.10200569033622742,
                0.03604758903384209,
                -0.05180542171001434,
                -0.08284750580787659,
                -0.011912137269973755,
                -0.06891632080078125,
                0.051511794328689578,
                0.01397954486310482,
                -0.008362972177565098,
                -0.01804228313267231,
                -0.10090181231498718,
                -0.028267262503504754,
                -0.04661886766552925,
                0.018082477152347566,
                0.06523331999778748,
                0.04132260009646416,
                0.017559673637151719,
                -0.013335875235497952,
                0.12635308504104615,
                0.12788641452789308,
                0.05069861561059952,
                -0.024538150057196618,
                0.04641159623861313,
                -0.06033964082598686,
                -0.005061703268438578,
                -0.018996216356754304,
                0.04733050614595413,
                -0.035287804901599887,
                -0.02344375289976597,
                0.1263839602470398,
                0.010187346488237381,
                0.0827338770031929,
                0.016793541610240938,
                0.07645075768232346,
                0.056280866265296939,
                0.0030103535391390325,
                0.02221633866429329,
                0.054420772939920428,
                -0.021660642698407174,
                -0.0870814174413681,
                -0.02604074589908123,
                -0.003975355997681618,
                0.03412417694926262,
                0.08866068720817566,
                0.02560257911682129,
                -0.008289318531751633,
                0.01541771087795496,
                0.0006640478386543691,
                -0.06771724671125412,
                -0.05983671173453331,
                -0.12088820338249207,
                -0.036976587027311328,
                -0.040535807609558108,
                -0.15109467506408692,
                -0.0896807536482811,
                0.03470068797469139,
                -0.10151510685682297,
                0.0021754156332463028,
                -0.06324472278356552,
                -0.03070434369146824,
                -0.15521511435508729,
                0.07791189104318619,
                -0.12892583012580872,
                -0.08585614711046219,
                0.07516937702894211,
                -0.1439335197210312,
                -0.032396841794252399,
                -0.11713191866874695,
                0.006358889397233725,
                0.06988255679607392,
                -0.009492766112089157,
                -0.08954066783189774,
                0.11895256489515305,
                -0.11842568963766098,
                0.12257710099220276,
                -0.13544723391532899,
                -0.0257720947265625,
                0.026445908471941949,
                -0.12381365895271301,
                0.0244764257222414,
                -0.08016840368509293,
                0.050138190388679507,
                0.02156159281730652,
                -0.023556962609291078,
                0.04591064155101776,
                0.07238845527172089,
                -0.07700616121292114,
                -0.09198445081710816,
                0.07992784678936005,
                -0.030935591086745263,
                0.005037030205130577,
                -0.03068486787378788,
                0.10184045135974884,
                -0.07728879153728485,
                0.06540501862764359,
                0.0070304605178534988,
                0.04935246706008911,
                0.08194992691278458,
                0.08765906095504761,
                0.0045356228947639469,
                0.04208226874470711,
                -0.18946610391139985,
                0.08639106899499893,
                0.09364844113588333,
                0.09361256659030914,
                0.10781823843717575,
                0.005524917040020227,
                -0.12887170910835267,
                0.18370836973190309,
                0.17365305125713349,
                0.1143045425415039,
                0.16878299415111543,
                0.09708087146282196,
                -0.12876856327056886,
                0.15892615914344788,
                0.07039452344179154,
                0.17084582149982453,
                0.14532415568828584,
                0.0318879596889019,
                -0.17486992478370667,
                0.10913119465112686,
                0.056381214410066608,
                0.09144370257854462,
                0.13979578018188477,
                0.13247351348400117,
                0.08957412838935852,
                0.10584032535552979,
                -0.005053955130279064,
                -0.09189430624246597,
                0.04751620814204216,
                0.06799955666065216,
                0.06855415552854538,
                0.08045397698879242,
                -0.029293673112988473,
                -0.027145009487867357,
                0.05559256300330162,
                -0.06841694563627243,
                -0.047487929463386539,
                0.04803570732474327,
                -0.04102792963385582,
                -0.14240866899490357,
                -0.12300725281238556,
                -0.027295609936118127,
                0.04916397109627724,
                0.043322451412677768,
                -0.0721890926361084,
                -0.15779027342796327,
                -0.15044914186000825,
                -0.0073518832214176659,
                0.1637878566980362,
                -0.0648421049118042,
                0.018822522833943368,
                -0.06854689121246338,
                0.0158761627972126,
                -0.07403192669153214,
                0.08176181465387345,
                0.0492720790207386,
                0.060273993760347369,
                -0.06643201410770416,
                -0.11902178078889847,
                -0.0488412044942379,
                0.13880106806755067,
                0.10744865238666535,
                -0.02672683447599411,
                0.09919797629117966,
                -0.0527331605553627,
                -0.07991841435432434,
                -0.0992736965417862,
                0.1050979495048523,
                -0.09587304294109345,
                -0.10862281918525696,
                0.07451476156711579,
                0.0677831619977951,
                0.07122896611690521,
                0.01901307702064514,
                -0.0020913388580083849,
                -0.009147534146904946,
                -0.05120495334267616,
                0.037120308727025989,
                0.04326014965772629,
                0.011811892502009869,
                -0.056021954864263538,
                -0.02632264792919159,
                -0.08365994691848755,
                -0.07913956791162491,
                -0.015175868757069111,
                0.07799035310745239,
                -0.06575213372707367,
                -0.05597199872136116,
                -0.0672169104218483,
                0.0820007249712944,
                0.18071219325065614,
                0.055817440152168277,
                -0.03441471979022026,
                -0.0023438301868736746,
                -0.10802698880434036,
                0.04874933883547783,
                0.1524636149406433,
                0.09137141704559326,
                -0.09610800445079804,
                -0.11345906555652619,
                -0.009436064399778843,
                -0.12060106545686722,
                0.03347034007310867,
                -0.007351345382630825,
                0.04413750767707825,
                -0.0354168675839901,
                -0.08649285137653351,
                -0.04579785838723183,
                0.05745547637343407,
                -0.06383431702852249,
                -0.0262502022087574,
                0.026616765186190606,
                0.022189458832144738,
                -0.0550336129963398,
                0.08159828931093216,
                -0.05220123752951622,
                -0.048881832510232928,
                -0.04356564208865166,
                0.05929629132151604,
                -0.01494218222796917,
                0.0518166720867157,
                0.05163245648145676,
                0.037540003657341,
                0.022567756474018098,
                0.03713195398449898,
                -0.06754964590072632,
                -0.0634029284119606,
                -0.07816585898399353,
                -0.10974366962909699,
                0.03455040231347084,
                0.05862109735608101,
                0.052085086703300479,
                0.03902009129524231,
                -0.046593792736530307,
                -0.07677727192640305,
                -0.0673273578286171,
                -0.021855739876627923,
                -0.0024003072176128628,
                0.07704435288906098,
                -0.09429612010717392,
                0.020477470010519029,
                -0.004108858294785023,
                0.08886043727397919,
                0.08551160991191864,
                0.0527864471077919,
                0.02859123796224594,
                0.015715256333351136,
                -0.03314976021647453,
                -0.011713077314198017,
                -0.022215865552425386,
                -0.041178032755851749,
                0.06267599016427994,
                0.08282060921192169,
                -0.03257390484213829,
                0.0023360103368759157,
                -0.031244996935129167,
                0.04881199449300766,
                -0.08279150724411011,
                -0.011574842967092991,
                -0.07044030725955963,
                0.0031990432180464269,
                0.01713765226304531,
                0.025998778641223909,
                0.02536824345588684,
                0.008785361424088478,
                0.12474165856838227,
                -0.05416205897927284,
                -0.025457171723246576,
                0.04702359810471535,
                0.026628168299794198,
                0.0477013997733593,
                -0.05141117051243782,
                0.06190754100680351,
                -0.060064107179641727,
                -0.08008543401956558,
                -0.06734775006771088,
                0.03416238725185394,
                0.13229328393936158,
                -0.011846191249787808,
                0.04581677168607712,
                0.06816581636667252,
                0.10484953969717026,
                0.11929518729448319,
                0.10852520167827606,
                0.030029678717255594,
                0.11540120095014572,
                -0.0038654629606753589,
                -0.07689577341079712,
                0.04842771589756012,
                0.02300671488046646,
                0.06581524759531021,
                -0.07915161550045014,
                -0.03775503858923912,
                -0.08890944719314575,
                0.09405041486024857,
                0.020990528166294099,
                -0.042191240936517718,
                0.07429280132055283,
                -0.017599735409021379,
                0.119050532579422,
                -0.04016632214188576,
                -0.15109865367412568,
                0.027540169656276704,
                -0.05020630359649658,
                -0.12860630452632905,
                0.08465523272752762,
                0.013355775736272335,
                -0.009618300013244152,
                0.0223293025046587,
                -0.04970606043934822,
                0.06328389048576355,
                -0.08539402484893799,
                -0.08144275099039078,
                -0.0660688579082489,
                0.10316578298807144,
                -0.08899450302124024,
                0.051820673048496249,
                -0.012552558444440365,
                0.059244304895401,
                -0.023776501417160035,
                0.13149823248386384,
                -0.040837861597537997,
                0.06600473076105118,
                0.12604178488254548,
                0.08213354647159577,
                -0.07245829701423645,
                -0.09531064331531525,
                -0.10269720107316971,
                0.07951990514993668,
                -0.02491157501935959,
                -0.09766682982444763,
                -0.015003775246441365,
                0.008447892963886261,
                -0.010007595643401146,
                -0.0029206648468971254,
                0.08465816080570221,
                0.06503503024578095,
                -0.02021661400794983,
                0.06809990108013153,
                -0.007578112185001373,
                -0.03663602098822594,
                -0.0007113373139873147,
                0.09868860989809036,
                0.0629681944847107,
                -0.08879078179597855,
                0.05857670679688454,
                -0.058322422206401828,
                0.05349002406001091,
                -0.1330304890871048,
                0.019529158249497415,
                -0.14107295870780946,
                0.08332537114620209,
                -0.023827506229281427,
                -0.06288859248161316,
                -0.1063077300786972,
                0.03285108879208565,
                -0.09380447119474411,
                0.0075508286245167259,
                -0.11351874470710755,
                0.09211225062608719,
                -0.04582671821117401,
                -0.09907492250204086,
                -0.058006901293992999,
                0.04268974810838699,
                -0.048608552664518359,
                -0.08058184385299683,
                0.001701299217529595,
                -0.09264586120843888,
                0.1000925749540329,
                0.06602556258440018,
                -0.02471744827926159,
                0.06867053359746933,
                -0.09283401817083359,
                -0.043802373111248019,
                0.08168266713619232,
                0.021228492259979249,
                0.018327796831727029,
                0.07298534363508225,
                -0.028881965205073358,
                0.03392478823661804,
                -0.012709353119134903,
                0.09468075633049011,
                0.09661538153886795,
                0.015399904921650887,
                -0.032394737005233768,
                0.029449796304106714,
                0.08565350621938706,
                -0.07909156382083893,
                0.12487204372882843,
                0.054879192262887958,
                0.08965051919221878,
                -0.09744376689195633,
                0.0885658860206604,
                0.031538963317871097,
                0.0822741836309433,
                -0.03900538757443428,
                0.049207791686058047,
                -0.08155643194913864,
                0.07096706330776215,
                -0.06307554244995117,
                0.021840428933501245,
                0.0056396955624222759,
                -0.059208668768405917,
                -0.06235118582844734,
                -0.07787302881479263,
                -0.046664465218782428,
                0.12902610003948213,
                0.06789826601743698,
                -0.03822524845600128,
                0.016909237951040269,
                -0.07413330674171448,
                0.015565752983093262,
                -0.021731996908783914,
                -0.05839051306247711,
                0.03962045535445213,
                -0.04888155311346054,
                -0.08476322889328003,
                -0.05792651325464249,
                -0.003192298114299774,
                -0.0073139965534210209,
                -0.10413457453250885,
                0.030439343303442,
                -0.03787274286150932,
                -0.004617579281330109,
                0.04940987378358841,
                0.10930652171373368,
                0.03628327324986458,
                0.040800146758556369,
                -0.08080155402421951,
                0.01824168674647808,
                0.0959002822637558,
                -0.0946098193526268,
                -0.08246172219514847,
                -0.03590215742588043,
                -0.15189269185066224,
                -0.08718356490135193,
                -0.0231616273522377,
                0.02092127874493599,
                -0.023906584829092027,
                -0.05486248806118965,
                0.030951296910643579,
                -0.050954822450876239,
                -0.03230315446853638,
                -0.030377579852938653,
                -0.127588152885437,
                -0.15571589767932893,
                -0.12027900665998459,
                0.029001733288168908,
                -0.02487458661198616,
                0.08543436974287033,
                0.06335756182670593,
                -0.05521617829799652,
                -0.08947627991437912,
                -0.03716093301773071,
                0.20455904304981233,
                -0.030802354216575624,
                -0.04076126217842102,
                -0.019451864063739778,
                0.002329636598005891,
                -0.0037574893794953825,
                -0.34339281916618349,
                0.0804341584444046,
                -0.01968405954539776,
                0.0535651370882988,
                0.021775679662823678,
                -0.03154938668012619,
                -0.24472284317016602,
                0.0496402345597744,
                -0.040729131549596789,
                0.11026232689619065,
                0.10459243506193161,
                -0.07032795250415802,
                -0.20896999537944795,
                0.06436002999544144,
                0.08439116925001145,
                0.12675273418426515,
                0.06557274609804154,
                0.0674571767449379,
                -0.25842955708503725,
                -0.04575290530920029,
                0.2407597005367279,
                0.12151254713535309,
                0.01261493843048811,
                0.039513032883405688,
                -0.16814902424812318,
                0.13022808730602265,
                0.1352570354938507,
                0.08019081503152847,
                0.1085994616150856,
                0.05510318651795387,
                -0.19919900596141816,
                -0.010887986049056054,
                -0.004447177052497864,
                0.10368061065673828,
                0.07090135663747788,
                0.08619235455989838,
                -0.023065734654664995,
                -0.028010256588459016,
                -0.06103665009140968,
                0.020844751968979837,
                -0.028774909675121309,
                0.024564919993281366,
                0.06512147933244705,
                0.10252843797206879,
                0.09353660047054291,
                0.05466200411319733,
                0.03713906556367874,
                0.08835351467132569,
                -0.22004228830337525,
                0.04340518265962601,
                0.03740960359573364,
                0.08411715179681778,
                0.05892772600054741,
                0.02985486388206482,
                -0.1645699292421341,
                0.05130891874432564,
                0.1063053160905838,
                0.23442715406417848,
                0.13772374391555787,
                -0.035466406494379047,
                -0.2751176953315735,
                0.0607934407889843,
                0.09452975541353226,
                0.15405140817165376,
                0.23866060376167298,
                0.0958917960524559,
                -0.2499077320098877,
                0.10886166989803314,
                0.17622636258602143,
                0.3032943308353424,
                0.20279532670974732,
                0.07942920178174973,
                -0.2042156308889389,
                0.09225254505872727,
                0.12741130590438844,
                0.14616507291793824,
                0.1691344827413559,
                0.028702262789011,
                -0.2035057246685028,
                -0.08762277662754059,
                0.1385391652584076,
                0.14883126318454743,
                0.15088672935962678,
                0.055385101586580279
            ],
            "WeightsRows": 20,
            "WeightsCols": 84,
            "Biases": [
                0.020168814808130266,
                -0.09364229440689087,
                -0.2915111184120178,
                -0.29570767283439639,
                0.23185333609580995,
                -0.04781843721866608,
                0.22018922865390778,
                -0.2407032996416092,
                -0.03062942810356617,
                0.011821502819657326,
                -0.19346515834331513,
                0.2056240737438202,
                -0.23368118703365327,
                -0.1684664785861969,
                -0.19693736732006074,
                0.296121746301651,
                -0.046813953667879108,
                0.10424840450286865,
                0.28278231620788576,
                -0.8442859053611755
            ]
        },
        {
            "Weights": [
                0.05646838992834091,
                0.12153669446706772,
                -0.32366064190864565,
                0.0007327666389755905,
                0.04594550281763077,
                -0.01716226525604725,
                0.18503467738628388,
                -0.3259561359882355,
                -0.08295557647943497,
                0.0944664478302002,
                -0.32877063751220705,
                0.33009710907936098,
                -0.35564765334129336,
                -0.24983470141887666,
                0.21965880692005158,
                0.16158877313137055,
                -0.14108018577098847,
                0.12964917719364167,
                0.21540990471839906,
                -0.2739686369895935,
                0.08553789556026459,
                -0.1413368284702301,
                -0.1433989256620407,
                0.08300928771495819,
                -0.09078949689865112,
                0.08836767077445984,
                0.05296184495091438,
                0.009045840241014958,
                0.07422889024019242,
                0.23778657615184785,
                -0.12427472323179245,
                0.216315358877182,
                -0.18030397593975068,
                -0.09806650131940842,
                -0.1407788097858429,
                0.2360590100288391,
                -0.023751206696033479,
                0.24458563327789308,
                0.20384733378887177,
                0.04601447284221649,
                0.12234999239444733,
                0.1778016984462738,
                0.26995065808296206,
                0.19117823243141175,
                -0.3207739293575287,
                0.1901923567056656,
                -0.16252170503139497,
                0.3306081295013428,
                -0.15600457787513734,
                -0.12524163722991944,
                0.2956330478191376,
                0.11333604902029038,
                0.145189568400383,
                0.014172041788697243,
                0.2546289563179016,
                -0.2545871436595917,
                0.1648891419172287,
                -0.2528870403766632,
                0.0073294322937726978,
                0.5333892107009888,
                0.22814564406871797,
                0.019584661349654199,
                -0.13028186559677125,
                -0.1300368458032608,
                0.06691022962331772,
                0.1264423429965973,
                -0.11015772819519043,
                0.0949096828699112,
                0.05348725989460945,
                0.12683916091918946,
                -0.06950408220291138,
                -0.03974560648202896,
                0.11828575283288956,
                -0.08865734189748764,
                0.10460792481899262,
                -0.06265252083539963,
                0.06195523217320442,
                0.14822494983673097,
                0.05967213958501816,
                -0.0868014246225357,
                -0.24801090359687806,
                0.16761431097984315,
                0.17939093708992005,
                0.02729918248951435,
                0.0647224634885788,
                -0.1100568026304245,
                -0.020063159987330438,
                0.1783762127161026,
                0.15560081601142884,
                0.10791891813278198,
                -0.07645632326602936,
                -0.029493100941181184,
                0.1457122266292572,
                0.21519722044467927,
                -0.1634819656610489,
                -0.006343812216073275,
                -0.12705360352993012,
                0.07133318483829498,
                -0.10415637493133545,
                -0.27274373173713686,
                0.01724986359477043,
                -0.02949388138949871,
                -0.13795112073421479,
                0.2679344713687897,
                -0.22080467641353608,
                -0.06097157299518585,
                0.08236749470233917,
                -0.1362246870994568,
                -0.19412806630134583,
                0.013162905350327492,
                -0.12552686035633088,
                -0.15726454555988313,
                -0.07825540006160736,
                0.1581992357969284,
                0.036964911967515948,
                0.11955038458108902,
                0.2134244441986084,
                -0.05467373877763748,
                -0.14999771118164063,
                0.2893713116645813,
                0.17361970245838166,
                -0.06733888387680054,
                -0.13573068380355836,
                0.22064447402954102,
                0.021896474063396455,
                -0.20748496055603028,
                -0.07519242912530899,
                0.1736336350440979,
                -0.16327784955501557,
                -0.20857667922973634,
                0.024893416091799737,
                -0.09995371103286743,
                -0.1655222624540329,
                0.15956708788871766,
                0.06115731969475746,
                0.1488974690437317,
                -0.009140163660049439,
                -0.2308943122625351,
                0.037756890058517459,
                -0.11640754342079163,
                0.032977648079395297,
                -0.1592986285686493,
                -0.20440079271793366,
                -0.020232653245329858,
                -0.14288462698459626,
                -0.11493225395679474,
                0.10039783269166947,
                -0.012033617123961449,
                -0.14240595698356629,
                -0.09841617941856384,
                -0.14704352617263795,
                -0.09986498206853867,
                -0.0753171369433403,
                -0.10522272437810898,
                0.1943873167037964,
                -0.1178753525018692,
                0.1846785992383957,
                0.04653722792863846,
                0.1549108475446701,
                -0.0823272168636322,
                0.20607934892177583,
                -0.02130170166492462,
                -0.19630958139896394,
                -0.29343628883361819,
                0.11286867409944534,
                -0.07266516983509064,
                0.23578938841819764,
                -0.35658976435661318,
                0.2224370390176773,
                -0.12263094633817673,
                -0.07343790680170059,
                0.2843515872955322,
                0.08240094780921936,
                0.0425075963139534,
                -0.3825675845146179,
                0.18316030502319337,
                0.1275750994682312,
                0.03530310466885567,
                0.2118920385837555,
                -0.7199612855911255,
                0.10527312010526657,
                -0.045682430267333987,
                0.12187537550926209,
                -0.12090050429105759,
                -0.016408417373895646,
                -0.046401023864746097,
                -0.20840714871883393,
                0.0590428002178669,
                0.2640293538570404,
                -0.13574917614459992,
                0.016621172428131105,
                -0.19177454710006715,
                0.25326603651046755,
                0.18908172845840455,
                -0.0958380177617073,
                -0.011668332852423191,
                -0.15654897689819337,
                -0.141929030418396,
                -0.1659131497144699,
                0.16415739059448243,
                0.02305315062403679,
                0.05637791380286217,
                0.12114983797073364,
                -0.18238845467567445,
                0.2231844663619995,
                0.15331198275089265,
                -0.18562118709087373,
                0.06958717852830887,
                -0.05954592302441597,
                -0.16597405076026917,
                0.1605491191148758,
                0.05010192468762398,
                0.20448489487171174,
                -0.1785871982574463,
                -0.06444042921066284,
                0.09568490833044052,
                -0.07719964534044266,
                0.19615893065929414,
                0.10203753411769867,
                -0.1091616153717041,
                -0.2268490195274353,
                -0.02826911024749279,
                -0.12467716634273529,
                -0.1661950945854187,
                -0.13987454771995545,
                -0.03950347751379013,
                0.2426137626171112,
                0.02078382298350334,
                0.07517893612384796,
                0.10034801065921784,
                0.09937688708305359,
                0.017981382086873056,
                -0.2287050038576126,
                -0.11760933697223664,
                0.1596805453300476,
                0.07315095514059067,
                0.2075316160917282,
                -0.1624232679605484,
                0.07465803623199463,
                0.10258890688419342,
                0.04981524869799614,
                0.01187044382095337,
                -0.004329286981374025,
                -0.06467743217945099,
                -0.12898576259613038,
                -0.09871043264865875,
                0.20961615443229676,
                -0.17398329079151154,
                -0.12453621625900269,
                -0.20920369029045106,
                0.1253070831298828,
                -0.1328333169221878,
                0.007836434058845044,
                -0.009329031221568585,
                0.07232073694467545,
                -0.19720685482025147,
                0.03979431837797165,
                0.21406717598438264,
                -0.20648939907550813,
                0.18626244366168977,
                0.2685014605522156,
                -0.07868075370788574,
                0.19080540537834168,
                -0.12247062474489212,
                0.061086542904376987,
                0.1972741335630417,
                0.012545854784548283,
                -0.026590686291456224,
                0.19556333124637605,
                -0.10932765901088715,
                0.17070206999778748,
                0.14742416143417359,
                0.10114888846874237,
                -0.14289002120494843,
                0.07532407343387604,
                0.15092574059963227,
                0.005425969138741493,
                0.0206901915371418,
                -0.14790353178977967,
                -0.10813838243484497,
                -0.054105278104543689,
                0.055156808346509936,
                0.03149466961622238,
                -0.013880617916584015,
                -0.0021517605055123569,
                0.03488154336810112,
                -0.16469988226890565,
                0.04795657470822334,
                0.2857322692871094,
                -0.07395783066749573,
                -0.0836586058139801,
                -0.21111762523651124,
                0.14138516783714295,
                -0.17608176171779633,
                -0.032177943736314777,
                -0.2248060405254364,
                -0.18034635484218598,
                -0.054866671562194827,
                0.038686081767082217,
                0.05456802621483803,
                0.03312699496746063,
                0.12764839828014375,
                0.16343431174755097,
                -0.031159590929746629,
                -0.16876532137393952,
                0.19596128165721894,
                0.08896505832672119,
                -0.0022413351107388736,
                0.07674292474985123,
                0.20363467931747437,
                0.277987539768219,
                -0.014162350445985794,
                -0.06613773107528687,
                0.27066951990127566,
                0.3632637560367584,
                -0.24675622582435609,
                -0.06022091582417488,
                0.05702753737568855,
                -0.2982369065284729,
                0.2700519859790802,
                0.18631653487682343,
                0.19987671077251435,
                -0.07549901306629181,
                -0.009925131686031819,
                -0.0681561753153801,
                0.015358437784016133,
                0.16844059526920319,
                0.04899827390909195,
                0.10254646837711334,
                0.027762556448578836,
                -0.2175009548664093,
                0.21900466084480287,
                -0.11339865624904633,
                0.1880723237991333,
                -0.0849870815873146,
                -0.09033574908971787,
                0.12666992843151093,
                0.029706474393606187,
                -0.16859979927539826,
                0.016491858288645746,
                -0.2180854231119156,
                0.18109259009361268,
                -0.07110872119665146,
                -0.1509682983160019,
                0.0016040694899857045,
                -0.1519947052001953,
                -0.03740251064300537,
                0.2249363213777542,
                0.13815532624721528,
                -0.11834552139043808,
                0.01610611379146576,
                -0.1581742912530899,
                0.2699698805809021,
                0.015967974439263345,
                -0.27201950550079348,
                -0.09814982861280441,
                -0.02469865418970585,
                -0.13140858709812165,
                -0.022359885275363923,
                0.2178133875131607,
                -0.03839196264743805,
                0.18852724134922028,
                -0.13081085681915284,
                0.027697129175066949,
                0.21044380962848664,
                -0.21598094701766969,
                -0.24392728507518769,
                0.1839413344860077,
                0.2688247263431549,
                -0.020124442875385286,
                0.06160087510943413,
                0.17615129053592683,
                0.06462091207504273,
                0.07657089084386826,
                -0.009016362018883229,
                -0.0732959732413292,
                0.10966747254133225,
                0.14538608491420747,
                0.1896539181470871,
                -0.13052091002464295,
                -0.07756315171718598,
                0.152056023478508,
                0.05687836557626724,
                -0.17848600447177888,
                0.07567562162876129,
                -0.09661957621574402,
                0.06629318743944168,
                0.10284128040075302,
                -0.07354900985956192,
                0.03509799391031265,
                0.18266957998275758,
                0.02960211969912052,
                0.2134060561656952,
                -0.17018167674541474,
                -0.0036706922110170128,
                0.02290935255587101,
                0.09241750091314316,
                -0.0784299448132515,
                0.22283101081848145,
                0.12199359387159348
            ],
            "WeightsRows": 20,
            "WeightsCols": 20,
            "Biases": [
                0.3256729543209076,
                0.1390196830034256,
                -0.22594596445560456,
                -0.0054273358546197418,
                0.003618550021201372,
                -0.09615936130285263,
                0.009471364319324494,
                -0.007909227162599564,
                0.38803935050964358,
                -0.09144192188978195,
                0.04392493888735771,
                0.010931956581771374,
                0.011332876980304718,
                0.11530802398920059,
                -0.034651268273591998,
                -0.17246907949447633,
                -0.0461687333881855,
                -0.03129056096076965,
                -0.012266680598258973,
                0.010756844654679299
            ]
        },
        {
            "Weights": [
                -0.4755954146385193,
                -0.05173376202583313,
                -0.3759376108646393,
                0.3786707818508148,
                0.09940535575151444,
                -0.40862396359443667,
                0.007840500213205815,
                0.046655405312776569,
                0.6404494643211365,
                0.32471972703933718,
                0.3649527132511139,
                -0.11889316141605377,
                0.045056093484163287,
                0.43284472823143008,
                0.31222566962242129,
                -0.3335281312465668,
                0.03575684130191803,
                0.293738454580307,
                0.33059510588645937,
                0.058819275349378589,
                -0.2273324728012085,
                -0.0750889852643013,
                0.34504419565200808,
                -0.15937469899654389,
                0.1884724646806717,
                0.23678646981716157,
                0.11759435385465622,
                -0.044473521411418918,
                -0.5444907546043396,
                -0.14572866261005402,
                -0.16355493664741517,
                0.29555436968803408,
                -0.026972079649567605,
                -0.24277134239673615,
                -0.26210787892341616,
                0.2313009649515152,
                -0.13039641082286836,
                0.20231369137763978,
                -0.1513829082250595,
                -0.0016879176255315543,
                0.48662346601486208,
                0.23186050355434419,
                -0.18367138504981996,
                0.052738577127456668,
                -0.16496455669403077,
                0.42631351947784426,
                0.1714591085910797,
                0.29670846462249758,
                0.00022735957463737577,
                -0.14625012874603272,
                -0.3608931303024292,
                0.21699674427509309,
                0.02652393840253353,
                -0.024935804307460786,
                -0.26700925827026369,
                0.1569204032421112,
                0.18248966336250306,
                -0.32386842370033266,
                -0.24259838461875916,
                -0.21421407163143159
            ],
            "WeightsRows": 3,
            "WeightsCols": 20,
            "Biases": [
                -0.06045209988951683,
                0.0874142199754715,
                -0.02696441300213337
            ]
        }
    ]
}