{
    "Layers": [
        {
            "Weights": [
                0.13436667621135713,
                -0.12985658645629884,
                0.14806628227233888,
                -0.04099644348025322,
                0.06479093432426453,
                0.010363317094743252,
                0.18683013319969178,
                0.09467779844999314,
                -0.04903329536318779,
                0.33008983731269839,
                0.04196065291762352,
                -0.04554126039147377,
                0.11381274461746216,
                0.03545338660478592,
                0.21491684019565583,
                0.40237662196159365,
                0.044257644563913348,
                -0.0356210321187973,
                -0.3940853476524353,
                -0.07305704802274704,
                0.009700686670839787,
                -0.16472966969013215,
                -0.2966313064098358,
                -0.4241427183151245,
                -0.06326983124017716,
                0.0960727334022522,
                -0.04767722636461258,
                0.2091861069202423,
                -0.1159972995519638,
                -0.1964486986398697,
                0.15751251578330995,
                -0.23104700446128846,
                -0.0017730648396536708,
                -0.07311099022626877,
                -0.03129567950963974,
                -0.11282645910978317,
                -0.10074520856142044,
                0.16110432147979737,
                0.10940290987491608,
                0.01398320123553276,
                0.043262992054224017,
                0.07902269810438156,
                0.07351812720298767,
                0.01411062479019165,
                0.0032836049795150759,
                0.04442950710654259,
                -0.008602917194366455,
                -0.05481593310832977,
                -0.12529988586902619,
                0.06488879024982453,
                -0.19778504967689515,
                0.013222443871200085,
                -0.0060067386366426949,
                0.019007155671715738,
                -0.06934724003076554,
                -0.08246128261089325,
                0.10192979127168656,
                -0.1305081695318222,
                -0.042252734303474429,
                0.10123088955879212,
                -0.30778366327285769,
                -0.0896170511841774,
                -0.10097142308950424,
                0.045679014176130298,
                0.18254521489143372,
                0.17929968237876893,
                -0.04388850927352905,
                -0.27639156579971316,
                -0.6367286443710327,
                -0.1669301688671112,
                0.09935420006513596,
                0.21529097855091096,
                -0.193434476852417,
                -0.06978490948677063,
                0.07948518544435501,
                -0.05065428838133812,
                0.14842435717582704,
                0.18579070270061494,
                -0.3239448666572571,
                0.05665863677859306,
                0.044724855571985248,
                0.07640954107046128,
                -0.13077175617218018,
                0.14561212062835694,
                -0.09753404557704926,
                0.00016740303544793278,
                -0.07968086004257202,
                0.005123296286910772,
                0.043373607099056247,
                -0.008139559999108315,
                -0.05806941166520119,
                -0.0895533636212349,
                0.07240891456604004,
                -0.06432991474866867,
                -0.018297243863344194,
                -0.11677959561347962,
                0.21042677760124207,
                -0.19592449069023133,
                0.15162628889083863,
                0.16977469623088838,
                0.09168152511119843,
                -0.025030016899108888,
                0.17567725479602815,
                0.27747419476509097,
                0.14638173580169679,
                -0.020587969571352006,
                -0.23745308816432954,
                -0.0896373838186264,
                0.04006415233016014,
                0.18538209795951844,
                -0.07514791190624237,
                0.06692802906036377,
                0.11671526730060578,
                -0.16313254833221436,
                -0.024662654846906663,
                -0.2882393002510071,
                0.1225007176399231,
                -0.16888852417469026,
                -0.031100304797291757,
                -0.14763130247592927,
                -0.1576746106147766,
                -0.09784889966249466,
                -0.11182881146669388,
                -0.03822237625718117,
                0.01854042522609234,
                -0.1004185676574707,
                -0.07379339635372162,
                -0.05003295838832855,
                -0.09764492511749268,
                -0.06962081789970398,
                0.004752017557621002,
                0.06876931339502335,
                0.009564818814396859,
                0.1041550561785698,
                0.0335339680314064,
                -0.082781121134758,
                0.007845284417271614,
                0.03835912048816681,
                -0.10565536469221115,
                -0.0389898344874382,
                -0.004111208952963352,
                -0.02449563331902027,
                -0.08942731469869614,
                -0.013948509469628334,
                -0.03501066565513611,
                -0.08557002246379852,
                -0.054093193262815478,
                -0.031426168978214267,
                -0.11376088112592697,
                0.03883387893438339,
                0.08757660537958145,
                -0.21557730436325074,
                0.1751755177974701,
                -0.15688951313495637,
                0.12393349409103394,
                -0.13596436381340028,
                0.04859009385108948,
                -0.27240991592407229,
                0.03265945240855217,
                -0.05694552883505821,
                -0.07752963900566101,
                0.05062872916460037,
                -0.2023029774427414,
                -0.03344504535198212,
                -0.12725067138671876,
                0.10297699272632599,
                0.030028866603970529,
                0.13333584368228913,
                -0.08467692881822586,
                -0.13523441553115846,
                0.1149284765124321,
                -0.03599069267511368,
                0.10761091858148575,
                0.10483076423406601,
                0.09099844098091126,
                -0.1384064108133316,
                -0.18105390667915345,
                -0.0003503485058899969,
                -0.10994944721460343,
                0.02999230846762657,
                0.3327650725841522,
                -0.05799110233783722,
                -0.12506310641765595,
                -0.20544269680976869,
                -0.21715852618217469,
                0.04759499058127403,
                0.3272487223148346,
                -0.04173947125673294,
                0.0763436034321785,
                0.21802859008312226,
                0.1603073626756668,
                0.17797304689884187,
                0.34128397703170779,
                -0.15493252873420716,
                -0.002947526052594185,
                -0.41570502519607546,
                -0.10741829127073288,
                0.0017197055276483298,
                0.1802738606929779,
                -0.10127110034227371,
                -0.11811012029647827,
                -0.04220671206712723,
                0.0466274656355381,
                0.0520516112446785,
                -0.06888378411531449,
                -0.12383435666561127,
                0.1279735416173935,
                0.13760626316070558,
                -0.13690480589866639,
                0.12692566215991975,
                0.051860079169273379,
                -0.05438755452632904,
                -0.10467380285263062,
                -0.06172644719481468,
                0.07416737079620362,
                -0.10760326683521271,
                -0.05566156655550003,
                0.11271391808986664,
                0.2052733451128006,
                0.0043196058832108978,
                -0.1774410903453827,
                0.012236726470291615,
                -0.14344841241836549,
                -0.07751449197530747,
                0.3396638333797455,
                0.09205109626054764,
                0.1542753279209137,
                -0.04961664602160454,
                -0.11115020513534546,
                -0.1778448075056076,
                0.1533624529838562,
                0.2244885414838791,
                0.07328874617815018,
                0.004356682766228914,
                -0.2992219030857086,
                -0.050414953380823138,
                -0.04077085480093956,
                -0.12445828318595886,
                0.11048635840415955,
                0.17988866567611695,
                -0.2049892097711563,
                -0.36748912930488589,
                0.0005130391800776124,
                0.07447105646133423,
                0.024490270763635637,
                -0.01725933514535427,
                0.029073340818285943,
                -0.24417012929916383,
                0.15000593662261964,
                -0.034281376749277118,
                -0.04396721348166466,
                -0.024061771109700204,
                0.004920273087918758,
                0.027412204071879388,
                -0.11137102544307709,
                -0.17392678558826447,
                -0.2188231498003006,
                -0.07234510779380799,
                -0.0322679728269577,
                -0.10297748446464539,
                -0.01954161562025547,
                -0.06408869475126267,
                0.048452313989400867,
                -0.16933639347553254,
                0.03141956776380539,
                -0.0777239128947258,
                -0.032402556389570239,
                0.011340527795255185,
                0.019784312695264818,
                -0.13715992867946626,
                -0.36247432231903078,
                -0.03353820741176605,
                -0.06704845279455185,
                0.034489210695028308,
                -0.6417368054389954,
                0.04437248781323433,
                -0.0804823711514473,
                0.015184481628239155,
                -0.13474230468273164,
                0.07615170627832413,
                0.028180284425616266,
                0.041240572929382327,
                -0.06519388407468796,
                -0.19751131534576417,
                -0.10723388195037842,
                -0.14540129899978639,
                -0.024569613859057428,
                -0.037621017545461658,
                -0.04445582255721092,
                -0.016838708892464639,
                0.03291242569684982,
                -0.19893039762973786,
                0.047976721078157428,
                -0.20934084057807923,
                0.06868889927864075,
                -0.05004151165485382,
                0.05862189829349518,
                0.036694806069135669,
                -0.05634951591491699,
                0.08478793501853943,
                0.07642148435115814,
                0.022826306521892549,
                0.057970885187387469,
                0.06504065543413162,
                0.06025519594550133,
                0.11216287314891815,
                0.013031722977757454,
                0.062022555619478229,
                -0.2391837239265442,
                0.05103008449077606,
                -0.062197450548410419,
                0.07465461641550064,
                0.0758613646030426,
                0.4832138121128082,
                -0.014713739976286888,
                -0.014762301929295063,
                -0.09246853739023209,
                -0.10732825100421906,
                -0.3167627453804016,
                -0.08079968392848969,
                -0.22801969945430757,
                0.05891559273004532,
                0.23974990844726563,
                -0.047978226095438007,
                0.03836657106876373,
                0.3412076234817505,
                0.08314496278762818,
                -0.0064663332886993889,
                -0.04853267967700958,
                0.006540533155202866,
                0.04211122915148735,
                0.15093545615673066,
                -0.27370408177375796,
                0.07409403473138809,
                -0.07806311547756195,
                -0.027049148455262185,
                0.10568076372146607,
                -0.031193222850561143,
                0.07007069140672684,
                -0.05471920594573021,
                -0.06743630021810532,
                -0.013423571363091469,
                0.08004026859998703,
                -0.21280473470687867,
                0.041545648127794269,
                0.15805283188819886,
                0.09918351471424103,
                0.0040620844811201099,
                0.025003349408507348,
                -0.6262715458869934,
                0.11814619600772858,
                0.15728390216827393,
                0.07915530353784561,
                0.09200984239578247,
                0.0016671018674969674,
                -0.8333020210266113,
                0.10872528702020645,
                -0.030335061252117158,
                0.12291331589221955,
                0.10889463871717453,
                0.09801003336906433,
                -0.6657058596611023,
                0.010496876202523709,
                0.01339492667466402,
                0.07720282673835755,
                0.2074824571609497,
                0.16103458404541017,
                -0.42294150590896609,
                0.10608649253845215,
                0.2237834483385086,
                0.07176467776298523,
                0.08452241867780686,
                0.12088186293840409,
                0.061446916311979297,
                0.15309932827949525,
                0.03080151043832302,
                0.05695286765694618,
                0.024279819801449777,
                -0.06529577076435089,
                0.09055781364440918,
                0.05730735510587692,
                0.04873824119567871,
                0.0966692864894867,
                0.014023736119270325,
                0.20244622230529786,
                0.0069867935962975029,
                -0.044872988015413287,
                -0.020518075674772264,
                -0.09089843183755875,
                0.003956310451030731,
                0.0659395083785057,
                -0.030967140570282937,
                0.11777474731206894,
                -0.20055721700191499,
                0.06962589919567108,
                -0.055927276611328128,
                0.15278105437755586,
                0.1075761467218399,
                -0.05274933949112892,
                -0.1681995540857315,
                -0.05368272587656975,
                -0.0444992259144783,
                0.051678627729415897,
                0.09046651422977448,
                -0.07039180397987366,
                -0.2877975404262543,
                -0.27620929479599,
                -0.09998378157615662,
                0.0871591567993164,
                0.0833299532532692,
                -0.24336981773376466,
                -0.11998625844717026,
                0.033294428139925,
                -0.11027797311544419,
                -0.06818459182977677,
                0.07757320255041123,
                0.12239823490381241,
                -0.1561896950006485,
                0.12955905497074128,
                0.0964137390255928,
                0.04022051766514778,
                0.22363927960395814,
                0.007796918042004108,
                0.17127476632595063,
                0.10225282609462738,
                0.031298816204071048,
                -0.04923660680651665,
                0.059734638780355456,
                0.10738152265548706,
                0.044667091220617297,
                0.21961793303489686,
                -0.05424836277961731,
                -0.24291561543941499,
                -0.1310855895280838,
                -0.1417434811592102,
                0.11963468790054321,
                0.13121530413627625,
                0.11905854195356369,
                -0.13260029256343842,
                -0.015172663144767285,
                -0.22385594248771668,
                0.13666248321533204,
                -0.03321235626935959,
                0.36697760224342348,
                -0.1391969472169876,
                0.008006086573004723,
                0.011420798487961293,
                0.0745830163359642,
                0.07391338050365448,
                0.27603158354759219,
                -0.11423665285110474,
                -0.06086556240916252,
                0.016506824642419816,
                0.1545516401529312,
                0.1501944363117218,
                -0.0070123751647770409,
                0.10008464753627777,
                -0.01389539334923029,
                0.08776060491800308,
                -0.06928981840610504,
                0.19275914132595063,
                -0.0397014245390892,
                -0.07382151484489441,
                -0.09367910027503967,
                0.013149134814739228,
                -0.005773209035396576,
                -0.10196176171302796,
                -0.09786425530910492,
                -0.033377569168806079,
                0.051306262612342837,
                0.12774069607257844,
                0.1129104271531105,
                0.21372076869010926,
                -0.000713017419911921,
                -0.08235438913106919,
                0.06861314177513123,
                -0.052721697837114337,
                0.16369469463825227,
                -0.09619428217411041,
                0.11021488159894943,
                -0.16908390820026399,
                -0.09640102833509445,
                -0.058003634214401248,
                -0.016690248623490335,
                -0.022970540449023248,
                0.21196705102920533,
                -0.030863294377923013,
                -0.11343523114919663,
                -0.07405415177345276,
                -0.029528141021728517,
                0.28240540623664858,
                0.010744885541498661,
                -0.16322477161884309,
                -0.11016561090946198,
                0.01487770862877369,
                0.030107004567980768,
                0.1755518913269043,
                0.0966169685125351,
                0.09044934064149857,
                0.0355660580098629,
                -0.0178464837372303,
                0.01963755674660206,
                -0.031015915796160699,
                0.18174375593662263,
                -0.11584972590208054,
                0.13219429552555085,
                0.06963542103767395,
                0.06259855628013611,
                0.042807795107364658,
                0.02978900820016861,
                -0.18912853300571443,
                -0.05072757974267006,
                -0.1957223266363144,
                0.05531958118081093,
                -0.00978495180606842,
                -0.2432425171136856,
                -0.0718998908996582,
                -0.07553735375404358,
                -0.019243499264121057,
                0.2701435685157776,
                0.021295694634318353,
                -0.09612853080034256,
                0.23535045981407166,
                0.45807701349258425,
                -0.019149430096149446,
                0.14255638420581819,
                0.07045290619134903,
                -0.07029296457767487,
                0.004971860907971859,
                0.08304458111524582,
                0.0926419049501419,
                0.009052220731973648,
                0.10041221231222153,
                -0.05726506561040878,
                -0.19822604954242707,
                -0.11845321208238602,
                -0.3571116030216217,
                0.25627365708351138,
                0.03274860605597496,
                -0.02683626115322113,
                -0.10993490368127823,
                -0.1956682950258255,
                -0.3183278739452362,
                -0.06667082011699677,
                -0.06193944066762924,
                -0.1756676733493805,
                -0.031616732478141788,
                0.10193508863449097,
                0.09265859425067902,
                0.03674834221601486,
                0.029862280935049058,
                0.0024213865399360658,
                -0.14183999598026277,
                0.04217924550175667,
                0.013712206855416298,
                -0.017732053995132448,
                -0.07254434376955033,
                0.14965642988681794,
                0.013574426993727684,
                0.04451622813940048,
                -0.009620754048228264,
                -0.19961215555667878,
                -0.09373923391103745,
                0.016025792807340623,
                -0.15096326172351838,
                0.15615712106227876,
                -0.06261399388313294,
                -0.06338842958211899,
                0.12721869349479676,
                -0.013879765756428242,
                -0.23394298553466798,
                0.025727130472660066,
                0.2542320787906647,
                0.08744757622480393,
                0.07953360676765442,
                0.11849592626094818,
                -0.13935637474060059,
                0.008136628195643425,
                -0.027770694345235826,
                0.034272581338882449,
                -0.05474751815199852,
                0.14378975331783296,
                -0.19798366725444795,
                0.04522435739636421,
                0.21842481195926667,
                -0.12400537729263306,
                0.2042265683412552,
                0.0884174033999443,
                0.026971761137247087,
                -0.06964863836765289,
                0.034610308706760409,
                0.06822039932012558,
                0.011366074904799462,
                -0.04125119000673294,
                0.07983522862195969,
                0.01886095479130745,
                0.11718616634607315,
                0.09945787489414215,
                0.12020358443260193,
                -0.09392727166414261,
                0.04388188570737839,
                0.04008352756500244,
                0.3125556409358978,
                0.4694822132587433,
                0.23688609898090363,
                -0.023951632902026178,
                -0.07206761091947556,
                -0.23092631995677949,
                0.44305622577667239,
                0.5109490752220154,
                0.08350491523742676,
                -0.16253995895385743,
                0.008490531705319882,
                -0.00448879599571228,
                0.32855263352394106,
                0.4346729815006256,
                0.1316593587398529,
                -0.036509063094854358,
                0.03412643447518349,
                -0.0023086864966899158,
                0.10139759629964829,
                0.10865803807973862,
                0.12086258083581925,
                -0.02420470118522644,
                0.09670227020978928,
                -0.03833674639463425,
                0.022609887644648553,
                0.11798853427171707,
                0.02716035768389702,
                -0.016829950734972955,
                0.055633485317230228,
                0.05632854253053665,
                -0.008259668946266175,
                0.061946332454681399,
                0.0803946852684021,
                0.019127994775772096,
                0.07748515903949738,
                -0.07271192967891693,
                0.05519704520702362,
                -0.05154089257121086,
                0.012562624178826809,
                0.007995165884494782,
                -0.05627353489398956,
                -0.026182755827903749,
                -0.16466984152793885,
                -0.04547093063592911,
                -0.1970173418521881,
                0.09667957574129105,
                0.23535487055778504,
                0.19075685739517213,
                0.03529643267393112,
                -0.11065628379583359,
                0.10981413722038269,
                0.21111533045768739,
                0.03205583617091179,
                -0.15573763847351075,
                -0.18879255652427674,
                -0.2588016986846924,
                -0.09246932715177536,
                0.25732216238975527,
                0.15399380028247834,
                0.07491336017847061,
                0.04350292682647705,
                -0.17352309823036195,
                0.024755926802754403,
                0.180390864610672,
                0.018599189817905427,
                -0.10783465951681137,
                -0.06423498690128327,
                -0.07857418060302735,
                -0.1401596963405609,
                0.050282593816518787,
                0.23543480038642884,
                0.08813480287790299,
                0.06449268013238907,
                0.044430848211050037,
                -0.03120248392224312,
                0.056461114436388019,
                0.06382889300584793,
                0.10524678975343704,
                -0.0035817339085042478,
                -0.3409543037414551,
                -0.04177863523364067,
                -0.08688051253557205,
                0.07695380598306656,
                0.09525065124034882,
                0.1544407606124878,
                -0.06309625506401062,
                -0.028979280963540078,
                0.003693691687658429,
                0.01904594711959362,
                -0.0021671270951628687,
                0.29399722814559939,
                -0.07938013225793839,
                -0.16848646104335786,
                -0.15769538283348084,
                0.09626981616020203,
                0.09070874005556107,
                0.07333250343799591,
                -0.41638419032096865,
                -0.04992105811834335,
                -0.014357250183820725,
                0.0581340529024601,
                0.13323843479156495,
                -0.05535231530666351,
                -0.2138350009918213,
                -0.05092332512140274,
                -0.015448697842657566,
                0.07507804036140442,
                -0.18888212740421296,
                0.1381564736366272,
                -0.108500637114048,
                -0.09321475028991699,
                -0.06452236324548722,
                -0.057459354400634769,
                0.07335062325000763,
                -0.10734216868877411,
                -0.09004154801368714,
                0.07810291647911072,
                0.06093991920351982,
                0.2046128660440445,
                0.04438677802681923,
                -0.25826379656791689,
                0.0033042910508811476,
                0.08571869879961014,
                0.01607353240251541,
                0.11392492055892945,
                -0.02362981252372265,
                -0.48458901047706606,
                -0.06674616783857346,
                -0.09531370550394058,
                -0.015419671311974526,
                -0.0008189343498088419,
                -0.01819056272506714,
                -0.7144405841827393,
                -0.14920677244663239,
                0.07578422874212265,
                0.11349888890981674,
                -0.12040972709655762,
                -0.3336242735385895,
                -1.259131669998169,
                -0.010146381333470345,
                0.22711960971355439,
                0.2958076596260071,
                0.10897994786500931,
                -0.2622855007648468,
                -0.5896833539009094,
                0.009608492255210877,
                0.02935606800019741,
                0.19893498718738557,
                0.03204142674803734,
                -0.038360416889190677,
                -0.2550039291381836,
                -0.11347978562116623,
                0.0885169729590416,
                0.026147397235035898,
                0.022334493696689607,
                -0.03307078406214714,
                -0.09041325747966767,
                0.09470703452825546,
                0.0745137631893158,
                0.028958814218640329,
                -0.044831063598394397,
                0.1340196430683136,
                -0.10427052527666092,
                -0.020872661843895913,
                -0.05170263350009918,
                0.1807275116443634,
                -0.22690540552139283,
                0.0842830166220665,
                -0.00870261900126934,
                -0.003779497928917408,
                -0.1972699761390686,
                0.11183863133192063,
                -0.32353177666664126,
                0.07540424913167954,
                -0.08726900070905686,
                0.4006139636039734,
                -0.24174974858760835,
                0.03913317248225212,
                -0.11639396846294403,
                0.03836953639984131,
                0.12617239356040955,
                -0.19452226161956788,
                -0.06650064140558243,
                -0.13570131361484528,
                -0.058484673500061038,
                0.40036457777023318,
                0.22888368368148805,
                0.11204970628023148,
                -0.016579216346144677,
                0.11928162723779679,
                0.1286253035068512,
                -0.10560890287160874,
                -0.074078269302845,
                0.03644832223653793,
                0.03164925426244736,
                -0.015277177095413208,
                -0.0025864914059638979,
                0.07422228157520294,
                0.02429848536849022,
                -0.029446154832839967,
                0.016843635588884355,
                -0.103009894490242,
                0.042015597224235538,
                0.10873249173164368,
                0.10865837335586548,
                0.006322867702692747,
                0.08257854729890824,
                0.013749461621046067,
                0.045510005205869678,
                -0.08262806385755539,
                0.24655073881149293,
                0.11463804543018341,
                0.3417275846004486,
                0.06798671931028366,
                0.14547832310199738,
                -0.08187659829854965,
                0.08595947176218033,
                -0.07827046513557434,
                0.03635707497596741,
                -0.15494295954704286,
                0.10422112047672272,
                0.09137724339962006,
                0.08152130991220474,
                -0.40086323022842409,
                0.3752489686012268,
                -0.01835213601589203,
                0.10015550255775452,
                0.03567279130220413,
                -0.2823900282382965,
                -0.1282927393913269,
                -0.17610852420330048,
                0.06480520218610764,
                0.052875421941280368,
                0.12757240235805512,
                0.058042075484991077,
                0.14230181276798249,
                0.2231484204530716,
                0.2940382957458496,
                0.07462439686059952,
                0.08075215667486191,
                0.17095287144184113,
                -0.031159065663814546,
                0.19973693788051606,
                0.14165833592414857,
                -0.11171706765890122,
                -0.1746712327003479,
                0.13062717020511628,
                -0.19999685883522035,
                0.1263030767440796,
                0.0822070762515068,
                0.013355936855077744,
                0.06620762497186661,
                0.020458143204450609,
                0.010254454798996449,
                0.059862714260816577,
                0.08503293991088867,
                0.022307299077510835,
                -0.24066437780857087,
                0.008366068825125695,
                -0.08601182699203491,
                -0.019939888268709184,
                0.17851689457893372,
                -0.006083126645535231,
                -0.23155294358730317,
                0.17477469146251679,
                -0.17367446422576905,
                0.1421911120414734,
                0.048698779195547107,
                -0.13177980482578278,
                -0.0931779220700264,
                0.05974866449832916,
                -0.13510532677173615,
                -0.0341830737888813,
                -0.05711519718170166,
                0.027023248374462129,
                -0.05419439077377319,
                0.07595888525247574,
                -0.06514782458543778,
                0.033937349915504459,
                0.08117180317640305,
                -0.024429980665445329,
                0.01124940812587738,
                -0.06881478428840637,
                -0.054843198508024219,
                0.0049211084842681889,
                0.002946913242340088,
                -0.22128602862358094,
                -0.0586853064596653,
                -0.12165891379117966,
                0.05702062323689461,
                0.03139130771160126,
                -0.15727345645427705,
                -0.09506658464670181,
                -0.16886164247989655,
                -0.24947215616703034,
                0.00957073736935854,
                -0.12319581210613251,
                -0.07333893328905106,
                0.14186272025108338,
                -0.16573397815227509,
                0.07750077545642853,
                0.08820472657680512,
                0.10641990602016449,
                -0.09755746275186539,
                0.04126221314072609,
                -0.22662433981895448,
                0.3106754422187805,
                -0.05573684722185135,
                0.20002232491970063,
                0.10774476826190949,
                0.0596504844725132,
                0.16460104286670686,
                -0.18382373452186585,
                0.014386707916855812,
                -0.048059042543172839,
                0.02894696034491062,
                -0.07872328162193299,
                -0.024584179744124414,
                -0.07620108127593994,
                0.14268621802330018,
                -0.006468295585364103,
                0.08215923607349396,
                -0.055259451270103458,
                0.11973576247692108,
                0.04576246812939644,
                0.08861540257930756,
                -0.0338280014693737,
                0.13803060352802277,
                -0.028145333752036096,
                -0.2601219117641449,
                -0.20333503186702729,
                -0.21653690934181214,
                -0.11391964554786682,
                -0.12560465931892396,
                0.045589763671159747,
                -0.24942369759082795,
                -0.3303851783275604,
                -0.02668941020965576,
                -0.20629876852035523,
                -0.0771305039525032,
                -0.05368786305189133,
                -0.2690122723579407,
                0.13205382227897645,
                0.11887894570827484,
                -0.09013888239860535,
                0.06171047315001488,
                -0.11364960670471192,
                -0.21053001284599305,
                -0.12956547737121583,
                0.06341420114040375,
                -0.14032559096813203,
                0.1542704701423645,
                -0.15823955833911897,
                0.014861970208585263,
                -0.19783423840999604,
                -0.015481189824640751,
                -0.17201688885688783,
                0.01725398190319538,
                0.27093544602394106,
                -0.23887024819850923,
                0.0818541869521141,
                0.16617991030216218,
                -0.022182179614901544,
                0.15781238675117494,
                -0.032418910413980487,
                -0.03121139109134674,
                -0.06463083624839783,
                -0.019978821277618409,
                -0.0024323388934135439,
                0.04516392573714256,
                -0.06408321112394333,
                -0.1484898030757904,
                0.16455867886543275,
                0.0033634831197559835,
                -0.012744110077619553,
                0.028087565675377847,
                -0.09691385179758072,
                -0.025397256016731263,
                0.0036732980515807869,
                0.040596604347229007,
                -0.15213508903980256,
                -0.039071500301361087,
                -0.08159814029932022,
                -0.04089156538248062,
                0.03217192366719246,
                -0.21641576290130616,
                0.10888703167438507,
                -0.11350935697555542,
                0.07155048102140427,
                0.2602081298828125,
                -0.20422802865505219,
                -0.2065311223268509,
                0.06614790111780167,
                0.08668410778045654,
                -0.013947625644505024,
                -0.13166528940200807,
                -0.034435003995895389,
                -0.08151911199092865,
                0.08404462784528732,
                -0.02565586008131504,
                -0.0547066293656826,
                -0.2362148016691208,
                0.1205296739935875,
                -0.11787912994623184,
                -0.0659094750881195,
                -0.14147119224071504,
                0.09096207469701767,
                0.22254474461078645,
                -0.02916446514427662,
                0.12161289900541306,
                -0.039038486778736117,
                0.09678492695093155,
                -0.0008665680070407689,
                -0.0002916517260018736,
                -0.0099579943343997,
                0.10628436505794525,
                0.05498521775007248,
                0.02149862051010132,
                0.1255771815776825,
                -0.17129100859165193,
                0.14693427085876466,
                -0.10200567543506623,
                -0.1269039809703827,
                0.06418606638908386,
                0.2083696722984314,
                0.056469567120075229,
                0.11565928906202316,
                -0.277400404214859,
                -0.007440253160893917,
                0.11611928045749664,
                0.06101235747337341,
                0.009372014552354813,
                0.06188848614692688,
                0.3043055832386017,
                0.14816023409366609,
                0.030559824779629709,
                0.019904740154743196,
                -0.11922860145568848,
                0.004464357625693083,
                0.30279457569122317,
                0.04282207414507866,
                0.049333442002534869,
                -0.05515563115477562,
                -0.06945458799600601,
                -0.05245145037770271,
                -0.049424704164266589,
                -0.021822048351168634,
                -0.0016608225414529443,
                -0.04854284226894379,
                0.09732326865196228,
                0.01915164291858673,
                0.07472112774848938,
                0.0731806755065918,
                -0.059928879141807559,
                0.06912334263324738,
                -0.05830312520265579,
                0.16826629638671876,
                -0.16275106370449067,
                0.14672808349132539,
                -0.03247816488146782,
                0.2717951834201813,
                -0.14582222700119019,
                0.05414176732301712,
                -0.0889366939663887,
                -0.11084242165088654,
                -0.039774395525455478,
                0.1553875356912613,
                -0.1710100769996643,
                -0.013202021829783917,
                -0.11595819890499115,
                0.06249990686774254,
                -0.11760137975215912,
                0.21769729256629945,
                -0.661980926990509,
                -0.039850011467933658,
                0.027575524523854257,
                0.017015760764479638,
                -0.09228631108999253,
                0.4798935651779175,
                -0.11569732427597046,
                0.3626859188079834,
                -0.22296607494354249,
                0.004989368841052055,
                0.12661471962928773,
                0.20144665241241456,
                0.0680839866399765,
                0.10442325472831726,
                -0.1779133379459381,
                0.03234362229704857,
                -0.11533308029174805,
                -0.09215976297855377,
                0.02532404661178589,
                0.10343599319458008,
                0.06589988619089127,
                -0.020826278254389764,
                0.09159983694553375,
                -0.04291677102446556,
                0.07747754454612732,
                -0.019841885194182397,
                0.017767056822776796,
                0.021669229492545129,
                -0.0417584627866745,
                -0.08754956722259522,
                0.3654468059539795,
                -0.11626552045345307,
                0.17114533483982087,
                -0.10852405428886414,
                0.11229182034730911,
                0.11470498144626618,
                -0.06514038890600205,
                0.2247314304113388,
                -0.21438457071781159,
                -0.4500510096549988,
                0.14745394885540009,
                0.11740166693925858,
                0.4696837365627289,
                0.11856196820735932,
                0.06154027208685875,
                -0.02724376507103443,
                0.3160207271575928,
                0.04912219196557999,
                -0.1135563924908638,
                -0.05304953455924988,
                -0.21077850461006165,
                -0.06732550263404846,
                0.0400267131626606,
                0.2316112369298935,
                0.03321133181452751,
                0.04512258246541023,
                0.17640185356140138,
                -0.07611846178770066,
                0.268691748380661,
                -0.06833556294441223,
                -0.10200569033622742,
                0.03604758903384209,
                -0.05180542171001434,
                -0.08284750580787659,
                -0.011912137269973755,
                -0.028834320604801179,
                0.09948500990867615,
                0.0180362556129694,
                -0.06432337313890457,
                0.07930468022823334,
                -0.02618500590324402,
                -0.11251768469810486,
                -0.08491884917020798,
                -0.010076281614601612,
                0.02996451035141945,
                -0.15292854607105256,
                -0.09635349363088608,
                -0.087651327252388,
                0.12593404948711396,
                0.2754773199558258,
                0.07865844666957855,
                0.21492746472358704,
                0.031120602041482927,
                -0.3179861307144165,
                0.09008076786994934,
                -0.0819307267665863,
                0.2156863957643509,
                0.16140152513980866,
                -0.21781525015830995,
                0.05264241620898247,
                0.04975653067231178,
                0.24020713567733766,
                0.29280999302864077,
                0.4666116535663605,
                -0.005819643847644329,
                -0.1342529058456421,
                -0.025440925732254983,
                -0.06674997508525849,
                -0.006368342321366072,
                0.10465708374977112,
                -0.06591881811618805,
                -0.09176532924175263,
                0.06677113473415375,
                0.01671694964170456,
                0.12744280695915223,
                0.06981895118951798,
                -0.0024158384185284378,
                -0.06252539902925492,
                0.018659695982933046,
                0.1938013881444931,
                0.10987745225429535,
                -0.09434179961681366,
                -0.10518848896026612,
                -0.279720664024353,
                -0.0594906359910965,
                0.06110740080475807,
                -0.19132256507873536,
                -0.027561446651816369,
                -0.0958075299859047,
                -0.05988503620028496,
                0.2407669574022293,
                0.1992143988609314,
                0.060279667377471927,
                0.15020151436328889,
                0.11557953804731369,
                -0.35160163044929507,
                -0.0377851240336895,
                0.01250986848026514,
                0.14570100605487824,
                0.08489767462015152,
                -0.0739116445183754,
                -0.13852813839912415,
                0.07782996445894242,
                0.060174014419317248,
                0.3261750340461731,
                -0.02252611331641674,
                -0.03150235489010811,
                -0.1492258459329605,
                -0.10073243081569672,
                0.15094256401062013,
                0.11968276649713516,
                0.09753158688545227,
                -0.06349003314971924,
                -0.023556962609291078,
                0.04591064155101776,
                0.07238845527172089,
                -0.07700616121292114,
                -0.09198445081710816,
                0.07992784678936005,
                0.22652889788150788,
                0.1099715456366539,
                0.03380961716175079,
                0.1604054570198059,
                -0.004421669524163008,
                0.2662886083126068,
                0.025925710797309877,
                0.18426677584648133,
                -0.23017288744449616,
                0.011773665435612202,
                0.10563705861568451,
                0.20050667226314546,
                -0.3233453929424286,
                -0.03601876646280289,
                -0.3434675931930542,
                0.030864723026752473,
                0.03623368963599205,
                0.13450993597507478,
                -0.3590678572654724,
                0.04174584895372391,
                -0.16364340484142304,
                0.08121407777070999,
                -0.11627567559480667,
                0.02187703363597393,
                -0.5191535353660584,
                0.15317608416080476,
                -0.32642030715942385,
                -0.05527932941913605,
                -0.01978878490626812,
                0.15831919014453889,
                -0.02068004198372364,
                0.31061384081840517,
                -0.19836612045764924,
                -0.018519733101129533,
                0.04889648035168648,
                0.1752556413412094,
                -0.03131738305091858,
                0.11242540925741196,
                -0.06298816949129105,
                -0.1384587585926056,
                -0.05651665851473808,
                -0.07100047916173935,
                -0.09723179042339325,
                0.08027851581573487,
                0.13627241551876069,
                0.055097468197345737,
                0.010326250456273556,
                -0.11445943266153336,
                -0.2161407321691513,
                0.21766182780265809,
                0.1717127561569214,
                -0.10035212337970734,
                -0.12588907778263093,
                -0.10821733623743057,
                -0.08909434825181961,
                0.2111523300409317,
                0.31423091888427737,
                -0.03856349363923073,
                -0.051086097955703738,
                -0.013906406238675118,
                0.04355587437748909,
                0.18999333679676057,
                0.3054443895816803,
                0.13037721812725068,
                -0.08117837458848953,
                -0.19269412755966187,
                -0.09632356464862824,
                0.024919522926211358,
                0.32648295164108279,
                0.09923867881298065,
                -0.12171438336372376,
                -0.08376607298851013,
                -0.07123319804668427,
                0.005402429029345512,
                0.0810004323720932,
                0.09275907278060913,
                -0.14029529690742494,
                -0.0977027416229248,
                -0.0992736965417862,
                0.1050979495048523,
                -0.09587304294109345,
                -0.10862281918525696,
                0.07451476156711579,
                0.0677831619977951,
                0.13151979446411134,
                0.057311106473207477,
                0.03213903680443764,
                0.05175891891121864,
                0.021303605288267137,
                0.09119491279125214,
                0.11790045350790024,
                -0.0035748654045164587,
                -0.08025375008583069,
                0.024541102349758149,
                -0.014913816004991532,
                -0.0054019237868487839,
                0.02063232846558094,
                0.03671678155660629,
                -0.1490786224603653,
                0.11687015742063523,
                0.0017402144148945809,
                0.045695386826992038,
                0.15439732372760774,
                -0.06039426848292351,
                -0.2523585259914398,
                0.06346084922552109,
                -0.1548907309770584,
                -0.06950301676988602,
                0.20564836263656617,
                0.048484984785318378,
                -0.21005554497241975,
                -0.046383071690797809,
                0.09606724232435227,
                0.010264622047543526,
                0.06534682214260102,
                0.0040223244577646259,
                -0.19253414869308473,
                -0.01903991587460041,
                -0.011075477115809918,
                0.07206563651561737,
                0.15959878265857697,
                0.0688498392701149,
                -0.05884046107530594,
                0.03965895622968674,
                0.00039990615914575756,
                0.032720454037189487,
                0.1665528565645218,
                0.11410190165042877,
                -0.2199874371290207,
                -0.12783418595790864,
                0.03997578099370003,
                -0.07771041244268418,
                0.04586973041296005,
                -0.20930425822734834,
                -0.0012193560833111406,
                -0.22018887102603913,
                0.054408829659223559,
                -0.019184935837984086,
                -0.22571729123592378,
                -0.25291696190834048,
                -0.371235728263855,
                -0.026581300422549249,
                0.1296827495098114,
                -0.12139676511287689,
                -0.060484878718853,
                -0.010319503024220467,
                -0.24756789207458497,
                -0.04698927327990532,
                0.07593138515949249,
                -0.06639228016138077,
                0.0782124251127243,
                -0.04912782087922096,
                0.009581639431416989,
                -0.016357988119125367,
                0.03023558296263218,
                0.014700573869049549,
                0.1534440815448761,
                -0.024485092610120775,
                0.012576180510222912,
                -0.005354450549930334,
                0.006723274476826191,
                -0.09585519880056381,
                -0.041178032755851749,
                0.06267599016427994,
                0.08282060921192169,
                -0.03257390484213829,
                0.0023360103368759157,
                -0.031244996935129167,
                0.1353360116481781,
                -0.02204897068440914,
                0.11535979807376862,
                -0.0631955936551094,
                0.010704070329666138,
                -0.10038673877716065,
                0.07901643216609955,
                0.11471205949783325,
                0.15670634806156159,
                0.1562691032886505,
                -0.14668208360671998,
                -0.07129715383052826,
                -0.1684282124042511,
                0.461516797542572,
                -0.015360791236162186,
                0.24843037128448487,
                0.062166374176740649,
                0.11318320780992508,
                -0.07850958406925202,
                0.23737256228923798,
                0.28667357563972475,
                0.17992714047431947,
                -0.05212157592177391,
                0.23787054419517518,
                -0.10664280503988266,
                0.007935662753880024,
                0.24594753980636598,
                -0.008290935307741166,
                -0.0060899630188941959,
                0.18534469604492188,
                -0.0705040693283081,
                0.19370031356811524,
                0.008212698623538018,
                0.04133448749780655,
                0.021902423352003099,
                -0.07786930352449417,
                -0.19527378678321839,
                -0.174085333943367,
                -0.13788741827011109,
                0.05985941365361214,
                -0.14546646177768708,
                -0.07844074070453644,
                0.02436075732111931,
                0.18780763447284699,
                -0.15110181272029878,
                -0.013466550968587399,
                -0.09133297950029373,
                -0.11740760505199433,
                -0.04184318333864212,
                0.09563402831554413,
                0.05873442068696022,
                0.01231848169118166,
                -0.007643940858542919,
                -0.09707574546337128,
                0.20036374032497407,
                -0.0646316409111023,
                -0.24452397227287293,
                0.02936483360826969,
                -0.001470770570449531,
                -0.2848062217235565,
                -0.07026711106300354,
                0.1785544753074646,
                -0.024453062564134599,
                0.06041720137000084,
                0.12862491607666017,
                -0.21456174552440644,
                0.028768623247742654,
                -0.0566587820649147,
                0.11179657280445099,
                0.0632873997092247,
                -0.10918683558702469,
                -0.09899239242076874,
                0.04029906168580055,
                -0.03065318986773491,
                0.012184441089630127,
                0.22557054460048676,
                0.010243146680295468,
                -0.1319810152053833,
                -0.0029206648468971254,
                0.08465816080570221,
                0.06503503024578095,
                -0.02021661400794983,
                0.06809990108013153,
                -0.007578112185001373,
                -0.015606537461280823,
                -0.0018935967236757279,
                0.24112217128276826,
                -0.039607614278793338,
                -0.07654942572116852,
                0.17723095417022706,
                -0.07676814496517182,
                -0.1497076451778412,
                -0.04984765127301216,
                -0.007683832664042711,
                0.019396895542740823,
                0.1262378841638565,
                0.00733709242194891,
                -0.1572573482990265,
                -0.18358367681503297,
                -0.020777003839612008,
                -0.0679791122674942,
                0.1398240625858307,
                -0.3194596469402313,
                -0.0648568794131279,
                -0.32443127036094668,
                -0.40400180220603945,
                -0.059507571160793307,
                0.33214980363845827,
                0.0766279324889183,
                -0.36971497535705569,
                -0.11027571558952332,
                -0.26073482632637026,
                -0.1637682169675827,
                0.17990094423294068,
                -0.03210209682583809,
                -0.04436437785625458,
                -0.29786741733551028,
                -0.0776578038930893,
                0.02644367516040802,
                0.06187894195318222,
                -0.16008679568767548,
                0.030566943809390069,
                -0.034757908433675769,
                0.15413405001163484,
                0.022985635325312616,
                0.31832024455070498,
                0.031500838696956637,
                -0.09823007136583328,
                0.15026406943798066,
                -0.03828813135623932,
                0.048913996666669849,
                -0.080849289894104,
                0.052293941378593448,
                0.07800307124853134,
                0.06956111639738083,
                -0.20481550693511964,
                0.1885955035686493,
                -0.2378436028957367,
                0.037673722952604297,
                0.06559298187494278,
                -0.12231585383415222,
                -0.048373281955718997,
                -0.021497059613466264,
                -0.05884437635540962,
                0.06503618508577347,
                0.05117812380194664,
                -0.024973107501864435,
                0.0071526686660945419,
                -0.21454006433486939,
                0.0782022550702095,
                -0.04841206222772598,
                0.14414313435554505,
                -0.08375407010316849,
                -0.07647363096475601,
                0.014687673188745976,
                -0.05698405206203461,
                0.008314087986946106,
                -0.1899227648973465,
                0.031097836792469026,
                -0.4347679615020752,
                -0.015378156676888466,
                -0.17764414846897126,
                -0.003192298114299774,
                -0.0073139965534210209,
                -0.10413457453250885,
                0.030439343303442,
                -0.03787274286150932,
                -0.004617579281330109,
                0.06645410507917404,
                0.08234617114067078,
                0.17057166993618012,
                0.09798814356327057,
                0.27048179507255556,
                0.16582363843917848,
                0.10493825376033783,
                -0.03822357580065727,
                -0.09002446383237839,
                0.04996377229690552,
                -0.014452026225626469,
                0.04899119958281517,
                0.09734804928302765,
                0.05567918345332146,
                0.08148899674415589,
                0.11887241154909134,
                -0.1571488380432129,
                0.0960337370634079,
                0.012799029238522053,
                -0.3518914580345154,
                0.02255050279200077,
                -0.33448082208633425,
                -0.14084219932556153,
                0.04898755997419357,
                0.014876137487590313,
                0.05282897502183914,
                0.16220305860042573,
                -0.008148448541760445,
                0.15528081357479096,
                -0.02760869450867176,
                0.2720438539981842,
                -0.052887365221977237,
                0.08921648561954498,
                0.12359945476055145,
                -0.01380592118948698,
                0.1122216135263443,
                -0.186734139919281,
                0.2695530354976654,
                0.009960782714188099,
                0.1466701179742813,
                -0.05284988135099411,
                -0.012508489191532135,
                -0.17202699184417725,
                0.20715005695819856,
                0.01655692234635353,
                0.014102729968726635,
                -0.0035975920036435129,
                -0.041212037205696109,
                -0.26374632120132449,
                0.04118272289633751,
                0.18070055544376374,
                0.06024244427680969,
                0.13092690706253053,
                -0.09552934765815735,
                -0.5297691226005554,
                -0.11342167854309082,
                0.1184248998761177,
                0.21971240639686585,
                0.15434123575687409,
                -0.0906815305352211,
                -0.35790932178497317,
                0.1299848109483719,
                -0.0471755675971508,
                0.21569664776325227,
                -0.04747321829199791,
                0.08045535534620285,
                -0.15354521572589875,
                0.11746571213006973,
                -0.05226137116551399,
                0.15202480554580689,
                -0.00732132513076067,
                -0.054632626473903659,
                0.04198948293924332,
                -0.15187256038188935,
                0.1278925985097885,
                -0.24595506489276887,
                0.061653465032577518,
                -0.2381247729063034,
                0.06512147933244705,
                0.10252843797206879,
                0.09353660047054291,
                0.05466200411319733,
                0.03713906556367874,
                0.08835351467132569,
                -0.17572420835494996,
                0.2181527018547058,
                0.1870093047618866,
                0.17813478410243989,
                0.19376006722450257,
                0.0432332418859005,
                -0.10955099761486054,
                0.24539852142333985,
                0.1265907734632492,
                0.024025434628129007,
                0.1935512274503708,
                0.014428754337131977,
                -0.45742473006248476,
                0.2526654601097107,
                -0.15371163189411164,
                0.15906670689582826,
                -0.13049404323101045,
                0.09362450987100601,
                -0.5909867286682129,
                0.07653982937335968,
                0.035456642508506778,
                0.1755359172821045,
                0.12188894301652909,
                0.1267295479774475,
                -0.29747623205184939,
                0.09894581884145737,
                0.16121183335781098,
                0.08847751468420029,
                0.27219104766845705,
                -0.05558718368411064,
                -0.1213572695851326,
                0.21308700740337373,
                0.2622954547405243,
                0.12909001111984254,
                0.21326197683811189,
                0.01178759429603815
            ],
            "WeightsRows": 20,
            "WeightsCols": 84,
            "Biases": [
                0.4510095417499542,
                0.38765081763267519,
                -0.6138796806335449,
                0.004255503881722689,
                0.6943328976631165,
                -0.2790204882621765,
                0.6539979577064514,
                -0.9785041213035584,
                0.06818224489688873,
                -0.36476776003837588,
                -0.44084590673446658,
                1.1164766550064088,
                -0.9387750029563904,
                -0.5665923953056336,
                -0.5121237635612488,
                0.41551467776298525,
                -0.24391447007656098,
                0.7427997589111328,
                0.5020078420639038,
                -1.583743929862976
            ]
        },
        {
            "Weights": [
                0.5235837697982788,
                -0.09982544183731079,
                -0.8398221135139465,
                0.8274787664413452,
                -0.34229576587677,
                -0.0817551240324974,
                0.6416565179824829,
                -0.8968523740768433,
                0.10897674411535263,
                -0.10920058935880661,
                -0.6224585175514221,
                0.656772255897522,
                -0.8073997497558594,
                -0.292594850063324,
                0.13627730309963227,
                0.48517632484436037,
                -0.02424005977809429,
                0.3393913507461548,
                -0.04038676992058754,
                -0.42871415615081789,
                0.05833978205919266,
                -0.11248408257961273,
                -0.5951372385025024,
                0.06489361822605133,
                0.10242712497711182,
                0.08743712306022644,
                -0.6497127413749695,
                -0.02910758927464485,
                0.28649231791496279,
                0.7185410261154175,
                0.21013888716697694,
                -0.06038166210055351,
                0.06846572458744049,
                0.04698175936937332,
                -0.6176860928535461,
                0.570490837097168,
                0.011354674585163594,
                0.050836969166994098,
                0.21403661370277406,
                -0.6935418844223023,
                -0.16763266921043397,
                1.0002309083938599,
                0.13902196288108827,
                0.7206049561500549,
                -0.4134456217288971,
                0.2774083614349365,
                -0.6065607666969299,
                0.06477426737546921,
                -0.1149437353014946,
                0.17870306968688966,
                0.28745704889297488,
                0.10921618342399597,
                -0.08079972863197327,
                -0.0356210432946682,
                0.4316035807132721,
                -0.10213960707187653,
                0.24717499315738679,
                -0.3083161413669586,
                0.3877255916595459,
                0.1762671023607254,
                0.25101515650749209,
                -0.3079306483268738,
                0.0712973102927208,
                -0.24808646738529206,
                -0.08505573868751526,
                0.6072396039962769,
                -0.24738501012325288,
                0.9266431331634522,
                -0.4297949969768524,
                0.624762773513794,
                0.27875205874443056,
                -0.07601487636566162,
                0.213115856051445,
                0.17130087316036225,
                0.5072881579399109,
                -0.6172696948051453,
                0.020214267075061799,
                0.09188516438007355,
                -0.27388375997543337,
                0.710605263710022,
                0.017351984977722169,
                0.4749945402145386,
                0.13766737282276154,
                -0.3827430307865143,
                -0.6573742628097534,
                -0.15388453006744386,
                0.20117002725601197,
                -0.3266007900238037,
                0.2929442226886749,
                0.2338266223669052,
                -0.5682388544082642,
                -0.13801808655261994,
                -0.01614113338291645,
                0.4614631235599518,
                -0.7429437041282654,
                0.12070572376251221,
                -0.4176642596721649,
                0.2477150857448578,
                0.4601438343524933,
                -0.6061967611312866,
                0.04971993714570999,
                -0.6769890785217285,
                0.051800161600112918,
                0.18668179214000703,
                -0.3597213625907898,
                0.015494358725845814,
                0.23072324693202973,
                0.3416120111942291,
                -0.2485383152961731,
                0.3105315566062927,
                -0.2779386639595032,
                -0.32969820499420168,
                0.032268643379211429,
                0.3578808307647705,
                0.3859727680683136,
                0.2058827430009842,
                0.21876494586467744,
                -0.08005214482545853,
                -0.09576018899679184,
                1.3848737478256226,
                0.3503531813621521,
                -0.295549601316452,
                -0.553324818611145,
                0.07727468758821488,
                0.29788920283317568,
                -0.25173047184944155,
                -0.17118452489376069,
                0.09253879636526108,
                -0.1011345162987709,
                -0.47221237421035769,
                -0.013164132833480835,
                -0.16905435919761659,
                -0.07185814529657364,
                0.03267868980765343,
                -0.22661139070987702,
                0.3791477382183075,
                -0.06916996836662293,
                -0.3932766616344452,
                0.3043087124824524,
                -0.31638363003730776,
                -0.11306098848581314,
                -0.3164810538291931,
                0.0509725883603096,
                0.09061142057180405,
                -0.4670775532722473,
                0.06743715703487396,
                -0.31312838196754458,
                -0.316924124956131,
                -0.3578585982322693,
                -0.14937812089920045,
                0.3863855004310608,
                -0.47006821632385256,
                0.08717681467533112,
                -0.062475841492414477,
                0.30807971954345705,
                -0.506791889667511,
                0.6605821251869202,
                -0.08524130284786225,
                -0.19702129065990449,
                -0.010902781039476395,
                0.09845062345266342,
                0.22298558056354524,
                -0.1801949143409729,
                -0.29928863048553469,
                0.5752929449081421,
                -0.048620883375406268,
                -0.03623505309224129,
                -1.0159856081008912,
                0.7880082130432129,
                -0.5316218733787537,
                -0.3301669955253601,
                0.565513551235199,
                0.040319107472896579,
                -0.556302547454834,
                -0.47600024938583376,
                0.35974130034446719,
                -0.2106747031211853,
                0.5658435225486755,
                0.782267153263092,
                -1.0584272146224976,
                0.35125887393951418,
                -0.16339688003063203,
                0.05931703373789787,
                0.18583011627197267,
                -0.16184082627296449,
                -0.001709953648969531,
                -0.4675130844116211,
                -0.0570669025182724,
                0.788158655166626,
                -0.22255805134773255,
                -0.002929514739662409,
                -0.4812382757663727,
                0.20993931591510774,
                0.4159824550151825,
                0.3781626522541046,
                0.2788638770580292,
                -0.36374354362487795,
                -0.5140071511268616,
                -0.27160412073135378,
                0.33229556679725649,
                0.27858078479766848,
                0.4597417712211609,
                -0.383565753698349,
                0.14642885327339173,
                -0.017136726528406144,
                0.5160753726959229,
                -0.040732983499765399,
                -0.03698227182030678,
                -0.12754347920417787,
                0.00645553320646286,
                -0.008330314420163632,
                0.2753155529499054,
                -0.27470338344573977,
                -0.4951171278953552,
                0.32344499230384829,
                0.20806270837783814,
                -0.21836739778518678,
                0.3746432363986969,
                0.30437448620796206,
                -0.44322413206100466,
                -0.22241361439228059,
                0.07887756079435349,
                0.1876169741153717,
                -0.4314006567001343,
                0.06638973951339722,
                0.01379316858947277,
                -0.014694192446768284,
                -0.32511934638023379,
                -0.05916788801550865,
                -0.19921515882015229,
                0.4222619831562042,
                0.07099969685077667,
                -0.007472285069525242,
                0.006828987039625645,
                -0.397775262594223,
                -0.446966290473938,
                0.28645598888397219,
                -0.505584716796875,
                -0.03641434386372566,
                -0.03219088912010193,
                0.05394892394542694,
                0.018681902438402177,
                -0.05285681411623955,
                -0.1477837860584259,
                0.12974542379379273,
                -0.1494704782962799,
                0.30453765392303469,
                -0.7236505746841431,
                -0.2567202150821686,
                -0.4872949719429016,
                -0.03023049794137478,
                -0.09304425120353699,
                0.03790929540991783,
                0.024825982749462129,
                -0.131694957613945,
                -0.14950451254844666,
                -0.025583956390619279,
                0.23504552245140077,
                -0.10753047466278076,
                -0.33562126755714419,
                0.36867812275886538,
                0.03210834786295891,
                0.5227156281471252,
                -0.007006829604506493,
                -0.42678409814834597,
                0.3413313627243042,
                0.11761584132909775,
                -0.11203263700008393,
                0.12818840146064759,
                0.03158126771450043,
                0.17959216237068177,
                0.0002753822482191026,
                0.35783258080482485,
                0.033640049397945407,
                0.49287471175193789,
                -0.046027567237615588,
                0.13081574440002442,
                -0.03280482068657875,
                -0.3786535859107971,
                0.20976148545742036,
                -0.3407644033432007,
                -0.01795593649148941,
                0.07586595416069031,
                0.09237375855445862,
                -0.12880736589431764,
                0.2341722548007965,
                -0.12343363463878632,
                0.20027555525302888,
                0.1842154860496521,
                0.05267353728413582,
                -0.0732734426856041,
                -0.6627563238143921,
                0.4169459640979767,
                -0.3921107351779938,
                0.31158146262168887,
                -0.35019269585609438,
                -0.22611160576343537,
                -0.6394109725952148,
                -0.33342745900154116,
                0.49431484937667849,
                0.22880865633487702,
                -0.18589985370635987,
                -0.0726623684167862,
                -0.1110614612698555,
                -0.17514187097549439,
                0.37974077463150027,
                0.05641890689730644,
                0.4111652672290802,
                0.006531144957989454,
                0.08620205521583557,
                0.3914739787578583,
                -0.32072126865386965,
                -0.238753080368042,
                0.273281455039978,
                0.6028536558151245,
                -0.16693370044231416,
                -0.04755216836929321,
                0.020553503185510637,
                -0.41323232650756838,
                0.5663019418716431,
                0.16832245886325837,
                0.3190861642360687,
                0.06704489141702652,
                -0.05431634187698364,
                -0.014000420458614827,
                -0.007093602325767279,
                0.039505574852228168,
                -0.2050025463104248,
                0.12155826389789581,
                -0.17963619530200959,
                -0.12367880344390869,
                0.34941136837005618,
                -0.07142315804958344,
                0.26114487648010256,
                -0.3553054630756378,
                -0.3776152431964874,
                0.3544994592666626,
                -0.2518211305141449,
                -0.15181894600391389,
                -0.017210615798830987,
                -0.44112715125083926,
                -0.3767664432525635,
                -0.239785835146904,
                -0.23953686654567719,
                -0.2259998321533203,
                -0.4206760823726654,
                0.008156072348356247,
                0.6443171501159668,
                0.4086277186870575,
                0.03014032170176506,
                -0.34406110644340517,
                -0.5355574488639832,
                0.11726818233728409,
                -0.04966844245791435,
                -0.04577074199914932,
                0.3302046060562134,
                -0.1716378778219223,
                0.16750428080558778,
                -0.36612656712532046,
                0.8316957354545593,
                -0.13382966816425324,
                0.34120240807533266,
                -0.21914540231227876,
                -0.2077503204345703,
                0.6853899359703064,
                -0.3085678517818451,
                0.06943617016077042,
                0.24561066925525666,
                -0.38462671637535097,
                0.08339598029851914,
                -0.21147724986076356,
                0.5810297131538391,
                -0.09982367604970932,
                -0.3026365339756012,
                -0.1311470866203308,
                -0.10047239810228348,
                -0.13977625966072083,
                0.05746576562523842,
                0.049794383347034457,
                -0.5122870802879334,
                -0.06980995088815689,
                0.1673666089773178,
                -0.034908734261989596,
                -0.10497178137302399,
                -0.043446823954582217,
                -0.12032344192266464,
                0.21987392008304597,
                0.22253422439098359,
                0.038247719407081607,
                0.10998919606208801,
                0.019503777846693994,
                -0.005044223740696907,
                0.08622848242521286,
                -0.19359752535820008,
                0.19269850850105287,
                0.23155485093593598,
                -0.04264888912439346,
                0.15180324018001557,
                0.28121790289878847,
                0.19875720143318177
            ],
            "WeightsRows": 20,
            "WeightsCols": 20,
            "Biases": [
                0.9035017490386963,
                0.23403209447860719,
                -0.579846203327179,
                -0.11020346730947495,
                0.14296689629554749,
                -0.3180588185787201,
                0.16160500049591065,
                -0.1600937694311142,
                0.7180753350257874,
                -0.22467519342899323,
                0.45509353280067446,
                0.0026224893517792227,
                0.12528519332408906,
                -0.07896412909030914,
                -0.3784983456134796,
                -0.06860151886940003,
                -0.03213974088430405,
                -0.6115251183509827,
                0.12223511934280396,
                0.0009545562788844109
            ]
        },
        {
            "Weights": [
                -1.3706049919128419,
                -0.6647747159004211,
                -1.0023572444915772,
                0.518718957901001,
                0.3324252963066101,
                -1.2348284721374512,
                -0.30391308665275576,
                0.034057218581438068,
                1.9850553274154664,
                1.056990385055542,
                0.7137174010276794,
                -0.19314153492450715,
                -0.39275768399238589,
                0.6165658235549927,
                0.8250307440757752,
                -0.8468950986862183,
                -0.09410422295331955,
                0.4514973759651184,
                0.5840778350830078,
                0.0558883398771286,
                -0.630843997001648,
                0.046670086681842807,
                1.6035187244415284,
                -0.8371309638023377,
                0.7272567749023438,
                1.0397933721542359,
                0.44111552834510805,
                -0.8316721320152283,
                -2.407198190689087,
                -0.8844238519668579,
                -0.6985937356948853,
                0.1829870492219925,
                0.5466910004615784,
                -0.7749552130699158,
                -0.5582970380783081,
                0.45556047558784487,
                -0.12584881484508515,
                0.4632940888404846,
                0.12421722710132599,
                -0.042123209685087207,
                1.785399317741394,
                0.7232804894447327,
                -0.8156687021255493,
                0.5906074643135071,
                -0.9369168877601624,
                0.44969168305397036,
                0.15972338616847993,
                1.0963938236236573,
                0.5182045698165894,
                -0.13987527787685395,
                -0.1745513528585434,
                0.40381577610969546,
                -0.10935720056295395,
                0.32350319623947146,
                -0.4836430251598358,
                0.4459032118320465,
                0.30783557891845705,
                -0.7426044940948486,
                -0.7717140316963196,
                -0.17086398601531983
            ],
            "WeightsRows": 3,
            "WeightsCols": 20,
            "Biases": [
                -0.35473382472991946,
                0.5852567553520203,
                -0.23050740361213685
            ]
        }
    ]
}