{
    "Layers": [
        {
            "Weights": [
                0.11280648410320282,
                -0.1060723140835762,
                0.1803797036409378,
                -0.08287373185157776,
                -0.0335170216858387,
                -0.00028727820608764887,
                0.20143689215183259,
                0.145660862326622,
                -0.09035705029964447,
                0.20891718566417695,
                0.006593797355890274,
                -0.03125232830643654,
                0.10483959317207337,
                -0.035550374537706378,
                0.1438276320695877,
                0.2104330062866211,
                0.030331218615174295,
                -0.015644941478967668,
                -0.30890727043151858,
                -0.12348969280719757,
                -0.006024765782058239,
                -0.22671303153038026,
                -0.35750243067741396,
                -0.3641398847103119,
                -0.13455885648727418,
                0.06321194022893906,
                -0.05258039012551308,
                0.07836654037237168,
                -0.14462946355342866,
                -0.18988415598869325,
                0.19030088186264039,
                -0.15356557071208955,
                0.017697380855679513,
                -0.12503130733966828,
                -0.019831012934446336,
                -0.12364755570888519,
                -0.08451461046934128,
                0.17755888402462007,
                0.13672494888305665,
                0.04370924085378647,
                0.09915275871753693,
                0.05490895360708237,
                0.07351812720298767,
                0.01411062479019165,
                0.0032836049795150759,
                0.04442950710654259,
                -0.008602917194366455,
                -0.05481593310832977,
                -0.07113940268754959,
                0.08664292842149735,
                -0.2313891351222992,
                0.04495171085000038,
                0.01876872032880783,
                -0.03811481222510338,
                -0.045532286167144778,
                -0.07409394532442093,
                0.09786729514598847,
                -0.12693162262439729,
                0.03338662162423134,
                0.07384927570819855,
                -0.3057088851928711,
                -0.09234753996133805,
                -0.17304272949695588,
                0.04713131859898567,
                0.10919144749641419,
                0.12849955260753632,
                0.014768910594284535,
                -0.25181108713150027,
                -0.5420600771903992,
                -0.17966444790363313,
                0.15749238431453706,
                0.13708166778087617,
                -0.08805310726165772,
                -0.05780298262834549,
                0.028562001883983613,
                -0.09027601778507233,
                0.1966460645198822,
                0.14130611717700959,
                -0.23221026360988618,
                0.06380491703748703,
                0.05073358491063118,
                0.05096106231212616,
                -0.09147588908672333,
                0.11552842706441879,
                -0.17768223583698274,
                0.051372624933719638,
                -0.11330913752317429,
                0.0838976576924324,
                -0.0685378909111023,
                0.022434180602431299,
                0.011508667841553688,
                -0.11307801306247711,
                0.13281027972698213,
                -0.15228429436683656,
                0.02407628670334816,
                -0.2202979028224945,
                0.11598465591669083,
                -0.19373910129070283,
                0.1618780791759491,
                0.008086709305644036,
                0.08845216780900955,
                -0.17284151911735536,
                0.09622316062450409,
                0.3457391560077667,
                -0.01794510893523693,
                0.04755702242255211,
                -0.4105759263038635,
                -0.02464008517563343,
                0.06441108137369156,
                0.13439233601093293,
                -0.049076225608587268,
                0.15156103670597077,
                0.00023113723727874458,
                -0.1034238338470459,
                -0.020646177232265474,
                -0.19105924665927888,
                0.06961960345506668,
                -0.1788197159767151,
                0.0715816468000412,
                -0.18123628199100495,
                -0.21117334067821504,
                -0.10541728883981705,
                -0.0630398616194725,
                -0.14759597182273866,
                -0.07009661942720413,
                -0.1503058820962906,
                -0.07379339635372162,
                -0.05003295838832855,
                -0.09764492511749268,
                -0.06962081789970398,
                0.004752017557621002,
                0.06876931339502335,
                0.01379554346203804,
                0.00998645182698965,
                0.0601138211786747,
                -0.05180251970887184,
                -0.001274180831387639,
                0.051383789628744128,
                -0.15051111578941346,
                -0.09922889620065689,
                -0.19887864589691163,
                0.04273267835378647,
                -0.1786426454782486,
                0.06473354995250702,
                0.013138019479811192,
                -0.03521793335676193,
                -0.15521256625652314,
                -0.12075034528970719,
                -0.2831558883190155,
                -0.017374901100993158,
                0.024466563016176225,
                -0.1698123663663864,
                0.12152616679668427,
                -0.27506721019744875,
                0.14794309437274934,
                -0.279872864484787,
                -0.04592980816960335,
                -0.15584373474121095,
                -0.002910028910264373,
                -0.1373399943113327,
                -0.06310807168483734,
                0.0099160335958004,
                -0.1661129891872406,
                -0.06264829635620117,
                -0.13545937836170197,
                0.1576160341501236,
                -0.12389899790287018,
                0.14930887520313264,
                -0.09608042985200882,
                -0.12226862460374832,
                0.12774455547332765,
                -0.11215297132730484,
                0.0554170086979866,
                0.12010922282934189,
                0.028223538771271707,
                -0.15472136437892915,
                -0.14445197582244874,
                0.07168878614902497,
                -0.08843809366226196,
                -0.01669350080192089,
                0.21113547682762147,
                -0.12344756722450257,
                -0.2226473093032837,
                -0.06971149146556854,
                -0.09556949138641358,
                0.04631555452942848,
                0.28288692235946658,
                -0.1028042733669281,
                0.1681763082742691,
                0.23441766202449799,
                0.25271400809288027,
                0.18513211607933045,
                0.265427827835083,
                -0.16195915639400483,
                0.0363394059240818,
                -0.30774733424186709,
                0.020877350121736528,
                -0.02091994509100914,
                -0.018659690394997598,
                -0.23480629920959474,
                -0.031047891825437547,
                0.00708437105640769,
                0.11534594744443894,
                0.004609106108546257,
                -0.15461406111717225,
                -0.0211003590375185,
                0.07562366873025894,
                0.07642696797847748,
                -0.2071380913257599,
                0.05999205261468887,
                0.051860079169273379,
                -0.05438755452632904,
                -0.10467380285263062,
                -0.06172644719481468,
                0.07416737079620362,
                -0.10760326683521271,
                0.056500401347875598,
                0.03335170820355415,
                0.1312589943408966,
                0.0026548735331743957,
                -0.13623419404029847,
                0.0026547785382717849,
                -0.023465167731046678,
                0.009201076813042164,
                0.23436398804187776,
                -0.01381912361830473,
                0.09643318504095078,
                0.039506442844867709,
                -0.11089414358139038,
                -0.12243892252445221,
                0.24212515354156495,
                0.15322765707969666,
                -0.012261509895324707,
                0.0350065678358078,
                -0.260393351316452,
                0.0002335527678951621,
                0.03967394679784775,
                0.01863434538245201,
                0.04892820864915848,
                0.09215950220823288,
                -0.21036985516548158,
                -0.37765607237815859,
                -0.06445300579071045,
                0.08711228519678116,
                -0.117726169526577,
                -0.021854089573025705,
                0.03839109092950821,
                -0.1432655155658722,
                -0.0037436368875205518,
                -0.024773381650447847,
                -0.12419842183589935,
                -0.008155244402587414,
                -0.030534975230693818,
                0.06199698895215988,
                -0.1570446491241455,
                -0.12359508872032166,
                -0.20940619707107545,
                -0.026797590777277948,
                0.021569710224866868,
                -0.06491510570049286,
                0.004144739825278521,
                -0.06981188803911209,
                0.10499247163534165,
                -0.14818830788135529,
                0.051561836153268817,
                -0.11416386067867279,
                -0.03409421071410179,
                -0.12755458056926728,
                0.06094977259635925,
                -0.12155401706695557,
                -0.30287396907806399,
                -0.019530456513166429,
                -0.14766059815883637,
                0.01840435527265072,
                -0.5215895771980286,
                0.07564455270767212,
                0.07146378606557846,
                0.02927090786397457,
                -0.18107004463672639,
                0.046516355127096179,
                -0.08446360379457474,
                0.03917917236685753,
                0.020279042422771455,
                -0.10859894752502442,
                -0.07056951522827149,
                -0.163933664560318,
                -0.017776474356651307,
                -0.10270192474126816,
                -0.05808978155255318,
                -0.03334958851337433,
                0.03759075701236725,
                -0.24291178584098817,
                0.03182331472635269,
                -0.2917253375053406,
                0.06868889927864075,
                -0.05004151165485382,
                0.05862189829349518,
                0.036694806069135669,
                -0.05634951591491699,
                0.08478793501853943,
                0.06078434735536575,
                0.014807225205004216,
                0.07546910643577576,
                0.018514437600970269,
                0.06001024320721626,
                0.07732274383306503,
                0.02219364233314991,
                0.09562017023563385,
                -0.22633032500743867,
                0.07525954395532608,
                -0.11799734830856323,
                0.05800006911158562,
                0.02061188593506813,
                0.4029204547405243,
                -0.005998773500323296,
                0.011075980961322785,
                -0.12559707462787629,
                -0.08191591501235962,
                -0.18916092813014985,
                -0.1676829755306244,
                -0.022259190678596498,
                0.010733263567090035,
                0.19634252786636353,
                -0.05547986552119255,
                -0.025327710434794427,
                0.252532422542572,
                0.09358403086662293,
                -0.02974121645092964,
                0.07283207029104233,
                -0.03824878856539726,
                0.0930543765425682,
                0.23771335184574128,
                -0.14043639600276948,
                0.1398719847202301,
                -0.030673079192638398,
                0.07458186894655228,
                0.18381375074386598,
                0.045121464878320697,
                0.052564170211553577,
                -0.06416556984186173,
                -0.018455300480127336,
                -0.05676206946372986,
                0.22696027159690858,
                -0.15472210943698884,
                0.07030081748962403,
                0.2045956403017044,
                0.13743489980697633,
                -0.03934148699045181,
                0.14390525221824647,
                -0.41063055396080019,
                0.04897329583764076,
                0.11315195262432099,
                0.00039543519960716367,
                0.027243658900260927,
                0.09935328364372254,
                -0.5970494747161865,
                0.1311112940311432,
                -0.04245351254940033,
                -0.022460337728261949,
                0.008494140580296517,
                0.15082411468029023,
                -0.4950270354747772,
                0.03681212663650513,
                -0.0048493328504264359,
                0.09227479249238968,
                0.12424521148204804,
                0.15645214915275575,
                -0.3662564754486084,
                0.10119377821683884,
                0.3032209873199463,
                0.03707048296928406,
                0.025144943967461587,
                0.11706970632076264,
                0.0596269853413105,
                0.08264859765768051,
                0.06790649145841599,
                0.06359560787677765,
                0.010271651670336724,
                -0.06529577076435089,
                0.09055781364440918,
                0.05730735510587692,
                0.04873824119567871,
                0.0966692864894867,
                0.014023736119270325,
                0.16572950780391694,
                0.020495759323239328,
                -0.06636452674865723,
                0.018473831936717035,
                -0.12769651412963868,
                0.14336952567100526,
                0.0677143782377243,
                0.015877705067396165,
                0.07943888008594513,
                -0.15701481699943543,
                0.1066482737660408,
                -0.012241377495229245,
                0.159952774643898,
                0.08015312999486923,
                -0.07056910544633866,
                -0.1985582709312439,
                -0.07093419134616852,
                -0.0528334379196167,
                0.07106651365756989,
                0.11842667311429978,
                -0.19069549441337586,
                -0.2933676838874817,
                -0.26375871896743777,
                -0.08445996791124344,
                0.12464999407529831,
                0.12538467347621919,
                -0.2674352526664734,
                -0.11004757881164551,
                -0.010377246886491776,
                -0.07061387598514557,
                -0.044303156435489658,
                0.049026113003492358,
                0.10530968010425568,
                -0.17578105628490449,
                0.12774382531642915,
                0.08013971894979477,
                0.04051271080970764,
                0.20396830141544343,
                0.01647413708269596,
                0.12296302616596222,
                0.045165739953517917,
                0.0020900366362184288,
                0.04619114473462105,
                0.059355925768613818,
                0.09305311739444733,
                0.03381894528865814,
                0.12867705523967744,
                -0.016359133645892144,
                -0.2026580423116684,
                -0.13275395333766938,
                -0.07088896632194519,
                0.12333452701568604,
                0.2076513022184372,
                0.058128297328948978,
                -0.015174605883657933,
                0.006260723806917667,
                -0.19944483041763307,
                0.14103858172893525,
                -0.04985666647553444,
                0.2524344027042389,
                -0.10286759585142136,
                -0.009852711111307145,
                -0.041423335671424869,
                0.05884126201272011,
                0.02860349416732788,
                0.19092443585395814,
                0.01278225239366293,
                0.001435668207705021,
                0.0598132461309433,
                0.10079791396856308,
                0.14810748398303986,
                0.01481839269399643,
                0.1192743331193924,
                -0.06275205314159394,
                0.11673413217067719,
                -0.06311536580324173,
                0.15020403265953065,
                -0.12046799063682556,
                -0.07382151484489441,
                -0.09367910027503967,
                0.013149134814739228,
                -0.005773209035396576,
                -0.10196176171302796,
                -0.09786425530910492,
                0.0009106762590818107,
                0.0769241526722908,
                0.0508660227060318,
                0.07529022544622421,
                0.18309804797172547,
                -0.0780155211687088,
                -0.060147788375616077,
                0.08363500237464905,
                -0.10994384437799454,
                0.08077619969844818,
                -0.07910856604576111,
                0.07385516166687012,
                -0.15695032477378846,
                0.0015909681096673012,
                -0.040713027119636539,
                0.036504216492176059,
                -0.06364435702562332,
                0.18470776081085206,
                -0.04201152175664902,
                -0.09075764566659928,
                -0.022830961272120477,
                0.009713186882436276,
                0.31251421570777895,
                0.03854820504784584,
                -0.10726289451122284,
                0.023686889559030534,
                0.059663452208042148,
                0.010872606188058854,
                0.1421511024236679,
                0.06357643753290177,
                0.08696235716342926,
                0.07971170544624329,
                0.02759845182299614,
                0.06403988599777222,
                -0.03508111089468002,
                0.13543611764907838,
                -0.07896995544433594,
                0.1321944296360016,
                0.09231605380773545,
                0.06822451949119568,
                0.028909970074892045,
                0.11772525310516358,
                -0.10472405701875687,
                -0.037660468369722369,
                -0.16231921315193177,
                0.12536965310573579,
                0.04672900214791298,
                -0.15271778404712678,
                -0.08857966214418411,
                -0.07979757338762284,
                -0.1924295276403427,
                0.14861123263835908,
                -0.0892820805311203,
                -0.09735255688428879,
                0.28059491515159609,
                0.2061861753463745,
                -0.09940646588802338,
                -0.12888844311237336,
                0.10394266247749329,
                -0.17451994121074677,
                0.05730495601892471,
                0.07288488000631333,
                0.062068987637758258,
                -0.008588753640651703,
                0.1431371122598648,
                0.030288392677903177,
                -0.11065143346786499,
                -0.0641452819108963,
                -0.316909521818161,
                0.24451804161071778,
                0.03080051951110363,
                -0.05880647525191307,
                -0.13060534000396729,
                -0.18430612981319428,
                -0.25690385699272158,
                -0.022487645968794824,
                -0.12050482630729675,
                -0.010885349474847317,
                -0.031616732478141788,
                0.10193508863449097,
                0.09265859425067902,
                0.03674834221601486,
                0.029862280935049058,
                0.0024213865399360658,
                -0.060417644679546359,
                -0.05326317995786667,
                -0.06638900190591812,
                -0.0028887256048619749,
                -0.0728864073753357,
                0.041010782122612,
                -0.009357662871479988,
                0.08721520751714707,
                0.0005649858503602445,
                -0.1737675815820694,
                -0.08797163516283035,
                0.052191976457834247,
                -0.06145688518881798,
                0.13520872592926026,
                0.0251566544175148,
                -0.05097188428044319,
                0.18175992369651795,
                -0.06977462023496628,
                -0.11681840568780899,
                0.039675019681453708,
                0.20613564550876618,
                0.12492725998163223,
                0.0077582309022545818,
                0.0987975150346756,
                -0.07657850533723831,
                -0.017612164840102197,
                0.06861526519060135,
                -0.05455108731985092,
                -0.1183723732829094,
                0.12915058434009553,
                -0.2221747636795044,
                0.04914829879999161,
                0.2660508453845978,
                -0.07767122238874436,
                0.23929207026958466,
                0.16822412610054017,
                0.0012308844598010183,
                -0.0038998343516141178,
                -0.021687153726816179,
                -0.030069230124354364,
                0.020583095028996469,
                -0.07734085619449616,
                0.035481929779052737,
                0.07465409487485886,
                0.05183849856257439,
                0.14925801753997804,
                0.18590331077575684,
                -0.19926661252975465,
                -0.009712736122310162,
                0.064243845641613,
                0.27100667357444765,
                0.48228710889816286,
                0.1316894143819809,
                -0.18304289877414704,
                -0.13629795610904694,
                -0.16682635247707368,
                0.457238107919693,
                0.5877039432525635,
                -0.006911491043865681,
                -0.26489242911338808,
                -0.06492340564727783,
                -0.01272506546229124,
                0.37879621982574465,
                0.41860994696617129,
                0.07948336750268936,
                -0.02681375853717327,
                -0.008469119668006897,
                0.018359936773777009,
                0.10611891001462937,
                0.2127007097005844,
                0.08504099398851395,
                -0.026389049366116525,
                0.08812571316957474,
                -0.004084365908056498,
                0.012072920799255371,
                0.15898014605045319,
                0.06701084226369858,
                -0.08525760471820831,
                0.055633485317230228,
                0.05632854253053665,
                -0.008259668946266175,
                0.061946332454681399,
                0.0803946852684021,
                0.019127994775772096,
                -0.004663353785872459,
                -0.007286672480404377,
                0.1986733078956604,
                0.022856153547763826,
                0.04707450419664383,
                0.13582131266593934,
                0.018498113378882409,
                0.09952925890684128,
                -0.11827507615089417,
                -0.06940983235836029,
                -0.18712250888347627,
                0.23126381635665894,
                0.110017329454422,
                0.24977505207061768,
                0.013367271982133389,
                -0.2231651097536087,
                0.10595280677080155,
                0.19128604233264924,
                -0.04428409785032272,
                -0.10219322144985199,
                -0.282320499420166,
                -0.2511835992336273,
                0.04078977182507515,
                0.422163724899292,
                0.146092489361763,
                0.1469050943851471,
                -0.09664443880319596,
                -0.18466483056545258,
                0.10106704384088516,
                0.22712239623069764,
                0.05312420800328255,
                0.03532607480883598,
                -0.07662129402160645,
                -0.09677886217832566,
                -0.07729834318161011,
                0.08117032051086426,
                0.09832462668418884,
                0.11541321128606796,
                0.027809804305434228,
                0.008581902831792832,
                -0.09755896031856537,
                0.043638359755277637,
                -0.020911039784550668,
                0.10985718667507172,
                0.06492334604263306,
                -0.24192263185977937,
                -0.01800837554037571,
                -0.07287991046905518,
                -0.006587199401110411,
                0.07932179421186447,
                0.23269446194171906,
                -0.03704690560698509,
                -0.0989571064710617,
                0.038245391100645068,
                -0.073287233710289,
                0.03031362220644951,
                0.3849300146102905,
                -0.10632170736789704,
                -0.176365926861763,
                -0.16071471571922303,
                0.006570674944669008,
                0.10354959219694138,
                0.13233737647533418,
                -0.4253649413585663,
                -0.07346272468566895,
                -0.04577391967177391,
                0.025145700201392175,
                0.14953875541687013,
                -0.005932515487074852,
                -0.17200781404972077,
                -0.10525137186050415,
                0.052916962653398517,
                0.01952146552503109,
                -0.13939286768436433,
                0.08615250885486603,
                -0.05839229375123978,
                -0.08567427098751068,
                -0.05656769126653671,
                -0.057459354400634769,
                0.07335062325000763,
                -0.10734216868877411,
                -0.09004154801368714,
                0.07810291647911072,
                0.06093991920351982,
                0.20183053612709046,
                -0.011566612869501114,
                -0.25585612654685976,
                0.030100680887699128,
                0.1053469255566597,
                -0.0056358277797698978,
                0.08228650689125061,
                -0.03458228334784508,
                -0.4349019229412079,
                -0.05036440119147301,
                -0.03582463040947914,
                0.04118543863296509,
                -0.03793354704976082,
                0.004821939393877983,
                -0.7161628603935242,
                -0.17140182852745057,
                0.08803916722536087,
                0.05239438638091087,
                -0.16142895817756654,
                -0.29165443778038027,
                -1.0689785480499268,
                0.0635344460606575,
                0.13429386913776399,
                0.22678197920322419,
                0.10705946385860443,
                -0.2004513442516327,
                -0.5178758502006531,
                0.08084211498498917,
                0.10087830573320389,
                0.1262369006872177,
                -0.002836704719811678,
                0.06587672978639603,
                -0.20836970210075379,
                -0.08324125409126282,
                0.1537601202726364,
                0.038910262286663058,
                0.060574281960725787,
                0.02220889925956726,
                -0.07292870432138443,
                0.05758092179894447,
                0.06502727419137955,
                0.002937769051641226,
                -0.0011364505626261235,
                0.13888230919837953,
                -0.11370403319597244,
                0.0021019012201577427,
                -0.041124824434518817,
                0.21397832036018372,
                -0.07530884444713593,
                0.10049127042293549,
                -0.020702382549643518,
                -0.10711860656738281,
                -0.14142201840877534,
                0.06826778501272202,
                -0.308727890253067,
                0.0010681783314794303,
                -0.0664154663681984,
                0.28719547390937807,
                -0.18876834213733674,
                0.07339397817850113,
                0.0024182156194001438,
                -0.07687515765428543,
                0.10512227565050125,
                -0.199683278799057,
                -0.1468801498413086,
                -0.14459481835365296,
                -0.04976413771510124,
                0.4402908682823181,
                0.20092834532260896,
                -0.06506087630987168,
                -0.030980728566646577,
                0.08020072430372238,
                0.2088133990764618,
                -0.042393025010824206,
                0.048781923949718478,
                -0.02903752215206623,
                0.08328785747289658,
                -0.06759893894195557,
                -0.0025864914059638979,
                0.07422228157520294,
                0.02429848536849022,
                -0.029446154832839967,
                0.016843635588884355,
                -0.103009894490242,
                -0.00552977342158556,
                0.06972133368253708,
                0.1499054878950119,
                0.05200435593724251,
                0.09903775900602341,
                0.0009597609750926495,
                0.0026192236691713335,
                -0.03555881232023239,
                0.2698862552642822,
                0.1070793867111206,
                0.2450423389673233,
                -0.041003789752721789,
                0.14462170004844666,
                -0.07010026276111603,
                0.08918511867523194,
                -0.0011139962589368225,
                -0.02577679231762886,
                -0.09009608626365662,
                0.15380756556987763,
                0.1547735184431076,
                0.04573715478181839,
                -0.2680104076862335,
                0.3092351257801056,
                0.006419330835342407,
                0.10694103688001633,
                0.19086404144763947,
                -0.2306167632341385,
                -0.09430549293756485,
                -0.08071503043174744,
                0.0031142469961196186,
                0.0812314972281456,
                0.07572280615568161,
                -0.0057533252984285358,
                0.1687917709350586,
                0.09190300107002258,
                0.20703738927841187,
                -0.03491338714957237,
                0.005273289978504181,
                0.12018875777721405,
                -0.03273605927824974,
                0.2431110143661499,
                0.09522835165262222,
                -0.010085788555443287,
                -0.25713449716567995,
                0.13414938747882844,
                -0.20223508775234223,
                0.23003774881362916,
                0.10012003779411316,
                0.007366324309259653,
                0.051594726741313937,
                0.14269234240055085,
                0.07346555590629578,
                0.15884746611118318,
                0.07373460382223129,
                0.0018895119428634644,
                -0.10395698994398117,
                -0.020200027152895929,
                -0.05154730752110481,
                -0.030744973570108415,
                0.15297915041446687,
                0.050663989037275317,
                -0.12358712404966355,
                0.025365538895130159,
                -0.060066819190979007,
                0.17250089347362519,
                0.029746098443865777,
                0.0336613804101944,
                -0.0817873477935791,
                0.1312951147556305,
                -0.06541653722524643,
                0.01808028668165207,
                -0.02783222496509552,
                0.013945020735263825,
                -0.09889021515846253,
                0.013572153635323048,
                0.03279891610145569,
                0.039053160697221759,
                0.05188542231917381,
                -0.024429980665445329,
                0.01124940812587738,
                -0.06881478428840637,
                -0.054843198508024219,
                0.0049211084842681889,
                0.002946913242340088,
                -0.1344607174396515,
                -0.0026001788210123779,
                -0.06511795520782471,
                0.00893472135066986,
                -0.017818208783864976,
                -0.10332956165075302,
                -0.15490375459194184,
                -0.08901498466730118,
                -0.12579575181007386,
                0.03917723149061203,
                -0.12832556664943696,
                0.012161686085164547,
                0.0833485946059227,
                -0.1446022242307663,
                0.06794106960296631,
                0.06482074409723282,
                0.09012805670499802,
                -0.07501868158578873,
                0.15414735674858094,
                -0.2910027503967285,
                0.28343507647514346,
                -0.1538725346326828,
                0.1792205274105072,
                0.015220339410007,
                0.031525127589702609,
                0.0802239179611206,
                -0.07131679356098175,
                -0.07455887645483017,
                -0.1090647429227829,
                0.028479311615228654,
                -0.128887340426445,
                -0.02146063931286335,
                0.024113696068525316,
                0.18150629103183747,
                -0.011772424913942814,
                0.051904547959566119,
                -0.027085397392511369,
                0.12350351363420487,
                0.021304117515683175,
                0.15618351101875306,
                -0.05717867985367775,
                0.14456135034561158,
                -0.023178337141871454,
                -0.23488155007362367,
                -0.12583841383457185,
                -0.22965188324451447,
                -0.10571537911891937,
                -0.024600794538855554,
                -0.006759427487850189,
                -0.17500367760658265,
                -0.3720901310443878,
                -0.11379696428775788,
                -0.16419167816638947,
                -0.08136588335037232,
                0.04559195041656494,
                -0.30271050333976748,
                -0.033941201865673068,
                0.0271970946341753,
                -0.11922385543584824,
                0.09682571142911911,
                -0.048544153571128848,
                -0.14932860434055329,
                -0.05256311222910881,
                0.01677200198173523,
                -0.12723921239376069,
                0.14279808104038239,
                -0.1611720770597458,
                -0.0037549042608588936,
                -0.17806832492351533,
                -0.01208582241088152,
                -0.04200488328933716,
                0.028949568048119546,
                0.3252870440483093,
                -0.14285311102867127,
                0.10427800565958023,
                0.1564348042011261,
                0.09610991179943085,
                0.1358855664730072,
                -0.032418910413980487,
                -0.03121139109134674,
                -0.06463083624839783,
                -0.019978821277618409,
                -0.0024323388934135439,
                0.04516392573714256,
                -0.04987013339996338,
                -0.1536048948764801,
                0.12688517570495606,
                0.056822214275598529,
                -0.010256484150886536,
                0.064824678003788,
                -0.022164257243275644,
                -0.04191724583506584,
                -0.06979374587535858,
                0.15024881064891816,
                -0.0384831428527832,
                -0.03804152086377144,
                0.003991276491433382,
                -0.15004917979240418,
                -0.03388800844550133,
                -0.25718238949775698,
                -0.005104179494082928,
                -0.15911312401294709,
                0.04359089583158493,
                0.2499154955148697,
                -0.20114493370056153,
                -0.23849965631961823,
                0.12795604765415193,
                0.1382073014974594,
                0.05744867026805878,
                -0.0798240676522255,
                -0.06275772303342819,
                -0.13135617971420289,
                0.026980062946677209,
                0.01901419460773468,
                -0.04692838713526726,
                -0.27374976873397829,
                0.13326896727085114,
                -0.09077263623476029,
                -0.08943075686693192,
                -0.049295976758003238,
                0.056574370712041858,
                0.24716682732105256,
                -0.017489030957221986,
                0.04767458140850067,
                -0.1042117327451706,
                0.10546250641345978,
                0.03091428242623806,
                -0.030057696625590326,
                0.008847990073263646,
                0.16234667599201203,
                0.034958355128765109,
                -0.001187782152555883,
                -0.023216096684336664,
                -0.1468273550271988,
                0.15618053078651429,
                -0.0706261396408081,
                -0.009672154672443867,
                -0.01435215026140213,
                0.045302074402570727,
                0.017578700557351114,
                0.1356339454650879,
                -0.08323384076356888,
                0.15486876666545869,
                0.18325883150100709,
                -0.04029736667871475,
                0.013109114021062851,
                0.045473624020814899,
                0.30069249868392947,
                0.10195624828338623,
                -0.008150745183229447,
                -0.0037234898190945389,
                0.009292409755289555,
                0.07754623144865036,
                0.2834363281726837,
                0.06614641845226288,
                0.07727901637554169,
                0.0006559162866324186,
                -0.060773879289627078,
                0.008760541677474976,
                -0.09794331341981888,
                -0.00728155393153429,
                -0.044741347432136539,
                -0.04854284226894379,
                0.09732326865196228,
                0.01915164291858673,
                0.07472112774848938,
                0.0731806755065918,
                -0.059928879141807559,
                0.03452558070421219,
                -0.08634549379348755,
                0.13025906682014466,
                -0.10234379023313523,
                0.24575014412403108,
                -0.031420037150382999,
                0.1538267284631729,
                -0.044463109225034717,
                0.10116444528102875,
                -0.07875986397266388,
                -0.062436897307634357,
                -0.01808145083487034,
                0.15184836089611054,
                -0.19721773266792298,
                -0.07035505771636963,
                -0.07936136424541474,
                -0.05173696577548981,
                -0.1388249546289444,
                0.15595054626464845,
                -0.5072727203369141,
                -0.07023996114730835,
                0.05443530157208443,
                -0.06337656825780869,
                -0.02945178933441639,
                0.43237361311912539,
                -0.1234964057803154,
                0.1964869201183319,
                -0.25676050782203677,
                -0.03395769000053406,
                0.07890542596578598,
                0.15546561777591706,
                -0.011405467987060547,
                0.017951268702745439,
                -0.12944059073925019,
                0.01026860810816288,
                -0.0853128731250763,
                -0.0077194334007799629,
                0.019483719021081926,
                0.19320033490657807,
                0.026246389374136926,
                -0.05369885265827179,
                0.04193716496229172,
                -0.02330680377781391,
                0.08388330042362213,
                0.020786764100193979,
                -0.06415708363056183,
                0.007280172314494848,
                0.0018477467820048333,
                -0.01470410730689764,
                0.21585971117019654,
                -0.03886831924319267,
                0.14048051834106446,
                -0.11754748225212097,
                0.17276431620121003,
                0.12265050411224365,
                -0.10364750027656555,
                0.31635144352912905,
                -0.13436804711818696,
                -0.3354264199733734,
                0.22920824587345124,
                0.0753616988658905,
                0.4035595953464508,
                0.06707499921321869,
                0.07601442188024521,
                0.04970613121986389,
                0.3049536943435669,
                0.02346869185566902,
                -0.10885842889547348,
                -0.06809946149587631,
                -0.17528636753559113,
                -0.11441311240196228,
                -0.01734936609864235,
                0.09529825299978256,
                0.09333285689353943,
                -0.03482157364487648,
                0.17251750826835633,
                -0.041620656847953799,
                0.19397488236427308,
                -0.06833556294441223,
                -0.10200569033622742,
                0.03604758903384209,
                -0.05180542171001434,
                -0.08284750580787659,
                -0.011912137269973755,
                -0.062099676579236987,
                0.08043638616800308,
                -0.06278831511735916,
                -0.018485931679606439,
                0.05731426551938057,
                -0.08007901906967163,
                -0.16014757752418519,
                -0.0967644527554512,
                -0.06561906635761261,
                0.06029505655169487,
                -0.12517394125461579,
                -0.08991881459951401,
                -0.009861467406153679,
                0.16294348239898683,
                0.2323463261127472,
                0.11863556504249573,
                0.19005081057548524,
                0.017078356817364694,
                -0.21392345428466798,
                0.14814400672912599,
                -0.01929541490972042,
                0.1740867644548416,
                0.11463481187820435,
                -0.2057524025440216,
                0.13881604373455048,
                -0.005682721268385649,
                0.3297010064125061,
                0.2344137281179428,
                0.3979329466819763,
                0.0037353062070906164,
                -0.10252469778060913,
                -0.06326663494110108,
                -0.11287586390972138,
                -0.036799442023038867,
                -0.018994847312569619,
                -0.12689386308193208,
                -0.02485513873398304,
                0.14409291744232179,
                0.10609922558069229,
                0.0632842555642128,
                0.013951200060546399,
                0.028882810845971109,
                -0.01891680806875229,
                0.03252612054347992,
                0.1359381079673767,
                -0.026607336476445199,
                -0.021957742050290109,
                -0.1402113437652588,
                -0.3788563907146454,
                -0.08800008147954941,
                -0.00226232991553843,
                -0.10056409239768982,
                -0.05466083064675331,
                -0.10204140096902847,
                -0.1933586448431015,
                -0.01643918640911579,
                0.1560106873512268,
                0.038828298449516299,
                -0.009781144559383393,
                0.06805013865232468,
                -0.40802422165870669,
                0.07889430969953537,
                -0.036454442888498309,
                0.07431665062904358,
                0.07404230535030365,
                -0.0676422119140625,
                -0.18337427079677583,
                0.12418344616889954,
                -0.06047537550330162,
                0.22666239738464356,
                -0.04605432599782944,
                -0.082491435110569,
                0.004798466339707375,
                -0.10361801832914353,
                0.13651318848133088,
                0.05438755825161934,
                0.148958221077919,
                -0.06995191425085068,
                -0.023556962609291078,
                0.04591064155101776,
                0.07238845527172089,
                -0.07700616121292114,
                -0.09198445081710816,
                0.07992784678936005,
                0.14434853196144105,
                0.07157550007104874,
                0.06847155094146729,
                0.2498629093170166,
                0.0416564904153347,
                0.1670365333557129,
                -0.07083122432231903,
                0.042231131345033649,
                -0.19832774996757508,
                0.1078929528594017,
                0.03457717224955559,
                0.19966702163219453,
                -0.375224232673645,
                0.01917313039302826,
                -0.1555914580821991,
                0.017753522843122484,
                0.1769014596939087,
                0.11988688260316849,
                -0.3213551640510559,
                0.1699141412973404,
                -0.044765446335077289,
                0.15590128302574159,
                0.28678935766220095,
                0.22687847912311555,
                -0.44088199734687807,
                0.07524731755256653,
                -0.2219611406326294,
                0.061323825269937518,
                0.10511282831430435,
                0.1362302154302597,
                -0.13136351108551026,
                0.24702736735343934,
                -0.050222091376781467,
                0.04709341749548912,
                0.055293142795562747,
                0.20264668762683869,
                -0.00428591575473547,
                0.046386826783418658,
                -0.09606170654296875,
                -0.14781107008457185,
                -0.0649888888001442,
                -0.035151802003383639,
                0.022284165024757386,
                0.08442853391170502,
                0.004234774503856897,
                0.08970038592815399,
                0.00513087073341012,
                -0.08289195597171784,
                -0.12272773683071137,
                0.239593505859375,
                0.06188216805458069,
                -0.11697068065404892,
                -0.2017643004655838,
                -0.07869227975606919,
                -0.019021103158593179,
                0.1208675280213356,
                0.09042272716760636,
                -0.13978031277656556,
                -0.13221770524978639,
                -0.08766389638185501,
                0.11427991837263107,
                0.08276007324457169,
                0.2258034199476242,
                -0.0034513690043240787,
                -0.09467580914497376,
                -0.18897606432437898,
                -0.018310122191905977,
                0.12951098382472993,
                0.1964690089225769,
                0.005012779962271452,
                -0.19717851281166078,
                -0.04944929480552673,
                0.0003931420505978167,
                0.043488793075084689,
                -0.030947236344218255,
                0.1334172636270523,
                -0.11687061935663223,
                -0.11919350177049637,
                -0.0992736965417862,
                0.1050979495048523,
                -0.09587304294109345,
                -0.10862281918525696,
                0.07451476156711579,
                0.0677831619977951,
                0.06343550235033035,
                0.04703805223107338,
                -0.027246568351984025,
                0.03381076827645302,
                -0.009422263130545617,
                0.07697765529155731,
                0.05297539755702019,
                0.048881396651268008,
                -0.045601602643728259,
                -0.06639976054430008,
                -0.02905040793120861,
                -0.05523766577243805,
                0.07186217606067658,
                0.045385465025901797,
                -0.13267405331134797,
                -0.029364878311753274,
                -0.030892737209796907,
                0.037077948451042178,
                0.1967587023973465,
                0.0657799169421196,
                -0.18104371428489686,
                -0.0073197027668356899,
                -0.18631620705127717,
                0.03042878769338131,
                0.20517447590827943,
                0.10452605783939362,
                -0.22343580424785615,
                -0.1094309538602829,
                0.05618155747652054,
                -0.04344450309872627,
                0.06925132870674133,
                -0.04304881766438484,
                -0.10624238848686218,
                -0.07493644952774048,
                -0.04513011500239372,
                -0.03041331097483635,
                0.12478024512529373,
                0.04349594935774803,
                -0.08410041779279709,
                0.027825910598039628,
                0.12944072484970094,
                -0.0133928582072258,
                0.12144528329372406,
                -0.02956378646194935,
                -0.0913037359714508,
                -0.17773906886577607,
                0.05774233490228653,
                -0.061562709510326388,
                0.043316081166267398,
                -0.15025301277637483,
                -0.04983293265104294,
                -0.14108453691005708,
                0.11789477616548538,
                -0.03556511551141739,
                -0.11027191579341889,
                -0.26653504371643069,
                -0.2046203911304474,
                0.0005295738228596747,
                0.18667839467525483,
                -0.11328593641519547,
                -0.02909494936466217,
                -0.11429747939109802,
                -0.24680215120315553,
                -0.0950310006737709,
                -0.02514631114900112,
                0.023342015221714975,
                0.17791247367858888,
                -0.016463464125990869,
                -0.01889168843626976,
                0.0034987700637429954,
                0.06314171850681305,
                0.017310092225670816,
                0.22385841608047486,
                -0.003952486906200647,
                0.08887676149606705,
                -0.020372804254293443,
                0.09738712012767792,
                -0.0375952385365963,
                -0.041178032755851749,
                0.06267599016427994,
                0.08282060921192169,
                -0.03257390484213829,
                0.0023360103368759157,
                -0.031244996935129167,
                0.0896313488483429,
                -0.11343751102685929,
                0.065402090549469,
                -0.10230984538793564,
                -0.1060759499669075,
                -0.06110350415110588,
                -0.03619632124900818,
                0.0013401869218796492,
                -0.010693044401705265,
                0.1611788421869278,
                -0.18284566700458527,
                -0.08732796460390091,
                -0.14717189967632295,
                0.2007780522108078,
                0.07593976706266403,
                0.15994146466255189,
                0.024859748780727388,
                0.027702929452061654,
                -0.01494470052421093,
                0.24733813107013703,
                0.22781984508037568,
                0.18552835285663606,
                -0.06342833489179611,
                0.22520172595977784,
                -0.07290969789028168,
                0.003370649181306362,
                0.22059336304664613,
                0.055139072239398959,
                0.04821648448705673,
                0.05708081275224686,
                -0.07661975175142288,
                0.042765434831380847,
                0.17016585171222688,
                0.05858148634433746,
                0.05233592167496681,
                -0.058771539479494098,
                -0.14351888000965119,
                -0.17089888453483582,
                -0.07269119471311569,
                0.015097381547093392,
                -0.12046348303556442,
                0.007310430519282818,
                -0.06988785415887833,
                0.17472656071186067,
                -0.14734962582588197,
                -0.0575765036046505,
                -0.0145881287753582,
                -0.11821502447128296,
                -0.085301972925663,
                0.19932591915130616,
                0.020870158448815347,
                0.09252622723579407,
                0.04737212881445885,
                -0.06039498373866081,
                0.14519590139389039,
                -0.06210871785879135,
                -0.3002949059009552,
                0.04408380016684532,
                0.055203214287757876,
                -0.19858402013778687,
                -0.09983724355697632,
                0.05912165343761444,
                -0.010038803331553936,
                0.06837493181228638,
                0.12230586260557175,
                -0.0634017139673233,
                -0.022761212661862375,
                0.059931036084890369,
                0.1225099042057991,
                0.0038687672931700947,
                -0.16287459433078767,
                -0.08739280700683594,
                0.09726385027170181,
                -0.04900963604450226,
                -0.09228625148534775,
                0.18048706650733949,
                0.019202018156647683,
                -0.1108367070555687,
                -0.0029206648468971254,
                0.08465816080570221,
                0.06503503024578095,
                -0.02021661400794983,
                0.06809990108013153,
                -0.007578112185001373,
                -0.04415932670235634,
                -0.013501904904842377,
                0.17781740427017213,
                0.010929973796010018,
                -0.08343011140823364,
                0.10556355863809586,
                -0.05861276760697365,
                -0.0762047991156578,
                -0.05421004071831703,
                0.03266030550003052,
                -0.05063685402274132,
                0.16372740268707276,
                0.015858879312872888,
                -0.18376527726650239,
                -0.10655425488948822,
                -0.008348538540303707,
                -0.066070556640625,
                0.0922786220908165,
                -0.21512353420257569,
                -0.0868653655052185,
                -0.19093537330627442,
                -0.32930636405944826,
                0.012795808725059033,
                0.23758865892887116,
                0.06758992373943329,
                -0.22718310356140138,
                -0.05665719509124756,
                -0.2115687131881714,
                0.019189585000276567,
                0.12785360217094422,
                0.018124999478459359,
                -0.015187930315732956,
                -0.1931777149438858,
                -0.05236652493476868,
                0.10853805392980576,
                0.04856792837381363,
                -0.11135198175907135,
                0.04548078775405884,
                -0.07835204154253006,
                0.20498442649841309,
                -0.004624138120561838,
                0.24521657824516297,
                0.04567063972353935,
                -0.08077787607908249,
                0.03866645321249962,
                0.04599655047059059,
                -0.010127770714461804,
                -0.03359390050172806,
                0.16236355900764466,
                0.014609616249799729,
                0.10811520367860794,
                -0.18826137483119965,
                0.26006272435188296,
                -0.1687653660774231,
                0.059912990778684619,
                0.05378377437591553,
                -0.02615920640528202,
                -0.07103542983531952,
                0.08140958100557327,
                -0.0005762450746260583,
                0.0735582709312439,
                0.12474695593118668,
                -0.10462109744548798,
                0.07508783787488938,
                -0.24340231716632844,
                0.08134662359952927,
                0.06839238107204437,
                0.05654284730553627,
                -0.02166128158569336,
                0.08670581132173538,
                -0.046660471707582477,
                0.01902822032570839,
                0.00863661989569664,
                -0.19247187674045564,
                0.09341030567884445,
                -0.34530434012413027,
                0.0010880868649110199,
                -0.19329126179218293,
                -0.003192298114299774,
                -0.0073139965534210209,
                -0.10413457453250885,
                0.030439343303442,
                -0.03787274286150932,
                -0.004617579281330109,
                0.06123243644833565,
                0.11014159023761749,
                0.21188843250274659,
                0.06965938955545426,
                0.1632595658302307,
                0.10784541070461273,
                0.1300920993089676,
                -0.07019840180873871,
                -0.07121750712394715,
                -0.0322837270796299,
                0.00309924827888608,
                -0.051592808216810229,
                0.03483403101563454,
                0.09135918319225311,
                0.00015578536840621382,
                0.037303097546100619,
                -0.23657606542110444,
                0.07242661714553833,
                0.041172511875629428,
                -0.15519969165325166,
                -0.06024288013577461,
                -0.2313104271888733,
                -0.10557986050844193,
                0.04820610210299492,
                0.03984805941581726,
                -0.015593728981912136,
                0.22202438116073609,
                -0.06022101268172264,
                0.1763254702091217,
                -0.03754885494709015,
                0.22416342794895173,
                -0.0034704601857811214,
                0.027913399040699006,
                -0.004281423520296812,
                0.05526416748762131,
                0.0664403885602951,
                -0.20980337262153626,
                0.23691125214099885,
                0.001673075370490551,
                0.12414094805717468,
                -0.05764307454228401,
                -0.07695938646793366,
                -0.20706069469451905,
                0.25325363874435427,
                -0.02832702174782753,
                0.14265578985214234,
                -0.013746884651482106,
                -0.001519585377536714,
                -0.2772674262523651,
                0.08422163128852844,
                0.25290408730506899,
                0.09904003143310547,
                0.08007824420928955,
                -0.048175837844610217,
                -0.46900665760040285,
                -0.17696644365787507,
                0.19721177220344544,
                0.15056438744068147,
                0.2337406426668167,
                -0.21751493215560914,
                -0.3081435263156891,
                0.18124733865261079,
                0.03081546165049076,
                0.20980390906333924,
                -0.04329821467399597,
                0.013451483100652695,
                -0.1613759845495224,
                0.14530132710933686,
                -0.03691083937883377,
                0.23386745154857636,
                -0.03786836937069893,
                -0.042148470878601077,
                0.06582876294851303,
                -0.056215085089206699,
                0.06872698664665222,
                -0.0796901136636734,
                -0.010180550627410412,
                -0.16509132087230683,
                0.06512147933244705,
                0.10252843797206879,
                0.09353660047054291,
                0.05466200411319733,
                0.03713906556367874,
                0.08835351467132569,
                -0.20733141899108888,
                0.08965600281953812,
                0.1534430831670761,
                0.08598501235246659,
                0.13708050549030305,
                -0.02277170494198799,
                -0.07314882427453995,
                0.20612876117229463,
                0.17199835181236268,
                0.006130433641374111,
                0.2504560947418213,
                0.012610217556357384,
                -0.4318684935569763,
                0.2055545598268509,
                -0.12139499187469483,
                0.15253186225891114,
                -0.038548365235328677,
                0.03862869739532471,
                -0.5809617042541504,
                0.13108046352863313,
                0.01149612758308649,
                0.2674349546432495,
                -0.013707145117223263,
                0.1705806851387024,
                -0.2939645051956177,
                0.08444849401712418,
                0.14813822507858277,
                0.04888435825705528,
                0.24057167768478394,
                -0.015504593029618264,
                -0.14775319397449494,
                0.13726522028446198,
                0.29389500617980959,
                0.0385582260787487,
                0.2625482678413391,
                0.012492413632571698
            ],
            "WeightsRows": 20,
            "WeightsCols": 84,
            "Biases": [
                0.1811809092760086,
                0.4490363895893097,
                -0.5099485516548157,
                -0.1231679767370224,
                0.69953852891922,
                -0.34345000982284548,
                0.63240647315979,
                -0.7305046319961548,
                0.045168761163949969,
                -0.24589525163173676,
                -0.5232500433921814,
                0.8883445858955383,
                -0.8004144430160523,
                -0.43287208676338198,
                -0.5597525238990784,
                0.49896055459976199,
                -0.35922351479530337,
                0.593322217464447,
                0.5383691191673279,
                -1.444673776626587
            ]
        },
        {
            "Weights": [
                0.33921125531196597,
                0.06275960803031922,
                -0.6866267323493958,
                0.616889238357544,
                -0.10110931843519211,
                -0.07868819683790207,
                0.46663013100624087,
                -0.44652366638183596,
                0.25960615277290347,
                0.07375409454107285,
                -0.6709421873092651,
                0.5387067794799805,
                -0.6214041113853455,
                -0.4526934027671814,
                0.18464405834674836,
                0.4142463803291321,
                -0.3703981339931488,
                0.34695830941200259,
                0.14604519307613374,
                -0.353119820356369,
                0.15427154302597047,
                -0.2113933265209198,
                -0.3629264533519745,
                0.19600985944271089,
                -0.004375554155558348,
                0.05733764171600342,
                -0.3272440731525421,
                -0.013081911019980908,
                0.2465403527021408,
                0.5327222347259522,
                0.10125789791345597,
                0.10508464276790619,
                -0.016216017305850984,
                -0.05359216034412384,
                -0.38948237895965578,
                0.41538000106811526,
                0.0405954048037529,
                0.12934423983097077,
                0.13069269061088563,
                -0.3562980592250824,
                -0.013180835172533989,
                0.7286218404769898,
                0.16540749371051789,
                0.6352150440216065,
                -0.3829876184463501,
                0.15056857466697694,
                -0.3138366937637329,
                0.2463332563638687,
                -0.116258405148983,
                0.10258182138204575,
                0.22543705999851228,
                0.03042960911989212,
                -0.019324541091918947,
                0.09226138889789581,
                0.3244304955005646,
                -0.20350244641304017,
                0.2794419229030609,
                -0.44086870551109316,
                0.20734547078609467,
                0.2699962258338928,
                0.16662290692329408,
                -0.11248032748699188,
                -0.015002794563770295,
                -0.092759869992733,
                -0.03635796904563904,
                0.5277100205421448,
                -0.2547159492969513,
                0.7415317893028259,
                -0.5375089645385742,
                0.5026096701622009,
                0.2011456936597824,
                -0.06462089717388153,
                0.2212483286857605,
                0.06318245083093643,
                0.43561097979545596,
                -0.40900689363479617,
                0.11033027619123459,
                0.07796431332826615,
                -0.11780185997486115,
                0.328444242477417,
                -0.19886581599712373,
                0.4601217210292816,
                0.0810295045375824,
                -0.25425904989242556,
                -0.04160643368959427,
                -0.23174256086349488,
                0.10320140421390534,
                -0.09113689512014389,
                0.19489124417304994,
                0.062430620193481448,
                -0.293030321598053,
                -0.02167670987546444,
                0.06250877678394318,
                0.33061420917510989,
                -0.56890869140625,
                0.06764528900384903,
                -0.3690990209579468,
                0.07768542319536209,
                0.23800544440746308,
                -0.5224426984786987,
                -0.055327050387859347,
                -0.6760551929473877,
                0.0794258639216423,
                0.1629842221736908,
                -0.3047460615634918,
                -0.023038743063807489,
                0.14177779853343965,
                0.3349263668060303,
                -0.12026426196098328,
                0.13810434937477113,
                -0.1946970820426941,
                -0.3168172538280487,
                0.028163809329271318,
                0.3042832314968109,
                0.23914414644241334,
                0.1327720731496811,
                0.23978181183338166,
                -0.06093712896108627,
                -0.11651010811328888,
                1.2369564771652222,
                0.27897071838378909,
                -0.14812391996383668,
                -0.3212263286113739,
                0.1476411670446396,
                0.1847601979970932,
                -0.26583948731422427,
                -0.08110982179641724,
                0.1799262911081314,
                -0.07777375727891922,
                -0.25192609429359438,
                0.005331601947546005,
                -0.17565634846687318,
                -0.09336938709020615,
                0.10130804032087326,
                -0.1293521672487259,
                0.301097571849823,
                -0.06446278095245362,
                -0.23803754150867463,
                0.1507720649242401,
                -0.27827712893486025,
                -0.10275338590145111,
                -0.29868558049201968,
                -0.029031159356236459,
                0.23754598200321198,
                -0.4201931059360504,
                0.028663991019129754,
                -0.025445565581321718,
                -0.19520606100559236,
                -0.5491394400596619,
                -0.1347627192735672,
                0.05969831719994545,
                -0.1751852184534073,
                -0.009543082676827908,
                0.00517005380243063,
                0.3288913369178772,
                -0.380484014749527,
                0.5089970827102661,
                -0.027308829128742219,
                -0.12982679903507234,
                0.07470060139894486,
                0.10742645710706711,
                0.26400044560432436,
                -0.12366679310798645,
                -0.2764245569705963,
                0.4885294735431671,
                -0.06174346059560776,
                0.05597424879670143,
                -0.8451542854309082,
                0.519926905632019,
                -0.39141857624053957,
                -0.2692223787307739,
                0.6729946136474609,
                0.1392621397972107,
                -0.4284517467021942,
                -0.5414071679115295,
                0.2896411418914795,
                -0.05943521857261658,
                0.4165855646133423,
                0.5979738235473633,
                -1.1019023656845093,
                0.200384259223938,
                -0.04079417511820793,
                0.04552179574966431,
                0.13584117591381074,
                -0.049990925937891009,
                0.039848439395427707,
                -0.3761509358882904,
                0.04080144688487053,
                0.7396900653839111,
                -0.1842668056488037,
                0.00962583627551794,
                -0.4341534376144409,
                0.23750731348991395,
                0.3145483136177063,
                0.17890794575214387,
                0.1235160231590271,
                -0.25444281101226809,
                -0.33953842520713808,
                -0.2591579854488373,
                0.2919955849647522,
                0.1495441049337387,
                0.329911470413208,
                -0.11024009436368942,
                -0.08755455166101456,
                0.09880427271127701,
                0.2189607471227646,
                0.015349509194493294,
                0.07746420800685883,
                0.023274332284927369,
                -0.06922215968370438,
                -0.03834026679396629,
                0.13068155944347382,
                -0.1569676548242569,
                -0.3364991843700409,
                0.13253584504127503,
                0.19703438878059388,
                -0.30486732721328738,
                0.36908653378486636,
                0.20108236372470857,
                -0.2622124254703522,
                -0.16936549544334413,
                0.020330818369984628,
                -0.06279300898313523,
                -0.12823797762393952,
                -0.007839422672986985,
                -0.02178720198571682,
                0.10275756567716599,
                -0.1356155276298523,
                0.024907469749450685,
                -0.09120668470859528,
                0.3277169466018677,
                0.01544378511607647,
                0.0327831394970417,
                -0.07932405918836594,
                -0.07498836517333985,
                -0.12485748529434204,
                0.303067684173584,
                -0.31298723816871645,
                0.012715046294033528,
                -0.14224159717559815,
                0.03421091288328171,
                -0.019817886874079706,
                -0.06193530187010765,
                -0.11199017614126206,
                -0.0026528737507760526,
                -0.17176444828510285,
                0.24928566813468934,
                -0.34612172842025759,
                -0.14598697423934937,
                -0.22569935023784638,
                0.031739626079797748,
                -0.09545472264289856,
                -0.05232061818242073,
                -0.021325528621673585,
                -0.10830390453338623,
                -0.09389917552471161,
                0.015222529880702496,
                0.20550398528575898,
                -0.1483606994152069,
                -0.13770097494125367,
                0.21723851561546327,
                -0.059638530015945438,
                0.40179064869880679,
                -0.018268626183271409,
                -0.1975976526737213,
                0.37124890089035036,
                0.03850100189447403,
                -0.06667906045913696,
                0.13365992903709413,
                -0.0035499650985002519,
                0.21653957664966584,
                0.10982020199298859,
                0.21696671843528748,
                -0.10824593901634217,
                0.44702011346817019,
                -0.02864154800772667,
                0.10395566374063492,
                -0.06388041377067566,
                -0.28132832050323489,
                0.2799312472343445,
                -0.2724265158176422,
                -0.02319812774658203,
                0.11863182485103607,
                -0.025684935972094537,
                -0.11790020763874054,
                0.19466133415699006,
                -0.27336007356643679,
                0.1290230005979538,
                0.3337618410587311,
                0.17042438685894013,
                -0.048843640834093097,
                -0.442687064409256,
                0.204336017370224,
                -0.2581646740436554,
                0.23760582506656648,
                -0.23034529387950898,
                -0.12655706703662873,
                -0.3546147048473358,
                -0.12725311517715455,
                0.3907652795314789,
                0.1280091404914856,
                -0.04936744272708893,
                0.04916524142026901,
                -0.017539596185088159,
                -0.25507113337516787,
                0.29044002294540408,
                0.03047514520585537,
                0.4038551151752472,
                0.03489343076944351,
                0.17124071717262269,
                0.3266981542110443,
                -0.3214114308357239,
                -0.10518695414066315,
                0.21900708973407746,
                0.42631277441978457,
                -0.21615813672542573,
                -0.10372170060873032,
                0.04413216933608055,
                -0.37949851155281069,
                0.44073817133903506,
                0.18437492847442628,
                0.1854894459247589,
                -0.05658157542347908,
                -0.008697175420820713,
                -0.0344746895134449,
                0.007859207689762116,
                0.12535618245601655,
                -0.03771502152085304,
                0.041268687695264819,
                -0.025754280388355256,
                -0.17521359026432038,
                0.30026137828826907,
                -0.0698051005601883,
                0.29380109906196597,
                -0.16563831269741059,
                -0.1571422964334488,
                0.23106405138969422,
                -0.0783558189868927,
                -0.15960334241390229,
                -0.12691813707351685,
                -0.3411638140678406,
                -0.11618321388959885,
                -0.1349029541015625,
                -0.4819627106189728,
                -0.2643875479698181,
                -0.2650197744369507,
                -0.019217509776353837,
                0.5864598751068115,
                0.2910574972629547,
                0.17084045708179475,
                -0.14976614713668824,
                -0.42585456371307375,
                0.13796700537204743,
                -0.048980310559272769,
                -0.09564925730228424,
                0.20338508486747743,
                -0.08511590212583542,
                0.04800372198224068,
                -0.19608895480632783,
                0.7877941727638245,
                -0.05695788189768791,
                0.31621164083480837,
                -0.20595842599868775,
                -0.3094123899936676,
                0.34698936343193056,
                -0.24338889122009278,
                0.02983531914651394,
                0.15387435257434846,
                -0.0004875872691627592,
                0.03750988468527794,
                -0.13036887347698213,
                0.2951836585998535,
                -0.11633290350437164,
                -0.14152629673480988,
                -0.044083122164011,
                0.01647588424384594,
                -0.08140581846237183,
                0.10400514304637909,
                0.24583791196346284,
                -0.395469605922699,
                -0.06699686497449875,
                0.1986265629529953,
                0.02248719148337841,
                -0.15807944536209107,
                0.011625037528574467,
                -0.12202850729227066,
                0.13804271817207337,
                0.1549273133277893,
                0.04361662641167641,
                0.0649520680308342,
                0.06259521842002869,
                0.01995841972529888,
                0.09140348434448242,
                -0.23464494943618775,
                0.08476168662309647,
                0.1141606941819191,
                -0.013614260591566563,
                0.04891110584139824,
                0.263724684715271,
                0.24468572437763215
            ],
            "WeightsRows": 20,
            "WeightsCols": 20,
            "Biases": [
                0.7169250845909119,
                0.11787928640842438,
                -0.3745502233505249,
                -0.06272449344396591,
                0.14832459390163423,
                -0.2809094786643982,
                0.08779089152812958,
                -0.1683216542005539,
                0.6507348418235779,
                -0.22959356009960175,
                0.2629828453063965,
                -0.025517715141177179,
                0.10384802520275116,
                -0.08064350485801697,
                -0.2678098976612091,
                -0.12969224154949189,
                -0.05167446285486221,
                -0.3676227629184723,
                0.1881679892539978,
                0.005498100537806749
            ]
        },
        {
            "Weights": [
                -1.0956964492797852,
                -0.46171462535858157,
                -0.8156556487083435,
                0.6045064926147461,
                0.3395799398422241,
                -1.072613000869751,
                -0.10777868330478668,
                0.02128726802766323,
                1.6057004928588868,
                0.7953507304191589,
                0.6662582755088806,
                -0.19138893485069276,
                -0.20972591638565064,
                0.5739434361457825,
                0.7208139896392822,
                -0.6334794163703919,
                -0.08789517730474472,
                0.4502424895763397,
                0.48642754554748537,
                0.05280403792858124,
                -0.4657785892486572,
                -0.0043291933834552769,
                1.3343228101730347,
                -0.7022499442100525,
                0.5847894549369812,
                0.8186919093132019,
                0.3617537021636963,
                -0.509117841720581,
                -1.9964747428894044,
                -0.6453536152839661,
                -0.411008358001709,
                0.10969094187021256,
                0.2702663242816925,
                -0.6690183281898499,
                -0.5472854375839233,
                0.4122920334339142,
                -0.049403343349695209,
                0.3559552729129791,
                0.012041540816426278,
                -0.014332191087305546,
                1.3452503681182862,
                0.571091890335083,
                -0.7331950068473816,
                0.36986058950424197,
                -0.8014456629753113,
                0.5084591507911682,
                0.04293382167816162,
                0.7866896986961365,
                0.48710477352142336,
                -0.11731335520744324,
                -0.41475632786750796,
                0.47537001967430117,
                -0.015940213575959207,
                0.2602231502532959,
                -0.3903871178627014,
                0.27579402923583987,
                0.22518028318881989,
                -0.6340078115463257,
                -0.5618640184402466,
                -0.19555644690990449
            ],
            "WeightsRows": 3,
            "WeightsCols": 20,
            "Biases": [
                -0.2799670994281769,
                0.5182629823684692,
                -0.23823681473731996
            ]
        }
    ]
}