{
    "Layers": [
        {
            "Weights": [
                0.13369621336460114,
                -0.16231369972229005,
                0.07100555300712586,
                -0.04349876940250397,
                0.048854757100343707,
                -0.03578053042292595,
                0.15857554972171784,
                0.08058037608861923,
                0.00871105957776308,
                0.3003285825252533,
                0.04403378814458847,
                0.003574738511815667,
                -0.047850351780653,
                0.0895589217543602,
                0.19157849252223969,
                0.30885812640190127,
                0.02999825030565262,
                -0.08345994353294373,
                -0.3475889265537262,
                0.1100832149386406,
                -0.04095391556620598,
                -0.13081490993499757,
                -0.29125747084617617,
                -0.5238504409790039,
                -0.08835247159004212,
                0.09269824624061585,
                -0.02596866339445114,
                0.24175937473773957,
                -0.13023334741592408,
                -0.2345050424337387,
                0.22713540494441987,
                -0.22992821037769319,
                -0.034705109894275668,
                -0.04570983350276947,
                0.007454274222254753,
                -0.0947137326002121,
                -0.04130776226520538,
                0.12115489691495896,
                0.02113216370344162,
                -0.011838911101222039,
                0.05802951380610466,
                0.021866485476493837,
                0.07351812720298767,
                0.01411062479019165,
                0.0032836049795150759,
                0.04442950710654259,
                -0.008602917194366455,
                -0.05481593310832977,
                -0.07579538971185684,
                0.04590984806418419,
                -0.13372796773910523,
                -0.03158438578248024,
                -0.025165362283587457,
                0.03702584654092789,
                -0.07411234825849533,
                -0.08456884324550629,
                0.05301804095506668,
                -0.12870542705059052,
                0.003977175336331129,
                0.008074111305177212,
                -0.12483496218919754,
                -0.06986592710018158,
                -0.07626618444919586,
                0.14224958419799806,
                0.1720837503671646,
                0.16401474177837373,
                -0.04291931912302971,
                -0.3678877055644989,
                -0.6060081124305725,
                -0.18334774672985078,
                0.12522977590560914,
                0.21993248164653779,
                -0.22181595861911775,
                -0.03255549445748329,
                -0.0045325420796871189,
                -0.11500781774520874,
                0.15579313039779664,
                0.18743373453617097,
                -0.3703019320964813,
                0.057329338043928149,
                0.048630040138959888,
                0.05230429396033287,
                -0.1854221522808075,
                0.053807906806468967,
                0.0014297597808763385,
                0.08583463728427887,
                -0.04716115817427635,
                0.007351597771048546,
                0.054191820323467258,
                -0.0036116645205765964,
                -0.05232579633593559,
                -0.02075307071208954,
                0.02961183339357376,
                -0.2263915091753006,
                -0.04503912106156349,
                -0.14365215599536897,
                0.2181023210287094,
                -0.11223568022251129,
                0.19709305465221406,
                0.19986143708229066,
                0.015697140246629716,
                -0.0036652127746492626,
                0.18240070343017579,
                0.24632596969604493,
                0.0212214607745409,
                -0.02250499092042446,
                -0.2469441294670105,
                -0.24483449757099152,
                0.25544479489326479,
                0.16928569972515107,
                0.0661081001162529,
                0.08907419443130493,
                0.17271257936954499,
                -0.18881836533546449,
                0.046343255788087848,
                -0.28803250193595889,
                0.06306102871894837,
                -0.26695963740348818,
                -0.09062182903289795,
                -0.17219068109989167,
                -0.14536094665527345,
                -0.04795752838253975,
                -0.1859922558069229,
                0.05587304010987282,
                -0.019569220021367074,
                -0.036586739122867587,
                -0.07379339635372162,
                -0.05003295838832855,
                -0.09764492511749268,
                -0.06962081789970398,
                0.004752017557621002,
                0.06876931339502335,
                -0.06910675019025803,
                -0.05565870180726051,
                -0.06975056976079941,
                -0.09931529313325882,
                0.028498530387878419,
                -0.04622228071093559,
                -0.09836682677268982,
                -0.02440212294459343,
                0.025419868528842927,
                0.12515531480312348,
                -0.07653886079788208,
                -0.028599431738257409,
                -0.030834898352622987,
                -0.1646425873041153,
                -0.013581902720034123,
                -0.02745269425213337,
                0.038042180240154269,
                0.07160656899213791,
                0.03957062587141991,
                -0.3493179976940155,
                0.2110118418931961,
                -0.18419092893600465,
                0.16743814945220948,
                -0.027582477778196336,
                0.014814047142863274,
                -0.25596243143081667,
                0.011146930046379567,
                0.06903702765703201,
                -0.04503123089671135,
                0.21555760502815247,
                -0.29506370425224306,
                -0.016115741804242135,
                -0.051867615431547168,
                0.06834392994642258,
                -0.02078925259411335,
                0.06089838594198227,
                0.036446746438741687,
                -0.022265654057264329,
                0.11317645758390427,
                -0.08933282643556595,
                0.09562506526708603,
                0.1381799578666687,
                0.18979547917842866,
                -0.07585218548774719,
                -0.09246906638145447,
                0.015484336763620377,
                -0.06800898909568787,
                0.003382311901077628,
                0.3289985954761505,
                -0.09692759066820145,
                -0.0707324743270874,
                -0.24887040257453919,
                -0.16585899889469148,
                0.03179924562573433,
                0.3313862085342407,
                -0.10224366933107376,
                0.021725833415985109,
                0.1246318444609642,
                0.07489828765392304,
                0.06524591147899628,
                0.32266679406166079,
                -0.2038595974445343,
                0.04178449138998985,
                -0.43423184752464297,
                -0.12003280222415924,
                0.011752980761229992,
                0.12256020307540894,
                -0.08148079365491867,
                -0.0884685143828392,
                -0.01137580256909132,
                0.10149162262678147,
                0.04369663447141647,
                -0.014405996538698674,
                0.003610801650211215,
                0.03983035683631897,
                0.21417571604251862,
                -0.1806882917881012,
                0.14074817299842835,
                0.051860079169273379,
                -0.05438755452632904,
                -0.10467380285263062,
                -0.06172644719481468,
                0.07416737079620362,
                -0.10760326683521271,
                -0.14467567205429078,
                0.0641409233212471,
                0.17761686444282533,
                0.0241774320602417,
                -0.21330714225769044,
                -0.04338667541742325,
                -0.09406624734401703,
                -0.004168395884335041,
                0.3395293056964874,
                0.09288513660430908,
                0.1718102991580963,
                0.018807653337717058,
                -0.02010989747941494,
                -0.07600025087594986,
                0.19871020317077638,
                0.2955453395843506,
                0.08267738670110703,
                -0.002346575725823641,
                -0.3170042932033539,
                -0.08312319219112396,
                -0.04720455780625343,
                -0.0863105058670044,
                0.1184120699763298,
                0.19565168023109437,
                -0.1410101056098938,
                -0.3899986147880554,
                -0.06352145224809647,
                0.06775542348623276,
                0.07918313890695572,
                -0.013887251727283001,
                0.08297735452651978,
                -0.22369921207427979,
                0.1477442979812622,
                -0.07633844017982483,
                -0.10075005888938904,
                -0.04937312752008438,
                -0.045134395360946658,
                -0.06480494141578675,
                -0.09565121680498123,
                -0.1250520497560501,
                -0.14501580595970155,
                -0.12760061025619508,
                -0.05740692466497421,
                -0.17376519739627839,
                -0.10717746615409851,
                -0.2492811232805252,
                0.011626077815890313,
                -0.13547921180725099,
                0.04960076883435249,
                -0.046825289726257327,
                -0.05874151363968849,
                0.07244873046875,
                0.11071537435054779,
                0.016990473493933679,
                -0.34593120217323305,
                -0.029683541506528856,
                -0.004105663392692804,
                0.1749674677848816,
                -0.6187769770622253,
                0.042161375284194949,
                -0.05699482560157776,
                0.0552409328520298,
                -0.13263501226902009,
                0.15114189684391023,
                -0.05200935900211334,
                0.0479520782828331,
                -0.08721419423818588,
                -0.22678115963935853,
                -0.11502723395824433,
                -0.20560099184513093,
                -0.006560837384313345,
                -0.07859068363904953,
                -0.06863288581371308,
                -0.032350022345781329,
                0.1404375284910202,
                -0.22874677181243897,
                0.02092437632381916,
                -0.20672497153282166,
                0.06868889927864075,
                -0.05004151165485382,
                0.05862189829349518,
                0.036694806069135669,
                -0.05634951591491699,
                0.08478793501853943,
                0.08681898564100266,
                0.054957933723926547,
                0.07059764862060547,
                0.06645021587610245,
                0.0006966915680095553,
                0.15232591331005097,
                -0.04475903511047363,
                0.060426246374845508,
                -0.23991379141807557,
                0.0190218947827816,
                -0.1591668576002121,
                -0.026043349876999856,
                0.1104259341955185,
                0.4219120740890503,
                0.019065186381340028,
                0.0017287866212427617,
                -0.10660559684038162,
                -0.0971437618136406,
                -0.3446281850337982,
                -0.07784011214971543,
                -0.36896371841430666,
                -0.07233251631259918,
                0.2664736211299896,
                -0.13977333903312684,
                0.13314379751682282,
                0.34230443835258486,
                0.09763212502002716,
                -0.048737991601228717,
                0.017709527164697648,
                0.008049883879721165,
                0.015519363805651665,
                0.13017220795154572,
                -0.2595222592353821,
                0.006520039401948452,
                -0.19089876115322114,
                -0.0629681646823883,
                0.08525727689266205,
                -0.16874195635318757,
                0.07931628823280335,
                -0.004338039550930262,
                -0.050528254359960559,
                0.057355936616659167,
                0.019590087234973909,
                -0.23083409667015077,
                0.05326590687036514,
                0.2579461634159088,
                0.19031569361686707,
                -0.002577675273641944,
                -0.033475734293460849,
                -0.5402849912643433,
                0.16825322806835175,
                0.08249788731336594,
                0.05531836673617363,
                0.07628236711025238,
                -0.09839241951704025,
                -0.8735718131065369,
                0.06828857958316803,
                -0.008558167144656182,
                -0.014361242763698101,
                0.16312120854854585,
                0.023112496361136438,
                -0.5943281650543213,
                -0.007371455896645784,
                0.05093533918261528,
                0.08114513754844666,
                0.05159277096390724,
                0.1100471094250679,
                -0.4473055899143219,
                0.19307303428649903,
                0.2622978091239929,
                0.12448323518037796,
                0.12778550386428834,
                0.12431616336107254,
                -0.10217565298080445,
                0.05484006926417351,
                -0.10180054605007172,
                -0.01696353405714035,
                0.02072637714445591,
                -0.06529577076435089,
                0.09055781364440918,
                0.05730735510587692,
                0.04873824119567871,
                0.0966692864894867,
                0.014023736119270325,
                0.18853510916233064,
                0.10531105846166611,
                -0.044268593192100528,
                -0.062232352793216708,
                -0.00983781460672617,
                -0.01142528373748064,
                0.11335685849189758,
                0.0058753397315740589,
                0.08887393772602081,
                -0.252140074968338,
                0.07016804814338684,
                -0.03760959953069687,
                0.2301511913537979,
                -0.00597523944452405,
                -0.05448990687727928,
                -0.09568088501691818,
                -0.07333012670278549,
                -0.06977095454931259,
                0.18063583970069886,
                0.10685640573501587,
                0.0010367297800257803,
                -0.25777411460876467,
                -0.1296047568321228,
                -0.18799979984760285,
                0.10568463802337647,
                -0.06396003067493439,
                -0.17003066837787629,
                -0.14627258479595185,
                0.005533250048756599,
                0.03333693742752075,
                -0.047083139419555667,
                0.08679559826850891,
                0.01104021817445755,
                -0.23160742223262788,
                0.0973532572388649,
                0.07701931148767472,
                0.04587121307849884,
                0.17828163504600526,
                0.011254693381488324,
                0.15566766262054444,
                0.14170581102371217,
                0.06136913597583771,
                -0.08453471958637238,
                0.09402669966220856,
                0.12185914814472199,
                -0.02188432589173317,
                0.3090583384037018,
                -0.014100060798227787,
                -0.23419933021068574,
                -0.163626566529274,
                -0.11611049622297287,
                0.12025346606969834,
                0.14639665186405183,
                0.19384127855300904,
                -0.10112204402685166,
                -0.05814030393958092,
                -0.22378131747245789,
                0.10165797173976898,
                -0.0218009352684021,
                0.36740872263908389,
                -0.13638854026794434,
                -0.003981460351496935,
                -0.0197700597345829,
                0.09846808761358261,
                0.09505051374435425,
                0.28381168842315676,
                -0.060334932059049609,
                -0.10208174586296082,
                -0.06225132942199707,
                0.10177848488092423,
                0.15420538187026978,
                0.03459716960787773,
                0.08535652607679367,
                0.07213602215051651,
                0.09191379696130753,
                0.021353214979171754,
                0.17358799278736115,
                0.06930079311132431,
                -0.07382151484489441,
                -0.09367910027503967,
                0.013149134814739228,
                -0.005773209035396576,
                -0.10196176171302796,
                -0.09786425530910492,
                0.02676725946366787,
                0.14599382877349854,
                0.1744888424873352,
                0.12174304574728012,
                0.18228308856487275,
                0.025791440159082414,
                -0.07445250451564789,
                -0.008728815242648125,
                -0.05806571617722511,
                0.28325948119163515,
                -0.06762060523033142,
                0.0861152932047844,
                -0.17098644375801087,
                0.016984138637781144,
                -0.05767176300287247,
                0.03463694080710411,
                0.054296549409627917,
                0.27055779099464419,
                -0.0429651103913784,
                -0.0641116127371788,
                -0.12580832839012147,
                -0.008790889754891396,
                0.3211088478565216,
                -0.016598086804151536,
                -0.09729017317295075,
                -0.109013132750988,
                -0.04032669588923454,
                -0.024301642552018167,
                0.17060838639736176,
                0.13025392591953278,
                -0.04551456496119499,
                -0.05667252838611603,
                0.0002147817431250587,
                0.06425692141056061,
                -0.032243646681308749,
                0.05752645805478096,
                -0.13576345145702363,
                0.24008792638778687,
                0.05974893644452095,
                0.10346521437168122,
                0.03798089921474457,
                -0.001022139796987176,
                -0.12800487875938416,
                -0.07906346768140793,
                -0.1834164410829544,
                0.08714602887630463,
                -0.04025277867913246,
                -0.24159307777881623,
                -0.14276207983493806,
                -0.0462159737944603,
                -0.04302145168185234,
                0.2932199537754059,
                -0.03678650036454201,
                -0.08824367076158524,
                0.24390117824077607,
                0.5017741918563843,
                -0.12012699991464615,
                0.20383743941783906,
                0.05732308700680733,
                -0.05376920849084854,
                -0.08192571252584458,
                0.15577192604541779,
                0.07311408966779709,
                0.005837349221110344,
                0.13737188279628755,
                -0.06291690468788147,
                -0.22852884232997895,
                -0.11286500096321106,
                -0.26550906896591189,
                0.32200732827186587,
                0.031334638595581058,
                -0.06628718227148056,
                -0.0769769623875618,
                -0.23933641612529756,
                -0.2825644612312317,
                -0.11277396976947785,
                -0.06972505152225495,
                -0.284659206867218,
                -0.031616732478141788,
                0.10193508863449097,
                0.09265859425067902,
                0.03674834221601486,
                0.029862280935049058,
                0.0024213865399360658,
                -0.0017507693264633418,
                0.04643180966377258,
                0.007329652085900307,
                -0.07624023407697678,
                -0.08693436533212662,
                0.1480180323123932,
                -0.005606026388704777,
                0.12303861975669861,
                -0.03742624446749687,
                -0.2800736725330353,
                -0.11434713006019592,
                -0.007270084694027901,
                -0.1238359585404396,
                0.17176274955272675,
                -0.009445575065910817,
                -0.026990532875061036,
                0.22413520514965058,
                0.024124151095747949,
                -0.33156928420066836,
                -0.010193177498877049,
                0.3165362477302551,
                -0.04956257343292236,
                -0.0028690178878605367,
                0.08804386854171753,
                -0.08382271230220795,
                0.0643393024802208,
                0.047336868941783908,
                0.060554053634405139,
                -0.10226735472679138,
                0.11568515747785568,
                -0.136124387383461,
                0.07532844692468643,
                0.13915808498859406,
                -0.15867681801319123,
                0.22218312323093415,
                0.12086262553930283,
                0.09946604073047638,
                -0.038863807916641238,
                0.05602161958813667,
                0.08350824564695358,
                -0.03421522304415703,
                -0.018338654190301896,
                -0.005894818343222141,
                -0.0194084569811821,
                0.02351626567542553,
                0.0869523286819458,
                0.038948338478803638,
                -0.07538652420043946,
                0.14834073185920716,
                0.07292629778385163,
                0.3083855211734772,
                0.49720093607902529,
                0.26516324281692507,
                -0.06257893145084381,
                -0.07934308052062988,
                -0.2839338183403015,
                0.3730235695838928,
                0.5844504833221436,
                0.09366016834974289,
                -0.1609542965888977,
                0.10306995362043381,
                0.03884424269199371,
                0.30292823910713198,
                0.48622772097587588,
                0.18910536170005799,
                0.08167853951454163,
                0.0018504881300032139,
                -0.07733338326215744,
                0.051801253110170367,
                -0.016617165878415109,
                0.06104748696088791,
                -0.0339730829000473,
                0.19296219944953919,
                -0.021047446876764299,
                0.03215181455016136,
                0.16986925899982453,
                0.05125920847058296,
                0.029510101303458215,
                0.055633485317230228,
                0.05632854253053665,
                -0.008259668946266175,
                0.061946332454681399,
                0.0803946852684021,
                0.019127994775772096,
                -0.12645138800144196,
                -0.048430368304252627,
                -0.00930691882967949,
                -0.0711355209350586,
                0.02433840185403824,
                -0.017807256430387498,
                0.02904457226395607,
                0.016650104895234109,
                -0.09128596633672714,
                -0.1280568689107895,
                -0.25399497151374819,
                -0.02681778185069561,
                0.23754730820655824,
                0.15496817231178285,
                0.10211659222841263,
                -0.11572583764791489,
                0.10548076778650284,
                0.23950515687465669,
                0.01684718206524849,
                -0.22409766912460328,
                -0.09542002528905869,
                -0.38242822885513308,
                -0.06878549605607987,
                0.1931314915418625,
                0.23593167960643769,
                -0.036289721727371219,
                0.1614694595336914,
                -0.12552636861801148,
                0.01796664483845234,
                0.1398622840642929,
                -0.08798480033874512,
                -0.10144900530576706,
                -0.10811734199523926,
                -0.12892509996891023,
                -0.18638503551483155,
                -0.09054967761039734,
                0.16345903277397157,
                0.12406307458877564,
                0.0665019303560257,
                -0.05645405128598213,
                0.05402763932943344,
                0.05257438123226166,
                0.012873721309006215,
                0.07976944744586945,
                -0.05611748993396759,
                -0.3484015464782715,
                -0.11043061316013336,
                -0.15409456193447114,
                0.13024111092090608,
                0.005565463099628687,
                0.1714993119239807,
                -0.10346383601427078,
                -0.016848141327500345,
                -0.018617480993270875,
                0.0025367694906890394,
                0.11617869883775711,
                0.2873738408088684,
                -0.04603636637330055,
                -0.2544151544570923,
                -0.11409269273281098,
                0.10734911262989044,
                0.057190243154764178,
                0.15833529829978944,
                -0.4423276484012604,
                -0.06434109061956406,
                0.07875026017427445,
                0.07066154479980469,
                0.04434255510568619,
                -0.06952023506164551,
                -0.225851908326149,
                -0.06843751668930054,
                -0.07305972278118134,
                0.11495617032051087,
                -0.12598392367362977,
                0.15513792634010316,
                -0.0600653775036335,
                -0.031746022403240207,
                -0.05629046633839607,
                -0.057459354400634769,
                0.07335062325000763,
                -0.10734216868877411,
                -0.09004154801368714,
                0.07810291647911072,
                0.06093991920351982,
                0.07157638669013977,
                -0.14187446236610413,
                -0.23230710625648499,
                0.10910049080848694,
                0.02079063467681408,
                0.020374463871121408,
                0.06531033664941788,
                -0.16106168925762177,
                -0.5484892129898071,
                -0.012209675274789334,
                -0.00705866189673543,
                -0.00524924648925662,
                0.06323952972888947,
                0.11043494194746018,
                -0.6591306328773499,
                -0.07332024723291397,
                0.05110585689544678,
                0.14741358160972596,
                -0.013581963256001473,
                -0.38565465807914736,
                -1.1657921075820923,
                -0.036759983748197559,
                0.4023550748825073,
                0.27411124110221865,
                0.2508505880832672,
                -0.269783616065979,
                -0.7186053395271301,
                0.03179127350449562,
                0.05442604422569275,
                0.11372341960668564,
                -0.03220042958855629,
                -0.08659277856349945,
                -0.3265894949436188,
                -0.0830286294221878,
                0.11447153240442276,
                0.03413207083940506,
                0.08857978135347367,
                -0.040788792073726657,
                -0.07582873106002808,
                0.1692715436220169,
                0.08526021242141724,
                0.08262769877910614,
                -0.10835068672895432,
                0.17988993227481843,
                -0.12703309953212739,
                -0.12974178791046143,
                -0.04333232343196869,
                0.2061992585659027,
                -0.1995217204093933,
                0.1205969825387001,
                0.02757878042757511,
                0.05577374994754791,
                -0.20322753489017487,
                0.06795068085193634,
                -0.26903966069221499,
                0.10710470378398895,
                -0.12545810639858247,
                0.4554758369922638,
                -0.17736004292964936,
                -0.007459213491529226,
                -0.0074364966712892059,
                -0.08456406742334366,
                0.05173252895474434,
                -0.15406712889671327,
                -0.014224421232938767,
                -0.14171044528484345,
                -0.026373106986284257,
                0.47007253766059878,
                0.2227172553539276,
                0.1579582840204239,
                -0.007327933330088854,
                0.13115668296813966,
                0.01410264428704977,
                -0.014944404363632203,
                -0.05169404670596123,
                0.08281802386045456,
                0.03834953531622887,
                -0.022434193640947343,
                -0.0025864914059638979,
                0.07422228157520294,
                0.02429848536849022,
                -0.029446154832839967,
                0.016843635588884355,
                -0.103009894490242,
                0.07829342782497406,
                0.15429125726222993,
                0.15334226191043855,
                0.054406531155109408,
                0.16116367280483247,
                0.05341484770178795,
                0.07059169560670853,
                -0.15997807681560517,
                0.24250520765781403,
                0.17826330661773683,
                0.34261584281921389,
                0.03652232885360718,
                0.05302492529153824,
                -0.1317722201347351,
                0.03412577137351036,
                -0.12729620933532716,
                0.061845503747463229,
                -0.12132735550403595,
                0.00861896388232708,
                0.04778552055358887,
                0.08168365061283112,
                -0.475310355424881,
                0.30593863129615786,
                0.044706810265779498,
                -0.018733983859419824,
                0.15637201070785523,
                -0.21131548285484315,
                -0.13182833790779115,
                -0.22787536680698396,
                0.04121777042746544,
                0.07578755915164948,
                0.11069636791944504,
                0.11868968605995178,
                0.14018270373344422,
                0.224156454205513,
                0.28813499212265017,
                0.026767591014504434,
                0.06483742594718933,
                0.13250397145748139,
                0.013574479147791863,
                0.21440710127353669,
                0.11105883121490479,
                -0.06267192959785462,
                -0.0638880506157875,
                0.08882174640893936,
                -0.20831795036792756,
                0.1040613204240799,
                0.04796392470598221,
                -0.017720013856887819,
                0.09336923807859421,
                -0.02812371216714382,
                0.02782837674021721,
                0.04037247970700264,
                0.09338465332984925,
                0.038932815194129947,
                -0.2443065196275711,
                -0.011973683722317219,
                -0.14922356605529786,
                -0.09151288866996765,
                0.1565636247396469,
                0.01493164710700512,
                -0.17118559777736665,
                0.17273831367492677,
                -0.1932091861963272,
                0.18361636996269227,
                0.03906711935997009,
                -0.13718512654304505,
                -0.06567054241895676,
                0.04097592458128929,
                -0.1646028757095337,
                0.03682587668299675,
                0.03020111471414566,
                0.12352742999792099,
                -0.025730514898896219,
                0.11672689765691757,
                -0.01939544826745987,
                0.031119080260396005,
                0.16984876990318299,
                -0.024429980665445329,
                0.01124940812587738,
                -0.06881478428840637,
                -0.054843198508024219,
                0.0049211084842681889,
                0.002946913242340088,
                -0.15845265984535218,
                -0.07291518896818161,
                -0.12400971353054047,
                -0.01572340913116932,
                -0.01512481551617384,
                -0.08615326136350632,
                -0.02582259476184845,
                -0.210858553647995,
                -0.17108361423015595,
                -0.02937840111553669,
                -0.16887395083904267,
                -0.05750686675310135,
                0.14524869620800019,
                -0.19439220428466798,
                0.07830456644296646,
                0.040237754583358768,
                0.12643641233444215,
                -0.060704752802848819,
                0.03016345389187336,
                -0.23047123849391938,
                0.32416054606437685,
                0.01646195910871029,
                0.24448120594024659,
                0.04740668088197708,
                0.12335514277219773,
                0.12688826024532319,
                -0.20441286265850068,
                0.06444576382637024,
                -0.07391173392534256,
                0.04707489162683487,
                -0.13147825002670289,
                -0.12139561772346497,
                -0.04654882848262787,
                0.18535864353179933,
                -0.03047379106283188,
                0.04954838380217552,
                0.12421543151140213,
                0.07898310571908951,
                0.06578340381383896,
                0.0981215089559555,
                0.0028776912949979307,
                0.14059586822986604,
                -0.0765310600399971,
                -0.15801605582237245,
                -0.31253451108932497,
                -0.24166245758533479,
                -0.04798736423254013,
                -0.07400354743003845,
                -0.07780251652002335,
                -0.18650393187999726,
                -0.3493656814098358,
                -0.12332092225551605,
                -0.216863751411438,
                -0.08204416185617447,
                -0.013747921213507653,
                -0.28172290325164797,
                0.09356498718261719,
                0.2340250164270401,
                -0.05569440871477127,
                0.07086890935897827,
                -0.12922406196594239,
                -0.2246648669242859,
                -0.20204080641269685,
                0.00974738784134388,
                -0.05492927134037018,
                0.14621992409229279,
                -0.031670235097408298,
                -0.020408745855093004,
                -0.21099430322647096,
                -0.11861276626586914,
                -0.10318568348884583,
                -0.050510700792074206,
                0.06723877787590027,
                -0.2759542167186737,
                -0.06511989235877991,
                0.14341698586940766,
                -0.05766978859901428,
                0.0995369404554367,
                -0.032418910413980487,
                -0.03121139109134674,
                -0.06463083624839783,
                -0.019978821277618409,
                -0.0024323388934135439,
                0.04516392573714256,
                -0.04181703180074692,
                -0.09965455532073975,
                0.10437333583831787,
                -0.07215739041566849,
                0.008993694558739663,
                0.010519911535084248,
                0.004465156700462103,
                -0.08160977065563202,
                0.07040176540613175,
                -0.016675792634487153,
                -0.18541952967643739,
                -0.10511358827352524,
                -0.0031273241620510818,
                -0.0985461175441742,
                0.036224059760570529,
                -0.12946434319019319,
                0.07910142093896866,
                -0.06789882481098175,
                0.04239447042346001,
                0.34137189388275149,
                -0.17683322727680207,
                -0.2522089183330536,
                0.08212614804506302,
                0.06304282695055008,
                -0.037173375487327579,
                -0.06552577018737793,
                0.02653297781944275,
                -0.03041685000061989,
                -0.0341617651283741,
                -0.033469706773757938,
                -0.05055833235383034,
                -0.21940046548843385,
                0.09624659270048142,
                -0.09103477746248245,
                -0.1969093531370163,
                -0.14413431286811829,
                0.018126429989933969,
                0.1709994077682495,
                -0.06534599512815476,
                0.10681550949811936,
                -0.043171219527721408,
                0.1594867706298828,
                0.08440206199884415,
                -0.06445787101984024,
                0.10730678588151932,
                0.18803362548351289,
                0.06854763627052307,
                0.05463644117116928,
                0.14912377297878266,
                -0.21647292375564576,
                0.16196027398109437,
                -0.17261895537376405,
                -0.05601993948221207,
                -0.03696080297231674,
                0.28513944149017336,
                0.09534604102373123,
                0.14631055295467378,
                -0.24283310770988465,
                0.019481614232063295,
                0.08904542028903961,
                0.2040199339389801,
                -0.020467884838581086,
                0.10426128655672074,
                0.23952460289001466,
                0.14151781797409059,
                0.09341763705015183,
                0.05118703842163086,
                -0.19200018048286439,
                0.011139406822621823,
                0.33896249532699587,
                0.01124189980328083,
                -0.0479775033891201,
                -0.07509048283100128,
                -0.004013081546872854,
                -0.15706020593643189,
                -0.05811992287635803,
                -0.01319640688598156,
                -0.008028103969991207,
                -0.04854284226894379,
                0.09732326865196228,
                0.01915164291858673,
                0.07472112774848938,
                0.0731806755065918,
                -0.059928879141807559,
                0.028148449957370759,
                -0.013443000614643097,
                0.257688045501709,
                -0.08734795451164246,
                0.21248291432857514,
                -0.06454939395189285,
                0.27815359830856326,
                -0.050722092390060428,
                -0.05532114952802658,
                -0.08957500755786896,
                -0.0725618228316307,
                -0.052980221807956699,
                0.2581581473350525,
                -0.17950555682182313,
                -0.015144291333854199,
                -0.11839856952428818,
                -0.04950826242566109,
                -0.043146636337041858,
                0.23564302921295167,
                -0.7102936506271362,
                0.013052791357040406,
                0.028543610125780107,
                0.048278000205755237,
                0.023351255804300309,
                0.4902990162372589,
                -0.0818326398730278,
                0.4868019223213196,
                -0.06868971884250641,
                0.13197119534015656,
                0.12383539974689484,
                0.10861726850271225,
                0.11912613362073899,
                0.044763870537281039,
                -0.24045854806900025,
                0.03641989827156067,
                -0.057273685932159427,
                0.024867244064807893,
                0.05579447001218796,
                0.059993065893650058,
                0.08534087240695954,
                -0.06115855276584625,
                0.08556059747934342,
                -0.021475598216056825,
                0.0787937119603157,
                0.023874493315815927,
                -0.059591349214315417,
                -0.01656273566186428,
                -0.003111104015260935,
                -0.023486927151679994,
                0.46261924505233767,
                0.011734905652701855,
                0.1083214208483696,
                -0.13914544880390168,
                0.059891603887081149,
                0.1770702749490738,
                -0.07165337353944779,
                0.1709354966878891,
                -0.15343163907527924,
                -0.4798778295516968,
                0.07967039197683335,
                0.13205185532569886,
                0.40028828382492068,
                0.08768162131309509,
                0.0347578339278698,
                -0.026357373222708703,
                0.226510688662529,
                0.23072154819965363,
                -0.0014616446569561959,
                0.07780345529317856,
                -0.05957980826497078,
                -0.11640894412994385,
                0.04454802721738815,
                0.14301340281963349,
                0.05906471982598305,
                -0.059239715337753299,
                0.27086353302001955,
                -0.130359947681427,
                0.2501230835914612,
                -0.06833556294441223,
                -0.10200569033622742,
                0.03604758903384209,
                -0.05180542171001434,
                -0.08284750580787659,
                -0.011912137269973755,
                -0.040529992431402209,
                0.03255444020032883,
                0.06119319051504135,
                -0.09888141602277756,
                0.06204727664589882,
                -0.035831503570079806,
                -0.038953766226768497,
                -0.08370275795459748,
                -0.07431305944919586,
                0.03494502976536751,
                -0.13564282655715943,
                -0.12304629385471344,
                -0.12411252409219742,
                0.12025352567434311,
                0.2135733664035797,
                0.15579074621200562,
                0.2446112036705017,
                0.02163293957710266,
                -0.3779841363430023,
                0.1163412407040596,
                -0.038089580833911899,
                0.1136033833026886,
                0.10252219438552857,
                -0.17162150144577027,
                -0.01788412593305111,
                0.2028641253709793,
                0.2301890105009079,
                0.2774963974952698,
                0.4451296925544739,
                -0.025459028780460359,
                -0.1470896154642105,
                0.0014779196353629232,
                -0.11751701682806015,
                -0.12155640870332718,
                0.07886157929897309,
                -0.05615714564919472,
                -0.09526781737804413,
                -0.06538494676351547,
                0.06177862361073494,
                0.1062387228012085,
                0.06951190531253815,
                0.03818364068865776,
                -0.1469724327325821,
                -0.005717750638723373,
                0.10048849880695343,
                0.13447724282741548,
                -0.10615454614162445,
                -0.08231168985366821,
                -0.30911171436309817,
                -0.2070050835609436,
                0.0494435578584671,
                -0.13439616560935975,
                -0.04809622839093208,
                -0.03486475348472595,
                -0.0139028150588274,
                0.2471035271883011,
                0.2788430452346802,
                0.05943107604980469,
                0.28903329372406008,
                0.08299904316663742,
                -0.38653820753097536,
                -0.03181944787502289,
                0.08035780489444733,
                0.10647992044687271,
                0.13845664262771607,
                -0.027593210339546205,
                -0.1711299866437912,
                0.005191570147871971,
                -0.004632747732102871,
                0.254506915807724,
                0.0009240023209713399,
                -0.024980194866657258,
                -0.2135424017906189,
                -0.022368313744664193,
                0.18501776456832887,
                0.16626712679862977,
                0.15656505525112153,
                0.0021380612161010505,
                -0.023556962609291078,
                0.04591064155101776,
                0.07238845527172089,
                -0.07700616121292114,
                -0.09198445081710816,
                0.07992784678936005,
                0.11101926118135452,
                0.1439046710729599,
                -0.005256438162177801,
                0.15114964544773103,
                -0.03273673728108406,
                0.2703315317630768,
                0.031901441514492038,
                0.18191182613372804,
                -0.11261846125125885,
                0.010548247024416924,
                0.07996714115142822,
                0.13573718070983888,
                -0.3044302463531494,
                0.06989283114671707,
                -0.4080125391483307,
                -0.04799821972846985,
                0.005884367972612381,
                0.07924111932516098,
                -0.3488277196884155,
                0.07646284997463227,
                -0.23144753277301789,
                0.06251094490289688,
                -0.24334341287612916,
                -0.05078786611557007,
                -0.4053899347782135,
                0.11676708608865738,
                -0.4737357199192047,
                -0.04143134877085686,
                -0.07281617820262909,
                0.1563408523797989,
                -0.05844515562057495,
                0.33862990140914919,
                -0.14250177145004273,
                0.02774340845644474,
                0.043236225843429568,
                0.08811976760625839,
                -0.04015249386429787,
                0.08870948106050492,
                -0.040026869624853137,
                -0.09753672033548355,
                -0.054512474685907367,
                -0.09260870516300202,
                -0.08699525892734528,
                0.1560485064983368,
                0.1053229495882988,
                0.041956983506679538,
                -0.008641522377729416,
                -0.11042974889278412,
                -0.1952260583639145,
                0.19697923958301545,
                0.23058289289474488,
                -0.11501556634902954,
                -0.1097278743982315,
                -0.1265011429786682,
                -0.06868626177310944,
                0.2142036259174347,
                0.38847872614860537,
                0.021345768123865129,
                0.08086319267749787,
                0.01313558779656887,
                0.039423055946826938,
                0.12742102146148683,
                0.3860512971878052,
                0.10323065519332886,
                -0.09247162938117981,
                -0.19456301629543305,
                -0.11581038683652878,
                -0.03309791535139084,
                0.3281436562538147,
                0.15330661833286286,
                -0.10267619788646698,
                -0.11624083667993546,
                -0.10675902664661408,
                -0.09792117774486542,
                0.11413967609405518,
                0.035141948610544208,
                -0.12550747394561768,
                -0.1560678631067276,
                -0.0992736965417862,
                0.1050979495048523,
                -0.09587304294109345,
                -0.10862281918525696,
                0.07451476156711579,
                0.0677831619977951,
                0.12435230612754822,
                0.053800519555807117,
                0.035380829125642779,
                0.05446586385369301,
                0.0398859940469265,
                0.07194362580776215,
                0.06509656459093094,
                -0.06215392425656319,
                -0.012514952570199967,
                0.09207390993833542,
                0.029439488425850869,
                -0.009415999054908753,
                0.043068770319223407,
                -0.033828265964984897,
                -0.237345352768898,
                0.15291213989257813,
                -0.004917191807180643,
                0.04919759929180145,
                0.17376329004764558,
                0.0063723851926624779,
                -0.23626181483268739,
                0.06825139373540878,
                -0.20739029347896577,
                0.006680216174572706,
                0.15420787036418916,
                0.066002756357193,
                -0.28290173411369326,
                -0.047856271266937259,
                0.08498711884021759,
                0.021646177396178247,
                0.06790045648813248,
                0.12041450291872025,
                -0.13338063657283784,
                -0.04696705564856529,
                0.022249557077884675,
                0.12312395125627518,
                0.18685923516750337,
                0.08673923462629318,
                -0.03628696873784065,
                0.027782702818512918,
                0.029045768082141877,
                -0.015878116711974145,
                0.09177883714437485,
                -0.0073889875784516338,
                -0.19542816281318665,
                -0.26668810844421389,
                -0.0068384800106287,
                -0.04833195358514786,
                -0.16869831085205079,
                -0.2964012622833252,
                -0.030187146738171579,
                -0.23038050532341004,
                -0.02110765315592289,
                -0.007377624977380037,
                -0.24642324447631837,
                -0.17573687434196473,
                -0.4947677254676819,
                0.022720828652381898,
                0.032126396894454959,
                -0.12848547101020814,
                -0.13461358845233918,
                0.07011909782886505,
                -0.2038319855928421,
                -0.030263889580965043,
                0.06605193018913269,
                0.010045146569609642,
                0.0659014955163002,
                -0.16575868427753449,
                -0.035916827619075778,
                -0.08305911719799042,
                0.02685685083270073,
                -0.030171550810337068,
                0.2161753624677658,
                -0.03592425584793091,
                0.020887590944767,
                -0.06275168806314469,
                -0.03776315599679947,
                -0.1508362889289856,
                -0.041178032755851749,
                0.06267599016427994,
                0.08282060921192169,
                -0.03257390484213829,
                0.0023360103368759157,
                -0.031244996935129167,
                0.18478748202323914,
                -0.058655571192502978,
                0.08668778091669083,
                -0.03606284782290459,
                0.007966985926032067,
                0.048137739300727847,
                0.1329060196876526,
                0.13499245047569276,
                0.11468508094549179,
                0.16218562424182893,
                -0.10155848413705826,
                -0.05203709006309509,
                -0.18566441535949708,
                0.47211065888404848,
                -0.1075589507818222,
                0.12171713262796402,
                0.041011132299900058,
                0.03950648382306099,
                -0.07627956569194794,
                0.2506812512874603,
                0.44137170910835268,
                0.19636838138103486,
                -0.025544852018356324,
                0.14218702912330628,
                -0.1636027991771698,
                0.026093149557709695,
                0.16968125104904176,
                -0.06811271607875824,
                -0.009149194695055485,
                0.06751830875873566,
                0.004585361573845148,
                0.15817080438137055,
                -0.11932054162025452,
                -0.08085238933563233,
                -0.1290646195411682,
                -0.09263294190168381,
                -0.06892193853855133,
                -0.0651458352804184,
                -0.15206338465213777,
                0.026741234585642816,
                -0.14806707203388215,
                -0.06932150572538376,
                -0.05602556839585304,
                0.11046425998210907,
                -0.1056818962097168,
                -0.03771866112947464,
                -0.1442689150571823,
                -0.08585024625062943,
                -0.06321215629577637,
                0.056067921221256259,
                -0.034413523972034457,
                -0.020233208313584329,
                -0.003457704558968544,
                -0.0810738131403923,
                0.13245871663093568,
                0.01731698215007782,
                -0.2195611596107483,
                0.06488244235515595,
                0.09469850361347199,
                -0.34811311960220339,
                -0.06054413318634033,
                0.19754254817962647,
                -0.023626945912837983,
                0.02098214440047741,
                0.19893863797187806,
                -0.2031833380460739,
                0.0581948384642601,
                -0.08103449642658234,
                0.09130144864320755,
                0.0016510420246049762,
                -0.09288015961647034,
                -0.07506221532821655,
                0.07014039903879166,
                -0.1136922687292099,
                -0.027618343010544778,
                0.2779136002063751,
                0.07694203406572342,
                -0.11024785041809082,
                -0.0029206648468971254,
                0.08465816080570221,
                0.06503503024578095,
                -0.02021661400794983,
                0.06809990108013153,
                -0.007578112185001373,
                -0.01335565559566021,
                0.028584079816937448,
                0.23104067146778108,
                -0.04530469700694084,
                -0.05600278824567795,
                0.16359692811965943,
                -0.026744622737169267,
                -0.04286833480000496,
                -0.15204742550849915,
                0.028115468099713327,
                0.09962014108896256,
                0.09753984957933426,
                0.002648531459271908,
                -0.14777228236198426,
                -0.1562231332063675,
                -0.055198878049850467,
                -0.044998329132795337,
                0.17426946759223939,
                -0.2608656585216522,
                -0.11348027735948563,
                -0.3110348582267761,
                -0.3926191031932831,
                -0.14329685270786286,
                0.4576513469219208,
                0.0694955587387085,
                -0.3163003921508789,
                -0.07483993470668793,
                -0.23183581233024598,
                -0.2754172384738922,
                0.1607360541820526,
                -0.04497384652495384,
                0.00761000718921423,
                -0.3280409872531891,
                -0.021356066688895227,
                0.054504312574863437,
                0.059344492852687839,
                -0.12720997631549836,
                0.0741308256983757,
                -0.07428625226020813,
                0.21741215884685517,
                0.022322887554764749,
                0.33859172463417055,
                0.003976348787546158,
                -0.18786609172821046,
                0.03593801334500313,
                -0.0790337473154068,
                0.008379470556974411,
                -0.12293385714292526,
                0.0496094636619091,
                0.16589820384979249,
                0.11320850998163223,
                -0.13455075025558473,
                0.2095986157655716,
                -0.1803906410932541,
                0.09920935332775116,
                0.10797550529241562,
                -0.22093945741653443,
                -0.06959942728281021,
                -0.0057886564172804359,
                0.06733707338571549,
                0.05018783360719681,
                -0.09389544278383255,
                -0.051531415432691577,
                0.017259158194065095,
                -0.33307933807373049,
                -0.004877855069935322,
                0.10975173115730286,
                0.1579010784626007,
                -0.11897695064544678,
                -0.1409417688846588,
                0.024233980104327203,
                0.019752485677599908,
                -0.09070030599832535,
                -0.14247310161590577,
                -0.040993306785821918,
                -0.3543902635574341,
                -0.08809881657361984,
                -0.13581062853336335,
                -0.003192298114299774,
                -0.0073139965534210209,
                -0.10413457453250885,
                0.030439343303442,
                -0.03787274286150932,
                -0.004617579281330109,
                0.1311248242855072,
                0.07371429353952408,
                0.1746404469013214,
                0.014241321943700314,
                0.2746962904930115,
                0.1314873993396759,
                0.08733848482370377,
                0.0038939386140555145,
                -0.10729607939720154,
                0.049501653760671619,
                0.0319686084985733,
                0.055715400725603107,
                0.190752774477005,
                -0.024224204942584039,
                0.0884241908788681,
                0.09083426743745804,
                -0.09037551283836365,
                0.15252685546875,
                -0.02493000216782093,
                -0.40288153290748598,
                0.0990835577249527,
                -0.28226250410079958,
                -0.16807930171489716,
                -0.09848501533269882,
                0.030629422515630723,
                0.11710644513368607,
                0.14478200674057008,
                -0.05939098820090294,
                0.22906088829040528,
                0.03023364394903183,
                0.15202708542346955,
                -0.02275886759161949,
                0.10832984000444412,
                0.17251834273338319,
                0.008421486243605614,
                0.11992372572422028,
                -0.19050166010856629,
                0.3753392696380615,
                0.08169971406459809,
                0.1534871757030487,
                -0.04719974100589752,
                0.014283459633588791,
                -0.16704726219177247,
                0.18243242800235749,
                0.032828763127326968,
                0.07105615735054016,
                0.018409844487905504,
                -0.014834358356893063,
                -0.359159916639328,
                0.11104228347539902,
                0.11082379519939423,
                0.2024664580821991,
                0.249007448554039,
                -0.029884476214647294,
                -0.5977429151535034,
                -0.10338560491800308,
                0.11549073457717896,
                0.18266858160495759,
                0.20262357592582704,
                -0.025501402094960214,
                -0.343965619802475,
                0.2143826186656952,
                -0.1245637908577919,
                0.2418842911720276,
                -0.067726269364357,
                -0.014382881112396717,
                -0.11181066930294037,
                0.1553456336259842,
                -0.05209072679281235,
                0.0839633047580719,
                -0.11549637466669083,
                -0.09428034722805023,
                0.052499689161777499,
                -0.24342815577983857,
                0.010043294169008732,
                -0.3602399528026581,
                0.014554503373801709,
                -0.31751251220703127,
                0.06512147933244705,
                0.10252843797206879,
                0.09353660047054291,
                0.05466200411319733,
                0.03713906556367874,
                0.08835351467132569,
                -0.07186254858970642,
                0.21115925908088685,
                0.22306963801383973,
                0.20311959087848664,
                0.17446672916412354,
                0.07342525571584702,
                -0.10708069801330567,
                0.2971135377883911,
                0.1866159439086914,
                0.024333598092198373,
                0.1564435511827469,
                0.029629968106746675,
                -0.36711934208869936,
                0.1762055605649948,
                -0.03198958560824394,
                0.13336166739463807,
                -0.09061507880687714,
                0.07529905438423157,
                -0.5376743078231812,
                0.0709344893693924,
                0.04609162360429764,
                0.2204071581363678,
                0.07192130386829376,
                0.0255300123244524,
                -0.3077729344367981,
                0.01692049577832222,
                0.21212591230869294,
                0.018357565626502038,
                0.2814396321773529,
                -0.05043835565447807,
                -0.12115451693534851,
                0.14154206216335298,
                0.19747550785541535,
                0.08723033219575882,
                0.14379547536373139,
                -0.07974439114332199
            ],
            "WeightsRows": 20,
            "WeightsCols": 84,
            "Biases": [
                0.5320367217063904,
                0.28445351123809817,
                -0.6519185304641724,
                -0.004348095040768385,
                0.7249242663383484,
                -0.2483644038438797,
                0.6146058440208435,
                -1.0350743532180787,
                0.11451758444309235,
                -0.4164903163909912,
                -0.4172247052192688,
                1.1770310401916505,
                -0.9172342419624329,
                -0.5311535596847534,
                -0.47460946440696719,
                0.39868614077568056,
                -0.19903266429901124,
                0.7225605249404907,
                0.5298620462417603,
                -1.5928330421447755
            ]
        },
        {
            "Weights": [
                0.5335646867752075,
                -0.2583271265029907,
                -0.8384519815444946,
                0.7451224327087402,
                -0.5183973908424377,
                -0.028093015775084497,
                0.7006824612617493,
                -1.161841869354248,
                0.07823752611875534,
                -0.1823723316192627,
                -0.5842506289482117,
                0.8250949382781982,
                -0.885878324508667,
                -0.31784844398498537,
                0.046710412949323657,
                0.3931025564670563,
                0.07738838344812393,
                0.34713026881217959,
                0.002056541619822383,
                -0.5105664730072022,
                0.03221622109413147,
                -0.08791271597146988,
                -0.491690993309021,
                -0.019955595955252649,
                0.07189837098121643,
                -0.01790320686995983,
                -0.6501039862632752,
                -0.08407904952764511,
                0.3099294602870941,
                0.7029140591621399,
                0.17106623947620393,
                0.01546693779528141,
                0.08688574284315109,
                -0.034475043416023257,
                -0.6148682236671448,
                0.5578776597976685,
                -0.06697331368923187,
                0.1286931186914444,
                0.3247346878051758,
                -0.8863083720207214,
                -0.04088296741247177,
                1.2470223903656006,
                0.24670110642910005,
                0.9057168960571289,
                -0.435067355632782,
                0.3122660517692566,
                -0.6025992631912231,
                0.028301440179347993,
                0.030470917001366617,
                0.12649057805538178,
                0.35621416568756106,
                0.21340234577655793,
                -0.05977688357234001,
                0.0011286379303783179,
                0.3848016560077667,
                -0.07825925946235657,
                0.14676088094711305,
                -0.2757372558116913,
                0.4348345100879669,
                -0.16087839007377625,
                0.2392166256904602,
                -0.40695828199386599,
                0.08149395138025284,
                -0.3631749451160431,
                -0.06258556246757508,
                0.6586649417877197,
                -0.25456780195236208,
                0.9384778141975403,
                -0.3366560637950897,
                0.6450533270835877,
                0.22342737019062043,
                -0.10221554338932038,
                0.23077888786792756,
                0.2515001595020294,
                0.43981462717056277,
                -0.6484743356704712,
                -0.009043542668223381,
                0.05721309781074524,
                -0.24476371705532075,
                0.6626413464546204,
                -0.02278510481119156,
                0.5642086863517761,
                0.23007696866989137,
                -0.46123406291007998,
                -1.0094444751739503,
                -0.26745012402534487,
                0.2599732279777527,
                -0.46111422777175906,
                0.14886152744293214,
                0.23885956406593324,
                -0.5197803378105164,
                -0.20874018967151643,
                0.015105822123587132,
                0.41728079319000246,
                -0.8082807064056397,
                0.07730501145124436,
                -0.4100855588912964,
                0.3196544051170349,
                0.6449176669120789,
                -0.6005304455757141,
                0.20029082894325257,
                -0.6456354260444641,
                0.05960465222597122,
                0.1779983937740326,
                -0.2713634669780731,
                -0.005548109300434589,
                0.2154681235551834,
                0.26479995250701907,
                -0.21676672995090486,
                0.38532981276512148,
                -0.39421048760414126,
                -0.31760677695274355,
                -0.05298037827014923,
                0.3582509458065033,
                0.3605959117412567,
                0.2351178675889969,
                0.3837134838104248,
                -0.046219103038311008,
                -0.077314093708992,
                1.3604860305786133,
                0.3973664343357086,
                -0.25152674317359927,
                -0.5299072265625,
                -0.010568199679255486,
                0.27153679728507998,
                -0.2934846580028534,
                -0.10284344851970673,
                0.005230767652392387,
                -0.1808297485113144,
                -0.49663376808166506,
                0.034738119691610339,
                -0.21539990603923798,
                -0.14505413174629212,
                0.05175783485174179,
                -0.28228744864463808,
                0.4120560586452484,
                -0.19762204587459565,
                -0.36498308181762698,
                0.32923662662506106,
                -0.5322848558425903,
                -0.2589264512062073,
                -0.3800656497478485,
                0.15621186792850495,
                -0.04961208999156952,
                -0.6219653487205505,
                0.0855773463845253,
                -0.37871575355529787,
                -0.35991302132606509,
                -0.19927045702934266,
                -0.2789449691772461,
                0.4259144961833954,
                -0.5314803123474121,
                0.1406242996454239,
                -0.061236996203660968,
                0.2882547080516815,
                -0.624363899230957,
                0.6084495782852173,
                -0.10650274902582169,
                -0.15683279931545258,
                0.07838823646306992,
                0.0006373592186719179,
                0.2125399112701416,
                -0.20337343215942384,
                -0.252065509557724,
                0.6636775732040405,
                -0.12426652759313584,
                0.05453038588166237,
                -0.9473354816436768,
                1.1795132160186768,
                -0.5262454748153687,
                -0.359411358833313,
                0.5571708083152771,
                0.07710548490285874,
                -0.615394115447998,
                -0.592822790145874,
                0.3328455686569214,
                -0.1428661197423935,
                0.6157423853874207,
                0.7707486152648926,
                -1.1461067199707032,
                0.30250078439712527,
                -0.1837289035320282,
                0.13190658390522004,
                0.2626709043979645,
                -0.08837052434682846,
                0.01124549750238657,
                -0.5010220408439636,
                -0.0885925367474556,
                0.8827128410339356,
                -0.2018599957227707,
                -0.005859063938260078,
                -0.4552097022533417,
                0.17379650473594666,
                0.3894667327404022,
                0.26066166162490847,
                0.4099668264389038,
                -0.5383686423301697,
                -0.5482503175735474,
                -0.2279418557882309,
                0.3172833025455475,
                0.22478894889354707,
                0.5688537955284119,
                -0.3385908603668213,
                0.12636975944042207,
                -0.046875789761543277,
                0.7288912534713745,
                -0.03126734495162964,
                0.019803499802947046,
                -0.21971535682678224,
                0.11138004809617996,
                0.09263742715120316,
                0.195111945271492,
                -0.25211840867996218,
                -0.42725613713264468,
                0.336449533700943,
                0.10814737528562546,
                -0.2742539644241333,
                0.3183736801147461,
                0.2196187674999237,
                -0.35348623991012576,
                -0.10208817571401596,
                0.1030607745051384,
                0.24457962810993195,
                -0.4566800594329834,
                0.03159254044294357,
                -0.03434380516409874,
                -0.07659688591957092,
                -0.3783206641674042,
                0.16080345213413239,
                -0.19533516466617585,
                0.4632240831851959,
                0.1228107437491417,
                -0.041367512196302417,
                0.05224963277578354,
                -0.4992434084415436,
                -0.4803597331047058,
                0.2583727538585663,
                -0.45777764916419985,
                0.00005445479109766893,
                -0.10433869808912277,
                0.12370112538337708,
                0.08145493268966675,
                0.011267414316534996,
                -0.08098366111516953,
                0.07744244486093521,
                -0.17711633443832398,
                0.3003699481487274,
                -0.8477686643600464,
                -0.26548177003860476,
                -0.575044572353363,
                0.05868963524699211,
                -0.1651362031698227,
                0.06740693747997284,
                0.08455321937799454,
                -0.08715585619211197,
                -0.11288738995790482,
                0.03863455355167389,
                0.19380179047584535,
                -0.12425827980041504,
                -0.3971102237701416,
                0.43418365716934206,
                0.03837444260716438,
                0.5120300054550171,
                -0.007691285107284784,
                -0.46076729893684389,
                0.342543363571167,
                0.10155762732028961,
                0.019923988729715349,
                0.11172819882631302,
                -0.05695353075861931,
                0.14879795908927918,
                -0.06876213848590851,
                0.486189067363739,
                0.02956376224756241,
                0.47197815775871279,
                -0.06422051787376404,
                0.26932573318481448,
                0.027692163363099099,
                -0.4980538487434387,
                0.2820889949798584,
                -0.36602330207824709,
                0.02989923022687435,
                0.10259813070297241,
                0.17851722240447999,
                -0.10634402930736542,
                0.1888723224401474,
                -0.11390833556652069,
                0.22882875800132752,
                0.12426915019750595,
                0.05701591819524765,
                -0.09342893958091736,
                -0.6622492671012878,
                0.3831067383289337,
                -0.33609738945961,
                0.283172070980072,
                -0.3919660449028015,
                -0.3253343105316162,
                -0.6358514428138733,
                -0.44858425855636599,
                0.4217642843723297,
                0.25749698281288149,
                -0.23987257480621339,
                -0.04040937498211861,
                -0.20790395140647889,
                -0.08684197068214417,
                0.37667232751846316,
                0.151438370347023,
                0.35611286759376528,
                -0.04940782114863396,
                0.19914096593856812,
                0.4542229473590851,
                -0.3382018804550171,
                -0.320475310087204,
                0.33863070607185366,
                0.6913743615150452,
                -0.16904248297214509,
                0.04454506188631058,
                0.035114042460918429,
                -0.4992014765739441,
                0.4815773367881775,
                0.14096157252788545,
                0.3278118669986725,
                0.10715332627296448,
                -0.02029605768620968,
                -0.06240029260516167,
                0.027081958949565889,
                -0.02575519122183323,
                -0.16561725735664369,
                0.20608995854854585,
                -0.1811925172805786,
                -0.15702274441719056,
                0.3417632579803467,
                -0.020650193095207216,
                0.35870933532714846,
                -0.49265819787979128,
                -0.3927527964115143,
                0.38961923122406008,
                -0.2624802589416504,
                -0.07315746694803238,
                0.04282733052968979,
                -0.6030160784721375,
                -0.5344835519790649,
                -0.3199782371520996,
                -0.2816300392150879,
                -0.3384428918361664,
                -0.3947787284851074,
                0.10254863649606705,
                0.7203502058982849,
                0.35469579696655276,
                -0.020085569471120836,
                -0.3324633836746216,
                -0.4638340175151825,
                0.1446947455406189,
                -0.03407929465174675,
                -0.04423774406313896,
                0.3657134771347046,
                -0.1898946613073349,
                0.10382837802171707,
                -0.42129993438720705,
                0.9791785478591919,
                -0.05115359649062157,
                0.24720892310142518,
                -0.23602434992790223,
                -0.1486504077911377,
                0.8707599639892578,
                -0.40125736594200137,
                0.0827060416340828,
                0.2732735276222229,
                -0.5686697363853455,
                0.05246961861848831,
                -0.31088966131210329,
                0.6646028161048889,
                -0.021960292011499406,
                -0.3274250328540802,
                -0.15275871753692628,
                -0.06239843741059303,
                -0.25773268938064577,
                0.0017144479788839818,
                -0.06295215338468552,
                -0.4416930079460144,
                -0.0983542650938034,
                0.13907702267169953,
                -0.04455766826868057,
                -0.11806434392929077,
                -0.044556763023138049,
                -0.08164306730031967,
                0.24636757373809815,
                0.2604323923587799,
                -0.06382444500923157,
                0.13562026619911195,
                0.014569269493222237,
                -0.03140660375356674,
                0.10760080814361572,
                -0.21452614665031434,
                0.26093047857284548,
                0.2168930172920227,
                -0.05523812770843506,
                0.12691721320152284,
                0.2593972384929657,
                0.2649804949760437
            ],
            "WeightsRows": 20,
            "WeightsCols": 20,
            "Biases": [
                0.9494363069534302,
                0.27477678656578066,
                -0.6250448226928711,
                -0.026519697159528734,
                0.1020708829164505,
                -0.30190759897232058,
                0.21659600734710694,
                -0.17485103011131288,
                0.7642068862915039,
                -0.14952296018600465,
                0.46449440717697146,
                -0.008967356756329537,
                0.0599721297621727,
                -0.07771464437246323,
                -0.3813183307647705,
                -0.059840042144060138,
                -0.019681422039866449,
                -0.6535549163818359,
                0.11053308099508286,
                -0.01726939156651497
            ]
        },
        {
            "Weights": [
                -1.4715393781661988,
                -0.6437416076660156,
                -1.149144172668457,
                0.4704510271549225,
                0.5041818618774414,
                -1.3507015705108643,
                -0.24225495755672456,
                0.06976835429668427,
                2.1422789096832277,
                1.2744176387786866,
                0.6990885138511658,
                -0.21241658926010133,
                -0.4710274636745453,
                0.6474458575248718,
                0.8512940406799316,
                -0.9544084072113037,
                -0.16843578219413758,
                0.5499129295349121,
                0.6273494958877564,
                0.10332045704126358,
                -0.6390640139579773,
                -0.003597283037379384,
                1.7373164892196656,
                -0.8716982007026672,
                0.6858823895454407,
                1.1044505834579468,
                0.45027199387550356,
                -0.9889274835586548,
                -2.587468147277832,
                -1.011190414428711,
                -0.713051438331604,
                0.22616732120513917,
                0.6489437222480774,
                -0.8219401836395264,
                -0.5296092629432678,
                0.4858395755290985,
                -0.06717494130134583,
                0.5100873708724976,
                0.1514884978532791,
                -0.07885242253541947,
                1.894518494606018,
                0.7524880170822144,
                -0.8026761412620544,
                0.6734961271286011,
                -1.0673288106918336,
                0.5008838772773743,
                0.08890097588300705,
                1.2178994417190552,
                0.5411072969436646,
                -0.2305331975221634,
                -0.1454639881849289,
                0.37991100549697878,
                -0.13335081934928895,
                0.3396417796611786,
                -0.5385670065879822,
                0.5231011509895325,
                0.3234962224960327,
                -0.887775182723999,
                -0.8422413468360901,
                -0.18156307935714723
            ],
            "WeightsRows": 3,
            "WeightsCols": 20,
            "Biases": [
                -0.3864554762840271,
                0.6000846028327942,
                -0.21360644698143006
            ]
        }
    ]
}