{
    "Layers": [
        {
            "Weights": [
                0.12167767435312271,
                -0.008572467602789402,
                0.16674500703811646,
                -0.02280620113015175,
                0.013089525513350964,
                -0.05005619302392006,
                0.05487752705812454,
                0.17503221333026887,
                -0.11298299580812454,
                0.14520955085754395,
                0.04739685729146004,
                0.0185600183904171,
                0.03115728124976158,
                -0.11657872051000595,
                0.06759341061115265,
                0.12706202268600465,
                -0.001056542620062828,
                0.03485110029578209,
                -0.2344461977481842,
                -0.13630767166614533,
                -0.0563027523458004,
                -0.1938469409942627,
                -0.2710171043872833,
                -0.1918952614068985,
                -0.13467518985271455,
                0.04139212146401405,
                -0.10606686025857926,
                -0.06975877285003662,
                -0.07762987911701203,
                -0.11252136528491974,
                0.09892195463180542,
                -0.04951252043247223,
                -0.005891059059649706,
                -0.17414474487304688,
                0.030200045555830003,
                -0.09673407673835755,
                -0.024560971185564996,
                0.20634150505065919,
                0.12350263446569443,
                0.0996231958270073,
                0.12423782050609589,
                0.04458298906683922,
                0.07351812720298767,
                0.01411062479019165,
                0.0032836049795150759,
                0.04442950710654259,
                -0.008602917194366455,
                -0.05481593310832977,
                -0.10289817303419113,
                0.05604485422372818,
                -0.08957840502262116,
                0.03787234053015709,
                -0.010843508876860142,
                0.03309604525566101,
                0.06835798174142838,
                -0.06293991208076477,
                0.16339664161205293,
                -0.029983004555106164,
                0.11259318143129349,
                0.08039317280054093,
                -0.22401201725006104,
                -0.03663290664553642,
                -0.15920467674732209,
                0.007563372142612934,
                0.10117505490779877,
                0.042586617171764377,
                -0.024194877594709398,
                -0.1769813746213913,
                -0.3478856384754181,
                -0.1263473629951477,
                0.20887769758701325,
                0.11742869764566422,
                -0.09109644591808319,
                -0.1236526370048523,
                0.006509033031761646,
                -0.049220405519008639,
                0.1643214225769043,
                0.05026513710618019,
                -0.12681910395622254,
                -0.01579723320901394,
                0.04070405289530754,
                0.023020310327410699,
                -0.09328697621822357,
                0.07182673364877701,
                -0.1813879907131195,
                0.06745777279138565,
                -0.08733723312616348,
                0.12140905112028122,
                -0.051397889852523807,
                0.0029809523839503528,
                0.018065445125102998,
                -0.10213460773229599,
                0.07182696461677551,
                -0.14267633855342866,
                0.0943862572312355,
                -0.1687130182981491,
                0.12909561395645142,
                -0.13919594883918763,
                0.13088324666023255,
                0.020374419167637826,
                0.032705970108509067,
                -0.12721505761146546,
                0.058724645525217059,
                0.2712904214859009,
                -0.13104450702667237,
                0.021638741716742517,
                -0.33428606390953066,
                0.1053854301571846,
                -0.02036016248166561,
                0.08126873522996903,
                0.0299253948032856,
                0.1301233023405075,
                0.010933050885796547,
                -0.06820330768823624,
                -0.04597542807459831,
                -0.03862336650490761,
                0.13922660052776338,
                -0.23082521557807923,
                0.09488823264837265,
                -0.18591415882110597,
                -0.16382522881031037,
                -0.14499355852603913,
                0.002432013163343072,
                -0.03892326354980469,
                -0.04033968597650528,
                -0.03947940841317177,
                -0.07379339635372162,
                -0.05003295838832855,
                -0.09764492511749268,
                -0.06962081789970398,
                0.004752017557621002,
                0.06876931339502335,
                -0.03645959496498108,
                0.024232754483819009,
                0.08021097630262375,
                0.011461653746664524,
                -0.0507163442671299,
                0.03463967517018318,
                -0.1621154397726059,
                -0.060449738055467609,
                -0.20210929214954377,
                0.1092560738325119,
                -0.13990385830402375,
                0.04562778398394585,
                -0.15168078243732453,
                -0.0160687156021595,
                -0.14733941853046418,
                -0.11453848332166672,
                -0.10555794835090637,
                -0.011833042837679387,
                -0.023811468854546548,
                -0.17539845407009126,
                0.11735415458679199,
                -0.16292093694210053,
                0.19007249176502229,
                -0.2876070737838745,
                -0.11743764579296112,
                -0.08408201485872269,
                0.015971554443240167,
                -0.10166411846876145,
                -0.08106549084186554,
                -0.05683755874633789,
                -0.17539454996585847,
                -0.0491885207593441,
                -0.1503690630197525,
                0.20962519943714143,
                -0.19654694199562074,
                0.08369329571723938,
                -0.09327682852745056,
                -0.1357439160346985,
                0.08078271150588989,
                -0.09377778321504593,
                0.019516056403517724,
                0.0894664004445076,
                -0.0440744087100029,
                -0.13933220505714417,
                -0.06213214248418808,
                0.11203780770301819,
                -0.023742930963635446,
                -0.010668649338185788,
                0.05676104500889778,
                -0.13838286697864533,
                -0.19760850071907044,
                0.10009969025850296,
                -0.08478540927171707,
                0.13737505674362184,
                0.14368753135204316,
                -0.09724248200654984,
                0.149997279047966,
                0.1961812824010849,
                0.2501661479473114,
                0.12518078088760377,
                0.10628151148557663,
                -0.14697876572608949,
                0.11109917610883713,
                -0.171488955616951,
                0.062470078468322757,
                -0.011632440611720086,
                -0.0601528100669384,
                -0.17513716220855714,
                0.029895871877670289,
                0.05687665566802025,
                0.12416630983352661,
                -0.014802264049649239,
                -0.19778373837471009,
                0.020051121711730958,
                0.06144210323691368,
                0.06845439970493317,
                -0.17781850695610047,
                0.014869957230985165,
                0.051860079169273379,
                -0.05438755452632904,
                -0.10467380285263062,
                -0.06172644719481468,
                0.07416737079620362,
                -0.10760326683521271,
                0.02175392024219036,
                -0.04849470779299736,
                0.08989240974187851,
                -0.0067364913411438469,
                -0.08484666794538498,
                0.02974308282136917,
                0.01804238371551037,
                0.0480661578476429,
                0.16040822863578797,
                0.004006971139460802,
                0.03668222203850746,
                0.07132070511579514,
                0.014484808780252934,
                -0.010785162448883057,
                0.22700096666812898,
                0.023060450330376626,
                -0.011692048981785775,
                0.005983954295516014,
                -0.10081817954778671,
                -0.03911612927913666,
                0.06446580588817597,
                0.037585508078336719,
                -0.055122438818216327,
                -0.04444706067442894,
                -0.1327342540025711,
                -0.23308265209197999,
                -0.004801634233444929,
                0.11691617220640183,
                -0.08746283501386643,
                0.021265588700771333,
                0.002710852539166808,
                -0.12123801559209824,
                -0.008993650786578656,
                0.014147130772471428,
                -0.121008962392807,
                0.04439561441540718,
                -0.0584043487906456,
                0.12076658010482788,
                -0.18967187404632569,
                -0.06595753878355026,
                -0.1293374001979828,
                0.03494923189282417,
                -0.09637659788131714,
                -0.057686831802129748,
                0.022294534370303155,
                -0.13566555082798005,
                0.1490962654352188,
                -0.11817323416471482,
                0.03716305270791054,
                -0.21984930336475373,
                0.06859064847230911,
                -0.14162181317806245,
                0.15093256533145905,
                -0.11353340744972229,
                -0.31158509850502016,
                -0.059028178453445438,
                -0.2858962118625641,
                0.01814924366772175,
                -0.4513772130012512,
                0.09482026845216751,
                0.04643620550632477,
                -0.04721929505467415,
                -0.2536865770816803,
                0.14406265318393708,
                -0.029310602694749833,
                0.052911512553691867,
                -0.05962101370096207,
                -0.1265922486782074,
                0.03409048914909363,
                -0.23097659647464753,
                0.018404249101877214,
                -0.07258722186088562,
                -0.03257232904434204,
                -0.11253585666418076,
                0.19127832353115083,
                -0.29962339997291567,
                0.08461780846118927,
                -0.21909008920192719,
                0.06868889927864075,
                -0.05004151165485382,
                0.05862189829349518,
                0.036694806069135669,
                -0.05634951591491699,
                0.08478793501853943,
                -0.00468831742182374,
                -0.0071390122175216679,
                0.05152814835309982,
                -0.01261131465435028,
                0.05144864693284035,
                0.04606650024652481,
                0.00861202459782362,
                0.04996104538440704,
                -0.2747138440608978,
                0.07575996965169907,
                -0.1615365445613861,
                0.08805259317159653,
                -0.15173932909965516,
                0.2721889317035675,
                -0.03443412110209465,
                0.1001613661646843,
                -0.12473157048225403,
                0.0037776711396872999,
                -0.11544451117515564,
                -0.24204754829406739,
                0.0686783492565155,
                -0.0002128566848114133,
                0.26968178153038027,
                0.015061676502227784,
                -0.07811703532934189,
                0.16313190758228303,
                0.20293088257312776,
                0.002774651627987623,
                0.08421862870454788,
                0.07274624705314636,
                0.10282055288553238,
                0.21592307090759278,
                -0.17307302355766297,
                0.16418568789958955,
                -0.07821120321750641,
                0.042853642255067828,
                0.1279650777578354,
                -0.009163564071059227,
                -0.016292627900838853,
                0.04810722917318344,
                -0.06705719232559204,
                -0.002896473743021488,
                0.1887017786502838,
                -0.05771477520465851,
                0.03659437969326973,
                0.16902653872966767,
                0.0901683121919632,
                0.012441020458936692,
                0.2583066523075104,
                -0.2285168468952179,
                0.05547269433736801,
                0.02001425437629223,
                0.05004432797431946,
                -0.005495887715369463,
                0.1244720071554184,
                -0.25580891966819765,
                0.12098117172718048,
                -0.026144379749894143,
                -0.08798927068710327,
                -0.06945568323135376,
                0.11449190229177475,
                -0.16266217827796937,
                -0.05512365698814392,
                0.003169223666191101,
                0.07878869026899338,
                -0.02306351251900196,
                0.12961900234222413,
                -0.1788855940103531,
                0.13122126460075379,
                0.24312880635261537,
                0.0006782246055081487,
                -0.017635727301239969,
                0.05336841568350792,
                -0.0490700826048851,
                0.050814446061849597,
                -0.02379806526005268,
                -0.0024951514787971975,
                0.0071356650441884998,
                -0.06529577076435089,
                0.09055781364440918,
                0.05730735510587692,
                0.04873824119567871,
                0.0966692864894867,
                0.014023736119270325,
                0.2194616198539734,
                0.05000176280736923,
                -0.025798380374908448,
                -0.04529639333486557,
                -0.10532248020172119,
                0.12367185950279236,
                0.12599463760852815,
                -0.027071869000792505,
                0.001021224190481007,
                -0.14128310978412629,
                0.11759192496538162,
                -0.03967079147696495,
                0.05262603610754013,
                0.10448154807090759,
                -0.08267050236463547,
                -0.13530859351158143,
                -0.1254023164510727,
                0.05428995564579964,
                0.038944922387599948,
                -0.04730250686407089,
                -0.20867209136486054,
                -0.30931341648101809,
                -0.2747899889945984,
                -0.07036970555782318,
                0.17083938419818879,
                0.04738606885075569,
                -0.15165716409683228,
                -0.17353133857250215,
                -0.03143496811389923,
                -0.045469291508197787,
                0.041825734078884128,
                -0.01618463359773159,
                0.05803350359201431,
                -0.11612618714570999,
                0.08591882139444351,
                0.027190441265702249,
                0.02174888551235199,
                0.11637525260448456,
                -0.006885866168886423,
                0.03319253399968147,
                0.010904431343078614,
                -0.08256750553846359,
                0.039547149091959,
                0.08908817917108536,
                0.03342556953430176,
                0.05629929155111313,
                0.06379219889640808,
                0.006584953982383013,
                -0.10903997719287873,
                -0.08641673624515534,
                -0.01498749852180481,
                0.12401515990495682,
                0.1604987382888794,
                0.005001915618777275,
                0.04137547314167023,
                0.047601014375686648,
                -0.07184458523988724,
                0.09592597931623459,
                -0.020254960283637048,
                0.13499417901039124,
                -0.061055172234773639,
                -0.007169583812355995,
                -0.06273794919252396,
                0.032310646027326587,
                0.040440551936626437,
                0.05338606238365173,
                0.020055754110217096,
                -0.0031027330551296474,
                0.0734163448214531,
                0.06867300719022751,
                0.06197252497076988,
                0.0520872101187706,
                0.0391317680478096,
                0.035899605602025989,
                0.09304258227348328,
                -0.014637171290814877,
                0.035819511860609058,
                -0.09335649013519287,
                -0.07382151484489441,
                -0.09367910027503967,
                0.013149134814739228,
                -0.005773209035396576,
                -0.10196176171302796,
                -0.09786425530910492,
                -0.028750136494636537,
                0.07419712841510773,
                -0.05038278177380562,
                0.05432033911347389,
                0.09712836891412735,
                -0.09172908216714859,
                -0.047085270285606387,
                0.05647581070661545,
                -0.0785711407661438,
                0.039375536143779758,
                -0.04954952746629715,
                0.02099093794822693,
                -0.13578525185585023,
                0.05211847648024559,
                -0.05431193858385086,
                0.0496499240398407,
                -0.06997087597846985,
                0.08815083652734757,
                -0.010221267119050026,
                -0.03536416217684746,
                0.0001850528788054362,
                0.05504174157977104,
                0.1973421573638916,
                0.07596345990896225,
                -0.05145405977964401,
                0.07943189144134522,
                0.07707316428422928,
                0.0020348837133497,
                0.09498824924230576,
                0.1200774684548378,
                0.0482175275683403,
                0.0789310559630394,
                -0.04197140783071518,
                0.024248555302619935,
                -0.0027336375787854196,
                0.0318945087492466,
                0.03006778284907341,
                0.10178589075803757,
                0.02198733761906624,
                0.002422088524326682,
                -0.025579622015357019,
                0.16695481538772584,
                -0.00009257824422093108,
                -0.06201343983411789,
                -0.21633656322956086,
                0.09304109215736389,
                0.03905331715941429,
                -0.06509079784154892,
                -0.042679186910390857,
                -0.1152203232049942,
                -0.2882225215435028,
                0.030279824510216714,
                -0.09204313158988953,
                -0.04400695115327835,
                0.19390732049942017,
                -0.0823185071349144,
                -0.07531330734491348,
                -0.22911648452281953,
                0.07472502440214157,
                -0.17010782659053803,
                0.08012586086988449,
                0.06289900839328766,
                -0.013288102112710476,
                -0.12743279337882996,
                0.1239030733704567,
                0.0764641985297203,
                0.030754178762435914,
                -0.013601108454167843,
                -0.18876010179519654,
                0.16328340768814088,
                0.04135352000594139,
                -0.0872577652335167,
                -0.0010631269542500377,
                -0.12635375559329987,
                -0.1133636087179184,
                -0.08493278175592423,
                -0.05434573069214821,
                -0.010031357407569886,
                -0.031616732478141788,
                0.10193508863449097,
                0.09265859425067902,
                0.03674834221601486,
                0.029862280935049058,
                0.0024213865399360658,
                -0.09219088405370712,
                -0.05048002302646637,
                -0.06301125884056092,
                -0.012348460964858532,
                -0.04800410941243172,
                -0.040940456092357638,
                -0.040715623646974567,
                0.07079214602708817,
                0.044311147183179858,
                -0.1341480314731598,
                -0.05236925929784775,
                0.014545287005603314,
                0.0075883083045482639,
                0.10736890137195587,
                0.11593920737504959,
                -0.02077118493616581,
                0.15706971287727357,
                -0.12864257395267487,
                -0.014509630389511586,
                0.08325796574354172,
                0.02065400406718254,
                0.041578277945518497,
                -0.049583662301301959,
                0.0673552006483078,
                0.02709079347550869,
                -0.05464201048016548,
                0.12264981120824814,
                -0.02814093418419361,
                -0.11583879590034485,
                0.09420599788427353,
                -0.16915306448936463,
                0.030141398310661317,
                0.17448733747005464,
                -0.06857839226722717,
                0.19401483237743379,
                0.17382283508777619,
                -0.09022004902362824,
                0.017167137935757638,
                0.025244910269975663,
                -0.055432386696338657,
                0.00855010375380516,
                -0.07905474305152893,
                -0.10842346400022507,
                0.04561947286128998,
                0.07184743881225586,
                0.1299600750207901,
                0.10209866613149643,
                -0.17702017724514008,
                -0.15058325231075288,
                0.10541483014822006,
                0.2164706587791443,
                0.4115561544895172,
                0.08592026680707932,
                -0.1494322568178177,
                -0.07624789327383042,
                -0.08114069700241089,
                0.35444119572639468,
                0.4853488504886627,
                -0.09967470914125443,
                -0.18707945942878724,
                -0.10698976367712021,
                0.04424608126282692,
                0.41415634751319888,
                0.3250023424625397,
                0.030148295685648919,
                0.03082805871963501,
                -0.035651300102472308,
                0.08603424578905106,
                0.07801763713359833,
                0.1432826966047287,
                0.02463478222489357,
                -0.0038604354485869409,
                0.01107272319495678,
                -0.011897934600710869,
                0.03843587264418602,
                0.08144353330135346,
                0.11302311718463898,
                -0.02558671124279499,
                0.055633485317230228,
                0.05632854253053665,
                -0.008259668946266175,
                0.061946332454681399,
                0.0803946852684021,
                0.019127994775772096,
                -0.050222065299749377,
                0.063128262758255,
                0.12683983147144319,
                0.050407133996486667,
                0.0965382382273674,
                0.16029493510723115,
                -0.005825184751302004,
                0.10820124298334122,
                -0.17322590947151185,
                -0.059245891869068149,
                -0.13343138992786408,
                0.15331731736660005,
                0.03262152522802353,
                0.1851874738931656,
                0.03855736553668976,
                -0.194112166762352,
                0.08764822781085968,
                0.10477817058563233,
                -0.07744267582893372,
                -0.07344097644090653,
                -0.2257670760154724,
                -0.19921989738941194,
                0.18132127821445466,
                0.3310498297214508,
                0.08793825656175614,
                0.12500226497650147,
                -0.08281354606151581,
                -0.08030396699905396,
                0.1370474100112915,
                0.17715288698673249,
                0.044325683265924457,
                0.005797552410513163,
                -0.05122024565935135,
                -0.03742485120892525,
                0.01509036310017109,
                0.0995948389172554,
                -0.038301512598991397,
                0.05817364901304245,
                0.01765076257288456,
                -0.06911880522966385,
                -0.1119808703660965,
                0.04851904511451721,
                -0.08637474477291107,
                0.1861228346824646,
                0.2123211771249771,
                -0.1377115249633789,
                -0.026509756222367288,
                -0.10190005600452423,
                -0.10779862850904465,
                0.03559194505214691,
                0.21626266837120057,
                0.018514668568968774,
                -0.11261817812919617,
                -0.0727049931883812,
                -0.037601590156555179,
                0.17356835305690766,
                0.39584991335868838,
                -0.07847169786691666,
                -0.21633495390415193,
                -0.14198608696460725,
                -0.0044738356955349449,
                0.05635896697640419,
                0.16223497688770295,
                -0.3796407878398895,
                -0.032155197113752368,
                -0.06790750473737717,
                -0.030516617000102998,
                0.10729225724935532,
                -0.05423390865325928,
                -0.07029549777507782,
                -0.03815070539712906,
                -0.004236636683344841,
                -0.01633770763874054,
                -0.0667446181178093,
                0.01205451786518097,
                -0.06955897808074951,
                -0.04806879535317421,
                -0.07924684882164002,
                -0.057459354400634769,
                0.07335062325000763,
                -0.10734216868877411,
                -0.09004154801368714,
                0.07810291647911072,
                0.06093991920351982,
                0.09773414582014084,
                -0.060363929718732837,
                -0.2504599988460541,
                -0.025977790355682374,
                -0.016193542629480363,
                -0.12256666272878647,
                0.09692409634590149,
                -0.07044434547424317,
                -0.3564945459365845,
                -0.035553619265556338,
                -0.06945610046386719,
                0.02949049510061741,
                -0.05664777383208275,
                0.014404227957129479,
                -0.530318558216095,
                -0.16224949061870576,
                0.02119087055325508,
                0.020301630720496179,
                -0.14697672426700593,
                -0.2411694973707199,
                -0.6652493476867676,
                0.10332642495632172,
                0.20663867890834809,
                0.20405013859272004,
                0.05801805481314659,
                -0.20501160621643067,
                -0.3801915645599365,
                0.11465247720479965,
                0.028864165768027307,
                -0.008681167848408223,
                0.01290834229439497,
                0.0984196588397026,
                -0.0337982214987278,
                -0.11072788387537003,
                0.04002952203154564,
                0.05063305422663689,
                0.07151774317026138,
                0.009303196333348751,
                -0.05659348517656326,
                0.07196756452322006,
                0.06996925920248032,
                -0.030025674030184747,
                0.06495456397533417,
                0.07120011746883393,
                -0.04050743207335472,
                -0.02426648885011673,
                -0.0026518774684518577,
                0.1257418990135193,
                0.06393278390169144,
                0.1355573982000351,
                -0.01872967928647995,
                -0.13059553503990174,
                -0.09580565989017487,
                -0.029784193262457849,
                -0.25259479880332949,
                -0.036284346133470538,
                -0.07198432087898255,
                0.14301295578479768,
                -0.1332978755235672,
                -0.01078343391418457,
                0.04890534281730652,
                -0.04887736216187477,
                0.028644895181059839,
                -0.16107162833213807,
                -0.15268945693969727,
                -0.12622065842151643,
                -0.07412902265787125,
                0.3462313711643219,
                0.1611967384815216,
                -0.09351255744695664,
                -0.0632919892668724,
                0.09221047163009644,
                0.12101521342992783,
                0.006953751668334007,
                0.07485757023096085,
                0.04183422774076462,
                0.09328626096248627,
                -0.08283890038728714,
                -0.0025864914059638979,
                0.07422228157520294,
                0.02429848536849022,
                -0.029446154832839967,
                0.016843635588884355,
                -0.103009894490242,
                -0.019104834645986558,
                0.10717941075563431,
                0.1271633505821228,
                0.0030627851374447347,
                0.05934172123670578,
                0.018056172877550126,
                -0.07525866478681565,
                0.04182496294379234,
                0.19940972328186036,
                0.07957734912633896,
                0.1545516550540924,
                -0.0018624411895871163,
                0.08451663702726364,
                -0.06806256622076035,
                0.1206536814570427,
                0.030263669788837434,
                -0.08963844925165177,
                -0.019114036113023759,
                0.16221481561660767,
                0.20346878468990327,
                0.040724918246269229,
                -0.13105416297912599,
                0.19009588658809663,
                0.02322167530655861,
                0.10990823805332184,
                0.1524387001991272,
                -0.15972600877285005,
                -0.08513271063566208,
                -0.08961491286754608,
                -0.02238273434340954,
                0.08456357568502426,
                0.09196732193231583,
                -0.0005164480535313487,
                0.16147838532924653,
                0.05823720246553421,
                0.12678182125091554,
                -0.10110760480165482,
                0.06681756675243378,
                0.034304212778806689,
                -0.025386394932866098,
                0.1553758829832077,
                0.016303928568959237,
                -0.08457162231206894,
                -0.1958404779434204,
                0.04782233387231827,
                -0.06925812363624573,
                0.16318227350711823,
                0.09307397902011872,
                -0.04919051751494408,
                0.08946647495031357,
                0.16937227547168733,
                0.08135826140642166,
                0.18147149682044984,
                0.06767799705266953,
                0.001691313344053924,
                -0.05810486897826195,
                0.11876077950000763,
                0.056850507855415347,
                0.09981005638837815,
                0.12220866978168488,
                -0.019196057692170144,
                -0.007266976870596409,
                0.06765668839216232,
                0.036028262227773669,
                0.07967707514762879,
                -0.019154172390699388,
                0.023214876651763917,
                -0.03684988617897034,
                0.13155029714107514,
                0.04651990160346031,
                -0.007968854159116745,
                0.06487522274255753,
                -0.001708952127955854,
                -0.09704327583312988,
                0.008626336231827736,
                0.03581364452838898,
                -0.06790611892938614,
                0.06806489825248718,
                -0.024429980665445329,
                0.01124940812587738,
                -0.06881478428840637,
                -0.054843198508024219,
                0.0049211084842681889,
                0.002946913242340088,
                -0.06142142415046692,
                -0.04245469719171524,
                -0.02292538993060589,
                0.005479475483298302,
                -0.0006655681063421071,
                -0.10382425785064697,
                -0.08724275976419449,
                -0.05763838812708855,
                0.04108457267284393,
                -0.026495400816202165,
                -0.03969424217939377,
                0.027478903532028199,
                0.10212073475122452,
                -0.08569636195898056,
                0.08452407270669937,
                0.08127056062221527,
                0.06046975776553154,
                -0.07015968859195709,
                0.08451750129461289,
                -0.22701942920684815,
                0.1566145122051239,
                -0.09800247848033905,
                0.13236021995544434,
                -0.023199139162898065,
                0.041064780205488208,
                0.09963376820087433,
                -0.07220060378313065,
                -0.07487141340970993,
                -0.06856389343738556,
                0.005474681034684181,
                -0.0969582200050354,
                0.020376672968268396,
                0.05921236053109169,
                0.10263215005397797,
                -0.018589848652482034,
                -0.04475472867488861,
                0.06482624262571335,
                0.04775086045265198,
                0.022198103368282319,
                0.10834784060716629,
                -0.08205574005842209,
                0.06721476465463638,
                0.025225602090358735,
                -0.1335640251636505,
                -0.12569060921669007,
                -0.1149815022945404,
                -0.09432413429021836,
                0.018631525337696077,
                0.01734090968966484,
                -0.13950389623641969,
                -0.2457893192768097,
                -0.14895015954971314,
                -0.03515171259641647,
                -0.03973709046840668,
                0.04526880383491516,
                -0.3331189453601837,
                -0.21780912578105927,
                -0.04200330749154091,
                -0.13553734123706819,
                0.1004769429564476,
                -0.01060787495225668,
                -0.07822515815496445,
                -0.03673779219388962,
                -0.07118246704339981,
                -0.06589903682470322,
                0.06289932876825333,
                -0.12240023910999298,
                0.017811397090554239,
                -0.06331049650907517,
                -0.022153688594698907,
                0.03769256919622421,
                0.08157958090305329,
                0.202715203166008,
                -0.02168715000152588,
                0.04330223426222801,
                0.09110851585865021,
                0.1238887831568718,
                0.0681815966963768,
                -0.032418910413980487,
                -0.03121139109134674,
                -0.06463083624839783,
                -0.019978821277618409,
                -0.0024323388934135439,
                0.04516392573714256,
                -0.08028454333543778,
                -0.12131514400243759,
                0.0357668399810791,
                0.05756097659468651,
                -0.10490002483129502,
                0.09937040507793427,
                0.038339000195264819,
                -0.023788491263985635,
                -0.05651393532752991,
                0.14520010352134705,
                0.08099827170372009,
                0.018897293135523797,
                0.01292338501662016,
                -0.13350242376327516,
                -0.15085361897945405,
                -0.18053342401981355,
                -0.03924654796719551,
                -0.05262477323412895,
                -0.052493151277303699,
                0.21564948558807374,
                -0.11390406638383866,
                -0.23100270330905915,
                0.12163382023572922,
                0.14243435859680177,
                0.06211208924651146,
                -0.08699578046798706,
                -0.11170686036348343,
                -0.14122816920280457,
                -0.07955339550971985,
                0.050625503063201907,
                0.005044752731919289,
                -0.22373780608177186,
                0.06555020064115524,
                -0.03940052166581154,
                -0.12248986214399338,
                -0.0700855553150177,
                0.012027503922581673,
                0.14031067490577699,
                0.0469866506755352,
                0.057608671486377719,
                -0.05819646641612053,
                0.07902760058641434,
                -0.0016639422392472625,
                -0.02140006422996521,
                0.07690315693616867,
                0.1963479220867157,
                -0.04530959576368332,
                0.026775017380714418,
                -0.09346708655357361,
                -0.052563782781362537,
                0.17645300924777986,
                -0.02894333191215992,
                0.08238250017166138,
                -0.034603092819452289,
                -0.04819739982485771,
                0.053573720157146457,
                0.19645601511001588,
                0.08434158563613892,
                0.2692779302597046,
                0.16432242095470429,
                -0.05820160731673241,
                0.06175050511956215,
                0.06826718151569367,
                0.32451000809669497,
                0.14646969735622407,
                0.004816504195332527,
                -0.05408204719424248,
                -0.0036830687895417215,
                0.056796252727508548,
                0.26185938715934756,
                0.07033537328243256,
                0.11891257762908936,
                -0.06902875751256943,
                0.005706376396119595,
                0.09086005389690399,
                -0.08931989967823029,
                -0.007073068059980869,
                -0.06496778130531311,
                -0.04854284226894379,
                0.09732326865196228,
                0.01915164291858673,
                0.07472112774848938,
                0.0731806755065918,
                -0.059928879141807559,
                0.014375920407474041,
                0.014050175435841084,
                0.1306057572364807,
                -0.010080775246024132,
                0.20819523930549622,
                -0.03989047929644585,
                0.09998124837875366,
                0.019562508910894395,
                0.10669389367103577,
                -0.042709238827228549,
                0.027518877759575845,
                -0.009831836447119713,
                0.10836824774742127,
                -0.17016954720020295,
                -0.10539152473211289,
                -0.05845072865486145,
                -0.0644971951842308,
                -0.048035409301519397,
                0.11378241330385208,
                -0.33081308007240298,
                -0.11835289746522904,
                -0.0028573202434927227,
                -0.11317886412143707,
                0.006457740440964699,
                0.2415982186794281,
                -0.09362169355154038,
                0.09284333884716034,
                -0.23807168006896974,
                -0.0009909726213663817,
                0.09736587107181549,
                0.07019218057394028,
                0.01053694449365139,
                -0.0063393572345376019,
                -0.117292121052742,
                0.07143569737672806,
                0.040100596845149997,
                -0.010630743578076363,
                0.07508870214223862,
                0.1264118254184723,
                -0.03184444457292557,
                -0.07629039138555527,
                -0.039154138416051868,
                -0.08310454338788986,
                0.02256760001182556,
                0.045178066939115527,
                -0.01628798432648182,
                -0.015008284710347653,
                -0.07463373988866806,
                0.04351300746202469,
                0.13860274851322175,
                -0.04220033809542656,
                0.08649014681577683,
                -0.08140095323324204,
                0.13808614015579225,
                0.05967608466744423,
                -0.1033804714679718,
                0.14910446107387544,
                0.006046336609870195,
                -0.1702640801668167,
                0.09525434672832489,
                -0.08460275083780289,
                0.20184984803199769,
                -0.0040250797756016258,
                0.03930516913533211,
                0.10104843229055405,
                0.1474199891090393,
                0.06307835131883621,
                -0.014350399374961853,
                -0.03569415584206581,
                -0.04795491322875023,
                -0.0874052494764328,
                -0.03392650559544563,
                0.05041368678212166,
                0.11147045344114304,
                -0.08905281871557236,
                0.03400323912501335,
                0.005088917911052704,
                0.09189771860837937,
                -0.06833556294441223,
                -0.10200569033622742,
                0.03604758903384209,
                -0.05180542171001434,
                -0.08284750580787659,
                -0.011912137269973755,
                -0.10311105102300644,
                0.003642949042841792,
                -0.02509227581322193,
                -0.0160719882696867,
                0.00583276804536581,
                -0.1040172204375267,
                -0.09513365477323532,
                0.015676584094762803,
                -0.0031774926465004684,
                0.07928457856178284,
                -0.07146545499563217,
                -0.025287149474024774,
                -0.05001135915517807,
                0.14219295978546143,
                0.23066869378089906,
                0.11217398941516876,
                0.018206248059868814,
                -0.0076370337046682838,
                -0.1194823756814003,
                0.06460738182067871,
                0.050806764513254169,
                0.10395001620054245,
                -0.026556124910712243,
                -0.13180716335773469,
                0.18172721564769746,
                0.03182080760598183,
                0.233157217502594,
                0.08503152430057526,
                0.12510749697685243,
                0.017499079927802087,
                -0.062088001519441608,
                -0.03533415496349335,
                -0.021316466853022577,
                0.00420273607596755,
                -0.06858237087726593,
                -0.09488925337791443,
                0.07411569356918335,
                0.14277727901935578,
                0.14000600576400758,
                0.015800559893250467,
                -0.005267962347716093,
                0.028598232194781305,
                0.021042300388216974,
                0.0034089540131390096,
                0.013308818452060223,
                -0.18266986310482026,
                -0.04522418603301048,
                -0.07886435091495514,
                -0.2522611916065216,
                -0.06093565747141838,
                0.05281233415007591,
                -0.08522627502679825,
                -0.06322874873876572,
                -0.0873103216290474,
                -0.1716076284646988,
                -0.0611390583217144,
                0.09221182763576508,
                0.003177194856107235,
                -0.10588952898979187,
                0.04774102196097374,
                -0.266387403011322,
                0.09181834012269974,
                -0.08212655037641525,
                -0.0015066413907334209,
                0.0335984006524086,
                -0.050011590123176578,
                -0.084413081407547,
                0.15741859376430512,
                -0.08836568892002106,
                0.09994392842054367,
                -0.09869127720594406,
                -0.1019047275185585,
                0.10611274838447571,
                -0.08661562949419022,
                0.08696578443050385,
                0.03192346915602684,
                0.13202081620693208,
                -0.004095201846212149,
                -0.023556962609291078,
                0.04591064155101776,
                0.07238845527172089,
                -0.07700616121292114,
                -0.09198445081710816,
                0.07992784678936005,
                0.0029022975359112026,
                0.0434662289917469,
                0.02507343515753746,
                0.2003483921289444,
                -0.01007950957864523,
                0.10164283961057663,
                -0.056000445038080218,
                0.014202240854501725,
                -0.08057042956352234,
                0.16191060841083527,
                0.016385531052947046,
                0.09047944843769074,
                -0.29303279519081118,
                0.0730220302939415,
                0.002007376402616501,
                0.09406077861785889,
                0.2113017439842224,
                0.059719353914260867,
                -0.2251683622598648,
                0.17013730108737946,
                0.1470932513475418,
                0.18196189403533936,
                0.3544442057609558,
                0.19385255873203278,
                -0.2650551199913025,
                0.08967836946249008,
                -0.026575006544589998,
                0.18749980628490449,
                0.18074220418930055,
                0.07804035395383835,
                -0.20937718451023103,
                0.21577191352844239,
                0.014946188777685166,
                0.09936343133449555,
                0.04820616915822029,
                0.15028584003448487,
                0.08754490315914154,
                0.07108315825462342,
                -0.06295837461948395,
                -0.09261031448841095,
                -0.013850342482328415,
                0.0358092226088047,
                0.0577852763235569,
                0.12986110150814057,
                -0.02344539575278759,
                0.02606475166976452,
                0.0031317919492721559,
                -0.0822269544005394,
                -0.05385461449623108,
                0.14722567796707154,
                0.025240518152713777,
                -0.12477302551269531,
                -0.14624907076358796,
                -0.057285383343696597,
                0.039181288331747058,
                0.062399692833423617,
                -0.018998367711901666,
                -0.20902810990810395,
                -0.17983730137348176,
                -0.053719181567430499,
                0.1599506437778473,
                0.0027717072516679765,
                0.10840059071779251,
                -0.03605126217007637,
                -0.02986549399793148,
                -0.11765209585428238,
                0.050615545362234119,
                0.1373816281557083,
                0.10281261056661606,
                -0.030089320614933969,
                -0.19152218103408814,
                -0.02980881556868553,
                0.0890309140086174,
                0.06288310140371323,
                -0.0484306737780571,
                0.11441785097122193,
                -0.07629051804542542,
                -0.12622790038585664,
                -0.0992736965417862,
                0.1050979495048523,
                -0.09587304294109345,
                -0.10862281918525696,
                0.07451476156711579,
                0.0677831619977951,
                0.06417640298604965,
                0.06006927788257599,
                -0.003305678255856037,
                0.001547632971778512,
                -0.01766107603907585,
                0.07107587158679962,
                0.06995944678783417,
                -0.0008556788670830429,
                -0.05762980133295059,
                -0.0673612579703331,
                -0.0490996278822422,
                -0.07203399389982224,
                0.05202820897102356,
                0.06729734688997269,
                -0.12251633405685425,
                -0.05831608548760414,
                -0.048980217427015308,
                0.08819934725761414,
                0.21884559094905854,
                0.10143902152776718,
                -0.11760726571083069,
                -0.018277408555150033,
                -0.1490744799375534,
                0.05710981786251068,
                0.20339490473270417,
                0.08853095769882202,
                -0.15225836634635926,
                -0.1379440277814865,
                0.006266274955123663,
                -0.09918596595525742,
                0.06385619193315506,
                -0.06570043414831162,
                0.006586004514247179,
                -0.050947584211826327,
                -0.02645665965974331,
                -0.05701889097690582,
                0.07881581038236618,
                0.00315036135725677,
                -0.01490587368607521,
                0.05716804787516594,
                0.09810628741979599,
                -0.026959165930747987,
                0.11150255054235459,
                -0.07990842312574387,
                -0.06970179080963135,
                -0.1428384780883789,
                0.10285709798336029,
                0.0037877545692026617,
                0.03271527215838432,
                -0.06519648432731629,
                -0.014184849336743355,
                0.006199801806360483,
                0.09953005611896515,
                -0.060935892164707187,
                -0.07953856885433197,
                -0.18351569771766663,
                -0.15688207745552064,
                0.0414905846118927,
                0.18619009852409364,
                0.05082955211400986,
                -0.017584998160600663,
                -0.12555944919586183,
                -0.1974831521511078,
                -0.0681491270661354,
                -0.010553691536188126,
                0.019248368218541147,
                0.07173161208629608,
                -0.06799303740262985,
                -0.037109848111867908,
                -0.01760275661945343,
                0.07807102054357529,
                0.07376160472631455,
                0.12065176665782929,
                0.007652877364307642,
                0.04888918623328209,
                -0.03106735646724701,
                0.056069523096084598,
                -0.0029140061233192684,
                -0.041178032755851749,
                0.06267599016427994,
                0.08282060921192169,
                -0.03257390484213829,
                0.0023360103368759157,
                -0.031244996935129167,
                0.06580902636051178,
                -0.09780029952526093,
                0.03649976849555969,
                -0.056366220116615298,
                -0.020386483520269395,
                0.024510838091373445,
                -0.03938772901892662,
                0.02439088746905327,
                -0.004982517566531897,
                0.19849416613578797,
                -0.09470802545547486,
                -0.051881205290555957,
                -0.019390296190977098,
                0.09145256131887436,
                0.10051196068525315,
                0.0029625811148434879,
                0.03614092245697975,
                -0.030416501685976983,
                -0.08420304954051972,
                0.06979950517416,
                0.10361170768737793,
                0.17204630374908448,
                -0.04051121324300766,
                0.11253061145544052,
                -0.015654006972908975,
                0.06827737390995026,
                0.18664519488811494,
                0.08601119369268418,
                0.02548380382359028,
                0.09994395077228546,
                -0.03407065197825432,
                -0.09198059886693955,
                0.11070927232503891,
                0.03287999704480171,
                0.06002497673034668,
                -0.09645174443721771,
                -0.039587315171957019,
                -0.10859093815088272,
                -0.0027432728093117477,
                -0.000039981001464184374,
                -0.0910504087805748,
                0.05243229120969772,
                -0.05316338315606117,
                0.11902058869600296,
                -0.1021885797381401,
                -0.1436750739812851,
                0.000575160258449614,
                -0.06717244535684586,
                -0.1138768270611763,
                0.10755740106105805,
                -0.022971877828240396,
                0.025008345022797586,
                0.04045777767896652,
                -0.05626258999109268,
                0.12121684849262238,
                -0.09810546040534973,
                -0.21195557713508607,
                -0.0986441969871521,
                0.10782382637262345,
                -0.14118322730064393,
                0.04315674677491188,
                0.018489744514226915,
                0.035620395094156268,
                -0.011273384094238282,
                0.1113937571644783,
                -0.04796462506055832,
                0.043875910341739658,
                0.10059955716133118,
                0.14522868394851685,
                -0.045586369931697848,
                -0.1414155811071396,
                -0.09783444553613663,
                0.0964466854929924,
                -0.030468158423900605,
                -0.10888314247131348,
                0.030040955170989038,
                0.016016162931919099,
                -0.0788227766752243,
                -0.0029206648468971254,
                0.08465816080570221,
                0.06503503024578095,
                -0.02021661400794983,
                0.06809990108013153,
                -0.007578112185001373,
                -0.03441784158349037,
                -0.019756585359573365,
                0.1339540034532547,
                0.051886022090911868,
                -0.10161207616329193,
                0.0700032189488411,
                -0.056921400129795077,
                -0.03395863249897957,
                -0.14749139547348023,
                0.014060715213418007,
                -0.10303232818841934,
                0.11856468766927719,
                0.016102323308587076,
                -0.1268543303012848,
                -0.14745377004146577,
                -0.02709832601249218,
                -0.10671000182628632,
                0.050764378160238269,
                -0.11299210786819458,
                0.03646387159824371,
                -0.14115427434444428,
                -0.19727490842342378,
                -0.05973779037594795,
                0.1793183833360672,
                -0.024296065792441369,
                -0.16833296418190003,
                -0.06274878233671189,
                -0.13911449909210206,
                0.10079068690538407,
                0.10173415392637253,
                0.03490347042679787,
                0.049935366958379748,
                -0.13430991768836976,
                -0.02773033268749714,
                0.12660349905490876,
                0.05490049347281456,
                -0.016196852549910547,
                0.11010502278804779,
                -0.09580260515213013,
                0.10011909902095795,
                -0.037429213523864749,
                0.12274448573589325,
                0.092971071600914,
                0.034765344113111499,
                -0.054241571575403216,
                0.12396066635847092,
                0.005581520963460207,
                -0.015474598854780198,
                0.17842376232147218,
                0.026285851374268533,
                0.12918682396411897,
                -0.14822474122047425,
                0.15318159759044648,
                -0.026582876220345498,
                0.12584973871707917,
                -0.051889751106500629,
                0.09921310842037201,
                -0.11659230291843414,
                0.11429838091135025,
                -0.06872987002134323,
                0.07167486846446991,
                0.07888644188642502,
                -0.0994514673948288,
                0.04374710097908974,
                -0.12664812803268434,
                0.014192907139658928,
                0.10829347372055054,
                0.06783472746610642,
                -0.041788987815380099,
                0.1566651165485382,
                -0.12909826636314393,
                0.0679335817694664,
                -0.0010637089144438506,
                -0.08287153393030167,
                0.05530976876616478,
                -0.1029377281665802,
                -0.07602658867835999,
                -0.09640190005302429,
                -0.003192298114299774,
                -0.0073139965534210209,
                -0.10413457453250885,
                0.030439343303442,
                -0.03787274286150932,
                -0.004617579281330109,
                0.04335961863398552,
                0.06729695200920105,
                0.11637329310178757,
                0.027876654639840127,
                -0.026553260162472726,
                0.03748084977269173,
                0.13314177095890046,
                -0.1125994622707367,
                -0.016890186816453935,
                -0.08121638745069504,
                -0.018413037061691285,
                -0.09280646592378617,
                -0.0009296674397774041,
                0.08269276469945908,
                -0.05457101762294769,
                0.0001740030274959281,
                -0.057266365736722949,
                -0.0030845005530864,
                -0.011080993339419365,
                0.008626534603536129,
                -0.18733367323875428,
                -0.15840303897857667,
                -0.13695010542869569,
                0.09937585890293122,
                0.019222460687160493,
                0.04100260138511658,
                0.16438260674476624,
                -0.09905260056257248,
                -0.006584047805517912,
                -0.05226557329297066,
                0.2535187900066376,
                -0.023487692698836328,
                0.03259548172354698,
                -0.08521826565265656,
                0.11861681938171387,
                0.004713329020887613,
                -0.30664506554603579,
                0.1971721202135086,
                -0.0027746758423745634,
                0.08076762408018112,
                -0.048054758459329608,
                -0.10142381489276886,
                -0.24258214235305787,
                0.2555781602859497,
                -0.052663180977106097,
                0.26999273896217348,
                -0.0553596094250679,
                0.007268018089234829,
                -0.32413312792778017,
                0.06345959007740021,
                0.18226473033428193,
                0.10288357734680176,
                0.05687510594725609,
                -0.011499558575451374,
                -0.37370243668556216,
                -0.16688287258148194,
                0.3411455750465393,
                0.11732888221740723,
                0.18416929244995118,
                -0.27839529514312746,
                -0.2904583215713501,
                0.1381492167711258,
                0.09251058846712113,
                0.14097635447978974,
                0.03711123391985893,
                -0.048528414219617847,
                -0.23490165174007417,
                0.13592290878295899,
                -0.009261667728424073,
                0.24764887988567353,
                -0.05171589180827141,
                0.05489620566368103,
                -0.017445120960474016,
                -0.05327397957444191,
                -0.10913478583097458,
                0.08669398725032807,
                -0.04333614557981491,
                -0.044451210647821429,
                0.06512147933244705,
                0.10252843797206879,
                0.09353660047054291,
                0.05466200411319733,
                0.03713906556367874,
                0.08835351467132569,
                -0.251579612493515,
                0.055655382573604587,
                0.07069247215986252,
                -0.010617217980325222,
                0.0439460352063179,
                -0.052734993398189548,
                -0.1759183257818222,
                0.06727858632802963,
                0.2314177304506302,
                0.08286828547716141,
                0.3294961750507355,
                -0.054753560572862628,
                -0.3907107710838318,
                0.1155690923333168,
                0.01438530907034874,
                0.19684220850467683,
                0.07606963068246842,
                0.007630086503922939,
                -0.5176366567611694,
                0.15796643495559693,
                0.0023073528427630665,
                0.3843688368797302,
                -0.02621193416416645,
                0.1199149489402771,
                -0.30471673607826235,
                0.11316536366939545,
                0.15675437450408936,
                0.08485297858715058,
                0.12625110149383546,
                -0.03813403844833374,
                -0.1823732852935791,
                0.027745194733142854,
                0.2761174440383911,
                0.04311004653573036,
                0.2692347764968872,
                -0.05575529485940933
            ],
            "WeightsRows": 20,
            "WeightsCols": 84,
            "Biases": [
                -0.060314077883958819,
                0.17577150464057923,
                -0.49039891362190249,
                -0.27726614475250246,
                0.5387057065963745,
                -0.2739505469799042,
                0.47154852747917178,
                -0.5293974280357361,
                0.02558901160955429,
                -0.07201234251260758,
                -0.4137560725212097,
                0.5009477138519287,
                -0.5754691958427429,
                -0.25963330268859866,
                -0.4932801127433777,
                0.464642196893692,
                -0.24670568108558656,
                0.29334381222724917,
                0.46380022168159487,
                -1.2921990156173707
            ]
        },
        {
            "Weights": [
                0.27983739972114565,
                0.1620837301015854,
                -0.5710986852645874,
                0.26896214485168459,
                0.017065217718482019,
                -0.013202539645135403,
                0.21763934195041657,
                -0.3354063928127289,
                0.1910543590784073,
                0.08419378101825714,
                -0.4910535514354706,
                0.33294492959976199,
                -0.4877658188343048,
                -0.3275168538093567,
                0.18033109605312348,
                0.3004082143306732,
                -0.3081979751586914,
                0.24951688945293427,
                0.2721883952617645,
                -0.3818782567977905,
                0.09525959938764572,
                -0.19529099762439729,
                -0.17441460490226746,
                0.1137663945555687,
                -0.07303418219089508,
                0.08403921127319336,
                -0.0006377576501108706,
                0.01568448171019554,
                0.0587216280400753,
                0.2937755584716797,
                -0.10614410787820816,
                0.20032815635204316,
                -0.1599806249141693,
                -0.08102437108755112,
                -0.18581382930278779,
                0.27406567335128786,
                -0.003706579562276602,
                0.23889705538749696,
                0.20421162247657777,
                -0.014112931676208973,
                0.051432669162750247,
                0.2567659318447113,
                0.22730712592601777,
                0.38411858677864077,
                -0.4096733629703522,
                0.22646623849868775,
                -0.2623353898525238,
                0.4812489449977875,
                -0.3319253921508789,
                0.03900621458888054,
                0.35402923822402956,
                -0.10418364405632019,
                0.10441412031650543,
                0.18536876142024995,
                0.3600078225135803,
                -0.3086731731891632,
                0.20693428814411164,
                -0.4113509953022003,
                -0.06163340061903,
                0.6573188900947571,
                0.2580929398536682,
                -0.0421915203332901,
                -0.04937034472823143,
                -0.03835200518369675,
                -0.07785918563604355,
                0.2518245279788971,
                -0.2079729586839676,
                0.29557928442955019,
                -0.11730626970529556,
                0.26073533296585085,
                0.023026006296277047,
                -0.05862068757414818,
                0.13992668688297273,
                -0.0630497932434082,
                0.31593477725982668,
                -0.1932283639907837,
                0.1512347310781479,
                0.11756494641304016,
                -0.0709574893116951,
                0.19455356895923615,
                -0.22585827112197877,
                0.27703118324279787,
                0.10505620390176773,
                -0.15133404731750489,
                0.14547353982925416,
                -0.18719325959682465,
                0.03405814990401268,
                0.1200857162475586,
                0.3034918010234833,
                0.058049168437719348,
                -0.12744368612766267,
                -0.01674591563642025,
                0.1349358707666397,
                0.1650903820991516,
                -0.3417585492134094,
                0.08005394786596298,
                -0.2905306816101074,
                0.1093960627913475,
                0.013321073725819588,
                -0.4194943606853485,
                -0.07994318008422852,
                -0.2263331562280655,
                -0.09144027531147003,
                0.1988072544336319,
                -0.2989114820957184,
                -0.024638688191771508,
                0.046763498336076739,
                0.030262639746069909,
                -0.16450966894626618,
                0.03330373391509056,
                -0.07609349489212036,
                -0.29305028915405276,
                0.03158610686659813,
                0.26476043462753298,
                0.13014796376228333,
                0.08600053936243057,
                0.2539507746696472,
                -0.08398140966892243,
                -0.10391602665185929,
                0.7006393074989319,
                0.1974402517080307,
                -0.07495345920324326,
                -0.15322408080101014,
                0.17765052616596223,
                0.06736291199922562,
                -0.23715491592884065,
                -0.06112661212682724,
                0.1578158140182495,
                -0.10453224182128906,
                -0.24424999952316285,
                0.019795045256614686,
                -0.09626419842243195,
                -0.12870731949806214,
                0.1514904648065567,
                -0.007176585029810667,
                0.1780063509941101,
                -0.03407001495361328,
                -0.21969959139823914,
                0.05487162247300148,
                -0.15434511005878449,
                0.030391903594136239,
                -0.2183018922805786,
                -0.07735651731491089,
                0.19104067981243134,
                -0.24756136536598206,
                -0.04496754705905914,
                0.04048214852809906,
                0.012846442870795727,
                -0.28718653321266177,
                -0.1050674095749855,
                -0.08389460295438767,
                -0.07775983214378357,
                -0.03763425350189209,
                -0.05168120563030243,
                0.34677866101264956,
                -0.27723610401153567,
                0.33528169989585879,
                0.0027202253695577385,
                0.010430388152599335,
                0.1273946464061737,
                0.23512068390846253,
                0.031140590086579324,
                -0.12368999421596527,
                -0.24564586579799653,
                0.30067911744117739,
                -0.08387662470340729,
                0.20349882543087007,
                -0.633772075176239,
                0.28846055269241335,
                -0.2610010504722595,
                -0.12281850725412369,
                0.6240655183792114,
                0.13922496140003205,
                -0.2568904459476471,
                -0.4763118028640747,
                0.1940159797668457,
                0.14181526005268098,
                0.2642155885696411,
                0.3326772153377533,
                -0.9968088269233704,
                0.09725427627563477,
                -0.009282505139708519,
                0.1419477015733719,
                0.0030474388040602209,
                -0.05620897561311722,
                0.03054395690560341,
                -0.28309065103530886,
                0.08446531742811203,
                0.42123135924339297,
                -0.1646455079317093,
                0.017461424693465234,
                -0.27846524119377139,
                0.25248774886131289,
                0.1910511702299118,
                0.013996562920510769,
                -0.002683267230167985,
                -0.1499180644750595,
                -0.2119802087545395,
                -0.24740161001682282,
                0.18671785295009614,
                0.06737787276506424,
                0.12993302941322328,
                0.08733133971691132,
                -0.1796111911535263,
                0.16474100947380067,
                0.17775782942771913,
                -0.11452145129442215,
                0.06665296107530594,
                0.008356115780770779,
                -0.118315689265728,
                0.06524240225553513,
                0.07158702611923218,
                0.017593011260032655,
                -0.2235567718744278,
                0.024699266999959947,
                0.1235969066619873,
                -0.14318794012069703,
                0.21536993980407716,
                0.09209270030260086,
                -0.14900335669517518,
                -0.22100426256656648,
                0.003514973446726799,
                -0.11681712418794632,
                -0.0931665301322937,
                -0.07857564091682434,
                -0.06238442659378052,
                0.223227858543396,
                -0.02299746684730053,
                0.1043749675154686,
                0.03714878484606743,
                0.12139364331960678,
                0.021925566717982293,
                -0.15844351053237916,
                -0.1355724036693573,
                0.07655070722103119,
                0.05570570379495621,
                0.21417537331581117,
                -0.16397763788700105,
                0.08031510561704636,
                -0.009913325309753418,
                0.06092354282736778,
                0.035105518996715549,
                -0.01436274778097868,
                -0.0018344816053286195,
                -0.11992186307907105,
                -0.11168146878480911,
                0.20403344929218293,
                -0.23214805126190186,
                -0.10237950831651688,
                -0.2120824009180069,
                0.10767719894647598,
                -0.10884338617324829,
                -0.009051627479493618,
                -0.01922556944191456,
                0.055871739983558658,
                -0.18628880381584168,
                0.046451058238744739,
                0.21727268397808076,
                -0.20737911760807038,
                0.12869037687778474,
                0.25186485052108767,
                -0.1124739795923233,
                0.2608075439929962,
                -0.003255529562011361,
                -0.09221046417951584,
                0.33865997195243838,
                -0.05029895156621933,
                0.09523153305053711,
                0.057041484862565997,
                0.026107752695679666,
                0.23020869493484498,
                0.07892610132694245,
                0.1248449981212616,
                -0.13789886236190797,
                0.3172608017921448,
                0.04356129840016365,
                0.10262521356344223,
                -0.06058308854699135,
                -0.2391824722290039,
                0.1807212084531784,
                -0.11113589257001877,
                -0.012802887707948685,
                0.04269551485776901,
                -0.07987911999225617,
                -0.08974659442901612,
                0.13311810791492463,
                -0.20081883668899537,
                0.1623302549123764,
                0.3138235807418823,
                0.04680880159139633,
                -0.06647434830665589,
                -0.3175254464149475,
                0.09867793321609497,
                -0.16205918788909913,
                0.14953777194023133,
                -0.201634019613266,
                -0.15531446039676667,
                -0.14537501335144044,
                -0.005771848373115063,
                0.21744710206985475,
                0.06566979736089707,
                0.097175732254982,
                0.13310103118419648,
                -0.013913802802562714,
                -0.2481427788734436,
                0.2149701863527298,
                0.02128949947655201,
                0.11768516153097153,
                0.07693099975585938,
                0.21147818863391877,
                0.30901333689689639,
                -0.10822880268096924,
                -0.07390416413545609,
                0.2782997786998749,
                0.38878709077835085,
                -0.24681642651557923,
                -0.06094372272491455,
                0.07002563029527664,
                -0.35901743173599245,
                0.38018566370010378,
                0.18679668009281159,
                0.150801420211792,
                -0.05351831763982773,
                0.010630305856466294,
                -0.08341693878173828,
                0.014269163832068444,
                0.1631246656179428,
                0.04057423397898674,
                0.0716416984796524,
                0.03458360582590103,
                -0.221665620803833,
                0.27287763357162478,
                -0.10627316683530808,
                0.2314608097076416,
                -0.04738103598356247,
                -0.11468987911939621,
                0.18291278183460236,
                0.013629746623337269,
                -0.18865899741649629,
                0.036837175488471988,
                -0.19924013316631318,
                0.22336363792419434,
                -0.12928493320941926,
                -0.342084139585495,
                -0.09589828550815582,
                -0.1376478672027588,
                0.011173711158335209,
                0.3334256410598755,
                0.26598984003067019,
                -0.03995336592197418,
                -0.01818353869020939,
                -0.2730776369571686,
                0.1724868267774582,
                -0.015727370977401735,
                -0.1985865980386734,
                -0.009296298027038575,
                -0.14339999854564668,
                -0.07988817244768143,
                0.006710449233651161,
                0.3935645818710327,
                -0.010376948863267899,
                0.25027531385421755,
                -0.18588221073150636,
                -0.10519753396511078,
                0.18436294794082642,
                -0.21270300447940827,
                -0.1452501118183136,
                0.1805906593799591,
                0.2725760042667389,
                0.03905181214213371,
                -0.008006562478840351,
                0.14534543454647065,
                -0.07656315714120865,
                0.005093132145702839,
                0.00714440643787384,
                -0.007726843468844891,
                0.024051224812865258,
                0.16278038918972016,
                0.2232692986726761,
                -0.18059581518173219,
                -0.05082235485315323,
                0.19749408960342408,
                0.04703335464000702,
                -0.17748874425888062,
                0.04302807152271271,
                -0.0952407494187355,
                0.062030814588069919,
                0.12390430271625519,
                -0.008817721158266068,
                0.04372749105095863,
                0.16752178966999055,
                0.011705121956765652,
                0.1801258772611618,
                -0.1937575340270996,
                0.02678035944700241,
                0.029016416519880296,
                0.047031622380018237,
                -0.05689592659473419,
                0.21974234282970429,
                0.186421737074852
            ],
            "WeightsRows": 20,
            "WeightsCols": 20,
            "Biases": [
                0.5591437816619873,
                0.15825122594833375,
                -0.2902544140815735,
                -0.13802938163280488,
                0.10345318913459778,
                -0.17460744082927705,
                0.029409997165203096,
                -0.15432704985141755,
                0.48424607515335085,
                -0.1745545119047165,
                0.08447001874446869,
                0.026311343535780908,
                0.009524847380816937,
                -0.013451897539198399,
                -0.12170644849538803,
                -0.1860852688550949,
                -0.08606410026550293,
                -0.0649343729019165,
                0.07888330519199372,
                -0.013857982121407986
            ]
        },
        {
            "Weights": [
                -0.771079421043396,
                -0.20689360797405244,
                -0.6116579174995422,
                0.50244140625,
                0.242841899394989,
                -0.7552980184555054,
                -0.0388464629650116,
                0.07231486588716507,
                1.1244882345199586,
                0.5629472136497498,
                0.47535276412963869,
                -0.05678477883338928,
                -0.013468713499605656,
                0.5499523282051086,
                0.5573429465293884,
                -0.42925968766212466,
                0.006566290277987719,
                0.3927304148674011,
                0.41975051164627077,
                0.04352360591292381,
                -0.2593595087528229,
                -0.028224768117070199,
                0.9154616594314575,
                -0.4209428131580353,
                0.41465118527412417,
                0.4821197986602783,
                0.29080498218536379,
                -0.2834184467792511,
                -1.3617560863494874,
                -0.348080039024353,
                -0.24730482697486878,
                0.12838974595069886,
                -0.006848461460322142,
                -0.5151556730270386,
                -0.3556177020072937,
                0.27175086736679079,
                -0.0657881423830986,
                0.2934415936470032,
                0.001976216211915016,
                -0.02782730758190155,
                0.8141763210296631,
                0.3401426672935486,
                -0.5183833837509155,
                0.19054435193538667,
                -0.5346240997314453,
                0.5276943445205689,
                0.04493878781795502,
                0.5100269913673401,
                0.3335222899913788,
                -0.18209591507911683,
                -0.38757994771003725,
                0.3220362663269043,
                0.06492212414741516,
                0.1303192526102066,
                -0.4185813069343567,
                0.2121632695198059,
                0.14708112180233003,
                -0.5139945149421692,
                -0.4851328730583191,
                -0.17278170585632325
            ],
            "WeightsRows": 3,
            "WeightsCols": 20,
            "Biases": [
                -0.1895485520362854,
                0.35722610354423525,
                -0.1676391065120697
            ]
        }
    ]
}