{
    "Layers": [
        {
            "Weights": [
                0.07145890593528748,
                0.12008851766586304,
                0.12528255581855775,
                0.03505329787731171,
                0.056179456412792209,
                -0.10618119686841965,
                -0.046110849827528,
                0.03911037743091583,
                -0.07775768637657166,
                0.049499765038490298,
                0.008037769235670567,
                -0.06373137980699539,
                -0.019960978999733926,
                0.0060410709120333199,
                -0.006151871755719185,
                0.062282249331474307,
                -0.05388950929045677,
                0.004155963659286499,
                -0.08823500573635102,
                -0.03687229007482529,
                -0.009664881974458695,
                -0.08021537959575653,
                -0.09345535188913346,
                -0.09639429301023483,
                -0.041236761957407,
                0.08063049614429474,
                -0.04454772546887398,
                -0.07397565990686417,
                -0.06044357642531395,
                -0.08688587695360184,
                0.005742477718740702,
                -0.010936746373772622,
                -0.10739456117153168,
                -0.12194735556840897,
                -0.0019484797958284617,
                -0.06488201022148133,
                -0.06442807614803314,
                0.05871559679508209,
                0.047013700008392337,
                0.03934353217482567,
                0.016907602548599244,
                0.021889081224799157,
                0.07351812720298767,
                0.01411062479019165,
                0.0032836049795150759,
                0.04442950710654259,
                -0.008602917194366455,
                -0.05481593310832977,
                -0.10388317704200745,
                0.050370968878269199,
                0.02368965744972229,
                0.01277962513267994,
                0.015045556239783764,
                0.08241698145866394,
                0.019924430176615716,
                0.04730258136987686,
                0.07333441823720932,
                -0.03628619387745857,
                0.08649200946092606,
                0.02485647238790989,
                -0.08803685009479523,
                -0.008508004248142243,
                -0.050310168415308,
                -0.008750653825700283,
                -0.020084360614418985,
                -0.07199055701494217,
                -0.09788405150175095,
                -0.12430509179830551,
                -0.08704856783151627,
                -0.0769796371459961,
                0.033987972885370257,
                -0.06605764478445053,
                -0.04671855643391609,
                -0.0655699372291565,
                -0.008736027404665947,
                -0.08072018623352051,
                0.07379923015832901,
                -0.10472376644611359,
                -0.03686484694480896,
                -0.03061537630856037,
                0.047849804162979129,
                0.004809766076505184,
                0.016768941655755044,
                0.042726967483758929,
                -0.08608821779489517,
                0.012888197787106038,
                0.031309716403484347,
                0.10691435635089874,
                -0.04063175991177559,
                0.00003281504905316979,
                -0.04687589034438133,
                0.010462295264005661,
                -0.006456853821873665,
                0.03258759155869484,
                0.08342016488313675,
                -0.051427144557237628,
                0.04904427379369736,
                -0.09301440417766571,
                0.05993746966123581,
                0.05396832898259163,
                0.0018954152474179865,
                0.03311263024806976,
                0.07371407002210617,
                0.10361705720424652,
                -0.04189534857869148,
                -0.031201867386698724,
                0.0063264076597988609,
                0.0720008909702301,
                -0.04699231684207916,
                -0.0001078586356015876,
                0.00016834041161928326,
                0.0765327662229538,
                0.10914907604455948,
                0.0018598458264023066,
                -0.13548605144023896,
                0.08378507196903229,
                0.0317160040140152,
                -0.07978256046772003,
                0.04321962222456932,
                -0.0809345692396164,
                -0.04991381615400314,
                -0.041782088577747348,
                -0.01666809618473053,
                0.019305339083075525,
                0.019777292385697366,
                -0.010382121428847313,
                -0.07379339635372162,
                -0.05003295838832855,
                -0.09764492511749268,
                -0.06962081789970398,
                0.004752017557621002,
                0.06876931339502335,
                -0.06518515199422836,
                0.07300542294979096,
                -0.025079015642404558,
                0.04607930779457092,
                -0.05928156524896622,
                0.03892561420798302,
                -0.006606011651456356,
                -0.0466792993247509,
                -0.02191338688135147,
                0.08405712991952896,
                -0.008833571337163449,
                -0.027386043220758439,
                -0.03644350543618202,
                -0.0609627328813076,
                -0.0120735177770257,
                -0.05585893988609314,
                0.06906930357217789,
                -0.07070808857679367,
                0.02184286341071129,
                -0.08580178767442703,
                0.0021094540134072305,
                -0.023782236501574518,
                -0.0040859947912395,
                -0.05279415100812912,
                -0.07330640405416489,
                0.042312100529670718,
                0.11082957684993744,
                0.044396668672561648,
                -0.06625151634216309,
                -0.07208166271448136,
                -0.12193910777568817,
                -0.1113974004983902,
                0.029972730204463006,
                0.13220031559467317,
                -0.08912594616413117,
                0.012360327877104283,
                0.009691066108644009,
                -0.1355450600385666,
                -0.06140755116939545,
                -0.07350229471921921,
                -0.09049715101718903,
                0.03928173705935478,
                0.011364229954779148,
                -0.054373715072870257,
                0.057885441929101947,
                0.08794303983449936,
                -0.012359287589788437,
                -0.002551997546106577,
                0.07751670479774475,
                -0.04269879311323166,
                -0.06807738542556763,
                0.0954817458987236,
                -0.03503864258527756,
                0.1140468418598175,
                0.08534843474626541,
                -0.03258668631315231,
                0.10668690502643585,
                0.09094998985528946,
                0.1126716360449791,
                0.03793945163488388,
                0.031609855592250827,
                -0.11436496675014496,
                0.12269122153520584,
                -0.02998337708413601,
                0.024391639977693559,
                0.010594554245471955,
                -0.020317330956459047,
                -0.06596773117780686,
                0.15460358560085298,
                0.138653963804245,
                0.03484734147787094,
                0.003981118556112051,
                -0.06653337180614472,
                -0.07265670597553253,
                0.07367240637540817,
                0.06823469698429108,
                -0.11777080595493317,
                -0.0594874732196331,
                0.051860079169273379,
                -0.05438755452632904,
                -0.10467380285263062,
                -0.06172644719481468,
                0.07416737079620362,
                -0.10760326683521271,
                -0.0005316715105436742,
                -0.04240621253848076,
                0.11401663720607758,
                -0.0030514474492520096,
                -0.046430762857198718,
                0.09169035404920578,
                0.07306618243455887,
                0.06432486325502396,
                -0.001045293640345335,
                0.026331495493650438,
                0.0026841326616704466,
                0.08905324339866638,
                0.07701718807220459,
                -0.033114753663539889,
                0.050440531224012378,
                -0.02923504449427128,
                -0.061622992157936099,
                0.06208619475364685,
                0.016640201210975648,
                0.037155888974666598,
                0.00034628677531145513,
                -0.03233198821544647,
                -0.050317034125328067,
                -0.03525833040475845,
                -0.02765802852809429,
                -0.12003854662179947,
                0.012066157534718514,
                0.000989233492873609,
                0.03636157140135765,
                0.0664840042591095,
                0.06630117446184159,
                -0.07056007534265518,
                -0.013297044672071934,
                -0.0032153138890862467,
                -0.027436265721917154,
                0.07017428427934647,
                -0.12808988988399507,
                0.06819135695695877,
                -0.1693417876958847,
                0.06740929186344147,
                -0.05469382926821709,
                -0.02922052890062332,
                -0.114603191614151,
                -0.04746802896261215,
                -0.0760044977068901,
                0.06055779755115509,
                -0.012797610834240914,
                0.052926335483789447,
                0.06360618025064469,
                -0.027645403519272805,
                0.0022519987542182209,
                -0.10046219825744629,
                0.08430837094783783,
                0.035889364778995517,
                -0.09206169098615647,
                -0.031208982691168786,
                -0.13563479483127595,
                -0.10220098495483399,
                -0.05156319960951805,
                0.16733255982398988,
                -0.08807835727930069,
                -0.02519455924630165,
                -0.14298835396766663,
                0.06201150268316269,
                0.020981213077902795,
                0.0032401029020547868,
                0.05434824153780937,
                -0.056778114289045337,
                -0.04451049864292145,
                -0.09207716584205628,
                0.011327472515404225,
                0.008575424551963807,
                -0.011578631587326527,
                0.03286514803767204,
                0.034918032586574557,
                -0.038400791585445407,
                0.06807083636522293,
                0.05838271602988243,
                0.06868889927864075,
                -0.05004151165485382,
                0.05862189829349518,
                0.036694806069135669,
                -0.05634951591491699,
                0.08478793501853943,
                -0.010998422279953957,
                -0.04057125002145767,
                -0.029151245951652528,
                -0.11945049464702606,
                -0.04237431660294533,
                0.0472194105386734,
                -0.02845378778874874,
                0.022408073768019677,
                -0.04641902074217796,
                0.02631993032991886,
                0.10618571192026138,
                0.030962659046053888,
                -0.10814175754785538,
                0.10971023142337799,
                0.0791422501206398,
                0.10913082957267761,
                -0.013449766673147679,
                -0.0057877590879797939,
                -0.08052067458629608,
                -0.03925655037164688,
                0.12905658781528474,
                0.20044495165348054,
                0.10629139095544815,
                0.10291876643896103,
                -0.00586184486746788,
                0.028216101229190828,
                0.11234266310930252,
                0.1175488531589508,
                0.0395844429731369,
                0.12860023975372315,
                -0.05070381611585617,
                -0.008756235241889954,
                0.0740903690457344,
                0.021730726584792138,
                0.021547002717852594,
                0.05356894060969353,
                0.007924092933535576,
                0.012798863463103772,
                -0.04830152541399002,
                0.08447009325027466,
                -0.0982869490981102,
                -0.005722718313336372,
                0.05406862869858742,
                -0.07477056235074997,
                0.006092509720474482,
                0.012890314683318138,
                0.07725195586681366,
                -0.02527243085205555,
                0.019165299832820894,
                -0.07658497989177704,
                0.032312843948602679,
                0.04084785655140877,
                0.017619924619793893,
                -0.0339793786406517,
                -0.04045189917087555,
                -0.05299627035856247,
                0.1718999445438385,
                0.007063328754156828,
                -0.01625782810151577,
                -0.06781569868326187,
                -0.0025323028676211836,
                0.09750665724277497,
                0.0030568719375878574,
                -0.08204381167888642,
                0.09820584207773209,
                -0.07685539126396179,
                0.06986858695745468,
                -0.03985106945037842,
                0.11104878783226013,
                0.10514970868825913,
                -0.03262980282306671,
                -0.0854063332080841,
                0.03975231572985649,
                -0.10759217292070389,
                0.033332884311676028,
                0.008776899427175522,
                0.007542041130363941,
                0.05007297173142433,
                -0.06529577076435089,
                0.09055781364440918,
                0.05730735510587692,
                0.04873824119567871,
                0.0966692864894867,
                0.014023736119270325,
                0.1801813393831253,
                0.06891238689422608,
                -0.03883913531899452,
                -0.043596990406513217,
                -0.07044458389282227,
                0.0981665700674057,
                0.032519396394491199,
                0.04594453051686287,
                -0.09107059985399246,
                -0.08983270823955536,
                0.05968977510929108,
                -0.05923238769173622,
                -0.03393564745783806,
                -0.011104952543973923,
                -0.06629853695631027,
                -0.1552184522151947,
                -0.07898841798305512,
                0.11423591524362564,
                -0.05846957862377167,
                -0.14919742941856385,
                -0.06342197954654694,
                -0.08504732698202133,
                -0.17949993908405305,
                -0.09979016333818436,
                0.021173404529690744,
                -0.07510565966367722,
                -0.1592216193675995,
                -0.029468337073922159,
                -0.013372031971812249,
                -0.015657497569918634,
                -0.015831146389245988,
                0.0022844409104436638,
                0.06237468868494034,
                0.009013411588966847,
                0.04303529113531113,
                0.006813484244048595,
                0.031664907932281497,
                0.06655454635620117,
                -0.03081413172185421,
                0.02234206721186638,
                0.0026916891802102329,
                -0.11278780549764633,
                0.05936484411358833,
                0.07689130306243897,
                -0.04573454707860947,
                0.08436460793018341,
                0.0019367808708921075,
                -0.06372148543596268,
                -0.05246713012456894,
                -0.03163214027881622,
                -0.0004649797629099339,
                0.10264692455530167,
                0.07671064883470535,
                -0.05091828852891922,
                0.07678329944610596,
                0.05057550221681595,
                0.024756353348493577,
                0.009787473827600479,
                -0.1075768992304802,
                0.03174389526247978,
                0.018126729875802995,
                -0.0007524060201831162,
                -0.04605533182621002,
                0.014699467457830906,
                0.020997505635023118,
                -0.001821379060856998,
                -0.00894684437662363,
                -0.02223176881670952,
                -0.009082001633942128,
                0.054498545825481418,
                -0.050669193267822269,
                0.08949079364538193,
                -0.08304590731859207,
                0.015325597487390042,
                0.07566237449645996,
                -0.022391995415091516,
                -0.07447464764118195,
                -0.07515230029821396,
                -0.07382151484489441,
                -0.09367910027503967,
                0.013149134814739228,
                -0.005773209035396576,
                -0.10196176171302796,
                -0.09786425530910492,
                -0.06624341756105423,
                0.06709172576665878,
                -0.11328136175870896,
                0.007421229965984821,
                0.07320153713226319,
                -0.08869503438472748,
                -0.05986270308494568,
                0.06165881082415581,
                -0.04599752277135849,
                -0.0964844599366188,
                -0.11448174715042114,
                -0.02248474769294262,
                -0.06885671615600586,
                0.0776241198182106,
                -0.04842378944158554,
                0.007254512514919043,
                -0.09284359961748123,
                0.000465796678327024,
                0.008141255006194115,
                -0.034903138875961307,
                -0.0673786848783493,
                -0.019227711483836175,
                0.06804773211479187,
                0.0020543080754578115,
                -0.008467815816402436,
                0.1021236777305603,
                0.07881460338830948,
                -0.05449247360229492,
                0.01880030520260334,
                0.07121196389198303,
                0.029550395905971528,
                0.036531295627355579,
                -0.06487104296684265,
                -0.022165967151522638,
                0.0677935928106308,
                -0.06263111531734467,
                0.00044965572305954993,
                0.1316586285829544,
                -0.029960524290800096,
                -0.05276060476899147,
                -0.07440140843391419,
                0.11921139806509018,
                0.010717757977545262,
                -0.03710763156414032,
                -0.16666574776172639,
                0.02282758057117462,
                0.04266267269849777,
                -0.049399103969335559,
                -0.06695619970560074,
                -0.08131846785545349,
                -0.21302329003810883,
                0.009505773894488812,
                0.00968173611909151,
                -0.04975160211324692,
                0.08909167349338532,
                -0.08806115388870239,
                -0.10827392339706421,
                -0.08990628272294998,
                -0.03533283993601799,
                -0.10524717718362808,
                0.07385276257991791,
                -0.003716355422511697,
                -0.004402844700962305,
                -0.15339259803295136,
                0.03977055847644806,
                0.08545026928186417,
                0.12407582253217697,
                -0.012864808551967144,
                -0.07055868953466416,
                0.0322989821434021,
                0.07998842746019364,
                -0.13320988416671754,
                0.09529208391904831,
                0.0016945281531661749,
                -0.04811953753232956,
                -0.04461563006043434,
                -0.02258007600903511,
                -0.0021002485882490875,
                -0.031616732478141788,
                0.10193508863449097,
                0.09265859425067902,
                0.03674834221601486,
                0.029862280935049058,
                0.0024213865399360658,
                -0.02755403332412243,
                -0.00507748918607831,
                -0.033437810838222507,
                -0.10844161361455918,
                -0.08164597302675247,
                -0.11690165102481842,
                -0.004526401869952679,
                0.10416354984045029,
                0.09441760182380676,
                -0.0020846957340836527,
                -0.06043127924203873,
                -0.03657039254903793,
                0.048458781093358996,
                0.06314439326524735,
                0.09988346695899964,
                0.03839564695954323,
                0.07266052067279816,
                -0.13357670605182649,
                -0.06994400918483734,
                -0.06498057395219803,
                -0.006163966841995716,
                -0.0391157828271389,
                0.02415800653398037,
                -0.09020431339740753,
                0.03292686864733696,
                0.03281666338443756,
                0.16148751974105836,
                0.02634459361433983,
                -0.051843807101249698,
                0.01027382630854845,
                -0.10076778382062912,
                0.12058230489492417,
                0.11356187611818314,
                -0.031783416867256168,
                0.030207451432943345,
                0.1007576733827591,
                -0.07463683187961579,
                -0.07415245473384857,
                -0.06636007130146027,
                -0.09088949859142304,
                -0.04829082265496254,
                -0.05582813173532486,
                -0.015528088435530663,
                0.03700997680425644,
                0.019065484404563905,
                0.10255539417266846,
                0.09041990339756012,
                -0.0514213964343071,
                -0.09536916017532349,
                0.10207194089889527,
                0.09482154995203018,
                0.11123249679803848,
                0.054905738681554797,
                -0.01487792655825615,
                -0.06766459345817566,
                -0.032272715121507648,
                0.033186376094818118,
                0.13167764246463777,
                -0.04973234608769417,
                0.12345767766237259,
                -0.04610896110534668,
                -0.013370504602789879,
                0.1952187567949295,
                0.12125997245311737,
                -0.004063348285853863,
                0.01961543969810009,
                0.07607603073120117,
                0.07397682964801789,
                0.04808611795306206,
                0.08098085969686508,
                -0.07577306777238846,
                -0.02001888118684292,
                -0.01213516853749752,
                0.008421487174928189,
                -0.08586205542087555,
                -0.04190182313323021,
                0.06648276746273041,
                0.0444156639277935,
                0.055633485317230228,
                0.05632854253053665,
                -0.008259668946266175,
                0.061946332454681399,
                0.0803946852684021,
                0.019127994775772096,
                -0.041428130120038989,
                0.0637769028544426,
                0.024396194145083429,
                0.0496613010764122,
                0.04760848358273506,
                0.13557882606983186,
                -0.02895745076239109,
                0.09623922407627106,
                -0.11918932944536209,
                0.05598214641213417,
                -0.03703254461288452,
                0.09572601318359375,
                -0.036955542862415317,
                0.012616807594895363,
                -0.025943821296095849,
                -0.03214995935559273,
                0.10697134584188461,
                0.01569654606282711,
                0.0611434206366539,
                0.008890523575246334,
                -0.018254615366458894,
                -0.09996086359024048,
                0.1027737408876419,
                0.0648411437869072,
                -0.01470320113003254,
                0.019667770713567735,
                -0.08999816328287125,
                -0.12823273241519929,
                0.033565495163202289,
                0.1125306710600853,
                -0.02163323201239109,
                -0.05625658109784126,
                -0.06292594224214554,
                -0.04885641112923622,
                0.04736645519733429,
                0.0943835899233818,
                -0.07132650166749954,
                0.07120135426521301,
                -0.012290597893297673,
                -0.0039422353729605679,
                -0.011877121403813362,
                0.021185901015996934,
                -0.10466580092906952,
                0.08936889469623566,
                0.003990912809967995,
                0.007980925031006337,
                0.03954780474305153,
                -0.1000552773475647,
                -0.06781395524740219,
                0.09374822676181793,
                0.03121403232216835,
                0.06434884667396546,
                -0.031196970492601396,
                -0.10692781209945679,
                0.010202051140367985,
                0.05909241735935211,
                0.17062105238437653,
                -0.01945807784795761,
                -0.007417011074721813,
                -0.0879703015089035,
                0.0022895836737006904,
                -0.04329591244459152,
                0.1002766340970993,
                -0.036064788699150088,
                0.09090908616781235,
                -0.03103291429579258,
                -0.0997035875916481,
                0.07224763184785843,
                -0.05323603376746178,
                0.11429402977228165,
                0.04025840386748314,
                -0.002573801903054118,
                0.02461053617298603,
                -0.024672765284776689,
                -0.03491397947072983,
                -0.036656711250543597,
                0.05860791355371475,
                0.046455059200525287,
                -0.057459354400634769,
                0.07335062325000763,
                -0.10734216868877411,
                -0.09004154801368714,
                0.07810291647911072,
                0.06093991920351982,
                -0.048243388533592227,
                -0.013334287330508232,
                -0.11245894432067871,
                -0.0476519949734211,
                -0.03520604968070984,
                -0.03459122031927109,
                -0.01977681741118431,
                -0.10188702493906021,
                -0.030555827543139459,
                -0.10616414994001389,
                -0.1010238528251648,
                -0.005785155575722456,
                -0.05044921115040779,
                0.0005181957967579365,
                -0.07776021212339401,
                -0.03578007221221924,
                -0.043304938822984698,
                0.009337502531707287,
                0.02483448199927807,
                -0.05825863406062126,
                -0.09407821297645569,
                -0.035439860075712207,
                0.02025599591434002,
                0.051107656210660937,
                0.04905947670340538,
                -0.11286792159080506,
                -0.10408084839582443,
                -0.06685591489076615,
                0.024703001603484155,
                -0.03788067400455475,
                -0.010239853523671627,
                0.06204373389482498,
                0.015363749116659165,
                -0.1308593600988388,
                0.04446547105908394,
                0.08284247666597367,
                0.04762915149331093,
                -0.046786170452833179,
                -0.0356137715280056,
                0.09645536541938782,
                0.12378326058387757,
                -0.04054059833288193,
                0.10787541419267655,
                -0.07006023824214935,
                0.004146655090153217,
                -0.08685445040464401,
                0.044354330748319629,
                0.07766643166542053,
                0.07878657430410385,
                -0.03758582845330238,
                -0.06171078607439995,
                -0.08582282066345215,
                -0.11400379985570908,
                -0.028041213750839235,
                -0.10361801087856293,
                0.048950258642435077,
                -0.08300461620092392,
                0.04424780607223511,
                -0.08661436289548874,
                -0.03024732880294323,
                0.07234039902687073,
                0.07314351946115494,
                -0.08340458571910858,
                -0.11777382344007492,
                -0.06680821627378464,
                -0.0645090788602829,
                -0.01723778434097767,
                0.12096299976110459,
                -0.02519744075834751,
                -0.13164877891540528,
                -0.08628502488136292,
                0.10115957260131836,
                0.02679026871919632,
                0.0787421315908432,
                0.029256297275424005,
                0.028703365474939348,
                0.025684846565127374,
                -0.07271556556224823,
                -0.0025864914059638979,
                0.07422228157520294,
                0.02429848536849022,
                -0.029446154832839967,
                0.016843635588884355,
                -0.103009894490242,
                0.05882275104522705,
                0.11339078098535538,
                0.09163695573806763,
                -0.07375459372997284,
                -0.05048069730401039,
                0.0084884874522686,
                -0.12037401646375656,
                0.10584433376789093,
                0.09514904767274857,
                0.10439131408929825,
                0.09951220452785492,
                0.03366698697209358,
                0.05858442559838295,
                0.04186580330133438,
                0.14303039014339448,
                -0.03556715324521065,
                -0.0648363009095192,
                -0.005328891333192587,
                0.0928797498345375,
                0.08490745723247528,
                0.036268994212150577,
                -0.025881895795464517,
                0.1074281632900238,
                0.057063229382038119,
                0.0861617848277092,
                0.019279371947050096,
                -0.030512528494000436,
                -0.03797132149338722,
                -0.10171499848365784,
                -0.0131742674857378,
                -0.04315076023340225,
                0.105521060526371,
                0.05034615099430084,
                0.09044263511896134,
                -0.01671612821519375,
                0.04942883178591728,
                -0.08553425967693329,
                0.06481841951608658,
                -0.09025075286626816,
                -0.05536804348230362,
                0.06180388852953911,
                -0.04009208828210831,
                -0.06055137887597084,
                -0.11201637238264084,
                0.024337179958820344,
                -0.0432317778468132,
                0.09864070266485214,
                0.0846780464053154,
                -0.023975325748324395,
                0.04240298271179199,
                0.15300755202770234,
                0.06927648931741715,
                0.14519423246383668,
                0.051649149507284167,
                0.08798627555370331,
                -0.027050264179706575,
                0.17466530203819276,
                0.03726952150464058,
                0.12365683913230896,
                0.08379583060741425,
                -0.04126473516225815,
                0.08431597054004669,
                0.0619603767991066,
                0.029461462050676347,
                0.032726746052503589,
                -0.05416121333837509,
                0.02335571125149727,
                0.014892500825226307,
                0.1899564117193222,
                0.03968280553817749,
                -0.09011959284543991,
                0.08358963578939438,
                0.06837812811136246,
                -0.11563308537006378,
                -0.008186868391931057,
                0.02180042862892151,
                -0.0783759281039238,
                -0.00015027981135062873,
                -0.024429980665445329,
                0.01124940812587738,
                -0.06881478428840637,
                -0.054843198508024219,
                0.0049211084842681889,
                0.002946913242340088,
                -0.03540250286459923,
                -0.03587925434112549,
                -0.000100144803582225,
                0.05123021826148033,
                -0.030002910643815995,
                -0.07512430846691132,
                -0.005621075164526701,
                -0.050896842032670978,
                0.01924915425479412,
                -0.044721804559230807,
                -0.0041993483901023869,
                0.06247171387076378,
                0.0974145382642746,
                -0.09280965477228165,
                -0.03895013779401779,
                0.010569009929895401,
                0.054779376834630969,
                -0.07606417685747147,
                0.030089326202869417,
                -0.08405940234661102,
                0.07482565194368363,
                -0.10631147772073746,
                0.12428134679794312,
                0.05815490335226059,
                0.04474785178899765,
                0.05166488513350487,
                -0.11539383977651596,
                -0.09812821447849274,
                -0.011359189637005329,
                0.05677179619669914,
                -0.06778910011053086,
                0.039976101368665698,
                0.0014834169996902347,
                0.06532753258943558,
                -0.011578062549233437,
                -0.074589304625988,
                0.018338017165660859,
                0.07328163832426071,
                0.1408746838569641,
                0.0660284161567688,
                -0.06470327079296112,
                0.08991504460573197,
                -0.02132073976099491,
                -0.07450440526008606,
                -0.08431747555732727,
                -0.010557403787970543,
                -0.06051512807607651,
                -0.021443631500005723,
                0.053052276372909549,
                -0.08866538852453232,
                -0.11276273429393769,
                -0.11378926783800125,
                -0.00006016052429913543,
                0.00830758921802044,
                0.017863411456346513,
                -0.13642887771129609,
                -0.14859198033809663,
                -0.013046978041529656,
                -0.06912825256586075,
                0.0379297137260437,
                0.007624764461070299,
                -0.048724640160799029,
                0.040436793118715289,
                -0.09826599061489105,
                -0.05554535984992981,
                0.0731271505355835,
                -0.021401846781373025,
                -0.06701736897230149,
                -0.11452778428792954,
                -0.032907526940107349,
                0.04379881173372269,
                0.061136599630117419,
                0.06477543711662293,
                0.03197377547621727,
                0.05257032811641693,
                -0.03092106059193611,
                0.0955367386341095,
                0.10276532173156738,
                -0.032418910413980487,
                -0.03121139109134674,
                -0.06463083624839783,
                -0.019978821277618409,
                -0.0024323388934135439,
                0.04516392573714256,
                -0.09050410985946655,
                -0.09044262021780014,
                -0.06442782282829285,
                0.04895467311143875,
                -0.09865694493055344,
                0.04553573206067085,
                0.06862521916627884,
                0.07287056744098664,
                0.025646420195698739,
                0.09864429384469986,
                0.04893902316689491,
                -0.004278089851140976,
                -0.0645807608962059,
                -0.013157755136489869,
                -0.06111132353544235,
                -0.0729464590549469,
                -0.02587432786822319,
                -0.05532432347536087,
                -0.1071138009428978,
                0.0812215805053711,
                0.061911389231681827,
                -0.04867551848292351,
                0.045376524329185489,
                0.05899675935506821,
                0.0670083612203598,
                0.03210422396659851,
                -0.03547576814889908,
                -0.037535812705755237,
                -0.0831182524561882,
                0.00036759095382876694,
                -0.05593749135732651,
                -0.04596827179193497,
                0.1101924255490303,
                -0.04299250617623329,
                -0.1271182745695114,
                -0.06441474705934525,
                -0.11806927621364594,
                0.06648417562246323,
                0.03680749610066414,
                0.02578725293278694,
                -0.09330715239048004,
                -0.05582325905561447,
                -0.04501841962337494,
                0.0032798799220472576,
                0.10016018897294998,
                0.12666648626327516,
                -0.020197194069623948,
                -0.037021931260824206,
                0.05659637600183487,
                -0.050944603979587558,
                0.18585966527462007,
                0.013784055598080159,
                0.027596836909651758,
                -0.055075813084840778,
                0.0680663138628006,
                0.10252628475427628,
                0.22146394848823548,
                0.08769677579402924,
                0.08511854708194733,
                0.035165682435035709,
                -0.000994533416815102,
                -0.0029620931018143894,
                0.0641629695892334,
                0.18555279076099397,
                0.05943398177623749,
                -0.056362610310316089,
                -0.0830584391951561,
                0.06874663382768631,
                0.03567195683717728,
                0.12982213497161866,
                0.013821624219417572,
                0.07450837641954422,
                -0.11175239086151123,
                -0.01585211046040058,
                0.03248164430260658,
                -0.049763988703489307,
                -0.033758681267499927,
                -0.11877071112394333,
                -0.04854284226894379,
                0.09732326865196228,
                0.01915164291858673,
                0.07472112774848938,
                0.0731806755065918,
                -0.059928879141807559,
                0.04937802627682686,
                0.06024017930030823,
                0.05355283245444298,
                0.03673090040683746,
                0.16884441673755647,
                0.03855445981025696,
                0.09636780619621277,
                -0.00017287422087974846,
                -0.005549757741391659,
                -0.03167007863521576,
                -0.04510880261659622,
                0.03563670068979263,
                -0.0003197838377673179,
                -0.10479635745286942,
                -0.18250548839569093,
                -0.12068504095077515,
                0.021537113934755327,
                0.0015081504825502635,
                -0.03751668334007263,
                -0.12180128693580628,
                -0.18811549246311189,
                -0.19862741231918336,
                -0.057839635759592059,
                -0.007608400192111731,
                0.08230965584516525,
                -0.0000641815786366351,
                -0.07404709607362747,
                -0.2579421103000641,
                0.009016209281980992,
                0.09134364873170853,
                -0.03698786720633507,
                -0.033884115517139438,
                -0.09234704077243805,
                -0.032653458416461948,
                0.09150630980730057,
                0.08011360466480255,
                0.025106383487582208,
                -0.011771206744015217,
                0.06729728728532791,
                -0.03971726447343826,
                -0.08788584917783737,
                -0.03989900276064873,
                -0.08419011533260346,
                0.07022590935230255,
                0.06523849070072174,
                0.0916428193449974,
                -0.049928218126297,
                -0.025767287239432336,
                0.048264939337968829,
                0.053889889270067218,
                -0.06619787961244583,
                0.046371880918741229,
                -0.05554329603910446,
                0.13517995178699494,
                0.10452817380428314,
                -0.033968135714530948,
                0.009699870832264424,
                -0.0007506487891077995,
                -0.10839106142520905,
                0.09744942933320999,
                -0.04798638075590134,
                0.09729757905006409,
                0.017151838168501855,
                0.009902664460241795,
                0.09961902350187302,
                0.05288694053888321,
                0.09542538225650788,
                -0.03336092829704285,
                -0.03913974389433861,
                0.05220891907811165,
                -0.06378544867038727,
                -0.04514032229781151,
                0.03826092556118965,
                0.10733111202716828,
                -0.06521907448768616,
                -0.03106582537293434,
                0.03497449308633804,
                0.03155366703867912,
                -0.06833556294441223,
                -0.10200569033622742,
                0.03604758903384209,
                -0.05180542171001434,
                -0.08284750580787659,
                -0.011912137269973755,
                -0.06073647737503052,
                0.09918158501386643,
                0.03543001413345337,
                -0.013566811569035054,
                -0.041567374020814899,
                -0.08791553974151612,
                -0.010127045214176178,
                -0.06746269762516022,
                -0.02249385043978691,
                0.0748157873749733,
                0.06397588551044464,
                0.03349382057785988,
                -0.00020049508020747453,
                0.11778177320957184,
                0.11773687601089478,
                0.07079998403787613,
                -0.03340441361069679,
                0.027044853195548059,
                -0.08362321555614472,
                -0.001445370726287365,
                -0.03767050802707672,
                0.03708827868103981,
                -0.028634147718548776,
                0.022786147892475129,
                0.0955921858549118,
                0.020807435736060144,
                0.0547814667224884,
                0.017282303422689439,
                0.06309548020362854,
                0.08168420940637589,
                0.020770933479070665,
                0.02276960015296936,
                0.06991296261548996,
                -0.046267151832580569,
                -0.07116161286830902,
                -0.0016759276622906328,
                0.025156836956739427,
                0.014245723374187947,
                0.06408711522817612,
                0.000907456676941365,
                0.02155647799372673,
                0.07356022298336029,
                0.052164383232593539,
                -0.08934511244297028,
                -0.07618243992328644,
                -0.13976670801639558,
                -0.04729099199175835,
                -0.07719632983207703,
                -0.0915665253996849,
                -0.08607865124940872,
                -0.009616414085030556,
                -0.12930569052696229,
                0.005270208697766066,
                -0.040734052658081058,
                0.0943286195397377,
                -0.08746568858623505,
                -0.0007102829404175282,
                -0.1169562116265297,
                -0.08776284009218216,
                0.11211826652288437,
                -0.10969021171331406,
                -0.08494193106889725,
                -0.17564697563648225,
                -0.029627274721860887,
                0.04618946462869644,
                0.01036851666867733,
                -0.05348890274763107,
                0.051530834287405017,
                -0.14266978204250337,
                0.08493593335151673,
                -0.11822295933961868,
                0.017419710755348207,
                0.05161343514919281,
                -0.0970410704612732,
                0.03282897546887398,
                -0.11354328691959381,
                0.028748180717229844,
                0.0682084709405899,
                -0.023556962609291078,
                0.04591064155101776,
                0.07238845527172089,
                -0.07700616121292114,
                -0.09198445081710816,
                0.07992784678936005,
                0.026083746924996377,
                -0.02346031181514263,
                -0.04737876355648041,
                0.04731602221727371,
                -0.09729641675949097,
                0.04199724644422531,
                0.023872539401054384,
                0.04941822215914726,
                0.07016833126544953,
                0.035794589668512347,
                -0.04309745132923126,
                0.03001275844871998,
                -0.09663163870573044,
                0.09981842339038849,
                0.1472172737121582,
                0.08443985134363175,
                0.05979699268937111,
                -0.06393277645111084,
                -0.09788660705089569,
                0.11541519314050675,
                0.15684908628463746,
                0.02508886717259884,
                0.06607033312320709,
                0.0329904779791832,
                -0.06662354618310929,
                0.13612332940101624,
                0.08425219357013703,
                0.13201984763145448,
                0.1316789984703064,
                -0.007459972053766251,
                -0.1396031379699707,
                0.11427754908800125,
                0.02880752831697464,
                0.0622410885989666,
                0.09773091226816178,
                0.08610350638628006,
                0.050675250589847568,
                0.13309796154499055,
                0.012478800490498543,
                -0.10978361964225769,
                0.0659690722823143,
                0.07499072700738907,
                -0.0020413286983966829,
                0.009463760070502758,
                -0.06262490898370743,
                -0.02098110504448414,
                0.05137203633785248,
                -0.08434203267097473,
                -0.09045017510652542,
                0.011084521189332009,
                -0.05421384051442146,
                -0.1252245306968689,
                -0.1295364797115326,
                -0.022167811170220376,
                0.02270311675965786,
                0.01970669999718666,
                -0.017015323042869569,
                -0.13641425967216493,
                -0.11838774383068085,
                -0.005484115798026323,
                0.13147366046905518,
                -0.054714154452085498,
                0.021792389452457429,
                -0.03786659985780716,
                0.021799547597765924,
                -0.04366355761885643,
                0.08481376618146897,
                -0.01590166799724102,
                0.017029765993356706,
                -0.0643138587474823,
                -0.102693572640419,
                -0.05963482707738876,
                0.11237680166959763,
                0.10233063995838165,
                -0.04097559675574303,
                0.09955444931983948,
                -0.056463491171598437,
                -0.07007727771997452,
                -0.0992736965417862,
                0.1050979495048523,
                -0.09587304294109345,
                -0.10862281918525696,
                0.07451476156711579,
                0.0677831619977951,
                0.025375163182616235,
                -0.026214493438601495,
                -0.01878075674176216,
                0.015492985025048256,
                -0.049143236130476,
                0.017461951822042466,
                0.008449518121778965,
                0.04649890586733818,
                -0.008497653529047966,
                -0.015192458406090737,
                -0.06111777946352959,
                -0.08718795329332352,
                -0.0763818770647049,
                0.07079621404409409,
                -0.046277619898319247,
                -0.04755009338259697,
                -0.0428716316819191,
                0.09466633200645447,
                0.12447094172239304,
                0.023389508947730066,
                -0.055495280772447589,
                0.04219767451286316,
                -0.08524506539106369,
                0.06154714897274971,
                0.12448860704898834,
                0.07136604189872742,
                -0.053950235247612,
                -0.07604490965604782,
                0.013735141605138779,
                -0.13302932679653169,
                -0.04370495304465294,
                0.0012245819671079517,
                0.06400933116674423,
                -0.014188775792717934,
                -0.10914935916662216,
                -0.04782731831073761,
                0.04159439355134964,
                -0.07945869863033295,
                -0.03363216668367386,
                0.022395731881260873,
                0.01840127818286419,
                -0.059001389890909198,
                0.06873942166566849,
                -0.04011497274041176,
                -0.043588872998952869,
                -0.04925846680998802,
                0.024922596290707589,
                -0.03348029777407646,
                0.06667092442512512,
                0.04712274670600891,
                0.060839585959911349,
                0.018940240144729615,
                0.0136340307071805,
                -0.057844072580337527,
                -0.06048595532774925,
                -0.06948889791965485,
                -0.11624008417129517,
                0.032074935734272,
                0.025529570877552034,
                0.06400834769010544,
                0.048995234072208408,
                -0.03552699461579323,
                -0.05003593862056732,
                -0.06754519045352936,
                -0.026436341926455499,
                0.002409743145108223,
                0.06846152991056442,
                -0.0877959206700325,
                0.011561919935047627,
                -0.014983288943767548,
                0.09446564316749573,
                0.07513552159070969,
                0.06625531613826752,
                0.035011470317840579,
                0.004225993063300848,
                -0.028225157409906389,
                -0.018871139734983445,
                -0.03131207078695297,
                -0.041178032755851749,
                0.06267599016427994,
                0.08282060921192169,
                -0.03257390484213829,
                0.0023360103368759157,
                -0.031244996935129167,
                0.06967651098966599,
                -0.07718045264482498,
                -0.014999202452600003,
                -0.08702535182237625,
                -0.00047276748227886856,
                0.016692711040377618,
                0.03227750211954117,
                0.0028024388011544945,
                -0.015512174926698208,
                0.11261726170778275,
                -0.04990902543067932,
                -0.028003579005599023,
                0.04080991819500923,
                0.03312156721949577,
                0.010834511369466782,
                -0.05673976242542267,
                0.07594093680381775,
                -0.08003635704517365,
                -0.09206565469503403,
                -0.08146015554666519,
                -0.007302816491574049,
                0.11782950907945633,
                -0.00407892931252718,
                0.040128983557224277,
                0.06940992176532746,
                0.10558608174324036,
                0.09379599243402481,
                0.11389880627393723,
                0.03449568524956703,
                0.10488216578960419,
                0.005581689532846212,
                -0.09669046849012375,
                0.015170116908848286,
                -0.004864132031798363,
                0.03445609658956528,
                -0.07984678447246552,
                -0.06558573246002197,
                -0.09467320889234543,
                0.10896330326795578,
                0.016953205689787866,
                -0.06649458408355713,
                0.05893537402153015,
                -0.03017076477408409,
                0.11599651724100113,
                -0.055640920996665958,
                -0.09861182421445847,
                0.0260087251663208,
                -0.059157781302928928,
                -0.11658494174480438,
                0.08200855553150177,
                0.002695511793717742,
                0.01587049663066864,
                -0.0023471552412956955,
                -0.07398293912410736,
                0.08245852589607239,
                -0.07399170100688935,
                -0.041347961872816089,
                -0.07616830617189408,
                0.08006418496370316,
                -0.10387402772903443,
                0.042258355766534808,
                -0.031863678246736529,
                0.061731599271297458,
                -0.04284217581152916,
                0.10160468518733978,
                -0.061894677579402927,
                0.09394435584545136,
                0.10444355756044388,
                0.014040880836546421,
                -0.061088431626558307,
                -0.0988207533955574,
                -0.11080855131149292,
                0.04258400574326515,
                -0.04105309396982193,
                -0.11549066007137299,
                -0.03970519080758095,
                -0.022902483120560647,
                -0.0018595592118799687,
                -0.0029206648468971254,
                0.08465816080570221,
                0.06503503024578095,
                -0.02021661400794983,
                0.06809990108013153,
                -0.007578112185001373,
                -0.021317170932888986,
                0.011027058586478234,
                0.048025716096162799,
                0.06442267447710037,
                -0.06764043867588043,
                0.05322303995490074,
                -0.061145856976509097,
                0.08730322867631912,
                -0.06608331203460694,
                -0.008477230556309224,
                -0.12078947573900223,
                0.06942718476057053,
                -0.02861311472952366,
                -0.039323944598436359,
                -0.09281626343727112,
                -0.00193345348816365,
                -0.09554573148488999,
                0.010424412786960602,
                -0.10761339962482453,
                0.07958507537841797,
                -0.03355646878480911,
                -0.07945655286312103,
                -0.0450555756688118,
                -0.010977971367537976,
                -0.01805426925420761,
                -0.06883981823921204,
                -0.006254770327359438,
                -0.11162465065717697,
                0.06736820936203003,
                0.0358932688832283,
                -0.0408085361123085,
                0.07559322565793991,
                -0.04697771742939949,
                -0.04895000532269478,
                0.06236352026462555,
                0.009598052129149437,
                -0.024199139326810838,
                0.08740078657865524,
                -0.005165012553334236,
                0.018478460609912874,
                -0.024409079924225808,
                0.07032980769872666,
                0.05087758228182793,
                -0.008570749312639237,
                -0.058959901332855228,
                0.022695789113640786,
                0.08586975932121277,
                -0.10155672580003739,
                0.07791386544704437,
                0.059956587851047519,
                0.10160989314317703,
                -0.07162429392337799,
                0.07125063985586167,
                0.02875039540231228,
                0.017049195244908334,
                -0.060574643313884738,
                0.07905367016792298,
                -0.0721832811832428,
                0.07147728651762009,
                -0.08592459559440613,
                0.002226780401542783,
                -0.010077808983623982,
                -0.045517101883888248,
                -0.07345619797706604,
                -0.09300943464040756,
                -0.0487908273935318,
                0.11373070627450943,
                0.06284808367490769,
                -0.05514160543680191,
                -0.005961471237242222,
                -0.07018143683671951,
                0.01243449654430151,
                -0.07825221866369248,
                -0.06704366952180863,
                0.013675907626748085,
                -0.029076792299747468,
                -0.08970669656991959,
                -0.06423353403806687,
                -0.003192298114299774,
                -0.0073139965534210209,
                -0.10413457453250885,
                0.030439343303442,
                -0.03787274286150932,
                -0.004617579281330109,
                0.02250293642282486,
                0.10203469544649124,
                0.0032267568167299034,
                0.060373492538928989,
                -0.06805868446826935,
                0.014237314462661744,
                0.044571079313755038,
                -0.07944685965776444,
                -0.05243198946118355,
                -0.029977058991789819,
                -0.14300759136676789,
                -0.09185384958982468,
                -0.0452408492565155,
                0.01637333258986473,
                -0.02156589925289154,
                -0.05731755122542381,
                0.0632108822464943,
                -0.04545050114393234,
                -0.031453534960746768,
                -0.046434372663497928,
                -0.12126368284225464,
                -0.12259389460086823,
                -0.09325456619262696,
                0.020018210634589196,
                -0.06707841157913208,
                0.0885796844959259,
                0.05219423398375511,
                -0.049637190997600558,
                -0.10152921080589295,
                -0.05838853493332863,
                0.1648780107498169,
                -0.04122474789619446,
                -0.03276292234659195,
                0.026410123333334924,
                -0.01573033258318901,
                -0.018249059095978738,
                -0.16767002642154694,
                0.030690932646393777,
                -0.07788682729005814,
                0.040856629610061648,
                0.06275559216737747,
                0.04697834700345993,
                -0.0555373840034008,
                0.0040626865811645988,
                -0.03263271600008011,
                0.04349851235747337,
                0.10036454349756241,
                -0.09410824626684189,
                0.04961220175027847,
                0.0670025497674942,
                -0.08077747374773026,
                0.023313354700803758,
                0.009718019515275956,
                0.10087036341428757,
                -0.04133715108036995,
                0.015270935371518135,
                0.06879917532205582,
                0.015209561213850975,
                -0.059955935925245288,
                0.09567650407552719,
                -0.03565174341201782,
                0.07063654065132141,
                -0.004070364870131016,
                -0.031451575458049777,
                0.036380451172590259,
                0.061673521995544437,
                -0.05975447595119476,
                -0.09893833100795746,
                -0.0007435482111759484,
                0.014870989136397839,
                0.030285809189081193,
                0.15303681790828706,
                0.01542207133024931,
                0.025309870019555093,
                -0.06430473923683167,
                -0.0386989563703537,
                -0.03847069665789604,
                0.09307676553726196,
                0.06512147933244705,
                0.10252843797206879,
                0.09353660047054291,
                0.05466200411319733,
                0.03713906556367874,
                0.08835351467132569,
                -0.11953319609165192,
                0.040685053914785388,
                0.06476288288831711,
                0.0309621412307024,
                0.026496732607483865,
                0.036039937287569049,
                -0.061777856200933459,
                0.0706915631890297,
                -0.04236915335059166,
                0.12250607460737229,
                -0.0011010434245690704,
                -0.07536381483078003,
                -0.12388082593679428,
                0.08472909033298493,
                0.12864817678928376,
                0.0661478340625763,
                0.16683989763259889,
                -0.009712602943181992,
                -0.10259158164262772,
                0.037403423339128497,
                0.18491075932979585,
                0.13472320139408112,
                0.02520548366010189,
                -0.006194434128701687,
                -0.06159866228699684,
                0.06540633738040924,
                0.08437805622816086,
                0.0037796744145452978,
                0.1116202175617218,
                -0.033873558044433597,
                -0.11511757969856262,
                -0.06620162725448609,
                0.032959382981061938,
                0.04059051349759102,
                0.12902767956256867,
                -0.0027318354696035387
            ],
            "WeightsRows": 20,
            "WeightsCols": 84,
            "Biases": [
                0.060510654002428058,
                -0.09632083773612976,
                -0.12244526296854019,
                -0.13675107061862946,
                0.08135737478733063,
                0.0046812668442726139,
                0.068502277135849,
                -0.08471357822418213,
                0.013537289574742318,
                0.011888203211128712,
                -0.06562694907188416,
                0.08886881172657013,
                -0.07054585963487625,
                -0.08200167119503021,
                -0.05474991723895073,
                0.14325404167175294,
                -0.01645083725452423,
                0.05309254676103592,
                0.1359737366437912,
                -0.28920331597328188
            ]
        },
        {
            "Weights": [
                0.00989989098161459,
                0.13702435791492463,
                -0.24350935220718385,
                -0.031845562160015109,
                -0.008245403878390789,
                -0.035043295472860339,
                0.22796007990837098,
                -0.31601306796073916,
                -0.12786902487277986,
                0.10533356666564942,
                -0.25613200664520266,
                0.2850808799266815,
                -0.3142314851284027,
                -0.19255821406841279,
                0.22184118628501893,
                0.11677215993404389,
                -0.11130543798208237,
                0.016928212717175485,
                0.14280830323696137,
                -0.1110776737332344,
                0.0993787944316864,
                -0.12116669118404389,
                -0.12999096512794496,
                0.05784957483410835,
                -0.09185229241847992,
                0.0901113823056221,
                0.09247193485498429,
                0.012546120211482048,
                0.0837220773100853,
                0.23055855929851533,
                -0.1228046640753746,
                0.22356876730918885,
                -0.17420831322669984,
                -0.08232247829437256,
                -0.1443646401166916,
                0.2405363917350769,
                -0.040030673146247867,
                0.23445995151996613,
                0.20760853588581086,
                0.05110986530780792,
                0.13993974030017854,
                0.15729975700378419,
                0.22427088022232057,
                0.09763035923242569,
                -0.24821990728378297,
                0.18834874033927918,
                -0.16447079181671143,
                0.23871484398841859,
                -0.09691286832094193,
                -0.14166539907455445,
                0.23936447501182557,
                0.17623896896839143,
                0.13561570644378663,
                -0.04552082344889641,
                0.16447439789772035,
                -0.1560581773519516,
                0.1460127830505371,
                -0.20501123368740083,
                0.10191045701503754,
                0.27593114972114565,
                0.21746094524860383,
                -0.0032566075678914787,
                -0.1530446857213974,
                -0.22111102938652039,
                0.098902627825737,
                0.1323024034500122,
                -0.058999549597501758,
                0.08702708035707474,
                0.0412636399269104,
                0.15387913584709168,
                -0.08506041765213013,
                -0.040953557938337329,
                0.12085861712694168,
                -0.07122480124235153,
                0.060627616941928866,
                -0.0006709348526783288,
                0.04996170848608017,
                0.14831764996051789,
                0.10968181490898133,
                -0.21575479209423066,
                -0.235746830701828,
                0.18306909501552583,
                0.18847501277923585,
                0.1173606663942337,
                0.04168422892689705,
                -0.10921808332204819,
                -0.06708616018295288,
                0.18728800117969514,
                0.15312030911445619,
                0.08897461742162705,
                -0.062307316809892657,
                -0.03092333860695362,
                0.15125004947185517,
                0.20120128989219666,
                -0.1260833591222763,
                -0.06274469196796417,
                -0.11045096069574356,
                0.07367558777332306,
                -0.15069209039211274,
                -0.17813584208488465,
                0.04328298568725586,
                -0.0034360147546976806,
                -0.1377904862165451,
                0.28151974081993105,
                -0.22318227589130402,
                -0.07130987197160721,
                0.10082816332578659,
                -0.18107885122299195,
                -0.1874566525220871,
                -0.029011474922299386,
                -0.1614161878824234,
                -0.10243374109268189,
                -0.11502796411514282,
                0.14236998558044434,
                0.04756626486778259,
                0.11806982755661011,
                0.21775749325752259,
                -0.05360622704029083,
                -0.1393907219171524,
                0.27010107040405276,
                0.17485660314559937,
                -0.06566203385591507,
                -0.13626883924007417,
                0.2259840965270996,
                0.01795750856399536,
                -0.21069681644439698,
                -0.07525981962680817,
                0.17042125761508943,
                -0.1595442146062851,
                -0.21110907196998597,
                0.02476952038705349,
                -0.10133734345436096,
                -0.1675855964422226,
                0.15708348155021668,
                0.06559000909328461,
                0.1497492790222168,
                -0.011829657480120659,
                -0.22874893248081208,
                0.04106243699789047,
                -0.10871951282024384,
                0.0188208669424057,
                -0.16181573271751405,
                -0.2168087363243103,
                -0.08491001278162003,
                -0.12615308165550233,
                -0.1178286224603653,
                0.14229294657707215,
                -0.03018908202648163,
                -0.1469951719045639,
                -0.07465946674346924,
                -0.1612367331981659,
                -0.10479583591222763,
                -0.09253446757793427,
                -0.0967780128121376,
                0.16137050092220307,
                -0.06848461180925369,
                0.1757662147283554,
                0.038635630160570148,
                0.1924891173839569,
                -0.15999460220336915,
                0.25145405530929568,
                0.023258449509739877,
                -0.173658549785614,
                -0.19692905247211457,
                -0.008687333203852177,
                -0.04677530750632286,
                0.2254069596529007,
                -0.20804870128631593,
                0.23216955363750459,
                -0.1586405485868454,
                -0.03209589794278145,
                0.18958680331707,
                0.11407158523797989,
                0.15731485188007356,
                -0.2550382614135742,
                0.053923219442367557,
                0.1307365894317627,
                -0.020579973235726358,
                0.07563811540603638,
                -0.31644684076309206,
                0.0933976024389267,
                -0.07355020195245743,
                0.11372663080692291,
                -0.18755187094211579,
                0.005501445382833481,
                -0.04535919427871704,
                -0.18390096724033357,
                0.062082141637802127,
                0.22247038781642915,
                -0.09251614660024643,
                0.007564435712993145,
                -0.19702057540416718,
                0.2510683536529541,
                0.19792981445789338,
                -0.12083568423986435,
                0.01715617999434471,
                -0.16219490766525269,
                -0.1401476413011551,
                -0.13924655318260194,
                0.08694428950548172,
                -0.008424120955169201,
                0.03295595198869705,
                0.12799179553985597,
                -0.21224944293498994,
                0.2439059615135193,
                0.16286563873291017,
                -0.19636109471321107,
                0.09813922643661499,
                -0.08740407228469849,
                -0.1500052809715271,
                0.19993971288204194,
                -0.0012721221428364516,
                0.254268079996109,
                -0.1676575243473053,
                -0.09260636568069458,
                0.10228423774242401,
                -0.0727325975894928,
                0.19647718966007234,
                0.10612472891807556,
                -0.13108950853347779,
                -0.2321215271949768,
                -0.019667237997055055,
                -0.10929287225008011,
                -0.14012396335601808,
                -0.19096410274505616,
                -0.04898888245224953,
                0.20311596989631654,
                0.056440215557813647,
                0.07092609256505966,
                0.08303921669721604,
                0.12145708501338959,
                0.01009591668844223,
                -0.24609649181365968,
                -0.103984035551548,
                0.20755808055400849,
                0.03744436055421829,
                0.22781652212142945,
                -0.1746595948934555,
                0.024645578116178514,
                0.23799939453601838,
                0.03242362290620804,
                0.0024514554534107448,
                -0.0037023962941020729,
                -0.0930594801902771,
                -0.12946057319641114,
                -0.09420330822467804,
                0.21037636697292329,
                -0.16440993547439576,
                -0.13714253902435304,
                -0.19886478781700135,
                0.12968510389328004,
                -0.14411599934101106,
                0.012881750240921975,
                0.002848058706149459,
                0.06753088533878327,
                -0.19292283058166505,
                0.0429580956697464,
                0.21198081970214845,
                -0.20205573737621308,
                0.17836391925811768,
                0.27570074796676638,
                -0.08926975727081299,
                0.18546321988105775,
                -0.2114325761795044,
                0.10295072942972183,
                0.20817948877811433,
                0.087503582239151,
                -0.05228038877248764,
                0.21472996473312379,
                -0.12644772231578828,
                0.14619921147823335,
                0.1499074548482895,
                0.10459395498037338,
                -0.1281549483537674,
                0.029963545501232148,
                0.20012694597244264,
                -0.025447554886341096,
                0.03058445267379284,
                -0.10829667001962662,
                -0.2275250256061554,
                -0.05923520401120186,
                0.03472241014242172,
                0.03005378507077694,
                -0.08572887629270554,
                0.04072199761867523,
                0.0393427237868309,
                -0.13103578984737397,
                0.04213442653417587,
                0.25073644518852236,
                -0.04076270014047623,
                -0.0968698188662529,
                -0.22383925318717957,
                0.14945991337299348,
                -0.17664504051208497,
                -0.09047742933034897,
                -0.19666102528572083,
                -0.19189098477363587,
                -0.05173516646027565,
                0.07323812693357468,
                -0.06572633981704712,
                0.044078510254621509,
                0.14285345375537873,
                0.16531360149383546,
                -0.03619803488254547,
                -0.12185303866863251,
                0.19395843148231507,
                0.11594579368829727,
                -0.07628057897090912,
                0.0885639637708664,
                0.18294955790042878,
                0.24565623700618745,
                0.040764372795820239,
                -0.09071846306324005,
                0.23081667721271516,
                0.33406007289886477,
                -0.23955416679382325,
                -0.05824661999940872,
                0.0697450265288353,
                -0.2721957266330719,
                0.1570330411195755,
                0.17918993532657624,
                0.1980956792831421,
                -0.0884849950671196,
                -0.10523700714111328,
                -0.038507405668497089,
                0.014395642094314099,
                0.21699921786785127,
                0.03861304745078087,
                0.11197003722190857,
                0.0471469983458519,
                -0.23590795695781709,
                0.22221042215824128,
                -0.13082963228225709,
                0.19347934424877168,
                -0.1361350268125534,
                -0.025266533717513086,
                0.1055334284901619,
                0.03615822270512581,
                -0.11711196601390839,
                -0.10459543019533158,
                -0.21054181456565858,
                0.17956003546714784,
                -0.07186853885650635,
                -0.0923762321472168,
                0.0031860601156949999,
                -0.15279428660869599,
                -0.08592557162046433,
                0.22556129097938538,
                0.1378537267446518,
                -0.14159251749515534,
                0.016268432140350343,
                -0.14890804886817933,
                0.2832488417625427,
                -0.014681902714073658,
                -0.2576398551464081,
                -0.1406909078359604,
                -0.014400582760572434,
                -0.10497294366359711,
                -0.04503985121846199,
                0.24186338484287263,
                -0.04500191658735275,
                0.17307765781879426,
                -0.13147205114364625,
                -0.007569112814962864,
                0.2438884824514389,
                -0.20526205003261567,
                -0.21080182492733003,
                0.16835346817970277,
                0.24431167542934419,
                -0.00091723189689219,
                0.04638843610882759,
                0.17823462188243867,
                0.07888926565647125,
                0.08027383685112,
                -0.04722932353615761,
                -0.04997716471552849,
                0.09929011762142182,
                0.1442255675792694,
                0.21683475375175477,
                -0.23033462464809419,
                -0.08927372843027115,
                0.13597626984119416,
                0.05891181901097298,
                -0.16313305497169496,
                0.07176659256219864,
                -0.09282995015382767,
                0.06242437660694122,
                0.10382848978042603,
                -0.10165772587060929,
                0.042272258549928668,
                0.19234684109687806,
                0.01976715587079525,
                0.21628102660179139,
                -0.16753602027893067,
                0.0011595836840569974,
                0.011785851791501046,
                0.10717839002609253,
                -0.08082074671983719,
                0.20919544994831086,
                0.1287795454263687
            ],
            "WeightsRows": 20,
            "WeightsCols": 20,
            "Biases": [
                0.1301327794790268,
                0.1064198687672615,
                -0.12614010274410249,
                0.062284015119075778,
                -0.06414090842008591,
                -0.07643003761768341,
                0.003934201318770647,
                0.04202771931886673,
                0.18398688733577729,
                0.0022242788691073658,
                0.054789748042821887,
                -0.0239711906760931,
                0.026863887906074525,
                0.11859337240457535,
                0.04695974290370941,
                -0.12056358903646469,
                0.01164258737117052,
                -0.023754170164465905,
                0.023331984877586366,
                0.022563299164175988
            ]
        },
        {
            "Weights": [
                -0.3278196454048157,
                0.06565044820308685,
                -0.2547753155231476,
                0.3144318163394928,
                0.04035668447613716,
                -0.27908220887184145,
                0.01336719747632742,
                0.04247179999947548,
                0.3832405209541321,
                0.21451079845428468,
                0.32082879543304446,
                -0.11362896859645844,
                0.045978110283613208,
                0.342033326625824,
                0.22927537560462953,
                -0.30924323201179507,
                0.007041726727038622,
                0.23810382187366486,
                0.23128098249435426,
                0.09148219972848892,
                -0.3355850875377655,
                -0.20453518629074098,
                0.19074851274490357,
                -0.10051947087049484,
                0.19098125398159028,
                0.20329365134239198,
                0.1175733208656311,
                -0.04105617478489876,
                -0.30765220522880556,
                -0.018737785518169404,
                -0.14651274681091309,
                0.2623235285282135,
                0.015522969886660576,
                -0.1887809932231903,
                -0.17536185681819917,
                0.26062190532684328,
                -0.14547131955623628,
                0.2320632040500641,
                -0.13056176900863648,
                -0.03874048590660095,
                0.44709983468055727,
                0.2439344823360443,
                -0.15049004554748536,
                0.05812957137823105,
                -0.10842690616846085,
                0.33025988936424258,
                0.16596542298793794,
                0.2974788248538971,
                0.020571742206811906,
                -0.16300049424171449,
                -0.3338380753993988,
                0.24496670067310334,
                -0.016897832974791528,
                0.011887648142874241,
                -0.2708214521408081,
                0.10328271239995957,
                0.22627229988574983,
                -0.2979717552661896,
                -0.16412344574928285,
                -0.20982864499092103
            ],
            "WeightsRows": 3,
            "WeightsCols": 20,
            "Biases": [
                0.15710477530956269,
                -0.29818421602249148,
                0.1410863697528839
            ]
        }
    ]
}