{
    "Layers": [
        {
            "Weights": [
                -0.1603146642446518,
                0.03240368887782097,
                0.024276120588183404,
                -0.1816902905702591,
                -0.06049486622214317,
                0.20456412434577943,
                0.0652201846241951,
                -0.18974244594573975,
                0.10331134498119354,
                -0.02483830600976944,
                -0.04351111128926277,
                0.01415560208261013,
                0.10672885179519654,
                -0.1677200198173523,
                0.22277523577213288,
                0.11516933143138886,
                -0.15996672213077546,
                0.17900560796260835,
                -0.1305149495601654,
                0.05142087861895561,
                0.12060598284006119,
                0.23770268261432649,
                0.06614036113023758,
                0.024982526898384095,
                0.058587852865457538,
                0.01684325560927391,
                -0.060719192028045657,
                -0.21304063498973847,
                0.0678970068693161,
                -0.08025000989437103,
                0.2957261800765991,
                -0.19350194931030274,
                0.14740808308124543,
                -0.203626349568367,
                -0.18724709749221803,
                0.23403656482696534,
                -0.17914676666259767,
                -0.1950996071100235,
                -0.09512688964605332,
                0.158880814909935,
                0.05533834546804428,
                -0.10556560009717941,
                -0.14604055881500245,
                -0.09932759404182434,
                -0.14381039142608643,
                0.008068096823990345,
                -0.23602330684661866,
                -0.05827387794852257,
                0.19795680046081544,
                0.009764686226844788,
                -0.17757456004619599,
                -0.07280651479959488,
                0.04749180004000664,
                0.023892011493444444,
                -0.09401370584964752,
                0.06521128118038178,
                0.06581508368253708,
                0.13365061581134797,
                0.18139024078845979,
                -0.06369272619485855,
                -0.13346335291862489,
                0.038871053606271747,
                0.03238978609442711,
                0.1079259067773819,
                -0.17475691437721253,
                -0.03774992376565933,
                0.04013755917549133,
                0.18049532175064088,
                -0.004350901115685701,
                -0.06039360538125038,
                -0.02489021234214306,
                0.29260292649269106,
                0.15590594708919526,
                -0.014118204824626446,
                -0.04603591561317444,
                0.03617921471595764,
                -0.1204833984375,
                -0.19035016000270844,
                -0.056346550583839419,
                -0.1435939222574234,
                0.1628951132297516,
                0.20814187824726106,
                0.16945302486419679,
                0.06254422664642334,
                0.15117526054382325,
                -0.08429208397865296,
                -0.002104241633787751,
                -0.14346104860305787,
                0.11998317390680313,
                0.16748055815696717,
                0.07720980793237686,
                -0.010741797275841236,
                -0.10813283920288086,
                0.14005398750305177,
                -0.039964910596609119,
                -0.0625205934047699,
                -0.09993426501750946,
                -0.08030804246664047,
                -0.050732553005218509,
                -0.09655545651912689,
                -0.06974226981401444,
                0.10874545574188233,
                -0.0894785150885582,
                0.04298735782504082,
                0.06605659425258637,
                -0.04769142344594002,
                0.056283384561538699,
                0.0014957502717152238,
                -0.22606854140758515,
                0.1934877187013626,
                -0.23061834275722505,
                0.10607685893774033,
                -0.23118866980075837,
                0.03786519169807434,
                -0.012257341295480729,
                0.011413616128265858,
                0.016130566596984865,
                0.2080119252204895,
                -0.22724014520645142,
                0.1213073879480362,
                -0.052670519798994067,
                -0.05759221315383911,
                -0.1090923547744751,
                -0.23875810205936433,
                -0.1316918134689331,
                0.06633131206035614,
                -0.1798456907272339,
                -0.20228663086891175,
                -0.2160484790802002,
                0.18660789728164674,
                -0.04532531276345253,
                0.14238497614860536,
                0.2176278978586197,
                -0.014937004074454308,
                -0.16142721474170686,
                -0.042020153254270557,
                0.20908331871032716,
                0.1855669766664505,
                0.1570941060781479,
                0.1853359490633011
            ],
            "WeightsRows": 7,
            "WeightsCols": 20,
            "Biases": [
                -0.031198974698781968,
                0.12559209764003755,
                -0.12799222767353059,
                0.26166802644729617,
                -0.05005551874637604,
                -0.11793268471956253,
                -0.060080695897340778
            ]
        }
    ]
}