{
    "Layers": [
        {
            "Weights": [
                0.016913186758756639,
                -0.13777181506156922,
                0.07645359635353089,
                0.00436553917825222,
                0.04547496512532234,
                -0.015383304096758366,
                0.013978871516883374,
                -0.04068121314048767,
                0.09333809465169907,
                -0.09835430979728699,
                -0.05791864171624184,
                -0.054068613797426227,
                -0.03616352006793022,
                0.028635241091251375,
                -0.0013019932666793466,
                -0.01983754336833954,
                0.0794350653886795,
                0.0010121092200279236,
                -0.09236973524093628,
                -0.01666133850812912,
                0.10157978534698487,
                -0.0006609201664105058,
                -0.008602676913142205,
                0.04382006451487541,
                -0.04855359345674515,
                -0.06326394528150559,
                -0.1422324925661087,
                -0.05411210283637047,
                -0.1428871750831604,
                -0.06215246766805649,
                -0.09145335853099823,
                0.043458785861730579,
                0.056530799716711047,
                -0.09415820986032486,
                0.08477295935153961,
                -0.044393252581357959,
                0.06050039455294609,
                -0.054034218192100528,
                0.0652431920170784,
                0.054918479174375537,
                0.05731748417019844,
                0.09824126213788986,
                -0.004016771912574768,
                0.05216486006975174,
                0.09314395487308502,
                0.04226488992571831,
                0.08071228861808777,
                0.008618809282779694,
                0.08906340599060059,
                -0.018439022824168206,
                -0.0485648550093174,
                -0.0010511040454730392,
                -0.05606839805841446,
                0.11279865354299545,
                -0.016977496445178987,
                -0.1044786125421524,
                0.04378054663538933,
                -0.03232581168413162,
                0.10321274399757385,
                -0.11592662334442139,
                -0.0776086077094078,
                0.11422692239284516,
                0.027708137407898904,
                0.0310281440615654,
                0.14067454636096955,
                -0.0604998879134655,
                0.06290893256664276,
                -0.09102899581193924,
                -0.006436227820813656,
                -0.04950728639960289,
                0.06016692891716957,
                -0.03691461309790611,
                -0.07926569133996964,
                -0.18028362095355988,
                0.0016826950013637543,
                -0.12444163858890534,
                -0.06869947165250778,
                -0.010117698460817337,
                0.003512718714773655,
                0.018333854153752328,
                0.028524987399578096,
                -0.0643286183476448,
                0.06664743274450302,
                -0.018677443265914918,
                -0.0411788672208786,
                0.055430058389902118,
                0.04102205112576485,
                -0.15073518455028535,
                -0.053014691919088367,
                -0.09616920351982117,
                -0.1191023588180542,
                -0.1089116558432579,
                -0.05445961654186249,
                0.00648663192987442,
                0.005582996644079685,
                0.036351777613162997,
                0.10706204175949097,
                -0.0780332162976265,
                0.05464480072259903,
                -0.12231354415416718,
                0.0791635811328888,
                0.0014044031267985702,
                -0.09015782177448273,
                -0.11013492196798325,
                0.03779683634638786,
                0.1352142095565796,
                0.08413644134998322,
                0.023786494508385659,
                0.014193611219525338,
                0.04242732748389244,
                0.21361863613128663,
                0.14219683408737184,
                -0.004048812203109264,
                0.1040271744132042,
                0.021561985835433008,
                -0.007631861139088869,
                -0.03600206971168518,
                0.03395584225654602,
                -0.05952320992946625,
                0.013826169073581696,
                0.15483373403549195,
                -0.0412873774766922,
                -0.12894552946090699,
                -0.0002049450995400548,
                0.020248208194971086,
                0.04245537519454956,
                0.04045405611395836,
                -0.08524638414382935,
                0.07612781226634979,
                0.06252196431159973,
                0.07879269123077393,
                -0.08461232483386994,
                -0.038739241659641269,
                -0.05152328312397003,
                -0.07376611232757569,
                -0.03453421965241432,
                -0.04045254737138748,
                0.01385072898119688,
                -0.07855958491563797,
                -0.012760442681610585,
                0.018619613721966745,
                0.01512058824300766,
                -0.0746380165219307,
                -0.052371859550476077,
                0.09942369908094406,
                0.06734821200370789,
                -0.067286416888237,
                0.0608459934592247,
                0.018078040331602098,
                0.04704128950834274,
                -0.045243773609399798,
                0.028890904039144517,
                0.022553326562047006,
                0.057467274367809299,
                0.07851754128932953,
                0.0008845576085150242,
                0.03392382711172104,
                0.21443314850330354,
                0.10193738341331482,
                0.09702323377132416,
                0.028482841327786447,
                0.10296732187271118,
                0.006134529132395983,
                -0.07196944952011109,
                -0.003938902635127306,
                -0.05478299409151077,
                0.0010590300662443042,
                -0.07660000026226044,
                -0.053663160651922229,
                -0.021674849092960359,
                -0.057140007615089419,
                0.05990482121706009,
                -0.003978943917900324,
                0.010802092961966992,
                -0.14276930689811707,
                -0.11877020448446274,
                0.028586801141500474,
                -0.10713139176368714,
                -0.05862625315785408,
                0.0005571531946770847,
                0.0739617720246315,
                0.1261604130268097,
                0.06384269148111344,
                0.0013134353794157506,
                0.0009635244496166706,
                0.019272606819868089,
                -0.07454126328229904,
                0.042523209005594257,
                0.12315633893013,
                0.04043489322066307,
                0.09005365520715714,
                0.04951629415154457,
                -0.042340345680713657,
                -0.013002344407141209,
                -0.13142892718315125,
                -0.02923724614083767,
                -0.12396424263715744,
                0.011252476833760739,
                -0.07647257298231125,
                0.06592755019664765,
                -0.025142060592770578,
                -0.05537880212068558,
                0.08830432593822479,
                0.11093471944332123,
                0.10573448240756989,
                -0.059468090534210208,
                0.122177354991436,
                0.12931911647319795,
                0.06027393788099289,
                0.01587127335369587,
                0.07392950356006623,
                0.08433522284030914,
                0.06638532131910324,
                0.10195642709732056,
                0.08025197684764862,
                0.09943760931491852,
                0.08081609010696411,
                -0.10569513589143753,
                -0.1117253452539444,
                0.11048536747694016,
                0.09759169816970825,
                0.02644990384578705,
                0.0387284941971302,
                -0.13174811005592347,
                -0.14676237106323243,
                0.00950166117399931,
                0.00799531303346157,
                -0.019866900518536569,
                0.01394615601748228,
                -0.011948134750127793,
                0.003927114885300398,
                0.03269680589437485,
                0.024430932477116586,
                0.08304286748170853,
                0.05788341164588928,
                0.17699304223060609,
                0.16486483812332154,
                -0.0168404970318079,
                0.08217604458332062,
                0.02921995520591736,
                -0.22688031196594239,
                -0.2565576732158661,
                -0.20433174073696137,
                -0.03267350047826767,
                -0.012095478363335133,
                -0.09638557583093643,
                -0.01080444548279047,
                -0.02429298125207424,
                0.06640223413705826,
                -0.003599314484745264,
                -0.014850212261080742,
                -0.003261385951191187,
                -0.024150004610419275,
                -0.07480079680681229,
                -0.09893198311328888,
                -0.09867256879806519,
                0.035288650542497638,
                -0.11642841249704361,
                -0.06240255385637283,
                0.09577072411775589,
                0.016473181545734407,
                -0.0021834562066942455,
                -0.09972333163022995,
                0.0806732028722763,
                0.0014656464336439968,
                0.050371743738651279,
                0.15888729691505433,
                0.09878209233283997,
                0.03980489820241928,
                0.07532920688390732,
                -0.081792913377285,
                -0.010498758405447007,
                -0.03436198830604553,
                0.03402344509959221,
                0.05630280822515488,
                -0.03626078739762306,
                0.08818534016609192,
                0.04496447741985321,
                0.04498527571558952,
                0.0036331487353891136,
                0.09171896427869797,
                0.11079715192317963,
                -0.1592051088809967,
                -0.03387819603085518,
                0.055203501135110858,
                -0.1276123821735382,
                -0.07890172302722931,
                -0.10497834533452988,
                0.07093440741300583,
                -0.04806482419371605,
                -0.05534382537007332,
                0.04357464984059334,
                0.05995875224471092,
                0.0598602220416069,
                0.055533722043037418,
                0.035918351262807849,
                0.07489382475614548,
                -0.10049034655094147,
                0.02164936065673828,
                -0.02735862135887146,
                0.0539274588227272,
                -0.0855751782655716,
                -0.04146324843168259,
                -0.008712459355592728,
                -0.08772647380828858,
                -0.06161424517631531,
                -0.11751400679349899,
                0.07177428901195526,
                0.09098470211029053,
                -0.06976202875375748,
                -0.08269508928060532,
                0.049652885645627978,
                -0.0588037446141243,
                -0.00015794686623848975,
                0.0026990273036062719,
                0.030929598957300187,
                -0.02798917330801487,
                -0.012556491419672966,
                -0.06719899922609329,
                0.11570695042610169,
                0.00022255093790590763,
                0.028437551110982896,
                0.031787049025297168,
                0.09208890050649643,
                0.05063501372933388,
                0.017060771584510804,
                0.02836667373776436,
                0.0339459665119648,
                0.11489713191986084,
                0.08071885257959366,
                -0.06205778941512108,
                -0.13828007876873017,
                -0.04240461811423302,
                -0.06574048846960068,
                -0.03673674911260605,
                -0.0348566509783268,
                -0.025460386648774148,
                -0.010958229191601277,
                -0.017762931063771249,
                -0.01932338997721672,
                -0.06766361743211746,
                0.04546144977211952,
                -0.09571736305952072,
                -0.11489272862672806,
                -0.09019330888986588,
                -0.12115855515003205,
                -0.09874985367059708,
                -0.05768303573131561,
                0.05979624390602112,
                0.0896305963397026,
                0.00972712878137827,
                -0.040059205144643787,
                0.01945296861231327,
                0.04603124037384987,
                -0.012864923104643822,
                0.017515001818537713,
                0.0281448382884264,
                0.023462528362870218,
                -0.013456659391522408,
                -0.07982347905635834,
                0.02592620812356472,
                0.07211672514677048,
                0.24815280735492707,
                0.153891459107399,
                0.0472739078104496,
                0.13136298954486848,
                -0.007615259848535061,
                0.06301898509263993,
                0.054097242653369907,
                -0.035614848136901858,
                -0.1411251723766327,
                -0.030011076480150224,
                0.06617575883865357,
                0.16988776624202729,
                -0.11692255735397339,
                -0.08435287326574326,
                -0.08963050693273545,
                0.01848970167338848,
                -0.02224631980061531,
                -0.07202556729316712,
                0.08882582187652588,
                -0.07704415917396546,
                0.005118370056152344,
                -0.027579188346862794,
                0.0037871585227549078,
                -0.024220673367381097,
                -0.10262671858072281,
                0.06930819898843765,
                0.0967143177986145,
                0.00690124137327075,
                -0.024981210008263589,
                -0.04730962589383125,
                -0.02242712676525116,
                -0.024358954280614854,
                0.06678949296474457,
                0.07110343128442764,
                0.049423981457948688,
                0.09835153818130493,
                0.08372782915830612,
                0.10737133771181107,
                0.0876053050160408,
                -0.02313224785029888,
                -0.034733522683382037,
                0.020078780129551889,
                0.02354121021926403,
                -0.17472943663597108,
                0.09063101559877396,
                -0.05929407477378845,
                0.22200250625610352,
                0.2557142674922943,
                0.06065904349088669,
                0.09476727992296219,
                0.0704188272356987,
                0.09333431720733643,
                0.08089378476142883,
                -0.16312122344970704,
                -0.05485989898443222,
                0.030772419646382333,
                -0.13439077138900758,
                -0.10248862951993942,
                -0.09574656188488007,
                0.049598995596170428,
                0.11333832144737244,
                0.024510886520147325,
                -0.04704602062702179,
                -0.029895618557929994,
                -0.05892014876008034,
                0.073877714574337,
                0.01699782907962799,
                0.05051976069808006,
                -0.12103790044784546,
                -0.11743425577878952,
                -0.06108541786670685,
                -0.10397572815418244,
                0.029573658481240274,
                -0.14730827510356904,
                -0.03138655051589012,
                -0.08905186504125595,
                0.015854591503739358,
                0.05931069329380989,
                0.1645113229751587,
                0.19310225546360017,
                0.13113528490066529,
                0.09178441017866135,
                -0.01895863004028797,
                0.05602303519845009,
                0.14596202969551087,
                -0.0025566010735929014,
                0.11031126976013184,
                0.08394046872854233,
                0.04316635802388191,
                -0.08341033011674881,
                -0.01589193567633629,
                -0.06566256284713745,
                -0.004766546655446291,
                0.00955249834805727,
                -0.02497998997569084,
                0.07692845910787583,
                0.07084231823682785,
                0.006742069497704506,
                -0.021900292485952379,
                0.07011014223098755,
                -0.09864203631877899,
                -0.04833120107650757,
                0.009766712784767151,
                -0.10318756103515625,
                0.0784473866224289,
                -0.04724551737308502,
                -0.053002405911684039,
                0.07901590317487717,
                -0.1161368116736412,
                0.043916765600442889,
                -0.04287692904472351,
                0.03616002947092056,
                0.0387800931930542,
                0.05824313312768936,
                -0.028392532840371133,
                -0.03503807634115219,
                -0.014852887019515038,
                0.06908337771892548,
                0.0762866958975792,
                -0.08918584883213043,
                -0.008624053560197354,
                -0.12276751548051834,
                -0.1233242005109787,
                0.05927477404475212,
                -0.06894081085920334,
                0.1577826738357544,
                0.05488642305135727,
                -0.04007221758365631,
                0.1902329921722412,
                -0.0755520612001419,
                0.10410905629396439,
                -0.006051096133887768,
                0.08362627029418946,
                -0.050093017518520358,
                0.0473775640130043,
                0.022649690508842469,
                0.05283171683549881,
                -0.10223519802093506,
                0.025011824443936349,
                -0.15721210837364198,
                0.08518911898136139,
                0.03830086067318916,
                -0.032728999853134158,
                0.007637877482920885,
                0.022041210904717447,
                0.04301714897155762,
                -0.08062629401683808,
                -0.04974034056067467,
                0.04340820759534836,
                -0.03135477378964424,
                0.05917223170399666,
                0.07316109538078308,
                -0.04069008305668831,
                0.08256131410598755,
                -0.11784522980451584,
                0.027091123163700105,
                -0.024765515699982644,
                -0.06659889221191406,
                0.046051353216171268,
                0.06083226203918457,
                -0.07977989315986633,
                0.03863384947180748,
                0.13811030983924867,
                0.10925278067588806,
                0.016492389142513276,
                -0.0770762488245964,
                -0.10793942958116532,
                -0.018388841301202775,
                -0.18280591070652009,
                -0.031586308032274249,
                -0.13452589511871339,
                -0.08700433373451233,
                0.07427246123552323,
                0.05793435126543045,
                0.04998647794127464,
                0.06497571617364884,
                -0.04791183024644852,
                -0.03768579289317131,
                -0.07748051732778549,
                -0.08905436098575592,
                0.10086001455783844,
                -0.06665124744176865,
                -0.09768088907003403,
                0.051371462643146518,
                0.037566959857940677,
                0.05450209975242615,
                0.020320508629083635,
                -0.10761797428131104,
                0.031763091683387759,
                -0.04539566859602928,
                0.11690141260623932,
                0.023711441084742547,
                -0.09767722338438034,
                -0.042600732296705249,
                0.026195276528596879,
                0.09384359419345856,
                -0.051554400473833087,
                0.014519006945192814,
                -0.059231165796518329,
                0.04182572662830353,
                -0.0341004952788353,
                0.10507925599813461,
                -0.09176125377416611,
                -0.00970997754484415,
                -0.07703755050897598,
                -0.06215328350663185,
                0.03708338364958763,
                0.013058771379292012,
                -0.03540239855647087,
                -0.03753088787198067,
                -0.02479788102209568,
                0.04558156430721283,
                -0.06643817573785782,
                0.05926339328289032,
                -0.05173403024673462,
                -0.11078863590955734,
                -0.04955148324370384,
                -0.022766439244151117,
                -0.1280311793088913,
                -0.060492586344480517,
                -0.005489031318575144,
                0.17441408336162568,
                0.15471692383289338,
                -0.03625979647040367,
                0.07410593330860138,
                0.0769021287560463,
                -0.06217903271317482,
                -0.009583341889083386,
                0.03943652659654617,
                0.02945377491414547,
                -0.0665227547287941,
                -0.08330739289522171,
                0.007723771035671234,
                -0.12718786299228669,
                0.006039021071046591,
                0.023140106350183488,
                -0.0779675766825676,
                0.05924597010016441,
                0.21139301359653474,
                0.07951812446117401,
                0.11687798798084259,
                0.06694947928190232,
                0.15979062020778657,
                -0.00028151049627922475,
                -0.031685762107372287,
                -0.033109959214925769,
                -0.07260531932115555,
                -0.14892010390758515,
                -0.023001493886113168,
                -0.006401962134987116,
                0.027244390919804574,
                -0.15193471312522889,
                0.10727859288454056,
                -0.07183021306991577,
                0.08467081934213638,
                -0.10296903550624848,
                0.05084884539246559,
                0.06426555663347244,
                0.06468489021062851,
                -0.1514684110879898,
                0.032757941633462909,
                0.0415172353386879,
                -0.03232553228735924,
                -0.09169260412454605,
                -0.05371777340769768,
                0.038302384316921237,
                0.03244679793715477,
                0.0693022683262825,
                0.0952402800321579,
                0.08849097788333893,
                -0.025694265961647035,
                0.07773984968662262,
                0.020303860306739808,
                0.09203726053237915,
                0.014459900557994843,
                0.016606653109192849,
                -0.09759412705898285,
                -0.035223014652729037,
                0.058149900287389758,
                0.06837505102157593,
                -0.09306558221578598,
                -0.09483668953180313,
                -0.10527302324771881,
                -0.050348229706287387,
                -0.06397397071123123,
                0.0777704119682312,
                -0.04652877524495125,
                0.09648273140192032,
                0.21760396659374238,
                0.1768769472837448,
                0.049049194902181628,
                0.1656876802444458,
                -0.08751083165407181,
                0.020732184872031213,
                -0.0145390834659338,
                -0.006770427338778973,
                0.035592470318078998,
                0.06807074695825577,
                -0.01252819411456585,
                0.16619305312633515,
                0.011185245588421822,
                -0.07248155772686005,
                -0.009887590073049069,
                0.013391086831688881,
                -0.08438780903816223,
                -0.12657859921455384,
                -0.13668349385261537,
                -0.002223679330199957,
                0.016311584040522577,
                0.08897049725055695,
                -0.036693621426820758,
                -0.12025324255228043,
                -0.029931575059890748,
                0.07916951924562454,
                0.06639064103364945,
                0.056498490273952487,
                -0.015450181439518929,
                -0.09866663068532944,
                0.000564524729270488,
                0.07169657200574875,
                -0.038780685514211658,
                -0.07016617804765701,
                0.08749532699584961,
                -0.06563106924295426,
                -0.036024659872055057,
                0.017404859885573388,
                0.03089524619281292,
                0.09132880717515946,
                0.08009640127420426,
                -0.028494510799646379,
                0.038579098880290988,
                0.020529843866825105,
                0.08619799464941025,
                -0.033016692847013476,
                -0.039527926594018939,
                -0.11722658574581146,
                -0.10135026276111603,
                -0.06683466583490372,
                0.008566154167056084,
                -0.11158283799886704,
                -0.02549099363386631,
                -0.08203677088022232,
                0.01391879003494978,
                0.012988707982003689,
                0.009071958251297474,
                -0.06501168012619019,
                -0.041542716324329379,
                -0.040127307176589969,
                0.10025719553232193,
                0.09285876154899597,
                -0.024324491620063783,
                0.12990698218345643,
                -0.054913461208343509,
                -0.053888220340013507,
                -0.019819047302007676,
                -0.02822123095393181,
                0.04370076209306717,
                0.027465075254440309,
                -0.02394314669072628,
                -0.06113098934292793,
                0.059378594160079959,
                -0.005303841549903154,
                0.06028975918889046,
                0.0780399739742279,
                -0.09884419292211533,
                0.0137325469404459,
                -0.11409468948841095,
                0.057224858552217486,
                -0.014211985282599926,
                0.06967642903327942,
                -0.11414366960525513,
                0.1007230281829834,
                0.07863826304674149,
                0.01271884236484766,
                0.06686046719551087,
                -0.0017837343038991094,
                0.09887011349201203,
                0.08568527549505234,
                -0.07571422308683396,
                -0.04210183024406433,
                -0.060451310127973559,
                0.015330500900745392,
                -0.020367614924907686,
                -0.07390131056308747,
                -0.12493963539600373,
                0.03216763585805893,
                -0.1251048445701599,
                0.0249165166169405,
                -0.038076870143413547,
                -0.05716386437416077,
                -0.11902465671300888,
                -0.06057627499103546,
                -0.05653051286935806,
                -0.08395175635814667,
                -0.018038025125861169,
                -0.00026008181157521904,
                0.03135501220822334,
                -0.026206085458397867,
                -0.0233488567173481,
                -0.005987765267491341,
                -0.047267746180295947,
                0.04198084771633148,
                -0.025790056213736535,
                0.012513837777078152,
                -0.027361968532204629,
                0.07156000286340714,
                0.05193570628762245,
                -0.04328780993819237,
                0.05537120997905731,
                -0.18779194355010987,
                -0.05956624448299408,
                0.020474057644605638,
                0.016306353732943536,
                -0.05703655630350113,
                0.05752508342266083,
                0.16091936826705934,
                0.09347065538167954,
                -0.05609871819615364,
                0.14925886690616609,
                0.09493552893400192,
                0.18958529829978944,
                0.062201496213674548,
                0.12007936835289002,
                -0.01784762367606163,
                -0.09892059862613678,
                0.007970131002366543,
                0.0465376190841198,
                0.0005792742595076561,
                0.018595952540636064,
                -0.014480804093182087,
                0.10367730259895325,
                0.11763574928045273,
                -0.09233319759368897,
                -0.046357449144124988,
                0.03466235473752022,
                0.033235613256692889,
                -0.024424254894256593,
                -0.008677735924720765,
                -0.10368455946445465,
                -0.0200975239276886,
                -0.019410420209169389,
                -0.07085925340652466,
                0.039635851979255679,
                -0.031070701777935029,
                0.02067103050649166,
                0.020640047267079355,
                0.12816835939884187,
                -0.06612083315849304,
                -0.08490637689828873,
                -0.15229114890098573,
                0.019650258123874666,
                -0.08254815638065338,
                -0.09804742783308029,
                0.05366486310958862,
                0.08949591219425202,
                -0.08919940143823624,
                -0.08669786155223847,
                -0.11752328276634217,
                -0.11797824501991272,
                -0.00020994640362914652,
                0.07138505578041077,
                0.11998160928487778,
                -0.0526447556912899,
                -0.1315329372882843,
                0.10953637957572937,
                0.052758123725652698,
                0.15228432416915894,
                0.1882563978433609,
                0.08029934018850327,
                0.10690607130527497,
                0.017005324363708497,
                0.15458133816719056,
                -0.028291750699281694,
                -0.069279246032238,
                -0.0646928995847702,
                -0.04676199331879616,
                0.025659942999482156,
                0.008186010643839836,
                0.05041728541254997,
                -0.021803708747029306,
                0.052804723381996158,
                0.04972920939326286,
                0.0906117856502533,
                -0.03231073170900345,
                -0.009658138267695904,
                0.04371443763375282,
                0.05459834262728691,
                0.06468603014945984,
                0.047997165471315387,
                0.027924753725528718,
                0.05873648077249527,
                -0.012209943495690823,
                -0.021681923419237138,
                0.08693647384643555,
                0.04171229153871536,
                0.10287314653396607,
                -0.035282958298921588,
                -0.05175120010972023,
                -0.023341074585914613,
                -0.01287095807492733,
                0.0811830386519432,
                0.07831121981143952,
                0.04403163492679596,
                0.04922572150826454,
                -0.20104138553142548,
                -0.10237618535757065,
                -0.024951614439487459,
                -0.030927080661058427,
                0.08557668328285217,
                0.08400639146566391,
                0.033783432096242908,
                -0.022401975467801095,
                -0.04036818817257881,
                0.04161734879016876,
                0.055753741413354877,
                -0.03746606037020683,
                -0.08477664738893509,
                0.023088138550519944,
                0.12015176564455033,
                -0.010423870757222176,
                0.09116946160793305,
                0.10836367309093476,
                -0.0934540331363678,
                0.0664399266242981,
                0.035571228712797168,
                0.05036846548318863,
                0.06088170409202576,
                0.03417734056711197,
                0.030883438885211946,
                0.055090103298425677,
                -0.05779013782739639,
                0.11312010139226914,
                0.021800005808472635,
                -0.05002818629145622,
                0.003493041265755892,
                -0.12437206506729126,
                -0.04216217249631882,
                0.007183996494859457,
                -0.03583728149533272,
                0.08935195207595825,
                0.07026362419128418,
                -0.04794555529952049,
                0.03413194790482521,
                0.11096314340829849,
                -0.053259022533893588,
                0.09676522761583328,
                -0.010077178478240967,
                0.003182921791449189,
                0.06913243234157562,
                -0.023288270458579065,
                -0.15892396867275239,
                -0.0716983750462532,
                -0.07696086913347244,
                0.032852653414011,
                0.006269341800361872,
                -0.06546715646982193,
                0.05259053036570549,
                -0.06130792573094368,
                0.08889690041542053,
                -0.042606499046087268,
                0.11662411689758301,
                -0.05376820266246796,
                -0.0998832955956459,
                0.02369917556643486,
                -0.03986801207065582,
                -0.11191962659358978,
                0.12858453392982484,
                -0.00866330973803997,
                0.05257422477006912,
                -0.09669113159179688,
                -0.0600048266351223,
                -0.07035946846008301,
                -0.021518543362617494,
                0.0033888735342770817,
                0.05454080179333687,
                0.23002663254737855,
                0.1027069017291069,
                0.10104057192802429,
                0.07997123152017594,
                -0.011801445856690407,
                0.047028910368680957,
                -0.04380135238170624,
                -0.055586155503988269,
                -0.07680787146091461,
                -0.02453036978840828,
                -0.11130780726671219,
                -0.07418961822986603,
                -0.03274787589907646,
                -0.06697999686002732,
                -0.09832626581192017,
                -0.10368332266807556,
                -0.09320475906133652,
                0.15106257796287538,
                -0.08991952240467072,
                0.11449933052062988,
                -0.04178453981876373,
                0.04462701827287674,
                0.0842968225479126,
                -0.0837608054280281,
                -0.06978528201580048,
                -0.0754484161734581,
                0.07862859219312668,
                -0.06269869208335877,
                0.019495857879519464,
                -0.04835190251469612,
                -0.09620489180088043,
                0.05428298935294151,
                0.04086119681596756,
                0.029663827270269395,
                0.039160292595624927,
                0.13736402988433839,
                0.03934597596526146,
                0.03157361224293709,
                -0.0053064557723701,
                0.10568562150001526,
                0.0999148041009903,
                -0.03935925289988518,
                -0.0648714154958725,
                -0.046234942972660068,
                -0.010906217619776726,
                0.0688544362783432,
                0.06967847794294357,
                0.0022718000691384079,
                0.15937255322933198,
                0.19100421667099,
                0.20847198367118836,
                0.19007372856140138,
                0.06408733874559403,
                -0.0651756227016449,
                -0.1749843806028366,
                0.08647995442152024,
                0.06492400914430618,
                0.007529070135205984,
                0.022005079314112665,
                -0.2026425153017044,
                -0.0485348179936409,
                -0.17997902631759644,
                -0.13807612657546998,
                -0.061160698533058169,
                0.0002207850629929453,
                -0.06670912355184555,
                0.025261465460062028,
                0.049633339047431949,
                0.04098806530237198,
                -0.03157899156212807,
                0.0020961626432836057,
                0.05431929603219032,
                0.016022944822907449,
                -0.0012952035758644343,
                -0.03813059628009796,
                0.04676542431116104,
                -0.010886305011808873,
                -0.05389847978949547,
                0.02988845854997635,
                0.015187817625701428,
                -0.07860951870679856,
                0.027972830459475519,
                -0.03192068636417389,
                0.025096535682678224,
                -0.060574810951948169,
                0.061906393617391589,
                -0.06899382174015045,
                0.056473661214113238,
                -0.0038565308786928655,
                0.05201229080557823,
                0.030026299878954889,
                0.03957046940922737,
                0.0512382872402668,
                0.05355660617351532,
                0.018771158531308175,
                -0.04234464094042778,
                -0.08882352709770203,
                -0.055655866861343387,
                -0.017622658982872964,
                -0.06271004676818848,
                -0.13498149812221528,
                0.12235771864652634,
                -0.046294815838336948,
                -0.05098108574748039,
                -0.008687881752848626,
                0.059328142553567889,
                -0.0055248551070690159,
                0.06947283446788788,
                -0.08492669463157654,
                0.07344120740890503,
                -0.00011698949674610049,
                0.06120578572154045,
                0.07168688625097275,
                -0.10265503823757172,
                -0.03327983617782593,
                -0.05830030143260956,
                0.10490316152572632,
                -0.08426837623119354,
                0.09312236309051514,
                0.06852929294109345,
                -0.007140418980270624,
                0.035270825028419498,
                -0.04139651358127594,
                0.007625228259712458,
                0.02594914473593235,
                0.01031956821680069,
                0.09785448759794235,
                0.03681347146630287,
                0.03513313829898834,
                -0.09490765631198883,
                -0.08822843432426453,
                0.03630753234028816,
                0.026425529271364213,
                -0.04789690300822258,
                0.05988376960158348,
                -0.002718154340982437,
                0.07072869688272476,
                -0.052321892231702808,
                0.22395122051239015,
                0.15066388249397279,
                0.013399987481534481,
                0.17452272772789002,
                0.13849255442619325,
                -0.04753952845931053,
                -0.24985869228839875,
                -0.1882329285144806,
                -0.04757826775312424,
                -0.06014692038297653,
                -0.08502508699893952,
                -0.12135002017021179,
                -0.07152184098958969,
                0.07600496709346771,
                0.05817049369215965,
                -0.025138288736343385,
                0.03220827504992485,
                0.08627667278051377,
                -0.023123724386096,
                -0.08721675723791123,
                0.09001912176609039,
                0.049607452005147937,
                -0.04204185679554939,
                0.1273217648267746,
                0.04787219688296318,
                0.009120998904109002,
                0.0396997407078743,
                0.02924145758152008,
                0.07750720530748368,
                -0.23311929404735566,
                -0.10998878628015518,
                -0.19476576149463654,
                -0.16290909051895142,
                -0.014743268489837647,
                0.0020104895811527969,
                -0.0892653688788414,
                -0.07306494563817978,
                -0.06748820841312409,
                0.0030081188306212427,
                -0.03279532492160797,
                -0.12642735242843629,
                0.04678379371762276,
                0.1864480972290039,
                -0.06756100803613663,
                -0.06555689871311188,
                0.02628348208963871,
                -0.06989587098360062,
                0.04131028428673744,
                0.09540349990129471,
                0.0851634070277214,
                0.010732538998126984,
                0.037367984652519229,
                0.05890965834259987,
                -0.0017562202410772443,
                0.08574815094470978,
                0.05853264033794403,
                -0.035652484744787219,
                0.0739455595612526,
                -0.07950902730226517,
                -0.07250551879405976,
                0.09204895794391632,
                0.09208819270133972,
                0.03488829359412193,
                -0.03195244073867798,
                0.10292686522006989,
                -0.010288974270224572,
                -0.033590167760849,
                0.07162290811538696,
                -0.006305425427854061,
                -0.09604951739311218,
                -0.0030932247173041107,
                0.086430624127388,
                0.10457292944192887,
                0.09306281059980393,
                0.09900732338428498,
                0.12234766781330109,
                0.1532706916332245,
                -0.10105358064174652,
                -0.20150981843471528,
                -0.2292366623878479,
                -0.20338769257068635,
                -0.03983740508556366,
                -0.03573449328541756,
                0.08073912560939789,
                0.051610067486763,
                -0.027173053473234178,
                -0.004102959763258696,
                0.011157513596117497,
                0.001014004577882588,
                0.2228306233882904,
                0.0019865944050252439,
                0.06173951178789139,
                -0.055563315749168399,
                -0.05667136609554291,
                -0.0033843880519270899,
                0.011011309921741486,
                -0.04488525912165642,
                -0.009529449976980687,
                0.011369897052645684,
                0.0236807893961668,
                0.059914667159318927,
                -0.0321531817317009,
                0.050397519022226337,
                -0.04885115101933479,
                -0.1054568737745285,
                -0.008908926509320736,
                -0.06284210830926895,
                0.008297471329569817,
                0.05689593032002449,
                0.06149977073073387,
                -0.024830175563693048,
                0.09291249513626099,
                -0.02951042912900448,
                0.029204854741692544,
                0.04790068417787552,
                0.0983375608921051,
                -0.016901198774576188,
                -0.046746786683797839,
                -0.057983580976724628,
                -0.03273758292198181,
                -0.0856688991189003,
                0.08249425888061524,
                0.01672026515007019,
                -0.0695277601480484,
                0.01743762381374836,
                -0.02288586087524891,
                -0.04921196028590202,
                -0.0818224847316742,
                0.09038186073303223,
                -0.006032176781445742,
                -0.040621593594551089,
                0.030598118901252748,
                0.01899225264787674,
                0.06327845901250839,
                0.1015247106552124,
                -0.06457226723432541,
                0.003272821893915534,
                -0.014554161578416825,
                0.05164048448204994,
                -0.08567026257514954,
                0.07994189858436585,
                -0.10203497856855393,
                0.06954668462276459,
                0.020172443240880967,
                0.038771599531173709,
                -0.04549400135874748,
                0.053310468792915347,
                -0.07081729173660279,
                -0.04358623921871185,
                0.11752691119909287,
                0.018469829112291337,
                0.003355087246745825,
                0.0005153591628186405,
                -0.011035560630261898,
                0.003358524991199374,
                0.0550616979598999,
                -0.08308380097150803,
                -0.017186688259243966,
                -0.009524013847112656,
                0.09863303601741791,
                -0.04820968210697174,
                0.1017884686589241,
                0.10795582085847855,
                0.013194880448281765,
                0.10107792168855667,
                -0.030186373740434648,
                0.07608404755592346,
                -0.09995092451572418,
                -0.06876049190759659,
                0.16201920807361604,
                0.017387544736266137,
                -0.039624907076358798,
                0.11801564693450928,
                -0.12303400784730911,
                -0.07472088187932968,
                -0.07175794243812561,
                -0.0031489788088947536,
                0.05354056879878044,
                -0.022157058119773866,
                0.05115881934762001,
                -0.0029425607062876226,
                0.0748070478439331,
                0.08240560442209244,
                -0.0703178197145462,
                0.013344732113182545,
                -0.06133865565061569,
                -0.1153334230184555,
                -0.06344873458147049,
                0.01888633891940117,
                0.07866284996271134,
                0.09956005960702896,
                -0.13459473848342896,
                -0.1546560525894165,
                -0.14285065233707429,
                -0.14025676250457765,
                -0.13699358701705934,
                -0.023401329293847085,
                0.11504866927862168,
                0.04377635195851326,
                0.046170998364686969,
                0.006839686539024115,
                -0.02434545010328293,
                -0.055490829050540927,
                0.08507795631885529,
                -0.026777047663927079,
                -0.06274396926164627,
                0.0335027277469635,
                0.014900941401720047,
                0.03339478000998497,
                0.0978296622633934,
                0.017642319202423097,
                0.0892779678106308,
                0.04576326161623001,
                -0.023528335615992547,
                -0.07480163127183914,
                -0.0334056131541729,
                0.008791159838438034,
                0.0007383065531030297,
                -0.06196654960513115,
                0.0025245826691389086,
                -0.0015395429218187929,
                0.09670017659664154,
                -0.12535984814167024,
                -0.04497779533267021,
                -0.1075410544872284,
                0.02122080884873867,
                0.030333340167999269,
                -0.055492471903562549,
                -0.10668705403804779,
                0.04690290614962578,
                0.04324435442686081,
                -0.09883254766464234,
                0.08745415508747101,
                -0.05785519629716873,
                0.015542373061180115,
                -0.09922513365745545,
                0.08592104911804199,
                -0.025508878752589227,
                -0.04358046501874924,
                -0.10173742473125458,
                0.006963615771383047,
                -0.026003103703260423,
                -0.06466943025588989,
                0.012615366838872433,
                -0.05938614159822464,
                -0.07461986690759659,
                0.1436833292245865,
                0.07993357628583908,
                0.12814435362815858,
                0.09711937606334686,
                0.03093969263136387,
                -0.07030529528856278,
                0.10072913765907288,
                0.16072587668895722,
                0.10680146515369415,
                0.05093686282634735,
                -0.07210707664489746,
                -0.036561448127031329,
                -0.09271099418401718,
                0.005719801876693964,
                -0.05932034179568291,
                -0.008459353819489479,
                -0.03708181530237198,
                0.013334622606635094,
                0.0197091493755579,
                0.00833338126540184,
                0.06422313302755356,
                0.09049134701490402,
                0.08827804774045944,
                0.0768062099814415,
                0.074886254966259,
                -0.06266215443611145,
                0.12886503338813783,
                0.09645745158195496,
                0.09225761890411377,
                0.057670168578624728,
                0.09301980584859848,
                -0.02199573814868927,
                0.012933338060975075,
                0.041886430233716968,
                -0.01277528703212738,
                -0.02781929075717926,
                -0.021007083356380464,
                -0.10307364165782929,
                -0.01647099107503891,
                0.0711846798658371,
                0.03277968987822533,
                0.04881158471107483,
                0.021528517827391626,
                -0.055506303906440738,
                -0.13484551012516023,
                -0.09149990230798722,
                -0.055281732231378558,
                0.023636121302843095,
                -0.08296320587396622,
                0.020259877666831018,
                -0.0022036731243133547,
                -0.05236106738448143,
                0.0014133763033896685,
                0.16046231985092164,
                0.05715368315577507,
                0.08979512751102448,
                0.08564826101064682,
                0.0950588658452034,
                -0.05922827869653702,
                0.044624507427215579,
                0.012379764579236508,
                -0.08124499022960663,
                0.061946164816617969,
                -0.06174906715750694,
                -0.06293965876102448,
                0.0572037398815155,
                -0.0346798300743103,
                -0.07445050776004791,
                -0.07269588112831116,
                -0.014869071543216706,
                -0.048826396465301517,
                -0.06982064247131348,
                -0.0411442294716835,
                0.10666414350271225,
                -0.07718085497617722,
                0.032423652708530429,
                0.009985677897930146,
                -0.02511431649327278,
                0.016225464642047883,
                0.04236317053437233,
                0.039383549243211749,
                -0.08917917311191559,
                -0.017104782164096834,
                0.00861319899559021,
                0.042518939822912219,
                0.03865782544016838,
                0.02846129797399044,
                0.02396618202328682,
                0.09742331504821778,
                -0.06273962557315827,
                -0.06594821065664292,
                -0.11772734671831131,
                -0.027714470401406289,
                -0.02988755889236927,
                -0.11276896297931671,
                -0.14657974243164063,
                -0.07366547733545304,
                -0.011739186942577362,
                0.04011720418930054,
                -0.04922470822930336,
                -0.07617654651403427,
                -0.07627976685762406,
                0.09126340597867966,
                0.07920461148023606,
                0.05155475437641144,
                -0.004849462304264307,
                -0.01136120967566967,
                0.003604557830840349,
                0.05489803105592728,
                -0.026616599410772325,
                0.07295571267604828,
                0.08710082620382309,
                -0.040650758892297748,
                0.014435448683798314,
                -0.09893667697906494,
                0.0999709814786911,
                0.09251021593809128,
                -0.026216207072138788,
                0.013188494369387627,
                0.08250086009502411,
                0.02816130220890045,
                -0.11288312077522278,
                -0.004367029294371605,
                0.11493415385484696,
                0.00625224644318223,
                -0.003147183684632182,
                0.032817281782627109,
                0.042085111141204837,
                -0.028705235570669175,
                -0.08872998505830765,
                0.05312047153711319,
                0.0867394506931305,
                -0.12474019825458527,
                -0.1392192542552948,
                0.03931199759244919,
                -0.1130484789609909,
                -0.004770515486598015,
                0.053755126893520358,
                -0.017849162220954896,
                0.15014097094535829,
                -0.09355295449495316,
                0.03556085377931595,
                0.09082354605197907,
                0.036388296633958819,
                0.09202004969120026,
                -0.034845348447561267,
                -0.03880709037184715,
                0.11016586422920227,
                0.08075438439846039,
                0.005647405982017517,
                0.10869017243385315,
                0.01853802800178528,
                0.029671207070350648,
                0.04316678270697594,
                0.08952571451663971,
                0.12330718338489533,
                0.06939316540956497,
                0.06667212396860123,
                0.10638488829135895,
                0.03875880315899849,
                -0.008637722581624985,
                0.05919351801276207,
                0.06150331720709801,
                -0.004617840051651001,
                -0.07689468562602997,
                -0.07507610321044922,
                -0.03855182230472565,
                -0.07973280549049378,
                0.05547599121928215,
                -0.0643390491604805,
                -0.0021501113660633566,
                -0.04170789197087288,
                0.1024274230003357,
                0.09920657426118851,
                -0.14675746858119965,
                -0.16034375131130219,
                -0.07592682540416718,
                -0.09225314110517502,
                -0.08640745282173157,
                -0.04959863796830177,
                0.0009636011673137546,
                -0.01780763827264309,
                -0.07479827851057053,
                -0.09792535752058029,
                -0.009685390628874302,
                0.02292184717953205,
                0.0405028834939003,
                0.07915481179952622,
                -0.005923637188971043,
                0.057346440851688388,
                -0.10016804188489914,
                -0.044358961284160617,
                -0.07246215641498566,
                -0.003334469860419631,
                -0.06840794533491135,
                -0.042135000228881839,
                0.04454093426465988,
                -0.06821472197771073,
                -0.00021479306451510638,
                -0.1125594824552536,
                -0.08842483162879944,
                -0.025568226352334024,
                -0.000381913676392287,
                0.13523057103157044,
                -0.060170844197273257,
                0.07054580003023148,
                0.04876071214675903,
                -0.03610859811306,
                -0.012028049677610398,
                -0.04241218790411949,
                -0.13991796970367433,
                -0.18465487658977509,
                -0.23057454824447633,
                0.005062068346887827,
                0.0375872477889061,
                0.12566043436527253,
                0.027740346267819406,
                -0.02421286515891552,
                0.11090931296348572,
                0.12383350729942322,
                0.05981608107686043,
                -0.006310802418738604,
                0.07770761847496033,
                0.0866735503077507,
                -0.001131132012233138,
                0.024469420313835145,
                0.031097404658794404,
                -0.10754405707120896,
                0.08644543588161469,
                0.08896587044000626,
                0.013279018923640252,
                -0.07283512502908707,
                0.03450697660446167,
                0.07142631709575653,
                -0.0035767555236816408,
                -0.07849046587944031,
                0.09311991930007935,
                -0.06778866052627564,
                0.018102172762155534,
                -0.02137093059718609,
                -0.020624659955501558,
                -0.08589517325162888,
                -0.10947450995445252,
                0.07420121133327484,
                -0.0022913238499313595,
                0.027153296396136285,
                -0.05249498039484024,
                0.02222050353884697,
                0.07686326652765274,
                0.03051469475030899,
                -0.05272355303168297,
                0.06722939014434815,
                0.19012896716594697,
                0.019895512610673906,
                0.14260758459568025,
                0.13497954607009889,
                0.08405060321092606,
                -0.014787672087550164,
                -0.18996481597423554,
                -0.12365074455738068,
                -0.12853899598121644,
                -0.1628362536430359,
                -0.0043655866757035259,
                0.13334551453590394,
                0.16695600748062135,
                0.12357529997825623,
                0.05568964406847954,
                -0.0025137343909591438,
                0.005039623007178307,
                0.052173398435115817,
                -0.017052026465535165,
                0.017692066729068757,
                0.06343674659729004,
                -0.15757794678211213,
                -0.05509678274393082,
                -0.08037583529949188,
                -0.03193983435630798,
                0.04219457134604454,
                0.05616305395960808,
                -0.0014270799001678825,
                -0.053712837398052219,
                0.003915018867701292,
                0.025435198098421098,
                0.11863479763269425,
                0.05486210435628891,
                0.018880154937505723,
                0.126907080411911,
                -0.06265011429786682,
                0.1017981767654419,
                0.0856834426522255,
                0.1306939721107483,
                -0.04721313342452049,
                -0.05663556605577469,
                0.043511196970939639,
                0.03901991620659828,
                0.06573738157749176,
                0.02647116780281067,
                0.019810480996966363,
                0.07774674147367478,
                0.006787694524973631,
                -0.07795268297195435,
                -0.07022902369499207,
                0.014819307252764702,
                -0.030513379722833635,
                -0.09635475277900696,
                -0.12281013280153275,
                -0.034727565944194797,
                0.03543524444103241,
                -0.09636018425226212,
                -0.03297695890069008,
                0.05102481320500374,
                0.0011831943411380053,
                -0.07316643744707108,
                0.1464352309703827,
                0.03562130779027939,
                -0.07406192272901535,
                0.07197902351617813,
                0.05350096523761749,
                -0.08968347311019898,
                0.07460752129554749,
                0.08707554638385773,
                -0.06421943008899689,
                0.07445713877677918,
                0.028956402093172075,
                -0.08540748059749603,
                0.13576792180538178,
                0.09324759989976883,
                -0.11573381721973419,
                0.08296021074056626,
                0.023908207193017007,
                0.002568870550021529,
                0.12322239577770233,
                -0.039330706000328067,
                0.1284606009721756,
                0.10380304604768753,
                0.09688317030668259,
                -0.006571637932211161,
                -0.05089113488793373,
                0.04720728099346161,
                0.022760747000575067,
                -0.05428582802414894,
                -0.11702600866556168,
                0.06313883513212204,
                -0.11741094291210175,
                -0.033845189958810809,
                0.03433004394173622,
                -0.06873849779367447,
                -0.13637855648994447,
                -0.03600785881280899,
                -0.005315611604601145,
                -0.11586237698793411,
                -0.13110555708408357,
                -0.0753229409456253,
                0.03028072975575924,
                0.02316431514918804,
                -0.11818420886993408,
                0.03751068189740181,
                -0.012398602440953255,
                -0.016215195879340173
            ],
            "WeightsRows": 20,
            "WeightsCols": 84,
            "Biases": [
                -0.025102460756897928,
                -0.05103641748428345,
                0.03551032394170761,
                -0.052726972848176959,
                -0.012202945537865162,
                -0.04496726766228676,
                0.00548466807231307,
                0.024130620062351228,
                0.04583427309989929,
                -0.005472610238939524,
                0.05208686366677284,
                0.04498277232050896,
                0.027820447459816934,
                -0.04302655905485153,
                -0.025767650455236436,
                0.010611831210553646,
                0.05406266450881958,
                0.03842637315392494,
                -0.021405665203928949,
                -0.01638592965900898
            ]
        },
        {
            "Weights": [
                -0.2197677344083786,
                0.06626693904399872,
                -0.050794340670108798,
                0.01153386291116476,
                -0.2254728078842163,
                0.192912295460701,
                -0.08159521967172623,
                -0.30674177408218386,
                -0.18533191084861756,
                -0.11266421526670456,
                -0.20953594148159028,
                -0.2876203954219818,
                0.010816930793225766,
                -0.04891788586974144,
                0.09034352004528046,
                -0.07365812361240387,
                -0.13073986768722535,
                0.05526069179177284,
                -0.10417827218770981,
                0.1089734211564064,
                -0.0944446474313736,
                0.01212324295192957,
                0.20912624895572663,
                0.15848584473133088,
                -0.18204663693904878,
                0.1507183462381363,
                -0.041125811636447909,
                -0.07530292868614197,
                -0.11945929378271103,
                -0.08381932228803635,
                0.10066108405590058,
                0.15049958229064942,
                0.15030212700366975,
                -0.15918442606925965,
                0.1653560996055603,
                0.21970967948436738,
                -0.1442902535200119,
                -0.13469256460666657,
                -0.33959853649139407,
                -0.12857255339622498,
                -0.20867353677749635,
                0.24805620312690736,
                -0.2540777921676636,
                0.14747752249240876,
                0.433860719203949,
                0.18802590668201447,
                -0.31271493434906008,
                0.16793496906757356,
                -0.19914336502552033,
                0.31724944710731509,
                -0.09638126194477081,
                -0.05962524935603142,
                -0.21170809864997865,
                -0.1918109953403473,
                -0.06653408706188202,
                -0.11218080669641495,
                -0.04164314642548561,
                -0.03418618440628052,
                0.3265850245952606,
                -0.31531867384910586,
                -0.2361583262681961,
                0.11660484224557877,
                -0.1402975171804428,
                -0.23920303583145142,
                0.09368705004453659,
                0.006900314707309008,
                -0.010285387746989727,
                -0.25920698046684267,
                -0.22973808646202088,
                -0.08247383683919907,
                -0.0019852963741868736,
                -0.30820029973983767,
                -0.2863931655883789,
                0.052982766181230548,
                -0.14696213603019715,
                0.08887369185686112,
                -0.14413534104824067,
                -0.1942567229270935,
                -0.021114667877554895,
                -0.2910769283771515,
                0.15353703498840333,
                -0.04736320674419403,
                -0.00333504774607718,
                -0.10891468077898026,
                -0.30446958541870119,
                0.13848066329956056,
                0.28936052322387698,
                -0.03987521305680275,
                -0.038518041372299197,
                -0.17324510216712953,
                0.23951195180416108,
                0.2565408945083618,
                0.023333316668868066,
                -0.050943370908498767,
                0.059159427881240848,
                -0.10184577107429505,
                0.0032180482521653177,
                -0.1388475000858307,
                -0.11069224029779434,
                -0.136319100856781,
                -0.01913147233426571,
                0.08217409998178482,
                -0.20487883687019349,
                0.09400598704814911,
                0.02157433331012726,
                -0.096704863011837,
                -0.23647625744342805,
                -0.1348649114370346,
                -0.0021166792139410974,
                0.19760094583034516,
                -0.21687425673007966,
                -0.2659511864185333,
                -0.061296213418245319,
                0.2844102382659912,
                -0.14924569427967072,
                -0.18505841493606568,
                0.08529508858919144,
                0.09628839790821076,
                0.02988043799996376,
                0.0678488090634346,
                0.17998385429382325,
                -0.11088259518146515,
                0.17837437987327577,
                0.12609346210956574,
                0.14843817055225373,
                0.22782586514949799,
                0.013894728384912014,
                0.11301111429929733,
                0.08764207363128662,
                0.023963969200849534,
                -0.23304961621761323,
                -0.15299952030181886,
                0.21328647434711457,
                -0.08279590308666229,
                -0.20269446074962617,
                -0.15274055302143098,
                -0.18205127120018006,
                -0.2771584987640381,
                0.11676213145256043,
                0.16654476523399354,
                -0.05752887949347496,
                0.21408696472644807,
                -0.041298218071460727,
                -0.1306292861700058,
                0.2756757140159607,
                -0.024135829880833627,
                -0.17830659449100495,
                -0.002116737887263298,
                0.03356313332915306,
                0.08936718106269837,
                -0.21719907224178315,
                0.14840927720069886,
                -0.2966708242893219,
                -0.32242587208747866,
                -0.0882696732878685,
                0.3081456124782562,
                -0.026844149455428125,
                0.0986279845237732,
                0.264764666557312,
                -0.2515774369239807,
                -0.04182412475347519,
                0.06586797535419464,
                0.13770200312137605,
                -0.1156788095831871,
                -0.15965880453586579,
                -0.18311727046966554,
                0.10960652679204941,
                -0.05098002031445503,
                0.20338816940784455,
                -0.2845158278942108,
                0.1646641194820404,
                -0.0014943551504984499,
                -0.18044090270996095,
                0.04394926130771637,
                0.2341853529214859,
                0.19602487981319428,
                -0.06162373721599579,
                -0.029431670904159547,
                0.06209247559309006,
                0.09576105326414108,
                -0.027135325595736505,
                -0.1087123453617096,
                -0.19647951424121858,
                -0.19378210604190827,
                0.08173350244760513,
                -0.274358332157135,
                -0.054873473942279819,
                -0.039651453495025638,
                -0.0918579176068306,
                -0.2680496573448181,
                -0.1392916589975357,
                0.031190045177936555,
                -0.14141705632209779,
                0.2448441982269287,
                -0.020981796085834504,
                -0.2490316778421402,
                0.022308597341179849,
                0.2120947539806366,
                -0.1611679196357727,
                0.12994609773159028,
                0.13246820867061616,
                0.2609303295612335,
                -0.10663437843322754,
                0.31460970640182497,
                0.07288744300603867,
                0.06283967941999436,
                0.003405502066016197,
                -0.06408696621656418,
                -0.15059635043144227,
                -0.015798069536685945,
                -0.1342127025127411,
                -0.056672219187021258,
                -0.2761232554912567,
                0.1634746491909027,
                0.026433683931827546,
                -0.12586525082588197,
                -0.15677510201931,
                -0.23631832003593446,
                0.2629675269126892,
                0.24941042065620423,
                -0.19713754951953889,
                -0.022205745801329614,
                0.04794107750058174,
                0.10081936419010163,
                -0.07230158895254135,
                0.2503146827220917,
                0.059534791857004169,
                -0.23459438979625703,
                0.06579694896936417,
                0.23093973100185395,
                0.10022386908531189,
                -0.3246476650238037,
                0.05425720289349556,
                0.2956961989402771,
                -0.1598948836326599,
                0.12022697925567627,
                -0.052018389105796817,
                -0.17921578884124757,
                -0.2167242169380188,
                -0.17807269096374513,
                -0.06834299117326737,
                0.19145894050598145,
                -0.013724098913371563,
                0.18301865458488465,
                -0.06432697921991348,
                -0.08177012950181961,
                -0.05154953524470329,
                -0.00013189880701247603,
                -0.09956284612417221,
                0.17931531369686128,
                0.16635696589946748,
                -0.11370418220758438,
                0.04715878888964653,
                -0.1782485842704773,
                0.09941338747739792,
                0.16188028454780579,
                -0.017750447615981103,
                -0.1729663461446762,
                0.09001155197620392,
                -0.10969880223274231,
                -0.006828169338405132,
                -0.27356740832328799,
                0.2097373753786087,
                -0.1671193689107895,
                -0.33919793367385867,
                -0.20098638534545899,
                0.2157064527273178,
                -0.21998177468776704,
                -0.05415763705968857,
                -0.20241862535476685,
                0.14748194813728333,
                0.2204025387763977,
                -0.03695707395672798,
                -0.18493996560573579,
                -0.0794876217842102,
                0.02889859676361084,
                0.3277113437652588,
                0.2314986288547516,
                -0.06051751971244812,
                0.14349478483200074,
                0.07209860533475876,
                -0.21052958071231843,
                0.013679701834917069,
                -0.020728731527924539,
                -0.13998690247535706,
                -0.2430884838104248,
                -0.20585420727729798,
                0.3120172619819641,
                0.14333409070968629,
                -0.30566635727882388,
                0.17865580320358277,
                0.13203716278076173,
                -0.21054008603096009,
                -0.2996888756752014,
                -0.17194925248622895,
                -0.08997055888175965,
                0.094520203769207,
                -0.06739198416471482,
                0.3087424039840698,
                -0.08208201080560684,
                0.14133107662200929,
                0.11155664175748825,
                0.14495237171649934,
                0.09364768117666245,
                0.2757752537727356,
                -0.030007945373654367,
                -0.06552053987979889,
                0.3538607358932495,
                0.14423295855522157,
                -0.193722203373909,
                -0.022095873951911928,
                0.14019785821437837,
                0.08236170560121536,
                -0.31794339418411257,
                -0.01132220309227705,
                0.29011690616607668,
                -0.1133345291018486,
                0.08624260872602463,
                -0.10924170911312103,
                0.16502109169960023,
                0.20272518694400788,
                -0.05811518430709839,
                0.37417516112327578,
                -0.08727476745843888,
                -0.05546124652028084,
                0.11979681998491287,
                -0.011557902209460736,
                -0.04712074249982834,
                0.25818803906440737,
                0.06058172881603241,
                0.21154937148094178,
                0.3118145763874054,
                0.2777593731880188,
                -0.12776146829128266,
                -0.12449951469898224,
                0.22043442726135255,
                -0.1326076090335846,
                0.011322364211082459,
                -0.1677055060863495,
                0.021284064278006555,
                -0.07914295047521591,
                -0.28644460439682009,
                -0.12182676792144776,
                0.045422088354825976,
                -0.3257359266281128,
                -0.0679418221116066,
                -0.09558556228876114,
                0.007919431664049626,
                -0.024749821051955224,
                -0.046809740364551547,
                0.041315894573926929,
                0.07016298174858093,
                0.0968259945511818,
                0.01421442162245512,
                -0.06530821323394776,
                0.07530506700277329,
                -0.06282263994216919,
                0.1666579246520996,
                0.0381435789167881,
                0.08132442086935044,
                0.1414450854063034,
                0.23577509820461274,
                0.26694977283477785,
                -0.1886386275291443,
                0.08405846357345581,
                -0.021609097719192506,
                -0.17440173029899598,
                -0.05058450251817703,
                -0.010912119410932064,
                0.1883138120174408,
                -0.09436652064323425,
                -0.21075047552585603,
                0.20314206182956696,
                -0.22379885613918305,
                -0.1998278647661209,
                -0.14345771074295045,
                -0.18073201179504395,
                -0.032783783972263339,
                -0.3503445088863373,
                -0.04239284247159958,
                -0.06041876599192619,
                -0.07286032289266586,
                -0.07641638815402985,
                0.18275095522403718,
                0.06249716877937317,
                -0.021802425384521486,
                0.13285470008850099,
                0.3303477168083191,
                -0.21411819756031037,
                -0.057319771498441699,
                0.13013170659542085,
                0.30269864201545718,
                0.21554064750671388,
                -0.28989383578300478,
                0.18593817949295045,
                0.0569240003824234,
                -0.044685088098049167,
                -0.10951939970254898,
                0.24371519684791566,
                -0.1534094363451004
            ],
            "WeightsRows": 20,
            "WeightsCols": 20,
            "Biases": [
                -0.11120008677244187,
                0.020140238106250764,
                0.009576736018061638,
                -0.05667458474636078,
                -0.018513737246394159,
                -0.040139276534318927,
                -0.09214481711387634,
                -0.02112521603703499,
                -0.05363753065466881,
                0.020223792642354966,
                -0.23321758210659028,
                -0.031610157340765,
                0.030612263828516008,
                0.1559002846479416,
                0.058828141540288928,
                -0.016612695530056955,
                0.060853999108076099,
                0.016613975167274476,
                0.010493780486285687,
                -0.025951117277145387
            ]
        },
        {
            "Weights": [
                0.2218014895915985,
                -0.031011303886771203,
                0.15847589075565339,
                0.16911378502845765,
                0.19344422221183778,
                0.037460047751665118,
                0.276336669921875,
                0.0216197669506073,
                0.24285292625427247,
                -0.21546924114227296,
                0.3684740364551544,
                0.06663060933351517,
                0.23701056838035584,
                -0.2510856091976166,
                -0.2108398675918579,
                0.14684796333312989,
                -0.1709381639957428,
                -0.13854430615901948,
                -0.015267462469637394,
                0.16525006294250489,
                -0.23896194994449616,
                0.11591573059558869,
                0.17789241671562196,
                -0.14142856001853944,
                0.0315278023481369,
                -0.32237693667411806,
                -0.012903417460620404,
                0.23569540679454804,
                0.028583694249391557,
                -0.32553496956825259,
                -0.4318053126335144,
                0.013047812506556511,
                0.26044467091560366,
                0.1949567049741745,
                0.14850766956806184,
                0.38913747668266299,
                0.3994547426700592,
                -0.14338462054729463,
                0.2390734851360321,
                0.17948459088802339,
                0.23341482877731324,
                -0.07643543183803559,
                -0.012428376823663712,
                0.3383611738681793,
                0.08227712661027909,
                0.15326447784900666,
                0.1028212383389473,
                -0.38527172803878786,
                -0.09226515144109726,
                -0.021595753729343416,
                -0.160196915268898,
                0.5391260981559753,
                -0.12192098796367645,
                0.07552320510149002,
                -0.37216588854789736,
                -0.5032637715339661,
                -0.20174206793308259,
                0.1537131369113922,
                0.1639057993888855,
                -0.4341743588447571,
                -0.27656716108322146,
                -0.4079112410545349,
                0.40463927388191225,
                -0.0067618670873343948,
                -0.11762144416570664,
                0.18982405960559846,
                -0.015918632969260217,
                0.23216105997562409,
                0.05131500959396362,
                0.3281497061252594,
                0.03312359377741814,
                -0.2520195245742798,
                -0.0164862722158432,
                0.18821512162685395,
                0.45442551374435427,
                0.05653028562664986,
                -0.26837027072906496,
                0.22810383141040803,
                -0.2824665904045105,
                0.08220399171113968,
                -0.007582315243780613,
                0.24293430149555207,
                -0.7470912933349609,
                -0.3950187563896179,
                0.41869720816612246,
                -0.2418334186077118,
                0.13368313014507295,
                -0.44517049193382265,
                0.20380692183971406,
                0.17195528745651246,
                -0.23487667739391328,
                -0.1238383799791336,
                -0.14843153953552247,
                0.6018489599227905,
                0.2544322609901428,
                0.23828361928462983,
                0.3801608979701996,
                0.29815956950187685,
                0.12610332667827607,
                0.03484687954187393,
                0.14277921617031098,
                0.018725091591477395,
                0.3100179433822632,
                -0.024492686614394189,
                -0.16290467977523805,
                0.07585589587688446,
                0.3790334165096283,
                0.004053457174450159,
                -0.02111269347369671,
                -0.03493737056851387,
                0.4705597162246704,
                0.13661225140094758,
                -0.012283067218959332,
                -0.5480835437774658,
                0.054324474185705188,
                0.34581685066223147,
                -0.076818086206913,
                0.02449789270758629,
                0.23941101133823396,
                -0.027394138276576997,
                -0.020704487338662149,
                0.18691356480121613,
                0.13144688308238984,
                0.2651478946208954,
                0.06990702450275421,
                -0.06573276966810227,
                -0.11022275686264038,
                0.14814801514148713,
                -0.23711927235126496,
                -0.008462563157081604,
                0.14961747825145722,
                -0.1263064742088318,
                0.03722677007317543,
                -0.16229869425296784,
                -0.2196708470582962,
                0.12092971056699753,
                0.022715743631124498,
                -0.0961320772767067,
                0.08563995361328125,
                0.2567514479160309
            ],
            "WeightsRows": 7,
            "WeightsCols": 20,
            "Biases": [
                -0.39190635085105898,
                0.44188928604125979,
                0.14174383878707887,
                0.09839344024658203,
                0.21241739392280579,
                -0.4312756657600403,
                -0.07124995440244675
            ]
        }
    ]
}