{
    "Layers": [
        {
            "Weights": [
                0.016913186758756639,
                -0.12543149292469026,
                0.05854136496782303,
                0.04099556803703308,
                0.030948473140597345,
                -0.011600500904023648,
                -0.015418529510498047,
                -0.028954850509762765,
                0.05109908804297447,
                -0.10807989537715912,
                -0.037184376269578937,
                -0.05258199945092201,
                -0.0016339750727638603,
                0.004895544145256281,
                0.02597855217754841,
                -0.01602836512029171,
                0.125047966837883,
                -0.041486721485853198,
                -0.09236973524093628,
                0.00463529210537672,
                0.18355554342269898,
                -0.008342359215021134,
                0.012740928679704667,
                0.07302046567201615,
                0.011553013697266579,
                -0.12455808371305466,
                -0.23804745078086854,
                -0.07916524261236191,
                -0.16376645863056184,
                -0.0793786570429802,
                -0.013194799423217774,
                -0.024334382265806199,
                -0.05908234417438507,
                -0.08929266035556793,
                0.058413777500391009,
                -0.05901086702942848,
                0.04424457624554634,
                -0.010877530090510846,
                0.10510162264108658,
                0.033931732177734378,
                0.028576577082276346,
                0.08703061938285828,
                -0.004016771912574768,
                0.05216486006975174,
                0.09314395487308502,
                0.04226488992571831,
                0.08071228861808777,
                0.008618809282779694,
                0.10133911669254303,
                -0.024251513183116914,
                -0.02317749336361885,
                -0.014962894842028618,
                -0.02879413776099682,
                0.12229754775762558,
                -0.04096309840679169,
                -0.16178269684314729,
                0.07236455380916596,
                -0.022746523842215539,
                0.09119909256696701,
                -0.10789502412080765,
                -0.0776086077094078,
                0.13697870075702668,
                -0.005528759211301804,
                0.009150917641818524,
                0.08655282855033875,
                -0.06625094264745712,
                0.12023117393255234,
                -0.09892653673887253,
                0.014937649480998516,
                0.01353788748383522,
                0.11110446602106095,
                -0.017874956130981447,
                -0.12031929194927216,
                -0.19280752539634705,
                0.036363497376441959,
                -0.12148142606019974,
                -0.08584678173065186,
                -0.04170476272702217,
                0.003512718714773655,
                0.012952285818755627,
                0.06018270552158356,
                -0.16328473389148713,
                0.02277187444269657,
                -0.04943249747157097,
                -0.0411788672208786,
                -0.013602436520159245,
                0.031123653054237367,
                -0.13240677118301392,
                -0.0308451559394598,
                -0.08418463170528412,
                -0.08473815023899079,
                -0.1320255845785141,
                -0.04803356155753136,
                -0.017372122034430505,
                0.011960265226662159,
                0.035104673355817798,
                0.08150987327098847,
                0.03637350723147392,
                -0.035290349274873736,
                -0.09996970742940903,
                0.14671511948108674,
                -0.0053206575103104118,
                -0.09015782177448273,
                -0.12447957694530487,
                0.0883854478597641,
                0.12777858972549439,
                0.09704829752445221,
                0.0721084475517273,
                0.059195376932621,
                0.1988384872674942,
                0.16287313401699067,
                0.18102094531059266,
                0.017733506858348848,
                0.10930199176073075,
                0.045091744512319568,
                -0.18028439581394196,
                -0.08439368009567261,
                -0.003878261661157012,
                -0.09127126634120941,
                -0.03140935301780701,
                0.13456620275974275,
                -0.054132964462041858,
                -0.06361720710992813,
                0.042546242475509647,
                -0.02197648584842682,
                0.028127457946538926,
                0.04045405611395836,
                -0.08524638414382935,
                0.07612781226634979,
                0.06252196431159973,
                0.07879269123077393,
                -0.08461232483386994,
                -0.03746959567070007,
                -0.0196303129196167,
                -0.11497923731803894,
                -0.03722453489899635,
                -0.03739301860332489,
                0.0752180740237236,
                -0.1511635184288025,
                -0.00747849652543664,
                0.017568526789546014,
                0.03721492737531662,
                -0.08459028601646424,
                -0.06946857273578644,
                0.09942369908094406,
                -0.06415186077356339,
                0.060628827661275867,
                0.06698654592037201,
                0.001801525941118598,
                0.02364782616496086,
                -0.04818680137395859,
                -0.05700794607400894,
                0.03557403013110161,
                0.06826480478048325,
                0.16000457108020783,
                0.019488049671053888,
                0.032196056097745898,
                0.2101261466741562,
                0.19043822586536408,
                0.13932585716247559,
                0.049235112965106967,
                0.10427533835172653,
                0.006134529132395983,
                0.05592753365635872,
                -0.04364606738090515,
                -0.09581909328699112,
                -0.019463086500763894,
                -0.09142893552780152,
                -0.053663160651922229,
                -0.03708813712000847,
                -0.04478001594543457,
                0.13080836832523347,
                -0.00018708866264205426,
                0.026669779792428018,
                -0.17065545916557313,
                -0.1444835513830185,
                -0.018006611615419389,
                -0.1296783983707428,
                -0.06937897205352783,
                0.0022122070658951999,
                0.0876695066690445,
                0.07170724123716355,
                0.1096908375620842,
                0.005132175516337156,
                -0.022674810141324998,
                -0.024983512237668039,
                -0.07454126328229904,
                0.12114859372377396,
                0.28783270716667178,
                0.04097800701856613,
                0.11524154990911484,
                0.18576031923294068,
                0.018156075850129129,
                -0.06010622903704643,
                -0.23785518109798432,
                -0.0006552828708663583,
                0.0019604049157351257,
                0.0006197051261551678,
                -0.02303468994796276,
                -0.13368605077266694,
                -0.11040960997343064,
                -0.044976767152547839,
                0.12634927034378053,
                0.10264354944229126,
                0.08929216116666794,
                0.02203540876507759,
                0.13077078759670258,
                0.09536820650100708,
                -0.009517556987702847,
                0.017732759937644006,
                0.07392950356006623,
                0.08433522284030914,
                0.06638532131910324,
                0.10195642709732056,
                0.08025197684764862,
                0.09943760931491852,
                0.06798148900270462,
                -0.10362197458744049,
                -0.10893560945987702,
                0.14613813161849976,
                0.15199634432792664,
                0.029511047527194024,
                -0.06352769583463669,
                -0.21828468143939973,
                -0.14070889353752137,
                0.02112681232392788,
                -0.001906474237330258,
                -0.05595903843641281,
                0.01394615601748228,
                0.048381466418504718,
                -0.07569503784179688,
                0.005270614288747311,
                0.019274478778243066,
                0.07491863518953324,
                0.10600494593381882,
                0.10449813306331635,
                0.16767655313014985,
                0.03447301313281059,
                0.19750802218914033,
                0.03566789999604225,
                -0.18112438917160035,
                -0.3079349994659424,
                -0.11202356964349747,
                -0.044347479939460757,
                -0.08437860757112503,
                -0.07356027513742447,
                -0.01080444548279047,
                0.12557688355445863,
                0.08636089414358139,
                -0.07676467299461365,
                -0.06959323585033417,
                0.02305380441248417,
                -0.024150004610419275,
                -0.09839784353971482,
                -0.10199161618947983,
                -0.08346474170684815,
                0.04142984747886658,
                -0.11168742924928665,
                -0.06102567911148071,
                0.11591178178787232,
                0.009531785733997822,
                -0.013010472059249878,
                -0.07309495657682419,
                0.08094887435436249,
                0.020507020875811578,
                0.12071216851472855,
                0.10977809131145477,
                0.10739865899085999,
                0.1274239867925644,
                0.051776137202978137,
                -0.081792913377285,
                0.008128637447953225,
                -0.0036025710869580509,
                0.007531958632171154,
                0.07965897768735886,
                -0.05305920168757439,
                0.1334846466779709,
                0.10475170612335205,
                0.00010089847637573257,
                -0.02053704857826233,
                0.048755012452602389,
                0.08434752374887467,
                -0.10592686384916306,
                -0.09300883114337921,
                -0.026073941960930826,
                -0.1520068347454071,
                -0.14365503191947938,
                -0.14428381621837617,
                0.05889297276735306,
                -0.044651638716459277,
                0.02659635804593563,
                0.04699058085680008,
                0.027219299226999284,
                0.041651401668787,
                0.055533722043037418,
                0.035918351262807849,
                0.07489382475614548,
                -0.10049034655094147,
                0.02164936065673828,
                -0.02735862135887146,
                0.07967530936002732,
                -0.0565074123442173,
                -0.05079437792301178,
                -0.03068559616804123,
                -0.08753038942813873,
                0.001658800058066845,
                -0.11633366346359253,
                0.060664135962724689,
                0.10765499621629715,
                -0.05171647667884827,
                -0.09086564183235169,
                0.06470189243555069,
                -0.0588037446141243,
                -0.05572408810257912,
                0.09705428034067154,
                0.04597534239292145,
                -0.07266052812337876,
                -0.03294684737920761,
                -0.037897415459156039,
                0.08357562869787216,
                0.011488514952361584,
                0.0654907301068306,
                0.06885158270597458,
                0.12570711970329286,
                0.016732865944504739,
                0.0496673546731472,
                0.06582237780094147,
                0.07915600389242172,
                0.11842882633209229,
                0.05688800290226936,
                -0.06205778941512108,
                -0.13399749994277955,
                -0.057058464735746387,
                -0.14011380076408387,
                -0.063165083527565,
                -0.08860980719327927,
                -0.025460386648774148,
                -0.08030839264392853,
                -0.08757130801677704,
                -0.11190715432167053,
                -0.04024824872612953,
                0.016647087410092355,
                -0.08111558109521866,
                -0.12341906875371933,
                -0.06954903900623322,
                -0.14116062223911286,
                -0.08877953886985779,
                -0.06330986320972443,
                0.0278934333473444,
                0.18905161321163178,
                -0.12734203040599824,
                -0.03791924566030502,
                0.07199134677648545,
                0.03977038711309433,
                -0.012864923104643822,
                -0.11664046347141266,
                -0.010257563553750515,
                -0.08015165477991104,
                -0.05957619473338127,
                -0.0873459205031395,
                0.03506186604499817,
                0.23419195413589478,
                0.2644879221916199,
                0.17520378530025483,
                0.034093227237463,
                0.17573893070220948,
                0.06914348155260086,
                -0.05313966050744057,
                -0.010997992940247059,
                -0.10265916585922241,
                -0.20475873351097108,
                -0.08525777608156204,
                0.06676258146762848,
                0.05068791285157204,
                -0.10512512177228928,
                -0.044755104929208758,
                -0.127022847533226,
                -0.008475643582642079,
                -0.02224631980061531,
                -0.07202556729316712,
                0.08882582187652588,
                -0.07704415917396546,
                0.005118370056152344,
                -0.027579188346862794,
                0.002876447746530175,
                -0.023731324821710588,
                -0.14036276936531068,
                0.0519874282181263,
                -0.019521569833159448,
                0.04259519279003143,
                -0.06492359191179276,
                -0.021177060902118684,
                -0.03838919848203659,
                -0.0038593222852796318,
                0.052793681621551517,
                0.06130056083202362,
                0.049423981457948688,
                -0.12131430208683014,
                0.19152963161468507,
                0.06619426608085633,
                0.07047960162162781,
                -0.02530040591955185,
                -0.020501544699072839,
                -0.07467232644557953,
                -0.06419169157743454,
                -0.2013276070356369,
                0.0862206518650055,
                -0.10319524258375168,
                0.14891031384468079,
                0.24933147430419923,
                0.07524523884057999,
                0.13727472722530366,
                0.13190358877182008,
                0.08133803308010102,
                0.08089378476142883,
                -0.12445885688066483,
                -0.1240055114030838,
                -0.023548176512122155,
                -0.13974082469940186,
                -0.127116397023201,
                -0.09574656188488007,
                0.038710817694664,
                0.0765247717499733,
                0.07391447573900223,
                0.0007160922395996749,
                0.033917173743247989,
                -0.056891266256570819,
                0.049360491335392,
                -0.0012133346172049642,
                0.027741217985749246,
                -0.11219925433397293,
                -0.11390525102615357,
                -0.07498577237129212,
                -0.07939434051513672,
                0.0014361839275807143,
                -0.1212732121348381,
                -0.014276602305471897,
                -0.12010711431503296,
                0.015854591503739358,
                0.11551366746425629,
                0.3234017491340637,
                0.16575369238853455,
                0.18639998137950898,
                0.18377549946308137,
                0.07195226103067398,
                0.12399259209632874,
                0.010087328031659127,
                0.01681545563042164,
                0.1705814152956009,
                0.02890709973871708,
                0.05592409893870354,
                -0.24458281695842744,
                -0.07649890333414078,
                -0.09031249582767487,
                -0.037147991359233859,
                -0.031422510743141177,
                -0.07583536952733994,
                0.09616415202617645,
                0.1422397643327713,
                -0.011980360373854638,
                -0.1284635066986084,
                0.06032842397689819,
                -0.09864203631877899,
                -0.04833120107650757,
                0.009766712784767151,
                -0.10318756103515625,
                0.0784473866224289,
                -0.04724551737308502,
                -0.06206178292632103,
                0.06107907369732857,
                -0.10475239902734757,
                0.09426465630531311,
                -0.011011239141225815,
                0.08036492019891739,
                -0.0339469350874424,
                0.018164776265621187,
                -0.016374951228499414,
                -0.002805229974910617,
                -0.01335827074944973,
                0.0531659871339798,
                0.0762866958975792,
                -0.08371932059526444,
                0.03907756507396698,
                -0.11195318400859833,
                -0.12699012458324433,
                0.00011034887575078756,
                -0.0668332502245903,
                0.08479764312505722,
                0.05425844341516495,
                0.022175053134560586,
                0.324127733707428,
                -0.018834732472896577,
                0.09832146018743515,
                -0.008025282062590123,
                0.21396057307720185,
                -0.021666808053851129,
                -0.021875493228435518,
                0.023125747218728067,
                0.05283171683549881,
                0.013622162863612175,
                0.009190103970468045,
                -0.20089296996593476,
                0.04034098610281944,
                -0.0006934284465387464,
                -0.032728999853134158,
                0.03560846671462059,
                0.03307577222585678,
                0.07320453971624375,
                -0.09200020134449005,
                -0.020839130505919458,
                0.04394450783729553,
                -0.02094932459294796,
                0.05115991458296776,
                0.08320888876914978,
                -0.042017582803964618,
                0.08787819743156433,
                -0.14780353009700776,
                -0.06285854429006577,
                0.05949174612760544,
                -0.062031328678131106,
                -0.023756757378578187,
                0.07649952918291092,
                -0.07977989315986633,
                0.08383109420537949,
                0.1857130378484726,
                0.17021307349205018,
                0.047273773699998859,
                -0.04168831184506416,
                -0.10705062001943588,
                -0.13666728138923646,
                -0.2146688550710678,
                -0.033323563635349277,
                -0.10768812894821167,
                -0.10705654323101044,
                -0.026545019820332528,
                0.11780672520399094,
                0.09403214603662491,
                0.10806582868099213,
                0.005385191645473242,
                -0.006133250892162323,
                -0.11796904355287552,
                -0.03734324127435684,
                0.06138758361339569,
                -0.07522091269493103,
                -0.07844367623329163,
                0.06572319567203522,
                0.037566959857940677,
                0.05450209975242615,
                0.020320508629083635,
                -0.10761797428131104,
                0.031763091683387759,
                -0.04539566859602928,
                0.07337398082017899,
                -0.006095729768276215,
                -0.0842064917087555,
                -0.02613525092601776,
                0.06997546553611756,
                0.034771744161844257,
                -0.03217916563153267,
                -0.0026267417706549169,
                -0.045520901679992679,
                0.04235459864139557,
                -0.025973260402679445,
                0.10729658603668213,
                -0.09176125377416611,
                0.11582572758197785,
                -0.1730699986219406,
                -0.064799465239048,
                0.07169938832521439,
                0.02159940078854561,
                -0.09243644028902054,
                0.024630097672343255,
                0.005834657698869705,
                0.06384917348623276,
                -0.05518290027976036,
                0.08072029054164887,
                -0.030036913231015207,
                -0.10995414108037949,
                -0.0371258519589901,
                -0.06002169847488403,
                -0.16839544475078584,
                -0.04467463493347168,
                -0.005489031318575144,
                0.13785329461097718,
                0.19952255487442017,
                0.003748604329302907,
                0.07862603664398194,
                0.10237360745668411,
                -0.06217903271317482,
                -0.03376470506191254,
                0.023037834092974664,
                0.02369721792638302,
                -0.08341138064861298,
                -0.13132303953170777,
                -0.008543559350073338,
                -0.11469657719135285,
                -0.009511669166386128,
                0.01159561239182949,
                -0.06399399042129517,
                0.0525505356490612,
                0.23374658823013307,
                0.1272968351840973,
                0.08981826156377793,
                0.0495779886841774,
                0.1897221803665161,
                0.013566290959715844,
                -0.031685762107372287,
                -0.12367129325866699,
                -0.11092568933963776,
                -0.20401963591575623,
                -0.0627085268497467,
                0.0012892710510641337,
                0.0375530980527401,
                -0.10273627191781998,
                0.10894212871789932,
                -0.10091163963079453,
                0.047045812010765079,
                -0.05163472890853882,
                0.16838066279888154,
                0.03532744571566582,
                -0.006043236702680588,
                -0.16625434160232545,
                0.021158473566174508,
                0.028106993064284326,
                0.0070023806765675549,
                -0.14424024522304536,
                -0.0630134716629982,
                0.06795596331357956,
                0.028614230453968049,
                0.056303467601537707,
                0.0952402800321579,
                0.08849097788333893,
                -0.025694265961647035,
                0.07773984968662262,
                0.020303860306739808,
                0.09203726053237915,
                0.03739994391798973,
                0.034560639411211017,
                -0.10126274824142456,
                -0.07826381921768189,
                0.032902076840400699,
                0.07729946076869965,
                -0.1152290627360344,
                -0.10474950075149536,
                -0.09446854144334793,
                -0.049641478806734088,
                -0.08974863588809967,
                0.07428596913814545,
                -0.04652877524495125,
                -0.007729677017778158,
                0.23920078575611115,
                0.17607206106185914,
                0.0555640272796154,
                0.1880786418914795,
                -0.01909700594842434,
                0.009547939524054528,
                -0.055416040122509,
                -0.011456873267889023,
                0.015155698172748089,
                0.015568781644105912,
                -0.06984560191631317,
                0.11070118844509125,
                -0.017148815095424653,
                -0.05422312766313553,
                0.041407711803913119,
                -0.019679265096783639,
                -0.08438780903816223,
                -0.14161020517349244,
                -0.12977632880210877,
                -0.0640445351600647,
                0.012843177653849125,
                0.08628687262535095,
                -0.036693621426820758,
                -0.11031706631183624,
                -0.03424125164747238,
                0.10537314414978028,
                0.05403655022382736,
                0.04235823452472687,
                -0.038988493382930759,
                -0.10280313342809677,
                -0.030766770243644716,
                0.06265327334403992,
                -0.0371357724070549,
                -0.07238892465829849,
                0.11953447014093399,
                -0.0824965089559555,
                -0.01413834560662508,
                0.00987157505005598,
                0.052641723304986957,
                0.050531864166259769,
                0.08009640127420426,
                -0.01784319058060646,
                0.07898212969303131,
                0.004864649847149849,
                0.08577073365449906,
                -0.005654016509652138,
                -0.0151394447311759,
                -0.14885784685611726,
                -0.15051908791065217,
                -0.06598265469074249,
                -0.003488281974568963,
                -0.10025651752948761,
                0.0471002459526062,
                -0.1338229477405548,
                -0.057794149965047839,
                0.014730476774275303,
                0.0037669790908694269,
                -0.07275620847940445,
                -0.027395395562052728,
                -0.02313779667019844,
                0.11362206190824509,
                0.07364004850387573,
                -0.038980234414339069,
                0.12705574929714204,
                -0.054913461208343509,
                -0.053888220340013507,
                -0.019819047302007676,
                -0.02822123095393181,
                0.04370076209306717,
                0.027465075254440309,
                -0.006899889092892408,
                -0.0601821169257164,
                0.07570487260818482,
                -0.013570092618465424,
                0.0820847824215889,
                0.08544036000967026,
                -0.12974902987480164,
                -0.02711978554725647,
                -0.10521157830953598,
                0.05479911342263222,
                -0.02450587972998619,
                0.06455446034669876,
                -0.11414366960525513,
                0.11002172529697418,
                0.04060518369078636,
                0.001207791967317462,
                0.023145977407693864,
                0.0015344552230089903,
                0.1523256003856659,
                0.06790240108966828,
                -0.07369554787874222,
                -0.01239270344376564,
                -0.03481138497591019,
                0.00781582947820425,
                -0.03129253908991814,
                -0.10188858956098557,
                -0.11735381186008454,
                0.015979530289769174,
                -0.11768025904893875,
                0.001693615922704339,
                -0.038076870143413547,
                -0.037445392459630969,
                -0.1006806492805481,
                -0.12188483029603958,
                -0.08547211438417435,
                -0.09071169793605805,
                -0.018038025125861169,
                -0.058037083595991138,
                0.008426511660218239,
                -0.0370381735265255,
                0.014448489993810654,
                0.006787970196455717,
                -0.006686505861580372,
                -0.012164440006017685,
                -0.0007435170700773597,
                -0.012140482664108277,
                -0.0428151860833168,
                0.06604799628257752,
                0.0124515350908041,
                0.029125917702913286,
                -0.03493873029947281,
                -0.1674197018146515,
                -0.02886231616139412,
                0.00020460624364204705,
                0.016306353732943536,
                -0.08194710314273834,
                0.07506413757801056,
                0.128077432513237,
                0.09644992649555206,
                -0.011152355000376702,
                0.15840618312358857,
                0.23840609192848206,
                0.15821267664432527,
                0.12410460412502289,
                0.16292816400527955,
                -0.006490418687462807,
                -0.09561946988105774,
                -0.15295997262001038,
                0.039528410881757739,
                -0.041475988924503329,
                -0.002686521038413048,
                -0.052381377667188647,
                0.0991501435637474,
                0.08385229110717774,
                -0.04872862994670868,
                -0.011836067773401738,
                -0.012266150675714016,
                0.03036079742014408,
                -0.024424254894256593,
                -0.008677735924720765,
                -0.10368455946445465,
                -0.0200975239276886,
                -0.019410420209169389,
                -0.07085925340652466,
                0.02857593633234501,
                -0.02427527867257595,
                -0.01717820204794407,
                0.04549172893166542,
                0.10389808565378189,
                -0.015932630747556688,
                -0.1672314554452896,
                -0.12264824658632279,
                -0.007153565064072609,
                -0.06892389059066773,
                -0.10223757475614548,
                0.02205052599310875,
                0.08949591219425202,
                -0.2025839239358902,
                -0.004332994110882282,
                -0.13698647916316987,
                -0.13718727231025697,
                -0.03702186048030853,
                0.0541253462433815,
                0.0055657303892076019,
                -0.06536928564310074,
                -0.1479252129793167,
                0.16762220859527589,
                0.05275122448801994,
                0.17392946779727937,
                0.17523154616355897,
                0.154912531375885,
                0.12092061340808869,
                0.0374283529818058,
                0.16874107718467713,
                -0.028291750699281694,
                0.0742483139038086,
                -0.1189073845744133,
                -0.04827377200126648,
                0.015707938000559808,
                0.005561239551752806,
                0.05041728541254997,
                -0.03441883623600006,
                0.08801238983869553,
                0.078237384557724,
                0.074091337621212,
                -0.04056734964251518,
                -0.005823667626827955,
                0.008031327277421952,
                0.049491140991449359,
                0.06026209890842438,
                0.004617901984602213,
                0.025375859811902047,
                0.024691082537174226,
                -0.06791114062070847,
                0.042421165853738788,
                0.06512828171253205,
                -0.07879288494586945,
                0.15247108042240144,
                -0.035282958298921588,
                -0.06284508109092713,
                -0.0197000615298748,
                0.021044472232460977,
                0.04408210888504982,
                0.17296560108661652,
                -0.0023133358918130399,
                0.025082601234316827,
                -0.161478653550148,
                -0.06975442916154862,
                0.08442216366529465,
                0.018212640658020974,
                0.02424045465886593,
                0.07323205471038819,
                0.12914738059043885,
                0.015216825529932976,
                0.08278509974479675,
                0.09262259304523468,
                0.07255145907402039,
                -0.021009135991334916,
                -0.20434293150901795,
                0.051537830382585528,
                0.12818172574043275,
                0.00883952621370554,
                0.09116946160793305,
                0.10836367309093476,
                -0.0934540331363678,
                0.0664399266242981,
                0.035571228712797168,
                0.05036846548318863,
                0.020865723490715028,
                0.03286200389266014,
                0.016372844576835634,
                0.07628314942121506,
                -0.019899582490324975,
                0.0446811318397522,
                -0.03587298095226288,
                -0.060677945613861087,
                -0.020989922806620599,
                -0.1453213095664978,
                -0.04596727341413498,
                -0.042181577533483508,
                -0.03583728149533272,
                0.1301548182964325,
                -0.028939271345734597,
                -0.03284834697842598,
                0.1377049833536148,
                0.14197808504104615,
                -0.08561431616544724,
                0.11283102631568909,
                -0.03239217773079872,
                -0.04814201593399048,
                0.06633882969617844,
                -0.09332109242677689,
                -0.08338011056184769,
                -0.1534218192100525,
                -0.09227736294269562,
                -0.017127597704529764,
                -0.016938455402851106,
                -0.022658921778202058,
                0.05259053036570549,
                0.019612377509474756,
                0.11626189947128296,
                0.04318874701857567,
                0.14222854375839234,
                0.042361434549093249,
                -0.0998832955956459,
                -0.01972094736993313,
                0.0008608222706243396,
                -0.10876858979463577,
                0.09692060202360153,
                -0.050974082201719287,
                0.04620493948459625,
                -0.11140355467796326,
                -0.06600186228752136,
                -0.07044707983732224,
                -0.048081569373607638,
                -0.0016618408262729645,
                0.0411243811249733,
                0.20591983199119569,
                0.14609724283218385,
                0.06536317616701126,
                -0.016300952062010766,
                0.04187283292412758,
                0.047028910368680957,
                -0.14980027079582215,
                -0.10297466069459915,
                -0.10762886703014374,
                -0.09455225616693497,
                -0.05297346040606499,
                -0.12475327402353287,
                -0.056798454374074939,
                -0.023655645549297334,
                -0.11466033011674881,
                -0.03740684315562248,
                -0.024750446900725366,
                0.16391223669052125,
                -0.07564585655927658,
                0.15064693987369538,
                -0.017582545056939126,
                0.14403057098388673,
                0.12620124220848084,
                -0.03769738972187042,
                -0.07988417893648148,
                -0.21103790402412415,
                0.10053589940071106,
                -0.041015177965164188,
                0.026173362508416177,
                -0.04835190251469612,
                -0.09620489180088043,
                0.05428298935294151,
                0.04086119681596756,
                0.029663827270269395,
                0.039160292595624927,
                0.11749263107776642,
                0.07122144103050232,
                0.0016432463889941574,
                -0.030246296897530557,
                0.09808210283517838,
                0.01516803726553917,
                -0.07501854002475739,
                -0.06738169491291046,
                -0.06088342145085335,
                -0.02971372939646244,
                0.05285637453198433,
                0.03272580727934837,
                0.0022718000691384079,
                0.11247517913579941,
                0.10134539753198624,
                0.2106194645166397,
                0.2764681577682495,
                0.1182413175702095,
                -0.050900548696517947,
                -0.13353894650936128,
                -0.0005724123329855502,
                0.0073572495020926,
                -0.054953597486019137,
                -0.08751994371414185,
                -0.15207281708717347,
                -0.13856174051761628,
                -0.2455194592475891,
                -0.1749987155199051,
                -0.06975868344306946,
                0.013164033181965351,
                -0.06670912355184555,
                0.038355592638254169,
                0.07494545727968216,
                0.07461774349212647,
                -0.000926075445022434,
                0.09826652705669403,
                0.05431929603219032,
                0.01699291355907917,
                -0.006111619528383017,
                0.02031027525663376,
                0.038435522466897967,
                0.01674027368426323,
                -0.08876775205135346,
                0.00843646377325058,
                -0.03163132816553116,
                -0.09580157697200775,
                0.02166503667831421,
                -0.027572691440582277,
                0.0404755137860775,
                -0.12167572230100632,
                0.09718666970729828,
                -0.055894143879413608,
                0.016585823148489,
                -0.044946473091840747,
                0.05201229080557823,
                0.09610122442245484,
                0.19637103378772736,
                0.049645401537418368,
                0.08041952550411225,
                0.1312379539012909,
                0.021335940808057786,
                -0.1436939835548401,
                -0.17548152804374696,
                0.0021502606105059387,
                0.018213242292404176,
                -0.15902142226696015,
                0.16270333528518678,
                -0.19208958745002747,
                -0.14457300305366517,
                0.007429209072142839,
                0.06770928204059601,
                -0.014648412354290486,
                0.03229489549994469,
                -0.014768660999834538,
                0.08424495905637741,
                -0.039384596049785617,
                -0.005279934499412775,
                0.06841634213924408,
                -0.10265503823757172,
                -0.03327983617782593,
                -0.05830030143260956,
                0.10490316152572632,
                -0.08426837623119354,
                0.09312236309051514,
                0.054864492267370227,
                -0.019062543287873269,
                0.04760908707976341,
                -0.012655986472964287,
                0.06072248890995979,
                0.009369732812047005,
                -0.06165386736392975,
                0.016396287828683854,
                0.044240470975637439,
                0.04153622314333916,
                -0.09561809152364731,
                -0.10542242974042893,
                0.03630753234028816,
                0.09935487806797028,
                -0.11244390159845352,
                0.03595967963337898,
                -0.004789961967617273,
                0.04745563492178917,
                -0.01613660156726837,
                0.18498550355434419,
                0.1550910919904709,
                0.06952739506959915,
                0.2763002812862396,
                0.15180368721485139,
                -0.03652734309434891,
                -0.28181028366088869,
                -0.10219338536262512,
                -0.07022896409034729,
                -0.1285620927810669,
                -0.0750606581568718,
                -0.12135002017021179,
                0.022767478600144388,
                0.1016022190451622,
                -0.02381013333797455,
                -0.08133423328399658,
                0.026188474148511888,
                0.08627667278051377,
                0.07878302037715912,
                -0.07067904621362686,
                0.0806317925453186,
                0.06079348921775818,
                -0.0419774204492569,
                0.1033817008137703,
                0.10934998840093613,
                0.03036564029753208,
                0.07133565843105316,
                0.062629334628582,
                0.08741873502731323,
                -0.16668395698070527,
                -0.09852256625890732,
                -0.1887562870979309,
                -0.14664170145988465,
                0.06060945615172386,
                -0.01643247716128826,
                -0.0892653688788414,
                0.07758388668298722,
                -0.10464615374803543,
                0.07011181116104126,
                0.012164563871920109,
                -0.2727442979812622,
                0.049926649779081348,
                0.1557912975549698,
                0.019389497116208078,
                -0.09028248488903046,
                -0.08872499316930771,
                -0.13480819761753083,
                0.007015323732048273,
                0.3035033643245697,
                0.0939808189868927,
                0.008291651494801045,
                -0.07314068078994751,
                0.04447563365101814,
                -0.007909008301794529,
                0.08895134180784226,
                0.15516240894794465,
                -0.11143505573272705,
                0.11344689130783081,
                -0.09005934000015259,
                -0.07250551879405976,
                0.09204895794391632,
                0.09208819270133972,
                0.03488829359412193,
                -0.03195244073867798,
                0.10292686522006989,
                0.0480148009955883,
                -0.04210134223103523,
                0.1289176344871521,
                0.012344930320978165,
                -0.07467252016067505,
                0.051007021218538287,
                0.23546531796455384,
                0.12614384293556214,
                0.10759025067090988,
                0.10038908571004868,
                0.14716441929340363,
                0.22746269404888154,
                -0.10105358064174652,
                -0.08090377599000931,
                -0.1399291753768921,
                -0.13355496525764466,
                -0.10744065046310425,
                -0.059830181300640109,
                0.07851863652467728,
                0.1249731183052063,
                0.07776498794555664,
                0.027175728231668474,
                -0.03167964145541191,
                0.10000080615282059,
                0.195286825299263,
                0.10865645855665207,
                -0.0023909551091492178,
                -0.025281142443418504,
                -0.0381544753909111,
                -0.011819723062217236,
                0.011011309921741486,
                -0.1689414530992508,
                -0.012376442551612854,
                0.010078205727040768,
                0.027408001944422723,
                -0.04426407068967819,
                -0.0321531817317009,
                0.04468624293804169,
                -0.036876507103443149,
                -0.10205159336328507,
                -0.024644434452056886,
                -0.07312309741973877,
                0.012492530979216099,
                0.06069242209196091,
                0.05880594253540039,
                -0.01959395408630371,
                0.08385644853115082,
                -0.02602214179933071,
                -0.004422859754413366,
                0.034908413887023929,
                0.12319427728652954,
                -0.02192808873951435,
                -0.09390369057655335,
                -0.0166177935898304,
                -0.03273758292198181,
                -0.08062735199928284,
                0.0885491743683815,
                0.040831308811903,
                -0.07163436710834503,
                0.041232895106077197,
                -0.03548385575413704,
                -0.06462050974369049,
                -0.060137324035167697,
                0.07854294776916504,
                0.02215496078133583,
                -0.04061904549598694,
                -0.04012494906783104,
                0.047008540481328967,
                0.09765030443668366,
                0.129058837890625,
                -0.01800316572189331,
                0.02617681957781315,
                -0.044784318655729297,
                0.05545790493488312,
                -0.13435131311416627,
                0.08858079463243485,
                -0.09557338058948517,
                0.07517672330141068,
                0.020172443240880967,
                0.038771599531173709,
                -0.04549400135874748,
                0.053310468792915347,
                -0.07081729173660279,
                -0.04358623921871185,
                0.08253499865531922,
                0.011135973036289215,
                -0.007410161662846804,
                -0.0001504741667304188,
                0.0012993935961276293,
                -0.022295428439974786,
                0.051586780697107318,
                -0.08786306530237198,
                -0.017611900344491006,
                -0.019077090546488763,
                0.1008002907037735,
                -0.05554835870862007,
                0.1017884686589241,
                0.12937165796756745,
                -0.003222178900614381,
                0.12882179021835328,
                0.024519972503185273,
                0.08262909203767777,
                -0.1471940279006958,
                -0.035693682730197909,
                0.16206330060958863,
                0.00956912711262703,
                -0.04522864893078804,
                0.10802286118268967,
                -0.11205166578292847,
                -0.0874672383069992,
                -0.087966687977314,
                -0.01192757859826088,
                0.027507098391652108,
                -0.004792055580765009,
                0.05115881934762001,
                -0.001733998185954988,
                0.09494522213935852,
                0.10945743322372437,
                -0.059801049530506137,
                0.0421682745218277,
                -0.06133865565061569,
                -0.18715955317020417,
                -0.058598581701517108,
                0.03494937717914581,
                0.07399478554725647,
                0.09022806584835053,
                -0.1141812726855278,
                -0.20990261435508729,
                -0.1342151165008545,
                -0.1663806289434433,
                -0.18191111087799073,
                -0.030256502330303193,
                0.02521621622145176,
                0.03434349223971367,
                0.04282354936003685,
                -0.018865209072828294,
                -0.1542016714811325,
                -0.014458710327744484,
                0.08507795631885529,
                -0.08448310196399689,
                -0.03517258167266846,
                0.01791057549417019,
                -0.030168047174811364,
                0.19811517000198365,
                0.0681653544306755,
                0.057350631803274158,
                0.07870303094387055,
                0.09098787605762482,
                0.1369955837726593,
                -0.01628343015909195,
                -0.10121830552816391,
                -0.15125638246536256,
                0.0645398423075676,
                -0.06072593107819557,
                0.13610021770000459,
                0.024295806884765626,
                0.08352531492710114,
                -0.12591642141342164,
                -0.1810958981513977,
                -0.037535808980464938,
                -0.03270604461431503,
                0.05123141035437584,
                -0.055492471903562549,
                -0.10668705403804779,
                0.04690290614962578,
                0.04324435442686081,
                -0.09883254766464234,
                0.08745415508747101,
                -0.1350606232881546,
                0.005463822744786739,
                -0.15384478867053986,
                0.09657745808362961,
                -0.019816629588603975,
                -0.10701338946819306,
                -0.2151825726032257,
                0.005429378245025873,
                -0.058311644941568378,
                -0.06430827081203461,
                -0.002778522903099656,
                -0.13446061313152314,
                -0.07461986690759659,
                0.07313048839569092,
                0.019916914403438569,
                0.10730328410863877,
                0.20298419892787934,
                0.05167299136519432,
                -0.12830284237861634,
                0.02757083997130394,
                0.06960856914520264,
                0.029843242838978769,
                0.09593017399311066,
                -0.16196180880069734,
                0.027178063988685609,
                -0.18568280339241029,
                0.049951039254665378,
                -0.09755821526050568,
                -0.04064887389540672,
                0.025408392772078515,
                0.013334622606635094,
                0.17130202054977418,
                -0.005285878665745258,
                0.12501023709774018,
                0.0964193195104599,
                0.19909927248954774,
                0.0768062099814415,
                0.07070063054561615,
                -0.008089770562946797,
                0.09701621532440186,
                0.06932289898395539,
                0.0489933006465435,
                0.07028849422931671,
                0.08433286100625992,
                0.007306053303182125,
                0.028758011758327485,
                0.005678261164575815,
                -0.0181287731975317,
                -0.045533522963523868,
                -0.040954310446977618,
                -0.07506420463323593,
                -0.04076417163014412,
                0.00020608452905435115,
                0.08822931349277497,
                0.04881158471107483,
                -0.024168428033590318,
                -0.2053796797990799,
                -0.09880434721708298,
                -0.1415618658065796,
                -0.0937802866101265,
                -0.09192650765180588,
                -0.10657814890146256,
                0.1701405793428421,
                0.012038455344736576,
                -0.03689735755324364,
                0.05435139685869217,
                0.09329231828451157,
                0.1949916034936905,
                0.2311497926712036,
                0.10717867314815521,
                0.16578927636146546,
                -0.007947237230837345,
                0.1011032983660698,
                -0.005123821087181568,
                -0.17311200499534608,
                0.09490497410297394,
                0.020779194310307504,
                -0.04411222040653229,
                0.0572037398815155,
                -0.0346798300743103,
                -0.07445050776004791,
                -0.07269588112831116,
                -0.014869071543216706,
                -0.048826396465301517,
                -0.08193070441484451,
                -0.02169150859117508,
                0.07849608361721039,
                -0.09215986728668213,
                0.020694563165307046,
                -0.036739952862262729,
                0.01127205416560173,
                0.06293585151433945,
                0.003944858442991972,
                0.000673078466206789,
                -0.08695290237665177,
                -0.03163542225956917,
                0.00861319899559021,
                0.0390983484685421,
                -0.009599531069397927,
                0.03933950886130333,
                0.07926799356937409,
                0.1387888789176941,
                -0.10183382034301758,
                -0.011929699219763279,
                -0.12490299344062805,
                -0.11593015491962433,
                -0.13490767776966096,
                -0.17478346824645997,
                -0.08005707710981369,
                -0.0882808193564415,
                -0.11355376243591309,
                0.00489485077559948,
                -0.006933310069143772,
                -0.03796405717730522,
                -0.07627976685762406,
                0.05050458759069443,
                0.07560323178768158,
                0.16902203857898713,
                0.052957016974687579,
                0.057345762848854068,
                0.003604557830840349,
                0.055907852947711948,
                -0.004919898696243763,
                0.041310328990221027,
                0.053910501301288608,
                -0.07188675552606583,
                -0.00949782133102417,
                -0.0873599499464035,
                0.10380531847476959,
                0.10683497041463852,
                -0.03999163210391998,
                0.010201805271208287,
                0.08538714051246643,
                -0.004462822340428829,
                -0.0897378921508789,
                -0.023137006908655168,
                0.0695301815867424,
                0.018033040687441827,
                -0.003147183684632182,
                -0.014695155434310437,
                -0.0603095106780529,
                -0.02071678265929222,
                -0.13139034807682038,
                -0.009612707421183586,
                0.0168679878115654,
                -0.18270152807235719,
                -0.04227222129702568,
                0.04377465322613716,
                -0.14117880165576936,
                0.03201949596405029,
                0.041577551513910297,
                0.11105946451425553,
                0.20057900249958039,
                -0.08190877735614777,
                0.05517531931400299,
                0.11357902735471726,
                0.07113930583000183,
                0.06839094310998917,
                -0.09927666187286377,
                -0.04193722829222679,
                0.16064952313899995,
                0.08018171042203903,
                0.005647405982017517,
                0.10869017243385315,
                0.01853802800178528,
                0.029671207070350648,
                0.04316678270697594,
                0.08952571451663971,
                0.1179504469037056,
                0.07543063163757324,
                0.051525745540857318,
                0.07876673340797425,
                0.01838144287467003,
                -0.063587486743927,
                0.11139101535081864,
                0.07359914481639862,
                -0.018089285120368005,
                -0.10095291584730149,
                -0.07298438251018524,
                -0.03212057054042816,
                -0.07973280549049378,
                0.05899554863572121,
                -0.11616751551628113,
                -0.014187168329954148,
                -0.02994127757847309,
                0.1334698498249054,
                0.09420332312583924,
                -0.09501417726278305,
                -0.17630088329315186,
                -0.12493426352739334,
                -0.19199715554714204,
                -0.13373365998268128,
                -0.02668546326458454,
                0.0029866883996874096,
                -0.10125117748975754,
                -0.10187753289937973,
                -0.06163038685917854,
                -0.01049229595810175,
                0.02292184717953205,
                -0.04480360075831413,
                0.08386465907096863,
                0.03464759886264801,
                0.07690408080816269,
                -0.07639936357736588,
                -0.044358961284160617,
                -0.09835303574800492,
                -0.03596412017941475,
                -0.16097594797611237,
                -0.052644867449998859,
                -0.03489436209201813,
                -0.04921717569231987,
                0.013606065884232521,
                -0.08016045391559601,
                -0.08050034195184708,
                -0.017188167199492456,
                -0.010003997012972832,
                0.10567142069339752,
                0.015807777643203737,
                -0.00861628819257021,
                0.0287609975785017,
                0.01445856038480997,
                0.003986659459769726,
                -0.04241218790411949,
                -0.2845153212547302,
                -0.3581390976905823,
                -0.28157293796539309,
                -0.06294151395559311,
                -0.05593464896082878,
                0.0748671367764473,
                0.09484715014696121,
                0.05611609295010567,
                0.08512931317090988,
                0.03681502118706703,
                0.11746692657470703,
                -0.0011340755736455322,
                0.12545371055603028,
                0.09402140229940415,
                -0.02794426493346691,
                0.009781931526958943,
                0.02735307812690735,
                -0.08068487048149109,
                -0.01356198824942112,
                0.07239790260791779,
                0.06792894750833512,
                -0.014542275108397007,
                0.028080713003873826,
                0.07142631709575653,
                -0.0035767555236816408,
                -0.07849046587944031,
                0.09311991930007935,
                -0.06778866052627564,
                0.018102172762155534,
                -0.022981323301792146,
                -0.022238243371248246,
                -0.10881664603948593,
                -0.17557013034820558,
                -0.0256124809384346,
                0.019102472811937333,
                0.05013114959001541,
                0.007856044918298722,
                0.008895298466086388,
                0.06697238236665726,
                0.01927553117275238,
                -0.042458806186914447,
                0.06722939014434815,
                0.018670782446861268,
                0.08688455820083618,
                0.1182776466012001,
                0.11759263277053833,
                0.12483008205890656,
                -0.034659259021282199,
                -0.2029288113117218,
                -0.18339060246944428,
                -0.20062075555324555,
                -0.26074811816215517,
                -0.05680612102150917,
                0.07150803506374359,
                0.16378678381443025,
                0.038214705884456637,
                0.05680052563548088,
                0.08042269200086594,
                -0.024630410596728326,
                0.052173398435115817,
                -0.10015010088682175,
                -0.00838461797684431,
                0.06914281845092774,
                -0.11614567786455155,
                -0.04199285805225372,
                -0.08037583529949188,
                0.06061217933893204,
                0.05865132063627243,
                0.0924156904220581,
                -0.014513879083096981,
                -0.035256654024124148,
                -0.04091676324605942,
                0.09250491112470627,
                0.08943626284599304,
                0.06924217194318772,
                0.07033822685480118,
                0.1331932246685028,
                0.05411355569958687,
                0.06136472150683403,
                0.13854452967643739,
                0.14854930341243745,
                0.054138630628585818,
                -0.11044751107692719,
                0.043511196970939639,
                0.17471618950366975,
                0.12133784592151642,
                0.06289669126272202,
                0.08478153496980667,
                -0.012427465990185738,
                0.06024367734789848,
                -0.2119717001914978,
                -0.1016034409403801,
                -0.04122916981577873,
                -0.14745566248893739,
                -0.1613229513168335,
                -0.024518420919775964,
                0.10534369200468064,
                -0.0599651075899601,
                -0.0789092555642128,
                -0.13457654416561128,
                0.03706279397010803,
                0.0091885169968009,
                -0.00004893368168268353,
                0.25194019079208376,
                -0.03189057484269142,
                -0.0696769580245018,
                0.056693609803915027,
                0.05350096523761749,
                -0.08968347311019898,
                0.07460752129554749,
                0.08707554638385773,
                -0.06421943008899689,
                0.07445713877677918,
                0.10641605406999588,
                -0.07690588384866715,
                0.20694097876548768,
                0.0903700664639473,
                -0.06397386640310288,
                0.13697291910648347,
                0.1313374787569046,
                -0.037999652326107028,
                0.16755206882953645,
                -0.025140458717942239,
                0.13498342037200929,
                0.1707068383693695,
                0.09688317030668259,
                0.14317123591899873,
                -0.04495806619524956,
                0.059228215366601947,
                -0.08133582770824433,
                -0.07544691860675812,
                -0.022285228595137597,
                0.13741090893745423,
                -0.024302486330270768,
                0.07076472043991089,
                0.03662605956196785,
                0.014363943599164486,
                -0.18807673454284669,
                0.053397808223962787,
                -0.022044509649276735,
                -0.08503565192222595,
                -0.13613823056221009,
                -0.12309887260198593,
                0.03028072975575924,
                -0.1262359917163849,
                -0.07536082714796066,
                -0.056306976824998859,
                -0.04804569110274315,
                -0.11163876950740814
            ],
            "WeightsRows": 20,
            "WeightsCols": 84,
            "Biases": [
                0.0716150775551796,
                -0.017289265990257264,
                0.07848895341157913,
                0.01704585552215576,
                0.1332472264766693,
                -0.05854332074522972,
                -0.1473080962896347,
                0.2217378169298172,
                0.14021793007850648,
                0.0021856704261153938,
                -0.027383005246520044,
                0.08972141891717911,
                0.05161919444799423,
                -0.12219907343387604,
                -0.11941753327846527,
                -0.06408892571926117,
                -0.011740502901375294,
                0.04421789199113846,
                0.041664816439151767,
                0.0798238068819046
            ]
        },
        {
            "Weights": [
                -0.19835121929645539,
                0.06523412466049195,
                -0.015183934941887856,
                0.025216909125447274,
                -0.2743373215198517,
                0.2525222897529602,
                -0.028692344203591348,
                -0.3640141785144806,
                -0.1676812469959259,
                -0.12334516644477844,
                -0.22420884668827058,
                -0.34537625312805178,
                0.059502098709344867,
                -0.016856566071510316,
                0.11240586638450623,
                -0.11994805186986923,
                -0.20121434330940247,
                0.010293930768966675,
                -0.17166554927825929,
                0.19277510046958924,
                -0.05362113565206528,
                0.008392073214054108,
                0.29084107279777529,
                0.13349324464797975,
                -0.22086012363433839,
                0.23920297622680665,
                -0.003935986198484898,
                -0.1157202422618866,
                -0.08353656530380249,
                -0.05650433152914047,
                0.12466392666101456,
                0.153281107544899,
                0.21828137338161469,
                -0.22302326560020448,
                0.17689715325832368,
                0.29259705543518069,
                -0.19081920385360719,
                -0.1736667901277542,
                -0.40372082591056826,
                -0.1144620031118393,
                -0.23367273807525636,
                0.3183203339576721,
                -0.3007427752017975,
                0.1952480971813202,
                0.5629523992538452,
                0.19078056514263154,
                -0.4237613081932068,
                0.24343445897102357,
                -0.2132117599248886,
                0.38037052750587466,
                -0.12220580875873566,
                -0.017656980082392694,
                -0.2989499866962433,
                -0.20544907450675965,
                -0.14219102263450623,
                -0.09881038218736649,
                -0.03973211720585823,
                -0.05575680732727051,
                0.3762401342391968,
                -0.40852198004722597,
                -0.2841172218322754,
                0.09547130018472672,
                -0.19151350855827332,
                -0.24594426155090333,
                0.03553398698568344,
                -0.01226190198212862,
                0.04699898138642311,
                -0.3546411097049713,
                -0.2839747369289398,
                -0.0995495617389679,
                0.011020181700587273,
                -0.32951268553733828,
                -0.3330649137496948,
                0.10895396769046784,
                -0.10526468604803086,
                0.12798283994197846,
                -0.11324959248304367,
                -0.22545017302036286,
                -0.034405846148729327,
                -0.29127055406570437,
                0.1533263474702835,
                -0.0928768739104271,
                0.026138482615351678,
                -0.13905249536037446,
                -0.4419044852256775,
                0.14647527039051057,
                0.3967019021511078,
                -0.1490691602230072,
                -0.066838338971138,
                -0.22119490802288056,
                0.28197628259658816,
                0.22919781506061555,
                0.06892886012792587,
                -0.030246039852499963,
                0.1374557614326477,
                -0.05568750575184822,
                0.016935234889388086,
                -0.16425369679927827,
                -0.16087689995765687,
                -0.09376020729541779,
                -0.049893006682395938,
                0.06866400688886643,
                -0.27706819772720339,
                0.13360713422298432,
                0.05228817090392113,
                -0.17330659925937653,
                -0.2616218626499176,
                -0.08909808099269867,
                -0.005685686133801937,
                0.14752152562141419,
                -0.24869561195373536,
                -0.2862376570701599,
                -0.10026562958955765,
                0.3873710036277771,
                -0.15546034276485444,
                -0.3212057948112488,
                0.09431237727403641,
                0.11714070290327072,
                0.06322982907295227,
                0.14028212428092957,
                0.2529650628566742,
                -0.1276533156633377,
                0.22626303136348725,
                0.14308151602745057,
                0.08114826679229737,
                0.27460798621177676,
                0.06625699251890183,
                0.06747212260961533,
                0.14270803332328797,
                -0.04196404293179512,
                -0.27698543667793276,
                -0.2256491333246231,
                0.3083004951477051,
                -0.07666519284248352,
                -0.19828613102436067,
                -0.27677586674690249,
                -0.29072269797325137,
                -0.2989542484283447,
                0.06798551976680756,
                0.2936445474624634,
                -0.10730460286140442,
                0.23950155079364777,
                -0.11880160868167877,
                -0.12339884787797928,
                0.34059417247772219,
                -0.05772692710161209,
                -0.24281463027000428,
                0.013353148475289345,
                -0.0222662054002285,
                0.1384812891483307,
                -0.19814537465572358,
                0.1841595321893692,
                -0.4045443534851074,
                -0.329243928194046,
                -0.12076569348573685,
                0.37632209062576296,
                0.04764782637357712,
                0.09636590629816055,
                0.3464174270629883,
                -0.38610056042671206,
                -0.04248834028840065,
                0.03639881685376167,
                0.14061833918094636,
                -0.13080711662769319,
                -0.20624028146266938,
                -0.21497823297977448,
                0.14222212135791779,
                -0.06522026658058167,
                0.19400054216384889,
                -0.3209398686885834,
                0.19028383493423463,
                0.004461188800632954,
                -0.162604421377182,
                0.05741022527217865,
                0.26837286353111269,
                0.18828250467777253,
                -0.03112303838133812,
                -0.013051475398242474,
                0.0676414743065834,
                0.12032169848680496,
                -0.06619787961244583,
                -0.14768661558628083,
                -0.26637768745422366,
                -0.17999842762947083,
                0.0953802540898323,
                -0.3954981565475464,
                -0.07782609015703201,
                0.0294264554977417,
                -0.10115062445402146,
                -0.3425741195678711,
                -0.13528844714164735,
                0.029838960617780687,
                -0.16165992617607118,
                0.34454306960105898,
                -0.002532336162403226,
                -0.37693673372268679,
                0.0711180791258812,
                0.2816813290119171,
                -0.11082594096660614,
                0.20067772269248963,
                0.164838507771492,
                0.29058030247688296,
                -0.08898746222257614,
                0.3992950916290283,
                0.07819197326898575,
                0.12234776467084885,
                0.009126048535108567,
                -0.0310723464936018,
                -0.09206634014844895,
                -0.04753788933157921,
                -0.1918407827615738,
                -0.13024401664733888,
                -0.21509835124015809,
                0.24506358802318574,
                0.005236778873950243,
                -0.3321363627910614,
                -0.2833002507686615,
                -0.31214287877082827,
                0.19103595614433289,
                0.39293238520622256,
                -0.16545026004314423,
                -0.013228802010416985,
                0.0961042046546936,
                0.09214422106742859,
                -0.08893722295761109,
                0.3344680964946747,
                0.09168779104948044,
                -0.28036192059516909,
                0.08551771193742752,
                0.25520801544189455,
                0.07627148926258087,
                -0.3583713173866272,
                0.09752840548753739,
                0.27948126196861269,
                -0.15894699096679688,
                0.13657930493354798,
                -0.1187286227941513,
                -0.20309221744537354,
                -0.2859364151954651,
                -0.13969941437244416,
                -0.07992370426654816,
                0.21586664021015168,
                -0.008688289672136307,
                0.16690567135810853,
                -0.04855211824178696,
                -0.05350678414106369,
                -0.06065339967608452,
                -0.024971624836325647,
                -0.1338331401348114,
                0.23833352327346803,
                0.19463106989860536,
                -0.0782589465379715,
                0.009333145804703236,
                -0.24522224068641663,
                0.09558849036693573,
                0.2936303913593292,
                0.021373506635427476,
                -0.1960134357213974,
                0.10645340383052826,
                -0.22172731161117555,
                -0.061198510229587558,
                -0.3170144557952881,
                0.18613147735595704,
                -0.21326614916324616,
                -0.3679531216621399,
                -0.2741093635559082,
                0.2138396054506302,
                -0.21093694865703584,
                -0.09169061481952667,
                -0.19206513464450837,
                0.21793733537197114,
                0.2561016082763672,
                -0.059476885944604877,
                -0.12003829330205918,
                -0.030417796224355699,
                0.0962938591837883,
                0.4567936360836029,
                0.29747864603996279,
                -0.030924484133720399,
                0.110489621758461,
                0.0827985554933548,
                -0.18902036547660829,
                0.014463940635323525,
                -0.012335138395428658,
                -0.04565562680363655,
                -0.2966214120388031,
                -0.301285058259964,
                0.45446833968162539,
                0.17125217616558076,
                -0.29185330867767336,
                0.17873764038085938,
                0.19654421508312226,
                -0.2147817760705948,
                -0.346108615398407,
                -0.22237245738506318,
                -0.12112926691770554,
                0.12731598317623139,
                -0.0011253405828028918,
                0.37598326802253725,
                -0.1364910751581192,
                0.1992567777633667,
                0.16236312687397004,
                0.23240448534488679,
                0.11374035477638245,
                0.31342509388923647,
                0.03876197338104248,
                -0.11134766042232514,
                0.40942418575286868,
                0.19368509948253632,
                -0.1632874459028244,
                -0.033008892089128497,
                0.14516478776931764,
                0.14873267710208894,
                -0.4001166522502899,
                -0.05197643116116524,
                0.2688635587692261,
                -0.17197363078594209,
                0.0671921893954277,
                -0.13662683963775636,
                0.1538449227809906,
                0.26583394408226015,
                -0.02868265099823475,
                0.4760689437389374,
                -0.11368335783481598,
                -0.08894453197717667,
                0.23203952610492707,
                0.012389876879751683,
                -0.08312840759754181,
                0.3022231161594391,
                0.10818856209516525,
                0.19710314273834229,
                0.2974589467048645,
                0.35868707299232485,
                -0.22997158765792848,
                -0.1454704850912094,
                0.2857635021209717,
                -0.2056092917919159,
                -0.0195169560611248,
                -0.2306932806968689,
                0.003420925932005048,
                -0.09950509667396546,
                -0.34146109223365786,
                -0.17381718754768372,
                0.03642714023590088,
                -0.33259665966033938,
                -0.17122463881969453,
                -0.0979943498969078,
                0.055729106068611148,
                -0.018106728792190553,
                -0.11745535582304001,
                0.04290462285280228,
                0.07512860745191574,
                0.08994609862565994,
                0.08270718157291413,
                -0.047720689326524737,
                -0.024626506492495538,
                -0.01925654336810112,
                0.23757155239582063,
                0.0886727049946785,
                0.1490025520324707,
                0.2263796329498291,
                0.2636469900608063,
                0.39267227053642275,
                -0.19740089774131776,
                0.055177439004182819,
                0.11212432384490967,
                -0.15382280945777894,
                -0.0882631242275238,
                0.06057973578572273,
                0.21997858583927155,
                -0.12081751227378845,
                -0.2406408041715622,
                0.3112550377845764,
                -0.3066118657588959,
                -0.22553367912769319,
                -0.12445642799139023,
                -0.29971516132354739,
                -0.06750108301639557,
                -0.45512616634368899,
                -0.00856049731373787,
                -0.09023511409759522,
                -0.05797579139471054,
                -0.09596961736679077,
                0.17615918815135957,
                0.08311847597360611,
                -0.0373387411236763,
                0.10850882530212403,
                0.33340543508529665,
                -0.24722515046596528,
                -0.026397699490189554,
                0.16878360509872437,
                0.3378930985927582,
                0.1684560924768448,
                -0.3217819631099701,
                0.18639880418777467,
                0.13186481595039369,
                0.0182771198451519,
                -0.11597634851932526,
                0.28010064363479617,
                -0.2374720573425293
            ],
            "WeightsRows": 20,
            "WeightsCols": 20,
            "Biases": [
                -0.17984120547771455,
                -0.006169512402266264,
                0.1257447600364685,
                -0.22992052137851716,
                -0.18923813104629517,
                -0.014824406243860722,
                -0.01996186561882496,
                -0.007355953566730022,
                -0.07915430516004563,
                0.07632987201213837,
                -0.17366735637187959,
                -0.0660247728228569,
                -0.023782044649124147,
                0.07747410237789154,
                0.2586847245693207,
                0.16301648318767548,
                0.10191649943590164,
                0.06368593126535416,
                0.09560123831033707,
                -0.04372641444206238
            ]
        },
        {
            "Weights": [
                0.3713827133178711,
                0.019983554258942605,
                0.009569604881107808,
                0.29259195923805239,
                0.3249964118003845,
                0.03880610689520836,
                0.24359838664531709,
                -0.1071624681353569,
                0.33067506551742556,
                -0.2112685739994049,
                0.46529924869537356,
                0.15076404809951783,
                0.24274995923042298,
                -0.18795731663703919,
                -0.3559544086456299,
                0.004849869757890701,
                -0.23831532895565034,
                -0.13044790923595429,
                -0.08694446831941605,
                0.13462364673614503,
                -0.382371187210083,
                0.212350994348526,
                0.39741015434265139,
                -0.16818282008171082,
                -0.04229806363582611,
                -0.48391175270080569,
                -0.07157889753580094,
                0.523048460483551,
                -0.055369697511196139,
                -0.5589413642883301,
                -0.6503468751907349,
                0.008914927951991558,
                0.4367522597312927,
                0.08740837872028351,
                0.2565758526325226,
                0.5030760169029236,
                0.5543926358222961,
                -0.23744243383407594,
                0.35971397161483767,
                0.32282668352127077,
                0.3203645348548889,
                -0.050751108676195148,
                -0.1058209240436554,
                0.4037145972251892,
                0.13854731619358064,
                0.15836428105831147,
                0.08728273212909699,
                -0.4569302201271057,
                -0.051542144268751147,
                -0.014156305231153965,
                -0.13033071160316468,
                0.5945408940315247,
                -0.14092664420604707,
                0.10918915271759033,
                -0.47030597925186159,
                -0.5825251340866089,
                -0.23570387065410615,
                0.16833028197288514,
                0.13573989272117616,
                -0.47671058773994448,
                -0.42559772729873659,
                -0.6594401597976685,
                0.5502495765686035,
                -0.030756769701838495,
                -0.2528288662433624,
                0.374586820602417,
                -0.21262212097644807,
                0.3793984353542328,
                0.02699451893568039,
                0.5707554817199707,
                0.037184227257966998,
                -0.44560158252716067,
                -0.05375933647155762,
                0.2236880660057068,
                0.6549874544143677,
                0.027909599244594575,
                -0.542600691318512,
                0.31990641355514529,
                -0.5580857396125794,
                0.14654144644737245,
                0.025874624028801919,
                0.279569536447525,
                -0.987794041633606,
                -0.43685320019721987,
                0.5259677171707153,
                -0.2933082580566406,
                0.15040823817253114,
                -0.6217842698097229,
                0.2905550003051758,
                0.23440249264240266,
                -0.27154216170310976,
                -0.14600792527198792,
                -0.2161523848772049,
                0.7541136741638184,
                0.23973186314105988,
                0.23971985280513764,
                0.4420534372329712,
                0.3741108477115631,
                0.12985113263130189,
                0.00971865002065897,
                0.020313309505581857,
                -0.012914196588099003,
                0.52147376537323,
                -0.2834550738334656,
                -0.36109185218811037,
                0.11152279376983643,
                0.7377245426177979,
                0.009008091874420643,
                -0.20495757460594178,
                -0.07894352823495865,
                0.514431357383728,
                0.09244406223297119,
                -0.1199364960193634,
                -0.7569266557693481,
                0.15713933110237122,
                0.6222697496414185,
                0.14584216475486756,
                -0.04863576218485832,
                0.5564205050468445,
                -0.11959391832351685,
                0.12421156466007233,
                0.2603326141834259,
                0.03787645325064659,
                0.4278614819049835,
                0.18202996253967286,
                -0.07959315180778504,
                -0.18198101222515107,
                0.08565869182348252,
                -0.16029635071754456,
                -0.047743555158376697,
                0.23021796345710755,
                -0.0018138268496841193,
                0.08683601766824722,
                -0.13042539358139039,
                -0.3731565773487091,
                -0.021032104268670083,
                -0.04121047258377075,
                -0.11939486861228943,
                0.019703654572367669,
                0.23956376314163209
            ],
            "WeightsRows": 7,
            "WeightsCols": 20,
            "Biases": [
                -0.6619216799736023,
                0.5574890971183777,
                0.0015398419927805663,
                0.24536128342151643,
                0.19175390899181367,
                0.05774834007024765,
                -0.391954630613327
            ]
        }
    ]
}