{
    "Layers": [
        {
            "Weights": [
                0.5495436191558838,
                0.8800774812698364,
                0.21700087189674378,
                -0.7991728186607361,
                -0.23915234208106996,
                -0.08530530333518982,
                0.2774413228034973,
                0.022017743438482286,
                -0.07196082174777985,
                -0.2442113161087036,
                0.6973307728767395,
                -0.1598830223083496,
                -0.03356778249144554,
                -0.6227987408638,
                0.3368384540081024,
                0.20694446563720704,
                -0.3399571180343628,
                0.35912999510765078,
                -0.7311609387397766,
                -0.16936855018138886,
                0.14944319427013398,
                -0.04286018759012222,
                -0.018784912303090097,
                0.6449914574623108,
                -0.8847301602363586,
                0.4293787181377411,
                0.6466469168663025,
                0.06016341969370842,
                -0.1585007607936859,
                0.7199884057044983,
                0.12227226048707962,
                0.06751758605241776,
                0.11156581342220307,
                0.35494348406791689,
                0.122987762093544,
                -0.48195987939834597,
                -0.5128477215766907,
                -0.6262351274490356,
                0.5409964919090271,
                -0.4061272442340851,
                0.02933579869568348,
                -0.7342675924301148,
                -0.11320512741804123,
                -0.5893885493278503,
                0.17761479318141938,
                0.8785519599914551,
                -0.5199551582336426,
                -0.10100854188203812,
                0.42168813943862917,
                -0.2636071741580963,
                0.1002930998802185,
                0.07667186856269837,
                0.019591812044382097,
                -0.2561611533164978,
                -0.45878058671951296,
                -0.6076107621192932,
                0.017317695543169977,
                1.4704846143722535,
                -0.23585255444049836,
                -0.2655079960823059,
                -0.43343251943588259,
                -0.5755479335784912,
                0.07523612678050995,
                0.2577575147151947,
                1.05451500415802,
                -1.1892035007476807,
                0.34025177359580996,
                -0.040449805557727817,
                0.5940738916397095,
                -0.6902607083320618,
                0.5667109489440918,
                -0.19207511842250825,
                -0.04771743714809418,
                0.15918385982513429,
                0.9621947407722473,
                0.8339936137199402,
                0.5309281349182129,
                -0.7218061685562134,
                0.6119933128356934,
                -0.377372682094574,
                0.18076170980930329,
                0.5463057160377502,
                0.008234488777816296,
                0.28633275628089907,
                -0.13466514647006989,
                0.095332071185112,
                -0.2607293426990509,
                0.7829487919807434,
                -0.0950678363442421,
                -0.9175256490707398,
                -0.6341592073440552,
                0.19579045474529267,
                0.15887956321239472,
                0.4781104326248169,
                -0.3182743787765503,
                -0.49355435371398928,
                -0.4677300751209259,
                -0.28403693437576296,
                -0.5038799047470093,
                0.9874312281608582,
                -0.6700426340103149,
                0.8090285062789917,
                0.17854344844818116,
                0.5402670502662659,
                0.7473942041397095,
                -0.24311727285385133,
                0.07169675081968308,
                -0.5938595533370972,
                -0.15397237241268159,
                0.6387220621109009,
                -0.7339243292808533,
                -0.034555479884147647,
                -0.4031176269054413,
                -0.30475935339927676,
                -0.873095691204071,
                0.5455852746963501,
                -0.5807819962501526,
                0.44519364833831789,
                0.40717440843582156,
                -0.15948586165905,
                0.2163960188627243,
                -0.4311498999595642,
                0.1365436315536499,
                -0.08489754050970078,
                -0.5174586176872253,
                -0.12137056142091751,
                0.020013118162751199,
                -0.17384673655033112,
                0.07470183819532395,
                0.7321555614471436,
                0.2702402174472809,
                0.06627567857503891,
                0.09118445217609406,
                0.11168540269136429,
                0.2306939959526062,
                0.3240210711956024,
                0.6419311761856079,
                -0.03844163939356804,
                -0.711715579032898,
                0.4696076214313507
            ],
            "WeightsRows": 7,
            "WeightsCols": 20,
            "Biases": [
                -0.4578748345375061,
                -0.4735439717769623,
                0.4100852310657501,
                0.6103090047836304,
                0.09719394147396088,
                -0.046187520027160647,
                -0.13998174667358399
            ]
        }
    ]
}