{
    "Layers": [
        {
            "Weights": [
                0.4790513515472412,
                1.0177205801010132,
                0.21699483692646027,
                -0.8729858994483948,
                -0.24151337146759034,
                -0.035097990185022357,
                0.4472011625766754,
                -0.2521471679210663,
                -0.06547308713197708,
                -0.16266557574272157,
                0.7011692523956299,
                -0.14845967292785645,
                -0.1304648071527481,
                -0.8688905835151672,
                0.4339698255062103,
                0.1648038774728775,
                -0.25032901763916018,
                0.37822070717811587,
                -0.37977927923202517,
                -0.16364268958568574,
                0.43579432368278506,
                -0.2440531849861145,
                -0.019440438598394395,
                0.7758199572563171,
                -0.8040198683738709,
                0.493443101644516,
                0.7335430383682251,
                0.1290668100118637,
                0.2741760313510895,
                0.42366597056388857,
                0.039845921099185947,
                0.15209656953811646,
                0.09437008202075958,
                0.45456627011299136,
                0.36380547285079958,
                -0.6047727465629578,
                -0.20760475099086762,
                -0.5005422234535217,
                0.7167678475379944,
                -0.4342803955078125,
                0.02905449829995632,
                -0.7622613310813904,
                -0.11320509016513825,
                -0.9516727924346924,
                0.1460886299610138,
                0.8005033135414124,
                -0.5199641585350037,
                -0.3265504240989685,
                0.44265154004096987,
                -0.40309056639671328,
                0.058452729135751727,
                0.05978236719965935,
                -0.00900225155055523,
                -0.6233215928077698,
                -0.7000212073326111,
                -0.6344569325447083,
                -0.06352035701274872,
                1.5598301887512208,
                -0.43643689155578616,
                -0.25173187255859377,
                -0.7717205286026001,
                -0.4975837469100952,
                0.07596401125192642,
                0.29861587285995486,
                1.087759256362915,
                -1.3358302116394044,
                0.14330045878887177,
                0.02506459504365921,
                0.5326288938522339,
                -0.42113539576530459,
                0.5363265872001648,
                -0.2485731989145279,
                0.20372264087200166,
                0.23627838492393495,
                0.8971060514450073,
                0.9952001571655273,
                0.6136460900306702,
                -0.823908805847168,
                0.8110228180885315,
                -0.4743846356868744,
                0.2751389145851135,
                0.8243546485900879,
                0.008208309300243855,
                0.4691303074359894,
                -0.11459513753652573,
                0.2332615852355957,
                -0.1926947683095932,
                1.2382912635803223,
                -0.35353943705558779,
                -1.0684089660644532,
                -0.5409708023071289,
                0.1982721984386444,
                0.4001590609550476,
                0.7465638518333435,
                -0.1071225106716156,
                -0.454944908618927,
                -0.6134659647941589,
                -0.2108660638332367,
                -0.4052199721336365,
                0.9643746018409729,
                -0.8781998157501221,
                0.7840855717658997,
                0.17854344844818116,
                0.5153166055679321,
                0.6667993664741516,
                -0.20352531969547273,
                0.16811242699623109,
                -0.7695063352584839,
                -0.15949395298957826,
                0.7235748767852783,
                -0.7946734428405762,
                -0.04843626543879509,
                -0.4513860046863556,
                -0.3996451795101166,
                -1.0459415912628174,
                0.5081945061683655,
                -0.7012116312980652,
                0.47562557458877566,
                0.2462642639875412,
                -0.08208639174699784,
                0.4528805613517761,
                -0.6706768274307251,
                0.13654515147209168,
                0.021664610132575036,
                -0.5369943380355835,
                -0.1884186714887619,
                -0.2041313648223877,
                -0.088248111307621,
                -0.05998363345861435,
                0.8833156824111939,
                0.3886089622974396,
                0.0550609715282917,
                -0.2105749547481537,
                0.37465763092041018,
                0.16077645123004914,
                0.3534073531627655,
                0.511365532875061,
                -0.27391672134399416,
                -1.175054669380188,
                0.5209267735481262
            ],
            "WeightsRows": 7,
            "WeightsCols": 20,
            "Biases": [
                -0.5356012582778931,
                -0.045238833874464038,
                -0.14606431126594544,
                0.9660539627075195,
                0.34043484926223757,
                -0.4149727523326874,
                -0.16460444033145905
            ]
        }
    ]
}